svm_type c_svc
kernel_type polynomial
degree 3
gamma 0.0833333
coef0 0
nr_class 2
total_sv 24
rho -1.20862
label 1 -1
nr_sv 12 12
SV
0.0008513175651792546 1:-4.89 2:-2.21 3:-4.5 4:-4.94 5:0.44 6:-3.41 7:-3.76 8:-2.81 9:1.04 10:-1.75 11:-2.48 12:2.88 
1.478938806483661e-05 1:-6.22 2:0.45 3:-8.48 4:3.03 5:-0.89 6:-4.74 7:4.21 8:-0.15 9:-0.28 10:2.23 11:4.16 12:1.55 
2.978809782969859e-07 1:-8.87 2:-10.18 3:15.42 4:9.67 5:0.44 6:-12.71 7:-7.74 8:-2.81 9:-26.85 10:-9.72 11:6.81 12:12.18 
0.0002215918674567834 1:-7.54 2:-6.19 3:-11.14 4:-2.28 5:-3.55 6:0.57 7:2.88 8:-2.81 9:-0.28 10:-3.08 11:-1.15 12:2.88 
0.0002261689324868796 1:-6.22 2:-2.21 3:-0.51 4:-3.61 5:-3.55 6:-2.08 7:1.55 8:2.5 9:3.7 10:-1.75 11:1.5 12:1.55 
0.0005123637207852721 1:-6.22 2:-6.19 3:-0.51 4:-4.94 5:-2.22 6:0.57 7:-5.09 8:-0.15 9:2.37 10:0.9 11:1.5 12:0.22 
0.0003805145950918962 1:-6.22 2:-0.88 3:-0.51 4:-7.59 5:-0.89 6:-3.41 7:-1.1 8:-2.81 9:2.37 10:0.9 11:2.83 12:0.22 
4.084953807044056e-06 1:-8.87 2:-11.5 3:-5.83 4:-6.26 5:5.75 6:7.21 7:1.55 8:1.18 9:-5.6 10:-1.75 11:-5.14 12:-3.76 
1.756682774501751e-05 1:-4.89 2:-6.19 3:-3.17 4:-7.59 5:1.77 6:-6.07 7:2.88 8:1.18 9:-8.25 10:-7.07 11:0.17 12:-1.1 
0.0002468258896764653 1:-3.56 2:-2.21 3:-8.48 4:-8.92 5:1.77 6:-0.75 7:2.88 8:-4.14 9:3.7 10:-1.75 11:1.5 12:0.22 
4.304342482331426e-05 1:0.43 2:-14.16 3:-5.83 4:-6.26 5:-0.89 6:1.9 7:0.23 8:1.18 9:-1.61 10:3.56 11:-1.15 12:-6.42 
2.522198902077134e-07 1:3.08 2:-44.71 3:-1.84 4:-3.61 5:1.77 6:-8.72 7:-1.1 8:-2.81 9:-2.94 10:-8.39 11:-2.48 12:-2.43 
-0.0002456704050563943 1:-7.54 2:-7.52 3:-4.5 4:-2.28 5:-0.89 6:-3.41 7:-1.1 8:-1.48 9:3.7 10:-7.07 11:-2.48 12:5.54 
-0.001489549206995885 1:-2.23 2:-3.54 3:-5.83 4:0.38 5:-0.89 6:-0.75 7:-2.43 8:2.5 9:3.7 10:-0.43 11:2.83 12:6.86 
-7.353445627893888e-06 1:8.39 2:-3.54 3:-7.15 4:-7.59 5:-15.5 6:0.57 7:-3.76 8:-0.15 9:-12.24 10:8.87 11:6.81 12:6.86 
-3.398473523522983e-05 1:-7.54 2:-4.86 3:-8.48 4:-8.92 5:0.44 6:-4.74 7:-2.43 8:-1.48 9:1.04 10:2.23 11:-1.15 12:-1.1 
-0.0001047395441686144 1:-6.22 2:-6.19 3:-9.81 4:-7.59 5:0.44 6:-2.08 7:-2.43 8:-2.81 9:2.37 10:2.23 11:-1.15 12:1.55 
-0.0003349934058924328 1:-7.54 2:-3.54 3:-5.83 4:-10.25 5:0.44 6:-3.41 7:-1.1 8:-1.48 9:3.7 10:0.9 11:2.83 12:2.88 
-5.470787510056163e-05 1:-7.54 2:-6.19 3:-7.15 4:-7.59 5:-0.89 6:-4.74 7:-1.1 8:-1.48 9:1.04 10:3.56 11:1.5 12:-3.76 
-0.0001471528300955246 1:-7.54 2:-6.19 3:-5.83 4:-8.92 5:-0.89 6:-3.41 7:-5.09 8:-2.81 9:1.04 10:2.23 11:2.83 12:-3.76 
-5.9844034030099e-05 1:-7.54 2:-10.18 3:-9.81 4:-8.92 5:-2.22 6:0.57 7:-2.43 8:-1.48 9:-0.28 10:-4.41 11:-3.81 12:-6.42 
-1.585413525463719e-05 1:-7.54 2:-8.85 3:-8.48 4:-6.26 5:-0.89 6:-2.08 7:-2.43 8:-1.48 9:-0.28 10:-11.05 11:0.17 12:0.22 
-7.772458525551251e-06 1:-3.56 2:19.04 3:-4.5 4:-2.28 5:0.44 6:4.56 7:0.23 8:1.18 9:7.68 10:7.54 11:8.14 12:9.52 
-1.719519000244472e-05 1:-3.56 2:-4.86 3:2.14 4:-4.94 5:1.77 6:-6.07 7:0.23 8:2.5 9:6.36 10:11.53 11:5.49 12:8.19 
