svm_type nu_svc
kernel_type linear
nr_class 2
total_sv 1504
rho -1.539
label 1 -1
probA -3.70281
probB 0.803447
nr_sv 752 752
SV
2.703657262854476e-06 0:25.75 1:-17.53 2:13.14 3:-1.32 4:-14.62 5:-11.41 6:-31.46 7:-17.99 8:2.73 9:4.7 10:8.66 11:-7.67 12:-8.25 
2.703657262854476e-06 0:25.92 1:-19.46 2:7.56 3:-6.03 4:-12.7 5:1.22 6:-19.13 7:-19.88 8:-18.73 9:10.39 10:4.94 11:-1.15 12:-18.08 
2.703657262854476e-06 0:25.5 1:-15.18 2:9.89 3:-6.35 4:-7.21 5:-32.61 6:-21.88 7:-8.12 8:-20.09 9:3.15 10:3.39 11:-12.53 12:-10.51 
2.703657262854476e-06 0:23.55 1:-8.54 2:7.74 3:-18.68 4:-13.46 5:-7.33 6:-13.24 7:0.8 8:0.74 9:-1.18 10:-6.24 11:5.43 12:6.52 
2.703657262854476e-06 0:23 1:-3.3 2:17.18 3:-9.35 4:-27.28 5:-18.54 6:-8.75 7:-4.15 8:-3.12 9:-4.19 10:-4.36 11:4.99 12:5.79 
2.703657262854476e-06 0:22.79 1:-12.71 2:17.94 3:-7.99 4:-2.38 5:-6.52 6:-23.97 7:13.73 8:-11.2 9:1.35 10:8.23 11:2.78 12:4.57 
2.703657262854476e-06 0:23.76 1:-8.73 2:8.97 3:-23.87 4:-23.22 5:-4.45 6:-24.62 7:-1.81 8:-10.8 9:12.25 10:-0.03 11:-7.15 12:4.2 
2.703657262854476e-06 0:24.78 1:-10.01 2:10.91 3:-22.04 4:-5.88 5:-20.88 6:-18.76 7:-3.37 8:-19.09 9:0.29 10:-5.6 11:5.89 12:-14.34 
2.703657262854476e-06 0:24.98 1:-14.08 2:7.51 3:-10.41 4:-11.68 5:5.12 6:-15.33 7:-16.43 8:-0.35 9:-5.2 10:6.52 11:3.77 12:-5.17 
2.703657262854476e-06 0:24.36 1:-16.98 2:-25.04 3:-22.74 4:-22.38 5:-35.1 6:3.18 7:-15.19 8:-13.94 9:-4.01 10:-4.48 11:-2.54 12:-18.62 
2.703657262854476e-06 0:25.82 1:-11.82 2:-6.79 3:-24.53 4:-23 5:-12.82 6:-36.43 7:-8.63 8:-9.3 9:-3.51 10:-11.19 11:-2.98 12:-20.52 
2.703657262854476e-06 0:23.47 1:-9.48 2:10.84 3:-22.18 4:-24.29 5:-9.35 6:-19.08 7:-14.32 8:-3.19 9:5.41 10:9.52 11:-11.08 12:0.31 
2.703657262854476e-06 0:22.92 1:-16.66 2:6.95 3:5.02 4:-20.03 5:-8.31 6:5.06 7:0.33 8:-7.85 9:20.27 10:-5.47 11:-2.72 12:-4.17 
2.703657262854476e-06 0:26.1 1:-17.66 2:10.66 3:-0.52 4:-14.22 5:-13.52 6:-33.81 7:-10.35 8:-18.16 9:18.91 10:3.4 11:0.59 12:-6.21 
2.703657262854476e-06 0:25.5 1:-12.69 2:17.67 3:-32.22 4:-13.56 5:-20.36 6:-4.41 7:-11.06 8:-7.78 9:11.48 10:-15.8 11:6.37 12:-0.39 
2.703657262854476e-06 0:24.32 1:-10.8 2:3.7 3:-16.61 4:-24.02 5:-10.64 6:-29.72 7:-14.99 8:6.75 9:-8.3 10:9.64 11:-11.88 12:-1.72 
2.703657262854476e-06 0:25.02 1:-13.7 2:7.49 3:-3.7 4:-25.46 5:-12.2 6:-18.38 7:-16.35 8:-1.09 9:8.25 10:-3.35 11:-7.14 12:11.21 
2.703657262854476e-06 0:26.23 1:-19.07 2:0.64 3:-12.6 4:-22.25 5:-18.28 6:-38.83 7:-0.62 8:-13.6 9:-4.03 10:-3.74 11:-5 12:-13.63 
2.703657262854476e-06 0:24.55 1:-7.61 2:9.05 3:-3.12 4:-2.6 5:-16.8 6:-22.07 7:-22.48 8:-10.78 9:-16.1 10:-2.85 11:5.12 12:2.13 
2.703657262854476e-06 0:24.45 1:-10.48 2:2.74 3:-11.81 4:-31.54 5:-6.6 6:-13 7:-5.63 8:1.81 9:0.12 10:-8.43 11:10.76 12:0.81 
2.703657262854476e-06 0:24.45 1:-4.66 2:6.76 3:-14.02 4:-29.38 5:0.05 6:-11.5 7:-23.42 8:-11.7 9:24.42 10:-0.54 11:4.8 12:-6.63 
2.703657262854476e-06 0:24.8 1:-13.72 2:9.03 3:-14.57 4:-41.25 5:-6.7 6:3.6 7:-21.57 8:-11.32 9:-2.27 10:-6.95 11:11.59 12:-2.49 
2.703657262854476e-06 0:24.39 1:-10.49 2:9.7 3:-29.36 4:-37.52 5:-3.45 6:-1.62 7:-6.97 8:-21.39 9:11.83 10:-6.52 11:10.27 12:-0.45 
2.703657262854476e-06 0:24.02 1:-10.06 2:4.28 3:-9.67 4:-22.63 5:-11.04 6:-17.27 7:-15.13 8:-11.12 9:7.32 10:-4.55 11:5.98 12:-4.07 
2.703657262854476e-06 0:24.36 1:-11.61 2:1.97 3:-10.73 4:-21.26 5:-17.62 6:-9.83 7:-11.52 8:-4.6 9:2.79 10:-7.32 11:-7.22 12:5.6 
2.703657262854476e-06 0:25.94 1:-18.64 2:7.37 3:-0.01 4:-6.26 5:-31.98 6:-19.04 7:5.21 8:-20.89 9:7.14 10:7.27 11:-12.92 12:-15.88 
2.703657262854476e-06 0:24.97 1:-12.55 2:14.9 3:-30.02 4:-15.05 5:-22.13 6:-3.57 7:-1.4 8:-14.52 9:8.31 10:-11.14 11:10.92 12:0.15 
2.703657262854476e-06 0:25.22 1:-16.67 2:10.75 3:7.88 4:-19.58 5:-19.82 6:-13.99 7:-10.36 8:-8.16 9:8.31 10:-1.24 11:1.33 12:4.64 
2.703657262854476e-06 0:22.69 1:-24.41 2:11.34 3:15.75 4:-9.84 5:4.81 6:0.03 7:1.64 8:-1.1 9:6.62 10:0.66 11:5.34 12:3.35 
2.703657262854476e-06 0:22.84 1:0.35 2:-4.32 3:-1.49 4:-12.55 5:-19.18 6:-7.87 7:-14.99 8:3.64 9:-6.83 10:-11.44 11:19.11 12:-4.8 
2.703657262854476e-06 0:23.8 1:-8.04 2:13.38 3:-20.95 4:-28.52 5:5.79 6:-18.02 7:-1.77 8:-9.16 9:1.27 10:3.63 11:7.72 12:-1.7 
2.703657262854476e-06 0:23.01 1:1.82 2:8.12 3:-13.82 4:-7.74 5:-7.84 6:-21.38 7:-19.54 8:-3.67 9:-12 10:-0.95 11:1.62 12:-8.4 
2.703657262854476e-06 0:24.07 1:-10.64 2:11.21 3:-18.54 4:-39.48 5:-1.46 6:-7.61 7:-18.58 8:11.31 9:-6.95 10:7.18 11:3.99 12:-2.3 
2.703657262854476e-06 0:20.26 1:-5.37 2:2.6 3:9.77 4:-5.46 5:-0.19 6:-9.71 7:11.28 8:-11.33 9:9.52 10:1.13 11:7.07 12:-0.75 
2.703657262854476e-06 0:24.54 1:-18.71 2:-20.66 3:-12.72 4:-10.63 5:-26.35 6:-13.98 7:-14.99 8:-17.64 9:-6.88 10:-5.5 11:-5.37 12:-10.38 
2.703657262854476e-06 0:23.43 1:-15.19 2:17.92 3:-5.83 4:-1.92 5:9.11 6:-19.87 7:23.76 8:-25.26 9:16.3 10:-3.96 11:-2.26 12:17.68 
2.703657262854476e-06 0:24.84 1:-13 2:1.92 3:-6.95 4:-22.32 5:8.65 6:-25.11 7:-7.64 8:-8.69 9:15.28 10:3.92 11:-1.88 12:-8.19 
2.703657262854476e-06 0:21.89 1:-15.72 2:12.88 3:-1.84 4:3.29 5:6.12 6:-4.09 7:17.8 8:-15.59 9:24.98 10:-7.93 11:-1.74 12:14.92 
2.703657262854476e-06 0:24.57 1:-11.06 2:2.2 3:-12.52 4:-26.56 5:-21.44 6:-33.83 7:-7.91 8:-12.78 9:-2.01 10:2.65 11:2.16 12:-15.01 
2.703657262854476e-06 0:25.12 1:-13.89 2:7.58 3:-2.35 4:-23.75 5:-6.13 6:-18.82 7:-21.96 8:-10.75 9:-4.27 10:10.04 11:9.09 12:-23.84 
2.703657262854476e-06 0:25.22 1:-15.86 2:-8.96 3:-10.18 4:-20.5 5:3.43 6:-20.16 7:-2.51 8:-9.01 9:10.54 10:-4.69 11:-1.85 12:-0.41 
2.703657262854476e-06 0:24.03 1:-12.63 2:-5.6 3:-14.29 4:-14.26 5:-25.13 6:-17.03 7:2.85 8:-27.48 9:16.38 10:-6.34 11:-7.1 12:-8.54 
2.703657262854476e-06 0:25.38 1:-17.41 2:1.31 3:-27.32 4:-8.74 5:-30.85 6:-26.59 7:3.7 8:-19.12 9:-0.56 10:5.53 11:-15.08 12:-7.51 
2.703657262854476e-06 0:24.36 1:-12.64 2:-2.46 3:-12.96 4:-7.52 5:-31.55 6:-25.69 7:-4.43 8:-14.74 9:4.2 10:-15.44 11:-11.82 12:1.34 
2.703657262854476e-06 0:21.76 1:-11.45 2:16.24 3:-7.65 4:-14.69 5:7.39 6:-13.14 7:13.92 8:-0.39 9:13.23 10:-4.87 11:7.57 12:-7.48 
2.703657262854476e-06 0:24.68 1:-9.89 2:3.96 3:-16.27 4:-6.93 5:-14.98 6:-35.1 7:-16.25 8:-9.84 9:26.1 10:3.19 11:-10.52 12:2.35 
2.703657262854476e-06 0:24.71 1:-10.69 2:6.28 3:-15.28 4:3.59 5:-28.81 6:-17.85 7:-15.47 8:-20.04 9:12.88 10:-1.1 11:-0.94 12:-4.63 
2.703657262854476e-06 0:24.45 1:-7.48 2:10.04 3:-8.82 4:-17.78 5:3.06 6:-9.09 7:-21.5 8:-1.84 9:-11.6 10:5.04 11:8.44 12:-2.46 
2.703657262854476e-06 0:24.65 1:-5.91 2:-4.54 3:-17.26 4:-19.44 5:1.53 6:-15.12 7:-24.28 8:2.66 9:-7.96 10:3.18 11:4.05 12:2.65 
2.703657262854476e-06 0:25.03 1:-11.97 2:10.9 3:-6.29 4:-19.94 5:-19.78 6:3.86 7:-21.01 8:-1.73 9:15.26 10:-4.42 11:4.71 12:1.62 
2.703657262854476e-06 0:24.38 1:-12.59 2:3.1 3:-3.77 4:-25.12 5:-12.82 6:-19.17 7:-16.67 8:1.97 9:9.05 10:6.56 11:-8.16 12:1.38 
2.703657262854476e-06 0:24.22 1:-8.36 2:-0.68 3:-0.4 4:-18.82 5:-3.89 6:-30.9 7:-11.67 8:-14.12 9:7.17 10:6.51 11:9.91 12:-11.79 
2.703657262854476e-06 0:23.53 1:-8.02 2:2.59 3:-1.35 4:-15.06 5:-31.09 6:0.48 7:-14.9 8:-11.16 9:-25.91 10:-0.78 11:24.7 12:-3.44 
2.703657262854476e-06 0:25.24 1:-15.81 2:15.32 3:3.94 4:-4.12 5:-11.36 6:-19.98 7:-21.21 8:-12.68 9:-1.48 10:2.18 11:-0.33 12:1.85 
2.703657262854476e-06 0:24.43 1:-7.5 2:7.82 3:0.28 4:-8.41 5:-12.87 6:-26.55 7:-10.98 8:-14.19 9:-2.68 10:11.39 11:-6.87 12:15.31 
2.703657262854476e-06 0:26.3 1:-19.19 2:13.05 3:-8.81 4:-21.3 5:-10.21 6:-32.37 7:-7.62 8:-2.15 9:-12.4 10:2.24 11:6.95 12:-5.74 
2.703657262854476e-06 0:24.9 1:-10.97 2:6.12 3:-22.72 4:-10.77 5:-12.91 6:-29.68 7:-8.91 8:-21.57 9:28.92 10:4.57 11:-16.53 12:3.33 
2.703657262854476e-06 0:23.9 1:-4.14 2:11.91 3:-29.35 4:-19.86 5:-14.54 6:-19.46 7:-3.33 8:-1.56 9:-1.35 10:-0.66 11:-7.38 12:13.42 
2.703657262854476e-06 0:24.59 1:-11.9 2:5.9 3:-7.55 4:-2.71 5:-18.92 6:-7.21 7:-14.73 8:-15.71 9:23.21 10:-7.47 11:-8.01 12:7.05 
2.703657262854476e-06 0:23.93 1:-7.58 2:16.35 3:-31.52 4:-41.74 5:11.72 6:-0.57 7:-5.94 8:-18.53 9:11.62 10:-6.51 11:15.02 12:-6.93 
2.703657262854476e-06 0:23.63 1:-4.04 2:7.61 3:-16.92 4:-9.61 5:2.4 6:-21.43 7:-7.51 8:-31.93 9:-7.93 10:-0.13 11:16.49 12:-15.44 
2.703657262854476e-06 0:24.97 1:-8.73 2:-9.86 3:12.31 4:-1.09 5:-19 6:-29.46 7:-28.17 8:-4.07 9:-3.71 10:-0.85 11:2.31 12:0.1 
2.703657262854476e-06 0:23.99 1:0.59 2:-2.44 3:-17.46 4:-15.19 5:-23.49 6:-19.12 7:-5.83 8:-17.31 9:-5.2 10:-8.44 11:-8.37 12:-5.88 
2.703657262854476e-06 0:25.08 1:-16.37 2:10.1 3:8.59 4:-14.5 5:-20.35 6:-13.28 7:-9.93 8:-6.79 9:8.33 10:-0.22 11:5.83 12:2.58 
2.703657262854476e-06 0:24.49 1:-11.4 2:4.49 3:-21.27 4:-20.57 5:9.46 6:-2.17 7:-17.08 8:-12.39 9:21.11 10:-2.51 11:6.02 12:-5.85 
2.703657262854476e-06 0:23.87 1:-13.78 2:-32.11 3:-15.06 4:-18.6 5:-38.27 6:-12.12 7:-8.99 8:-5.53 9:-13.04 10:-3.31 11:6.94 12:-6.81 
2.703657262854476e-06 0:22.58 1:2.2 2:-2.59 3:-1.4 4:-18.74 5:-20.42 6:-5.48 7:-10.85 8:-9.73 9:-5.62 10:1.75 11:6.22 12:-3.72 
2.703657262854476e-06 0:20.36 1:-6.58 2:9.76 3:-0.64 4:-4.04 5:4.54 6:-16.65 7:13.16 8:-10.01 9:10.54 10:3.65 11:8.7 12:4.17 
2.703657262854476e-06 0:23.42 1:-0.55 2:5.53 3:-8.31 4:-20.12 5:-7.31 6:-15.25 7:-22.88 8:4.47 9:-8.42 10:-3.68 11:2.81 12:13.12 
2.703657262854476e-06 0:22.17 1:-14.8 2:16.14 3:2.6 4:2.46 5:-9.54 6:-13.43 7:13.95 8:-17.55 9:16.06 10:-1.59 11:6.2 12:1.99 
2.703657262854476e-06 0:26.24 1:-19.88 2:2.13 3:-24.5 4:-26.2 5:-13.76 6:-29.94 7:-16.69 8:0.27 9:-6.94 10:-3.43 11:-10.66 12:-20.13 
2.703657262854476e-06 0:25.76 1:-17.57 2:18.66 3:-9.97 4:-35.12 5:-2.61 6:-12.57 7:-9.84 8:-11.77 9:17.12 10:7.55 11:7.85 12:-14.03 
2.703657262854476e-06 0:25.3 1:-12.78 2:-2.58 3:0.24 4:0.74 5:-12.87 6:-28.44 7:-8.12 8:-29.08 9:3.94 10:3.08 11:-5.74 12:1.24 
2.703657262854476e-06 0:25.23 1:-18.06 2:0.75 3:-24.42 4:-12.96 5:-34.89 6:-27.51 7:4.02 8:-13.84 9:6.63 10:-2.12 11:-8.72 12:-7.13 
2.703657262854476e-06 0:26.05 1:-23.51 2:11.22 3:2.37 4:-2.73 5:-13.43 6:-37.79 7:-9.96 8:-17.05 9:1.26 10:-0.82 11:3.42 12:-14.23 
2.703657262854476e-06 0:25.39 1:-17.91 2:3.51 3:-4.07 4:-10.93 5:-9.11 6:-28.3 7:-18.91 8:-18.8 9:8.41 10:-3.59 11:12.39 12:-21.99 
2.703657262854476e-06 0:24.49 1:-11.81 2:6.31 3:-0.12 4:-16.49 5:-18.58 6:-21.45 7:-25.6 8:7.66 9:21.72 10:-14.75 11:-6.58 12:6.06 
2.703657262854476e-06 0:24.66 1:-15.2 2:5.1 3:-20.93 4:-31.08 5:-7.64 6:-14.35 7:-20.08 8:-12.43 9:4.92 10:1.26 11:7.97 12:-19.13 
2.703657262854476e-06 0:24.76 1:-14.34 2:13.93 3:-14.14 4:-26.69 5:-12.65 6:-16.88 7:-13.21 8:-4.62 9:5.54 10:-0.43 11:15.8 12:-16.29 
2.703657262854476e-06 0:23.87 1:-3.21 2:3.43 3:-28.9 4:-29.53 5:-3.85 6:-3.42 7:-25.39 8:-14.97 9:7.2 10:-5.58 11:12.22 12:-9.14 
2.703657262854476e-06 0:25.15 1:-13.87 2:2.58 3:-12.12 4:-26.07 5:1.07 6:-3.28 7:-17.07 8:-17.21 9:9.82 10:-3.77 11:19.51 12:-14.86 
2.703657262854476e-06 0:25.11 1:-7.65 2:-11.28 3:-6.53 4:8.12 5:-25.11 6:-8 7:-32.54 8:-16.11 9:18 10:-5.19 11:7.83 12:-7.38 
2.703657262854476e-06 0:25.19 1:-13.42 2:7.12 3:11.96 4:-14.06 5:-26.6 6:-24.81 7:-15.48 8:-9.24 9:13.29 10:-15.96 11:0.05 12:-7.95 
2.703657262854476e-06 0:25.27 1:-14.28 2:6.06 3:-20.02 4:-6.43 5:-20.62 6:-24.06 7:-3.76 8:-25.1 9:9.68 10:-3.51 11:-8.03 12:-7.59 
2.703657262854476e-06 0:26.12 1:-17.65 2:18.97 3:-8.44 4:10.08 5:-21.98 6:-28.16 7:-11.99 8:-17.03 9:14.65 10:-10.38 11:3.26 12:-13.51 
2.703657262854476e-06 0:24.64 1:-11.83 2:-2.38 3:-7.8 4:-6.67 5:-24.46 6:-15.88 7:11.3 8:-18.94 9:18.97 10:-5.53 11:-15.44 12:-18.42 
2.703657262854476e-06 0:24.75 1:-14.99 2:16.43 3:-4.83 4:-24.13 5:-17.23 6:-18.41 7:-18.69 8:-4.74 9:12.11 10:-2.23 11:-0.92 12:0.35 
2.703657262854476e-06 0:24.47 1:-9.78 2:7.47 3:-10.23 4:-19.32 5:-11.49 6:-15.14 7:-13.68 8:-4.53 9:22.71 10:-15.89 11:-14.05 12:9.92 
2.703657262854476e-06 0:26.6 1:-20.15 2:28.64 3:-25.82 4:-0.4 5:-5.5 6:-19.55 7:-14.96 8:-12.36 9:3.48 10:-6.72 11:4.06 12:1.16 
2.703657262854476e-06 0:25.79 1:-15.28 2:-3.67 3:-35.15 4:-32.89 5:-12.34 6:-12.09 7:-10.67 8:-5.1 9:-8.73 10:-6.76 11:3.78 12:-17.72 
2.703657262854476e-06 0:25.77 1:-17.64 2:-3.48 3:-0.22 4:-10.58 5:-11.11 6:-17.5 7:-18.67 8:-11.66 9:0.13 10:-15.24 11:9.21 12:-0.76 
2.703657262854476e-06 0:26.11 1:-22.32 2:11 3:11.85 4:-10.06 5:-13.78 6:-23.05 7:-16.37 8:-8.66 9:1.45 10:11.78 11:3.91 12:0.41 
2.703657262854476e-06 0:25.23 1:-14.34 2:6.83 3:-2.53 4:-4.61 5:-29.16 6:-25.43 7:-11.46 8:-11.18 9:10.44 10:-15.62 11:-16 12:-10.13 
2.703657262854476e-06 0:23.64 1:-3.59 2:-1.9 3:-16.38 4:-15.93 5:-15.74 6:-10.99 7:-18.32 8:-10.73 9:0.17 10:-15.9 11:10.23 12:-13.78 
2.703657262854476e-06 0:24.84 1:-14.63 2:-6.1 3:-15.01 4:-3.52 5:-20.5 6:-15.93 7:-30.96 8:6.36 9:0.02 10:-2.06 11:20.08 12:-18.54 
2.703657262854476e-06 0:25.44 1:-14.97 2:-5.27 3:1.62 4:10.27 5:-25.95 6:-23.52 7:-32.2 8:-11.25 9:0.07 10:-4.24 11:2.08 12:7.96 
2.703657262854476e-06 0:25.18 1:-19.15 2:-13.39 3:-30.95 4:1.61 5:-33.3 6:-16.04 7:-6.04 8:-19.76 9:-0.67 10:-6.96 11:-6.72 12:-6.67 
2.703657262854476e-06 0:25.55 1:-19.82 2:2.57 3:8.21 4:0.34 5:-21.34 6:-29.07 7:-30.92 8:1.17 9:-2.51 10:-0.13 11:-12.47 12:-19.93 
2.703657262854476e-06 0:26.23 1:-22.31 2:4.45 3:-19.48 4:-22.45 5:-33.24 6:-14.41 7:-18.25 8:-2.62 9:12.52 10:-11.69 11:-10.87 12:-16.29 
2.703657262854476e-06 0:24.09 1:-8.62 2:2.21 3:4.43 4:-7.54 5:-11.27 6:-26.55 7:-19.92 8:-7.47 9:4.56 10:0.54 11:-2.69 12:1.83 
2.703657262854476e-06 0:26.24 1:-18.58 2:14.79 3:-2.07 4:10.85 5:-32.43 6:-8.72 7:-32.5 8:-14.1 9:1.74 10:-1.47 11:4.36 12:-0.67 
2.703657262854476e-06 0:23.42 1:-3.92 2:2.15 3:-31.7 4:-29.04 5:-9.33 6:-1.34 7:-26.87 8:-16.5 9:15.91 10:-6.92 11:4.39 12:0.79 
2.703657262854476e-06 0:22.3 1:-17.55 2:16.46 3:-1.25 4:3.54 5:-2.48 6:-4.64 7:7.15 8:-17.57 9:17.89 10:-5.26 11:-4.05 12:8.94 
2.703657262854476e-06 0:24.78 1:-13.39 2:7.44 3:0.05 4:-24.75 5:-21.43 6:-13.9 7:-18.45 8:3.36 9:0.94 10:-9.79 11:-8.77 12:9.17 
2.703657262854476e-06 0:24.95 1:-11.35 2:6.79 3:-6.53 4:1.58 5:-21.1 6:-6.79 7:-17.74 8:-22.73 9:12.32 10:2.86 11:-1.92 12:4.65 
2.703657262854476e-06 0:24.85 1:-13.07 2:13.85 3:-3.31 4:-25.36 5:-20.13 6:-17.19 7:-14.33 8:-7.03 9:13.96 10:4.78 11:12.51 12:-18.12 
2.703657262854476e-06 0:24.59 1:-13.25 2:12.15 3:-13.17 4:-15.78 5:-4.89 6:-22.55 7:2.09 8:-0.7 9:0.18 10:-1.54 11:5.34 12:0.03 
2.703657262854476e-06 0:20.63 1:-3.11 2:-22.42 3:-1.21 4:-21.83 5:-25.48 6:-10.89 7:-7.27 8:-11.44 9:-8 10:-10.64 11:-4.65 12:-2.83 
2.703657262854476e-06 0:25.41 1:-15.02 2:-2.14 3:-8.62 4:-2.23 5:-27.81 6:-27.5 7:1.34 8:-15.97 9:13.41 10:-10.39 11:-4.12 12:-4 
2.703657262854476e-06 0:25.61 1:-16.51 2:15.29 3:-17.04 4:-9.14 5:-16.2 6:-31.78 7:-15.82 8:-0.68 9:3.7 10:-10.36 11:1.34 12:-8.45 
2.703657262854476e-06 0:25.08 1:-14.96 2:15.31 3:-12.19 4:-12.63 5:3.93 6:-22.89 7:-10.49 8:-3.98 9:-0.62 10:14.68 11:6.81 12:1.35 
2.703657262854476e-06 0:26.3 1:-15.05 2:18.18 3:-7.8 4:0.6 5:-17 6:-12.03 7:-14.06 8:-11.19 9:0.41 10:-2.19 11:6.06 12:-15.42 
2.703657262854476e-06 0:25.31 1:-16.52 2:8.33 3:-7.57 4:-13.04 5:-0.35 6:-28.2 7:-10.85 8:6.6 9:4.56 10:10.36 11:-7.89 12:-8.25 
2.703657262854476e-06 0:25.47 1:-16.33 2:14.11 3:-9.06 4:-22.19 5:-25.26 6:-22.82 7:-13.34 8:1.09 9:2.77 10:-3.7 11:-11.16 12:8.61 
2.703657262854476e-06 0:25.81 1:-21.2 2:14.19 3:-7.12 4:-0.58 5:-30.35 6:-16.74 7:-7.13 8:-15.44 9:4.38 10:0.36 11:-6.11 12:-14.28 
2.703657262854476e-06 0:24.76 1:-14.5 2:-20.28 3:-9.19 4:-16.25 5:-29.56 6:-25.72 7:-1.26 8:0.79 9:-4.17 10:-8.47 11:-11.45 12:-15.3 
2.703657262854476e-06 0:24.55 1:-12.62 2:11.93 3:-4.81 4:-28.32 5:-11.69 6:-26.27 7:4.94 8:-13 9:10.46 10:-14.31 11:1.66 12:-4.72 
2.703657262854476e-06 0:23.76 1:-3.21 2:-2.22 3:-14.58 4:-30.29 5:-17.34 6:-19.63 7:-16.44 8:-2.35 9:-1.44 10:3 11:-11.61 12:0.29 
2.703657262854476e-06 0:24.24 1:-15.22 2:-22.65 3:-34.33 4:-24.14 5:-32.55 6:-6.13 7:-4.26 8:-13.82 9:-3.1 10:-10.71 11:3.6 12:-23.51 
2.703657262854476e-06 0:23.67 1:0.06 2:10.25 3:-13.32 4:-36.28 5:0.67 6:-2.94 7:-10.46 8:-13.21 9:-1.76 10:6.72 11:-3.94 12:4.47 
2.703657262854476e-06 0:22.47 1:-13.73 2:13.08 3:-3.43 4:-9.15 5:-1.22 6:-8.68 7:12.35 8:-5.93 9:23.61 10:-21.67 11:3.71 12:-1.48 
2.703657262854476e-06 0:24.2 1:-9.27 2:7.09 3:-17.21 4:-14.38 5:-25.35 6:-9.6 7:-7.33 8:-22.78 9:5.03 10:-5.46 11:7.51 12:-5.94 
2.703657262854476e-06 0:23.87 1:-5.69 2:10.18 3:-24.03 4:-22.17 5:-1.41 6:-19.32 7:-1.06 8:-6.22 9:-1.11 10:-5.93 11:-6.49 12:4.93 
2.703657262854476e-06 0:23.62 1:-19.55 2:20.97 3:0.69 4:-1.22 5:-12.61 6:-12.56 7:3.86 8:-10.74 9:9.22 10:-3.26 11:0.93 12:6.49 
2.703657262854476e-06 0:23.27 1:2.63 2:0.85 3:-35.22 4:-33.61 5:-6.57 6:-2.11 7:-8.36 8:-16.96 9:4.54 10:3.94 11:10.83 12:-12.19 
2.703657262854476e-06 0:25.32 1:-12.31 2:15.02 3:-36.5 4:4.63 5:-3.81 6:-24.61 7:-20.1 8:-1.96 9:10.08 10:-10.07 11:7.99 12:-7.18 
2.703657262854476e-06 0:23.69 1:-24.59 2:22.4 3:3.98 4:-11.94 5:5.76 6:-10.23 7:-1.36 8:-6.36 9:17.76 10:-12.11 11:16.56 12:-4.99 
2.703657262854476e-06 0:23.39 1:5.2 2:6.35 3:-15.97 4:-19.5 5:-18.59 6:-30.65 7:-5.65 8:-27.07 9:-18.04 10:-2.15 11:5.41 12:-14.78 
2.703657262854476e-06 0:24.39 1:-8.95 2:4.66 3:-28.22 4:-4.65 5:-19.6 6:-21.73 7:-3.44 8:-20.08 9:29.29 10:-0.47 11:-15.76 12:4.09 
2.703657262854476e-06 0:24.89 1:-13.7 2:9.54 3:-10.87 4:-10.23 5:7.11 6:-13.54 7:-10.63 8:-7.1 9:-13 10:-2.09 11:3 12:-8.79 
2.703657262854476e-06 0:24.03 1:-12.67 2:-4.57 3:1.25 4:-5.75 5:-30.37 6:-16 7:-5.8 8:-14.29 9:4.66 10:-10.61 11:-2.7 12:-12.29 
2.703657262854476e-06 0:25.36 1:-14.63 2:8.52 3:-19.23 4:-3.2 5:-25.22 6:-15.37 7:-4.63 8:-16.62 9:16.19 10:-13.25 11:3.17 12:-12.19 
2.703657262854476e-06 0:25.21 1:-13.63 2:12.11 3:-20.93 4:-3.64 5:-18.47 6:-24.82 7:3.04 8:-17.06 9:5.2 10:3.96 11:-8.28 12:-5.11 
2.703657262854476e-06 0:26.18 1:-17.88 2:16.53 3:-8.18 4:1.44 5:-32.42 6:-15.81 7:-6.85 8:-24.55 9:9.83 10:-6.09 11:-5.74 12:-14.93 
2.703657262854476e-06 0:25.11 1:-13.34 2:9.12 3:-9.96 4:-17.18 5:-20.62 6:-26.83 7:-12.47 8:-5.33 9:14.34 10:-0.05 11:-7.37 12:5.08 
2.703657262854476e-06 0:24.58 1:-16.99 2:-12.13 3:-15 4:-27.66 5:-30.65 6:-9.88 7:-10.7 8:-9.84 9:-6.02 10:1.61 11:-5.43 12:-7.62 
2.703657262854476e-06 0:23.89 1:3.76 2:7.39 3:-15.67 4:-25.02 5:-17.68 6:-8.34 7:-5.41 8:-6.61 9:13 10:-1.44 11:-2.48 12:4.51 
2.703657262854476e-06 0:21.93 1:-14.44 2:10.08 3:-6.95 4:-4.06 5:5.11 6:-5 7:6.67 8:-4.22 9:19.48 10:-8.07 11:7.87 12:-0.64 
2.703657262854476e-06 0:25.12 1:-15.21 2:8.77 3:2.53 4:-10.35 5:-17.1 6:-19.02 7:-23.11 8:-4.1 9:1.52 10:6.21 11:-3.56 12:3.85 
2.703657262854476e-06 0:23.87 1:-7.16 2:-24.93 3:4.07 4:-30.21 5:-35.75 6:-7.59 7:-0.79 8:-17.23 9:-17.34 10:25.16 11:-6.36 12:-5.17 
2.703657262854476e-06 0:24.05 1:-9.72 2:-9.69 3:-13.08 4:-21.29 5:-26.82 6:-3.34 7:-8.72 8:-12.14 9:-9.3 10:-7.68 11:-10.15 12:-9.93 
2.703657262854476e-06 0:24.51 1:-9.83 2:2.31 3:-30.76 4:-40.75 5:0.9 6:11.25 7:-19.3 8:-0.36 9:6.6 10:-8.26 11:12.46 12:-9.74 
2.703657262854476e-06 0:24.59 1:-13.68 2:8.98 3:-11.38 4:-24.81 5:-20.09 6:-12.09 7:-28.23 8:4.46 9:21.93 10:-7.35 11:-5.21 12:10.44 
2.703657262854476e-06 0:22.09 1:-11.33 2:15.79 3:-14.95 4:-11.87 5:3.03 6:-12.1 7:24.75 8:-10.79 9:23.65 10:-0.55 11:5.34 12:4.06 
2.703657262854476e-06 0:24.49 1:-11.05 2:14.95 3:-17.47 4:-17.55 5:-11.75 6:-22.9 7:-14.18 8:-9.09 9:-1.35 10:27.87 11:-11.14 12:-2.04 
2.703657262854476e-06 0:25.2 1:-11.08 2:16.44 3:-11.95 4:-11.39 5:-27.12 6:-18.2 7:-1.51 8:-3.8 9:17.04 10:-7.29 11:2.82 12:-0.87 
2.703657262854476e-06 0:23.83 1:-5.32 2:1.95 3:-25.17 4:-40 5:-5.15 6:12.87 7:-22.98 8:-12.55 9:2.86 10:-11.06 11:5.96 12:-11.98 
2.703657262854476e-06 0:26.57 1:-23.12 2:22.7 3:-20.46 4:-3.21 5:-15.54 6:-21.68 7:-18.49 8:-11.72 9:-5.68 10:0.06 11:12.3 12:-9.85 
2.703657262854476e-06 0:24.15 1:-4.54 2:-13.62 3:-0.45 4:-5.67 5:-20.96 6:-35.89 7:-22.42 8:-4.61 9:3.47 10:22.13 11:-4.76 12:-3.58 
2.703657262854476e-06 0:25.55 1:-17.71 2:6.66 3:-3.25 4:-13.24 5:-23.26 6:-18.81 7:-24.88 8:7.6 9:1.8 10:-11.79 11:-7.66 12:8.41 
2.703657262854476e-06 0:25.08 1:-13.31 2:9.75 3:-6.67 4:-18.67 5:-21.54 6:-21.01 7:-27.73 8:8.48 9:5.56 10:-3.33 11:-14.87 12:4.5 
2.703657262854476e-06 0:24.89 1:-8.02 2:6.81 3:-10.57 4:-0.97 5:-26.27 6:-10.6 7:12.12 8:-21.82 9:11.04 10:-13.72 11:-4.93 12:-6.25 
2.703657262854476e-06 0:24.55 1:-14.25 2:8.62 3:-11.43 4:-26.84 5:-10.28 6:-4.03 7:-25.49 8:-20.04 9:23.92 10:3.81 11:-17.92 12:-13.13 
2.703657262854476e-06 0:25.43 1:-22.85 2:-17.06 3:-5.04 4:-18.52 5:-36.55 6:-15.25 7:-5.99 8:-9.83 9:1.89 10:-5.1 11:-12.28 12:-5.67 
2.703657262854476e-06 0:24.78 1:-13.44 2:5.05 3:-13.33 4:-9.17 5:1.77 6:-18.84 7:-11.46 8:-8.29 9:-5.14 10:11.81 11:-4.04 12:-5.49 
2.703657262854476e-06 0:24.57 1:-10.12 2:8.63 3:-26.07 4:-22.22 5:-3.52 6:-21.83 7:-5.09 8:-7.49 9:13.81 10:-2.3 11:-10.48 12:6.69 
2.703657262854476e-06 0:25.9 1:-19.14 2:7.91 3:-17.04 4:-37.54 5:-5.9 6:-17.68 7:-2.51 8:-9.51 9:-3.54 10:-5.42 11:10.44 12:-11.92 
2.703657262854476e-06 0:25.03 1:-15.09 2:12.92 3:-5.84 4:-1.92 5:-24.3 6:-13.39 7:-4.71 8:-27.8 9:-1.73 10:-8.17 11:5.87 12:-2.67 
2.703657262854476e-06 0:24.07 1:-18.92 2:15.08 3:-13.9 4:-10.6 5:-23.17 6:-6.12 7:-3.32 8:-24.15 9:1.35 10:-6.82 11:-8.13 12:-7.34 
2.703657262854476e-06 0:25.68 1:-15.65 2:11.56 3:-14.9 4:2.38 5:-11.76 6:-23.73 7:-17.38 8:-1.52 9:-11.37 10:5.25 11:10.49 12:-0.89 
2.220662712737828e-06 0:22.53 1:-14.38 2:19.55 3:-11.32 4:-2.75 5:10.04 6:-18.9 7:29.04 8:-10.51 9:21.08 10:1.82 11:0.64 12:8.29 
2.703657262854476e-06 0:23.99 1:-17.79 2:6.37 3:-1.12 4:3.04 5:-33.29 6:-19.86 7:0.14 8:-19.8 9:1.58 10:2.06 11:-7.65 12:-10.9 
2.703657262854476e-06 0:23.77 1:-15.68 2:-20.16 3:-20.78 4:-24.55 5:-15.67 6:-8.22 7:-4.15 8:-9.89 9:-3.69 10:1.73 11:-11.21 12:-11.29 
2.703657262854476e-06 0:22.72 1:-15.3 2:19.66 3:-4.18 4:1 5:-2.7 6:-16.61 7:14.12 8:-18.26 9:23.36 10:-6.63 11:0.1 12:5.4 
2.703657262854476e-06 0:22.33 1:-15.45 2:15.77 3:5.08 4:-5.37 5:-3.28 6:-8.12 7:7.67 8:-21.83 9:25.48 10:-6.68 11:6.26 12:2.42 
2.703657262854476e-06 0:25.5 1:-12.57 2:3.01 3:-12.32 4:-17.55 5:-29.66 6:0.95 7:-33.36 8:3.62 9:-3.17 10:-7.11 11:22.47 12:-18.18 
2.703657262854476e-06 0:25.53 1:-22.11 2:22.56 3:13.91 4:-19.55 5:-26.09 6:-31.93 7:-9.34 8:2.73 9:-9.01 10:-1.17 11:3.31 12:-0.45 
2.703657262854476e-06 0:25.79 1:-17.93 2:15.42 3:-2.43 4:-30.71 5:1.23 6:-11.66 7:-17.77 8:-23.1 9:22.08 10:-7.72 11:10.17 12:-9.94 
2.703657262854476e-06 0:23.91 1:-5.37 2:2.66 3:-0.48 4:-28.54 5:-7.33 6:-23.42 7:-32.27 8:-7.88 9:18.94 10:-8.27 11:3.94 12:-12.44 
2.703657262854476e-06 0:23.57 1:-6.48 2:-2.87 3:-7.6 4:-16.88 5:-15.65 6:-22.27 7:-10.51 8:-4.92 9:-15.48 10:-8.79 11:25.76 12:-12.22 
2.703657262854476e-06 0:24.99 1:-14.49 2:12.87 3:-5.37 4:-15.98 5:-25.73 6:-14.08 7:-19.95 8:-11.8 9:27.08 10:-2.23 11:-11.75 12:10.03 
2.703657262854476e-06 0:23.08 1:4.29 2:-1.3 3:-4.7 4:-24.28 5:-7.61 6:-21.76 7:-23.92 8:-1.58 9:2.7 10:-10.3 11:16.88 12:-11.43 
2.703657262854476e-06 0:25.06 1:-11.86 2:6.24 3:-5.57 4:-12.62 5:-23.5 6:-16.69 7:-19.65 8:-5.89 9:5.08 10:5.97 11:-7.95 12:1.43 
2.703657262854476e-06 0:25.79 1:-18.44 2:12.55 3:-2.18 4:-7.47 5:-10.28 6:-23.22 7:-24.77 8:-8.38 9:7.47 10:7.57 11:-0.79 12:0.97 
2.703657262854476e-06 0:24.72 1:-11.06 2:-1.86 3:-17.17 4:-17.66 5:-5.37 6:-26.45 7:-7.31 8:-9.93 9:-5.2 10:1.86 11:0.46 12:-1.77 
2.703657262854476e-06 0:24.65 1:-12.63 2:-2.08 3:-20.47 4:-23.82 5:-4.04 6:-8.74 7:-11.49 8:-13.93 9:19.5 10:-10.05 11:11.44 12:-12.92 
2.703657262854476e-06 0:25.35 1:-13.86 2:3.8 3:-13.68 4:3.9 5:-26.31 6:-14.52 7:-18.49 8:-20.3 9:10.49 10:-7.24 11:-5.12 12:0.28 
2.703657262854476e-06 0:25.01 1:-12.93 2:14.38 3:-11.08 4:-34 5:-8.03 6:-2.17 7:-7.22 8:-8.29 9:2.07 10:5.62 11:12.49 12:-8.41 
2.703657262854476e-06 0:24.7 1:-8.55 2:6.85 3:-13.6 4:-32.72 5:-4.38 6:-9.85 7:-34.01 8:-15.03 9:-4.49 10:-0.9 11:7.07 12:-19.93 
2.703657262854476e-06 0:24.47 1:-8.24 2:-19.44 3:-8.6 4:-3.06 5:-37.58 6:-16.65 7:-26.81 8:-11.62 9:26.77 10:0.44 11:-4.79 12:0.39 
2.703657262854476e-06 0:23.45 1:-4.95 2:0.08 3:-20.67 4:-8.93 5:-26.65 6:-16.99 7:-15.56 8:-5.59 9:-14.93 10:-4.88 11:20.15 12:-10.26 
2.703657262854476e-06 0:25.99 1:-25.72 2:15.57 3:-8.56 4:6.32 5:-8.37 6:-15.65 7:-20.45 8:-11.21 9:-8.5 10:1.45 11:5.25 12:-17.44 
2.703657262854476e-06 0:25.57 1:-21.02 2:-1.25 3:-19.69 4:-25.91 5:-30.73 6:-8.78 7:-10.12 8:-15.7 9:1 10:4.96 11:-5.33 12:-14.44 
2.703657262854476e-06 0:24.86 1:-7.52 2:-6.16 3:3.35 4:5.79 5:-9.73 6:-50.83 7:-11.85 8:-8.65 9:-3.54 10:18.18 11:-9.83 12:-4.58 
2.703657262854476e-06 0:24.79 1:-9.52 2:-16.25 3:-11.81 4:-10.4 5:-11.59 6:-20.59 7:-18.44 8:-1.11 9:4.68 10:-4.74 11:9.52 12:-8.54 
2.703657262854476e-06 0:24.24 1:-9.89 2:12.67 3:-9.66 4:-27.62 5:-10.04 6:-10.13 7:-13.81 8:-2.79 9:-6.2 10:8.43 11:-4.2 12:4.1 
2.703657262854476e-06 0:26 1:-17.04 2:18.7 3:-18.34 4:-2.45 5:-15.33 6:-16.01 7:-18.06 8:-6.98 9:19.63 10:-17.75 11:2.81 12:-6.25 
2.703657262854476e-06 0:24.57 1:-2.4 2:-10.67 3:-3.51 4:-1.23 5:-20.23 6:-0.11 7:-29.61 8:-18.33 9:17.52 10:-5.16 11:3.59 12:-5.77 
2.703657262854476e-06 0:25.37 1:-17.29 2:8 3:-5.17 4:-6.84 5:-4.81 6:-15.4 7:-22.93 8:-14.07 9:4.88 10:1.25 11:16.57 12:-11.31 
2.703657262854476e-06 0:26.44 1:-24.75 2:13.55 3:-11.44 4:-1.95 5:-13.36 6:-20.1 7:-29.85 8:-4.82 9:9.31 10:-3.7 11:-1.4 12:-9.82 
2.703657262854476e-06 0:25.11 1:-13.27 2:14.99 3:-23.27 4:-50.48 5:2.46 6:11.83 7:-24.59 8:-8.52 9:15.74 10:-9.13 11:4.5 12:-10.78 
2.703657262854476e-06 0:24.22 1:-1.64 2:13.62 3:-33.67 4:-6.61 5:-12.35 6:-15.25 7:-7.97 8:-10.01 9:-0.98 10:1.47 11:5 12:-3.33 
2.703657262854476e-06 0:24.41 1:-8.42 2:-0.74 3:-22.65 4:-18.23 5:-7.94 6:-30.36 7:-7.74 8:-2.19 9:-0.5 10:-0.85 11:-9.46 12:-8.61 
2.703657262854476e-06 0:26.15 1:-23.57 2:16 3:7.34 4:-17.08 5:-22.54 6:-16.11 7:-14.96 8:-7.32 9:13.17 10:-6.56 11:2.43 12:-10.55 
2.703657262854476e-06 0:24.75 1:-12.8 2:5.71 3:-9.37 4:-22.07 5:-18.47 6:-23.32 7:-28.21 8:5.87 9:7.78 10:0.27 11:-15.95 12:0.78 
2.703657262854476e-06 0:25.34 1:-12.71 2:-5.08 3:-4.93 4:17.52 5:-27.28 6:-25.82 7:-32.77 8:-12.08 9:11.67 10:-3.74 11:-2.23 12:-1.69 
2.703657262854476e-06 0:24.5 1:-10.87 2:6.37 3:-12.84 4:-21.59 5:-3.09 6:-18.56 7:-10.91 8:-7.77 9:-4.51 10:-2.21 11:-4.17 12:-10.3 
2.703657262854476e-06 0:24.92 1:-11.3 2:14.82 3:-11.89 4:-24.86 5:-15.62 6:-11.63 7:-24.52 8:-14.19 9:14.36 10:-9.1 11:5.25 12:-9.07 
2.703657262854476e-06 0:23.92 1:-5.3 2:4.28 3:-9.85 4:-18.34 5:-15 6:-16.68 7:4.52 8:3.68 9:-12.91 10:-14.28 11:4.42 12:-2.4 
2.703657262854476e-06 0:23.85 1:-2.81 2:-2.76 3:-22.95 4:-12.08 5:-23.45 6:-6.42 7:-21.24 8:-10.75 9:-4.4 10:-6.51 11:13.74 12:-6.33 
2.703657262854476e-06 0:24.4 1:-5.27 2:-4.6 3:-5.25 4:-19.57 5:-11.22 6:-13.98 7:-15.95 8:-7.42 9:-9.29 10:14.86 11:5.95 12:-5.3 
2.703657262854476e-06 0:24.35 1:-7.46 2:18.68 3:-11.01 4:-4.53 5:-6.74 6:-8.23 7:-17.75 8:-2.24 9:-19.09 10:-12.61 11:2.94 12:8.49 
2.703657262854476e-06 0:25.83 1:-15.76 2:22.22 3:-24.8 4:-8.33 5:-8.67 6:-22.95 7:-0.37 8:-8.09 9:-5.74 10:4.72 11:-4.96 12:-11.14 
2.703657262854476e-06 0:24.54 1:-10.8 2:4.67 3:0.4 4:-22.06 5:-15.92 6:-16 7:-15.31 8:-5.43 9:2.56 10:12.98 11:-7.3 12:-5.05 
2.703657262854476e-06 0:23.8 1:-4.81 2:10.44 3:-12.19 4:-0.05 5:-17.64 6:-11.8 7:0.45 8:-18.09 9:-7.99 10:-6.84 11:21.89 12:-8.74 
2.703657262854476e-06 0:25.14 1:-10.64 2:4.42 3:-15.3 4:-14.38 5:-26.53 6:-9.03 7:-20.36 8:-3.95 9:7.24 10:-3.07 11:-15.38 12:-4.07 
2.703657262854476e-06 0:25.35 1:-22.14 2:0.25 3:-25.81 4:-7.69 5:-32.55 6:-23.28 7:-5.9 8:-0.74 9:14.46 10:-16.81 11:-11.21 12:-7.58 
2.703657262854476e-06 0:22.67 1:-17.89 2:19.92 3:-2.52 4:4.68 5:-10.23 6:-10.74 7:9.32 8:-15.58 9:12.29 10:-1.53 11:7.89 12:-1.14 
2.703657262854476e-06 0:23.81 1:-2.8 2:2.2 3:-17.51 4:-31.99 5:-12.28 6:-2.74 7:-20.82 8:-21.3 9:4.58 10:-1.64 11:12.08 12:-12.51 
2.703657262854476e-06 0:25.37 1:-17.83 2:19.82 3:-10.68 4:-26.91 5:-14.94 6:4.85 7:-11.15 8:-8.83 9:-0.34 10:3.31 11:3.28 12:3.3 
2.703657262854476e-06 0:24.87 1:-2.16 2:-4.39 3:8.83 4:-20.24 5:-34.28 6:-0.6 7:-24.93 8:-11.63 9:24.68 10:-11.42 11:-4.76 12:-25.15 
2.703657262854476e-06 0:24.43 1:-18.6 2:-22.02 3:-17.66 4:-34.78 5:-33.62 6:4.01 7:-7.49 8:-1.7 9:2.01 10:-19.92 11:-1.98 12:-10.47 
2.703657262854476e-06 0:21.27 1:-6.27 2:8.31 3:7.53 4:-4.84 5:-13.49 6:-18.45 7:8.3 8:-20.06 9:-0.02 10:12.6 11:5.48 12:7.07 
2.703657262854476e-06 0:25.42 1:-14.73 2:6.27 3:-20.21 4:-39.04 5:10.16 6:4.92 7:-12 8:-12.41 9:1.41 10:7.74 11:13.84 12:-17.75 
2.703657262854476e-06 0:21.75 1:-9.33 2:13.42 3:-9.5 4:-10.9 5:7.86 6:-10.99 7:15.14 8:-16.47 9:18.54 10:-1.38 11:7.15 12:7.85 
2.703657262854476e-06 0:25.59 1:-18.62 2:-2.04 3:-19.22 4:-24.4 5:-0.15 6:-13.69 7:-19.71 8:7.51 9:-11.11 10:3.76 11:3.64 12:-6.13 
2.703657262854476e-06 0:25.15 1:-21.35 2:-15.61 3:-18.17 4:-33.29 5:-24.68 6:-1.14 7:-14.42 8:-1.84 9:3.85 10:-17.75 11:-0.72 12:-6.65 
2.703657262854476e-06 0:24.24 1:-6.92 2:2.94 3:-20.87 4:-21.59 5:-9.22 6:-16.92 7:-11.99 8:3.14 9:1.11 10:-8.25 11:-2.73 12:-6.28 
2.703657262854476e-06 0:24.24 1:-8.34 2:6.91 3:-9.66 4:-21.84 5:-15.46 6:-13.93 7:-15.13 8:5.26 9:-8 10:1.77 11:1.69 12:3.98 
2.703657262854476e-06 0:23.34 1:-6.19 2:1.85 3:-7.39 4:-8.32 5:-27.51 6:-15.7 7:-20.91 8:-20.95 9:-13.05 10:15.43 11:7.36 12:-12.37 
2.703657262854476e-06 0:24.57 1:-13.75 2:2.95 3:-10.99 4:-10.1 5:-25.24 6:-16.03 7:-7.42 8:-11.14 9:-3.91 10:-10.41 11:-4.84 12:4.9 
2.703657262854476e-06 0:25.08 1:-13.02 2:-17.51 3:-6.16 4:-25.08 5:-33.45 6:-8.57 7:-3.21 8:-11.99 9:-17.39 10:2.25 11:-11.82 12:-6.43 
2.703657262854476e-06 0:24.77 1:-17.86 2:19.43 3:0.19 4:-22.78 5:-21.78 6:-22.49 7:-20.48 8:1.86 9:2.65 10:4.62 11:-6.85 12:11.29 
2.703657262854476e-06 0:24.13 1:-11.82 2:18.81 3:-17.53 4:-21.33 5:-12.38 6:-22.28 7:-0.09 8:-7.33 9:5.26 10:2.72 11:-3.42 12:8.97 
2.703657262854476e-06 0:26.07 1:-15.48 2:19.22 3:-30.46 4:-9.06 5:-8.96 6:-5.38 7:-27.76 8:2.95 9:23.39 10:-22.79 11:-0.51 12:-10.09 
2.703657262854476e-06 0:25.11 1:-14.02 2:0.53 3:-23.07 4:-28.22 5:-16.3 6:-14.8 7:-9.98 8:1.12 9:-7.83 10:5.49 11:-12.49 12:-7.54 
2.703657262854476e-06 0:22.51 1:-18.72 2:15.61 3:0.53 4:2.4 5:-2.8 6:-6.92 7:14.76 8:-14.21 9:21.34 10:-7.26 11:-2.56 12:7.2 
2.703657262854476e-06 0:24.5 1:-8.72 2:16.1 3:-11.73 4:-15.58 5:-4.02 6:-13.43 7:-12.09 8:-17.07 9:-3.44 10:-6.83 11:-12.37 12:-7.84 
2.703657262854476e-06 0:25.54 1:-16.05 2:17.17 3:-12.89 4:-9.3 5:10.9 6:-18.81 7:-14.27 8:-8.66 9:-10.74 10:8.55 11:-4.81 12:4.03 
2.703657262854476e-06 0:24.4 1:-19.06 2:-24.21 3:-15.1 4:-15.85 5:-40.87 6:-8.02 7:-17.39 8:3.29 9:8.51 10:-19.02 11:-6.59 12:-15.26 
2.703657262854476e-06 0:24.7 1:-13.84 2:-0.21 3:-39.61 4:-34.41 5:-10.81 6:-5.33 7:-14.44 8:-8.49 9:0.72 10:0.88 11:-2.84 12:-16.6 
2.703657262854476e-06 0:25.37 1:-17.35 2:10.63 3:-4.73 4:-6.21 5:-38.71 6:-19.67 7:2.49 8:-17.67 9:-3.77 10:-12.35 11:-4.15 12:-6.37 
2.703657262854476e-06 0:23.61 1:-8.58 2:-14.63 3:-9.68 4:-11.74 5:-19.41 6:-14.85 7:-7.96 8:-12.92 9:9.59 10:-13.19 11:1.26 12:-7.54 
2.703657262854476e-06 0:24.39 1:-9.62 2:-0.94 3:-2.27 4:-0.05 5:-22.55 6:-16.67 7:-3.32 8:-18.45 9:-1.86 10:-13.26 11:-6.55 12:-2.93 
2.703657262854476e-06 0:25.58 1:-12.42 2:-7.45 3:3.47 4:12.76 5:-33.99 6:0.93 7:-19.56 8:-34.05 9:5.88 10:-6.05 11:-4.43 12:-2.92 
2.703657262854476e-06 0:24.5 1:-15.67 2:-20.55 3:-32.08 4:-28.8 5:-47.74 6:1.18 7:-5.04 8:-4.57 9:-3.35 10:-12.95 11:-1.76 12:-7.09 
2.703657262854476e-06 0:25 1:-15.76 2:17.23 3:-4.07 4:-22.56 5:-5.65 6:-24.42 7:-21.54 8:3.1 9:16.14 10:-7.73 11:3.49 12:-10.5 
2.703657262854476e-06 0:24.98 1:-12.18 2:1.34 3:4.69 4:-17.29 5:-8.85 6:-37.12 7:-17.43 8:-8.66 9:8.35 10:-4.1 11:4.36 12:-10.85 
2.703657262854476e-06 0:23.35 1:-1.13 2:-7.26 3:-2.29 4:3.04 5:-21.5 6:-16.27 7:-22.17 8:-12.03 9:-8.86 10:5.03 11:6.01 12:5.58 
2.703657262854476e-06 0:21.81 1:-16.43 2:11.56 3:6.74 4:-1.3 5:-1.71 6:-11.27 7:13.55 8:-23.8 9:5.9 10:7.14 11:-8.39 12:9.25 
2.703657262854476e-06 0:24.34 1:-11.16 2:15.11 3:-8.53 4:-19.47 5:-13.91 6:-16.84 7:-15.7 8:-7.3 9:13.17 10:-9.03 11:-8.45 12:9.68 
2.703657262854476e-06 0:23.62 1:-16.82 2:17.94 3:-9.77 4:-4.7 5:-14.84 6:-3.48 7:12.18 8:-17.81 9:26.76 10:-4.34 11:-0.8 12:-3.42 
2.703657262854476e-06 0:20.61 1:-4.81 2:5.91 3:4.7 4:-5.29 5:-10.99 6:-4.71 7:0.01 8:-9.38 9:10.42 10:0.84 11:9.92 12:2.57 
2.703657262854476e-06 0:24.8 1:-13.89 2:14.74 3:-4.7 4:-14.74 5:-27.46 6:-24.7 7:-17.18 8:-3.07 9:5.05 10:20.44 11:-12.44 12:5.09 
2.703657262854476e-06 0:25.42 1:-17.54 2:3.62 3:-18.78 4:-13.61 5:-31.63 6:-13.14 7:-8.97 8:-26.82 9:11.37 10:-8.18 11:0.82 12:-12.52 
2.703657262854476e-06 0:21.75 1:-15.09 2:15.65 3:4.09 4:-5.21 5:3.82 6:-9.48 7:5.1 8:-5.59 9:10.58 10:1.93 11:-0.16 12:8.65 
2.703657262854476e-06 0:26.82 1:-24.51 2:17.02 3:-14.18 4:-4.35 5:-16.86 6:-20.11 7:-25.72 8:-2.62 9:0.97 10:-5.99 11:11.2 12:-15.01 
2.703657262854476e-06 0:24.52 1:-10.39 2:12.21 3:-18.67 4:-9.92 5:-19.73 6:-14.92 7:-18.15 8:-7.22 9:-2.39 10:-15.51 11:7.43 12:7.26 
2.703657262854476e-06 0:24.52 1:-15.23 2:10.63 3:1.92 4:-13.29 5:-17.49 6:-28.54 7:-24.4 8:7.15 9:13.57 10:0.15 11:-10.73 12:-0.05 
2.703657262854476e-06 0:24.26 1:-8.21 2:10.51 3:-11.13 4:-21.42 5:-22.79 6:-6.03 7:-7.88 8:1.85 9:5.52 10:-7.83 11:-2.95 12:4.06 
2.703657262854476e-06 0:24.58 1:-14.66 2:12.65 3:4.69 4:-12.67 5:-26.33 6:-26.99 7:-27.52 8:0.41 9:8.75 10:21.44 11:-7.45 12:0.32 
2.703657262854476e-06 0:25.48 1:-19.06 2:-9.94 3:-18.76 4:-22.02 5:-5.27 6:-30.27 7:-3.66 8:-5.23 9:-7.75 10:3.32 11:-11.09 12:-10.11 
2.703657262854476e-06 0:25.43 1:-13.37 2:12.83 3:-22.19 4:-31.21 5:-3.97 6:-17.08 7:-10.91 8:-7.12 9:0.88 10:-3.61 11:12.46 12:-19.66 
2.703657262854476e-06 0:21.17 1:-9.33 2:7.44 3:2.59 4:-4.99 5:13.1 6:-13.98 7:23.01 8:-12.24 9:15.83 10:5.24 11:-6.75 12:16.07 
2.703657262854476e-06 0:26.39 1:-18.87 2:8.79 3:-11.13 4:-11.49 5:-7.73 6:-29.44 7:-11.46 8:-8.66 9:5.36 10:13.78 11:1.53 12:-15.21 
2.703657262854476e-06 0:23.94 1:-4.21 2:-2.28 3:-11.16 4:-25.53 5:-16.26 6:-23.47 7:-17.37 8:-0.07 9:9.71 10:0.34 11:-10.82 12:-4.22 
2.703657262854476e-06 0:23.21 1:-5.74 2:-5.53 3:-10.74 4:-17.15 5:-32.47 6:-13.6 7:-6.25 8:-17.69 9:-17.16 10:2.85 11:13.28 12:-10.06 
2.703657262854476e-06 0:23.63 1:-5.67 2:-17.17 3:-11.77 4:-13.39 5:-39.96 6:-23.31 7:-10.44 8:-27.83 9:-5.49 10:30.77 11:-13.49 12:-9.81 
2.703657262854476e-06 0:25.36 1:-13.04 2:4.18 3:-17.52 4:-8.69 5:-29.94 6:-6.89 7:-5.88 8:-19.23 9:8.53 10:-7.77 11:-8.09 12:-1.11 
2.703657262854476e-06 0:25.13 1:-12.47 2:17.14 3:-3.85 4:-27.42 5:-18.17 6:10 7:-20.21 8:4.97 9:13.77 10:-7.78 11:1.12 12:7.08 
2.703657262854476e-06 0:24.78 1:-12.02 2:2.31 3:-5.19 4:-28.3 5:-12.85 6:-16.89 7:-13.18 8:-7.41 9:16.57 10:-5.58 11:-4.38 12:2 
2.703657262854476e-06 0:22.55 1:1.89 2:-1.86 3:0.44 4:-8.09 5:-16.69 6:-5.19 7:-23.13 8:-12.33 9:-12.86 10:7.68 11:6.26 12:1.46 
2.703657262854476e-06 0:24.07 1:-4.55 2:5.46 3:-41.45 4:-8.74 5:-2.04 6:-33.84 7:3.44 8:-14.26 9:14.24 10:12.52 11:-5.52 12:-6.39 
2.703657262854476e-06 0:25.5 1:-13.73 2:1.45 3:17.44 4:-12.98 5:-30.7 6:-37.16 7:-3.93 8:-17.21 9:19.14 10:-16.96 11:-18.12 12:-7.44 
2.703657262854476e-06 0:24.7 1:-18.07 2:1.38 3:9.47 4:-4.24 5:-19.51 6:-48.56 7:-15.2 8:-10.93 9:-3.4 10:-3.01 11:-1.08 12:-10.1 
2.703657262854476e-06 0:24.53 1:-14.75 2:-8.13 3:-6.49 4:-28.5 5:-32.92 6:-12.38 7:6.71 8:-10.69 9:-2.01 10:-3.47 11:-12.1 12:-7.47 
2.703657262854476e-06 0:25.43 1:-18.4 2:4.88 3:-4.61 4:-10.32 5:-11.5 6:-8.77 7:-23.53 8:1.8 9:3.69 10:0.77 11:4.32 12:9.95 
2.703657262854476e-06 0:24.05 1:-11.23 2:7.61 3:0.89 4:-20.03 5:-20.68 6:-16.94 7:-12.6 8:-3.57 9:9.95 10:-3.99 11:-14.04 12:-0.16 
2.703657262854476e-06 0:23.54 1:-8.27 2:8.26 3:-19.98 4:-24.05 5:-4.26 6:-19.05 7:-20.57 8:7.56 9:1.19 10:1.7 11:-5.66 12:-4.14 
2.703657262854476e-06 0:23.34 1:-2.48 2:12.77 3:-20.89 4:-26.41 5:3.3 6:-20.33 7:3.32 8:-23.16 9:-15.93 10:5.12 11:14.5 12:-6.5 
2.703657262854476e-06 0:25.16 1:-17.02 2:7.98 3:5.71 4:-1.57 5:-15.06 6:-23.51 7:-31.96 8:-13.39 9:11.22 10:-0.59 11:-4.45 12:12.02 
2.703657262854476e-06 0:24.44 1:-15.79 2:-6.69 3:1.53 4:-10.97 5:-12.23 6:-14.09 7:-13.86 8:-10.54 9:7.48 10:-9.15 11:4.34 12:-9.52 
2.703657262854476e-06 0:21.98 1:-13.46 2:12.1 3:-0.16 4:4.48 5:-13.98 6:-9.32 7:9.21 8:-17.63 9:19.36 10:-3.81 11:1.85 12:5.53 
2.703657262854476e-06 0:24.46 1:-12.21 2:-2.8 3:-5.6 4:-8.84 5:-5.23 6:-21.69 7:-19.31 8:-20.31 9:4.08 10:9.17 11:13.03 12:-20.1 
2.703657262854476e-06 0:25.17 1:-3.4 2:-16.79 3:1.44 4:7.42 5:-36.77 6:-2.14 7:-32.19 8:-10.66 9:17.12 10:-3.29 11:13.73 12:-11.84 
2.703657262854476e-06 0:25.08 1:-10.96 2:14.88 3:-17.45 4:-11.52 5:-28.74 6:-8.8 7:2.28 8:-21.37 9:-2.47 10:-5.4 11:-8.3 12:-0.2 
2.703657262854476e-06 0:24.54 1:-9.16 2:4.11 3:-20.58 4:-5.09 5:-14.65 6:-36.62 7:2.04 8:-24.49 9:-2.49 10:9.35 11:-8.71 12:-5.49 
2.703657262854476e-06 0:23.75 1:-4.86 2:1.46 3:-10.73 4:-31.45 5:-9.26 6:-7.57 7:-15.78 8:-18.53 9:7.19 10:-3.22 11:4.57 12:-11.82 
2.703657262854476e-06 0:25.83 1:-17.37 2:12.84 3:-7.02 4:-26.24 5:-13.55 6:-17.97 7:-14.05 8:-9.89 9:16.23 10:-12.87 11:1.05 12:-19.71 
2.703657262854476e-06 0:22.79 1:-18.53 2:22.84 3:-5.63 4:-3.1 5:4.45 6:-11.08 7:14.1 8:-11.34 9:20.66 10:1.7 11:-1.4 12:9.15 
2.703657262854476e-06 0:24.31 1:-4.34 2:7.59 3:-14.85 4:-19.36 5:-14.83 6:-14.25 7:-15.34 8:-0.29 9:1.35 10:-1.28 11:-3.48 12:-5.29 
2.703657262854476e-06 0:24.57 1:-18.57 2:-23.77 3:-22.74 4:-16.27 5:-38.56 6:5.44 7:-16.12 8:-12.11 9:4.96 10:-10.73 11:-6.42 12:-12.6 
2.703657262854476e-06 0:25.49 1:-16.68 2:-8.32 3:2.31 4:-6.76 5:-18.57 6:-24.17 7:-16.28 8:-14.65 9:13.75 10:-7.96 11:1.97 12:-2.59 
2.703657262854476e-06 0:23.75 1:-2.42 2:-4.93 3:-21.13 4:-12.45 5:-18.81 6:4.04 7:-21.19 8:-18.99 9:-0.82 10:8.58 11:-0.94 12:-4.69 
2.703657262854476e-06 0:25.96 1:-14.83 2:5.81 3:-12.28 4:-2.69 5:-26.69 6:-15.61 7:-4.05 8:-26.82 9:7.13 10:-11.75 11:4.88 12:-17.83 
2.703657262854476e-06 0:25.57 1:-14.2 2:15.17 3:-24.9 4:-3.72 5:0.34 6:-28.11 7:-16.65 8:0.65 9:5.69 10:-8.59 11:10.33 12:-3.04 
2.703657262854476e-06 0:25.02 1:-10.66 2:11.69 3:-0.6 4:-24.34 5:-22.92 6:-16.07 7:-7.96 8:-13.33 9:-1.47 10:0.11 11:8.22 12:-3.01 
2.703657262854476e-06 0:23.84 1:-18.66 2:21.19 3:-4.82 4:0.14 5:-18.67 6:-15.01 7:20.35 8:-19.42 9:22.4 10:-4.93 11:-7.57 12:-0.86 
2.703657262854476e-06 0:24.12 1:-7.78 2:1.87 3:-18.31 4:-26.47 5:-9.6 6:0.31 7:-16.42 8:-20.34 9:18.12 10:-7.6 11:7.26 12:-20.62 
2.703657262854476e-06 0:24.01 1:-10.39 2:-3.09 3:-10.06 4:-15.04 5:-28.97 6:-9.38 7:-11.89 8:-10 9:11.46 10:3.06 11:-7.43 12:-4.71 
2.703657262854476e-06 0:24.15 1:-18.7 2:-4.27 3:9.58 4:-11.68 5:-31 6:-6.02 7:2.43 8:-28.39 9:0.92 10:-3.32 11:-11.24 12:-7.78 
2.703657262854476e-06 0:25.17 1:-8.23 2:3.61 3:-14.58 4:-0.62 5:-22.42 6:-19.32 7:3.86 8:-24.84 9:1.56 10:-13.23 11:-3.84 12:-14.26 
2.703657262854476e-06 0:22.73 1:-9.83 2:23.19 3:-12.79 4:-8.05 5:0.6 6:-29.44 7:9.31 8:-14.69 9:13.78 10:-5.03 11:6.09 12:-11.69 
2.703657262854476e-06 0:24.39 1:-6.72 2:3.29 3:-0.82 4:-19.64 5:-17.63 6:-9.57 7:-13.38 8:-4.47 9:4.63 10:-11.3 11:-6.13 12:3.97 
2.703657262854476e-06 0:24.65 1:-7.74 2:13.96 3:-39.47 4:-18.46 5:-5.36 6:-19.35 7:-9.74 8:-7.43 9:15.19 10:0.28 11:-0.58 12:-1.07 
2.703657262854476e-06 0:24.04 1:-7.82 2:11.84 3:-22.62 4:-23.7 5:-5.24 6:-24.37 7:-3.62 8:-5.32 9:7.27 10:-0.37 11:-5.71 12:6.51 
2.703657262854476e-06 0:23.97 1:-12.92 2:-23.61 3:-27.55 4:-16.71 5:-13.93 6:-13.99 7:-9.39 8:-8.03 9:-6.71 10:0.52 11:-10.82 12:-11.46 
2.703657262854476e-06 0:24.7 1:-10.5 2:16.54 3:-0.94 4:3.68 5:-13.68 6:-29.04 7:-1 8:-14.65 9:-13.07 10:-11.43 11:-13.6 12:-14.84 
2.703657262854476e-06 0:23.99 1:-4.21 2:13.56 3:-17.74 4:-35.21 5:-7.23 6:-11.14 7:-1.96 8:2.4 9:-3.43 10:2.5 11:-1.65 12:-0.29 
2.703657262854476e-06 0:24.57 1:-8.21 2:5.77 3:-17.27 4:-19.6 5:-13.91 6:-8.93 7:9.25 8:-29.63 9:-10.99 10:0.31 11:-0.01 12:-7.74 
2.703657262854476e-06 0:24.3 1:-6.27 2:9.93 3:-25.98 4:-12.21 5:-19.8 6:-12.63 7:-8.76 8:-25.79 9:4.94 10:-1.45 11:-8.67 12:-4.19 
2.703657262854476e-06 0:20.02 1:-4.79 2:6.86 3:2.1 4:-2.94 5:3.07 6:-9.5 7:9.56 8:-9.72 9:13.12 10:1.51 11:7.63 12:4.65 
2.703657262854476e-06 0:25.04 1:-17.07 2:13.86 3:9.55 4:-7.07 5:-16.39 6:-18.83 7:-27.47 8:-6.32 9:6.15 10:12.25 11:-3.27 12:6.76 
2.703657262854476e-06 0:26.46 1:-20.82 2:8.85 3:-2.72 4:-11.84 5:-1.39 6:-19.01 7:-16.65 8:-8.94 9:-0.91 10:1.5 11:14.05 12:-18.61 
2.703657262854476e-06 0:23.96 1:-12.15 2:-4.44 3:13.26 4:7.72 5:-37.46 6:-20.12 7:-19.27 8:-14.24 9:-10.34 10:-6.66 11:30.13 12:-16.5 
2.703657262854476e-06 0:24.13 1:-7.15 2:-2.02 3:-11.35 4:-16.16 5:-36.32 6:0.98 7:-5.18 8:-20.4 9:-1.56 10:-7.23 11:-1.05 12:-8.51 
2.703657262854476e-06 0:25.65 1:-17.86 2:8.01 3:3.15 4:-3.34 5:-24.89 6:-7.63 7:-6.77 8:-17.28 9:12.05 10:7.26 11:-5.33 12:-1.7 
2.703657262854476e-06 0:26.41 1:-21.9 2:15.05 3:2.19 4:-21.8 5:-10.79 6:-10.76 7:-7 8:-6.66 9:13.37 10:3.75 11:-11.81 12:14.75 
2.703657262854476e-06 0:24.62 1:-10.6 2:14.07 3:-12.44 4:-16.36 5:-0.61 6:-1.86 7:-29.38 8:-4.25 9:-5.59 10:-3.74 11:2.8 12:5.41 
2.703657262854476e-06 0:24.44 1:-8.2 2:-0.58 3:-6.52 4:4.51 5:-4.7 6:-26.63 7:-22.77 8:-9.21 9:-1.71 10:4.85 11:-10.26 12:-12.64 
2.703657262854476e-06 0:22.7 1:-20.44 2:11.87 3:11.93 4:-2.69 5:-15.32 6:-1.94 7:4.64 8:-19.37 9:17.38 10:1 11:6.75 12:11.36 
2.703657262854476e-06 0:21.76 1:-12.52 2:14.28 3:-2.08 4:-11.68 5:3.19 6:-9.64 7:10.92 8:-3.73 9:12.08 10:-5.29 11:3.05 12:1.49 
2.703657262854476e-06 0:24.5 1:-9.92 2:8.39 3:-26.35 4:-24.91 5:-4.21 6:-17.91 7:-13.92 8:-1.75 9:13.92 10:-10.35 11:10.55 12:-22.04 
2.703657262854476e-06 0:24.21 1:1.05 2:-10.39 3:-39.01 4:-9.82 5:-8.34 6:-31.02 7:-8.63 8:-8.15 9:-6.98 10:9.8 11:-4.24 12:-15.9 
2.703657262854476e-06 0:24.94 1:-12.46 2:8.03 3:-35.89 4:-22.12 5:-0.98 6:-22.64 7:-5.38 8:1.57 9:5.9 10:3.02 11:2 12:-15.74 
2.703657262854476e-06 0:24.78 1:-21.42 2:-7.27 3:-34.02 4:-22.16 5:-13.13 6:-11.86 7:-2.02 8:-10.27 9:-5.89 10:-5.25 11:-4.37 12:-25.38 
2.703657262854476e-06 0:24.04 1:-8.23 2:15 3:3.48 4:-15.11 5:-13.23 6:-27.76 7:-6.3 8:2.49 9:-8.37 10:-1.86 11:3.03 12:-5.49 
2.703657262854476e-06 0:23.9 1:-4.56 2:9.32 3:-20.05 4:-40.82 5:-1.2 6:-10.01 7:-11.73 8:-2.94 9:5.68 10:-2.75 11:8.05 12:-2.31 
2.703657262854476e-06 0:26.48 1:-25.51 2:8.16 3:-2.36 4:-13.59 5:-14.77 6:-22.94 7:-21.1 8:-4.68 9:12.55 10:0.43 11:2.5 12:-15.52 
2.703657262854476e-06 0:22.05 1:-12.69 2:15.11 3:-6.8 4:-4.67 5:8.81 6:-15.98 7:10.44 8:-9.93 9:19.85 10:-1.61 11:4.53 12:8.17 
2.703657262854476e-06 0:23.99 1:-8.29 2:-1.2 3:-27.83 4:-37.03 5:-1.9 6:1.33 7:-7.46 8:-16.19 9:-4.7 10:-0.67 11:15.47 12:-9.15 
2.703657262854476e-06 0:24.3 1:-1.86 2:-2.03 3:-3.05 4:-29.35 5:-21.51 6:-5.97 7:-25.04 8:-17.95 9:17.8 10:-7.03 11:-4.89 12:-6.07 
2.703657262854476e-06 0:25.64 1:-11.64 2:16.02 3:-9.5 4:-20.88 5:-12.47 6:-22.12 7:-12.91 8:2.18 9:-0.43 10:-14.16 11:1.65 12:-7.67 
2.703657262854476e-06 0:20.16 1:-3.12 2:2.61 3:8.32 4:-2.2 5:-6.72 6:-11.93 7:8.92 8:-15.89 9:7.9 10:6.44 11:7.64 12:5.97 
2.703657262854476e-06 0:23.67 1:-22.27 2:19.92 3:5.68 4:-6.16 5:-2.64 6:-15.6 7:8.38 8:-17.04 9:7.44 10:10.12 11:-4.64 12:7.59 
2.703657262854476e-06 0:24.54 1:-19.3 2:-28.01 3:-25.45 4:-11.54 5:-38.51 6:-8.09 7:-6.18 8:-21.28 9:2.58 10:-10.22 11:-1.5 12:-5.85 
2.703657262854476e-06 0:24.01 1:-12.7 2:8.95 3:-7.21 4:-17.93 5:-15.52 6:-20.81 7:-13.26 8:13.63 9:16.98 10:-8.5 11:-4.18 12:5.24 
2.703657262854476e-06 0:24.6 1:-9.62 2:5.48 3:-32.28 4:-13.4 5:-26.01 6:-3.99 7:-13.91 8:-15.7 9:4.89 10:-1.79 11:2.23 12:-4.56 
2.703657262854476e-06 0:24.52 1:-8.62 2:9.94 3:-3.02 4:-7.94 5:-18.05 6:-16.04 7:-11.64 8:-24.61 9:15.98 10:-4.09 11:-7.48 12:-7.26 
2.703657262854476e-06 0:25.01 1:-12.39 2:1.64 3:-21.64 4:-10.78 5:-33.92 6:-16.41 7:-0.86 8:-32.04 9:8.66 10:-4.61 11:-3.08 12:-9.59 
2.703657262854476e-06 0:23.68 1:-1.17 2:-6.33 3:22.56 4:-23.61 5:-54.15 6:-9.74 7:-7.13 8:-9.74 9:-10.21 10:-20.45 11:0.19 12:-5.82 
2.703657262854476e-06 0:24.64 1:-17.95 2:-29.76 3:-25.58 4:-9.87 5:-34.76 6:-12.24 7:-14.37 8:-6.04 9:-5.03 10:-9.6 11:-2.59 12:-12.78 
2.703657262854476e-06 0:25.61 1:-15.88 2:6.37 3:-36.24 4:-27.93 5:-9.28 6:-24.82 7:-4.46 8:-13.42 9:5.2 10:2.73 11:-4.08 12:-14.27 
2.703657262854476e-06 0:25.08 1:-16.87 2:13.67 3:11.67 4:-6.4 5:-15.52 6:-40.97 7:-16.7 8:-7.35 9:6.53 10:7.95 11:1.67 12:-10.73 
2.703657262854476e-06 0:24.5 1:-4.82 2:14.72 3:-22.97 4:-3.53 5:-10.48 6:-9.09 7:-21.24 8:-6.28 9:10.15 10:-27.95 11:10.85 12:4.01 
2.703657262854476e-06 0:23.57 1:-12.43 2:4.55 3:-4.02 4:-22.47 5:-18.73 6:-10.78 7:-7.85 8:-19.71 9:-3.68 10:-0.08 11:2.52 12:-5.95 
2.703657262854476e-06 0:23.82 1:4.82 2:-4.14 3:-8.79 4:-21.91 5:-10.12 6:-13.51 7:-12.5 8:-1.74 9:2.54 10:-2.64 11:-3.41 12:-5.89 
2.703657262854476e-06 0:25.69 1:-16.26 2:14.49 3:-7.7 4:-29.18 5:-2.12 6:-4.06 7:-31.78 8:-1.26 9:24.11 10:-7.89 11:-7.57 12:-16.1 
2.703657262854476e-06 0:24.53 1:-10.46 2:7.87 3:-1.16 4:-16.44 5:-22.39 6:-31.44 7:-15.69 8:-1.85 9:9.49 10:-5.7 11:-7.04 12:1.93 
2.703657262854476e-06 0:24.92 1:-14.44 2:2.1 3:-10.19 4:-15.44 5:-22.17 6:-14.57 7:-1.42 8:-15.09 9:0.65 10:3.05 11:-17.57 12:-11.84 
2.703657262854476e-06 0:24.54 1:-11.94 2:2.57 3:-0.97 4:-16.2 5:-19.83 6:-17.18 7:-13.88 8:-7.84 9:12.39 10:-4.22 11:-17.65 12:3.33 
2.703657262854476e-06 0:24.31 1:-13.86 2:7.07 3:-1.85 4:-10.69 5:-25.76 6:-34.47 7:-20.77 8:8.45 9:13.58 10:0.59 11:-15.7 12:5.54 
2.703657262854476e-06 0:24.89 1:-10.15 2:11.12 3:-22.11 4:-24.1 5:-10.64 6:-17.06 7:-23.84 8:-4.8 9:5.3 10:-7.08 11:0.67 12:-15.07 
2.703657262854476e-06 0:25.02 1:-16.32 2:5.9 3:-2.43 4:-13.77 5:-18.08 6:-25.1 7:-22.26 8:8.99 9:1.09 10:-0.39 11:-5.22 12:9.11 
2.703657262854476e-06 0:26.36 1:-18.58 2:12.16 3:-17.99 4:-5.31 5:-22.67 6:-17.01 7:-20.2 8:-8.86 9:-1.66 10:4.45 11:3.43 12:-19.72 
2.703657262854476e-06 0:25.33 1:-19.73 2:-0.7 3:-35.71 4:-23.39 5:-13.37 6:-18.7 7:-3.47 8:-8.73 9:5.61 10:-5.43 11:-15.17 12:-18.35 
2.703657262854476e-06 0:23.18 1:3.26 2:3.53 3:-4.76 4:-22.2 5:-10.96 6:-16.59 7:-10.65 8:-31.6 9:-11.47 10:-2.75 11:15.82 12:-7.4 
2.703657262854476e-06 0:23.61 1:-3.52 2:7.48 3:-24.86 4:-30.45 5:-8.55 6:-9.71 7:1.05 8:-0.65 9:-1.58 10:-10.87 11:-5.32 12:1.36 
2.703657262854476e-06 0:24.56 1:-7.58 2:-14.19 3:-2.81 4:-24.15 5:-21.3 6:-4.13 7:-15.61 8:-4.66 9:8.32 10:-13.42 11:7.58 12:-11.53 
2.703657262854476e-06 0:24.05 1:-7.49 2:5.83 3:-19.92 4:-14.39 5:-10.8 6:-18.76 7:-6 8:-6.64 9:-0.21 10:-4.34 11:-5.83 12:4.51 
2.703657262854476e-06 0:24.04 1:-6.55 2:5.38 3:-19.87 4:-20.48 5:-11.99 6:-11.54 7:-9.99 8:-1.95 9:1.44 10:-6.92 11:3.3 12:-8.99 
2.703657262854476e-06 0:25.45 1:-17.42 2:10.62 3:3.29 4:-21.05 5:-14.25 6:-32.97 7:-22.31 8:-4.61 9:8.95 10:-7.75 11:15.65 12:-14.55 
2.703657262854476e-06 0:22.81 1:-18.9 2:16.98 3:1.61 4:-5.63 5:3.15 6:-11.74 7:12.36 8:-12.2 9:26.27 10:-1.78 11:-7.67 12:7.38 
2.703657262854476e-06 0:24.46 1:-8.66 2:13.89 3:-12.07 4:-21.25 5:-7.84 6:-20.09 7:-0.56 8:1.28 9:-1.73 10:9.61 11:4.75 12:-1.8 
2.703657262854476e-06 0:22.98 1:3.5 2:-7.41 3:-6.66 4:-18.09 5:-37.31 6:-21.9 7:-0.19 8:-11.84 9:-9.96 10:7.6 11:-5.28 12:-5.76 
2.703657262854476e-06 0:22.88 1:-16.37 2:16.96 3:-4.69 4:6.21 5:-10.56 6:-16.42 7:22.34 8:-20.65 9:23.28 10:-4.23 11:13.4 12:-2.91 
2.703657262854476e-06 0:24.63 1:-11.25 2:4.23 3:-9.29 4:-29.48 5:0.61 6:-19.23 7:-19.85 8:-15.41 9:-7.23 10:9.5 11:11.69 12:-24.72 
2.703657262854476e-06 0:23.89 1:-9.97 2:8.79 3:-17.65 4:-47.38 5:-10.19 6:21.46 7:-22.69 8:-19.43 9:3.08 10:2.06 11:5.91 12:-12.75 
2.703657262854476e-06 0:24.78 1:-20.06 2:-10.38 3:-9.52 4:-24.05 5:-14.72 6:-28.64 7:19.73 8:-15.24 9:-3.04 10:-5.21 11:-13.32 12:-7.51 
2.703657262854476e-06 0:24.84 1:-11.24 2:3.25 3:-27.44 4:-31.28 5:-10.38 6:-8.85 7:-7.57 8:-8.1 9:12.33 10:-1.49 11:7.26 12:-1.57 
2.703657262854476e-06 0:24.08 1:-5.13 2:4.63 3:-13.36 4:-18.33 5:-2.28 6:-22.6 7:-21.26 8:8.45 9:2.66 10:1.95 11:-4.55 12:-11.7 
2.703657262854476e-06 0:24.76 1:-11.72 2:6.5 3:1.56 4:-11.55 5:-17.26 6:-21.98 7:-21.31 8:2.43 9:-7 10:9.57 11:-3.95 12:-0.71 
2.703657262854476e-06 0:25.85 1:-19.34 2:8.12 3:-8.79 4:-12.69 5:-5.13 6:-24.13 7:-19.5 8:-14.8 9:13.27 10:1.94 11:-0.01 12:-29.45 
2.703657262854476e-06 0:24.78 1:-12.61 2:8.03 3:-0.42 4:1.16 5:-36.49 6:-6.03 7:-11.36 8:-22.84 9:9.28 10:-10.69 11:-0.26 12:-4.39 
2.703657262854476e-06 0:23.99 1:-2.65 2:6.74 3:-13.75 4:-44.33 5:3.11 6:4.08 7:-25.79 8:-5.93 9:29.21 10:-0.98 11:13.59 12:-14.63 
2.703657262854476e-06 0:24.85 1:-10.77 2:6.98 3:-0.7 4:7.96 5:-23.91 6:-8.73 7:-30.37 8:-9.12 9:2.19 10:-1.95 11:11.13 12:2.84 
2.703657262854476e-06 0:26.04 1:-18.34 2:17.87 3:-8.44 4:-25.75 5:-10.33 6:-34.7 7:-7.55 8:-4.92 9:2.16 10:3.39 11:9.58 12:-21.39 
2.703657262854476e-06 0:24.47 1:-5.61 2:9.88 3:-20.22 4:-19.16 5:-9.89 6:-15.32 7:-9.93 8:9.92 9:10.18 10:-9.33 11:-0.68 12:6.35 
2.703657262854476e-06 0:24.65 1:-12.03 2:7.28 3:-18.16 4:-31.2 5:-3 6:-3.2 7:-7.68 8:-16.15 9:0.71 10:2.52 11:17.56 12:-6.32 
2.703657262854476e-06 0:25.86 1:-20.24 2:16.08 3:1.23 4:-20.36 5:-8.05 6:-37.43 7:-4.35 8:-8.21 9:-10.46 10:5.1 11:5.56 12:-10.38 
2.703657262854476e-06 0:26.03 1:-17.47 2:11.39 3:-26.04 4:-8.75 5:-18.6 6:-19.04 7:-9.19 8:-14.29 9:-10.5 10:9.8 11:2.09 12:-9.14 
2.703657262854476e-06 0:25.31 1:-13.6 2:-4.79 3:11.54 4:14.09 5:-38.9 6:-13.28 7:-22.77 8:-31.33 9:2.58 10:-14.26 11:-12.97 12:3.02 
2.703657262854476e-06 0:24.33 1:-21.06 2:-25.46 3:-17.36 4:-18.78 5:-16.33 6:-17.83 7:-13.15 8:4.04 9:-6.45 10:-9.43 11:-5.36 12:-20.95 
2.703657262854476e-06 0:23.16 1:-14.48 2:4.15 3:10.87 4:-4.44 5:-29.7 6:-11.12 7:-14.43 8:-18.37 9:9.89 10:-2.76 11:-4.94 12:-5.23 
2.703657262854476e-06 0:25.04 1:-14.95 2:4.89 3:-15.87 4:-30.31 5:-3.31 6:1.29 7:-17.07 8:-16.95 9:6.31 10:-4.63 11:20.2 12:-14.01 
2.703657262854476e-06 0:23.36 1:-4.75 2:7.34 3:-15.38 4:-19.34 5:-8.8 6:-13.11 7:-12.48 8:0.91 9:10.75 10:-7.53 11:3.31 12:3.76 
2.703657262854476e-06 0:23.6 1:-4.51 2:12.22 3:-16.1 4:-28.15 5:-7.68 6:-25.35 7:-15.1 8:-26.82 9:5.87 10:-1.89 11:2.89 12:-4.49 
2.703657262854476e-06 0:25.17 1:-13.11 2:9.2 3:-6.38 4:-17.5 5:-25.13 6:-4.26 7:-9.89 8:-9.15 9:6.85 10:-2.42 11:-4.25 12:16.21 
2.703657262854476e-06 0:26.53 1:-25.73 2:25.72 3:-11.29 4:11.07 5:-21.73 6:-18.97 7:-16.5 8:-14.92 9:-5.32 10:2.08 11:-1.26 12:-6.07 
2.703657262854476e-06 0:22.67 1:5.54 2:-6.24 3:-18.06 4:-2.78 5:-25.69 6:-29.39 7:-3.68 8:-12.4 9:4.31 10:-3.26 11:6.81 12:-0.17 
2.703657262854476e-06 0:24.35 1:-13.98 2:9.21 3:-7.3 4:-20.13 5:-20.82 6:-25.14 7:-23.95 8:8.16 9:10.27 10:-4.43 11:-20.67 12:-0.78 
2.703657262854476e-06 0:22.48 1:-15.28 2:22.38 3:-5.9 4:1.36 5:0.35 6:-18.32 7:19.7 8:-19.14 9:18.35 10:1.71 11:-1.05 12:5.8 
2.703657262854476e-06 0:24.35 1:-7.09 2:2.32 3:-12.75 4:-16.64 5:-21.86 6:-1.12 7:-6.62 8:-10.06 9:16.94 10:-13.81 11:-23.32 12:18.17 
6.177535257298439e-07 0:22.06 1:-14.49 2:16.66 3:1.47 4:7.03 5:-17.57 6:0.87 7:11.27 8:-25.34 9:22.05 10:-6.52 11:-2.8 12:2.04 
2.703657262854476e-06 0:26.13 1:-18.58 2:-1.25 3:-20.93 4:-27.8 5:-18.95 6:-35.41 7:-21.44 8:-5.94 9:0.33 10:-10.14 11:-8.27 12:-18.06 
2.703657262854476e-06 0:23.42 1:-18.8 2:20.36 3:-0.97 4:4.05 5:-17.94 6:-11.25 7:10.01 8:-24.97 9:24.47 10:-7.87 11:11.11 12:2.92 
2.703657262854476e-06 0:25.03 1:-12.24 2:0.44 3:-13.86 4:-32.32 5:-3.73 6:-25.85 7:-12.65 8:-8.86 9:3.18 10:5.11 11:1.91 12:-22.78 
2.703657262854476e-06 0:24 1:-10.13 2:-7.22 3:11.24 4:2.84 5:-36.82 6:-32.83 7:5.05 8:-13.63 9:-22.3 10:-15.83 11:10.92 12:-7.32 
2.703657262854476e-06 0:26.12 1:-31.99 2:21.17 3:9.23 4:3.32 5:-32.32 6:-15.49 7:-25.61 8:0.59 9:8.64 10:0.32 11:7.41 12:-6.77 
2.703657262854476e-06 0:26.39 1:-28.13 2:21.24 3:-6.17 4:-5.2 5:-17.75 6:-37.2 7:-28.58 8:4.6 9:-0.84 10:1.22 11:4.86 12:-9.07 
2.703657262854476e-06 0:25.89 1:-21.72 2:13.68 3:6.09 4:-5.82 5:-24.93 6:-33.16 7:-12.97 8:-14.23 9:-0.12 10:-4.05 11:-10.19 12:-5.41 
2.703657262854476e-06 0:25.35 1:-13.64 2:11.95 3:-13.05 4:-18.76 5:-17.42 6:-7.07 7:-17.94 8:-3.72 9:21.38 10:-16.24 11:-8 12:14.84 
2.703657262854476e-06 0:25.34 1:-15.75 2:5.24 3:-14.09 4:-14.15 5:13.25 6:-16.54 7:-9.74 8:-7.45 9:3.15 10:-0.69 11:5.51 12:-10.32 
2.703657262854476e-06 0:23.82 1:-0.31 2:0.3 3:-19.55 4:-30.45 5:4.02 6:-11.24 7:-17.18 8:4.36 9:-8 10:12.18 11:2.33 12:-3.29 
2.703657262854476e-06 0:24.17 1:-10.39 2:14.44 3:-19.13 4:-17.77 5:0.66 6:-26.38 7:-11.58 8:2.94 9:-3.13 10:7.49 11:-7.48 12:1.31 
2.703657262854476e-06 0:23.65 1:6 2:3.58 3:-19.23 4:-18.96 5:-21.75 6:-7.84 7:-15.82 8:-16.11 9:2.29 10:0.81 11:8.69 12:-4.91 
2.703657262854476e-06 0:25.49 1:-19.38 2:10.78 3:10.37 4:-9.62 5:-18 6:-27.1 7:-18 8:0.67 9:10.39 10:10.07 11:-10.07 12:-2.16 
2.703657262854476e-06 0:24.32 1:-5.51 2:4.87 3:-20.43 4:-19.94 5:-18.53 6:-13.32 7:-26.34 8:-14.89 9:12.63 10:-6.75 11:4.49 12:-6.79 
2.703657262854476e-06 0:25.21 1:-16.12 2:10.49 3:-23.61 4:-43.56 5:0.41 6:-4.35 7:-11.92 8:-6.22 9:0.36 10:-4.86 11:14.65 12:-14.62 
2.703657262854476e-06 0:25.27 1:-16.89 2:-9.25 3:-11.37 4:-12.99 5:-3.87 6:-15.26 7:-6.8 8:-17.17 9:14.08 10:-23.56 11:11.86 12:-15.99 
2.703657262854476e-06 0:25.94 1:-19.67 2:1.08 3:-11.39 4:-15.85 5:-5.88 6:-21.66 7:-12.22 8:-6.91 9:11.63 10:-2.76 11:12.8 12:-25.51 
2.703657262854476e-06 0:23.31 1:-3.34 2:-5.94 3:-4.03 4:-12.62 5:-27.34 6:-22.09 7:-18.03 8:-9.96 9:-7.06 10:-2.38 11:13.46 12:-7.13 
2.703657262854476e-06 0:24.26 1:-13.32 2:10.06 3:5.46 4:-22.33 5:-23.26 6:-11.44 7:-11.39 8:4.77 9:19.81 10:-11.23 11:5.96 12:-2.53 
2.703657262854476e-06 0:24.55 1:-9.99 2:3.77 3:-23.88 4:11.49 5:-25.17 6:-32.47 7:1.17 8:-21 9:6.81 10:-4.04 11:-1.29 12:-10.8 
2.703657262854476e-06 0:24.73 1:-10.51 2:3.53 3:-14.27 4:-28.1 5:-11.07 6:-10.49 7:3.56 8:-24.33 9:9.58 10:3.86 11:2.01 12:-2.95 
2.703657262854476e-06 0:24.72 1:-20.81 2:-22.72 3:-11.93 4:-25.12 5:-40.5 6:-17.27 7:-3.77 8:-3.09 9:5.6 10:-11.47 11:-0.07 12:-18.2 
2.703657262854476e-06 0:24.64 1:-16.68 2:-3.56 3:16.19 4:-16.83 5:-24.18 6:-19.02 7:-6.42 8:-10.98 9:-8.37 10:6.01 11:-5.65 12:-10.99 
2.703657262854476e-06 0:23.83 1:-4.53 2:12.37 3:-11.75 4:-36.61 5:-6.27 6:-1.75 7:-13.7 8:-6.42 9:-6.41 10:9.39 11:1.02 12:-2.49 
2.703657262854476e-06 0:23.73 1:-5.39 2:-1.78 3:-11.87 4:6.53 5:-22.79 6:-18.01 7:-12.49 8:-12.5 9:-12.25 10:-22.33 11:33.72 12:-12.73 
2.703657262854476e-06 0:23.59 1:2.05 2:7.02 3:-7.4 4:-30.52 5:-17.27 6:-5.3 7:-2.98 8:-8.22 9:9.8 10:-7.04 11:3.31 12:-4.01 
2.703657262854476e-06 0:23.86 1:-15.58 2:21.6 3:-8.28 4:-0.5 5:-8.49 6:-29.4 7:18.03 8:-21.7 9:32.21 10:-14.06 11:10.62 12:-0.84 
2.703657262854476e-06 0:24.34 1:-10.11 2:9.43 3:-15.16 4:-25.18 5:-13.35 6:-8.42 7:-19.01 8:-17.25 9:17.35 10:-5.62 11:-11.87 12:-16.57 
2.703657262854476e-06 0:26.17 1:-22.83 2:8.09 3:8.45 4:-10.52 5:-16.87 6:-9.71 7:-24.05 8:-6.65 9:5.6 10:9.68 11:-4.14 12:3.18 
2.703657262854476e-06 0:24.31 1:-4.65 2:1.69 3:-34.99 4:-8.03 5:-5.98 6:-31.73 7:-1.16 8:-5.3 9:10.84 10:0.3 11:-0.88 12:-2.62 
2.703657262854476e-06 0:26.42 1:-21.17 2:9.16 3:-0.38 4:-14.39 5:-16.72 6:-15.79 7:-21.71 8:-12.27 9:-2.91 10:8.9 11:6.82 12:-16.88 
2.703657262854476e-06 0:23.67 1:-6.22 2:10.96 3:1.56 4:-21.65 5:-26.52 6:-10.51 7:-21.14 8:-0.1 9:20 10:-9.16 11:-7.02 12:8.95 
2.703657262854476e-06 0:26.23 1:-13.65 2:0.56 3:-32.15 4:-30.61 5:-18.59 6:-28.4 7:-5.96 8:-8.93 9:-2.56 10:-11.23 11:-2.06 12:-19.65 
2.703657262854476e-06 0:23.72 1:-5.61 2:17.01 3:-21.14 4:-32.95 5:-13.69 6:-9.48 7:-9.17 8:-1.58 9:-6.07 10:9.71 11:-1.84 12:4.08 
2.703657262854476e-06 0:24.83 1:-14.08 2:6.24 3:-17.08 4:-4.47 5:7.89 6:-18.02 7:-14.85 8:-8.43 9:-12.4 10:5.77 11:-1.57 12:-3.65 
2.703657262854476e-06 0:23.33 1:-18.65 2:11.3 3:2.53 4:-2.46 5:-17.39 6:-3.06 7:4.02 8:-13.48 9:23.61 10:-6.79 11:-3.58 12:-6.64 
2.703657262854476e-06 0:21.1 1:-7.18 2:13.21 3:-1.39 4:0.42 5:-11.09 6:-16.45 7:9.51 8:-17.01 9:9.64 10:2.08 11:11.06 12:2.15 
2.703657262854476e-06 0:25.01 1:-9.98 2:7.1 3:-22.92 4:-7.58 5:-24.83 6:-21.27 7:3.37 8:-20.32 9:0.36 10:-9.54 11:10.17 12:-9.45 
2.703657262854476e-06 0:24.48 1:-2.82 2:-12.7 3:2.23 4:-9.28 5:-15.28 6:-22.85 7:-30.8 8:-2.36 9:15.68 10:-7.97 11:3.46 12:-7.13 
2.703657262854476e-06 0:24.49 1:-1.39 2:-12.96 3:-7.74 4:-5.81 5:-15.21 6:-15.92 7:-22.13 8:-20.65 9:6.77 10:14.54 11:-3.45 12:-4.04 
2.703657262854476e-06 0:24.25 1:-13.37 2:6.25 3:2.71 4:-24.65 5:-21.08 6:-10.15 7:-18.46 8:-3.56 9:8.84 10:2.85 11:-6.5 12:8.51 
2.703657262854476e-06 0:25.07 1:-13.53 2:14.25 3:-28 4:-30.41 5:-11.45 6:-18.13 7:-6.99 8:-18.29 9:8.81 10:0.17 11:13.01 12:-12.59 
2.703657262854476e-06 0:26.19 1:-21.44 2:18.77 3:-1.02 4:-8.04 5:-27.08 6:-44.44 7:1.52 8:-6.25 9:2.12 10:-11.47 11:3.43 12:-12.77 
2.703657262854476e-06 0:25.49 1:-14.96 2:9.62 3:-8.27 4:-21.12 5:-10.87 6:-16.48 7:-9.16 8:-15.57 9:15.31 10:-8 11:-1.61 12:5.08 
2.703657262854476e-06 0:25.35 1:-13.95 2:15.88 3:-23.9 4:-9.97 5:-24.71 6:-13.46 7:-5.81 8:-17.68 9:-0.45 10:0.2 11:-0.29 12:-5.62 
2.703657262854476e-06 0:24.14 1:-11.8 2:16.23 3:-5.14 4:-23.13 5:-23.64 6:-16.08 7:4.31 8:-12.82 9:-6.52 10:0.7 11:5.33 12:9.15 
2.703657262854476e-06 0:24.76 1:-11.93 2:-4.07 3:-6.7 4:-7.78 5:-14.74 6:-12.4 7:-7.87 8:-8.91 9:11.13 10:-11.47 11:3.29 12:-0.88 
2.703657262854476e-06 0:24.95 1:-15.45 2:-1.31 3:-13.47 4:-12.13 5:-27.63 6:-18.32 7:-4.7 8:-21.2 9:11.96 10:-12.11 11:-12.97 12:-11.08 
2.703657262854476e-06 0:23.21 1:10.61 2:4.83 3:-22.56 4:-21.99 5:-11.03 6:-27.35 7:-7.97 8:-30.05 9:-6.47 10:-10.42 11:2.77 12:-3.65 
2.703657262854476e-06 0:23.51 1:-2.06 2:13.82 3:-2.67 4:-25.05 5:-19.41 6:-15.76 7:-3.35 8:-11.27 9:0.19 10:-0.59 11:-0.2 12:2.89 
2.703657262854476e-06 0:24.14 1:-11.77 2:9.65 3:0.5 4:-19.64 5:-25.75 6:-15.79 7:-10.69 8:6.28 9:7.18 10:-9.01 11:-6.62 12:11.34 
2.703657262854476e-06 0:25.15 1:-16.34 2:20.59 3:-11.5 4:-22.11 5:-1.27 6:-4.3 7:-19.01 8:4.33 9:-9.07 10:8.41 11:11.48 12:-3.86 
2.703657262854476e-06 0:24.7 1:-4.94 2:-6.82 3:-0.96 4:-22.99 5:-29.83 6:-12.81 7:-10.81 8:-12.86 9:22.93 10:-2.11 11:-15.4 12:-19.76 
2.703657262854476e-06 0:23.55 1:-6.06 2:8.15 3:-23.26 4:-24.76 5:-10.55 6:-14.88 7:-13.77 8:-5.2 9:3.54 10:5.17 11:-11.1 12:3.37 
2.703657262854476e-06 0:23.95 1:-0.6 2:-6.44 3:-6.87 4:-23.17 5:-14.72 6:-11.68 7:-22.02 8:2.22 9:-1.42 10:8.67 11:4.68 12:-9.62 
2.703657262854476e-06 0:24.81 1:-13.03 2:12.6 3:-3.95 4:-24.72 5:-8.15 6:-18.84 7:-12.99 8:1.98 9:4.22 10:11.08 11:-10.13 12:13.87 
2.703657262854476e-06 0:22.69 1:-2.19 2:0.39 3:-7.35 4:-15.4 5:-33.39 6:-8.03 7:-11.01 8:-21.59 9:-19.21 10:1.68 11:10.14 12:-4.85 
2.703657262854476e-06 0:25.21 1:-16.6 2:3.52 3:-16.21 4:-11.65 5:-39.05 6:-2.99 7:0.84 8:-32.39 9:0.21 10:-14.99 11:-1.54 12:-12.61 
2.703657262854476e-06 0:25.25 1:-18.34 2:12.27 3:-22.54 4:3.97 5:-10.76 6:-43.06 7:2.1 8:-13.23 9:6.95 10:-0.36 11:-7.11 12:-16.69 
2.703657262854476e-06 0:23.98 1:-4.57 2:19.43 3:-27.19 4:8.99 5:-22.12 6:-22.62 7:0.18 8:-14.52 9:-8.1 10:-18.68 11:15.44 12:-5.31 
2.703657262854476e-06 0:23.74 1:-7.3 2:-3.31 3:27.27 4:-1.99 5:-19.7 6:-28.55 7:-10.98 8:-18.4 9:-30.34 10:0.97 11:17.27 12:7.37 
2.703657262854476e-06 0:24.79 1:-17.08 2:-23.1 3:-9.65 4:-21.44 5:-33.87 6:-7.66 7:-8.46 8:-11.12 9:-8.66 10:4.95 11:-10.3 12:-3.88 
2.703657262854476e-06 0:24.05 1:-9 2:8.97 3:-3.9 4:-18.31 5:-19.43 6:-20.09 7:-12.06 8:-1.29 9:16.51 10:-15.95 11:-5.8 12:1.4 
2.703657262854476e-06 0:25.65 1:-17.77 2:6.86 3:-0.75 4:-14.41 5:-9.71 6:-10.32 7:-28.37 8:-4 9:3.31 10:4.65 11:1.04 12:7.12 
2.703657262854476e-06 0:24.73 1:-12.55 2:2.65 3:-17.27 4:-27.93 5:3.5 6:-4.6 7:-18.55 8:-15.99 9:6.83 10:-0.73 11:12.15 12:-12.05 
2.703657262854476e-06 0:26.08 1:-20.79 2:19.63 3:1.1 4:-12.36 5:-30.91 6:1.5 7:-8.51 8:-19.76 9:24.26 10:-8.71 11:4.46 12:7.22 
2.703657262854476e-06 0:24.12 1:-5.48 2:6.15 3:-8.07 4:-15.33 5:-3.23 6:-26.73 7:-11.02 8:-3.12 9:-1.2 10:19.06 11:3.06 12:-6.96 
2.703657262854476e-06 0:25.19 1:-15.65 2:2.52 3:-1.72 4:7.31 5:-28.55 6:-29.83 7:-21.73 8:-6.79 9:7.7 10:-8.84 11:-6.09 12:-14.27 
2.703657262854476e-06 0:24.06 1:9.11 2:0.14 3:-15.7 4:-15 5:-11.3 6:-32.59 7:-6.4 8:-25.61 9:2.08 10:-1.42 11:12.55 12:-5.77 
2.703657262854476e-06 0:24.62 1:-9.1 2:7.46 3:8.76 4:-15.56 5:-19.41 6:-21.95 7:-23.44 8:-7.29 9:-16.66 10:3.27 11:-11.4 12:8.91 
2.703657262854476e-06 0:24.69 1:-16.59 2:3.95 3:3.53 4:-6.34 5:-39.82 6:-28.75 7:-8.01 8:-21.27 9:11.18 10:-12.99 11:-14.72 12:-7.59 
2.703657262854476e-06 0:25.73 1:-18.26 2:7.09 3:12.1 4:-8.26 5:-4.52 6:-37.55 7:-28.91 8:-3.96 9:-1.57 10:8.04 11:1.12 12:-12.85 
2.703657262854476e-06 0:23.96 1:-8.89 2:0.98 3:-15.97 4:-11.81 5:-25.13 6:-9.61 7:0.17 8:-29.98 9:11.27 10:-7.43 11:-14.79 12:-11.96 
2.703657262854476e-06 0:24.44 1:-21.01 2:-27.77 3:-17.81 4:-26.49 5:-34.4 6:-7 7:-12.46 8:-5.91 9:5.68 10:-17.29 11:1.57 12:-28.49 
2.703657262854476e-06 0:24.78 1:-20.48 2:-23.3 3:-21.15 4:-3.72 5:-42.37 6:-19.98 7:-12.97 8:-2.52 9:4.99 10:-22.59 11:-9.7 12:-11.01 
2.703657262854476e-06 0:20.27 1:-4.35 2:11.35 3:-6.03 4:2.73 5:-3.17 6:-13 7:11.02 8:-15 9:15.76 10:-0.68 11:12.05 12:2.91 
2.703657262854476e-06 0:24.68 1:-11.19 2:7.47 3:-26.92 4:-36.97 5:4.13 6:-6.09 7:-25.72 8:-3.04 9:20.26 10:-7.63 11:1.3 12:-14.16 
2.703657262854476e-06 0:24.92 1:-20.03 2:-11.5 3:-30.05 4:1.46 5:-34.58 6:-21.27 7:-8.18 8:-26.6 9:-0.34 10:-3.61 11:-5.51 12:-13.77 
2.703657262854476e-06 0:25.04 1:-12.1 2:23.55 3:-9.18 4:-9.53 5:-13.93 6:-3.27 7:-17.83 8:-24.49 9:8 10:-12.37 11:-4.2 12:-16.4 
2.703657262854476e-06 0:24.55 1:-11.55 2:-7.56 3:-3.4 4:-20.25 5:-42.07 6:-30.98 7:8.12 8:-15.51 9:-9.62 10:18.66 11:-20.96 12:-3.3 
2.703657262854476e-06 0:25.08 1:-14.17 2:8.83 3:-13.16 4:-14.23 5:-21.7 6:-13.9 7:-9.53 8:-4.9 9:17.95 10:-15.28 11:-11.52 12:3.29 
2.703657262854476e-06 0:25.1 1:-13.63 2:13.97 3:-18.35 4:0.77 5:-11.18 6:-19.1 7:-24.02 8:-6.81 9:23.06 10:-15.72 11:-1.06 12:-10.4 
2.703657262854476e-06 0:25.4 1:-12.52 2:-2.87 3:-5.64 4:19.62 5:-25.16 6:-26.65 7:-25.86 8:-16.04 9:5.7 10:0.81 11:0.77 12:3.14 
2.703657262854476e-06 0:25.43 1:-12.82 2:18.26 3:-17.97 4:-5.44 5:-30.79 6:-5.91 7:-14.47 8:-20.88 9:5.21 10:-4.62 11:-5.24 12:-8.41 
2.703657262854476e-06 0:23.68 1:-7.4 2:16.2 3:-14.51 4:-29.97 5:-12.22 6:-4.27 7:-13.46 8:0.97 9:-0.19 10:0.87 11:16.55 12:2.06 
2.703657262854476e-06 0:21.28 1:-10.96 2:12.08 3:-1.15 4:-2.92 5:3.6 6:-6.9 7:15.35 8:-13.31 9:15.97 10:-3.1 11:-1.58 12:4.2 
2.703657262854476e-06 0:25.72 1:-14.2 2:3.36 3:-16.35 4:-17.46 5:-18.29 6:-15.32 7:1.26 8:-28.78 9:17.64 10:-10.82 11:-4.31 12:-9.73 
2.703657262854476e-06 0:22.85 1:-15.3 2:15.7 3:3.3 4:6.99 5:-28.46 6:0.62 7:10.98 8:-32.78 9:27.43 10:-0.76 11:-1.02 12:-1.18 
2.703657262854476e-06 0:25.13 1:-14.4 2:11.47 3:-6.93 4:-22.53 5:-4.74 6:-28.6 7:-23.47 8:4.39 9:3.88 10:1.48 11:-7.53 12:2.79 
2.703657262854476e-06 0:25.7 1:-15.37 2:10.99 3:-14.17 4:-32.73 5:-10.28 6:-16.16 7:-9.44 8:-0.21 9:-3.31 10:5.77 11:14.94 12:-17.24 
2.703657262854476e-06 0:24.01 1:-4.61 2:5.91 3:-29.62 4:-27.79 5:-11.4 6:-5.32 7:-19.25 8:-9.32 9:7.62 10:-4.96 11:6.86 12:-10.81 
2.703657262854476e-06 0:26.71 1:-24.84 2:5.82 3:3.2 4:16.96 5:-36.96 6:-18.97 7:-30.23 8:-14.64 9:14.22 10:6.11 11:0.57 12:-17.6 
2.703657262854476e-06 0:22.49 1:-19.26 2:10.76 3:11.04 4:-3.43 5:-12.23 6:-1.63 7:4.26 8:-18.1 9:19.7 10:-0.91 11:7.63 12:5.23 
2.703657262854476e-06 0:24.81 1:-21.4 2:-14.44 3:-21.53 4:-7.07 5:-24.06 6:-12.09 7:-7.73 8:-11.72 9:4.79 10:-6.22 11:-15.51 12:-6.1 
2.703657262854476e-06 0:25.93 1:-15.68 2:15.88 3:-21.44 4:4.11 5:-22.28 6:-17.38 7:1.32 8:-15.73 9:1.95 10:-8.14 11:3.85 12:-7.2 
2.703657262854476e-06 0:22.68 1:-15.05 2:19.59 3:-8.91 4:0.09 5:0.93 6:-12.49 7:13.7 8:-19.99 9:22.84 10:-2.3 11:-1.14 12:3.83 
2.703657262854476e-06 0:25.03 1:-11.16 2:12.35 3:-9.54 4:-17.56 5:-14.23 6:-8.76 7:-34.57 8:-21.75 9:15.71 10:-10.62 11:7.14 12:-21.88 
2.703657262854476e-06 0:23.3 1:-13.27 2:21.51 3:-16.01 4:0.56 5:-2.99 6:-31.06 7:16.57 8:-15.86 9:23.13 10:-2.74 11:9.02 12:1.13 
2.703657262854476e-06 0:23.47 1:-4.17 2:8.68 3:-8.32 4:-1.63 5:-21.43 6:-23.42 7:-4.46 8:-9.03 9:-26.74 10:-9.36 11:21.51 12:2.27 
2.703657262854476e-06 0:23.76 1:-6.87 2:-3.16 3:-22.31 4:-26.16 5:-3.23 6:-18.93 7:3.38 8:-8.23 9:-2.74 10:2.57 11:2.2 12:-8.98 
2.703657262854476e-06 0:25.12 1:-13.89 2:8.08 3:-12.28 4:-13.97 5:-19.82 6:-9.14 7:-6.76 8:-4.58 9:2.62 10:-4.91 11:-0.27 12:7.48 
2.703657262854476e-06 0:24.29 1:-10.22 2:6.21 3:-6.8 4:-10.41 5:-17.5 6:-18.22 7:-12.26 8:0.54 9:17.14 10:-15.42 11:-14.89 12:11.48 
2.703657262854476e-06 0:24.76 1:-11.97 2:1.3 3:-18.9 4:-20.35 5:-5.46 6:-21.22 7:-0.71 8:-3.02 9:0.85 10:-18.84 11:7.56 12:-1.64 
2.703657262854476e-06 0:24.45 1:-14.06 2:11.25 3:-3.63 4:-18.17 5:-24.09 6:-25.76 7:-22.27 8:7.21 9:12.07 10:-4.31 11:-21.67 12:2.9 
2.703657262854476e-06 0:23.9 1:-1.6 2:7.08 3:-28.06 5:-16.54 6:-12.59 7:-28.54 8:-4.95 9:6.72 10:-24.12 11:11.69 12:7.22 
2.703657262854476e-06 0:24.02 1:-10.34 2:16.63 3:-14.22 4:-22.57 5:-2.61 6:-22.83 7:-5.45 8:1.52 9:1.29 10:6.62 11:6.76 12:2.6 
2.703657262854476e-06 0:24.65 1:-10.31 2:14.75 3:-14.64 4:-25.36 5:-12.86 6:-12.57 7:-25.7 8:-19.44 9:13.22 10:-5.54 11:-8.59 12:-20.45 
2.703657262854476e-06 0:24.17 1:-5.9 2:6.44 3:-32.71 4:-32.18 5:-5.71 6:-10.22 7:-2.79 8:-18.06 9:-1.59 10:9.24 11:10.29 12:-18.36 
2.703657262854476e-06 0:25.95 1:-18.34 2:12.4 3:-7.43 4:-17.55 5:-3.52 6:-18.07 7:-21.77 8:-14.56 9:16.84 10:-1.41 11:-5.96 12:-18.59 
2.703657262854476e-06 0:24.71 1:-13.3 2:4.63 3:-7.48 4:-13.74 5:-14.22 6:-15.38 7:-13.89 8:-24.74 9:15.67 10:2.87 11:10.5 12:-13.12 
2.703657262854476e-06 0:24.69 1:-12.6 2:1.87 3:13.9 4:5.8 5:-15.81 6:-31.01 7:-14.15 8:-23.98 9:0.06 10:-1.01 11:-4.6 12:6.24 
2.703657262854476e-06 0:24.68 1:-9.98 2:3.1 3:-11.52 4:-47.23 5:2.33 6:4.73 7:-19.43 8:-9.17 9:18.35 10:-3.24 11:8.07 12:-11.59 
2.703657262854476e-06 0:22.98 1:-1.05 2:6.82 3:-11.33 4:-6.5 5:-12.36 6:-27.5 7:-14.05 8:-8.52 9:-10.35 10:-11.33 11:18.94 12:5.64 
2.703657262854476e-06 0:25.01 1:-14.57 2:14.18 3:6.5 4:-17.72 5:-27.57 6:-26.58 7:-9.98 8:0.34 9:5.14 10:0.92 11:-7.09 12:17.8 
2.703657262854476e-06 0:25.89 1:-19.25 2:5.1 3:-14.92 4:4.26 5:-25.78 6:-13.58 7:-19.58 8:-16.91 9:3.92 10:12.77 11:2.83 12:-16.45 
2.703657262854476e-06 0:24.14 1:-21.25 2:20.88 3:-2.23 4:-2.89 5:-13.79 6:-8.97 7:15.32 8:-23.83 9:20.23 10:0.01 11:-3.3 12:8.5 
2.703657262854476e-06 0:24.38 1:-8.3 2:9.58 3:-15.91 4:-12.2 5:-30.64 6:-14.31 7:-3.43 8:-8.29 9:11.7 10:-7.44 11:-13.04 12:1.95 
2.703657262854476e-06 0:24.7 1:-11.06 2:6.52 3:-19.51 4:-8.82 5:-13.94 6:-29 7:-10.58 8:-9.74 9:24.84 10:-1.28 11:-13 12:10.6 
2.703657262854476e-06 0:23.4 1:-4.62 2:15.85 3:-23.07 4:-26.19 5:-11.99 6:-9.36 7:-7.79 8:-11.08 9:14.72 10:0.21 11:-4.97 12:4.14 
2.703657262854476e-06 0:24.15 1:-12.09 2:0.92 3:-9.3 4:6.71 5:-26.81 6:-12.78 7:-11.98 8:-22.35 9:6.81 10:-10.02 11:-5.3 12:-11.48 
2.703657262854476e-06 0:24.27 1:-9.85 2:8.42 3:-11.95 4:-23.72 5:-19.54 6:-7.98 7:-8.23 8:1.08 9:-0.29 10:-15.41 11:0.01 12:0.44 
2.703657262854476e-06 0:25.06 1:-20.44 2:-7.1 3:-10.23 4:-40.61 5:-41.61 6:2.76 7:0.42 8:-4.29 9:8.35 10:-17.76 11:-8.29 12:-4.82 
2.703657262854476e-06 0:25.45 1:-16.09 2:8.66 3:-13.26 4:-21.58 5:-19.53 6:-35.52 7:-17.51 8:-14.71 9:8.85 10:-10.07 11:-3.9 12:-7.23 
2.703657262854476e-06 0:24.11 1:-8.97 2:9.66 3:-21.01 4:-23.34 5:-5.86 6:-14.66 7:-14.83 8:-6.78 9:9.32 10:-0.73 11:-1.59 12:-14.32 
2.703657262854476e-06 0:24.29 1:-11.62 2:2.76 3:-9.44 4:-20.35 5:-2.75 6:-26.63 7:-21.13 8:14.41 9:-1.67 10:2.19 11:0.5 12:-6.76 
2.703657262854476e-06 0:25.06 1:-9.07 2:14.01 3:-33.3 4:-8.82 5:-8.13 6:-15.28 7:-10.65 8:0.73 9:5.96 10:-17.65 11:9.27 12:-5.37 
2.703657262854476e-06 0:26.31 1:-24.15 2:11.11 3:6.74 4:0.08 5:-9.78 6:-41.94 7:-6.57 8:-12.33 9:-2.68 10:-1.3 11:2.99 12:-19.73 
2.703657262854476e-06 0:23.76 1:-17.7 2:25.95 3:-13.53 4:-1.85 5:-0.55 6:-27.2 7:26.79 8:-20.14 9:24.62 10:0.41 11:1.09 12:1.3 
2.703657262854476e-06 0:24.72 1:-7.66 2:-12.5 3:-5.03 4:-1.43 5:-30.65 6:19.42 7:-31.54 8:-25.44 9:15.49 10:-4.5 11:-8.25 12:-15.64 
2.703657262854476e-06 0:26.3 1:-26.48 2:8.78 3:4.79 4:9.62 5:-17.68 6:-16.16 7:-19.04 8:-10.82 9:0.72 10:2.87 11:-1.59 12:-15.4 
2.703657262854476e-06 0:26.43 1:-18.86 2:12.81 3:-25.6 4:-0.48 5:-13.89 6:-27.62 7:-17.4 8:-2.95 9:0.79 10:-1.44 11:9.6 12:-0.68 
2.703657262854476e-06 0:23.2 1:-3.17 2:-3.05 3:1.54 4:2.42 5:-32.2 6:-30.34 7:-14.73 8:-16.11 9:-10.76 10:10.94 11:13.52 12:-11.37 
2.703657262854476e-06 0:24.33 1:-10.18 2:13.86 3:-22.11 4:-12.91 5:2.97 6:-25.55 7:-15.03 8:-10.99 9:3.17 10:11.83 11:2.22 12:0.64 
2.703657262854476e-06 0:24.17 1:-15.83 2:-31.22 3:-40.63 4:-13.4 5:-24.33 6:-8.41 7:-11.37 8:-7.39 9:3.97 10:-12 11:-4.79 12:-17 
2.703657262854476e-06 0:25.1 1:-13.31 2:10.28 3:-8.63 4:-5.64 5:-12.04 6:-27.38 7:-9.36 8:-15.96 9:3.06 10:-4.45 11:0.12 12:-6.63 
2.703657262854476e-06 0:24.97 1:-11.25 2:12.2 3:-12.44 4:-31.37 5:-7.3 6:-15.64 7:-33.37 8:-9.47 9:23.36 10:-5.36 11:-2.06 12:-4.34 
2.703657262854476e-06 0:24.54 1:-15.6 2:13.93 3:6.61 4:-20.12 5:-30.01 6:-9.39 7:-13.07 8:-1.85 9:11.54 10:3.92 11:-1.92 12:12.74 
2.703657262854476e-06 0:24.74 1:-6.36 2:8.66 3:-20.5 4:-8.73 5:-20.08 6:-16.63 7:1.53 8:-5.99 9:4.69 10:-14.46 11:-6.9 12:1.44 
2.703657262854476e-06 0:24.62 1:-13.08 2:5.44 3:13.75 4:-7.87 5:-22.46 6:-33.26 7:-13.98 8:-10.92 9:5.78 10:-8.14 11:-10.67 12:-1.99 
2.703657262854476e-06 0:23.91 1:-1.77 2:4 3:-13.97 4:-22.63 5:-15.33 6:-10.43 7:-30.54 8:-19.55 9:4.82 10:8.73 11:5.2 12:-11.32 
2.703657262854476e-06 0:24.74 1:-11.1 2:7.74 3:-17.59 4:-21.3 5:-3.72 6:-27.3 7:-4.05 8:9.15 9:12.63 10:-6.16 11:-9.03 12:-1.28 
2.703657262854476e-06 0:23.81 1:-4.45 2:14.53 3:-28.72 4:-37.68 5:7.27 6:-14.42 7:-11.12 8:10.91 9:-10.35 10:9.54 11:-5.01 12:-3.99 
2.703657262854476e-06 0:23.81 1:-5.53 2:-12.61 3:17.94 4:-6.03 5:-31.94 6:-21.07 7:-28.31 8:3.85 9:-28.21 10:-1.61 11:18.85 12:-24.25 
2.703657262854476e-06 0:23.13 1:2.08 2:2.03 3:-9.92 4:-15.64 5:-6.98 6:-27.43 7:-10.33 8:-34.92 9:-0.74 10:0.06 11:6.52 12:-11.75 
2.703657262854476e-06 0:24.77 1:-9.54 2:4.79 3:-7.28 4:-34.19 5:-1.31 6:-20.25 7:-19.89 8:-4.79 9:6.4 10:3.31 11:3.41 12:-22.13 
2.703657262854476e-06 0:24.94 1:-9.7 2:-5.71 3:2.12 4:-2.31 5:-14.09 6:-41.04 7:-20.36 8:-4.92 9:4.57 10:-0.45 11:-4.34 12:0.26 
2.703657262854476e-06 0:24.93 1:-8.06 2:-13.45 3:8.56 4:0.38 5:-38.25 6:10.95 7:-29.95 8:-35.99 9:-9.44 10:-12.64 11:-2.38 12:-0.73 
2.703657262854476e-06 0:23.32 1:1.31 2:-5.6 3:-2.93 4:-7.6 5:-43.46 6:0.87 7:-30.16 8:-1.99 9:12.28 10:-22.37 11:10.7 12:-25.88 
2.703657262854476e-06 0:26.05 1:-23.17 2:12.96 3:-5.26 4:-12.14 5:-2.07 6:-33.36 7:-8.68 8:-17.53 9:-3.36 10:11.82 11:2.55 12:-17.14 
2.703657262854476e-06 0:24.47 1:-13.1 2:5.18 3:-7.29 4:-12.43 5:-0.85 6:-9.2 7:-25.63 8:-8.29 9:-2.7 10:-0.88 11:-2.9 12:2.94 
2.703657262854476e-06 0:24.64 1:-13.75 2:16.56 3:5.6 4:-18.64 5:-28.87 6:-28.94 7:-8.26 8:0.65 9:15.31 10:-2.18 11:-9.59 12:13.48 
2.703657262854476e-06 0:25.44 1:-15.43 2:1.89 3:-14.13 4:-20.38 5:-12.59 6:-20.59 7:-5.3 8:-24.21 9:12.78 10:-10.73 11:-8.57 12:-5.8 
2.703657262854476e-06 0:23.23 1:0.88 2:7.7 3:1.51 4:-8.64 5:-15.94 6:-33.37 7:-0.52 8:-14.78 9:-22.21 10:0.97 11:15.03 12:-3.71 
2.703657262854476e-06 0:24.48 1:-9.32 2:3.36 3:-24.95 4:-27.76 5:1.85 6:-0.13 7:-19.26 8:-7.65 9:2.64 10:0.23 11:5.85 12:-16.45 
2.703657262854476e-06 0:24.39 1:-14.19 2:8.39 3:12.49 4:-5.8 5:-15.43 6:-36.35 7:-22.84 8:-13.49 9:6.48 10:12.16 11:9.55 12:-18.06 
2.703657262854476e-06 0:25.33 1:-12.89 2:14.66 3:-18.3 4:-10.14 5:-3.13 6:-25.72 7:-7.67 8:-8.3 9:-2.32 10:17.29 11:-6.12 12:-1.27 
2.703657262854476e-06 0:21.81 1:-13.59 2:9.16 3:10.92 4:-0.31 5:-5.48 6:2.4 7:6.03 8:-18.3 9:15.51 10:-6.77 11:1.71 12:6.37 
2.703657262854476e-06 0:26.26 1:-19.41 2:28.17 3:-24.88 4:4.02 5:-11.43 6:-20.2 7:-16.47 8:-10.29 9:7.67 10:-7.27 11:-6.14 12:-2.68 
2.703657262854476e-06 0:26.43 1:-25.41 2:13.64 3:4.06 4:3.23 5:-10.92 6:-34.31 7:-27.76 8:0.08 9:-11.94 10:8.61 11:-5.47 12:-17.95 
2.703657262854476e-06 0:24.13 1:-3.45 2:1.09 3:-5.67 4:-35.16 5:-27.71 6:4.07 7:-9.98 8:-19.39 9:18 10:-6.75 11:4.72 12:-22.66 
2.703657262854476e-06 0:23.66 1:-0.26 2:5.2 3:-17.04 4:-23.02 5:-13.14 6:-17.62 7:-10.78 8:-2.24 9:2.59 10:2.89 11:-2.82 12:5.51 
2.703657262854476e-06 0:24.42 1:-6.03 2:-0.92 3:-2.81 4:-32.6 5:-17.5 6:3.83 7:-11.9 8:-17.38 9:12.98 10:-5.72 11:-6.46 12:-10.75 
2.703657262854476e-06 0:24.57 1:-6.24 2:13.63 3:-10.01 4:-8.47 5:-33.91 6:-6.16 7:-5.81 8:-8.94 9:15.47 10:-3.06 11:10.81 12:3.22 
2.703657262854476e-06 0:26.58 1:-27.78 2:15.28 3:2.5 4:7.59 5:-17.96 6:-25.32 7:-13.71 8:-3.91 9:-3.21 10:4.81 11:0.65 12:0.18 
2.703657262854476e-06 0:24.3 1:-13.75 2:7.71 3:-17.4 4:-2.77 5:-17.11 6:-36.84 7:-8.67 8:-16.11 9:-8.41 10:-20.9 11:28.55 12:-14 
2.703657262854476e-06 0:23.26 1:-5.43 2:15.86 3:-22.93 4:-24.34 5:-14.01 6:-13.31 7:-6.73 8:-7.26 9:0.98 10:-2.61 11:2.21 12:-6.8 
1.217069655814041e-06 0:24.42 1:-18.08 2:-33.12 3:-23.15 4:-12.7 5:-36.33 6:0.76 7:-10.41 8:-8.84 9:-2.63 10:-15.42 11:-6.2 12:-10.32 
2.703657262854476e-06 0:24.65 1:-11.12 2:5.59 3:-23.21 4:-6.48 5:-13.2 6:-32.99 7:4.77 8:-17.62 9:-0.87 10:-11.17 11:1.52 12:-1.28 
2.703657262854476e-06 0:21.26 1:-8.84 2:14.38 3:-2.53 4:2.94 5:-4.97 6:-15.17 7:4.76 8:-12.98 9:9.52 10:1.07 11:6.29 12:1.67 
2.703657262854476e-06 0:25.24 1:-11.75 2:11.7 3:-8.28 4:-17.95 5:-28.87 6:-8.01 7:-11.38 8:-16.08 9:23.11 10:-9.22 11:-13.07 12:18.33 
2.703657262854476e-06 0:25.66 1:-19.75 2:4.05 3:-25.6 4:-27.59 5:-22.17 6:-11.06 7:-12.34 8:-10.98 9:2.53 10:4.31 11:-6.76 12:-20.25 
2.703657262854476e-06 0:24.8 1:-11.72 2:9.25 3:-16.78 4:-17.77 5:-7.77 6:-20.79 7:-10.36 8:3.72 9:-7.58 10:4.96 11:-6.84 12:6.72 
2.703657262854476e-06 0:26.1 1:-17 2:8.93 3:-17.22 4:-9.25 5:-24.5 6:-16.26 7:-19.61 8:-20.57 9:5.58 10:1.52 11:-2.88 12:-14.05 
2.703657262854476e-06 0:25.49 1:-15.7 2:11.02 3:0.78 4:-24.84 5:-9.85 6:-20.6 7:-13.25 8:-9.66 9:12.71 10:-1.7 11:1.02 12:2.42 
2.703657262854476e-06 0:23.29 1:-17.79 2:24.22 3:-6.7 4:-9.31 5:0.43 6:-14.68 7:2.92 8:2.28 9:13.32 10:-11.52 11:1.34 12:-6.56 
2.703657262854476e-06 0:25.23 1:-12.61 2:-0.22 3:-11.08 4:-24.4 5:-19.6 6:-33.76 7:-4.07 8:-16.67 9:2.57 10:-9.07 11:-0.75 12:0.32 
2.703657262854476e-06 0:24.8 1:-11.76 2:7.83 3:-20.63 4:-22.97 5:-6.06 6:-24.93 7:-8.46 8:-4.44 9:-1.64 10:-1.06 11:-4.17 12:5.67 
2.703657262854476e-06 0:23.76 1:-6.16 2:19.08 3:-18.27 4:-36.39 5:-14.94 6:1.4 7:-11.9 8:2.75 9:2.53 10:-3.37 11:11.12 12:-6.38 
2.703657262854476e-06 0:24.59 1:-12.14 2:5.18 3:-8.1 4:-13.5 5:-1.43 6:-16.04 7:-14.61 8:4.33 9:-9.26 10:-2.82 11:3.63 12:4.76 
2.703657262854476e-06 0:24.39 1:-3.47 2:-16.01 3:-3.14 4:-14.46 5:-15.3 6:-32.2 7:-29.46 8:2.89 9:2.91 10:6.07 11:4.42 12:-10.05 
2.703657262854476e-06 0:23.09 1:2.38 2:12.37 3:-20.63 4:-9.11 5:-19.7 6:-11.73 7:-11.21 8:-12.8 9:-3.31 10:-29.23 11:29.89 12:2.48 
2.703657262854476e-06 0:23.5 1:-7.93 2:-0.84 3:-0.24 4:-3.78 5:-24.89 6:-12.08 7:-5.54 8:-17.3 9:0.26 10:-3.09 11:-2.17 12:-5.23 
2.703657262854476e-06 0:25.26 1:-17.6 2:9.45 3:-15.25 4:-35.65 5:-1.29 6:8.8 7:-12.57 8:-9.01 9:2.91 10:-5.91 11:24.27 12:-18.38 
2.703657262854476e-06 0:24.15 1:-7.65 2:12.48 3:6.11 4:-16.32 5:-9.38 6:-12.7 7:-16.69 8:-11.17 9:-13.05 10:-13.2 11:-16.68 12:-2.48 
2.703657262854476e-06 0:24.26 1:-5.78 2:-11.1 3:-5.58 4:-3.33 5:-14.77 6:-31.65 7:-25.95 8:-2.07 9:6.36 10:6.52 11:4.09 12:-9.73 
2.703657262854476e-06 0:24.54 1:-11.2 2:3.57 3:-1.31 4:-16.16 5:-17.75 6:-32.84 7:-22.12 8:5.16 9:15.77 10:-6.53 11:-14.14 12:0.36 
2.703657262854476e-06 0:23.52 1:4.86 2:1.5 3:-22.78 4:-18.34 5:-14.41 6:-20.2 7:-2.1 8:-18.21 9:-3.41 10:-4.15 11:9.64 12:-7.94 
2.703657262854476e-06 0:25.01 1:-14.09 2:5.92 3:-6.76 4:-20.07 5:-19.23 6:1.3 7:-11.12 8:-9.53 9:15.89 10:-4.32 11:-8.18 12:10.69 
2.703657262854476e-06 0:25.18 1:-17.34 2:13.48 3:8.7 4:-2.67 5:-29.1 6:-29.63 7:-16.32 8:-12.98 9:2.62 10:-10.21 11:-2.32 12:-7.19 
2.703657262854476e-06 0:25.87 1:-20.25 2:17.83 3:-3.81 4:-31.43 5:-4.71 6:-34 7:-10.85 8:4.92 9:-3.7 10:3.61 11:9.19 12:-17.51 
2.703657262854476e-06 0:23.92 1:-9.31 2:-7.39 3:-13.12 4:-7.84 5:-36.31 6:-14.98 7:-19.87 8:-15.35 9:5.41 10:-2.14 11:-7.36 12:-10.07 
2.703657262854476e-06 0:24.35 1:-13.27 2:15.23 3:-2.98 4:-16.93 5:-22.26 6:-21.66 7:-17.74 8:0.7 9:19.84 10:-8.93 11:-5.3 12:8.7 
2.703657262854476e-06 0:23.24 1:-4.53 2:3.43 3:-15.53 4:-8.93 5:-25.93 6:-20.52 7:-7.44 8:-9.34 9:-9.16 10:-0.19 11:15.17 12:-3.03 
2.703657262854476e-06 0:24.34 1:-16.34 2:-1.08 3:-8 4:-7.51 5:-21.7 6:-16.88 7:3.45 8:-17.8 9:7.37 10:-3.61 11:-16.27 12:-5.33 
2.703657262854476e-06 0:24.15 1:-16.02 2:1.88 3:19.04 4:-4.47 5:-27.76 6:-21.06 7:-12.84 8:-9.25 9:-0.55 10:-7.95 11:-10.48 12:-4.43 
2.703657262854476e-06 0:25.51 1:-11.07 2:9.4 3:-23.09 4:-7.97 5:-20.84 6:-15 7:-1.85 8:-24.05 9:15.56 10:-8.68 11:-1.62 12:-7.36 
2.703657262854476e-06 0:25.45 1:-12.86 2:-13.76 3:-7.14 4:4.02 5:-36.31 6:-10.93 7:-21.43 8:-13.3 9:14.74 10:-0.29 11:-2.57 12:-9.08 
2.703657262854476e-06 0:24.7 1:-9.47 2:11.3 3:-20.54 4:-25.15 5:-0.93 6:-28.35 7:-6.69 8:-9.54 9:5.25 10:-1.21 11:5.71 12:-28.68 
2.703657262854476e-06 0:24.72 1:-14.4 2:-3.16 3:10.25 4:-10.65 5:-32.55 6:-21.4 7:-16.83 8:-14.08 9:4.47 10:-4.62 11:-4.96 12:-0.98 
2.703657262854476e-06 0:25.03 1:-14.38 2:-2.72 3:-23.36 4:-40.31 5:-21.17 6:-31.99 7:-7.98 8:-23.21 9:-17.45 10:-10.66 11:2.18 12:-9.86 
2.703657262854476e-06 0:24.5 1:-8.85 2:0.45 3:-16.08 4:-22.54 5:-17.85 6:0.25 7:-22.36 8:-7.67 9:10.26 10:-8.82 11:-17.84 12:1.59 
2.703657262854476e-06 0:23.97 1:-6.48 2:4.96 3:-11.18 4:-12.61 5:-3.33 6:-9.61 7:-18.64 8:-11.62 9:-10.6 10:8.41 11:3.77 12:1.02 
2.703657262854476e-06 0:23.45 1:-18.71 2:17.38 3:-0.62 4:2.66 5:-20.17 6:-6.63 7:14.08 8:-25.96 9:21.63 10:8.33 11:2.43 12:-4.36 
2.703657262854476e-06 0:24.38 1:-4.85 2:11.08 3:-21.58 4:-19.34 5:-5.02 6:-13.57 7:-19.44 8:-17.23 9:20.34 10:-0.53 11:15.12 12:-9.6 
2.703657262854476e-06 0:24.11 1:-11.68 2:14.74 3:-0.54 4:-19.44 5:-24.69 6:-13.11 7:-23.04 8:-5.38 9:21.01 10:-13.75 11:-0.35 12:-2.66 
2.703657262854476e-06 0:24.1 1:-7.89 2:3.86 3:-19.36 4:-27.68 5:-7.19 6:-14.65 7:2.44 8:-2.92 9:-2.16 10:5.83 11:5.97 12:2.25 
2.703657262854476e-06 0:26.22 1:-21.27 2:11.35 3:-2.38 4:-7.59 5:-2.21 6:-20.04 7:-7.65 8:4.92 9:4.96 10:-8.71 11:7.74 12:-4.59 
2.703657262854476e-06 0:25.17 1:-10.09 2:-4.25 3:15.85 4:-20.85 5:-30.37 6:-6.59 7:-28.26 8:-11.7 9:-0.36 10:-10.38 11:-4.17 12:-18.63 
2.703657262854476e-06 0:24.56 1:-8.12 2:-3.59 3:-1.49 4:-14.54 5:-20 6:-26.27 7:-22.93 8:-10.21 9:13.42 10:-12.01 11:12.41 12:-5.74 
2.703657262854476e-06 0:25.64 1:-23.21 2:4.55 3:-16.59 4:-14.77 5:-15.17 6:-1.97 7:-14.24 8:-4.43 9:-0.59 10:-1.35 11:9.43 12:-7.07 
2.703657262854476e-06 0:24.99 1:-13.92 2:11.58 3:4.58 4:-18.58 5:-14.03 6:-25.07 7:-22.78 8:-9.24 9:-8.27 10:1.4 11:0.19 12:-18.81 
2.703657262854476e-06 0:24.22 1:-2.96 2:2.69 3:-13.48 4:-21.68 5:-17.77 6:-12.24 7:-21.48 8:4.28 9:4.38 10:-2.5 11:-6.4 12:5.59 
2.703657262854476e-06 0:24.78 1:-5.21 2:-0.88 3:7.95 4:-22.82 5:-23.61 6:2.87 7:-34.13 8:-4.68 9:15.55 10:-4.47 11:-2.83 12:1.96 
2.703657262854476e-06 0:23.98 1:-3.22 2:-0.37 3:-13.4 4:-10.83 5:-22.25 6:-10.23 7:-0.17 8:-14.83 9:3.55 10:-6.6 11:-2.39 12:-3.82 
2.703657262854476e-06 0:23.88 1:-7.58 2:2.51 3:-13.41 4:-22.38 5:-16.39 6:-10.46 7:-0.95 8:2.44 9:2.24 10:-18.62 11:-5.46 12:4.81 
2.703657262854476e-06 0:24.89 1:-14.31 2:12.9 3:-25.22 4:-13.69 5:-28.05 6:-14.12 7:-17.67 8:-7.07 9:10.88 10:-4.61 11:-5.31 12:0.11 
2.703657262854476e-06 0:24.26 1:-8.54 2:13.77 3:-25.78 4:-25.54 5:12.29 6:-20.99 7:-5.12 8:3.69 9:-3.63 10:11.37 11:-6.84 12:2.26 
2.703657262854476e-06 0:23.6 1:-2.26 2:8.67 3:-16.81 4:-32.2 5:-7.47 6:-7.42 7:-8.76 8:1.77 9:-3.82 10:-12.21 11:1.13 12:4.32 
2.703657262854476e-06 0:26.42 1:-24.94 2:23.23 3:-0.9 4:-8.06 5:-9.65 6:-7.79 7:-9.15 8:-18.22 9:-0.45 10:11.96 11:-2.56 12:-1.86 
2.703657262854476e-06 0:24.48 1:-8.68 2:2.96 3:-11.26 4:-15.14 5:-19.32 6:-21.06 7:-15.77 8:12.08 9:12.36 10:-14.61 11:-11.47 12:5.6 
2.703657262854476e-06 0:25.15 1:-13.46 2:1.17 3:4.91 4:-25.01 5:-21.63 6:-25.44 7:-2.63 8:-3.7 9:0.43 10:-16.66 11:-6.09 12:-6.79 
2.703657262854476e-06 0:26.18 1:-14.73 2:-2.99 3:-31.99 4:-27.12 5:-14.67 6:-30.65 7:-13.41 8:-13.15 9:-5.4 10:-1.32 11:-5.97 12:-22.42 
2.703657262854476e-06 0:24.92 1:-21.72 2:-17.74 3:-8.92 4:-7.28 5:-32.13 6:-24.75 7:-11.22 8:-8.21 9:2.1 10:-4.33 11:-11.81 12:-9.2 
2.703657262854476e-06 0:25.72 1:-16.27 2:5.08 3:4.01 4:-1.35 5:-20.07 6:-3.23 7:-6.82 8:-34.34 9:8.91 10:17.56 11:8.32 12:-3.04 
2.703657262854476e-06 0:23.28 1:-7.04 2:-38.19 3:-5.48 4:-28.15 5:-46.37 6:-15.33 7:-4.46 8:-2.03 9:-21.88 10:6.1 11:5.33 12:-2.98 
2.703657262854476e-06 0:23.56 1:-11.97 2:-23.87 3:-1.92 4:-24.52 5:-25.54 6:-13.74 7:-6.66 8:-13.09 9:-26.81 10:13.96 11:-3.66 12:-7.15 
2.703657262854476e-06 0:25.39 1:-12.86 2:2.74 3:-31.16 4:-5.93 5:-18.24 6:-20.25 7:-19.57 8:-6.71 9:-3.82 10:1.81 11:8.47 12:-11.07 
2.703657262854476e-06 0:22.49 1:-18.45 2:18.13 3:6.05 4:-6.84 5:-5.06 6:-8.98 7:3.67 8:-9.81 9:10.62 10:-3.77 11:5.28 12:-4.37 
2.703657262854476e-06 0:23.68 1:2.54 2:0.62 3:-28.75 4:-13.97 5:-6.88 6:-31.62 7:-10.22 8:-12.29 9:6.43 10:13.28 11:-7.48 12:-5.58 
2.703657262854476e-06 0:23.01 1:0.67 2:2.88 3:-13.34 4:0.02 5:-27.66 6:-30.09 7:-12.2 8:-11.28 9:-4.07 10:3.95 11:8.28 12:-13.45 
2.703657262854476e-06 0:24.61 1:-13.32 2:6.01 3:-7.05 4:-27.03 5:-12.64 6:-16.16 7:-10.4 8:-6.07 9:6.61 10:10.38 11:-6.06 12:-0.25 
2.703657262854476e-06 0:23.96 1:-7.22 2:4.08 3:-3.49 4:-14.42 5:-24.82 6:-32.34 7:-5.15 8:-8.35 9:8.23 10:5.63 11:11.76 12:-9.48 
2.703657262854476e-06 0:21.24 1:-8.17 2:11.42 3:-3.42 4:-12.42 5:6.11 6:-9.7 7:16.63 8:-1.8 9:20.64 10:-7.51 11:4.88 12:-0.74 
2.703657262854476e-06 0:24.65 1:-8.24 2:-3.24 3:-18.72 4:-5.98 5:-14.62 6:-9.6 7:-18.75 8:-15 9:0.7 10:11.07 11:2.05 12:3.6 
2.703657262854476e-06 0:21.7 1:-8.47 2:17.22 3:-4.47 4:-1.13 5:3.55 6:-20.78 7:12.22 8:-18.27 9:19.35 10:-3.7 11:2.98 12:2.03 
2.703657262854476e-06 0:24.76 1:-10.46 2:20.87 3:-24.97 4:-20.95 5:-11.77 6:-20.9 7:-5.36 8:3.23 9:2.38 10:0.67 11:-2.34 12:-2.01 
2.703657262854476e-06 0:24.49 1:-15.05 2:8.65 3:-3.09 4:-11.66 5:-5.35 6:-22.19 7:-26.97 8:-14.15 9:-2.58 10:5.59 11:1.15 12:7.5 
2.703657262854476e-06 0:24.04 1:-2.33 2:-1.84 3:-15.12 4:-9.22 5:-9.99 6:-14.95 7:-26.82 8:-8.94 9:4.89 10:3.77 11:12.34 12:-8 
2.703657262854476e-06 0:26.38 1:-20.23 2:22.72 3:-17.74 4:1.17 5:-9.25 6:-25.29 7:-20.78 8:-0.47 9:16.77 10:-20.15 11:-1.34 12:4.29 
2.703657262854476e-06 0:24.51 1:-14.81 2:9.06 3:1.22 4:-1.84 5:-32.78 6:-28.51 7:-0.94 8:-17.16 9:3.97 10:-8.51 11:-10.59 12:-7.77 
2.703657262854476e-06 0:24.29 1:-5.96 2:2.49 3:-31.38 4:-6.97 5:-10.38 6:-31.1 7:-3.13 8:-1.76 9:8.52 10:-6.79 11:1.87 12:2.39 
2.703657262854476e-06 0:25.36 1:-15.63 2:-3.19 3:1.49 4:17.45 5:-34.83 6:-28.18 7:-9 8:-20.37 9:8.41 10:4.9 11:-0.54 12:13.74 
2.703657262854476e-06 0:24.41 1:-14.26 2:5.48 3:17.7 4:-6.7 5:-27.37 6:-31.76 7:-18.29 8:-6 9:3.46 10:-10.47 11:3.13 12:6.19 
2.703657262854476e-06 0:24.66 1:-12.3 2:1.89 3:-7.56 4:-20.57 5:-7.13 6:-16.99 7:-9.18 8:1.56 9:8.44 10:5.47 11:-10.39 12:-11.56 
2.703657262854476e-06 0:24.61 1:-10.33 2:16.03 3:0.17 4:-19.58 5:-22.52 6:-15.16 7:-15.92 8:3.01 9:8.17 10:-8 11:-1.63 12:3.95 
2.703657262854476e-06 0:26.31 1:-17.91 2:23.37 3:-19.96 4:-0.39 5:-11 6:-20.42 7:-11.37 8:-11.64 9:10.04 10:-6.96 11:-10.49 12:-14.82 
2.703657262854476e-06 0:24.21 1:-12.87 2:3.11 3:-10.3 4:-1.07 5:-20.39 6:-38.91 7:-5.04 8:-8.61 9:-7.3 10:-4.69 11:-4.8 12:2.99 
2.703657262854476e-06 0:23.02 1:2.9 2:-6.29 3:-0.21 4:-29.96 5:-17.34 6:-15.57 7:-12.83 8:3.3 9:-21.92 10:8.17 11:12.88 12:-4.01 
2.703657262854476e-06 0:24.01 1:-3.84 2:12.17 3:-15.62 4:-27.05 5:-5.86 6:-17.25 7:-19.36 8:2.41 9:-2.63 10:5.49 11:-10.72 12:0.86 
2.703657262854476e-06 0:24.9 1:-14.28 2:-8.14 3:10.37 4:-20.17 5:-26.96 6:-4.63 7:-2.52 8:-25.26 9:2.4 10:8.07 11:-14.39 12:-12.14 
2.703657262854476e-06 0:24.9 1:-11.9 2:9.2 3:-4.33 4:-10.38 5:-2.92 6:-19.14 7:-13.09 8:-2.51 9:-7.49 10:-8.64 11:-13.94 12:9.82 
2.703657262854476e-06 0:24.62 1:-11.17 2:9.19 3:-22.24 4:-34.34 5:7.41 6:2.05 7:-22.62 8:-1.43 9:18.03 10:-1.27 11:4.7 12:-12.06 
2.703657262854476e-06 0:24.99 1:-15.89 2:-5.67 3:-27.12 4:-28.08 5:-19.25 6:-20.1 7:-6.86 8:-6.37 9:-1.27 10:8.49 11:-11.44 12:-11.21 
2.703657262854476e-06 0:24.93 1:-16.32 2:9.31 3:-11.28 4:-6.85 5:-31.07 6:-5.82 7:10.84 8:-27.32 9:-12.1 10:-17.27 11:-1.23 12:-0.57 
2.703657262854476e-06 0:24.64 1:-7.75 2:8.93 3:-19.06 4:1.1 5:-13.82 6:-25.58 7:4.75 8:-17.79 9:1.79 10:0.29 11:-13.33 12:-5.52 
2.703657262854476e-06 0:26.93 1:-16.89 2:-2.28 3:-31.24 4:-20.53 5:-5.99 6:-31.37 7:-0.82 8:-4.21 9:-4.46 10:1.16 11:-4.21 12:-19.22 
2.703657262854476e-06 0:25.1 1:-13.68 2:-4.75 3:15.76 4:7.08 5:-19.7 6:-55.49 7:-14.29 8:-0.01 9:-4.85 10:13.04 11:-12.9 12:-4.76 
2.703657262854476e-06 0:25.09 1:-15.71 2:11.25 3:7.74 4:-0.72 5:-14.05 6:-19.92 7:-21.63 8:-13.4 9:0.53 10:-3.04 11:-9.63 12:6.04 
2.703657262854476e-06 0:24.72 1:-9.9 2:-3.16 3:-18.46 4:-23.19 5:-0.23 6:-15.86 7:-13.28 8:-11.26 9:4.36 10:10.81 11:14.13 12:-12.92 
2.703657262854476e-06 0:23.8 1:-3.12 2:-1.15 3:-19.07 4:-33.24 5:-2.62 6:-21.2 7:-6.01 8:-3.99 9:-1.1 10:9.71 11:3.83 12:-8 
2.703657262854476e-06 0:24.71 1:-9.31 2:4.51 3:-8.07 4:-16.2 5:-19.43 6:-19.37 7:-21.87 8:2.91 9:-2.05 10:-6.7 11:-17.62 12:4.43 
2.703657262854476e-06 0:24.26 1:-16 2:-12.98 3:-23.34 4:-28 5:-20.55 6:-7.88 7:-0.48 8:-3.47 9:-3.77 10:-0.08 11:-8.21 12:-12.04 
2.703657262854476e-06 0:23.95 1:-12.45 2:10.64 3:4.59 4:16.75 5:-32.35 6:-45.06 7:-22.26 8:-5.89 9:6.93 10:-12.45 11:-0.04 12:-7.1 
2.703657262854476e-06 0:24.87 1:-13.29 2:10.08 4:-20.39 5:-12.91 6:-12.68 7:-28.43 8:-18.04 9:3.84 10:4.88 11:-8.64 12:-17.62 
2.703657262854476e-06 0:23.91 1:-9.38 2:3.19 3:-22.96 4:-29.7 5:-4.25 6:5.36 7:-13.46 8:-25.06 9:5.37 10:6.6 11:13.69 12:-10.48 
2.703657262854476e-06 0:22.77 1:-16.24 2:16.25 3:-3.56 4:-2.71 5:-2.51 6:-18.02 7:14.94 8:-17.46 9:19.66 10:6.06 11:3.24 12:7.61 
2.703657262854476e-06 0:22.71 1:-13.4 3:2.26 4:11.52 5:-37.99 6:-26.69 7:-9.9 8:-25.84 9:-0.79 10:1.88 11:9.53 12:-7.94 
2.703657262854476e-06 0:21.47 1:-8.42 2:15.08 3:-10.78 4:-4.8 5:0.78 6:-10.92 7:16.82 8:-11.47 9:16.84 10:-2.68 11:4.41 12:-0.55 
2.703657262854476e-06 0:21.9 1:-13.22 2:12.59 3:0.43 4:-8.59 5:2.48 6:-13.22 7:18.76 8:-13.59 9:15.45 10:3.47 11:3.07 12:8.2 
2.703657262854476e-06 0:25.1 1:-9.97 2:-3.49 3:8.99 4:-3.18 5:-36.93 6:-25.08 7:-8.41 8:-31.36 9:18.38 10:-7.22 11:-12.07 12:-9.97 
2.703657262854476e-06 0:24.69 1:-11.28 2:4.77 3:-8.56 4:-2.94 5:-19.76 6:-36.01 7:-5.96 8:-20.81 9:10.92 10:-11.73 11:-17.23 12:-5.43 
2.703657262854476e-06 0:26.61 1:-18.81 2:1.39 3:-30.25 4:0.98 5:-18.17 6:-29.72 7:-5.69 8:-0.33 9:-18.88 10:-16.79 11:4.29 12:1.63 
2.703657262854476e-06 0:23.54 1:-5.38 2:7.1 3:-17.49 4:-20.75 5:-7.02 6:-28.31 7:4.25 8:-6.8 9:-11.79 10:10.32 11:-4.74 12:8.88 
2.703657262854476e-06 0:25.07 1:-14 2:7.89 3:8.7 4:-14.13 5:-20.87 6:-16.03 7:-26.22 8:12.14 9:9.15 10:-6.84 11:-12.78 12:1.24 
2.703657262854476e-06 0:24.18 1:-10.69 2:8.74 3:-3.19 4:-23.22 5:-18.71 6:-0.74 7:-15.62 8:-4.12 9:10.63 10:-14.39 11:0.82 12:-3.83 
2.703657262854476e-06 0:25.29 1:-21.36 2:-22.91 3:-31.8 4:-25.79 5:-32.52 6:-6.89 7:-2.8 8:-11.33 9:-0.85 10:-15.35 11:-9.49 12:-2.41 
2.703657262854476e-06 0:25 1:-9.9 2:-9.53 3:3.53 4:8.39 5:-42.29 6:-17.14 7:-19.04 8:-15.26 9:-3.45 10:-7.51 11:8.6 12:2.3 
2.703657262854476e-06 0:24.55 1:-13.07 2:20.03 3:-27.35 4:-36.42 5:-5.78 6:15.85 7:-8.68 8:-13.68 9:-0.12 10:-6.6 11:15.82 12:-3.58 
2.703657262854476e-06 0:25.97 1:-18.86 2:15.14 3:-15.41 4:-2.31 5:-25.19 6:-18.46 7:-2.31 8:-23.6 9:12.76 10:-6.67 11:-4.62 12:-7.2 
2.703657262854476e-06 0:25.16 1:-15.57 2:12.11 3:-25.88 4:-10.97 5:-27.01 6:-10.74 7:1.03 8:-26.14 9:-6.76 10:-2.56 11:0.16 12:-1.46 
2.703657262854476e-06 0:23.73 1:-7.61 2:3.71 3:-20.52 4:-24.79 5:-1.38 6:-21.34 7:-20.49 8:-2.67 9:1.27 10:6.39 11:4.66 12:-11.8 
2.703657262854476e-06 0:25.66 1:-19 2:1.97 3:6.14 4:18.98 5:-28.91 6:-45.46 7:-17.87 8:-11.55 9:4.29 10:1.69 11:-3.33 12:11.39 
2.703657262854476e-06 0:24.51 1:-18.44 2:-2.27 3:-30.87 4:-38.09 5:-22.27 6:-2.76 7:-4 8:-6 9:3.74 10:-19.47 11:-1.16 12:-3.06 
2.703657262854476e-06 0:24.22 1:-13.76 2:5.65 3:-15.63 4:-11.34 5:-31.37 6:-17.16 7:-11.79 8:-14.87 9:0.65 10:-2.76 11:-12.31 12:-6.24 
2.703657262854476e-06 0:25.22 1:-18.52 2:8.84 3:1.16 4:-12.53 5:-23.82 6:-19.35 7:-23.03 8:-12.34 9:4.59 10:-2.58 11:4.28 12:-9.49 
2.703657262854476e-06 0:24.98 1:-12.24 2:-9.64 3:-2.73 4:-6.15 5:-17.54 6:-9.5 7:-24.61 8:-3.63 9:8.82 10:-4.9 11:-0.75 12:-5.14 
2.703657262854476e-06 0:24.47 1:-4.89 2:10.42 3:-22.02 4:-19 5:-15.65 6:-6.33 7:-16.89 8:-11.86 9:7.5 10:-4.67 11:15.8 12:-9.52 
2.703657262854476e-06 0:24.61 1:-11.66 2:3.17 3:-17.16 4:-24.27 5:-4.39 6:-12.21 7:-12.69 8:-11.23 9:-2.73 10:9.55 11:12.48 12:-18.57 
2.703657262854476e-06 0:24.86 1:-4.55 2:7.25 3:-24.34 4:-3.45 5:-33.15 6:-7.9 7:-9.82 8:-18.27 9:3.6 10:-12.17 11:0.78 12:-13.1 
2.703657262854476e-06 0:23.95 1:-19.1 2:-27.49 3:-19.87 4:-18.64 5:-37.62 6:-13.63 7:-3.26 8:-10.36 9:-2.74 10:-7.07 11:-18.8 12:-15.86 
2.703657262854476e-06 0:24.2 1:-7.77 2:13.27 3:-10.67 4:-16.83 5:-27.44 6:-6.24 7:0.91 8:-10.49 9:16.08 10:-3.56 11:-3.75 12:-2.1 
2.703657262854476e-06 0:24.82 1:-7.1 2:-5.01 3:-12.06 4:-11.66 5:-18.83 6:-3.77 7:-18.61 8:-9.98 9:5.3 10:6.77 11:2.52 12:6.07 
2.703657262854476e-06 0:23.2 1:1.39 2:-2.18 3:-12.62 4:-21.93 5:-22.07 6:-6.82 7:-17.4 8:-30.49 9:11.48 10:-1.91 11:4.4 12:6.43 
2.703657262854476e-06 0:24.43 1:-13.34 2:5.87 3:2.78 4:-8.92 5:-10.82 6:-13.69 7:-20.94 8:-3.89 9:0.92 10:8.23 11:4.16 12:2.17 
2.703657262854476e-06 0:26.39 1:-22.4 2:16.6 3:-18.17 4:-3.4 5:-21.25 6:-27.22 7:-17.9 8:-6.21 9:-3.62 10:1.27 11:-0.43 12:-5 
2.703657262854476e-06 0:23.8 1:-1.95 2:-0.76 3:-32.75 4:-32.24 5:-4.61 6:-1.1 7:-8.14 8:-15.74 9:4.61 10:1.52 11:4.02 12:1.19 
2.703657262854476e-06 0:24.47 1:-12.42 2:6.85 3:-11.86 4:-18.99 5:-20.94 6:-12.27 7:-5.32 8:-2.17 9:8.16 10:-10.57 11:-10.27 12:6.09 
2.703657262854476e-06 0:22.12 1:-17.37 2:17.2 3:-0.59 4:1.81 5:-5.46 6:-0.88 7:4.56 8:-17.41 9:23.13 10:-2.18 11:-2.2 12:10.01 
2.703657262854476e-06 0:23.79 1:-1.88 2:11.42 3:-17.11 4:-14.44 5:-15.34 6:-0.04 7:-8.17 8:-25.22 9:7.66 10:-5.2 11:-2.1 12:-23.61 
2.703657262854476e-06 0:24.79 1:-8.53 2:9.15 3:-23.09 4:-1.53 5:-9.52 6:-24.38 7:7.59 8:-27.83 9:15.3 10:-5.4 11:-6.77 12:-3.4 
2.703657262854476e-06 0:23.18 1:-14.36 2:17.18 3:-13.85 4:-0.06 5:-4.23 6:-16.57 7:32.08 8:-19.52 9:28.71 10:-14.64 11:1.32 12:2.06 
2.703657262854476e-06 0:26.07 1:-18.64 2:0.3 3:-21.14 4:-19.75 5:2.96 6:-26.63 7:-7.63 8:-6.05 9:-6.63 10:2.97 11:9.66 12:-16.24 
2.703657262854476e-06 0:25.02 1:-17.46 2:0.41 3:-18.64 4:-26.5 5:-6.65 6:-0.5 7:-11.54 8:-16.72 9:-1.56 10:-4.1 11:16.64 12:-6.81 
2.703657262854476e-06 0:24.89 1:-9.95 2:8.06 3:-8.02 4:-18.44 5:-13.4 6:-8.28 7:-20.08 8:-10.34 9:13.23 10:4.55 11:12.5 12:-9.29 
2.703657262854476e-06 0:24.89 1:-12.88 2:9.66 3:-11.75 4:-21.14 5:-6.54 6:-15.31 7:-26.61 8:-11.01 9:3.97 10:3.35 11:8.92 12:-10.61 
2.703657262854476e-06 0:25.82 1:-28.86 2:12.01 3:-4.59 4:11.08 5:-17.93 6:-26.58 7:-28.8 8:-15.72 9:2.12 10:14.95 11:-1.11 12:-7.68 
2.703657262854476e-06 0:22.79 1:-0.92 2:1.6 3:-25.48 4:-36.8 5:-0.54 6:-8.77 7:-7.68 8:-28.6 9:14.51 10:-0.04 11:14.62 12:-8.28 
2.703657262854476e-06 0:25.19 1:-15.07 2:6.29 3:-27.56 4:-34.12 5:-9.51 6:-19.21 7:-16.63 8:-16.3 9:11.3 10:2.9 11:7.35 12:-24.4 
2.703657262854476e-06 0:24.58 1:-5.36 2:5.14 3:0.67 4:-11.56 5:-10.81 6:-30.95 7:-20.21 8:-11.44 9:-4.96 10:1.28 11:13.84 12:-1.7 
2.703657262854476e-06 0:26.26 1:-18.33 2:1.63 3:-23.5 4:-26.71 5:-16.29 6:-29.97 7:-15.13 8:-6.47 9:2.76 10:-11.58 11:-9.35 12:-21.65 
2.703657262854476e-06 0:24.62 1:-15.86 2:13.59 3:7.13 4:-19.81 5:-29.01 6:-19.39 7:-16.65 8:-2.38 9:9.27 10:8.81 11:-4.34 12:12.05 
2.703657262854476e-06 0:25.67 1:-17.72 2:1.58 3:-27.73 4:-24.13 5:-11.28 6:-19.09 7:-16.89 8:-15.52 9:19.08 10:3.06 11:-7.63 12:-17.31 
2.703657262854476e-06 0:24.61 1:-11.35 2:8.4 3:-12.31 4:-16.75 5:-30.25 6:-21.22 7:-10.35 8:5.1 9:10.99 10:-9.65 11:-11.14 12:10.17 
2.703657262854476e-06 0:25.3 1:-18.52 2:-30.76 3:-21.51 4:-15.73 5:-40.71 6:-4.7 7:-9.56 8:-14.3 9:-5.09 10:-16.38 11:-1.38 12:-5.19 
2.703657262854476e-06 0:24.18 1:-6.73 2:5.97 3:-13.84 4:-12.11 5:-29.84 6:-11.86 7:-0.55 8:-20.13 9:-5.74 10:5.77 11:-2.91 12:-13.88 
2.703657262854476e-06 0:24.17 1:-4.22 2:5.98 3:-15.5 4:-8.35 5:-16.94 6:-19.05 7:-8.06 8:-18.82 9:10.42 10:-19.36 11:-6.34 12:-13.41 
2.703657262854476e-06 0:24.67 1:-13.75 2:4.93 3:-3.09 4:-21.4 5:-13.8 6:-19.28 7:-3.73 8:-2.14 9:12.53 10:-3.33 11:0.98 12:-12.98 
2.703657262854476e-06 0:22 1:-13.22 2:10.53 3:1.81 4:-3.53 5:-11.63 6:7.96 7:9.8 8:-22.33 9:29.71 10:-10.04 11:-5.97 12:5.63 
2.703657262854476e-06 0:24.89 1:-9.06 2:2.67 3:7.49 4:-13.18 5:-27.98 6:-21.26 7:-9.58 8:-10 9:14.77 10:-3.91 11:-11.32 12:-22.89 
2.703657262854476e-06 0:26.43 1:-22.3 2:4.04 3:4.81 4:-7.6 5:-33.39 6:-7.81 7:-30.84 8:-11.66 9:3.79 10:-1.34 11:0.5 12:-17.55 
2.703657262854476e-06 0:23.54 1:-6.94 2:-10.68 3:-8.64 4:-5.79 5:-13.78 6:-12.17 7:-27.16 8:-5.5 9:7.39 10:-0.8 11:-18.17 12:-13.01 
2.703657262854476e-06 0:24.91 1:-13.11 2:-15.37 3:-21.26 4:-19.15 5:-30.89 6:-11.25 7:-5.82 8:-11.65 9:7.2 10:-5.4 11:-13.21 12:-6 
2.703657262854476e-06 0:24.59 1:-9.48 2:7.24 3:-5.31 4:-3.29 5:-31.06 6:-7.05 7:-13.28 8:-13.61 9:3.13 10:-4.52 11:3.69 12:-10.37 
2.703657262854476e-06 0:24.44 1:-7.62 2:9.77 3:-12.46 4:-17.88 5:-6.81 6:-5.83 7:-22.61 8:-3.14 9:-9.78 10:2.91 11:11.2 12:1.82 
2.703657262854476e-06 0:22.32 1:-13.3 2:19.16 3:-6.28 4:4.08 5:-8.73 6:-5.57 7:14.14 8:-20.8 9:26.01 10:-5.03 11:-1.32 12:3.4 
2.703657262854476e-06 0:23.86 1:-7.97 2:13.89 3:-30.25 4:-39.09 5:-4.15 6:5.36 7:-27.31 8:-6.61 9:20.3 10:-3.69 11:8.6 12:-16.09 
2.703657262854476e-06 0:24.86 1:-14.52 2:3.91 3:-7.09 4:-7.5 5:-24.09 6:-29.54 7:-3.32 8:-24.11 9:10.03 10:-5.86 11:-20.39 12:-6.23 
2.703657262854476e-06 0:24.17 1:-9.84 2:10.59 3:-26.35 4:-27.21 5:-0.72 6:-19.21 7:-1.9 8:-0.83 9:-0.86 10:14.82 11:-1.53 12:0.22 
2.703657262854476e-06 0:22.53 1:-19.97 2:10.85 3:12.25 4:-7.96 5:2.04 6:-1.24 7:0.7 8:-7.33 9:27.41 10:-15.9 11:10.36 12:8.47 
2.703657262854476e-06 0:25.14 1:-14.39 2:-0.11 3:-17.41 4:-8.42 5:-17.32 6:-23.64 7:-4.49 8:-14.92 9:4.55 10:-9.45 11:-0.07 12:-14.34 
2.703657262854476e-06 0:25.45 1:-20.37 2:4.99 3:10.43 4:-6.3 5:-27.13 6:-23.02 7:-26.67 8:3.34 9:1.94 10:-1.88 11:4.26 12:-13.61 
2.703657262854476e-06 0:23.92 1:-7.1 2:19.15 3:-14.74 4:-16.37 5:4.25 6:-21.97 7:-4.83 8:-21.62 9:-3.09 10:4.28 11:-13 12:-12.21 
2.703657262854476e-06 0:25.19 1:-10.66 2:11.88 3:-28.44 4:-4.74 5:-26.72 6:-19.44 7:-3.13 8:-20.29 9:8.12 10:-6.67 11:2.61 12:-2.85 
2.703657262854476e-06 0:24.43 1:-17.67 2:-18.19 3:-18.43 4:-11.71 5:-19.74 6:-22.37 7:-16.69 8:-8.53 9:-3.45 10:-3.9 11:-4.37 12:-14.39 
2.703657262854476e-06 0:25.34 1:-15.44 2:15.35 3:-13.89 4:-32.93 5:-12.06 6:-0.07 7:-7.07 8:-4.37 9:-0.59 10:3.5 11:12.56 12:2.13 
2.703657262854476e-06 0:24.33 1:-21.77 2:-35.29 3:-29.08 4:-9.62 5:-31.46 6:-10.73 7:-10.41 8:-4.07 9:7.69 10:-20.49 11:-9.39 12:-10.16 
2.703657262854476e-06 0:25.06 1:-12.24 2:3.73 3:-1.39 4:-31.59 5:3.91 6:-13.75 7:-36.11 8:-2.15 9:22.14 10:-0.76 11:-7.52 12:-18.17 
2.703657262854476e-06 0:24.78 1:-19.39 2:14 3:-2.18 4:-4.51 5:-28.98 6:-27.66 7:-9.29 8:-17.74 9:-4.99 10:-10.26 11:-11.78 12:-10.34 
2.703657262854476e-06 0:24.63 1:-9.86 2:-4.83 3:2.23 4:-12.75 5:-5.51 6:-47.37 7:-12.27 8:-9.97 9:3.24 10:10.57 11:11.54 12:-12.17 
2.703657262854476e-06 0:24.29 1:-5.81 2:-1.28 3:-8.15 4:-34.88 5:4.74 6:-4.74 7:-26.21 8:-4.81 9:19.15 10:3.4 11:9.32 12:-25.99 
2.703657262854476e-06 0:24.34 1:-10.75 2:1.71 3:8.26 4:-9.26 5:-36.47 6:-15.4 7:-11.68 8:-20.48 9:-3.72 10:13.82 11:-5.75 12:0.89 
2.703657262854476e-06 0:24.11 1:-6.65 2:7.3 3:-16.11 4:-4.19 5:-25.1 6:-27.03 7:0.84 8:-20.26 9:4.39 10:-8.16 11:-10.41 12:-12.84 
2.703657262854476e-06 0:24.99 1:-15.45 2:4.83 3:-10.18 4:-9.62 5:-4.41 6:-10.89 7:-18.9 8:-1.05 9:-10.43 10:-3.42 11:2.31 12:-2.51 
2.703657262854476e-06 0:23.35 1:5.18 2:8.79 3:-7.91 4:-18.64 5:-27.68 6:-36.62 7:8.72 8:-27.55 9:-9.42 10:-4.66 11:15.88 12:-10.03 
2.703657262854476e-06 0:25.29 1:-20.3 2:-0.28 3:-27.66 4:-43.4 5:-29.39 6:1.94 7:-13.62 8:-1.93 9:15.08 10:-14.31 11:-3.1 12:-15 
2.703657262854476e-06 0:25.26 1:-14.67 2:9.69 3:-5.23 4:-10.01 5:-12.33 6:-6.49 7:1.05 8:-24.15 9:-4.42 10:-0.5 11:-0.32 12:16.53 
2.703657262854476e-06 0:24.55 1:-8.23 2:5.46 3:-8.89 4:-17.08 5:-12.78 6:-29.22 7:-19.39 8:0.71 9:-2.67 10:-7.49 11:4.46 12:-12.15 
2.703657262854476e-06 0:24.22 1:-1.76 2:0.54 3:-22.87 4:-20.6 5:-2.89 6:-1.55 7:-12.92 8:-20.07 9:-4.74 10:1.34 11:-0.01 12:-1.36 
2.703657262854476e-06 0:22.88 1:-15.94 2:20.4 3:-5.6 4:-6.98 5:1.04 6:-21.14 7:12.94 8:-6.02 9:9.27 10:-2.89 11:-3.59 12:0.83 
2.703657262854476e-06 0:23.72 1:-3.92 2:15.37 3:-18.8 4:-19.88 5:0.18 6:-18.46 7:-6.55 8:-22.47 9:-0.71 10:-7.32 11:-3.02 12:-5.89 
2.703657262854476e-06 0:24.5 1:-11.74 2:6.51 3:-0.3 4:-27.66 5:-12.98 6:-0.09 7:-36.07 8:-21.12 9:24.19 10:-2.43 11:0.75 12:-29.1 
2.703657262854476e-06 0:24.3 1:-9.01 2:1.53 3:-1.09 4:6.66 5:-20.36 6:-16.28 7:-17.71 8:-22 9:-14.04 10:-6.12 11:7.59 12:-4.95 
2.703657262854476e-06 0:26.2 1:-19.82 2:15.26 3:-5.22 4:-17.89 5:-20.65 6:-41.17 7:-3.71 8:-10.01 9:3.47 10:-8.17 11:1.76 12:-10.66 
2.703657262854476e-06 0:26.5 1:-18.8 2:22.03 3:-9.52 4:-5.22 5:-11.38 6:-19.72 7:-15.62 8:-3.43 9:-6.43 10:7.85 11:-6.72 12:4.3 
2.703657262854476e-06 0:24.18 1:-7.43 2:3.52 3:-21 4:-34.01 5:-4.42 6:9.47 7:-22.34 8:-5.3 9:16.86 10:-9.81 11:11.49 12:-8.07 
2.703657262854476e-06 0:24.29 1:-8.39 2:5.79 3:-42.96 4:-20.67 5:-0.18 6:-24.12 7:-11.94 8:-1.11 9:0.42 10:3.98 11:1.95 12:-14.49 
2.703657262854476e-06 0:24.28 1:-21.11 2:-20.47 3:-4.8 4:-3.2 5:-30.3 6:-24.78 7:-8.51 8:-2.24 9:9.27 10:-9.07 11:-12.4 12:-11.2 
2.703657262854476e-06 0:23.99 1:-11.47 2:12.59 3:6.07 4:-19.75 5:-10.89 6:-25.12 7:-22.86 8:2.42 9:20.07 10:-7.91 11:-4.76 12:-5.6 
2.703657262854476e-06 0:24.91 1:-17.72 2:-0.06 3:-4.24 4:-15.38 5:-21.46 6:-7.46 7:3.26 8:-28.97 9:8.3 10:-11.44 11:0.25 12:-8.91 
2.703657262854476e-06 0:23.63 1:-0.84 2:9.34 3:-6.37 4:-22.19 5:-13.84 6:-18.05 7:-16.81 8:-8.34 9:-3.13 10:9.37 11:-6.93 12:0.16 
2.703657262854476e-06 0:26.21 1:-22.12 2:27.25 3:-18.25 4:3.19 5:-11.51 6:-38.75 7:-15.82 8:-3.17 9:8.37 10:-4.76 11:-6.73 12:-9.44 
2.703657262854476e-06 0:24.82 1:-12.38 2:11.48 3:-9.38 4:-23.68 5:-7.44 6:-14.32 7:-13.07 8:1.11 9:3.18 10:12.54 11:-17.2 12:4.59 
2.703657262854476e-06 0:24.54 1:-10.27 2:11.33 3:-21.83 4:-11.71 5:1.25 6:-21.64 7:-20.65 8:-11.77 9:-2.92 10:13.49 11:-1.35 12:3.34 
2.703657262854476e-06 0:24.22 1:-15.22 2:-30.1 3:-17.63 4:-18.98 5:-37.45 6:-19.64 7:-5.33 8:-1.18 9:0.61 10:-1.66 11:-2.69 12:-19.54 
2.703657262854476e-06 0:26.21 1:-24.68 2:6.14 3:8.96 4:18.61 5:-31.64 6:-13.01 7:-39.86 8:-7.9 9:10.11 10:-4.54 11:-0.17 12:-2.68 
2.703657262854476e-06 0:24.52 1:-9.37 2:-6.66 3:24.04 4:-15.18 5:-28.68 6:-17.04 7:-10.03 8:-24.67 9:-15.82 10:1.77 11:18.38 12:-1.59 
2.703657262854476e-06 0:23.06 1:-15.5 2:22.26 3:-15.03 4:-5.7 5:6.01 6:-17.3 7:23.29 8:-15.17 9:25.34 10:-8.53 11:10.83 12:2.79 
2.703657262854476e-06 0:26.05 1:-16.92 2:15.54 3:-24.3 4:-29.12 5:-7.69 6:-32.29 7:3.1 8:-9.02 9:-9.37 10:2.58 11:7.84 12:-25.21 
-2.703657262854476e-06 0:24.61 1:-14.88 2:11.75 3:-14.18 4:-34.95 5:-4.63 6:-7.41 7:-23.54 8:-23.94 9:-12.48 10:-9.47 11:14.55 12:-11.99 
-2.703657262854476e-06 0:23.92 1:-6.71 2:9.39 3:-39.57 4:-39.38 5:8.72 6:-19.13 7:-4.65 8:-33.38 9:-11.37 10:-13.53 11:14.82 12:-9.33 
-2.703657262854476e-06 0:23.28 1:-1.31 2:-9.97 3:-2.5 4:-23.61 5:-18.72 6:-20.3 7:-37.44 8:-1.95 9:28.37 10:-0.54 11:8.75 12:8.85 
-2.703657262854476e-06 0:26.22 1:-20.8 2:8.59 3:-10.47 4:-18.27 5:-17.83 6:-32.45 7:-11.8 8:-32.21 9:-5.43 10:-21.91 11:6.05 12:-2.98 
-2.703657262854476e-06 0:24.92 1:-9.73 2:20.26 3:-4.46 4:-1.64 5:12.76 6:-22.05 7:12.77 8:-7.32 9:49.23 10:9.17 11:16.08 12:13.95 
-2.703657262854476e-06 0:27.3 1:-33.69 2:21.62 3:6.71 4:-37.47 5:6.86 6:-35.46 7:6.38 8:-27.42 9:-2.62 10:-2.49 11:-4.03 12:9.73 
-2.703657262854476e-06 0:25.87 1:-23.3 2:14.69 3:11.18 4:-21.7 5:-22.45 6:-22.84 7:-33.62 8:-18.58 9:-9.37 10:-20.44 11:11.28 12:-9.68 
-2.703657262854476e-06 0:24 1:-8.14 2:-5.23 3:-15.65 4:-3.45 5:-19.55 6:-26.81 7:-20.47 8:-18.32 9:11.66 10:-26.26 11:42.11 12:-5.98 
-2.703657262854476e-06 0:26.04 1:-30.71 2:4.09 3:-17.57 4:-30.73 5:-2.5 6:-36.29 7:-36.9 8:-20.54 9:-20.26 10:-27.05 11:0.34 12:-22.99 
