svm_type epsilon_svr
kernel_type rbf
gamma 0.0833333
nr_class 2
total_sv 3002
rho 0.00180074
probA 0.998611
SV
0.9015250547579917 0:25.4 1:-14.56 2:11.61 3:-12.67 4:-17.17 5:-12.11 6:-20.73 7:-10.29 8:10.52 9:-7.44 10:6.93 11:-11.17 12:-0.97 
0.9021320914627035 0:25.75 1:-17.53 2:13.14 3:-1.32 4:-14.62 5:-11.41 6:-31.46 7:-17.99 8:2.73 9:4.7 10:8.66 11:-7.67 12:-8.25 
0.9017951485938211 0:21.24 1:-7.05 2:7.24 3:-12.24 4:3.64 5:-11.77 6:1.01 7:-0.84 8:-1.81 9:4.39 10:-1.28 11:1.9 12:-7.14 
0.9017406829456238 0:25.92 1:-19.46 2:7.56 3:-6.03 4:-12.7 5:1.22 6:-19.13 7:-19.88 8:-18.73 9:10.39 10:4.94 11:-1.15 12:-18.08 
0.8277519439476703 0:21.32 1:-9.13 2:6.56 3:-3.98 4:7.51 5:-11.04 6:8.6 7:-10.42 8:5.54 9:-6.47 10:2.86 11:-9.5 12:3.14 
0.9017958584066863 0:25.5 1:-15.18 2:9.89 3:-6.35 4:-7.21 5:-32.61 6:-21.88 7:-8.12 8:-20.09 9:3.15 10:3.39 11:-12.53 12:-10.51 
0.9019503610936088 0:23.55 1:-8.54 2:7.74 3:-18.68 4:-13.46 5:-7.33 6:-13.24 7:0.8 8:0.74 9:-1.18 10:-6.24 11:5.43 12:6.52 
0.9016370393709648 0:24.22 1:-5.97 2:6.64 3:-4.8 4:-2.47 5:-30.13 6:0.15 7:-21.84 8:4.19 9:-13.28 10:1.85 11:-0.46 12:4.46 
0.9019316951284846 0:23 1:-3.3 2:17.18 3:-9.35 4:-27.28 5:-18.54 6:-8.75 7:-4.15 8:-3.12 9:-4.19 10:-4.36 11:4.99 12:5.79 
0.9018049229960984 0:22.79 1:-12.71 2:17.94 3:-7.99 4:-2.38 5:-6.52 6:-23.97 7:13.73 8:-11.2 9:1.35 10:8.23 11:2.78 12:4.57 
0.9018957313995564 0:23.59 1:-17.49 2:24.52 3:-13.14 4:-3.93 5:-1.17 6:-17.68 7:9.55 8:-5.1 9:13.91 10:-3.01 11:2.83 12:-8.99 
0.9020879938222642 0:24.2 1:-9.5 2:15.7 3:-19.86 4:-29.08 5:-6.56 6:-16.53 7:-1.92 8:8.94 9:-18.1 10:6.85 11:-6.08 12:1.92 
0.8956080288929723 0:23.76 1:-8.73 2:8.97 3:-23.87 4:-23.22 5:-4.45 6:-24.62 7:-1.81 8:-10.8 9:12.25 10:-0.03 11:-7.15 12:4.2 
0.8366047936972664 0:19.95 1:-3.41 2:0.85 3:3.16 4:-1.19 5:-2.96 6:-2.27 7:-0.93 8:-3.67 9:-1.71 10:-2.64 11:-1.16 12:-1.07 
0.901376984874376 0:24.78 1:-10.01 2:10.91 3:-22.04 4:-5.88 5:-20.88 6:-18.76 7:-3.37 8:-19.09 9:0.29 10:-5.6 11:5.89 12:-14.34 
0.9013309259316574 0:22.05 1:-17.52 2:11.5 3:-1.6 4:0.05 5:3.29 6:-6.39 7:16.56 8:-4.31 9:12.26 10:-1.4 11:-4.77 12:6.23 
0.9016580651488953 0:24.98 1:-14.08 2:7.51 3:-10.41 4:-11.68 5:5.12 6:-15.33 7:-16.43 8:-0.35 9:-5.2 10:6.52 11:3.77 12:-5.17 
0.901511664954631 0:26.1 1:-23.49 2:17.79 3:1.01 4:10.48 5:-29.27 6:-22.15 7:-29.21 8:0.9 9:-6.17 10:-2.14 11:-0.94 12:-3.57 
0.9016745781915654 0:20.67 1:-5.31 2:5.28 3:-4.61 4:4.88 5:-3.24 6:5.84 7:-6.59 8:5.03 9:-5.37 10:10.45 11:-3.02 12:3.4 
0.9015651910995832 0:22.9 1:-11.69 2:13.07 3:-12.38 4:8.55 5:-21.16 6:-2.85 7:-0.51 8:-9.68 9:10.24 10:-1.05 11:-8.08 12:9.43 
0.9018668207060914 0:24.36 1:-16.98 2:-25.04 3:-22.74 4:-22.38 5:-35.1 6:3.18 7:-15.19 8:-13.94 9:-4.01 10:-4.48 11:-2.54 12:-18.62 
0.9013925680141314 0:23.96 1:-4.43 2:4.12 3:-17.62 4:-4.9 5:-13.68 6:-27.14 7:9.53 8:-13.77 9:-2.56 10:15.67 11:-5.77 12:-7.61 
0.9021337746817545 0:25.82 1:-11.82 2:-6.79 3:-24.53 4:-23 5:-12.82 6:-36.43 7:-8.63 8:-9.3 9:-3.51 10:-11.19 11:-2.98 12:-20.52 
0.9020118697228959 0:23.98 1:-12.66 2:-25.98 3:-36.75 4:-16.82 5:-30.94 6:0.06 7:-2.72 8:-12.78 9:-0.61 10:-3.5 11:-2.57 12:-17.6 
0.9000000281883266 0:23.47 1:-9.48 2:10.84 3:-22.18 4:-24.29 5:-9.35 6:-19.08 7:-14.32 8:-3.19 9:5.41 10:9.52 11:-11.08 12:0.31 
0.9018675436194548 0:22.92 1:-16.66 2:6.95 3:5.02 4:-20.03 5:-8.31 6:5.06 7:0.33 8:-7.85 9:20.27 10:-5.47 11:-2.72 12:-4.17 
0.9018675427339404 0:26.78 1:-20.4 2:15.31 3:-1.21 4:13.17 5:-36.4 6:-15.68 7:-18.18 8:-10.11 9:3.45 10:-7.11 11:1.27 12:-17.25 
0.9008802831858854 0:21.2 1:-5.08 2:1.71 3:-7.53 4:-11.81 5:-23.96 6:-1.88 7:-13.84 8:7.59 9:-1.77 10:12.29 11:-1.19 12:-1.99 
0.9017529204504648 0:24.64 1:-7.61 2:2.38 3:-15.24 4:-5.48 5:-41.85 6:18.32 7:-11.89 8:-1.78 9:-9.42 10:4.57 11:4.25 12:0.31 
0.9018147778090664 0:22.78 1:-15.77 2:18.03 3:-7.5 4:5.04 5:-0.05 6:-14.96 7:15.26 8:-8.61 9:10.28 10:8.9 11:-5.35 12:-3.04 
0.9015163211003544 0:26.1 1:-17.66 2:10.66 3:-0.52 4:-14.22 5:-13.52 6:-33.81 7:-10.35 8:-18.16 9:18.91 10:3.4 11:0.59 12:-6.21 
0.901795322285981 0:24.69 1:-13.56 2:-0.55 3:-4.68 4:-18.99 5:-24.6 6:-6.92 7:-7.76 8:7.94 9:-6.39 10:-0.18 11:-4.68 12:2.81 
0.9018397445309465 0:25.39 1:-11.93 2:11.49 3:-34.77 4:-1.74 5:-7.03 6:-11.35 7:-7.56 8:-4.67 9:11.71 10:-12.98 11:-4.14 12:-8.28 
0.9017956537203299 0:25.5 1:-12.69 2:17.67 3:-32.22 4:-13.56 5:-20.36 6:-4.41 7:-11.06 8:-7.78 9:11.48 10:-15.8 11:6.37 12:-0.39 
0.9021343360244231 0:23.77 1:-3.68 2:2.88 3:-6.78 4:-9.04 5:-23.4 6:-17.49 7:-3.32 8:-7.25 9:-6.15 10:-7.02 11:-6.29 12:-5.4 
0.90213377462154 0:24.32 1:-10.8 2:3.7 3:-16.61 4:-24.02 5:-10.64 6:-29.72 7:-14.99 8:6.75 9:-8.3 10:9.64 11:-11.88 12:-1.72 
0.901801980371053 0:25.02 1:-13.7 2:7.49 3:-3.7 4:-25.46 5:-12.2 6:-18.38 7:-16.35 8:-1.09 9:8.25 10:-3.35 11:-7.14 12:11.21 
0.9021512205001709 0:26.23 1:-19.07 2:0.64 3:-12.6 4:-22.25 5:-18.28 6:-38.83 7:-0.62 8:-13.6 9:-4.03 10:-3.74 11:-5 12:-13.63 
0.9016584864856007 0:21.68 1:-12.99 2:18.18 3:-10.71 4:-1.14 5:2.4 6:-11.01 7:18.43 8:-0.65 9:13.25 10:2.49 11:-7.55 12:9.9 
0.9018093652002993 0:25.51 1:-18.79 2:11.26 3:9.34 4:-7.58 5:-19.15 6:-20.52 7:-12.77 8:0.92 9:9.31 10:9.89 11:-8.05 12:4.21 
0.9015654774658657 0:24.55 1:-7.61 2:9.05 3:-3.12 4:-2.6 5:-16.8 6:-22.07 7:-22.48 8:-10.78 9:-16.1 10:-2.85 11:5.12 12:2.13 
0.9018261696329036 0:24.45 1:-10.48 2:2.74 3:-11.81 4:-31.54 5:-6.6 6:-13 7:-5.63 8:1.81 9:0.12 10:-8.43 11:10.76 12:0.81 
0.9019560699622876 0:24.45 1:-7.51 2:2.53 3:-17.34 4:-20.03 5:-20.45 6:-10.37 7:-12.99 8:1.9 9:-14.44 10:3.05 11:-9.9 12:3.48 
0.9022333069799965 0:22.47 1:7.92 2:-5.86 3:-1.49 4:-26.58 5:-21.35 6:-5.47 7:3.26 8:-2.9 9:-27.97 10:-5.85 11:3.04 12:11.47 
0.9013823482709395 0:24.45 1:-4.66 2:6.76 3:-14.02 4:-29.38 5:0.05 6:-11.5 7:-23.42 8:-11.7 9:24.42 10:-0.54 11:4.8 12:-6.63 
0.901510815627537 0:24.74 1:-19.74 2:-29.54 3:-15.59 4:-19.67 5:-39.7 6:-13.93 7:-7.43 8:-1.63 9:-3.19 10:-4.92 11:-8.63 12:-13.59 
0.9018004919691214 0:24.8 1:-13.72 2:9.03 3:-14.57 4:-41.25 5:-6.7 6:3.6 7:-21.57 8:-11.32 9:-2.27 10:-6.95 11:11.59 12:-2.49 
0.9015653287227604 0:19.81 1:-2.51 2:4.38 3:5.72 4:4.47 5:-14.12 6:2.15 7:3.96 8:-9.21 9:6.33 10:12.02 11:2.35 12:4.49 
0.9003606563501798 0:21.49 1:-11.13 2:8.01 3:-13.93 4:4.84 5:-15.8 6:-1.93 7:-4.26 8:-2.94 9:-0.99 10:-2.05 11:-1.44 12:1.68 
0.9013737284316173 0:24.39 1:-10.49 2:9.7 3:-29.36 4:-37.52 5:-3.45 6:-1.62 7:-6.97 8:-21.39 9:11.83 10:-6.52 11:10.27 12:-0.45 
0.9022380090692338 0:24.02 1:-10.06 2:4.28 3:-9.67 4:-22.63 5:-11.04 6:-17.27 7:-15.13 8:-11.12 9:7.32 10:-4.55 11:5.98 12:-4.07 
0.9013493775251266 0:24.36 1:-11.61 2:1.97 3:-10.73 4:-21.26 5:-17.62 6:-9.83 7:-11.52 8:-4.6 9:2.79 10:-7.32 11:-7.22 12:5.6 
0.9018034599556194 0:24.54 1:-5.24 2:8.04 3:-3.52 4:-21.38 5:-9.72 6:-12.78 7:-22.26 8:11.71 9:-9.7 10:11.16 11:13.23 12:-6.39 
0.9019010577993415 0:25.94 1:-18.64 2:7.37 3:-0.01 4:-6.26 5:-31.98 6:-19.04 7:5.21 8:-20.89 9:7.14 10:7.27 11:-12.92 12:-15.88 
0.9015111106602224 0:24.83 1:-12.68 2:-7.14 3:-10.62 4:8.91 5:-22.11 6:-22.82 7:-26.45 8:-6.73 9:10.36 10:7.63 11:-4.31 12:-8.74 
0.9017560145117038 0:24.97 1:-12.55 2:14.9 3:-30.02 4:-15.05 5:-22.13 6:-3.57 7:-1.4 8:-14.52 9:8.31 10:-11.14 11:10.92 12:0.15 
0.8863352396790245 0:20.68 1:-5.94 2:3.77 3:-4.25 4:0.5 5:-9.48 6:7.3 7:-2.81 8:4.73 9:-5.13 10:-1.46 11:-7.1 12:-0.7 
0.8932620277134173 0:25.22 1:-16.67 2:10.75 3:7.88 4:-19.58 5:-19.82 6:-13.99 7:-10.36 8:-8.16 9:8.31 10:-1.24 11:1.33 12:4.64 
0.9015069868235738 0:22.51 1:-18.55 2:13.1 3:-2.71 4:-0.61 5:-8.28 6:-1.06 7:12.54 8:-1.64 9:-3.16 10:7.04 11:-7.48 12:8.77 
0.9013810609785883 0:22.99 1:-12.4 2:11.43 3:-1.47 4:10.44 5:-25.92 6:7.06 7:-16.32 8:4.21 9:-0.18 10:6.79 11:-3.1 12:8.84 
0.9017736066200128 0:22.69 1:-24.41 2:11.34 3:15.75 4:-9.84 5:4.81 6:0.03 7:1.64 8:-1.1 9:6.62 10:0.66 11:5.34 12:3.35 
0.9019316752767097 0:22.84 1:0.35 2:-4.32 3:-1.49 4:-12.55 5:-19.18 6:-7.87 7:-14.99 8:3.64 9:-6.83 10:-11.44 11:19.11 12:-4.8 
0.9018875335373083 0:23.8 1:-8.04 2:13.38 3:-20.95 4:-28.52 5:5.79 6:-18.02 7:-1.77 8:-9.16 9:1.27 10:3.63 11:7.72 12:-1.7 
0.901809085495124 0:23.01 1:1.82 2:8.12 3:-13.82 4:-7.74 5:-7.84 6:-21.38 7:-19.54 8:-3.67 9:-12 10:-0.95 11:1.62 12:-8.4 
0.9015133719590075 0:24.07 1:-10.64 2:11.21 3:-18.54 4:-39.48 5:-1.46 6:-7.61 7:-18.58 8:11.31 9:-6.95 10:7.18 11:3.99 12:-2.3 
0.9018776683808212 0:24.34 1:-10.51 2:0.12 3:-10.48 4:5.28 5:-32.57 6:-23.01 7:4.38 8:-7.71 9:7.08 10:-10.75 11:-16.42 12:-3.6 
0.9017144127573822 0:21.59 1:-13.23 2:11.05 3:-8.45 4:5.05 5:1.85 6:-11.38 7:2.87 8:-5.27 9:-0.04 10:-0.58 11:-2.85 12:-4.81 
0.9018200114200629 0:20.26 1:-5.37 2:2.6 3:9.77 4:-5.46 5:-0.19 6:-9.71 7:11.28 8:-11.33 9:9.52 10:1.13 11:7.07 12:-0.75 
0.902147021167422 0:24.54 1:-18.71 2:-20.66 3:-12.72 4:-10.63 5:-26.35 6:-13.98 7:-14.99 8:-17.64 9:-6.88 10:-5.5 11:-5.37 12:-10.38 
0.9021071255741316 0:21.74 1:-12.99 2:4.74 3:-2.2 4:1.88 5:0.88 6:-5.99 7:16.18 8:-14.31 9:14.29 10:1.81 11:-14.03 12:8.03 
0.9018883942763519 0:23.43 1:-15.19 2:17.92 3:-5.83 4:-1.92 5:9.11 6:-19.87 7:23.76 8:-25.26 9:16.3 10:-3.96 11:-2.26 12:17.68 
0.9021343361109441 0:25.84 1:-23.44 2:3.27 3:-21.33 4:-2.34 5:-12.47 6:-15.66 7:-25.73 8:10.7 9:-10.81 10:-1.11 11:3.25 12:-19.52 
0.9013740074279543 0:24.84 1:-13 2:1.92 3:-6.95 4:-22.32 5:8.65 6:-25.11 7:-7.64 8:-8.69 9:15.28 10:3.92 11:-1.88 12:-8.19 
0.9021532812724234 0:22.24 1:-10.22 2:10.76 3:-15.35 4:6.82 5:2.79 6:8.03 7:-13.52 8:13.41 9:-8.78 10:11.88 11:-0.01 12:-2.85 
0.8980938730588088 0:24.79 1:-6.88 2:6.3 3:-12.63 4:1.7 5:-10.99 6:-0.78 7:-16.58 8:-5.22 9:-6.28 10:-3.42 11:-14.77 12:2.19 
0.901814529446298 0:21.89 1:-15.72 2:12.88 3:-1.84 4:3.29 5:6.12 6:-4.09 7:17.8 8:-15.59 9:24.98 10:-7.93 11:-1.74 12:14.92 
0.9020985680384294 0:24.57 1:-11.06 2:2.2 3:-12.52 4:-26.56 5:-21.44 6:-33.83 7:-7.91 8:-12.78 9:-2.01 10:2.65 11:2.16 12:-15.01 
0.9015653261771923 0:25.12 1:-13.89 2:7.58 3:-2.35 4:-23.75 5:-6.13 6:-18.82 7:-21.96 8:-10.75 9:-4.27 10:10.04 11:9.09 12:-23.84 
0.9018512859647937 0:21.37 1:-13.29 2:13.68 3:-4.05 4:-4.89 5:4.21 6:-9.34 7:14.93 8:-6.38 9:14.22 10:-0.72 11:8 12:1.14 
0.9018333600948065 0:25.22 1:-15.86 2:-8.96 3:-10.18 4:-20.5 5:3.43 6:-20.16 7:-2.51 8:-9.01 9:10.54 10:-4.69 11:-1.85 12:-0.41 
0.9021666726290295 0:22.49 1:1.77 2:8.98 3:3.08 4:-9.81 5:-38.56 6:-2.15 7:5.65 8:-8.77 9:-19.24 10:-10.37 11:-4.45 12:10.79 
0.9018290559086882 0:20.58 1:-4.14 2:-0.82 3:7.39 4:-4.13 5:-16.3 6:-2.4 7:-3.22 8:-5.51 9:-4.18 10:5.73 11:5.99 12:0.76 
0.901839744396845 0:23.93 1:-4.02 2:-7.78 3:-9.3 4:1.64 5:-18.37 6:-5.18 7:-21.36 8:-7.14 9:6.16 10:-6.09 11:5.53 12:-12.15 
0.9013905130907364 0:22.42 1:-8.25 2:9.21 3:-16.82 4:-0.93 5:-7.85 6:11.51 7:-10.64 8:7.62 9:-12.57 10:6.16 11:0.48 12:-1.15 
0.9015649183195316 0:24.03 1:-12.63 2:-5.6 3:-14.29 4:-14.26 5:-25.13 6:-17.03 7:2.85 8:-27.48 9:16.38 10:-6.34 11:-7.1 12:-8.54 
0.9018107330938665 0:25.38 1:-17.41 2:1.31 3:-27.32 4:-8.74 5:-30.85 6:-26.59 7:3.7 8:-19.12 9:-0.56 10:5.53 11:-15.08 12:-7.51 
0.9022622690046086 0:24.36 1:-12.64 2:-2.46 3:-12.96 4:-7.52 5:-31.55 6:-25.69 7:-4.43 8:-14.74 9:4.2 10:-15.44 11:-11.82 12:1.34 
0.9018291325193494 0:25.1 1:-14.38 2:-7.46 3:-18.81 4:12.53 5:-17.96 6:-5.5 7:-21.62 8:21.21 9:9.27 10:-14.48 11:6.23 12:-17.14 
0.901564148211366 0:21.76 1:-11.45 2:16.24 3:-7.65 4:-14.69 5:7.39 6:-13.14 7:13.92 8:-0.39 9:13.23 10:-4.87 11:7.57 12:-7.48 
0.9014067255533905 0:21.73 1:-10.34 2:16.48 3:-7.61 4:3.54 5:-0.3 6:-8.88 7:12.9 8:-7.76 9:12.42 10:-1.54 11:3.65 12:-7.16 
0.9015456544183091 0:24.09 1:-4.71 2:-11.72 3:-11.18 4:-0.88 5:-10.02 6:-3.23 7:-24.95 8:7.29 9:4.99 10:8.45 11:-15.05 12:-7.13 
0.9015154001733476 0:23.19 1:1.75 2:-8.44 3:-2.07 4:-24.08 5:-21.83 6:-13.05 7:-9.73 8:9.57 9:-20.16 10:9.92 11:7.95 12:0.02 
0.9016584148574357 0:24.68 1:-9.89 2:3.96 3:-16.27 4:-6.93 5:-14.98 6:-35.1 7:-16.25 8:-9.84 9:26.1 10:3.19 11:-10.52 12:2.35 
0.9018100338351409 0:24.71 1:-10.69 2:6.28 3:-15.28 4:3.59 5:-28.81 6:-17.85 7:-15.47 8:-20.04 9:12.88 10:-1.1 11:-0.94 12:-4.63 
0.901535729229201 0:22.17 1:4.08 2:-5.99 3:2.15 4:-15.7 5:-23.27 6:-18.85 7:-21.82 8:10.59 9:-20.63 10:9.66 11:-2.4 12:2.4 
0.9015052618672083 0:24.45 1:-7.48 2:10.04 3:-8.82 4:-17.78 5:3.06 6:-9.09 7:-21.5 8:-1.84 9:-11.6 10:5.04 11:8.44 12:-2.46 
0.9018889702792521 0:24.65 1:-5.91 2:-4.54 3:-17.26 4:-19.44 5:1.53 6:-15.12 7:-24.28 8:2.66 9:-7.96 10:3.18 11:4.05 12:2.65 
0.9019316939738701 0:25.03 1:-11.97 2:10.9 3:-6.29 4:-19.94 5:-19.78 6:3.86 7:-21.01 8:-1.73 9:15.26 10:-4.42 11:4.71 12:1.62 
0.9015123296408539 0:24.38 1:-12.59 2:3.1 3:-3.77 4:-25.12 5:-12.82 6:-19.17 7:-16.67 8:1.97 9:9.05 10:6.56 11:-8.16 12:1.38 
0.9017860090214936 0:21.3 1:-8.72 2:15.76 3:-9.66 4:2.07 5:7.81 6:-22.61 7:18.03 8:-2.23 9:8.85 10:2.96 11:-1.79 12:0.95 
0.9018407568529699 0:24.22 1:-8.36 2:-0.68 3:-0.4 4:-18.82 5:-3.89 6:-30.9 7:-11.67 8:-14.12 9:7.17 10:6.51 11:9.91 12:-11.79 
0.9018023803977061 0:24.7 1:-12.51 2:3.38 3:-11.16 4:-24.08 5:-24.53 6:-8.68 7:-12.79 8:3.64 9:-3.3 10:-0.31 11:-12.9 12:5.65 
0.9016616688433012 0:24.58 1:-10.85 2:11.28 3:-18.79 4:-12.56 5:-9.8 6:-15.43 7:-21.8 8:20.09 9:-8.51 10:1.13 11:3.59 12:-2.23 
0.9021666726288448 0:23.53 1:-8.02 2:2.59 3:-1.35 4:-15.06 5:-31.09 6:0.48 7:-14.9 8:-11.16 9:-25.91 10:-0.78 11:24.7 12:-3.44 
0.9018382550560826 0:22.34 1:-0.31 2:-9.04 3:6.6 4:1.65 5:-12.53 6:-13.53 7:-25.78 8:-4.15 9:-18.58 10:4.4 11:2.08 12:9.15 
0.901510490188158 0:22.9 1:-8.74 2:13.04 3:-19.31 4:5.61 5:-17.44 6:15.86 7:-11.03 8:2.78 9:-1.27 10:11.82 11:1.96 12:-3.2 
0.9016081713743348 0:25.24 1:-15.81 2:15.32 3:3.94 4:-4.12 5:-11.36 6:-19.98 7:-21.21 8:-12.68 9:-1.48 10:2.18 11:-0.33 12:1.85 
0.9023167208769537 0:24.39 1:-7.52 2:-3.8 3:-1.99 4:6.06 5:-38.92 6:-18.98 7:-2.21 8:-4.18 9:-8.09 10:26.15 11:-4.04 12:-15.11 
0.9019519143636254 0:24.43 1:-7.5 2:7.82 3:0.28 4:-8.41 5:-12.87 6:-26.55 7:-10.98 8:-14.19 9:-2.68 10:11.39 11:-6.87 12:15.31 
0.901863797738321 0:26.3 1:-19.19 2:13.05 3:-8.81 4:-21.3 5:-10.21 6:-32.37 7:-7.62 8:-2.15 9:-12.4 10:2.24 11:6.95 12:-5.74 
0.9014859277699933 0:22.63 1:-7.19 2:12.83 3:-17.91 4:1.67 5:-14.99 6:-13.43 7:-2.82 8:-0.86 9:-5.58 10:-0.07 11:-10.17 12:6.55 
0.9010794466150117 0:20.82 1:-5.5 2:1.96 3:0.26 4:1.31 5:-19.23 6:-4.93 7:-1.61 8:-1.43 9:-5.93 10:4.48 11:8.63 12:-2.18 
0.901945133394078 0:24.9 1:-10.97 2:6.12 3:-22.72 4:-10.77 5:-12.91 6:-29.68 7:-8.91 8:-21.57 9:28.92 10:4.57 11:-16.53 12:3.33 
0.9023289431552692 0:26.68 1:-25.13 2:10.61 3:-8.52 4:11.19 5:-8.06 6:-15.74 7:-26 8:4.79 9:-7.27 10:-3.61 11:4.66 12:-6.86 
0.9014693837048595 0:21.11 1:-12.27 2:13.7 3:-3.93 4:0.63 5:7.7 6:-9.31 7:12.97 8:-1.72 9:9.79 10:8.68 11:-2.95 12:8.42 
0.9016543836556559 0:21.36 1:-12.56 2:17.46 3:-10.36 4:1.98 5:-0.37 6:-10.17 7:10.36 8:3.01 9:7.95 10:8.09 11:-0.23 12:6.19 
0.9011005618198324 0:20.92 1:-10.27 2:1.46 3:-6.88 4:1.25 5:-19.86 6:-2.44 7:-6.19 8:-6.37 9:-4.24 10:1.95 11:-0.84 12:-1.58 
0.9016751334098027 0:21.53 1:-9.42 2:19.49 3:-12.07 4:9.98 5:0.03 6:-13.77 7:19.28 8:-14.52 9:17.63 10:-9.3 11:5.93 12:-6.25 
0.8980852476560223 0:22.5 1:-14.35 2:6.42 3:-12.26 4:5.98 5:-22.41 6:4.72 7:-13.04 8:-1.59 9:-4.37 10:2.15 11:-6.53 12:-0.28 
0.9013532924804926 0:20.76 1:-6.19 2:14.3 3:-3.44 4:-0.24 5:3.54 6:-16.24 7:12.73 8:-4.12 9:12.59 10:2.34 11:0.7 12:0.11 
0.9021520372191669 0:24.66 1:-8.41 2:4.22 3:3.61 4:-0.57 5:-32.36 6:-10.21 7:1.67 8:-15.41 9:0.81 10:-6.64 11:-7.2 12:3.7 
0.9016584849410144 0:20.52 1:-5.02 2:1.11 3:3.69 4:-0.6 5:-6.79 6:-10.54 7:6.49 8:-8.21 9:-5.08 10:-0.35 11:6.09 12:-3.48 
0.9022959035754949 0:23.9 1:-4.14 2:11.91 3:-29.35 4:-19.86 5:-14.54 6:-19.46 7:-3.33 8:-1.56 9:-1.35 10:-0.66 11:-7.38 12:13.42 
0.9021343361149609 0:24.21 1:-1.72 2:-6.68 3:-12.54 4:4.15 5:-31.8 6:-34.44 7:-4.76 8:-10.05 9:3.7 10:21.42 11:-5.82 12:-13.24 
0.9023166127035492 0:23.28 1:-3.08 2:9.41 3:4.15 4:-7.93 5:-12.28 6:9.97 7:9.04 8:4.76 9:-28.25 10:-6.34 11:-0.67 12:4.35 
0.9017951649537621 0:26.49 1:-20.17 2:10.88 3:-4.3 4:11.01 5:-50.28 6:-8.25 7:-28.15 8:1.45 9:4.71 10:4.17 11:3.24 12:-18.67 
0.9014375291091913 0:24.59 1:-11.9 2:5.9 3:-7.55 4:-2.71 5:-18.92 6:-7.21 7:-14.73 8:-15.71 9:23.21 10:-7.47 11:-8.01 12:7.05 
0.9015456537959301 0:22.19 1:-15.79 2:17.19 3:-4.19 4:4.06 5:-3.38 6:-11.76 7:18.24 8:-12.36 9:12.1 10:-1.56 11:-3.71 12:5.44 
0.9014836974836204 0:25.42 1:-9.45 2:9.12 3:-32.31 4:4.97 5:-21.71 6:-25.54 7:-19.07 8:2.36 9:-2.78 10:7.08 11:-0.17 12:4.24 
0.8948173950610023 0:21.66 1:-7.08 2:2.37 3:-10.73 4:4.56 5:-6.78 6:4.5 7:-7.52 8:-4.53 9:-2.63 10:1.94 11:2.35 12:-2.83 
0.9013444860066839 0:23.93 1:-7.58 2:16.35 3:-31.52 4:-41.74 5:11.72 6:-0.57 7:-5.94 8:-18.53 9:11.62 10:-6.51 11:15.02 12:-6.93 
0.9021520836252321 0:23.63 1:-4.04 2:7.61 3:-16.92 4:-9.61 5:2.4 6:-21.43 7:-7.51 8:-31.93 9:-7.93 10:-0.13 11:16.49 12:-15.44 
0.9018049284089277 0:24.97 1:-8.73 2:-9.86 3:12.31 4:-1.09 5:-19 6:-29.46 7:-28.17 8:-4.07 9:-3.71 10:-0.85 11:2.31 12:0.1 
0.902229804427456 0:23.99 1:0.59 2:-2.44 3:-17.46 4:-15.19 5:-23.49 6:-19.12 7:-5.83 8:-17.31 9:-5.2 10:-8.44 11:-8.37 12:-5.88 
0.9018448739882123 0:20.49 1:-6.24 2:3.96 3:6.13 4:-5.13 5:-2.02 6:-7.58 7:10.73 8:-14.3 9:1.79 10:5.81 11:2.62 12:4.39 
0.9021449246059754 0:25.5 1:-7.57 2:-11.98 3:3.74 4:3.09 5:-41.72 6:-7.15 7:-26.54 8:9.01 9:-2.52 10:18.72 11:-10.25 12:-19.21 
0.8932624238229139 0:25.08 1:-16.37 2:10.1 3:8.59 4:-14.5 5:-20.35 6:-13.28 7:-9.93 8:-6.79 9:8.33 10:-0.22 11:5.83 12:2.58 
0.9022286149994866 0:26.27 1:-15.21 2:25.03 3:-13.09 4:5.63 5:-13.99 6:-12.58 7:-12.41 8:-0.42 9:-6.13 10:0.03 11:-6.87 12:4.81 
0.9015163064488563 0:24.49 1:-11.4 2:4.49 3:-21.27 4:-20.57 5:9.46 6:-2.17 7:-17.08 8:-12.39 9:21.11 10:-2.51 11:6.02 12:-5.85 
0.9021208685042359 0:26.07 1:-25.05 2:-6.88 3:0.03 4:-13.97 5:-48.36 6:-10.31 7:-10.12 8:5.32 9:2.93 10:-9.98 11:-18.17 12:-4.88 
0.9015953740063565 0:23.87 1:-13.78 2:-32.11 3:-15.06 4:-18.6 5:-38.27 6:-12.12 7:-8.99 8:-5.53 9:-13.04 10:-3.31 11:6.94 12:-6.81 
0.9015253961098203 0:22.58 1:2.2 2:-2.59 3:-1.4 4:-18.74 5:-20.42 6:-5.48 7:-10.85 8:-9.73 9:-5.62 10:1.75 11:6.22 12:-3.72 
0.9011311893090278 0:20.36 1:-6.58 2:9.76 3:-0.64 4:-4.04 5:4.54 6:-16.65 7:13.16 8:-10.01 9:10.54 10:3.65 11:8.7 12:4.17 
0.9017676941460917 0:25.94 1:-21.1 2:-7.94 3:-32.19 4:4.01 5:-48 6:-7.68 7:-1.53 8:-15.46 9:10.2 10:-10.57 11:-18.74 12:-8.72 
0.9023289431553584 0:23.42 1:-0.55 2:5.53 3:-8.31 4:-20.12 5:-7.31 6:-15.25 7:-22.88 8:4.47 9:-8.42 10:-3.68 11:2.81 12:13.12 
0.9013697608536068 0:23.58 1:-7.85 2:16.03 3:-16.85 4:10.33 5:-24.22 6:-4.17 7:-14.11 8:1.46 9:-2.58 10:-0.41 11:0.92 12:-1.64 
0.9018142587981297 0:22.17 1:-14.8 2:16.14 3:2.6 4:2.46 5:-9.54 6:-13.43 7:13.95 8:-17.55 9:16.06 10:-1.59 11:6.2 12:1.99 
0.9018086710597736 0:26.24 1:-19.88 2:2.13 3:-24.5 4:-26.2 5:-13.76 6:-29.94 7:-16.69 8:0.27 9:-6.94 10:-3.43 11:-10.66 12:-20.13 
0.9018023954330298 0:25.76 1:-17.57 2:18.66 3:-9.97 4:-35.12 5:-2.61 6:-12.57 7:-9.84 8:-11.77 9:17.12 10:7.55 11:7.85 12:-14.03 
0.9019537839104438 0:23.97 1:-5.7 2:-9.1 3:0.41 4:-3.54 5:-15.64 6:-11.32 7:-22.7 8:2.77 9:-3.43 10:-8.88 11:-8.41 12:-0.92 
0.901840721634111 0:25.3 1:-12.78 2:-2.58 3:0.24 4:0.74 5:-12.87 6:-28.44 7:-8.12 8:-29.08 9:3.94 10:3.08 11:-5.74 12:1.24 
0.9022632764549773 0:24.4 1:-9.1 2:4.02 3:-0.37 4:-13.34 5:-35.91 6:-3.8 7:-24.63 8:20.8 9:-15.11 10:-4.01 11:16.52 12:-12.85 
0.9016846797205523 0:25.57 1:-12.22 2:7.83 3:-17.8 4:-2.43 5:-51.16 6:15.26 7:-13.67 8:-13.24 9:0.81 10:9.66 11:0.98 12:2.11 
0.8259636705453558 0:20.23 1:-4.32 2:2.4 3:-2.07 4:-2.07 5:-6.49 6:3.1 7:-0.97 8:3.79 9:-1.45 10:0.09 11:-5.42 12:-2.53 
0.9018023873606962 0:25.23 1:-18.06 2:0.75 3:-24.42 4:-12.96 5:-34.89 6:-27.51 7:4.02 8:-13.84 9:6.63 10:-2.12 11:-8.72 12:-7.13 
0.9013614897124894 0:26.05 1:-23.51 2:11.22 3:2.37 4:-2.73 5:-13.43 6:-37.79 7:-9.96 8:-17.05 9:1.26 10:-0.82 11:3.42 12:-14.23 
0.9014058474729579 0:21.69 1:-8.17 2:18.32 3:-15.11 4:5.74 5:-8.99 6:-1.2 7:3.85 8:-1.53 9:3.88 10:5.43 11:-0.5 12:3.55 
0.9018752309934636 0:25.39 1:-17.91 2:3.51 3:-4.07 4:-10.93 5:-9.11 6:-28.3 7:-18.91 8:-18.8 9:8.41 10:-3.59 11:12.39 12:-21.99 
0.9014206453405769 0:22.97 1:-12.14 2:14.94 3:-16.51 4:-7.34 5:-5.52 6:-12.33 7:6.95 8:-0.68 9:15.7 10:-0.37 11:3.79 12:-11.67 
0.9016751828703055 0:26.19 1:-14.15 2:10.01 3:-24.18 4:15.37 5:-2.13 6:-16.01 7:-10.2 8:-4.57 9:-7.28 10:3.48 11:-3.71 12:2.05 
0.9016616111809463 0:22.13 1:-9.43 2:-1.7 3:-8.72 4:5.56 5:-22.47 6:3.95 7:-17.13 8:-5.58 9:0.01 10:7.78 11:1.26 12:-5.36 
0.9020038903332609 0:24.49 1:-11.81 2:6.31 3:-0.12 4:-16.49 5:-18.58 6:-21.45 7:-25.6 8:7.66 9:21.72 10:-14.75 11:-6.58 12:6.06 
0.8958411095087896 0:21.6 1:-10.55 2:11.61 3:-9.88 4:2.94 5:-9.43 6:-1.85 7:-6.61 8:0.57 9:-2.29 10:-2.31 11:1.23 12:-4.14 
0.9015945405769162 0:24.66 1:-15.2 2:5.1 3:-20.93 4:-31.08 5:-7.64 6:-14.35 7:-20.08 8:-12.43 9:4.92 10:1.26 11:7.97 12:-19.13 
0.9016846415073962 0:24.76 1:-14.34 2:13.93 3:-14.14 4:-26.69 5:-12.65 6:-16.88 7:-13.21 8:-4.62 9:5.54 10:-0.43 11:15.8 12:-16.29 
0.9015158659777273 0:23.87 1:-3.21 2:3.43 3:-28.9 4:-29.53 5:-3.85 6:-3.42 7:-25.39 8:-14.97 9:7.2 10:-5.58 11:12.22 12:-9.14 
0.9010392348907735 0:25.15 1:-13.87 2:2.58 3:-12.12 4:-26.07 5:1.07 6:-3.28 7:-17.07 8:-17.21 9:9.82 10:-3.77 11:19.51 12:-14.86 
0.9019607242618314 0:25.11 1:-7.65 2:-11.28 3:-6.53 4:8.12 5:-25.11 6:-8 7:-32.54 8:-16.11 9:18 10:-5.19 11:7.83 12:-7.38 
0.9015143635083852 0:25 1:-7.92 2:6.33 3:-7.3 4:8.08 5:-3.04 6:1.98 7:-17.82 8:3.75 9:-16.18 10:-0.28 11:-13.29 12:3.54 
0.9015105351809511 0:25.3 1:-9.88 2:10.17 3:-17.13 4:8.83 5:-9.19 6:-16.26 7:-9.23 8:8.3 9:-7.5 10:-12.37 11:-10.44 12:4.33 
0.9013930215804421 0:25.19 1:-13.42 2:7.12 3:11.96 4:-14.06 5:-26.6 6:-24.81 7:-15.48 8:-9.24 9:13.29 10:-15.96 11:0.05 12:-7.95 
0.9017956603075942 0:25.27 1:-14.28 2:6.06 3:-20.02 4:-6.43 5:-20.62 6:-24.06 7:-3.76 8:-25.1 9:9.68 10:-3.51 11:-8.03 12:-7.59 
0.9019549273732389 0:26.12 1:-17.65 2:18.97 3:-8.44 4:10.08 5:-21.98 6:-28.16 7:-11.99 8:-17.03 9:14.65 10:-10.38 11:3.26 12:-13.51 
0.9015391224624475 0:24.64 1:-11.83 2:-2.38 3:-7.8 4:-6.67 5:-24.46 6:-15.88 7:11.3 8:-18.94 9:18.97 10:-5.53 11:-15.44 12:-18.42 
0.9016044988066954 0:24.75 1:-14.99 2:16.43 3:-4.83 4:-24.13 5:-17.23 6:-18.41 7:-18.69 8:-4.74 9:12.11 10:-2.23 11:-0.92 12:0.35 
0.9011681685913064 0:21.97 1:-13.43 2:13.2 3:-7.91 4:8.57 5:-6.12 6:-1.2 7:-7.95 8:1.13 9:-1.49 10:-6.66 11:4.06 12:1.73 
0.9016616122679211 0:24.47 1:-9.78 2:7.47 3:-10.23 4:-19.32 5:-11.49 6:-15.14 7:-13.68 8:-4.53 9:22.71 10:-15.89 11:-14.05 12:9.92 
0.9018857063349451 0:24.58 1:-6.21 2:7.98 3:-30.64 4:-12.73 5:-10.89 6:6.48 7:-22.54 8:6.18 9:-4.7 10:12.67 11:-16.34 12:-9.91 
0.9016751312046786 0:26.6 1:-20.15 2:28.64 3:-25.82 4:-0.4 5:-5.5 6:-19.55 7:-14.96 8:-12.36 9:3.48 10:-6.72 11:4.06 12:1.16 
0.9018286791365104 0:25.79 1:-15.28 2:-3.67 3:-35.15 4:-32.89 5:-12.34 6:-12.09 7:-10.67 8:-5.1 9:-8.73 10:-6.76 11:3.78 12:-17.72 
0.901933080366643 0:25.77 1:-17.64 2:-3.48 3:-0.22 4:-10.58 5:-11.11 6:-17.5 7:-18.67 8:-11.66 9:0.13 10:-15.24 11:9.21 12:-0.76 
0.8983837439586783 0:20.1 1:-2.95 2:0.99 3:-3.52 4:-4.24 5:-1.94 6:3.38 7:4.51 8:0.06 9:-4.37 10:-6.45 11:-3.44 12:-1.7 
0.9018360956451223 0:26.11 1:-22.32 2:11 3:11.85 4:-10.06 5:-13.78 6:-23.05 7:-16.37 8:-8.66 9:1.45 10:11.78 11:3.91 12:0.41 
0.9018273838177007 0:22.12 1:-13.31 2:15.55 3:-2.12 4:13.16 5:-12.93 6:3.38 7:9.84 8:-19.09 9:12.92 10:-7.67 11:-0.01 12:-1.75 
0.9016425268815026 0:19.43 1:-3.83 2:2.78 3:2.27 4:1.07 5:3.64 6:-1.85 7:5.69 8:-1.04 9:6.28 10:3.13 11:4.47 12:4.62 
0.9022827104032182 0:25.23 1:-14.34 2:6.83 3:-2.53 4:-4.61 5:-29.16 6:-25.43 7:-11.46 8:-11.18 9:10.44 10:-15.62 11:-16 12:-10.13 
0.9018457715892797 0:23.64 1:-3.59 2:-1.9 3:-16.38 4:-15.93 5:-15.74 6:-10.99 7:-18.32 8:-10.73 9:0.17 10:-15.9 11:10.23 12:-13.78 
0.9019549265743855 0:23.69 1:-3.61 2:5.17 3:-15.55 4:-2.2 5:-20.24 6:-9.44 7:-20.01 8:16.37 9:-12.47 10:8.98 11:4.46 12:-2.97 
0.901492769998166 0:24.84 1:-14.63 2:-6.1 3:-15.01 4:-3.52 5:-20.5 6:-15.93 7:-30.96 8:6.36 9:0.02 10:-2.06 11:20.08 12:-18.54 
0.9018248653240116 0:25.44 1:-14.97 2:-5.27 3:1.62 4:10.27 5:-25.95 6:-23.52 7:-32.2 8:-11.25 9:0.07 10:-4.24 11:2.08 12:7.96 
0.9014104602916995 0:25.18 1:-19.15 2:-13.39 3:-30.95 4:1.61 5:-33.3 6:-16.04 7:-6.04 8:-19.76 9:-0.67 10:-6.96 11:-6.72 12:-6.67 
0.9014880591464722 0:25.5 1:-7.46 2:11.2 3:-42.36 4:-4.87 5:-33.02 6:-2.35 7:-8.54 8:-11.69 9:4.17 10:0.38 11:2.81 12:4.29 
0.9020175273942839 0:23.92 1:-6.85 2:12.19 3:-22.8 4:-35.88 5:-13.84 6:-2.32 7:-14.81 8:14.87 9:-13.86 10:-6.54 11:3.52 12:5.15 
0.8820420345419866 0:21.09 1:-7.28 2:6.45 3:-8.6 4:8.71 5:-11.01 6:4.82 7:-8.83 8:-0.45 9:-5.71 10:-1.51 11:-1.8 12:-0.75 
0.9018012500431968 0:25.55 1:-19.82 2:2.57 3:8.21 4:0.34 5:-21.34 6:-29.07 7:-30.92 8:1.17 9:-2.51 10:-0.13 11:-12.47 12:-19.93 
0.9015651773677201 0:21.9 1:-10.38 2:13.03 3:-11.58 4:-8.12 5:-4.79 6:-9.35 7:10.68 8:-3.11 9:12.17 10:8.83 11:2.32 12:-7.44 
0.901751711328635 0:20.91 1:-10.35 2:-2.51 3:-0.89 4:1.88 5:-10.25 6:-7.55 7:-13.84 8:2.18 9:-0.24 10:-8.28 11:-10.38 12:1.93 
0.8969984444998083 0:20.63 1:-3.18 2:3.27 3:-9.55 4:-5.31 5:-6.14 6:3.58 7:-0.82 8:3.53 9:-2 10:3.43 11:0.03 12:-2.52 
0.901539123804746 0:24.57 1:-13.36 2:3.48 3:-3.14 4:0.07 5:-18.08 6:-33.03 7:-9.64 8:2.35 9:0.17 10:2.55 11:-10.77 12:-10.23 
0.9016512662751047 0:25.67 1:-22.64 2:-1.63 3:-27.45 4:3.85 5:-41.81 6:-22.5 7:7.27 8:-11.9 9:13.18 10:-8.88 11:-17.74 12:-1.69 
0.9020038906924968 0:26.23 1:-22.31 2:4.45 3:-19.48 4:-22.45 5:-33.24 6:-14.41 7:-18.25 8:-2.62 9:12.52 10:-11.69 11:-10.87 12:-16.29 
0.9018248614015357 0:23.64 1:6.72 2:-18.08 3:-5.77 4:8.56 5:-45.77 6:18.74 7:-37.67 8:-21.36 9:10.07 10:0.3 11:-18.54 12:-16.16 
0.9018339457763318 0:21.54 1:-9.33 2:5.22 3:-13.69 4:-4.66 5:-19.16 6:-12.8 7:-13.51 8:1.23 9:-2.79 10:0.29 11:0.71 12:0.92 
0.9019973913241143 0:24.09 1:-8.62 2:2.21 3:4.43 4:-7.54 5:-11.27 6:-26.55 7:-19.92 8:-7.47 9:4.56 10:0.54 11:-2.69 12:1.83 
0.9021512205037983 0:26.24 1:-18.58 2:14.79 3:-2.07 4:10.85 5:-32.43 6:-8.72 7:-32.5 8:-14.1 9:1.74 10:-1.47 11:4.36 12:-0.67 
0.9021531991363794 0:23.42 1:-3.92 2:2.15 3:-31.7 4:-29.04 5:-9.33 6:-1.34 7:-26.87 8:-16.5 9:15.91 10:-6.92 11:4.39 12:0.79 
0.8998321900318292 0:22.3 1:-17.55 2:16.46 3:-1.25 4:3.54 5:-2.48 6:-4.64 7:7.15 8:-17.57 9:17.89 10:-5.26 11:-4.05 12:8.94 
0.9015158666826508 0:24.78 1:-13.39 2:7.44 3:0.05 4:-24.75 5:-21.43 6:-13.9 7:-18.45 8:3.36 9:0.94 10:-9.79 11:-8.77 12:9.17 
0.9021520835789891 0:24.93 1:-15.37 2:-14.19 3:-21.11 4:-11.88 5:-38.82 6:-3.15 7:-12.22 8:-9.72 9:1.05 10:-4.84 11:-10.53 12:-11.3 
0.9023163653641957 0:24.95 1:-11.35 2:6.79 3:-6.53 4:1.58 5:-21.1 6:-6.79 7:-17.74 8:-22.73 9:12.32 10:2.86 11:-1.92 12:4.65 
0.9022827103943551 0:24.85 1:-13.07 2:13.85 3:-3.31 4:-25.36 5:-20.13 6:-17.19 7:-14.33 8:-7.03 9:13.96 10:4.78 11:12.51 12:-18.12 
0.8808198686660282 0:20.67 1:-7.04 2:6.65 3:-7.57 4:4.67 5:-10.38 6:2.81 7:-6.96 8:-0.13 9:-5.53 10:-0.37 11:2.34 12:1.5 
0.9018306189311587 0:24.84 1:-10.18 2:4.37 3:-8.48 4:-0.98 5:-26.55 6:-7.18 7:5.15 8:-6.39 9:4.28 10:2.85 11:-23.07 12:-2.41 
0.9018515710592736 0:26.12 1:-23.57 2:0.98 3:-5.52 4:9.53 5:-25.97 6:-16.99 7:-22.59 8:-1.32 9:11.48 10:6.71 11:-6.36 12:-22.71 
0.9017291647196742 0:24.59 1:-13.25 2:12.15 3:-13.17 4:-15.78 5:-4.89 6:-22.55 7:2.09 8:-0.7 9:0.18 10:-1.54 11:5.34 12:0.03 
0.9018668238673683 0:20.63 1:-3.11 2:-22.42 3:-1.21 4:-21.83 5:-25.48 6:-10.89 7:-7.27 8:-11.44 9:-8 10:-10.64 11:-4.65 12:-2.83 
0.9014750712401429 0:21.3 1:-5.14 2:7.64 3:-18.52 4:-9.76 5:-6.9 6:-3.17 7:8.87 8:-3.55 9:6.29 10:-3.72 11:2.64 12:-6.58 
0.9018286791364732 0:25.41 1:-15.02 2:-2.14 3:-8.62 4:-2.23 5:-27.81 6:-27.5 7:1.34 8:-15.97 9:13.41 10:-10.39 11:-4.12 12:-4 
0.9015651094374146 0:21.99 1:-14.47 2:20.22 3:6.04 4:-0.09 5:-20.11 6:9.98 7:3.65 8:-9.82 9:-3.75 10:11.53 11:-2.34 12:-0.9 
0.901956069967521 0:26.65 1:-20.4 2:6.51 3:-3.09 4:15.75 5:-37.72 6:-10.17 7:-27.96 8:-10.61 9:2.83 10:0.08 11:-1.16 12:-9.84 
0.9017186783205768 0:22.03 1:-8.82 2:8.49 3:-4.1 4:7.86 5:-20.88 6:-0.15 7:-7.13 8:13.5 9:3.41 10:7.52 11:-4.15 12:7.38 
0.9018408103230715 0:25.61 1:-16.51 2:15.29 3:-17.04 4:-9.14 5:-16.2 6:-31.78 7:-15.82 8:-0.68 9:3.7 10:-10.36 11:1.34 12:-8.45 
0.9019316636361231 0:25.08 1:-14.96 2:15.31 3:-12.19 4:-12.63 5:3.93 6:-22.89 7:-10.49 8:-3.98 9:-0.62 10:14.68 11:6.81 12:1.35 
0.901459560356391 0:26.3 1:-15.05 2:18.18 3:-7.8 4:0.6 5:-17 6:-12.03 7:-14.06 8:-11.19 9:0.41 10:-2.19 11:6.06 12:-15.42 
0.9022298044266766 0:21.97 1:-5.32 2:10.29 3:-11.41 4:11.95 5:-15.6 6:-4.03 7:-8.85 8:16.45 9:-12.84 10:15.19 11:5.91 12:-0.75 
0.9020580755045509 0:25.31 1:-16.52 2:8.33 3:-7.57 4:-13.04 5:-0.35 6:-28.2 7:-10.85 8:6.6 9:4.56 10:10.36 11:-7.89 12:-8.25 
0.802881614037804 0:20.76 1:-8.55 2:4.77 3:0.03 4:4.14 5:-7.56 6:0.81 7:-4.24 8:-1.96 9:-2.95 10:-2.69 11:-2.77 12:1.69 
0.9020175447967991 0:25.47 1:-16.33 2:14.11 3:-9.06 4:-22.19 5:-25.26 6:-22.82 7:-13.34 8:1.09 9:2.77 10:-3.7 11:-11.16 12:8.61 
0.9015951108801668 0:25.81 1:-21.2 2:14.19 3:-7.12 4:-0.58 5:-30.35 6:-16.74 7:-7.13 8:-15.44 9:4.38 10:0.36 11:-6.11 12:-14.28 
0.9021533223435897 0:24.76 1:-14.5 2:-20.28 3:-9.19 4:-16.25 5:-29.56 6:-25.72 7:-1.26 8:0.79 9:-4.17 10:-8.47 11:-11.45 12:-15.3 
0.9019537848061886 0:24.55 1:-12.62 2:11.93 3:-4.81 4:-28.32 5:-11.69 6:-26.27 7:4.94 8:-13 9:10.46 10:-14.31 11:1.66 12:-4.72 
0.9017956528028981 0:23.76 1:-3.21 2:-2.22 3:-14.58 4:-30.29 5:-17.34 6:-19.63 7:-16.44 8:-2.35 9:-1.44 10:3 11:-11.61 12:0.29 
0.9016751831088931 0:25.22 1:-13.98 2:-0.09 3:-26.45 4:-7.79 5:-21.99 6:-9.78 7:-13.6 8:-6.49 9:7.22 10:-0.02 11:-11.6 12:-17.93 
0.8604300016985968 0:21.26 1:-7.71 2:5.02 3:-6.82 4:7.52 5:-13.66 6:6.47 7:-6.9 8:3.03 9:-7.11 10:4.9 11:-2.81 12:0.28 
0.9019560699817473 0:24.24 1:-15.22 2:-22.65 3:-34.33 4:-24.14 5:-32.55 6:-6.13 7:-4.26 8:-13.82 9:-3.1 10:-10.71 11:3.6 12:-23.51 
0.8999999999997472 0:21.01 1:-4.41 2:2.3 3:-8.31 4:-5.53 5:-10.92 6:2.77 7:-8.95 8:1.8 9:1.06 10:14.59 11:-0.13 12:-2.46 
0.9018838103303313 0:23.67 1:0.06 2:10.25 3:-13.32 4:-36.28 5:0.67 6:-2.94 7:-10.46 8:-13.21 9:-1.76 10:6.72 11:-3.94 12:4.47 
0.9018256637576353 0:25.6 1:-14.33 2:-5.52 3:16.73 4:14.09 5:-52.82 6:-36.97 7:-14.31 8:1.19 9:4.24 10:7.73 11:-14.8 12:-1.71 
0.9018623409062978 0:21.14 1:-8.86 2:8.89 3:0.61 4:-15.24 5:6.48 6:-9.8 7:13.23 8:1.19 9:14.26 10:-0.54 11:-1.57 12:3.54 
0.9018888642123468 0:22.47 1:-13.73 2:13.08 3:-3.43 4:-9.15 5:-1.22 6:-8.68 7:12.35 8:-5.93 9:23.61 10:-21.67 11:3.71 12:-1.48 
0.9021570055363155 0:23.43 1:-18.17 2:21.07 3:-4.26 4:5.54 5:-23.65 6:-0.15 7:5.65 8:-13.54 9:16.45 10:8.04 11:-1.41 12:2.59 
0.9021570055377311 0:24.2 1:-9.27 2:7.09 3:-17.21 4:-14.38 5:-25.35 6:-9.6 7:-7.33 8:-22.78 9:5.03 10:-5.46 11:7.51 12:-5.94 
0.9014963300009383 0:23.87 1:-5.69 2:10.18 3:-24.03 4:-22.17 5:-1.41 6:-19.32 7:-1.06 8:-6.22 9:-1.11 10:-5.93 11:-6.49 12:4.93 
0.9011607755919743 0:20.68 1:-5.49 2:3.39 3:-5.98 4:-3.23 5:-2.7 6:-2.64 7:0.35 8:-1.76 9:-4.25 10:6.78 11:-0.51 12:-5.38 
0.9018055710905678 0:23.62 1:-19.55 2:20.97 3:0.69 4:-1.22 5:-12.61 6:-12.56 7:3.86 8:-10.74 9:9.22 10:-3.26 11:0.93 12:6.49 
0.9017362406583032 0:24.57 1:-13.27 2:-20.83 3:-10.51 4:-18.84 5:-26.64 6:-7.59 7:-8.65 8:-3.39 9:-10.7 10:3.69 11:-4.78 12:-8.76 
0.9018838128610452 0:25.07 1:-9.45 2:2.78 3:-5.92 4:8.74 5:-26.51 6:-37.87 7:5.16 8:-13.14 9:-4.47 10:23.82 11:-11.28 12:-5.84 
0.9021337848772523 0:23.27 1:2.63 2:0.85 3:-35.22 4:-33.61 5:-6.57 6:-2.11 7:-8.36 8:-16.96 9:4.54 10:3.94 11:10.83 12:-12.19 
0.9022606445035505 0:24.89 1:-15.11 2:11.65 3:18.92 4:-5.11 5:-48.35 6:-9.29 7:-28.92 8:11.93 9:-1.43 10:-0.48 11:12.08 12:-15.59 
0.9023167208646656 0:25.32 1:-12.31 2:15.02 3:-36.5 4:4.63 5:-3.81 6:-24.61 7:-20.1 8:-1.96 9:10.08 10:-10.07 11:7.99 12:-7.18 
0.901804194200498 0:23.69 1:-24.59 2:22.4 3:3.98 4:-11.94 5:5.76 6:-10.23 7:-1.36 8:-6.36 9:17.76 10:-12.11 11:16.56 12:-4.99 
0.9015458818542702 0:23.39 1:5.2 2:6.35 3:-15.97 4:-19.5 5:-18.59 6:-30.65 7:-5.65 8:-27.07 9:-18.04 10:-2.15 11:5.41 12:-14.78 
0.901899605478346 0:24.39 1:-8.95 2:4.66 3:-28.22 4:-4.65 5:-19.6 6:-21.73 7:-3.44 8:-20.08 9:29.29 10:-0.47 11:-15.76 12:4.09 
0.9018515659243779 0:24.89 1:-13.7 2:9.54 3:-10.87 4:-10.23 5:7.11 6:-13.54 7:-10.63 8:-7.1 9:-13 10:-2.09 11:3 12:-8.79 
0.9018034525004536 0:24.03 1:-12.67 2:-4.57 3:1.25 4:-5.75 5:-30.37 6:-16 7:-5.8 8:-14.29 9:4.66 10:-10.61 11:-2.7 12:-12.29 
0.9021533224051262 0:25.31 1:-3.62 2:-17.25 3:11.53 4:0.49 5:-48.53 6:-1.03 7:-29.04 8:2.07 9:12.4 10:5.92 11:-5.78 12:-13.59 
0.9020488726553323 0:24.71 1:-9.27 2:10.89 3:-18.61 4:-15.62 5:-20.09 6:-22.66 7:-0.89 8:1.65 9:-7.63 10:-5.81 11:-5.48 12:1.8 
0.823360016184141 0:20.87 1:-10.83 2:1.72 3:-12.04 4:1.23 5:-11.77 6:3.75 7:-10.69 8:3.99 9:-8.69 10:3.55 11:-4.94 12:-0.33 
0.9016751328509649 0:25.36 1:-14.63 2:8.52 3:-19.23 4:-3.2 5:-25.22 6:-15.37 7:-4.63 8:-16.62 9:16.19 10:-13.25 11:3.17 12:-12.19 
0.902293944020895 0:24.56 1:-10.39 2:-26.45 3:-16.36 4:-16.38 5:-40.76 6:-14.22 7:-1.54 8:-7.76 9:-9.97 10:0.42 11:-9.74 12:-5.69 
0.8307767548304914 0:20.35 1:-3.06 2:1.78 3:-5.41 4:-2.64 5:-6.03 6:2.94 7:1.28 8:2.02 9:-1.39 10:-1.16 11:-2.66 12:-2.86 
0.9013697976656169 0:25.21 1:-13.63 2:12.11 3:-20.93 4:-3.64 5:-18.47 6:-24.82 7:3.04 8:-17.06 9:5.2 10:3.96 11:-8.28 12:-5.11 
0.901544980873013 0:26.18 1:-17.88 2:16.53 3:-8.18 4:1.44 5:-32.42 6:-15.81 7:-6.85 8:-24.55 9:9.83 10:-6.09 11:-5.74 12:-14.93 
0.901755192167521 0:25.11 1:-13.34 2:9.12 3:-9.96 4:-17.18 5:-20.62 6:-26.83 7:-12.47 8:-5.33 9:14.34 10:-0.05 11:-7.37 12:5.08 
0.9020612354290855 0:24.58 1:-16.99 2:-12.13 3:-15 4:-27.66 5:-30.65 6:-9.88 7:-10.7 8:-9.84 9:-6.02 10:1.61 11:-5.43 12:-7.62 
0.9020612353776113 0:23.89 1:3.76 2:7.39 3:-15.67 4:-25.02 5:-17.68 6:-8.34 7:-5.41 8:-6.61 9:13 10:-1.44 11:-2.48 12:4.51 
0.8967367448633649 0:23.61 1:-13.04 2:9.08 3:-14.72 4:12.29 5:-19.7 6:0.52 7:-13.8 8:0.47 9:-2.72 10:9.07 11:4.02 12:-4.49 
0.9016751204849895 0:21.93 1:-14.44 2:10.08 3:-6.95 4:-4.06 5:5.11 6:-5 7:6.67 8:-4.22 9:19.48 10:-8.07 11:7.87 12:-0.64 
0.9014678955393761 0:25.12 1:-15.21 2:8.77 3:2.53 4:-10.35 5:-17.1 6:-19.02 7:-23.11 8:-4.1 9:1.52 10:6.21 11:-3.56 12:3.85 
0.9015054199810445 0:23.88 1:-8.89 2:5.85 3:-1.83 4:2.02 5:5.73 6:17.14 7:-7.69 8:-2.18 9:6.45 10:1.83 11:-22.39 12:0.18 
0.9018778276575464 0:23.82 1:-4.35 2:-5.24 3:-10.53 4:1.91 5:-0.19 6:14.25 7:-20.92 8:8.75 9:-8.15 10:12.41 11:-8.1 12:-13.52 
0.9023289431604131 0:23.29 1:2.52 2:-12.71 3:-1.22 4:13.2 5:-48.24 6:-19.07 7:-7.34 8:-21.68 9:13.17 10:2.11 11:-3.24 12:-9.49 
0.9022596609077231 0:23.87 1:-7.16 2:-24.93 3:4.07 4:-30.21 5:-35.75 6:-7.59 7:-0.79 8:-17.23 9:-17.34 10:25.16 11:-6.36 12:-5.17 
0.9021071256754877 0:22.52 1:5.13 2:0.22 3:-7.41 4:-14.37 5:-33.12 6:-5.86 7:-14.11 8:13.33 9:-17.8 10:-6.15 11:9.97 12:11.74 
0.9021879090411472 0:24.05 1:-9.72 2:-9.69 3:-13.08 4:-21.29 5:-26.82 6:-3.34 7:-8.72 8:-12.14 9:-9.3 10:-7.68 11:-10.15 12:-9.93 
0.9019373218125246 0:21.63 1:-7.67 2:16.17 3:-14.47 4:6.93 5:-2.78 6:-8.71 7:-14.08 8:12.77 9:7.95 10:3.98 11:8.43 12:-5.86 
0.9018062772337591 0:20.88 1:-11.1 2:0.86 3:-10.37 4:-0.59 5:-11.24 6:-3.36 7:-1.93 8:-3.76 9:-5.26 10:-3.19 11:3.12 12:-3.11 
0.9018398298745165 0:24.51 1:-9.83 2:2.31 3:-30.76 4:-40.75 5:0.9 6:11.25 7:-19.3 8:-0.36 9:6.6 10:-8.26 11:12.46 12:-9.74 
0.9017560150378077 0:19.76 1:-5.14 2:6.38 3:2.78 4:-0.23 5:2.58 6:-7.38 7:10.88 8:-5.12 9:2.35 10:10.69 11:-2.87 12:7.86 
0.9014170421831713 0:24.59 1:-13.68 2:8.98 3:-11.38 4:-24.81 5:-20.09 6:-12.09 7:-28.23 8:4.46 9:21.93 10:-7.35 11:-5.21 12:10.44 
0.9017956622900605 0:22.09 1:-11.33 2:15.79 3:-14.95 4:-11.87 5:3.03 6:-12.1 7:24.75 8:-10.79 9:23.65 10:-0.55 11:5.34 12:4.06 
0.9018023953614602 0:23.94 1:-14.17 2:-25.53 3:-13.6 4:-27.22 5:-42.01 6:-4.47 7:-6.12 8:-6.34 9:-21.12 10:7.52 11:6.29 12:-16.69 
0.9018397443986099 0:24.49 1:-11.05 2:14.95 3:-17.47 4:-17.55 5:-11.75 6:-22.9 7:-14.18 8:-9.09 9:-1.35 10:27.87 11:-11.14 12:-2.04 
0.9023263721891976 0:23.65 1:-6.9 2:14.21 3:-14.39 4:-27.18 5:-0.66 6:-2.47 7:-11.17 8:4.15 9:0.97 10:5.17 11:-0.03 12:-0.97 
0.9020849644156071 0:24.43 1:-11.77 2:15.14 3:-14.26 4:-27.69 5:-13.47 6:-4.11 7:-19.8 8:13.26 9:-11.11 10:-1.33 11:5.55 12:0.87 
0.9018273293871083 0:25.2 1:-11.08 2:16.44 3:-11.95 4:-11.39 5:-27.12 6:-18.2 7:-1.51 8:-3.8 9:17.04 10:-7.29 11:2.82 12:-0.87 
0.9018391963097175 0:23.83 1:-5.32 2:1.95 3:-25.17 4:-40 5:-5.15 6:12.87 7:-22.98 8:-12.55 9:2.86 10:-11.06 11:5.96 12:-11.98 
0.9018457133141401 0:26.57 1:-23.12 2:22.7 3:-20.46 4:-3.21 5:-15.54 6:-21.68 7:-18.49 8:-11.72 9:-5.68 10:0.06 11:12.3 12:-9.85 
0.8219171599540886 0:20.92 1:-7.27 2:6.57 3:-8.85 4:4.08 5:-9.42 6:5.32 7:-8.67 8:3.99 9:-7.65 10:4.69 11:-3.64 12:-0.33 
0.9021332136114797 0:24.15 1:-4.54 2:-13.62 3:-0.45 4:-5.67 5:-20.96 6:-35.89 7:-22.42 8:-4.61 9:3.47 10:22.13 11:-4.76 12:-3.58 
0.9018310013067558 0:20.87 1:-4.98 2:3.67 3:-12.36 4:-11.65 5:-15.74 6:-9.54 7:-1.83 8:2.85 9:1.04 10:3.92 11:2.42 12:-2.34 
0.9018996071606494 0:20.31 1:-1.16 2:9 3:13.28 4:7.28 5:-36.78 6:14.02 7:-6.69 8:8.1 9:-13.55 10:11.06 11:8.42 12:4.48 
0.6418501283338164 0:20.14 1:-4.72 2:2.49 3:0.23 4:1.32 5:-4.71 6:2.12 7:-4.73 8:0.51 9:-4.07 10:-0.51 11:-4.01 12:0.29 
0.8999600295620837 0:20.95 1:-6.84 2:6.43 3:-11.56 4:1.93 5:-6.28 6:4.52 7:1.8 8:-0.46 9:-0.61 10:-4.18 11:-4.1 12:-0.12 
0.9015022934512047 0:22.33 1:-6.71 2:5.21 3:-13.58 4:17.68 5:-24.87 6:4.45 7:-4.14 8:-1 9:3.91 10:21.22 11:-1.01 12:-6.7 
0.9013835477304271 0:26.74 1:-20.78 2:23.38 3:-3.03 4:9.89 5:-22.56 6:-29.66 7:-22.67 8:18.94 9:-5.03 10:-10.92 11:5.95 12:2.83 
0.9018013678660632 0:25.55 1:-17.71 2:6.66 3:-3.25 4:-13.24 5:-23.26 6:-18.81 7:-24.88 8:7.6 9:1.8 10:-11.79 11:-7.66 12:8.41 
0.3817515951944829 0:20.19 1:-5.72 2:3.77 3:-1 4:2.89 5:-4.13 6:1.54 7:-3.04 8:0.15 9:-3.56 10:-1.26 11:-3.89 12:-0.76 
0.9021337747079238 0:24.46 1:-11.31 2:5.98 3:-16.18 4:-15.45 5:-9.01 6:-23.41 7:-5.87 8:6.56 9:-21.26 10:2.9 11:-1.89 12:3.92 
0.9009450628129562 0:21.88 1:-13.27 2:11.7 3:-10.28 4:8.51 5:-3.57 6:-2.41 7:-3.13 8:-2.74 9:0.18 10:-3.43 11:-1.25 12:-1.43 
0.90150118835266 0:24.53 1:-9.39 2:-6.89 3:-17.81 4:-3.33 5:-12.12 6:2.72 7:-24.25 8:-9.16 9:1.26 10:-4.8 11:-8.96 12:-4.49 
0.9009733140642238 0:25.08 1:-13.31 2:9.75 3:-6.67 4:-18.67 5:-21.54 6:-21.01 7:-27.73 8:8.48 9:5.56 10:-3.33 11:-14.87 12:4.5 
0.9016044424358292 0:24.89 1:-8.02 2:6.81 3:-10.57 4:-0.97 5:-26.27 6:-10.6 7:12.12 8:-21.82 9:11.04 10:-13.72 11:-4.93 12:-6.25 
0.9022378509641419 0:24.55 1:-14.25 2:8.62 3:-11.43 4:-26.84 5:-10.28 6:-4.03 7:-25.49 8:-20.04 9:23.92 10:3.81 11:-17.92 12:-13.13 
0.9014096864115505 0:26.52 1:-16.25 2:13.07 3:-8.3 4:12.78 5:-41.06 6:-6.07 7:-12.36 8:-11.61 9:-5.52 10:13.83 11:-3.67 12:-7.72 
0.9010840548137922 0:20.9 1:-5.03 2:3.87 3:-2.4 4:-2.25 5:-17.38 6:2.31 7:-15.14 8:6.69 9:1.69 10:9.17 11:-1.71 12:-4.78 
0.9015077753804333 0:21.54 1:-6.7 2:16.08 3:-12.47 4:-7.42 5:0.85 6:-12.03 7:10.24 8:-5.41 9:15.34 10:-5.98 11:5.32 12:-9.99 
0.8918741503425536 0:21.17 1:-11.02 2:0.7 3:-6.95 4:5.8 5:-15.14 6:1.42 7:-13.03 8:6.44 9:-10.2 10:2.76 11:-5.52 12:1.56 
0.9018552639379173 0:22.6 1:-13.35 2:14.62 3:2.04 4:7.76 5:-22.98 6:11.32 7:-16.08 8:6.37 9:1.25 10:11.99 11:-0.42 12:-6.42 
0.9017559975033237 0:25.43 1:-22.85 2:-17.06 3:-5.04 4:-18.52 5:-36.55 6:-15.25 7:-5.99 8:-9.83 9:1.89 10:-5.1 11:-12.28 12:-5.67 
0.9016336529647092 0:24.78 1:-13.44 2:5.05 3:-13.33 4:-9.17 5:1.77 6:-18.84 7:-11.46 8:-8.29 9:-5.14 10:11.81 11:-4.04 12:-5.49 
0.9019316845972152 0:20.95 1:-3.01 2:3.92 3:1.43 4:-5.84 5:-23.02 6:3.81 7:-4.05 8:2.57 9:-1.52 10:9.86 11:5.89 12:8.92 
0.8977652974010307 0:24.57 1:-10.12 2:8.63 3:-26.07 4:-22.22 5:-3.52 6:-21.83 7:-5.09 8:-7.49 9:13.81 10:-2.3 11:-10.48 12:6.69 
0.9019858845058872 0:22.97 1:5.34 2:-0.12 3:-0.93 4:-11.42 5:-28.39 6:-0.49 7:-40.33 8:2.31 9:-4.61 10:-2.01 11:7.86 12:-11.38 
0.8942012749526856 0:20.89 1:-6.35 2:4.33 3:-8.15 4:-3.86 5:1.33 6:-12.43 7:6.64 8:-7.73 9:7.04 10:-1.55 11:-1.99 12:-5.24 
0.9021654861224278 0:25.9 1:-19.14 2:7.91 3:-17.04 4:-37.54 5:-5.9 6:-17.68 7:-2.51 8:-9.51 9:-3.54 10:-5.42 11:10.44 12:-11.92 
0.8978950435186178 0:21.09 1:-8.33 2:8.36 3:-9.52 4:3.22 5:-9.84 6:1.33 7:-0.94 8:-2.42 9:3.57 10:-2.33 11:-3.47 12:3.28 
0.9016083562966317 0:25.03 1:-15.09 2:12.92 3:-5.84 4:-1.92 5:-24.3 6:-13.39 7:-4.71 8:-27.8 9:-1.73 10:-8.17 11:5.87 12:-2.67 
0.9019994012596992 0:24.53 1:-5.34 2:16.5 3:-20.9 4:-26.7 5:-16.29 6:-6.12 7:-6.67 8:6.74 9:-1.23 10:-4.32 11:2.61 12:3.95 
0.9015654752014207 0:24.9 1:-13.31 2:18.04 3:-10.1 4:-37.11 5:-4.53 6:7.91 7:-15.04 8:15.28 9:-10.41 10:6.92 11:4.53 12:-1.62 
0.9018090777026041 0:24.07 1:-18.92 2:15.08 3:-13.9 4:-10.6 5:-23.17 6:-6.12 7:-3.32 8:-24.15 9:1.35 10:-6.82 11:-8.13 12:-7.34 
0.9017560270314057 0:25.72 1:-13.37 2:1.78 3:-10.05 4:22.56 5:-25.32 6:-13.64 7:-26.86 8:3.9 9:-11.98 10:-2.48 11:6.89 12:-5.34 
0.9016184856668095 0:25.68 1:-15.65 2:11.56 3:-14.9 4:2.38 5:-11.76 6:-23.73 7:-17.38 8:-1.52 9:-11.37 10:5.25 11:10.49 12:-0.89 
0.9017560143093822 0:22.53 1:-14.38 2:19.55 3:-11.32 4:-2.75 5:10.04 6:-18.9 7:29.04 8:-10.51 9:21.08 10:1.82 11:0.64 12:8.29 
0.9018049228312291 0:23.99 1:-17.79 2:6.37 3:-1.12 4:3.04 5:-33.29 6:-19.86 7:0.14 8:-19.8 9:1.58 10:2.06 11:-7.65 12:-10.9 
0.9015102477230456 0:23.77 1:-15.68 2:-20.16 3:-20.78 4:-24.55 5:-15.67 6:-8.22 7:-4.15 8:-9.89 9:-3.69 10:1.73 11:-11.21 12:-11.29 
0.9003560571511895 0:22.72 1:-15.3 2:19.66 3:-4.18 4:1 5:-2.7 6:-16.61 7:14.12 8:-18.26 9:23.36 10:-6.63 11:0.1 12:5.4 
0.9018892828248299 0:25.42 1:-20.85 2:-11.44 3:-22.63 4:-12.09 5:-32.94 6:-17.4 7:-6.95 8:-3.3 9:-7.81 10:8.1 11:-20.02 12:-14.91 
0.901816760704171 0:21.75 1:-10.27 2:10 3:-3.78 4:16.09 5:-10.14 6:7.98 7:-11.34 8:3.18 9:-15.66 10:0.2 11:-2.1 12:4.86 
0.9021666726056674 0:22.33 1:-15.45 2:15.77 3:5.08 4:-5.37 5:-3.28 6:-8.12 7:7.67 8:-21.83 9:25.48 10:-6.68 11:6.26 12:2.42 
0.9013810862706529 0:23.14 1:-11.68 2:17.95 3:-19.06 4:-0.1 5:-7.85 6:-14.24 7:13.17 8:-13.05 9:13.6 10:1.12 11:-2.35 12:-2.41 
0.9018090854951182 0:24.57 1:-9.48 2:0.4 3:-2.14 4:19.99 5:-11.38 6:-16.25 7:-16.31 8:-10.87 9:-8.43 10:-1.21 11:-0.23 12:-1.82 
0.9015105469068317 0:23.42 1:-12.17 2:24.34 3:-20.75 4:4.94 5:-5.19 6:-15.14 7:12.83 8:-15.32 9:17.61 10:0.06 11:1.99 12:-9.1 
0.9017596255553129 0:24.54 1:-5.29 2:-3.22 3:-12.34 4:-0.3 5:-11.07 6:-3.26 7:-29.94 8:-0.41 9:-10.94 10:-9.73 11:-14.65 12:-1.22 
0.8906284886108595 0:20.43 1:-4.69 2:3.93 3:-5.78 4:0.98 5:-7.51 6:3.4 7:-4.9 8:5.95 9:-3.69 10:5.18 11:-3.96 12:-3.95 
0.9021570055649348 0:25.5 1:-12.57 2:3.01 3:-12.32 4:-17.55 5:-29.66 6:0.95 7:-33.36 8:3.62 9:-3.17 10:-7.11 11:22.47 12:-18.18 
0.902282710411868 0:25.53 1:-22.11 2:22.56 3:13.91 4:-19.55 5:-26.09 6:-31.93 7:-9.34 8:2.73 9:-9.01 10:-1.17 11:3.31 12:-0.45 
0.9020038906890649 0:25.79 1:-17.93 2:15.42 3:-2.43 4:-30.71 5:1.23 6:-11.66 7:-17.77 8:-23.1 9:22.08 10:-7.72 11:10.17 12:-9.94 
0.9016914857200098 0:22.95 1:-19.22 2:21.07 3:-7.79 4:4.67 5:-4.41 6:-8.49 7:13.67 8:-11.99 9:15.34 10:-1.64 11:6.79 12:-2.03 
0.9020861674117385 0:23.91 1:-5.37 2:2.66 3:-0.48 4:-28.54 5:-7.33 6:-23.42 7:-32.27 8:-7.88 9:18.94 10:-8.27 11:3.94 12:-12.44 
0.8351769816701873 0:20.49 1:-8.59 2:5.2 3:-1.23 4:4.85 5:-2.1 6:4.91 7:-2.12 8:-0.47 9:-5.73 10:-4.09 11:-7.81 12:-2.5 
0.9020557819432805 0:23.57 1:-6.48 2:-2.87 3:-7.6 4:-16.88 5:-15.65 6:-22.27 7:-10.51 8:-4.92 9:-15.48 10:-8.79 11:25.76 12:-12.22 
0.901675133967045 0:22.88 1:-0.05 2:-8.37 3:4.77 4:-16.21 5:-24.1 6:-12.23 7:-11.38 8:6.32 9:-21.64 10:3.32 11:12.89 12:-0.33 
0.9022048676948377 0:24.99 1:-14.49 2:12.87 3:-5.37 4:-15.98 5:-25.73 6:-14.08 7:-19.95 8:-11.8 9:27.08 10:-2.23 11:-11.75 12:10.03 
0.9021491199133231 0:23.08 1:4.29 2:-1.3 3:-4.7 4:-24.28 5:-7.61 6:-21.76 7:-23.92 8:-1.58 9:2.7 10:-10.3 11:16.88 12:-11.43 
0.7753999705589911 0:21.58 1:-9.55 2:8.27 3:-5.7 4:9.83 5:-13.77 6:7.36 7:-11.87 8:6.32 9:-9.47 10:3.45 11:-6.82 12:0.96 
0.9018027120160663 0:23.9 1:-5.91 2:-8.81 3:-20.23 4:-4.44 5:-10.14 6:-8.24 7:-17.36 8:9.77 9:2.35 10:3.78 11:-15.72 12:-3.12 
0.901565326500246 0:25.06 1:-11.86 2:6.24 3:-5.57 4:-12.62 5:-23.5 6:-16.69 7:-19.65 8:-5.89 9:5.08 10:5.97 11:-7.95 12:1.43 
0.887352906475316 0:20.95 1:-7.26 2:4.85 3:-7.11 4:2.48 5:-10.58 6:2.61 7:-7.47 8:-2.81 9:1.37 10:3.71 11:1.09 12:-2.13 
0.9016071473373937 0:25.79 1:-18.44 2:12.55 3:-2.18 4:-7.47 5:-10.28 6:-23.22 7:-24.77 8:-8.38 9:7.47 10:7.57 11:-0.79 12:0.97 
0.9020985199798345 0:24.72 1:-11.06 2:-1.86 3:-17.17 4:-17.66 5:-5.37 6:-26.45 7:-7.31 8:-9.93 9:-5.2 10:1.86 11:0.46 12:-1.77 
0.9018259879874588 0:22.88 1:2.86 2:-6.5 3:-0.06 4:-10.09 5:-24.88 6:-1.4 7:-17.22 8:6.61 9:-2.91 10:-8.54 11:1.08 12:4.16 
0.9009542409209003 0:21.18 1:-10.91 2:8.37 3:-6.29 4:6.01 5:-9.72 6:-0.79 7:-7.96 8:-3.06 9:-6.43 10:-1.02 11:-8.58 12:1.08 
0.9022978642605173 0:22.65 1:-21.06 2:12.87 3:9.9 4:1.45 5:-13.48 6:-10.73 7:22.67 8:-23.3 9:2.8 10:19.26 11:2.47 12:-4.85 
0.9018270181566649 0:24.65 1:-12.63 2:-2.08 3:-20.47 4:-23.82 5:-4.04 6:-8.74 7:-11.49 8:-13.93 9:19.5 10:-10.05 11:11.44 12:-12.92 
0.9018441054216717 0:25.35 1:-13.86 2:3.8 3:-13.68 4:3.9 5:-26.31 6:-14.52 7:-18.49 8:-20.3 9:10.49 10:-7.24 11:-5.12 12:0.28 
0.9016433473819693 0:21.31 1:-8.4 2:12.93 3:-2.58 4:-4.22 5:5.82 6:-17 7:21.06 8:-14.3 9:7.81 10:6.26 11:-6.53 12:1.03 
0.9015635559749128 0:25.01 1:-12.93 2:14.38 3:-11.08 4:-34 5:-8.03 6:-2.17 7:-7.22 8:-8.29 9:2.07 10:5.62 11:12.49 12:-8.41 
0.9016072457105758 0:24.7 1:-8.55 2:6.85 3:-13.6 4:-32.72 5:-4.38 6:-9.85 7:-34.01 8:-15.03 9:-4.49 10:-0.9 11:7.07 12:-19.93 
0.901565465883207 0:24.47 1:-8.24 2:-19.44 3:-8.6 4:-3.06 5:-37.58 6:-16.65 7:-26.81 8:-11.62 9:26.77 10:0.44 11:-4.79 12:0.39 
0.9020038687563261 0:25.32 1:-14.83 2:-6.43 3:13.79 4:11.11 5:-39.23 6:-28.29 7:-12.06 8:-11.36 9:1.64 10:17.81 11:-18.69 12:0.96 
0.9022274260924625 0:24.08 1:1.94 2:-19.48 3:-5.89 4:10.77 5:-50.1 6:-3.29 7:-31.91 8:-0.89 9:14.06 10:-7.21 11:5.28 12:-9.26 
0.9020472247284455 0:23.45 1:-4.95 2:0.08 3:-20.67 4:-8.93 5:-26.65 6:-16.99 7:-15.56 8:-5.59 9:-14.93 10:-4.88 11:20.15 12:-10.26 
0.9018266768640082 0:23.29 1:-2.24 2:-1.35 3:-6.91 4:8.86 5:-50.6 6:-11.73 7:-14.15 8:-8.04 9:-15.17 10:-6.05 11:25.93 12:-20.5 
0.9019560529168205 0:25.45 1:-11.86 2:11.1 3:-18.43 4:4.41 5:-25.93 6:-15.16 7:3.9 8:-16.98 9:4.18 10:2.06 11:-9.79 12:2.63 
0.900826878847328 0:22.02 1:-12.35 2:9.37 3:-9.18 4:2.4 5:-23.38 6:4.92 7:-12.74 8:2.5 9:-3.47 10:0.29 11:0.08 12:-3.13 
0.9013442041141678 0:25.99 1:-25.72 2:15.57 3:-8.56 4:6.32 5:-8.37 6:-15.65 7:-20.45 8:-11.21 9:-8.5 10:1.45 11:5.25 12:-17.44 
0.9017560156592238 0:25.57 1:-21.02 2:-1.25 3:-19.69 4:-25.91 5:-30.73 6:-8.78 7:-10.12 8:-15.7 9:1 10:4.96 11:-5.33 12:-14.44 
0.9018267280466612 0:24.86 1:-7.52 2:-6.16 3:3.35 4:5.79 5:-9.73 6:-50.83 7:-11.85 8:-8.65 9:-3.54 10:18.18 11:-9.83 12:-4.58 
0.9020909819017616 0:25.52 1:-12.82 2:-9.97 3:8.67 4:9.81 5:-41.71 6:-19.12 7:-23.3 8:5.49 9:-1.81 10:18.89 11:-8.68 12:-17.9 
0.9022959035830105 0:24.79 1:-9.52 2:-16.25 3:-11.81 4:-10.4 5:-11.59 6:-20.59 7:-18.44 8:-1.11 9:4.68 10:-4.74 11:9.52 12:-8.54 
0.9018266889945554 0:22.41 1:1.43 2:-5.22 3:7.96 4:-10.08 5:-25.61 6:-24.54 7:-27.33 8:1.54 9:-11.21 10:16.31 11:-0.44 12:-1.43 
0.9019256587460036 0:24.24 1:-9.89 2:12.67 3:-9.66 4:-27.62 5:-10.04 6:-10.13 7:-13.81 8:-2.79 9:-6.2 10:8.43 11:-4.2 12:4.1 
0.9015029070183056 0:26 1:-17.04 2:18.7 3:-18.34 4:-2.45 5:-15.33 6:-16.01 7:-18.06 8:-6.98 9:19.63 10:-17.75 11:2.81 12:-6.25 
0.9020477339181329 0:23.23 1:1.6 2:9.41 3:-10.12 4:-9.5 5:-17.85 6:-12.21 7:-26.3 8:17.56 9:-4.96 10:-11.12 11:12.12 12:0.33 
0.9014310509979333 0:21 1:-7.29 2:13.58 3:1.43 4:3.3 5:-1.87 6:-9.49 7:12.74 8:-16.34 9:11.65 10:-1.85 11:-0.19 12:-0.56 
0.9011785360223484 0:21.8 1:-11.44 2:19.16 3:-7.53 4:0.09 5:0.36 6:-17.75 7:19.11 8:-7.4 9:9.44 10:2.08 11:0.59 12:-5.68 
0.8902355541061314 0:20.16 1:-6.59 2:1.88 3:-5.1 4:-5.6 5:-9.48 6:-2.84 7:0.34 8:-2.51 9:-0.43 10:-2.47 11:-1.46 12:-3.3 
0.9019311874429587 0:24.57 1:-2.4 2:-10.67 3:-3.51 4:-1.23 5:-20.23 6:-0.11 7:-29.61 8:-18.33 9:17.52 10:-5.16 11:3.59 12:-5.77 
0.9018952007854319 0:25.37 1:-17.29 2:8 3:-5.17 4:-6.84 5:-4.81 6:-15.4 7:-22.93 8:-14.07 9:4.88 10:1.25 11:16.57 12:-11.31 
0.871502661567332 0:20.56 1:-7.13 2:0.61 3:-6.3 4:-0.32 5:-9.33 6:-7.12 7:-7.5 8:3.51 9:-4.95 10:-0.39 11:-5.2 12:1.51 
0.9023263721964453 0:23.65 1:2.42 2:-16.93 3:-8.49 4:8.04 5:-25.05 6:-6.89 7:-11.56 8:-4.84 9:-22.61 10:-2 11:19.05 12:-9.38 
0.7658288445823908 0:20.41 1:-7.15 2:2.76 3:-0.36 4:3.86 5:-6.81 6:2.77 7:-5.67 8:-0.74 9:-6.49 10:-1.85 11:-0.85 12:-1.08 
0.9018607925672619 0:26.44 1:-24.75 2:13.55 3:-11.44 4:-1.95 5:-13.36 6:-20.1 7:-29.85 8:-4.82 9:9.31 10:-3.7 11:-1.4 12:-9.82 
0.9019856411906594 0:25.36 1:-10.85 2:-3.39 3:-11.58 4:4.92 5:-14.08 6:-4.94 7:-24.1 8:9.11 9:-10.98 10:-18.07 11:16.83 12:3.48 
0.9015112690012858 0:25.11 1:-13.27 2:14.99 3:-23.27 4:-50.48 5:2.46 6:11.83 7:-24.59 8:-8.52 9:15.74 10:-9.13 11:4.5 12:-10.78 
0.9014073837469583 0:21.22 1:-8.92 2:6.92 3:-2.27 4:-13.2 5:-9.95 6:3.21 7:8.74 8:-3.22 9:18.6 10:-1.57 11:-0.2 12:2.42 
0.9020488725940476 0:24.22 1:-1.64 2:13.62 3:-33.67 4:-6.61 5:-12.35 6:-15.25 7:-7.97 8:-10.01 9:-0.98 10:1.47 11:5 12:-3.33 
0.9021879090409214 0:24.41 1:-8.42 2:-0.74 3:-22.65 4:-18.23 5:-7.94 6:-30.36 7:-7.74 8:-2.19 9:-0.5 10:-0.85 11:-9.46 12:-8.61 
0.901475950277669 0:21.67 1:-5.81 2:6.81 3:-12.36 4:0.05 5:-20.56 6:-5.68 7:-3.45 8:5.02 9:5.78 10:8.22 11:-1.75 12:-4.41 
0.9018778489543972 0:26.15 1:-23.57 2:16 3:7.34 4:-17.08 5:-22.54 6:-16.11 7:-14.96 8:-7.32 9:13.17 10:-6.56 11:2.43 12:-10.55 
0.9007968200417817 0:24.75 1:-12.8 2:5.71 3:-9.37 4:-22.07 5:-18.47 6:-23.32 7:-28.21 8:5.87 9:7.78 10:0.27 11:-15.95 12:0.78 
0.9017828900702658 0:23.15 1:-1.31 2:-2.08 3:5.68 4:-12.9 5:-26.89 6:3.33 7:-14.51 8:-1.11 9:-32.27 10:-8.58 11:2.84 12:7.47 
0.9015154897167429 0:25.34 1:-12.71 2:-5.08 3:-4.93 4:17.52 5:-27.28 6:-25.82 7:-32.77 8:-12.08 9:11.67 10:-3.74 11:-2.23 12:-1.69 
0.9022274260764045 0:24.5 1:-10.87 2:6.37 3:-12.84 4:-21.59 5:-3.09 6:-18.56 7:-10.91 8:-7.77 9:-4.51 10:-2.21 11:-4.17 12:-10.3 
0.9017959741324978 0:21.78 1:-9.37 2:8.28 3:-14.48 4:4.15 5:-21.2 6:3.85 7:-14.55 8:7.76 9:-6.12 10:7.02 11:-1.35 12:-1.03 
0.9020612353685267 0:24.92 1:-11.3 2:14.82 3:-11.89 4:-24.86 5:-15.62 6:-11.63 7:-24.52 8:-14.19 9:14.36 10:-9.1 11:5.25 12:-9.07 
0.9017552424557258 0:23.92 1:-5.3 2:4.28 3:-9.85 4:-18.34 5:-15 6:-16.68 7:4.52 8:3.68 9:-12.91 10:-14.28 11:4.42 12:-2.4 
0.9018778009036287 0:23.85 1:-2.81 2:-2.76 3:-22.95 4:-12.08 5:-23.45 6:-6.42 7:-21.24 8:-10.75 9:-4.4 10:-6.51 11:13.74 12:-6.33 
0.9018407425876221 0:24.88 1:-11.44 2:12.24 3:-9.02 4:11.06 5:-27.81 6:-21.46 7:5.49 8:-3.49 9:6.25 10:-3.23 11:-19.33 12:2 
0.901833678937205 0:23 1:-8.73 2:6.4 3:-9.16 4:1.45 5:-26.93 6:-3.94 7:-10.67 8:0.52 9:2.02 10:8.21 11:2.81 12:-2.4 
0.9018266974748084 0:24.4 1:-5.27 2:-4.6 3:-5.25 4:-19.57 5:-11.22 6:-13.98 7:-15.95 8:-7.42 9:-9.29 10:14.86 11:5.95 12:-5.3 
0.9021531580603706 0:25.6 1:-18.96 2:1.54 3:-16 4:8.55 5:-15.2 6:-7.53 7:-21.82 8:-11.78 9:-1.71 10:4.68 11:7.93 12:-15.71 
0.9015250612197425 0:25.43 1:-18.14 2:6.79 3:5.86 4:-7.14 5:-22.53 6:-15.89 7:-14.32 8:-6.55 9:8.29 10:11.08 11:-11.63 12:-2.08 
0.9021343361095474 0:24.35 1:-7.46 2:18.68 3:-11.01 4:-4.53 5:-6.74 6:-8.23 7:-17.75 8:-2.24 9:-19.09 10:-12.61 11:2.94 12:8.49 
0.901795505746978 0:25.83 1:-15.76 2:22.22 3:-24.8 4:-8.33 5:-8.67 6:-22.95 7:-0.37 8:-8.09 9:-5.74 10:4.72 11:-4.96 12:-11.14 
0.9015985925366794 0:25.91 1:-26.37 2:-6.01 3:-23.21 4:0.18 5:-45.34 6:-31.68 7:8.53 8:-5.52 9:1.2 10:-0.47 11:-15.28 12:-0.54 
0.9006646988756333 0:21.18 1:-9.4 2:6.17 3:-2.5 4:5.1 5:-19.07 6:0.69 7:-19.43 8:3.48 9:-3.39 10:5.77 11:-2.51 12:-0.12 
0.901538553582613 0:24.54 1:-10.8 2:4.67 3:0.4 4:-22.06 5:-15.92 6:-16 7:-15.31 8:-5.43 9:2.56 10:12.98 11:-7.3 12:-5.05 
0.9018122929926234 0:20.2 1:-6.21 2:10.84 3:0.04 4:-6.07 5:3.96 6:-11.22 7:4.75 8:-4.57 9:6.65 10:5.19 11:6.08 12:2.75 
0.901352137953273 0:22.05 1:-15.41 2:8.32 3:-11.32 4:10.09 5:-9.88 6:-9.75 7:-6.9 8:-5.81 9:-2.88 10:-5.85 11:-2.02 12:0.26 
0.9013736770880575 0:25.82 1:-16.72 2:11.94 3:-33.53 4:2.28 5:-22.86 6:-14.54 7:-8.58 8:7.74 9:-6.67 10:-4.5 11:2.52 12:-4.26 
0.901808679328829 0:23.8 1:-4.81 2:10.44 3:-12.19 4:-0.05 5:-17.64 6:-11.8 7:0.45 8:-18.09 9:-7.99 10:-6.84 11:21.89 12:-8.74 
0.901838373405641 0:25.14 1:-10.64 2:4.42 3:-15.3 4:-14.38 5:-26.53 6:-9.03 7:-20.36 8:-3.95 9:7.24 10:-3.07 11:-15.38 12:-4.07 
0.902090982035939 0:25.35 1:-22.14 2:0.25 3:-25.81 4:-7.69 5:-32.55 6:-23.28 7:-5.9 8:-0.74 9:14.46 10:-16.81 11:-11.21 12:-7.58 
0.9017857592423946 0:22.78 1:-20.42 2:23.81 3:-7.55 4:2.21 5:4.53 6:-11.67 7:12.48 8:-6.19 9:8.58 10:10.22 11:-5.37 12:7.24 
0.9021520836244484 0:24.19 1:-4.39 2:-7.64 3:-27.26 4:11.55 5:-21.84 6:-3.04 7:-24.07 8:5.79 9:-1.84 10:1.71 11:2.25 12:-21.42 
0.9015449815464744 0:20.97 1:-10 2:9.48 3:-0.1 4:-3.92 5:-4.52 6:3.96 7:16.84 8:-10.5 9:19.58 10:-7.76 11:-0.01 12:-0.4 
0.9017508741657525 0:22.67 1:-17.89 2:19.92 3:-2.52 4:4.68 5:-10.23 6:-10.74 7:9.32 8:-15.58 9:12.29 10:-1.53 11:7.89 12:-1.14 
0.9017891010124608 0:22.88 1:-14.27 2:13.69 3:-0.45 4:5.83 5:-23.57 6:4.56 7:-17.53 8:8.41 9:7.27 10:3.61 11:6.56 12:-3.85 
0.9016044841977082 0:23.81 1:-2.8 2:2.2 3:-17.51 4:-31.99 5:-12.28 6:-2.74 7:-20.82 8:-21.3 9:4.58 10:-1.64 11:12.08 12:-12.51 
0.9018705409769299 0:23.15 1:-0.84 2:-8.96 3:-8.3 4:2.8 5:-26.07 6:-23.86 7:-5.38 8:-8.13 9:-1.12 10:2.99 11:1.4 12:-5.96 
0.9018946711466972 0:25.37 1:-17.83 2:19.82 3:-10.68 4:-26.91 5:-14.94 6:4.85 7:-11.15 8:-8.83 9:-0.34 10:3.31 11:3.28 12:3.3 
0.9022978642676228 0:24.87 1:-2.16 2:-4.39 3:8.83 4:-20.24 5:-34.28 6:-0.6 7:-24.93 8:-11.63 9:24.68 10:-11.42 11:-4.76 12:-25.15 
0.9018957308386537 0:24.43 1:-18.6 2:-22.02 3:-17.66 4:-34.78 5:-33.62 6:4.01 7:-7.49 8:-1.7 9:2.01 10:-19.92 11:-1.98 12:-10.47 
0.9020477336610846 0:21.27 1:-6.27 2:8.31 3:7.53 4:-4.84 5:-13.49 6:-18.45 7:8.3 8:-20.06 9:-0.02 10:12.6 11:5.48 12:7.07 
0.9016751773759951 0:25.42 1:-14.73 2:6.27 3:-20.21 4:-39.04 5:10.16 6:4.92 7:-12 8:-12.41 9:1.41 10:7.74 11:13.84 12:-17.75 
0.9021520835954073 0:25.78 1:-16.35 2:1.98 3:0.95 4:-0.57 5:-27.05 6:-15.96 7:-27.33 8:12.46 9:-8.7 10:-12.5 11:-0.11 12:-13.81 
0.901475087820572 0:21.75 1:-9.33 2:13.42 3:-9.5 4:-10.9 5:7.86 6:-10.99 7:15.14 8:-16.47 9:18.54 10:-1.38 11:7.15 12:7.85 
0.9017463322721933 0:21.08 1:-9.23 2:-0.88 3:-1.56 4:4.17 5:-9.66 6:-8.56 7:-13.83 8:-4.3 9:0.27 10:-9.51 11:-13.67 12:-4.74 
0.9013490925543934 0:21.16 1:-8.89 2:3.42 3:-6.49 4:-3.07 5:-14.75 6:-1.27 7:-19.9 8:0.59 9:-2.51 10:-2.2 11:-7.61 12:-7.33 
0.9018282618847702 0:26.26 1:-25.83 2:9.91 3:-5.8 4:-2.39 5:-4.55 6:-14.93 7:-19.58 8:5.61 9:-4.21 10:0.99 11:-0.15 12:-3.8 
0.8726518332672768 0:20.51 1:-5.43 2:2.03 3:1.88 4:1.92 5:-12.74 6:1.6 7:-2.63 8:-1.7 9:-3.96 10:0.52 11:-3.08 12:0.7 
0.9021570055644961 0:20.11 1:4 2:22.5 3:-25.4 4:-2.18 5:4.04 6:-1.46 7:8.58 8:-4.67 9:-0.2 10:18.95 11:-1.4 12:6.11 
0.9023289431553335 0:25.59 1:-18.62 2:-2.04 3:-19.22 4:-24.4 5:-0.15 6:-13.69 7:-19.71 8:7.51 9:-11.11 10:3.76 11:3.64 12:-6.13 
0.9018090814808579 0:25.15 1:-21.35 2:-15.61 3:-18.17 4:-33.29 5:-24.68 6:-1.14 7:-14.42 8:-1.84 9:3.85 10:-17.75 11:-0.72 12:-6.65 
0.9008331100311405 0:21.22 1:-10.14 2:7.77 3:-4.67 4:3.13 5:0.25 6:-12.41 7:8.99 8:-10.71 9:2.61 10:-4.3 11:-1.64 12:-2.62 
0.9018382110598723 0:24.24 1:-6.92 2:2.94 3:-20.87 4:-21.59 5:-9.22 6:-16.92 7:-11.99 8:3.14 9:1.11 10:-8.25 11:-2.73 12:-6.28 
0.9018607648415551 0:24.98 1:-12.62 2:-5.02 3:-1.43 4:11.17 5:-36.03 6:-14.13 7:-22.69 8:-7.76 9:18.59 10:7.26 11:-3.32 12:-2.39 
0.9018384292590602 0:25.02 1:-20.08 2:-13.8 3:-7.07 4:-8.08 5:-43.83 6:-27.97 7:-1.31 8:2.71 9:5.88 10:-4.55 11:-15.21 12:-11.84 
0.9008441323381129 0:21.43 1:-6.48 2:-4.6 3:-11.98 4:1.49 5:-10.07 6:-0.07 7:-16.34 8:1.27 9:-2.74 10:1.59 11:-10.22 12:1.09 
0.9022380090821467 0:23.17 1:-24.33 2:-4.45 3:-18.98 4:-6.95 5:-3.3 6:2.58 7:14.78 8:-15.04 9:3.5 10:-7.06 11:-4.82 12:-7.69 
0.9023106390187037 0:23.31 1:8.79 2:-17.25 3:-4.13 4:10.4 5:-58.79 6:-0.01 7:-36.13 8:8.49 9:0.49 10:13.97 11:-6.89 12:-17.47 
0.9020038903307724 0:24.24 1:-8.34 2:6.91 3:-9.66 4:-21.84 5:-15.46 6:-13.93 7:-15.13 8:5.26 9:-8 10:1.77 11:1.69 12:3.98 
0.9022333069554547 0:25.78 1:-14.42 2:-0.23 3:-13.26 4:7.59 5:-47.64 6:0.72 7:-22.29 8:5.32 9:9.9 10:-5.39 11:-13.85 12:-18.41 
0.9018838128808833 0:23.34 1:-6.19 2:1.85 3:-7.39 4:-8.32 5:-27.51 6:-15.7 7:-20.91 8:-20.95 9:-13.05 10:15.43 11:7.36 12:-12.37 
0.9020861671092832 0:24.57 1:-13.75 2:2.95 3:-10.99 4:-10.1 5:-25.24 6:-16.03 7:-7.42 8:-11.14 9:-3.91 10:-10.41 11:-4.84 12:4.9 
0.9016830407884141 0:25.08 1:-13.02 2:-17.51 3:-6.16 4:-25.08 5:-33.45 6:-8.57 7:-3.21 8:-11.99 9:-17.39 10:2.25 11:-11.82 12:-6.43 
0.9013377461835506 0:21.36 1:-8.19 2:10.93 3:-8.46 4:0.8 5:-3.26 6:-13.55 7:13.98 8:-12.02 9:5.24 10:5.09 11:2.56 12:3.83 
0.9020183604871076 0:24.77 1:-17.86 2:19.43 3:0.19 4:-22.78 5:-21.78 6:-22.49 7:-20.48 8:1.86 9:2.65 10:4.62 11:-6.85 12:11.29 
0.9017676771647816 0:21.99 1:-11.69 2:18.37 3:-7.61 4:9.65 5:-18.21 6:-10.48 7:10.66 8:-5.71 9:8.58 10:6.06 11:-0.61 12:1.61 
0.901608262163191 0:24.13 1:-11.82 2:18.81 3:-17.53 4:-21.33 5:-12.38 6:-22.28 7:-0.09 8:-7.33 9:5.26 10:2.72 11:-3.42 12:8.97 
0.9021365757202231 0:22.6 1:2.8 2:-7.14 3:-4.54 4:1.45 5:-13.46 6:-7.86 7:-27.37 8:-1.49 9:-8.66 10:17.39 11:-0.85 12:-6.83 
0.9020849647350775 0:26.07 1:-15.48 2:19.22 3:-30.46 4:-9.06 5:-8.96 6:-5.38 7:-27.76 8:2.95 9:23.39 10:-22.79 11:-0.51 12:-10.09 
0.9018049231013465 0:25.11 1:-14.02 2:0.53 3:-23.07 4:-28.22 5:-16.3 6:-14.8 7:-9.98 8:1.12 9:-7.83 10:5.49 11:-12.49 12:-7.54 
0.9011640743702557 0:22.51 1:-18.72 2:15.61 3:0.53 4:2.4 5:-2.8 6:-6.92 7:14.76 8:-14.21 9:21.34 10:-7.26 11:-2.56 12:7.2 
0.9022380090619061 0:24.5 1:-8.72 2:16.1 3:-11.73 4:-15.58 5:-4.02 6:-13.43 7:-12.09 8:-17.07 9:-3.44 10:-6.83 11:-12.37 12:-7.84 
0.9020365054255002 0:25.54 1:-16.05 2:17.17 3:-12.89 4:-9.3 5:10.9 6:-18.81 7:-14.27 8:-8.66 9:-10.74 10:8.55 11:-4.81 12:4.03 
0.9014884290694585 0:24.4 1:-19.06 2:-24.21 3:-15.1 4:-15.85 5:-40.87 6:-8.02 7:-17.39 8:3.29 9:8.51 10:-19.02 11:-6.59 12:-15.26 
0.9022666205629848 0:24.7 1:-13.84 2:-0.21 3:-39.61 4:-34.41 5:-10.81 6:-5.33 7:-14.44 8:-8.49 9:0.72 10:0.88 11:-2.84 12:-16.6 
0.9023163653704053 0:25.37 1:-17.35 2:10.63 3:-4.73 4:-6.21 5:-38.71 6:-19.67 7:2.49 8:-17.67 9:-3.77 10:-12.35 11:-4.15 12:-6.37 
0.9019858844873437 0:22.37 1:-0.19 2:-9.24 3:-1.37 4:-3.94 5:-7.37 6:-16.91 7:-27.49 8:17.82 9:-5.04 10:5.59 11:-11.96 12:-6.72 
0.9019316950966885 0:23.61 1:-8.58 2:-14.63 3:-9.68 4:-11.74 5:-19.41 6:-14.85 7:-7.96 8:-12.92 9:9.59 10:-13.19 11:1.26 12:-7.54 
0.9015653205850203 0:24.39 1:-9.62 2:-0.94 3:-2.27 4:-0.05 5:-22.55 6:-16.67 7:-3.32 8:-18.45 9:-1.86 10:-13.26 11:-6.55 12:-2.93 
0.9001075439374112 0:20.82 1:-4.83 2:5.33 3:-6.26 4:-0.72 5:-12.93 6:2.21 7:-7.22 8:4.4 9:-0.9 10:14.59 11:-0.2 12:2.25 
0.9021533224040583 0:25.58 1:-12.42 2:-7.45 3:3.47 4:12.76 5:-33.99 6:0.93 7:-19.56 8:-34.05 9:5.88 10:-6.05 11:-4.43 12:-2.92 
0.9019858844965771 0:24.5 1:-15.67 2:-20.55 3:-32.08 4:-28.8 5:-47.74 6:1.18 7:-5.04 8:-4.57 9:-3.35 10:-12.95 11:-1.76 12:-7.09 
0.9015439492766637 0:22.4 1:-12.09 2:11.88 3:-3.58 4:5.91 5:-24.4 6:10.3 7:-9.61 8:-2.95 9:-3.88 10:9.44 11:-2.44 12:4.33 
0.9022286149993821 0:25 1:-15.76 2:17.23 3:-4.07 4:-22.56 5:-5.65 6:-24.42 7:-21.54 8:3.1 9:16.14 10:-7.73 11:3.49 12:-10.5 
0.9018601048274523 0:24.98 1:-12.18 2:1.34 3:4.69 4:-17.29 5:-8.85 6:-37.12 7:-17.43 8:-8.66 9:8.35 10:-4.1 11:4.36 12:-10.85 
0.9017314042110461 0:23.17 1:-7.85 2:3.8 3:-22.46 4:0.55 5:-13.3 6:-15.68 7:-6.59 8:-2.62 9:-0.42 10:5.15 11:0.76 12:-4.09 
0.8969520936076967 0:20.15 1:-4.16 2:1.92 3:-2.54 4:-0.81 5:-4.85 6:0.02 7:-4.12 8:-7.67 9:-9.59 10:-1.2 11:3.4 12:3.02 
0.9018888642125624 0:23.35 1:-1.13 2:-7.26 3:-2.29 4:3.04 5:-21.5 6:-16.27 7:-22.17 8:-12.03 9:-8.86 10:5.03 11:6.01 12:5.58 
0.8993101880125207 0:19.96 1:-6.79 2:8.02 3:-0.22 4:3.46 5:5.46 6:-5.21 7:11.78 8:-5.35 9:13.55 10:-1.13 11:4.94 12:2.05 
0.9020038900044365 0:21.81 1:-16.43 2:11.56 3:6.74 4:-1.3 5:-1.71 6:-11.27 7:13.55 8:-23.8 9:5.9 10:7.14 11:-8.39 12:9.25 
0.9018041870264341 0:24.34 1:-11.16 2:15.11 3:-8.53 4:-19.47 5:-13.91 6:-16.84 7:-15.7 8:-7.3 9:13.17 10:-9.03 11:-8.45 12:9.68 
0.9017857454219673 0:23.62 1:-16.82 2:17.94 3:-9.77 4:-4.7 5:-14.84 6:-3.48 7:12.18 8:-17.81 9:26.76 10:-4.34 11:-0.8 12:-3.42 
0.9008408621877576 0:21.39 1:-6.64 2:8.68 3:-6.52 4:12.4 5:-15.56 6:-4.54 7:-4.56 8:-1.75 9:1.46 10:0.76 11:9.64 12:0.54 
0.9014750986853715 0:22.02 1:-6.31 2:10.87 3:-14.92 4:12.7 5:-11.39 6:5.93 7:-13.35 8:1.16 9:-1.23 10:9.94 11:2.77 12:0.03 
0.9010387107790661 0:20.62 1:-5.43 2:4.26 3:-6.31 4:-5.06 5:-0.83 6:-4.01 7:8.69 8:-3.11 9:2.16 10:-5.52 11:-0.9 12:-5.58 
0.9018548132510734 0:26.49 1:-22.17 2:10.9 3:6.31 4:6.6 5:-37.15 6:-17.14 7:-8.04 8:2.75 9:-2.8 10:-8.37 11:1.33 12:-15.18 
0.9006156049317749 0:20.61 1:-4.81 2:5.91 3:4.7 4:-5.29 5:-10.99 6:-4.71 7:0.01 8:-9.38 9:10.42 10:0.84 11:9.92 12:2.57 
0.9018023869920629 0:24.8 1:-13.89 2:14.74 3:-4.7 4:-14.74 5:-27.46 6:-24.7 7:-17.18 8:-3.07 9:5.05 10:20.44 11:-12.44 12:5.09 
0.9017442498214149 0:25.42 1:-17.54 2:3.62 3:-18.78 4:-13.61 5:-31.63 6:-13.14 7:-8.97 8:-26.82 9:11.37 10:-8.18 11:0.82 12:-12.52 
0.901785754546689 0:21.75 1:-15.09 2:15.65 3:4.09 4:-5.21 5:3.82 6:-9.48 7:5.1 8:-5.59 9:10.58 10:1.93 11:-0.16 12:8.65 
0.7997522902621907 0:19.82 1:-4.32 2:6.92 3:1.36 4:-0.7 5:2.52 6:-9.08 7:8.8 8:-7.18 9:12.4 10:-0.04 11:9.81 12:2.71 
0.9018292747785335 0:26.82 1:-24.51 2:17.02 3:-14.18 4:-4.35 5:-16.86 6:-20.11 7:-25.72 8:-2.62 9:0.97 10:-5.99 11:11.2 12:-15.01 
0.9021343359649985 0:24.06 1:-8.9 2:0.98 3:-22.2 4:-17.07 5:-18.52 6:-20.53 7:-15.63 8:2.49 9:-1.3 10:3.96 11:-13.7 12:-7.41 
0.9017891153557828 0:24.52 1:-10.39 2:12.21 3:-18.67 4:-9.92 5:-19.73 6:-14.92 7:-18.15 8:-7.22 9:-2.39 10:-15.51 11:7.43 12:7.26 
0.8956965203703662 0:23 1:-8.5 2:1.58 3:-15.17 4:0.84 5:-9.78 6:-0.95 7:-16.04 8:-2.69 9:-3.59 10:-2.97 11:-15.39 12:-1.59 
0.9017030539872291 0:24.81 1:-19.01 2:-18.08 3:-6.46 4:-19.05 5:-35.3 6:-11.64 7:-9.04 8:-5.06 9:3.41 10:5.51 11:-14.68 12:-9.94 
0.9015143522603203 0:24.52 1:-15.23 2:10.63 3:1.92 4:-13.29 5:-17.49 6:-28.54 7:-24.4 8:7.15 9:13.57 10:0.15 11:-10.73 12:-0.05 
0.9014863274891219 0:20.28 1:-4.58 2:3.85 3:6.03 4:4.44 5:-11.55 6:4.54 7:-0.93 8:1.32 9:-5.93 10:10.77 11:0.48 12:2.2 
0.901999402033873 0:26.68 1:-33.8 2:15.35 3:4.41 4:9.74 5:-25.6 6:-34.63 7:-30.81 8:11.64 9:0.63 10:-2.29 11:-3.99 12:-16.71 
0.8180282481611262 0:21.38 1:-10.75 2:6.94 3:-12.25 4:1.66 5:-14.3 6:3.61 7:-13.29 8:1.44 9:-7.64 10:5.39 11:-5.14 12:0.22 
0.9015060674027222 0:24.62 1:-3.43 2:8.88 3:-16.74 4:-7.31 5:-15.84 6:6.01 7:-30.56 8:-1.74 9:-10 10:3.27 11:-11.6 12:-9.21 
0.9017647103553699 0:24.83 1:-10.11 2:0.66 3:-13.97 4:0.76 5:-9.28 6:-9.46 7:-19.68 8:0.23 9:2.59 10:0.42 11:-12.77 12:-1.56 
0.9015326657105769 0:23.36 1:-6.89 2:-4.24 3:-3.43 4:10.9 5:-25.14 6:-10.77 7:-20.17 8:8.11 9:-10.88 10:-12.98 11:1.51 12:6.11 
0.9020038899855291 0:24.39 1:-9.69 2:4.52 3:-12.27 4:-0.41 5:7.24 6:12.6 7:-14.96 8:-5.89 9:-0.02 10:5.05 11:-17.24 12:-10.3 
0.885850594398966 0:21.3 1:-11.24 2:9.83 3:-6.95 4:8.37 5:-6.95 6:-8.16 7:1.09 8:-1.98 9:-1 10:-2.88 11:-2.92 12:3.17 
0.9016616109076971 0:21.09 1:-3.53 2:0.95 3:2.08 4:-1.21 5:-18.73 6:2.56 7:-13.03 8:7.74 9:-1 10:21 11:-3.96 12:-1.24 
0.9004516718783697 0:20.8 1:-5.85 2:6.37 3:-8.95 4:0.2 5:-14.56 6:4.58 7:-4 8:6.4 9:-0.1 10:0.12 11:-2.96 12:-3.75 
0.9018217096404965 0:24.26 1:-8.21 2:10.51 3:-11.13 4:-21.42 5:-22.79 6:-6.03 7:-7.88 8:1.85 9:5.52 10:-7.83 11:-2.95 12:4.06 
0.9018312064102605 0:21.38 1:-8.73 2:5.39 3:-3.44 4:9.89 5:-18.38 6:1.79 7:-15.78 8:6.56 9:-6.53 10:0.77 11:-1.08 12:6.83 
0.9021666725848932 0:24.58 1:-14.66 2:12.65 3:4.69 4:-12.67 5:-26.33 6:-26.99 7:-27.52 8:0.41 9:8.75 10:21.44 11:-7.45 12:0.32 
0.901882557461409 0:25.48 1:-19.06 2:-9.94 3:-18.76 4:-22.02 5:-5.27 6:-30.27 7:-3.66 8:-5.23 9:-7.75 10:3.32 11:-11.09 12:-10.11 
0.9018838079232844 0:25.43 1:-13.37 2:12.83 3:-22.19 4:-31.21 5:-3.97 6:-17.08 7:-10.91 8:-7.12 9:0.88 10:-3.61 11:12.46 12:-19.66 
0.9018433408500403 0:22.59 1:-16.86 2:9.63 3:9.74 4:-5.78 5:-19.09 6:1.74 7:4.05 8:-19.18 9:15.81 10:11.88 11:-4.41 12:-2.7 
0.9018266993501194 0:23.19 1:-2.89 2:18.26 3:-12.78 4:-8.96 5:-15.43 6:-8.28 7:-4.04 8:8.58 9:-44.08 10:-1.79 11:9.56 12:17.43 
0.901433617856697 0:21.17 1:-9.33 2:7.44 3:2.59 4:-4.99 5:13.1 6:-13.98 7:23.01 8:-12.24 9:15.83 10:5.24 11:-6.75 12:16.07 
0.9022274260616174 0:26.39 1:-18.87 2:8.79 3:-11.13 4:-11.49 5:-7.73 6:-29.44 7:-11.46 8:-8.66 9:5.36 10:13.78 11:1.53 12:-15.21 
0.8450597533776747 0:20.25 1:-5.66 2:3.95 3:-0.66 4:0.92 5:-6.71 6:-0.49 7:-0.81 8:-3.68 9:-1.33 10:-2.46 11:-2.49 12:1.14 
0.9017560138039971 0:23.94 1:-4.21 2:-2.28 3:-11.16 4:-25.53 5:-16.26 6:-23.47 7:-17.37 8:-0.07 9:9.71 10:0.34 11:-10.82 12:-4.22 
0.9021654861477713 0:23.24 1:-1.3 2:1.4 3:-0.25 4:0.93 5:-33.28 6:-11.55 7:-7.51 8:18.31 9:-25.34 10:-18.2 11:0.35 12:10 
0.9015540601399796 0:23.21 1:-5.74 2:-5.53 3:-10.74 4:-17.15 5:-32.47 6:-13.6 7:-6.25 8:-17.69 9:-17.16 10:2.85 11:13.28 12:-10.06 
0.9018267023636868 0:23.63 1:-5.67 2:-17.17 3:-11.77 4:-13.39 5:-39.96 6:-23.31 7:-10.44 8:-27.83 9:-5.49 10:30.77 11:-13.49 12:-9.81 
0.9014022124946489 0:24.51 1:-8.9 2:9.21 3:-17.68 4:-14.73 5:-23.87 6:-14.58 7:-4.23 8:9.06 9:-7.22 10:-4.12 11:-11.56 12:10.11 
0.9023289431603649 0:25.09 1:-16.58 2:8.37 3:13.77 4:12.43 5:-40.29 6:-42.22 7:5.17 8:-2.02 9:-10.88 10:13.99 11:-15.33 12:1.36 
0.9021570055327526 0:25.36 1:-13.04 2:4.18 3:-17.52 4:-8.69 5:-29.94 6:-6.89 7:-5.88 8:-19.23 9:8.53 10:-7.77 11:-8.09 12:-1.11 
0.9019256597029263 0:25.13 1:-12.47 2:17.14 3:-3.85 4:-27.42 5:-18.17 6:10 7:-20.21 8:4.97 9:13.77 10:-7.78 11:1.12 12:7.08 
0.9018477865990207 0:21.44 1:-4.21 2:14.05 3:-15.4 4:5.47 5:-10.47 6:-1.18 7:-5.4 8:-5.64 9:8.96 10:0.04 11:4.3 12:2.58 
0.9018055662084636 0:24.78 1:-12.02 2:2.31 3:-5.19 4:-28.3 5:-12.85 6:-16.89 7:-13.18 8:-7.41 9:16.57 10:-5.58 11:-4.38 12:2 
0.9013450150774496 0:22.55 1:1.89 2:-1.86 3:0.44 4:-8.09 5:-16.69 6:-5.19 7:-23.13 8:-12.33 9:-12.86 10:7.68 11:6.26 12:1.46 
0.9018248457077637 0:24.07 1:-4.55 2:5.46 3:-41.45 4:-8.74 5:-2.04 6:-33.84 7:3.44 8:-14.26 9:14.24 10:12.52 11:-5.52 12:-6.39 
0.9019165899913489 0:25.5 1:-13.73 2:1.45 3:17.44 4:-12.98 5:-30.7 6:-37.16 7:-3.93 8:-17.21 9:19.14 10:-16.96 11:-18.12 12:-7.44 
0.9017676950787832 0:24.7 1:-18.07 2:1.38 3:9.47 4:-4.24 5:-19.51 6:-48.56 7:-15.2 8:-10.93 9:-3.4 10:-3.01 11:-1.08 12:-10.1 
0.9019716951212609 0:23.72 1:0.66 2:6.07 3:16.55 4:-21.24 5:-38.25 6:-5.92 7:-24.08 8:19.68 9:-14.82 10:-6.57 11:20.5 12:-4.08 
0.9021520836251929 0:25.41 1:-16.9 2:-3.58 3:12.69 4:14.76 5:-47.93 6:-33.22 7:-15.62 8:-2.09 9:6.71 10:-4.96 11:3 12:8.87 
0.9017371596129574 0:24.53 1:-14.75 2:-8.13 3:-6.49 4:-28.5 5:-32.92 6:-12.38 7:6.71 8:-10.69 9:-2.01 10:-3.47 11:-12.1 12:-7.47 
0.9018268374372899 0:25.43 1:-18.4 2:4.88 3:-4.61 4:-10.32 5:-11.5 6:-8.77 7:-23.53 8:1.8 9:3.69 10:0.77 11:4.32 12:9.95 
0.9010312521978689 0:24.05 1:-11.23 2:7.61 3:0.89 4:-20.03 5:-20.68 6:-16.94 7:-12.6 8:-3.57 9:9.95 10:-3.99 11:-14.04 12:-0.16 
0.9015107036056662 0:23.54 1:-8.27 2:8.26 3:-19.98 4:-24.05 5:-4.26 6:-19.05 7:-20.57 8:7.56 9:1.19 10:1.7 11:-5.66 12:-4.14 
0.9016449822093888 0:26.18 1:-17.6 2:22.51 3:-5.47 4:-1.84 5:-23.73 6:-20.9 7:-29.69 8:14.36 9:5.93 10:1.41 11:2.01 12:-8.73 
0.900670490044874 0:20.95 1:-7.68 2:5.96 3:-4.06 4:5.23 5:-12.29 6:4.57 7:-6.9 8:-2.79 9:-2.4 10:0.18 11:-6.25 12:5.01 
0.9021879090606248 0:24.23 1:-7.62 2:-4.01 3:-21.61 4:-0.96 5:-2.42 6:-28.05 7:-27.02 8:14 9:-12.58 10:10.8 11:5 12:2.39 
0.9022298044261849 0:26.36 1:-19.29 2:11.96 3:-13.39 4:6.36 5:-21.2 6:-9.73 7:-17.2 8:-5.84 9:1.62 10:-5.5 11:-7.21 12:-16.32 
0.9018875335376517 0:23.34 1:-2.48 2:12.77 3:-20.89 4:-26.41 5:3.3 6:-20.33 7:3.32 8:-23.16 9:-15.93 10:5.12 11:14.5 12:-6.5 
0.9018705157741896 0:25.16 1:-17.02 2:7.98 3:5.71 4:-1.57 5:-15.06 6:-23.51 7:-31.96 8:-13.39 9:11.22 10:-0.59 11:-4.45 12:12.02 
0.9018954674937369 0:24.44 1:-15.79 2:-6.69 3:1.53 4:-10.97 5:-12.23 6:-14.09 7:-13.86 8:-10.54 9:7.48 10:-9.15 11:4.34 12:-9.52 
0.9017623719138887 0:21.87 1:-14.47 2:17.31 3:-6.51 4:3.33 5:4.03 6:-14.74 7:14.82 8:-5.1 9:2.03 10:5.3 11:-3.25 12:-1.8 
0.9018957329124007 0:21.75 1:-14.15 2:13 3:0.98 4:1 5:-11.45 6:-7.79 7:6.34 8:-1.81 9:2.56 10:5.18 11:5.63 12:-1.96 
0.9018136851181945 0:20.21 1:-2.03 2:1.61 3:10.32 4:-0.56 5:-15.49 6:-5.32 7:7.39 8:-14.2 9:6.65 10:6.15 11:3.43 12:2.58 
0.9013389621635751 0:21.98 1:-13.46 2:12.1 3:-0.16 4:4.48 5:-13.98 6:-9.32 7:9.21 8:-17.63 9:19.36 10:-3.81 11:1.85 12:5.53 
0.9018479973088847 0:24.46 1:-12.21 2:-2.8 3:-5.6 4:-8.84 5:-5.23 6:-21.69 7:-19.31 8:-20.31 9:4.08 10:9.17 11:13.03 12:-20.1 
0.9016846014460375 0:26.01 1:-16.64 2:17.84 3:-9.57 4:-0.38 5:-16.9 6:-23.24 7:-24.63 8:11.26 9:2.08 10:1.8 11:-2.42 12:-3.13 
0.9021654861478831 0:24.89 1:-20.23 2:-8 3:-34.12 4:-16.43 5:-38.44 6:-13.04 7:0.1 8:-1.8 9:-0.36 10:-5.82 11:-9.07 12:3.09 
0.901369781109544 0:21.91 1:-8.04 2:13.97 3:-7.96 4:1.88 5:-12.88 6:6.12 7:-11.78 8:-0.08 9:-3.64 10:6.97 11:2.42 12:3.43 
0.9018457715921533 0:25.17 1:-3.4 2:-16.79 3:1.44 4:7.42 5:-36.77 6:-2.14 7:-32.19 8:-10.66 9:17.12 10:-3.29 11:13.73 12:-11.84 
0.9017956642736084 0:25.08 1:-10.96 2:14.88 3:-17.45 4:-11.52 5:-28.74 6:-8.8 7:2.28 8:-21.37 9:-2.47 10:-5.4 11:-8.3 12:-0.2 
0.9018872139381852 0:24.54 1:-9.16 2:4.11 3:-20.58 4:-5.09 5:-14.65 6:-36.62 7:2.04 8:-24.49 9:-2.49 10:9.35 11:-8.71 12:-5.49 
0.9015514172315027 0:23.75 1:-4.86 2:1.46 3:-10.73 4:-31.45 5:-9.26 6:-7.57 7:-15.78 8:-18.53 9:7.19 10:-3.22 11:4.57 12:-11.82 
0.9020297637606813 0:24.32 1:-9.55 2:-5.49 3:-11.61 4:9.32 5:-29.82 6:10.56 7:-22 8:2.11 9:13.47 10:2.51 11:-9.22 12:-12.03 
0.9013956262303848 0:25.83 1:-17.37 2:12.84 3:-7.02 4:-26.24 5:-13.55 6:-17.97 7:-14.05 8:-9.89 9:16.23 10:-12.87 11:1.05 12:-19.71 
0.901515810353346 0:22.79 1:-18.53 2:22.84 3:-5.63 4:-3.1 5:4.45 6:-11.08 7:14.1 8:-11.34 9:20.66 10:1.7 11:-1.4 12:9.15 
0.9017560159233644 0:23.46 1:-10.48 2:14.25 3:-17.86 4:0.77 5:-21.02 6:-19.32 7:-9.67 8:-5.04 9:-3.65 10:-2.7 11:2.34 12:-0.34 
0.9017937991897124 0:24.44 1:-8.76 2:-9.38 3:0.97 4:5.47 5:-28.41 6:-36.29 7:-22.98 8:-3.53 9:3.18 10:12.35 11:-14.06 12:-11.68 
0.9014338603906393 0:26.04 1:-15.82 2:9.14 3:-1.3 4:9.55 5:-31.76 6:3.39 7:-25.09 8:-17 9:5.91 10:6.16 11:-0.55 12:-1.44 
0.9015109658268531 0:24.31 1:-4.34 2:7.59 3:-14.85 4:-19.36 5:-14.83 6:-14.25 7:-15.34 8:-0.29 9:1.35 10:-1.28 11:-3.48 12:-5.29 
0.9018954664241535 0:24.57 1:-18.57 2:-23.77 3:-22.74 4:-16.27 5:-38.56 6:5.44 7:-16.12 8:-12.11 9:4.96 10:-10.73 11:-6.42 12:-12.6 
0.9021491198563697 0:25.49 1:-16.68 2:-8.32 3:2.31 4:-6.76 5:-18.57 6:-24.17 7:-16.28 8:-14.65 9:13.75 10:-7.96 11:1.97 12:-2.59 
0.901954927381693 0:23.21 1:-15.68 2:23.29 3:-11.86 4:-8.17 5:9.18 6:-28.54 7:5.14 8:8.98 9:2.25 10:-5.08 11:4.13 12:-11.59 
0.9015070314424737 0:23.75 1:-2.42 2:-4.93 3:-21.13 4:-12.45 5:-18.81 6:4.04 7:-21.19 8:-18.99 9:-0.82 10:8.58 11:-0.94 12:-4.69 
0.9020909818982762 0:25.96 1:-14.83 2:5.81 3:-12.28 4:-2.69 5:-26.69 6:-15.61 7:-4.05 8:-26.82 9:7.13 10:-11.75 11:4.88 12:-17.83 
0.9022298044394251 0:25.57 1:-14.2 2:15.17 3:-24.9 4:-3.72 5:0.34 6:-28.11 7:-16.65 8:0.65 9:5.69 10:-8.59 11:10.33 12:-3.04 
0.9017559942612429 0:25.02 1:-10.66 2:11.69 3:-0.6 4:-24.34 5:-22.92 6:-16.07 7:-7.96 8:-13.33 9:-1.47 10:0.11 11:8.22 12:-3.01 
0.9020362469421244 0:23.84 1:-18.66 2:21.19 3:-4.82 4:0.14 5:-18.67 6:-15.01 7:20.35 8:-19.42 9:22.4 10:-4.93 11:-7.57 12:-0.86 
0.9018424063543657 0:24.12 1:-7.78 2:1.87 3:-18.31 4:-26.47 5:-9.6 6:0.31 7:-16.42 8:-20.34 9:18.12 10:-7.6 11:7.26 12:-20.62 
0.9011762348079366 0:23.54 1:-5.09 2:3.85 3:-25.14 4:0.79 5:-8.31 6:-19.49 7:-5.79 8:-6.45 9:-5.22 10:6.01 11:3.76 12:-5.24 
0.9018552701685537 0:20.92 1:-9.61 2:5.5 3:8.35 4:-10.18 5:-17.73 6:14.14 7:10.15 8:-3.56 9:18.69 10:8.8 11:-10.14 12:4.36 
0.9018361082659289 0:24.01 1:-10.39 2:-3.09 3:-10.06 4:-15.04 5:-28.97 6:-9.38 7:-11.89 8:-10 9:11.46 10:3.06 11:-7.43 12:-4.71 
0.9018718746726535 0:24.15 1:-18.7 2:-4.27 3:9.58 4:-11.68 5:-31 6:-6.02 7:2.43 8:-28.39 9:0.92 10:-3.32 11:-11.24 12:-7.78 
0.8943904515534826 0:20.57 1:-6.47 2:5.92 3:-7.02 4:4.35 5:-8.62 6:6.11 7:-1.89 8:3.05 9:-3.14 10:-2.84 11:-3.81 12:-6.71 
0.9016751331042168 0:21.69 1:-8.54 2:5.94 3:-1.76 4:10.67 5:-16.97 6:1.48 7:-8.03 8:8.78 9:-6.93 10:15.3 11:-2.79 12:2.71 
0.9017949674444161 0:25.17 1:-8.23 2:3.61 3:-14.58 4:-0.62 5:-22.42 6:-19.32 7:3.86 8:-24.84 9:1.56 10:-13.23 11:-3.84 12:-14.26 
0.9019549265760723 0:25 1:-22.24 2:-20.98 3:-9.19 4:-17.97 5:-40.12 6:-14.08 7:-16.88 8:3.75 9:-5.46 10:-4.58 11:-7.08 12:-12.82 
0.9014817709220074 0:21.37 1:-12.87 2:12.11 3:-0.48 4:-6.71 5:-7.5 6:4.63 7:1.2 8:3.11 9:14.45 10:-1.85 11:8.55 12:-5.64 
0.901877803224535 0:22.73 1:-9.83 2:23.19 3:-12.79 4:-8.05 5:0.6 6:-29.44 7:9.31 8:-14.69 9:13.78 10:-5.03 11:6.09 12:-11.69 
0.9007668166639806 0:22.31 1:-11.51 2:9.12 3:-7.4 4:12.11 5:-19.61 6:-0.63 7:-8.38 8:-0.02 9:-5.95 10:3.46 11:-3.65 12:-0.21 
0.9022458587223718 0:25.23 1:-12.95 2:5.86 3:-12.74 4:-7.61 5:-20.32 6:-11.14 7:-7.98 8:-0.44 9:12.48 10:-4.56 11:-7.27 12:-5.96 
0.9013778411005431 0:24.39 1:-6.72 2:3.29 3:-0.82 4:-19.64 5:-17.63 6:-9.57 7:-13.38 8:-4.47 9:4.63 10:-11.3 11:-6.13 12:3.97 
0.9014915222021231 0:22.3 1:-21.14 2:12.41 3:11.85 4:-1.96 5:-9.23 6:1.08 7:10.2 8:-13 9:13.17 10:7.7 11:3.42 12:6.24 
0.901604706792799 0:24.65 1:-7.74 2:13.96 3:-39.47 4:-18.46 5:-5.36 6:-19.35 7:-9.74 8:-7.43 9:15.19 10:0.28 11:-0.58 12:-1.07 
0.8999671654916057 0:24.04 1:-7.82 2:11.84 3:-22.62 4:-23.7 5:-5.24 6:-24.37 7:-3.62 8:-5.32 9:7.27 10:-0.37 11:-5.71 12:6.51 
0.9017220971475359 0:23.97 1:-12.92 2:-23.61 3:-27.55 4:-16.71 5:-13.93 6:-13.99 7:-9.39 8:-8.03 9:-6.71 10:0.52 11:-10.82 12:-11.46 
0.9018023870803891 0:25.26 1:-8.7 2:8.14 3:-14.64 4:11.1 5:-24.13 6:-4.92 7:-22.83 8:-6.58 9:-3.03 10:-5.39 11:13.17 12:-8.62 
0.9017560156358421 0:24.72 1:-7.75 2:-2.05 3:4.27 4:4.62 5:-16.5 6:-6 7:-19.42 8:-0.19 9:-5.17 10:-10 11:-7.56 12:8.46 
0.902282710411868 0:24.7 1:-10.5 2:16.54 3:-0.94 4:3.68 5:-13.68 6:-29.04 7:-1 8:-14.65 9:-13.07 10:-11.43 11:-13.6 12:-14.84 
0.9018086593750988 0:23.99 1:-4.21 2:13.56 3:-17.74 4:-35.21 5:-7.23 6:-11.14 7:-1.96 8:2.4 9:-3.43 10:2.5 11:-1.65 12:-0.29 
0.9018728397675747 0:21.31 1:-13.69 2:8.92 3:7.76 4:-14.44 5:-4.2 6:2.38 7:-0.13 8:2.4 9:10.36 10:10.27 11:-6.1 12:3.59 
0.9019856411830394 0:24.57 1:-8.21 2:5.77 3:-17.27 4:-19.6 5:-13.91 6:-8.93 7:9.25 8:-29.63 9:-10.99 10:0.31 11:-0.01 12:-7.74 
0.9017956759373071 0:24.8 1:-5.51 2:-18.32 3:2.7 4:-4.89 5:-43.82 6:-20.65 7:-25.56 8:4.06 9:1.33 10:25.41 11:-11.15 12:-9.59 
0.9022959035754943 0:24.3 1:-6.27 2:9.93 3:-25.98 4:-12.21 5:-19.8 6:-12.63 7:-8.76 8:-25.79 9:4.94 10:-1.45 11:-8.67 12:-4.19 
0.8001622659379287 0:20.02 1:-4.79 2:6.86 3:2.1 4:-2.94 5:3.07 6:-9.5 7:9.56 8:-9.72 9:13.12 10:1.51 11:7.63 12:4.65 
0.9015250475424991 0:25.04 1:-17.07 2:13.86 3:9.55 4:-7.07 5:-16.39 6:-18.83 7:-27.47 8:-6.32 9:6.15 10:12.25 11:-3.27 12:6.76 
0.9016047091177628 0:21.6 1:-2.09 2:4.05 3:-4.24 4:9.72 5:-12.78 6:-1.33 7:-27.2 8:5.45 9:7.06 10:1.96 11:-13.85 12:-2.97 
0.9019858835915244 0:22.24 1:-11.32 2:5.93 3:-7.85 4:2 5:-23 6:-15.37 7:-17.73 8:10.99 9:-11.64 10:6.38 11:2.22 12:1.71 
0.9018086527962935 0:26.46 1:-20.82 2:8.85 3:-2.72 4:-11.84 5:-1.39 6:-19.01 7:-16.65 8:-8.94 9:-0.91 10:1.5 11:14.05 12:-18.61 
0.7453618619794385 0:20.09 1:-3.98 2:2.21 3:-0.42 4:-1.65 5:-2.22 6:-2.15 7:1.18 8:-0.81 9:-0.82 10:-3.38 11:-2.3 12:-2.36 
0.901368707184407 0:20.11 1:-5.11 2:5.26 3:5.07 4:-1.07 5:-5.21 6:-9.56 7:8.65 8:-9.86 9:0.93 10:12.83 11:8.3 12:2.49 
0.9019316962059204 0:24.44 1:-9.87 2:6.42 3:5.88 4:-10.26 5:-36.79 6:-16.69 7:-33.9 8:17.16 9:-4.89 10:5.7 11:19.06 12:-9.19 
0.901830622535113 0:24.74 1:-8.02 2:-8.5 3:1.83 4:-5.85 5:-17.47 6:-28.54 7:-15.16 8:0.77 9:2.24 10:11.47 11:-4.84 12:-20.37 
0.902297864267622 0:23.96 1:-12.15 2:-4.44 3:13.26 4:7.72 5:-37.46 6:-20.12 7:-19.27 8:-14.24 9:-10.34 10:-6.66 11:30.13 12:-16.5 
0.894276601472201 0:21.23 1:-7.74 2:8.25 3:-8.63 4:4.84 5:-12.46 6:-0.52 7:-10.23 8:4.97 9:-2.95 10:2.43 11:0.48 12:-1.19 
0.9018148388959104 0:23.12 1:-10.62 2:11.59 3:1.02 4:9.17 5:-26.5 6:-2.68 7:-20.76 8:10.2 9:-15.85 10:10.28 11:-7.37 12:3.7 
0.9015643460700565 0:24.05 1:-5.97 2:-2.54 3:-23.97 4:-3.62 5:-7.76 6:0.41 7:-16.62 8:2.17 9:0.86 10:10.04 11:-10.47 12:-6.75 
0.901565471811419 0:24.13 1:-7.15 2:-2.02 3:-11.35 4:-16.16 5:-36.32 6:0.98 7:-5.18 8:-20.4 9:-1.56 10:-7.23 11:-1.05 12:-8.51 
0.9015514137031189 0:22.56 1:-9.84 2:16 3:-18.51 4:5.96 5:-13.33 6:5.73 7:4.73 8:5.02 9:1.89 10:9.4 11:0.55 12:-1.97 
0.9022938059627957 0:25.65 1:-17.86 2:8.01 3:3.15 4:-3.34 5:-24.89 6:-7.63 7:-6.77 8:-17.28 9:12.05 10:7.26 11:-5.33 12:-1.7 
0.9017362960744192 0:26.41 1:-21.9 2:15.05 3:2.19 4:-21.8 5:-10.79 6:-10.76 7:-7 8:-6.66 9:13.37 10:3.75 11:-11.81 12:14.75 
0.9018049199597917 0:25.6 1:-19.96 2:15.62 3:1.08 4:-1.39 5:-11.7 6:-25.03 7:-29.16 8:4.77 9:-2.1 10:5.98 11:-15.38 12:7 
0.9015158947772807 0:23.16 1:-11.23 2:16.48 3:-22.48 4:-1.39 5:-12.1 6:-6.54 7:-3.17 8:-0.08 9:-4.93 10:6.43 11:-6.15 12:6.33 
0.902026526328252 0:24.62 1:-10.6 2:14.07 3:-12.44 4:-16.36 5:-0.61 6:-1.86 7:-29.38 8:-4.25 9:-5.59 10:-3.74 11:2.8 12:5.41 
0.9011117355053926 0:25.28 1:-10.12 2:3.02 3:-12.23 4:1.83 5:-5.96 6:-3.52 7:-21.61 8:-7.8 9:1.12 10:1.08 11:-14.25 12:-1.5 
0.901476641071785 0:24.62 1:-9.29 2:10.51 3:-11.52 4:-8.88 5:-27.75 6:-12.7 7:-15.71 8:-4.45 9:-6.79 10:23.1 11:4.76 12:-12.56 
0.9020937612516781 0:24.44 1:-8.2 2:-0.58 3:-6.52 4:4.51 5:-4.7 6:-26.63 7:-22.77 8:-9.21 9:-1.71 10:4.85 11:-10.26 12:-12.64 
0.8970561353695861 0:22.7 1:-20.44 2:11.87 3:11.93 4:-2.69 5:-15.32 6:-1.94 7:4.64 8:-19.37 9:17.38 10:1 11:6.75 12:11.36 
0.9018481394055365 0:21.76 1:-12.52 2:14.28 3:-2.08 4:-11.68 5:3.19 6:-9.64 7:10.92 8:-3.73 9:12.08 10:-5.29 11:3.05 12:1.49 
0.9019858835745341 0:25.61 1:-19.27 2:2.48 3:-2.5 4:-7.52 5:-2.37 6:-11.69 7:-11.38 8:3.36 9:-13.01 10:4.97 11:11.48 12:-4.42 
0.9014402685820022 0:24.5 1:-9.92 2:8.39 3:-26.35 4:-24.91 5:-4.21 6:-17.91 7:-13.92 8:-1.75 9:13.92 10:-10.35 11:10.55 12:-22.04 
0.9022298044532827 0:24.21 1:1.05 2:-10.39 3:-39.01 4:-9.82 5:-8.34 6:-31.02 7:-8.63 8:-8.15 9:-6.98 10:9.8 11:-4.24 12:-15.9 
0.9015099226970025 0:24.94 1:-12.46 2:8.03 3:-35.89 4:-22.12 5:-0.98 6:-22.64 7:-5.38 8:1.57 9:5.9 10:3.02 11:2 12:-15.74 
0.9019851546296714 0:23.13 1:3.76 2:-1.06 3:12.88 4:-11.26 5:-38.68 6:-11.24 7:-23.41 8:11.53 9:-27.98 10:-10.17 11:30.7 12:-3.4 
0.9020488730615757 0:23.85 1:-2.23 2:-12 3:-15.42 4:9.83 5:-36.66 6:-3.98 7:-44.92 8:-5.41 9:10.65 10:-2.27 11:11.01 12:-17.28 
0.901756035498202 0:25.06 1:-20.49 2:-10.04 3:-13.9 4:-8.71 5:-42.15 6:-9.77 7:-7.94 8:-0.54 9:10.6 10:-8.73 11:-24.84 12:-9.51 
0.9015069601215091 0:24.78 1:-21.42 2:-7.27 3:-34.02 4:-22.16 5:-13.13 6:-11.86 7:-2.02 8:-10.27 9:-5.89 10:-5.25 11:-4.37 12:-25.38 
0.902098568033596 0:24.16 1:-14.31 2:14.34 3:-12.33 4:5.42 5:-17.68 6:-7.59 7:-17.57 8:15.24 9:-16.27 10:9.99 11:6.61 12:2.75 
0.8925406406090174 0:20.86 1:-10.1 2:7.19 3:-2.28 4:4.9 5:-4.07 6:2.08 7:-7.69 8:2.04 9:-11.44 10:1.08 11:-5.6 12:3.28 
0.902297864267773 0:24.97 1:-14.18 2:3.41 3:5.34 4:-10.01 5:-48.63 6:4.58 7:-1.4 8:-6.97 9:10.28 10:-18.84 11:-0.71 12:-8.86 
0.901565111289316 0:24.04 1:-8.23 2:15 3:3.48 4:-15.11 5:-13.23 6:-27.76 7:-6.3 8:2.49 9:-8.37 10:-1.86 11:3.03 12:-5.49 
0.9017169572229426 0:22.25 1:-19.48 2:10.42 3:10.33 4:3.3 5:-10.71 6:-2.25 7:9.8 8:-15.88 9:16.21 10:-0.82 11:2.36 12:1.69 
0.9018477204389136 0:21.59 1:-9.37 2:3.4 3:-13.31 4:-4.88 5:-12.7 6:5.8 7:-18.56 8:-0.54 9:-3.57 10:2.12 11:-11.63 12:-6.27 
0.9021570055378684 0:24.19 1:-10.25 2:14.11 3:-18.42 4:-22.69 5:-6.34 6:-13.99 7:-19.06 8:11.19 9:-5.54 10:10.7 11:-2.05 12:-12.15 
0.9015113917972656 0:23.9 1:-4.56 2:9.32 3:-20.05 4:-40.82 5:-1.2 6:-10.01 7:-11.73 8:-2.94 9:5.68 10:-2.75 11:8.05 12:-2.31 
0.901169377991295 0:20.98 1:-8.82 2:-0.77 3:-5.27 4:-3.53 5:-15.59 6:-9.18 7:-8.42 8:-7.83 9:-6.13 10:3.68 11:2.38 12:1.84 
0.9018778462565764 0:26.48 1:-25.51 2:8.16 3:-2.36 4:-13.59 5:-14.77 6:-22.94 7:-21.1 8:-4.68 9:12.55 10:0.43 11:2.5 12:-15.52 
0.9015053634126059 0:22.05 1:-12.69 2:15.11 3:-6.8 4:-4.67 5:8.81 6:-15.98 7:10.44 8:-9.93 9:19.85 10:-1.61 11:4.53 12:8.17 
0.9021532812923656 0:23.99 1:-8.29 2:-1.2 3:-27.83 4:-37.03 5:-1.9 6:1.33 7:-7.46 8:-16.19 9:-4.7 10:-0.67 11:15.47 12:-9.15 
0.9018407399548929 0:24.3 1:-1.86 2:-2.03 3:-3.05 4:-29.35 5:-21.51 6:-5.97 7:-25.04 8:-17.95 9:17.8 10:-7.03 11:-4.89 12:-6.07 
0.9015250356724704 0:22.94 1:-18.57 2:15.35 3:0.1 4:-2.23 5:-15.31 6:-2.51 7:17.58 8:-14.72 9:15.62 10:4.62 11:-4.91 12:-5.61 
0.9018049287485829 0:25.46 1:-16.41 2:-7.51 3:-14.2 4:13.42 5:-8.75 6:-13.25 7:-17.72 8:12.19 9:-8.38 10:-7.94 11:18.24 12:-6.95 
0.9018406828022359 0:25.64 1:-11.64 2:16.02 3:-9.5 4:-20.88 5:-12.47 6:-22.12 7:-12.91 8:2.18 9:-0.43 10:-14.16 11:1.65 12:-7.67 
0.9016511880594197 0:24.11 1:-6.71 2:11.84 3:-18.5 4:-26.81 5:-18.31 6:-12.9 7:-18.57 8:6.19 9:-5.41 10:14.15 11:-12.27 12:-0.77 
0.901808506291403 0:20.16 1:-3.12 2:2.61 3:8.32 4:-2.2 5:-6.72 6:-11.93 7:8.92 8:-15.89 9:7.9 10:6.44 11:7.64 12:5.97 
0.9022298044523673 0:23.32 1:7.97 2:-18.37 3:-5.11 4:0.41 5:-29.61 6:4.11 7:-30.93 8:-21.16 9:3.35 10:5.79 11:5.11 12:-19.51 
0.9021512205520883 0:25.48 1:-23.64 2:12.12 3:-5.02 4:10.74 5:-9.98 6:-2.81 7:0.7 8:1.92 9:-7.23 10:-0.99 11:-1.16 12:-0.58 
0.9016584866778077 0:21.63 1:-5.78 2:13.79 3:-13.06 4:2.89 5:-18.37 6:2.14 7:2.63 8:6.65 9:4.54 10:-3.99 11:2.12 12:-2.3 
0.901829259739369 0:23.89 1:-5.61 2:6.95 3:-11.86 4:-26.39 5:-21.13 6:-1.88 7:1.37 8:-17.89 9:-15.93 10:33.89 11:-13.43 12:-0.85 
0.9019560699712569 0:23.67 1:-22.27 2:19.92 3:5.68 4:-6.16 5:-2.64 6:-15.6 7:8.38 8:-17.04 9:7.44 10:10.12 11:-4.64 12:7.59 
0.9018034455364268 0:24.54 1:-19.3 2:-28.01 3:-25.45 4:-11.54 5:-38.51 6:-8.09 7:-6.18 8:-21.28 9:2.58 10:-10.22 11:-1.5 12:-5.85 
0.9017560155762296 0:24.01 1:-12.7 2:8.95 3:-7.21 4:-17.93 5:-15.52 6:-20.81 7:-13.26 8:13.63 9:16.98 10:-8.5 11:-4.18 12:5.24 
0.9018117969905993 0:23.16 1:0.53 2:-0.97 3:1.81 4:-10.63 5:-25.75 6:5.73 7:-12.99 8:-5.31 9:-34.65 10:-6.44 11:2.94 12:14.7 
0.9014042534023216 0:24.6 1:-9.62 2:5.48 3:-32.28 4:-13.4 5:-26.01 6:-3.99 7:-13.91 8:-15.7 9:4.89 10:-1.79 11:2.23 12:-4.56 
0.9021520835853651 0:23.29 1:-6.4 2:14.04 3:-21.03 4:1.38 5:-27.21 6:6.24 7:-16.01 8:-1.02 9:-0.7 10:10.63 11:8 12:-5.18 
0.901795869383807 0:24.52 1:-8.62 2:9.94 3:-3.02 4:-7.94 5:-18.05 6:-16.04 7:-11.64 8:-24.61 9:15.98 10:-4.09 11:-7.48 12:-7.26 
0.9016751156088221 0:25.01 1:-12.39 2:1.64 3:-21.64 4:-10.78 5:-33.92 6:-16.41 7:-0.86 8:-32.04 9:8.66 10:-4.61 11:-3.08 12:-9.59 
0.9018086751048343 0:22.08 1:-17.24 2:18.75 3:-3.54 4:-6.55 5:-0.69 6:-7.53 7:2.58 8:3.74 9:15.79 10:1.62 11:3.12 12:8.16 
0.9018382822542799 0:23.68 1:-1.17 2:-6.33 3:22.56 4:-23.61 5:-54.15 6:-9.74 7:-7.13 8:-9.74 9:-10.21 10:-20.45 11:0.19 12:-5.82 
0.9014745336639172 0:22.04 1:-15.14 2:12.64 3:-1.66 4:11.64 5:-11.41 6:2.47 7:16.22 8:-15.34 9:10.04 10:0.65 11:-1.21 12:-2.59 
0.9020909818916811 0:24.64 1:-17.95 2:-29.76 3:-25.58 4:-9.87 5:-34.76 6:-12.24 7:-14.37 8:-6.04 9:-5.03 10:-9.6 11:-2.59 12:-12.78 
0.9018411582936914 0:25.61 1:-15.88 2:6.37 3:-36.24 4:-27.93 5:-9.28 6:-24.82 7:-4.46 8:-13.42 9:5.2 10:2.73 11:-4.08 12:-14.27 
0.9021208683062576 0:25.08 1:-16.87 2:13.67 3:11.67 4:-6.4 5:-15.52 6:-40.97 7:-16.7 8:-7.35 9:6.53 10:7.95 11:1.67 12:-10.73 
0.9018023951483541 0:22.85 1:1.68 2:-10.59 3:-0.1 4:-16.88 5:-24.14 6:-18.72 7:-21.75 8:15.75 9:-5.56 10:-8.81 11:2.74 12:6.26 
0.9019316950775064 0:22.72 1:8.07 2:-2.13 3:-0.16 4:-20.91 5:-23.91 6:-16.64 7:-17.6 8:4.1 9:-16.7 10:4.03 11:6.63 12:1.34 
0.9019858836068877 0:24.5 1:-4.82 2:14.72 3:-22.97 4:-3.53 5:-10.48 6:-9.09 7:-21.24 8:-6.28 9:10.15 10:-27.95 11:10.85 12:4.01 
0.9014555981736965 0:22.35 1:-16.11 2:18.22 3:-10.6 4:4.44 5:1.47 6:-17.08 7:15.97 8:-6.79 9:4.68 10:7.77 11:7.46 12:-5.35 
0.9016846415032689 0:23.57 1:-12.43 2:4.55 3:-4.02 4:-22.47 5:-18.73 6:-10.78 7:-7.85 8:-19.71 9:-3.68 10:-0.08 11:2.52 12:-5.95 
0.9022262368683671 0:23.82 1:4.82 2:-4.14 3:-8.79 4:-21.91 5:-10.12 6:-13.51 7:-12.5 8:-1.74 9:2.54 10:-2.64 11:-3.41 12:-5.89 
0.9015022879328529 0:25.69 1:-16.26 2:14.49 3:-7.7 4:-29.18 5:-2.12 6:-4.06 7:-31.78 8:-1.26 9:24.11 10:-7.89 11:-7.57 12:-16.1 
0.9016616126509929 0:24.53 1:-10.46 2:7.87 3:-1.16 4:-16.44 5:-22.39 6:-31.44 7:-15.69 8:-1.85 9:9.49 10:-5.7 11:-7.04 12:1.93 
0.9021570055643294 0:24.26 1:-7.3 2:-2.55 3:-14.62 4:1.32 5:11.41 6:4.83 7:-11.38 8:5.57 9:-0.15 10:3.76 11:-21.11 12:13.17 
0.9020038899962103 0:24.92 1:-14.44 2:2.1 3:-10.19 4:-15.44 5:-22.17 6:-14.57 7:-1.42 8:-15.09 9:0.65 10:3.05 11:-17.57 12:-11.84 
0.901675081767693 0:26.26 1:-14.19 2:11.68 3:-35.43 4:3.29 5:-21.33 6:-19.06 7:-19.73 8:-3.16 9:0.57 10:-1.99 11:-4.49 12:-6.9 
0.8942506092664111 0:19.93 1:-4.72 2:0.57 3:3.2 4:-0.27 5:3.36 6:0.93 7:0.54 8:-1.84 9:-4.41 10:-6.63 11:-3.96 12:-4.38 
0.9011029590055772 0:24.54 1:-11.94 2:2.57 3:-0.97 4:-16.2 5:-19.83 6:-17.18 7:-13.88 8:-7.84 9:12.39 10:-4.22 11:-17.65 12:3.33 
0.9016751352157196 0:24.31 1:-13.86 2:7.07 3:-1.85 4:-10.69 5:-25.76 6:-34.47 7:-20.77 8:8.45 9:13.58 10:0.59 11:-15.7 12:5.54 
0.9015385525794624 0:25.29 1:-10.73 2:9.02 3:-19.77 4:4.38 5:-21.74 6:-5.8 7:1.19 8:-7.83 9:2.17 10:0.78 11:-21.63 12:-1.99 
0.9021332134894814 0:22.85 1:-20.99 2:12.96 3:7.24 4:5.16 5:-18.6 6:-3.6 7:18.96 8:-17.98 9:10.5 10:9.18 11:4.8 12:-5.08 
0.9014884913518878 0:26.73 1:-14.18 2:14.65 3:-14.67 4:10.23 5:-17.56 6:-4.1 7:-25.56 8:-15.99 9:-0.7 10:10.04 11:-0.73 12:0.05 
0.9015449868459656 0:24.89 1:-10.15 2:11.12 3:-22.11 4:-24.1 5:-10.64 6:-17.06 7:-23.84 8:-4.8 9:5.3 10:-7.08 11:0.67 12:-15.07 
0.9018407399530768 0:24.67 1:-17.77 2:-19.59 3:-10.21 4:-16 5:-30.55 6:-3.07 7:-4.67 8:-9.81 9:-0.41 10:-2.37 11:-23.7 12:-7.92 
0.9018049284718931 0:26.12 1:-20.2 2:-1.65 3:-11.88 4:14.46 5:-17.79 6:-23.71 7:-26 8:-2.74 9:-0.12 10:9.13 11:13.23 12:-12.04 
0.8889690139633618 0:20.31 1:-6.1 2:2.88 3:-5.56 4:1.27 5:-5.79 6:-0.24 7:-6.4 8:-2.88 9:-5.42 10:3.45 11:1.23 12:-3.17 
0.9018557876175529 0:22.71 1:-9.77 2:4.18 3:-20.83 4:-1.53 5:-19.85 6:-0.83 7:-10.32 8:-5.6 9:-4.54 10:5.54 11:4.17 12:-3.2 
0.9017937853504486 0:25.02 1:-16.32 2:5.9 3:-2.43 4:-13.77 5:-18.08 6:-25.1 7:-22.26 8:8.99 9:1.09 10:-0.39 11:-5.22 12:9.11 
0.9021570055124437 0:26.36 1:-18.58 2:12.16 3:-17.99 4:-5.31 5:-22.67 6:-17.01 7:-20.2 8:-8.86 9:-1.66 10:4.45 11:3.43 12:-19.72 
0.9018719313364552 0:25.33 1:-19.73 2:-0.7 3:-35.71 4:-23.39 5:-13.37 6:-18.7 7:-3.47 8:-8.73 9:5.61 10:-5.43 11:-15.17 12:-18.35 
0.901373739087203 0:23.18 1:3.26 2:3.53 3:-4.76 4:-22.2 5:-10.96 6:-16.59 7:-10.65 8:-31.6 9:-11.47 10:-2.75 11:15.82 12:-7.4 
0.9019311861859667 0:23.61 1:-3.52 2:7.48 3:-24.86 4:-30.45 5:-8.55 6:-9.71 7:1.05 8:-0.65 9:-1.58 10:-10.87 11:-5.32 12:1.36 
0.9017169230273814 0:20.26 1:-6.3 2:0.26 3:-3.96 4:-6.48 5:-9.11 6:-5.17 7:-10.82 8:-6.21 9:-8.34 10:-4.4 11:-0.87 12:-1.13 
0.9018382842843536 0:25.32 1:-15.96 2:1.51 3:-9.19 4:6.77 5:-17.98 6:-9.63 7:-32.08 8:3.83 9:2.12 10:-5.35 11:10.98 12:-12.67 
0.8983321273355982 0:21.3 1:-10.51 2:5.45 3:-4.93 4:0.44 5:-14.43 6:-5.86 7:-15.53 8:2.59 9:-11.62 10:5.19 11:-4.66 12:2.07 
0.9018515621675682 0:19.93 1:-3.69 2:7.23 3:2.64 4:2.4 5:-5.05 6:-5.57 7:1.34 8:-11.89 9:8.37 10:-1.34 11:8.78 12:3.35 
0.9022347686316383 0:24.32 1:-5.46 2:-5.67 3:-5.71 4:-9.47 5:-31.69 6:-3.3 7:-15.72 8:-1.06 9:-3.84 10:15.2 11:-9.65 12:-4.07 
0.9018221846644973 0:24.56 1:-7.58 2:-14.19 3:-2.81 4:-24.15 5:-21.3 6:-4.13 7:-15.61 8:-4.66 9:8.32 10:-13.42 11:7.58 12:-11.53 
0.9016070531685818 0:24.05 1:-7.49 2:5.83 3:-19.92 4:-14.39 5:-10.8 6:-18.76 7:-6 8:-6.64 9:-0.21 10:-4.34 11:-5.83 12:4.51 
0.901642645305462 0:25.74 1:-14.38 2:18.12 3:-16.44 4:-8.82 5:-29.67 6:1.5 7:-13.96 8:-7.49 9:-12.19 10:-1.22 11:2.14 12:-3.73 
0.9007015874240401 0:21.67 1:-8.41 2:0.55 3:-13.07 4:-8.43 5:-23.42 6:-2.37 7:-17.82 8:4.73 9:-3.03 10:12.48 11:0.62 12:-3.06 
0.9019853978912722 0:24.26 1:-5.75 2:-3.03 3:12.87 4:-1.48 5:-33.88 6:-17.87 7:-11.17 8:4.87 9:-9.47 10:-19.05 11:9.35 12:-8.95 
0.9018426935645562 0:24.04 1:-6.55 2:5.38 3:-19.87 4:-20.48 5:-11.99 6:-11.54 7:-9.99 8:-1.95 9:1.44 10:-6.92 11:3.3 12:-8.99 
0.9018514257452859 0:25.45 1:-17.42 2:10.62 3:3.29 4:-21.05 5:-14.25 6:-32.97 7:-22.31 8:-4.61 9:8.95 10:-7.75 11:15.65 12:-14.55 
0.9015645374748199 0:22.81 1:-18.9 2:16.98 3:1.61 4:-5.63 5:3.15 6:-11.74 7:12.36 8:-12.2 9:26.27 10:-1.78 11:-7.67 12:7.38 
0.9018260270888456 0:24.46 1:-8.66 2:13.89 3:-12.07 4:-21.25 5:-7.84 6:-20.09 7:-0.56 8:1.28 9:-1.73 10:9.61 11:4.75 12:-1.8 
0.9013956457464725 0:22.98 1:3.5 2:-7.41 3:-6.66 4:-18.09 5:-37.31 6:-21.9 7:-0.19 8:-11.84 9:-9.96 10:7.6 11:-5.28 12:-5.76 
0.8999997431838945 0:21.59 1:-13.59 2:4.66 3:-5.91 4:1.79 5:-18.73 6:2.64 7:-18.14 8:3.17 9:-7.27 10:0.7 11:0.02 12:-1.88 
0.9022125909177326 0:22.88 1:-16.37 2:16.96 3:-4.69 4:6.21 5:-10.56 6:-16.42 7:22.34 8:-20.65 9:23.28 10:-4.23 11:13.4 12:-2.91 
0.9016580512016796 0:24.63 1:-11.25 2:4.23 3:-9.29 4:-29.48 5:0.61 6:-19.23 7:-19.85 8:-15.41 9:-7.23 10:9.5 11:11.69 12:-24.72 
0.9017956760259976 0:20.46 1:0.99 2:15.67 3:-5.37 4:-5.06 5:-20.3 6:-2.06 7:10.58 8:-8.36 9:-6.28 10:4.77 11:4.69 12:6.23 
0.8293036191559326 0:20.78 1:-7.48 2:4.78 3:-0.53 4:5.71 5:-9.2 6:6.16 7:-10.4 8:5.96 9:-9.39 10:3.12 11:-6.89 12:1.34 
0.9018090757761363 0:23.89 1:-9.97 2:8.79 3:-17.65 4:-47.38 5:-10.19 6:21.46 7:-22.69 8:-19.43 9:3.08 10:2.06 11:5.91 12:-12.75 
0.9022125909358847 0:24.78 1:-20.06 2:-10.38 3:-9.52 4:-24.05 5:-14.72 6:-28.64 7:19.73 8:-15.24 9:-3.04 10:-5.21 11:-13.32 12:-7.51 
0.9018860637672524 0:24.84 1:-11.24 2:3.25 3:-27.44 4:-31.28 5:-10.38 6:-8.85 7:-7.57 8:-8.1 9:12.33 10:-1.49 11:7.26 12:-1.57 
0.9015447399623644 0:24.08 1:-5.13 2:4.63 3:-13.36 4:-18.33 5:-2.28 6:-22.6 7:-21.26 8:8.45 9:2.66 10:1.95 11:-4.55 12:-11.7 
0.901658552411896 0:25.45 1:-12.44 2:4.75 3:-20.3 4:0.11 5:-19.05 6:-6.45 7:-6.74 8:-2.69 9:7.52 10:-15.78 11:12.19 12:-8.54 
0.9015388328301471 0:24.76 1:-11.72 2:6.5 3:1.56 4:-11.55 5:-17.26 6:-21.98 7:-21.31 8:2.43 9:-7 10:9.57 11:-3.95 12:-0.71 
0.9018838102437732 0:25.85 1:-19.34 2:8.12 3:-8.79 4:-12.69 5:-5.13 6:-24.13 7:-19.5 8:-14.8 9:13.27 10:1.94 11:-0.01 12:-29.45 
0.9023212467560097 0:24.78 1:-12.61 2:8.03 3:-0.42 4:1.16 5:-36.49 6:-6.03 7:-11.36 8:-22.84 9:9.28 10:-10.69 11:-0.26 12:-4.39 
0.9022231644808106 0:23.99 1:-2.65 2:6.74 3:-13.75 4:-44.33 5:3.11 6:4.08 7:-25.79 8:-5.93 9:29.21 10:-0.98 11:13.59 12:-14.63 
0.9019373208680121 0:21.43 1:-4.16 2:8.57 3:-12.68 4:-8.33 5:-6.54 6:-0.71 7:-0.12 8:8.16 9:-3.96 10:10.59 11:-9.8 12:0.3 
0.9021784393086323 0:24.85 1:-10.77 2:6.98 3:-0.7 4:7.96 5:-23.91 6:-8.73 7:-30.37 8:-9.12 9:2.19 10:-1.95 11:11.13 12:2.84 
0.9019849103467787 0:26.04 1:-18.34 2:17.87 3:-8.44 4:-25.75 5:-10.33 6:-34.7 7:-7.55 8:-4.92 9:2.16 10:3.39 11:9.58 12:-21.39 
0.9013947993094042 0:25.28 1:-10.04 2:19.44 3:-15.41 4:0.95 5:-16.13 6:-10.13 7:-3.85 8:-1.03 9:0.48 10:-0.89 11:-16.2 12:8.27 
0.9014745264128718 0:24.47 1:-5.61 2:9.88 3:-20.22 4:-19.16 5:-9.89 6:-15.32 7:-9.93 8:9.92 9:10.18 10:-9.33 11:-0.68 12:6.35 
0.9018778376587585 0:24.5 1:-10.84 2:7.77 3:-11.21 4:-18.6 5:-3.02 6:-9.93 7:-19.55 8:7.67 9:-4.06 10:16.12 11:-1.98 12:0.28 
0.9016081726170474 0:24.65 1:-12.03 2:7.28 3:-18.16 4:-31.2 5:-3 6:-3.2 7:-7.68 8:-16.15 9:0.71 10:2.52 11:17.56 12:-6.32 
0.9018048961447566 0:25.86 1:-20.24 2:16.08 3:1.23 4:-20.36 5:-8.05 6:-37.43 7:-4.35 8:-8.21 9:-10.46 10:5.1 11:5.56 12:-10.38 
0.8957370497322495 0:21.62 1:-10.61 2:2.84 3:-10.14 4:4.94 5:-20.67 6:2.69 7:-9.36 8:0.9 9:-5.05 10:4.66 11:-5.93 12:0.25 
0.8983935664668905 0:21.2 1:-8.82 2:1.94 3:-8.69 4:1.6 5:-12.64 6:-4.63 7:-9.88 8:3.89 9:-8.02 10:7.87 11:-8.44 12:-1.71 
0.9018889702788913 0:26.03 1:-17.47 2:11.39 3:-26.04 4:-8.75 5:-18.6 6:-19.04 7:-9.19 8:-14.29 9:-10.5 10:9.8 11:2.09 12:-9.14 
0.9018174078424525 0:25.31 1:-13.6 2:-4.79 3:11.54 4:14.09 5:-38.9 6:-13.28 7:-22.77 8:-31.33 9:2.58 10:-14.26 11:-12.97 12:3.02 
0.9015253783461676 0:24.33 1:-21.06 2:-25.46 3:-17.36 4:-18.78 5:-16.33 6:-17.83 7:-13.15 8:4.04 9:-6.45 10:-9.43 11:-5.36 12:-20.95 
0.9021546309544448 0:23.16 1:-14.48 2:4.15 3:10.87 4:-4.44 5:-29.7 6:-11.12 7:-14.43 8:-18.37 9:9.89 10:-2.76 11:-4.94 12:-5.23 
0.9009622007686053 0:25.04 1:-14.95 2:4.89 3:-15.87 4:-30.31 5:-3.31 6:1.29 7:-17.07 8:-16.95 9:6.31 10:-4.63 11:20.2 12:-14.01 
0.9013715340599133 0:23.36 1:-4.75 2:7.34 3:-15.38 4:-19.34 5:-8.8 6:-13.11 7:-12.48 8:0.91 9:10.75 10:-7.53 11:3.31 12:3.76 
0.9015118921004244 0:23.6 1:-4.51 2:12.22 3:-16.1 4:-28.15 5:-7.68 6:-25.35 7:-15.1 8:-26.82 9:5.87 10:-1.89 11:2.89 12:-4.49 
0.9013711797163263 0:21.37 1:-11.01 2:20.63 3:-11.33 4:5.1 5:3.39 6:-14.08 7:17.77 8:-7.43 9:14.63 10:5.13 11:2.94 12:2.42 
0.9018033006403325 0:22.73 1:-13.55 2:10.87 3:-20.28 4:-2.41 5:-17.91 6:-10.53 7:-12.98 8:1.07 9:-5.48 10:3.29 11:2.32 12:-1.26 
0.9019373199956852 0:21.44 1:-3.79 2:12.83 3:-20.66 4:1.11 5:-9.42 6:5.15 7:7.89 8:-7.99 9:3.9 10:7.15 11:7.79 12:-1.17 
0.9014853056337511 0:24.6 1:-10.3 2:8.84 3:-14.29 4:-21.63 5:-14.06 6:-14 7:6.15 8:-5.61 9:-7.08 10:5.71 11:-9.37 12:5.04 
0.9018041807619895 0:25.17 1:-13.11 2:9.2 3:-6.38 4:-17.5 5:-25.13 6:-4.26 7:-9.89 8:-9.15 9:6.85 10:-2.42 11:-4.25 12:16.21 
0.9019256611008948 0:26.53 1:-25.73 2:25.72 3:-11.29 4:11.07 5:-21.73 6:-18.97 7:-16.5 8:-14.92 9:-5.32 10:2.08 11:-1.26 12:-6.07 
0.9018527502918711 0:21.26 1:-14.6 2:11.63 3:2.65 4:4.29 5:-3.22 6:2.19 7:10.68 8:-16.01 9:19.24 10:-3.52 11:0.51 12:8.83 
0.901341118852193 0:22.67 1:5.54 2:-6.24 3:-18.06 4:-2.78 5:-25.69 6:-29.39 7:-3.68 8:-12.4 9:4.31 10:-3.26 11:6.81 12:-0.17 
0.9018090816021607 0:21.38 1:-6.94 2:4.09 3:-22.13 4:-10.43 5:-18.39 6:5.1 7:-2.06 8:0.05 9:-5.89 10:-4 11:1.21 12:-2.12 
0.8918865514774814 0:24.35 1:-13.98 2:9.21 3:-7.3 4:-20.13 5:-20.82 6:-25.14 7:-23.95 8:8.16 9:10.27 10:-4.43 11:-20.67 12:-0.78 
0.9018232228403968 0:22.48 1:-15.28 2:22.38 3:-5.9 4:1.36 5:0.35 6:-18.32 7:19.7 8:-19.14 9:18.35 10:1.71 11:-1.05 12:5.8 
0.9021532402134509 0:21.86 1:-9.09 2:12.79 3:-14.79 4:-4.96 5:-8.66 6:0.57 7:12.7 8:4.71 9:-0.34 10:4.34 11:-1.1 12:-2.13 
0.9018090855967311 0:24.63 1:-10.06 2:-1.85 3:-11.46 4:8.9 5:-32.79 6:0.65 7:-13.52 8:-10.31 9:18.94 10:1.15 11:-11.2 12:-22.81 
0.9017407372266845 0:24.35 1:-7.09 2:2.32 3:-12.75 4:-16.64 5:-21.86 6:-1.12 7:-6.62 8:-10.06 9:16.94 10:-13.81 11:-23.32 12:18.17 
0.9018499587074663 0:22.06 1:-14.49 2:16.66 3:1.47 4:7.03 5:-17.57 6:0.87 7:11.27 8:-25.34 9:22.05 10:-6.52 11:-2.8 12:2.04 
0.9017560154748853 0:22.48 1:-12.63 2:11.33 3:-6.01 4:-9.79 5:-0.04 6:-13.23 7:4.85 8:-1 9:5.23 10:3.45 11:-8.34 12:-5.95 
0.9013318625752696 0:23.37 1:-17.77 2:17.61 3:-3.8 4:7.18 5:-19.43 6:-8.99 7:10.35 8:-22.87 9:19.61 10:4.74 11:-5.04 12:-3.63 
0.9018053138716308 0:26.13 1:-18.58 2:-1.25 3:-20.93 4:-27.8 5:-18.95 6:-35.41 7:-21.44 8:-5.94 9:0.33 10:-10.14 11:-8.27 12:-18.06 
0.9022125751376635 0:24.57 1:-10.76 2:1.13 3:-19.39 4:-22.63 5:-4.66 6:-16.12 7:-9.82 8:5.9 9:-6.38 10:8.99 11:-4.15 12:-6.15 
0.9021208684047315 0:24.16 1:-6.97 2:6.3 3:-20.02 4:12.09 5:-20.06 6:-1.52 7:-16.43 8:-10.19 9:-7.36 10:14.62 11:-4.77 12:-4.62 
0.9022978642604034 0:23.42 1:-18.8 2:20.36 3:-0.97 4:4.05 5:-17.94 6:-11.25 7:10.01 8:-24.97 9:24.47 10:-7.87 11:11.11 12:2.92 
0.8896546326335537 0:21.05 1:-10.24 2:4.64 3:-2.54 4:8.92 5:-4.34 6:6.35 7:-10.82 8:0.57 9:-12.73 10:0.97 11:-5.07 12:0.18 
0.9018488135747443 0:26.27 1:-17.41 2:6.68 3:-2.08 4:9.65 5:-19.48 6:-7.26 7:-27.02 8:3.43 9:4.33 10:-12.54 11:6.29 12:-1.83 
0.9017683710920114 0:25.73 1:-19.19 2:14.42 3:-13.71 4:-5.11 5:-28.3 6:-14.3 7:-10.51 8:-4.99 9:3.32 10:-0.91 11:-3.75 12:-16.85 
0.9014952361269161 0:25.02 1:-12.96 2:5.59 3:-8.5 4:10.73 5:-30.56 6:-14.16 7:-14.25 8:-0.78 9:1.98 10:0.82 11:6.27 12:2.89 
0.9008073835190958 0:20.84 1:-4.8 2:-1.34 3:-2.54 4:0.26 5:-3.99 6:-3.7 7:-7.32 8:-2.79 9:-0.67 10:-0.97 11:0.32 12:2.26 
0.9016846041183204 0:25.03 1:-12.24 2:0.44 3:-13.86 4:-32.32 5:-3.73 6:-25.85 7:-12.65 8:-8.86 9:3.18 10:5.11 11:1.91 12:-22.78 
0.9018286044618513 0:24 1:-10.13 2:-7.22 3:11.24 4:2.84 5:-36.82 6:-32.83 7:5.05 8:-13.63 9:-22.3 10:-15.83 11:10.92 12:-7.32 
0.9019858840470816 0:22.26 1:-19.42 2:15.95 3:1.24 4:-3.81 5:8.68 6:-9.07 7:12.97 8:2.11 9:2.09 10:15.2 11:-8.36 12:11.01 
0.9017962784165537 0:22.41 1:-13.52 2:20.36 3:-10.04 4:7.71 5:-6.7 6:-15.63 7:12.55 8:-11.1 9:14.23 10:-3.27 11:4.45 12:-2.04 
0.9016071478116525 0:22.57 1:-10.17 2:5.42 3:-6.81 4:0.39 5:-21.66 6:14 7:-16.91 8:5.45 9:-6.49 10:9.58 11:4.14 12:-3.27 
0.9020038906821335 0:26.12 1:-31.99 2:21.17 3:9.23 4:3.32 5:-32.32 6:-15.49 7:-25.61 8:0.59 9:8.64 10:0.32 11:7.41 12:-6.77 
0.9019232367384563 0:26.39 1:-28.13 2:21.24 3:-6.17 4:-5.2 5:-17.75 6:-37.2 7:-28.58 8:4.6 9:-0.84 10:1.22 11:4.86 12:-9.07 
0.9016615466082664 0:25.89 1:-21.72 2:13.68 3:6.09 4:-5.82 5:-24.93 6:-33.16 7:-12.97 8:-14.23 9:-0.12 10:-4.05 11:-10.19 12:-5.41 
0.9018701660746342 0:25.35 1:-13.64 2:11.95 3:-13.05 4:-18.76 5:-17.42 6:-7.07 7:-17.94 8:-3.72 9:21.38 10:-16.24 11:-8 12:14.84 
0.9018891580594344 0:25.34 1:-15.75 2:5.24 3:-14.09 4:-14.15 5:13.25 6:-16.54 7:-9.74 8:-7.45 9:3.15 10:-0.69 11:5.51 12:-10.32 
0.9019316949467966 0:24.85 1:-16.06 2:2.61 3:-6.28 4:-11.43 5:-14.42 6:-9.36 7:-0.08 8:-0.91 9:1.7 10:-1.99 11:-5.35 12:-7.75 
0.9018411190887505 0:23.82 1:-0.31 2:0.3 3:-19.55 4:-30.45 5:4.02 6:-11.24 7:-17.18 8:4.36 9:-8 10:12.18 11:2.33 12:-3.29 
0.9016433481294964 0:24.17 1:-10.39 2:14.44 3:-19.13 4:-17.77 5:0.66 6:-26.38 7:-11.58 8:2.94 9:-3.13 10:7.49 11:-7.48 12:1.31 
0.9013482711939875 0:23.65 1:6 2:3.58 3:-19.23 4:-18.96 5:-21.75 6:-7.84 7:-15.82 8:-16.11 9:2.29 10:0.81 11:8.69 12:-4.91 
0.9018404350289643 0:25.49 1:-19.38 2:10.78 3:10.37 4:-9.62 5:-18 6:-27.1 7:-18 8:0.67 9:10.39 10:10.07 11:-10.07 12:-2.16 
0.9020038464518118 0:24.32 1:-5.51 2:4.87 3:-20.43 4:-19.94 5:-18.53 6:-13.32 7:-26.34 8:-14.89 9:12.63 10:-6.75 11:4.49 12:-6.79 
0.9013591851500726 0:25.21 1:-16.12 2:10.49 3:-23.61 4:-43.56 5:0.41 6:-4.35 7:-11.92 8:-6.22 9:0.36 10:-4.86 11:14.65 12:-14.62 
0.9015095663626186 0:24.33 1:-4.5 2:-1.08 3:-15.86 4:-7.09 5:-8.6 6:-4.12 7:-16.7 8:2.64 9:4.25 10:-5.63 11:-14.98 12:3.06 
0.9019607254777837 0:25.47 1:-9.69 2:12.32 3:-12.08 4:23.4 5:-9.97 6:-14.6 7:-13.36 8:-7.05 9:-18.16 10:-10.57 11:7.24 12:4.43 
0.90199189989413 0:25.27 1:-16.89 2:-9.25 3:-11.37 4:-12.99 5:-3.87 6:-15.26 7:-6.8 8:-17.17 9:14.08 10:-23.56 11:11.86 12:-15.99 
0.9015437335041099 0:25.94 1:-19.67 2:1.08 3:-11.39 4:-15.85 5:-5.88 6:-21.66 7:-12.22 8:-6.91 9:11.63 10:-2.76 11:12.8 12:-25.51 
0.901564920375552 0:20.07 1:-4.2 2:6.07 3:12.08 4:6.74 5:-6.72 6:-1.75 7:-7.58 8:-1.36 9:-7.03 10:9.61 11:2.34 12:-1.94 
0.9013564548178283 0:23.31 1:-3.34 2:-5.94 3:-4.03 4:-12.62 5:-27.34 6:-22.09 7:-18.03 8:-9.96 9:-7.06 10:-2.38 11:13.46 12:-7.13 
0.9022978642591942 0:24.14 1:-5.68 2:0.16 3:-19.07 4:-12.29 5:-10.13 6:-21.55 7:0.79 8:5.19 9:-12.13 10:-2.3 11:-9.97 12:6.78 
0.9018866863900902 0:24.26 1:-13.32 2:10.06 3:5.46 4:-22.33 5:-23.26 6:-11.44 7:-11.39 8:4.77 9:19.81 10:-11.23 11:5.96 12:-2.53 
0.9015058423077783 0:22.5 1:-17.73 2:10.67 3:2.11 4:-2.53 5:-10.96 6:1.52 7:19.18 8:-13.82 9:14.42 10:-3.69 11:-1.59 12:0.79 
0.9022378509856162 0:24.81 1:-15.7 2:-9.44 3:1.98 4:0.24 5:-13.46 6:-23.69 7:-9.66 8:11.9 9:-0.99 10:-11.3 11:-7.58 12:-26.6 
0.901954926565705 0:24.02 1:-12.17 2:11.27 3:-14.12 4:2.86 5:-22.75 6:-4.91 7:-2.47 8:0.06 9:-6.24 10:-7.67 11:6.3 12:-4.66 
0.9015108163210459 0:21.82 1:-7.67 2:-9.07 3:-10.39 4:1.54 5:-8.39 6:-2.2 7:-15.44 8:2.99 9:4.24 10:3.17 11:-18.27 12:-5.24 
