svm_type nu_svc
kernel_type sigmoid
gamma 0.0833333
coef0 0
nr_class 2
total_sv 1502
rho -1
label 1 -1
probA -1.09574e-07
probB 0.00237583
nr_sv 751 751
SV
-1.037079904441769 0:25.4 1:-14.56 2:11.61 3:-12.67 4:-17.17 5:-12.11 6:-20.73 7:-10.29 8:10.52 9:-7.44 10:6.93 11:-11.17 12:-0.97 
-1.037079904441769 0:25.75 1:-17.53 2:13.14 3:-1.32 4:-14.62 5:-11.41 6:-31.46 7:-17.99 8:2.73 9:4.7 10:8.66 11:-7.67 12:-8.25 
-1.037079904441769 0:21.24 1:-7.05 2:7.24 3:-12.24 4:3.64 5:-11.77 6:1.01 7:-0.84 8:-1.81 9:4.39 10:-1.28 11:1.9 12:-7.14 
-1.037079904441769 0:25.92 1:-19.46 2:7.56 3:-6.03 4:-12.7 5:1.22 6:-19.13 7:-19.88 8:-18.73 9:10.39 10:4.94 11:-1.15 12:-18.08 
-1.037079904441769 0:25.5 1:-15.18 2:9.89 3:-6.35 4:-7.21 5:-32.61 6:-21.88 7:-8.12 8:-20.09 9:3.15 10:3.39 11:-12.53 12:-10.51 
-1.037079904441769 0:23.55 1:-8.54 2:7.74 3:-18.68 4:-13.46 5:-7.33 6:-13.24 7:0.8 8:0.74 9:-1.18 10:-6.24 11:5.43 12:6.52 
-1.037079904441769 0:24.22 1:-5.97 2:6.64 3:-4.8 4:-2.47 5:-30.13 6:0.15 7:-21.84 8:4.19 9:-13.28 10:1.85 11:-0.46 12:4.46 
-1.037079904441769 0:23 1:-3.3 2:17.18 3:-9.35 4:-27.28 5:-18.54 6:-8.75 7:-4.15 8:-3.12 9:-4.19 10:-4.36 11:4.99 12:5.79 
-1.037079904441769 0:22.79 1:-12.71 2:17.94 3:-7.99 4:-2.38 5:-6.52 6:-23.97 7:13.73 8:-11.2 9:1.35 10:8.23 11:2.78 12:4.57 
-1.037079904441769 0:23.59 1:-17.49 2:24.52 3:-13.14 4:-3.93 5:-1.17 6:-17.68 7:9.55 8:-5.1 9:13.91 10:-3.01 11:2.83 12:-8.99 
-1.037079904441769 0:24.2 1:-9.5 2:15.7 3:-19.86 4:-29.08 5:-6.56 6:-16.53 7:-1.92 8:8.94 9:-18.1 10:6.85 11:-6.08 12:1.92 
-1.037079904441769 0:23.76 1:-8.73 2:8.97 3:-23.87 4:-23.22 5:-4.45 6:-24.62 7:-1.81 8:-10.8 9:12.25 10:-0.03 11:-7.15 12:4.2 
-1.037079904441769 0:19.95 1:-3.41 2:0.85 3:3.16 4:-1.19 5:-2.96 6:-2.27 7:-0.93 8:-3.67 9:-1.71 10:-2.64 11:-1.16 12:-1.07 
-1.037079904441769 0:24.78 1:-10.01 2:10.91 3:-22.04 4:-5.88 5:-20.88 6:-18.76 7:-3.37 8:-19.09 9:0.29 10:-5.6 11:5.89 12:-14.34 
-1.037079904441769 0:22.05 1:-17.52 2:11.5 3:-1.6 4:0.05 5:3.29 6:-6.39 7:16.56 8:-4.31 9:12.26 10:-1.4 11:-4.77 12:6.23 
-1.037079904441769 0:24.98 1:-14.08 2:7.51 3:-10.41 4:-11.68 5:5.12 6:-15.33 7:-16.43 8:-0.35 9:-5.2 10:6.52 11:3.77 12:-5.17 
-1.037079904441769 0:26.1 1:-23.49 2:17.79 3:1.01 4:10.48 5:-29.27 6:-22.15 7:-29.21 8:0.9 9:-6.17 10:-2.14 11:-0.94 12:-3.57 
-1.037079904441769 0:22.9 1:-11.69 2:13.07 3:-12.38 4:8.55 5:-21.16 6:-2.85 7:-0.51 8:-9.68 9:10.24 10:-1.05 11:-8.08 12:9.43 
-1.037079904441769 0:24.36 1:-16.98 2:-25.04 3:-22.74 4:-22.38 5:-35.1 6:3.18 7:-15.19 8:-13.94 9:-4.01 10:-4.48 11:-2.54 12:-18.62 
-1.037079904441769 0:23.96 1:-4.43 2:4.12 3:-17.62 4:-4.9 5:-13.68 6:-27.14 7:9.53 8:-13.77 9:-2.56 10:15.67 11:-5.77 12:-7.61 
-1.037079904441769 0:25.82 1:-11.82 2:-6.79 3:-24.53 4:-23 5:-12.82 6:-36.43 7:-8.63 8:-9.3 9:-3.51 10:-11.19 11:-2.98 12:-20.52 
-1.037079904441769 0:23.98 1:-12.66 2:-25.98 3:-36.75 4:-16.82 5:-30.94 6:0.06 7:-2.72 8:-12.78 9:-0.61 10:-3.5 11:-2.57 12:-17.6 
-1.037079904441769 0:23.47 1:-9.48 2:10.84 3:-22.18 4:-24.29 5:-9.35 6:-19.08 7:-14.32 8:-3.19 9:5.41 10:9.52 11:-11.08 12:0.31 
-1.037079904441769 0:22.92 1:-16.66 2:6.95 3:5.02 4:-20.03 5:-8.31 6:5.06 7:0.33 8:-7.85 9:20.27 10:-5.47 11:-2.72 12:-4.17 
-1.037079904441769 0:26.78 1:-20.4 2:15.31 3:-1.21 4:13.17 5:-36.4 6:-15.68 7:-18.18 8:-10.11 9:3.45 10:-7.11 11:1.27 12:-17.25 
-1.037079904441769 0:21.2 1:-5.08 2:1.71 3:-7.53 4:-11.81 5:-23.96 6:-1.88 7:-13.84 8:7.59 9:-1.77 10:12.29 11:-1.19 12:-1.99 
-1.037079904441769 0:24.64 1:-7.61 2:2.38 3:-15.24 4:-5.48 5:-41.85 6:18.32 7:-11.89 8:-1.78 9:-9.42 10:4.57 11:4.25 12:0.31 
-1.037079904441769 0:22.78 1:-15.77 2:18.03 3:-7.5 4:5.04 5:-0.05 6:-14.96 7:15.26 8:-8.61 9:10.28 10:8.9 11:-5.35 12:-3.04 
-1.037079904441769 0:26.1 1:-17.66 2:10.66 3:-0.52 4:-14.22 5:-13.52 6:-33.81 7:-10.35 8:-18.16 9:18.91 10:3.4 11:0.59 12:-6.21 
-1.037079904441769 0:24.69 1:-13.56 2:-0.55 3:-4.68 4:-18.99 5:-24.6 6:-6.92 7:-7.76 8:7.94 9:-6.39 10:-0.18 11:-4.68 12:2.81 
-1.037079904441769 0:25.5 1:-12.69 2:17.67 3:-32.22 4:-13.56 5:-20.36 6:-4.41 7:-11.06 8:-7.78 9:11.48 10:-15.8 11:6.37 12:-0.39 
-1.037079904441769 0:24.32 1:-10.8 2:3.7 3:-16.61 4:-24.02 5:-10.64 6:-29.72 7:-14.99 8:6.75 9:-8.3 10:9.64 11:-11.88 12:-1.72 
-1.037079904441769 0:25.02 1:-13.7 2:7.49 3:-3.7 4:-25.46 5:-12.2 6:-18.38 7:-16.35 8:-1.09 9:8.25 10:-3.35 11:-7.14 12:11.21 
-1.037079904441769 0:26.23 1:-19.07 2:0.64 3:-12.6 4:-22.25 5:-18.28 6:-38.83 7:-0.62 8:-13.6 9:-4.03 10:-3.74 11:-5 12:-13.63 
-1.037079904441769 0:21.68 1:-12.99 2:18.18 3:-10.71 4:-1.14 5:2.4 6:-11.01 7:18.43 8:-0.65 9:13.25 10:2.49 11:-7.55 12:9.9 
-1.037079904441769 0:25.51 1:-18.79 2:11.26 3:9.34 4:-7.58 5:-19.15 6:-20.52 7:-12.77 8:0.92 9:9.31 10:9.89 11:-8.05 12:4.21 
-1.037079904441769 0:24.45 1:-10.48 2:2.74 3:-11.81 4:-31.54 5:-6.6 6:-13 7:-5.63 8:1.81 9:0.12 10:-8.43 11:10.76 12:0.81 
-1.037079904441769 0:24.45 1:-7.51 2:2.53 3:-17.34 4:-20.03 5:-20.45 6:-10.37 7:-12.99 8:1.9 9:-14.44 10:3.05 11:-9.9 12:3.48 
-1.037079904441769 0:22.47 1:7.92 2:-5.86 3:-1.49 4:-26.58 5:-21.35 6:-5.47 7:3.26 8:-2.9 9:-27.97 10:-5.85 11:3.04 12:11.47 
-1.037079904441769 0:24.45 1:-4.66 2:6.76 3:-14.02 4:-29.38 5:0.05 6:-11.5 7:-23.42 8:-11.7 9:24.42 10:-0.54 11:4.8 12:-6.63 
-1.037079904441769 0:24.74 1:-19.74 2:-29.54 3:-15.59 4:-19.67 5:-39.7 6:-13.93 7:-7.43 8:-1.63 9:-3.19 10:-4.92 11:-8.63 12:-13.59 
-1.037079904441769 0:24.8 1:-13.72 2:9.03 3:-14.57 4:-41.25 5:-6.7 6:3.6 7:-21.57 8:-11.32 9:-2.27 10:-6.95 11:11.59 12:-2.49 
-1.037079904441769 0:21.49 1:-11.13 2:8.01 3:-13.93 4:4.84 5:-15.8 6:-1.93 7:-4.26 8:-2.94 9:-0.99 10:-2.05 11:-1.44 12:1.68 
-1.037079904441769 0:24.39 1:-10.49 2:9.7 3:-29.36 4:-37.52 5:-3.45 6:-1.62 7:-6.97 8:-21.39 9:11.83 10:-6.52 11:10.27 12:-0.45 
-1.037079904441769 0:24.02 1:-10.06 2:4.28 3:-9.67 4:-22.63 5:-11.04 6:-17.27 7:-15.13 8:-11.12 9:7.32 10:-4.55 11:5.98 12:-4.07 
-1.037079904441769 0:24.36 1:-11.61 2:1.97 3:-10.73 4:-21.26 5:-17.62 6:-9.83 7:-11.52 8:-4.6 9:2.79 10:-7.32 11:-7.22 12:5.6 
-1.037079904441769 0:24.54 1:-5.24 2:8.04 3:-3.52 4:-21.38 5:-9.72 6:-12.78 7:-22.26 8:11.71 9:-9.7 10:11.16 11:13.23 12:-6.39 
-1.037079904441769 0:25.94 1:-18.64 2:7.37 3:-0.01 4:-6.26 5:-31.98 6:-19.04 7:5.21 8:-20.89 9:7.14 10:7.27 11:-12.92 12:-15.88 
-1.037079904441769 0:24.83 1:-12.68 2:-7.14 3:-10.62 4:8.91 5:-22.11 6:-22.82 7:-26.45 8:-6.73 9:10.36 10:7.63 11:-4.31 12:-8.74 
-1.037079904441769 0:24.97 1:-12.55 2:14.9 3:-30.02 4:-15.05 5:-22.13 6:-3.57 7:-1.4 8:-14.52 9:8.31 10:-11.14 11:10.92 12:0.15 
-1.037079904441769 0:25.22 1:-16.67 2:10.75 3:7.88 4:-19.58 5:-19.82 6:-13.99 7:-10.36 8:-8.16 9:8.31 10:-1.24 11:1.33 12:4.64 
-1.037079904441769 0:22.51 1:-18.55 2:13.1 3:-2.71 4:-0.61 5:-8.28 6:-1.06 7:12.54 8:-1.64 9:-3.16 10:7.04 11:-7.48 12:8.77 
-1.037079904441769 0:22.69 1:-24.41 2:11.34 3:15.75 4:-9.84 5:4.81 6:0.03 7:1.64 8:-1.1 9:6.62 10:0.66 11:5.34 12:3.35 
-1.037079904441769 0:22.84 1:0.35 2:-4.32 3:-1.49 4:-12.55 5:-19.18 6:-7.87 7:-14.99 8:3.64 9:-6.83 10:-11.44 11:19.11 12:-4.8 
-1.037079904441769 0:23.8 1:-8.04 2:13.38 3:-20.95 4:-28.52 5:5.79 6:-18.02 7:-1.77 8:-9.16 9:1.27 10:3.63 11:7.72 12:-1.7 
-1.037079904441769 0:23.01 1:1.82 2:8.12 3:-13.82 4:-7.74 5:-7.84 6:-21.38 7:-19.54 8:-3.67 9:-12 10:-0.95 11:1.62 12:-8.4 
-1.037079904441769 0:24.07 1:-10.64 2:11.21 3:-18.54 4:-39.48 5:-1.46 6:-7.61 7:-18.58 8:11.31 9:-6.95 10:7.18 11:3.99 12:-2.3 
-1.037079904441769 0:20.26 1:-5.37 2:2.6 3:9.77 4:-5.46 5:-0.19 6:-9.71 7:11.28 8:-11.33 9:9.52 10:1.13 11:7.07 12:-0.75 
-1.037079904441769 0:21.74 1:-12.99 2:4.74 3:-2.2 4:1.88 5:0.88 6:-5.99 7:16.18 8:-14.31 9:14.29 10:1.81 11:-14.03 12:8.03 
-1.037079904441769 0:23.43 1:-15.19 2:17.92 3:-5.83 4:-1.92 5:9.11 6:-19.87 7:23.76 8:-25.26 9:16.3 10:-3.96 11:-2.26 12:17.68 
-1.037079904441769 0:25.84 1:-23.44 2:3.27 3:-21.33 4:-2.34 5:-12.47 6:-15.66 7:-25.73 8:10.7 9:-10.81 10:-1.11 11:3.25 12:-19.52 
-1.037079904441769 0:24.84 1:-13 2:1.92 3:-6.95 4:-22.32 5:8.65 6:-25.11 7:-7.64 8:-8.69 9:15.28 10:3.92 11:-1.88 12:-8.19 
-1.037079904441769 0:21.89 1:-15.72 2:12.88 3:-1.84 4:3.29 5:6.12 6:-4.09 7:17.8 8:-15.59 9:24.98 10:-7.93 11:-1.74 12:14.92 
-1.037079904441769 0:24.57 1:-11.06 2:2.2 3:-12.52 4:-26.56 5:-21.44 6:-33.83 7:-7.91 8:-12.78 9:-2.01 10:2.65 11:2.16 12:-15.01 
-1.037079904441769 0:25.12 1:-13.89 2:7.58 3:-2.35 4:-23.75 5:-6.13 6:-18.82 7:-21.96 8:-10.75 9:-4.27 10:10.04 11:9.09 12:-23.84 
-1.037079904441769 0:21.37 1:-13.29 2:13.68 3:-4.05 4:-4.89 5:4.21 6:-9.34 7:14.93 8:-6.38 9:14.22 10:-0.72 11:8 12:1.14 
-1.037079904441769 0:25.22 1:-15.86 2:-8.96 3:-10.18 4:-20.5 5:3.43 6:-20.16 7:-2.51 8:-9.01 9:10.54 10:-4.69 11:-1.85 12:-0.41 
-1.037079904441769 0:20.58 1:-4.14 2:-0.82 3:7.39 4:-4.13 5:-16.3 6:-2.4 7:-3.22 8:-5.51 9:-4.18 10:5.73 11:5.99 12:0.76 
-1.037079904441769 0:23.93 1:-4.02 2:-7.78 3:-9.3 4:1.64 5:-18.37 6:-5.18 7:-21.36 8:-7.14 9:6.16 10:-6.09 11:5.53 12:-12.15 
-1.037079904441769 0:24.03 1:-12.63 2:-5.6 3:-14.29 4:-14.26 5:-25.13 6:-17.03 7:2.85 8:-27.48 9:16.38 10:-6.34 11:-7.1 12:-8.54 
-1.037079904441769 0:25.38 1:-17.41 2:1.31 3:-27.32 4:-8.74 5:-30.85 6:-26.59 7:3.7 8:-19.12 9:-0.56 10:5.53 11:-15.08 12:-7.51 
-1.037079904441769 0:24.36 1:-12.64 2:-2.46 3:-12.96 4:-7.52 5:-31.55 6:-25.69 7:-4.43 8:-14.74 9:4.2 10:-15.44 11:-11.82 12:1.34 
-1.037079904441769 0:25.1 1:-14.38 2:-7.46 3:-18.81 4:12.53 5:-17.96 6:-5.5 7:-21.62 8:21.21 9:9.27 10:-14.48 11:6.23 12:-17.14 
-1.037079904441769 0:21.76 1:-11.45 2:16.24 3:-7.65 4:-14.69 5:7.39 6:-13.14 7:13.92 8:-0.39 9:13.23 10:-4.87 11:7.57 12:-7.48 
-1.037079904441769 0:21.73 1:-10.34 2:16.48 3:-7.61 4:3.54 5:-0.3 6:-8.88 7:12.9 8:-7.76 9:12.42 10:-1.54 11:3.65 12:-7.16 
-1.037079904441769 0:24.09 1:-4.71 2:-11.72 3:-11.18 4:-0.88 5:-10.02 6:-3.23 7:-24.95 8:7.29 9:4.99 10:8.45 11:-15.05 12:-7.13 
-1.037079904441769 0:23.19 1:1.75 2:-8.44 3:-2.07 4:-24.08 5:-21.83 6:-13.05 7:-9.73 8:9.57 9:-20.16 10:9.92 11:7.95 12:0.02 
-1.037079904441769 0:24.68 1:-9.89 2:3.96 3:-16.27 4:-6.93 5:-14.98 6:-35.1 7:-16.25 8:-9.84 9:26.1 10:3.19 11:-10.52 12:2.35 
-1.037079904441769 0:24.71 1:-10.69 2:6.28 3:-15.28 4:3.59 5:-28.81 6:-17.85 7:-15.47 8:-20.04 9:12.88 10:-1.1 11:-0.94 12:-4.63 
-1.037079904441769 0:22.17 1:4.08 2:-5.99 3:2.15 4:-15.7 5:-23.27 6:-18.85 7:-21.82 8:10.59 9:-20.63 10:9.66 11:-2.4 12:2.4 
-1.037079904441769 0:24.45 1:-7.48 2:10.04 3:-8.82 4:-17.78 5:3.06 6:-9.09 7:-21.5 8:-1.84 9:-11.6 10:5.04 11:8.44 12:-2.46 
-1.037079904441769 0:24.65 1:-5.91 2:-4.54 3:-17.26 4:-19.44 5:1.53 6:-15.12 7:-24.28 8:2.66 9:-7.96 10:3.18 11:4.05 12:2.65 
-1.037079904441769 0:25.03 1:-11.97 2:10.9 3:-6.29 4:-19.94 5:-19.78 6:3.86 7:-21.01 8:-1.73 9:15.26 10:-4.42 11:4.71 12:1.62 
-1.037079904441769 0:24.38 1:-12.59 2:3.1 3:-3.77 4:-25.12 5:-12.82 6:-19.17 7:-16.67 8:1.97 9:9.05 10:6.56 11:-8.16 12:1.38 
-1.037079904441769 0:21.3 1:-8.72 2:15.76 3:-9.66 4:2.07 5:7.81 6:-22.61 7:18.03 8:-2.23 9:8.85 10:2.96 11:-1.79 12:0.95 
-1.037079904441769 0:24.22 1:-8.36 2:-0.68 3:-0.4 4:-18.82 5:-3.89 6:-30.9 7:-11.67 8:-14.12 9:7.17 10:6.51 11:9.91 12:-11.79 
-1.037079904441769 0:24.7 1:-12.51 2:3.38 3:-11.16 4:-24.08 5:-24.53 6:-8.68 7:-12.79 8:3.64 9:-3.3 10:-0.31 11:-12.9 12:5.65 
-1.037079904441769 0:24.58 1:-10.85 2:11.28 3:-18.79 4:-12.56 5:-9.8 6:-15.43 7:-21.8 8:20.09 9:-8.51 10:1.13 11:3.59 12:-2.23 
-1.037079904441769 0:23.53 1:-8.02 2:2.59 3:-1.35 4:-15.06 5:-31.09 6:0.48 7:-14.9 8:-11.16 9:-25.91 10:-0.78 11:24.7 12:-3.44 
-1.037079904441769 0:22.34 1:-0.31 2:-9.04 3:6.6 4:1.65 5:-12.53 6:-13.53 7:-25.78 8:-4.15 9:-18.58 10:4.4 11:2.08 12:9.15 
-1.037079904441769 0:25.24 1:-15.81 2:15.32 3:3.94 4:-4.12 5:-11.36 6:-19.98 7:-21.21 8:-12.68 9:-1.48 10:2.18 11:-0.33 12:1.85 
-1.037079904441769 0:24.39 1:-7.52 2:-3.8 3:-1.99 4:6.06 5:-38.92 6:-18.98 7:-2.21 8:-4.18 9:-8.09 10:26.15 11:-4.04 12:-15.11 
-1.037079904441769 0:24.43 1:-7.5 2:7.82 3:0.28 4:-8.41 5:-12.87 6:-26.55 7:-10.98 8:-14.19 9:-2.68 10:11.39 11:-6.87 12:15.31 
-1.037079904441769 0:26.3 1:-19.19 2:13.05 3:-8.81 4:-21.3 5:-10.21 6:-32.37 7:-7.62 8:-2.15 9:-12.4 10:2.24 11:6.95 12:-5.74 
-1.037079904441769 0:22.63 1:-7.19 2:12.83 3:-17.91 4:1.67 5:-14.99 6:-13.43 7:-2.82 8:-0.86 9:-5.58 10:-0.07 11:-10.17 12:6.55 
-1.037079904441769 0:20.82 1:-5.5 2:1.96 3:0.26 4:1.31 5:-19.23 6:-4.93 7:-1.61 8:-1.43 9:-5.93 10:4.48 11:8.63 12:-2.18 
-1.037079904441769 0:24.9 1:-10.97 2:6.12 3:-22.72 4:-10.77 5:-12.91 6:-29.68 7:-8.91 8:-21.57 9:28.92 10:4.57 11:-16.53 12:3.33 
-1.037079904441769 0:21.11 1:-12.27 2:13.7 3:-3.93 4:0.63 5:7.7 6:-9.31 7:12.97 8:-1.72 9:9.79 10:8.68 11:-2.95 12:8.42 
-1.037079904441769 0:21.36 1:-12.56 2:17.46 3:-10.36 4:1.98 5:-0.37 6:-10.17 7:10.36 8:3.01 9:7.95 10:8.09 11:-0.23 12:6.19 
-1.037079904441769 0:20.92 1:-10.27 2:1.46 3:-6.88 4:1.25 5:-19.86 6:-2.44 7:-6.19 8:-6.37 9:-4.24 10:1.95 11:-0.84 12:-1.58 
-1.037079904441769 0:21.53 1:-9.42 2:19.49 3:-12.07 4:9.98 5:0.03 6:-13.77 7:19.28 8:-14.52 9:17.63 10:-9.3 11:5.93 12:-6.25 
-1.037079904441769 0:22.5 1:-14.35 2:6.42 3:-12.26 4:5.98 5:-22.41 6:4.72 7:-13.04 8:-1.59 9:-4.37 10:2.15 11:-6.53 12:-0.28 
-1.037079904441769 0:20.76 1:-6.19 2:14.3 3:-3.44 4:-0.24 5:3.54 6:-16.24 7:12.73 8:-4.12 9:12.59 10:2.34 11:0.7 12:0.11 
-1.037079904441769 0:24.66 1:-8.41 2:4.22 3:3.61 4:-0.57 5:-32.36 6:-10.21 7:1.67 8:-15.41 9:0.81 10:-6.64 11:-7.2 12:3.7 
-0.5185399522208844 0:23.9 1:-4.14 2:11.91 3:-29.35 4:-19.86 5:-14.54 6:-19.46 7:-3.33 8:-1.56 9:-1.35 10:-0.66 11:-7.38 12:13.42 
-1.037079904441769 0:24.21 1:-1.72 2:-6.68 3:-12.54 4:4.15 5:-31.8 6:-34.44 7:-4.76 8:-10.05 9:3.7 10:21.42 11:-5.82 12:-13.24 
-1.037079904441769 0:23.28 1:-3.08 2:9.41 3:4.15 4:-7.93 5:-12.28 6:9.97 7:9.04 8:4.76 9:-28.25 10:-6.34 11:-0.67 12:4.35 
-1.037079904441769 0:26.49 1:-20.17 2:10.88 3:-4.3 4:11.01 5:-50.28 6:-8.25 7:-28.15 8:1.45 9:4.71 10:4.17 11:3.24 12:-18.67 
-1.037079904441769 0:24.59 1:-11.9 2:5.9 3:-7.55 4:-2.71 5:-18.92 6:-7.21 7:-14.73 8:-15.71 9:23.21 10:-7.47 11:-8.01 12:7.05 
-1.037079904441769 0:22.19 1:-15.79 2:17.19 3:-4.19 4:4.06 5:-3.38 6:-11.76 7:18.24 8:-12.36 9:12.1 10:-1.56 11:-3.71 12:5.44 
-1.037079904441769 0:23.93 1:-7.58 2:16.35 3:-31.52 4:-41.74 5:11.72 6:-0.57 7:-5.94 8:-18.53 9:11.62 10:-6.51 11:15.02 12:-6.93 
-1.037079904441769 0:24.97 1:-8.73 2:-9.86 3:12.31 4:-1.09 5:-19 6:-29.46 7:-28.17 8:-4.07 9:-3.71 10:-0.85 11:2.31 12:0.1 
-1.037079904441769 0:20.49 1:-6.24 2:3.96 3:6.13 4:-5.13 5:-2.02 6:-7.58 7:10.73 8:-14.3 9:1.79 10:5.81 11:2.62 12:4.39 
-1.037079904441769 0:25.5 1:-7.57 2:-11.98 3:3.74 4:3.09 5:-41.72 6:-7.15 7:-26.54 8:9.01 9:-2.52 10:18.72 11:-10.25 12:-19.21 
-1.037079904441769 0:24.49 1:-11.4 2:4.49 3:-21.27 4:-20.57 5:9.46 6:-2.17 7:-17.08 8:-12.39 9:21.11 10:-2.51 11:6.02 12:-5.85 
-1.037079904441769 0:26.07 1:-25.05 2:-6.88 3:0.03 4:-13.97 5:-48.36 6:-10.31 7:-10.12 8:5.32 9:2.93 10:-9.98 11:-18.17 12:-4.88 
-1.037079904441769 0:23.87 1:-13.78 2:-32.11 3:-15.06 4:-18.6 5:-38.27 6:-12.12 7:-8.99 8:-5.53 9:-13.04 10:-3.31 11:6.94 12:-6.81 
-1.037079904441769 0:22.58 1:2.2 2:-2.59 3:-1.4 4:-18.74 5:-20.42 6:-5.48 7:-10.85 8:-9.73 9:-5.62 10:1.75 11:6.22 12:-3.72 
-1.037079904441769 0:20.36 1:-6.58 2:9.76 3:-0.64 4:-4.04 5:4.54 6:-16.65 7:13.16 8:-10.01 9:10.54 10:3.65 11:8.7 12:4.17 
-1.037079904441769 0:25.94 1:-21.1 2:-7.94 3:-32.19 4:4.01 5:-48 6:-7.68 7:-1.53 8:-15.46 9:10.2 10:-10.57 11:-18.74 12:-8.72 
-1.037079904441769 0:23.42 1:-0.55 2:5.53 3:-8.31 4:-20.12 5:-7.31 6:-15.25 7:-22.88 8:4.47 9:-8.42 10:-3.68 11:2.81 12:13.12 
-1.037079904441769 0:23.58 1:-7.85 2:16.03 3:-16.85 4:10.33 5:-24.22 6:-4.17 7:-14.11 8:1.46 9:-2.58 10:-0.41 11:0.92 12:-1.64 
-1.037079904441769 0:22.17 1:-14.8 2:16.14 3:2.6 4:2.46 5:-9.54 6:-13.43 7:13.95 8:-17.55 9:16.06 10:-1.59 11:6.2 12:1.99 
-1.037079904441769 0:25.76 1:-17.57 2:18.66 3:-9.97 4:-35.12 5:-2.61 6:-12.57 7:-9.84 8:-11.77 9:17.12 10:7.55 11:7.85 12:-14.03 
-1.037079904441769 0:23.97 1:-5.7 2:-9.1 3:0.41 4:-3.54 5:-15.64 6:-11.32 7:-22.7 8:2.77 9:-3.43 10:-8.88 11:-8.41 12:-0.92 
-1.037079904441769 0:24.4 1:-9.1 2:4.02 3:-0.37 4:-13.34 5:-35.91 6:-3.8 7:-24.63 8:20.8 9:-15.11 10:-4.01 11:16.52 12:-12.85 
-1.037079904441769 0:25.57 1:-12.22 2:7.83 3:-17.8 4:-2.43 5:-51.16 6:15.26 7:-13.67 8:-13.24 9:0.81 10:9.66 11:0.98 12:2.11 
-1.037079904441769 0:25.39 1:-17.91 2:3.51 3:-4.07 4:-10.93 5:-9.11 6:-28.3 7:-18.91 8:-18.8 9:8.41 10:-3.59 11:12.39 12:-21.99 
-1.037079904441769 0:22.97 1:-12.14 2:14.94 3:-16.51 4:-7.34 5:-5.52 6:-12.33 7:6.95 8:-0.68 9:15.7 10:-0.37 11:3.79 12:-11.67 
-1.037079904441769 0:22.13 1:-9.43 2:-1.7 3:-8.72 4:5.56 5:-22.47 6:3.95 7:-17.13 8:-5.58 9:0.01 10:7.78 11:1.26 12:-5.36 
-1.037079904441769 0:24.49 1:-11.81 2:6.31 3:-0.12 4:-16.49 5:-18.58 6:-21.45 7:-25.6 8:7.66 9:21.72 10:-14.75 11:-6.58 12:6.06 
-1.037079904441769 0:23.87 1:-3.21 2:3.43 3:-28.9 4:-29.53 5:-3.85 6:-3.42 7:-25.39 8:-14.97 9:7.2 10:-5.58 11:12.22 12:-9.14 
-1.037079904441769 0:25.15 1:-13.87 2:2.58 3:-12.12 4:-26.07 5:1.07 6:-3.28 7:-17.07 8:-17.21 9:9.82 10:-3.77 11:19.51 12:-14.86 
-1.037079904441769 0:25.11 1:-7.65 2:-11.28 3:-6.53 4:8.12 5:-25.11 6:-8 7:-32.54 8:-16.11 9:18 10:-5.19 11:7.83 12:-7.38 
-1.037079904441769 0:24.64 1:-11.83 2:-2.38 3:-7.8 4:-6.67 5:-24.46 6:-15.88 7:11.3 8:-18.94 9:18.97 10:-5.53 11:-15.44 12:-18.42 
-1.037079904441769 0:24.47 1:-9.78 2:7.47 3:-10.23 4:-19.32 5:-11.49 6:-15.14 7:-13.68 8:-4.53 9:22.71 10:-15.89 11:-14.05 12:9.92 
-1.037079904441769 0:24.58 1:-6.21 2:7.98 3:-30.64 4:-12.73 5:-10.89 6:6.48 7:-22.54 8:6.18 9:-4.7 10:12.67 11:-16.34 12:-9.91 
-1.037079904441769 0:25.79 1:-15.28 2:-3.67 3:-35.15 4:-32.89 5:-12.34 6:-12.09 7:-10.67 8:-5.1 9:-8.73 10:-6.76 11:3.78 12:-17.72 
-1.037079904441769 0:22.12 1:-13.31 2:15.55 3:-2.12 4:13.16 5:-12.93 6:3.38 7:9.84 8:-19.09 9:12.92 10:-7.67 11:-0.01 12:-1.75 
-1.037079904441769 0:23.64 1:-3.59 2:-1.9 3:-16.38 4:-15.93 5:-15.74 6:-10.99 7:-18.32 8:-10.73 9:0.17 10:-15.9 11:10.23 12:-13.78 
-1.037079904441769 0:23.69 1:-3.61 2:5.17 3:-15.55 4:-2.2 5:-20.24 6:-9.44 7:-20.01 8:16.37 9:-12.47 10:8.98 11:4.46 12:-2.97 
-1.037079904441769 0:24.84 1:-14.63 2:-6.1 3:-15.01 4:-3.52 5:-20.5 6:-15.93 7:-30.96 8:6.36 9:0.02 10:-2.06 11:20.08 12:-18.54 
-1.037079904441769 0:25.44 1:-14.97 2:-5.27 3:1.62 4:10.27 5:-25.95 6:-23.52 7:-32.2 8:-11.25 9:0.07 10:-4.24 11:2.08 12:7.96 
-1.037079904441769 0:25.18 1:-19.15 2:-13.39 3:-30.95 4:1.61 5:-33.3 6:-16.04 7:-6.04 8:-19.76 9:-0.67 10:-6.96 11:-6.72 12:-6.67 
-1.037079904441769 0:23.92 1:-6.85 2:12.19 3:-22.8 4:-35.88 5:-13.84 6:-2.32 7:-14.81 8:14.87 9:-13.86 10:-6.54 11:3.52 12:5.15 
-1.037079904441769 0:21.09 1:-7.28 2:6.45 3:-8.6 4:8.71 5:-11.01 6:4.82 7:-8.83 8:-0.45 9:-5.71 10:-1.51 11:-1.8 12:-0.75 
-1.037079904441769 0:21.9 1:-10.38 2:13.03 3:-11.58 4:-8.12 5:-4.79 6:-9.35 7:10.68 8:-3.11 9:12.17 10:8.83 11:2.32 12:-7.44 
-1.037079904441769 0:23.64 1:6.72 2:-18.08 3:-5.77 4:8.56 5:-45.77 6:18.74 7:-37.67 8:-21.36 9:10.07 10:0.3 11:-18.54 12:-16.16 
-1.037079904441769 0:26.24 1:-18.58 2:14.79 3:-2.07 4:10.85 5:-32.43 6:-8.72 7:-32.5 8:-14.1 9:1.74 10:-1.47 11:4.36 12:-0.67 
-1.037079904441769 0:23.42 1:-3.92 2:2.15 3:-31.7 4:-29.04 5:-9.33 6:-1.34 7:-26.87 8:-16.5 9:15.91 10:-6.92 11:4.39 12:0.79 
-1.037079904441769 0:22.3 1:-17.55 2:16.46 3:-1.25 4:3.54 5:-2.48 6:-4.64 7:7.15 8:-17.57 9:17.89 10:-5.26 11:-4.05 12:8.94 
-1.037079904441769 0:24.93 1:-15.37 2:-14.19 3:-21.11 4:-11.88 5:-38.82 6:-3.15 7:-12.22 8:-9.72 9:1.05 10:-4.84 11:-10.53 12:-11.3 
-1.037079904441769 0:20.67 1:-7.04 2:6.65 3:-7.57 4:4.67 5:-10.38 6:2.81 7:-6.96 8:-0.13 9:-5.53 10:-0.37 11:2.34 12:1.5 
-1.037079904441769 0:26.12 1:-23.57 2:0.98 3:-5.52 4:9.53 5:-25.97 6:-16.99 7:-22.59 8:-1.32 9:11.48 10:6.71 11:-6.36 12:-22.71 
-1.037079904441769 0:24.59 1:-13.25 2:12.15 3:-13.17 4:-15.78 5:-4.89 6:-22.55 7:2.09 8:-0.7 9:0.18 10:-1.54 11:5.34 12:0.03 
-1.037079904441769 0:20.63 1:-3.11 2:-22.42 3:-1.21 4:-21.83 5:-25.48 6:-10.89 7:-7.27 8:-11.44 9:-8 10:-10.64 11:-4.65 12:-2.83 
-1.037079904441769 0:21.3 1:-5.14 2:7.64 3:-18.52 4:-9.76 5:-6.9 6:-3.17 7:8.87 8:-3.55 9:6.29 10:-3.72 11:2.64 12:-6.58 
-1.037079904441769 0:26.65 1:-20.4 2:6.51 3:-3.09 4:15.75 5:-37.72 6:-10.17 7:-27.96 8:-10.61 9:2.83 10:0.08 11:-1.16 12:-9.84 
-1.037079904441769 0:25.08 1:-14.96 2:15.31 3:-12.19 4:-12.63 5:3.93 6:-22.89 7:-10.49 8:-3.98 9:-0.62 10:14.68 11:6.81 12:1.35 
-1.037079904441769 0:24.24 1:-15.22 2:-22.65 3:-34.33 4:-24.14 5:-32.55 6:-6.13 7:-4.26 8:-13.82 9:-3.1 10:-10.71 11:3.6 12:-23.51 
-1.037079904441769 0:23.67 1:0.06 2:10.25 3:-13.32 4:-36.28 5:0.67 6:-2.94 7:-10.46 8:-13.21 9:-1.76 10:6.72 11:-3.94 12:4.47 
-1.037079904441769 0:25.6 1:-14.33 2:-5.52 3:16.73 4:14.09 5:-52.82 6:-36.97 7:-14.31 8:1.19 9:4.24 10:7.73 11:-14.8 12:-1.71 
-1.037079904441769 0:21.14 1:-8.86 2:8.89 3:0.61 4:-15.24 5:6.48 6:-9.8 7:13.23 8:1.19 9:14.26 10:-0.54 11:-1.57 12:3.54 
-1.037079904441769 0:22.47 1:-13.73 2:13.08 3:-3.43 4:-9.15 5:-1.22 6:-8.68 7:12.35 8:-5.93 9:23.61 10:-21.67 11:3.71 12:-1.48 
-1.037079904441769 0:23.87 1:-5.69 2:10.18 3:-24.03 4:-22.17 5:-1.41 6:-19.32 7:-1.06 8:-6.22 9:-1.11 10:-5.93 11:-6.49 12:4.93 
-1.037079904441769 0:24.57 1:-13.27 2:-20.83 3:-10.51 4:-18.84 5:-26.64 6:-7.59 7:-8.65 8:-3.39 9:-10.7 10:3.69 11:-4.78 12:-8.76 
-1.037079904441769 0:25.07 1:-9.45 2:2.78 3:-5.92 4:8.74 5:-26.51 6:-37.87 7:5.16 8:-13.14 9:-4.47 10:23.82 11:-11.28 12:-5.84 
-1.037079904441769 0:23.27 1:2.63 2:0.85 3:-35.22 4:-33.61 5:-6.57 6:-2.11 7:-8.36 8:-16.96 9:4.54 10:3.94 11:10.83 12:-12.19 
-1.037079904441769 0:24.89 1:-15.11 2:11.65 3:18.92 4:-5.11 5:-48.35 6:-9.29 7:-28.92 8:11.93 9:-1.43 10:-0.48 11:12.08 12:-15.59 
-1.037079904441769 0:25.32 1:-12.31 2:15.02 3:-36.5 4:4.63 5:-3.81 6:-24.61 7:-20.1 8:-1.96 9:10.08 10:-10.07 11:7.99 12:-7.18 
-1.037079904441769 0:23.69 1:-24.59 2:22.4 3:3.98 4:-11.94 5:5.76 6:-10.23 7:-1.36 8:-6.36 9:17.76 10:-12.11 11:16.56 12:-4.99 
-1.037079904441769 0:24.39 1:-8.95 2:4.66 3:-28.22 4:-4.65 5:-19.6 6:-21.73 7:-3.44 8:-20.08 9:29.29 10:-0.47 11:-15.76 12:4.09 
-1.037079904441769 0:25.31 1:-3.62 2:-17.25 3:11.53 4:0.49 5:-48.53 6:-1.03 7:-29.04 8:2.07 9:12.4 10:5.92 11:-5.78 12:-13.59 
-1.037079904441769 0:20.87 1:-10.83 2:1.72 3:-12.04 4:1.23 5:-11.77 6:3.75 7:-10.69 8:3.99 9:-8.69 10:3.55 11:-4.94 12:-0.33 
-1.037079904441769 0:24.56 1:-10.39 2:-26.45 3:-16.36 4:-16.38 5:-40.76 6:-14.22 7:-1.54 8:-7.76 9:-9.97 10:0.42 11:-9.74 12:-5.69 
-1.037079904441769 0:24.58 1:-16.99 2:-12.13 3:-15 4:-27.66 5:-30.65 6:-9.88 7:-10.7 8:-9.84 9:-6.02 10:1.61 11:-5.43 12:-7.62 
-1.037079904441769 0:21.93 1:-14.44 2:10.08 3:-6.95 4:-4.06 5:5.11 6:-5 7:6.67 8:-4.22 9:19.48 10:-8.07 11:7.87 12:-0.64 
-1.037079904441769 0:23.29 1:2.52 2:-12.71 3:-1.22 4:13.2 5:-48.24 6:-19.07 7:-7.34 8:-21.68 9:13.17 10:2.11 11:-3.24 12:-9.49 
-1.037079904441769 0:23.87 1:-7.16 2:-24.93 3:4.07 4:-30.21 5:-35.75 6:-7.59 7:-0.79 8:-17.23 9:-17.34 10:25.16 11:-6.36 12:-5.17 
-1.037079904441769 0:22.52 1:5.13 2:0.22 3:-7.41 4:-14.37 5:-33.12 6:-5.86 7:-14.11 8:13.33 9:-17.8 10:-6.15 11:9.97 12:11.74 
-1.037079904441769 0:24.51 1:-9.83 2:2.31 3:-30.76 4:-40.75 5:0.9 6:11.25 7:-19.3 8:-0.36 9:6.6 10:-8.26 11:12.46 12:-9.74 
-1.037079904441769 0:19.76 1:-5.14 2:6.38 3:2.78 4:-0.23 5:2.58 6:-7.38 7:10.88 8:-5.12 9:2.35 10:10.69 11:-2.87 12:7.86 
-1.037079904441769 0:22.09 1:-11.33 2:15.79 3:-14.95 4:-11.87 5:3.03 6:-12.1 7:24.75 8:-10.79 9:23.65 10:-0.55 11:5.34 12:4.06 
-1.037079904441769 0:23.94 1:-14.17 2:-25.53 3:-13.6 4:-27.22 5:-42.01 6:-4.47 7:-6.12 8:-6.34 9:-21.12 10:7.52 11:6.29 12:-16.69 
-1.037079904441769 0:24.43 1:-11.77 2:15.14 3:-14.26 4:-27.69 5:-13.47 6:-4.11 7:-19.8 8:13.26 9:-11.11 10:-1.33 11:5.55 12:0.87 
-1.037079904441769 0:23.83 1:-5.32 2:1.95 3:-25.17 4:-40 5:-5.15 6:12.87 7:-22.98 8:-12.55 9:2.86 10:-11.06 11:5.96 12:-11.98 
-1.037079904441769 0:20.92 1:-7.27 2:6.57 3:-8.85 4:4.08 5:-9.42 6:5.32 7:-8.67 8:3.99 9:-7.65 10:4.69 11:-3.64 12:-0.33 
-1.037079904441769 0:24.15 1:-4.54 2:-13.62 3:-0.45 4:-5.67 5:-20.96 6:-35.89 7:-22.42 8:-4.61 9:3.47 10:22.13 11:-4.76 12:-3.58 
-1.037079904441769 0:24.46 1:-11.31 2:5.98 3:-16.18 4:-15.45 5:-9.01 6:-23.41 7:-5.87 8:6.56 9:-21.26 10:2.9 11:-1.89 12:3.92 
-1.037079904441769 0:24.53 1:-9.39 2:-6.89 3:-17.81 4:-3.33 5:-12.12 6:2.72 7:-24.25 8:-9.16 9:1.26 10:-4.8 11:-8.96 12:-4.49 
-1.037079904441769 0:24.89 1:-8.02 2:6.81 3:-10.57 4:-0.97 5:-26.27 6:-10.6 7:12.12 8:-21.82 9:11.04 10:-13.72 11:-4.93 12:-6.25 
-1.037079904441769 0:24.55 1:-14.25 2:8.62 3:-11.43 4:-26.84 5:-10.28 6:-4.03 7:-25.49 8:-20.04 9:23.92 10:3.81 11:-17.92 12:-13.13 
-1.037079904441769 0:26.52 1:-16.25 2:13.07 3:-8.3 4:12.78 5:-41.06 6:-6.07 7:-12.36 8:-11.61 9:-5.52 10:13.83 11:-3.67 12:-7.72 
-1.037079904441769 0:20.9 1:-5.03 2:3.87 3:-2.4 4:-2.25 5:-17.38 6:2.31 7:-15.14 8:6.69 9:1.69 10:9.17 11:-1.71 12:-4.78 
-1.037079904441769 0:21.54 1:-6.7 2:16.08 3:-12.47 4:-7.42 5:0.85 6:-12.03 7:10.24 8:-5.41 9:15.34 10:-5.98 11:5.32 12:-9.99 
-1.037079904441769 0:21.17 1:-11.02 2:0.7 3:-6.95 4:5.8 5:-15.14 6:1.42 7:-13.03 8:6.44 9:-10.2 10:2.76 11:-5.52 12:1.56 
-1.037079904441769 0:24.57 1:-10.12 2:8.63 3:-26.07 4:-22.22 5:-3.52 6:-21.83 7:-5.09 8:-7.49 9:13.81 10:-2.3 11:-10.48 12:6.69 
-1.037079904441769 0:22.97 1:5.34 2:-0.12 3:-0.93 4:-11.42 5:-28.39 6:-0.49 7:-40.33 8:2.31 9:-4.61 10:-2.01 11:7.86 12:-11.38 
-1.037079904441769 0:20.89 1:-6.35 2:4.33 3:-8.15 4:-3.86 5:1.33 6:-12.43 7:6.64 8:-7.73 9:7.04 10:-1.55 11:-1.99 12:-5.24 
-1.037079904441769 0:24.9 1:-13.31 2:18.04 3:-10.1 4:-37.11 5:-4.53 6:7.91 7:-15.04 8:15.28 9:-10.41 10:6.92 11:4.53 12:-1.62 
-1.037079904441769 0:25.72 1:-13.37 2:1.78 3:-10.05 4:22.56 5:-25.32 6:-13.64 7:-26.86 8:3.9 9:-11.98 10:-2.48 11:6.89 12:-5.34 
-1.037079904441769 0:22.53 1:-14.38 2:19.55 3:-11.32 4:-2.75 5:10.04 6:-18.9 7:29.04 8:-10.51 9:21.08 10:1.82 11:0.64 12:8.29 
-1.037079904441769 0:22.72 1:-15.3 2:19.66 3:-4.18 4:1 5:-2.7 6:-16.61 7:14.12 8:-18.26 9:23.36 10:-6.63 11:0.1 12:5.4 
-1.037079904441769 0:25.42 1:-20.85 2:-11.44 3:-22.63 4:-12.09 5:-32.94 6:-17.4 7:-6.95 8:-3.3 9:-7.81 10:8.1 11:-20.02 12:-14.91 
-1.037079904441769 0:22.33 1:-15.45 2:15.77 3:5.08 4:-5.37 5:-3.28 6:-8.12 7:7.67 8:-21.83 9:25.48 10:-6.68 11:6.26 12:2.42 
-1.037079904441769 0:23.14 1:-11.68 2:17.95 3:-19.06 4:-0.1 5:-7.85 6:-14.24 7:13.17 8:-13.05 9:13.6 10:1.12 11:-2.35 12:-2.41 
-1.037079904441769 0:24.57 1:-9.48 2:0.4 3:-2.14 4:19.99 5:-11.38 6:-16.25 7:-16.31 8:-10.87 9:-8.43 10:-1.21 11:-0.23 12:-1.82 
-1.037079904441769 0:23.42 1:-12.17 2:24.34 3:-20.75 4:4.94 5:-5.19 6:-15.14 7:12.83 8:-15.32 9:17.61 10:0.06 11:1.99 12:-9.1 
-1.037079904441769 0:24.54 1:-5.29 2:-3.22 3:-12.34 4:-0.3 5:-11.07 6:-3.26 7:-29.94 8:-0.41 9:-10.94 10:-9.73 11:-14.65 12:-1.22 
-1.037079904441769 0:25.5 1:-12.57 2:3.01 3:-12.32 4:-17.55 5:-29.66 6:0.95 7:-33.36 8:3.62 9:-3.17 10:-7.11 11:22.47 12:-18.18 
-1.037079904441769 0:25.79 1:-17.93 2:15.42 3:-2.43 4:-30.71 5:1.23 6:-11.66 7:-17.77 8:-23.1 9:22.08 10:-7.72 11:10.17 12:-9.94 
-1.037079904441769 0:22.95 1:-19.22 2:21.07 3:-7.79 4:4.67 5:-4.41 6:-8.49 7:13.67 8:-11.99 9:15.34 10:-1.64 11:6.79 12:-2.03 
-1.037079904441769 0:23.91 1:-5.37 2:2.66 3:-0.48 4:-28.54 5:-7.33 6:-23.42 7:-32.27 8:-7.88 9:18.94 10:-8.27 11:3.94 12:-12.44 
-1.037079904441769 0:23.57 1:-6.48 2:-2.87 3:-7.6 4:-16.88 5:-15.65 6:-22.27 7:-10.51 8:-4.92 9:-15.48 10:-8.79 11:25.76 12:-12.22 
-1.037079904441769 0:22.88 1:-0.05 2:-8.37 3:4.77 4:-16.21 5:-24.1 6:-12.23 7:-11.38 8:6.32 9:-21.64 10:3.32 11:12.89 12:-0.33 
-1.037079904441769 0:24.99 1:-14.49 2:12.87 3:-5.37 4:-15.98 5:-25.73 6:-14.08 7:-19.95 8:-11.8 9:27.08 10:-2.23 11:-11.75 12:10.03 
-1.037079904441769 0:23.08 1:4.29 2:-1.3 3:-4.7 4:-24.28 5:-7.61 6:-21.76 7:-23.92 8:-1.58 9:2.7 10:-10.3 11:16.88 12:-11.43 
-1.037079904441769 0:22.88 1:2.86 2:-6.5 3:-0.06 4:-10.09 5:-24.88 6:-1.4 7:-17.22 8:6.61 9:-2.91 10:-8.54 11:1.08 12:4.16 
-1.037079904441769 0:22.65 1:-21.06 2:12.87 3:9.9 4:1.45 5:-13.48 6:-10.73 7:22.67 8:-23.3 9:2.8 10:19.26 11:2.47 12:-4.85 
-1.037079904441769 0:24.65 1:-12.63 2:-2.08 3:-20.47 4:-23.82 5:-4.04 6:-8.74 7:-11.49 8:-13.93 9:19.5 10:-10.05 11:11.44 12:-12.92 
-1.037079904441769 0:21.31 1:-8.4 2:12.93 3:-2.58 4:-4.22 5:5.82 6:-17 7:21.06 8:-14.3 9:7.81 10:6.26 11:-6.53 12:1.03 
-1.037079904441769 0:24.7 1:-8.55 2:6.85 3:-13.6 4:-32.72 5:-4.38 6:-9.85 7:-34.01 8:-15.03 9:-4.49 10:-0.9 11:7.07 12:-19.93 
-1.037079904441769 0:24.47 1:-8.24 2:-19.44 3:-8.6 4:-3.06 5:-37.58 6:-16.65 7:-26.81 8:-11.62 9:26.77 10:0.44 11:-4.79 12:0.39 
-1.037079904441769 0:25.32 1:-14.83 2:-6.43 3:13.79 4:11.11 5:-39.23 6:-28.29 7:-12.06 8:-11.36 9:1.64 10:17.81 11:-18.69 12:0.96 
-1.037079904441769 0:24.08 1:1.94 2:-19.48 3:-5.89 4:10.77 5:-50.1 6:-3.29 7:-31.91 8:-0.89 9:14.06 10:-7.21 11:5.28 12:-9.26 
-1.037079904441769 0:23.45 1:-4.95 2:0.08 3:-20.67 4:-8.93 5:-26.65 6:-16.99 7:-15.56 8:-5.59 9:-14.93 10:-4.88 11:20.15 12:-10.26 
-1.037079904441769 0:23.29 1:-2.24 2:-1.35 3:-6.91 4:8.86 5:-50.6 6:-11.73 7:-14.15 8:-8.04 9:-15.17 10:-6.05 11:25.93 12:-20.5 
-1.037079904441769 0:22.02 1:-12.35 2:9.37 3:-9.18 4:2.4 5:-23.38 6:4.92 7:-12.74 8:2.5 9:-3.47 10:0.29 11:0.08 12:-3.13 
-1.037079904441769 0:24.86 1:-7.52 2:-6.16 3:3.35 4:5.79 5:-9.73 6:-50.83 7:-11.85 8:-8.65 9:-3.54 10:18.18 11:-9.83 12:-4.58 
-1.037079904441769 0:25.52 1:-12.82 2:-9.97 3:8.67 4:9.81 5:-41.71 6:-19.12 7:-23.3 8:5.49 9:-1.81 10:18.89 11:-8.68 12:-17.9 
-1.037079904441769 0:24.79 1:-9.52 2:-16.25 3:-11.81 4:-10.4 5:-11.59 6:-20.59 7:-18.44 8:-1.11 9:4.68 10:-4.74 11:9.52 12:-8.54 
-1.037079904441769 0:22.41 1:1.43 2:-5.22 3:7.96 4:-10.08 5:-25.61 6:-24.54 7:-27.33 8:1.54 9:-11.21 10:16.31 11:-0.44 12:-1.43 
-1.037079904441769 0:23.23 1:1.6 2:9.41 3:-10.12 4:-9.5 5:-17.85 6:-12.21 7:-26.3 8:17.56 9:-4.96 10:-11.12 11:12.12 12:0.33 
-1.037079904441769 0:21 1:-7.29 2:13.58 3:1.43 4:3.3 5:-1.87 6:-9.49 7:12.74 8:-16.34 9:11.65 10:-1.85 11:-0.19 12:-0.56 
-1.037079904441769 0:21.8 1:-11.44 2:19.16 3:-7.53 4:0.09 5:0.36 6:-17.75 7:19.11 8:-7.4 9:9.44 10:2.08 11:0.59 12:-5.68 
-1.037079904441769 0:24.57 1:-2.4 2:-10.67 3:-3.51 4:-1.23 5:-20.23 6:-0.11 7:-29.61 8:-18.33 9:17.52 10:-5.16 11:3.59 12:-5.77 
-1.037079904441769 0:23.65 1:2.42 2:-16.93 3:-8.49 4:8.04 5:-25.05 6:-6.89 7:-11.56 8:-4.84 9:-22.61 10:-2 11:19.05 12:-9.38 
-1.037079904441769 0:25.36 1:-10.85 2:-3.39 3:-11.58 4:4.92 5:-14.08 6:-4.94 7:-24.1 8:9.11 9:-10.98 10:-18.07 11:16.83 12:3.48 
-1.037079904441769 0:25.11 1:-13.27 2:14.99 3:-23.27 4:-50.48 5:2.46 6:11.83 7:-24.59 8:-8.52 9:15.74 10:-9.13 11:4.5 12:-10.78 
-1.037079904441769 0:21.22 1:-8.92 2:6.92 3:-2.27 4:-13.2 5:-9.95 6:3.21 7:8.74 8:-3.22 9:18.6 10:-1.57 11:-0.2 12:2.42 
-1.037079904441769 0:23.15 1:-1.31 2:-2.08 3:5.68 4:-12.9 5:-26.89 6:3.33 7:-14.51 8:-1.11 9:-32.27 10:-8.58 11:2.84 12:7.47 
-1.037079904441769 0:25.34 1:-12.71 2:-5.08 3:-4.93 4:17.52 5:-27.28 6:-25.82 7:-32.77 8:-12.08 9:11.67 10:-3.74 11:-2.23 12:-1.69 
-1.037079904441769 0:21.78 1:-9.37 2:8.28 3:-14.48 4:4.15 5:-21.2 6:3.85 7:-14.55 8:7.76 9:-6.12 10:7.02 11:-1.35 12:-1.03 
-1.037079904441769 0:23.85 1:-2.81 2:-2.76 3:-22.95 4:-12.08 5:-23.45 6:-6.42 7:-21.24 8:-10.75 9:-4.4 10:-6.51 11:13.74 12:-6.33 
-1.037079904441769 0:24.88 1:-11.44 2:12.24 3:-9.02 4:11.06 5:-27.81 6:-21.46 7:5.49 8:-3.49 9:6.25 10:-3.23 11:-19.33 12:2 
-1.037079904441769 0:23 1:-8.73 2:6.4 3:-9.16 4:1.45 5:-26.93 6:-3.94 7:-10.67 8:0.52 9:2.02 10:8.21 11:2.81 12:-2.4 
-1.037079904441769 0:24.4 1:-5.27 2:-4.6 3:-5.25 4:-19.57 5:-11.22 6:-13.98 7:-15.95 8:-7.42 9:-9.29 10:14.86 11:5.95 12:-5.3 
-1.037079904441769 0:25.6 1:-18.96 2:1.54 3:-16 4:8.55 5:-15.2 6:-7.53 7:-21.82 8:-11.78 9:-1.71 10:4.68 11:7.93 12:-15.71 
-1.037079904441769 0:21.18 1:-9.4 2:6.17 3:-2.5 4:5.1 5:-19.07 6:0.69 7:-19.43 8:3.48 9:-3.39 10:5.77 11:-2.51 12:-0.12 
-1.037079904441769 0:20.2 1:-6.21 2:10.84 3:0.04 4:-6.07 5:3.96 6:-11.22 7:4.75 8:-4.57 9:6.65 10:5.19 11:6.08 12:2.75 
-1.037079904441769 0:25.82 1:-16.72 2:11.94 3:-33.53 4:2.28 5:-22.86 6:-14.54 7:-8.58 8:7.74 9:-6.67 10:-4.5 11:2.52 12:-4.26 
-1.037079904441769 0:22.78 1:-20.42 2:23.81 3:-7.55 4:2.21 5:4.53 6:-11.67 7:12.48 8:-6.19 9:8.58 10:10.22 11:-5.37 12:7.24 
-1.037079904441769 0:24.19 1:-4.39 2:-7.64 3:-27.26 4:11.55 5:-21.84 6:-3.04 7:-24.07 8:5.79 9:-1.84 10:1.71 11:2.25 12:-21.42 
-1.037079904441769 0:20.97 1:-10 2:9.48 3:-0.1 4:-3.92 5:-4.52 6:3.96 7:16.84 8:-10.5 9:19.58 10:-7.76 11:-0.01 12:-0.4 
-1.037079904441769 0:22.67 1:-17.89 2:19.92 3:-2.52 4:4.68 5:-10.23 6:-10.74 7:9.32 8:-15.58 9:12.29 10:-1.53 11:7.89 12:-1.14 
-1.037079904441769 0:23.81 1:-2.8 2:2.2 3:-17.51 4:-31.99 5:-12.28 6:-2.74 7:-20.82 8:-21.3 9:4.58 10:-1.64 11:12.08 12:-12.51 
-1.037079904441769 0:24.87 1:-2.16 2:-4.39 3:8.83 4:-20.24 5:-34.28 6:-0.6 7:-24.93 8:-11.63 9:24.68 10:-11.42 11:-4.76 12:-25.15 
-1.037079904441769 0:24.43 1:-18.6 2:-22.02 3:-17.66 4:-34.78 5:-33.62 6:4.01 7:-7.49 8:-1.7 9:2.01 10:-19.92 11:-1.98 12:-10.47 
-1.037079904441769 0:25.42 1:-14.73 2:6.27 3:-20.21 4:-39.04 5:10.16 6:4.92 7:-12 8:-12.41 9:1.41 10:7.74 11:13.84 12:-17.75 
-1.037079904441769 0:25.78 1:-16.35 2:1.98 3:0.95 4:-0.57 5:-27.05 6:-15.96 7:-27.33 8:12.46 9:-8.7 10:-12.5 11:-0.11 12:-13.81 
-1.037079904441769 0:21.75 1:-9.33 2:13.42 3:-9.5 4:-10.9 5:7.86 6:-10.99 7:15.14 8:-16.47 9:18.54 10:-1.38 11:7.15 12:7.85 
-1.037079904441769 0:21.16 1:-8.89 2:3.42 3:-6.49 4:-3.07 5:-14.75 6:-1.27 7:-19.9 8:0.59 9:-2.51 10:-2.2 11:-7.61 12:-7.33 
-1.037079904441769 0:25.59 1:-18.62 2:-2.04 3:-19.22 4:-24.4 5:-0.15 6:-13.69 7:-19.71 8:7.51 9:-11.11 10:3.76 11:3.64 12:-6.13 
-1.037079904441769 0:25.15 1:-21.35 2:-15.61 3:-18.17 4:-33.29 5:-24.68 6:-1.14 7:-14.42 8:-1.84 9:3.85 10:-17.75 11:-0.72 12:-6.65 
-1.037079904441769 0:21.22 1:-10.14 2:7.77 3:-4.67 4:3.13 5:0.25 6:-12.41 7:8.99 8:-10.71 9:2.61 10:-4.3 11:-1.64 12:-2.62 
-1.037079904441769 0:24.98 1:-12.62 2:-5.02 3:-1.43 4:11.17 5:-36.03 6:-14.13 7:-22.69 8:-7.76 9:18.59 10:7.26 11:-3.32 12:-2.39 
-1.037079904441769 0:21.43 1:-6.48 2:-4.6 3:-11.98 4:1.49 5:-10.07 6:-0.07 7:-16.34 8:1.27 9:-2.74 10:1.59 11:-10.22 12:1.09 
-1.037079904441769 0:23.17 1:-24.33 2:-4.45 3:-18.98 4:-6.95 5:-3.3 6:2.58 7:14.78 8:-15.04 9:3.5 10:-7.06 11:-4.82 12:-7.69 
-1.037079904441769 0:23.31 1:8.79 2:-17.25 3:-4.13 4:10.4 5:-58.79 6:-0.01 7:-36.13 8:8.49 9:0.49 10:13.97 11:-6.89 12:-17.47 
-1.037079904441769 0:25.78 1:-14.42 2:-0.23 3:-13.26 4:7.59 5:-47.64 6:0.72 7:-22.29 8:5.32 9:9.9 10:-5.39 11:-13.85 12:-18.41 
-1.037079904441769 0:23.34 1:-6.19 2:1.85 3:-7.39 4:-8.32 5:-27.51 6:-15.7 7:-20.91 8:-20.95 9:-13.05 10:15.43 11:7.36 12:-12.37 
-1.037079904441769 0:25.08 1:-13.02 2:-17.51 3:-6.16 4:-25.08 5:-33.45 6:-8.57 7:-3.21 8:-11.99 9:-17.39 10:2.25 11:-11.82 12:-6.43 
-1.037079904441769 0:21.36 1:-8.19 2:10.93 3:-8.46 4:0.8 5:-3.26 6:-13.55 7:13.98 8:-12.02 9:5.24 10:5.09 11:2.56 12:3.83 
-1.037079904441769 0:22.6 1:2.8 2:-7.14 3:-4.54 4:1.45 5:-13.46 6:-7.86 7:-27.37 8:-1.49 9:-8.66 10:17.39 11:-0.85 12:-6.83 
-1.037079904441769 0:26.07 1:-15.48 2:19.22 3:-30.46 4:-9.06 5:-8.96 6:-5.38 7:-27.76 8:2.95 9:23.39 10:-22.79 11:-0.51 12:-10.09 
-1.037079904441769 0:22.51 1:-18.72 2:15.61 3:0.53 4:2.4 5:-2.8 6:-6.92 7:14.76 8:-14.21 9:21.34 10:-7.26 11:-2.56 12:7.2 
-1.037079904441769 0:25.54 1:-16.05 2:17.17 3:-12.89 4:-9.3 5:10.9 6:-18.81 7:-14.27 8:-8.66 9:-10.74 10:8.55 11:-4.81 12:4.03 
-1.037079904441769 0:24.4 1:-19.06 2:-24.21 3:-15.1 4:-15.85 5:-40.87 6:-8.02 7:-17.39 8:3.29 9:8.51 10:-19.02 11:-6.59 12:-15.26 
-1.037079904441769 0:22.37 1:-0.19 2:-9.24 3:-1.37 4:-3.94 5:-7.37 6:-16.91 7:-27.49 8:17.82 9:-5.04 10:5.59 11:-11.96 12:-6.72 
-1.037079904441769 0:23.61 1:-8.58 2:-14.63 3:-9.68 4:-11.74 5:-19.41 6:-14.85 7:-7.96 8:-12.92 9:9.59 10:-13.19 11:1.26 12:-7.54 
-1.037079904441769 0:25.58 1:-12.42 2:-7.45 3:3.47 4:12.76 5:-33.99 6:0.93 7:-19.56 8:-34.05 9:5.88 10:-6.05 11:-4.43 12:-2.92 
-1.037079904441769 0:24.5 1:-15.67 2:-20.55 3:-32.08 4:-28.8 5:-47.74 6:1.18 7:-5.04 8:-4.57 9:-3.35 10:-12.95 11:-1.76 12:-7.09 
-1.037079904441769 0:24.98 1:-12.18 2:1.34 3:4.69 4:-17.29 5:-8.85 6:-37.12 7:-17.43 8:-8.66 9:8.35 10:-4.1 11:4.36 12:-10.85 
-1.037079904441769 0:23.35 1:-1.13 2:-7.26 3:-2.29 4:3.04 5:-21.5 6:-16.27 7:-22.17 8:-12.03 9:-8.86 10:5.03 11:6.01 12:5.58 
-1.037079904441769 0:19.96 1:-6.79 2:8.02 3:-0.22 4:3.46 5:5.46 6:-5.21 7:11.78 8:-5.35 9:13.55 10:-1.13 11:4.94 12:2.05 
-1.037079904441769 0:21.81 1:-16.43 2:11.56 3:6.74 4:-1.3 5:-1.71 6:-11.27 7:13.55 8:-23.8 9:5.9 10:7.14 11:-8.39 12:9.25 
-1.037079904441769 0:23.62 1:-16.82 2:17.94 3:-9.77 4:-4.7 5:-14.84 6:-3.48 7:12.18 8:-17.81 9:26.76 10:-4.34 11:-0.8 12:-3.42 
-1.037079904441769 0:20.62 1:-5.43 2:4.26 3:-6.31 4:-5.06 5:-0.83 6:-4.01 7:8.69 8:-3.11 9:2.16 10:-5.52 11:-0.9 12:-5.58 
-1.037079904441769 0:21.75 1:-15.09 2:15.65 3:4.09 4:-5.21 5:3.82 6:-9.48 7:5.1 8:-5.59 9:10.58 10:1.93 11:-0.16 12:8.65 
-1.037079904441769 0:19.82 1:-4.32 2:6.92 3:1.36 4:-0.7 5:2.52 6:-9.08 7:8.8 8:-7.18 9:12.4 10:-0.04 11:9.81 12:2.71 
-1.037079904441769 0:26.82 1:-24.51 2:17.02 3:-14.18 4:-4.35 5:-16.86 6:-20.11 7:-25.72 8:-2.62 9:0.97 10:-5.99 11:11.2 12:-15.01 
-1.037079904441769 0:24.52 1:-15.23 2:10.63 3:1.92 4:-13.29 5:-17.49 6:-28.54 7:-24.4 8:7.15 9:13.57 10:0.15 11:-10.73 12:-0.05 
-1.037079904441769 0:21.38 1:-10.75 2:6.94 3:-12.25 4:1.66 5:-14.3 6:3.61 7:-13.29 8:1.44 9:-7.64 10:5.39 11:-5.14 12:0.22 
-1.037079904441769 0:24.62 1:-3.43 2:8.88 3:-16.74 4:-7.31 5:-15.84 6:6.01 7:-30.56 8:-1.74 9:-10 10:3.27 11:-11.6 12:-9.21 
-1.037079904441769 0:23.36 1:-6.89 2:-4.24 3:-3.43 4:10.9 5:-25.14 6:-10.77 7:-20.17 8:8.11 9:-10.88 10:-12.98 11:1.51 12:6.11 
-1.037079904441769 0:21.38 1:-8.73 2:5.39 3:-3.44 4:9.89 5:-18.38 6:1.79 7:-15.78 8:6.56 9:-6.53 10:0.77 11:-1.08 12:6.83 
-1.037079904441769 0:22.59 1:-16.86 2:9.63 3:9.74 4:-5.78 5:-19.09 6:1.74 7:4.05 8:-19.18 9:15.81 10:11.88 11:-4.41 12:-2.7 
-1.037079904441769 0:23.19 1:-2.89 2:18.26 3:-12.78 4:-8.96 5:-15.43 6:-8.28 7:-4.04 8:8.58 9:-44.08 10:-1.79 11:9.56 12:17.43 
-1.037079904441769 0:21.17 1:-9.33 2:7.44 3:2.59 4:-4.99 5:13.1 6:-13.98 7:23.01 8:-12.24 9:15.83 10:5.24 11:-6.75 12:16.07 
-1.037079904441769 0:23.24 1:-1.3 2:1.4 3:-0.25 4:0.93 5:-33.28 6:-11.55 7:-7.51 8:18.31 9:-25.34 10:-18.2 11:0.35 12:10 
-1.037079904441769 0:23.21 1:-5.74 2:-5.53 3:-10.74 4:-17.15 5:-32.47 6:-13.6 7:-6.25 8:-17.69 9:-17.16 10:2.85 11:13.28 12:-10.06 
-1.037079904441769 0:23.63 1:-5.67 2:-17.17 3:-11.77 4:-13.39 5:-39.96 6:-23.31 7:-10.44 8:-27.83 9:-5.49 10:30.77 11:-13.49 12:-9.81 
-1.037079904441769 0:25.09 1:-16.58 2:8.37 3:13.77 4:12.43 5:-40.29 6:-42.22 7:5.17 8:-2.02 9:-10.88 10:13.99 11:-15.33 12:1.36 
-1.037079904441769 0:25.13 1:-12.47 2:17.14 3:-3.85 4:-27.42 5:-18.17 6:10 7:-20.21 8:4.97 9:13.77 10:-7.78 11:1.12 12:7.08 
-1.037079904441769 0:22.55 1:1.89 2:-1.86 3:0.44 4:-8.09 5:-16.69 6:-5.19 7:-23.13 8:-12.33 9:-12.86 10:7.68 11:6.26 12:1.46 
-1.037079904441769 0:24.07 1:-4.55 2:5.46 3:-41.45 4:-8.74 5:-2.04 6:-33.84 7:3.44 8:-14.26 9:14.24 10:12.52 11:-5.52 12:-6.39 
-1.037079904441769 0:23.72 1:0.66 2:6.07 3:16.55 4:-21.24 5:-38.25 6:-5.92 7:-24.08 8:19.68 9:-14.82 10:-6.57 11:20.5 12:-4.08 
-1.037079904441769 0:25.41 1:-16.9 2:-3.58 3:12.69 4:14.76 5:-47.93 6:-33.22 7:-15.62 8:-2.09 9:6.71 10:-4.96 11:3 12:8.87 
-1.037079904441769 0:23.54 1:-8.27 2:8.26 3:-19.98 4:-24.05 5:-4.26 6:-19.05 7:-20.57 8:7.56 9:1.19 10:1.7 11:-5.66 12:-4.14 
-1.037079904441769 0:26.18 1:-17.6 2:22.51 3:-5.47 4:-1.84 5:-23.73 6:-20.9 7:-29.69 8:14.36 9:5.93 10:1.41 11:2.01 12:-8.73 
-1.037079904441769 0:24.23 1:-7.62 2:-4.01 3:-21.61 4:-0.96 5:-2.42 6:-28.05 7:-27.02 8:14 9:-12.58 10:10.8 11:5 12:2.39 
-1.037079904441769 0:26.36 1:-19.29 2:11.96 3:-13.39 4:6.36 5:-21.2 6:-9.73 7:-17.2 8:-5.84 9:1.62 10:-5.5 11:-7.21 12:-16.32 
-1.037079904441769 0:23.34 1:-2.48 2:12.77 3:-20.89 4:-26.41 5:3.3 6:-20.33 7:3.32 8:-23.16 9:-15.93 10:5.12 11:14.5 12:-6.5 
-1.037079904441769 0:21.87 1:-14.47 2:17.31 3:-6.51 4:3.33 5:4.03 6:-14.74 7:14.82 8:-5.1 9:2.03 10:5.3 11:-3.25 12:-1.8 
-1.037079904441769 0:20.21 1:-2.03 2:1.61 3:10.32 4:-0.56 5:-15.49 6:-5.32 7:7.39 8:-14.2 9:6.65 10:6.15 11:3.43 12:2.58 
-1.037079904441769 0:21.98 1:-13.46 2:12.1 3:-0.16 4:4.48 5:-13.98 6:-9.32 7:9.21 8:-17.63 9:19.36 10:-3.81 11:1.85 12:5.53 
-1.037079904441769 0:24.46 1:-12.21 2:-2.8 3:-5.6 4:-8.84 5:-5.23 6:-21.69 7:-19.31 8:-20.31 9:4.08 10:9.17 11:13.03 12:-20.1 
-1.037079904441769 0:21.91 1:-8.04 2:13.97 3:-7.96 4:1.88 5:-12.88 6:6.12 7:-11.78 8:-0.08 9:-3.64 10:6.97 11:2.42 12:3.43 
-1.037079904441769 0:25.17 1:-3.4 2:-16.79 3:1.44 4:7.42 5:-36.77 6:-2.14 7:-32.19 8:-10.66 9:17.12 10:-3.29 11:13.73 12:-11.84 
-1.037079904441769 0:22.79 1:-18.53 2:22.84 3:-5.63 4:-3.1 5:4.45 6:-11.08 7:14.1 8:-11.34 9:20.66 10:1.7 11:-1.4 12:9.15 
-1.037079904441769 0:24.44 1:-8.76 2:-9.38 3:0.97 4:5.47 5:-28.41 6:-36.29 7:-22.98 8:-3.53 9:3.18 10:12.35 11:-14.06 12:-11.68 
-1.037079904441769 0:26.04 1:-15.82 2:9.14 3:-1.3 4:9.55 5:-31.76 6:3.39 7:-25.09 8:-17 9:5.91 10:6.16 11:-0.55 12:-1.44 
-1.037079904441769 0:24.57 1:-18.57 2:-23.77 3:-22.74 4:-16.27 5:-38.56 6:5.44 7:-16.12 8:-12.11 9:4.96 10:-10.73 11:-6.42 12:-12.6 
-1.037079904441769 0:23.21 1:-15.68 2:23.29 3:-11.86 4:-8.17 5:9.18 6:-28.54 7:5.14 8:8.98 9:2.25 10:-5.08 11:4.13 12:-11.59 
-1.037079904441769 0:23.75 1:-2.42 2:-4.93 3:-21.13 4:-12.45 5:-18.81 6:4.04 7:-21.19 8:-18.99 9:-0.82 10:8.58 11:-0.94 12:-4.69 
-1.037079904441769 0:23.84 1:-18.66 2:21.19 3:-4.82 4:0.14 5:-18.67 6:-15.01 7:20.35 8:-19.42 9:22.4 10:-4.93 11:-7.57 12:-0.86 
-1.037079904441769 0:24.12 1:-7.78 2:1.87 3:-18.31 4:-26.47 5:-9.6 6:0.31 7:-16.42 8:-20.34 9:18.12 10:-7.6 11:7.26 12:-20.62 
-1.037079904441769 0:25 1:-22.24 2:-20.98 3:-9.19 4:-17.97 5:-40.12 6:-14.08 7:-16.88 8:3.75 9:-5.46 10:-4.58 11:-7.08 12:-12.82 
-1.037079904441769 0:21.37 1:-12.87 2:12.11 3:-0.48 4:-6.71 5:-7.5 6:4.63 7:1.2 8:3.11 9:14.45 10:-1.85 11:8.55 12:-5.64 
-1.037079904441769 0:22.73 1:-9.83 2:23.19 3:-12.79 4:-8.05 5:0.6 6:-29.44 7:9.31 8:-14.69 9:13.78 10:-5.03 11:6.09 12:-11.69 
-1.037079904441769 0:22.3 1:-21.14 2:12.41 3:11.85 4:-1.96 5:-9.23 6:1.08 7:10.2 8:-13 9:13.17 10:7.7 11:3.42 12:6.24 
-1.037079904441769 0:24.65 1:-7.74 2:13.96 3:-39.47 4:-18.46 5:-5.36 6:-19.35 7:-9.74 8:-7.43 9:15.19 10:0.28 11:-0.58 12:-1.07 
-1.037079904441769 0:23.97 1:-12.92 2:-23.61 3:-27.55 4:-16.71 5:-13.93 6:-13.99 7:-9.39 8:-8.03 9:-6.71 10:0.52 11:-10.82 12:-11.46 
-1.037079904441769 0:25.26 1:-8.7 2:8.14 3:-14.64 4:11.1 5:-24.13 6:-4.92 7:-22.83 8:-6.58 9:-3.03 10:-5.39 11:13.17 12:-8.62 
-1.037079904441769 0:24.72 1:-7.75 2:-2.05 3:4.27 4:4.62 5:-16.5 6:-6 7:-19.42 8:-0.19 9:-5.17 10:-10 11:-7.56 12:8.46 
-1.037079904441769 0:21.31 1:-13.69 2:8.92 3:7.76 4:-14.44 5:-4.2 6:2.38 7:-0.13 8:2.4 9:10.36 10:10.27 11:-6.1 12:3.59 
-1.037079904441769 0:24.8 1:-5.51 2:-18.32 3:2.7 4:-4.89 5:-43.82 6:-20.65 7:-25.56 8:4.06 9:1.33 10:25.41 11:-11.15 12:-9.59 
-1.037079904441769 0:20.02 1:-4.79 2:6.86 3:2.1 4:-2.94 5:3.07 6:-9.5 7:9.56 8:-9.72 9:13.12 10:1.51 11:7.63 12:4.65 
-1.037079904441769 0:22.24 1:-11.32 2:5.93 3:-7.85 4:2 5:-23 6:-15.37 7:-17.73 8:10.99 9:-11.64 10:6.38 11:2.22 12:1.71 
-1.037079904441769 0:24.44 1:-9.87 2:6.42 3:5.88 4:-10.26 5:-36.79 6:-16.69 7:-33.9 8:17.16 9:-4.89 10:5.7 11:19.06 12:-9.19 
-1.037079904441769 0:24.74 1:-8.02 2:-8.5 3:1.83 4:-5.85 5:-17.47 6:-28.54 7:-15.16 8:0.77 9:2.24 10:11.47 11:-4.84 12:-20.37 
-1.037079904441769 0:23.96 1:-12.15 2:-4.44 3:13.26 4:7.72 5:-37.46 6:-20.12 7:-19.27 8:-14.24 9:-10.34 10:-6.66 11:30.13 12:-16.5 
-1.037079904441769 0:21.23 1:-7.74 2:8.25 3:-8.63 4:4.84 5:-12.46 6:-0.52 7:-10.23 8:4.97 9:-2.95 10:2.43 11:0.48 12:-1.19 
-1.037079904441769 0:23.12 1:-10.62 2:11.59 3:1.02 4:9.17 5:-26.5 6:-2.68 7:-20.76 8:10.2 9:-15.85 10:10.28 11:-7.37 12:3.7 
-1.037079904441769 0:24.13 1:-7.15 2:-2.02 3:-11.35 4:-16.16 5:-36.32 6:0.98 7:-5.18 8:-20.4 9:-1.56 10:-7.23 11:-1.05 12:-8.51 
-1.037079904441769 0:26.41 1:-21.9 2:15.05 3:2.19 4:-21.8 5:-10.79 6:-10.76 7:-7 8:-6.66 9:13.37 10:3.75 11:-11.81 12:14.75 
-1.037079904441769 0:24.62 1:-9.29 2:10.51 3:-11.52 4:-8.88 5:-27.75 6:-12.7 7:-15.71 8:-4.45 9:-6.79 10:23.1 11:4.76 12:-12.56 
-1.037079904441769 0:22.7 1:-20.44 2:11.87 3:11.93 4:-2.69 5:-15.32 6:-1.94 7:4.64 8:-19.37 9:17.38 10:1 11:6.75 12:11.36 
-1.037079904441769 0:21.76 1:-12.52 2:14.28 3:-2.08 4:-11.68 5:3.19 6:-9.64 7:10.92 8:-3.73 9:12.08 10:-5.29 11:3.05 12:1.49 
-1.037079904441769 0:25.61 1:-19.27 2:2.48 3:-2.5 4:-7.52 5:-2.37 6:-11.69 7:-11.38 8:3.36 9:-13.01 10:4.97 11:11.48 12:-4.42 
-1.037079904441769 0:24.21 1:1.05 2:-10.39 3:-39.01 4:-9.82 5:-8.34 6:-31.02 7:-8.63 8:-8.15 9:-6.98 10:9.8 11:-4.24 12:-15.9 
-1.037079904441769 0:24.94 1:-12.46 2:8.03 3:-35.89 4:-22.12 5:-0.98 6:-22.64 7:-5.38 8:1.57 9:5.9 10:3.02 11:2 12:-15.74 
-1.037079904441769 0:23.13 1:3.76 2:-1.06 3:12.88 4:-11.26 5:-38.68 6:-11.24 7:-23.41 8:11.53 9:-27.98 10:-10.17 11:30.7 12:-3.4 
-1.037079904441769 0:23.85 1:-2.23 2:-12 3:-15.42 4:9.83 5:-36.66 6:-3.98 7:-44.92 8:-5.41 9:10.65 10:-2.27 11:11.01 12:-17.28 
-1.037079904441769 0:24.16 1:-14.31 2:14.34 3:-12.33 4:5.42 5:-17.68 6:-7.59 7:-17.57 8:15.24 9:-16.27 10:9.99 11:6.61 12:2.75 
-1.037079904441769 0:24.97 1:-14.18 2:3.41 3:5.34 4:-10.01 5:-48.63 6:4.58 7:-1.4 8:-6.97 9:10.28 10:-18.84 11:-0.71 12:-8.86 
-1.037079904441769 0:22.25 1:-19.48 2:10.42 3:10.33 4:3.3 5:-10.71 6:-2.25 7:9.8 8:-15.88 9:16.21 10:-0.82 11:2.36 12:1.69 
-1.037079904441769 0:21.59 1:-9.37 2:3.4 3:-13.31 4:-4.88 5:-12.7 6:5.8 7:-18.56 8:-0.54 9:-3.57 10:2.12 11:-11.63 12:-6.27 
-1.037079904441769 0:24.19 1:-10.25 2:14.11 3:-18.42 4:-22.69 5:-6.34 6:-13.99 7:-19.06 8:11.19 9:-5.54 10:10.7 11:-2.05 12:-12.15 
-1.037079904441769 0:22.05 1:-12.69 2:15.11 3:-6.8 4:-4.67 5:8.81 6:-15.98 7:10.44 8:-9.93 9:19.85 10:-1.61 11:4.53 12:8.17 
-1.037079904441769 0:23.99 1:-8.29 2:-1.2 3:-27.83 4:-37.03 5:-1.9 6:1.33 7:-7.46 8:-16.19 9:-4.7 10:-0.67 11:15.47 12:-9.15 
-1.037079904441769 0:24.3 1:-1.86 2:-2.03 3:-3.05 4:-29.35 5:-21.51 6:-5.97 7:-25.04 8:-17.95 9:17.8 10:-7.03 11:-4.89 12:-6.07 
-1.037079904441769 0:22.94 1:-18.57 2:15.35 3:0.1 4:-2.23 5:-15.31 6:-2.51 7:17.58 8:-14.72 9:15.62 10:4.62 11:-4.91 12:-5.61 
-1.037079904441769 0:25.46 1:-16.41 2:-7.51 3:-14.2 4:13.42 5:-8.75 6:-13.25 7:-17.72 8:12.19 9:-8.38 10:-7.94 11:18.24 12:-6.95 
-1.037079904441769 0:24.11 1:-6.71 2:11.84 3:-18.5 4:-26.81 5:-18.31 6:-12.9 7:-18.57 8:6.19 9:-5.41 10:14.15 11:-12.27 12:-0.77 
-1.037079904441769 0:20.16 1:-3.12 2:2.61 3:8.32 4:-2.2 5:-6.72 6:-11.93 7:8.92 8:-15.89 9:7.9 10:6.44 11:7.64 12:5.97 
-1.037079904441769 0:23.32 1:7.97 2:-18.37 3:-5.11 4:0.41 5:-29.61 6:4.11 7:-30.93 8:-21.16 9:3.35 10:5.79 11:5.11 12:-19.51 
-1.037079904441769 0:25.48 1:-23.64 2:12.12 3:-5.02 4:10.74 5:-9.98 6:-2.81 7:0.7 8:1.92 9:-7.23 10:-0.99 11:-1.16 12:-0.58 
-1.037079904441769 0:23.89 1:-5.61 2:6.95 3:-11.86 4:-26.39 5:-21.13 6:-1.88 7:1.37 8:-17.89 9:-15.93 10:33.89 11:-13.43 12:-0.85 
-1.037079904441769 0:23.67 1:-22.27 2:19.92 3:5.68 4:-6.16 5:-2.64 6:-15.6 7:8.38 8:-17.04 9:7.44 10:10.12 11:-4.64 12:7.59 
-1.037079904441769 0:24.54 1:-19.3 2:-28.01 3:-25.45 4:-11.54 5:-38.51 6:-8.09 7:-6.18 8:-21.28 9:2.58 10:-10.22 11:-1.5 12:-5.85 
-1.037079904441769 0:23.16 1:0.53 2:-0.97 3:1.81 4:-10.63 5:-25.75 6:5.73 7:-12.99 8:-5.31 9:-34.65 10:-6.44 11:2.94 12:14.7 
-1.037079904441769 0:23.29 1:-6.4 2:14.04 3:-21.03 4:1.38 5:-27.21 6:6.24 7:-16.01 8:-1.02 9:-0.7 10:10.63 11:8 12:-5.18 
-1.037079904441769 0:22.08 1:-17.24 2:18.75 3:-3.54 4:-6.55 5:-0.69 6:-7.53 7:2.58 8:3.74 9:15.79 10:1.62 11:3.12 12:8.16 
-1.037079904441769 0:23.68 1:-1.17 2:-6.33 3:22.56 4:-23.61 5:-54.15 6:-9.74 7:-7.13 8:-9.74 9:-10.21 10:-20.45 11:0.19 12:-5.82 
-1.037079904441769 0:22.04 1:-15.14 2:12.64 3:-1.66 4:11.64 5:-11.41 6:2.47 7:16.22 8:-15.34 9:10.04 10:0.65 11:-1.21 12:-2.59 
-1.037079904441769 0:24.64 1:-17.95 2:-29.76 3:-25.58 4:-9.87 5:-34.76 6:-12.24 7:-14.37 8:-6.04 9:-5.03 10:-9.6 11:-2.59 12:-12.78 
-1.037079904441769 0:22.85 1:1.68 2:-10.59 3:-0.1 4:-16.88 5:-24.14 6:-18.72 7:-21.75 8:15.75 9:-5.56 10:-8.81 11:2.74 12:6.26 
-1.037079904441769 0:22.72 1:8.07 2:-2.13 3:-0.16 4:-20.91 5:-23.91 6:-16.64 7:-17.6 8:4.1 9:-16.7 10:4.03 11:6.63 12:1.34 
-1.037079904441769 0:24.5 1:-4.82 2:14.72 3:-22.97 4:-3.53 5:-10.48 6:-9.09 7:-21.24 8:-6.28 9:10.15 10:-27.95 11:10.85 12:4.01 
-1.037079904441769 0:22.35 1:-16.11 2:18.22 3:-10.6 4:4.44 5:1.47 6:-17.08 7:15.97 8:-6.79 9:4.68 10:7.77 11:7.46 12:-5.35 
-1.037079904441769 0:25.69 1:-16.26 2:14.49 3:-7.7 4:-29.18 5:-2.12 6:-4.06 7:-31.78 8:-1.26 9:24.11 10:-7.89 11:-7.57 12:-16.1 
-1.037079904441769 0:22.85 1:-20.99 2:12.96 3:7.24 4:5.16 5:-18.6 6:-3.6 7:18.96 8:-17.98 9:10.5 10:9.18 11:4.8 12:-5.08 
-1.037079904441769 0:26.12 1:-20.2 2:-1.65 3:-11.88 4:14.46 5:-17.79 6:-23.71 7:-26 8:-2.74 9:-0.12 10:9.13 11:13.23 12:-12.04 
-1.037079904441769 0:22.71 1:-9.77 2:4.18 3:-20.83 4:-1.53 5:-19.85 6:-0.83 7:-10.32 8:-5.6 9:-4.54 10:5.54 11:4.17 12:-3.2 
-1.037079904441769 0:26.36 1:-18.58 2:12.16 3:-17.99 4:-5.31 5:-22.67 6:-17.01 7:-20.2 8:-8.86 9:-1.66 10:4.45 11:3.43 12:-19.72 
-1.037079904441769 0:25.32 1:-15.96 2:1.51 3:-9.19 4:6.77 5:-17.98 6:-9.63 7:-32.08 8:3.83 9:2.12 10:-5.35 11:10.98 12:-12.67 
-1.037079904441769 0:21.3 1:-10.51 2:5.45 3:-4.93 4:0.44 5:-14.43 6:-5.86 7:-15.53 8:2.59 9:-11.62 10:5.19 11:-4.66 12:2.07 
-1.037079904441769 0:24.32 1:-5.46 2:-5.67 3:-5.71 4:-9.47 5:-31.69 6:-3.3 7:-15.72 8:-1.06 9:-3.84 10:15.2 11:-9.65 12:-4.07 
-1.037079904441769 0:24.56 1:-7.58 2:-14.19 3:-2.81 4:-24.15 5:-21.3 6:-4.13 7:-15.61 8:-4.66 9:8.32 10:-13.42 11:7.58 12:-11.53 
-1.037079904441769 0:25.74 1:-14.38 2:18.12 3:-16.44 4:-8.82 5:-29.67 6:1.5 7:-13.96 8:-7.49 9:-12.19 10:-1.22 11:2.14 12:-3.73 
-1.037079904441769 0:21.67 1:-8.41 2:0.55 3:-13.07 4:-8.43 5:-23.42 6:-2.37 7:-17.82 8:4.73 9:-3.03 10:12.48 11:0.62 12:-3.06 
-1.037079904441769 0:24.26 1:-5.75 2:-3.03 3:12.87 4:-1.48 5:-33.88 6:-17.87 7:-11.17 8:4.87 9:-9.47 10:-19.05 11:9.35 12:-8.95 
-1.037079904441769 0:22.81 1:-18.9 2:16.98 3:1.61 4:-5.63 5:3.15 6:-11.74 7:12.36 8:-12.2 9:26.27 10:-1.78 11:-7.67 12:7.38 
-1.037079904441769 0:24.46 1:-8.66 2:13.89 3:-12.07 4:-21.25 5:-7.84 6:-20.09 7:-0.56 8:1.28 9:-1.73 10:9.61 11:4.75 12:-1.8 
-1.037079904441769 0:22.98 1:3.5 2:-7.41 3:-6.66 4:-18.09 5:-37.31 6:-21.9 7:-0.19 8:-11.84 9:-9.96 10:7.6 11:-5.28 12:-5.76 
-1.037079904441769 0:21.59 1:-13.59 2:4.66 3:-5.91 4:1.79 5:-18.73 6:2.64 7:-18.14 8:3.17 9:-7.27 10:0.7 11:0.02 12:-1.88 
-1.037079904441769 0:22.88 1:-16.37 2:16.96 3:-4.69 4:6.21 5:-10.56 6:-16.42 7:22.34 8:-20.65 9:23.28 10:-4.23 11:13.4 12:-2.91 
-1.037079904441769 0:24.63 1:-11.25 2:4.23 3:-9.29 4:-29.48 5:0.61 6:-19.23 7:-19.85 8:-15.41 9:-7.23 10:9.5 11:11.69 12:-24.72 
-1.037079904441769 0:23.89 1:-9.97 2:8.79 3:-17.65 4:-47.38 5:-10.19 6:21.46 7:-22.69 8:-19.43 9:3.08 10:2.06 11:5.91 12:-12.75 
-1.037079904441769 0:24.78 1:-20.06 2:-10.38 3:-9.52 4:-24.05 5:-14.72 6:-28.64 7:19.73 8:-15.24 9:-3.04 10:-5.21 11:-13.32 12:-7.51 
-1.037079904441769 0:24.08 1:-5.13 2:4.63 3:-13.36 4:-18.33 5:-2.28 6:-22.6 7:-21.26 8:8.45 9:2.66 10:1.95 11:-4.55 12:-11.7 
-1.037079904441769 0:24.76 1:-11.72 2:6.5 3:1.56 4:-11.55 5:-17.26 6:-21.98 7:-21.31 8:2.43 9:-7 10:9.57 11:-3.95 12:-0.71 
-1.037079904441769 0:25.85 1:-19.34 2:8.12 3:-8.79 4:-12.69 5:-5.13 6:-24.13 7:-19.5 8:-14.8 9:13.27 10:1.94 11:-0.01 12:-29.45 
-1.037079904441769 0:24.78 1:-12.61 2:8.03 3:-0.42 4:1.16 5:-36.49 6:-6.03 7:-11.36 8:-22.84 9:9.28 10:-10.69 11:-0.26 12:-4.39 
-1.037079904441769 0:23.99 1:-2.65 2:6.74 3:-13.75 4:-44.33 5:3.11 6:4.08 7:-25.79 8:-5.93 9:29.21 10:-0.98 11:13.59 12:-14.63 
-1.037079904441769 0:24.85 1:-10.77 2:6.98 3:-0.7 4:7.96 5:-23.91 6:-8.73 7:-30.37 8:-9.12 9:2.19 10:-1.95 11:11.13 12:2.84 
-1.037079904441769 0:24.5 1:-10.84 2:7.77 3:-11.21 4:-18.6 5:-3.02 6:-9.93 7:-19.55 8:7.67 9:-4.06 10:16.12 11:-1.98 12:0.28 
-1.037079904441769 0:25.86 1:-20.24 2:16.08 3:1.23 4:-20.36 5:-8.05 6:-37.43 7:-4.35 8:-8.21 9:-10.46 10:5.1 11:5.56 12:-10.38 
-1.037079904441769 0:21.62 1:-10.61 2:2.84 3:-10.14 4:4.94 5:-20.67 6:2.69 7:-9.36 8:0.9 9:-5.05 10:4.66 11:-5.93 12:0.25 
-1.037079904441769 0:21.2 1:-8.82 2:1.94 3:-8.69 4:1.6 5:-12.64 6:-4.63 7:-9.88 8:3.89 9:-8.02 10:7.87 11:-8.44 12:-1.71 
-1.037079904441769 0:25.31 1:-13.6 2:-4.79 3:11.54 4:14.09 5:-38.9 6:-13.28 7:-22.77 8:-31.33 9:2.58 10:-14.26 11:-12.97 12:3.02 
-1.037079904441769 0:25.04 1:-14.95 2:4.89 3:-15.87 4:-30.31 5:-3.31 6:1.29 7:-17.07 8:-16.95 9:6.31 10:-4.63 11:20.2 12:-14.01 
-1.037079904441769 0:21.37 1:-11.01 2:20.63 3:-11.33 4:5.1 5:3.39 6:-14.08 7:17.77 8:-7.43 9:14.63 10:5.13 11:2.94 12:2.42 
-1.037079904441769 0:24.6 1:-10.3 2:8.84 3:-14.29 4:-21.63 5:-14.06 6:-14 7:6.15 8:-5.61 9:-7.08 10:5.71 11:-9.37 12:5.04 
-1.037079904441769 0:21.26 1:-14.6 2:11.63 3:2.65 4:4.29 5:-3.22 6:2.19 7:10.68 8:-16.01 9:19.24 10:-3.52 11:0.51 12:8.83 
-1.037079904441769 0:22.67 1:5.54 2:-6.24 3:-18.06 4:-2.78 5:-25.69 6:-29.39 7:-3.68 8:-12.4 9:4.31 10:-3.26 11:6.81 12:-0.17 
-1.037079904441769 0:21.38 1:-6.94 2:4.09 3:-22.13 4:-10.43 5:-18.39 6:5.1 7:-2.06 8:0.05 9:-5.89 10:-4 11:1.21 12:-2.12 
-1.037079904441769 0:22.48 1:-15.28 2:22.38 3:-5.9 4:1.36 5:0.35 6:-18.32 7:19.7 8:-19.14 9:18.35 10:1.71 11:-1.05 12:5.8 
-1.037079904441769 0:24.63 1:-10.06 2:-1.85 3:-11.46 4:8.9 5:-32.79 6:0.65 7:-13.52 8:-10.31 9:18.94 10:1.15 11:-11.2 12:-22.81 
-1.037079904441769 0:24.35 1:-7.09 2:2.32 3:-12.75 4:-16.64 5:-21.86 6:-1.12 7:-6.62 8:-10.06 9:16.94 10:-13.81 11:-23.32 12:18.17 
-1.037079904441769 0:22.06 1:-14.49 2:16.66 3:1.47 4:7.03 5:-17.57 6:0.87 7:11.27 8:-25.34 9:22.05 10:-6.52 11:-2.8 12:2.04 
-1.037079904441769 0:22.48 1:-12.63 2:11.33 3:-6.01 4:-9.79 5:-0.04 6:-13.23 7:4.85 8:-1 9:5.23 10:3.45 11:-8.34 12:-5.95 
-1.037079904441769 0:23.37 1:-17.77 2:17.61 3:-3.8 4:7.18 5:-19.43 6:-8.99 7:10.35 8:-22.87 9:19.61 10:4.74 11:-5.04 12:-3.63 
-1.037079904441769 0:24.16 1:-6.97 2:6.3 3:-20.02 4:12.09 5:-20.06 6:-1.52 7:-16.43 8:-10.19 9:-7.36 10:14.62 11:-4.77 12:-4.62 
-1.037079904441769 0:23.42 1:-18.8 2:20.36 3:-0.97 4:4.05 5:-17.94 6:-11.25 7:10.01 8:-24.97 9:24.47 10:-7.87 11:11.11 12:2.92 
-1.037079904441769 0:26.27 1:-17.41 2:6.68 3:-2.08 4:9.65 5:-19.48 6:-7.26 7:-27.02 8:3.43 9:4.33 10:-12.54 11:6.29 12:-1.83 
-1.037079904441769 0:22.26 1:-19.42 2:15.95 3:1.24 4:-3.81 5:8.68 6:-9.07 7:12.97 8:2.11 9:2.09 10:15.2 11:-8.36 12:11.01 
-1.037079904441769 0:22.41 1:-13.52 2:20.36 3:-10.04 4:7.71 5:-6.7 6:-15.63 7:12.55 8:-11.1 9:14.23 10:-3.27 11:4.45 12:-2.04 
-1.037079904441769 0:22.57 1:-10.17 2:5.42 3:-6.81 4:0.39 5:-21.66 6:14 7:-16.91 8:5.45 9:-6.49 10:9.58 11:4.14 12:-3.27 
-1.037079904441769 0:25.34 1:-15.75 2:5.24 3:-14.09 4:-14.15 5:13.25 6:-16.54 7:-9.74 8:-7.45 9:3.15 10:-0.69 11:5.51 12:-10.32 
-1.037079904441769 0:23.82 1:-0.31 2:0.3 3:-19.55 4:-30.45 5:4.02 6:-11.24 7:-17.18 8:4.36 9:-8 10:12.18 11:2.33 12:-3.29 
-1.037079904441769 0:24.17 1:-10.39 2:14.44 3:-19.13 4:-17.77 5:0.66 6:-26.38 7:-11.58 8:2.94 9:-3.13 10:7.49 11:-7.48 12:1.31 
-1.037079904441769 0:25.21 1:-16.12 2:10.49 3:-23.61 4:-43.56 5:0.41 6:-4.35 7:-11.92 8:-6.22 9:0.36 10:-4.86 11:14.65 12:-14.62 
-1.037079904441769 0:24.33 1:-4.5 2:-1.08 3:-15.86 4:-7.09 5:-8.6 6:-4.12 7:-16.7 8:2.64 9:4.25 10:-5.63 11:-14.98 12:3.06 
-1.037079904441769 0:25.27 1:-16.89 2:-9.25 3:-11.37 4:-12.99 5:-3.87 6:-15.26 7:-6.8 8:-17.17 9:14.08 10:-23.56 11:11.86 12:-15.99 
-1.037079904441769 0:25.94 1:-19.67 2:1.08 3:-11.39 4:-15.85 5:-5.88 6:-21.66 7:-12.22 8:-6.91 9:11.63 10:-2.76 11:12.8 12:-25.51 
-1.037079904441769 0:23.31 1:-3.34 2:-5.94 3:-4.03 4:-12.62 5:-27.34 6:-22.09 7:-18.03 8:-9.96 9:-7.06 10:-2.38 11:13.46 12:-7.13 
-1.037079904441769 0:22.5 1:-17.73 2:10.67 3:2.11 4:-2.53 5:-10.96 6:1.52 7:19.18 8:-13.82 9:14.42 10:-3.69 11:-1.59 12:0.79 
-1.037079904441769 0:24.92 1:-11.55 2:12.02 3:-24.15 4:-2.68 5:-12.44 6:-31.24 7:-20.64 8:25.64 9:-9.67 10:6.36 11:14.82 12:-8.48 
-1.037079904441769 0:25.23 1:-24.06 2:4.41 3:4.03 4:22.13 5:-19.44 6:-27.04 7:-31.49 8:11.74 9:3.05 10:-13.63 11:8.2 12:-6.42 
-1.037079904441769 0:22.06 1:-17.22 2:8.59 3:9.8 4:7.43 5:-23.48 6:11.93 7:9.25 8:-19.22 9:11.85 10:4.02 11:-1.4 12:-3.74 
-1.037079904441769 0:24.73 1:-10.51 2:3.53 3:-14.27 4:-28.1 5:-11.07 6:-10.49 7:3.56 8:-24.33 9:9.58 10:3.86 11:2.01 12:-2.95 
-1.037079904441769 0:22.34 1:-12.26 2:2.45 3:-8.69 4:-3.95 5:-26.5 6:1.62 7:-25.46 8:8.92 9:-4.86 10:11.53 11:-7.26 12:1.3 
-1.037079904441769 0:24.72 1:-20.81 2:-22.72 3:-11.93 4:-25.12 5:-40.5 6:-17.27 7:-3.77 8:-3.09 9:5.6 10:-11.47 11:-0.07 12:-18.2 
-1.037079904441769 0:23.73 1:-5.39 2:-1.78 3:-11.87 4:6.53 5:-22.79 6:-18.01 7:-12.49 8:-12.5 9:-12.25 10:-22.33 11:33.72 12:-12.73 
-1.037079904441769 0:23.86 1:-15.58 2:21.6 3:-8.28 4:-0.5 5:-8.49 6:-29.4 7:18.03 8:-21.7 9:32.21 10:-14.06 11:10.62 12:-0.84 
-1.037079904441769 0:24.2 1:-4.14 2:4.58 3:-24 4:-0.89 5:-27.85 6:-14.93 7:-17.16 8:2.34 9:-9.34 10:-9.94 11:1.58 12:2.47 
-1.037079904441769 0:24.31 1:-4.65 2:1.69 3:-34.99 4:-8.03 5:-5.98 6:-31.73 7:-1.16 8:-5.3 9:10.84 10:0.3 11:-0.88 12:-2.62 
-1.037079904441769 0:25.04 1:-16.1 2:-1.59 3:-4.21 4:-13.9 5:-36.39 6:-6.58 7:-9.36 8:-10.22 9:-6.28 10:1.22 11:-3.71 12:-10.36 
-1.037079904441769 0:23.33 1:-18.65 2:11.3 3:2.53 4:-2.46 5:-17.39 6:-3.06 7:4.02 8:-13.48 9:23.61 10:-6.79 11:-3.58 12:-6.64 
-1.037079904441769 0:24.48 1:-2.82 2:-12.7 3:2.23 4:-9.28 5:-15.28 6:-22.85 7:-30.8 8:-2.36 9:15.68 10:-7.97 11:3.46 12:-7.13 
-1.037079904441769 0:24.49 1:-1.39 2:-12.96 3:-7.74 4:-5.81 5:-15.21 6:-15.92 7:-22.13 8:-20.65 9:6.77 10:14.54 11:-3.45 12:-4.04 
-1.037079904441769 0:21.02 1:-12.22 2:8.1 3:5.48 4:4.89 5:-5.59 6:-5.67 7:14.95 8:-14.99 9:4.74 10:7.22 11:-2.14 12:1.13 
-1.037079904441769 0:20.62 1:-9.31 2:8.56 3:-6.88 4:1.95 5:5.65 6:2.8 7:6 8:-2.7 9:5.57 10:5.04 11:-4.88 12:1.2 
-1.037079904441769 0:24.63 1:-7.52 2:-2.26 3:-0.76 4:-17.79 5:-29.86 6:-3.32 7:-23.41 8:-1.38 9:10.12 10:3.91 11:-16.42 12:-25.63 
-1.037079904441769 0:25.72 1:-14.1 2:4.51 3:0.73 4:16.75 5:-28.82 6:-11.32 7:-16.58 8:-20.92 9:4.64 10:4.12 11:-1.52 12:-13.34 
-1.037079904441769 0:23.93 1:-10.41 2:23.94 3:-12.88 4:-3.95 5:8.87 6:-16.76 7:16.14 8:-1.94 9:6.42 10:1.04 11:8.94 12:0.79 
-1.037079904441769 0:25.73 1:-12.99 2:4.19 3:-25.8 4:9.63 5:-40.22 6:-6.97 7:-21.9 8:-2.44 9:-5.67 10:6.26 11:9.27 12:-9.81 
-1.037079904441769 0:24.32 1:1.09 2:-7.03 3:-16.9 4:7.73 5:-19.92 6:-1.86 7:-22.11 8:0.88 9:-17.36 10:-1.91 11:8.87 12:-8.27 
-1.037079904441769 0:24.7 1:-4.94 2:-6.82 3:-0.96 4:-22.99 5:-29.83 6:-12.81 7:-10.81 8:-12.86 9:22.93 10:-2.11 11:-15.4 12:-19.76 
-1.037079904441769 0:24.14 1:-2.57 2:-15.22 3:8.41 4:12.98 5:-26.82 6:-17.83 7:-33.69 8:17.26 9:-11.74 10:-18.44 11:34.15 12:-13.16 
-1.037079904441769 0:22.65 1:-12.61 2:-0.16 3:-10.1 4:-4.94 5:-4.06 6:-5.11 7:7.54 8:-2.85 9:16.57 10:0.4 11:4.83 12:-10.06 
-1.037079904441769 0:23.95 1:-0.6 2:-6.44 3:-6.87 4:-23.17 5:-14.72 6:-11.68 7:-22.02 8:2.22 9:-1.42 10:8.67 11:4.68 12:-9.62 
-1.037079904441769 0:21.82 1:-15.16 2:4.28 3:6.12 4:-4.1 5:-10.56 6:3.16 7:14.03 8:-12.53 9:19.91 10:-3.43 11:-2.17 12:8.37 
-1.037079904441769 0:23.05 1:6.09 2:-5.12 3:-7.32 4:-4.56 5:-28.52 6:6.32 7:-32.03 8:-6.97 9:-14.84 10:5.3 11:20.84 12:-9.76 
-1.037079904441769 0:22.69 1:-2.19 2:0.39 3:-7.35 4:-15.4 5:-33.39 6:-8.03 7:-11.01 8:-21.59 9:-19.21 10:1.68 11:10.14 12:-4.85 
-1.037079904441769 0:20.59 1:-1.68 2:1.23 3:-13.27 4:-7.08 5:-1.21 6:6.37 7:3.76 8:-3.11 9:-2.56 10:-3.02 11:2.54 12:-3.31 
-1.037079904441769 0:24.06 1:-15.4 2:-27.41 3:-12.2 4:-8.2 5:-56.29 6:-13.55 7:-19.24 8:10.39 9:2.52 10:-12.03 11:-10.56 12:-10.1 
-1.037079904441769 0:24.85 1:-8.1 2:-9.87 3:9.14 4:3.13 5:-40.12 6:-15.71 7:-27.33 8:2.68 9:-11.97 10:6.41 11:-0.12 12:-7.68 
-1.037079904441769 0:24.63 1:-9.5 2:7.69 3:-21.38 4:-24.13 5:-4.56 6:-18.14 7:0.91 8:8.28 9:-7.38 10:7.42 11:-11.55 12:6.25 
-1.037079904441769 0:23.21 1:-16.12 2:24.8 3:-16 4:0.09 5:-3.84 6:-21.47 7:19.96 8:-7.56 9:21.07 10:0.77 11:6.94 12:-2.37 
-1.037079904441769 0:25.96 1:-15.15 2:4.19 3:-13.91 4:9.35 5:-42.68 6:-1.28 7:-21.38 8:-6.35 9:3.32 10:-2.36 11:-9.46 12:-12.85 
-1.037079904441769 0:23.74 1:-7.3 2:-3.31 3:27.27 4:-1.99 5:-19.7 6:-28.55 7:-10.98 8:-18.4 9:-30.34 10:0.97 11:17.27 12:7.37 
-1.037079904441769 0:20.84 1:-7.6 2:4.86 3:-7.29 4:3.4 5:-13.78 6:-0.05 7:-12.36 8:5 9:-4.65 10:5.46 11:-7.27 12:0.56 
-1.037079904441769 0:24.79 1:-17.08 2:-23.1 3:-9.65 4:-21.44 5:-33.87 6:-7.66 7:-8.46 8:-11.12 9:-8.66 10:4.95 11:-10.3 12:-3.88 
-1.037079904441769 0:20.69 1:-6.18 2:4.9 3:-5.14 4:-4.42 5:2.55 6:-9.18 7:6.59 8:-4.83 9:2.79 10:0.27 11:-2.79 12:-3.05 
-1.037079904441769 0:24.76 1:-10.52 2:17.67 3:-15.47 4:2.02 5:-35.39 6:-20.64 7:-17.93 8:13.18 9:1.95 10:1.64 11:7.67 12:-3.46 
-1.037079904441769 0:24.73 1:-12.55 2:2.65 3:-17.27 4:-27.93 5:3.5 6:-4.6 7:-18.55 8:-15.99 9:6.83 10:-0.73 11:12.15 12:-12.05 
-1.037079904441769 0:25.49 1:-19.16 2:11.78 3:26.4 4:-3.02 5:-39.56 6:-18.53 7:-34.44 8:21.08 9:-11.36 10:5.59 11:7.25 12:-11.96 
-1.037079904441769 0:23.92 1:-14.39 2:6.48 3:-15.31 4:10.5 5:-31.91 6:-2.43 7:-15.56 8:4.18 9:-7.05 10:10.4 11:-4.63 12:-1.81 
-1.037079904441769 0:24.55 1:-9.43 2:-8.01 3:-11.62 4:17.1 5:-15.06 6:-12.83 7:-23.26 8:-10.03 9:4.32 10:-0.36 11:16.83 12:-12.61 
-1.037079904441769 0:23.48 1:15.53 2:-12.88 3:4.23 4:3.2 5:-37.76 6:-15.58 7:-19.7 8:-6.24 9:13.42 10:3.77 11:2.59 12:-14.97 
-1.037079904441769 0:22.41 1:-19.92 2:13.12 3:6.47 4:4.86 5:-14.54 6:-0.11 7:7.59 8:-16.98 9:13.2 10:-0.57 11:9.15 12:1.11 
-1.037079904441769 0:22.09 1:-13.84 2:13.28 3:-11.4 4:2.65 5:-1.68 6:-8.22 7:11.4 8:-1.31 9:11.8 10:-0.06 11:1.15 12:1.35 
-1.037079904441769 0:22.67 1:2.19 2:-3.5 3:-1.42 4:-8.39 5:-24.18 6:-8.92 7:-27.6 8:6.59 9:5.96 10:1 11:2.7 12:4.34 
-1.037079904441769 0:24.44 1:-21.01 2:-27.77 3:-17.81 4:-26.49 5:-34.4 6:-7 7:-12.46 8:-5.91 9:5.68 10:-17.29 11:1.57 12:-28.49 
-1.037079904441769 0:22.25 1:-9.74 2:6.44 3:-19.29 4:1.35 5:-20.84 6:-5.6 7:-17.15 8:5.32 9:-7.39 10:5.12 11:-0.2 12:2.2 
-1.037079904441769 0:24.78 1:-20.48 2:-23.3 3:-21.15 4:-3.72 5:-42.37 6:-19.98 7:-12.97 8:-2.52 9:4.99 10:-22.59 11:-9.7 12:-11.01 
-1.037079904441769 0:20.27 1:-4.35 2:11.35 3:-6.03 4:2.73 5:-3.17 6:-13 7:11.02 8:-15 9:15.76 10:-0.68 11:12.05 12:2.91 
-1.037079904441769 0:24.46 1:-9.65 2:3.51 3:-0.21 4:-12.98 5:-30.64 6:11.85 7:-34.92 8:3.03 9:-7.64 10:-2.68 11:14.45 12:-3.22 
-1.037079904441769 0:24.68 1:-11.19 2:7.47 3:-26.92 4:-36.97 5:4.13 6:-6.09 7:-25.72 8:-3.04 9:20.26 10:-7.63 11:1.3 12:-14.16 
-1.037079904441769 0:21.85 1:-15.58 2:18.33 3:-7.57 4:-2.44 5:7.34 6:-12.95 7:12.24 8:-7.62 9:7.4 10:4.82 11:7.84 12:0.63 
-1.037079904441769 0:24.06 1:-4.25 2:-4.21 3:-9.46 4:-5.51 5:-44.2 6:6.34 7:-23.5 8:-2.25 9:1.56 10:8.17 11:6.27 12:-3.69 
-1.037079904441769 0:24.46 1:-5.98 2:7.14 3:-16.63 4:-9.85 5:-31.72 6:1.93 7:-8.65 8:-8.34 9:-4.41 10:17.56 11:3.5 12:-12.65 
-1.037079904441769 0:25.1 1:-13.63 2:13.97 3:-18.35 4:0.77 5:-11.18 6:-19.1 7:-24.02 8:-6.81 9:23.06 10:-15.72 11:-1.06 12:-10.4 
-1.037079904441769 0:25.4 1:-12.52 2:-2.87 3:-5.64 4:19.62 5:-25.16 6:-26.65 7:-25.86 8:-16.04 9:5.7 10:0.81 11:0.77 12:3.14 
-1.037079904441769 0:22.25 1:-12.83 2:16.48 3:-8.83 4:-4.24 5:7.93 6:-19.04 7:18.43 8:-6.86 9:10.15 10:3.29 11:-2 12:-3.12 
-1.037079904441769 0:24.75 1:-22.98 2:7.65 3:15.89 4:5.39 5:-40.09 6:-23.94 7:-9.05 8:8.93 9:-0.39 10:-15.41 11:-4.05 12:-9.44 
-1.037079904441769 0:21.28 1:-10.96 2:12.08 3:-1.15 4:-2.92 5:3.6 6:-6.9 7:15.35 8:-13.31 9:15.97 10:-3.1 11:-1.58 12:4.2 
-1.037079904441769 0:22.85 1:-15.3 2:15.7 3:3.3 4:6.99 5:-28.46 6:0.62 7:10.98 8:-32.78 9:27.43 10:-0.76 11:-1.02 12:-1.18 
-1.037079904441769 0:26.71 1:-24.84 2:5.82 3:3.2 4:16.96 5:-36.96 6:-18.97 7:-30.23 8:-14.64 9:14.22 10:6.11 11:0.57 12:-17.6 
-1.037079904441769 0:22.49 1:-19.26 2:10.76 3:11.04 4:-3.43 5:-12.23 6:-1.63 7:4.26 8:-18.1 9:19.7 10:-0.91 11:7.63 12:5.23 
-1.037079904441769 0:22.68 1:-15.05 2:19.59 3:-8.91 4:0.09 5:0.93 6:-12.49 7:13.7 8:-19.99 9:22.84 10:-2.3 11:-1.14 12:3.83 
-1.037079904441769 0:21.02 1:-2.41 2:5.25 3:-17.66 4:-10.75 5:-9.54 6:5.23 7:7.78 8:1.27 9:-0.1 10:-5.67 11:3.17 12:-1.23 
-1.037079904441769 0:25.03 1:-11.16 2:12.35 3:-9.54 4:-17.56 5:-14.23 6:-8.76 7:-34.57 8:-21.75 9:15.71 10:-10.62 11:7.14 12:-21.88 
-1.037079904441769 0:23.3 1:-13.27 2:21.51 3:-16.01 4:0.56 5:-2.99 6:-31.06 7:16.57 8:-15.86 9:23.13 10:-2.74 11:9.02 12:1.13 
-1.037079904441769 0:22.31 1:-11.62 2:6.41 3:4.62 4:8.55 5:-21.86 6:-2.52 7:-15.18 8:7.08 9:-16.54 10:14.67 11:-4.12 12:3.16 
-1.037079904441769 0:23.9 1:-1.6 2:7.08 3:-28.06 5:-16.54 6:-12.59 7:-28.54 8:-4.95 9:6.72 10:-24.12 11:11.69 12:7.22 
-1.037079904441769 0:24.02 1:-10.34 2:16.63 3:-14.22 4:-22.57 5:-2.61 6:-22.83 7:-5.45 8:1.52 9:1.29 10:6.62 11:6.76 12:2.6 
-1.037079904441769 0:23.84 1:-5.01 2:-2.46 3:-15.82 4:-1.15 5:-19.36 6:-9.53 7:1.29 8:-6.09 9:-2.79 10:7.13 11:-13.72 12:-8.55 
-1.037079904441769 0:25.95 1:-18.34 2:12.4 3:-7.43 4:-17.55 5:-3.52 6:-18.07 7:-21.77 8:-14.56 9:16.84 10:-1.41 11:-5.96 12:-18.59 
-1.037079904441769 0:24.71 1:-13.3 2:4.63 3:-7.48 4:-13.74 5:-14.22 6:-15.38 7:-13.89 8:-24.74 9:15.67 10:2.87 11:10.5 12:-13.12 
-1.037079904441769 0:21.72 1:-12.28 2:15.04 3:-7.04 4:-3.78 5:12.77 6:-14.92 7:22.15 8:-4.19 9:11.94 10:2.25 11:-3.03 12:1.17 
-1.037079904441769 0:24.68 1:-9.98 2:3.1 3:-11.52 4:-47.23 5:2.33 6:4.73 7:-19.43 8:-9.17 9:18.35 10:-3.24 11:8.07 12:-11.59 
-1.037079904441769 0:21.53 1:-8.54 2:5.15 3:-1.13 4:-1.65 5:-18.25 6:7.93 7:-18.16 8:9.1 9:-1.68 10:9.14 11:-4.63 12:-1.33 
-1.037079904441769 0:22.1 1:-12.39 2:14.82 3:-4.77 4:7.52 5:-10.95 6:3.34 7:4.76 8:-12.7 9:11.78 10:-3.88 11:0.72 12:0.41 
-1.037079904441769 0:24.14 1:-21.25 2:20.88 3:-2.23 4:-2.89 5:-13.79 6:-8.97 7:15.32 8:-23.83 9:20.23 10:0.01 11:-3.3 12:8.5 
-1.037079904441769 0:23.4 1:-2.85 2:4.68 3:-14.82 4:5.36 5:-32.55 6:-33.34 7:-10.66 8:4.38 9:-14.67 10:-3.7 11:8.88 12:-1.23 
-1.037079904441769 0:24.7 1:-11.06 2:6.52 3:-19.51 4:-8.82 5:-13.94 6:-29 7:-10.58 8:-9.74 9:24.84 10:-1.28 11:-13 12:10.6 
-1.037079904441769 0:23.4 1:-4.62 2:15.85 3:-23.07 4:-26.19 5:-11.99 6:-9.36 7:-7.79 8:-11.08 9:14.72 10:0.21 11:-4.97 12:4.14 
-1.037079904441769 0:25.97 1:-21.04 2:-6.29 3:-7.87 4:-3.68 5:-36.12 6:-8.2 7:-13.88 8:-1.63 9:5.31 10:4.19 11:-11.62 12:-16.71 
-1.037079904441769 0:21.48 1:-15.82 2:14.28 3:-2.64 4:4.44 5:5.05 6:-1.87 7:12.27 8:-11.16 9:19.78 10:-4.82 11:2.02 12:10.08 
-1.037079904441769 0:24.87 1:-21.51 2:-28.26 3:-28.1 4:-7.94 5:-38.06 6:-3.19 7:-9.84 8:-10.83 9:-1.19 10:-12.67 11:-12.16 12:-11.73 
-1.037079904441769 0:20.86 1:-8.94 2:1.9 3:-6.15 4:0.42 5:-16.93 6:-0.95 7:-15.01 8:0.12 9:-5.85 10:6.55 11:-4.64 12:2.27 
-1.037079904441769 0:25.74 1:-11.71 2:12.84 3:-27.47 4:8.04 5:-41.11 6:5.32 7:-4.46 8:-19.46 9:-1.1 10:-1.43 11:7.82 12:-7.54 
-1.037079904441769 0:20.42 1:-5.91 2:10.65 3:-2.34 4:-6.65 5:-3.4 6:0.27 7:7.52 8:-2.97 9:16.5 10:-3.35 11:-4.99 12:4.98 
-1.037079904441769 0:24.29 1:-11.62 2:2.76 3:-9.44 4:-20.35 5:-2.75 6:-26.63 7:-21.13 8:14.41 9:-1.67 10:2.19 11:0.5 12:-6.76 
-1.037079904441769 0:25.1 1:-5.73 2:14.14 3:-21.82 4:10.78 5:-24.03 6:-14.87 7:5.62 8:-11.3 9:-5.66 10:-0.86 11:-13.7 12:3.22 
-1.037079904441769 0:23.76 1:-17.7 2:25.95 3:-13.53 4:-1.85 5:-0.55 6:-27.2 7:26.79 8:-20.14 9:24.62 10:0.41 11:1.09 12:1.3 
-1.037079904441769 0:24.72 1:-7.66 2:-12.5 3:-5.03 4:-1.43 5:-30.65 6:19.42 7:-31.54 8:-25.44 9:15.49 10:-4.5 11:-8.25 12:-15.64 
-1.037079904441769 0:23.2 1:-3.17 2:-3.05 3:1.54 4:2.42 5:-32.2 6:-30.34 7:-14.73 8:-16.11 9:-10.76 10:10.94 11:13.52 12:-11.37 
-1.037079904441769 0:25.62 1:-13.86 2:2.91 3:-2.08 4:11.02 5:-39.64 6:-24.76 7:-1.84 8:-4.05 9:1.26 10:17.98 11:-15.55 12:-7.84 
-1.037079904441769 0:24.17 1:-15.83 2:-31.22 3:-40.63 4:-13.4 5:-24.33 6:-8.41 7:-11.37 8:-7.39 9:3.97 10:-12 11:-4.79 12:-17 
-1.037079904441769 0:24.97 1:-11.25 2:12.2 3:-12.44 4:-31.37 5:-7.3 6:-15.64 7:-33.37 8:-9.47 9:23.36 10:-5.36 11:-2.06 12:-4.34 
-1.037079904441769 0:26.07 1:-16.78 2:11.47 3:-4.16 4:16.82 5:-34.62 6:-9.19 7:-25.45 8:-1.64 9:-5.52 10:3.72 11:-0.9 12:-4.1 
-1.037079904441769 0:24.47 1:-5.2 2:-2.39 3:-27.78 4:-4.21 5:-19.3 6:8.7 7:-21.49 8:-8.72 9:4.2 10:-1.24 11:13.15 12:-10.48 
-1.037079904441769 0:23.72 1:-15.62 2:-20.21 3:-16.17 4:-9.91 5:-27.53 6:-1.06 7:-6.02 8:-3.97 9:-3.44 10:-5.19 11:-12.32 12:-15.87 
-1.037079904441769 0:23.91 1:-1.77 2:4 3:-13.97 4:-22.63 5:-15.33 6:-10.43 7:-30.54 8:-19.55 9:4.82 10:8.73 11:5.2 12:-11.32 
-1.037079904441769 0:23.81 1:-4.45 2:14.53 3:-28.72 4:-37.68 5:7.27 6:-14.42 7:-11.12 8:10.91 9:-10.35 10:9.54 11:-5.01 12:-3.99 
-1.037079904441769 0:23.81 1:-5.53 2:-12.61 3:17.94 4:-6.03 5:-31.94 6:-21.07 7:-28.31 8:3.85 9:-28.21 10:-1.61 11:18.85 12:-24.25 
-1.037079904441769 0:24.94 1:-9.7 2:-5.71 3:2.12 4:-2.31 5:-14.09 6:-41.04 7:-20.36 8:-4.92 9:4.57 10:-0.45 11:-4.34 12:0.26 
-1.037079904441769 0:26 1:-23.16 2:2.68 3:17.42 4:9.42 5:-39.7 6:-23.74 7:-10.26 8:-4.35 9:-3.13 10:2.79 11:-18.78 12:-11.23 
-1.037079904441769 0:24.93 1:-8.06 2:-13.45 3:8.56 4:0.38 5:-38.25 6:10.95 7:-29.95 8:-35.99 9:-9.44 10:-12.64 11:-2.38 12:-0.73 
-1.037079904441769 0:23.32 1:1.31 2:-5.6 3:-2.93 4:-7.6 5:-43.46 6:0.87 7:-30.16 8:-1.99 9:12.28 10:-22.37 11:10.7 12:-25.88 
-1.037079904441769 0:22.34 1:-15.07 2:4.42 3:-13.21 4:-0.57 5:-22.83 6:-1.91 7:-12.05 8:1.22 9:0.34 10:5.71 11:2.15 12:-7.05 
-1.037079904441769 0:25.14 1:-19.57 2:14.28 3:-9.28 4:4.68 5:-25.85 6:2.02 7:-15.79 8:6.75 9:1.15 10:4.53 11:-0.03 12:-7.02 
-1.037079904441769 0:24.48 1:-9.32 2:3.36 3:-24.95 4:-27.76 5:1.85 6:-0.13 7:-19.26 8:-7.65 9:2.64 10:0.23 11:5.85 12:-16.45 
-1.037079904441769 0:24.39 1:-14.19 2:8.39 3:12.49 4:-5.8 5:-15.43 6:-36.35 7:-22.84 8:-13.49 9:6.48 10:12.16 11:9.55 12:-18.06 
-1.037079904441769 0:21.81 1:-13.59 2:9.16 3:10.92 4:-0.31 5:-5.48 6:2.4 7:6.03 8:-18.3 9:15.51 10:-6.77 11:1.71 12:6.37 
-1.037079904441769 0:24.13 1:-3.45 2:1.09 3:-5.67 4:-35.16 5:-27.71 6:4.07 7:-9.98 8:-19.39 9:18 10:-6.75 11:4.72 12:-22.66 
-1.037079904441769 0:21.48 1:-8.74 2:-4.15 3:7.97 4:-10.03 5:-27.71 6:-0.83 7:-9.02 8:-5.98 9:-15.39 10:3.52 11:5.37 12:-2.41 
-1.037079904441769 0:20.76 1:-8.27 2:2.64 3:-5.17 4:3.44 5:-16.47 6:-0.79 7:-10.41 8:2.67 9:-3.93 10:1.95 11:-3.95 12:-2.2 
-1.037079904441769 0:24.42 1:-18.08 2:-33.12 3:-23.15 4:-12.7 5:-36.33 6:0.76 7:-10.41 8:-8.84 9:-2.63 10:-15.42 11:-6.2 12:-10.32 
-1.037079904441769 0:21.14 1:-7.62 2:-2.48 3:-7.88 4:-1.12 5:-8.32 6:-4.47 7:-14.43 8:-1.67 9:-4.39 10:-4.31 11:-5.78 12:-3.31 
-1.037079904441769 0:22.24 1:-12.77 2:9.22 3:-15.25 4:9.81 5:-18.61 6:-2.8 7:-12.49 8:-1.49 9:-6.1 10:1.32 11:-2.33 12:-0.44 
-1.037079904441769 0:24.6 1:-11.16 2:5.85 3:-18.44 4:1.23 5:-20.12 6:-7.09 7:-16.29 8:-10.49 9:-2.74 10:-3.38 11:10.49 12:-11.51 
-1.037079904441769 0:24.65 1:-9.32 2:4.67 3:-20 4:-23.43 5:8.46 6:-21.23 7:-8.65 8:6.66 9:-3 10:9.93 11:-13.79 12:-0.56 
-1.037079904441769 0:23.71 1:-12.93 2:4.34 3:-14.01 4:8.17 5:-25.25 6:-3.53 7:-18.25 8:-1.93 9:-7.94 10:8.42 11:1.01 12:-9.99 
-1.037079904441769 0:23.57 1:-3.83 2:3.23 3:-9.96 4:-21.63 5:-14.33 6:-11.31 7:-17.95 8:20.95 9:-6.29 10:10.15 11:-8.83 12:1.4 
-1.037079904441769 0:24.61 1:-10.32 2:-5.8 3:-8.13 4:-2.97 5:-7.85 6:-2.15 7:-24.2 8:6.13 9:-1.63 10:1.93 11:-12.85 12:1.03 
-1.037079904441769 0:23.29 1:-17.79 2:24.22 3:-6.7 4:-9.31 5:0.43 6:-14.68 7:2.92 8:2.28 9:13.32 10:-11.52 11:1.34 12:-6.56 
-1.037079904441769 0:24.44 1:-5.61 2:-0.52 3:-22.08 4:1.31 5:-19.36 6:2.75 7:-24.27 8:-4.11 9:1.14 10:6.37 11:3.57 12:-3.54 
-1.037079904441769 0:24.65 1:-8.72 2:-2.91 3:-10.96 4:-8.72 5:-32.65 6:9.62 7:-34.84 8:-1.55 9:9.7 10:-0.13 11:10.72 12:-1.97 
-1.037079904441769 0:24.39 1:-3.47 2:-16.01 3:-3.14 4:-14.46 5:-15.3 6:-32.2 7:-29.46 8:2.89 9:2.91 10:6.07 11:4.42 12:-10.05 
-1.037079904441769 0:22.41 1:-11.55 2:15.19 3:-17 4:-15.51 5:-0.94 6:-4.43 7:19.52 8:-6.66 9:15.4 10:6.45 11:-5.98 12:-0.75 
-1.037079904441769 0:23.09 1:2.38 2:12.37 3:-20.63 4:-9.11 5:-19.7 6:-11.73 7:-11.21 8:-12.8 9:-3.31 10:-29.23 11:29.89 12:2.48 
-1.037079904441769 0:21.35 1:-3.85 2:12.34 3:-23.24 4:3.19 5:0.4 6:-0.59 7:15.32 8:-10.41 9:-1.46 10:4.25 11:9.04 12:-0.56 
-1.037079904441769 0:24.46 1:-9.61 2:12.65 3:3.61 4:-28.87 5:-37 6:2.68 7:-20.34 8:12.17 9:-16.72 10:6.81 11:9.69 12:-3.53 
-1.037079904441769 0:21.79 1:-13.76 2:4.56 3:-6.44 4:5.19 5:-19.31 6:0.99 7:-14.58 8:3.78 9:-12.56 10:3.64 11:-4.99 12:0.01 
-1.037079904441769 0:21.03 1:-11.33 2:13.1 3:-2.72 4:-14.14 5:14.16 6:-10.49 7:10.75 8:7.94 9:8.75 10:0.78 11:3.25 12:-3.62 
-1.037079904441769 0:25.26 1:-17.6 2:9.45 3:-15.25 4:-35.65 5:-1.29 6:8.8 7:-12.57 8:-9.01 9:2.91 10:-5.91 11:24.27 12:-18.38 
-1.037079904441769 0:24.26 1:-5.78 2:-11.1 3:-5.58 4:-3.33 5:-14.77 6:-31.65 7:-25.95 8:-2.07 9:6.36 10:6.52 11:4.09 12:-9.73 
-1.037079904441769 0:24.54 1:-11.2 2:3.57 3:-1.31 4:-16.16 5:-17.75 6:-32.84 7:-22.12 8:5.16 9:15.77 10:-6.53 11:-14.14 12:0.36 
-1.037079904441769 0:21.85 1:-10.56 2:7.67 3:-7.25 4:8.36 5:-19.96 6:6.71 7:-20.05 8:5.02 9:-5.07 10:8.65 11:-3.45 12:-2.32 
-1.037079904441769 0:25.87 1:-20.25 2:17.83 3:-3.81 4:-31.43 5:-4.71 6:-34 7:-10.85 8:4.92 9:-3.7 10:3.61 11:9.19 12:-17.51 
-1.037079904441769 0:23.92 1:-9.31 2:-7.39 3:-13.12 4:-7.84 5:-36.31 6:-14.98 7:-19.87 8:-15.35 9:5.41 10:-2.14 11:-7.36 12:-10.07 
-1.037079904441769 0:22.16 1:-15.49 2:8.78 3:13.83 4:4.27 5:-28.21 6:10.59 7:5.76 8:-21.38 9:14.78 10:2.09 11:-5.71 12:4.15 
-1.037079904441769 0:21.86 1:-12.98 2:11.94 3:-6.97 4:2.83 5:2.29 6:-13.19 7:15.8 8:-6.89 9:3.83 10:3.12 11:-3.65 12:6.34 
-1.037079904441769 0:21.37 1:-10.04 2:11.32 3:1.27 4:0.79 5:3.36 6:-18.03 7:12.56 8:-6.77 9:17.99 10:-4.8 11:-0.61 12:-1.85 
-1.037079904441769 0:25.46 1:-19.72 2:1.14 3:17.13 4:6.33 5:-39.61 6:-16.75 7:-15.54 8:-3.87 9:7.92 10:-9.52 11:-4.02 12:-16.77 
-1.037079904441769 0:25.45 1:-12.86 2:-13.76 3:-7.14 4:4.02 5:-36.31 6:-10.93 7:-21.43 8:-13.3 9:14.74 10:-0.29 11:-2.57 12:-9.08 
-1.037079904441769 0:23.69 1:-9.02 2:7.18 3:-18.84 4:-11.5 5:-15.95 6:6.21 7:-21.63 8:-1.22 9:-6.46 10:1.53 11:-14.26 12:-6.91 
-1.037079904441769 0:23.45 1:-18.71 2:17.38 3:-0.62 4:2.66 5:-20.17 6:-6.63 7:14.08 8:-25.96 9:21.63 10:8.33 11:2.43 12:-4.36 
-1.037079904441769 0:21.98 1:-13.51 2:3.71 3:-6.09 4:3.05 5:-22.45 6:2.86 7:-15.18 8:-0.91 9:-5.17 10:7.98 11:-7.22 12:5.39 
-1.037079904441769 0:24.38 1:-4.85 2:11.08 3:-21.58 4:-19.34 5:-5.02 6:-13.57 7:-19.44 8:-17.23 9:20.34 10:-0.53 11:15.12 12:-9.6 
-1.037079904441769 0:21.52 1:-12.6 2:7.87 3:0.22 4:-6.95 5:7.87 6:-5.72 7:13.65 8:2.63 9:9.55 10:0.21 11:-2.63 12:2.53 
-1.037079904441769 0:24.21 1:-12.82 2:10.67 3:-3.36 4:9.76 5:-44.89 6:5.39 7:-24.67 8:1.16 9:8.12 10:1.12 11:2.79 12:1.9 
-1.037079904441769 0:25.17 1:-10.09 2:-4.25 3:15.85 4:-20.85 5:-30.37 6:-6.59 7:-28.26 8:-11.7 9:-0.36 10:-10.38 11:-4.17 12:-18.63 
-1.037079904441769 0:22.38 1:-0.15 2:6.09 3:-25.79 4:2.11 5:-13.34 6:6.2 7:-13.27 8:-4.84 9:-2.69 10:6.01 11:5.22 12:-0.79 
-1.037079904441769 0:26.39 1:-21.29 2:28.01 3:-9.98 4:-5.08 5:-7.52 6:-31.1 7:-25.8 8:21.47 9:-5.77 10:5.18 11:5.25 12:-0.61 
-1.037079904441769 0:24.78 1:-5.21 2:-0.88 3:7.95 4:-22.82 5:-23.61 6:2.87 7:-34.13 8:-4.68 9:15.55 10:-4.47 11:-2.83 12:1.96 
-1.037079904441769 0:24 1:-0.25 2:0.74 3:-8.13 4:-16.58 5:-16.51 6:-17.82 7:-18.36 8:-2.89 9:2.21 10:19.41 11:-5.87 12:-6.66 
-1.037079904441769 0:22.66 1:-11.93 2:12.96 3:-8 4:9.32 5:-19.16 6:-14.22 7:-3.35 8:2.55 9:8.67 10:-2.89 11:-7.19 12:16.88 
-1.037079904441769 0:26.92 1:-12.66 2:8.53 3:-22.77 4:17.96 5:-25.25 6:2.5 7:-32.21 8:1.92 9:-20.16 10:6.7 11:5.53 12:-11.34 
-1.037079904441769 0:24.7 1:-3.39 2:4.08 3:-14.68 4:0.17 5:-44.68 6:0.99 7:-23.18 8:-0.08 9:-13.89 10:-6.35 11:13.23 12:-5.83 
-1.037079904441769 0:24.26 1:-8.54 2:13.77 3:-25.78 4:-25.54 5:12.29 6:-20.99 7:-5.12 8:3.69 9:-3.63 10:11.37 11:-6.84 12:2.26 
-1.037079904441769 0:21.74 1:-15.59 2:14.48 3:-3.87 4:-0.31 5:5 6:-4.44 7:9.37 8:-7.15 9:15.08 10:-2.61 11:-5.97 12:12.46 
-1.037079904441769 0:23.24 1:5.23 2:-6.26 3:-29.31 4:-23.02 5:-16 6:-15.54 7:-0.41 8:-3.55 9:-5.67 10:-2.63 11:-9.79 12:-11.84 
-1.037079904441769 0:21.07 1:-5.88 2:4.89 3:-6.8 4:2.89 5:-12.16 6:0.92 7:-9.16 8:2.25 9:-4.03 10:8.07 11:3.6 12:-3.34 
-1.037079904441769 0:22.25 1:-8.81 2:21.09 3:-14.55 4:8.99 5:-8.87 6:-10.7 7:8.66 8:-15.71 9:22.26 10:-7.71 11:9.28 12:-12.25 
-1.037079904441769 0:21.81 1:-14.38 2:17.2 3:-0.33 4:3.72 5:-9.49 6:-6.08 7:7.09 8:-16.65 9:13.96 10:3.29 11:-2.82 12:7.18 
-1.037079904441769 0:25.1 1:-12.6 2:4.42 3:-13.77 4:4.4 5:-28.37 6:5.36 7:-19.71 8:-0.81 9:-5.66 10:19.52 11:-11.48 12:-9.13 
-1.037079904441769 0:21.72 1:-8.69 2:5.96 3:3.45 4:-4.35 5:-30.02 6:7.73 7:-8.84 8:3.76 9:-5 10:9.62 11:4.49 12:-1.07 
-1.037079904441769 0:24.08 1:-5.55 2:10.25 3:-23.04 4:-17.48 5:-1.8 6:-18.94 7:-7.06 8:2.97 9:-6.43 10:-3.6 11:-14.34 12:7.07 
-1.037079904441769 0:23.28 1:-7.04 2:-38.19 3:-5.48 4:-28.15 5:-46.37 6:-15.33 7:-4.46 8:-2.03 9:-21.88 10:6.1 11:5.33 12:-2.98 
-1.037079904441769 0:23.56 1:-11.97 2:-23.87 3:-1.92 4:-24.52 5:-25.54 6:-13.74 7:-6.66 8:-13.09 9:-26.81 10:13.96 11:-3.66 12:-7.15 
-1.037079904441769 0:21.11 1:-10.03 2:3.39 3:-13.16 4:2.54 5:-14.12 6:4.75 7:-11.63 8:2.55 9:-8.16 10:6.83 11:-3.39 12:-1.74 
-1.037079904441769 0:25.39 1:-12.86 2:2.74 3:-31.16 4:-5.93 5:-18.24 6:-20.25 7:-19.57 8:-6.71 9:-3.82 10:1.81 11:8.47 12:-11.07 
-1.037079904441769 0:23.68 1:2.54 2:0.62 3:-28.75 4:-13.97 5:-6.88 6:-31.62 7:-10.22 8:-12.29 9:6.43 10:13.28 11:-7.48 12:-5.58 
-1.037079904441769 0:25.05 1:-10.49 2:-3.91 3:1.62 4:12.27 5:-28.91 6:-23.25 7:-33.44 8:1.97 9:-2.82 10:-0.13 11:9.69 12:-6.17 
-1.037079904441769 0:24.61 1:-14.57 2:-11.8 3:-27.11 4:-14.54 5:-28.38 6:-19.58 7:-11.2 8:0.47 9:-8.58 10:6.15 11:-6.45 12:-8.46 
-1.037079904441769 0:21.24 1:-8.17 2:11.42 3:-3.42 4:-12.42 5:6.11 6:-9.7 7:16.63 8:-1.8 9:20.64 10:-7.51 11:4.88 12:-0.74 
-1.037079904441769 0:21.7 1:-8.47 2:17.22 3:-4.47 4:-1.13 5:3.55 6:-20.78 7:12.22 8:-18.27 9:19.35 10:-3.7 11:2.98 12:2.03 
-1.037079904441769 0:21.27 1:-7.7 2:16.04 3:-4.43 4:0.21 5:-12.63 6:-10.72 7:8.63 8:-10.31 9:15.6 10:0.49 11:4.94 12:-2.83 
-1.037079904441769 0:24.04 1:-2.33 2:-1.84 3:-15.12 4:-9.22 5:-9.99 6:-14.95 7:-26.82 8:-8.94 9:4.89 10:3.77 11:12.34 12:-8 
-1.037079904441769 0:26.38 1:-20.23 2:22.72 3:-17.74 4:1.17 5:-9.25 6:-25.29 7:-20.78 8:-0.47 9:16.77 10:-20.15 11:-1.34 12:4.29 
-1.037079904441769 0:23.01 1:-21.22 2:15.93 3:4.43 4:1.62 5:-10.93 6:-6.31 7:14.78 8:-17.02 9:14.45 10:1.46 11:-0.93 12:2.63 
-1.037079904441769 0:23.75 1:-3.9 2:10.88 3:-10.79 4:-23.25 5:-17.7 6:-11.4 7:-21.15 8:0.19 9:-4.03 10:16.62 11:-4.61 12:0.68 
-1.037079904441769 0:22.41 1:-18.66 2:18.41 3:-0.61 4:6.11 5:-10.01 6:-3.45 7:13.66 8:-17.74 9:15.56 10:5.36 11:-2.87 12:6.68 
-1.037079904441769 0:25.36 1:-15.63 2:-3.19 3:1.49 4:17.45 5:-34.83 6:-28.18 7:-9 8:-20.37 9:8.41 10:4.9 11:-0.54 12:13.74 
-1.037079904441769 0:25.05 1:-15.09 2:-1.58 3:1.39 4:3.49 5:-30.23 6:-23.74 7:-10.21 8:6.9 9:3.03 10:-12.14 11:9.92 12:-16.51 
-1.037079904441769 0:25.59 1:-9.46 2:14.14 3:-5.27 4:-6.81 5:-25.77 6:6.9 7:-23.06 8:-0.46 9:-9.8 10:-5.27 11:-5.16 12:-3.45 
-1.037079904441769 0:22.12 1:-15.35 2:18.58 3:-8.78 4:-0.98 5:9.43 6:-16.08 7:21.47 8:-6.69 9:12.49 10:5.47 11:-1.98 12:3.36 
-1.037079904441769 0:24.07 1:-6.86 2:4.73 3:5.14 4:5.83 5:-3.52 6:7.94 7:-13.72 8:-3.49 9:-6.43 10:-0.47 11:-10.78 12:2.61 
-1.037079904441769 0:23.02 1:2.9 2:-6.29 3:-0.21 4:-29.96 5:-17.34 6:-15.57 7:-12.83 8:3.3 9:-21.92 10:8.17 11:12.88 12:-4.01 
-1.037079904441769 0:22.82 1:-1.67 2:-6.78 3:0.37 4:-11.69 5:-21.8 6:-5.06 7:-22.52 8:13.11 9:-13.97 10:5.57 11:3.89 12:-0.89 
-1.037079904441769 0:24.41 1:-8.68 2:-0.39 3:-3.72 4:-6.4 5:-31.61 6:4.01 7:-29.42 8:9.15 9:-2.86 10:6.41 11:1.32 12:-7.04 
-1.037079904441769 0:22.13 1:-18.89 2:10.52 3:2.75 4:-2.9 5:-8.34 6:5.51 7:9.78 8:-8.15 9:13.63 10:0.94 11:-3.23 12:3.45 
-1.037079904441769 0:25.18 1:-14.29 2:10.57 3:-19.64 4:-3.75 5:-18.54 6:-15.1 7:-15.22 8:19.96 9:3.86 10:-3.56 11:-6.23 12:-12.38 
-1.037079904441769 0:22.48 1:-14.95 2:9.28 3:-13.62 4:6.56 5:-19.7 6:8.81 7:-15.07 8:3.33 9:-7.15 10:1.3 11:-4.16 12:-4.18 
-1.037079904441769 0:25.55 1:-14.47 2:12.82 3:-6.82 4:5.81 5:-14.3 6:-2.61 7:-25.05 8:1.3 9:-3.73 10:-3.12 11:-3.42 12:-8.27 
-1.037079904441769 0:24.07 1:-17.29 2:-26.19 3:-8.51 4:-12.53 5:-38.7 6:-11.62 7:-9.09 8:-0.81 9:2.52 10:-10.17 11:-6.17 12:-4.95 
-1.037079904441769 0:25.02 1:-12.37 2:5.58 3:-14.07 4:-13.65 5:-14.56 6:-23.27 7:-13.73 8:1.74 9:-9.48 10:19.42 11:-3.67 12:-8.11 
-1.037079904441769 0:24.05 1:-5.06 2:-10.4 3:-22.2 4:13.36 5:-18.83 6:-8.2 7:-28.61 8:4.3 9:-9.62 10:6.14 11:19.05 12:-0.28 
-1.037079904441769 0:24.85 1:-9.46 2:3.31 3:-19.6 4:9.56 5:-12.48 6:1.74 7:-34.19 8:1.25 9:0.21 10:4.39 11:15.1 12:-6.83 
-1.037079904441769 0:24.62 1:-11.17 2:9.19 3:-22.24 4:-34.34 5:7.41 6:2.05 7:-22.62 8:-1.43 9:18.03 10:-1.27 11:4.7 12:-12.06 
-1.037079904441769 0:22.67 1:-13.25 2:8.77 3:-2.78 4:8.05 5:-13.01 6:6.3 7:-18.12 8:3.5 9:-12.99 10:4.28 11:9.18 12:-4.83 
-1.037079904441769 0:23.62 1:-7.39 2:-0.85 3:14.49 4:-9.63 5:-23.94 6:-16.28 7:-20.83 8:8.58 9:-22.93 10:-0.17 11:20.74 12:-3.36 
-1.037079904441769 0:24.03 1:-5.08 2:-4.29 3:-31.75 4:6.3 5:-13.89 6:-8.97 7:-14.19 8:6.37 9:-12.5 10:2.47 11:7.99 12:-2.32 
-1.037079904441769 0:25.1 1:-13.68 2:-4.75 3:15.76 4:7.08 5:-19.7 6:-55.49 7:-14.29 8:-0.01 9:-4.85 10:13.04 11:-12.9 12:-4.76 
-1.037079904441769 0:21.93 1:-12.97 2:10.5 3:-7.22 4:-10.39 5:13.55 6:-6.53 7:21.34 8:-10.56 9:11.07 10:2.45 11:-2.2 12:5.79 
-1.037079904441769 0:25.02 1:-13.95 2:8.18 3:15.72 4:-9.68 5:-38.14 6:-3.5 7:-31.36 8:3.81 9:-0.91 10:3.02 11:6.88 12:-14.46 
-1.037079904441769 0:23.8 1:-3.12 2:-1.15 3:-19.07 4:-33.24 5:-2.62 6:-21.2 7:-6.01 8:-3.99 9:-1.1 10:9.71 11:3.83 12:-8 
-1.037079904441769 0:23.07 1:5.5 2:-17.3 3:1.97 4:-2.95 5:-23.93 6:-16.51 7:-37.27 8:9.87 9:-2.59 10:7.12 11:6.66 12:-17.44 
-1.037079904441769 0:22.84 1:-4.56 2:8.47 3:4.75 4:-13.34 5:-32 6:-3.84 7:-0.62 8:1.85 9:-20.75 10:9.36 11:2.78 12:4.53 
-1.037079904441769 0:23.95 1:-12.45 2:10.64 3:4.59 4:16.75 5:-32.35 6:-45.06 7:-22.26 8:-5.89 9:6.93 10:-12.45 11:-0.04 12:-7.1 
-1.037079904441769 0:23.29 1:-2.98 2:-11.13 3:-0.32 4:1.55 5:-4.7 6:-8.31 7:-34.35 8:3.55 9:-9.22 10:3.76 11:2.15 12:1.46 
-1.037079904441769 0:20.87 1:-9.16 2:3.19 3:-7.07 4:0.6 5:-13.49 6:5.66 7:-11.94 8:2.87 9:-9.35 10:6.57 11:-7.67 12:1.4 
-1.037079904441769 0:23.91 1:-9.38 2:3.19 3:-22.96 4:-29.7 5:-4.25 6:5.36 7:-13.46 8:-25.06 9:5.37 10:6.6 11:13.69 12:-10.48 
-1.037079904441769 0:22.77 1:-16.24 2:16.25 3:-3.56 4:-2.71 5:-2.51 6:-18.02 7:14.94 8:-17.46 9:19.66 10:6.06 11:3.24 12:7.61 
-1.037079904441769 0:20.72 1:-8.16 2:3.62 3:-11.08 4:-3.1 5:-12.91 6:3.66 7:-8.6 8:3.1 9:-3.17 10:2.77 11:-1.67 12:-1.92 
-1.037079904441769 0:22.71 1:-13.4 3:2.26 4:11.52 5:-37.99 6:-26.69 7:-9.9 8:-25.84 9:-0.79 10:1.88 11:9.53 12:-7.94 
-1.037079904441769 0:21.47 1:-8.42 2:15.08 3:-10.78 4:-4.8 5:0.78 6:-10.92 7:16.82 8:-11.47 9:16.84 10:-2.68 11:4.41 12:-0.55 
-1.037079904441769 0:25.23 1:-17.93 2:-2.85 3:-4.7 4:2.3 5:-17.86 6:-26.71 7:-19.99 8:16.13 9:-9.95 10:2.68 11:-0.98 12:-21.33 
-1.037079904441769 0:21.9 1:-13.22 2:12.59 3:0.43 4:-8.59 5:2.48 6:-13.22 7:18.76 8:-13.59 9:15.45 10:3.47 11:3.07 12:8.2 
-1.037079904441769 0:25.1 1:-9.97 2:-3.49 3:8.99 4:-3.18 5:-36.93 6:-25.08 7:-8.41 8:-31.36 9:18.38 10:-7.22 11:-12.07 12:-9.97 
-1.037079904441769 0:21.21 1:-11.93 2:9.44 3:0.39 4:-7.62 5:5.61 6:-5.07 7:12.77 8:3.97 9:1.58 10:14.13 11:-5.91 12:-4.69 
-1.037079904441769 0:22.67 1:3.7 2:-9.59 3:-2.67 4:-17.48 5:-20.72 6:-16.95 7:-29.55 8:10.91 9:-15.4 10:7.01 11:-7.4 12:3.55 
-1.037079904441769 0:23.54 1:-5.38 2:7.1 3:-17.49 4:-20.75 5:-7.02 6:-28.31 7:4.25 8:-6.8 9:-11.79 10:10.32 11:-4.74 12:8.88 
-1.037079904441769 0:19.86 1:-1.24 2:5.81 3:2.84 4:-3.12 5:-0.92 6:-14.06 7:9.13 8:-6.3 9:8.86 10:4.59 11:9.19 12:4.47 
-1.037079904441769 0:25.07 1:-14 2:7.89 3:8.7 4:-14.13 5:-20.87 6:-16.03 7:-26.22 8:12.14 9:9.15 10:-6.84 11:-12.78 12:1.24 
-1.037079904441769 0:25 1:-9.9 2:-9.53 3:3.53 4:8.39 5:-42.29 6:-17.14 7:-19.04 8:-15.26 9:-3.45 10:-7.51 11:8.6 12:2.3 
-1.037079904441769 0:24.55 1:-13.07 2:20.03 3:-27.35 4:-36.42 5:-5.78 6:15.85 7:-8.68 8:-13.68 9:-0.12 10:-6.6 11:15.82 12:-3.58 
-1.037079904441769 0:21.01 1:-12.45 2:3.92 3:-8.42 4:1.7 5:-14.43 6:0.48 7:-10.97 8:-0.07 9:-5.75 10:1.49 11:-1.66 12:-2.51 
-1.037079904441769 0:21.22 1:-6.74 2:2.32 3:1.05 4:-2.57 5:-20.29 6:4.63 7:-16.88 8:7.81 9:-0.8 10:8.91 11:-5.29 12:3.97 
-1.037079904441769 0:21.53 1:-10.6 2:9.46 3:3.7 4:11.9 5:-8 6:-0.47 7:-11.22 8:-0.41 9:-17.27 10:4.39 11:6.58 12:2.37 
-1.037079904441769 0:24.25 1:-9.41 2:2.73 3:-13.41 4:-12.03 5:-14.63 6:-7.98 7:-12.41 8:5.74 9:2.24 10:-21.38 11:-12.69 12:7.54 
-1.037079904441769 0:23.73 1:-7.61 2:3.71 3:-20.52 4:-24.79 5:-1.38 6:-21.34 7:-20.49 8:-2.67 9:1.27 10:6.39 11:4.66 12:-11.8 
-1.037079904441769 0:21.36 1:-15.49 2:15.35 3:-3.24 4:7.11 5:-0.91 6:4.36 7:2.58 8:-2.81 9:9.89 10:-2.37 11:2.2 12:5.68 
-1.037079904441769 0:25.66 1:-19 2:1.97 3:6.14 4:18.98 5:-28.91 6:-45.46 7:-17.87 8:-11.55 9:4.29 10:1.69 11:-3.33 12:11.39 
-1.037079904441769 0:26 1:-21.78 2:1.44 3:-10.64 4:0.32 5:-27.7 6:-18.05 7:-23.32 8:11.41 9:6.07 10:-1.14 11:-12.57 12:-29.48 
-1.037079904441769 0:24.76 1:-14.86 2:5.27 3:-6.43 4:10.54 5:-40.13 6:5.48 7:-23.14 8:-1.12 9:-4.59 10:4.53 11:-1.11 12:-9.37 
-1.037079904441769 0:23.79 1:-15.79 2:10.89 3:0.45 4:4.25 5:-25.37 6:4.32 7:-19.37 8:1.35 9:-17.62 10:19.91 11:-4.12 12:-2.78 
-1.037079904441769 0:24.98 1:-12.24 2:-9.64 3:-2.73 4:-6.15 5:-17.54 6:-9.5 7:-24.61 8:-3.63 9:8.82 10:-4.9 11:-0.75 12:-5.14 
-1.037079904441769 0:23.52 1:-1.89 2:8.34 3:-6.63 4:-0.69 5:-18.19 6:-31.41 7:-21.46 8:14.33 9:-16.6 10:-3.82 11:17.59 12:-7.13 
-1.037079904441769 0:23.39 1:-11.01 2:6.94 3:-21.92 4:11.08 5:-31.95 6:-8.29 7:-8.87 8:0.85 9:-10.48 10:0.02 11:3.65 12:-4.26 
-1.037079904441769 0:21.83 1:-14.65 2:14.8 3:-2.7 4:-11.69 5:4.85 6:-3.09 7:1.72 8:7.07 9:-1.44 10:1.07 11:4.49 12:-0.18 
-1.037079904441769 0:24.86 1:-4.55 2:7.25 3:-24.34 4:-3.45 5:-33.15 6:-7.9 7:-9.82 8:-18.27 9:3.6 10:-12.17 11:0.78 12:-13.1 
-1.037079904441769 0:22.9 1:-7.53 2:5.17 3:-15.19 4:-0.48 5:-33.67 6:2.2 7:-18.53 8:0.45 9:-6.69 10:7.41 11:0.41 12:-3.03 
-1.037079904441769 0:22.57 1:-16.67 2:18.7 3:-7.32 4:8.4 5:-6.32 6:-9.58 7:9.51 8:-3.71 9:10.96 10:0.98 11:2.61 12:-1.35 
-1.037079904441769 0:21.92 1:4.37 2:6.2 3:-3.53 4:-18.21 5:-26.3 6:-10.87 7:-9.04 8:2.38 9:-14.77 10:7.6 11:3.97 12:9.81 
-1.037079904441769 0:23.8 1:-1.95 2:-0.76 3:-32.75 4:-32.24 5:-4.61 6:-1.1 7:-8.14 8:-15.74 9:4.61 10:1.52 11:4.02 12:1.19 
-1.037079904441769 0:22.12 1:-17.37 2:17.2 3:-0.59 4:1.81 5:-5.46 6:-0.88 7:4.56 8:-17.41 9:23.13 10:-2.18 11:-2.2 12:10.01 
-1.037079904441769 0:23.34 1:2.49 2:-9.92 3:-11.26 4:-6.7 5:-22.32 6:-9.07 7:-22.14 8:10.43 9:-15.75 10:-10.16 11:-4.23 12:1.82 
-1.037079904441769 0:24.79 1:-8.53 2:9.15 3:-23.09 4:-1.53 5:-9.52 6:-24.38 7:7.59 8:-27.83 9:15.3 10:-5.4 11:-6.77 12:-3.4 
-1.037079904441769 0:23.6 1:-9.89 2:-9.42 3:-22.48 4:-15.14 5:-36.11 6:-18.58 7:0.62 8:-13.89 9:-12.92 10:22.15 11:-12.18 12:3.87 
-1.037079904441769 0:25.26 1:-17.9 2:-17.32 3:-9.18 4:-8.91 5:-49.37 6:-13.26 7:-3.37 8:-9.02 9:-1.82 10:-8.25 11:-13.13 12:-16.65 
-1.037079904441769 0:23.28 1:-14.89 2:22.25 3:-13.05 4:-1.82 5:-11.2 6:-7.86 7:12.93 8:-15.62 9:15.52 10:1.54 11:0.65 12:-7.08 
-1.037079904441769 0:23.18 1:-14.36 2:17.18 3:-13.85 4:-0.06 5:-4.23 6:-16.57 7:32.08 8:-19.52 9:28.71 10:-14.64 11:1.32 12:2.06 
-1.037079904441769 0:20.62 1:-11.88 2:10.5 3:-0.72 4:0.96 5:8.7 6:-6.08 7:9.67 8:-2.42 9:10.64 10:-2.02 11:5.03 12:2.62 
-1.037079904441769 0:26.07 1:-18.64 2:0.3 3:-21.14 4:-19.75 5:2.96 6:-26.63 7:-7.63 8:-6.05 9:-6.63 10:2.97 11:9.66 12:-16.24 
-1.037079904441769 0:22.65 1:-2.17 2:-0.93 3:4.45 4:-10.82 5:-17.34 6:-18.92 7:-20.23 8:11.31 9:-14.71 10:2.51 11:3.74 12:4.28 
-1.037079904441769 0:22.79 1:-0.92 2:1.6 3:-25.48 4:-36.8 5:-0.54 6:-8.77 7:-7.68 8:-28.6 9:14.51 10:-0.04 11:14.62 12:-8.28 
-1.037079904441769 0:21.38 1:-11.81 2:6.27 3:-4.74 4:3.55 5:-17.09 6:2.39 7:-8.79 8:3.52 9:-12.51 10:8.59 11:-7.15 12:-1.77 
-1.037079904441769 0:22.22 1:-10.82 2:-1.8 3:-9.91 4:1.96 5:-28.46 6:-0.98 7:-8.58 8:-8.71 9:-2.58 10:3.83 11:-1.07 12:-1.84 
-1.037079904441769 0:25.6 1:-19.13 2:8.08 3:-1.68 4:-9.15 5:-46.05 6:10.42 7:-12.75 8:-5.88 9:-2.48 10:7.64 11:20.97 12:-15.3 
-1.037079904441769 0:26.25 1:-20.13 2:13.04 3:-12.15 4:18.64 5:-38.77 6:-11.46 7:-21.81 8:-10.43 9:-11.43 10:6.01 11:-0.75 12:-0.54 
-1.037079904441769 0:25.67 1:-17.72 2:1.58 3:-27.73 4:-24.13 5:-11.28 6:-19.09 7:-16.89 8:-15.52 9:19.08 10:3.06 11:-7.63 12:-17.31 
-1.037079904441769 0:25.3 1:-18.52 2:-30.76 3:-21.51 4:-15.73 5:-40.71 6:-4.7 7:-9.56 8:-14.3 9:-5.09 10:-16.38 11:-1.38 12:-5.19 
-1.037079904441769 0:22.04 1:-4.42 2:8.31 3:-4.43 4:-3.15 5:-22.54 6:-0.28 7:-15.05 8:10.31 9:-9.19 10:2.95 11:-3.18 12:0.3 
-1.037079904441769 0:26.05 1:-20.06 2:4.87 3:-5.22 4:-1.12 5:-24.79 6:-9.49 7:-20.09 8:-0.12 9:0.24 10:-0.5 11:22.8 12:-15.65 
-1.037079904441769 0:22.51 1:3.81 2:-6.65 3:0.97 4:-12.87 5:-22.9 6:-25.39 7:-1.08 8:6.09 9:-23.44 10:9.28 11:3.61 12:0.74 
-1.037079904441769 0:22 1:-13.22 2:10.53 3:1.81 4:-3.53 5:-11.63 6:7.96 7:9.8 8:-22.33 9:29.71 10:-10.04 11:-5.97 12:5.63 
-1.037079904441769 0:26.43 1:-22.3 2:4.04 3:4.81 4:-7.6 5:-33.39 6:-7.81 7:-30.84 8:-11.66 9:3.79 10:-1.34 11:0.5 12:-17.55 
-1.037079904441769 0:23.54 1:-6.94 2:-10.68 3:-8.64 4:-5.79 5:-13.78 6:-12.17 7:-27.16 8:-5.5 9:7.39 10:-0.8 11:-18.17 12:-13.01 
-1.037079904441769 0:24.44 1:-7.62 2:9.77 3:-12.46 4:-17.88 5:-6.81 6:-5.83 7:-22.61 8:-3.14 9:-9.78 10:2.91 11:11.2 12:1.82 
-1.037079904441769 0:22.32 1:-13.3 2:19.16 3:-6.28 4:4.08 5:-8.73 6:-5.57 7:14.14 8:-20.8 9:26.01 10:-5.03 11:-1.32 12:3.4 
-1.037079904441769 0:23.86 1:-7.97 2:13.89 3:-30.25 4:-39.09 5:-4.15 6:5.36 7:-27.31 8:-6.61 9:20.3 10:-3.69 11:8.6 12:-16.09 
-1.037079904441769 0:23.52 1:5.33 2:-6.02 3:-15.15 4:-21.95 5:-29.14 6:-18.75 7:5.14 8:-5.53 9:-10.73 10:-1.65 11:-12.75 12:-6.28 
-1.037079904441769 0:22.87 1:-6.57 2:4.76 3:-8.06 4:-3.22 5:-24.42 6:2.27 7:-19.04 8:0.35 9:0.79 10:-1.36 11:9.5 12:-5.74 
-1.037079904441769 0:23.07 1:2.09 2:2.53 3:0.19 4:-11.42 5:-24.3 6:3.06 7:-6.84 8:-1.98 9:-25.3 10:-10.62 11:8.35 12:2.94 
-1.037079904441769 0:24.17 1:-9.84 2:10.59 3:-26.35 4:-27.21 5:-0.72 6:-19.21 7:-1.9 8:-0.83 9:-0.86 10:14.82 11:-1.53 12:0.22 
-1.037079904441769 0:25.09 1:-9.12 2:1.95 3:-28.81 4:4.37 5:-37.93 6:-4.21 7:-11.07 8:0.76 9:-3.74 10:0.47 11:1.55 12:-11.93 
-1.037079904441769 0:22.53 1:-19.97 2:10.85 3:12.25 4:-7.96 5:2.04 6:-1.24 7:0.7 8:-7.33 9:27.41 10:-15.9 11:10.36 12:8.47 
-1.037079904441769 0:25.45 1:-20.37 2:4.99 3:10.43 4:-6.3 5:-27.13 6:-23.02 7:-26.67 8:3.34 9:1.94 10:-1.88 11:4.26 12:-13.61 
-1.037079904441769 0:21.73 1:-13.71 2:14.81 3:4.1 4:-1.8 5:0.75 6:-13.27 7:12.46 8:-6.39 9:8.24 10:2.46 11:10.2 12:-7.03 
-1.037079904441769 0:23.92 1:-7.1 2:19.15 3:-14.74 4:-16.37 5:4.25 6:-21.97 7:-4.83 8:-21.62 9:-3.09 10:4.28 11:-13 12:-12.21 
-1.037079904441769 0:24.93 1:-9.79 2:-1.77 3:7.34 4:-6.91 5:-32.53 6:-11.86 7:-25.75 8:9.97 9:11.58 10:-0.8 11:-4.28 12:-10.65 
-1.037079904441769 0:24.33 1:-21.77 2:-35.29 3:-29.08 4:-9.62 5:-31.46 6:-10.73 7:-10.41 8:-4.07 9:7.69 10:-20.49 11:-9.39 12:-10.16 
-1.037079904441769 0:25.06 1:-12.24 2:3.73 3:-1.39 4:-31.59 5:3.91 6:-13.75 7:-36.11 8:-2.15 9:22.14 10:-0.76 11:-7.52 12:-18.17 
-1.037079904441769 0:24.63 1:-9.86 2:-4.83 3:2.23 4:-12.75 5:-5.51 6:-47.37 7:-12.27 8:-9.97 9:3.24 10:10.57 11:11.54 12:-12.17 
-1.037079904441769 0:24.35 1:-10.54 2:-5.55 3:-4.03 4:3.28 5:-32.7 6:-12.01 7:-11.72 8:8.96 9:-1.63 10:-10.86 11:-0.85 12:-16.86 
-1.037079904441769 0:24.66 1:-9.69 2:-1.82 3:-0.87 4:13.39 5:-23.01 6:-9.61 7:-28.46 8:-11.35 9:12.63 10:-4.27 11:2.21 12:-15.07 
-1.037079904441769 0:24.29 1:-5.81 2:-1.28 3:-8.15 4:-34.88 5:4.74 6:-4.74 7:-26.21 8:-4.81 9:19.15 10:3.4 11:9.32 12:-25.99 
-1.037079904441769 0:21.23 1:-13.86 2:13.09 3:2.82 4:4.5 5:-6.82 6:-3.78 7:13.06 8:-12.72 9:8.6 10:9.99 11:-4.8 12:3.12 
-1.037079904441769 0:25.27 1:-16.02 2:5.65 3:-1.43 4:-0.32 5:-38.43 6:3.65 7:-19.87 8:4.12 10:6.39 11:-3.08 12:-3.54 
-1.037079904441769 0:26.05 1:-19.98 2:20.85 3:14.18 4:-3.04 5:-34.27 6:-7.41 7:-25.15 8:-0.76 9:-3.02 10:0.37 11:6.88 12:-0.96 
-1.037079904441769 0:21.23 1:-9.6 2:4.38 3:-8.96 4:3.81 5:-19.8 6:-0.36 7:-15.42 8:-0.41 9:-6.79 10:1.33 11:-1.89 12:2.75 
-1.037079904441769 0:20.92 1:-8.43 2:11.42 3:-6.61 4:-10.68 5:1.98 6:1.49 7:13.55 8:-7.75 9:19.65 10:-5.46 11:0.98 12:12.74 
-1.037079904441769 0:21.12 1:-10.52 2:6.89 3:-5.91 4:8.29 5:-13.71 6:1.11 7:-12 8:3.14 9:-7.3 10:1.86 11:-3.49 12:-2.08 
-1.037079904441769 0:22.88 1:-15.94 2:20.4 3:-5.6 4:-6.98 5:1.04 6:-21.14 7:12.94 8:-6.02 9:9.27 10:-2.89 11:-3.59 12:0.83 
-1.037079904441769 0:24.5 1:-11.74 2:6.51 3:-0.3 4:-27.66 5:-12.98 6:-0.09 7:-36.07 8:-21.12 9:24.19 10:-2.43 11:0.75 12:-29.1 
-1.037079904441769 0:24.25 1:-5.18 2:8.59 3:-15.66 4:-13.4 5:8.8 6:7.76 7:-9.63 8:0.69 9:0.12 10:5.57 11:-9.2 12:-5.58 
-1.037079904441769 0:22.9 1:-3.28 2:12.54 3:-6.62 4:1.67 5:-17.38 6:-6.75 7:-12.52 8:-8.57 9:-7.26 10:2.32 11:7.88 12:-4.22 
-1.037079904441769 0:21.92 1:-14.23 2:13.75 3:-0.59 4:-0.04 5:-11.47 6:5.31 7:7.68 8:-9.9 9:15.79 10:-1.13 11:-1.11 12:3.78 
-1.037079904441769 0:23.92 1:-0.48 2:-10.41 3:-22.63 4:-4.02 5:-36.49 6:21.32 7:-19.62 8:-31 9:12.08 10:5.71 11:2.92 12:-6.75 
-1.037079904441769 0:22.66 1:0.04 2:13 3:0.25 4:2.13 5:-28.7 6:-12.04 7:-2.78 8:-7.53 9:-26.53 10:-3.2 11:11.05 12:8.19 
-1.037079904441769 0:24.18 1:-7.43 2:3.52 3:-21 4:-34.01 5:-4.42 6:9.47 7:-22.34 8:-5.3 9:16.86 10:-9.81 11:11.49 12:-8.07 
-1.037079904441769 0:23.54 1:1.98 2:-3.35 3:-11.67 4:-20.56 5:-17.89 6:-15.11 7:-10.34 8:3.55 9:-8.35 10:-4.93 11:-3.28 12:1.96 
-1.037079904441769 0:24.29 1:-8.39 2:5.79 3:-42.96 4:-20.67 5:-0.18 6:-24.12 7:-11.94 8:-1.11 9:0.42 10:3.98 11:1.95 12:-14.49 
-1.037079904441769 0:26.37 1:-31.43 2:14.15 3:8.61 4:22.99 5:-33.73 6:-34.33 7:-31.89 8:-3.05 9:10.49 10:7.35 11:-1.04 12:-8.81 
-1.037079904441769 0:23.99 1:-11.47 2:12.59 3:6.07 4:-19.75 5:-10.89 6:-25.12 7:-22.86 8:2.42 9:20.07 10:-7.91 11:-4.76 12:-5.6 
-1.037079904441769 0:24.06 1:-16.95 2:10.92 3:1.18 4:15.99 5:-25 6:-4.14 7:-15.77 8:-0.59 9:-6.67 10:-6.69 11:6.85 12:6.33 
-1.037079904441769 0:25.05 1:-17.1 2:5.99 3:-12.86 4:-9.79 5:-17.53 6:5.4 7:-16.87 8:2.64 9:0.76 10:-1.68 11:8.12 12:-14.46 
-1.037079904441769 0:24.22 1:-15.22 2:-30.1 3:-17.63 4:-18.98 5:-37.45 6:-19.64 7:-5.33 8:-1.18 9:0.61 10:-1.66 11:-2.69 12:-19.54 
-1.037079904441769 0:23.5 1:-12.4 2:7.39 3:-9.34 4:7.14 5:-13.75 6:7.2 7:-11.21 8:-7.84 9:-15.93 10:0.57 11:11.13 12:0.44 
-1.037079904441769 0:24.46 1:-7.95 2:-7.63 3:-25.75 4:2.2 5:-7.51 6:1.16 7:-20.22 8:1.34 9:-0.89 10:5.55 11:-12.09 12:1.55 
-1.037079904441769 0:26.21 1:-24.68 2:6.14 3:8.96 4:18.61 5:-31.64 6:-13.01 7:-39.86 8:-7.9 9:10.11 10:-4.54 11:-0.17 12:-2.68 
-1.037079904441769 0:24.52 1:-9.37 2:-6.66 3:24.04 4:-15.18 5:-28.68 6:-17.04 7:-10.03 8:-24.67 9:-15.82 10:1.77 11:18.38 12:-1.59 
-1.037079904441769 0:23.06 1:-15.5 2:22.26 3:-15.03 4:-5.7 5:6.01 6:-17.3 7:23.29 8:-15.17 9:25.34 10:-8.53 11:10.83 12:2.79 
1.037079904441769 0:26.34 1:-25.22 2:-7.03 3:3.21 4:-33.78 5:-11.49 6:-43.39 7:-26.84 8:-44.6 9:4.32 10:-29.75 11:1.34 12:-6.87 
1.037079904441769 0:25.87 1:-23.3 2:14.69 3:11.18 4:-21.7 5:-22.45 6:-22.84 7:-33.62 8:-18.58 9:-9.37 10:-20.44 11:11.28 12:-9.68 
1.037079904441769 0:25.68 1:-20.17 2:6.9 3:-3.12 4:-37.8 5:-15.93 6:-37.54 7:-30.23 8:-35.67 9:-4.88 10:-14.04 11:-7.32 12:-2.09 
1.037079904441769 0:26.09 1:-22 2:9.01 3:13.3 4:-39.8 5:-18.74 6:-42.73 7:-25.94 8:-36.64 9:5.82 10:-33.58 11:1.53 12:-10.15 
1.037079904441769 0:26.04 1:-30.71 2:4.09 3:-17.57 4:-30.73 5:-2.5 6:-36.29 7:-36.9 8:-20.54 9:-20.26 10:-27.05 11:0.34 12:-22.99 
1.037079904441769 0:25.23 1:-12.18 2:6.02 3:-15.77 4:-30.37 5:-5.34 6:-48.56 7:-1.17 8:-43.45 9:-14.31 10:-6.49 11:-4.23 12:-14.64 
1.037079904441769 0:24.1 1:-12.68 2:-5.49 3:-2.91 4:-38.48 5:-22.61 6:-27.12 7:-27.47 8:-35.48 9:-14.89 10:-9.57 11:-9.87 12:-8.63 
1.037079904441769 0:26.17 1:-29.61 2:-9.4 3:-7.85 4:-35.06 5:-21.91 6:-36.19 7:-6.84 8:-30.4 9:-11.58 10:-23.78 11:-15.79 12:-8.97 
1.037079904441769 0:24.98 1:-16.56 2:8.57 3:-2.92 4:-30.01 5:-22.88 6:-29.7 7:-26.7 8:-45.12 9:-8.06 10:-27.92 11:1.77 12:-14.43 
1.037079904441769 0:25.5 1:-17.21 2:0.3 3:-10.81 4:-29.68 5:0.72 6:-35.22 7:-28.19 8:-35.71 9:-6.31 10:-28.21 11:-10.21 12:-11.04 
1.037079904441769 0:25.73 1:-15.79 2:7.84 3:-14.66 4:-45.52 5:-1.9 6:-29.66 7:0.7 8:-61.58 9:-21.38 10:-23.65 11:-0.09 12:-11.78 
1.037079904441769 0:25.11 1:-18.39 2:14.93 3:-8.65 4:-45.54 5:-0.67 6:-37.08 7:-29.54 8:-44.53 9:5.72 10:-25.59 11:-4.28 12:-0.98 
1.037079904441769 0:25.96 1:-21.39 2:5.51 3:-11.33 4:-48.29 5:-14.08 6:-34.93 7:-14.34 8:-34.46 9:3.05 10:-31.21 11:-5.7 12:2.97 
1.037079904441769 0:24.76 1:-13.72 2:16.62 3:-20.99 4:-51.47 5:-3.44 6:-35.32 7:-17.42 8:-40.06 9:-8.3 10:-26.84 11:4.88 12:-11.27 
1.037079904441769 0:27.24 1:-27.59 2:3.21 3:-11.63 4:-48.23 5:-10.77 6:-57.48 7:-10.6 8:-41.29 9:-10.47 10:-20.9 11:2.38 12:-13.42 
1.037079904441769 0:26.45 1:-19.97 2:1.41 3:13.29 4:-38.6 5:-12.15 6:-51.6 7:-19.21 8:-61.88 9:8.51 10:-28.16 11:-8.74 12:-16.45 
1.037079904441769 0:26.33 1:-20.32 2:2.19 3:-5.61 4:-48.35 5:0.27 6:-42.06 7:-21.85 8:-34.19 9:-4.32 10:-22.41 11:-11.79 12:-21.59 
1.037079904441769 0:25.39 1:-19 2:-2.92 3:-6.15 4:-28.01 5:-0.86 6:-27.61 7:-28.33 8:-31.4 9:-3.59 10:-26.62 11:-15.32 12:-13.54 
1.037079904441769 0:26.78 1:-24.61 2:7.16 3:-0.43 4:-18.96 5:-10.62 6:-30.59 7:-37.67 8:-29.6 9:-5.26 10:-37.69 11:6.9 12:-5.27 
1.037079904441769 0:24.32 1:-12.91 2:9.66 3:-18.72 4:-52.66 5:0.52 6:-38.24 7:-23.51 8:-39.26 9:-3.98 10:-19.34 11:-9.66 12:-3.23 
1.037079904441769 0:24.08 1:-13.97 2:11.27 3:7.08 4:-45.2 5:4.61 6:-11.16 7:-13.17 8:-29.46 9:-18.82 10:-14.05 11:18.88 12:-4.34 
1.037079904441769 0:23.7 1:-7.05 2:11.05 3:-9.17 4:-18.49 5:-6.83 6:5.04 7:10.07 8:2.19 9:42.43 10:9.71 11:16.8 12:9.5 
1.037079904441769 0:25.05 1:-15.62 2:4.81 3:-13.01 4:-35.55 5:-15.99 6:-33.2 7:-12.9 8:-62.76 9:-2.59 10:-28.88 11:-14.53 12:-18.14 
1.037079904441769 0:25.96 1:-23.47 2:3.63 3:4.73 4:-27.76 5:-18.96 6:-36.38 7:-39.52 8:-17.72 9:-19.41 10:-35.48 11:-2.54 12:-18.87 
1.037079904441769 0:23.39 1:-4.18 2:6.23 3:-15.04 4:-11.71 5:-1.39 6:-0.96 7:-6.79 8:9.86 9:24.99 10:32.57 11:20.06 12:7.33 
1.037079904441769 0:26.66 1:-33.08 2:18.93 3:16.09 4:-21.95 5:-17.46 6:-29.38 7:-3.83 8:-47.47 9:7.22 10:-15.78 11:16.44 12:-2.53 
1.037079904441769 0:25.96 1:-20.87 2:4.92 3:-6.99 4:-19.08 5:-23.23 6:-40.61 7:-24.47 8:-35.45 9:-8.46 10:-24.41 11:7.76 12:-4.98 
1.037079904441769 0:26.23 1:-40.08 2:21.53 3:10.57 4:-24.8 5:-25.35 6:-36.7 7:-37.99 8:-30.98 9:-0.73 10:-20.23 11:5.6 12:-10.11 
1.037079904441769 0:26.63 1:-23.03 2:4.19 3:-8.95 4:-44.2 5:-4.11 6:-20.35 7:0.67 8:-24.9 9:-7.19 10:-28.64 11:-3.33 12:-9.03 
1.037079904441769 0:26.15 1:-20.67 2:24.7 3:-8.21 4:-35.45 5:-6.45 6:-22.84 7:-30.59 8:-53.62 9:-0.99 10:-29.92 11:-2.24 12:-15.59 
1.037079904441769 0:25.94 1:-24.55 2:-14.44 3:-4.9 4:-32.04 5:-35.68 6:-31.74 7:-8.51 8:-35.18 9:-8.79 10:-26.85 11:-8.12 12:-18.9 
1.037079904441769 0:24.82 1:-16.6 2:-6.83 3:-9.1 4:-45.9 5:-14.75 6:-23.09 7:-17.42 8:-42.74 9:-18.7 10:-28.07 11:-8.31 12:-13.48 
1.037079904441769 0:25.28 1:-20.72 2:1.03 3:1.72 4:-28.96 5:-29.93 6:-26.91 7:-24.23 8:-29.14 9:-2.96 10:-22.15 11:-11.28 12:10.72 
1.037079904441769 0:25.32 1:-22.01 2:7.68 3:15.44 4:-19.91 5:-19.67 6:-41.21 7:-31.48 8:-28.27 9:-25.86 10:-6.66 11:-0.5 12:-6.13 
1.037079904441769 0:25.07 1:-17.18 2:6.52 3:-15.03 4:-19.89 5:-21.21 6:-39.01 7:-15.61 8:-31.77 9:-17.85 10:-26.3 11:-18.2 12:-7.76 
1.037079904441769 0:26.13 1:-22.4 2:16.64 3:6.72 4:-46.7 5:-20.33 6:-51.05 7:-17.12 8:-31.63 9:6.87 10:-23.16 11:-7.19 12:9.54 
