svm_type c_svc
kernel_type polynomial
degree 3
gamma 0.00454545
coef0 0
nr_class 2
total_sv 79
rho -0.724611
label 1 -1
probA -4.94398
probB 0.675166
nr_sv 52 27
SV
8.373578142236176e-08 0:17.6 1:-4.2 2:6.04 3:-7.88 4:-0.9 5:-4.82 6:-8.78 7:-0.41 8:3.67 9:-4.97 10:-6.16 11:-12 12:-8.18 13:20.56 14:0.61 15:-9.58 16:-5.96 17:-12.38 18:-20.32 19:-26.02 20:-19.46 21:36.05 22:2.1 23:-3.37 24:-5.92 25:-8.89 26:19.91 27:-7.75 28:13.08 29:-4.78 30:9.14 31:-25.38 32:-24.57 33:-15.84 34:17.12 35:-13.5 36:-12.23 37:-1.31 38:8.68 39:21.85 40:11.47 41:-5.21 42:-6.04 43:-10.5 44:-21.15 45:-23.34 46:-21.27 47:11.57 48:-17.86 49:-5.82 50:25.2 51:-0.76 52:23.98 53:-34.43 54:26.45 55:2.44 56:2.04 57:-1.98 58:-22.68 59:-9.09 60:33.28 61:-30.42 62:-15.25 63:10.94 64:9.66 65:19.21 66:-9.7 67:20.12 68:13.97 69:10.16 70:-19.19 71:-21.8 72:-14.95 73:18.31 74:-28.44 75:-12.48 76:15.93 77:-9.89 78:22.67 79:-36.59 80:20.06 81:0.6 82:-1.19 83:0.55 84:-12.47 85:-22.69 86:35.88 87:-5.4 88:-19.81 89:-16.02 90:13.34 91:18.04 92:3.88 93:13.23 94:-3.74 95:8.56 96:-0.64 97:-17.8 98:-5.3 99:4.99 100:-27.35 101:-6.75 102:4.43 103:-0.37 104:20.12 105:5.54 106:-6.06 107:-11.12 108:0.87 109:-18.94 110:-13.72 111:-4.54 112:17.54 113:6.52 114:-4.45 115:10.78 116:-24.43 117:20.77 118:-8.39 119:2.09 120:-34.42 121:10.76 122:-3.72 123:-0.56 124:1.48 125:17.91 126:-2.42 127:-8.6 128:2.04 129:-24.82 130:22.84 131:-8.09 132:3.51 133:-20.05 134:-16.95 135:-4.27 136:4.89 137:-20.82 138:19.78 139:4.81 140:-6.37 141:-4.05 142:-12.31 143:17.61 144:-13.3 145:22.89 146:-6.02 147:21.08 148:-9.06 149:11.04 150:6.8 151:0.97 152:-7.32 153:2.2 154:1.96 155:5.5 156:14.89 157:-1.4 158:11.43 159:-7.31 160:9.53 161:-8.35 162:-2.92 163:2.17 164:-4.17 165:-3.36 166:-5.71 167:-5.34 168:-1.14 169:15.1 170:0.1 171:14.91 172:-6.31 173:5.13 174:-16.53 175:-6.26 176:2.1 177:-3.09 178:-7.38 179:-3.99 180:-14.21 181:-4.39 182:15.89 183:-3.36 184:9.98 185:-9.4 186:12.18 187:-7.74 188:-2.77 189:-4.74 190:-0.86 191:-9.91 192:-7.33 193:-6.88 194:-3.06 195:24.58 196:-10.85 197:11.28 198:-18.79 199:-12.56 200:-9.8 201:-15.43 202:-21.8 203:20.09 204:-8.51 205:1.13 206:3.59 207:-2.23 
1.948939115503608e-08 0:15.24 1:9.32 2:6.64 3:-32.53 4:4.19 5:-16.67 6:-5.67 7:-4.95 8:-24.61 9:-6.03 10:10.02 11:6.21 12:-18.7 13:16.85 14:10.19 15:4.47 16:-45.21 17:2.37 18:5.61 19:-16.09 20:-3.21 21:-11.4 22:3.85 23:6.47 24:-1.69 25:-16.49 26:16.45 27:-1.32 28:4.22 29:-23.75 30:-7.22 31:-11.19 32:3.81 33:-9.04 34:-4.01 35:-11.11 36:0.13 37:-0.28 38:0.24 39:19.31 40:9.04 41:5.83 42:-52.98 43:-28.45 44:-8.85 45:-2.87 46:8.04 47:-19.33 48:-6.26 49:-4.52 50:6.18 51:-8.3 52:17.12 53:-27.92 54:20.47 55:-17.6 56:-1.15 57:-10.23 58:-17.8 59:-8.46 60:2.63 61:-0.9 62:0.1 63:6.69 64:-12.53 65:16.31 66:-11.02 67:22.01 68:-5.81 69:16.02 70:-26.1 71:-21.84 72:-3.49 73:-21.52 74:-12.67 75:-13.78 76:17.91 77:-5.22 78:17.43 79:-28.16 80:25.65 81:-13.99 82:15.6 83:1.16 84:-6.6 85:-5.29 86:-2.57 87:-5.84 88:-23.16 89:3.45 90:-9.08 91:14.21 92:5.67 93:8.72 94:-17.06 95:14.55 96:-18.17 97:-8.85 98:-21.14 99:-30.98 100:0.28 101:-1.05 102:3.96 103:-14.51 104:16.48 105:6.27 106:-2.36 107:-35.89 108:-4.99 109:-6.6 110:-23.27 111:-4.4 112:-5.95 113:10.63 114:-1.68 115:-14.59 116:-1.45 117:13.12 118:-10.64 119:-18.55 120:-29.01 121:0.71 122:12.26 123:-2.87 124:-10.91 125:-31.36 126:-3.79 127:4.07 128:4.22 129:-5.97 130:17.78 131:4.04 132:-0.8 133:-51.06 134:-0.55 135:15.12 136:-12.08 137:16.42 138:-29.61 139:0.86 140:-0.56 141:11.22 142:-15.01 143:17.6 144:-24.4 145:17.84 146:-21.65 147:-12.52 148:8.97 149:-4.28 150:-8.82 151:8.69 152:-8.7 153:5.09 154:7.59 155:-12.54 156:14.66 157:5.13 158:14.99 159:-28.94 160:-13.67 161:-17.62 162:-9.78 163:1.09 164:-24.35 165:-20.63 166:-12.21 167:9.56 168:14.81 169:15.81 170:1.88 171:17.31 172:-38.32 173:-19.17 174:-3.83 175:-0.49 176:-9.48 177:-27.39 178:-6.24 179:21.16 180:13.5 181:8.73 182:14.53 183:-6.69 184:-2.24 185:-26.68 186:-17.75 187:-20.52 188:-19.44 189:-14.68 190:-9.9 191:13.35 192:10.3 193:0.93 194:-1.13 195:20.52 196:-1.15 197:0.41 198:-12.66 199:-7.11 200:-0.92 201:6.69 202:4.65 203:-3.63 204:-1.55 205:-4.17 206:2.45 207:-3.66 
1.625168121086409e-08 0:19.2 1:-0.34 2:0.56 3:-6.31 4:1.2 5:-13.37 6:-21.07 7:-14.42 8:-14.1 9:-17.71 10:-2.71 11:-2.13 12:-20.59 13:20.96 14:1.36 15:-14.65 16:-10.15 17:1.64 18:-35.66 19:-27.84 20:-13.98 21:-1.78 22:-7.93 23:-0.5 24:-15.66 25:-16.57 26:19.76 27:7.25 28:-1.9 29:-9.03 30:3.17 31:-21.47 32:-20.48 33:-5.68 34:-15.72 35:-14.15 36:8.48 37:12.31 38:-7.62 39:22.42 40:6.6 41:-18.55 42:-22.77 43:-11.24 44:-35.81 45:-31.14 46:-22.59 47:-14.5 48:-10.73 49:11.33 50:-0.66 51:-24.2 52:23.87 53:-36.21 54:25.21 55:-9.19 56:-10.7 57:-13.51 58:-42.65 59:2.26 60:-22.03 61:1.51 62:1.36 63:-24.57 64:0.97 65:19.59 66:-11.99 67:8.35 68:19.18 69:1.95 70:-38.09 71:-41.31 72:4.94 73:-23.28 74:-12.9 75:-17.44 76:-11.14 77:7.16 78:21.54 79:-17.04 80:25.75 82:11.42 83:-11.64 84:-50.52 85:14.55 86:-15.6 87:-1.14 88:-4.76 89:-23.17 90:6.33 91:19.75 92:-2.82 93:3.82 94:8.36 95:8 96:-16.01 97:-19.17 98:-6.84 99:-15.1 100:-19.91 101:-6.51 102:-10.35 103:-15.61 104:21.97 105:-2.76 106:-9.65 107:-5.26 108:-3.72 109:-21.3 110:-34.72 111:-2.34 112:-18.06 113:9.99 114:10.33 115:-15.54 116:-5.14 117:21.75 118:-29.83 119:17.78 120:-17.87 121:-5.71 122:4.02 123:-34.08 124:-2.35 125:-8.32 126:-12.24 127:11.23 128:-0.17 129:-5.5 130:21.73 131:-0.48 132:5.31 133:-15.24 134:-8.34 135:-24.15 136:-17.7 137:-5.84 138:-25.21 139:-16.64 140:-6.17 141:9.82 142:-3.63 143:16.42 144:-17.77 145:7.75 146:-4.82 147:-12.33 148:-21.19 149:-25.52 150:-14.75 151:-23.05 152:-30.87 153:-23.7 154:-20.72 155:-12.84 156:20.5 157:3.5 158:-20.66 159:-28.04 160:-14.77 161:-8.79 162:-22.34 163:-11.03 164:-16.05 165:-3.01 166:-0.52 167:1.45 168:5.97 169:19.86 170:2.91 171:-16.06 172:-23.64 173:-6.41 174:1.01 175:-11.31 176:-8.36 177:-12.53 178:-11.66 179:-8.75 180:-9.9 181:-9.64 182:18.01 183:-2.01 184:-13.92 185:-23.23 186:-0.74 187:-7.86 188:-13.27 189:-4.89 190:-12.21 191:-15.63 192:-12.23 193:-10.81 194:-15.04 195:24.35 196:-10.55 197:4.25 198:-19.21 199:-3.46 200:-17.53 201:-41.08 202:2.8 203:-23.38 204:2.68 205:12.75 206:-10.89 207:-7.52 
1.260999296638974e-09 0:17.15 1:-3.55 2:5.08 3:-1.42 4:9.86 5:-10.17 6:-3.05 7:11.9 8:-9.34 9:-42.93 10:-16.44 11:18.29 12:-7.07 13:22.04 14:-9.81 15:-15.01 16:-7.76 17:-12.05 18:-19.61 19:8.1 20:-15.29 21:2.84 22:20.63 23:-23.34 24:22.71 25:-31.18 26:21.3 27:-20.93 28:8.83 29:-4.21 30:6.02 31:-27.23 32:-15.58 33:-15.39 34:-1.6 35:7.89 36:-5.62 37:8.3 38:10.17 39:21.94 40:-8.64 41:-6.24 42:-10.87 43:2.51 44:-28.72 45:-10.35 46:-29.75 47:-22 48:6.01 49:-24.29 50:38.61 51:-11.97 52:25.18 53:-50.98 54:25.72 55:1.67 56:-16.27 57:-12.31 58:-17.68 59:-29.05 60:7.51 61:-0.88 62:-2.02 63:15.01 64:1.68 65:20.65 66:-24.91 67:19.44 68:10.49 69:-1.44 70:-19.53 71:-23.16 72:-29.12 73:-4.73 74:-7.14 75:-9.81 76:5.49 77:-21.14 78:22.95 79:-38.34 80:14.11 81:19.96 82:-14.06 83:-22.82 84:4.75 85:-22.64 86:-16.14 87:9.72 88:-10.98 89:-3.79 90:-2.35 91:17.85 92:0.32 93:11.36 94:-3.58 95:2.36 96:-13.36 97:5.48 98:-0.19 99:-14.23 100:-15.67 101:-12.05 102:12.43 103:6.69 104:20.99 105:-4.71 106:-13.51 107:-11.74 108:3.01 109:-26.51 110:-8.93 111:-7.46 112:-12.74 113:26.15 114:-15.61 115:16.01 116:-20.04 117:17 118:-8.11 119:0.94 120:-9.53 121:9.23 122:-21.61 123:-25.88 124:-3.82 125:0.11 126:3.51 127:-0.46 128:5.65 129:-7.35 130:22.8 131:-11.58 132:-7.44 133:-23.76 134:-14.15 135:-13.04 136:3.88 137:18.26 138:-16.64 139:4.83 140:-10.85 141:28.3 142:-28.53 143:23.75 144:-39.52 145:16.3 146:-5.36 147:-18.07 148:-21.53 149:16.1 150:-3.3 151:-15.74 152:22.58 153:0.23 154:-4.76 155:-0.1 156:18.3 157:0.21 158:14.28 159:-16.99 160:-13.41 161:-23.33 162:-3.86 163:-18.43 164:-13.17 165:-7.39 166:-19.43 167:15.39 168:22.41 169:20.28 170:0.41 171:2.02 172:-27.07 173:-4.2 174:-6.41 175:-15.88 176:-39.68 177:-14.94 178:32.17 179:-37 180:41.23 181:9.99 182:18.42 183:-6.29 184:-1.03 185:1.82 186:-2.85 187:-38.93 188:-7.16 189:-28.95 190:-17.36 191:25.16 192:-9.74 193:5.84 194:1.66 195:25.37 196:-26.7 197:9.22 198:-13.65 199:-13.01 200:-12.1 201:-10.71 202:-22.11 203:3.16 204:-2.45 205:-3.01 206:11.8 207:-7.54 
7.475957183895425e-08 0:17.69 1:8.22 2:1.27 3:-22.59 4:-18.05 5:4.16 6:-8.92 7:-14.05 8:-25.17 9:-5.16 10:6.11 11:-3.31 12:-1.14 13:20.53 14:3.64 15:-6.98 16:-12.34 17:-29.94 18:6.31 19:-22.76 20:-9.55 21:-5.94 22:3.62 23:6.68 24:-14.68 25:7.39 26:19.69 27:-3.03 28:9.43 29:-13.42 30:-21.51 31:-9.47 32:-11.65 33:-9.46 34:-7.84 35:9.99 36:1.1 37:9.08 38:-8.27 39:21.65 40:11.56 41:-7.04 42:-7.8 43:-33.68 44:-2.75 45:-10.16 46:-11.6 47:-3.35 48:-13.09 49:9.44 50:10.08 51:-0.49 52:22.34 53:-35.79 54:22.7 55:-6.16 56:-22.34 57:6.23 58:-22.29 59:7.09 60:-6.29 61:0.23 62:4.93 63:0.17 64:-1.26 65:18.57 66:-0.86 67:9.79 68:18.43 69:-12.71 70:-23.85 71:-34.55 72:-10.25 73:1 74:-12.9 75:-7.41 76:13.32 77:1.5 78:22.67 79:-29.71 80:32.96 81:0.91 82:-23.03 83:7.55 84:-26.85 85:-6.41 86:3.52 87:2.88 88:3.37 89:9.73 90:-1.73 91:19.07 92:13.52 93:11.97 94:-7.61 95:-27.29 96:-17.52 97:-7.62 98:-10.74 99:-10.61 100:-18.92 101:12.86 102:13.04 103:6.55 104:20.31 105:7.06 106:-5.61 107:-12.08 108:-23.72 109:0.74 110:-20.11 111:-14.74 112:6.83 113:-3.33 114:6.51 115:-5.16 116:13.05 117:15.44 118:-2.05 119:7.98 120:1.31 121:-2.77 122:-9.63 123:-13.21 124:-12.53 125:-14.65 126:-6.28 127:-2.97 128:-6.15 129:-3.69 130:20.5 131:6.23 132:-0.38 133:-11.51 134:-33.73 135:20.38 136:-9.6 137:7.7 138:-6.83 139:-3.16 140:7.71 141:2.15 142:-3.01 143:21.8 144:-29.99 145:18.07 146:0.57 147:-22.32 148:-1.14 149:-13.02 150:2.73 151:-8.7 152:17.39 153:3.98 154:9.04 155:5.15 156:19.23 157:14.4 158:5.12 159:-13.53 160:-40.13 161:-15.53 162:2.65 163:-5.42 164:-0.98 165:-10.09 166:-2.32 167:1.5 168:4.88 169:20.51 170:2.72 171:-3.04 172:-19.75 173:-41.82 174:-8.41 175:-2.73 176:-0.33 177:-3.55 178:-7.81 179:9.71 180:11.96 181:1.91 182:19.58 183:-18.15 184:15.69 185:-7.91 186:-33.88 187:-1 188:-22.48 189:-8.43 190:-8.85 191:6.06 192:-7.55 193:7.94 194:2.35 195:23.79 196:-7.94 197:13.38 198:-21.09 199:-28.41 200:5.79 201:-18.1 202:-1.68 203:-9.17 204:1.16 205:3.77 206:7.65 207:-1.76 
3.095369037370967e-09 0:17.01 1:9.98 2:17.77 3:-2.44 4:-4.6 5:12.07 6:-1.72 7:15.66 8:-6.63 9:19.81 10:5.65 11:8.09 12:-3.4 13:19.73 14:8.3 15:-12.37 16:-16.96 17:-10.81 18:-3.02 19:5.6 20:3.64 21:-20.57 22:29.46 23:1.49 24:1.58 25:-15.9 26:19.29 27:-18.8 28:13.02 29:-8.6 30:6.77 31:7.25 32:4.38 33:5.31 34:-11.05 35:2.25 36:4.85 37:7.52 38:2.69 39:22.02 40:5.27 41:-8.09 42:-16.94 43:-17.12 44:-17.24 45:-9.02 46:-5.73 47:-30.96 48:2.66 49:8.9 50:22.39 51:-20.17 52:24.81 53:-43.69 54:20.02 55:3.37 56:-21.95 57:21.2 58:-23.24 59:-25.39 60:8.55 61:-2.44 62:-20.21 63:13.91 64:-6.73 65:19.53 66:0.28 67:-2.01 68:11.87 69:-6.75 70:-21.53 71:-24.07 72:-22.93 73:-8.94 74:-12.17 75:-10.1 76:18.09 77:-28.72 78:23.15 79:-34.3 80:37.01 81:8.8 82:-32.29 83:9.16 84:-11.64 85:-28.53 86:-3.56 87:-3.63 88:-6.22 89:1.25 90:-2.75 91:17.86 92:7.27 93:13.39 94:-6.11 95:-18.33 96:13.36 97:-5.22 98:-13.87 99:-37.28 100:-22.15 101:-15.13 102:5.93 103:-9.6 104:22.62 105:11.55 106:-25.88 107:-16.65 108:-33.19 109:-9.75 110:25.94 111:-16.34 112:-43.18 113:27.36 114:-0.33 115:-1.46 116:-25.21 117:18.3 118:-17.68 119:-1.57 120:-16.6 121:-11.89 122:10.31 123:6.31 124:12.41 125:10.33 126:7.27 127:-5.49 128:22.37 129:8.32 130:22.99 131:6.51 132:-1.72 133:-34.67 134:-46.9 135:-2.94 136:20.91 137:-2.25 138:-41.44 139:11.03 140:0.02 141:5.09 142:-17.53 143:23.5 144:-34.72 145:12.43 146:1.76 147:-26.21 148:15.87 149:13.94 150:-22.17 151:-1.32 152:18.86 153:-9.01 154:-7.87 155:-13.27 156:20 157:4.02 158:-2.49 159:-8.51 160:-10.07 161:-8.46 162:10.61 163:-37.89 164:-27.04 165:3.87 166:17.35 167:34.46 168:-20.01 169:19.13 170:-0.57 171:-6.12 172:-8.94 173:-2.4 174:-23.16 175:-9.7 176:-26.26 177:-14.27 178:23.13 179:15.93 180:6.88 181:-14.86 182:18.5 183:-6.28 184:-0.89 185:8.08 186:-3.39 187:-14.5 188:-6.49 189:-17.33 190:-20.97 191:19.06 192:3 193:-3.67 194:-2.91 195:25.28 196:-13.9 197:6.34 198:-23 199:-38.92 200:11.46 201:1.26 202:-8.85 203:-12.14 204:-3.2 205:9.91 206:14.96 207:-22.97 
3.190707674529161e-08 0:18.91 1:11.64 2:8.67 3:-43.08 4:-1.47 5:-0.45 6:9.92 7:5.69 8:-16.42 9:11.93 10:-8.87 11:15.02 12:-21.6 13:21.89 14:2.1 15:1.38 16:-23.8 17:2.77 18:-21.94 19:-14.27 20:-8.08 21:3.92 22:26.68 23:-22.14 24:20.31 25:-17.93 26:20.44 27:-22.46 28:14.94 29:-32.99 30:3.03 31:-5.24 32:-5.99 33:3.56 34:-14.77 35:3.07 36:-9.98 37:5.71 38:6.75 39:22.33 40:9.01 41:7.48 42:-34.41 43:-13.72 44:-12.06 45:-3.81 46:-30.76 47:-17.69 48:19.05 49:-64.34 50:44.38 51:0.88 52:21.94 53:-8.53 54:9.71 55:-8.82 56:9.85 57:-28.53 58:-33.76 59:-14.07 60:-5.16 61:17.95 62:-51.9 63:33.8 64:-10.38 65:24.5 66:-35.2 67:24.53 68:-15.59 69:-5.61 70:-7.38 71:-15.93 72:-4.33 73:12.26 74:1.18 75:-24.23 76:10.11 77:7.08 78:18.52 79:7.87 80:18 81:-18.41 82:1.09 83:-13.29 84:2.44 85:4.96 86:-11.61 87:-36.24 88:-26.31 89:13.26 90:5.08 91:21.68 92:1.86 93:-2.41 94:-21.64 95:-0.01 96:-24.1 97:-8.47 98:-8.04 99:-0.34 100:33.25 101:-35.42 102:20.42 103:-20.19 104:19.03 105:-15.25 106:-3.34 107:-32.15 108:1.4 109:14.37 110:8.62 111:8.38 112:-0.91 113:12.29 114:-4.34 115:12.29 116:-3.84 117:22.31 118:1.88 119:-0.21 120:-36.42 121:-12.17 122:3.09 123:0.55 124:6.22 125:-5.77 126:26.02 127:-25.45 128:14.08 129:-39.78 130:23.18 131:-31.87 132:26.88 133:-16.09 134:-6.43 135:5.09 136:2.53 137:-2.74 138:-0.06 139:17.26 140:-11.54 141:2.56 142:-5.51 143:18.04 144:4.97 145:17.84 146:-22.74 147:-1.13 148:-11.27 149:0.18 150:-7.89 151:-24.04 152:-8.98 153:-20.98 154:22.99 155:9.95 156:18.65 157:0.23 158:13.65 159:-20.21 160:13.7 161:-7.57 162:-11.78 163:-16.73 164:-17.8 165:11.65 166:-17.11 167:23.21 168:-4.69 169:17.71 170:-2.51 171:6.74 172:-9.47 173:13.18 174:-21.26 175:-10.43 176:3.91 177:-11.15 178:19.03 179:-16.24 180:1.46 181:2.97 182:24.84 183:-8.94 184:14.06 185:-32.16 186:-7.84 187:-9.69 188:-17.34 189:-12.45 190:0.72 191:4.09 192:-18.71 193:11.11 194:-3.16 
1.123376306263947e-08 0:14.91 1:-3.67 2:3.57 3:-30.33 4:9.57 5:-8.42 6:-19.66 7:6.21 8:-31.09 9:10.55 10:6.5 11:-5.72 12:-13.56 13:14.98 14:0.26 15:6.17 16:-28.21 17:6.73 18:-7.11 19:-19.32 20:1.84 21:-34.33 22:13.47 23:12.13 24:-5.76 25:-11.27 26:17.45 27:-2.69 28:25.12 29:-41.16 30:-5.88 31:-22.37 32:-16.39 33:9.26 34:-14.29 35:-7.08 36:5.72 37:15.79 38:-16.45 39:18.2 40:1.36 41:9.02 42:-36.97 43:-22.04 44:-15.05 45:-19.91 46:15.04 47:-21.45 48:-6.15 49:12.1 50:5.04 51:-22.66 52:18.95 53:-30.57 54:24.61 55:-17.09 56:-8.53 57:6.89 58:-48.24 59:5.61 60:-8.91 61:-28.2 62:9.18 63:-6.36 64:5.21 65:15.54 66:-16.03 67:19.89 68:9.24 69:6.19 70:-19.74 71:-35.36 72:7.25 73:-26.82 74:-18.66 75:2.52 76:9.68 77:-11.61 78:17.92 79:-37.5 80:21.08 81:-16.79 82:9.27 83:12.34 84:-27.15 85:28.75 86:-8.28 87:-3.36 88:-7.02 89:-1.8 90:8.43 91:13.8 92:-0.24 93:14.4 94:-17.28 95:12.08 96:-10.45 97:-33.66 98:-4.12 99:-23.88 100:15.21 101:13.98 102:11.68 103:-25.04 104:17.03 105:-8.12 106:-5.64 107:-19.87 108:2.41 109:5.2 110:-35.27 111:7.44 112:-9.97 113:21.06 114:-15.43 115:-9.33 116:-10.14 117:14.7 118:-17.52 119:-14.88 120:-23.13 121:-2.99 122:17.1 123:-21.71 124:29.9 125:-5.64 126:1.54 127:-1.02 128:3.34 129:-4.34 130:18.07 131:-6.14 132:-0.36 133:-34.64 134:-2.93 135:29.37 136:-34.29 137:39.25 138:-21.29 139:-7.11 140:1.08 141:-0.33 142:-18.34 143:16.78 144:-38.19 145:15.99 146:-9.37 147:-3.59 148:21.81 149:-15.97 150:11.66 151:4.79 152:-13.92 153:9.84 154:-3.99 155:0.99 156:14.56 157:7.92 158:17.63 159:-23.37 160:-16.02 161:-14.23 162:-12.39 163:-6.9 164:-41.81 165:-9.64 166:-8.42 167:0.29 168:8.35 169:16.48 171:7.65 172:-25.58 173:-22.36 174:-14.64 175:-19.62 176:-11.6 177:-33.69 178:6.12 179:11.19 180:24.16 181:3.57 182:14.91 183:-2.77 184:1.79 185:-26.27 186:-12.41 187:-19.74 188:-36.64 189:-13.2 190:-25.32 191:24.02 192:12.67 193:6.35 194:-9.92 195:20.66 196:-6.5 197:4.65 198:-4.81 199:-3.77 200:3.45 201:-7.99 202:7.6 203:-4.2 204:2.53 205:-0.86 206:-4.3 207:-4.32 
3.572737156413257e-08 0:18.66 1:-7.87 2:12.53 3:-17.37 4:-26.38 5:3.73 6:8.48 7:18.15 8:-17.52 9:11.04 10:-5.7 11:-12.06 12:-1.55 13:20.02 14:-2.22 15:8.79 16:-25.5 17:-29.76 18:10.55 19:-7.81 20:-0.54 21:-13.89 22:29.04 23:0.01 24:-8.24 25:-6.99 26:20.01 27:-14.15 28:19.15 29:-9.06 30:-16.92 31:4.32 32:2.1 33:-1.35 34:-15.25 35:9.84 36:-2.98 37:-8.01 38:1.79 39:22.07 40:7.88 41:7.03 42:-29.11 43:-29.87 44:-5.15 45:-23.61 46:-13.92 47:-20.14 48:14.87 49:1.04 50:3.2 51:-3.04 52:24.56 53:-34.45 54:23.41 55:0.55 56:-39.22 57:-7.24 58:-14.69 59:-42.18 60:-5.54 61:8.93 62:-21.84 63:7.79 64:-6.16 65:19.42 66:-10.5 67:18.75 68:4.8 69:-17.42 70:-2.18 71:-18.92 72:-9.84 73:-19.36 74:16.41 75:-17.75 76:-9.16 77:-2.48 78:21.47 79:-25.31 80:18.83 81:14.22 82:-28.42 83:7.14 84:2.42 85:-24.14 86:-7.51 87:20.3 88:-23.61 89:12.51 90:-0.25 91:18.71 92:-9.69 93:21.98 94:-3.61 95:-32.25 96:-6.27 97:-9.57 98:-0.53 99:-23.03 100:12.38 101:-7.54 102:-8.43 103:-4.02 104:21.87 105:4.97 106:2.14 107:-40.18 108:-39.91 109:13.58 110:8.08 111:-2.75 112:-25.22 113:23.33 114:1.33 115:-16.73 116:-13.93 117:19.47 118:-11.57 119:12.62 120:-16.65 121:-30.01 122:4.2 123:3.78 124:12 125:-12.64 126:17.66 127:-1.88 128:-11.76 129:-14.42 130:22.87 131:6.75 132:7.3 133:-40.45 134:-51.78 135:6.57 136:5.67 137:2.78 138:-29.05 139:13.42 140:-1.94 141:-6.19 142:-20.16 143:23.15 144:-30.93 145:13.85 146:-5.93 147:-40.49 148:-4.38 149:19.4 150:-22.34 151:0.34 152:26.99 153:-7.36 154:-4.5 155:-11.17 156:19.2 157:-6.79 158:17.7 159:-4.86 160:-37.52 161:-5.29 162:2.23 163:-1.19 164:-20.83 165:9.48 166:-8.6 167:3.02 168:10.21 169:19.25 170:-8.35 171:15.24 172:-8.58 173:-30.72 174:-4.25 175:-5.86 176:-18.3 177:-34.16 178:21.19 179:8.1 180:-0.24 181:5.73 182:19.16 183:-9.07 184:16.96 185:-3.71 186:-17.64 187:0.55 188:-20.83 189:-17.88 190:-31.49 191:26.09 192:6.07 193:-13.76 194:-14.27 195:25.06 196:-13.15 197:15 198:-24.5 199:-51.37 200:2.85 201:11.7 202:-25.69 203:-7.43 204:15.29 205:-9.95 206:5.98 207:-11.82 
4.566016454906931e-08 0:16.33 1:7.5 2:13.49 3:-2.13 4:-32.63 5:3.93 6:11.85 7:-0.62 8:3.07 9:-5.98 10:-21.43 11:8.36 12:-8.32 13:17.87 14:2.18 15:12.96 16:-12.71 17:-28.78 18:6.89 19:-13.47 20:-0.53 21:-2.1 22:7.92 23:-21.42 24:-6.49 25:-13.39 26:17.08 27:0.59 28:11.52 29:-6.56 30:-13.12 31:-4.77 32:-21.16 33:-4.03 34:-3.76 35:8.05 36:-7.8 37:7.92 38:-4.25 39:18.57 40:9.94 41:13.53 42:-15.99 43:-36.55 44:0.87 45:-18.38 46:15.73 47:-6.99 48:-0.63 49:-17.77 50:18.79 51:-13.46 52:20.66 53:-30.97 54:34.75 55:0.67 56:-15.84 57:14.14 58:-36.58 59:0.09 60:-12.29 61:-0.2 62:-6.82 63:18.49 64:2.4 65:15.5 66:-11.47 67:23.38 68:10.76 69:-5.12 70:2.68 71:-25.57 72:3.69 73:-20.02 74:-2.67 75:-1.79 76:6.2 77:-4.23 78:20.62 79:-40.38 80:31.31 81:-10.72 82:0.09 83:25.08 84:-16.57 85:13.84 86:5.7 87:7.76 88:-6.78 89:10.84 90:-1.85 91:14.81 92:4.95 93:10.8 94:-20.35 95:-17.91 96:9.1 97:-0.29 98:6.95 99:-4.78 100:-1.42 101:-16.4 102:-9.61 103:-18.08 104:15.83 105:6.02 106:10.13 107:-12.94 108:-14.39 109:15.26 110:-21.46 111:15.26 112:1.11 113:21.67 114:-7.05 115:-9.11 116:-20.25 117:15.07 118:-19.01 119:-6.67 120:-4.65 121:-3.79 122:29.09 123:-12 124:19.85 125:-13.63 126:11.15 127:3.34 128:4.14 129:-11.08 130:16.37 131:2.27 132:10.39 133:-14.87 134:-21.91 135:22.26 136:-4.79 137:26.04 138:-5.83 139:9.39 140:-3.65 141:1.24 142:-20.83 143:19.85 144:-37.64 145:22.73 146:2.83 147:-26.04 148:41.62 149:-9.2 150:7.17 151:10.91 152:13.26 153:-20.5 154:14.71 155:-9.79 156:13.32 157:-12.15 158:9.88 159:1.45 160:-9.37 161:15.03 162:-7.14 163:-4.56 164:-13.1 165:-4.36 166:-0.76 167:5.16 168:0.59 169:13.25 170:-9.97 171:7.85 172:0.95 173:-4.87 174:4.85 175:-8.4 176:-1.63 177:-14.72 178:3.09 179:4.7 180:-0.64 181:3.92 182:12.93 183:-4.75 184:9.16 185:0.13 186:-6.17 187:3.31 188:-10.78 189:-1.3 190:-8.42 191:10.08 192:14.6 193:10.41 194:2.38 195:21.58 196:-10.03 197:16.62 198:-10.35 199:-10.87 200:5.19 201:-15.08 202:17.08 203:-2.08 204:12.39 205:-2.65 206:6.04 207:-7.43 
1.567154579392925e-08 0:18.55 1:12.35 2:7.07 3:-7.47 4:-21.79 5:-20.56 6:-17.17 7:-16.65 8:-18.7 9:-19.25 10:-1.66 11:0.68 12:-6.15 13:21.98 14:6.2 15:-17.14 16:-15.14 17:-29.99 18:-11.95 19:-14.18 20:-19.14 21:4.65 22:28.5 23:-8.2 24:-25.57 25:1.64 26:19.87 27:-2.83 28:6.97 29:-12.38 30:-10.61 31:-23.51 32:-15.92 33:-24.28 34:-0.74 35:12.35 36:3.85 37:-0.97 38:1.78 39:22.43 40:8.12 41:-16.53 42:-6.93 43:-30.84 44:-11.25 45:-13.82 46:-18.86 47:-11.85 48:9.9 49:-6.05 50:5.9 51:0.77 52:23.85 53:-31.4 54:36.8 55:-13.26 56:-13.17 57:-2.32 58:-42.42 59:1.52 60:-0.06 61:5.39 62:-0.49 63:7.22 64:14.54 65:19.83 66:2.54 67:1.87 68:18.59 69:-16.14 70:-28.19 71:-43.66 72:-25.66 73:11.68 74:-12.87 75:-3.21 76:13.35 77:0.98 78:22.93 79:-30.57 80:31.99 81:-1.95 82:-17.84 83:3.5 84:-29.26 85:-11.79 86:3.91 87:5.47 88:-1.31 89:-0.01 90:11.62 91:17.34 92:9.75 93:12.61 94:-9.77 95:-17.99 96:-17.08 97:-13.76 98:-13 99:-6.24 100:4.35 101:1.67 102:-2.53 103:-9.69 104:20.59 105:6.76 106:-7.06 107:-11.1 108:-10.59 109:-11 110:-19.48 111:-16.77 112:6.39 113:15.49 114:7.37 115:-12.2 116:11.59 117:18.55 118:0.45 119:-14.35 120:-18.44 121:-18.57 122:-4.58 123:11.72 124:7.93 125:2.34 126:12.28 127:2.68 128:-2.74 129:-5.28 130:20.89 131:7.69 132:-7.12 133:-23.26 134:-19.71 135:12.57 136:-10.14 137:20.85 138:-18.58 139:11.44 140:-12.41 141:-20.49 142:-4.13 143:21.37 144:-32.74 145:18.57 146:4.66 147:-24.22 148:6.32 149:-7.66 150:-9.62 151:4.23 152:15.15 153:-1.47 154:-8.59 155:8.05 156:18.4 157:6.95 158:10.09 159:-7.98 160:-29.01 161:-31.57 162:-3.72 163:-3.67 164:-6.43 165:-0.3 166:-12.85 167:-10.13 168:8.13 169:20.09 170:11.69 171:-0.8 172:-25.7 173:-31.19 174:-22.43 175:-4.82 176:5.65 177:-16.78 178:1.28 179:12.3 180:-1.8 181:-1.53 182:18.39 183:-12.06 184:9.99 185:-11.63 186:-17.71 187:-5.78 188:-19.06 189:-13.44 190:7.42 191:10.42 192:0.36 193:2.12 194:5.75 195:24.57 196:-10.16 197:8.59 198:-26.17 199:-22.32 200:-3.6 201:-21.94 202:-5.2 203:-7.59 204:13.74 205:-2.38 206:-10.56 207:6.66 
4.668091964966623e-08 0:17.69 1:8.9 2:3 3:-23.86 4:-16.77 5:-5.59 6:5.49 7:-4 8:-10.15 9:-16.93 10:-4.25 11:3.69 12:-4.73 13:21.6 14:9.18 15:-19.9 16:-8.7 17:-5.05 18:-14.76 19:-15.75 20:-16.82 21:8.77 22:12.87 23:-6.01 24:21.97 25:-18.52 26:20.13 27:-5.46 28:4.43 29:-10.07 30:1.85 31:-14.79 32:-14.51 33:-20.49 34:-3.27 35:-2.19 36:5.68 37:4.53 38:15.19 39:22.22 40:9.98 41:-13.83 42:-18.68 43:-7.03 44:-20.59 45:-21.32 46:-29.1 47:2.16 48:-20.14 49:-27 50:23.42 51:3.27 52:23.84 53:-37.04 54:19.79 55:4.02 56:-17.75 57:-2.61 58:-37.79 59:-19.5 60:19.37 61:-29.77 62:-11.47 63:2.44 64:11.01 65:19.26 66:-16.88 67:18.4 68:6.24 69:-11.1 70:6.52 71:-20.69 72:-20.6 73:13.14 74:-22.43 75:-11.62 76:-7.11 77:1.3 78:21.27 79:-29.24 80:16.04 81:6.59 82:-18.92 83:13.62 84:-4.84 85:-23.33 86:8.41 87:1.49 88:-4.53 89:-16.4 90:1.22 91:17.63 92:8.16 93:9.83 94:-10.46 95:-12.12 96:-7.94 97:7.46 98:-12.16 99:-1.21 100:-8.04 101:1.52 102:6.77 103:0.88 104:20.04 105:4.19 106:-10.25 107:-11.11 108:-3.35 109:-3.31 110:-15.89 111:-19.22 112:4.2 113:4.49 114:7.45 115:4.55 116:-14.63 117:19.61 118:-14.51 119:-18.84 120:-24.46 121:-6.98 122:11.47 123:-12.57 124:12.73 125:-7.86 126:7.59 127:9.66 128:-0.63 129:8.28 130:21.84 131:5.98 132:-11.89 133:-24.1 134:-15.73 135:5.16 136:-0.33 137:-0.14 138:-2.67 139:11.67 140:-5.6 141:6.65 142:-35.02 143:21.54 144:-28.19 145:7.53 146:-10.49 147:-14.46 148:-2.07 149:7.95 150:-8.03 151:-3.43 152:2.64 153:7.92 154:-17.27 155:-0.82 156:17.32 157:1.22 158:6.72 159:-7.93 160:0.68 161:-11.14 162:1.33 163:-12.37 164:-15.97 165:-9.17 166:0.24 167:7.27 168:12.41 169:17.11 170:2.3 171:2.1 172:-15.25 173:10.05 174:-4.48 175:-7.91 176:-12.27 177:-2.93 178:3.47 179:-1.98 180:7.17 181:3.47 182:16.74 183:0.12 184:-1.72 185:-8.04 186:19.02 187:5.68 188:-17.51 189:-15.99 190:11.55 191:3.69 192:-7.63 193:5.55 194:-2.68 195:24.21 196:-10.91 197:4.02 198:-16.16 199:-16.23 200:2.11 201:-30.46 202:-19.81 203:13.59 204:-19.94 205:3.82 206:9.58 207:4.29 
5.753191609284559e-08 0:18.49 1:-6.16 2:5.01 3:-16.46 4:-5.6 5:-14.75 6:3.72 7:-26.38 8:-2.08 9:2.13 10:6.62 11:2.62 12:-9.1 13:16.85 14:-1.41 15:2.15 16:-13.03 17:-27.94 18:-28 19:11.41 20:-13.43 21:-6.68 22:-10.62 23:3.44 24:2.68 25:-5.07 26:16.68 27:-3.32 28:1.45 29:-10.23 30:-34.66 31:-20.59 32:2.8 33:-16.89 34:-0.83 35:-7.56 36:4.58 37:-1.06 38:-10.04 39:18.34 40:-4.34 41:5.85 42:-14.27 43:-22.88 44:-26.97 45:11.82 46:-19.16 47:-9.64 48:-10.65 49:10.61 50:17.65 51:-4.18 52:20.23 53:-23.06 54:20.2 55:-23.46 56:3.52 57:-14.71 58:-6.95 59:-17 60:8.27 61:-1.12 62:7.08 63:-2.94 64:-0.8 65:17.58 66:-13.07 67:3.19 68:1.72 69:0.76 70:-32.33 71:-9.93 72:-13.13 73:-2.91 74:-8.1 75:1.54 76:12.31 77:-13.98 78:19.2 79:-23.66 80:14.8 81:-18.9 82:-3.04 83:-22.16 84:1.32 85:-7.31 86:1.24 87:5 88:5.09 89:-3.13 90:-4.21 91:16.16 92:-7.38 93:-3.22 94:-5.7 95:-7.7 96:-13.88 97:-7.53 98:-11.26 99:10.35 100:-1.7 101:15.7 102:-9.33 103:-3.8 104:17.05 105:-2.57 106:-10.81 107:-21.58 108:2.04 109:-13.72 110:-4.77 111:-14.22 112:2.25 113:2.92 114:2.69 115:-12.33 116:-25.91 117:14.39 118:-0.87 119:-2.98 120:-16.66 121:-5.79 122:-13.26 123:-2.82 124:-6.52 125:3.46 126:2.66 127:4.77 128:9.1 129:3.3 130:18.15 131:-4.04 132:-9.18 133:-24.05 134:4.71 135:6.97 136:-7.4 137:-0.93 138:-15.26 139:-6.64 140:2.22 141:9.35 142:-20.47 143:18.66 144:-24.83 145:19.44 146:-19.57 147:-2.34 148:2.8 149:-12.71 150:-8.79 151:10.22 152:-13.2 153:7.69 154:-1.77 155:-5.87 156:15.53 157:-3.47 158:6.99 159:-12.27 160:-1.83 161:-15.4 162:-2.34 163:-24.49 164:-12.6 165:-9.22 166:15.97 167:8.75 168:-1.05 169:16.59 170:-0.09 171:5.02 172:-14.81 173:-0.43 174:-25.44 176:-27.79 177:-12.65 178:8.63 179:32.03 180:13.43 181:-18.44 182:15.6 183:-8.36 184:-4.39 185:-15.54 186:-6.65 187:-18.54 188:-13.01 189:-10.01 190:8.64 191:12.34 192:11.22 193:-1.53 194:-14.72 195:21.32 196:-7.37 197:4.78 198:-9.14 199:3.97 200:-8.4 201:5.54 202:-9.13 203:2.93 204:-2.84 205:4.99 206:-0.76 207:-3.29 
3.301716581775295e-08 0:15.75 1:9.62 2:10.7 3:-2.38 4:-14.5 5:3.32 6:12.8 7:7.34 8:-17.43 9:2.51 10:-1.86 11:7.29 12:-20.29 13:16.69 14:8.85 15:-0.68 16:-0.9 17:-2.63 18:-0.42 19:-7.71 20:3.27 21:-16.33 22:17.75 23:-2.05 24:-8.29 25:-23.64 26:15.31 27:7.03 28:7.93 29:-11.49 30:-21.13 31:-16.14 32:-1.52 33:-0.37 34:-6.88 35:-7.41 36:-8.45 37:-8.45 38:-17.36 39:17.16 40:9.95 41:5.27 42:4.92 43:-21.69 44:-23.46 45:-2.8 46:24.74 47:-19.88 48:-4.98 49:-0.79 50:2.55 51:-4.84 52:20.53 53:-39.39 54:30.62 55:1.6 56:-2.79 57:1.68 58:-18.2 59:21.25 60:-30.47 61:7.47 62:5.67 63:-6.03 64:13.98 65:15.23 66:-6.05 67:14.14 68:16.28 69:6.36 70:-10.24 71:-9.74 72:6.75 73:-31.65 74:-3.52 75:-7.32 76:-2.6 77:7.09 78:20.03 79:-32.99 80:24.74 81:-0.04 82:0.59 83:6.97 84:-12.47 85:20.12 86:-25.12 87:8.06 88:-2.48 89:-7.12 90:10.82 91:14.9 92:3.84 93:9.53 94:-2.32 95:-1.74 96:5.31 97:4.27 98:-0.23 99:-14.73 100:-3.92 101:-6.12 102:-5.54 103:-11.85 104:15.65 105:3.48 106:4.43 107:2.41 108:6.12 109:-1.83 110:-8.12 111:23.01 112:-24.42 113:27.34 114:-11.83 115:-15.17 116:-19.05 117:12.13 118:-8.96 119:4.58 120:4.96 121:2.88 122:9.1 123:6.46 124:0.26 125:-4.8 126:2.56 127:1.1 128:-2.04 129:-7.21 130:15.34 131:-12.69 132:-9.03 133:2.89 134:-9.15 135:-19.27 136:7.17 137:29.66 138:-19.03 139:7.45 140:22.49 141:-7.91 142:9.09 143:14.22 144:-11.63 145:-14.69 146:-2.99 147:-3.3 148:6.34 149:6.17 150:14.79 151:-33.3 152:9.99 153:11.53 154:-7.91 155:2.46 156:14.88 157:5.45 158:3.31 159:-5.29 160:-10.89 161:9.46 162:13.4 163:16.03 164:-35.65 165:18.95 166:-4.2 167:-12.64 168:-17.49 169:15.31 170:4.53 171:8.55 172:-2.62 173:-9.46 174:0.84 175:4.8 176:19.19 177:-22.7 178:16.58 179:-3.17 180:-13.83 181:-19.77 182:17.65 183:-34.92 184:9.28 185:23.02 186:-22.19 187:3.04 188:9.42 189:0.94 190:-4.25 191:14.42 192:-10.44 193:-5.79 194:-6.96 195:21.23 196:-10.01 197:13.49 198:-4.83 199:0.12 200:4.74 201:-11.66 202:18.9 203:-13.22 204:13.57 205:-0.1 206:-2.6 207:3.84 
1.056991757893652e-07 0:15.51 1:9.43 2:4.11 3:-6.69 4:-12.91 5:16.45 6:17.49 7:-2 8:-6.92 9:-9.99 10:-5.02 11:2.35 12:-14.95 13:17.55 14:2.61 15:-7.76 16:-10.03 17:-3.72 18:7.65 19:5.44 20:-2.66 21:-3.1 22:3.57 23:-9.38 24:-14.07 25:-21.07 26:15.6 27:11.15 28:-0.05 29:-10.09 30:-22.82 31:7.18 32:7.03 33:-10.97 34:-30.75 35:-2.38 36:19.65 37:0.91 38:-32.78 39:16.68 40:11.16 41:0.45 42:-9.28 43:-11.06 44:2.75 45:3.81 46:0.96 47:-6 48:0.93 49:9.15 50:-0.43 51:-17.97 52:17.18 53:-12.41 54:26.61 55:17.35 56:7.76 57:-13.18 58:-12.99 59:3.41 60:-21.78 61:-7.15 62:6.41 63:7.41 64:-1.91 65:19.62 66:-38.23 67:28.36 68:-23.5 69:7.06 70:-1.95 71:-6.82 72:16.98 73:-12.72 74:-8.33 75:-0.47 76:-0.22 77:7.92 78:14.66 79:4.57 80:8.33 81:-6.19 82:3.81 83:10.65 84:10.2 85:-4.02 86:-10.07 87:-3.75 88:-0.52 89:-4.54 90:-15.65 91:15.25 92:7.64 93:-3.61 94:-9.5 95:3.97 96:20 97:4.58 98:-0.4 99:3.38 100:10.95 101:-2.61 102:-18.32 103:-22.75 104:13.3 105:-10.82 106:-18.77 107:-13.53 108:-3.13 109:15.79 110:2.69 111:8.43 112:-14.81 113:-2.31 114:10.05 115:-12.06 116:-16.68 117:16.37 118:8.88 119:-3.39 120:-14.39 121:-15.81 122:25.8 123:6.43 124:13.06 125:-6.89 126:-3.72 127:14.92 128:-4.3 129:-23.34 130:18.89 131:-36.73 132:18.72 133:-5.49 134:-27.51 135:21.93 136:-15.61 137:5.13 138:2.02 139:0.43 140:12.78 141:-2.22 142:2.73 143:12.49 144:-0.17 145:5.56 146:3.66 147:-5.65 148:5.2 149:-11.36 150:-4.97 151:-25.75 152:-3.68 153:7.71 154:12.76 155:0.56 156:13 157:-0.17 158:7.11 159:-0.32 160:-5.67 161:-2.81 162:-5.62 163:-9.14 164:-15.19 165:1.12 166:9.42 167:10.61 168:1.01 169:12.5 170:0.86 171:4.2 172:-6.49 173:-7.09 174:3.39 175:-4.06 176:-8.75 177:-16.19 178:8.24 179:12.06 180:6.4 181:3.34 182:20.37 183:-7.21 184:8.19 185:-8.9 186:7.35 187:0.8 188:5.06 189:4.05 190:-1.3 191:6.52 192:1.27 193:0.45 194:-3.02 
1.203162656559578e-07 0:14.06 1:2.58 2:9.74 3:-0.63 4:-1.15 5:-1.66 6:3.79 7:4.82 8:5.79 9:8.15 10:3.52 11:-2.63 12:-15.41 13:15.72 14:7.24 15:12.05 16:0.41 17:4.44 18:-0.19 19:-9.85 20:2.13 21:11.7 22:20.03 23:1.08 24:-8.79 25:-10.21 26:14.94 27:8.85 28:10.1 29:-5.22 30:-10.67 31:-7.43 32:-3.33 33:-1.68 34:2.81 35:6.1 36:6.06 37:-2.39 38:-12.54 39:16.7 40:14.01 41:14.75 42:-3.86 43:-6.08 44:-5.66 45:-9.52 46:3.68 47:4.02 48:10.47 49:7.49 50:7.17 51:-3.87 52:20.42 53:-34.33 54:32.61 55:-8.45 56:1.29 57:19.42 58:-15.97 59:19.94 60:-4.56 61:1.91 62:8.48 63:-13.26 64:15.02 65:15.48 66:-12.41 67:28.43 68:-0.76 69:12.98 70:1.97 71:-21.98 72:6.6 73:-10.5 74:-7.82 75:2.28 76:-5.96 77:13.53 78:19.6 79:-40.86 80:30.11 81:-14.59 82:0.81 83:17.02 84:-17.97 85:11.47 86:-0.88 87:1.88 88:-1.34 89:-5.45 90:7.41 91:13.47 92:1.15 93:18.6 94:4.26 95:7.34 96:5.39 97:-2.93 98:4.95 99:-10.54 100:0.67 101:-1.9 102:2.48 103:-8.24 104:13.91 105:5.08 106:10.3 107:-6.77 108:1.58 109:3.49 110:-16.88 111:4.89 112:12.92 113:22.19 114:-4.88 115:-16.22 116:-14 117:12.63 118:-7.06 119:-14.85 120:-4.05 121:4.54 122:11.19 123:11.26 124:10.59 125:-7.07 126:1.01 127:14.38 128:4.49 129:-11.85 130:14.59 131:6.89 132:8.82 133:-8.02 134:-3.83 135:8.49 136:1.45 137:8.76 138:2.84 139:12.67 140:6.41 141:-4.29 142:-14.69 143:18.43 144:-33.89 145:16.17 146:-4.2 147:-20.94 148:27.5 149:-13.48 150:-2.27 151:13.38 152:2.89 153:-0.92 154:9.74 155:-1.65 156:12.74 157:-0.56 158:10.76 159:2.44 160:-11.67 161:1.74 162:-9.36 163:-10.57 164:-1.94 165:-1.4 166:1.6 167:13.54 168:-6.13 169:13.18 170:2.55 171:11.86 172:3 173:-3.84 174:0.52 175:-5.13 176:-5.73 177:-0.64 178:7.68 179:8.31 180:6.86 181:-9.44 182:12.53 183:4.14 184:7.36 185:-5.06 186:-5.51 187:-0.11 188:0.87 189:0.2 190:-6.52 191:3.1 192:15.8 193:8.17 194:-11.77 195:21.04 196:-11.48 197:13.81 198:-5.56 199:3.07 200:6.33 201:-9.9 202:15.21 203:-4.05 204:10.99 205:9.16 206:-4.76 207:11.07 
4.028109250237622e-08 0:18.69 1:6.25 2:-0.22 3:-2.94 4:-4.2 5:2.92 6:7.02 7:-15.01 8:-26.85 9:-3.46 10:3.82 11:-9.92 12:-13.18 13:21.98 14:2.27 15:-24.75 16:2.31 17:-3.01 18:7.84 19:-4.84 20:-7.55 21:12.43 22:1.69 23:-10.5 24:-31.31 25:7.7 26:19.05 27:4.2 28:-4.93 29:-2.06 30:14.27 31:10.55 32:-10.68 33:-10.18 34:-9.64 35:-6.59 36:0.29 37:-16.55 38:-1.1 39:22.23 40:3.32 41:-9.22 42:-12.56 43:-23.95 44:10.67 45:19.46 46:-27.48 47:1.3 48:-10.42 49:23.46 50:-20.15 51:12.73 52:22.58 53:-25.98 54:24.01 55:-5.64 56:-2.6 57:18.21 58:-3.14 59:-6.62 60:7.97 61:-7.33 62:15.32 63:-11.85 64:19.49 65:19.54 66:-14.28 67:16.73 68:26.51 69:-5.03 70:-2.13 71:6.68 72:-31.17 73:-8.55 74:-13.18 75:-7.29 76:-10.4 77:11.45 78:22.48 79:-31.43 80:25.93 81:8.99 82:7.39 83:9.75 84:15.72 85:-19.45 86:-3.82 87:-4.51 88:3.19 89:-14.04 90:13.44 91:18.99 92:5.68 93:4.44 94:-3.9 95:8.12 96:-2.98 97:10.77 98:-23.27 99:-19.73 100:-7.5 101:-1.1 102:-11.81 103:-8.37 104:21.78 105:1.51 106:-24.34 107:2.98 108:2.02 109:7.77 110:-2.91 111:-9.37 112:17.83 113:6.53 114:-7.53 115:-21.16 116:-1.91 117:18.62 118:-6.5 119:-11.04 120:7.34 121:4.83 122:20.53 123:15.94 124:-17.15 125:-6.48 126:14.33 127:-2.93 128:-2.98 129:9.89 130:22.19 131:-0.88 132:-20.07 133:-6.33 134:-8.15 135:26.17 136:18.12 137:-3.58 138:-4.15 139:19.92 140:-1.3 141:-28.44 142:3.49 143:22.27 144:-32.21 145:17.87 146:-11.18 147:-6.88 148:26.3 149:4.16 150:-7.2 151:15.01 152:-0.63 153:-1.58 154:-23.9 155:6.81 156:19.69 157:3.31 158:19.07 159:-5.54 160:-19.23 161:-4.12 162:21.1 163:-13.64 164:-0.33 165:-18.91 166:-1.29 167:-5.4 168:15.41 169:20.17 170:5.87 171:4.44 172:-16.1 173:-23.43 174:17.95 175:27.35 176:-2.17 177:-7.87 178:-2.69 179:11.23 180:-4.67 181:11.81 182:18.67 183:-1.22 184:10.87 185:12.04 186:21.94 187:17.93 188:-1.03 189:-6.46 190:3.43 191:-4.42 192:-6.63 193:-3.14 194:-1.69 195:23.78 196:-8.01 197:-0.64 198:-16.43 199:-1.45 200:8.28 201:3.56 202:-13.32 203:4.86 204:-4.7 205:3.78 206:-17.82 207:13.97 
8.612930979036965e-08 0:15.66 1:1.43 2:5.56 3:-5.43 4:0.9 5:5.01 6:9.2 7:7.4 8:-6.73 9:20.03 10:-2.33 11:4.42 12:-12.58 13:17.25 14:0.2 15:-3.61 16:-3.98 17:-2.39 18:4.1 19:-6.1 20:13.75 21:-1.22 22:36.06 23:-13.34 24:-9.68 25:-8.16 26:16.13 27:6.07 28:2.54 29:-12.34 30:-22.13 31:-3.88 32:6.37 33:-6.27 34:-16.1 35:-1.32 36:-4.21 37:21.92 38:-15.12 39:18.07 40:5.7 41:-10.88 42:-9.22 43:-8.79 44:-2.26 45:-7.81 46:1.81 47:-7.95 48:4.65 49:-10.57 50:20.89 51:-14.54 52:18.53 53:-14.06 54:16.19 55:25.38 56:-1.98 57:-19.03 58:-30.56 59:11.12 60:-24.99 61:-2.32 62:-7.13 63:19.29 64:-0.9 65:21.51 66:-44.39 67:27.68 68:-14.86 69:-2.56 70:5.68 71:-19.3 72:12.39 73:-17.99 74:6.99 75:-6.26 76:0.8 77:2.5 78:15.83 79:3.19 80:7.19 81:-11.92 82:12.12 83:6.02 84:-2.26 85:3.08 86:-17.64 87:13.94 88:-5.31 89:3.35 90:-17.95 91:18.17 92:-2.97 93:-7.23 94:-10.6 95:5.31 96:0.83 97:-17.75 98:20.68 99:-1.77 100:31.21 101:-23.28 102:-9.68 103:-17.63 104:16.74 105:-23.77 106:-12.76 107:-1.24 108:-5.4 109:16.81 110:-5.12 111:11.87 112:-3.18 113:22.15 114:10.06 115:-9.88 116:0.33 117:18.16 118:-2.3 119:-1.61 120:-15.3 121:-14.97 122:20.78 123:-9.13 124:22.86 125:-16.17 126:32.82 127:-4.41 128:-3.87 129:-31.22 130:19.64 131:-38.02 132:16.56 133:6.16 134:-25.12 135:21.71 136:-4.65 137:-3.15 138:7.85 139:13.81 140:-6.16 141:-1.74 142:0.92 143:14.11 144:1.06 145:6.58 146:8.32 147:-3.07 148:0.87 149:-10.37 150:-10.26 151:-10.83 152:22.37 153:9.77 154:-1.54 155:-13.75 156:15.17 157:-0.28 158:-1.67 159:4.49 160:-5.65 161:-10.28 162:-6.92 163:-8.33 164:-6.8 165:34.98 166:8.19 167:-6.29 168:-13.51 169:15.29 170:-0.7 171:-2.71 172:9.01 173:-4.38 174:-13.43 175:-10.66 176:-0.96 177:-0.82 178:39.41 179:7.65 180:-11.75 181:-3.96 182:21.76 183:-11.68 184:11.31 185:-14.17 186:4.8 187:2.61 188:-10.64 189:15.99 190:-8.97 191:16.28 192:-2.54 193:4.96 194:-2.52 
2.568910517039821e-09 0:18.82 1:13.3 2:0.06 3:-2.03 4:-22.14 5:-22.87 6:24.54 7:-14.67 8:4.75 9:6.99 10:-24.65 11:-14.67 12:-11.68 13:22.28 14:6.33 15:-14.56 16:-10.14 17:-25.43 18:-23.58 19:41.11 20:-21.03 21:-9.89 22:25.76 23:-14.83 24:-0.96 25:-26.69 26:18.2 27:10.17 28:7.16 29:-9.11 30:-10.96 31:-14.53 32:-8.26 33:-12.85 34:-14.52 35:0.58 36:9.62 37:2.16 38:-8.15 39:23.81 40:0.01 41:-15.64 42:7.05 43:-31.12 44:-39.1 45:9.53 46:-36.22 47:-13.94 48:15.04 49:-18.27 50:4.09 51:-17.97 52:22.43 53:-31.26 54:22.73 55:-3.55 56:-11.75 57:-1.47 58:-45.89 59:-14.83 60:-7.58 61:12.96 62:2.24 63:-14.95 64:-2.02 65:20.41 66:-1.46 67:1.78 68:19.04 69:-4.29 70:-31.03 71:-36.13 72:-18.71 73:-1.6 74:-0.94 75:-13.25 76:-14.35 77:-14.97 78:19.39 79:-19.81 80:20.57 81:19.49 82:-7.66 83:8.64 84:-20.82 85:-27.41 86:-4.42 87:13.63 88:-21.27 89:-17.47 90:-3.46 91:19.16 92:7.28 93:-1.09 94:2.99 95:-20.11 96:-29.96 97:18.55 98:0.38 99:-19.41 100:8.83 101:-31.2 102:-4.96 103:-26.85 104:21.15 105:5.36 106:-9.19 107:-3.9 108:-20.98 109:-34.47 110:38.82 111:-19.71 112:-22.17 113:25.74 114:-18.28 115:7 116:-27.42 117:16.65 118:-5.14 119:-1.64 120:-8.51 121:-13.67 122:-10.12 123:-4.96 124:-15.42 125:-13.15 126:-1.97 127:0.81 128:5.32 129:3.09 130:21.69 131:11.68 132:0.49 133:-9.26 134:-31.23 135:-43.57 136:43.65 137:-14.05 138:-26.3 139:14.84 140:-25.45 141:11.7 142:-18.34 143:21.04 144:-28.91 145:22.14 146:-7.97 147:-23.06 148:-2.09 149:-10.51 150:-25.4 151:-9.77 152:7.75 153:3.84 154:6.37 155:-2.43 156:18.74 157:6.59 158:0.01 159:16.42 160:-17.95 161:-27.67 162:18.32 163:-27.61 164:-43.55 165:2.8 166:3.87 167:1.4 168:-12.61 169:20.61 170:4.05 171:-5.36 172:7.71 173:-7.43 174:-36 175:0.64 176:-30.56 177:-30.42 178:17.32 179:4.21 180:1.07 181:-19.43 182:17.35 183:-6.33 184:6.94 185:10.31 186:-11.03 187:-11.97 188:-10.16 189:-22.39 190:-10.39 191:7.26 192:2.01 193:-2.14 194:-22.46 195:24.41 196:-6.17 197:-1 198:-3.02 199:-33.07 200:-17.51 201:3.98 202:-11.85 203:-17.49 204:12.85 205:-5.98 206:-6.61 207:-10.71 
4.162307308105641e-08 0:13.23 1:0.39 2:-3.05 3:-15.05 4:-4.58 5:-18.15 6:2.44 7:-13.43 8:-8.63 9:-8.7 10:-9.31 11:-2.54 12:-11.31 13:15.11 14:-1.82 15:-4.3 16:-12 17:-1.33 18:-18.97 19:-3.19 20:-3.43 21:-4.59 22:5.08 23:-8.11 24:-4 25:-9.21 26:16.25 27:-4.8 28:16.8 29:-21.54 30:0.17 31:-29.86 32:11.38 33:-7.25 34:-3.26 35:-13.26 36:6.94 37:12.09 38:4.68 39:17.33 40:4.28 41:10.54 42:-16.08 43:-23.11 44:-26.43 45:13.24 46:3.84 47:-18.46 48:-4.5 49:-4.99 50:19.73 51:-11.07 52:16.88 53:-29.28 54:16.59 55:4.16 56:2.45 57:-4.05 58:-19.05 59:-10.91 60:12.96 61:-19.42 62:5 63:2.39 64:4.85 65:14.59 66:-9.9 67:17.88 68:7.68 69:8.69 70:-21.27 71:-19.05 72:-12.03 73:-9.28 74:-13.63 75:5.44 76:8.22 77:4.74 78:15.39 79:-31.44 80:18.94 81:-5.25 82:10.31 83:0.81 84:-17.77 85:-8.54 86:2.95 87:-11.81 88:-4.72 89:-4.94 90:7.46 91:12.85 92:4.51 93:9.36 94:-6.33 95:-0.7 96:-11.46 97:-4.87 98:0.13 99:-13.58 100:0.32 101:-2.32 102:0.2 103:-5.03 104:13.8 105:3.74 106:-3.47 107:-5.6 108:1.46 109:-12.51 110:-3.42 111:-3.46 112:0.43 113:5.21 114:-12.71 115:-2.39 116:2.37 117:12.53 118:-18.83 119:-25.35 120:-8.16 121:-10.92 122:-9.65 123:-3.2 124:-8.88 125:-14.84 126:-16.86 127:11.47 128:10.72 129:-10.02 130:15.32 131:-2.97 132:1.93 133:-18.03 134:-13.65 135:15.19 136:-4.01 137:20.09 138:-24.13 139:-8.84 140:2.63 141:21.95 142:-16.06 143:16.73 144:-38.06 145:10.29 146:3.91 147:-14.95 148:9.04 149:-2.84 150:-12.75 151:9.62 152:4.54 153:4.66 154:-0.88 155:2.8 156:12.91 157:1.31 158:11.26 159:-8.24 160:-13.59 161:-8.63 162:-8.56 163:-11.42 164:-15.18 165:-5.28 166:9.88 167:-0.99 168:2.19 169:13.81 170:-6.14 171:14.89 172:-15.2 173:-17.2 174:-6.45 175:-16.26 176:-6.65 177:-12.97 178:5.62 179:22.16 180:-5.07 181:4.65 182:12.15 183:-9.83 184:4.04 185:-5.95 186:-8.81 187:-13.84 188:-28.27 189:-19.26 190:-2.27 191:16.81 192:19.04 193:-0.5 194:2.13 195:20.05 196:-4.72 197:2.25 198:-0.32 199:-0.35 200:-0.64 201:0.45 202:0.07 203:-0.67 204:-3.46 205:-2.89 206:-3.48 207:-2.33 
4.462809989965738e-08 0:16.92 1:-9.45 2:11.72 3:-4.08 4:-2.46 5:28.95 6:-2.84 7:-5.29 8:-5.31 9:-0.38 10:-10.49 11:-7.55 12:1.66 13:20.99 14:8.44 15:-10.18 16:-38.4 17:-22.37 18:6.4 19:-2.74 20:3.27 21:-1.42 22:14.49 23:5.97 24:-6.9 25:-14.9 26:17.87 27:-16.36 28:14.58 29:-8.48 30:0.58 31:8.62 32:1.35 33:-5.24 34:1.74 35:5.69 36:-4.66 37:3.53 38:0.03 39:21.76 40:5.06 41:-4.71 42:-30.84 43:-32.84 44:-17.26 45:-19.32 46:-5.39 47:-12.34 48:-8.87 49:3.1 50:6.56 51:-8.67 52:23.69 53:-34.93 54:20.29 55:-2.15 56:-29.71 57:-1.4 58:-7.82 59:-29.07 60:8.68 61:4.72 62:-11.51 63:17.66 64:-2.2 65:18.52 66:-1.86 67:3.38 68:-4.3 69:-5.15 70:-20.09 71:-36.94 72:-4.53 73:-15.44 74:1.27 75:-7.46 76:0.7 77:3.05 78:19.11 79:-15.15 80:14.6 81:-3.35 82:-13.43 83:0.3 84:-6.45 85:-20.22 86:-1.76 87:6.54 88:-5.18 89:2.83 90:1.2 91:17.93 92:-14.96 93:12.72 94:-11.6 95:-5.35 96:9.07 97:-7.17 98:-12.07 99:-3.11 100:4.51 101:-14.07 102:3.62 103:3.13 104:21.83 105:4.59 106:-17.26 107:-44.48 108:-24.48 109:0.05 110:3.78 111:-4.44 112:-29.05 113:4.08 114:1.49 115:-10.41 116:-21.46 117:16.78 118:-11.06 119:1.86 120:-14.44 121:-2.2 122:9.25 123:-5.68 124:6.22 125:-6.68 126:5.65 127:-10.2 128:-3.02 129:-17.31 130:23.3 131:-2.72 132:-5.56 133:-43.2 134:-45.03 135:-10.82 136:26.76 137:-11.14 138:-11.92 139:12.52 140:-19.83 141:8.87 142:-3.2 143:21.48 144:-28.33 145:7.64 146:-12.29 147:-25.4 148:-6.47 149:34.23 150:-15.89 151:-9.46 152:29.29 153:-22.01 154:-13.41 155:8.52 156:19.25 157:3.01 158:3.9 159:-16.36 160:-26.16 161:2.32 162:-0.67 163:-11.29 164:-26.34 165:-7.1 166:-6.37 167:20.93 168:8.73 169:19.64 170:1.95 171:-5.93 172:-15.02 173:-19.97 174:3.02 175:-15.77 176:-14.48 177:-27.12 178:17.06 179:7.99 180:12.99 181:-12 182:18.52 183:-3.32 184:2.16 185:-12.15 186:-9.97 187:-4.77 188:-27.9 189:-20.19 190:-6.77 191:17.65 192:3.87 193:6.94 194:-3.85 195:23.92 196:-13.16 197:9.17 198:-26.32 199:-36.95 200:-0.52 201:-5.54 202:-21.1 203:8.18 204:2.08 205:-4.75 206:18.19 207:-15.47 
1.006071691993868e-07 0:18.36 1:14.29 2:-6.03 3:-23.58 4:-7.24 5:-15.99 6:18.55 7:1.67 8:-17.34 9:-22.51 10:8.89 11:4.66 12:-4.08 13:21.44 14:8.34 15:-29.15 16:-4.65 17:1.58 18:-19.9 19:-1.94 20:-17 21:1.61 22:17.22 23:2.04 24:8.07 25:-15.24 26:20.29 27:-2.73 28:-3.24 29:-6.78 30:13.34 31:-27.31 32:-14.17 33:-19.23 34:-1.68 35:2.72 36:7.64 37:-4.87 38:12.61 39:21.59 40:15.79 41:-12.62 42:-8.91 43:2.69 44:-33.13 45:-1.56 46:-25.28 47:-4.57 48:-10.66 49:-14.51 50:13.76 51:11.67 52:19.94 53:-8.24 54:10.43 55:10.98 56:15.76 57:-37.7 58:-5.11 59:-11.28 60:-2.4 61:-19.02 62:-7.07 63:4.78 64:3.74 65:23.72 66:-37.64 67:16.55 68:1.77 69:-0.82 70:-19.82 71:9.06 72:-6.27 73:16.07 74:-12.35 75:-15.23 76:5.71 77:11.16 78:18.11 79:3.51 80:14.16 81:-1.92 82:5.59 83:-5.43 84:10.3 85:-0.89 86:-7.48 87:-23.68 88:-4.43 89:1.41 90:4.06 91:20.2 92:6.93 93:-10.17 94:-11.32 95:12.51 96:-16.54 97:-1.46 98:-3.73 99:-6.14 100:7.6 101:-1.73 102:5.67 103:-12.29 104:20.03 105:5.03 106:-7.93 107:-31.72 108:8.94 109:-16.14 110:6.51 111:0.53 112:-20.75 113:19.07 114:8.9 115:5.87 116:6.95 117:22.55 118:9.34 119:-16.71 120:-26.63 121:-7.72 122:-6.31 123:-6.25 124:-5.49 125:-10.01 126:4.95 127:9.9 128:6.22 129:-21.58 130:22.8 131:-28.07 132:7.83 133:-8.79 134:-10.4 135:-29.26 136:24.21 137:-18.05 138:-15.08 139:13.29 140:8.03 141:-2.83 142:-0.13 143:18.72 144:3.74 145:3.86 146:-8.02 147:5.59 148:-22.33 149:0.47 150:-25.64 151:-24.69 152:-3.6 153:8.69 154:11.22 155:2.92 156:18.36 157:11.28 158:6.81 159:-12.55 160:3.08 161:-11.77 162:-10.57 163:-29.83 164:-18 165:9.36 166:0.09 167:9.53 168:7.24 169:18.47 170:-3.68 171:-6.11 172:2.52 173:14.66 174:-29.08 175:4.55 176:-2.66 177:-10.25 178:9.12 179:-0.67 180:-3.71 181:10.19 182:24.44 183:-5.8 184:-0.7 185:-22.55 186:1.07 187:-19.28 188:2.68 189:-24.38 190:-3.84 191:1.13 192:6.19 193:3.62 194:-3.85 
1.525590651832931e-08 0:19.67 1:6.69 2:-3.22 3:-6.51 4:-4.18 5:-14.41 6:-5.34 7:-12.08 8:-18.03 9:-18.34 10:-10.08 11:2.23 12:-13.29 13:22.29 14:1.88 15:-22.56 16:-1.07 17:-12.64 18:-29.32 19:-6.45 20:-16.92 21:1.55 22:0.89 23:-12.39 24:-13.25 25:-14.76 26:19.65 27:-4.66 28:2.17 29:-9.51 30:0.49 31:-22.23 32:-13.61 33:-9.3 34:-12.89 35:-14.21 36:-10.44 37:6.11 38:-12.33 39:22.22 40:6.4 41:-20.05 42:-9.64 43:-19.39 44:-29.8 45:-17.65 46:-29.86 47:-13.9 48:-2.04 49:-0.37 50:6.05 51:-16.6 52:24.95 53:-43.92 54:25.3 55:-12.21 56:-8.89 57:-10.17 58:-19.87 59:-5.71 60:-34.92 61:11.66 62:-3.3 63:-18.54 64:-1.1 65:19.93 66:-14.62 67:12.48 68:25.8 69:6.43 70:-32.89 71:-22.61 72:-10.28 73:-27.74 74:2.38 75:-12.63 76:-11.84 77:13.85 78:21.88 79:-20.66 80:26.51 81:-3.79 82:0.68 83:-10.44 84:-30.61 85:2.7 86:-29.15 87:-1.79 88:-6.53 89:-13.59 90:0.98 91:19.37 92:-1.21 93:20.8 94:9.88 95:3.31 96:-8.68 97:-20.38 98:-11.49 99:-16.53 100:-17.9 101:-10.27 102:-12.59 103:-10.83 104:19.96 105:-0.37 106:1.81 107:10.86 108:-2.72 109:-28.97 110:-15.84 111:-9.49 112:-12.51 113:-12.68 114:-14.29 115:-11.16 116:-9.79 117:16.98 118:-13.15 119:8.84 120:0.95 121:-0.98 122:-12.2 123:-14.43 124:-16.36 125:-17.17 126:-13.26 127:-13.13 128:-7.65 129:-16.33 130:21.95 131:-1.27 132:-19.73 133:-7.67 134:-20.86 135:-23.89 136:-9.96 137:-17.09 138:-11.96 139:12.08 140:-0.53 141:-2.23 142:-18.73 143:22.07 144:-26.1 145:10.34 146:-18.98 147:-2.91 148:-3.62 149:-16.88 150:1.01 151:-9.53 152:2.03 153:7.94 154:-6.57 155:-11.86 156:19.61 157:1.38 158:-2.63 159:-13.55 160:-16.96 161:-27.39 162:-4.6 163:-12.71 164:-23.63 165:-4.26 166:-9.74 167:5.43 168:17.07 169:21.18 170:4.31 171:-16.98 172:-11.82 173:-12.58 174:-32.42 175:-9 176:-17.8 177:-26 178:10.71 179:5.34 180:-0.71 181:1.5 182:19.04 183:-2.26 184:-2.96 185:2.47 186:-4.24 187:-29.19 188:-14.7 189:-21.72 190:-17.82 191:4.19 192:10.61 193:-1.94 194:-17.24 195:25.22 196:-14.9 197:6.17 198:-20.03 199:-6.48 200:-20.6 201:-25.34 202:-3.42 203:-24.55 204:9.52 205:-4.87 206:-9.63 207:-9.39 
5.873124118317761e-08 0:19.01 1:3.69 2:10.89 3:5.31 4:11.8 5:-8.77 6:-11.96 7:-15.04 8:-21.94 9:-24.13 10:-8.91 11:3.66 12:-5.3 13:21.56 14:4.7 15:-17.2 16:-17.94 17:-3.33 18:-26.67 19:-13.88 20:-15.11 21:-6.93 22:-6.42 23:-6.52 24:-16.26 25:-12.49 26:18.81 27:-1.54 28:5.99 29:-16.12 30:-3.7 31:-8.75 32:-18.24 33:-6.66 34:-7.05 35:-15.76 36:-16.53 37:1.91 38:0.81 39:21.59 40:9.3 41:-11.46 42:-22.31 43:-13.1 44:-21.21 45:-12.08 46:-12.48 47:-23.75 48:-3.05 49:4.23 50:6.73 51:-1.05 52:24.34 53:-37.46 54:26.84 55:-16.24 56:6.9 57:0.23 58:-18.33 59:21.7 60:-29.33 61:13.13 62:-17.13 63:-16.68 64:8.17 65:21.5 66:-15.03 67:14.58 68:20.4 69:6.71 70:-40.33 71:-23.68 72:-4.95 73:-37.81 75:-33.22 76:-0.16 77:11.88 78:22.11 79:-20.05 80:28.6 81:-5.39 82:10.11 83:-0.34 84:-38.41 85:12.1 86:-32.47 87:5.22 88:-5.66 89:-7.78 90:11.07 91:19.19 92:-4.41 93:17.8 94:-0.08 95:5.89 96:-16.91 97:-21.03 98:-4.65 99:-31.23 100:-8.56 101:-16.86 102:-7.71 103:-14.14 104:21.12 105:8.67 106:-17.24 107:-15.28 108:-2.25 109:-19.5 110:-12.15 111:-12.44 112:-14.14 113:2.34 114:-9.77 115:-16.95 116:-10.13 117:17.96 118:-12.13 119:9.37 120:-4.14 121:5.86 122:4.34 123:-6.15 124:-7.24 125:-7.54 126:-0.93 127:-5.98 128:-6.07 129:-7.89 130:21.59 131:7.25 132:-13.07 133:-19.06 134:-8.23 135:-18.46 136:-17.53 137:-4.76 138:-2.12 139:7.88 140:16.02 141:-3.92 142:-20.77 143:22.15 144:-18.52 145:31.51 146:-3.19 147:2.44 148:16.46 149:-28.89 150:7.98 151:-10.26 152:-4.25 153:-0.05 154:-17.74 155:-3.03 156:19.55 157:5.88 158:9.14 159:-14.55 160:-6.06 161:-3.48 162:-15.23 163:-14.04 164:-13.9 165:-10.42 166:-5.37 167:7.57 168:0.3 169:19.55 170:3.7 171:-1.4 172:-20.53 173:-11.29 174:-11.06 175:-17.28 176:-14.24 177:-6.58 178:5.68 179:2.77 180:3.32 181:-8.76 182:18.37 183:-11.09 184:10.3 185:-2.19 186:0.9 187:-9.16 188:-2.1 189:-12.26 190:-4.21 191:3.33 192:-3.84 193:-10.87 194:-2.38 195:24.76 196:-9.05 197:8.43 198:-24.02 199:-2.03 200:-10.29 201:-25.42 202:8.07 203:-28.92 204:15.46 205:-5.73 206:-7.7 207:-3.46 
8.232867861237297e-09 0:15.23 1:4.51 2:5.72 3:-15.54 4:9.74 5:-24.33 6:0.13 7:-1.03 8:-25.95 9:-17.02 10:-2.69 11:-5.97 12:-4.58 13:17.65 14:-3.01 15:6.49 16:-25.41 17:14.47 18:-8.9 19:-24.03 20:12.67 21:-16.78 22:5.15 23:-3.47 24:-4.9 25:-0.43 26:17.93 27:-5.05 28:22.51 29:-37.64 30:-2.38 31:-28.82 32:-5.48 33:5.14 34:-14.13 35:-12.57 36:1.49 37:10.58 38:-1.23 39:19.35 40:0.22 41:8.77 42:-42.13 43:-22.86 44:-21.58 45:-11.99 46:17.47 47:-36.67 48:-16.21 49:-4.63 50:4.01 51:-11.17 52:19.15 53:-36.15 54:11.22 55:-7.52 56:2.75 57:-21.21 58:-23.81 59:20.73 60:7.78 61:-20.67 62:-2.82 63:8.78 64:-2.23 65:18.34 66:-16.29 67:19.17 68:1.2 69:11.31 70:-39.6 71:-23.41 72:12.38 73:-15.89 74:-17.49 75:-4.89 76:9.84 77:-2.26 78:18.91 79:-37.59 80:28.1 81:-12.34 82:8.72 83:4.79 84:-14.53 85:6.55 86:-2.36 87:-8.18 88:-4.09 89:11.95 90:4.04 91:14.28 92:-0.96 93:7.19 94:-22.35 95:1.97 96:-3.46 97:-2.7 98:2.34 99:-9.64 100:-4.23 101:8.57 102:-2.45 103:-6.68 104:18.07 105:-5.75 106:2.25 107:-22.07 108:12.76 109:-17.6 110:-20.53 111:13.96 112:-14.5 113:5.79 114:-10.07 115:-12.84 116:6.32 117:15.32 118:-11.5 119:-2.19 120:-29.71 121:6.87 122:-9.8 123:3.04 124:20.96 125:-4.87 126:4.46 127:6.1 128:15.27 129:-6.59 130:19.96 131:-3.37 132:-1.64 133:-42.72 134:0.2 135:11.64 136:-22.62 137:33.64 138:-33.16 139:-8.15 140:-6.85 141:18.16 142:-28.73 143:19.39 144:-36.69 145:26.71 146:-9.17 147:-3.73 148:1.76 149:-4.68 150:5.03 151:4.14 152:-1.07 153:2.98 154:-1.43 155:-3.66 156:15.56 157:6.93 158:19.4 159:-26.64 160:-10.83 161:-22.36 162:0.5 163:-2.1 164:-20.75 165:-17.04 166:5.1 167:20.62 168:8.88 169:17.57 170:1.37 171:20.47 172:-36.34 173:-10.19 174:-9.32 175:-5.62 176:-3.91 177:-29.73 178:8.58 179:5.66 180:9.43 181:-6.97 182:17.22 183:-12.4 184:6.02 185:-26.79 186:-11.21 187:-16.92 188:-19.81 189:1.3 190:-16.29 191:15.25 192:5.21 193:-0.87 194:-10.7 195:20.53 196:-1.75 197:14.36 198:-15.86 199:0.69 200:-5.89 201:2.93 202:15.99 203:-4.59 204:-3.16 205:1.13 206:8.54 207:3.86 
2.814009741166444e-08 0:20.2 1:2.66 2:7.03 3:3 4:-1.19 5:-5.5 6:-7.12 7:-20.63 8:-13.09 9:-8.16 10:-16.32 11:-4.97 12:-14.9 13:22.22 14:1.72 15:-15.36 16:7.87 17:-12.4 18:-36.71 19:-24.68 20:-24.17 21:2.65 22:-1.75 23:-12.96 24:-6.07 25:-7.07 26:20.57 27:0.01 28:0.76 29:-1.29 30:-1.27 31:-9.28 32:-16.87 33:-15.11 34:0.29 35:-7.39 36:-6.03 37:13.66 38:2.56 39:22.28 40:1.36 41:-9.84 42:-7.87 43:-13.24 44:-19.8 45:-25.34 46:-32.03 47:-11.34 48:-10.19 49:-0.66 50:5.59 51:-17.52 52:24.77 53:-44.37 54:22.45 55:2.87 56:-11.18 57:-6.28 58:-8.39 59:0.62 60:-22.36 61:1.76 62:-16.67 63:-17.84 64:-2.52 65:20.1 66:-5.79 67:12.49 68:23.43 69:-2.52 70:-32.4 71:-28.67 72:-15.35 73:-9.35 74:-1.13 75:-22.47 76:-3.58 77:-1.55 78:20.55 79:-14.73 80:21.54 81:-2.85 82:4.99 83:0.52 84:-13.5 85:-2.89 86:-15.94 87:-7.44 88:-6.24 89:-7.63 90:-6.01 91:19.66 92:-0.43 93:21.1 94:9.54 95:3.56 96:-9.4 97:-12.47 98:-8.45 99:-12.22 100:-13.97 101:-10.3 102:-5.02 103:-13.77 104:20.82 105:2.46 106:-1.49 107:2.99 108:1.24 109:-19.58 110:-21.23 111:-6.8 112:1.5 113:-6.23 114:-11.07 115:-4.38 116:-7.5 117:17.95 118:-17.14 119:3.27 120:3 121:7.13 122:2.15 123:-2.02 124:1.49 125:-5.35 126:-3.86 127:-4.03 128:-1.8 129:-13.87 130:20.67 131:4.83 132:-5.2 133:-6.87 134:-10.4 135:-19.48 136:-24.65 137:-16.2 138:-5.74 139:-1.03 140:3.34 141:0.56 142:-15.53 143:21.5 144:-24.34 145:7.98 146:11.27 147:-11.87 148:9.79 149:-15.91 150:-6.12 151:12.08 152:-12.61 153:5.81 154:-11.92 155:-13.85 156:19.89 157:4.51 158:2.39 159:-16.71 160:-17.75 161:-13.13 162:-8.78 163:-11.86 164:-14.88 165:-14.73 166:-17.09 167:7.17 168:12.94 169:20.14 170:2.08 171:-4.4 172:-21.53 173:-7.01 174:-9.86 175:-20.07 176:-24.71 177:-10.1 178:6.87 179:-2.74 180:-7.32 181:-6.57 182:19.28 183:-3.03 184:-4.41 185:-0.66 186:-3.97 187:-19.7 188:-23.56 189:-16.92 190:-8.35 191:1.14 192:4.04 193:-11.35 194:-15.56 195:24.96 196:-14.95 197:10.14 198:-9.26 199:-5.44 200:-15.38 201:-30.65 202:-11.5 203:-19.51 204:5.14 205:-4.74 206:-0.57 207:-6.3 
4.640074290904254e-08 0:19.63 1:-17.09 2:4.55 3:-9.89 4:-26.67 5:-7.94 6:-9.32 7:26.46 8:-7.47 9:-10.07 10:-17.78 11:-6.75 12:-9.82 13:21.64 14:-4.76 15:-1.15 16:-20.17 17:-26.27 18:-0.83 19:-21.75 20:12.55 21:-8.28 22:6.12 23:8.4 24:-2.6 25:-13.07 26:21.03 27:-13.8 28:8.28 29:-3.42 30:-11.24 31:-11.14 32:-27.18 33:-2.93 34:-9.68 35:2.25 36:-6.79 37:-1.07 38:1.53 39:22.89 40:-4.55 41:-0.26 42:-16.39 43:-35.23 44:-16.37 45:-35.56 46:5.23 47:-21.55 48:-14.47 49:13.09 50:3.58 51:-18.15 52:25.33 53:-43.26 54:26.36 55:3.72 56:-31.13 57:0.09 58:-30.2 59:-11.54 60:0.29 61:-1.99 62:-5.71 63:9.51 64:-21.14 65:20.73 66:-16.18 67:12.07 68:4.35 69:-18.71 70:-16.57 71:-51.09 72:-19.42 73:-13.87 74:2.29 75:-11.2 76:2.47 77:-9.47 78:21.7 79:-22.91 80:13.54 81:6.48 82:-15.38 83:-10.72 84:-35.74 85:-11.8 86:-16.15 87:3.01 88:-6.47 89:1.16 90:-1.15 91:20.26 92:-12.87 93:8.07 94:-12.24 95:-31.59 96:-6.97 97:-12.76 98:14.74 99:-11.67 100:-8.67 101:-14.95 102:3.04 103:-6.67 104:21.43 105:-4.63 106:-1.69 107:-31.37 108:-31.85 109:5.61 110:-11.12 111:7.38 112:-15.66 113:5.14 114:4.08 115:-4.36 116:-19.18 117:20.22 118:-25.8 119:2.03 120:-2.02 121:-12.73 122:-6.08 123:-21.03 124:6.9 125:-7.19 126:8.83 127:-2.5 128:0.64 129:-3.89 130:22.63 131:-5.28 132:0.98 133:-32.01 134:-39.03 135:-1.15 136:-6.7 137:20.22 138:-21.49 139:-6.23 140:-4.36 141:-1.46 142:-6.44 143:24.02 144:-33.82 145:9.26 146:-5.85 147:-33.23 148:-2.76 149:-8.58 150:-10.94 151:-3.3 152:21.2 153:-6.07 154:1.48 155:-4.79 156:21.1 157:-6.97 158:12.29 159:-9.41 160:-29.06 161:-14.71 162:-23.25 163:-5.2 164:-22.63 165:-4.97 166:-6.33 167:14.96 168:3.87 169:20.49 170:-8.44 171:7.44 172:-11.31 173:-23.64 174:-12.63 175:-39.48 176:-5.08 177:-14.54 178:17.06 179:16.09 180:14.26 181:-11.96 182:21.64 183:-18.76 184:6.62 185:-1.17 186:-13.1 187:-14.27 188:-37.48 189:-4.1 190:-7.72 191:13.66 192:4.27 193:0.52 194:-4.22 195:23.43 196:-17.04 197:2.6 198:-12.16 199:-23.24 200:-7.02 201:-20.03 202:6.01 203:-6.83 204:6.78 205:-2.83 206:-0.78 207:-8.1 
1.796157890994566e-08 0:19.01 1:6.23 2:1.96 3:-25.78 4:-9.54 5:-7.83 6:5.07 7:-7.23 8:-19.37 9:-11.41 10:-7.37 11:-1.47 12:-2.72 13:21.93 14:3.56 15:-16.96 16:-0.93 17:4.75 18:-31.56 19:-13.11 20:-20.48 21:5.8 22:22.64 23:-15.38 24:9.88 25:-20.96 26:21.11 27:-6.75 28:-6.43 29:-7.19 30:25.84 31:-20.27 32:-19.99 33:-15.34 34:-2.37 35:4.53 36:-16.76 37:-0.71 38:7.93 39:21.84 40:11.68 41:-9.01 42:-15.81 43:10.37 44:-20.29 45:-13.41 46:-25.59 47:-18.84 48:-1.9 49:-15.23 50:26.13 51:-7.46 52:21.83 53:-27 54:-0.22 55:8.69 56:12.25 57:-28.32 58:-13.15 59:-7.47 60:4.72 61:-7.42 62:-11.99 63:15.5 64:-5.49 65:20.65 66:-7.75 67:6.13 68:17.03 69:21.58 70:-30.64 71:-23.61 72:-16.97 73:-10.4 74:-17.4 75:-18.7 76:18.7 77:-14.92 78:21.29 79:-26.7 80:0.07 81:19.47 82:9.03 83:0.33 84:7.53 85:-31.22 86:-3.56 87:21.13 88:-13.26 89:4.6 90:-10.75 91:19.78 92:9.42 93:6.18 94:-20.44 95:-3.2 96:-7.88 97:-0.52 98:-7.08 99:-21.8 100:-11.08 101:7.91 102:9.53 103:-9.4 104:21.14 105:4.33 106:-13.91 107:-6.65 108:14.39 109:-17.57 110:-15.83 111:-12.16 112:-2.59 113:17.33 114:-4.87 115:-3.2 116:-15.93 117:20.03 118:-16.29 119:-21.36 120:-26.88 121:13.14 122:2.78 123:10.33 124:6.3 125:-22.45 126:1.33 127:2.96 128:-3.29 129:-12.25 130:22.19 131:5.14 132:-19.52 133:-19.11 134:5.73 135:-13.84 136:5.8 137:3.18 138:-15.04 139:12.96 140:0.38 141:0.57 142:-35.31 143:21.83 144:-36.03 145:-8.59 146:-0.36 147:-1.91 148:-1.17 149:18.38 150:-26.22 151:-14.27 152:21.06 153:7.31 154:-2.25 155:-7.57 156:16.73 157:-1.69 158:6.54 159:-11.64 160:16.87 161:0.67 162:-7.3 163:-12.34 164:-9.54 165:0.51 166:-9.06 167:-2.89 168:-6.26 169:17.61 170:-4.71 171:2.01 172:-7.67 173:22.98 174:-5.63 175:-26.22 176:-27.97 177:-5.84 178:11.24 179:-6.63 180:10.66 181:1.71 182:20.36 183:-20.2 184:-13.49 185:1.28 186:19.02 187:-16.98 188:-5.94 189:-3.59 190:-10.66 191:1.75 192:-1.9 193:-9 194:2.96 195:23.89 196:-3.63 197:-7.82 198:-9.56 199:1.45 200:-18.22 201:-5.02 202:-21.97 203:-6.72 204:6.18 205:-6.76 206:6.52 207:-12.77 
5.080460723565697e-09 0:18.69 1:-1 2:15.72 3:-2.69 4:2.19 5:-22.24 6:-17.42 7:-8.95 8:-11.2 9:-15.84 10:-6.66 11:-1.76 12:-7.84 13:22.46 14:-1.8 15:-10.85 16:-18.11 17:-0.51 18:-35.62 19:-19 20:-10.4 21:-2.8 22:-5.24 23:-12.1 24:-3.91 25:-2.44 26:20.7 27:-4.59 28:5.48 29:-21.43 30:-4.28 31:-18.3 32:-17.92 33:-1.71 34:-15.71 35:-10.02 36:-0.84 37:21.01 38:-5.6 39:21.43 40:5.43 41:-4.96 42:-25.57 43:-11.91 44:-14.31 45:-18.96 46:-7.07 47:-14.35 48:-13.58 49:-0.26 50:24.59 51:-12.54 52:24.27 53:-35.58 54:32.41 55:-7.79 56:-4.15 57:-3.1 58:-33.74 59:8.62 60:-18.79 61:-0.79 62:-11.36 63:-1.17 64:1.28 65:19.88 66:-9.32 67:6.77 68:11.62 69:5.42 70:-33.47 71:-34.08 72:-13.81 73:-17.83 74:-11.19 75:-32.08 76:-3.82 77:2.5 78:19.64 79:-11.06 80:20.06 81:-1.12 82:0.81 83:-10.41 84:-46.42 85:1.16 86:-13.88 87:3.63 88:-15.38 89:-5.52 90:1.13 91:18.76 92:-1.05 93:14.58 94:0.63 95:1.09 96:-19.5 97:-18.54 98:-8.03 99:-6.34 100:-16 101:-12.25 102:-2.34 103:-15.49 104:20.78 105:1.35 106:-16.7 107:-9.38 108:-11.06 109:-21.32 110:-11.54 111:-21.59 112:19.22 113:-12.92 114:-13.64 115:0.02 116:-10.31 117:16.98 118:-8.44 119:1.96 120:-4.77 121:-5.19 122:-8.03 123:-18.21 124:-5.25 125:-2.28 126:-9.46 127:-14.24 128:-7.33 129:-5.45 130:20.83 131:2.49 132:-7.9 133:-19.13 134:-21.33 135:-10.99 136:-15.45 137:-13.04 138:7.74 139:-5.53 140:-4.06 141:10.44 142:-18.91 143:21.71 144:-25.62 145:17.41 146:-9.93 147:-5.84 148:4.08 149:-40.32 150:8.52 151:-9.03 152:-9.49 153:-4.04 154:-4.23 155:-11.1 156:19.32 157:1.98 158:0.65 159:-16.85 160:-15.15 161:-20.37 162:-14.47 163:-9.68 164:-10.39 165:-25.32 166:-17.53 167:11.15 168:4.96 169:20.38 170:5.85 171:-9.06 172:-16.53 173:-13.27 174:-20.74 175:-13.49 176:-22.47 177:-1.26 178:-14.13 179:-10.71 180:12.85 181:0.12 182:18.36 183:-6.43 184:7.42 185:1.76 186:-10.49 187:-13.95 188:-19.49 189:-17.05 190:-5.99 191:-14.01 192:-11.03 193:1.59 194:-14.27 195:24.63 196:-11.2 197:5.44 198:-23.8 199:-6.47 200:-13.35 201:-33.73 202:5.36 203:-17.99 204:-0.79 205:-10.92 206:1.5 207:-0.96 
4.41677311615652e-09 0:20.19 1:4.75 2:-5.08 3:-3.47 4:-5.15 5:-17.25 6:16.88 7:-4.17 8:-0.71 9:9.25 10:-19.14 11:-14.4 12:4.09 13:23.17 14:8.5 15:-30.19 16:-8.59 17:-10.61 18:-23.13 19:46.51 20:-38.68 21:-0.43 22:16.06 23:-3.9 24:1.66 25:-11.93 26:18.49 27:6.39 28:-5.5 29:-4.59 30:-0.69 31:-13.77 32:20.57 33:-22.51 34:-18.36 35:5.07 36:9.2 37:8.7 38:-10.95 39:23.18 40:0.43 41:-16.97 42:-3.73 43:-4.95 44:-43.78 45:6.59 46:-45.82 47:-4.65 48:2.23 49:-6.88 50:18 51:0.15 52:23.48 53:-32.32 54:18.13 55:-9.25 56:7.67 57:-5.26 58:-40.52 59:-16.09 60:4.22 61:0.5 62:1.24 63:-12.81 64:14.79 65:22.24 66:-10.18 67:-9.71 68:19.77 69:21.16 70:-40.06 71:-31.46 72:-26.77 73:-0.12 74:-6.92 75:-4.19 76:2.43 77:3.59 78:20.31 79:-17.4 80:13.7 81:5.34 82:4.16 83:-6.76 84:-15.38 85:-20.26 86:6.17 87:-2.34 88:-6.54 89:-2.08 90:8.8 91:20.09 92:8.16 93:-10.18 94:3.89 95:-10.82 96:-22.49 97:25.94 98:-23.44 99:-9.09 100:10.49 101:-13.01 102:-0.14 103:5.84 104:21.59 105:8.79 106:-14.16 107:-4.6 108:-10.28 109:-18.33 110:26.76 111:-34.31 112:-11.03 113:15.99 114:-8.52 115:3.55 116:-1.1 117:16.39 118:-4.1 119:-9.16 120:-14.5 121:-5.45 122:-12.38 123:-6.16 124:-10.58 125:-15.43 126:4.56 127:-3.66 128:5.34 129:-3.35 130:22.66 131:12.43 132:-4.47 133:-6.71 134:-32.71 135:-40.77 136:33.68 137:-32.22 138:-3.37 139:2.11 140:-1.99 141:9.18 142:6.98 143:21.65 144:-25.25 145:9.93 146:-12.14 147:-17.63 148:-9.52 149:-13.06 150:-29.51 151:5.15 152:-5.35 153:1.47 154:6.75 155:2.99 156:19.31 157:3.57 158:-6.47 159:8.05 160:-17.64 161:-24.44 162:3.05 163:-30.79 164:-26.15 165:-7.33 166:2.55 167:21.5 168:-4.49 169:21.22 170:3.02 171:-13.33 172:5.74 173:-0.05 174:-38.35 175:-1.32 176:-46.17 177:-12.49 178:7.9 179:12.19 180:22.12 181:-6.88 182:20.84 183:-4.99 184:-14.41 185:15.42 186:-4.08 187:-34.62 188:-9.63 189:-43.04 190:-4.13 191:8.5 192:-3.76 193:14.83 194:-8.66 195:24.81 196:-7.08 197:-4.9 198:-12.36 199:-11.69 200:-18.76 201:-3.77 202:-18.44 203:-10.12 204:5.36 205:6.86 206:2.23 207:6.29 
8.762528416870437e-09 0:18.11 1:14.5 2:2.23 3:-5.38 4:8.13 5:-14.98 6:-0.48 7:-31.31 8:3.34 9:-4.67 10:-23.22 11:-10.74 12:-20.68 13:22.47 14:13.79 15:-15.96 16:-23.77 17:-18.22 18:6.8 19:25.96 20:-37.63 21:11.41 22:7.6 23:-7.97 24:4.25 25:-14.46 26:19.82 27:0.33 28:-4.88 29:-14.91 30:-0.45 31:1 32:-7.25 33:-13.9 34:-6.06 35:5.04 36:12.23 37:3.22 38:-9.87 39:22.88 40:9.23 41:-21.79 42:-9.12 43:-10.67 44:-25.38 45:-1.4 46:-52.08 47:4.82 48:0.47 49:-15.39 50:22.01 51:-10.41 52:23.53 53:-37.1 54:20.8 55:-9.28 56:-6.2 57:15.53 58:-53.03 59:-27.02 60:26.11 61:-9.08 62:8.73 63:6.48 64:11.18 65:22.2 66:-10.52 67:-8.29 68:27.83 69:10.12 70:-26.94 71:-40.9 72:-47.58 73:16.93 74:-7.7 75:-19.9 76:21.6 77:-5.32 78:21.41 79:-27.3 80:17.6 81:4.1 82:-11.15 83:6.44 84:-31.36 85:-26.15 86:19.47 87:-3.31 88:4.86 89:2.82 90:2.43 91:18.6 92:8.31 93:-3.35 94:-3.13 95:0.75 96:-11.03 97:7.7 98:-21.9 99:-11.29 100:-13.82 101:-10.12 102:-9.29 103:-2.07 104:21.96 105:10.92 106:-17.91 107:-18.72 108:-14.7 109:-3.59 110:26.72 111:-38.43 112:-4.97 113:10.12 114:-12.09 115:2.2 116:-10.86 117:17.26 118:9.3 119:-1.14 120:-8.77 121:-11.09 122:0.12 123:7.73 124:-23.63 125:-19.96 126:8.04 127:8.35 128:6.09 129:-7.65 130:22.5 131:13.81 132:-11.1 133:-6.8 134:-39.46 135:-26.97 136:32.97 137:-39.8 138:-2.46 139:-7.28 140:-3.8 141:15.3 142:13.83 143:21.37 144:-24.22 145:16.44 146:-12.65 147:-24.16 148:3.89 149:-17.49 150:-37.12 151:8.69 152:-4.11 153:7.67 154:7.31 155:-10.68 156:20.23 157:4.67 158:-14.73 159:8.88 160:-9.61 161:-17.42 162:-3.52 163:-53.11 164:-17.25 165:11.56 166:1.66 167:24.62 168:-8.62 169:20.68 170:0.53 171:-19.1 172:10.91 173:-9.29 174:-26.04 175:-12.48 176:-52.31 177:2.52 178:23.42 179:-2.85 180:18.41 181:-10.29 182:18.85 183:-0.4 184:-7.53 185:14.56 186:-2.55 187:-14.69 188:-13.44 189:-51.01 190:-4.92 191:18.51 192:-8.29 193:2.67 194:-6.02 195:24.35 196:-7.5 197:-3.88 198:-17.62 199:-15.64 200:4.08 201:-22.24 202:-23.26 203:5.99 204:-11.08 205:3.03 206:4.46 207:-0.56 
4.793794611348344e-09 0:17.63 1:6.63 2:5.46 3:11.41 4:4.27 5:-4.03 6:6.59 7:-10.38 8:-26.71 9:-14.65 10:2.39 11:-4.79 12:-14.19 13:22.69 14:0.19 15:-32.1 16:-8.28 17:-6.9 18:-3.37 19:-9.87 20:-8.88 21:15.32 22:0.94 23:0.69 24:-35.01 25:-2.32 26:19.34 27:4.09 28:-6.53 29:-6 30:0.55 31:3.28 32:-25.74 33:-14.07 34:4.83 35:1.87 36:-1.6 37:-9.15 38:-7.96 39:22.51 40:1.37 41:-7.61 42:-14.08 43:-35.87 44:-4.93 45:2.04 46:-32.2 47:3.03 48:-9.31 49:25.67 50:-24.88 51:4.75 52:21.3 53:-23.27 54:20.91 55:-18.09 56:1.45 57:-3.46 58:-7.23 59:-19.93 60:4.97 61:-5.93 62:3.89 63:-2.91 64:-6.65 65:19.08 66:-16.85 67:22.1 68:28.13 69:2.97 70:-27.1 71:-3.3 72:-26.14 73:-4.91 74:-18.09 75:-7.77 76:-4.92 77:0.57 78:21.76 79:-34.91 80:22.15 81:-6.24 82:13.15 83:-5.46 84:-0.27 85:-16.59 86:5.28 87:6.25 88:-0.59 89:-0.73 90:-1.4 91:17.34 92:0.95 93:19.41 94:5.81 95:17 96:-0.71 97:1.28 98:-20.14 99:-29.14 100:-6.87 101:7.27 102:3.17 103:-8.95 104:21.09 105:2.53 106:-23.55 107:-5.25 108:-2.57 109:-1.91 110:-16.79 111:-2.16 112:13.56 113:7.4 114:-2.1 115:-26.53 116:-0.42 117:19.04 118:-8.9 119:-20.76 120:-13.63 121:-2.37 122:4.77 123:9.54 124:-14.65 125:1.45 126:-1.27 127:7.29 128:-20.73 129:-13.32 130:21.03 131:1.29 132:-24.38 133:-14.65 134:-9.42 135:-5.55 136:11.83 137:-25.17 138:10.38 139:-5.54 140:17.13 141:-24.82 142:-17.61 143:21.62 144:-25.77 145:20.94 146:-12.11 147:-11.26 148:5.36 149:-6.18 150:-32.3 151:10.51 152:13.27 153:0.45 154:-10.21 155:-13.18 156:18.59 157:4.56 158:15.38 159:-9.13 160:-28.92 161:-11.22 162:8.2 163:-16 164:-7.54 165:-16.4 166:-1.32 167:0.84 168:8.4 169:19.08 170:5.32 171:-3.18 172:-14.95 173:-29.03 174:2.98 175:1.84 176:-2.23 177:-13.87 178:-1.3 179:18.46 180:-0.22 181:-0.75 182:15.98 183:-2.53 184:-7.57 185:-21.96 186:-18.41 187:0.06 188:-5.51 189:-11.94 190:-6.74 191:4.69 192:5.05 193:-5.15 194:-19.53 195:22.91 196:1.8 197:-21.59 198:-9.25 199:-7.69 200:-7.86 201:-13.75 202:-15.74 203:14.17 204:-3.11 205:8 206:-27.59 207:5.85 
6.960087433581965e-08 0:18.55 1:-2.23 2:6.09 3:-12.73 4:-5.26 5:-6.42 6:9.39 7:2.45 8:-3.42 9:-23.37 10:0.24 11:19.5 12:-12.07 13:21.31 14:-8.34 15:-9.4 16:-12.42 17:-7.47 18:-7.48 19:9.38 20:-9.9 21:4.98 22:25.36 23:-0.74 24:9.11 25:-31.41 26:20.66 27:-21.35 28:12.7 29:-7.6 30:10.53 31:-15.62 32:5.63 33:-14.15 34:2.9 35:10 36:2.14 37:5.18 38:3.12 39:22.08 40:-4.34 41:-5.42 42:5.29 43:-2.12 44:-28.37 45:1.38 46:-34.47 47:-17.25 48:1.97 49:-22.38 50:33.06 51:-13.85 52:24.25 53:-34.09 54:24.44 55:-0.53 56:-11.72 57:-13.75 58:4.37 59:-19.7 60:-0.66 61:-13.17 62:-9.4 63:11.75 64:2.33 65:21.06 66:-15.18 67:17.9 68:2.16 69:0.37 70:-19.47 71:-9.69 72:-17.66 73:-2.82 74:-11.23 75:-5.1 76:25.18 77:-20.07 78:23.61 79:-39.57 80:18.27 81:8.77 82:-5.91 83:-13.66 84:14.8 85:-23.76 86:9.55 87:20.86 88:-7.09 89:2.78 90:3.31 91:18.34 92:1.52 93:10 94:-6.53 95:-5.4 96:-18.05 97:5.55 98:-17.08 99:-14.02 100:4.33 101:-1.45 102:6.28 103:-5.03 104:21.14 105:-7.14 106:-9.18 107:-0.29 108:-9.4 109:-22.44 110:2.54 111:-12.74 112:13.77 113:22.62 114:-15.4 115:20.36 116:-34.3 117:18.47 118:-12.67 119:-2.87 120:-8.59 121:8.32 122:-12.31 123:3.65 124:-7.94 125:1.06 126:11.93 127:15.74 128:11.69 129:-4.16 130:22.26 131:-4.79 132:-11.74 133:-17.23 134:-20.75 135:-7.87 136:1.8 137:11.47 138:5.4 139:6.38 140:-0.06 141:34.64 142:-43.06 143:22.64 144:-35.06 145:10.33 146:0.85 147:-12.07 148:-17.23 149:19 150:-8.07 151:-3.12 152:10.62 153:17.09 154:8.56 155:-4.98 156:17.67 157:-2.86 158:14.06 159:-7.07 160:-5.56 161:-10.7 162:-1.1 163:-18.44 164:5.55 165:3.02 166:1.67 167:10.91 168:2.5 169:18.01 170:-3.2 171:6.73 172:-10.51 173:-4.92 174:-0.52 175:-15.3 176:-24.04 177:8.36 178:10.44 179:-0.79 180:13.76 181:5.23 182:19.39 183:-15.93 184:5.16 185:9.07 186:-0.07 187:-14.9 188:4.26 189:-7.64 190:2.44 191:12.54 192:-0.82 193:5.87 194:5.42 195:22.29 196:-10.52 197:2 198:-15.4 199:-3.1 200:-13.18 201:-0.81 202:-14.73 203:-3.81 204:9.95 205:2.35 206:5.68 207:-7.41 
7.106691966259461e-08 0:19.08 1:6.23 2:4.8 3:6.16 4:-2.97 5:-0.12 6:-11.96 7:-9.18 8:-4.21 9:5.81 10:-2.57 11:2.33 12:-6.51 13:21.35 14:8.15 15:-16.28 16:1.06 17:-17.61 18:-11.05 19:-15.34 20:-26.52 21:-5.2 22:18.27 23:-1.85 24:10.11 25:-17.2 26:18.85 27:-3.21 28:5.98 29:8.21 30:1.05 31:-9.77 32:-27.06 33:-14.63 34:-1.01 35:1.66 36:-4.99 37:9.99 38:1.39 39:22.9 40:6.54 41:-21.89 42:17.88 43:-18.49 44:-32.31 45:-19.88 46:-32.47 47:-10.49 48:10.62 49:-10.99 50:38.14 51:-25.59 52:22.94 53:-32.59 54:22.65 55:5.99 56:-11.96 57:0.43 58:-52.03 59:-6.16 60:-9.93 61:-10.55 62:-2.83 63:7.13 64:2.19 65:18.84 66:-1.69 67:5.58 68:31.57 69:-0.01 70:-22.79 71:-49.28 72:-13.15 73:-7.27 74:-2.19 75:-6.86 76:12.75 77:-0.31 78:20.92 79:-18.81 80:16.79 81:10.81 82:-9.29 83:10.56 84:-43.17 85:-6.04 86:-13.04 87:-9.93 88:-3.53 89:-4.46 90:8.44 91:18.91 92:5.53 93:-1.99 94:9.37 95:-13.19 96:-13.5 97:-13.09 98:-17.52 99:-14.88 100:-2.09 101:-19.39 102:-4.69 103:-14.37 104:21.65 105:7.47 106:-21.02 107:-2.28 108:-28.35 109:-13.87 110:-4.4 111:-33.74 112:-15.61 113:19.26 114:-20.64 115:12.36 116:-13.72 117:18.3 118:-12.83 119:-10.9 120:12.61 121:-4.63 122:1.39 123:-21.94 124:-9.83 125:-16.13 126:5.6 127:-9.62 128:-1.58 129:5.57 130:21.18 131:4.43 132:-16.73 133:-9.14 134:-8.55 135:11.64 136:-27.64 137:6.2 138:-32.18 139:21.94 140:-9.85 141:-7.38 142:-20.64 143:22.31 144:-27.81 145:15.46 146:3.47 147:-10.69 148:20.05 149:-42.02 150:-13.42 151:-1.6 152:-8.4 153:-3.55 154:-1.2 155:-16.4 156:18.52 157:10.51 158:16.5 159:-0.95 160:-15.39 161:-5.53 162:-30.45 163:-17.82 164:-3.81 165:2.26 166:-1.42 167:2.65 168:-6.86 169:20.19 170:13.24 171:-2.68 172:-11.16 173:-10.24 174:-9.59 175:-25.08 176:-33.62 177:-4.32 178:14.77 179:15.03 180:16.7 181:-2.94 182:21.18 183:-24.64 184:11.54 185:22.72 186:-16.04 187:0.79 188:-14.64 189:-31.81 190:-4.89 191:10.29 192:-20 193:8.96 194:-5.9 195:24.13 196:-8.18 197:-1.13 198:-1.26 199:-17.96 200:-4.35 201:-31.53 202:-9.91 203:-15.43 204:6.9 205:6.83 206:8.58 207:-11.72 
1.747586663168813e-08 0:18.6 1:2.69 2:9.98 3:-29.46 4:-18.43 5:5.03 6:16.26 7:8.09 8:-11.65 9:-0.63 10:7.37 11:0.64 12:-12.07 13:22.21 14:-3.96 15:-3.06 16:-22.52 17:4.52 18:-16.1 19:-14.46 20:-9.52 21:4.16 22:30.84 23:-21.76 24:6.93 25:-15.63 26:20.95 27:-30.37 28:5.26 29:-33.35 30:21.37 31:10.11 32:4.43 33:6.69 34:-8.12 35:15.18 36:0.21 37:3.5 38:7.22 39:21.8 40:9.22 41:4.89 42:-37.95 43:-0.14 44:-5.12 45:-21.8 46:-16.54 47:-18.03 48:15.92 49:-40.6 50:31.31 51:2.46 52:24.73 53:-47.23 54:26.06 55:1.48 56:11.56 57:-15.31 58:-8.87 59:2.6 60:-6.74 61:3.93 62:-13.97 63:3.84 64:5.93 65:20.44 66:-15.5 67:31.67 68:-0.73 69:13.47 70:-8.88 71:-29.22 72:-10.32 73:-5.63 74:-13.01 75:-25.81 76:0.74 77:-14.27 78:23.82 79:-35.96 80:24.72 81:-2.61 82:4.96 83:-1.17 84:-2.69 85:-12.26 86:-14.46 87:-4.89 88:-24.28 89:-5.55 90:7.98 91:18.94 92:6.64 93:16.65 94:-15.02 95:7.02 96:-10.42 97:-5.71 98:4.33 99:-24.6 100:-33.85 101:-17.1 102:2.46 103:5.77 104:21.61 105:1.07 106:1.19 107:-26 108:6.14 109:-13.33 110:-23.48 111:-7.21 112:-10.84 113:26.71 114:-24.48 115:14.23 116:-17.78 117:19.53 118:-10.67 119:-1.32 120:-29 121:6.66 122:0.21 123:-3.83 124:2.77 125:-12.13 126:6.41 127:-2.75 128:4.3 129:-6.15 130:22.81 131:0.88 132:-2.19 133:-45.34 134:1.39 135:2.04 136:-5.55 137:21.76 138:-18.77 139:28.24 140:-25.7 141:0.44 142:-33.05 143:22.93 144:-36.5 145:19.98 146:-24.71 147:-5.2 148:5.27 149:7.5 150:-2.42 151:-3.51 152:26.76 153:-3.9 154:-2.9 155:0.7 156:17.13 157:8.18 158:23.16 159:-14.06 160:-2.64 161:-7.11 162:-5.44 163:-17.25 164:-12.95 165:-4.03 166:-8.39 167:13.16 168:8.45 169:17.41 170:-2.23 171:14.65 172:-4.21 173:5.3 174:2.1 175:-16.12 176:-14.66 177:-10.66 178:11.99 179:-1.19 180:11.5 181:-3.45 182:17.85 183:-7.81 184:5.85 185:2.48 186:20.02 187:-12.21 188:-12.83 189:-2.94 190:-10.31 191:13.71 192:-13 193:-4.73 194:1.17 195:25.3 196:-11.65 197:11.1 198:-35.02 199:-1.8 200:-7.42 201:-11.92 202:-8.19 203:-4.57 204:11.46 205:-13.16 206:-4.08 207:-8.61 
1.072289137834888e-08 0:16.67 1:9.6 2:7.88 3:-13.05 4:-26.6 5:2.75 6:-3.13 7:20.57 8:-2.19 9:-0.45 10:-6.68 11:2.41 12:0.36 13:17.61 14:10.35 15:-0.12 16:-20.09 17:-16.66 18:5.6 19:-1.67 20:6.63 21:-9.43 22:6.14 23:9.12 24:0.97 25:-19.78 26:17.28 27:3.29 28:12.31 29:-19 30:-17.35 31:-4.64 32:-5.82 33:-1.19 34:-1.36 35:-0.64 36:-2.07 37:0.35 38:-1.94 39:22.3 40:15.52 41:-19.71 42:-25.27 43:-27.94 44:-10.69 45:-24.03 46:6.69 47:-25.36 48:-19.84 49:12.13 50:12.62 51:-19.56 52:23.13 53:-29.63 54:16.87 55:1.82 56:-35.71 57:-12.34 58:-8.21 59:-15.29 60:-12.35 61:0.11 62:-10.93 63:7.46 64:0.34 65:17.72 66:2.89 67:-3.39 68:5.82 69:-5.79 70:-20.89 71:-40.95 72:-0.61 73:-20.47 74:-2.66 75:-4.13 76:0.8 77:-8.79 78:18.84 79:-16.98 80:12.36 81:7.35 82:-13.69 83:-12.02 84:-23.3 85:-11.99 86:-11.93 87:8.14 88:-10.86 89:10.49 90:-2.85 91:18.34 92:-5.11 93:3.31 94:-6.19 95:-14.77 96:5.76 97:0.65 98:-6.57 99:-41.56 100:-9.7 101:-8.43 102:-0.82 103:4.36 104:21.63 105:14.58 106:-28.34 107:-30.84 108:-25.6 109:-6.75 110:-2.72 111:1.57 112:-35.76 113:6.52 114:6.75 115:-3.79 116:-23.61 117:16.74 118:-0.25 119:-5.76 120:-26.77 121:-21.21 122:0.59 123:-14.46 124:5.35 125:-17.33 126:4.89 127:-4.82 128:3.23 129:-20.07 130:22.68 131:-4.33 132:-5.04 133:-42.3 134:-43.76 135:-5.76 136:15.87 137:-3.53 138:-18.08 139:-1.59 140:-7.44 141:14.88 142:-11.14 143:17.72 144:-16.33 145:-0.15 146:-23.31 147:-27.02 148:-9.74 149:12.04 150:5.37 151:-8.34 152:12.6 153:6.62 154:1.63 155:-14.07 156:18.34 157:4.59 158:8.62 159:-14.39 160:-30.02 161:-7.17 162:-5.63 163:-6.35 164:-25.12 165:1.62 166:-0.17 167:13.94 168:3.28 169:18.19 170:3.69 171:5.5 172:-12.93 173:-20.26 174:-14.9 175:-24.48 176:-7.3 177:-24.55 178:15.6 179:14.9 180:10.45 181:-10.25 182:15.76 183:0.13 184:0.37 185:0.68 186:-17.19 187:-15.36 188:-20.38 189:3.45 190:-23.56 191:-1.79 192:13.41 193:-1.17 194:-9.23 195:23.98 196:-8.47 197:-1.44 198:-28.16 199:-37.33 200:-2.06 201:1.26 202:-7.66 203:-16.4 204:-5.05 205:-1.15 206:15.05 207:-9.68 
5.362199491438402e-08 0:15.59 1:7.01 2:10.29 3:-1.58 4:-0.81 5:9.3 6:4.46 7:-2.65 8:-12.58 9:-4.2 10:-3.84 11:0.65 12:-17.83 13:16.28 14:7 15:6.61 16:-9.22 17:-7.4 18:9.41 19:4.74 20:-8.5 21:3.78 22:13.97 23:-6.32 24:-4.79 25:-23.13 26:16.51 27:6.73 28:12.06 29:-12.84 30:-12.71 31:-1.02 32:-2.03 33:-0.75 34:-11.19 35:10.61 36:7.92 37:5.58 38:-1.5 39:18.76 40:11.36 41:-1.31 42:-10.26 43:-25.11 44:-11.51 45:5.35 46:-2.1 47:-15.62 48:3.65 49:-0.06 50:20.08 51:-11.85 52:19.98 53:-29.01 54:32.46 55:-0.54 56:-8.27 57:0.49 58:-35.65 59:4.07 60:-33.56 61:8.5 62:-0.12 63:1.06 64:17.29 65:15.8 66:-10.28 67:18.41 68:27.82 69:-10.97 70:-0.63 71:-28.47 72:0.23 73:-22.23 74:-16.51 75:5.36 76:-2.11 77:10.02 78:21.28 79:-41.68 80:35.31 81:-6.1 82:-4.43 83:21.09 84:-15.78 85:24.38 86:-16.09 87:14.44 88:-5.11 89:1.99 90:13.58 91:14.97 92:1.71 93:16.45 94:-3.25 95:2.98 96:5.97 97:-8.64 98:-0.56 99:-15.65 100:7.5 101:0.74 102:-3.86 103:-13.08 104:15.18 105:3.14 106:5 107:-7.92 108:-6.74 109:0.23 110:-11.2 111:2.84 112:18.5 113:14.84 114:-6.7 115:-21.38 116:-12.26 117:15.02 118:-15.36 119:-9.93 120:-7.89 121:-6.81 122:31.36 123:5.23 124:10.62 125:-15.73 126:35.73 127:-5.4 128:1.21 129:3.29 130:16.57 131:8.99 132:-2.42 133:-12.31 134:-22.1 135:31.06 136:14.02 137:-10.91 138:-1.65 139:12.37 140:-5.09 141:0.79 142:-14.26 143:18.36 144:-31.27 145:14.28 146:19.2 147:-21.65 148:22.05 149:8.64 150:-7.97 151:0.07 152:25.8 153:-10.95 154:-1.43 155:9.5 156:14.15 157:2.58 158:6.03 159:-0.07 160:-9.58 161:-0.66 162:1.38 163:-20.67 164:-10.64 165:7.56 166:7.42 167:4.96 168:-7.28 169:14.36 170:6.1 171:0.28 172:-1.79 173:-12.55 174:0.93 175:-2.63 176:-23.79 177:-8.21 178:20.06 179:15.97 180:-2.8 181:-13.75 182:13.82 183:-1.08 184:-6.18 185:-0.01 186:-10.86 187:7.15 188:-13.15 189:-13.34 190:-0.09 191:21.03 192:19.03 193:-7.92 194:-7.55 195:21.74 196:-9.28 197:13.6 198:-9.71 199:-10.93 200:7.95 201:-11.16 202:15.38 203:-16.37 204:18.25 205:-1.47 206:7.34 207:7.84 
4.671501232400677e-08 0:16.57 1:-0.8 2:8.2 3:0.99 4:-2.97 5:2.32 6:-12 7:-4.86 8:-11.24 9:0.73 10:-1.91 11:4.01 12:-0.25 13:20.51 14:19.34 15:-14.68 16:-27.97 17:-15.3 18:-4.39 19:4.14 20:6.66 21:-20.2 22:1.33 23:8.39 24:3.29 25:-17.12 26:19.3 27:3.46 28:6.96 29:-17.71 30:-12.33 31:-11.77 32:-10.68 33:-13.51 34:-10.99 35:8.23 36:9.82 37:4.61 38:-8.27 39:22.41 40:6.84 41:-7.78 42:-17.19 43:-31.26 44:-4.66 45:-25.49 46:-10.06 47:-15.4 48:-11.02 49:-0.55 50:26.77 51:-11.72 52:24.4 53:-32.5 54:19.5 55:2.66 56:-36.37 57:-10.01 58:-14.07 59:-41.17 60:-11.07 61:-1.07 62:-13.9 63:9.37 64:-0.02 65:18.73 66:-2.18 67:8.71 68:19.74 69:-15.6 70:-14.59 71:-22.26 72:-22.9 73:-9.98 74:2.34 75:-12.95 76:9.12 77:-1.28 78:22.36 79:-29.41 80:18.43 81:20.56 82:-29.18 83:-19.13 84:10.86 85:-31.16 86:-26.19 87:16.07 88:-11.72 89:-9.15 90:7.27 91:17.9 92:-4.53 93:17.29 94:19.65 95:-22.41 96:-10.9 97:2.78 98:-28.93 99:-37.56 100:4.85 101:-14.3 102:-11.12 103:11.12 104:20.21 105:8.35 106:-4.84 107:-17.35 108:-38.04 109:-7.03 110:-1.84 111:-20.52 112:-35.82 113:-3.21 114:-4.17 115:-20.46 116:-19.04 117:17.75 118:-9.23 119:2.34 120:-7.16 121:-29.51 122:-3.07 123:-4.61 124:-13.37 125:-24 126:-3.16 127:-4.82 128:2.47 129:1.87 130:21.88 131:14.23 132:-3.59 133:-28.2 134:-41.64 135:-2.99 136:-1.97 137:19.72 138:-24.96 139:-5.26 140:-14.69 141:16.43 142:-5 143:21.78 144:-26.85 145:9.62 146:-0.3 147:-43.54 148:-3.71 149:18.97 150:-12.88 151:-14.08 152:10.3 153:-3.2 154:-0.26 155:8.92 156:19.63 157:3.37 158:6.88 159:-3.9 160:-32.86 161:-11.23 162:-4.27 163:-24.34 164:-33.85 165:0.02 166:4.88 167:12.34 168:7.42 169:18.41 170:3.81 171:3.31 172:-4.53 173:-19.28 174:-18.87 175:-18.83 176:-20.86 177:-17.65 178:8.51 179:12.58 180:9.54 181:-4.18 182:17.4 183:3.68 184:-1 185:-2.72 186:-15.27 187:-22.5 188:-23.46 189:-22.97 190:-13.36 191:14.65 192:11.96 193:6.25 194:2.79 195:24.79 196:-13.79 197:8.83 198:-14.97 199:-41.82 200:-7.19 201:3.57 202:-22.3 203:-11.71 204:-2.64 205:-7.51 206:11.5 207:-3.1 
1.824950096912348e-08 0:18.31 1:6.39 2:-1.32 3:9.71 4:-14.07 5:-9.1 6:13.13 7:-10 8:-4.4 9:2.37 10:-19.53 11:4.85 12:-3 13:22.58 14:-1.68 15:-33.04 16:-1.69 17:-3.46 18:-24.73 19:11.01 20:-26.53 21:13.13 22:16.33 23:-11.46 24:0.78 25:-13.25 26:18.85 27:-1.07 28:-10.15 29:5.48 30:9.05 31:-17.65 32:-14.45 33:-14.18 34:4.51 35:19.19 36:-11.62 37:-1.96 38:-4.77 39:22.79 40:2.98 41:-24.08 42:0.27 43:-24.63 44:-27.52 45:4.73 46:-24.63 47:-8.11 48:4.57 49:-9.4 50:17.53 51:-10.78 52:24.59 53:-40.53 54:18.84 55:1.94 56:-13.88 57:15.2 58:-45.3 59:-3.55 60:-9.52 61:-9.19 62:-4.19 63:5.08 64:4.16 65:21 66:-13.56 67:-8.24 68:43.12 69:-1.98 70:-21.72 71:-38.97 72:-17.09 73:-0.49 74:-29.04 75:-9.52 76:15.58 77:-1.11 78:21.36 79:-28.1 80:19.22 81:11.83 82:5.76 83:5.64 84:-28.7 85:-4.02 86:-3.95 87:-8.66 88:-13.27 89:7.55 90:0.42 91:19.04 92:-0.13 93:-1.93 94:14.74 95:-4.45 96:6.21 97:3.07 98:-17.24 99:3.18 100:-3.81 101:-24.27 102:1.05 103:-2.47 104:22.81 105:-1.05 106:-32.78 107:-2.16 108:-13.44 109:-18.55 110:15.52 111:-31.04 112:9.84 113:19.01 114:-25.1 115:6.91 116:-17.36 117:19.25 118:-17.97 119:-21.57 120:-7.07 121:-0.45 122:10.61 123:-8.07 124:8.8 125:-5.27 126:13.57 127:-20.94 128:-5.57 129:6.89 130:22.4 131:1.5 132:-33.94 133:-12.36 134:-13.56 135:1.57 136:12.01 137:-4.63 138:-11.48 139:16.7 140:-28.58 141:11.48 142:-26.06 143:22.5 144:-30.85 145:6.85 146:-12.73 147:-14.61 148:16.95 149:-11.58 150:-2.84 151:-0.29 152:-6.39 153:-2.68 154:3.86 155:-16.59 156:17.69 157:4.11 158:11.4 159:-8.44 160:-17.64 161:-7.42 162:-13.41 163:-10.74 164:1.21 165:-5.93 166:-6.75 167:7.41 168:-2.37 169:20.51 170:7.75 171:-24.81 172:-14.33 173:-16.02 174:-7.38 175:-11.34 176:-26.43 177:7.42 178:2.41 179:-17.61 180:18.57 181:14.51 182:22.02 183:-26.83 184:-6.43 185:12.07 186:-17.56 187:3.68 188:-16.65 189:-46.61 190:7.5 191:19.6 192:-30.24 193:11.13 194:-0.55 195:24.86 196:-17.35 197:-5.55 198:-9.32 199:-21.64 200:0.07 201:-28.67 202:1.8 203:-11.54 204:10.56 205:-0.27 206:-3.21 207:2.88 
7.625910384472053e-08 0:18.78 1:3.27 2:15.27 3:7.12 4:-2.89 5:-7.81 6:-4.4 7:2.23 8:2.61 9:1.02 10:-1.18 11:4.06 12:2.84 13:19.1 14:15.72 15:-3.55 16:3.27 17:-3.24 18:3.98 19:-5.79 20:-6.47 21:26.81 22:7.87 23:-11.64 24:18.97 25:-1.72 26:17.93 27:17.12 28:13.26 29:4.06 30:7.17 31:-4.25 32:-18.27 33:-1.71 34:12.3 35:0.93 36:6.99 37:12.01 38:0.39 39:19.75 40:18.44 41:3.14 42:-0.93 43:-6.35 44:-5.8 45:-10.4 46:0.16 47:17.41 48:-4.16 49:-2.71 50:10.41 51:2.89 52:21.78 53:-25.25 54:31.76 55:8.06 56:2.42 57:13.99 58:-14.42 59:14.26 60:-14.75 61:7.28 62:-4.46 63:3.64 64:2.3 65:18.82 66:0.1 67:20.41 68:22.36 69:-6.93 70:-4.46 71:-14.75 72:-1.33 73:-7.08 74:14.17 75:-2.16 76:9.42 77:13.36 78:23.42 79:-36.4 80:40.66 81:-4.16 82:1.86 83:7.66 84:-20.17 85:14.18 86:1.38 87:14.7 88:3.37 89:8.41 90:-4.9 91:18.26 92:10.49 93:9.46 94:14.29 95:4.89 96:-3.95 97:-12.79 98:-4.68 99:10.47 100:2.09 101:-3.11 102:18.26 103:-9.7 104:19.01 105:7.88 106:-1.5 107:6.4 108:-2.18 109:7.4 110:0.04 111:2.38 112:18.86 113:-0.18 114:0.08 115:15.29 116:-11.63 117:16.82 118:-4.21 119:-4.46 120:-3.25 121:-2.75 122:11.01 123:5.1 124:7.17 125:2.25 126:2 127:8 128:0.87 129:-9.9 130:19.74 131:11.54 132:-5.95 133:-1.35 134:-16.71 135:-0.22 136:12.59 137:9.08 138:2.58 139:1.89 140:-0.47 141:16.84 142:-11.43 143:22.22 144:-30.85 145:32.22 146:4.11 147:-12.16 148:29.53 149:-30.92 150:9.54 151:9.88 152:3.53 153:0.01 154:4.11 155:3.27 156:16.51 157:7.91 158:14.91 159:1.68 160:-4.34 161:-5.87 162:-21.51 163:-15.59 164:-6.88 165:0.94 166:1.46 167:5.31 168:-2.52 169:17.11 170:9.43 171:10.45 172:-7.65 173:-9.36 174:-11.04 175:-21.46 176:-16.72 177:-1.81 178:8.21 179:12.45 180:7.74 181:-8.44 182:17.02 183:-7.5 184:4.28 185:0.77 186:5.4 187:-8.26 188:-15.55 189:3.48 190:1.59 191:1.58 192:1.19 193:3.64 194:9.21 195:20.28 196:5.71 197:2.3 198:-4.64 199:-1.41 200:-3.82 201:-1.18 202:-0.02 203:3.75 204:6.17 205:6.1 206:9.36 207:2.59 
2.21645449976833e-08 0:17.43 1:0.26 2:-6.1 3:-7.17 4:-8.96 5:7.26 6:8.49 7:12.82 8:9.53 9:-3.32 10:-25.59 11:3.03 12:-17.99 13:19.17 14:-1.07 15:-7.95 16:-3.79 17:-12.71 18:-4.57 19:-0.46 20:3.74 21:-2.45 22:21.03 23:-14.46 24:7.05 25:-32.96 26:17.84 27:-5.36 28:6.09 29:-10.15 30:-8.38 31:-13.23 32:-4.55 33:0.21 34:-7.02 35:3.65 36:-1.84 37:9.46 38:-3.42 39:19.49 40:4.63 41:3.09 42:-8.49 43:-26.04 44:-19.69 45:-6.63 46:5.95 47:-8.94 48:3.4 49:-8.9 50:17.97 51:-20.34 52:21.2 53:-26.69 54:28.21 55:-18.86 56:-3.81 57:-14.16 58:-18.81 59:5.39 60:-21.82 61:13.35 62:-3.72 63:4.16 64:-2.84 65:17.38 66:-10.65 67:14.25 68:4.73 69:-2.53 70:-18.43 71:-15.19 72:-0.96 73:-24.27 74:-3.06 75:-3.61 76:-2.39 77:-5.87 78:21.17 79:-33.72 80:11.11 81:-18.34 82:1.13 83:-0.33 84:-14.79 85:-13.41 86:-41.34 87:22.63 88:14.02 89:-16.22 90:-17.82 91:18.95 92:-13.44 93:-14.59 94:8.03 95:10.95 96:4.06 97:0.94 98:0.61 99:-20.95 100:19.88 101:2.39 102:-24.11 103:-18 104:19.05 105:-5.7 106:-18.86 107:-3.88 108:-3.07 109:-1.15 110:-5.67 111:1.67 112:-3.14 113:22.1 114:-6.63 115:-20.63 116:-19.22 117:17.18 118:-15.56 119:-21.21 120:1.03 121:6.55 122:8.14 123:-4.89 124:3.96 125:-13.57 126:9.4 127:-8.16 128:-2.1 129:-0.43 130:20.1 131:-1.65 132:-18.64 133:-11.97 134:-18.99 135:1.62 136:7.05 137:14.58 138:-12.64 139:23.39 140:-4.91 141:5.5 142:-26.73 143:21.04 144:-32.76 145:-14.86 146:-3.08 147:-6.11 148:4.91 149:-16.87 150:-0.38 151:-2.71 152:-5 153:0.84 154:11.45 155:-15.25 156:17.67 157:-9.19 158:-18.9 159:9.54 160:-3.11 161:-6.64 162:-26.37 163:-4.63 164:-10.92 165:-10.52 166:1.64 167:6.38 168:-8.53 169:17.55 170:-5.89 171:-13.58 172:4 173:-5.32 174:-11.82 175:-28.78 176:-0.14 177:-9.2 178:3.2 179:11.53 180:6.97 181:2.72 182:17.27 183:-7.46 184:-13.89 185:-1.95 186:-2.24 187:-12.58 188:-32.29 189:3.15 190:0.8 191:11.97 192:13 193:-1.99 194:-15.77 195:22.56 196:-12.07 197:1.66 198:-12.75 199:-4.64 200:-2.32 201:-5.78 202:8.82 203:-2.86 204:16.18 205:2.32 206:3.67 207:-11.27 
2.87941432612295e-08 0:16.97 1:-12.48 2:5.01 3:2.04 4:-0.93 5:3.28 6:-4.52 7:-0.43 8:1.17 9:2.71 10:5.9 11:5.91 12:0.53 13:21.92 14:14.64 15:-10.37 16:-15.56 17:-23.61 18:-19.47 19:33.66 20:-25.6 21:-3.78 22:11.25 23:-7.09 24:9.14 25:-16.26 26:19.8 27:7.13 28:1.53 29:-13.49 30:-16.33 31:-14.5 32:-8.26 33:-9.74 34:-3.79 35:1.14 36:-0.58 37:-0.04 38:-3.47 39:22.27 40:15.51 41:-3.2 42:-6.58 43:-27.59 44:-23.36 45:22.2 46:-38.96 47:-11.73 48:-1.64 49:0.13 50:10.07 51:-7.7 52:22.2 53:-28.51 54:27.72 55:-0.01 56:-18.57 57:10.42 58:-33.05 59:-1.38 60:12.14 61:0.99 62:6.16 63:-1.98 64:8.06 65:19.98 66:4.6 67:11.87 68:6.02 69:-0.92 70:-12.5 71:-45.6 72:-16.88 73:-1.12 74:-6.74 75:-1.42 76:-8.55 77:5.07 78:20.36 79:-22.89 80:22.37 81:16.23 82:-10.7 83:1.98 84:-22.19 85:-22.29 86:14.76 87:6.91 88:-5.17 89:-3.49 90:14.46 91:17.63 92:10.54 93:13.34 94:-5.91 95:-13.82 96:0.44 97:-1.53 98:-11.7 99:-7.03 100:-13.13 101:-1.56 102:7.16 103:0.06 104:20.63 105:11.29 106:-1.86 107:-8.5 108:-23.66 109:-19.94 110:27.52 111:-17.83 112:-7.77 113:8.8 114:-8.01 115:7.28 116:0.35 117:17.64 118:0.4 119:6.33 120:-1.51 121:-7.36 122:-7.58 123:-7.21 124:-8.59 125:-2.09 126:0.76 127:2.93 128:1.71 129:-1.27 130:21.62 131:16.56 132:8.11 133:-13.93 134:-40.66 135:-27.13 136:31.12 137:-16.69 138:-10.85 139:-2.85 140:-8.01 141:2.54 142:14.8 143:21.01 144:-28.54 145:11.39 146:3.5 147:-26.35 148:19.35 149:6.03 150:-21.87 151:11.67 152:1.71 153:3.66 154:8 155:0.18 156:18.74 157:6.21 158:6.53 159:6.88 160:-20.21 161:-16.62 162:-1.84 163:-26.81 164:-16.04 165:-1.77 166:7.52 167:9.28 168:-7 169:18.89 170:3.79 171:-4.38 172:15.97 173:-13.52 174:-32.62 175:-7.42 176:-27.97 177:1.32 178:10.41 179:-3.53 180:4.33 181:-11.68 182:18.37 183:6.26 184:2.67 185:18.69 186:-11.26 187:-23.14 188:-10.97 189:-24.1 190:-8.55 191:4.19 192:-8.25 193:-7.29 194:-5.4 195:23.65 196:0.07 197:10.72 198:-14.11 199:-37.15 200:1.57 201:-2.86 202:-11.14 203:-12.94 204:-1.24 205:6.37 206:-3.97 207:5.28 
2.049520713624469e-09 0:17.81 1:6.28 2:9.75 3:-26.68 4:7.83 5:-20.42 6:13.66 7:-19.54 8:-11.55 9:10.18 10:-20.72 11:13.34 12:-15.75 13:21.29 14:-0.99 15:-12.03 16:2.54 17:12.31 18:-36.71 19:-4.25 20:-17.05 21:-0.57 22:24.59 23:-26.41 24:18.53 25:-24.32 26:20.49 27:-10.73 28:4.64 29:-10.41 30:23.39 31:-29.45 32:-17.51 33:-11.98 34:7.91 35:0.67 36:-8.03 37:8.98 38:-0.56 39:22.22 40:6.58 41:7.56 42:-26.6 43:-0.28 44:-27.17 45:-8.38 46:-35.52 47:-20.3 48:-7.51 49:-28.76 50:51.89 51:-17.98 52:20.92 53:-8.24 54:8.51 55:3.15 56:18.78 57:-39.67 58:-31.98 59:-14.09 60:-3.54 61:-1.56 62:-20.93 63:14.52 64:-10.32 65:24.05 66:-45.35 67:13.78 68:9.39 69:16.76 70:-15.95 71:-8.63 72:-3.65 73:13.23 74:-0.3 75:-20.89 76:0.67 77:3.39 78:18.77 79:7.07 80:7.13 81:-14.22 82:4.69 83:-29.24 84:17.03 85:-17.14 86:-29.61 87:7.62 88:-8.63 89:15.94 90:-13.3 91:20.86 92:1.34 93:-8.05 94:-9.14 95:15.34 96:-32.07 97:-2.03 98:-15.94 99:-21.15 100:26.72 101:-31.35 102:12.74 103:-31.05 104:18.82 105:-18.85 106:-13.99 107:-28.56 108:9.01 109:-16.92 110:-1.49 111:4.21 112:-22.4 113:5.43 114:3.76 115:23.21 116:-2.62 117:22.12 118:-2.99 119:-10.11 120:-21.19 121:-3.65 122:-14.76 123:18.05 124:-0.74 125:-19.38 126:11.17 127:-16.57 128:18.18 129:-43.38 130:22.51 131:-40.1 132:11.75 133:-6.6 134:4.7 135:-5.86 136:8.54 137:-20.84 138:-21.27 139:10.72 140:-0.25 141:-0.16 142:-10.34 143:19.16 144:-2.71 145:28.46 146:-20.99 147:5.63 148:-16.49 149:-11.43 150:-26.46 151:-7.26 152:-14.87 153:1.91 154:21.35 155:-4.25 156:19.49 157:-4.14 158:17.72 159:-14.26 160:13.75 161:-22.7 162:-15.18 163:-24.12 164:-9.13 165:0.8 166:-6.41 167:23.93 168:-3.91 169:19.22 170:-14.13 171:-0.95 172:9.31 173:28.29 174:-33.6 175:-3.47 176:-6.87 177:-5.12 178:7.91 179:-15.97 180:13.81 181:-1.27 182:24.35 183:-12.81 184:9.16 185:-12.92 186:4.68 187:-23.18 188:-15.6 189:-21.32 190:-10.04 191:-5.22 192:-5.44 193:14.26 194:-2.8 
1.115917694611144e-07 0:15.96 1:8.17 2:4.25 3:-8.27 4:-7.18 5:4.96 6:2.29 7:-3.72 8:-8.47 9:10.01 10:0.1 11:15.58 12:-17.68 13:17.13 14:7.12 15:-1.18 16:-8.48 17:4.44 18:-4.78 19:-15.89 20:-0.43 21:-0.94 22:27.93 23:-7.45 24:-4.86 25:-26.4 26:16.15 27:6.4 28:10.75 29:-5.14 30:-13.19 31:-13.41 32:-1.53 33:1.65 34:-20.28 35:2.74 36:13.13 37:17.48 38:-3.13 39:19.25 40:9.74 41:-8.45 42:4.07 43:-13.1 44:-29.65 45:-19.06 46:10.23 47:-15.93 48:-13.08 49:1.42 50:23.9 51:-7.27 52:20.15 53:-30.72 54:32.78 55:-2.17 56:3.25 57:-18.65 58:-33.47 59:7.2 60:-21.28 61:3.75 62:5.57 63:11.13 64:12.58 65:15.59 66:-13.16 67:16.35 68:6.31 69:12.59 70:-14.51 71:-22.25 72:15.8 73:-29.27 74:1.74 75:-2.19 76:8.14 77:16.06 78:20.05 79:-35.64 80:26.8 81:-10.68 82:3.18 83:6.24 84:-18.99 85:22.36 86:-13.18 87:3.32 88:-1.9 89:3.49 90:13 91:14.42 92:-3.87 93:18.18 94:6.49 95:10.88 96:2.54 97:-8.04 98:5.91 99:-22.01 100:1.84 101:-2.05 102:5.28 103:2.15 104:14.86 105:2.67 106:6.09 107:-1.29 108:0.83 109:-5.17 110:-9.4 111:10.65 112:-7.51 113:21.12 114:-0.07 115:-6.4 116:-13.79 117:15.68 118:-12.07 119:-11.96 120:-6.43 121:0.26 122:-3.48 123:-2.08 124:18.74 125:-15.92 126:12.89 127:12.04 128:-6.5 129:8.21 130:16.9 131:7.37 132:0.11 133:-12.85 134:-15.21 135:10.51 136:1.28 137:20.37 138:-33.95 139:32.47 140:0.85 141:-12.74 142:-7.28 143:18.59 144:-27.88 145:4.67 146:18.38 147:-20.59 148:-0.74 149:8.45 150:3.9 151:-1.32 152:15.29 153:8.29 154:10.71 155:1.66 156:13.52 157:-4.24 158:1.25 159:4.76 160:3.69 161:-4.66 162:-3.49 163:-0.62 164:-14.97 165:11.09 166:2.57 167:14.34 168:0.04 169:14.45 170:-1.33 171:-5.16 172:-0.74 173:-2.36 174:-7.15 175:1.34 176:3.23 177:-12.78 178:10.06 179:9.9 180:-1.72 181:-5.31 182:14.38 183:-3.21 184:-4.61 185:4.01 186:-3.44 187:-6.72 188:-6.57 189:5.13 190:-13.87 191:22.57 192:21.43 193:-1.06 194:-1.51 195:21.33 196:-8.82 197:10.36 198:-5.8 199:-2.95 200:-6.77 201:-12.47 202:9.49 203:-8.62 204:10.11 205:4.55 206:12.38 207:6.12 
1.062241843373517e-08 0:19.31 1:14.47 2:5.21 3:-21.7 4:4 5:-14.45 6:3.6 7:-22.19 8:-18.61 9:-16.44 10:-4.9 11:21.13 12:-1.55 13:21.39 14:8.63 15:-11.2 16:-22.05 17:2.72 18:-6.19 19:0.31 20:-32.15 21:-6.76 22:5.97 23:-8.86 24:-7.49 25:-4.69 26:20.42 27:-2.29 28:8.72 29:-14.76 30:2.59 31:-10.07 32:-5.74 33:-32.16 34:-11.55 35:0.91 36:11.34 37:-1.94 38:-4.63 39:22.52 40:10.64 41:-5.54 42:-24.07 43:-14.7 44:-21.24 45:-11.14 46:-35.78 47:-23.21 48:5.78 49:5.9 50:5.1 51:2.07 52:22.81 53:-30.59 54:32.79 55:0.92 56:-5.96 57:-1.34 58:-38.51 59:-10.6 60:-2.69 61:-7.56 62:6.46 63:0.4 64:10.18 65:20.06 66:-8.95 67:10.01 68:20.99 69:0.14 70:-22.85 71:-43.72 72:-22.77 73:-12.1 74:-22.47 75:3.62 76:-1.51 77:2.6 78:23.79 79:-38.21 80:28.11 81:-2.78 82:-10.79 83:0.25 84:-25.17 85:-12.59 86:5.56 87:-12.59 88:0.72 89:3.31 90:11.01 91:17.64 92:8.25 93:6.92 94:15.93 95:6.4 96:-8.23 97:-21.86 98:-31.54 99:-7.85 100:-5.15 101:0.3 102:18.62 103:-2.4 104:20.57 105:2.39 106:-12.29 107:2.63 108:6.62 109:-23.44 110:-17.43 111:-22.69 112:-8.86 113:8.52 114:2.15 115:-11.25 116:9.38 117:15.48 118:-4 119:1.23 120:-4.72 121:4.52 122:4.05 123:1.47 124:-18.33 125:-24.96 126:-11.96 127:-12.22 128:1.74 129:-5.6 130:20.71 131:7.4 132:-4.78 133:-25.62 134:7.69 135:1.4 136:-2.16 137:-1.64 138:-26.01 139:1.57 140:-4.49 141:3.08 142:-18.01 143:21.9 144:-34.95 145:17.14 146:9.43 147:-4.88 148:4.33 149:-4.85 150:-14.27 151:-9.65 152:-2.52 153:-2.69 154:-9.38 155:5.95 156:18.91 157:13.39 158:11.89 159:-15.43 160:-17.34 161:-25.6 162:-4.98 163:2.86 164:-14.03 165:-4.65 166:-4.49 167:13.91 168:12.85 169:20.03 170:6.56 171:-0.19 172:-19.17 173:-21.4 174:-17.82 175:-6.2 176:-0.31 177:-27.51 178:-10.29 179:13.43 180:21.03 181:3.26 182:19.79 183:-27.98 184:20.59 185:-1.32 186:-6.57 187:3.84 188:-16.14 189:-15.75 190:4.06 191:-3.44 192:8.06 193:-0.1 194:-7.82 195:24.51 196:-10.58 197:11.34 198:-21.7 199:-11.32 200:1.54 201:-22.02 202:-21.15 203:-11.69 204:-2.25 205:13.43 206:-2.19 207:3.19 
4.755433181604692e-08 0:19.87 1:-0.4 2:-9.44 3:-17.57 4:10.69 5:-6.59 6:-4.61 7:-24.04 8:-20.72 9:-6.63 10:-5.72 11:-2.89 12:1.56 13:21.3 14:4.19 15:-4.16 16:-5.32 17:9.82 18:-6.86 19:-20.07 20:-19.49 21:-1.16 22:2.11 23:-6 24:-7.11 25:11.42 26:20.58 27:-11.56 28:13.89 29:0.69 30:5.9 31:-7.76 32:-5.71 33:-11.08 34:-14.02 35:-1.88 36:1.55 37:-1.24 38:-0.03 39:21.96 40:8.62 41:3.55 42:-4.39 43:-9.31 44:-8.98 45:-0.71 46:-20.82 47:-18.54 48:-20.94 49:18.08 50:-2.7 51:4.03 52:24.79 53:-40.6 54:20.67 55:3.04 56:1.05 57:12.43 58:-24.93 59:-10.58 60:-2.44 61:-14.99 62:-2.17 63:-11.51 64:8.41 65:20.47 66:-13.65 67:22.45 68:32.95 69:-8.17 70:-17.69 71:-28.45 72:-24.83 73:-3.69 74:-22.93 75:8.24 76:5.79 77:2.46 78:24.59 79:-38.81 80:23.52 81:6.55 82:-6.83 83:7.09 84:-21.27 85:-14.99 86:1.5 87:-10.27 88:0.81 89:-3.02 90:9.89 91:20.01 92:0.31 93:3.97 94:-20.92 95:11.91 96:-2.85 97:-15.84 98:-15.27 99:-6.18 100:1.8 101:12.1 102:3.39 103:-0.67 104:20.7 105:0.96 106:4.72 107:-10.86 108:2.14 109:-13.3 110:-20.76 111:-13.96 112:-2.13 113:6.7 114:10.67 115:1.14 116:17.63 117:17.08 118:-10.97 119:3.05 120:-3.25 121:-4.82 122:-1.33 123:-18.47 124:-16.87 125:-4.55 126:0.82 127:4.67 128:-1.48 129:-4.71 130:21.27 131:6.15 132:-5.7 133:-15.78 134:-5.69 135:10.6 136:1.54 137:3.47 138:-13.07 139:-18.91 140:23.65 141:-19.42 142:6.8 143:22.65 144:-30.67 145:20.91 146:-1.09 147:-2.45 148:11.4 149:-8.15 150:-10.02 151:-5.63 152:5.29 153:2.93 154:-6.27 155:1.82 156:17.57 157:3.09 158:6.07 159:-9.38 160:-4.04 161:-2.51 162:1.18 163:-7.82 164:-17.08 165:-6.34 166:2.23 167:7.29 168:8.34 169:18.36 170:5.32 171:-1.65 172:-7.38 173:-8.57 174:-12.54 175:-0.74 176:5.83 177:-29.35 178:-8.84 179:29.02 180:10.82 181:3.79 182:17.31 183:-9.61 184:8.52 185:1.79 186:2.06 187:-5 188:-9.03 189:-10.73 190:-21.55 191:0.9 192:15.3 193:-2.22 194:-1.21 195:25.54 196:-16.1 197:17.26 198:-12.97 199:-9.37 200:11.04 201:-18.9 202:-14.48 203:-8.6 204:-10.67 205:8.36 206:-5.05 207:4.07 
1.52788640431117e-08 0:15.99 1:5.99 2:5.76 3:-23.17 4:-12.28 5:6.68 6:9.2 7:13.28 8:-12.37 9:-8.97 10:-6.22 11:-2.87 12:-10.32 13:19.08 14:1.78 15:-14.46 16:-18.7 17:-1.22 18:3.54 19:-4.38 20:0.59 21:-9.53 22:11.93 23:10.42 24:-4.85 25:-16.55 26:19.12 27:-14.4 28:7.48 29:-20.78 30:10.52 31:-11.24 32:-10.45 33:-7.04 34:-4.56 35:-0.28 36:-3.31 37:-0.15 38:-4.62 39:22.3 40:3.72 41:-15.33 42:-14.82 43:-12.6 44:-18.16 45:-26.66 46:0.81 47:-25.25 48:-5.11 49:-10.03 50:32.76 51:-18.7 52:24.63 53:-42.39 54:15.62 55:8.76 56:-18.4 57:-5.37 58:-12.15 59:-31.75 60:-11.35 61:9.01 62:-25.17 63:-7.57 64:3.34 65:18.41 66:-9.8 67:5 68:11.16 69:9.52 70:-17.11 71:-34.88 72:-6.27 73:-15.9 74:-13.81 75:-18.24 76:18.31 77:-24.05 78:21.42 79:-30.13 80:13.63 81:17.36 82:-6.6 83:-3.98 84:-9.42 85:-17.42 86:-22.37 87:4.44 88:-17.42 89:6.31 90:2.92 91:18.13 92:-0.32 93:5.83 94:-7.36 95:-12.44 96:0.51 97:1.78 98:-4.62 99:-18.27 100:4.55 101:-12.75 102:6.79 103:-5 104:21.2 105:3.15 106:-16.43 107:-28.46 108:-13.98 109:-6.91 110:10.15 111:-3.53 112:-20.27 113:7.2 114:5.73 115:11.36 116:-20.36 117:15.94 118:-7.32 119:-0.87 120:-18.75 121:-10.58 122:0.18 123:-2.34 124:-1.44 125:-8.88 126:6.05 127:-4.35 128:7.23 129:-9.04 130:22.64 131:0.74 132:-14.57 133:-21.79 134:-34.96 135:-2.73 136:7.54 137:3.49 138:-39.2 139:18.13 140:-12.42 141:18 142:-17.89 143:22.78 144:-31.03 145:4.97 146:-12.4 147:-26.78 148:6.44 149:16.76 150:-20.24 151:-13.63 152:19.2 153:-17.08 154:-2.79 155:-5.72 156:18.32 157:-0.68 158:9.96 159:-9.17 160:-14.51 161:-4.68 162:0.33 163:-24.65 164:-30.95 165:-9.65 166:-0.85 167:12.08 168:-0.33 169:18.06 170:2.36 171:2.55 172:-19.88 173:0.34 174:-10.03 175:-8.45 176:-33.07 177:-25.06 178:2.15 179:10.89 180:16.85 181:-18.66 182:18.15 183:-3.88 184:-2.25 185:-13.83 186:9.67 187:-16.96 188:-23.11 189:-10.07 190:-18.8 191:20.28 192:3.91 193:13.95 194:-20.68 195:25.02 196:-17.75 197:0.1 198:-19.05 199:-27.02 200:-6.97 201:-0.49 202:-11.51 203:-16.73 204:-1.69 205:-4.28 206:16.58 207:-6.94 
2.083592273860466e-08 0:17.17 1:-7.99 2:-16.84 3:-12.18 4:-9.11 5:-17.2 6:-3.29 7:4.41 8:-6.19 9:-5.99 10:-5.31 11:-1.87 12:-6.25 13:22.24 14:-4.56 15:-53.08 16:-29.86 17:-12.51 18:-19.84 19:-5.09 20:-6.9 21:-1.12 22:-2.78 23:-10.92 24:-11.81 25:-16.4 26:19.8 27:-11.33 28:-21.3 29:-31.56 30:-14.72 31:-32.95 32:-12.8 33:-10.48 34:-3.6 35:-5.79 36:-9.23 37:-1.1 38:5.28 39:22.3 40:0.94 41:-38.37 42:-35.94 43:-23.12 44:-25.67 45:-10.65 46:-11.48 47:5.98 48:-4.66 49:-6.47 50:-2.3 51:-10.67 52:21.98 53:-31.44 54:-6.58 55:-29.86 56:-8.4 57:-27.28 58:-10.09 59:-10.81 60:-15.28 61:5.37 62:-14.78 63:3.57 64:-0.82 65:20.35 66:-36.31 67:-15.55 68:-34.08 69:-17.84 70:-37.79 71:-14.73 72:-8.7 73:-14.41 74:1.97 75:-10.15 76:-4.44 77:-0.46 78:21.26 79:-34.16 80:-10.9 81:-31.23 82:-7.97 83:-26.72 84:-12.87 85:-2.53 86:-11.86 87:7.09 88:-8.73 89:-3.41 90:4.01 91:18.64 92:-9.71 93:-21.1 94:-6.89 95:-8.46 96:-17.91 97:-11.02 98:-7.73 99:-9.57 100:-7.59 101:-14.91 102:-3.04 103:-6.26 104:22.69 105:-7.68 106:-53.9 107:-24.38 108:-15.51 109:-15.81 110:3.54 111:-20.28 112:4.58 113:-0.19 114:-18.1 115:-11.73 116:-20.32 117:18.27 118:-13.67 119:-36.26 120:-24.4 121:-15.82 122:-17.45 123:0.29 124:-12.43 125:-9.38 126:-8.5 127:-1.53 128:-3.11 129:2.45 130:22.27 131:-6.83 132:-45.4 133:-34.2 134:-30.98 135:-16.28 136:15.08 137:-20.87 138:-6.95 139:-12.5 140:1.77 141:-0.91 142:-23.85 143:20.13 144:-26.71 145:-13.48 146:-21.85 147:-3.83 148:-20.97 149:-8.77 150:-6.32 151:-7.77 152:13.17 153:-12.64 154:-6.47 155:0.74 156:18.17 157:-5.8 158:-28.23 159:-15.84 160:-11.61 161:-27.35 162:-13.84 163:-15.66 164:-7.57 165:-1.68 166:1.96 167:9.63 168:1.03 169:21.13 170:-6.41 171:-43.21 172:-25.66 173:-10.86 174:-34.3 175:-22.87 176:-28.59 177:4.98 178:7.24 179:-6.5 180:3.18 181:-15.6 182:19.08 183:-23.31 184:-23.47 185:-23.29 186:-12.62 187:-35.53 188:-21.09 189:-19.02 190:-5.22 191:11.61 192:-4.78 193:-2.97 194:-4.6 195:23.07 196:-5.49 197:-38.39 198:-34.92 199:-16.95 200:-27.31 201:-9.84 202:-10.17 204:-0.57 205:-6.99 206:-7.6 207:-13.78 
1.738986411801875e-08 0:19.76 1:-19.82 2:-3.58 3:-8.4 4:-13.84 5:-2.31 6:-30.61 7:4.32 8:-13.81 9:0.24 10:-20.61 11:-7.89 12:-15.18 13:22.58 14:-5.55 15:-24.91 16:-24.74 17:-35.72 18:7.07 19:-18.82 20:4.89 21:-7.14 22:-6.9 23:-3.66 24:-12.88 25:-22.53 26:21.65 27:-10.85 28:-4.66 29:-16.06 30:-21.74 31:-3.78 32:-34.71 33:-9.19 34:-0.94 35:-8.71 36:-13.11 37:7.55 38:-18.48 39:23.8 40:-9.44 41:-14.57 42:-18.55 43:-43.63 44:-3.59 45:-31.64 46:-16.72 47:1.79 48:-7.86 49:-1.73 50:14.28 51:-17.28 52:24.68 53:-37.8 54:15.88 55:-19.88 56:-14.27 57:-4.55 58:-21.94 59:-11.31 60:-2.91 61:-13.6 62:-9.52 63:3.97 64:-9.79 65:21.11 66:-13.12 67:-0.51 68:-3.51 69:-21.49 70:-14.51 71:-35.81 72:-9.84 73:-3.11 74:-2.53 75:-1.09 76:1.97 77:-11.43 78:22.13 79:-28.24 80:10.86 81:-13.15 82:-22 83:-10.72 84:-26.2 85:-14.56 86:-3.91 87:2.78 88:-11.36 89:3.05 90:-4.27 91:19.97 92:-6.05 93:8.97 94:-11.86 95:-12.66 96:-7.23 97:-1.96 98:-12.7 99:1.91 100:-21.4 101:-6.66 102:-5.78 103:-10.35 104:22.97 105:-2.62 106:-18.03 107:-24.01 108:-45.94 109:-4.87 110:-6.65 111:-4.64 112:-5.71 113:-11.51 114:-1.74 115:-9.18 116:-34.02 117:20.02 118:-17.77 119:-8.99 120:-10.2 121:-24.06 122:-4.54 123:-16.74 124:5.96 125:1.06 126:-1.99 127:0.43 128:11.53 129:-19.98 130:24 131:-3.14 132:-15.6 133:-34.21 134:-49.31 135:-0.4 136:-5.71 137:-0.43 138:-15.27 139:-7.58 140:-12.89 141:9.81 142:-24.68 143:23.81 144:-31.97 145:8.66 146:-20.44 147:-22.41 148:-6.97 149:-16.7 150:-24.51 151:-3.36 152:10.7 153:-6.81 154:-8.5 155:-3.9 156:20.39 157:1.27 158:0.8 159:-16.44 160:-19.77 161:-15.18 162:-19.68 163:-3.57 164:-9.85 165:-7.42 166:-3.62 167:10.24 168:-3.55 169:21.9 170:-4.34 171:-4.29 172:-14.59 173:-15.25 174:-27.33 175:-37.11 176:-3.14 177:-17.99 178:19.68 179:21.42 180:-2.66 181:-16.48 182:19.67 183:-10.5 184:-6.7 185:-11.93 186:-11.67 187:-14.45 188:-30.62 189:-5.02 190:-13.73 191:17.77 192:8.58 193:-6.09 194:-5.61 195:25.69 196:-16.17 197:-4.51 198:-38.2 199:-35.71 200:-11.86 201:-12.89 202:-12.06 203:-5.65 204:-11.83 205:-9.62 206:2.78 207:-21.4 
1.247525881578886e-08 0:17.51 1:14.37 2:-2.86 3:-7.58 4:4.35 5:-14.91 6:7.85 7:-15.42 8:-33.36 9:-14.35 10:-26.7 11:-8.27 12:-22 13:22.36 14:16.31 15:-15.74 16:-33.1 17:-5.35 18:-15.03 19:31.31 20:-22.6 21:-14.76 22:-3.1 23:-11.08 24:14.92 25:-23.72 26:19.59 27:1.77 28:-3.39 29:-15.94 30:-7.59 31:-5.59 32:-4.46 33:-12.8 34:-12.19 35:-3.86 36:2.24 37:-2.16 38:-3.62 39:22.6 40:11.29 41:-5.8 42:-20.08 43:-9.32 44:-28.41 45:28.57 46:-48.83 47:-16.36 48:-2.38 49:-6.31 50:16.58 51:-10.1 52:22.52 53:-27.58 54:25.24 55:-5.01 56:-1.5 57:6.93 58:-34.36 59:-12.59 60:-7.55 61:-6.65 62:0.94 63:1.11 64:9.33 65:20.95 66:-2.48 67:-11.28 68:15.83 69:15.62 70:-20.9 71:-17.47 72:-33.45 73:-20.36 74:3.78 75:-14.19 76:-7.86 77:3.6 78:21.11 79:-27.1 80:11.71 81:4.77 82:-6.96 83:4.26 84:-13.5 85:-34.02 86:-1.14 87:0.96 88:-18.52 89:-9.44 90:2.85 91:16.7 92:-0.49 93:5.97 94:2.64 95:-1.01 96:-2.73 97:-9.73 98:-7.21 99:0.12 100:-20.14 101:-11.08 102:14.34 103:1.86 104:22.22 105:10.72 106:-17.56 107:-17.37 108:-6.73 109:-20.27 110:26.11 111:-23.07 112:-14.64 113:3.8 114:-9.09 115:13.55 116:-25.27 117:17.32 118:-3.23 119:-9.74 120:-15.31 121:6.52 122:-14.87 123:-6.47 124:-3.61 125:-11.37 126:4.77 127:2.74 128:3.54 129:-3.86 130:22.44 131:15.66 132:3.64 133:-30.02 134:-29.37 135:-24.09 136:26.79 137:-15.59 138:-19.39 139:-1.32 140:-13.57 141:11.42 142:2.4 143:21.1 144:-26.96 145:6.09 146:-9.52 147:-13.81 148:12.17 149:-6.57 150:-34.44 151:-1.05 152:8.63 153:-0.55 154:10.93 155:2.28 156:18.49 157:7.57 158:-5.58 159:3.02 160:-16.53 161:-16.82 162:12.46 163:-42.07 164:-39.38 165:-8.44 166:-3.54 167:8.06 168:-5.64 169:20.31 170:5.67 171:-11.76 172:9.22 173:-10.89 174:-25.19 175:11.95 176:-46.22 177:-21.34 178:3.52 179:5.64 180:9.34 181:-5.04 182:18.41 183:-8.39 184:0.68 185:5.51 186:-5.39 187:-10.47 188:-14.02 189:-14.87 190:-7.56 191:4.75 192:-4.4 193:2.73 194:-3.01 195:23.12 196:14.42 197:-5.89 198:-29.49 199:-9.09 200:-20.05 201:28.06 202:-38.09 203:-14.72 204:-3.27 205:-3.26 206:16.67 207:-12.2 
