svm_type c_svc
kernel_type linear
nr_class 2
total_sv 51
rho -0.946078
label 1 -1
probA -3.67842
probB 0.104056
nr_sv 32 19
SV
3.382901486778983e-05 0:19.2 1:-0.34 2:0.56 3:-6.31 4:1.2 5:-13.37 6:-21.07 7:-14.42 8:-14.1 9:-17.71 10:-2.71 11:-2.13 12:-20.59 13:20.96 14:1.36 15:-14.65 16:-10.15 17:1.64 18:-35.66 19:-27.84 20:-13.98 21:-1.78 22:-7.93 23:-0.5 24:-15.66 25:-16.57 26:19.76 27:7.25 28:-1.9 29:-9.03 30:3.17 31:-21.47 32:-20.48 33:-5.68 34:-15.72 35:-14.15 36:8.48 37:12.31 38:-7.62 39:22.42 40:6.6 41:-18.55 42:-22.77 43:-11.24 44:-35.81 45:-31.14 46:-22.59 47:-14.5 48:-10.73 49:11.33 50:-0.66 51:-24.2 52:23.87 53:-36.21 54:25.21 55:-9.19 56:-10.7 57:-13.51 58:-42.65 59:2.26 60:-22.03 61:1.51 62:1.36 63:-24.57 64:0.97 65:19.59 66:-11.99 67:8.35 68:19.18 69:1.95 70:-38.09 71:-41.31 72:4.94 73:-23.28 74:-12.9 75:-17.44 76:-11.14 77:7.16 78:21.54 79:-17.04 80:25.75 82:11.42 83:-11.64 84:-50.52 85:14.55 86:-15.6 87:-1.14 88:-4.76 89:-23.17 90:6.33 91:19.75 92:-2.82 93:3.82 94:8.36 95:8 96:-16.01 97:-19.17 98:-6.84 99:-15.1 100:-19.91 101:-6.51 102:-10.35 103:-15.61 104:21.97 105:-2.76 106:-9.65 107:-5.26 108:-3.72 109:-21.3 110:-34.72 111:-2.34 112:-18.06 113:9.99 114:10.33 115:-15.54 116:-5.14 117:21.75 118:-29.83 119:17.78 120:-17.87 121:-5.71 122:4.02 123:-34.08 124:-2.35 125:-8.32 126:-12.24 127:11.23 128:-0.17 129:-5.5 130:21.73 131:-0.48 132:5.31 133:-15.24 134:-8.34 135:-24.15 136:-17.7 137:-5.84 138:-25.21 139:-16.64 140:-6.17 141:9.82 142:-3.63 143:16.42 144:-17.77 145:7.75 146:-4.82 147:-12.33 148:-21.19 149:-25.52 150:-14.75 151:-23.05 152:-30.87 153:-23.7 154:-20.72 155:-12.84 156:20.5 157:3.5 158:-20.66 159:-28.04 160:-14.77 161:-8.79 162:-22.34 163:-11.03 164:-16.05 165:-3.01 166:-0.52 167:1.45 168:5.97 169:19.86 170:2.91 171:-16.06 172:-23.64 173:-6.41 174:1.01 175:-11.31 176:-8.36 177:-12.53 178:-11.66 179:-8.75 180:-9.9 181:-9.64 182:18.01 183:-2.01 184:-13.92 185:-23.23 186:-0.74 187:-7.86 188:-13.27 189:-4.89 190:-12.21 191:-15.63 192:-12.23 193:-10.81 194:-15.04 195:24.35 196:-10.55 197:4.25 198:-19.21 199:-3.46 200:-17.53 201:-41.08 202:2.8 203:-23.38 204:2.68 205:12.75 206:-10.89 207:-7.52 
9.882546372604955e-05 0:17.69 1:8.22 2:1.27 3:-22.59 4:-18.05 5:4.16 6:-8.92 7:-14.05 8:-25.17 9:-5.16 10:6.11 11:-3.31 12:-1.14 13:20.53 14:3.64 15:-6.98 16:-12.34 17:-29.94 18:6.31 19:-22.76 20:-9.55 21:-5.94 22:3.62 23:6.68 24:-14.68 25:7.39 26:19.69 27:-3.03 28:9.43 29:-13.42 30:-21.51 31:-9.47 32:-11.65 33:-9.46 34:-7.84 35:9.99 36:1.1 37:9.08 38:-8.27 39:21.65 40:11.56 41:-7.04 42:-7.8 43:-33.68 44:-2.75 45:-10.16 46:-11.6 47:-3.35 48:-13.09 49:9.44 50:10.08 51:-0.49 52:22.34 53:-35.79 54:22.7 55:-6.16 56:-22.34 57:6.23 58:-22.29 59:7.09 60:-6.29 61:0.23 62:4.93 63:0.17 64:-1.26 65:18.57 66:-0.86 67:9.79 68:18.43 69:-12.71 70:-23.85 71:-34.55 72:-10.25 73:1 74:-12.9 75:-7.41 76:13.32 77:1.5 78:22.67 79:-29.71 80:32.96 81:0.91 82:-23.03 83:7.55 84:-26.85 85:-6.41 86:3.52 87:2.88 88:3.37 89:9.73 90:-1.73 91:19.07 92:13.52 93:11.97 94:-7.61 95:-27.29 96:-17.52 97:-7.62 98:-10.74 99:-10.61 100:-18.92 101:12.86 102:13.04 103:6.55 104:20.31 105:7.06 106:-5.61 107:-12.08 108:-23.72 109:0.74 110:-20.11 111:-14.74 112:6.83 113:-3.33 114:6.51 115:-5.16 116:13.05 117:15.44 118:-2.05 119:7.98 120:1.31 121:-2.77 122:-9.63 123:-13.21 124:-12.53 125:-14.65 126:-6.28 127:-2.97 128:-6.15 129:-3.69 130:20.5 131:6.23 132:-0.38 133:-11.51 134:-33.73 135:20.38 136:-9.6 137:7.7 138:-6.83 139:-3.16 140:7.71 141:2.15 142:-3.01 143:21.8 144:-29.99 145:18.07 146:0.57 147:-22.32 148:-1.14 149:-13.02 150:2.73 151:-8.7 152:17.39 153:3.98 154:9.04 155:5.15 156:19.23 157:14.4 158:5.12 159:-13.53 160:-40.13 161:-15.53 162:2.65 163:-5.42 164:-0.98 165:-10.09 166:-2.32 167:1.5 168:4.88 169:20.51 170:2.72 171:-3.04 172:-19.75 173:-41.82 174:-8.41 175:-2.73 176:-0.33 177:-3.55 178:-7.81 179:9.71 180:11.96 181:1.91 182:19.58 183:-18.15 184:15.69 185:-7.91 186:-33.88 187:-1 188:-22.48 189:-8.43 190:-8.85 191:6.06 192:-7.55 193:7.94 194:2.35 195:23.79 196:-7.94 197:13.38 198:-21.09 199:-28.41 200:5.79 201:-18.1 202:-1.68 203:-9.17 204:1.16 205:3.77 206:7.65 207:-1.76 
2.65981320068182e-05 0:18.91 1:11.64 2:8.67 3:-43.08 4:-1.47 5:-0.45 6:9.92 7:5.69 8:-16.42 9:11.93 10:-8.87 11:15.02 12:-21.6 13:21.89 14:2.1 15:1.38 16:-23.8 17:2.77 18:-21.94 19:-14.27 20:-8.08 21:3.92 22:26.68 23:-22.14 24:20.31 25:-17.93 26:20.44 27:-22.46 28:14.94 29:-32.99 30:3.03 31:-5.24 32:-5.99 33:3.56 34:-14.77 35:3.07 36:-9.98 37:5.71 38:6.75 39:22.33 40:9.01 41:7.48 42:-34.41 43:-13.72 44:-12.06 45:-3.81 46:-30.76 47:-17.69 48:19.05 49:-64.34 50:44.38 51:0.88 52:21.94 53:-8.53 54:9.71 55:-8.82 56:9.85 57:-28.53 58:-33.76 59:-14.07 60:-5.16 61:17.95 62:-51.9 63:33.8 64:-10.38 65:24.5 66:-35.2 67:24.53 68:-15.59 69:-5.61 70:-7.38 71:-15.93 72:-4.33 73:12.26 74:1.18 75:-24.23 76:10.11 77:7.08 78:18.52 79:7.87 80:18 81:-18.41 82:1.09 83:-13.29 84:2.44 85:4.96 86:-11.61 87:-36.24 88:-26.31 89:13.26 90:5.08 91:21.68 92:1.86 93:-2.41 94:-21.64 95:-0.01 96:-24.1 97:-8.47 98:-8.04 99:-0.34 100:33.25 101:-35.42 102:20.42 103:-20.19 104:19.03 105:-15.25 106:-3.34 107:-32.15 108:1.4 109:14.37 110:8.62 111:8.38 112:-0.91 113:12.29 114:-4.34 115:12.29 116:-3.84 117:22.31 118:1.88 119:-0.21 120:-36.42 121:-12.17 122:3.09 123:0.55 124:6.22 125:-5.77 126:26.02 127:-25.45 128:14.08 129:-39.78 130:23.18 131:-31.87 132:26.88 133:-16.09 134:-6.43 135:5.09 136:2.53 137:-2.74 138:-0.06 139:17.26 140:-11.54 141:2.56 142:-5.51 143:18.04 144:4.97 145:17.84 146:-22.74 147:-1.13 148:-11.27 149:0.18 150:-7.89 151:-24.04 152:-8.98 153:-20.98 154:22.99 155:9.95 156:18.65 157:0.23 158:13.65 159:-20.21 160:13.7 161:-7.57 162:-11.78 163:-16.73 164:-17.8 165:11.65 166:-17.11 167:23.21 168:-4.69 169:17.71 170:-2.51 171:6.74 172:-9.47 173:13.18 174:-21.26 175:-10.43 176:3.91 177:-11.15 178:19.03 179:-16.24 180:1.46 181:2.97 182:24.84 183:-8.94 184:14.06 185:-32.16 186:-7.84 187:-9.69 188:-17.34 189:-12.45 190:0.72 191:4.09 192:-18.71 193:11.11 194:-3.16 
1.07533855919535e-05 0:16.23 1:9.92 2:6.25 3:-10.63 4:-11.91 5:1.94 6:16.31 7:15.63 8:-3.4 9:-15.82 10:-16.33 11:-4.33 12:-13.54 13:17.7 14:6.84 15:-0.06 16:-8.68 17:-9.39 18:-2.86 19:-11.18 20:11.31 21:-6.51 22:-1.92 23:-16.85 24:-12.31 25:-8.91 26:16.99 27:-1.45 28:10.98 29:-1.39 30:-3.78 31:-18.56 32:-14.59 33:1.32 34:-7.61 35:-4.76 36:6.05 37:9.13 38:4.17 39:17.92 40:8.06 41:1.33 42:0.96 43:-19.06 44:-16.64 45:-9.96 46:7.93 47:-6 48:-18.42 49:4.12 50:11.3 51:2.23 52:20.55 53:-33.08 54:27.1 55:-15.63 56:-0.04 57:-4.44 58:-20.78 59:15.63 60:-11.34 61:-1.56 62:12.33 63:1.27 64:6.71 65:16.39 66:-17.48 67:21 68:10.22 69:3.91 70:-16.08 71:-16.09 72:13.24 73:-14.76 74:-10.33 75:11.68 76:-5.43 77:11.04 78:20.21 79:-38.92 80:23.67 81:-18.21 82:6.71 83:-4.08 84:-6.55 85:22.98 86:2.26 87:6.35 88:14.29 89:-1 90:16.67 91:14.19 92:3 93:7.27 94:-2.22 95:-5.45 96:7.7 97:7.23 98:13.77 99:-18.45 100:-13.53 101:-4.85 102:-9.93 103:-10.96 104:15.59 105:0.6 106:-4.1 107:4.29 108:-0.25 109:8.53 110:-7.34 111:18.8 112:-2.28 113:2.17 114:-1.55 115:-25.65 116:-17.49 117:17.39 118:-20.01 119:-14.24 120:1.35 121:-7.1 122:17.44 123:-2.81 124:28.15 125:-10.71 126:2.4 127:20.34 128:-5.01 129:12.79 130:16.54 131:5.94 132:-4.6 133:-2.59 134:-16.07 135:9.12 136:6.03 137:8.47 138:-5.52 139:1.92 140:11.49 141:-14.17 142:-22.42 143:20.81 144:-38.33 145:15.99 146:16.7 147:-32.2 148:19.2 149:-3.11 150:-5.07 151:9.73 152:6.03 153:7.34 154:10.19 155:7.83 156:13.2 157:-4.08 158:7.06 159:15.39 160:-4.94 161:0.13 162:-10.06 163:-14.28 164:-5.8 165:1.43 166:-1 167:13.13 168:3.45 169:13.45 170:-1.46 171:6.73 172:13.44 173:-3.63 174:-2.95 175:-4.9 176:-2.67 177:-3.75 178:3.52 179:-2.95 180:11.49 181:-1 182:13.5 183:-7.03 184:1.58 185:1.15 186:-1.12 187:-2.77 188:-2.74 189:5.44 190:-0.42 191:4.85 192:3.61 193:0.01 194:-3.22 195:21.35 196:-9.98 197:15.98 198:-11.98 199:2.4 200:-5.3 201:-5.01 202:12.13 203:-3.89 204:3.63 205:2.71 206:-1.16 207:5.66 
5.232181747410896e-05 0:18.66 1:-7.87 2:12.53 3:-17.37 4:-26.38 5:3.73 6:8.48 7:18.15 8:-17.52 9:11.04 10:-5.7 11:-12.06 12:-1.55 13:20.02 14:-2.22 15:8.79 16:-25.5 17:-29.76 18:10.55 19:-7.81 20:-0.54 21:-13.89 22:29.04 23:0.01 24:-8.24 25:-6.99 26:20.01 27:-14.15 28:19.15 29:-9.06 30:-16.92 31:4.32 32:2.1 33:-1.35 34:-15.25 35:9.84 36:-2.98 37:-8.01 38:1.79 39:22.07 40:7.88 41:7.03 42:-29.11 43:-29.87 44:-5.15 45:-23.61 46:-13.92 47:-20.14 48:14.87 49:1.04 50:3.2 51:-3.04 52:24.56 53:-34.45 54:23.41 55:0.55 56:-39.22 57:-7.24 58:-14.69 59:-42.18 60:-5.54 61:8.93 62:-21.84 63:7.79 64:-6.16 65:19.42 66:-10.5 67:18.75 68:4.8 69:-17.42 70:-2.18 71:-18.92 72:-9.84 73:-19.36 74:16.41 75:-17.75 76:-9.16 77:-2.48 78:21.47 79:-25.31 80:18.83 81:14.22 82:-28.42 83:7.14 84:2.42 85:-24.14 86:-7.51 87:20.3 88:-23.61 89:12.51 90:-0.25 91:18.71 92:-9.69 93:21.98 94:-3.61 95:-32.25 96:-6.27 97:-9.57 98:-0.53 99:-23.03 100:12.38 101:-7.54 102:-8.43 103:-4.02 104:21.87 105:4.97 106:2.14 107:-40.18 108:-39.91 109:13.58 110:8.08 111:-2.75 112:-25.22 113:23.33 114:1.33 115:-16.73 116:-13.93 117:19.47 118:-11.57 119:12.62 120:-16.65 121:-30.01 122:4.2 123:3.78 124:12 125:-12.64 126:17.66 127:-1.88 128:-11.76 129:-14.42 130:22.87 131:6.75 132:7.3 133:-40.45 134:-51.78 135:6.57 136:5.67 137:2.78 138:-29.05 139:13.42 140:-1.94 141:-6.19 142:-20.16 143:23.15 144:-30.93 145:13.85 146:-5.93 147:-40.49 148:-4.38 149:19.4 150:-22.34 151:0.34 152:26.99 153:-7.36 154:-4.5 155:-11.17 156:19.2 157:-6.79 158:17.7 159:-4.86 160:-37.52 161:-5.29 162:2.23 163:-1.19 164:-20.83 165:9.48 166:-8.6 167:3.02 168:10.21 169:19.25 170:-8.35 171:15.24 172:-8.58 173:-30.72 174:-4.25 175:-5.86 176:-18.3 177:-34.16 178:21.19 179:8.1 180:-0.24 181:5.73 182:19.16 183:-9.07 184:16.96 185:-3.71 186:-17.64 187:0.55 188:-20.83 189:-17.88 190:-31.49 191:26.09 192:6.07 193:-13.76 194:-14.27 195:25.06 196:-13.15 197:15 198:-24.5 199:-51.37 200:2.85 201:11.7 202:-25.69 203:-7.43 204:15.29 205:-9.95 206:5.98 207:-11.82 
1.810161830702647e-05 0:16.33 1:7.5 2:13.49 3:-2.13 4:-32.63 5:3.93 6:11.85 7:-0.62 8:3.07 9:-5.98 10:-21.43 11:8.36 12:-8.32 13:17.87 14:2.18 15:12.96 16:-12.71 17:-28.78 18:6.89 19:-13.47 20:-0.53 21:-2.1 22:7.92 23:-21.42 24:-6.49 25:-13.39 26:17.08 27:0.59 28:11.52 29:-6.56 30:-13.12 31:-4.77 32:-21.16 33:-4.03 34:-3.76 35:8.05 36:-7.8 37:7.92 38:-4.25 39:18.57 40:9.94 41:13.53 42:-15.99 43:-36.55 44:0.87 45:-18.38 46:15.73 47:-6.99 48:-0.63 49:-17.77 50:18.79 51:-13.46 52:20.66 53:-30.97 54:34.75 55:0.67 56:-15.84 57:14.14 58:-36.58 59:0.09 60:-12.29 61:-0.2 62:-6.82 63:18.49 64:2.4 65:15.5 66:-11.47 67:23.38 68:10.76 69:-5.12 70:2.68 71:-25.57 72:3.69 73:-20.02 74:-2.67 75:-1.79 76:6.2 77:-4.23 78:20.62 79:-40.38 80:31.31 81:-10.72 82:0.09 83:25.08 84:-16.57 85:13.84 86:5.7 87:7.76 88:-6.78 89:10.84 90:-1.85 91:14.81 92:4.95 93:10.8 94:-20.35 95:-17.91 96:9.1 97:-0.29 98:6.95 99:-4.78 100:-1.42 101:-16.4 102:-9.61 103:-18.08 104:15.83 105:6.02 106:10.13 107:-12.94 108:-14.39 109:15.26 110:-21.46 111:15.26 112:1.11 113:21.67 114:-7.05 115:-9.11 116:-20.25 117:15.07 118:-19.01 119:-6.67 120:-4.65 121:-3.79 122:29.09 123:-12 124:19.85 125:-13.63 126:11.15 127:3.34 128:4.14 129:-11.08 130:16.37 131:2.27 132:10.39 133:-14.87 134:-21.91 135:22.26 136:-4.79 137:26.04 138:-5.83 139:9.39 140:-3.65 141:1.24 142:-20.83 143:19.85 144:-37.64 145:22.73 146:2.83 147:-26.04 148:41.62 149:-9.2 150:7.17 151:10.91 152:13.26 153:-20.5 154:14.71 155:-9.79 156:13.32 157:-12.15 158:9.88 159:1.45 160:-9.37 161:15.03 162:-7.14 163:-4.56 164:-13.1 165:-4.36 166:-0.76 167:5.16 168:0.59 169:13.25 170:-9.97 171:7.85 172:0.95 173:-4.87 174:4.85 175:-8.4 176:-1.63 177:-14.72 178:3.09 179:4.7 180:-0.64 181:3.92 182:12.93 183:-4.75 184:9.16 185:0.13 186:-6.17 187:3.31 188:-10.78 189:-1.3 190:-8.42 191:10.08 192:14.6 193:10.41 194:2.38 195:21.58 196:-10.03 197:16.62 198:-10.35 199:-10.87 200:5.19 201:-15.08 202:17.08 203:-2.08 204:12.39 205:-2.65 206:6.04 207:-7.43 
8.981263472242521e-05 0:15.66 1:1.43 2:5.56 3:-5.43 4:0.9 5:5.01 6:9.2 7:7.4 8:-6.73 9:20.03 10:-2.33 11:4.42 12:-12.58 13:17.25 14:0.2 15:-3.61 16:-3.98 17:-2.39 18:4.1 19:-6.1 20:13.75 21:-1.22 22:36.06 23:-13.34 24:-9.68 25:-8.16 26:16.13 27:6.07 28:2.54 29:-12.34 30:-22.13 31:-3.88 32:6.37 33:-6.27 34:-16.1 35:-1.32 36:-4.21 37:21.92 38:-15.12 39:18.07 40:5.7 41:-10.88 42:-9.22 43:-8.79 44:-2.26 45:-7.81 46:1.81 47:-7.95 48:4.65 49:-10.57 50:20.89 51:-14.54 52:18.53 53:-14.06 54:16.19 55:25.38 56:-1.98 57:-19.03 58:-30.56 59:11.12 60:-24.99 61:-2.32 62:-7.13 63:19.29 64:-0.9 65:21.51 66:-44.39 67:27.68 68:-14.86 69:-2.56 70:5.68 71:-19.3 72:12.39 73:-17.99 74:6.99 75:-6.26 76:0.8 77:2.5 78:15.83 79:3.19 80:7.19 81:-11.92 82:12.12 83:6.02 84:-2.26 85:3.08 86:-17.64 87:13.94 88:-5.31 89:3.35 90:-17.95 91:18.17 92:-2.97 93:-7.23 94:-10.6 95:5.31 96:0.83 97:-17.75 98:20.68 99:-1.77 100:31.21 101:-23.28 102:-9.68 103:-17.63 104:16.74 105:-23.77 106:-12.76 107:-1.24 108:-5.4 109:16.81 110:-5.12 111:11.87 112:-3.18 113:22.15 114:10.06 115:-9.88 116:0.33 117:18.16 118:-2.3 119:-1.61 120:-15.3 121:-14.97 122:20.78 123:-9.13 124:22.86 125:-16.17 126:32.82 127:-4.41 128:-3.87 129:-31.22 130:19.64 131:-38.02 132:16.56 133:6.16 134:-25.12 135:21.71 136:-4.65 137:-3.15 138:7.85 139:13.81 140:-6.16 141:-1.74 142:0.92 143:14.11 144:1.06 145:6.58 146:8.32 147:-3.07 148:0.87 149:-10.37 150:-10.26 151:-10.83 152:22.37 153:9.77 154:-1.54 155:-13.75 156:15.17 157:-0.28 158:-1.67 159:4.49 160:-5.65 161:-10.28 162:-6.92 163:-8.33 164:-6.8 165:34.98 166:8.19 167:-6.29 168:-13.51 169:15.29 170:-0.7 171:-2.71 172:9.01 173:-4.38 174:-13.43 175:-10.66 176:-0.96 177:-0.82 178:39.41 179:7.65 180:-11.75 181:-3.96 182:21.76 183:-11.68 184:11.31 185:-14.17 186:4.8 187:2.61 188:-10.64 189:15.99 190:-8.97 191:16.28 192:-2.54 193:4.96 194:-2.52 
1.954663160561884e-05 0:16.78 1:-14.99 2:-7.03 3:-26.55 4:18.75 5:-10.57 6:11.68 7:-11.81 8:-1.7 9:-4.21 10:4.9 11:-7.24 12:-12.88 13:21.64 14:-9.59 15:-15.09 16:14.58 17:26.76 18:-41.26 19:-19.39 20:-9.96 21:10.73 22:18.41 23:-4.24 24:12.81 25:-15.11 26:20.73 27:-31.19 28:-6.28 29:-10.61 30:26.76 31:-20.92 32:3.01 33:-14.6 34:-5.33 35:10.48 36:10.54 37:15.31 38:2.47 39:22.22 40:-2.05 41:-9.57 42:4.77 43:5.85 44:-38.76 45:-10.97 46:-27.72 47:-19.09 48:-6.18 49:-14.35 50:36.33 51:-14.96 52:24.86 53:-40.26 54:21.49 55:1.47 56:5.58 57:-23.35 58:-12.94 59:-21.35 60:1.01 61:-11.32 62:-15.23 63:5.12 64:2.49 65:22.4 66:-40.61 67:27.36 68:14.6 69:23.05 70:-13.5 71:-20.04 72:-21.32 73:0.25 74:1.85 75:-9.56 76:4.95 77:2.2 78:23.05 79:-39.63 80:24.09 81:12.08 82:8.9 83:-9.56 84:8.14 85:-18.9 86:-8.33 87:4.02 88:-16.25 89:0.04 90:10.44 91:19.01 92:-0.38 93:9.66 94:-0.9 95:12.67 96:-10.77 97:2.63 98:-22.51 99:-14.51 100:-18.92 101:-3.64 102:10.42 103:1.41 104:20.98 105:-1.41 106:-12.7 107:-10.21 108:18.25 109:-22.29 110:-7.38 111:-12.85 112:-13.89 113:21.45 114:-3.03 115:11.24 116:-30.81 117:19.55 118:-22.19 119:-9.83 120:-8 121:20.25 122:-10.4 123:-2.46 124:-1.47 125:-11.64 126:3.37 127:4.33 128:3.08 129:-10.59 130:22.79 131:-5.7 132:-20.71 133:-16.96 134:5.99 135:-4.04 136:6.46 137:-4.13 138:-21.95 139:14.85 140:-9.01 141:7.09 142:-35.71 143:24.25 144:-35.07 145:5.58 146:-17.09 147:-2.64 148:7.83 149:18.43 150:-9.51 151:0.14 152:17.31 153:0.63 154:-2.94 155:-14.88 156:18.25 157:-1.95 158:6.76 159:-11.84 160:13.76 161:-12.08 162:-15.91 163:-32.86 164:-13.24 165:7.26 166:4.13 167:28.4 168:1.63 169:18.58 170:-0.11 171:3.27 172:-3.54 173:23.15 174:-21.53 175:-31.78 176:-25.05 177:-1.9 178:26.36 179:-9.48 180:27.04 181:-13.34 182:19.45 183:-8.86 184:-9.34 185:17.36 186:34.17 187:-34.92 188:-16.5 189:-18.86 190:-9.58 191:15.95 192:-13.55 193:7.34 194:0.47 195:25.06 196:-21.81 197:8.24 198:-4.76 199:12.66 200:-31.43 201:-20.3 202:-22.61 203:-8.69 204:-12.12 205:0.12 206:18.46 207:-0.23 
2.521327653786243e-05 0:16.92 1:-9.45 2:11.72 3:-4.08 4:-2.46 5:28.95 6:-2.84 7:-5.29 8:-5.31 9:-0.38 10:-10.49 11:-7.55 12:1.66 13:20.99 14:8.44 15:-10.18 16:-38.4 17:-22.37 18:6.4 19:-2.74 20:3.27 21:-1.42 22:14.49 23:5.97 24:-6.9 25:-14.9 26:17.87 27:-16.36 28:14.58 29:-8.48 30:0.58 31:8.62 32:1.35 33:-5.24 34:1.74 35:5.69 36:-4.66 37:3.53 38:0.03 39:21.76 40:5.06 41:-4.71 42:-30.84 43:-32.84 44:-17.26 45:-19.32 46:-5.39 47:-12.34 48:-8.87 49:3.1 50:6.56 51:-8.67 52:23.69 53:-34.93 54:20.29 55:-2.15 56:-29.71 57:-1.4 58:-7.82 59:-29.07 60:8.68 61:4.72 62:-11.51 63:17.66 64:-2.2 65:18.52 66:-1.86 67:3.38 68:-4.3 69:-5.15 70:-20.09 71:-36.94 72:-4.53 73:-15.44 74:1.27 75:-7.46 76:0.7 77:3.05 78:19.11 79:-15.15 80:14.6 81:-3.35 82:-13.43 83:0.3 84:-6.45 85:-20.22 86:-1.76 87:6.54 88:-5.18 89:2.83 90:1.2 91:17.93 92:-14.96 93:12.72 94:-11.6 95:-5.35 96:9.07 97:-7.17 98:-12.07 99:-3.11 100:4.51 101:-14.07 102:3.62 103:3.13 104:21.83 105:4.59 106:-17.26 107:-44.48 108:-24.48 109:0.05 110:3.78 111:-4.44 112:-29.05 113:4.08 114:1.49 115:-10.41 116:-21.46 117:16.78 118:-11.06 119:1.86 120:-14.44 121:-2.2 122:9.25 123:-5.68 124:6.22 125:-6.68 126:5.65 127:-10.2 128:-3.02 129:-17.31 130:23.3 131:-2.72 132:-5.56 133:-43.2 134:-45.03 135:-10.82 136:26.76 137:-11.14 138:-11.92 139:12.52 140:-19.83 141:8.87 142:-3.2 143:21.48 144:-28.33 145:7.64 146:-12.29 147:-25.4 148:-6.47 149:34.23 150:-15.89 151:-9.46 152:29.29 153:-22.01 154:-13.41 155:8.52 156:19.25 157:3.01 158:3.9 159:-16.36 160:-26.16 161:2.32 162:-0.67 163:-11.29 164:-26.34 165:-7.1 166:-6.37 167:20.93 168:8.73 169:19.64 170:1.95 171:-5.93 172:-15.02 173:-19.97 174:3.02 175:-15.77 176:-14.48 177:-27.12 178:17.06 179:7.99 180:12.99 181:-12 182:18.52 183:-3.32 184:2.16 185:-12.15 186:-9.97 187:-4.77 188:-27.9 189:-20.19 190:-6.77 191:17.65 192:3.87 193:6.94 194:-3.85 195:23.92 196:-13.16 197:9.17 198:-26.32 199:-36.95 200:-0.52 201:-5.54 202:-21.1 203:8.18 204:2.08 205:-4.75 206:18.19 207:-15.47 
2.40766755827421e-05 0:19.67 1:6.69 2:-3.22 3:-6.51 4:-4.18 5:-14.41 6:-5.34 7:-12.08 8:-18.03 9:-18.34 10:-10.08 11:2.23 12:-13.29 13:22.29 14:1.88 15:-22.56 16:-1.07 17:-12.64 18:-29.32 19:-6.45 20:-16.92 21:1.55 22:0.89 23:-12.39 24:-13.25 25:-14.76 26:19.65 27:-4.66 28:2.17 29:-9.51 30:0.49 31:-22.23 32:-13.61 33:-9.3 34:-12.89 35:-14.21 36:-10.44 37:6.11 38:-12.33 39:22.22 40:6.4 41:-20.05 42:-9.64 43:-19.39 44:-29.8 45:-17.65 46:-29.86 47:-13.9 48:-2.04 49:-0.37 50:6.05 51:-16.6 52:24.95 53:-43.92 54:25.3 55:-12.21 56:-8.89 57:-10.17 58:-19.87 59:-5.71 60:-34.92 61:11.66 62:-3.3 63:-18.54 64:-1.1 65:19.93 66:-14.62 67:12.48 68:25.8 69:6.43 70:-32.89 71:-22.61 72:-10.28 73:-27.74 74:2.38 75:-12.63 76:-11.84 77:13.85 78:21.88 79:-20.66 80:26.51 81:-3.79 82:0.68 83:-10.44 84:-30.61 85:2.7 86:-29.15 87:-1.79 88:-6.53 89:-13.59 90:0.98 91:19.37 92:-1.21 93:20.8 94:9.88 95:3.31 96:-8.68 97:-20.38 98:-11.49 99:-16.53 100:-17.9 101:-10.27 102:-12.59 103:-10.83 104:19.96 105:-0.37 106:1.81 107:10.86 108:-2.72 109:-28.97 110:-15.84 111:-9.49 112:-12.51 113:-12.68 114:-14.29 115:-11.16 116:-9.79 117:16.98 118:-13.15 119:8.84 120:0.95 121:-0.98 122:-12.2 123:-14.43 124:-16.36 125:-17.17 126:-13.26 127:-13.13 128:-7.65 129:-16.33 130:21.95 131:-1.27 132:-19.73 133:-7.67 134:-20.86 135:-23.89 136:-9.96 137:-17.09 138:-11.96 139:12.08 140:-0.53 141:-2.23 142:-18.73 143:22.07 144:-26.1 145:10.34 146:-18.98 147:-2.91 148:-3.62 149:-16.88 150:1.01 151:-9.53 152:2.03 153:7.94 154:-6.57 155:-11.86 156:19.61 157:1.38 158:-2.63 159:-13.55 160:-16.96 161:-27.39 162:-4.6 163:-12.71 164:-23.63 165:-4.26 166:-9.74 167:5.43 168:17.07 169:21.18 170:4.31 171:-16.98 172:-11.82 173:-12.58 174:-32.42 175:-9 176:-17.8 177:-26 178:10.71 179:5.34 180:-0.71 181:1.5 182:19.04 183:-2.26 184:-2.96 185:2.47 186:-4.24 187:-29.19 188:-14.7 189:-21.72 190:-17.82 191:4.19 192:10.61 193:-1.94 194:-17.24 195:25.22 196:-14.9 197:6.17 198:-20.03 199:-6.48 200:-20.6 201:-25.34 202:-3.42 203:-24.55 204:9.52 205:-4.87 206:-9.63 207:-9.39 
1.486597503397028e-05 0:19.01 1:3.69 2:10.89 3:5.31 4:11.8 5:-8.77 6:-11.96 7:-15.04 8:-21.94 9:-24.13 10:-8.91 11:3.66 12:-5.3 13:21.56 14:4.7 15:-17.2 16:-17.94 17:-3.33 18:-26.67 19:-13.88 20:-15.11 21:-6.93 22:-6.42 23:-6.52 24:-16.26 25:-12.49 26:18.81 27:-1.54 28:5.99 29:-16.12 30:-3.7 31:-8.75 32:-18.24 33:-6.66 34:-7.05 35:-15.76 36:-16.53 37:1.91 38:0.81 39:21.59 40:9.3 41:-11.46 42:-22.31 43:-13.1 44:-21.21 45:-12.08 46:-12.48 47:-23.75 48:-3.05 49:4.23 50:6.73 51:-1.05 52:24.34 53:-37.46 54:26.84 55:-16.24 56:6.9 57:0.23 58:-18.33 59:21.7 60:-29.33 61:13.13 62:-17.13 63:-16.68 64:8.17 65:21.5 66:-15.03 67:14.58 68:20.4 69:6.71 70:-40.33 71:-23.68 72:-4.95 73:-37.81 75:-33.22 76:-0.16 77:11.88 78:22.11 79:-20.05 80:28.6 81:-5.39 82:10.11 83:-0.34 84:-38.41 85:12.1 86:-32.47 87:5.22 88:-5.66 89:-7.78 90:11.07 91:19.19 92:-4.41 93:17.8 94:-0.08 95:5.89 96:-16.91 97:-21.03 98:-4.65 99:-31.23 100:-8.56 101:-16.86 102:-7.71 103:-14.14 104:21.12 105:8.67 106:-17.24 107:-15.28 108:-2.25 109:-19.5 110:-12.15 111:-12.44 112:-14.14 113:2.34 114:-9.77 115:-16.95 116:-10.13 117:17.96 118:-12.13 119:9.37 120:-4.14 121:5.86 122:4.34 123:-6.15 124:-7.24 125:-7.54 126:-0.93 127:-5.98 128:-6.07 129:-7.89 130:21.59 131:7.25 132:-13.07 133:-19.06 134:-8.23 135:-18.46 136:-17.53 137:-4.76 138:-2.12 139:7.88 140:16.02 141:-3.92 142:-20.77 143:22.15 144:-18.52 145:31.51 146:-3.19 147:2.44 148:16.46 149:-28.89 150:7.98 151:-10.26 152:-4.25 153:-0.05 154:-17.74 155:-3.03 156:19.55 157:5.88 158:9.14 159:-14.55 160:-6.06 161:-3.48 162:-15.23 163:-14.04 164:-13.9 165:-10.42 166:-5.37 167:7.57 168:0.3 169:19.55 170:3.7 171:-1.4 172:-20.53 173:-11.29 174:-11.06 175:-17.28 176:-14.24 177:-6.58 178:5.68 179:2.77 180:3.32 181:-8.76 182:18.37 183:-11.09 184:10.3 185:-2.19 186:0.9 187:-9.16 188:-2.1 189:-12.26 190:-4.21 191:3.33 192:-3.84 193:-10.87 194:-2.38 195:24.76 196:-9.05 197:8.43 198:-24.02 199:-2.03 200:-10.29 201:-25.42 202:8.07 203:-28.92 204:15.46 205:-5.73 206:-7.7 207:-3.46 
7.419454191807468e-05 0:19.63 1:-17.09 2:4.55 3:-9.89 4:-26.67 5:-7.94 6:-9.32 7:26.46 8:-7.47 9:-10.07 10:-17.78 11:-6.75 12:-9.82 13:21.64 14:-4.76 15:-1.15 16:-20.17 17:-26.27 18:-0.83 19:-21.75 20:12.55 21:-8.28 22:6.12 23:8.4 24:-2.6 25:-13.07 26:21.03 27:-13.8 28:8.28 29:-3.42 30:-11.24 31:-11.14 32:-27.18 33:-2.93 34:-9.68 35:2.25 36:-6.79 37:-1.07 38:1.53 39:22.89 40:-4.55 41:-0.26 42:-16.39 43:-35.23 44:-16.37 45:-35.56 46:5.23 47:-21.55 48:-14.47 49:13.09 50:3.58 51:-18.15 52:25.33 53:-43.26 54:26.36 55:3.72 56:-31.13 57:0.09 58:-30.2 59:-11.54 60:0.29 61:-1.99 62:-5.71 63:9.51 64:-21.14 65:20.73 66:-16.18 67:12.07 68:4.35 69:-18.71 70:-16.57 71:-51.09 72:-19.42 73:-13.87 74:2.29 75:-11.2 76:2.47 77:-9.47 78:21.7 79:-22.91 80:13.54 81:6.48 82:-15.38 83:-10.72 84:-35.74 85:-11.8 86:-16.15 87:3.01 88:-6.47 89:1.16 90:-1.15 91:20.26 92:-12.87 93:8.07 94:-12.24 95:-31.59 96:-6.97 97:-12.76 98:14.74 99:-11.67 100:-8.67 101:-14.95 102:3.04 103:-6.67 104:21.43 105:-4.63 106:-1.69 107:-31.37 108:-31.85 109:5.61 110:-11.12 111:7.38 112:-15.66 113:5.14 114:4.08 115:-4.36 116:-19.18 117:20.22 118:-25.8 119:2.03 120:-2.02 121:-12.73 122:-6.08 123:-21.03 124:6.9 125:-7.19 126:8.83 127:-2.5 128:0.64 129:-3.89 130:22.63 131:-5.28 132:0.98 133:-32.01 134:-39.03 135:-1.15 136:-6.7 137:20.22 138:-21.49 139:-6.23 140:-4.36 141:-1.46 142:-6.44 143:24.02 144:-33.82 145:9.26 146:-5.85 147:-33.23 148:-2.76 149:-8.58 150:-10.94 151:-3.3 152:21.2 153:-6.07 154:1.48 155:-4.79 156:21.1 157:-6.97 158:12.29 159:-9.41 160:-29.06 161:-14.71 162:-23.25 163:-5.2 164:-22.63 165:-4.97 166:-6.33 167:14.96 168:3.87 169:20.49 170:-8.44 171:7.44 172:-11.31 173:-23.64 174:-12.63 175:-39.48 176:-5.08 177:-14.54 178:17.06 179:16.09 180:14.26 181:-11.96 182:21.64 183:-18.76 184:6.62 185:-1.17 186:-13.1 187:-14.27 188:-37.48 189:-4.1 190:-7.72 191:13.66 192:4.27 193:0.52 194:-4.22 195:23.43 196:-17.04 197:2.6 198:-12.16 199:-23.24 200:-7.02 201:-20.03 202:6.01 203:-6.83 204:6.78 205:-2.83 206:-0.78 207:-8.1 
1.050874558874123e-05 0:19.01 1:6.23 2:1.96 3:-25.78 4:-9.54 5:-7.83 6:5.07 7:-7.23 8:-19.37 9:-11.41 10:-7.37 11:-1.47 12:-2.72 13:21.93 14:3.56 15:-16.96 16:-0.93 17:4.75 18:-31.56 19:-13.11 20:-20.48 21:5.8 22:22.64 23:-15.38 24:9.88 25:-20.96 26:21.11 27:-6.75 28:-6.43 29:-7.19 30:25.84 31:-20.27 32:-19.99 33:-15.34 34:-2.37 35:4.53 36:-16.76 37:-0.71 38:7.93 39:21.84 40:11.68 41:-9.01 42:-15.81 43:10.37 44:-20.29 45:-13.41 46:-25.59 47:-18.84 48:-1.9 49:-15.23 50:26.13 51:-7.46 52:21.83 53:-27 54:-0.22 55:8.69 56:12.25 57:-28.32 58:-13.15 59:-7.47 60:4.72 61:-7.42 62:-11.99 63:15.5 64:-5.49 65:20.65 66:-7.75 67:6.13 68:17.03 69:21.58 70:-30.64 71:-23.61 72:-16.97 73:-10.4 74:-17.4 75:-18.7 76:18.7 77:-14.92 78:21.29 79:-26.7 80:0.07 81:19.47 82:9.03 83:0.33 84:7.53 85:-31.22 86:-3.56 87:21.13 88:-13.26 89:4.6 90:-10.75 91:19.78 92:9.42 93:6.18 94:-20.44 95:-3.2 96:-7.88 97:-0.52 98:-7.08 99:-21.8 100:-11.08 101:7.91 102:9.53 103:-9.4 104:21.14 105:4.33 106:-13.91 107:-6.65 108:14.39 109:-17.57 110:-15.83 111:-12.16 112:-2.59 113:17.33 114:-4.87 115:-3.2 116:-15.93 117:20.03 118:-16.29 119:-21.36 120:-26.88 121:13.14 122:2.78 123:10.33 124:6.3 125:-22.45 126:1.33 127:2.96 128:-3.29 129:-12.25 130:22.19 131:5.14 132:-19.52 133:-19.11 134:5.73 135:-13.84 136:5.8 137:3.18 138:-15.04 139:12.96 140:0.38 141:0.57 142:-35.31 143:21.83 144:-36.03 145:-8.59 146:-0.36 147:-1.91 148:-1.17 149:18.38 150:-26.22 151:-14.27 152:21.06 153:7.31 154:-2.25 155:-7.57 156:16.73 157:-1.69 158:6.54 159:-11.64 160:16.87 161:0.67 162:-7.3 163:-12.34 164:-9.54 165:0.51 166:-9.06 167:-2.89 168:-6.26 169:17.61 170:-4.71 171:2.01 172:-7.67 173:22.98 174:-5.63 175:-26.22 176:-27.97 177:-5.84 178:11.24 179:-6.63 180:10.66 181:1.71 182:20.36 183:-20.2 184:-13.49 185:1.28 186:19.02 187:-16.98 188:-5.94 189:-3.59 190:-10.66 191:1.75 192:-1.9 193:-9 194:2.96 195:23.89 196:-3.63 197:-7.82 198:-9.56 199:1.45 200:-18.22 201:-5.02 202:-21.97 203:-6.72 204:6.18 205:-6.76 206:6.52 207:-12.77 
4.229958240057477e-05 0:20.19 1:4.75 2:-5.08 3:-3.47 4:-5.15 5:-17.25 6:16.88 7:-4.17 8:-0.71 9:9.25 10:-19.14 11:-14.4 12:4.09 13:23.17 14:8.5 15:-30.19 16:-8.59 17:-10.61 18:-23.13 19:46.51 20:-38.68 21:-0.43 22:16.06 23:-3.9 24:1.66 25:-11.93 26:18.49 27:6.39 28:-5.5 29:-4.59 30:-0.69 31:-13.77 32:20.57 33:-22.51 34:-18.36 35:5.07 36:9.2 37:8.7 38:-10.95 39:23.18 40:0.43 41:-16.97 42:-3.73 43:-4.95 44:-43.78 45:6.59 46:-45.82 47:-4.65 48:2.23 49:-6.88 50:18 51:0.15 52:23.48 53:-32.32 54:18.13 55:-9.25 56:7.67 57:-5.26 58:-40.52 59:-16.09 60:4.22 61:0.5 62:1.24 63:-12.81 64:14.79 65:22.24 66:-10.18 67:-9.71 68:19.77 69:21.16 70:-40.06 71:-31.46 72:-26.77 73:-0.12 74:-6.92 75:-4.19 76:2.43 77:3.59 78:20.31 79:-17.4 80:13.7 81:5.34 82:4.16 83:-6.76 84:-15.38 85:-20.26 86:6.17 87:-2.34 88:-6.54 89:-2.08 90:8.8 91:20.09 92:8.16 93:-10.18 94:3.89 95:-10.82 96:-22.49 97:25.94 98:-23.44 99:-9.09 100:10.49 101:-13.01 102:-0.14 103:5.84 104:21.59 105:8.79 106:-14.16 107:-4.6 108:-10.28 109:-18.33 110:26.76 111:-34.31 112:-11.03 113:15.99 114:-8.52 115:3.55 116:-1.1 117:16.39 118:-4.1 119:-9.16 120:-14.5 121:-5.45 122:-12.38 123:-6.16 124:-10.58 125:-15.43 126:4.56 127:-3.66 128:5.34 129:-3.35 130:22.66 131:12.43 132:-4.47 133:-6.71 134:-32.71 135:-40.77 136:33.68 137:-32.22 138:-3.37 139:2.11 140:-1.99 141:9.18 142:6.98 143:21.65 144:-25.25 145:9.93 146:-12.14 147:-17.63 148:-9.52 149:-13.06 150:-29.51 151:5.15 152:-5.35 153:1.47 154:6.75 155:2.99 156:19.31 157:3.57 158:-6.47 159:8.05 160:-17.64 161:-24.44 162:3.05 163:-30.79 164:-26.15 165:-7.33 166:2.55 167:21.5 168:-4.49 169:21.22 170:3.02 171:-13.33 172:5.74 173:-0.05 174:-38.35 175:-1.32 176:-46.17 177:-12.49 178:7.9 179:12.19 180:22.12 181:-6.88 182:20.84 183:-4.99 184:-14.41 185:15.42 186:-4.08 187:-34.62 188:-9.63 189:-43.04 190:-4.13 191:8.5 192:-3.76 193:14.83 194:-8.66 195:24.81 196:-7.08 197:-4.9 198:-12.36 199:-11.69 200:-18.76 201:-3.77 202:-18.44 203:-10.12 204:5.36 205:6.86 206:2.23 207:6.29 
7.151525650037924e-06 0:18.11 1:14.5 2:2.23 3:-5.38 4:8.13 5:-14.98 6:-0.48 7:-31.31 8:3.34 9:-4.67 10:-23.22 11:-10.74 12:-20.68 13:22.47 14:13.79 15:-15.96 16:-23.77 17:-18.22 18:6.8 19:25.96 20:-37.63 21:11.41 22:7.6 23:-7.97 24:4.25 25:-14.46 26:19.82 27:0.33 28:-4.88 29:-14.91 30:-0.45 31:1 32:-7.25 33:-13.9 34:-6.06 35:5.04 36:12.23 37:3.22 38:-9.87 39:22.88 40:9.23 41:-21.79 42:-9.12 43:-10.67 44:-25.38 45:-1.4 46:-52.08 47:4.82 48:0.47 49:-15.39 50:22.01 51:-10.41 52:23.53 53:-37.1 54:20.8 55:-9.28 56:-6.2 57:15.53 58:-53.03 59:-27.02 60:26.11 61:-9.08 62:8.73 63:6.48 64:11.18 65:22.2 66:-10.52 67:-8.29 68:27.83 69:10.12 70:-26.94 71:-40.9 72:-47.58 73:16.93 74:-7.7 75:-19.9 76:21.6 77:-5.32 78:21.41 79:-27.3 80:17.6 81:4.1 82:-11.15 83:6.44 84:-31.36 85:-26.15 86:19.47 87:-3.31 88:4.86 89:2.82 90:2.43 91:18.6 92:8.31 93:-3.35 94:-3.13 95:0.75 96:-11.03 97:7.7 98:-21.9 99:-11.29 100:-13.82 101:-10.12 102:-9.29 103:-2.07 104:21.96 105:10.92 106:-17.91 107:-18.72 108:-14.7 109:-3.59 110:26.72 111:-38.43 112:-4.97 113:10.12 114:-12.09 115:2.2 116:-10.86 117:17.26 118:9.3 119:-1.14 120:-8.77 121:-11.09 122:0.12 123:7.73 124:-23.63 125:-19.96 126:8.04 127:8.35 128:6.09 129:-7.65 130:22.5 131:13.81 132:-11.1 133:-6.8 134:-39.46 135:-26.97 136:32.97 137:-39.8 138:-2.46 139:-7.28 140:-3.8 141:15.3 142:13.83 143:21.37 144:-24.22 145:16.44 146:-12.65 147:-24.16 148:3.89 149:-17.49 150:-37.12 151:8.69 152:-4.11 153:7.67 154:7.31 155:-10.68 156:20.23 157:4.67 158:-14.73 159:8.88 160:-9.61 161:-17.42 162:-3.52 163:-53.11 164:-17.25 165:11.56 166:1.66 167:24.62 168:-8.62 169:20.68 170:0.53 171:-19.1 172:10.91 173:-9.29 174:-26.04 175:-12.48 176:-52.31 177:2.52 178:23.42 179:-2.85 180:18.41 181:-10.29 182:18.85 183:-0.4 184:-7.53 185:14.56 186:-2.55 187:-14.69 188:-13.44 189:-51.01 190:-4.92 191:18.51 192:-8.29 193:2.67 194:-6.02 195:24.35 196:-7.5 197:-3.88 198:-17.62 199:-15.64 200:4.08 201:-22.24 202:-23.26 203:5.99 204:-11.08 205:3.03 206:4.46 207:-0.56 
2.277739117256166e-05 0:18.55 1:-2.23 2:6.09 3:-12.73 4:-5.26 5:-6.42 6:9.39 7:2.45 8:-3.42 9:-23.37 10:0.24 11:19.5 12:-12.07 13:21.31 14:-8.34 15:-9.4 16:-12.42 17:-7.47 18:-7.48 19:9.38 20:-9.9 21:4.98 22:25.36 23:-0.74 24:9.11 25:-31.41 26:20.66 27:-21.35 28:12.7 29:-7.6 30:10.53 31:-15.62 32:5.63 33:-14.15 34:2.9 35:10 36:2.14 37:5.18 38:3.12 39:22.08 40:-4.34 41:-5.42 42:5.29 43:-2.12 44:-28.37 45:1.38 46:-34.47 47:-17.25 48:1.97 49:-22.38 50:33.06 51:-13.85 52:24.25 53:-34.09 54:24.44 55:-0.53 56:-11.72 57:-13.75 58:4.37 59:-19.7 60:-0.66 61:-13.17 62:-9.4 63:11.75 64:2.33 65:21.06 66:-15.18 67:17.9 68:2.16 69:0.37 70:-19.47 71:-9.69 72:-17.66 73:-2.82 74:-11.23 75:-5.1 76:25.18 77:-20.07 78:23.61 79:-39.57 80:18.27 81:8.77 82:-5.91 83:-13.66 84:14.8 85:-23.76 86:9.55 87:20.86 88:-7.09 89:2.78 90:3.31 91:18.34 92:1.52 93:10 94:-6.53 95:-5.4 96:-18.05 97:5.55 98:-17.08 99:-14.02 100:4.33 101:-1.45 102:6.28 103:-5.03 104:21.14 105:-7.14 106:-9.18 107:-0.29 108:-9.4 109:-22.44 110:2.54 111:-12.74 112:13.77 113:22.62 114:-15.4 115:20.36 116:-34.3 117:18.47 118:-12.67 119:-2.87 120:-8.59 121:8.32 122:-12.31 123:3.65 124:-7.94 125:1.06 126:11.93 127:15.74 128:11.69 129:-4.16 130:22.26 131:-4.79 132:-11.74 133:-17.23 134:-20.75 135:-7.87 136:1.8 137:11.47 138:5.4 139:6.38 140:-0.06 141:34.64 142:-43.06 143:22.64 144:-35.06 145:10.33 146:0.85 147:-12.07 148:-17.23 149:19 150:-8.07 151:-3.12 152:10.62 153:17.09 154:8.56 155:-4.98 156:17.67 157:-2.86 158:14.06 159:-7.07 160:-5.56 161:-10.7 162:-1.1 163:-18.44 164:5.55 165:3.02 166:1.67 167:10.91 168:2.5 169:18.01 170:-3.2 171:6.73 172:-10.51 173:-4.92 174:-0.52 175:-15.3 176:-24.04 177:8.36 178:10.44 179:-0.79 180:13.76 181:5.23 182:19.39 183:-15.93 184:5.16 185:9.07 186:-0.07 187:-14.9 188:4.26 189:-7.64 190:2.44 191:12.54 192:-0.82 193:5.87 194:5.42 195:22.29 196:-10.52 197:2 198:-15.4 199:-3.1 200:-13.18 201:-0.81 202:-14.73 203:-3.81 204:9.95 205:2.35 206:5.68 207:-7.41 
7.831919364959291e-05 0:19.08 1:6.23 2:4.8 3:6.16 4:-2.97 5:-0.12 6:-11.96 7:-9.18 8:-4.21 9:5.81 10:-2.57 11:2.33 12:-6.51 13:21.35 14:8.15 15:-16.28 16:1.06 17:-17.61 18:-11.05 19:-15.34 20:-26.52 21:-5.2 22:18.27 23:-1.85 24:10.11 25:-17.2 26:18.85 27:-3.21 28:5.98 29:8.21 30:1.05 31:-9.77 32:-27.06 33:-14.63 34:-1.01 35:1.66 36:-4.99 37:9.99 38:1.39 39:22.9 40:6.54 41:-21.89 42:17.88 43:-18.49 44:-32.31 45:-19.88 46:-32.47 47:-10.49 48:10.62 49:-10.99 50:38.14 51:-25.59 52:22.94 53:-32.59 54:22.65 55:5.99 56:-11.96 57:0.43 58:-52.03 59:-6.16 60:-9.93 61:-10.55 62:-2.83 63:7.13 64:2.19 65:18.84 66:-1.69 67:5.58 68:31.57 69:-0.01 70:-22.79 71:-49.28 72:-13.15 73:-7.27 74:-2.19 75:-6.86 76:12.75 77:-0.31 78:20.92 79:-18.81 80:16.79 81:10.81 82:-9.29 83:10.56 84:-43.17 85:-6.04 86:-13.04 87:-9.93 88:-3.53 89:-4.46 90:8.44 91:18.91 92:5.53 93:-1.99 94:9.37 95:-13.19 96:-13.5 97:-13.09 98:-17.52 99:-14.88 100:-2.09 101:-19.39 102:-4.69 103:-14.37 104:21.65 105:7.47 106:-21.02 107:-2.28 108:-28.35 109:-13.87 110:-4.4 111:-33.74 112:-15.61 113:19.26 114:-20.64 115:12.36 116:-13.72 117:18.3 118:-12.83 119:-10.9 120:12.61 121:-4.63 122:1.39 123:-21.94 124:-9.83 125:-16.13 126:5.6 127:-9.62 128:-1.58 129:5.57 130:21.18 131:4.43 132:-16.73 133:-9.14 134:-8.55 135:11.64 136:-27.64 137:6.2 138:-32.18 139:21.94 140:-9.85 141:-7.38 142:-20.64 143:22.31 144:-27.81 145:15.46 146:3.47 147:-10.69 148:20.05 149:-42.02 150:-13.42 151:-1.6 152:-8.4 153:-3.55 154:-1.2 155:-16.4 156:18.52 157:10.51 158:16.5 159:-0.95 160:-15.39 161:-5.53 162:-30.45 163:-17.82 164:-3.81 165:2.26 166:-1.42 167:2.65 168:-6.86 169:20.19 170:13.24 171:-2.68 172:-11.16 173:-10.24 174:-9.59 175:-25.08 176:-33.62 177:-4.32 178:14.77 179:15.03 180:16.7 181:-2.94 182:21.18 183:-24.64 184:11.54 185:22.72 186:-16.04 187:0.79 188:-14.64 189:-31.81 190:-4.89 191:10.29 192:-20 193:8.96 194:-5.9 195:24.13 196:-8.18 197:-1.13 198:-1.26 199:-17.96 200:-4.35 201:-31.53 202:-9.91 203:-15.43 204:6.9 205:6.83 206:8.58 207:-11.72 
8.949937046792009e-05 0:16.57 1:-0.8 2:8.2 3:0.99 4:-2.97 5:2.32 6:-12 7:-4.86 8:-11.24 9:0.73 10:-1.91 11:4.01 12:-0.25 13:20.51 14:19.34 15:-14.68 16:-27.97 17:-15.3 18:-4.39 19:4.14 20:6.66 21:-20.2 22:1.33 23:8.39 24:3.29 25:-17.12 26:19.3 27:3.46 28:6.96 29:-17.71 30:-12.33 31:-11.77 32:-10.68 33:-13.51 34:-10.99 35:8.23 36:9.82 37:4.61 38:-8.27 39:22.41 40:6.84 41:-7.78 42:-17.19 43:-31.26 44:-4.66 45:-25.49 46:-10.06 47:-15.4 48:-11.02 49:-0.55 50:26.77 51:-11.72 52:24.4 53:-32.5 54:19.5 55:2.66 56:-36.37 57:-10.01 58:-14.07 59:-41.17 60:-11.07 61:-1.07 62:-13.9 63:9.37 64:-0.02 65:18.73 66:-2.18 67:8.71 68:19.74 69:-15.6 70:-14.59 71:-22.26 72:-22.9 73:-9.98 74:2.34 75:-12.95 76:9.12 77:-1.28 78:22.36 79:-29.41 80:18.43 81:20.56 82:-29.18 83:-19.13 84:10.86 85:-31.16 86:-26.19 87:16.07 88:-11.72 89:-9.15 90:7.27 91:17.9 92:-4.53 93:17.29 94:19.65 95:-22.41 96:-10.9 97:2.78 98:-28.93 99:-37.56 100:4.85 101:-14.3 102:-11.12 103:11.12 104:20.21 105:8.35 106:-4.84 107:-17.35 108:-38.04 109:-7.03 110:-1.84 111:-20.52 112:-35.82 113:-3.21 114:-4.17 115:-20.46 116:-19.04 117:17.75 118:-9.23 119:2.34 120:-7.16 121:-29.51 122:-3.07 123:-4.61 124:-13.37 125:-24 126:-3.16 127:-4.82 128:2.47 129:1.87 130:21.88 131:14.23 132:-3.59 133:-28.2 134:-41.64 135:-2.99 136:-1.97 137:19.72 138:-24.96 139:-5.26 140:-14.69 141:16.43 142:-5 143:21.78 144:-26.85 145:9.62 146:-0.3 147:-43.54 148:-3.71 149:18.97 150:-12.88 151:-14.08 152:10.3 153:-3.2 154:-0.26 155:8.92 156:19.63 157:3.37 158:6.88 159:-3.9 160:-32.86 161:-11.23 162:-4.27 163:-24.34 164:-33.85 165:0.02 166:4.88 167:12.34 168:7.42 169:18.41 170:3.81 171:3.31 172:-4.53 173:-19.28 174:-18.87 175:-18.83 176:-20.86 177:-17.65 178:8.51 179:12.58 180:9.54 181:-4.18 182:17.4 183:3.68 184:-1 185:-2.72 186:-15.27 187:-22.5 188:-23.46 189:-22.97 190:-13.36 191:14.65 192:11.96 193:6.25 194:2.79 195:24.79 196:-13.79 197:8.83 198:-14.97 199:-41.82 200:-7.19 201:3.57 202:-22.3 203:-11.71 204:-2.64 205:-7.51 206:11.5 207:-3.1 
1.56063723593273e-05 0:18.65 1:4.35 2:-1.85 3:-12.33 4:10.45 5:-32.29 6:20.14 7:-27.61 8:-3.45 9:15.75 10:-23.51 11:-15.91 12:-21.25 13:22.71 14:5.74 15:-21.74 16:-20.01 17:-1.84 18:-23.55 19:32.35 20:-29.03 21:-12.31 22:17.89 23:-3.72 24:11.81 25:-27.09 26:18.86 27:7.38 28:-1.39 29:-10.71 30:1.2 31:-9.36 32:6.67 33:-17.11 34:-19.04 35:2.05 36:10.88 37:12.92 38:-7.79 39:23.34 40:-4.51 41:-13.59 42:-15.47 43:2.78 44:-45.71 45:4.78 46:-46.18 47:-8.71 48:2.22 49:-8.94 50:17.26 51:-8.8 52:23.36 53:-38.58 54:24.73 55:-7.43 56:15.98 57:5.95 58:-42.65 59:-5.89 60:7.52 61:-9.8 62:-1.89 63:-11.38 64:10.59 65:21.64 66:-8.37 67:-13.15 68:16.06 69:24.88 70:-42.59 71:-34.25 72:-34.76 73:-12.63 74:2.47 75:-15.73 76:-1.35 77:-1.77 78:20.79 79:-20.12 80:15.84 81:6.63 82:10.34 83:-2.93 84:-32.54 85:-31.58 86:0.36 87:6.93 88:-1.95 89:-9.03 90:7.5 91:18.56 92:4.15 93:-4.14 94:-12.45 95:-9.04 96:-13.49 97:8.01 98:-26.22 99:-7.52 100:-7.49 101:-9.32 102:-0.55 103:-6.9 104:21.27 105:11.23 106:-10.32 107:-19.36 108:0.01 109:-23.48 110:34.47 111:-39.57 112:-9.15 113:14.82 114:-13.57 115:8.41 116:-14.63 117:16.13 118:4.23 119:3.04 120:-2.83 121:3.25 122:-3.7 123:-9.69 124:-14.94 125:-15.13 126:-0.48 127:-2.22 128:3.21 129:-3.9 130:22.27 131:12.27 132:-3.92 133:-16.2 134:-19.08 135:-42.82 136:37.87 137:-43.48 138:-23.44 139:7.35 140:-3.34 141:23.42 142:3.59 143:22.12 144:-26.04 145:17.95 146:-11.72 147:-2.43 148:2.37 149:-18.49 150:-34.96 151:-9.96 152:0.35 153:7.96 154:3.16 155:-6.79 156:18.82 157:-0.77 158:-7.15 159:2.2 160:-9.46 161:-19.8 162:-2.41 163:-32.49 164:-35.17 165:-3.4 166:2.88 167:3.62 168:-4.44 169:20.46 170:2.43 171:-11.62 172:-6.21 173:9.71 174:-34.96 175:3.75 176:-50.49 177:-24.53 178:11.23 179:17.32 180:18.82 181:-7.78 182:19.58 183:2.06 184:-16.47 185:15.68 186:12.1 187:-28.7 188:-13.85 189:-41.19 190:-13.37 191:22.98 192:-0.37 193:9.13 194:-7.98 195:24.43 196:-9.36 197:-4.6 198:-18.34 199:-3.9 200:-13.31 201:-10.44 202:-17.96 203:-13.57 204:1.56 205:11.24 206:-0.32 207:0.91 
8.131945534867258e-05 0:18.31 1:6.39 2:-1.32 3:9.71 4:-14.07 5:-9.1 6:13.13 7:-10 8:-4.4 9:2.37 10:-19.53 11:4.85 12:-3 13:22.58 14:-1.68 15:-33.04 16:-1.69 17:-3.46 18:-24.73 19:11.01 20:-26.53 21:13.13 22:16.33 23:-11.46 24:0.78 25:-13.25 26:18.85 27:-1.07 28:-10.15 29:5.48 30:9.05 31:-17.65 32:-14.45 33:-14.18 34:4.51 35:19.19 36:-11.62 37:-1.96 38:-4.77 39:22.79 40:2.98 41:-24.08 42:0.27 43:-24.63 44:-27.52 45:4.73 46:-24.63 47:-8.11 48:4.57 49:-9.4 50:17.53 51:-10.78 52:24.59 53:-40.53 54:18.84 55:1.94 56:-13.88 57:15.2 58:-45.3 59:-3.55 60:-9.52 61:-9.19 62:-4.19 63:5.08 64:4.16 65:21 66:-13.56 67:-8.24 68:43.12 69:-1.98 70:-21.72 71:-38.97 72:-17.09 73:-0.49 74:-29.04 75:-9.52 76:15.58 77:-1.11 78:21.36 79:-28.1 80:19.22 81:11.83 82:5.76 83:5.64 84:-28.7 85:-4.02 86:-3.95 87:-8.66 88:-13.27 89:7.55 90:0.42 91:19.04 92:-0.13 93:-1.93 94:14.74 95:-4.45 96:6.21 97:3.07 98:-17.24 99:3.18 100:-3.81 101:-24.27 102:1.05 103:-2.47 104:22.81 105:-1.05 106:-32.78 107:-2.16 108:-13.44 109:-18.55 110:15.52 111:-31.04 112:9.84 113:19.01 114:-25.1 115:6.91 116:-17.36 117:19.25 118:-17.97 119:-21.57 120:-7.07 121:-0.45 122:10.61 123:-8.07 124:8.8 125:-5.27 126:13.57 127:-20.94 128:-5.57 129:6.89 130:22.4 131:1.5 132:-33.94 133:-12.36 134:-13.56 135:1.57 136:12.01 137:-4.63 138:-11.48 139:16.7 140:-28.58 141:11.48 142:-26.06 143:22.5 144:-30.85 145:6.85 146:-12.73 147:-14.61 148:16.95 149:-11.58 150:-2.84 151:-0.29 152:-6.39 153:-2.68 154:3.86 155:-16.59 156:17.69 157:4.11 158:11.4 159:-8.44 160:-17.64 161:-7.42 162:-13.41 163:-10.74 164:1.21 165:-5.93 166:-6.75 167:7.41 168:-2.37 169:20.51 170:7.75 171:-24.81 172:-14.33 173:-16.02 174:-7.38 175:-11.34 176:-26.43 177:7.42 178:2.41 179:-17.61 180:18.57 181:14.51 182:22.02 183:-26.83 184:-6.43 185:12.07 186:-17.56 187:3.68 188:-16.65 189:-46.61 190:7.5 191:19.6 192:-30.24 193:11.13 194:-0.55 195:24.86 196:-17.35 197:-5.55 198:-9.32 199:-21.64 200:0.07 201:-28.67 202:1.8 203:-11.54 204:10.56 205:-0.27 206:-3.21 207:2.88 
9.863253906795178e-05 0:16.97 1:-12.48 2:5.01 3:2.04 4:-0.93 5:3.28 6:-4.52 7:-0.43 8:1.17 9:2.71 10:5.9 11:5.91 12:0.53 13:21.92 14:14.64 15:-10.37 16:-15.56 17:-23.61 18:-19.47 19:33.66 20:-25.6 21:-3.78 22:11.25 23:-7.09 24:9.14 25:-16.26 26:19.8 27:7.13 28:1.53 29:-13.49 30:-16.33 31:-14.5 32:-8.26 33:-9.74 34:-3.79 35:1.14 36:-0.58 37:-0.04 38:-3.47 39:22.27 40:15.51 41:-3.2 42:-6.58 43:-27.59 44:-23.36 45:22.2 46:-38.96 47:-11.73 48:-1.64 49:0.13 50:10.07 51:-7.7 52:22.2 53:-28.51 54:27.72 55:-0.01 56:-18.57 57:10.42 58:-33.05 59:-1.38 60:12.14 61:0.99 62:6.16 63:-1.98 64:8.06 65:19.98 66:4.6 67:11.87 68:6.02 69:-0.92 70:-12.5 71:-45.6 72:-16.88 73:-1.12 74:-6.74 75:-1.42 76:-8.55 77:5.07 78:20.36 79:-22.89 80:22.37 81:16.23 82:-10.7 83:1.98 84:-22.19 85:-22.29 86:14.76 87:6.91 88:-5.17 89:-3.49 90:14.46 91:17.63 92:10.54 93:13.34 94:-5.91 95:-13.82 96:0.44 97:-1.53 98:-11.7 99:-7.03 100:-13.13 101:-1.56 102:7.16 103:0.06 104:20.63 105:11.29 106:-1.86 107:-8.5 108:-23.66 109:-19.94 110:27.52 111:-17.83 112:-7.77 113:8.8 114:-8.01 115:7.28 116:0.35 117:17.64 118:0.4 119:6.33 120:-1.51 121:-7.36 122:-7.58 123:-7.21 124:-8.59 125:-2.09 126:0.76 127:2.93 128:1.71 129:-1.27 130:21.62 131:16.56 132:8.11 133:-13.93 134:-40.66 135:-27.13 136:31.12 137:-16.69 138:-10.85 139:-2.85 140:-8.01 141:2.54 142:14.8 143:21.01 144:-28.54 145:11.39 146:3.5 147:-26.35 148:19.35 149:6.03 150:-21.87 151:11.67 152:1.71 153:3.66 154:8 155:0.18 156:18.74 157:6.21 158:6.53 159:6.88 160:-20.21 161:-16.62 162:-1.84 163:-26.81 164:-16.04 165:-1.77 166:7.52 167:9.28 168:-7 169:18.89 170:3.79 171:-4.38 172:15.97 173:-13.52 174:-32.62 175:-7.42 176:-27.97 177:1.32 178:10.41 179:-3.53 180:4.33 181:-11.68 182:18.37 183:6.26 184:2.67 185:18.69 186:-11.26 187:-23.14 188:-10.97 189:-24.1 190:-8.55 191:4.19 192:-8.25 193:-7.29 194:-5.4 195:23.65 196:0.07 197:10.72 198:-14.11 199:-37.15 200:1.57 201:-2.86 202:-11.14 203:-12.94 204:-1.24 205:6.37 206:-3.97 207:5.28 
6.179301485447318e-05 0:17.81 1:6.28 2:9.75 3:-26.68 4:7.83 5:-20.42 6:13.66 7:-19.54 8:-11.55 9:10.18 10:-20.72 11:13.34 12:-15.75 13:21.29 14:-0.99 15:-12.03 16:2.54 17:12.31 18:-36.71 19:-4.25 20:-17.05 21:-0.57 22:24.59 23:-26.41 24:18.53 25:-24.32 26:20.49 27:-10.73 28:4.64 29:-10.41 30:23.39 31:-29.45 32:-17.51 33:-11.98 34:7.91 35:0.67 36:-8.03 37:8.98 38:-0.56 39:22.22 40:6.58 41:7.56 42:-26.6 43:-0.28 44:-27.17 45:-8.38 46:-35.52 47:-20.3 48:-7.51 49:-28.76 50:51.89 51:-17.98 52:20.92 53:-8.24 54:8.51 55:3.15 56:18.78 57:-39.67 58:-31.98 59:-14.09 60:-3.54 61:-1.56 62:-20.93 63:14.52 64:-10.32 65:24.05 66:-45.35 67:13.78 68:9.39 69:16.76 70:-15.95 71:-8.63 72:-3.65 73:13.23 74:-0.3 75:-20.89 76:0.67 77:3.39 78:18.77 79:7.07 80:7.13 81:-14.22 82:4.69 83:-29.24 84:17.03 85:-17.14 86:-29.61 87:7.62 88:-8.63 89:15.94 90:-13.3 91:20.86 92:1.34 93:-8.05 94:-9.14 95:15.34 96:-32.07 97:-2.03 98:-15.94 99:-21.15 100:26.72 101:-31.35 102:12.74 103:-31.05 104:18.82 105:-18.85 106:-13.99 107:-28.56 108:9.01 109:-16.92 110:-1.49 111:4.21 112:-22.4 113:5.43 114:3.76 115:23.21 116:-2.62 117:22.12 118:-2.99 119:-10.11 120:-21.19 121:-3.65 122:-14.76 123:18.05 124:-0.74 125:-19.38 126:11.17 127:-16.57 128:18.18 129:-43.38 130:22.51 131:-40.1 132:11.75 133:-6.6 134:4.7 135:-5.86 136:8.54 137:-20.84 138:-21.27 139:10.72 140:-0.25 141:-0.16 142:-10.34 143:19.16 144:-2.71 145:28.46 146:-20.99 147:5.63 148:-16.49 149:-11.43 150:-26.46 151:-7.26 152:-14.87 153:1.91 154:21.35 155:-4.25 156:19.49 157:-4.14 158:17.72 159:-14.26 160:13.75 161:-22.7 162:-15.18 163:-24.12 164:-9.13 165:0.8 166:-6.41 167:23.93 168:-3.91 169:19.22 170:-14.13 171:-0.95 172:9.31 173:28.29 174:-33.6 175:-3.47 176:-6.87 177:-5.12 178:7.91 179:-15.97 180:13.81 181:-1.27 182:24.35 183:-12.81 184:9.16 185:-12.92 186:4.68 187:-23.18 188:-15.6 189:-21.32 190:-10.04 191:-5.22 192:-5.44 193:14.26 194:-2.8 
0.0001114924748597941 0:15.96 1:8.17 2:4.25 3:-8.27 4:-7.18 5:4.96 6:2.29 7:-3.72 8:-8.47 9:10.01 10:0.1 11:15.58 12:-17.68 13:17.13 14:7.12 15:-1.18 16:-8.48 17:4.44 18:-4.78 19:-15.89 20:-0.43 21:-0.94 22:27.93 23:-7.45 24:-4.86 25:-26.4 26:16.15 27:6.4 28:10.75 29:-5.14 30:-13.19 31:-13.41 32:-1.53 33:1.65 34:-20.28 35:2.74 36:13.13 37:17.48 38:-3.13 39:19.25 40:9.74 41:-8.45 42:4.07 43:-13.1 44:-29.65 45:-19.06 46:10.23 47:-15.93 48:-13.08 49:1.42 50:23.9 51:-7.27 52:20.15 53:-30.72 54:32.78 55:-2.17 56:3.25 57:-18.65 58:-33.47 59:7.2 60:-21.28 61:3.75 62:5.57 63:11.13 64:12.58 65:15.59 66:-13.16 67:16.35 68:6.31 69:12.59 70:-14.51 71:-22.25 72:15.8 73:-29.27 74:1.74 75:-2.19 76:8.14 77:16.06 78:20.05 79:-35.64 80:26.8 81:-10.68 82:3.18 83:6.24 84:-18.99 85:22.36 86:-13.18 87:3.32 88:-1.9 89:3.49 90:13 91:14.42 92:-3.87 93:18.18 94:6.49 95:10.88 96:2.54 97:-8.04 98:5.91 99:-22.01 100:1.84 101:-2.05 102:5.28 103:2.15 104:14.86 105:2.67 106:6.09 107:-1.29 108:0.83 109:-5.17 110:-9.4 111:10.65 112:-7.51 113:21.12 114:-0.07 115:-6.4 116:-13.79 117:15.68 118:-12.07 119:-11.96 120:-6.43 121:0.26 122:-3.48 123:-2.08 124:18.74 125:-15.92 126:12.89 127:12.04 128:-6.5 129:8.21 130:16.9 131:7.37 132:0.11 133:-12.85 134:-15.21 135:10.51 136:1.28 137:20.37 138:-33.95 139:32.47 140:0.85 141:-12.74 142:-7.28 143:18.59 144:-27.88 145:4.67 146:18.38 147:-20.59 148:-0.74 149:8.45 150:3.9 151:-1.32 152:15.29 153:8.29 154:10.71 155:1.66 156:13.52 157:-4.24 158:1.25 159:4.76 160:3.69 161:-4.66 162:-3.49 163:-0.62 164:-14.97 165:11.09 166:2.57 167:14.34 168:0.04 169:14.45 170:-1.33 171:-5.16 172:-0.74 173:-2.36 174:-7.15 175:1.34 176:3.23 177:-12.78 178:10.06 179:9.9 180:-1.72 181:-5.31 182:14.38 183:-3.21 184:-4.61 185:4.01 186:-3.44 187:-6.72 188:-6.57 189:5.13 190:-13.87 191:22.57 192:21.43 193:-1.06 194:-1.51 195:21.33 196:-8.82 197:10.36 198:-5.8 199:-2.95 200:-6.77 201:-12.47 202:9.49 203:-8.62 204:10.11 205:4.55 206:12.38 207:6.12 
1.374314767581882e-05 0:19.31 1:14.47 2:5.21 3:-21.7 4:4 5:-14.45 6:3.6 7:-22.19 8:-18.61 9:-16.44 10:-4.9 11:21.13 12:-1.55 13:21.39 14:8.63 15:-11.2 16:-22.05 17:2.72 18:-6.19 19:0.31 20:-32.15 21:-6.76 22:5.97 23:-8.86 24:-7.49 25:-4.69 26:20.42 27:-2.29 28:8.72 29:-14.76 30:2.59 31:-10.07 32:-5.74 33:-32.16 34:-11.55 35:0.91 36:11.34 37:-1.94 38:-4.63 39:22.52 40:10.64 41:-5.54 42:-24.07 43:-14.7 44:-21.24 45:-11.14 46:-35.78 47:-23.21 48:5.78 49:5.9 50:5.1 51:2.07 52:22.81 53:-30.59 54:32.79 55:0.92 56:-5.96 57:-1.34 58:-38.51 59:-10.6 60:-2.69 61:-7.56 62:6.46 63:0.4 64:10.18 65:20.06 66:-8.95 67:10.01 68:20.99 69:0.14 70:-22.85 71:-43.72 72:-22.77 73:-12.1 74:-22.47 75:3.62 76:-1.51 77:2.6 78:23.79 79:-38.21 80:28.11 81:-2.78 82:-10.79 83:0.25 84:-25.17 85:-12.59 86:5.56 87:-12.59 88:0.72 89:3.31 90:11.01 91:17.64 92:8.25 93:6.92 94:15.93 95:6.4 96:-8.23 97:-21.86 98:-31.54 99:-7.85 100:-5.15 101:0.3 102:18.62 103:-2.4 104:20.57 105:2.39 106:-12.29 107:2.63 108:6.62 109:-23.44 110:-17.43 111:-22.69 112:-8.86 113:8.52 114:2.15 115:-11.25 116:9.38 117:15.48 118:-4 119:1.23 120:-4.72 121:4.52 122:4.05 123:1.47 124:-18.33 125:-24.96 126:-11.96 127:-12.22 128:1.74 129:-5.6 130:20.71 131:7.4 132:-4.78 133:-25.62 134:7.69 135:1.4 136:-2.16 137:-1.64 138:-26.01 139:1.57 140:-4.49 141:3.08 142:-18.01 143:21.9 144:-34.95 145:17.14 146:9.43 147:-4.88 148:4.33 149:-4.85 150:-14.27 151:-9.65 152:-2.52 153:-2.69 154:-9.38 155:5.95 156:18.91 157:13.39 158:11.89 159:-15.43 160:-17.34 161:-25.6 162:-4.98 163:2.86 164:-14.03 165:-4.65 166:-4.49 167:13.91 168:12.85 169:20.03 170:6.56 171:-0.19 172:-19.17 173:-21.4 174:-17.82 175:-6.2 176:-0.31 177:-27.51 178:-10.29 179:13.43 180:21.03 181:3.26 182:19.79 183:-27.98 184:20.59 185:-1.32 186:-6.57 187:3.84 188:-16.14 189:-15.75 190:4.06 191:-3.44 192:8.06 193:-0.1 194:-7.82 195:24.51 196:-10.58 197:11.34 198:-21.7 199:-11.32 200:1.54 201:-22.02 202:-21.15 203:-11.69 204:-2.25 205:13.43 206:-2.19 207:3.19 
1.186454263864234e-05 0:19.19 1:11.48 2:-3.43 3:-12.09 4:-3.21 5:-3.89 6:-4.75 7:-29.12 8:-21.85 9:-12.5 10:18.11 11:2.83 12:-9.19 13:20.71 14:6.97 15:-11.18 16:-20.44 17:-4.86 18:-3.51 19:-9.41 20:-27.93 21:10.52 22:4.5 23:7.35 24:-2.38 25:-2.12 26:19.29 27:2.7 28:13.35 29:-15.5 30:5.59 31:-11.33 32:-19.77 33:-22.55 34:-9.98 35:13.71 36:13.06 37:6.97 38:-10.45 39:22.36 40:9.7 41:-6.22 42:-13.45 43:-28.44 44:-18.03 45:-10.11 46:-35.7 47:-8.06 48:-12.8 49:13.16 50:5.46 51:-6.17 52:23.44 53:-30.86 54:31.42 55:-7.39 56:-9.02 57:0.21 58:-40.9 59:-6.43 60:-7.42 61:-0.27 62:4.1 63:0.74 64:1.65 65:19.9 66:-7.71 67:16.12 68:20.25 69:-0.57 70:-25.3 71:-46.31 72:-13.75 73:-0.91 74:-29.83 75:8.93 76:3.99 77:0.13 78:22.93 79:-31.25 80:29.85 81:2.34 82:-13.46 83:-0.7 84:-26.13 85:-18.11 86:0.27 87:-7.82 88:-0.77 89:-3 90:3.51 91:18.29 92:12.34 93:4.5 94:-14.69 95:3.62 96:0.77 97:-5.75 98:-29.04 99:3.2 100:4.29 101:1.69 102:14.93 103:5.57 104:20.68 105:4.52 106:-7.1 107:-10.31 108:10.6 109:-15.66 110:-9.48 111:-27.91 112:1.76 113:12.8 114:1.76 115:-7.45 116:6.02 117:18.66 118:2.79 119:-1.32 120:-4.46 121:-3.75 122:-3.75 123:-8.39 124:-10.67 125:-16.74 126:-7.27 127:5.09 128:7.77 129:-3.89 130:20.05 131:7.24 132:-3.97 133:-18.26 134:-2.62 135:11.1 136:-2.86 137:7.51 138:-24.67 139:-13.49 140:13.32 141:-6.12 142:-8.13 143:21.96 144:-34.61 145:17.27 146:-2.82 147:-7.21 148:-1.54 149:-2.18 150:-7.99 151:-13.74 152:3.36 153:9.28 154:-6.41 155:-8.38 156:17.8 157:11.7 158:13.89 159:-12.83 160:-17.13 161:-19.62 162:-2.36 163:-7.1 164:-16.8 165:-13.05 166:5.5 167:7.33 168:19.37 169:19.04 170:10.79 171:0.14 172:-13.21 173:-16.37 174:-11.83 175:0.41 176:-2.03 177:-19.75 178:-14.35 179:25.94 180:10.16 181:11.64 182:18.74 183:-21.96 184:2.35 185:-6.06 186:-19.63 187:-9.57 188:-1.96 189:-24.76 190:8.89 191:-8.92 192:20.14 193:9.18 194:6.82 195:24.32 196:-10.21 197:13.97 198:-22.27 199:-12.82 200:2.96 201:-26.06 202:-15.11 203:-11.03 204:3.35 205:11.67 206:1.74 207:0.6 
6.98476879976081e-05 0:19.87 1:-0.4 2:-9.44 3:-17.57 4:10.69 5:-6.59 6:-4.61 7:-24.04 8:-20.72 9:-6.63 10:-5.72 11:-2.89 12:1.56 13:21.3 14:4.19 15:-4.16 16:-5.32 17:9.82 18:-6.86 19:-20.07 20:-19.49 21:-1.16 22:2.11 23:-6 24:-7.11 25:11.42 26:20.58 27:-11.56 28:13.89 29:0.69 30:5.9 31:-7.76 32:-5.71 33:-11.08 34:-14.02 35:-1.88 36:1.55 37:-1.24 38:-0.03 39:21.96 40:8.62 41:3.55 42:-4.39 43:-9.31 44:-8.98 45:-0.71 46:-20.82 47:-18.54 48:-20.94 49:18.08 50:-2.7 51:4.03 52:24.79 53:-40.6 54:20.67 55:3.04 56:1.05 57:12.43 58:-24.93 59:-10.58 60:-2.44 61:-14.99 62:-2.17 63:-11.51 64:8.41 65:20.47 66:-13.65 67:22.45 68:32.95 69:-8.17 70:-17.69 71:-28.45 72:-24.83 73:-3.69 74:-22.93 75:8.24 76:5.79 77:2.46 78:24.59 79:-38.81 80:23.52 81:6.55 82:-6.83 83:7.09 84:-21.27 85:-14.99 86:1.5 87:-10.27 88:0.81 89:-3.02 90:9.89 91:20.01 92:0.31 93:3.97 94:-20.92 95:11.91 96:-2.85 97:-15.84 98:-15.27 99:-6.18 100:1.8 101:12.1 102:3.39 103:-0.67 104:20.7 105:0.96 106:4.72 107:-10.86 108:2.14 109:-13.3 110:-20.76 111:-13.96 112:-2.13 113:6.7 114:10.67 115:1.14 116:17.63 117:17.08 118:-10.97 119:3.05 120:-3.25 121:-4.82 122:-1.33 123:-18.47 124:-16.87 125:-4.55 126:0.82 127:4.67 128:-1.48 129:-4.71 130:21.27 131:6.15 132:-5.7 133:-15.78 134:-5.69 135:10.6 136:1.54 137:3.47 138:-13.07 139:-18.91 140:23.65 141:-19.42 142:6.8 143:22.65 144:-30.67 145:20.91 146:-1.09 147:-2.45 148:11.4 149:-8.15 150:-10.02 151:-5.63 152:5.29 153:2.93 154:-6.27 155:1.82 156:17.57 157:3.09 158:6.07 159:-9.38 160:-4.04 161:-2.51 162:1.18 163:-7.82 164:-17.08 165:-6.34 166:2.23 167:7.29 168:8.34 169:18.36 170:5.32 171:-1.65 172:-7.38 173:-8.57 174:-12.54 175:-0.74 176:5.83 177:-29.35 178:-8.84 179:29.02 180:10.82 181:3.79 182:17.31 183:-9.61 184:8.52 185:1.79 186:2.06 187:-5 188:-9.03 189:-10.73 190:-21.55 191:0.9 192:15.3 193:-2.22 194:-1.21 195:25.54 196:-16.1 197:17.26 198:-12.97 199:-9.37 200:11.04 201:-18.9 202:-14.48 203:-8.6 204:-10.67 205:8.36 206:-5.05 207:4.07 
6.178563789845071e-05 0:15.64 1:8.16 2:11.87 3:-5.39 4:1.22 5:6.42 6:-9.01 7:9.52 8:-4.6 9:8.41 10:-6.4 11:-1.11 12:-18.69 13:17.39 14:4.68 15:12.05 16:-13.71 17:-0.12 18:8.28 19:-35.71 20:29.54 21:-7.61 22:33.46 23:-10.13 24:-8.43 25:-16.86 26:16.03 27:8.63 28:14.25 29:-17.98 30:-18.12 31:-2.57 32:-5.92 33:16.13 34:-28.43 35:9.61 36:8.05 37:26.47 38:-6.43 39:18.27 40:10.87 41:7.34 42:-14.8 43:-16.93 44:-8.67 45:-23.62 46:35.08 47:-24.85 48:5.27 49:-5.23 50:18.56 51:-0.06 52:21.57 53:-42.55 54:35.6 55:-10.5 56:-8.25 57:8.94 58:-36.66 59:12.67 60:-20.45 61:7.62 62:0.5 63:8.03 64:11.56 65:15.75 66:-10.04 67:25.29 68:3.92 69:3.05 70:2.51 71:-34.75 72:12.62 73:-30.32 74:4.02 75:-5.46 76:7.46 77:-2.95 78:22.7 79:-43.34 80:46.55 81:-10.72 82:8.54 83:10.41 84:-40.61 85:23.59 86:-34.46 87:10.83 88:-8.33 89:8.13 90:4.99 91:14.76 92:2.48 93:21.48 94:-5.82 95:2.32 96:10.97 97:-19.76 98:12.52 99:-16.81 100:7.43 101:-10.77 102:-4.08 103:-12.46 104:15.91 105:2.1 106:16.04 107:-12.01 108:1.18 109:7.24 110:-34.72 111:34.79 112:-5.56 113:22.94 114:-24.35 115:-9.26 116:-9.42 117:17.34 118:-22.3 119:-4.65 120:-14.69 121:1.23 122:28.43 123:-7.51 124:38.24 125:-24.8 126:25.7 127:2.6 128:13.9 129:-8.96 130:17.29 131:6.82 132:12.85 133:-26.1 134:-19.07 135:6.21 136:-17.69 137:37.28 138:-26.98 139:28.91 140:3.52 141:6.76 142:-29.53 143:19.13 144:-31.9 145:21.06 146:6.69 147:-26.37 148:1.44 149:-6.68 150:-7.49 151:-12.86 152:30.11 153:-8.27 154:9.41 155:2.01 156:13.37 157:-0.3 158:12.59 159:7.35 160:-7.86 161:-5.75 162:-8.78 163:-6.72 164:-20.37 165:13.69 166:8.98 167:13.7 168:5.08 169:14.13 170:-2.71 171:0.96 172:-11.75 173:-15.21 174:-15.01 175:-11.96 176:-6.93 177:-10.99 178:10.28 179:13.09 180:16.62 181:5.45 182:12.66 183:-3.36 184:-1.26 185:-9.41 186:-12.05 187:-3.58 188:-15.17 189:1.88 190:-9.91 191:13.34 192:8.87 193:11.09 194:6.2 195:23.03 196:-14.03 197:23.35 198:-19.57 199:-0.98 200:5.72 201:-22.46 202:30.18 203:-17.84 204:22.14 205:-2.68 206:7.14 207:1.71 
3.36360576739774e-05 0:17.17 1:-7.99 2:-16.84 3:-12.18 4:-9.11 5:-17.2 6:-3.29 7:4.41 8:-6.19 9:-5.99 10:-5.31 11:-1.87 12:-6.25 13:22.24 14:-4.56 15:-53.08 16:-29.86 17:-12.51 18:-19.84 19:-5.09 20:-6.9 21:-1.12 22:-2.78 23:-10.92 24:-11.81 25:-16.4 26:19.8 27:-11.33 28:-21.3 29:-31.56 30:-14.72 31:-32.95 32:-12.8 33:-10.48 34:-3.6 35:-5.79 36:-9.23 37:-1.1 38:5.28 39:22.3 40:0.94 41:-38.37 42:-35.94 43:-23.12 44:-25.67 45:-10.65 46:-11.48 47:5.98 48:-4.66 49:-6.47 50:-2.3 51:-10.67 52:21.98 53:-31.44 54:-6.58 55:-29.86 56:-8.4 57:-27.28 58:-10.09 59:-10.81 60:-15.28 61:5.37 62:-14.78 63:3.57 64:-0.82 65:20.35 66:-36.31 67:-15.55 68:-34.08 69:-17.84 70:-37.79 71:-14.73 72:-8.7 73:-14.41 74:1.97 75:-10.15 76:-4.44 77:-0.46 78:21.26 79:-34.16 80:-10.9 81:-31.23 82:-7.97 83:-26.72 84:-12.87 85:-2.53 86:-11.86 87:7.09 88:-8.73 89:-3.41 90:4.01 91:18.64 92:-9.71 93:-21.1 94:-6.89 95:-8.46 96:-17.91 97:-11.02 98:-7.73 99:-9.57 100:-7.59 101:-14.91 102:-3.04 103:-6.26 104:22.69 105:-7.68 106:-53.9 107:-24.38 108:-15.51 109:-15.81 110:3.54 111:-20.28 112:4.58 113:-0.19 114:-18.1 115:-11.73 116:-20.32 117:18.27 118:-13.67 119:-36.26 120:-24.4 121:-15.82 122:-17.45 123:0.29 124:-12.43 125:-9.38 126:-8.5 127:-1.53 128:-3.11 129:2.45 130:22.27 131:-6.83 132:-45.4 133:-34.2 134:-30.98 135:-16.28 136:15.08 137:-20.87 138:-6.95 139:-12.5 140:1.77 141:-0.91 142:-23.85 143:20.13 144:-26.71 145:-13.48 146:-21.85 147:-3.83 148:-20.97 149:-8.77 150:-6.32 151:-7.77 152:13.17 153:-12.64 154:-6.47 155:0.74 156:18.17 157:-5.8 158:-28.23 159:-15.84 160:-11.61 161:-27.35 162:-13.84 163:-15.66 164:-7.57 165:-1.68 166:1.96 167:9.63 168:1.03 169:21.13 170:-6.41 171:-43.21 172:-25.66 173:-10.86 174:-34.3 175:-22.87 176:-28.59 177:4.98 178:7.24 179:-6.5 180:3.18 181:-15.6 182:19.08 183:-23.31 184:-23.47 185:-23.29 186:-12.62 187:-35.53 188:-21.09 189:-19.02 190:-5.22 191:11.61 192:-4.78 193:-2.97 194:-4.6 195:23.07 196:-5.49 197:-38.39 198:-34.92 199:-16.95 200:-27.31 201:-9.84 202:-10.17 204:-0.57 205:-6.99 206:-7.6 207:-13.78 
9.25837283508325e-06 0:17.51 1:14.37 2:-2.86 3:-7.58 4:4.35 5:-14.91 6:7.85 7:-15.42 8:-33.36 9:-14.35 10:-26.7 11:-8.27 12:-22 13:22.36 14:16.31 15:-15.74 16:-33.1 17:-5.35 18:-15.03 19:31.31 20:-22.6 21:-14.76 22:-3.1 23:-11.08 24:14.92 25:-23.72 26:19.59 27:1.77 28:-3.39 29:-15.94 30:-7.59 31:-5.59 32:-4.46 33:-12.8 34:-12.19 35:-3.86 36:2.24 37:-2.16 38:-3.62 39:22.6 40:11.29 41:-5.8 42:-20.08 43:-9.32 44:-28.41 45:28.57 46:-48.83 47:-16.36 48:-2.38 49:-6.31 50:16.58 51:-10.1 52:22.52 53:-27.58 54:25.24 55:-5.01 56:-1.5 57:6.93 58:-34.36 59:-12.59 60:-7.55 61:-6.65 62:0.94 63:1.11 64:9.33 65:20.95 66:-2.48 67:-11.28 68:15.83 69:15.62 70:-20.9 71:-17.47 72:-33.45 73:-20.36 74:3.78 75:-14.19 76:-7.86 77:3.6 78:21.11 79:-27.1 80:11.71 81:4.77 82:-6.96 83:4.26 84:-13.5 85:-34.02 86:-1.14 87:0.96 88:-18.52 89:-9.44 90:2.85 91:16.7 92:-0.49 93:5.97 94:2.64 95:-1.01 96:-2.73 97:-9.73 98:-7.21 99:0.12 100:-20.14 101:-11.08 102:14.34 103:1.86 104:22.22 105:10.72 106:-17.56 107:-17.37 108:-6.73 109:-20.27 110:26.11 111:-23.07 112:-14.64 113:3.8 114:-9.09 115:13.55 116:-25.27 117:17.32 118:-3.23 119:-9.74 120:-15.31 121:6.52 122:-14.87 123:-6.47 124:-3.61 125:-11.37 126:4.77 127:2.74 128:3.54 129:-3.86 130:22.44 131:15.66 132:3.64 133:-30.02 134:-29.37 135:-24.09 136:26.79 137:-15.59 138:-19.39 139:-1.32 140:-13.57 141:11.42 142:2.4 143:21.1 144:-26.96 145:6.09 146:-9.52 147:-13.81 148:12.17 149:-6.57 150:-34.44 151:-1.05 152:8.63 153:-0.55 154:10.93 155:2.28 156:18.49 157:7.57 158:-5.58 159:3.02 160:-16.53 161:-16.82 162:12.46 163:-42.07 164:-39.38 165:-8.44 166:-3.54 167:8.06 168:-5.64 169:20.31 170:5.67 171:-11.76 172:9.22 173:-10.89 174:-25.19 175:11.95 176:-46.22 177:-21.34 178:3.52 179:5.64 180:9.34 181:-5.04 182:18.41 183:-8.39 184:0.68 185:5.51 186:-5.39 187:-10.47 188:-14.02 189:-14.87 190:-7.56 191:4.75 192:-4.4 193:2.73 194:-3.01 195:23.12 196:14.42 197:-5.89 198:-29.49 199:-9.09 200:-20.05 201:28.06 202:-38.09 203:-14.72 204:-3.27 205:-3.26 206:16.67 207:-12.2 
3.762614651877906e-06 0:18.44 1:12.03 2:2.78 3:-10.55 4:-22.09 5:-24.81 6:-11.12 7:-4.82 8:-22.69 9:-11.44 10:2.51 11:-6.74 12:5.94 13:21.17 14:8.37 15:-11.73 16:-15.64 17:-22.92 18:-8.78 19:-9.21 20:-17.34 21:-1.17 22:10.92 23:5.2 24:-24.96 25:17.72 26:19.5 27:0.5 28:8.67 29:-7.25 30:-8.52 31:-17.54 32:-11.61 33:-15.43 34:-4.55 35:9.85 36:6.41 37:-1.66 38:-1.92 39:22.31 40:11.36 41:-1.45 42:-12.74 43:-29.72 44:-25.05 45:-5.86 46:-19.25 47:0.43 48:2.74 49:13.17 50:-12.26 51:16.22 52:22.83 53:-25.95 54:27.34 55:-6.46 56:-2.18 57:2.77 58:-29.13 59:2.14 60:-9.75 61:2.36 62:-4.53 63:-7.76 64:11.96 65:19.21 66:-1.51 67:6.5 68:9.49 69:-13.23 70:-21.6 71:-36.64 72:-19.16 73:-0.75 74:-21.34 75:3.41 76:-3.54 77:2.89 78:22.52 79:-35.42 80:31.26 81:6.52 82:-13.88 83:-0.6 84:-29.51 85:-3.47 86:-0.49 87:9.09 88:-5.19 89:-7.35 90:17.47 91:19.13 92:16.75 93:5.94 94:-16.73 95:-15.2 96:-14.29 97:-20.82 98:-23.07 99:-8.69 100:-7.13 101:-0.44 102:-1.38 103:0.18 104:20.32 105:7.68 106:-14.41 107:-4.9 108:-10.43 109:-16.74 110:-28.6 111:-9.03 112:12.91 113:0.08 114:-6.35 115:-15.64 116:10.86 117:18.52 118:-7.58 119:-17.55 120:-13.33 121:-10.24 122:0.7 123:6.35 124:6.09 125:-6.25 126:4.7 127:-5.86 128:-8.35 129:9.3 130:20.71 131:10.44 132:-7.27 133:-21.55 134:-26.21 135:7.11 136:-11.82 137:10.69 138:-18.07 139:-9.13 140:4.2 141:-19.6 142:6.65 143:22.05 144:-34.83 145:24.24 146:6.52 147:-22.32 148:5.34 149:-6.46 150:-2.76 151:8.14 152:7.47 153:-6.98 154:-7.27 155:-2.85 156:18.45 157:9.99 158:8.33 159:-9.77 160:-25.35 161:-22.63 162:-5.13 163:-9.08 164:-4.39 165:-0.44 166:-3.46 167:-1.42 168:15.29 169:19.58 170:7.7 171:-0.45 172:-18.76 173:-22.49 174:-21.01 175:-6.75 176:10.62 177:-6.6 178:-0.56 179:10.95 180:5.86 181:7.51 182:18.13 183:-22.39 184:2.46 185:-7.14 186:-20.85 187:-15.56 188:-16.56 189:-15.08 190:2.47 191:5.58 192:1.38 193:-2.15 194:13.23 195:24.03 196:-7.76 197:11.88 198:-22.75 199:-23.68 200:-5.16 201:-24.51 202:-3.54 203:-5.36 204:7.24 205:-0.34 206:-5.75 207:6.47 
4.488634906639775e-05 0:17.46 1:5.55 2:5.57 3:-6.98 4:-25.64 5:-18.47 6:5.75 7:-4.16 8:-24.26 9:0.68 10:-6.26 11:2.07 12:14.78 13:19.6 14:9.48 15:3.79 16:-9.27 17:-28.53 18:-16.42 19:3.41 20:-13.13 21:-14.18 22:21.91 23:2.31 24:-5.86 25:7.58 26:17.86 27:-5.56 28:24.94 29:6.95 30:-5.28 31:-13.39 32:1.31 33:-9.67 34:-8.68 35:4.09 36:-7.41 37:0.42 38:5.72 39:22.08 40:15.3 41:0.09 42:-11.67 43:-37.37 44:-22.01 45:-4.67 46:-18.16 47:-13.15 48:21.9 49:-5.46 50:-0.31 51:11.1 52:21.99 53:-29.67 54:30.73 55:-10.95 56:-2.46 57:-10.73 58:-24.65 59:1.09 60:-14.26 61:6.25 62:-9.38 63:-2.95 64:6.03 65:19.8 66:-0.2 67:21.77 68:18.66 69:-17.11 70:-31.86 71:-34.57 72:-20.2 73:-4.23 74:-5.18 75:-9.8 76:2.99 77:11.4 78:21.71 79:-29.03 80:29.48 81:0.57 82:-11.84 83:3.51 84:-13.42 85:-12.36 86:-1.17 87:3.95 88:-6.57 89:1.73 90:12.07 91:19.07 92:14.01 93:0.8 94:-5.7 95:-13.33 96:-16.27 97:-10.47 98:-20.9 99:-20.24 100:8.21 101:-6.7 102:-8.08 103:-0.36 104:19.94 105:7.5 106:-12.5 107:-3.64 108:-16.8 109:-19.15 110:-3.71 111:-10.77 112:-4.26 113:24.53 114:-14.03 115:-24.4 116:5.47 117:17.25 118:4.5 119:14.13 120:-1.57 121:-10.33 122:-9.48 123:-5.42 124:-15.25 125:-12.95 126:1.58 127:-1.09 128:0.87 129:3.13 130:21.01 131:9.66 132:-7.91 133:-18.95 134:-25.9 135:-1.71 136:3.74 137:14.23 138:-25.94 139:11.79 140:-0.72 141:-20.12 142:1.95 143:20.92 144:-30.55 145:21.47 146:2.3 147:-17.66 148:3.25 149:0.82 150:-5.99 151:1.51 152:12.07 153:0.61 154:-2.43 155:1.92 156:18.36 157:10.8 158:11.54 159:-16.46 160:-31 161:-33.93 162:-1.69 163:10.29 164:-6.84 165:-9.96 166:-2.02 167:1.8 168:6.71 169:18.73 170:6.6 171:1.48 172:-15.02 173:-31.53 174:-25.52 175:5.96 176:1.6 177:-9.13 178:0.4 179:4.68 180:8.44 181:1.57 182:17.24 183:-14.04 184:8.05 185:4.18 186:-16.57 187:-9.66 188:-0.73 189:-13.96 190:-2.11 191:5.88 192:-8.33 193:3.4 194:0.16 195:23.39 196:-4.57 197:16 198:-23.3 199:-26.24 200:-11.87 201:-9.41 202:-7.88 203:-11.24 204:14.87 205:0.22 206:-5.25 207:4.26 
7.988965538605185e-05 0:18.19 1:1.71 2:4.52 3:-17.76 4:-14.68 5:-25.41 6:6.98 7:3.98 8:-15.53 9:-22.25 10:-18.94 11:15.59 12:0.77 13:22.7 14:-2.73 15:-19.84 16:-13.81 17:-17.69 18:-10.13 19:-7.28 20:-6.36 21:-11.31 22:33.5 23:-26.87 24:22.05 25:-20.81 26:19.27 27:-27.85 28:7.51 29:-10.52 30:-9.94 31:-0.54 32:-2.83 33:0.82 34:-2.67 35:5.5 36:6.62 37:3.97 38:1.36 39:22.73 40:-5.49 41:-19.47 42:-9.03 43:-22.26 44:-20.69 45:-20.12 46:-27.64 47:-14.76 48:-1.17 49:-31.5 50:35.73 51:-5.55 52:25.15 53:-50.35 54:28.88 55:11.74 56:-21.61 57:3.03 58:-21.53 59:-26.8 60:12.92 61:-23.75 62:-10.59 63:-6.27 64:-1.14 65:21.4 66:-20.99 67:6.6 68:19.35 69:-9.96 70:-6.51 71:-31.1 72:-34.07 73:12.47 74:-12.29 75:-14.36 76:3.17 77:-19.17 78:22.55 79:-35.48 80:14.94 81:12.63 82:-23.05 83:3.24 84:-6.51 85:-28.47 86:2.67 87:4.46 88:-3.96 89:-3.75 90:2.03 91:18.45 92:-20.06 93:11 94:-7.2 95:5.26 96:-8.03 97:4.61 98:-9.5 99:3.17 100:-20.26 101:-14.8 102:-5.17 103:8.04 104:21.98 105:-2.28 106:-17.39 107:-4.86 108:-10.97 109:-20.24 110:-4.13 111:-19.86 112:-4.2 113:22.42 114:-18.96 115:9.07 116:-18.67 117:18.55 118:-14.41 119:-0.09 120:-11.75 121:-6.03 122:-3.81 123:-7.37 124:0.22 125:-1.63 126:0.74 127:3.74 128:7.05 129:5.04 130:22.82 131:-3.09 132:-18.28 133:-29.9 134:-25.25 135:8.64 136:-8.73 137:13.96 138:-13.18 139:16.65 140:-13.76 141:18.48 142:-16.53 143:23.06 144:-45.34 145:13.02 146:6.62 147:-29.73 148:4.89 149:15.87 150:-12.96 151:1.17 152:-0.91 153:5.08 154:-8.5 155:-3.95 156:18.57 157:0.07 158:3.57 159:-11.92 160:-5.67 161:-18.53 162:-20.33 163:-31.76 164:-15.55 165:-3.13 166:-12.71 167:22.33 168:8.07 169:19.34 170:-0.06 171:-3.85 172:-12.35 173:-3.89 174:-17.07 175:-23.99 176:-42.12 177:0.53 178:8.65 179:-17.19 180:28.02 181:6.13 182:19.16 183:-11.81 184:-3.22 185:1.76 186:8.21 187:-26.29 188:-21.38 189:-17.51 190:-3.72 191:9.32 192:-3.51 193:1.07 194:5.13 195:25.43 196:-20.16 197:-0.08 198:-14.97 199:-22.32 200:-2.89 201:-18.86 202:-21.98 203:9.73 204:-11.99 205:2.36 206:3.02 207:-4.53 
-7.450429085871803e-05 0:17.05 1:-5.34 2:5.11 3:-16.17 4:-9.79 5:17.09 6:-9.4 7:0.51 8:6.42 9:10.54 10:3.36 11:-11.74 12:-1.92 13:21.09 14:-1.59 15:-13.11 16:-4.8 17:-26.27 18:-13.4 19:-35.97 20:-26.69 21:27.22 22:27.11 23:0.36 24:0.45 25:-3.16 26:19.95 27:-7.98 28:7.82 29:-5.27 30:-9.59 31:-20.22 32:-31.12 33:-15.69 34:17.49 35:11.62 36:-9.4 37:4.48 38:6.56 39:22.15 40:7.22 41:-10.3 42:-10.96 43:-28.4 44:-18.12 45:-35.7 46:-33.34 47:1.46 48:4.93 49:-9.48 50:23.13 51:7.45 52:24.06 53:-34.28 54:23.61 55:1.49 56:-19.15 57:-2.55 58:-37.91 59:-17.9 60:25.4 61:-6.26 62:-8.05 63:18.23 64:14.99 65:19.39 66:-14.22 67:15.91 68:9.53 69:-8.72 70:-11.84 71:-31.6 72:-13.37 73:10.76 74:-12.46 75:-5.59 76:20.99 77:-3.35 78:22.66 79:-35.32 80:15.48 81:5.53 82:-12.57 83:7.93 84:-19.56 85:-24.59 86:23.76 87:14.66 88:-11.69 89:-6.57 90:22.65 91:17.72 92:-0.47 93:10.91 94:-6.81 95:-4.23 96:-0.63 97:-19.14 98:-15.99 99:0.35 100:-8.2 101:-9.5 102:6.02 103:7.1 104:20.55 105:2.63 106:-8.31 107:-11.22 108:-13.2 109:-14.05 110:-25.09 111:-15.66 112:10.51 113:27.49 114:-7.02 115:11.87 116:-16.83 117:20.87 118:-11.56 119:-0.17 120:-34.67 121:-2.14 122:5.12 123:-6.91 124:-10.3 125:12.32 126:21.91 127:-2.96 128:7.03 129:-10.47 130:23.01 131:-10.81 132:-0.48 133:-17.67 134:-30.25 135:5.59 136:-2.09 137:-30.86 138:9.34 139:28.56 140:-8.12 141:-0.78 142:-3.6 143:17.06 144:-14.92 145:13.77 146:-6.97 147:5.16 148:-1.26 149:4 150:8.68 151:1.25 152:17.36 153:-1.84 154:6.14 155:9.41 156:15.41 157:-2.53 158:11.42 159:-2.56 160:-0.86 161:4.02 162:-3.8 163:-2.02 164:-1.68 165:14.28 166:-5.17 167:0.89 168:5.3 169:15.22 170:-1.32 171:12.81 172:-1.19 173:-1.82 174:-3.33 175:-9.13 176:3.97 177:1.92 178:18.73 179:0.24 180:3.19 181:5.68 182:16.08 183:-5.16 184:6.32 185:-3.24 186:3.12 187:3.55 188:-6.51 189:-3.33 190:-3.61 191:16.43 192:5.58 193:6.63 194:5.27 195:24.7 196:-13.9 197:6.46 198:-17.77 199:-28.06 200:-2.03 201:-24.93 202:-31.28 203:10.74 204:14.35 205:1.44 206:6.27 207:5.24 
-9.2665490565386e-05 0:19.82 1:-0.66 2:4.2 3:-9.04 4:0.33 5:9.44 6:10.75 7:10.57 8:12 9:16.71 10:14.2 11:10.55 12:-2.34 13:20.13 14:-0.59 15:0.93 16:-6.5 17:6.28 18:-4.62 19:4.19 20:-5.41 21:16.1 22:28.32 23:14.95 24:7.91 25:-10.71 26:20 27:-1.66 28:13.2 29:-15.26 30:-4.43 31:-9.85 32:7.71 33:-0.5 34:1.19 35:18.04 36:22.65 37:32.87 38:7.11 39:22.22 40:5.81 41:6.4 42:-19.44 43:-23.91 44:-20.56 45:2.5 46:-1.77 47:3.29 48:19.36 49:20.93 50:34.71 51:0.92 52:20.34 53:-15.07 54:13.82 55:-5.12 56:4.61 57:5.34 58:7.01 59:2.1 60:14.91 61:11.68 62:12.77 63:12.7 64:-5.75 65:21.91 66:-16.38 67:18.89 68:3.15 69:5.81 70:-5.28 71:-1.49 72:0.64 73:10.9 74:10.06 75:24.28 76:17.18 77:7.4 78:20.27 79:-1.66 80:-3.11 81:-3.02 82:6.34 83:3.16 84:3.34 85:-1.08 86:17.1 87:31.31 88:12.49 89:7.33 90:0.66 91:18.94 92:-8.04 93:-0.01 94:4.5 95:6.97 96:13.71 97:9.67 98:5.5 99:8.38 100:17.35 101:12.1 102:4.68 103:7.09 104:18.66 105:-5.7 106:0.6 107:0.03 108:8.2 109:14.56 110:8.98 111:5.98 112:2 113:9.16 114:19.64 115:4.06 116:5.28 117:21.21 118:-3.27 119:-8.58 120:-13.29 121:-1.07 122:22.41 123:-2.68 124:3.37 125:-14.55 126:33.03 127:21.25 128:13.47 129:15.5 130:19.13 131:-9.75 132:11.56 133:1.58 134:3.26 135:14.54 136:3.9 137:-1.96 138:7.81 139:0.39 140:21.47 141:10.84 142:-0.07 143:21.54 144:-10.25 145:14.56 146:9.55 147:-13.25 148:4.75 149:-1.26 150:-12.98 151:13.7 152:21.94 153:35.12 154:10.84 155:14.39 156:18.25 157:-5.79 158:6.91 159:4.4 160:9.73 161:7.03 162:9.16 163:8.85 164:12.6 165:9.74 166:8.92 167:6.6 168:0.79 169:18.34 170:-6.1 171:5.56 172:4.89 173:8.32 174:9.68 175:9.86 176:9.01 177:10.25 178:9.83 179:10.07 180:8.42 181:3.88 182:18.39 183:-5.44 184:6.18 185:4.69 186:7.61 187:7.79 188:10.18 189:8 190:10.19 191:8.9 192:9.1 193:7.56 194:6.62 195:18.48 196:-5.75 197:6.01 198:4.97 199:8.17 200:8.82 201:9.26 202:8.31 203:8.33 204:9.5 205:10.01 206:8.07 207:6.57 208:23.39 209:-4.18 210:6.23 211:-15.04 212:-11.71 213:-1.39 214:-0.96 215:-6.79 216:9.86 217:24.99 218:32.57 219:20.06 220:7.33 
-7.302406051869876e-05 0:17.17 1:3.98 2:-8.45 3:-18.93 4:9.76 5:6.21 6:-2.35 7:-7.7 8:3.8 9:-4.65 10:-31.66 11:7.17 12:11.37 13:22.62 14:-1.09 15:-34.63 16:-1.11 17:-5.25 18:-20.23 19:-8.34 20:-34.98 21:-8.57 22:22.53 23:-18.71 24:11.86 25:-12.63 26:20.35 27:-10.32 28:-3.12 29:-4.21 30:11.64 31:-24.99 32:-26.3 33:-18.39 34:-9.26 35:6.74 36:-23.74 37:13.43 38:13.71 39:22.42 40:3.34 41:-26.27 42:-5.61 43:-13.25 44:-16.51 45:-15.72 46:-42.99 47:-7.41 48:0.59 49:-31.9 50:26.51 51:-2.75 52:24.14 53:-38.41 54:17.52 55:8.15 56:-7.76 57:3.09 58:-35.59 59:-26.37 60:12.76 61:5.11 62:-19.27 63:10.96 64:11.35 65:20.67 66:-25.45 67:4.46 68:21.74 69:13.15 70:-0.94 71:-46.48 72:-32.09 73:2.88 74:-7.18 75:-18.22 76:20.07 77:7.67 78:22.34 79:-37.56 80:11.18 81:13.7 82:-10.71 83:-1.95 84:1.06 85:-25.24 86:5.77 87:22.65 88:-13.01 89:7.83 90:20.07 91:18.43 92:-4.6 93:0.53 94:-15.64 95:-9.81 96:4.14 97:5.51 98:-21.47 99:-19.58 100:5.37 101:-14.12 102:8.33 103:11.58 104:21.29 105:1.03 106:-28.58 107:-10.67 108:-3.77 109:-19.27 110:-5.67 111:-23.44 112:-5.98 113:35.96 114:2.26 115:10.98 116:-16.33 117:20.59 118:-8.8 119:-19.34 120:-18.33 121:-3 122:11.73 123:2.69 124:-5.21 125:-0.72 126:31.15 127:-6.13 128:5.55 129:3.44 130:23.06 131:-1.73 132:-27.55 133:-30.49 134:-20.98 135:-5.65 136:-4.16 137:-13.68 138:7.99 139:32.49 140:-13.23 141:21.65 142:-28.89 143:22.5 144:-28.19 145:3.9 146:-9.16 147:-26.81 148:-2.44 149:6.84 150:-14.42 151:5.44 152:45.15 153:-2.82 154:2.79 155:-5.99 156:17.91 157:1.12 158:-4.04 159:-8.17 160:3.65 161:-6.87 162:-21.08 163:-33.06 164:-2.67 165:30.49 166:-4.27 167:17.11 168:17.08 169:20.52 170:-0.47 171:-16.84 172:-14.78 173:15.1 174:-1.24 175:-32.7 176:-51.03 177:2.98 178:38.61 179:-19.2 180:25.64 181:12.37 182:19.58 183:-3.66 184:-16.56 185:18.29 186:18.26 187:-23.78 188:-23.65 189:-37.59 190:-1.44 191:37.59 192:-14.58 193:10.12 194:23.47 195:24.96 196:-15.46 197:-9.73 198:-18.99 199:-17.31 200:-4.16 201:-20.67 202:-23.7 203:-0.95 204:14.58 205:-5.5 206:4.43 207:-5.63 
-1.300545497324205e-05 0:18.86 1:-7.99 2:18.46 3:-19.54 4:-4.98 5:-11.71 6:-3.07 7:-20.83 8:-21.45 9:-7.33 10:-17.94 11:9.35 12:-18.66 13:21.33 14:5.88 15:7.71 16:-35.96 17:-49.27 18:-16.34 19:-10.76 20:-2.54 21:-21.75 22:-15.7 23:-11.04 24:28.25 25:-7.97 26:21.08 27:5.32 28:5.52 29:-33.94 30:-42.29 31:-10.61 32:-5.36 33:2.56 34:-15.07 35:-9.4 36:-14.11 37:22.32 38:-13.98 39:22.26 40:0.87 41:4.85 42:-36.59 43:-50.61 44:-5.15 45:-8.1 46:-13.57 47:-24.41 48:-16.53 49:-6.05 50:17.71 51:-23.24 52:22.83 53:-22.77 54:30.91 55:-22.35 56:-37.27 57:6.03 58:-35.55 59:-11.1 60:-13.18 61:-14.25 62:-0.31 63:6.78 64:-15.47 65:20.51 66:-11.44 67:19.84 68:6.75 69:-25.91 70:-22.98 71:-30.87 72:-27.48 73:-16.89 74:-26.22 75:-9.54 76:28.06 77:-5.85 78:21.96 79:-26.74 80:28.49 81:-9.44 82:-15.09 83:-5.04 84:-35.52 85:-12.44 86:-22.73 87:-12.71 88:-9 89:14.49 90:0.67 91:18.81 92:-1.02 93:4.03 94:-20.59 95:-23.79 96:-12.09 97:-21.32 98:-21.25 99:-24.7 100:-5.24 101:6.5 102:7.78 103:-4.04 104:19.9 105:-3.13 106:0.02 107:-22.42 108:-25.09 109:-4.81 110:-18.43 111:-29.34 112:-13.7 113:-0.99 114:-7.22 115:3.12 116:-6.65 117:18.06 118:-9.07 119:6.08 120:-9.08 121:-30.07 122:7.21 123:-22.56 124:-8.47 125:-19.66 126:-9.54 127:-12.88 128:21.39 129:2.82 130:22 131:-7.76 132:-0.78 133:-35.21 134:-38.51 135:30.11 136:-22.37 137:-0.59 138:-27.5 139:-20.91 140:-2.34 141:15.11 142:-9.93 143:21.56 144:-28.45 145:15.96 146:-1.26 147:-39.91 148:24.82 149:-7.07 150:-12.31 151:-8.84 152:-10.5 153:-6.35 154:17.13 155:-6.86 156:20.03 157:1.97 158:8.7 159:-11.63 160:-43.41 161:1.36 162:-19.24 163:-29.03 164:-22.97 165:-12.01 166:8.99 167:23.03 168:-2.58 169:19.54 170:-6.12 171:4.11 172:-8.47 173:-34.21 174:-7.18 175:-40.04 176:-28.71 177:-11.98 178:-5.58 179:11.42 180:-5.68 181:-11.09 182:19.69 183:-12.22 184:11.96 185:9.38 186:-35.64 187:8.83 188:-28.48 189:-20.45 190:-3.17 191:-11.33 192:0.16 193:18.68 194:-3.33 195:24.07 196:-8.77 197:12.68 198:-33.8 199:-45.8 200:4.98 201:-19.11 202:-12.93 203:-21.39 204:-16.1 205:-2.68 206:14.84 207:-14.08 
-0.0002929039362317535 0:19.88 1:1.26 2:7.02 3:-3.85 4:4.79 5:12.85 6:17.57 7:5.14 8:-0.06 9:22.53 10:18.66 11:12.89 12:-6.04 13:20.58 14:-1.62 15:2.5 16:-13.17 17:4.35 18:1.47 19:7.52 20:-3.75 21:9.77 22:35.35 23:15.08 24:11.46 25:-2.21 26:20.1 27:-4.14 28:18.21 29:-5.7 30:9.88 31:-2.64 32:5.71 33:2.98 34:-0.3 35:21.42 36:4.03 37:22.86 38:-3.43 39:22.02 40:4.41 41:4.15 42:-19.48 43:-23.55 44:-12.65 45:9.58 46:3.01 47:5.67 48:20.47 49:21.07 50:29.24 51:4.46 52:21.96 53:-22.25 54:25.42 55:-0.94 56:5.49 57:11.58 58:0.19 59:13.05 60:5.96 61:16.73 62:11.09 63:5.92 64:21.74 65:19.07 66:-6.95 67:11 68:7.14 69:10.29 70:-6.26 71:2.23 72:3.77 73:-1.45 74:18.37 75:7.7 76:11.98 77:15.7 78:19.77 79:-12.6 80:12.77 81:-2.45 82:13.2 83:5.15 84:6.16 85:15.49 86:5.6 87:14.63 88:5.54 89:-1.58 90:7.65 91:19.08 92:-11.29 93:14.99 94:2.06 95:13.46 96:6.95 97:9.88 98:16.05 99:6.67 100:11.48 101:2.85 102:-0.61 103:6.99 104:18.78 105:-6.69 106:9.7 107:5.41 108:7.38 109:10 110:8.41 111:6.97 112:9.35 113:8.62 114:6.54 115:5.59 116:9.23 117:18.66 118:-5.22 119:6.93 120:2.88 121:6.47 122:4.39 123:9.07 124:7.34 125:5.2 126:11.37 127:8.03 128:6.7 129:-0.93 130:21.78 131:-5.6 132:2.43 133:-0.47 134:-6.94 135:16.32 136:8.96 137:-2.48 138:5.13 139:24.32 140:13.54 141:22.54 142:17.56 143:18.75 144:-6.28 145:4.82 146:2.75 147:7.7 148:10.57 149:7.21 150:11.32 151:9.89 152:10.74 153:8.53 154:4.48 155:4.54 156:18.16 157:-5.3 158:5.26 159:6.17 160:11.15 161:10.39 162:14.66 163:12 164:8.68 165:11.08 166:6.4 167:2.27 168:2 169:18.77 170:-5.52 171:5.5 172:4.78 173:7.22 174:7.61 175:8 176:8.05 177:9.55 178:8.11 179:7.69 180:7.1 181:4.96 182:19.21 183:-8.19 184:6.55 185:0.85 186:8.4 187:3.58 188:10.2 189:6.63 190:10.74 191:10.34 192:11.12 193:9.62 194:8.98 195:23.25 196:-4.55 197:10.07 198:-14.29 199:-12.31 200:2.74 201:5.46 202:3.97 203:7.26 204:28.54 205:21.88 206:17.92 207:14.12 
-1.70168667040218e-05 0:18.08 1:-8.58 2:-6.76 3:0.33 4:-8.46 5:-2.84 6:-5.31 7:4.07 8:-15.36 9:12.34 10:0.83 11:5.52 12:1.81 13:22.71 14:-3.09 15:-44.27 16:-24.23 17:-20.42 18:-6.91 19:6.1 20:5.42 21:-2.84 22:38.18 23:13.49 24:5.16 25:-5.87 26:18.99 27:-10.4 28:-7.34 29:-17.27 30:-12.19 31:-9.43 32:-0.69 33:4.24 34:0.3 35:34.74 36:3.65 37:10.95 38:6.75 39:23.04 40:-5.29 41:-30.33 42:-24.37 43:-28.36 44:-23.74 45:-4.34 46:-2.1 47:-6.05 48:29.77 49:0.2 50:15.83 51:7.99 52:21.57 53:-23.41 54:11.99 55:-21.83 56:-9.22 57:-8.36 58:-20.61 59:8.84 60:-1.82 61:39.84 62:5.29 63:13.54 64:9.51 65:19.62 66:-17.2 67:-1.45 68:9.35 69:-12.27 70:-19.78 71:-11.83 72:-5.94 73:-14.25 74:33.19 75:4.21 76:9.07 77:19.55 78:21.85 79:-30.45 80:13.65 81:-11.3 82:2.36 83:-1.45 84:-5.63 85:0.3 86:-9.51 87:37.06 88:-2.75 89:13.82 90:19.62 91:17.06 92:-6.2 93:-1.28 94:-3.32 95:2.75 96:-2.52 97:-6.75 98:-6.21 99:-11.52 100:15.09 101:-3.03 102:13.31 103:4.73 104:21.75 105:-1.8 106:-40.58 107:-13.33 108:-18.62 109:-4.1 110:9.21 111:-11.07 112:-0.26 113:37.02 114:-2.2 115:3.25 116:0.32 117:18.64 118:-12.53 119:-15.45 120:-13.2 121:-4.02 122:3.14 123:13.24 124:12.99 125:2.12 126:22.11 127:3.84 128:25.06 129:-5.55 130:22.6 131:-5.55 132:-35.65 133:-22.2 134:-32.63 135:-6.1 136:20.02 137:4.18 138:-17.02 139:17.96 140:15.94 141:14.97 142:-4.01 143:20.9 144:-21.01 145:-3.29 146:-17.27 147:-24.91 148:-5.25 149:6.12 150:2.99 151:5.94 152:38.38 153:8.49 154:22.02 155:-0.46 156:18.19 157:2.68 158:0.69 159:-17.34 160:-22.28 161:-5.5 162:-10.49 163:-6.43 164:-7.31 165:20.29 166:9.28 167:28.89 168:7.48 169:20.43 170:-3.19 171:-18 172:-16.72 173:-17.84 174:-7.74 175:-18.81 176:-7.94 177:13.37 178:41.06 179:14.49 180:24.67 181:-3.77 182:19.68 183:-18.26 184:-1.42 185:-10.75 186:-5.84 187:7.85 188:2.75 189:6.49 190:5.05 191:34.3 192:2.95 193:12.45 194:13.97 195:24.27 196:-11.27 197:-24.48 198:-29.9 199:-20.06 200:-13.76 201:2.2 202:1.3 203:-9.4 204:35.2 205:7.24 206:17.65 207:1.38 
-2.091289053715337e-05 0:20.29 1:-3.61 2:-18.31 3:-23.73 4:-19.79 5:-9.68 6:3.27 7:-13.91 8:7.7 9:29.94 10:-8.05 11:11.66 12:-18.26 13:21.64 14:-10.28 15:-10.44 16:-20.3 17:3.47 18:-42.94 19:-15.14 20:-16.66 21:8.41 22:38.95 23:5.49 24:5.78 25:-3.13 26:21.46 27:-19.52 28:13.47 29:-16.96 30:-1.21 31:-32.27 32:-1.55 33:-7.75 34:-13.94 35:20.5 36:-0.91 37:5.62 38:8.37 39:22.53 40:0.43 41:-5.65 42:-16.66 43:-5.14 44:-38.83 45:-26.3 46:-20.9 47:-17.55 48:9.59 49:-13.42 50:26.71 51:0.08 52:23.64 53:-32.8 54:21.18 55:-0.13 56:-6.03 57:-24.64 58:-20.13 59:-20.43 60:-8.04 61:7.03 62:-0.01 63:19.64 64:8.45 65:20.72 66:-14.84 67:12.09 68:-4.33 69:2.59 70:-27.9 71:-19.7 72:-39.94 73:-2.71 74:21.66 75:6.97 76:9.07 77:-7.33 78:22.99 79:-33.42 80:17.88 81:1.75 82:-7.91 83:-29.21 84:20.14 85:-13.79 86:-21.24 87:31.52 88:-12.16 89:0.37 90:14.25 91:17.79 92:-5.97 93:11.52 94:-13.4 95:-5.6 96:-14.1 97:8.91 98:-10.78 99:-10.46 100:15.61 101:-3.89 102:0.19 103:8.48 104:21.79 105:3.13 106:-14.16 107:-23.49 108:-1.57 109:-38.15 110:-20.76 111:-26.02 112:-12.59 113:46.34 114:-3.15 115:13.17 116:-16.18 117:19.75 118:-16.33 119:-8.21 120:-16.27 121:6.95 122:-23.02 123:-1.34 124:-16.08 125:-5.48 126:29 127:10.79 128:4.23 129:14.98 130:23.22 131:-3.52 132:-16.49 133:-40.39 134:-5 135:-25.44 136:-5.46 137:4.42 138:-23.9 139:34.81 140:-17.35 141:20.61 142:-33 143:23.02 144:-28.5 145:8.31 146:-15.95 147:-16.2 148:-22.8 149:13.22 150:-0.62 151:-12.83 152:36.9 153:10.58 154:-4.88 155:-9.73 156:18.7 157:-2.2 158:14.25 159:-19.92 160:-5.92 161:-28.35 162:-4.55 163:-21.85 164:-20.88 165:16.11 166:7.45 167:13.68 168:6.34 169:19.14 170:2.48 171:7.36 172:-18.2 173:-0.11 174:-20.19 175:-20.87 176:-36.38 177:-14.26 178:29.28 179:-1.25 180:22.06 181:3.95 182:19.2 183:-7.26 184:-1.7 185:1.24 186:-0.82 187:-20.02 188:-12.13 189:-17.64 190:-14.37 191:36.23 192:1.1 193:17.11 194:13.28 195:24.92 196:-11.76 197:-1.58 198:-27.03 199:-9.71 200:-28.03 201:-12.88 202:-19.12 203:-11.05 204:22.37 205:1.38 206:8.2 207:-6.1 
-6.773630461763785e-05 0:19.16 1:-7.3 2:3.71 3:-4.81 4:0.49 5:8.56 6:-0.5 7:0.86 8:6.18 9:19.65 10:-5.13 11:0.17 12:-4.85 13:21.66 14:-3.71 15:-4.15 16:-15.99 17:-11.62 18:-3.22 19:-9 20:-2.56 21:10.5 22:38.98 23:14.69 24:4.95 25:-2.96 26:20.41 27:-4.6 28:7.99 29:-15.69 30:-6.19 31:-5 32:-2.94 33:-4.67 34:-4.2 35:21.45 36:3.56 37:7.32 38:0.22 39:22.64 40:-1.81 41:0.55 42:-24.48 43:-25 44:-11.96 45:-3.73 46:1.43 47:-3.71 48:24.67 49:7.37 50:14.34 51:1.73 52:24.5 53:-29.92 54:20.36 55:-15.39 56:1.57 57:4.99 58:-2.93 59:-3.92 60:-0.09 61:40.44 62:10.22 63:9.88 64:13.47 65:21.63 66:-15.77 67:6.11 68:10.72 69:-9.01 70:-9.68 71:-19.63 72:-11.26 73:-3.11 74:25.04 75:19.41 76:16.29 77:9.52 78:22.15 79:-22.11 80:19.7 81:-11.71 82:8.42 83:2.73 84:2.9 85:-2.31 86:0.43 87:27 88:7.05 89:8.41 90:11.62 91:19.57 92:-11.32 93:5.53 94:1.06 95:0.08 96:12.32 97:6.06 98:-3.39 99:-7.64 100:20.45 101:3.93 102:5.92 103:8.36 104:21.03 105:-9.35 106:-0.3 107:-7.2 108:1.03 109:-2.82 110:-2.07 111:-6.42 112:6.87 113:33.26 114:3.27 115:5 116:4.96 117:18.47 118:-10.66 119:5.16 120:2.39 121:0.33 122:11 123:5.82 124:2.74 125:9.52 126:26.25 127:4.71 128:1.51 129:1.52 130:21.9 131:-9.41 132:-5.36 133:-13.78 134:-9.5 135:13.47 136:-4.95 137:13.56 138:-11.56 139:27.46 140:13.71 141:8.87 142:3.81 143:22.62 144:-24.32 145:13.91 146:-4.4 147:-8.22 148:5.16 149:0.98 150:-3.04 151:9.91 152:28.96 153:9.87 154:3.1 155:10.13 156:19.33 157:-6.36 158:6.68 159:-6.06 160:-8.12 161:-11.3 162:-5.84 163:-8.84 164:2.4 165:32.66 166:19.38 167:16.23 168:7.86 169:20.24 170:-6.35 171:5.3 172:-5.95 173:-8.98 174:-6.33 175:-9.97 176:-10.94 177:-1.29 178:39.21 179:17.84 180:15.28 181:4.83 182:21.26 183:-14.11 184:3.78 185:1.38 186:-1.35 187:8.01 188:1.48 189:-0.52 190:7.03 191:33.65 192:9.39 193:8.47 194:10.12 195:25.04 196:-14.16 197:8.67 198:-22.05 199:-11.95 200:-5.57 201:-3.5 202:-0.11 203:0.84 204:31.84 205:13.82 206:9.36 207:7.03 
-0.0001477213836663855 0:17.42 1:7.25 2:-0.24 3:-5.72 4:-14.64 5:-28.97 6:-15.37 7:-30.38 8:-18.13 9:-9.24 10:-26.18 11:-17.56 12:-25.21 13:21.02 14:6.49 15:-24.21 16:-8.14 17:-30.29 18:-37.11 19:25.67 20:-45.2 21:-32.86 22:7.68 23:-23.32 24:-10.07 25:-20.26 26:18.44 27:6.37 28:-6.85 29:2.22 30:-20.01 31:-30.76 32:-5.9 33:-22.57 34:-42.48 35:15.81 36:3.81 37:-1.27 38:-7.23 39:22.68 40:-0.84 41:-22.06 42:7.71 43:-31 44:-42.5 45:-25.17 46:-45.09 47:-36.52 48:-9.04 49:-21.21 50:5.05 51:-17.6 52:22.9 53:-32.12 54:16 55:3.53 56:-16.98 57:-11.21 58:-60.63 59:-25.69 60:-18.67 61:-12 62:-5.37 63:-16.09 64:-6.15 65:21.25 66:-9.22 67:-5.85 68:31.48 69:-4.73 70:-33.1 71:-54.66 72:-33.8 73:-25.49 74:-10.16 75:-24.04 76:-6.18 77:-16.61 78:20.68 79:-23.79 80:5.15 81:18.46 82:-21.27 83:-8.84 84:-29.35 85:-36.44 86:-10.95 87:-12.98 88:-13.52 89:-6.9 90:-5.26 91:19.66 92:0.96 93:-9.24 94:0.47 95:-28.23 96:-26.86 97:1.34 98:-31.4 99:-34.06 100:-19.87 101:-35.38 102:-10.16 103:-8.16 104:20.57 105:4 106:-14.36 107:-9.75 108:-32.2 109:-30.74 110:12.99 111:-40.66 112:-42.17 113:9.39 114:-16.18 115:-5.22 116:-12.44 117:15.51 118:2.75 119:8.58 120:1.35 121:-16.48 122:-11.73 123:-7.17 124:-6.2 125:-14.83 126:3.96 127:1.35 128:0.04 129:-5.88 130:21.97 131:3.69 132:-10.7 133:4.07 134:-59.42 135:-41.26 136:26.61 137:-34.03 138:-35.24 139:-7.15 140:-24.61 141:-6.73 142:3.96 143:21.73 144:-25.05 145:18.89 146:8.02 147:-56.9 148:-12.46 149:-18.62 150:-38.09 151:-13.42 152:-7.21 153:11.24 154:2.1 155:-12.84 156:20.37 157:2.07 158:-15.47 159:17.59 160:-27.98 161:-33.4 162:-20.8 163:-44.92 164:-35.77 165:-1.89 166:4.02 167:15.33 168:-12.55 169:20.59 170:-0.33 171:-19.87 172:16.98 173:-21.31 174:-45.21 175:-24.16 176:-44.31 177:-26.72 178:22.5 179:-0.99 180:19.72 181:-14.24 182:18.66 183:-4.36 184:-9.92 185:19.5 186:-29.09 187:-30.09 188:-30.04 189:-41.94 190:-20.83 191:8.51 192:3.13 193:3.41 194:-7.95 195:23.93 196:-12.2 197:-5.58 198:-4.33 199:-36.99 200:-23.39 201:-26.09 202:-25.05 203:-38.3 204:-13.18 205:-11.68 206:-12.43 207:-6.3 
-0.0001443774003069839 0:18.85 1:2.88 2:10.71 3:-5.81 4:-20.45 5:-1.97 6:-0.52 7:-11.32 8:-26.25 9:-15.54 10:-5.74 11:3.57 12:-9.4 13:21.62 14:0.41 15:-8.09 16:-13.25 17:-9.65 18:-21.77 19:-14.39 20:-13.23 21:-19.89 22:3.29 23:-31.85 24:-7.58 25:-2.92 26:19.25 27:-4.04 28:6.41 29:-2.89 30:-12.42 31:-10.7 32:-21.68 33:-13.23 34:-24.63 35:-21.9 36:-15.34 37:-11.07 38:0.06 39:22.76 40:-1.82 41:4.7 42:-20.26 43:-36.48 44:-19.64 45:-10.94 46:-31.55 47:-25.18 48:-17.38 49:-15.4 50:5.07 51:-3.88 52:23.51 53:-24.27 54:32.14 55:-11.84 56:-21.31 57:-9.46 58:-43.14 59:-9.22 60:-27.05 61:-13.03 62:-4.94 63:-6.45 64:-8.31 65:18.7 66:-12.17 67:9.61 68:15.61 69:-11.04 70:-24.26 71:-34.92 72:-8.23 73:-28.71 74:-13.85 75:-22.71 76:0.95 77:3.82 78:23.67 79:-35.41 80:36.6 81:-1.52 82:-6.65 83:-7.08 84:-23.77 85:-2.29 86:-31.58 87:-6.5 88:-22.68 89:-2.77 90:4.92 91:19.87 92:-2.49 93:24.82 94:0.34 95:-6.47 96:-8.07 97:-27.81 98:-22.08 99:-42.93 100:-15.56 101:-16.51 102:-0.19 103:-0.38 104:20.76 105:-0.77 106:-5.85 107:-16.77 108:-11.59 109:-25.32 110:-21.9 111:-9.56 112:-27 113:-0.88 114:-28.66 115:-20.04 116:-10.29 117:19.58 118:-16.54 119:-9.66 120:-2.6 121:-15.18 122:-5.12 123:-2.26 124:-3.85 125:-36.96 126:-1.15 127:-16.5 128:-3.63 129:-0.65 130:21.5 131:-5.12 132:-8.73 133:-36.22 134:-16.22 135:-24.64 136:-3.63 137:-6.93 138:-35.28 139:15.04 140:-21.56 141:-5.15 142:-10.15 143:23.28 144:-30.41 145:16.36 146:-11.25 147:-32.23 148:-1.33 149:-15.89 150:-6.31 151:-13.94 152:11.76 153:-20.26 154:-7.34 155:-10.01 156:19.75 157:-3.36 158:19.99 159:-13.04 160:-34.1 161:-30.02 162:-13.85 163:-25.18 164:-20.83 165:-29.56 166:-17.82 167:8.21 168:2.53 169:21.88 170:-1.49 171:8.45 172:-14.93 173:-46.57 174:-22.07 175:3.25 176:-21.25 177:-26.37 178:-36.63 179:-10.06 180:11.71 181:-3.06 182:18.24 183:-4.86 184:5.78 185:-4.42 186:-22.33 187:-13.17 188:-20.18 189:-12.47 190:-18.26 191:-7.98 192:-3.05 193:-4.16 194:7.16 195:22.99 196:-0.93 197:-0.63 198:-15.88 199:-24.84 200:-17.28 201:-14.29 202:-22.19 203:-15.36 204:-10.78 205:-18.14 206:1.95 207:-0.85 
-3.087355591511558e-05 0:18.2 1:7.18 2:-6.87 3:-22.53 4:-22.32 5:-9.06 6:11.27 7:-1.11 8:-18.33 9:5.67 10:7.38 11:11.97 12:8.98 13:22.02 14:6.7 15:-30.1 16:-6.2 17:-9.55 18:-17.38 19:-16.85 20:-33.08 21:-12.36 22:33.31 23:-4.98 24:10.82 25:-6.9 26:19 27:-6.84 29:-12.49 30:-6.9 31:-18.85 32:-13.44 33:-13.19 34:-7.37 35:21.97 36:8.28 37:5.99 38:17.66 39:21.82 40:14.55 41:-14.86 42:-18.56 43:-17.91 44:-18.19 45:-22.88 46:-38.7 47:-14.62 48:16.02 49:-23.27 50:16.23 51:23.11 52:19.86 53:-1.43 54:-13.92 55:6.25 56:-2.41 57:-40.89 58:-13.14 59:-25.53 60:-3.53 61:13.14 62:-8.25 63:14.17 64:10.8 65:22.9 66:-35.55 67:13.71 68:6.59 69:-14.46 70:-10.68 71:-6.07 72:-12.62 73:4.64 74:9.76 75:-9.5 76:13.43 77:25.37 78:17.91 79:-1.29 80:6.14 81:-8.06 82:-12.71 83:-0.46 84:3.81 85:-7 86:-11.84 87:-1.45 88:-10.05 89:8.54 90:10.8 91:20.35 92:1.76 93:-19.29 94:-15.63 95:-0.81 96:-13.91 97:-9.75 98:-13.08 99:-11.84 100:38.9 101:-1.74 102:16.51 103:-3.69 104:19.42 105:-4.19 106:-11.59 107:-22.49 108:0.07 109:-1.98 110:-3.64 111:-2.83 112:-25.72 113:34.94 114:12.05 115:7.14 116:12.53 117:22.95 118:5.88 119:-21.41 120:-32.49 121:-19.8 122:-4.97 123:-14.62 124:-18.44 125:-22.6 126:24.94 127:8.91 128:7.23 129:-8.47 130:22.19 131:-27.39 132:3.35 133:-5.69 134:-24.63 135:-18.45 136:14.28 137:-21.83 138:-20.66 139:43.58 140:17.4 141:9.69 142:13.44 143:18.69 144:1.21 145:0.57 146:-8.49 147:-9.96 148:-16.43 149:-3.68 150:-29.21 151:-27.15 152:22.56 153:5.3 154:9.76 155:15.17 156:19.08 157:6.32 158:3.71 159:-10.56 160:-12.28 161:-13.48 162:-21.21 163:-38.72 164:-22.58 165:19.18 166:5.04 167:11.19 168:6.71 169:19.13 170:-7.83 171:-5.8 172:-1.61 173:-2.59 174:-13.17 175:-2.95 176:-2.12 177:-9.81 178:30.26 179:3.46 180:5.71 181:17.27 182:24.16 183:-8.26 184:-7.12 185:-21.85 186:-16.25 187:-9.99 188:-11.67 189:-32.75 190:-15.72 191:22.16 192:6.26 193:6.38 194:7.42 
-5.763819788269814e-05 0:18.4 1:-8.85 2:0.64 3:0.53 4:-0.68 5:11.44 6:-7.03 7:0.22 8:-13.16 9:16.26 10:2.63 11:15.74 12:7.66 13:23.15 14:-9.42 15:-33.66 16:-19.84 17:-20.74 18:0.03 19:-31.25 20:13.62 21:-3.69 22:28.48 23:4.13 24:-12.05 25:16.32 26:20.62 27:-29.61 28:4.49 29:-16.01 30:7.73 31:-10.98 32:-7.07 33:7.99 34:13.22 35:42.93 36:4.98 37:3.3 38:11.21 39:22.47 40:-0.67 41:-22.39 42:-24.2 43:-35.86 44:-23.76 45:-25.26 46:1.29 47:4.13 48:29.55 49:14.42 50:-1.22 51:18.55 52:24.06 53:-38.25 54:24.8 55:-20.29 56:-14.73 57:-18.83 58:-27.57 59:10.06 60:-2.76 61:46.41 62:14.71 63:13.39 64:18.3 65:19.79 66:-22.52 67:16.41 68:4.42 69:-10.58 70:-18.59 71:-35.23 72:4.13 73:-8.14 74:24.83 75:7.6 76:6.83 77:11.92 78:24.69 79:-41.48 80:34.66 81:-15.99 82:-2.7 83:-6.37 84:-24.5 85:5.9 86:-5.38 87:29.76 88:6.67 89:10.6 90:8.09 91:18.44 92:-3.66 93:0.01 94:-12.57 95:-7.94 96:1.52 97:-10.3 98:1.75 99:-15.42 100:13.98 101:1.75 102:-3.99 103:6.7 104:21.49 105:-6.81 106:-29.08 107:-11.68 108:-20.35 109:1.07 110:-18.33 111:-1.08 112:3.7 113:21.28 114:12.13 115:-19.92 116:10.41 117:19.27 118:-19.78 119:-13.61 120:-18.32 121:-0.07 122:-3.63 123:-6.49 124:15.69 125:16.4 126:25.09 127:0.19 128:7.08 129:16.87 130:21.51 131:-4.68 132:-26.76 133:-16.4 134:-34.42 135:8.75 136:-14.05 137:12.89 138:-23.81 139:28.84 140:13.39 141:-7.38 142:11.31 143:22.52 144:-31.76 145:11.05 146:-9.35 147:-27.02 148:-7.76 149:-4.76 150:0.96 151:-8.85 152:50.33 153:7.13 154:-3.55 155:6.39 156:19.09 157:8.32 158:-14.75 159:-23.97 160:-12.91 161:-10.68 162:-32.53 163:-10.47 164:10.53 165:33.33 166:10.49 167:24.64 168:8.16 169:21.41 170:4.08 171:-25.86 172:-27.59 173:-17.82 174:-10.45 175:-40.9 176:-12.34 177:21.48 178:44.16 179:13.76 180:15.86 181:6.58 182:20.63 183:-15.19 184:8.42 185:-7.86 186:-1.24 187:6.1 188:-9.57 189:8.15 190:3.61 191:32.94 192:2.32 193:8.5 194:-3.26 195:25.45 196:-18.78 197:-7.35 198:-36.02 199:-9.71 200:-15.47 201:-22.5 202:6.64 203:-0.34 204:41.41 205:5.38 206:7 207:9.67 
-8.436297728241096e-05 0:18.47 1:15.82 2:7.15 3:-31.99 4:-22.7 5:-19.37 6:2.33 7:1.55 8:-20.88 9:-18.08 10:-23.41 11:-1.72 12:-1.96 13:20.49 14:12.02 15:-7.97 16:-22.31 17:-27.67 18:-13.18 19:7.99 20:-7.42 21:-44.39 22:0.73 23:1.39 24:-11.25 25:-16.93 26:18.28 27:1.62 28:4.37 29:-15.6 30:-19.55 31:-13.09 32:-20.95 33:-17.89 34:-33.21 35:-5.24 36:2.75 37:-3.68 38:0.58 39:22.04 40:6.47 41:-12.47 42:2.87 43:-41.49 44:-37.68 45:-4.49 46:-28.3 47:-60.99 48:-19.39 49:-9.14 50:2.42 51:-9.88 52:23.96 53:-28.42 54:26.46 55:-3.37 56:-39.01 57:-0.94 58:-68.69 59:-11.84 60:-40.28 61:-30.61 62:9.98 63:-13.94 64:-1.18 65:19.81 66:-8.38 67:22.3 68:13.27 69:-19.16 70:2.05 71:-56.76 72:-8 73:-35.58 74:-28.75 75:-1.7 76:-23.23 77:-5.44 78:21.92 79:-26.44 80:22.42 81:1.66 82:-26.88 83:0.36 84:-40.26 85:-18.52 86:-27.97 87:-19.69 88:-3.25 89:-13.5 90:4.31 91:19.51 92:0.03 93:2.55 94:-15.33 95:-37.09 96:-5.91 97:-6.94 98:-8.25 99:-32.66 100:-25.93 101:-25.61 102:-5.97 103:-0.06 104:20.09 105:4.91 106:-14.75 107:-6.86 108:-28.39 109:-31.61 110:12.09 111:-23.11 112:-43.6 113:2.55 114:-8.73 115:-9.71 116:-13.22 117:17.49 118:-7.88 119:3.92 120:-7.72 121:-26.98 122:-14.91 123:-29.57 124:-5.04 125:-42.39 126:-4.75 127:1.85 128:-12.65 129:2.89 130:22.1 131:-8.57 132:5.78 133:-3.88 134:-66.39 135:-27.35 136:-1.88 137:-8.65 138:-50.05 139:-24.07 140:6.97 141:-4.42 142:8.01 143:22.09 144:-34.38 145:23.77 146:2.63 147:-58.36 148:-9.42 149:-29.41 150:-20.53 151:-30.71 152:-10.94 153:8.79 154:1.97 155:-2.57 156:18.42 157:-4.46 158:11.07 159:11.93 160:-40.95 161:-12.37 162:-22.97 163:-18.72 164:-44.48 165:-24.42 166:11.82 167:14.77 168:-10.23 169:20.47 170:4.97 171:-9.17 172:7.67 173:-26.46 174:-45.16 175:-34.37 176:-14.09 177:-43.2 178:1.78 179:16.95 180:16.7 181:-5.04 182:18.74 183:-7.42 184:-1.4 185:7.43 186:-28.79 187:-33.94 188:-30.19 189:-18.3 190:-33.11 191:-2.68 192:-0.33 193:-4.16 194:2.9 195:24.24 196:-13.52 197:9.53 198:-12.07 199:-51.08 200:-7.53 201:-31.88 202:-7.46 203:-57.78 204:-28.97 205:9.87 206:-16.79 207:-7.55 
-7.45477434559504e-06 0:17.7 1:-0.04 2:16.7 3:-4.6 4:-39.59 5:2.31 6:-23.29 7:11.1 8:-35.67 9:-19.37 10:-29.99 11:-0.49 12:1.29 13:19.57 14:2.99 15:-3.79 16:-13.03 17:-33.14 18:-5.69 19:-14.8 20:0.11 21:-33.5 22:-5.9 23:-13.89 24:18.47 25:-15.48 26:20.57 27:-17.57 28:16.55 29:-8.82 30:-22.68 31:-13.89 32:-32.42 33:-6.73 34:-36.95 35:-15.59 36:-13.18 37:-3.95 38:0.48 39:22.04 40:6.06 41:3.08 42:-11.84 43:-35.15 44:-13.03 45:-43.23 46:-1.52 47:-41.22 48:-4.18 49:-16.35 50:31.58 51:-8.4 52:25.98 53:-42.27 54:29.2 55:14.49 56:-49.51 57:-7.01 58:-32.04 59:-26.97 60:-25.42 61:-0.04 62:-23.47 63:6.56 64:4.1 65:18.49 66:-6.38 67:7.05 68:26.42 69:-25.18 70:-34.33 71:-47.89 72:-12.27 73:-14.76 74:-19.01 75:-20.04 76:20.24 77:6.42 78:21.8 79:-35.92 80:23.93 81:33.64 82:-49.09 83:-10.52 84:-34.85 85:-24.24 86:-34.94 87:0.64 88:-28.12 89:0.72 90:8.35 91:19.48 92:-5.52 93:9.99 94:-5.17 95:-52.01 96:1.94 97:-15.18 98:14.45 99:-31.86 100:-6.97 101:-13.61 102:11.98 103:8.51 104:20.52 105:2.93 106:-6.47 107:-21.32 108:-48.38 109:-13 110:-15.64 111:-7.92 112:-41.92 113:3.92 114:-2.08 115:-2.33 116:-0.4 117:19.28 118:-23.22 119:7.78 120:-12.97 121:-32.79 122:-7.68 123:-11.17 124:-2.13 125:-16.92 126:-11.22 127:-12.13 128:-5.82 129:-11.45 130:21.87 131:-4.32 132:3.55 133:-26.18 134:-58.62 135:-4.44 136:4.87 137:-0.14 138:-42.44 139:-3.46 140:-12.92 141:25.2 142:-9.65 143:23.74 144:-40.28 145:14.17 146:-6.68 147:-57.02 148:-13.14 149:-7.01 150:-9.21 151:-38.41 152:17.57 153:-0.51 154:-4.29 155:-5.16 156:20.02 157:-2.96 158:13.57 159:-1.27 160:-50.18 161:-18.28 162:-13.54 163:-20.6 164:-62.22 165:0.01 166:3.16 167:14.91 168:1.54 169:19.55 170:-2.05 171:6.55 172:-1.42 173:-30.01 174:-30.58 175:-40.14 176:-38.57 177:-41.83 178:-1.98 179:-6.89 180:4.46 181:-14.85 182:19.25 183:-2.92 184:5.49 185:19.64 186:-33.55 187:-32.63 188:-44.52 189:-24.97 190:-50.26 191:1.49 192:-4.21 193:-0.67 194:-2.43 195:26.04 196:-25.19 197:18.59 198:-9.87 199:-59.41 200:-4.54 201:-24.83 202:-20.74 203:-31.39 204:-10.02 205:-20.06 206:13.97 207:-0.57 
-4.643450927233516e-05 0:19.93 1:-10.23 2:-8.79 3:-18.16 4:-7.29 5:4.55 6:-5.56 7:-36.45 8:-19.65 9:-5.33 10:-15.16 11:-11.14 12:-5.36 13:18.73 14:-8.21 15:-0.47 16:-11.66 17:-8.68 18:5.11 19:-12.49 20:-26.3 21:-23.77 22:-15.13 23:-14.04 24:-9.9 25:-9.03 26:21.48 27:-8.34 28:12.85 29:-19.05 30:-24.4 31:4.17 32:-1.25 33:-31.51 34:-19.24 35:-16.97 36:-4.48 37:19.56 38:-8.04 39:23.97 40:-9.35 41:3.43 42:-18.19 43:-39.33 44:-3.31 45:1.79 46:-35.88 47:-19.41 48:-23.9 49:-9.89 50:14.98 51:-18.76 52:25.95 53:-38.29 54:24.07 55:-4.15 56:-25.05 57:5.26 58:-41.72 59:-27.37 60:-5.08 61:-14.02 62:-15.58 63:12.41 64:4.64 65:21.65 66:-16.46 67:7.18 68:24.33 69:-24.93 70:-11.43 71:-30.43 72:-26.94 73:-21.56 74:-28.72 75:-8.15 76:12.21 77:-7.45 78:23.77 79:-31.92 80:29.57 81:2 82:-17.47 83:12.91 84:-30.75 85:-18.74 86:-13.87 87:-22.47 88:-15.25 89:7.2 90:-5.3 91:21.82 92:-10.53 93:-3.57 94:-10.27 95:-3.74 96:4.27 97:-17.33 98:-37.22 99:-16.5 100:-17.5 101:-23.16 102:-15.66 103:-12.06 104:23.15 105:-15.5 106:-14.55 107:-21.64 108:-21.45 109:25.99 110:-14.16 111:-15.52 112:-29.33 113:-10.09 114:-26.46 115:9.52 116:-16.67 117:22.19 118:-18.36 119:-16.43 120:-24.81 121:-22.67 122:19.87 123:-30.86 124:-21.85 125:-27.67 126:-15.59 127:-22.55 128:4.27 129:-8.03 130:20.71 131:-14.08 132:-5.37 133:-20.74 134:-17.47 135:11.44 136:-28.14 137:-31.6 138:-9.81 139:-14.16 140:-19.25 141:3.32 142:-22.84 143:23.96 144:-38.58 145:10.2 146:-1.47 147:-28.64 148:21.19 149:-6.58 150:-23.97 151:-1.98 152:-5.77 153:-22.28 154:-8.2 155:-11.7 156:20.72 157:-9.92 158:14.4 159:-11.66 160:-23.76 161:-11.6 162:-9.16 163:-38.41 164:-27.93 165:-23.33 166:3.71 167:8.09 168:3.28 169:21.2 170:-10.6 171:11.27 172:-15.8 173:-22.94 174:-9.09 175:-9.35 176:-46.67 177:-30.84 178:-22.52 179:10.81 180:-3.26 181:-17.04 182:22.33 183:-23.96 184:11.34 185:-4.27 186:-12.43 187:9.97 188:-24.21 189:-30.47 190:-15.42 191:-18.32 192:-1.89 193:-1.51 194:-2.79 195:26.39 196:-21.47 197:7.49 198:-21.24 199:-28.32 200:13.27 201:-22.15 202:-27.77 203:-21.85 204:-18.21 205:-12.74 206:3.13 207:-9.65 
-0.0001017212571236451 0:18.58 1:-2.42 2:-1.07 3:-5.21 4:-25.93 5:-16.7 6:-20.03 7:-1.69 8:-18.82 9:-22.59 10:-31.93 11:17 12:-18.4 13:22.02 14:-11.16 15:-17.32 17:-15.03 18:-32.03 19:-23.73 20:-15.44 21:-21.51 22:8.04 23:-54.87 24:17.45 25:-41.14 26:20.5 27:-23 28:-0.68 29:6.71 30:-5.29 31:-23.41 32:-31.06 33:-2.62 34:-20.84 35:5.9 36:-38.2 37:0.68 38:-18.26 39:22.63 40:-6.37 41:-13.24 42:11.47 43:-17.19 44:-36.26 45:-38.9 46:-33.45 47:-28.33 48:-11.48 49:-41.19 50:29.15 51:-3.48 52:23.35 53:-36.48 54:9.23 55:18.49 56:-25.07 57:-23.28 58:-43.02 59:-22.24 60:-24.92 61:-15.06 62:-36.7 63:17.21 64:-7.99 65:20.16 66:-18.64 67:10.86 68:23.64 69:-8.46 70:-23.4 71:-51.68 72:-14.65 73:-9.33 74:-18.59 75:-32.22 76:16.71 77:-19.89 78:23.14 79:-38.23 80:16.32 81:19.83 82:-24.97 83:-11.17 84:-36.18 85:-32.39 86:-23.75 87:-5.6 88:-34.07 89:15.27 90:-5.29 91:19.4 92:-1.68 93:-3.72 94:2.2 95:-20.16 96:-16.74 97:-17.69 98:0.46 99:-29.01 100:-16.73 101:-30.93 102:9.64 103:-26.4 104:21.8 105:-9.36 106:-13.5 107:-0.24 108:-10.77 109:-30.34 110:-21.25 111:-9.28 112:-21.69 113:17.58 114:-57.62 115:1.02 116:-42.64 117:20.09 118:-22.6 119:-14.57 120:8.58 121:-16.78 122:4.05 123:-15.59 124:14.3 125:-26.27 126:4.36 127:-24.12 128:6.05 129:-6.48 130:22.82 131:-14.3 132:-16.81 133:-6.51 134:-26.81 135:-9.34 136:-18.92 137:-4.23 138:-29.56 139:4.87 140:-44.94 141:-1.45 142:-48.65 143:22.63 144:-38.64 145:5.67 146:16.66 147:-33.71 148:-11.99 149:-13.41 150:-13.12 151:-27.09 152:7.02 153:-40.85 154:-15.72 155:-29.66 156:20.43 157:-10.73 158:0.8 159:9.94 160:-18.02 161:-18.04 162:-27.09 163:-19.86 164:-36.3 165:4.84 166:-25.32 167:16.86 168:-1.49 169:19.66 170:-9.53 171:-5.01 172:-6.65 173:0.3 174:-26.02 175:-47.85 176:-34.99 177:-18.27 178:8.03 179:-32.11 180:12.35 181:4.6 182:20.46 183:-17.72 184:-17.28 185:19.58 186:-0.85 187:-36.2 188:-46.42 189:-14.67 190:-26.69 191:11.62 192:-44 193:5.09 194:-6.17 195:24.77 196:-17.49 197:-6.37 198:0.45 199:-25.61 200:-19.96 201:-36.72 202:-19.65 203:-26 204:-7 205:-39.46 206:3.49 207:-27.77 
-0.0001267704938504307 0:18.27 1:-2.39 2:1.11 3:-17.93 4:-1.36 5:-5.98 6:-12.79 7:-11.97 8:-35.46 9:-10.9 10:-6.82 11:-0.19 12:-26.94 13:20.57 14:-6.93 15:4.33 16:-26.01 17:-5.1 18:-7.53 19:-33.8 20:3.3 21:-30.32 22:-15.4 23:3.73 24:-1.48 25:-4.35 26:20.39 27:-2.25 28:16.81 29:-22.26 30:-7.94 31:-7.25 32:-9.15 33:2.24 34:-22.35 35:-16.11 36:1.22 37:11.65 38:-5.73 39:22.62 40:-1.62 41:11.26 42:-30.81 43:-30.84 44:-11.03 45:-19.23 46:-7.24 47:-36.72 48:-33.56 49:-5.81 50:6.85 51:-10.63 52:22.73 53:-27.02 54:23.34 55:-10.05 56:-19.39 57:-2.49 58:-46.29 59:-10.45 60:-15.08 61:-33.12 62:7.91 63:15.42 64:-3.67 65:21.67 66:-16.51 67:13.7 68:3.56 69:-8.9 70:-37.65 71:-39.19 72:-2.19 73:-32.46 74:-21.73 75:-8.02 76:27.25 77:-12.93 78:22.3 79:-28.61 80:27.19 81:-5.89 82:-4.66 83:-4.61 84:-35.2 85:2.04 86:-19.33 87:-18.75 88:-2.28 89:17.82 90:-6.88 91:18.14 92:-2.96 93:8.66 94:-9.4 95:-5.15 96:-5.93 97:-21.79 98:-1.68 99:-21.82 100:-8.22 101:-4.26 102:1.28 103:-7.77 104:21.13 105:-8.94 106:-1.07 107:-26.86 108:-2.01 109:-17.85 110:-29.69 111:3.99 112:-23.82 113:-8.46 114:-8.43 115:0.1 116:-2.88 117:18.02 118:-11.47 119:-7.09 120:-16.4 121:1.73 122:2.65 123:-8.28 124:10.26 125:-18.03 126:-4.48 127:7.59 128:12.99 129:-6.5 130:22.38 131:-8.76 132:-2.28 133:-36.02 134:-10.3 135:13.05 136:-26.15 137:23.63 138:-44.72 139:-15.99 140:-2.62 141:12.08 142:-26.62 143:22.07 144:-27.7 145:17.52 146:-15.99 147:-17.25 148:15.07 149:-21.12 150:0.51 151:-1.74 152:-16.53 153:2.93 154:6.12 155:-15.78 156:18.57 157:-3.03 158:9.14 159:-17.23 160:-20.99 161:-13.66 162:-13 163:-15.48 164:-28.72 165:-14.44 166:11.84 167:15.23 168:-0.54 169:19.88 170:-3.47 171:9.57 172:-28.61 173:-15.91 174:-20.08 175:-9.72 176:-16.59 177:-42.74 178:-2.12 179:4.96 180:-1.32 181:-9.04 182:20.77 183:-14.91 184:6.85 185:0.25 186:-4.82 187:-6.19 188:-21.27 189:3.42 190:-3.12 191:-21.84 192:-5.13 193:8.21 194:-7.03 195:24.29 196:-10.4 197:8.75 198:-26.22 199:-19.38 200:-3.04 201:-27.71 202:-0.77 203:-30.11 204:-28.81 205:0.61 206:8.7 207:-13.74 
-3.515719571084733e-06 0:19.2 1:-8.07 2:-14.41 3:-16.08 4:-32.88 5:7.05 6:1.34 7:6.71 8:-21.59 9:-2.05 10:-14.64 11:6.98 12:-7.77 13:22.39 14:-9.55 15:-43.48 16:-22.33 17:-26.78 18:0.15 19:-13.07 20:-5.26 21:-17.22 22:-5.07 23:-26.01 24:-7.27 25:-15.17 26:20.51 27:-13.03 28:-12.9 29:-15.86 30:-21.73 31:-4.4 32:-20.36 33:1.46 34:-13.31 35:-0.37 36:-24.06 37:7.65 38:2.41 39:22.67 40:-2.61 41:-29.58 42:-24.44 43:-40.84 44:-3.28 45:-21.8 46:-12.91 47:-18.71 48:-6.19 49:-25.37 50:5.49 51:-7.21 52:23.42 53:-31.5 54:1.28 55:-22.39 56:-27.54 57:-10.24 58:-23.01 59:-9.58 60:-31.82 61:7.64 62:-30.95 63:1.66 64:-6.88 65:21.82 66:-36.9 67:-5.52 68:-22.6 69:-34.85 70:-17.62 71:-31.13 72:-9.49 73:-34.52 74:2.87 75:-30.43 76:-5.29 77:-10.7 78:22.79 79:-35.67 80:-2.27 81:-21.38 82:-27.34 83:-9.56 84:-25.69 85:0.03 86:-30.02 87:9.67 88:-20.16 89:4.45 90:3.77 91:19.61 92:-10.6 93:-13.36 94:-1.48 95:-24.79 96:7.45 97:-9.03 98:4.99 99:-19.32 100:-4.87 101:-28.12 102:9.06 103:-5.47 104:23.02 105:-11.12 106:-43.27 107:-12.7 108:-29.9 109:8.81 110:-0.51 111:-11.66 112:-8.09 113:7.51 114:-23.1 115:3.63 116:-10.58 117:18.68 118:-17.15 119:-22.05 120:-6.57 121:-22.12 122:0.5 123:-18.45 124:-7.28 125:-18.74 126:7.85 127:-16.71 128:5.15 129:-3.87 130:22.86 131:-9.77 132:-36.21 133:-20.42 134:-43.91 135:10.43 136:7.27 137:-13.41 138:-22.31 139:-6.43 140:-6.08 141:10.84 142:-18.47 143:21.78 144:-30.2 145:-6.95 146:-15.83 147:-23.76 148:3.92 149:-14.73 150:-5.27 151:-35.25 152:10.11 153:-27.56 154:0.51 155:1.76 156:19.64 157:-12.65 158:-21.26 159:-14.11 160:-30.48 161:-11.51 162:-22.4 163:-12.12 164:-28.69 165:1.93 166:-12.95 167:18.74 168:0.04 169:21.12 170:-8.54 171:-35.96 172:-14.01 173:-27.84 174:-11.3 175:-31.81 176:-27.27 177:-13.69 178:10.47 179:-23.36 180:15.55 181:-7.64 182:20.68 183:-21.63 184:-21.26 185:-12.6 186:-24.55 187:-15.27 188:-36.66 189:-11.74 190:-16.84 191:18.49 192:-12.7 193:12.38 194:-9.68 195:24.43 196:-19.83 197:-18.51 198:-35.08 199:-29.98 200:-9.87 201:-25.47 202:-8.38 203:-32.26 204:0.34 205:-32.4 206:-1.62 207:-13.44 
