svm_type nu_svr
kernel_type polynomial
degree 3
gamma 0.00454545
coef0 0
nr_class 2
total_sv 299
rho -0.772765
probA 0.238642
SV
1.156727044149264e-07 0:17.6 1:-4.2 2:6.04 3:-7.88 4:-0.9 5:-4.82 6:-8.78 7:-0.41 8:3.67 9:-4.97 10:-6.16 11:-12 12:-8.18 13:20.56 14:0.61 15:-9.58 16:-5.96 17:-12.38 18:-20.32 19:-26.02 20:-19.46 21:36.05 22:2.1 23:-3.37 24:-5.92 25:-8.89 26:19.91 27:-7.75 28:13.08 29:-4.78 30:9.14 31:-25.38 32:-24.57 33:-15.84 34:17.12 35:-13.5 36:-12.23 37:-1.31 38:8.68 39:21.85 40:11.47 41:-5.21 42:-6.04 43:-10.5 44:-21.15 45:-23.34 46:-21.27 47:11.57 48:-17.86 49:-5.82 50:25.2 51:-0.76 52:23.98 53:-34.43 54:26.45 55:2.44 56:2.04 57:-1.98 58:-22.68 59:-9.09 60:33.28 61:-30.42 62:-15.25 63:10.94 64:9.66 65:19.21 66:-9.7 67:20.12 68:13.97 69:10.16 70:-19.19 71:-21.8 72:-14.95 73:18.31 74:-28.44 75:-12.48 76:15.93 77:-9.89 78:22.67 79:-36.59 80:20.06 81:0.6 82:-1.19 83:0.55 84:-12.47 85:-22.69 86:35.88 87:-5.4 88:-19.81 89:-16.02 90:13.34 91:18.04 92:3.88 93:13.23 94:-3.74 95:8.56 96:-0.64 97:-17.8 98:-5.3 99:4.99 100:-27.35 101:-6.75 102:4.43 103:-0.37 104:20.12 105:5.54 106:-6.06 107:-11.12 108:0.87 109:-18.94 110:-13.72 111:-4.54 112:17.54 113:6.52 114:-4.45 115:10.78 116:-24.43 117:20.77 118:-8.39 119:2.09 120:-34.42 121:10.76 122:-3.72 123:-0.56 124:1.48 125:17.91 126:-2.42 127:-8.6 128:2.04 129:-24.82 130:22.84 131:-8.09 132:3.51 133:-20.05 134:-16.95 135:-4.27 136:4.89 137:-20.82 138:19.78 139:4.81 140:-6.37 141:-4.05 142:-12.31 143:17.61 144:-13.3 145:22.89 146:-6.02 147:21.08 148:-9.06 149:11.04 150:6.8 151:0.97 152:-7.32 153:2.2 154:1.96 155:5.5 156:14.89 157:-1.4 158:11.43 159:-7.31 160:9.53 161:-8.35 162:-2.92 163:2.17 164:-4.17 165:-3.36 166:-5.71 167:-5.34 168:-1.14 169:15.1 170:0.1 171:14.91 172:-6.31 173:5.13 174:-16.53 175:-6.26 176:2.1 177:-3.09 178:-7.38 179:-3.99 180:-14.21 181:-4.39 182:15.89 183:-3.36 184:9.98 185:-9.4 186:12.18 187:-7.74 188:-2.77 189:-4.74 190:-0.86 191:-9.91 192:-7.33 193:-6.88 194:-3.06 195:24.58 196:-10.85 197:11.28 198:-18.79 199:-12.56 200:-9.8 201:-15.43 202:-21.8 203:20.09 204:-8.51 205:1.13 206:3.59 207:-2.23 
-3.902871992256252e-08 0:16.2 1:11.05 2:12.81 3:-11.99 4:-7.63 5:-21 6:-19.06 7:-5.6 8:-21.31 9:-27.59 10:-7.47 11:-0.71 12:-12.18 13:21.13 14:9.21 15:-15.48 16:-26.97 17:0.56 18:-16.3 19:-21.62 20:-8.5 21:1.87 22:17.96 23:5.08 24:-11.48 25:-7.1 26:19.8 27:-2.06 28:7.83 29:-19.6 30:5.95 31:-18.3 32:-19.92 33:-8.55 34:-1.43 35:16.36 36:5.69 37:1.32 38:-2.39 39:22.28 40:6.28 41:-12.18 42:-31.81 43:-8 44:-24.41 45:-25.56 46:-20.26 47:-11.58 48:12.17 49:12.3 50:5.74 51:-14.25 52:22.96 53:-29.19 54:30.02 55:-24.89 56:-0.43 57:1.49 58:-48.49 59:8.27 60:-14.96 61:12.2 62:5.71 63:-13.87 64:1.02 65:18.2 66:-14.32 67:11.62 68:-7.55 69:13.86 70:-26.46 71:-36.68 72:4.04 73:-11.82 74:0.13 75:-8.18 76:4.49 77:-7.78 78:22.45 79:-31.12 80:32.88 81:-7.71 82:6.36 83:7.32 84:-40.15 85:3.72 86:-4.19 87:-6.27 88:-6.52 89:-6.89 90:7.71 91:17.55 92:10.17 93:7.53 94:-21.81 95:-10.43 96:-3.89 97:-11.15 98:-13.13 99:-20.95 100:-2.99 101:6.88 102:1.65 103:-10.93 104:21.05 105:13.99 106:-11.62 107:-27.92 108:2.88 109:-7.8 110:-17.58 111:-23.63 112:0.6 113:15.99 114:-1.78 115:-8.32 116:-8.8 117:17.81 118:0.66 119:-0.42 120:-32.85 121:7.94 122:-3.07 123:-8.33 124:5.83 125:-15.82 126:7.74 127:1.67 128:3.05 129:-8.81 130:22.04 131:9.95 132:-8.59 133:-50.46 134:-8.64 135:-17.46 136:-6.31 137:8.55 138:-20.79 139:5.68 140:14.74 141:-5.42 142:-28.63 143:20.55 144:-19.68 145:22.2 146:-16.37 147:-22.08 148:-0.27 149:-2.78 150:-7.46 151:-4.87 152:16.06 153:-2.58 154:-3.47 155:-4.08 156:19.39 157:12.79 158:7.76 159:-21.34 160:-19.09 161:-32.71 162:2.84 163:-5.88 164:-9.29 165:3.33 166:1.83 167:4.48 168:9.25 169:20.19 170:7.77 171:0.13 172:-29.59 173:-22.3 174:-20.83 175:-4.97 176:-8.54 177:-8.22 178:3.3 179:18.04 180:13.73 181:-6.94 182:16.07 183:7.12 184:-4.85 185:-26.74 186:-4.86 187:-14.92 188:-19.92 189:-23.6 190:-2.85 191:15.74 192:13.48 193:-2.65 194:-12.8 195:24.07 196:-4.51 197:5.46 198:-41.55 199:-8.63 200:-2.1 201:-33.9 202:3.57 203:-14.36 204:14.28 205:12.52 206:-5.59 207:-6.31 
-3.769126377672904e-08 0:14.49 1:1.35 2:0.81 3:-11.77 4:11.99 5:-21.01 6:2.45 7:-20.35 8:6.15 9:-8.17 10:13.96 11:8.02 12:-35.72 13:16.12 14:-1.45 15:-2.06 16:-14.97 17:7.09 18:-29.41 19:5.01 20:-20.09 21:13.58 22:-0.04 23:4.45 24:-3.2 25:-26.84 26:16.74 27:0.31 28:11.98 29:-25.78 30:-6.33 31:-32.73 32:11.27 33:-11.98 34:-1.7 35:-16.7 36:9.99 37:17.25 38:-14.78 39:17.91 40:7.16 41:5.19 42:-27.44 43:-26.3 44:-37.32 45:9.31 46:-9.74 47:-2.99 48:-12.12 49:5.72 50:19.85 51:-24.03 52:18.21 53:-34.89 54:16.7 55:-4.15 56:15.31 57:-8.15 58:6.37 59:-13.17 60:11.64 61:-22.81 62:3.5 63:4.31 64:-5.33 65:16.97 66:-17.59 67:17.18 68:16.22 69:17.41 70:-39.12 71:-20.62 72:-16.66 73:-0.82 74:-32.69 75:14.52 76:10.86 77:-6.98 78:18.28 79:-40.16 80:17.28 81:-24.85 82:12.52 83:-8.83 84:-3.42 85:-6.33 86:11.54 87:-17.78 88:15.63 89:-6.65 90:-1.4 91:14.07 92:0.84 93:-5.76 94:-18.38 95:2.99 96:-17.9 97:-2.33 98:-11.64 99:5.72 100:-7.25 101:4.04 102:-10.93 103:-23.18 104:15.75 105:-2.73 106:-7.18 107:-11.46 108:7.32 109:-20.05 110:-1.7 111:-6.27 112:8.09 113:-1.21 114:-1.74 115:-8.25 116:-15.36 117:13.39 118:-10.78 119:-11.84 120:-12.6 121:15.42 122:-0.25 123:3.16 124:7.99 125:-11.04 126:-18.03 127:6.35 128:-17.26 129:-10.07 130:16.94 131:-2.89 132:-10.26 133:-19.45 134:2.48 135:8.86 136:-7.92 137:5.49 138:-18.02 139:-2.07 140:4.32 141:-3.87 142:-4.13 143:17.43 144:-22.53 145:26.24 146:22.19 147:5.43 148:2.2 149:17.03 150:-20.35 151:9.58 152:-8.83 153:22.8 154:-15.05 155:-7.14 156:14.55 157:2.36 158:13.91 159:-5.12 160:-10.57 161:-14.03 162:-6.17 163:-18.86 164:-10.55 165:-8.34 166:31.61 167:2.79 168:-12.48 169:14.39 170:-0.94 171:9.6 172:-9.21 173:-7.4 174:-10.53 175:-16.66 176:-8.3 177:8.74 178:2.52 179:29.32 180:-8.95 181:-9.51 182:12.17 183:-6.77 184:6.54 185:4.54 186:-4.41 187:-13.9 188:-6.92 189:-13.81 190:5.36 191:8.95 192:22.26 193:-15.31 194:-17.99 195:20.37 196:-4.4 197:3.59 198:-5.93 199:1.33 200:-7.74 201:3.46 202:-4.38 203:5.2 204:-2.9 205:4.19 206:-3.75 207:-3.94 
-4.434406264408608e-08 0:16.09 1:-1.34 2:0.11 3:-21.15 4:7.65 5:-23.98 6:6.98 7:-16.88 8:-10.23 9:-20.35 10:10.31 11:-17.39 12:-18.65 13:17.96 14:-4.59 15:-1.31 16:-21.31 17:14.76 18:-22.18 19:5.4 20:-30.78 21:-3.59 22:-6.5 23:3.23 24:-15.64 25:-15.47 26:17.53 27:1.88 28:8.17 29:-29.19 30:-24.21 31:-50.84 32:13.46 33:-8.28 34:-13.55 35:-16.38 36:0.63 37:2.57 38:-27.66 39:19.4 40:-1.26 41:2.89 42:-29.93 43:-20.93 44:-45.99 45:12 46:-15.46 47:-12.16 48:-7.87 49:-2.93 50:-3.21 51:-26.1 52:21.26 53:-37.83 54:22.97 55:-8.32 56:19.79 57:-24.46 58:-12.2 59:-6.27 60:-0.43 61:-18.18 62:0.88 63:-11.07 64:9.43 65:18.07 66:-18.57 67:19.29 68:14.02 69:20.27 70:-41.93 71:-1.29 72:-8.73 73:-14.99 74:-15.24 75:5.55 76:0.41 77:6 78:18.55 79:-40.32 80:17.14 81:-9.33 82:12.42 83:-7.43 84:5.66 85:-16.7 86:5.53 87:1.13 88:12.26 89:-15.16 90:8.79 91:15.8 92:-1 93:0.81 94:-18.61 95:14.25 96:-26.75 97:13.2 98:-23.47 99:-2.02 100:3.7 101:-1.17 102:-13.79 103:-18.22 104:16.3 105:-3.12 106:-1.47 107:-13.52 108:8.9 109:-24.55 110:2.61 111:-19.73 112:2.72 113:4.68 114:-1.84 115:-18.78 116:-15.48 117:16.08 118:-12.76 119:-11.07 120:-7.54 121:2.33 122:-18.56 123:17.31 124:-14.57 125:-5.65 126:-0.63 127:4.69 128:1.77 129:-13.01 130:18.83 131:-5.44 132:-11.95 133:-24.63 134:-3.89 135:-7.71 136:12.02 137:-2.36 138:-14.31 139:-2.39 140:-10.5 141:7.59 142:-20.46 143:19.32 144:-38.32 145:14.21 146:-0.98 147:-5.3 148:-12.32 149:18.69 150:-25.1 151:-7.24 152:-1.49 153:12.81 154:-16.16 155:7.96 156:15.16 157:0.39 158:15.76 159:0.47 160:-12.88 161:-29.99 162:9.71 163:-25.84 164:-20.23 165:-10.05 166:14.63 167:-4.72 168:9.88 169:16.83 170:-1.2 171:5.94 172:-21.31 173:-12.9 174:-24.8 175:-2.95 176:-28.47 177:-19.61 178:5.41 179:33.81 180:-3.72 181:-3.3 182:15.92 183:-9.64 184:-6.24 185:-19.41 186:-14.21 187:-27.11 188:-23.13 189:-28.39 190:-13.06 191:14.81 192:21.97 193:-25.18 194:-11.72 195:21.88 196:-6.73 197:7.63 198:-16.24 199:3.43 200:-14.35 201:11.14 202:-4.85 203:6.83 204:-2.44 205:11.86 206:-4.09 207:-1.19 
2.303312784945888e-08 0:15.24 1:9.32 2:6.64 3:-32.53 4:4.19 5:-16.67 6:-5.67 7:-4.95 8:-24.61 9:-6.03 10:10.02 11:6.21 12:-18.7 13:16.85 14:10.19 15:4.47 16:-45.21 17:2.37 18:5.61 19:-16.09 20:-3.21 21:-11.4 22:3.85 23:6.47 24:-1.69 25:-16.49 26:16.45 27:-1.32 28:4.22 29:-23.75 30:-7.22 31:-11.19 32:3.81 33:-9.04 34:-4.01 35:-11.11 36:0.13 37:-0.28 38:0.24 39:19.31 40:9.04 41:5.83 42:-52.98 43:-28.45 44:-8.85 45:-2.87 46:8.04 47:-19.33 48:-6.26 49:-4.52 50:6.18 51:-8.3 52:17.12 53:-27.92 54:20.47 55:-17.6 56:-1.15 57:-10.23 58:-17.8 59:-8.46 60:2.63 61:-0.9 62:0.1 63:6.69 64:-12.53 65:16.31 66:-11.02 67:22.01 68:-5.81 69:16.02 70:-26.1 71:-21.84 72:-3.49 73:-21.52 74:-12.67 75:-13.78 76:17.91 77:-5.22 78:17.43 79:-28.16 80:25.65 81:-13.99 82:15.6 83:1.16 84:-6.6 85:-5.29 86:-2.57 87:-5.84 88:-23.16 89:3.45 90:-9.08 91:14.21 92:5.67 93:8.72 94:-17.06 95:14.55 96:-18.17 97:-8.85 98:-21.14 99:-30.98 100:0.28 101:-1.05 102:3.96 103:-14.51 104:16.48 105:6.27 106:-2.36 107:-35.89 108:-4.99 109:-6.6 110:-23.27 111:-4.4 112:-5.95 113:10.63 114:-1.68 115:-14.59 116:-1.45 117:13.12 118:-10.64 119:-18.55 120:-29.01 121:0.71 122:12.26 123:-2.87 124:-10.91 125:-31.36 126:-3.79 127:4.07 128:4.22 129:-5.97 130:17.78 131:4.04 132:-0.8 133:-51.06 134:-0.55 135:15.12 136:-12.08 137:16.42 138:-29.61 139:0.86 140:-0.56 141:11.22 142:-15.01 143:17.6 144:-24.4 145:17.84 146:-21.65 147:-12.52 148:8.97 149:-4.28 150:-8.82 151:8.69 152:-8.7 153:5.09 154:7.59 155:-12.54 156:14.66 157:5.13 158:14.99 159:-28.94 160:-13.67 161:-17.62 162:-9.78 163:1.09 164:-24.35 165:-20.63 166:-12.21 167:9.56 168:14.81 169:15.81 170:1.88 171:17.31 172:-38.32 173:-19.17 174:-3.83 175:-0.49 176:-9.48 177:-27.39 178:-6.24 179:21.16 180:13.5 181:8.73 182:14.53 183:-6.69 184:-2.24 185:-26.68 186:-17.75 187:-20.52 188:-19.44 189:-14.68 190:-9.9 191:13.35 192:10.3 193:0.93 194:-1.13 195:20.52 196:-1.15 197:0.41 198:-12.66 199:-7.11 200:-0.92 201:6.69 202:4.65 203:-3.63 204:-1.55 205:-4.17 206:2.45 207:-3.66 
7.726127404517058e-09 0:12.69 1:0.57 2:12.18 3:-5.75 4:9.63 5:-23.86 6:-3.07 7:-11.37 8:15.35 9:-4.79 10:4.19 11:3.56 12:-9.48 13:14.45 14:3.68 15:8.59 16:-16.29 17:7.3 18:-15.98 19:-0.92 20:-16.67 21:0.48 22:6 23:2.89 24:-1.61 25:-13.94 26:15.9 27:7.75 28:12.94 29:-28.6 30:-18.24 31:-18.45 32:9.97 33:-2.28 34:-12.03 35:1.86 36:3.86 37:-4.36 38:-2.51 39:16.85 40:1.1 41:0.11 42:-17.71 43:-18.44 44:-12.76 45:0.03 46:-2.5 47:-7.61 48:-3.78 49:-6.86 50:-2.37 51:-0.41 52:17.1 53:-31.14 54:12.71 55:2.88 56:19.21 57:-21.79 58:-6.39 59:2.66 60:10.41 61:-17.62 62:3.64 63:-3.45 64:3.28 65:15.21 66:-14.04 67:18.6 68:16.23 69:14.78 70:-34.54 71:-18.37 72:-9.02 73:-7.1 74:-17.54 75:-2.23 76:12.34 77:-0.16 78:17.45 79:-39.25 80:15.98 81:-5.54 82:14.46 83:-5 84:-6.82 85:10.43 86:13.54 87:-14.84 88:10.09 89:7.99 90:5.01 91:12.75 92:1.36 93:11.66 94:0.81 95:16.13 96:-19.52 97:-3.59 98:-19.09 99:-14.43 100:-6.78 101:5.73 102:6.37 103:-16.83 104:14.74 105:0.37 106:1.22 107:-12.47 108:10.26 109:-20.74 110:-13.83 111:-6.82 112:5.59 113:17.32 114:-2.66 115:-4.64 116:-6.59 117:13.2 118:-13.39 119:-15.34 120:-11.06 121:12.58 122:2.3 123:18.06 124:1.11 125:-8.21 126:-0.39 127:7.83 128:-0.88 129:-1.68 130:17.25 131:-0.7 132:-7.41 133:-24.59 134:4.27 135:6.08 136:-9.73 137:19.02 138:-32.59 139:0.95 140:1.44 141:5.36 142:-10.34 143:18.03 144:-32.19 145:16.36 146:3.39 147:-2.68 148:-1.66 149:12.57 150:-34.27 151:26.11 152:-5.49 153:1.91 154:-2.3 155:-7.41 156:13.75 157:0.5 158:13.56 159:-14.08 160:-2.69 161:-21.2 162:-1.41 163:-31.51 164:-14.07 165:-5.72 166:7.24 167:17.99 168:1.87 169:14.95 170:-1.26 171:15.48 172:-20.54 173:4.09 174:-28.01 175:4.1 176:-24.24 177:-7.84 178:13.09 179:12.03 180:1.54 181:-7.05 182:13.6 183:-2.22 184:1.65 185:-15.5 186:-1.58 187:-18.33 188:-5.4 189:-16.3 190:-6.06 191:21.22 192:10.23 193:0.53 194:-10.51 195:20.06 196:-5.06 197:2.72 198:-1.22 199:1.73 200:-1.96 201:2.78 202:-1.18 203:1.06 204:-4.76 205:-2.97 206:-5.54 207:-1.44 
2.303853341434348e-08 0:19.2 1:-0.34 2:0.56 3:-6.31 4:1.2 5:-13.37 6:-21.07 7:-14.42 8:-14.1 9:-17.71 10:-2.71 11:-2.13 12:-20.59 13:20.96 14:1.36 15:-14.65 16:-10.15 17:1.64 18:-35.66 19:-27.84 20:-13.98 21:-1.78 22:-7.93 23:-0.5 24:-15.66 25:-16.57 26:19.76 27:7.25 28:-1.9 29:-9.03 30:3.17 31:-21.47 32:-20.48 33:-5.68 34:-15.72 35:-14.15 36:8.48 37:12.31 38:-7.62 39:22.42 40:6.6 41:-18.55 42:-22.77 43:-11.24 44:-35.81 45:-31.14 46:-22.59 47:-14.5 48:-10.73 49:11.33 50:-0.66 51:-24.2 52:23.87 53:-36.21 54:25.21 55:-9.19 56:-10.7 57:-13.51 58:-42.65 59:2.26 60:-22.03 61:1.51 62:1.36 63:-24.57 64:0.97 65:19.59 66:-11.99 67:8.35 68:19.18 69:1.95 70:-38.09 71:-41.31 72:4.94 73:-23.28 74:-12.9 75:-17.44 76:-11.14 77:7.16 78:21.54 79:-17.04 80:25.75 82:11.42 83:-11.64 84:-50.52 85:14.55 86:-15.6 87:-1.14 88:-4.76 89:-23.17 90:6.33 91:19.75 92:-2.82 93:3.82 94:8.36 95:8 96:-16.01 97:-19.17 98:-6.84 99:-15.1 100:-19.91 101:-6.51 102:-10.35 103:-15.61 104:21.97 105:-2.76 106:-9.65 107:-5.26 108:-3.72 109:-21.3 110:-34.72 111:-2.34 112:-18.06 113:9.99 114:10.33 115:-15.54 116:-5.14 117:21.75 118:-29.83 119:17.78 120:-17.87 121:-5.71 122:4.02 123:-34.08 124:-2.35 125:-8.32 126:-12.24 127:11.23 128:-0.17 129:-5.5 130:21.73 131:-0.48 132:5.31 133:-15.24 134:-8.34 135:-24.15 136:-17.7 137:-5.84 138:-25.21 139:-16.64 140:-6.17 141:9.82 142:-3.63 143:16.42 144:-17.77 145:7.75 146:-4.82 147:-12.33 148:-21.19 149:-25.52 150:-14.75 151:-23.05 152:-30.87 153:-23.7 154:-20.72 155:-12.84 156:20.5 157:3.5 158:-20.66 159:-28.04 160:-14.77 161:-8.79 162:-22.34 163:-11.03 164:-16.05 165:-3.01 166:-0.52 167:1.45 168:5.97 169:19.86 170:2.91 171:-16.06 172:-23.64 173:-6.41 174:1.01 175:-11.31 176:-8.36 177:-12.53 178:-11.66 179:-8.75 180:-9.9 181:-9.64 182:18.01 183:-2.01 184:-13.92 185:-23.23 186:-0.74 187:-7.86 188:-13.27 189:-4.89 190:-12.21 191:-15.63 192:-12.23 193:-10.81 194:-15.04 195:24.35 196:-10.55 197:4.25 198:-19.21 199:-3.46 200:-17.53 201:-41.08 202:2.8 203:-23.38 204:2.68 205:12.75 206:-10.89 207:-7.52 
-2.09695788511155e-08 0:14.65 1:2.62 2:7.13 3:-19.7 4:16.9 5:-28.04 6:4.01 7:-22.53 8:-11.8 9:-11.2 10:9.53 11:1.57 12:-13.2 13:16.73 14:-3.16 15:0.4 16:-18.8 17:16.81 18:-31.13 19:-4.17 20:-13.38 21:-6.62 22:-0.09 23:1.69 24:-25.4 25:5.97 26:16.1 27:5.23 28:11.42 29:-43.43 30:-17.09 31:-46.35 32:9.13 33:-14.06 34:-9.99 35:-15.38 36:-2.23 37:0.4 38:-13.41 39:17.99 40:4.26 41:9.39 42:-40.45 43:-9.48 44:-36.45 45:10.94 46:-10.54 47:-8.79 48:-2.36 49:8.14 50:1.29 51:-10.04 52:19.14 53:-36.11 54:26.7 55:-1.6 56:25.13 57:-18.76 58:-6.29 59:2.23 60:12.82 61:-28.06 62:7.37 63:-5.22 64:-3.97 65:17 66:-17.65 67:21.56 68:16.49 69:8.96 70:-53.14 71:-16.2 72:-15.27 73:-10.83 74:-16.82 75:4.8 76:9.9 77:-3.78 78:18.94 79:-42.85 80:26.41 81:-15.52 82:19.29 83:-17.64 84:-11.4 85:7.94 86:6.67 87:-17.11 88:1.66 89:-2.35 90:5.46 91:13.98 92:1.45 93:7.36 94:-9.41 95:31.85 96:-29.05 97:-10.29 98:-26.63 99:-19.31 100:-15.13 101:13.36 102:-1.97 103:-12.93 104:16.13 105:-2.24 106:0.79 107:-19.5 108:20.48 109:-28.32 110:-17.99 111:-8 112:-7.65 113:6.4 114:9.23 115:-22.43 116:0.72 117:15.57 118:-19.54 119:-9.32 120:-26.68 121:12.73 122:-13.73 123:27.34 124:-2.94 125:-6.65 126:6.95 127:22.81 128:7.82 129:-0.6 130:16.86 131:-4.87 132:-5.01 133:-25.55 134:-10.14 135:14.29 136:-4.64 137:1.38 138:-22.93 139:-7.47 140:7.41 141:0.36 142:-16.73 143:19.14 144:-44.44 145:24.7 146:-9.52 147:0.19 148:4.09 149:1.14 150:-29.13 151:15.21 152:-20.85 153:9.56 154:-12.37 155:-18.12 156:13.17 157:2.57 158:16.4 159:-11.61 160:-7.88 161:-18.91 162:4.65 163:-26.97 164:-1.86 165:-6.58 166:-7.05 167:4.25 168:1.21 169:14.46 170:4.03 171:14.5 172:-19.78 173:-9.46 174:-24.06 175:-1.72 176:-26.46 177:-9.43 178:-5.14 179:15.57 180:10.81 181:0.43 182:14.65 183:-3.78 184:9.78 185:-26.63 186:-0.73 187:-30.19 188:-3.84 189:-39.91 190:-9.38 191:9.7 192:17.3 193:-5.79 194:-18.6 195:20.69 196:-6.76 197:6.33 198:-7.25 199:3.93 200:-10.54 201:4.41 202:-6.91 203:4.27 204:-6.19 205:1.87 206:-4.04 207:0.31 
-1.956841111372398e-08 0:17.15 1:-3.55 2:5.08 3:-1.42 4:9.86 5:-10.17 6:-3.05 7:11.9 8:-9.34 9:-42.93 10:-16.44 11:18.29 12:-7.07 13:22.04 14:-9.81 15:-15.01 16:-7.76 17:-12.05 18:-19.61 19:8.1 20:-15.29 21:2.84 22:20.63 23:-23.34 24:22.71 25:-31.18 26:21.3 27:-20.93 28:8.83 29:-4.21 30:6.02 31:-27.23 32:-15.58 33:-15.39 34:-1.6 35:7.89 36:-5.62 37:8.3 38:10.17 39:21.94 40:-8.64 41:-6.24 42:-10.87 43:2.51 44:-28.72 45:-10.35 46:-29.75 47:-22 48:6.01 49:-24.29 50:38.61 51:-11.97 52:25.18 53:-50.98 54:25.72 55:1.67 56:-16.27 57:-12.31 58:-17.68 59:-29.05 60:7.51 61:-0.88 62:-2.02 63:15.01 64:1.68 65:20.65 66:-24.91 67:19.44 68:10.49 69:-1.44 70:-19.53 71:-23.16 72:-29.12 73:-4.73 74:-7.14 75:-9.81 76:5.49 77:-21.14 78:22.95 79:-38.34 80:14.11 81:19.96 82:-14.06 83:-22.82 84:4.75 85:-22.64 86:-16.14 87:9.72 88:-10.98 89:-3.79 90:-2.35 91:17.85 92:0.32 93:11.36 94:-3.58 95:2.36 96:-13.36 97:5.48 98:-0.19 99:-14.23 100:-15.67 101:-12.05 102:12.43 103:6.69 104:20.99 105:-4.71 106:-13.51 107:-11.74 108:3.01 109:-26.51 110:-8.93 111:-7.46 112:-12.74 113:26.15 114:-15.61 115:16.01 116:-20.04 117:17 118:-8.11 119:0.94 120:-9.53 121:9.23 122:-21.61 123:-25.88 124:-3.82 125:0.11 126:3.51 127:-0.46 128:5.65 129:-7.35 130:22.8 131:-11.58 132:-7.44 133:-23.76 134:-14.15 135:-13.04 136:3.88 137:18.26 138:-16.64 139:4.83 140:-10.85 141:28.3 142:-28.53 143:23.75 144:-39.52 145:16.3 146:-5.36 147:-18.07 148:-21.53 149:16.1 150:-3.3 151:-15.74 152:22.58 153:0.23 154:-4.76 155:-0.1 156:18.3 157:0.21 158:14.28 159:-16.99 160:-13.41 161:-23.33 162:-3.86 163:-18.43 164:-13.17 165:-7.39 166:-19.43 167:15.39 168:22.41 169:20.28 170:0.41 171:2.02 172:-27.07 173:-4.2 174:-6.41 175:-15.88 176:-39.68 177:-14.94 178:32.17 179:-37 180:41.23 181:9.99 182:18.42 183:-6.29 184:-1.03 185:1.82 186:-2.85 187:-38.93 188:-7.16 189:-28.95 190:-17.36 191:25.16 192:-9.74 193:5.84 194:1.66 195:25.37 196:-26.7 197:9.22 198:-13.65 199:-13.01 200:-12.1 201:-10.71 202:-22.11 203:3.16 204:-2.45 205:-3.01 206:11.8 207:-7.54 
-8.131558426605068e-09 0:19.25 1:4.93 2:10.24 3:10.73 4:18.91 5:-1.93 6:-9.91 7:-15.57 8:-29.68 9:-23.23 10:15.41 11:-4.14 12:-6.43 13:22.76 14:-1.59 15:-16.29 16:-6.75 17:12.39 18:1.64 19:-11.57 20:-3.77 21:4.32 22:-6.02 23:5.88 24:-20.82 25:7.72 26:19.77 27:5.49 28:20.99 29:-11.83 30:3.76 31:-5 32:-7.85 33:-7.15 34:-11.56 35:-10.28 36:-7.29 37:7.51 38:4.12 39:22.41 40:5.19 41:-1.35 42:-21.11 43:-5.14 44:3.39 45:-7.58 46:-21.57 47:-4.3 48:-15.58 49:10.5 50:-4.96 51:5.87 52:24.58 53:-43.62 54:28.51 55:-15.3 56:26.8 57:-2.74 58:-31.31 59:-1.12 60:10.93 61:-12.89 62:-11.06 63:3.44 64:16.17 65:21.19 66:-20.14 67:33.03 68:14.74 69:15.58 70:-15.16 71:-15.2 72:-11.09 73:-16.74 74:-16.69 75:-5.61 76:1.15 77:9.21 78:24.96 79:-37.64 80:34.17 81:-13.98 82:24.43 83:-4.03 84:-19.31 85:-12.73 86:-1.41 87:-9.36 88:-4.15 89:-0.27 90:2.99 91:19.27 92:6.06 93:2.29 94:-1.55 95:9.87 96:-3.8 97:-2.88 98:-11.05 99:-14.33 100:-4.95 101:3.58 102:-3.94 103:-7.13 104:22.13 105:-1.09 106:-16.94 107:-4.94 108:20.89 109:-5.82 110:-6.77 111:-6.96 112:4.14 113:1.4 114:-7.57 115:-8.95 116:1.79 117:20.21 118:-12.98 119:-24.63 120:-7.68 121:21.57 122:14.63 123:8.57 124:-0.86 125:-11.36 126:18.38 127:-5.16 128:-10.32 129:2.35 130:21.38 131:-0.75 132:-14.47 133:-11.77 134:18.4 135:0.61 136:2.77 137:-3.24 138:-19.27 139:9.72 140:-2.28 141:-12.14 142:-14.23 143:25.27 144:-41.56 145:29.63 146:-9.02 147:12.02 148:20.34 149:-10.75 150:-10.88 151:15.29 152:-5.53 153:-2.06 154:-7.54 155:-3.45 156:21.07 157:1.86 158:22.51 159:-14.36 160:-8.09 161:-16.73 162:2.01 163:-26.09 164:-12.45 165:-34.06 166:13.95 167:12.92 168:12.39 169:21 170:2.91 171:15.85 172:-15.89 173:-13.43 174:-15.2 175:0.65 176:-8.2 177:-14.04 178:-21.64 179:17.48 180:0.46 181:19.03 182:18.05 183:-11.47 184:-6.52 185:-4.96 186:11.74 187:1.53 188:-2.53 189:-11.29 190:-7.51 191:4.75 192:13.26 193:2.47 194:-5.04 195:25.62 196:-11.21 197:9.05 198:-27.3 199:19.11 200:-6.11 201:-10.58 202:-9 203:-6.88 204:-5.06 205:0.88 206:-3.18 207:0.74 
-4.393019836790302e-09 0:17.74 1:3.06 2:19.1 3:-3.78 4:-8.2 5:-20.28 6:-15.96 7:-21.95 8:-16.78 9:-18.02 10:-2.55 11:-11.56 12:-14.77 13:21.04 14:9.1 15:-4.31 16:-34.19 17:-9.68 18:-10.89 19:-2.72 20:-16.56 21:6.97 22:2.3 23:9.35 24:-12.32 25:-0.11 26:19.31 27:6.63 28:12.19 29:-16.5 30:-18.62 31:-8.09 32:-2.08 33:-7.97 34:-8.21 35:0.73 36:3.84 37:-9.49 38:-1.99 39:21.85 40:12.89 41:-3.02 42:-25.14 43:-13.67 44:-7.75 45:-6.67 46:-11.78 47:-2.3 48:1.35 49:6.55 50:4.01 51:-6.71 52:23.17 53:-33.56 54:29.18 55:-2.79 56:-9 57:15.97 58:-22.77 59:5.03 60:9.84 61:-5.74 62:2.14 63:-9.33 64:12.68 65:19.71 66:-0.26 67:10.88 68:4.45 69:-10.8 70:-19.83 71:-35.99 72:-19.86 73:15.42 74:-11.79 75:8.11 76:12.01 77:3.54 78:23.02 79:-31.33 80:30.15 81:-1.07 82:-19.98 83:11.42 84:-25.93 85:-3.11 86:10.82 87:-2.41 88:6.11 89:-4.54 90:15.82 91:17.74 92:4.15 93:19.7 94:-3.96 95:-2.78 96:-19.02 97:-17.47 98:-16.92 99:-10.89 100:0.87 101:6.16 102:4.58 103:-9.55 104:20.97 105:6.51 106:-2.06 107:-28.65 108:-1.73 109:-14.34 110:-16.88 111:-12.04 112:13.93 113:3.63 114:12.28 115:-10.56 116:2.88 117:17.59 118:-2.19 119:-0.05 120:-20.08 121:-13.54 122:2.06 123:6.97 124:3.72 125:-3.69 126:6.85 127:11.22 128:5.19 129:-2.06 130:20.6 131:9.52 132:-0.37 133:-29.11 134:-21.14 135:8.66 136:8.94 137:10.97 138:-7.81 139:-9.25 140:10.7 141:-8.04 142:-8.76 143:22.34 144:-30.79 145:17.83 146:-0.17 147:-27.44 148:18.1 149:-6.49 150:-6.61 151:12.1 152:-1.55 153:6.22 154:-7.66 155:1.35 156:17.87 157:1.89 158:9.79 159:-16.17 160:-20.14 161:-15.32 162:3.41 163:2.56 164:-5.24 165:-13.26 166:2.43 167:5.28 168:5.41 169:17.67 170:-0.16 171:7.23 172:-15.99 173:-13.25 174:-3.31 175:5.89 176:1.87 177:-12.67 178:-4.21 179:10.86 180:2.28 181:-7.45 182:18.56 183:-11.15 184:12.63 185:0.59 186:-21.08 187:3.22 188:-18.75 189:-16.09 190:6.9 191:-10.81 192:10.06 193:-1.9 194:-1.6 195:24.25 196:-8.52 197:13.83 198:-25.94 199:-25.62 200:12.43 201:-21.13 202:-5.23 203:3.78 204:-3.7 205:11.31 206:-6.81 207:2.23 
-6.488903969703586e-09 0:17.02 1:10.12 2:-7.07 3:-16.47 4:27.11 5:4.21 6:-7.16 7:-2.64 8:-3.13 9:-43.08 10:-48.87 11:14.83 12:5.49 13:22.34 14:3.18 15:-34 17:5.11 18:-26.61 19:-1.77 20:-27.42 21:6.91 22:3.02 23:-16.77 24:15.28 25:-21.74 26:19.82 27:-12.47 28:11.35 29:-15.36 30:11.72 31:-13.81 32:10.3 33:-4 34:2.78 35:-6.48 36:-18.42 37:3.94 38:2.43 39:22.26 40:5.54 41:-19.72 42:-3.17 43:0.47 44:-15.04 45:-7.44 46:-24.88 47:5.07 48:-18.73 49:-24.19 50:23.49 51:-3.04 52:23.93 53:-41.37 54:22.44 55:5.65 56:3.93 57:1.87 58:-16.73 59:-20.28 60:22.58 61:-10.06 62:-20.53 63:6.41 64:12.44 65:20.66 66:-23.38 67:12.51 68:21.46 69:26.45 70:-10.81 71:-37.08 72:-25.25 73:14.84 74:-21.02 75:-15.86 76:14.54 77:7.27 78:22.42 79:-34.43 80:17.68 81:13.1 82:2.39 83:-14.34 84:0.71 85:-32.73 86:7.15 87:-3.3 88:-17 89:0.26 90:15.28 91:18.14 92:4.27 93:6.83 94:-16.27 95:7.29 96:0.06 97:19.16 98:-14.61 99:-11.32 100:-10.52 101:-15.82 102:4.79 103:2.2 104:20.88 105:6.11 106:-23.98 107:-9.79 108:10.55 109:-25 110:3.15 111:-16.5 112:0.77 113:14.76 114:-2.36 115:11.24 116:-28.73 117:19.75 118:-13.46 119:-16.27 120:-11.96 121:16.65 122:0.19 123:3.46 124:-2.8 125:9.36 126:1.64 127:-5.71 128:4.8 129:5.68 130:22.73 131:2.7 132:-25.63 133:-26.67 134:-7.33 135:-8.99 136:-0.35 137:-1.07 138:17.5 139:8.2 140:-13.86 141:25.72 142:-33.71 143:22.25 144:-36.27 145:5.69 146:-3.42 147:-6.24 148:-7.36 149:10.41 150:-20.39 151:6.72 152:17.25 153:-8.31 154:-8.34 155:-11.21 156:18.33 157:7.86 158:-6.69 159:-16.65 160:22.33 161:-8.71 162:-20.59 163:-43.89 164:3.26 165:4.38 166:-17.5 167:24.94 168:8.45 169:19.93 170:4.08 171:-14.16 172:-16.58 173:26.84 174:-10.61 175:-27.3 176:-47.73 177:12.48 178:22.51 179:-24.99 180:30.12 181:3.22 182:19.42 183:-3.26 184:-16.38 185:12 186:33.21 187:-32.85 188:-21 189:-37.29 190:1.37 191:12.37 192:-25.88 193:9.74 194:5.55 195:24.73 196:-12.8 197:-5.36 198:-19.68 199:-1.18 200:-10.93 201:-9.37 202:-13.54 203:11.18 204:-6.47 205:-3.73 206:4.31 207:-9.06 
-4.138967057976117e-09 0:19.84 1:-5.43 2:-0.37 3:-0.08 4:-4.14 5:-4.95 6:-6.18 7:-0.95 8:-2.3 9:-2.71 10:-3.81 11:-0.25 12:-3.15 13:16.47 14:-1.37 15:-5.43 16:-29 17:-2.35 18:-20.51 19:-1.86 20:-31.82 21:5.82 22:7.64 23:1.35 24:1.16 25:-17.13 26:15.05 27:1.94 28:20.14 29:-22.32 30:12.16 31:-26.33 32:2.69 33:-26.02 34:-3.39 35:-2.47 36:2.94 37:8.35 38:-11.03 39:18.14 40:5.58 41:3.01 42:-26.45 43:-21.72 44:-39.4 45:5.42 46:-23.28 47:-5.73 48:1.17 49:3.6 50:13.38 51:-16.4 52:21.47 53:-37.53 54:29.59 55:-11.64 56:20.58 57:-25.69 58:-5.39 59:-26.71 60:13.16 61:-15.52 62:-7.45 63:2.29 64:3.76 65:17.08 66:-17.02 67:17.53 68:18.31 69:6.37 70:-51.99 71:-10.17 72:-27.78 73:-7.67 74:-9.95 75:-3.8 76:11.53 77:-7.21 78:18.86 79:-37.92 80:31.78 81:-20.43 82:22.77 83:-15.01 84:4.43 85:-7.63 86:4.35 87:-2.93 88:-11.38 89:6.94 90:-2.54 91:13.94 92:3.92 93:4.87 94:-7.51 95:16.54 96:-27.25 97:-4.26 98:-31.26 99:-2.73 100:5.19 101:10.49 102:-0.43 103:-21.44 104:16.18 105:-4.25 106:-2.85 107:-13.1 108:14.19 109:-28.42 110:-0.48 111:-27.61 112:15.79 113:16.11 114:-9.99 115:-4.84 116:-15.38 117:14.9 118:-12.03 119:-14.98 120:-22.29 121:9.28 122:-24.33 123:18.72 124:-12.43 125:6.2 126:3.34 127:5.66 128:15.67 129:4.34 130:17.03 131:-4.64 132:-6.69 133:-30.59 134:4.71 135:-5.92 136:3.87 137:-0.43 138:-11.85 139:2.91 140:-6.38 141:1.95 142:-16.89 143:17.72 144:-37.64 145:16.82 146:-2.28 147:0.84 148:-3.63 149:15.73 150:-24.34 151:10.79 152:-2.32 153:7.76 154:2.69 155:-0.53 156:12.65 157:5.18 158:18.93 159:-2.18 160:-4.23 161:-24.82 162:10.39 163:-17.43 164:-25.15 165:-8.74 166:7.4 167:11.21 168:11.99 169:14.21 170:6.28 171:17.68 172:-13.4 173:-6.59 174:-29.27 175:3.14 176:-27.28 177:-16.39 178:0.48 179:15.69 180:8.48 181:2.82 182:13.92 183:0.14 184:9.81 185:-12.63 186:-2.16 187:-23.26 188:-17.45 189:-30.49 190:1.95 191:11.48 192:19.3 193:1.73 194:-1.26 195:21.78 196:-9.37 197:8.28 198:-14.49 199:4.15 200:-21.2 201:3.86 202:-14.55 203:7.77 204:-6.1 205:7.02 206:-1.35 207:-1.04 
8.966935460819059e-08 0:17.69 1:8.22 2:1.27 3:-22.59 4:-18.05 5:4.16 6:-8.92 7:-14.05 8:-25.17 9:-5.16 10:6.11 11:-3.31 12:-1.14 13:20.53 14:3.64 15:-6.98 16:-12.34 17:-29.94 18:6.31 19:-22.76 20:-9.55 21:-5.94 22:3.62 23:6.68 24:-14.68 25:7.39 26:19.69 27:-3.03 28:9.43 29:-13.42 30:-21.51 31:-9.47 32:-11.65 33:-9.46 34:-7.84 35:9.99 36:1.1 37:9.08 38:-8.27 39:21.65 40:11.56 41:-7.04 42:-7.8 43:-33.68 44:-2.75 45:-10.16 46:-11.6 47:-3.35 48:-13.09 49:9.44 50:10.08 51:-0.49 52:22.34 53:-35.79 54:22.7 55:-6.16 56:-22.34 57:6.23 58:-22.29 59:7.09 60:-6.29 61:0.23 62:4.93 63:0.17 64:-1.26 65:18.57 66:-0.86 67:9.79 68:18.43 69:-12.71 70:-23.85 71:-34.55 72:-10.25 73:1 74:-12.9 75:-7.41 76:13.32 77:1.5 78:22.67 79:-29.71 80:32.96 81:0.91 82:-23.03 83:7.55 84:-26.85 85:-6.41 86:3.52 87:2.88 88:3.37 89:9.73 90:-1.73 91:19.07 92:13.52 93:11.97 94:-7.61 95:-27.29 96:-17.52 97:-7.62 98:-10.74 99:-10.61 100:-18.92 101:12.86 102:13.04 103:6.55 104:20.31 105:7.06 106:-5.61 107:-12.08 108:-23.72 109:0.74 110:-20.11 111:-14.74 112:6.83 113:-3.33 114:6.51 115:-5.16 116:13.05 117:15.44 118:-2.05 119:7.98 120:1.31 121:-2.77 122:-9.63 123:-13.21 124:-12.53 125:-14.65 126:-6.28 127:-2.97 128:-6.15 129:-3.69 130:20.5 131:6.23 132:-0.38 133:-11.51 134:-33.73 135:20.38 136:-9.6 137:7.7 138:-6.83 139:-3.16 140:7.71 141:2.15 142:-3.01 143:21.8 144:-29.99 145:18.07 146:0.57 147:-22.32 148:-1.14 149:-13.02 150:2.73 151:-8.7 152:17.39 153:3.98 154:9.04 155:5.15 156:19.23 157:14.4 158:5.12 159:-13.53 160:-40.13 161:-15.53 162:2.65 163:-5.42 164:-0.98 165:-10.09 166:-2.32 167:1.5 168:4.88 169:20.51 170:2.72 171:-3.04 172:-19.75 173:-41.82 174:-8.41 175:-2.73 176:-0.33 177:-3.55 178:-7.81 179:9.71 180:11.96 181:1.91 182:19.58 183:-18.15 184:15.69 185:-7.91 186:-33.88 187:-1 188:-22.48 189:-8.43 190:-8.85 191:6.06 192:-7.55 193:7.94 194:2.35 195:23.79 196:-7.94 197:13.38 198:-21.09 199:-28.41 200:5.79 201:-18.1 202:-1.68 203:-9.17 204:1.16 205:3.77 206:7.65 207:-1.76 
1.369234148285159e-08 0:16.74 1:5.25 2:22.81 3:7.5 4:4.05 5:-36.65 6:-28.09 7:-4.48 8:-1.06 9:-8.48 10:-8.56 11:0.02 12:-12.81 13:20.79 14:5.3 15:-2.9 16:-19.99 17:-6.82 18:-21.46 19:-7.99 20:-16.65 21:6.7 22:-0.14 23:2.26 24:1.58 25:-2.07 26:19.78 27:-4.89 28:11.01 29:-8.85 30:0.12 31:-16.65 32:-3.08 33:-5.08 34:-5.69 35:-1.53 36:4.86 37:6.18 38:4.76 39:21.97 40:5.15 41:7.56 42:-14.95 43:-15.48 44:-19.47 45:-13.95 46:-5.75 47:-3.51 48:9.16 49:-0.13 50:22.02 51:-6.45 52:22.55 53:-33.9 54:29.11 55:4 56:-13.29 57:6.54 58:-24.67 59:11.57 60:-7.15 61:0.39 62:-1.23 63:-4.87 64:6.96 65:20.18 66:-6.33 67:19.28 68:19.13 69:2.2 70:-34.01 71:-43.9 72:-10.75 73:-4.14 74:-16.86 75:-13.36 76:20.96 77:-0.67 78:23.2 79:-37.94 80:34.58 81:6.5 82:-22.21 83:2.39 84:-18.85 85:-9.87 86:8.65 87:-2.44 88:-5.67 89:1.21 90:1.37 91:19.04 92:6.38 93:3.64 94:-16.17 95:-7.9 96:-19.31 97:-9.33 98:-19.35 99:-7.41 100:3.12 101:8.99 102:-1.15 103:-1.68 104:20.44 105:2 106:1.04 107:-10.15 108:-7.52 109:-25.26 110:-10.29 111:-11.14 112:11 113:7.23 114:4.69 115:-7.09 116:8.11 117:18.2 118:-8.81 119:-0.77 120:-17.43 121:-14.71 122:-4.09 123:2.41 124:6.54 125:-7.67 126:-1.07 127:6.88 128:14.99 129:-3.23 130:19.44 131:4.72 132:7.92 133:-17.68 134:-24.27 135:4.32 136:7.11 137:5.54 138:2.59 139:-12.79 140:21.43 141:-1.14 142:-5.7 143:21.4 144:-33 145:15.19 146:6.41 147:-26.42 148:5.54 149:0.49 150:-9.07 151:10.98 152:6.5 153:-4.8 154:0.04 155:-3.49 156:18 157:9.17 158:14.08 159:-7.29 160:-21.55 161:-30.24 162:-9.75 163:0.76 164:-4.65 165:-8.85 166:-15.87 167:6.36 168:13.03 169:19.05 170:13.5 171:3.07 172:-17.53 173:-16.23 174:-24.75 175:-7 176:8.85 177:-9.04 178:-16.49 179:4.6 180:15.06 181:3.31 182:16.88 183:-4.99 184:9.59 185:2.79 186:-19.67 187:-18.32 188:-12.3 189:-23.71 190:-8.3 191:-3.38 192:-1.78 193:3.72 194:-7.34 195:24.02 196:-10.36 197:16.65 198:-14.29 199:-22.6 200:-2.56 201:-22.87 202:-5.43 203:1.61 204:1.33 205:6.65 206:6.81 207:2.64 
-5.739816655303542e-08 0:15.42 1:3.79 2:-3.45 3:-19.9 4:1.81 5:-35.47 6:11.58 7:-18.25 8:-11.18 9:-2.4 10:21.49 11:-6.16 12:-24.19 13:16.33 14:4.37 15:-2.82 16:-21.02 17:8.62 18:-24.06 19:13.51 20:-18.25 21:-4.95 22:4.13 23:13.87 24:-3.23 25:-23.3 26:17.18 27:-2.26 28:14.48 29:-16.56 30:11.28 31:-26.51 32:7.84 33:-22.63 34:-2.42 35:-5.44 36:16.32 37:2.5 38:-4.7 39:18.7 40:5.44 41:3.25 42:-21.28 43:-21.88 44:-38.17 45:1.49 46:-18.27 47:-4.96 48:-4.34 49:13.11 50:0.46 51:-9.64 52:19 53:-32.39 54:25.46 55:-2.1 56:6.31 57:-14.53 58:-7.77 59:-14.19 60:10.46 61:-12.01 62:11.23 63:-5.78 64:8.19 65:18.2 66:-11.18 67:13.19 68:30.16 69:1.51 70:-54.63 71:-11.22 72:-27.24 73:-5.99 74:-15.34 75:3.2 76:5.95 77:-2.31 78:18.6 79:-37.66 80:29.27 81:-6.03 82:15.22 83:2.35 84:7.1 85:-8.2 86:9.52 87:-8.48 88:1.98 89:3.49 90:10.47 91:15.69 92:1.74 93:-1.17 94:-12.15 95:4.45 96:-23.95 97:12.28 98:-7.74 99:-17.53 100:-6.06 101:12.82 102:-11.37 103:-11.77 104:16.11 105:-3.09 106:-6.52 107:-14.28 108:12.64 109:-17 110:0.73 111:-14.56 112:6.19 113:5.14 114:2.95 115:-16.77 116:-6.69 117:14.6 118:-11.71 119:-16.26 120:-5.57 121:3.35 122:-5.96 123:7.26 124:-0.58 125:2.61 126:-3.85 127:24.14 128:11.36 129:-0.45 130:17.6 131:-1.4 132:-12.93 133:-17.97 134:-9.34 135:12.12 136:-10.39 137:16.11 138:-10.48 139:-15.02 140:18.25 141:-4.83 142:-18.13 143:18.3 144:-32.93 145:19.27 146:0.44 147:-5.37 148:-5.25 149:5.68 150:-15.17 151:11.01 152:-4.97 153:28.17 154:-12.87 155:-3.18 156:13.98 157:7.11 158:18.34 159:-3.97 160:-8.96 161:-31.89 162:4.04 163:-13.63 164:-21.28 165:-11.3 166:-0.04 167:1.05 168:11.32 169:14.97 170:0.32 171:15.5 172:-17.52 173:-12.78 174:-28.1 175:4.26 176:-23.02 177:-21.66 178:1.62 179:19.22 180:2.45 181:0.91 182:15.62 183:-7.91 184:0.69 185:-15.52 186:-4.65 187:-27.75 188:-9.88 189:-23.64 190:-14.72 191:28.5 192:21.69 193:-15.28 194:-10.58 195:20.77 196:-4.62 197:5.11 198:-6.14 199:-0.73 200:-12.76 201:2.25 202:-6.9 203:4.44 204:-0.86 205:14.31 206:-0.04 207:2.19 
3.732673059531066e-09 0:18.25 1:7.1 2:7.92 3:-4.56 4:4.12 5:-23.3 6:-4.57 7:-6.81 8:-5.74 9:-13.05 10:16.45 11:11.52 12:1.65 13:21.31 14:3.9 15:-6.54 16:-10.18 17:-0.5 18:-9.5 19:-8.7 20:-15.23 21:5.54 22:-5.58 23:16.38 24:-3.5 25:6.4 26:19.73 27:5.69 28:10.82 29:-1.51 30:-2.13 31:-12.47 32:-9.23 33:-17.01 34:-5.88 35:-3.23 36:15.18 37:9.15 38:0.59 39:22.16 40:7.27 41:0.67 42:-8.13 43:-15.35 44:-28.8 45:-6.33 46:-10.76 47:-2.31 48:-14.43 49:22.64 50:2.38 51:2.75 52:24.28 53:-40.74 54:20.44 55:3.6 56:-7.31 57:1.7 58:-27.18 59:-12.48 60:-5.62 61:-7.61 62:-1.74 63:3.82 64:4.64 65:21.05 66:-6.59 67:14.34 68:24.17 69:5.06 70:-28.98 71:-39.92 72:-22.42 73:-3.03 74:-23.54 75:22.47 76:12.05 77:-0.02 78:23.8 79:-36.8 80:26.84 81:6.57 82:-12.35 83:4.27 84:-21.65 85:-11.28 86:3.34 87:-3.31 88:5.67 89:6.18 90:4.41 91:19.05 92:10.24 93:4.1 94:-9.2 95:2.19 96:-18.09 97:-13.1 98:-9.1 99:-14.78 100:-10.43 101:14.72 102:11.59 103:-5.95 104:20.83 105:3.78 106:-10.72 107:-17.25 108:13.36 109:-2.42 110:-5.91 111:-18.51 112:10.79 113:7.65 114:18.77 115:-5.42 116:4.34 117:18.61 118:-4.63 119:-9.74 120:-15.35 121:-4.52 122:4.66 123:6.22 124:3.81 125:-11.43 126:-16.47 127:4.79 128:18.67 129:0.44 130:19.78 131:7.13 132:-4.17 133:-15.68 134:-5.67 135:15.78 136:6.69 137:3.27 138:-8.94 139:-9.32 140:14.71 141:3.04 142:-6.2 143:23.16 144:-33.97 145:20.74 146:1.85 147:-11.69 148:18.45 149:-7.31 150:-8.58 151:-0.16 152:6.58 153:16.71 154:-4.9 155:-3.37 156:18.03 157:4.66 158:15.13 159:-8.58 160:-8.25 161:-16.84 162:-3.36 163:-7.81 164:-19.74 165:-22.07 166:-7.94 167:-2.74 168:-5.38 169:17.33 170:2.08 171:4.58 172:-16.76 173:-16.15 174:-11.55 175:3.22 176:2.15 177:-13.33 178:-16.99 179:4.36 180:3.32 181:-1.19 182:16.17 183:-7.71 184:-1.77 185:-10.63 186:-4.26 187:-8.74 188:0.55 189:1.77 190:-19.84 191:-12.7 192:14.37 193:-0.79 194:-8.66 195:24.99 196:-14.42 197:15.18 198:-13.05 199:-11.83 200:3.9 201:-23.87 202:-9.5 203:-3.92 204:-0.61 205:15.25 206:7.34 207:0.99 
-7.519013189849488e-09 0:16.72 1:1.92 2:-8.96 3:-6.26 4:9.4 5:-12.42 6:-8.47 7:-5.26 8:-22.83 9:-20.82 10:-6.97 11:4.13 12:-9.2 13:22.16 14:-0.26 15:-46.47 16:-13.21 17:-24.77 18:-6.92 19:-12.27 20:-15.28 21:4.91 22:-11.79 23:-7.22 24:-12.71 25:-25.47 26:19.14 27:-10.64 28:-16.11 29:-17.13 30:-9.34 31:-26.41 32:-8.99 33:-18.19 34:-7.94 35:-13.87 36:-2.67 37:-3.51 38:-5.41 39:22.32 40:3.09 41:-35.23 42:-19.13 43:-32.58 44:-16.1 45:-16.64 46:-3.9 47:0.91 48:-21.07 49:10.71 50:-7.73 51:2.67 52:21.68 53:-33.49 54:9.84 55:-10.8 56:-21.71 57:-21.44 58:-29.66 59:-10.8 60:-2.46 61:-11.68 62:0.03 63:-1.38 64:18.45 65:19.5 66:-15.17 67:-2.98 68:19.94 69:-14.88 70:-33.77 71:-38.55 72:-15.99 73:-8.56 74:-20.87 75:5.09 76:-5 77:15.53 78:21.82 79:-40.26 80:11.14 81:-1.23 82:-7.69 83:-11.98 84:-29.58 85:-7.57 86:-3.19 87:-14.07 88:-8.59 89:-3.02 90:11.7 91:17.85 92:-1.29 93:-11.44 94:-2.13 95:2.37 96:-13 97:-4.84 98:-3.92 99:-34.65 100:-24.73 101:-5.11 102:-6.43 103:-0.33 104:22.44 105:-0.99 106:-53.17 107:-7.31 108:-17.53 109:-8.61 110:-6.63 111:-13.43 112:-2.47 113:-5.62 114:-4.5 115:-28.39 116:-15.01 117:19.24 118:-11.73 119:-31.23 120:-3.72 121:-4.78 122:-10.85 123:2.27 124:-5.72 125:-1.93 126:4.4 127:3.86 128:-0.72 129:-11.37 130:21.88 131:1.21 132:-39.83 133:-15.24 134:-22.27 135:-1.31 136:8.89 137:-0.85 138:-8.46 139:-5.62 140:12.17 141:-7.53 142:-15.08 143:20.46 144:-26.04 145:-9.76 146:-3.79 147:-25.26 148:-7.4 149:6.3 150:-15.93 151:-2.02 152:5.07 153:-3.43 154:-14.46 155:-8.04 156:18.14 157:8.55 158:-16.43 159:-23.12 160:-7.33 161:-13.51 162:-21.22 163:-7.04 164:-8.18 165:-11.38 166:15.65 167:22.42 168:4.16 169:19.7 170:0.78 171:-29.55 172:-23.28 173:-11.14 174:-20.65 175:-30.89 176:-19.64 177:-1.03 178:-2.44 179:7.08 180:6.27 181:-11.7 182:18.92 183:-20.22 184:-11.46 185:-12.46 186:-16.4 187:-11.74 188:-37.08 189:-15.03 190:2.64 191:-0.41 192:14.63 193:-0.29 194:-13.83 195:23.35 196:-12.52 197:-19.3 198:-30.55 199:-18.54 200:-15.18 201:-17.19 202:-6.27 203:-4.14 204:-9.94 205:0.71 206:-6.34 207:-9.44 
1.530469606603191e-08 0:17.01 1:9.98 2:17.77 3:-2.44 4:-4.6 5:12.07 6:-1.72 7:15.66 8:-6.63 9:19.81 10:5.65 11:8.09 12:-3.4 13:19.73 14:8.3 15:-12.37 16:-16.96 17:-10.81 18:-3.02 19:5.6 20:3.64 21:-20.57 22:29.46 23:1.49 24:1.58 25:-15.9 26:19.29 27:-18.8 28:13.02 29:-8.6 30:6.77 31:7.25 32:4.38 33:5.31 34:-11.05 35:2.25 36:4.85 37:7.52 38:2.69 39:22.02 40:5.27 41:-8.09 42:-16.94 43:-17.12 44:-17.24 45:-9.02 46:-5.73 47:-30.96 48:2.66 49:8.9 50:22.39 51:-20.17 52:24.81 53:-43.69 54:20.02 55:3.37 56:-21.95 57:21.2 58:-23.24 59:-25.39 60:8.55 61:-2.44 62:-20.21 63:13.91 64:-6.73 65:19.53 66:0.28 67:-2.01 68:11.87 69:-6.75 70:-21.53 71:-24.07 72:-22.93 73:-8.94 74:-12.17 75:-10.1 76:18.09 77:-28.72 78:23.15 79:-34.3 80:37.01 81:8.8 82:-32.29 83:9.16 84:-11.64 85:-28.53 86:-3.56 87:-3.63 88:-6.22 89:1.25 90:-2.75 91:17.86 92:7.27 93:13.39 94:-6.11 95:-18.33 96:13.36 97:-5.22 98:-13.87 99:-37.28 100:-22.15 101:-15.13 102:5.93 103:-9.6 104:22.62 105:11.55 106:-25.88 107:-16.65 108:-33.19 109:-9.75 110:25.94 111:-16.34 112:-43.18 113:27.36 114:-0.33 115:-1.46 116:-25.21 117:18.3 118:-17.68 119:-1.57 120:-16.6 121:-11.89 122:10.31 123:6.31 124:12.41 125:10.33 126:7.27 127:-5.49 128:22.37 129:8.32 130:22.99 131:6.51 132:-1.72 133:-34.67 134:-46.9 135:-2.94 136:20.91 137:-2.25 138:-41.44 139:11.03 140:0.02 141:5.09 142:-17.53 143:23.5 144:-34.72 145:12.43 146:1.76 147:-26.21 148:15.87 149:13.94 150:-22.17 151:-1.32 152:18.86 153:-9.01 154:-7.87 155:-13.27 156:20 157:4.02 158:-2.49 159:-8.51 160:-10.07 161:-8.46 162:10.61 163:-37.89 164:-27.04 165:3.87 166:17.35 167:34.46 168:-20.01 169:19.13 170:-0.57 171:-6.12 172:-8.94 173:-2.4 174:-23.16 175:-9.7 176:-26.26 177:-14.27 178:23.13 179:15.93 180:6.88 181:-14.86 182:18.5 183:-6.28 184:-0.89 185:8.08 186:-3.39 187:-14.5 188:-6.49 189:-17.33 190:-20.97 191:19.06 192:3 193:-3.67 194:-2.91 195:25.28 196:-13.9 197:6.34 198:-23 199:-38.92 200:11.46 201:1.26 202:-8.85 203:-12.14 204:-3.2 205:9.91 206:14.96 207:-22.97 
-3.212729760004862e-08 0:14.81 1:2.95 2:13.76 3:8.84 4:7.92 5:-23.17 6:-7.14 7:8.85 8:-4.17 9:11.75 10:7.41 11:-1.95 12:-11.84 13:16.71 14:8.3 15:13.76 16:-6.49 17:-3.46 18:-7.58 19:-32.26 20:6.39 21:4.54 22:29.78 23:0.26 24:-2 25:-17.94 26:16.68 27:5.58 28:15.69 29:-11 30:-14.46 31:-20.78 32:-1.1 33:15.57 34:-3.97 35:10.06 36:12.14 37:-0.08 38:-7.55 39:18.08 40:7.31 41:12.34 42:-7.82 43:-19.32 44:-29.78 45:-12.56 46:20.75 47:-6.26 48:2.36 49:3.9 50:-3.51 51:-7.55 52:20.66 53:-36.43 54:34.08 55:-6.97 56:9.49 57:-15.92 58:-14.27 59:2.71 60:-9.66 61:2.76 62:4.21 63:-4.28 64:3.63 65:15.94 66:-9.09 67:25.09 68:20.76 69:13.29 70:-36.16 71:-22.36 72:3.19 73:-28.18 74:-3.45 75:11.05 76:0.6 77:3.3 78:20.67 79:-40.17 80:28.19 81:-14.31 82:9.1 83:-18.22 84:-1.2 85:8.98 86:-6.77 87:5.78 88:7.07 89:-2.51 90:2.57 91:14.27 92:8 93:9.63 94:-12.01 95:-16.61 96:-14.08 97:-4.41 98:5.89 99:-19.85 100:-5.34 101:-11.7 102:-11.41 103:-22.23 104:16.14 105:-1.34 106:16.6 107:-0.56 108:8.78 109:-20.41 110:-21.2 111:20.41 112:0.88 113:10.88 114:0.41 115:-11.6 116:-16.55 117:16.55 118:-15.87 119:-11.77 120:4.1 121:-3.98 122:-6.79 123:16.39 124:14.46 125:-15.58 126:16.93 127:13.95 128:3.13 129:-13.23 130:15.85 131:7.09 132:12.33 133:-9.02 134:-10 135:1.14 136:-1.38 137:13.84 138:-19.53 139:21.08 140:5.38 141:-4.65 142:-11.29 143:19.34 144:-39.79 145:16.39 146:11.19 147:-13.86 148:5.89 149:12.24 150:-0.98 151:11.57 152:13.29 153:3.51 154:-10.73 155:6.78 156:13.32 157:5.41 158:17.45 159:2.74 160:-11.11 161:-17.85 162:-15.21 163:-1.24 164:-12.41 165:-5.16 166:5.35 167:9.74 168:-3.42 169:14.36 170:10.42 171:6.14 172:-14.71 173:-13.99 174:-12.82 175:-10.18 176:6.3 177:-11.45 178:6.46 179:17.52 180:4.2 181:-15.44 182:13.9 183:3.55 184:2.23 185:-14.04 186:-7.45 187:-10.33 188:-16.36 189:-1.53 190:-3.59 191:14.92 192:17.57 193:-3.24 194:-12.31 195:21.56 196:-10.7 197:19.07 198:-13.41 199:7.28 200:-14.41 201:-1 202:6.06 203:5.04 204:14.25 205:8.65 206:3.89 207:-0.16 
2.750463079514986e-08 0:18.91 1:11.64 2:8.67 3:-43.08 4:-1.47 5:-0.45 6:9.92 7:5.69 8:-16.42 9:11.93 10:-8.87 11:15.02 12:-21.6 13:21.89 14:2.1 15:1.38 16:-23.8 17:2.77 18:-21.94 19:-14.27 20:-8.08 21:3.92 22:26.68 23:-22.14 24:20.31 25:-17.93 26:20.44 27:-22.46 28:14.94 29:-32.99 30:3.03 31:-5.24 32:-5.99 33:3.56 34:-14.77 35:3.07 36:-9.98 37:5.71 38:6.75 39:22.33 40:9.01 41:7.48 42:-34.41 43:-13.72 44:-12.06 45:-3.81 46:-30.76 47:-17.69 48:19.05 49:-64.34 50:44.38 51:0.88 52:21.94 53:-8.53 54:9.71 55:-8.82 56:9.85 57:-28.53 58:-33.76 59:-14.07 60:-5.16 61:17.95 62:-51.9 63:33.8 64:-10.38 65:24.5 66:-35.2 67:24.53 68:-15.59 69:-5.61 70:-7.38 71:-15.93 72:-4.33 73:12.26 74:1.18 75:-24.23 76:10.11 77:7.08 78:18.52 79:7.87 80:18 81:-18.41 82:1.09 83:-13.29 84:2.44 85:4.96 86:-11.61 87:-36.24 88:-26.31 89:13.26 90:5.08 91:21.68 92:1.86 93:-2.41 94:-21.64 95:-0.01 96:-24.1 97:-8.47 98:-8.04 99:-0.34 100:33.25 101:-35.42 102:20.42 103:-20.19 104:19.03 105:-15.25 106:-3.34 107:-32.15 108:1.4 109:14.37 110:8.62 111:8.38 112:-0.91 113:12.29 114:-4.34 115:12.29 116:-3.84 117:22.31 118:1.88 119:-0.21 120:-36.42 121:-12.17 122:3.09 123:0.55 124:6.22 125:-5.77 126:26.02 127:-25.45 128:14.08 129:-39.78 130:23.18 131:-31.87 132:26.88 133:-16.09 134:-6.43 135:5.09 136:2.53 137:-2.74 138:-0.06 139:17.26 140:-11.54 141:2.56 142:-5.51 143:18.04 144:4.97 145:17.84 146:-22.74 147:-1.13 148:-11.27 149:0.18 150:-7.89 151:-24.04 152:-8.98 153:-20.98 154:22.99 155:9.95 156:18.65 157:0.23 158:13.65 159:-20.21 160:13.7 161:-7.57 162:-11.78 163:-16.73 164:-17.8 165:11.65 166:-17.11 167:23.21 168:-4.69 169:17.71 170:-2.51 171:6.74 172:-9.47 173:13.18 174:-21.26 175:-10.43 176:3.91 177:-11.15 178:19.03 179:-16.24 180:1.46 181:2.97 182:24.84 183:-8.94 184:14.06 185:-32.16 186:-7.84 187:-9.69 188:-17.34 189:-12.45 190:0.72 191:4.09 192:-18.71 193:11.11 194:-3.16 
-1.555970630118253e-08 0:19.47 1:6.28 2:13.4 3:-1.63 4:2.19 5:-32.72 6:-17.37 7:-11.22 8:-18.89 9:-17.51 10:-0.56 11:-8.55 12:-10.27 13:22 14:1.63 15:-3.81 16:-19.63 17:-6.72 18:-10.71 19:-13.82 20:-11.09 21:-9.85 22:1.6 23:18.1 24:-18.34 25:9.93 26:19.95 27:-7.61 28:15.06 29:-2.58 30:5.5 31:-22.5 32:-4.85 33:-16.13 34:-4.03 35:3.65 36:10.54 37:-3.63 38:-0.02 39:22.19 40:10.56 41:4.76 42:-10.45 43:-11.02 44:-24.91 45:-6.4 46:-17.66 47:-7.4 48:-0.66 49:23.71 50:-2.69 51:2.18 52:24.68 53:-39.25 54:35.3 55:-3.02 56:2.02 57:10.15 58:-33.26 59:2.8 60:-0.25 61:-14.64 62:5.7 63:-8.72 64:5.33 65:21.4 66:-9.83 67:12.94 68:24.41 69:-3.07 70:-38.48 71:-43.65 72:-15.74 73:6.86 74:-26.01 75:24.85 76:2.02 77:-3.36 78:23.93 79:-37.95 80:32.5 81:6.87 82:-3.98 83:-2.02 84:-30.29 85:-10.75 86:9.61 87:-3.56 88:-0.95 89:-2.46 90:4.66 91:20.26 92:9.41 93:4.77 94:-13.21 95:8.39 96:-24.78 97:-14.88 98:-16.03 99:-16.07 100:-13.06 101:18.28 102:9.22 103:-3.92 104:21.69 105:-0.48 106:-6.63 107:-15.73 108:1.03 109:-16.1 110:-20.33 111:-20.97 112:-0.38 113:8.84 114:18.09 115:-14.58 116:7.64 117:19.13 118:-11.34 119:-4.3 120:-10.63 121:-8.9 122:-9.03 123:-16.36 124:0.15 125:4.65 126:-3.86 127:1.6 128:10.15 129:0.53 130:21.15 131:5.95 132:-7.46 133:-14.18 134:-13.13 135:3.63 136:-8.32 137:10.38 138:-5.1 139:-15.78 140:26.5 141:-13.18 142:-5.44 143:22.66 144:-33.08 145:15.98 146:8.74 147:-3.88 148:0.69 149:-5.08 150:-6 151:-2.97 152:-9.93 153:12.72 154:-13.09 155:-9.96 156:19.76 157:9.55 158:4.9 159:-10.09 160:-18.47 161:-26.43 162:-12.81 163:6.51 164:-17.8 165:-23.92 166:14.16 167:8.76 168:10.15 169:19.41 170:5.04 171:-5.81 172:-15.53 173:-14.26 174:-18.64 175:-8.34 176:-0.05 177:-19.91 178:-5.49 179:27.59 180:-0.46 181:1.94 182:20.17 183:-19.93 184:2.89 185:6.41 186:-16.46 187:-20.4 188:-15.98 189:-29.95 190:7.64 191:3.42 192:8.97 193:1.23 194:-2.51 195:25.33 196:-12.72 197:14.87 198:-18.95 199:-9.7 200:-2.96 201:-26.43 202:-6.95 203:-8.48 204:-2.8 205:18.01 206:-6.47 207:-1.53 
-3.313250140912771e-08 0:15.08 1:8.67 2:0.29 3:-28.76 4:-2.37 5:-24.1 6:8.04 7:-10.75 8:-10.52 9:-17.43 10:18 11:2.53 12:-10.99 13:16.36 14:5.93 15:2.12 16:-36.45 17:0.16 18:-14.41 19:1.73 20:-9.38 21:-4.66 22:-9.17 23:17.05 24:-3.17 25:-8.02 26:15.84 27:3.59 28:12.8 29:-26.07 30:-4.81 31:-25.7 32:1.63 33:-12.49 34:-4.27 35:-5.94 36:6.7 37:16.34 38:-4.93 39:18.9 40:8.9 41:5.26 42:-40.25 43:-30.81 44:-21.17 45:9.33 46:-2.69 47:-1.24 48:-14.51 49:12.06 50:16.64 51:-19.22 52:18.2 53:-25.62 54:23.48 55:-17.23 56:-3.75 57:-5.72 58:-19.26 59:-13.53 60:-0.21 61:-16.49 62:10.73 63:-0.76 64:-7.47 65:16.83 66:-12.84 67:23.78 68:1.98 69:2.94 70:-38.5 71:-23.16 72:-20.39 73:-3.82 74:-23.07 75:0.23 76:17.85 77:-4.91 78:17.54 79:-37.16 80:26.46 81:-17.65 82:11.31 83:-2.08 84:-4.85 85:-2.69 86:10.74 87:-10.02 88:-1.01 89:2.69 90:-2.76 91:14.77 92:8.8 93:4.53 94:-23.6 95:-2.02 96:-21.89 97:-2.3 98:-17.87 99:-4.73 100:-4.07 101:20.71 102:-0.59 103:-11.17 104:15.92 105:3.02 106:-2.8 107:-25.41 108:-1.66 109:-16.09 110:-3.15 111:-19.47 112:8.61 113:3.82 114:5.23 115:-4.63 116:-11.09 117:13.55 118:-9.23 119:-4.52 120:-23.36 121:-9.19 122:-8.41 123:-10.77 124:-3.08 125:9.14 126:-5.04 127:10.94 128:17.15 129:10.21 130:17.42 131:2.39 132:-3.79 133:-37.58 134:-13.63 135:20.49 136:-8.74 137:9.19 138:-7.44 139:-19.43 140:11.65 141:5.94 142:-14.76 143:17.73 144:-28.59 145:19.56 146:-3.1 147:-12.91 148:-5.88 149:2.03 150:-17.97 151:24.19 152:-12.99 153:16.63 154:3.21 155:-4.8 156:14.83 157:10.66 158:12.34 159:-15.84 160:-27.99 161:-14.26 162:-1.31 163:-22.08 164:-14.29 165:-19.35 166:21.16 167:12.5 168:8.48 169:15.78 170:3.73 171:6.42 172:-23.04 173:-26.98 174:-14.08 175:-10.33 176:-33.26 177:-3.43 178:-10.25 179:39.61 180:10.13 181:-9.44 182:14.28 183:-8.21 184:2.96 185:-21.13 186:-22.71 187:-11.83 188:-20.41 189:-30.14 190:8.21 191:3.86 192:32 193:-21.12 194:-8.15 195:20.56 196:-2.99 197:2.78 198:-9.22 199:-5.25 200:-5.54 201:3.54 202:0.5 203:2.7 204:-1.12 205:2.13 206:-0.08 207:-3.34 
-2.303101487299841e-09 0:18.96 1:3.8 2:0.3 3:-0.69 4:-0.39 5:-17.27 6:-4.97 7:-10.36 8:-26.42 9:-16.67 10:-10.15 11:-0.82 12:-9.29 13:21.85 14:2.38 15:-18.79 16:-21.35 17:8.35 18:-30.63 19:-1.61 20:-19.97 21:-2.34 22:4.41 23:-25.04 24:-5.17 25:-19.66 26:19.28 27:-2.27 28:6.05 29:-9.87 30:1.97 31:-27.48 32:-17.51 33:-0.09 34:-20 35:-12.26 36:-6 37:15.05 38:-8.22 39:22.07 40:9.85 41:-16.68 42:-20.88 43:-6.16 44:-40.98 45:-11.81 46:-16.6 47:-12.5 48:-8.04 49:-2.32 50:18.5 51:-16.71 52:24.44 53:-34.49 54:31.5 55:-23.59 56:13.29 57:-13.11 58:-23.52 59:9.05 60:-36.84 61:9.26 62:-20.08 63:-3.26 64:2.81 65:21.11 66:-12.93 67:7.94 68:23.94 69:12.4 70:-43.08 71:-17.65 72:-9.96 73:-39.28 74:6 75:-40.49 76:7.66 77:6.37 78:21.96 79:-18.13 80:28.82 81:-16.52 82:16.25 83:-9.3 84:-30.61 85:10.8 86:-28.35 87:8.42 88:-15.08 89:3.94 90:3.61 91:19.52 92:7.2 93:1.86 94:-0.03 95:10.27 96:-17.17 97:-12.21 98:-9.12 99:-30 100:-24.88 101:-5.74 102:3.67 103:-8.47 104:21.27 105:2.74 106:-24.38 107:-9.98 108:-0.5 109:-30.27 110:-14.4 111:-7 112:-1.82 113:11.56 114:-6.77 115:-18.6 116:-12.97 117:16.48 118:-5.77 119:-1.14 120:-6.82 121:-4.71 122:-12.58 123:-1.17 124:-6.72 125:-25.09 126:-13.99 127:-2.62 128:-5.73 129:-9.7 130:21.87 131:4.18 132:-24.35 133:-24.42 134:-1.72 135:-43.21 136:-14.4 137:3.48 138:-12.07 139:14.73 140:5.99 141:-12.11 142:-25.04 143:21.64 144:-22.86 145:17.24 146:-21.76 147:-0.84 148:-3.21 149:-35.99 150:11.5 151:-16.66 152:-3.73 153:10.31 154:-12.08 155:-4.77 156:19.17 157:2.91 158:0.42 159:-13.6 160:-7.52 161:-26.98 162:-23.26 163:-2.83 164:-23 165:-25.44 166:-6.62 167:-5.24 168:10.95 169:20.7 170:9.71 171:-16.25 172:-22.55 173:-0.97 174:-25.91 175:-32.78 176:-15.7 177:-7.13 178:-14.11 179:3.09 180:16.02 181:1.06 182:23.75 183:-21.38 184:-7.28 185:-6.72 186:-10.82 187:-7.46 188:-13.01 189:-5.16 190:-5.91 191:-8.15 192:-5.29 193:-7.24 194:-7.4 195:25.13 196:-14.38 197:-0.16 198:-17.37 199:-8.48 200:-17.23 201:-23.77 202:-4.35 203:-14.88 204:4.75 205:-9.47 206:0.03 207:-14.38 
1.306154040481289e-08 0:14.91 1:-3.67 2:3.57 3:-30.33 4:9.57 5:-8.42 6:-19.66 7:6.21 8:-31.09 9:10.55 10:6.5 11:-5.72 12:-13.56 13:14.98 14:0.26 15:6.17 16:-28.21 17:6.73 18:-7.11 19:-19.32 20:1.84 21:-34.33 22:13.47 23:12.13 24:-5.76 25:-11.27 26:17.45 27:-2.69 28:25.12 29:-41.16 30:-5.88 31:-22.37 32:-16.39 33:9.26 34:-14.29 35:-7.08 36:5.72 37:15.79 38:-16.45 39:18.2 40:1.36 41:9.02 42:-36.97 43:-22.04 44:-15.05 45:-19.91 46:15.04 47:-21.45 48:-6.15 49:12.1 50:5.04 51:-22.66 52:18.95 53:-30.57 54:24.61 55:-17.09 56:-8.53 57:6.89 58:-48.24 59:5.61 60:-8.91 61:-28.2 62:9.18 63:-6.36 64:5.21 65:15.54 66:-16.03 67:19.89 68:9.24 69:6.19 70:-19.74 71:-35.36 72:7.25 73:-26.82 74:-18.66 75:2.52 76:9.68 77:-11.61 78:17.92 79:-37.5 80:21.08 81:-16.79 82:9.27 83:12.34 84:-27.15 85:28.75 86:-8.28 87:-3.36 88:-7.02 89:-1.8 90:8.43 91:13.8 92:-0.24 93:14.4 94:-17.28 95:12.08 96:-10.45 97:-33.66 98:-4.12 99:-23.88 100:15.21 101:13.98 102:11.68 103:-25.04 104:17.03 105:-8.12 106:-5.64 107:-19.87 108:2.41 109:5.2 110:-35.27 111:7.44 112:-9.97 113:21.06 114:-15.43 115:-9.33 116:-10.14 117:14.7 118:-17.52 119:-14.88 120:-23.13 121:-2.99 122:17.1 123:-21.71 124:29.9 125:-5.64 126:1.54 127:-1.02 128:3.34 129:-4.34 130:18.07 131:-6.14 132:-0.36 133:-34.64 134:-2.93 135:29.37 136:-34.29 137:39.25 138:-21.29 139:-7.11 140:1.08 141:-0.33 142:-18.34 143:16.78 144:-38.19 145:15.99 146:-9.37 147:-3.59 148:21.81 149:-15.97 150:11.66 151:4.79 152:-13.92 153:9.84 154:-3.99 155:0.99 156:14.56 157:7.92 158:17.63 159:-23.37 160:-16.02 161:-14.23 162:-12.39 163:-6.9 164:-41.81 165:-9.64 166:-8.42 167:0.29 168:8.35 169:16.48 171:7.65 172:-25.58 173:-22.36 174:-14.64 175:-19.62 176:-11.6 177:-33.69 178:6.12 179:11.19 180:24.16 181:3.57 182:14.91 183:-2.77 184:1.79 185:-26.27 186:-12.41 187:-19.74 188:-36.64 189:-13.2 190:-25.32 191:24.02 192:12.67 193:6.35 194:-9.92 195:20.66 196:-6.5 197:4.65 198:-4.81 199:-3.77 200:3.45 201:-7.99 202:7.6 203:-4.2 204:2.53 205:-0.86 206:-4.3 207:-4.32 
3.711593077326825e-08 0:14.55 1:11 2:8.7 3:-27.05 4:-1.16 5:-25.44 6:-6.08 7:7.92 8:-21.92 9:-1.81 10:5.32 11:-0.88 12:-15.75 13:16.67 14:6.2 15:9.52 16:-41.98 17:-4.48 18:-7.69 19:-12.31 20:2.21 21:-17.81 22:-7.77 23:9.24 24:-14.17 25:-4.83 26:16.82 27:3.7 28:28.8 29:-35.63 30:4.44 31:-22.46 32:3.8 33:-7.32 34:-14.97 35:1.12 36:10.14 37:4.75 38:0.14 39:18.7 40:11.72 41:9.33 42:-33.76 43:-29.02 44:-13.94 45:-5.63 46:6.74 47:-18.82 48:-4.83 49:7.91 50:5.44 51:-0.51 52:18.42 53:-26.37 54:30.67 55:-9.82 56:-0.48 57:-15.51 58:-29.44 59:-1.56 60:-11.01 61:-22 62:12.03 63:-0.39 64:15.08 65:16.41 66:-9.84 67:22.69 68:-4.69 69:2.64 70:-28.61 71:-18.27 72:2.39 73:-22.82 74:-1.79 75:3.41 76:0.77 77:8.87 78:17.83 79:-35.83 80:34.02 81:-12.58 82:3.27 83:-3.8 84:-12.27 85:1.59 86:-17.3 87:-7.1 88:2.39 89:-5.96 90:6.82 91:14.94 92:14.64 93:14.92 94:-28.32 95:-1.48 96:-16.08 97:-6.77 98:-7.14 99:-10.89 100:-2.18 101:4.45 102:4.14 103:-17.42 104:16.34 105:5.43 106:7.44 107:-28.33 108:-6.38 109:-8.79 110:-20.05 111:-1.87 112:-0.03 113:-0.22 114:6.34 115:-14.8 116:-3.97 117:14.17 118:-1.01 119:-4.99 120:-25.96 121:6.4 122:9.78 123:8.16 124:16.19 125:-8.29 126:-6.06 127:10.15 128:0.24 129:0.46 130:17.27 131:8.3 132:-3.18 133:-36.19 134:-7.72 135:17.1 136:-10.01 137:13.19 138:-20.86 139:-12 140:12.37 141:1.5 142:-14.75 143:17.69 144:-23.43 145:21.32 146:-10.7 147:-19.91 148:3.61 149:-6.18 150:-10.91 151:-8.48 152:4.55 153:9.98 154:-16.81 155:3.05 156:14.14 157:12.61 158:18.5 159:-17.18 160:-19.91 161:-10.29 162:2.04 163:-7.58 164:-21.73 165:5.07 166:3.02 167:2.27 168:6.57 169:16.13 170:2.11 171:13.39 172:-25.01 173:-18.14 174:-12.25 175:-16.03 176:-13 177:-25.25 178:3.34 179:24.15 180:-4.13 181:3.73 182:15.09 183:-2.19 184:25.73 185:-17.78 186:1.59 187:-2.93 188:-13.59 189:-4.23 190:-20.21 191:18.94 192:34.03 193:-15.94 194:-3.76 195:20.05 196:5.16 197:23.28 198:-28.81 199:1.24 200:4.72 201:-5.04 202:13.45 203:-5.03 204:-3.32 205:22.15 206:-2.73 207:4.17 
2.545065547199243e-08 0:15.56 1:4.48 2:9.28 3:-3.91 4:-12.24 5:-3.44 6:-3.56 7:20.69 8:0.96 9:0.46 10:-17.44 11:-14.69 12:-19.39 13:18.98 14:14.17 15:-0.69 16:-22.53 17:-18.73 18:8.49 19:6.59 20:-2.89 21:-12.6 22:17.88 23:6.8 24:-1.99 25:-14.41 26:18.46 27:-7.38 28:6.86 29:1.22 30:-1.81 31:-0.85 32:-6.56 33:-1.39 34:-6.71 35:10.15 36:-3.4 37:3.09 38:-8.71 39:22.17 40:9.58 41:-11.16 42:-16.63 43:-34.23 44:-11.83 45:-15.82 46:-15.34 47:-19.79 48:11.14 49:-2.27 50:10.43 51:-18.86 52:23.87 53:-33.46 54:11.24 55:9.08 56:-34.97 57:-4.73 58:-16.74 59:-24.46 60:-4.78 61:11.92 62:-9.91 63:14.38 64:-4.86 65:18.98 66:-1.94 67:2.15 68:11.26 69:-15.82 70:-10.94 71:-37.98 72:-18.48 73:-16.53 74:3.82 75:-14.29 76:-10.79 77:-13.07 78:21.91 79:-25.59 80:14.05 81:22.75 82:-35.24 83:2.79 84:-9.83 85:-42.1 86:-12.1 87:4.01 88:-16.51 89:6.72 90:-6.79 91:18.24 92:3.92 93:4.34 94:-1.34 95:-34.9 96:8.66 97:-7.04 98:-12.09 99:-6.27 100:0.23 101:-11.73 102:11.97 103:-16.59 104:21.55 105:12.66 106:-18.29 107:-28.09 108:-28.82 109:2.68 110:-3.01 111:-9.04 112:-12.37 113:10.92 114:9.63 115:-8.6 116:-24.72 117:17.04 118:-3.12 119:-5.75 120:-5.33 121:-10.28 122:4.18 123:-10.65 124:-7.77 125:-9.36 126:20.72 127:13.89 128:-2.24 129:-4.28 130:22.47 131:17.54 132:-10.17 133:-35 134:-43.28 135:3.32 136:-7.37 137:5.73 138:-22.85 139:9.29 140:0.05 141:-2.59 142:-21.09 143:23.22 144:-30.54 145:2.8 146:11.02 147:-47.61 148:-0.47 149:21.69 150:-19.8 151:-8.72 152:28.6 153:-0.15 154:-1.29 155:-2.21 156:19.95 157:6.8 158:2.32 159:4.81 160:-33.6 161:-6.74 162:-6.34 163:-25.56 164:-26.74 165:13.51 166:13.93 167:5.82 168:-6.32 169:18.53 170:6.64 171:-6.44 172:8.18 173:-19.79 174:-17.56 175:-9.91 176:-16.67 177:-15.08 178:32.19 179:16.3 180:-1.35 181:-9.16 182:18.32 183:2.54 184:1.3 185:7.78 186:-6.42 187:-18.31 188:-18.11 189:-20.74 190:-14.54 191:23 192:18.28 193:0.32 194:-2.52 195:24.67 196:-10.96 197:2.16 198:-13.19 199:-48.97 200:1.84 201:4.43 202:-20.37 203:-9.78 204:17.44 205:-5.28 206:6.17 207:-13.42 
2.132186227576938e-08 0:16.48 1:13.25 2:7.51 3:-13.81 4:2.63 5:-4.42 6:-9.79 7:-5.6 8:-7.82 9:-8.78 10:8.1 11:-7.3 12:-8.92 13:18.61 14:5.97 15:-0.33 16:-11.57 17:4.69 18:-18.98 19:-18.87 20:8.82 21:20.34 22:-5.96 23:0.16 24:-19.19 25:7.47 26:16.38 27:5.7 28:16.56 29:-6.84 30:7.12 31:-2.5 32:-18.74 33:-0.4 34:-9.04 35:-1.95 36:8.19 37:8.17 38:1.09 39:19.77 40:10.15 41:13.74 42:-29.44 43:-16.01 44:-10.01 45:-1.84 46:-20.3 47:-0.75 48:-15.8 49:14.61 50:1.38 51:-1.35 52:21.26 53:-28.65 54:27.68 55:-23.49 56:3.2 57:-7.4 58:-13.95 59:-4.14 60:2.18 61:-3.75 62:10.34 63:-6.45 64:3.49 65:17.02 66:-12.46 67:29.38 68:26.13 69:7.23 70:-22.32 71:-12.24 72:-11.3 73:-6.58 74:-14.39 75:-1.13 76:-1.3 77:14.06 78:22.69 79:-36.89 80:42.22 81:-5.67 82:4.75 83:-10.24 84:-10.27 85:-3.85 86:-7.37 87:-3.89 88:9.33 89:-7.1 90:20.67 91:16.5 92:10.71 93:20.51 94:1.96 95:-0.81 96:-2.42 97:4.5 98:-13.59 99:-20.25 100:-11.09 101:4.26 102:0.3 103:-6.03 104:18.19 105:6.13 106:-0.24 107:-24.14 108:-4.31 109:-1.8 110:10.54 111:3.38 112:-4.31 113:3.54 114:-0.94 115:-18.08 116:7.8 117:15.92 118:-8.13 119:-8.08 120:-14.65 121:4.19 122:2.27 123:16.3 124:10.47 125:-1.14 126:1.31 127:9.42 128:-5.93 129:9.76 130:17.99 131:8.17 132:-0.81 133:-26.22 134:-0.51 135:-6.74 136:12.02 137:0.7 138:-5 139:-0.82 140:1.39 141:-19.38 142:-8.64 143:21.02 144:-34.14 145:35.5 146:-10.29 147:-4.65 148:12.22 149:-5.88 150:-7.26 151:10.46 152:-8.61 153:5.05 154:0.78 155:-8.13 156:16.95 157:12.12 158:29.72 159:-11.8 160:-21.61 161:-23.96 162:4.37 163:-5.17 164:-0.07 165:-20.39 166:-0.4 167:0.35 168:14.11 169:15.62 170:8.42 171:14.45 172:-17.68 173:-25.9 174:-10.41 175:12.1 176:8.42 177:-9.58 178:-13.41 179:15.18 180:1.79 181:2.76 182:13.88 183:-4.57 184:5.23 185:-4.94 186:-5.13 187:-4.05 188:5.98 189:-0.07 190:6.49 191:3.82 192:2.57 193:2.7 194:-14.08 195:22.53 196:-10.02 197:13.63 198:-19.68 199:-0.69 200:-15.52 201:-7.36 202:-4.95 203:-0.73 204:-3.24 205:6.23 206:-4.16 207:8 
3.582475360808246e-08 0:16.23 1:9.92 2:6.25 3:-10.63 4:-11.91 5:1.94 6:16.31 7:15.63 8:-3.4 9:-15.82 10:-16.33 11:-4.33 12:-13.54 13:17.7 14:6.84 15:-0.06 16:-8.68 17:-9.39 18:-2.86 19:-11.18 20:11.31 21:-6.51 22:-1.92 23:-16.85 24:-12.31 25:-8.91 26:16.99 27:-1.45 28:10.98 29:-1.39 30:-3.78 31:-18.56 32:-14.59 33:1.32 34:-7.61 35:-4.76 36:6.05 37:9.13 38:4.17 39:17.92 40:8.06 41:1.33 42:0.96 43:-19.06 44:-16.64 45:-9.96 46:7.93 47:-6 48:-18.42 49:4.12 50:11.3 51:2.23 52:20.55 53:-33.08 54:27.1 55:-15.63 56:-0.04 57:-4.44 58:-20.78 59:15.63 60:-11.34 61:-1.56 62:12.33 63:1.27 64:6.71 65:16.39 66:-17.48 67:21 68:10.22 69:3.91 70:-16.08 71:-16.09 72:13.24 73:-14.76 74:-10.33 75:11.68 76:-5.43 77:11.04 78:20.21 79:-38.92 80:23.67 81:-18.21 82:6.71 83:-4.08 84:-6.55 85:22.98 86:2.26 87:6.35 88:14.29 89:-1 90:16.67 91:14.19 92:3 93:7.27 94:-2.22 95:-5.45 96:7.7 97:7.23 98:13.77 99:-18.45 100:-13.53 101:-4.85 102:-9.93 103:-10.96 104:15.59 105:0.6 106:-4.1 107:4.29 108:-0.25 109:8.53 110:-7.34 111:18.8 112:-2.28 113:2.17 114:-1.55 115:-25.65 116:-17.49 117:17.39 118:-20.01 119:-14.24 120:1.35 121:-7.1 122:17.44 123:-2.81 124:28.15 125:-10.71 126:2.4 127:20.34 128:-5.01 129:12.79 130:16.54 131:5.94 132:-4.6 133:-2.59 134:-16.07 135:9.12 136:6.03 137:8.47 138:-5.52 139:1.92 140:11.49 141:-14.17 142:-22.42 143:20.81 144:-38.33 145:15.99 146:16.7 147:-32.2 148:19.2 149:-3.11 150:-5.07 151:9.73 152:6.03 153:7.34 154:10.19 155:7.83 156:13.2 157:-4.08 158:7.06 159:15.39 160:-4.94 161:0.13 162:-10.06 163:-14.28 164:-5.8 165:1.43 166:-1 167:13.13 168:3.45 169:13.45 170:-1.46 171:6.73 172:13.44 173:-3.63 174:-2.95 175:-4.9 176:-2.67 177:-3.75 178:3.52 179:-2.95 180:11.49 181:-1 182:13.5 183:-7.03 184:1.58 185:1.15 186:-1.12 187:-2.77 188:-2.74 189:5.44 190:-0.42 191:4.85 192:3.61 193:0.01 194:-3.22 195:21.35 196:-9.98 197:15.98 198:-11.98 199:2.4 200:-5.3 201:-5.01 202:12.13 203:-3.89 204:3.63 205:2.71 206:-1.16 207:5.66 
4.220114446784606e-08 0:18.56 1:12.11 2:-1.22 3:-39.08 4:-22.74 5:-6.53 6:-8.03 7:-15.44 8:-15.47 9:-10.62 10:1.87 11:-9.58 12:3.84 13:20.89 14:6.48 15:-11.61 16:-17.05 17:-21.36 18:-13.07 19:-12.68 20:-18.36 21:11.45 22:1.02 23:13.75 24:-23.67 25:12.99 26:19.6 27:-5.48 28:10.67 29:-11.52 30:-16.65 31:-19.73 32:-10.28 33:-8.65 34:-4.86 35:-2.3 36:7.67 37:6.14 38:0.07 39:22.28 40:10.48 41:-1.68 42:-19.89 43:-35.31 44:-9.32 45:-5.12 46:1.99 47:-6.22 48:-0.98 49:16.94 50:4.7 51:-1.38 52:22.87 53:-29.94 54:28.12 55:-1.13 56:-12.13 57:9.75 58:-31.35 59:-4.81 60:2.38 61:-7.95 62:3.77 63:-9.95 64:2.83 65:20.17 66:-5.37 67:0.48 68:21.98 69:-18.57 70:-25.07 71:-33.76 72:-17.79 73:6.01 74:-17.18 75:4.72 76:10.42 77:-5.32 78:23.13 79:-36.83 80:26.43 81:-7.12 82:-19.68 83:-0.38 84:-24.74 85:-4.38 86:-1.3 87:-7.85 88:9.92 89:-1.55 90:4.35 91:18.64 92:9.26 93:3.66 94:-21.7 95:-15.02 96:-17.15 97:-12.22 98:-12.1 99:-8.12 100:-3.99 101:6.91 102:10.03 103:8.61 104:20.74 105:7.06 106:-9.91 107:-22.3 108:-12.47 109:-11.4 110:-15.39 111:-18.65 112:1.6 113:2.56 114:14.49 115:-12.06 116:16.6 117:18.47 118:-0.97 119:-13.86 120:-21.09 121:-20.77 122:-1.98 123:1.05 124:-2.8 125:-4.05 126:-4.07 127:14.78 128:14.78 129:-2.62 130:19.95 131:8.66 132:-6.04 133:-25.06 134:-22.21 135:3.73 136:7.23 137:9.26 138:-3.36 139:-8.94 140:21.92 141:-8.39 142:-12.58 143:21.46 144:-27.11 145:15.73 146:-3.38 147:-25.32 148:3.74 149:-2.87 150:-4.68 151:4.65 152:-0.14 153:5.48 154:-4.51 155:-1.04 156:19.64 157:12.33 158:5.04 159:-21.57 160:-37.42 161:-17.57 162:-3.8 163:5.3 164:-13.69 165:-10.68 166:15.76 167:-2.77 168:12.4 169:20.09 170:6.01 171:-5.72 172:-26.66 173:-32.86 174:-11.42 175:-3.33 176:9.26 177:-15.96 178:-5.13 179:33.02 180:1.59 181:-4.31 182:19.14 183:-29.13 184:17.66 185:-0.74 186:-17.45 187:16.24 188:-13.52 189:-0.78 190:-3.87 191:3.73 192:5.04 193:-6.99 194:-1.12 195:24.16 196:-9.78 197:10.58 198:-26.44 199:-27.16 200:-0.75 201:-19.23 202:-1.9 203:-0.82 204:-0.9 205:14.86 206:-1.54 207:0.19 
5.538471903321351e-09 0:14.25 1:-3.05 2:6.26 3:3.28 4:3.12 5:-17.41 6:-3.62 7:3.11 8:-13.82 9:-11.05 10:6.17 11:-5.37 12:-8.67 13:22.22 14:6.54 15:-17.79 16:21.48 17:-15.08 18:-39.93 19:-2.79 20:-19.68 21:18.23 22:-0.66 23:-6.88 24:24.22 25:-20.25 26:19.25 27:-26.46 28:2.97 29:8.96 30:0.91 31:-31.78 32:-1.03 33:-15.87 34:1.56 35:-16.61 36:-5.2 37:10.53 38:-7.89 39:22.34 40:7.18 41:-9.57 42:8.48 43:-5.78 44:-43.35 45:-16.14 46:-32.69 47:12.33 48:-25.41 49:-20.42 50:19.43 51:9.22 52:23.75 53:-46.43 54:15.99 55:25.82 56:-6.58 57:-33.03 58:-3.93 59:-30.05 60:19.1 61:-18.8 62:-10.01 63:17.69 64:-0.85 65:19.97 66:-7.82 67:10.22 68:30.14 69:2.08 70:-25.79 71:-36.15 72:-41.95 73:26.41 74:-20.26 75:-11.17 76:13.79 77:-26.37 78:21.64 79:-28.03 80:20.05 81:28.15 82:-3.52 83:-27.49 84:6.06 85:-37.96 86:11.47 87:-12.09 88:-6.59 89:12.22 90:-3.34 91:17.57 92:6.37 93:12.13 94:-1.02 95:-4.13 96:-31.55 97:-5.48 98:1.44 99:4.03 100:-9.38 101:6.19 102:17.68 103:1.19 104:20.95 105:9.56 106:-11.01 107:3.71 108:-4.8 109:-35.23 110:-20.08 111:-3.72 112:14.84 113:7.29 114:-1.86 115:6.36 116:-14.98 117:18.63 118:-10.74 119:-12.56 120:0.55 121:-11.01 122:-26.9 123:3.89 124:1.36 125:-0.87 126:-8.25 127:4.89 128:13.66 129:0.49 130:21.66 131:10.28 132:-16.88 133:-0.75 134:-24.89 135:-22.1 136:7.47 137:-0.03 138:9.02 139:-2.87 140:-0.84 141:14.34 142:-37.66 143:21.44 144:-29.02 145:9.08 146:17.62 147:-16.73 148:-27.41 149:18.4 150:-19.34 151:12.44 152:3.73 153:2.21 154:9.47 155:-8.79 156:18.16 157:7.5 158:6.78 159:3.18 160:-1.64 161:-33.25 162:-0.71 163:-24.97 164:-7.79 165:-17.35 166:0.4 167:17.94 168:1.9 169:18.56 170:5.53 171:6.55 172:-0.39 173:-7.26 174:-20.76 175:-25.19 176:-20.98 177:-5.87 178:-3.71 179:1.77 180:11.65 181:8 182:17.86 183:4.24 184:-5.86 185:25.87 186:10.54 187:-41.32 188:-15.61 189:-18.04 190:5.24 191:3.02 192:-9.09 193:-0.21 194:3.74 195:24.34 196:-8.81 197:3.9 198:-1.32 199:-13.09 200:-35.67 201:-4.5 202:-24.57 203:21.88 204:-16.09 205:-4.02 206:17.24 207:-13.57 
-2.540565335884537e-08 0:18.76 1:7.55 2:5.24 3:1.5 4:-27.16 5:-23.89 6:-4.56 7:-1.58 8:-16.5 9:-20.34 10:-0.53 11:-7.38 12:6.68 13:19.61 14:4.02 15:4.48 16:-3.32 17:-14.08 18:-16.68 19:-11.35 20:-12.87 21:-4.21 22:15.41 23:5.91 24:-4.47 25:9.17 26:19.85 27:-24.14 28:13.34 29:-3.23 30:8.38 31:-3.94 32:8.68 33:-3.06 34:-0.54 35:7.29 36:0.31 37:-7.32 38:-2.74 39:21.91 40:12.26 41:-7.95 42:-3.04 43:-28.18 44:-31 45:-13.84 46:-19.6 47:-4.16 48:-7.58 49:6.87 50:-5.39 51:4.65 52:22.62 53:-33.34 54:29.05 55:-9.17 56:-10.98 57:-0.2 58:-22.57 59:7.08 60:-12.01 61:0.16 62:-4.59 63:-1.67 64:1.63 65:19.26 66:0.83 67:7.04 68:16.35 69:-20.23 70:-32.7 71:-38.93 72:-17.15 73:1.25 74:-9.8 75:-1.36 76:0.98 77:6.06 78:23.38 79:-37.69 80:32.05 81:1.56 82:-12.62 83:-2.27 84:-19.22 85:-0.25 86:3.41 87:6.57 88:-2.3 89:-0.35 90:14.22 91:18.05 92:9.08 93:16.83 94:1.69 95:-13.86 96:-27.97 97:-19.17 98:-9.75 99:-12.35 100:-1 101:10.02 102:4.86 103:3.4 104:20.26 105:8.53 106:-7.46 107:-4.73 108:-7.28 109:-21.69 110:-15.57 111:-8.94 112:7.29 113:14.88 114:8.02 115:-11.1 116:12.33 117:15.37 118:-5.26 119:14.53 120:4.69 121:-0.08 122:-2.51 123:-5.63 124:-6.55 125:-7.84 126:-5.71 127:-3.12 128:-2.24 129:-4.76 130:20.16 131:3.67 132:-3.14 133:-20.81 134:-19.85 135:-6.08 136:-1.68 137:12.13 138:-1.9 139:-0.34 140:-4 141:-11.13 142:-0.88 143:21.88 144:-28.47 145:25.54 146:-1.41 147:-27.19 148:0.01 149:-6.1 150:0.27 151:-4.27 152:7.07 153:-1.35 154:-5.64 155:8.26 156:17.48 157:6.9 158:12.49 159:-14.68 160:-21.97 161:-21.59 162:-2.54 163:12.16 164:-4.3 165:-11.72 166:-11.77 167:-0.02 168:5.84 169:19.01 170:9.45 171:3.91 172:-17.01 173:-24.75 174:-20.61 175:2.53 176:13.53 177:-11.71 178:-6.5 179:10.46 180:6.92 181:3.24 182:19.01 183:-19.58 184:14.37 185:5.04 186:-23.8 187:-27.22 188:-2.42 189:-0.53 190:10.82 191:-2.24 192:-5.44 193:-2.96 194:2.91 195:24.12 196:-11.78 197:18.9 198:-17.93 199:-21.28 200:-12.33 201:-22.74 202:-0.03 203:-7.49 204:5.12 205:2.67 206:-3.52 207:9.01 
-5.613249087765837e-08 0:19.67 1:12.62 2:7.68 3:-17.37 4:-13.92 5:-30.39 6:-10.28 7:-12.28 8:-12.22 9:-15.42 10:5.55 11:-0.28 12:-9.31 13:21.04 14:9.5 15:-5.96 16:-28.27 17:-15.7 18:-21.09 19:-7.68 20:-20.74 21:10.86 22:12.57 23:-5.37 24:-24.75 25:-1.28 26:19.85 27:-1.74 28:19.68 29:-8.24 30:-4.12 31:-22.24 32:-10.14 33:-16.86 34:-0.11 35:8.45 36:5.37 37:6.06 38:4 39:22.07 40:11.86 41:8.87 42:-14.8 43:-21 44:-30.58 45:-6.36 46:-16.87 47:0.83 48:-2.45 49:4 50:0.69 51:10.93 52:23.86 53:-35.07 54:31.31 55:-9.29 56:2.57 57:4.05 58:-19.4 59:-0.04 60:3.42 61:-4.82 62:-13.43 63:-1.06 64:-2.73 65:20.82 66:-4.56 67:11.91 68:21.88 69:-11.92 70:-39.62 71:-31.24 72:-20.81 73:6.27 74:-21.16 75:3.06 76:10.28 77:4.8 78:23.62 79:-38.58 80:29.99 81:-3.37 82:-10.29 83:2.32 84:-20.9 85:-5.62 86:16.82 87:-0.69 88:0.41 89:2.44 90:1.58 91:17.31 92:1.92 93:12.65 94:-9.41 95:-9.96 96:-18.31 97:-13.15 98:-13.68 99:0.48 100:8.17 101:3.74 102:2.06 103:-2.64 104:20.38 105:6.46 106:-2.2 107:-11.4 108:-4.65 109:-24.46 110:-10.48 111:-16.09 112:21.48 113:18.99 114:-4.54 115:-12.15 116:8.05 117:17.5 118:-2.36 119:2.08 120:-16.15 121:-9.93 122:-6.06 123:9.31 124:7.62 125:2.38 126:-3.59 127:-5.56 128:-2.72 129:-4.41 130:20.87 131:9.44 132:-0.66 133:-22.57 134:-28.37 135:-7.75 136:6.56 137:12.9 138:-5.29 139:-3.88 140:10.36 141:-22.21 142:-0.39 143:22.13 144:-31.41 145:20.9 146:-8.39 147:-14.09 148:-0.36 149:-2.77 150:-0.73 151:4.76 152:4.32 153:1.54 154:-3.51 155:-1 156:20.83 157:10.9 158:5.74 159:-13.5 160:-30.59 161:-23.15 162:-3.77 163:5.45 164:-6.77 165:-8.2 166:13.69 167:-0.76 168:25.8 169:19.92 170:-3.23 171:-3.81 172:-20.48 173:-24.29 174:-14.79 175:-7.34 176:2.98 177:5.26 178:9.36 179:12.23 180:-0.52 181:-5.02 182:20.4 183:-19.14 184:20.67 185:-3.13 186:-30.34 187:-12.11 188:-10.87 189:-20.62 190:18.28 191:-5.32 192:1.49 193:13.15 194:-9.43 195:24.74 196:-10.28 197:20.95 198:-25.52 199:-20.47 200:-11.98 201:-21.27 202:-4.79 203:2.63 204:2.51 205:0.93 206:-2.91 207:-1.69 
3.26084743651478e-08 0:13.72 1:-0.35 2:6.63 3:-4.06 4:13.56 5:-30.22 6:6.99 7:-13.87 8:-11.36 9:2.99 10:10.11 11:3.81 12:-15 13:15.72 14:-4.28 15:-0.51 16:-24.25 17:8.06 18:-19.25 19:10.64 20:-13.36 21:-1.45 22:-0.2 23:2.92 24:-6.11 25:-18.25 26:16.19 27:-1.22 28:8.74 29:-20.58 30:5.06 31:-23.19 32:0.53 33:-10.22 34:-2.75 35:3.61 36:5.63 37:-1.6 38:-11.58 39:17.38 40:4.85 41:2.28 42:-26.81 43:-21.32 44:-30.71 45:13.67 46:-4.61 47:-2.23 48:-10.89 49:8.55 50:11.25 51:-14.52 52:18.5 53:-33.51 54:26.07 55:-5.86 56:7.66 57:-11.63 58:-18.63 59:-7.8 60:4.09 61:-10.4 62:10.74 63:-11.51 64:19.37 65:16.42 66:-19.58 67:21.48 68:7.24 69:21.34 70:-28.56 71:-14.38 72:-10.96 73:-4.14 74:-10.78 75:7.14 76:-8.72 77:15.31 78:15.61 79:-31.52 80:17.66 81:-8.32 82:16.79 83:-1.36 84:4.28 85:-12.73 86:0.63 87:-3.37 88:8.76 89:-7.13 90:5.94 91:14.06 92:0.34 93:5.41 94:-5.82 95:15.91 96:-25.49 97:3.23 98:-9.13 99:-15.59 100:0.5 101:4.44 102:-6.69 103:-8.19 104:14.53 105:-1.67 106:2.03 107:-9.97 108:6.52 109:-11.66 110:3.23 111:-8.8 112:-2.49 113:-3.45 114:-6.07 115:-9.32 116:-8.56 117:12.02 118:-7.19 119:-4.53 120:-7.94 121:-0.67 122:-21.89 123:-1.42 124:-1.54 125:20.25 126:7.51 127:5.82 128:0.59 129:-6.17 130:15.88 131:-4.27 132:-6.84 133:-11.67 134:-4.8 135:11.43 136:11.41 137:2.33 138:-7.18 139:-5.74 140:-15.44 141:12.78 142:-2.77 143:15.85 144:-39.51 145:1.06 146:-1.85 147:-8.19 148:3.38 149:2.49 150:-19.01 151:18.81 152:-0.11 153:7.52 154:-7.47 155:10.64 156:12.37 157:3.3 158:8.9 159:-1.59 160:-2.06 161:-17.81 162:-5.04 163:-18.41 164:-8.81 165:-6.52 166:4.26 167:9.52 168:9.85 169:13.62 170:3.77 171:7.03 172:-12.21 173:-6.72 174:-22.26 175:0.33 176:-13.8 177:-17.07 178:-2.03 179:10.99 180:2.16 181:2.53 182:13.5 183:-4.07 184:1.11 185:-6.05 186:-4.45 187:-29.86 188:-17.19 189:-13.71 190:-1.01 191:11.29 192:11.56 193:-4.62 194:1.77 195:20.21 196:-6.25 197:2.65 198:-4.8 199:-2.11 200:-8.75 201:-3.42 202:-4.59 203:2.27 204:-3.41 205:0.34 206:-3.55 207:1.16 
2.590956071912842e-08 0:14.94 1:3.4 2:-4.23 3:-17.98 4:2.71 5:-22.14 6:6.56 7:-19.77 8:-0.17 9:-1.57 10:14.45 11:2.57 12:-11.27 13:17.17 14:-1.43 15:-10.33 16:-20.88 17:1.01 18:-22.69 19:4.97 20:-32.12 21:15 22:4.55 23:15.84 24:-0.04 25:-21.04 26:16.55 27:4.55 28:1.31 29:-15.72 30:-14.83 31:-25.74 32:5.62 33:-19.15 34:-1.74 35:-5.89 36:25.02 37:13.2 38:-4.52 39:19.24 40:3.16 41:-12.03 42:-18.52 43:-34.63 44:-27.22 45:-4.26 46:-19.8 47:-14.94 48:-6.49 49:21.92 50:6.26 51:-17.28 52:18.97 53:-27.89 54:19.25 55:-7.8 56:-10.43 57:-17.39 58:-7.44 59:-31.69 60:15.34 61:-22.53 62:13.75 63:-14.34 64:2.54 65:18.52 66:-15.01 67:6.54 68:28.56 69:-11.46 70:-52.9 71:-13.8 72:-41.61 73:-0.8 74:-23.72 75:20.22 76:-3.13 77:4.76 78:17.55 79:-32.39 80:14.91 81:-12.54 82:9.17 83:-7.97 84:-5.04 85:-27.56 86:9.35 87:-7.9 88:14.45 89:2.42 90:12.94 91:14.94 92:3.22 93:-3.59 94:-7.97 95:-1.64 96:-20.38 97:4.41 98:-24.38 99:-8.14 100:-1.85 101:21.91 102:12.39 103:-14.29 104:17.3 105:-10.5 106:-0.62 107:-16.11 108:-8.23 109:-14.04 110:-8.1 111:-20.72 112:-0.81 113:13.48 114:15.09 115:-1.27 116:-6.3 117:15.08 118:-17.87 119:-5.17 120:-6.71 121:1.95 122:4.03 123:7.2 124:-19.4 125:-15.29 126:-15.74 127:1.87 128:4.21 129:-10.68 130:18.04 131:-0.71 132:-14.12 133:-25.33 134:-13.49 135:0.3 136:0.67 137:-2.33 138:-9.31 139:-4.16 140:10.41 141:7.55 142:-13.2 143:17.76 144:-33.01 145:9.44 146:-1.59 147:-15.56 148:-18.33 149:14.85 150:-16.44 151:1.04 152:8.64 153:9.08 154:-10.48 155:-0.57 156:15.21 157:1.5 158:11.19 159:-6.71 160:-11.64 161:-34.69 162:-5.33 163:-22.5 164:-14.72 165:4.83 166:25.53 167:14.41 168:5.1 169:15.9 170:4.87 171:4.26 172:-10.88 173:-22.92 174:-21.07 175:-6.03 176:-13.05 177:-12.72 178:12.47 179:33.36 180:6.52 181:-7.69 182:15.89 183:-5.18 184:-8.08 185:-11.66 186:-17.99 187:-26.48 188:-22.48 189:-11.25 190:-1.11 191:24.67 192:26.09 193:-7.52 194:-8.98 195:20.87 196:-3.74 197:1.74 198:-7.27 199:-5.33 200:-10.97 201:3.02 202:-8.93 203:2.76 204:0.02 205:14.55 206:-0.83 207:-2.26 
3.827721739568801e-08 0:18.66 1:-7.87 2:12.53 3:-17.37 4:-26.38 5:3.73 6:8.48 7:18.15 8:-17.52 9:11.04 10:-5.7 11:-12.06 12:-1.55 13:20.02 14:-2.22 15:8.79 16:-25.5 17:-29.76 18:10.55 19:-7.81 20:-0.54 21:-13.89 22:29.04 23:0.01 24:-8.24 25:-6.99 26:20.01 27:-14.15 28:19.15 29:-9.06 30:-16.92 31:4.32 32:2.1 33:-1.35 34:-15.25 35:9.84 36:-2.98 37:-8.01 38:1.79 39:22.07 40:7.88 41:7.03 42:-29.11 43:-29.87 44:-5.15 45:-23.61 46:-13.92 47:-20.14 48:14.87 49:1.04 50:3.2 51:-3.04 52:24.56 53:-34.45 54:23.41 55:0.55 56:-39.22 57:-7.24 58:-14.69 59:-42.18 60:-5.54 61:8.93 62:-21.84 63:7.79 64:-6.16 65:19.42 66:-10.5 67:18.75 68:4.8 69:-17.42 70:-2.18 71:-18.92 72:-9.84 73:-19.36 74:16.41 75:-17.75 76:-9.16 77:-2.48 78:21.47 79:-25.31 80:18.83 81:14.22 82:-28.42 83:7.14 84:2.42 85:-24.14 86:-7.51 87:20.3 88:-23.61 89:12.51 90:-0.25 91:18.71 92:-9.69 93:21.98 94:-3.61 95:-32.25 96:-6.27 97:-9.57 98:-0.53 99:-23.03 100:12.38 101:-7.54 102:-8.43 103:-4.02 104:21.87 105:4.97 106:2.14 107:-40.18 108:-39.91 109:13.58 110:8.08 111:-2.75 112:-25.22 113:23.33 114:1.33 115:-16.73 116:-13.93 117:19.47 118:-11.57 119:12.62 120:-16.65 121:-30.01 122:4.2 123:3.78 124:12 125:-12.64 126:17.66 127:-1.88 128:-11.76 129:-14.42 130:22.87 131:6.75 132:7.3 133:-40.45 134:-51.78 135:6.57 136:5.67 137:2.78 138:-29.05 139:13.42 140:-1.94 141:-6.19 142:-20.16 143:23.15 144:-30.93 145:13.85 146:-5.93 147:-40.49 148:-4.38 149:19.4 150:-22.34 151:0.34 152:26.99 153:-7.36 154:-4.5 155:-11.17 156:19.2 157:-6.79 158:17.7 159:-4.86 160:-37.52 161:-5.29 162:2.23 163:-1.19 164:-20.83 165:9.48 166:-8.6 167:3.02 168:10.21 169:19.25 170:-8.35 171:15.24 172:-8.58 173:-30.72 174:-4.25 175:-5.86 176:-18.3 177:-34.16 178:21.19 179:8.1 180:-0.24 181:5.73 182:19.16 183:-9.07 184:16.96 185:-3.71 186:-17.64 187:0.55 188:-20.83 189:-17.88 190:-31.49 191:26.09 192:6.07 193:-13.76 194:-14.27 195:25.06 196:-13.15 197:15 198:-24.5 199:-51.37 200:2.85 201:11.7 202:-25.69 203:-7.43 204:15.29 205:-9.95 206:5.98 207:-11.82 
-8.82284367786923e-09 0:17.61 1:-8.27 2:-7.7 3:-3.06 4:-4.55 5:-18.59 6:-10.97 7:-2.58 8:-28.59 9:-21.35 10:-10.74 11:-10.19 12:-9.58 13:22.4 14:-2.41 15:-47.06 16:-29.94 17:-20.77 18:-25.91 19:2.5 20:-2.92 21:-12.33 22:1.08 23:-1 24:-15.23 25:-24.02 26:18.93 27:-8.52 28:-6.74 29:-25.76 30:-9.59 31:-24.08 32:-3.12 33:-5.71 34:-5.89 35:-5.86 36:-0.5 37:17.67 38:9.37 39:22.67 40:-2.83 41:-38.19 42:-27.09 43:-27.64 44:-40.75 45:-2.44 46:-9.47 47:0.02 48:-12.21 49:1.85 50:-10.09 51:-3.32 52:21.3 53:-34.58 54:7.8 55:-28.93 56:0.35 57:-9.89 58:-14.73 59:0.61 60:-12.52 61:-0.99 62:-5.55 63:1.62 64:7.65 65:18.72 66:-21.22 67:-5.42 68:-0.97 69:-7.56 70:-40.26 71:-25.79 72:-10 73:-17.96 74:-4.7 75:-11.16 76:-1.46 77:7.65 78:21.52 79:-34.26 80:6.93 81:-21.55 82:2.35 83:-26.82 84:-16.58 85:-10.3 86:-20.76 87:-2.77 88:-15.09 89:1.35 90:6.01 91:17.72 92:-0.88 93:-15.04 94:-22.08 95:-14.75 96:-21.42 97:2.16 98:-1.33 99:-15.81 100:-24.53 101:-21.72 102:5.27 103:-5.34 104:21.22 105:-2.65 106:-46.08 107:-19.51 108:-16.8 109:-26.76 110:5.27 111:-19.73 112:-1.62 113:-0.44 114:-12.26 115:-10.51 116:-16.3 117:18.1 118:-20.87 119:-22.63 120:-20.46 121:-7.04 122:-21.98 123:3.15 124:0.56 125:-8.39 126:-23.43 127:-14.27 128:8.87 129:-10.78 130:22.41 131:-6.11 132:-36.2 133:-27.8 134:-29.31 135:-22.57 136:21.39 137:-0.14 138:-15.1 139:-15.48 140:11.87 141:-2.64 142:-18.2 143:20.56 144:-27.89 145:4.4 146:-11.04 147:-13.78 148:-21.95 149:-0.08 150:-9.36 151:1.78 152:-0.17 153:-8.28 154:6.53 155:-7.51 156:17.9 157:-1.24 158:-6.19 159:-27.21 160:-20.9 161:-26.59 162:-20.28 163:-11.79 164:-7.95 165:-14.84 166:3.42 167:26.63 168:0.62 169:19.83 170:-5.99 171:-27.82 172:-27.67 173:-19.02 174:-31.37 175:-25.96 176:-16.09 177:7.28 178:-0.89 179:-1.62 180:11.35 181:-23.92 182:18.94 183:-20.22 184:-0.82 185:-20.84 186:-3.01 187:-18.73 188:-9.15 189:-4.85 190:-4.1 191:-1.99 192:-5.27 193:-2.39 194:0.87 195:23.29 196:-5.42 197:-35.55 198:-30.27 199:-21.83 200:-33.47 201:-2.69 202:-6.43 203:-7.59 204:-3.92 205:-1.02 206:-9.92 207:-14.59 
1.918634517927842e-08 0:16.33 1:7.5 2:13.49 3:-2.13 4:-32.63 5:3.93 6:11.85 7:-0.62 8:3.07 9:-5.98 10:-21.43 11:8.36 12:-8.32 13:17.87 14:2.18 15:12.96 16:-12.71 17:-28.78 18:6.89 19:-13.47 20:-0.53 21:-2.1 22:7.92 23:-21.42 24:-6.49 25:-13.39 26:17.08 27:0.59 28:11.52 29:-6.56 30:-13.12 31:-4.77 32:-21.16 33:-4.03 34:-3.76 35:8.05 36:-7.8 37:7.92 38:-4.25 39:18.57 40:9.94 41:13.53 42:-15.99 43:-36.55 44:0.87 45:-18.38 46:15.73 47:-6.99 48:-0.63 49:-17.77 50:18.79 51:-13.46 52:20.66 53:-30.97 54:34.75 55:0.67 56:-15.84 57:14.14 58:-36.58 59:0.09 60:-12.29 61:-0.2 62:-6.82 63:18.49 64:2.4 65:15.5 66:-11.47 67:23.38 68:10.76 69:-5.12 70:2.68 71:-25.57 72:3.69 73:-20.02 74:-2.67 75:-1.79 76:6.2 77:-4.23 78:20.62 79:-40.38 80:31.31 81:-10.72 82:0.09 83:25.08 84:-16.57 85:13.84 86:5.7 87:7.76 88:-6.78 89:10.84 90:-1.85 91:14.81 92:4.95 93:10.8 94:-20.35 95:-17.91 96:9.1 97:-0.29 98:6.95 99:-4.78 100:-1.42 101:-16.4 102:-9.61 103:-18.08 104:15.83 105:6.02 106:10.13 107:-12.94 108:-14.39 109:15.26 110:-21.46 111:15.26 112:1.11 113:21.67 114:-7.05 115:-9.11 116:-20.25 117:15.07 118:-19.01 119:-6.67 120:-4.65 121:-3.79 122:29.09 123:-12 124:19.85 125:-13.63 126:11.15 127:3.34 128:4.14 129:-11.08 130:16.37 131:2.27 132:10.39 133:-14.87 134:-21.91 135:22.26 136:-4.79 137:26.04 138:-5.83 139:9.39 140:-3.65 141:1.24 142:-20.83 143:19.85 144:-37.64 145:22.73 146:2.83 147:-26.04 148:41.62 149:-9.2 150:7.17 151:10.91 152:13.26 153:-20.5 154:14.71 155:-9.79 156:13.32 157:-12.15 158:9.88 159:1.45 160:-9.37 161:15.03 162:-7.14 163:-4.56 164:-13.1 165:-4.36 166:-0.76 167:5.16 168:0.59 169:13.25 170:-9.97 171:7.85 172:0.95 173:-4.87 174:4.85 175:-8.4 176:-1.63 177:-14.72 178:3.09 179:4.7 180:-0.64 181:3.92 182:12.93 183:-4.75 184:9.16 185:0.13 186:-6.17 187:3.31 188:-10.78 189:-1.3 190:-8.42 191:10.08 192:14.6 193:10.41 194:2.38 195:21.58 196:-10.03 197:16.62 198:-10.35 199:-10.87 200:5.19 201:-15.08 202:17.08 203:-2.08 204:12.39 205:-2.65 206:6.04 207:-7.43 
-3.527020431270955e-08 0:17.69 1:6.63 2:14.39 3:12.97 4:5.03 5:-8.18 6:1.38 7:-17.89 8:-29.74 9:-20.29 10:1.39 11:12.75 12:-12.66 13:21.37 14:7.43 15:-17.05 16:-16.96 17:-9.7 18:-8.93 19:5.4 20:-19.84 21:7.94 22:6.57 23:-0.74 24:-16.76 25:-10.37 26:18.79 27:5.25 28:2.43 29:-8.15 30:3.16 31:-8.05 32:-9.48 33:-14.82 34:-4.96 35:-0.72 36:-2.21 37:-6.92 38:-9.78 39:22.53 40:6.12 41:-1.25 42:-19.87 43:-43.85 44:-17.17 45:25.58 46:-32.11 47:-4.26 48:-10.79 49:20.1 50:-6.66 51:-21.59 52:21.83 53:-19.34 54:29.63 55:-22.13 56:-11.28 57:-11.47 58:-17.34 59:-18.15 60:-0.12 61:-13.41 62:11.75 63:-8.22 64:0.58 65:18.4 66:-5.45 67:18.15 68:13.92 69:-4.62 70:-17.8 71:2.47 72:-37.17 73:-3.49 74:-19.83 75:-9.38 76:-10.43 77:-5.88 78:23.78 79:-37.79 80:40.24 81:-3.36 82:5.32 83:3.21 84:7.03 85:-16.58 86:4.79 87:-22.33 88:6.74 89:-13.85 90:1.29 91:18.75 92:5.89 93:14.53 94:-2.78 95:-0.54 96:-14.92 97:15.81 98:-19.31 99:-25.67 100:-9.7 101:-2.74 102:2.46 103:-18.72 104:20.85 105:4.93 106:-15.78 107:-12.79 108:-8.25 109:-8.33 110:7.25 111:-20.01 112:8.04 113:5.07 114:0.64 115:-17.95 116:-10.78 117:17.99 118:-12.56 119:-12.6 120:-10.09 121:-8.15 122:7.98 123:14.54 124:-11.36 125:1.25 126:6.68 127:16.08 128:-9.36 129:4.51 130:21.11 131:4.82 132:-11.13 133:-28.02 134:-10.58 135:-8.87 136:21.83 137:-15.21 138:-6.59 139:4.84 140:11.4 141:-17.35 142:-23.17 143:23.15 144:-37.15 145:27.05 146:-15.37 147:-8.53 148:8.03 149:4.06 150:-24.41 151:16.05 152:-14.93 153:9.79 154:-4.72 155:-0.37 156:18.99 157:10.18 158:22.88 159:-13.15 160:-29.72 161:-23.31 162:8.89 163:-14.06 164:-6.12 165:-16.31 166:-9.9 167:1.25 168:6.85 169:19.81 170:10.59 171:8.7 172:-18.68 173:-32.66 174:-20.42 175:18.83 176:-7.22 177:-0.79 178:-8.11 179:-2.89 180:8.81 181:3.37 182:15.44 183:-3.79 184:0.56 185:-9.1 186:-9.31 187:-5.16 188:-1.6 189:-4.24 190:-2.29 191:1.6 192:6.67 193:1.85 194:-8.67 195:21.49 196:6.35 197:-11.4 198:-15.67 199:-6.3 200:-6.02 201:3.37 202:-16.04 203:4.29 204:7.39 205:-3.87 206:-15.05 207:-13.27 
6.158969356739874e-08 0:18.55 1:12.35 2:7.07 3:-7.47 4:-21.79 5:-20.56 6:-17.17 7:-16.65 8:-18.7 9:-19.25 10:-1.66 11:0.68 12:-6.15 13:21.98 14:6.2 15:-17.14 16:-15.14 17:-29.99 18:-11.95 19:-14.18 20:-19.14 21:4.65 22:28.5 23:-8.2 24:-25.57 25:1.64 26:19.87 27:-2.83 28:6.97 29:-12.38 30:-10.61 31:-23.51 32:-15.92 33:-24.28 34:-0.74 35:12.35 36:3.85 37:-0.97 38:1.78 39:22.43 40:8.12 41:-16.53 42:-6.93 43:-30.84 44:-11.25 45:-13.82 46:-18.86 47:-11.85 48:9.9 49:-6.05 50:5.9 51:0.77 52:23.85 53:-31.4 54:36.8 55:-13.26 56:-13.17 57:-2.32 58:-42.42 59:1.52 60:-0.06 61:5.39 62:-0.49 63:7.22 64:14.54 65:19.83 66:2.54 67:1.87 68:18.59 69:-16.14 70:-28.19 71:-43.66 72:-25.66 73:11.68 74:-12.87 75:-3.21 76:13.35 77:0.98 78:22.93 79:-30.57 80:31.99 81:-1.95 82:-17.84 83:3.5 84:-29.26 85:-11.79 86:3.91 87:5.47 88:-1.31 89:-0.01 90:11.62 91:17.34 92:9.75 93:12.61 94:-9.77 95:-17.99 96:-17.08 97:-13.76 98:-13 99:-6.24 100:4.35 101:1.67 102:-2.53 103:-9.69 104:20.59 105:6.76 106:-7.06 107:-11.1 108:-10.59 109:-11 110:-19.48 111:-16.77 112:6.39 113:15.49 114:7.37 115:-12.2 116:11.59 117:18.55 118:0.45 119:-14.35 120:-18.44 121:-18.57 122:-4.58 123:11.72 124:7.93 125:2.34 126:12.28 127:2.68 128:-2.74 129:-5.28 130:20.89 131:7.69 132:-7.12 133:-23.26 134:-19.71 135:12.57 136:-10.14 137:20.85 138:-18.58 139:11.44 140:-12.41 141:-20.49 142:-4.13 143:21.37 144:-32.74 145:18.57 146:4.66 147:-24.22 148:6.32 149:-7.66 150:-9.62 151:4.23 152:15.15 153:-1.47 154:-8.59 155:8.05 156:18.4 157:6.95 158:10.09 159:-7.98 160:-29.01 161:-31.57 162:-3.72 163:-3.67 164:-6.43 165:-0.3 166:-12.85 167:-10.13 168:8.13 169:20.09 170:11.69 171:-0.8 172:-25.7 173:-31.19 174:-22.43 175:-4.82 176:5.65 177:-16.78 178:1.28 179:12.3 180:-1.8 181:-1.53 182:18.39 183:-12.06 184:9.99 185:-11.63 186:-17.71 187:-5.78 188:-19.06 189:-13.44 190:7.42 191:10.42 192:0.36 193:2.12 194:5.75 195:24.57 196:-10.16 197:8.59 198:-26.17 199:-22.32 200:-3.6 201:-21.94 202:-5.2 203:-7.59 204:13.74 205:-2.38 206:-10.56 207:6.66 
6.543793085178606e-08 0:19.91 1:-5.02 2:0.69 3:2.51 4:1.97 5:3.04 6:1.25 7:0.92 8:-2.74 9:-4.15 10:-6.66 11:-4.96 12:-3.65 13:15.97 14:-4.02 15:-2.12 16:-18.24 17:-2.74 18:-25.7 19:-3.11 20:-8.66 21:2.9 22:-5.93 23:15.95 24:-6.97 25:-16.11 26:17.09 27:-1.37 28:4.68 29:-17.58 30:-9.48 31:-26.5 32:-3.03 33:-11.39 34:-5.12 35:-9 36:11.63 37:4.86 38:-9.55 39:18.31 40:0.76 41:3.82 42:-22.3 43:-20.39 44:-30.37 45:4.55 46:-3.98 47:-2.92 48:-7.72 49:8.16 50:6.73 51:-17.82 52:17.93 53:-19.22 54:18.24 55:-5.58 56:-0.14 57:2.52 58:-16.3 59:-10.85 60:-1.86 61:-25.75 62:6.96 63:-8.36 64:-4.33 65:16.23 66:-11.12 67:3.04 68:5.03 69:2.29 70:-18.44 71:-15.16 72:-13.24 73:-10.51 74:-30.17 75:5.74 76:8.67 77:-11.78 78:17.81 79:-19.87 80:16.99 81:-11.61 82:7.12 83:-0.85 84:-14.05 85:-5.73 86:-5.75 87:-17.87 88:9.64 89:-3.19 90:-2.47 91:14.81 92:-3.37 93:4.26 94:-6.21 95:0.5 96:-17.85 97:-3.39 98:-12.24 99:-13.03 100:-10.01 101:6.88 102:5.46 103:-15.25 104:16.78 105:-4.94 106:-2.21 107:-14.44 108:13.04 109:-19.22 110:-13.24 111:-9.32 112:-5.25 113:10.68 114:8.78 115:-5.92 116:-20.72 117:14.37 118:-7.86 119:-0.51 120:-3.93 121:6.59 122:-4.85 123:-0.52 124:-4.75 125:-10.51 126:-33.02 127:-1.61 128:-6.65 129:-10.52 130:18.8 131:-10.32 132:-4.37 133:-24.03 134:-10.86 135:6.14 136:-13.35 137:17.91 138:-19.35 139:-20.94 140:14.93 141:0.62 142:-24.99 143:17.56 144:-22.18 145:16.35 146:-9.77 147:-10.84 148:9.9 149:-15.72 150:-13.01 151:-0.76 152:-25.74 153:13.81 154:-7.91 155:-7.63 156:15.85 157:-6.25 158:6.27 159:-12.18 160:-6.32 161:-14.54 162:-9.06 163:-25.24 164:-13.34 165:-14.6 166:12.38 167:6.66 168:0.88 169:16.11 170:-5.28 171:5.25 172:-24.66 173:-9.64 174:-26.07 175:-12.03 176:-22.82 177:-16.97 178:-4.37 179:22.16 180:7.34 181:-6.22 182:15.26 183:-5.09 184:2.16 185:-12.28 186:-7.42 187:-24.73 188:-15.46 189:-21.64 190:-13.15 191:-2.47 192:5.05 193:-10.09 194:-10.91 195:20.65 196:-5.56 197:3.3 198:-6.03 199:-3.35 200:-2.56 201:-2.43 202:0.82 203:-1.41 204:-3.82 205:7.04 206:-0.45 207:-5.44 
5.883306530840571e-08 0:17.69 1:8.9 2:3 3:-23.86 4:-16.77 5:-5.59 6:5.49 7:-4 8:-10.15 9:-16.93 10:-4.25 11:3.69 12:-4.73 13:21.6 14:9.18 15:-19.9 16:-8.7 17:-5.05 18:-14.76 19:-15.75 20:-16.82 21:8.77 22:12.87 23:-6.01 24:21.97 25:-18.52 26:20.13 27:-5.46 28:4.43 29:-10.07 30:1.85 31:-14.79 32:-14.51 33:-20.49 34:-3.27 35:-2.19 36:5.68 37:4.53 38:15.19 39:22.22 40:9.98 41:-13.83 42:-18.68 43:-7.03 44:-20.59 45:-21.32 46:-29.1 47:2.16 48:-20.14 49:-27 50:23.42 51:3.27 52:23.84 53:-37.04 54:19.79 55:4.02 56:-17.75 57:-2.61 58:-37.79 59:-19.5 60:19.37 61:-29.77 62:-11.47 63:2.44 64:11.01 65:19.26 66:-16.88 67:18.4 68:6.24 69:-11.1 70:6.52 71:-20.69 72:-20.6 73:13.14 74:-22.43 75:-11.62 76:-7.11 77:1.3 78:21.27 79:-29.24 80:16.04 81:6.59 82:-18.92 83:13.62 84:-4.84 85:-23.33 86:8.41 87:1.49 88:-4.53 89:-16.4 90:1.22 91:17.63 92:8.16 93:9.83 94:-10.46 95:-12.12 96:-7.94 97:7.46 98:-12.16 99:-1.21 100:-8.04 101:1.52 102:6.77 103:0.88 104:20.04 105:4.19 106:-10.25 107:-11.11 108:-3.35 109:-3.31 110:-15.89 111:-19.22 112:4.2 113:4.49 114:7.45 115:4.55 116:-14.63 117:19.61 118:-14.51 119:-18.84 120:-24.46 121:-6.98 122:11.47 123:-12.57 124:12.73 125:-7.86 126:7.59 127:9.66 128:-0.63 129:8.28 130:21.84 131:5.98 132:-11.89 133:-24.1 134:-15.73 135:5.16 136:-0.33 137:-0.14 138:-2.67 139:11.67 140:-5.6 141:6.65 142:-35.02 143:21.54 144:-28.19 145:7.53 146:-10.49 147:-14.46 148:-2.07 149:7.95 150:-8.03 151:-3.43 152:2.64 153:7.92 154:-17.27 155:-0.82 156:17.32 157:1.22 158:6.72 159:-7.93 160:0.68 161:-11.14 162:1.33 163:-12.37 164:-15.97 165:-9.17 166:0.24 167:7.27 168:12.41 169:17.11 170:2.3 171:2.1 172:-15.25 173:10.05 174:-4.48 175:-7.91 176:-12.27 177:-2.93 178:3.47 179:-1.98 180:7.17 181:3.47 182:16.74 183:0.12 184:-1.72 185:-8.04 186:19.02 187:5.68 188:-17.51 189:-15.99 190:11.55 191:3.69 192:-7.63 193:5.55 194:-2.68 195:24.21 196:-10.91 197:4.02 198:-16.16 199:-16.23 200:2.11 201:-30.46 202:-19.81 203:13.59 204:-19.94 205:3.82 206:9.58 207:4.29 
1.625068124511131e-08 0:19.54 1:-8.01 2:6.28 3:-8.37 4:-12.77 5:-13.85 6:-11.24 7:-10.86 8:-15.95 9:-15.16 10:-16.02 11:-11.29 12:-10.23 13:21.72 14:11.03 15:-19.86 16:-34.53 17:-16.47 18:-17.02 19:-11.68 20:1.15 21:-4.45 22:-9.42 23:-9.86 24:-12.77 25:-17.5 26:18.95 27:3.44 28:0.38 29:-13.96 30:-2.84 31:-13.15 32:-16.06 33:-12.46 34:-0.38 35:4.35 36:-2.59 37:-1.3 38:0.23 39:22.33 40:13.42 41:-2.46 42:-28.06 43:-30.89 44:-28.38 45:-9.12 46:7.32 47:-5.15 48:-10.04 49:1.7 50:1.25 51:-6.99 52:18.92 53:-16.11 54:9.21 55:-7.33 56:-15.7 57:-8.21 58:-21.31 59:1.14 60:-4.84 61:-4.65 62:5.47 63:-8.02 64:-1.46 65:18.17 66:-10.96 67:7.29 68:-3 69:-18.54 70:-13.79 71:-25.63 72:-5.6 73:-8.37 74:-4 75:0.19 76:-9.24 77:-1.96 78:18.51 79:-13.52 80:5.14 81:-7.93 82:-18.89 83:-8.92 84:-20.46 85:-1.1 86:-1.49 87:-4.72 88:1.52 89:-9.47 90:2.21 91:18.35 92:3.7 93:8.54 94:-5.33 95:-2.59 96:-9.57 97:-13.2 98:-8.36 99:-14.36 100:-14.5 101:-10.52 102:-2.83 103:-6.96 104:21.03 105:7.18 106:-14.36 107:-28.53 108:-13.6 109:-17.99 110:-17.29 111:0.05 112:0.77 113:-8.15 114:-12.68 115:-16.17 116:-16.91 117:17.82 118:-8.26 119:-4.51 120:-16.76 121:-15.01 122:-17.11 123:-13.18 124:-6.4 125:-11.86 126:-1.77 127:-2.62 128:-2.82 129:-8.93 130:21.14 131:9.09 132:-12.31 133:-35.41 134:-20.93 135:-13.92 136:-7.1 137:0.58 138:-10.24 139:-8.81 140:3.25 141:-6.78 142:-19.48 143:17.84 144:-13.28 145:1.82 146:-7.31 147:-23.01 148:-13.21 149:-11.18 150:-7.44 151:2.39 152:6.6 153:-0.25 154:-14.89 155:-5.72 156:19.15 157:0.94 158:1.47 159:-17.39 160:-21.99 161:-29.04 162:-26.29 163:-17.67 164:-8.89 165:1.09 166:5.26 167:1.68 168:-4.01 169:19.53 170:4.26 171:-8.77 172:-28.84 173:-17.65 174:-20.03 175:-31.2 176:-14.26 177:4.16 178:9.08 179:0.57 180:-1.9 181:-16.17 182:18.72 183:-3.91 184:-9.19 185:-20.97 186:-9.12 187:-19.31 188:-27.35 189:-12.01 190:5.99 191:13.45 192:4.41 193:-10.66 194:-12.94 195:23.17 196:6.14 197:-6.43 198:-29.86 199:-23 200:-15.38 201:-15.4 202:0.87 203:-3.74 204:-6.7 205:-2.38 206:-9.92 207:-12.1 
9.218088259377311e-08 0:18.49 1:-6.16 2:5.01 3:-16.46 4:-5.6 5:-14.75 6:3.72 7:-26.38 8:-2.08 9:2.13 10:6.62 11:2.62 12:-9.1 13:16.85 14:-1.41 15:2.15 16:-13.03 17:-27.94 18:-28 19:11.41 20:-13.43 21:-6.68 22:-10.62 23:3.44 24:2.68 25:-5.07 26:16.68 27:-3.32 28:1.45 29:-10.23 30:-34.66 31:-20.59 32:2.8 33:-16.89 34:-0.83 35:-7.56 36:4.58 37:-1.06 38:-10.04 39:18.34 40:-4.34 41:5.85 42:-14.27 43:-22.88 44:-26.97 45:11.82 46:-19.16 47:-9.64 48:-10.65 49:10.61 50:17.65 51:-4.18 52:20.23 53:-23.06 54:20.2 55:-23.46 56:3.52 57:-14.71 58:-6.95 59:-17 60:8.27 61:-1.12 62:7.08 63:-2.94 64:-0.8 65:17.58 66:-13.07 67:3.19 68:1.72 69:0.76 70:-32.33 71:-9.93 72:-13.13 73:-2.91 74:-8.1 75:1.54 76:12.31 77:-13.98 78:19.2 79:-23.66 80:14.8 81:-18.9 82:-3.04 83:-22.16 84:1.32 85:-7.31 86:1.24 87:5 88:5.09 89:-3.13 90:-4.21 91:16.16 92:-7.38 93:-3.22 94:-5.7 95:-7.7 96:-13.88 97:-7.53 98:-11.26 99:10.35 100:-1.7 101:15.7 102:-9.33 103:-3.8 104:17.05 105:-2.57 106:-10.81 107:-21.58 108:2.04 109:-13.72 110:-4.77 111:-14.22 112:2.25 113:2.92 114:2.69 115:-12.33 116:-25.91 117:14.39 118:-0.87 119:-2.98 120:-16.66 121:-5.79 122:-13.26 123:-2.82 124:-6.52 125:3.46 126:2.66 127:4.77 128:9.1 129:3.3 130:18.15 131:-4.04 132:-9.18 133:-24.05 134:4.71 135:6.97 136:-7.4 137:-0.93 138:-15.26 139:-6.64 140:2.22 141:9.35 142:-20.47 143:18.66 144:-24.83 145:19.44 146:-19.57 147:-2.34 148:2.8 149:-12.71 150:-8.79 151:10.22 152:-13.2 153:7.69 154:-1.77 155:-5.87 156:15.53 157:-3.47 158:6.99 159:-12.27 160:-1.83 161:-15.4 162:-2.34 163:-24.49 164:-12.6 165:-9.22 166:15.97 167:8.75 168:-1.05 169:16.59 170:-0.09 171:5.02 172:-14.81 173:-0.43 174:-25.44 176:-27.79 177:-12.65 178:8.63 179:32.03 180:13.43 181:-18.44 182:15.6 183:-8.36 184:-4.39 185:-15.54 186:-6.65 187:-18.54 188:-13.01 189:-10.01 190:8.64 191:12.34 192:11.22 193:-1.53 194:-14.72 195:21.32 196:-7.37 197:4.78 198:-9.14 199:3.97 200:-8.4 201:5.54 202:-9.13 203:2.93 204:-2.84 205:4.99 206:-0.76 207:-3.29 
3.607171783492902e-08 0:14.12 1:11.15 2:3.55 3:-21.54 4:5.83 5:-3.85 6:8.16 7:-13.43 8:-17.59 9:-8.28 10:4.45 11:3.18 12:-9.1 13:17.35 14:11.54 15:-6.84 16:-36.13 17:13.64 18:-7.65 19:5.58 20:-17.04 21:-11.49 22:2.3 23:2.95 24:-5.91 25:-10.21 26:17.59 27:2.7 28:17.82 29:-32.96 30:12.18 31:-20.63 32:21.12 33:-27.08 34:-13.48 35:-12.19 36:13.84 37:8.44 38:-0.76 39:18.82 40:12.65 41:8.55 42:-45.39 43:-21.02 44:-19.43 45:10.34 46:-4.76 47:-25.15 48:-8.59 49:2.34 50:13.04 51:-12.07 52:18.68 53:-23.22 54:16.52 55:-15.21 56:7.84 57:-21.11 58:-5.26 59:-21.24 60:-5.81 61:-10.56 62:-4.76 63:9.62 64:-0.35 65:16.12 66:-12.43 67:16.13 68:6.52 69:15.04 70:-20.98 71:-3.22 72:-19.14 73:-25.44 74:-12.07 75:-9.81 76:16.64 77:1.2 78:18.17 79:-29.79 80:14.93 81:-21.28 82:17.71 83:-15.99 84:4.25 85:-4.23 86:-6.65 87:-2.26 88:-7.42 89:6.98 90:-2.32 91:14.44 92:2.71 93:3.17 94:-18.81 95:2.16 96:-14.05 97:8.23 98:-22.58 99:-12.93 100:-4.38 101:3.5 102:5.22 103:-11.27 104:16.36 105:-1.61 106:-0.93 107:-24.86 108:9.8 109:-15.56 110:3.14 111:-17.11 112:-6.04 113:5.32 114:-7.38 115:-5.77 116:-6.05 117:14 118:-4.96 119:-14.06 120:-32.93 121:3.06 122:-6.84 123:11.95 124:-1.11 125:-4.19 126:-8.26 127:9.8 128:15.58 129:-1.24 130:17.16 131:6.03 132:-0.14 133:-40.3 134:8.78 135:19.57 136:5.23 137:-0.91 138:-14.33 139:-8.62 140:3.46 141:4.55 142:-18.54 143:17.53 144:-30.24 145:18.47 146:-16.49 147:-1 148:11.01 149:4.62 150:-15.24 151:12.72 152:-9.59 153:4.14 154:3.86 155:-20.14 156:14.68 157:3.94 158:14.68 159:-29.74 160:-5.99 161:-8.4 162:5.65 163:-18.55 164:-24.45 165:-11.33 166:20.87 167:6.63 168:-5.26 169:15.91 170:3.69 171:8.51 172:-32.95 173:-1.33 174:-7.82 175:-4.74 176:-14.5 177:-19.59 178:-0.97 179:28.19 180:-8.17 181:-8.67 182:13.58 183:-3.42 184:4.49 185:-12.41 186:6.74 187:-15.2 188:-12.54 189:1.09 190:6.94 191:18.83 192:8.43 193:-4.33 194:-0.65 195:20.64 196:-6.18 197:-1.12 198:-15.69 199:-6.12 200:-8.95 201:2.58 202:-7.44 203:-3.16 204:-4.73 205:2.39 206:1.42 207:-0.01 
4.030057165760326e-08 0:15.97 1:3.16 2:16.34 3:-7.58 4:-11.71 5:2.56 6:-2.11 7:2.41 8:-10.06 9:-1.2 10:-8.2 11:0.92 12:-21.85 13:17.32 14:-3.24 15:12.74 16:-6.6 17:-6.94 18:-3.4 19:-22.22 20:11.93 21:-8.18 22:27.02 23:-22.24 24:-14.77 25:-19.36 26:16.03 27:3.4 28:6.86 29:-20.11 30:-31.81 31:-20.93 32:-15.64 33:0.67 34:-23.52 35:-8.38 36:-12.6 37:-2.18 38:-25.71 39:18.25 40:6.42 41:7.67 42:-6.98 43:-18.59 44:-5.26 45:-24.76 46:21.45 47:-7.13 48:11.66 49:5.23 50:17.16 51:-17.29 52:21.18 53:-32.8 54:33.44 55:-3.4 56:-8.53 57:3.8 58:-31.72 59:23.43 60:-17.04 61:3.7 62:18.59 63:2.68 64:7.51 65:15.46 66:-11.63 67:18.72 68:8.52 69:-14.78 70:-7.15 71:-34.85 72:2.06 73:-27.33 74:-21.21 75:1.14 76:-11.96 77:-6.44 78:21.43 79:-35.59 80:34.99 81:-5.9 82:0.23 83:8.84 84:-27.5 85:22.32 86:-21.77 87:0.11 88:5.57 89:3.42 90:8.86 91:14.8 92:-0.01 93:9.89 94:-9.57 95:-8 96:-0.33 97:-7.36 98:-5.84 99:-20.26 100:-5.38 101:-9.88 102:-7.8 103:-25.34 104:18.14 105:-11.39 106:20.68 107:-3.5 108:5.44 109:0.07 110:-12.51 111:19.61 112:-5.31 113:9.5 114:-4.11 115:-5.06 116:-17.98 117:13.67 118:-9.72 119:1.22 120:-2.53 121:3.43 122:21.51 123:5.1 124:8.35 125:-19.98 126:-8.02 127:-3.59 128:-19.53 129:-6.38 130:16.39 131:4.72 132:8.59 133:-8.28 134:-9.66 135:19.53 136:-8.68 137:13.01 138:-13.38 139:17.86 140:8.63 141:-13.96 142:-13.79 143:19.36 144:-35.41 145:17.47 146:6.98 147:-18.86 148:28.29 149:0.87 150:10.92 151:8.25 152:-7.48 153:7.29 154:-3.37 155:-4.21 156:13.68 157:-2.77 158:14.78 159:6.08 160:-7.96 161:7.96 162:-13.28 163:-3.01 164:-2.31 165:-4.43 166:-9 167:4.55 168:1.7 169:13.65 170:1.95 171:8.9 172:0.81 173:-7.78 174:3.28 175:-8.81 176:1.47 177:-5.46 178:-0.7 179:3.7 180:14.6 181:1.11 182:13.65 183:-2.57 184:7.68 185:-0.54 186:-4.7 187:8.16 188:-3.34 189:6.17 190:-0.49 191:-4.68 192:7.29 193:2.63 194:2.67 195:22.19 196:-11.93 197:16.52 198:-10.66 199:-1.43 200:5.64 201:-19.3 202:20.8 203:-10.1 204:12.77 205:2.51 206:-3.18 207:-0.83 
7.409785796053114e-08 0:15.75 1:9.62 2:10.7 3:-2.38 4:-14.5 5:3.32 6:12.8 7:7.34 8:-17.43 9:2.51 10:-1.86 11:7.29 12:-20.29 13:16.69 14:8.85 15:-0.68 16:-0.9 17:-2.63 18:-0.42 19:-7.71 20:3.27 21:-16.33 22:17.75 23:-2.05 24:-8.29 25:-23.64 26:15.31 27:7.03 28:7.93 29:-11.49 30:-21.13 31:-16.14 32:-1.52 33:-0.37 34:-6.88 35:-7.41 36:-8.45 37:-8.45 38:-17.36 39:17.16 40:9.95 41:5.27 42:4.92 43:-21.69 44:-23.46 45:-2.8 46:24.74 47:-19.88 48:-4.98 49:-0.79 50:2.55 51:-4.84 52:20.53 53:-39.39 54:30.62 55:1.6 56:-2.79 57:1.68 58:-18.2 59:21.25 60:-30.47 61:7.47 62:5.67 63:-6.03 64:13.98 65:15.23 66:-6.05 67:14.14 68:16.28 69:6.36 70:-10.24 71:-9.74 72:6.75 73:-31.65 74:-3.52 75:-7.32 76:-2.6 77:7.09 78:20.03 79:-32.99 80:24.74 81:-0.04 82:0.59 83:6.97 84:-12.47 85:20.12 86:-25.12 87:8.06 88:-2.48 89:-7.12 90:10.82 91:14.9 92:3.84 93:9.53 94:-2.32 95:-1.74 96:5.31 97:4.27 98:-0.23 99:-14.73 100:-3.92 101:-6.12 102:-5.54 103:-11.85 104:15.65 105:3.48 106:4.43 107:2.41 108:6.12 109:-1.83 110:-8.12 111:23.01 112:-24.42 113:27.34 114:-11.83 115:-15.17 116:-19.05 117:12.13 118:-8.96 119:4.58 120:4.96 121:2.88 122:9.1 123:6.46 124:0.26 125:-4.8 126:2.56 127:1.1 128:-2.04 129:-7.21 130:15.34 131:-12.69 132:-9.03 133:2.89 134:-9.15 135:-19.27 136:7.17 137:29.66 138:-19.03 139:7.45 140:22.49 141:-7.91 142:9.09 143:14.22 144:-11.63 145:-14.69 146:-2.99 147:-3.3 148:6.34 149:6.17 150:14.79 151:-33.3 152:9.99 153:11.53 154:-7.91 155:2.46 156:14.88 157:5.45 158:3.31 159:-5.29 160:-10.89 161:9.46 162:13.4 163:16.03 164:-35.65 165:18.95 166:-4.2 167:-12.64 168:-17.49 169:15.31 170:4.53 171:8.55 172:-2.62 173:-9.46 174:0.84 175:4.8 176:19.19 177:-22.7 178:16.58 179:-3.17 180:-13.83 181:-19.77 182:17.65 183:-34.92 184:9.28 185:23.02 186:-22.19 187:3.04 188:9.42 189:0.94 190:-4.25 191:14.42 192:-10.44 193:-5.79 194:-6.96 195:21.23 196:-10.01 197:13.49 198:-4.83 199:0.12 200:4.74 201:-11.66 202:18.9 203:-13.22 204:13.57 205:-0.1 206:-2.6 207:3.84 
1.067417819688998e-07 0:15.51 1:9.43 2:4.11 3:-6.69 4:-12.91 5:16.45 6:17.49 7:-2 8:-6.92 9:-9.99 10:-5.02 11:2.35 12:-14.95 13:17.55 14:2.61 15:-7.76 16:-10.03 17:-3.72 18:7.65 19:5.44 20:-2.66 21:-3.1 22:3.57 23:-9.38 24:-14.07 25:-21.07 26:15.6 27:11.15 28:-0.05 29:-10.09 30:-22.82 31:7.18 32:7.03 33:-10.97 34:-30.75 35:-2.38 36:19.65 37:0.91 38:-32.78 39:16.68 40:11.16 41:0.45 42:-9.28 43:-11.06 44:2.75 45:3.81 46:0.96 47:-6 48:0.93 49:9.15 50:-0.43 51:-17.97 52:17.18 53:-12.41 54:26.61 55:17.35 56:7.76 57:-13.18 58:-12.99 59:3.41 60:-21.78 61:-7.15 62:6.41 63:7.41 64:-1.91 65:19.62 66:-38.23 67:28.36 68:-23.5 69:7.06 70:-1.95 71:-6.82 72:16.98 73:-12.72 74:-8.33 75:-0.47 76:-0.22 77:7.92 78:14.66 79:4.57 80:8.33 81:-6.19 82:3.81 83:10.65 84:10.2 85:-4.02 86:-10.07 87:-3.75 88:-0.52 89:-4.54 90:-15.65 91:15.25 92:7.64 93:-3.61 94:-9.5 95:3.97 96:20 97:4.58 98:-0.4 99:3.38 100:10.95 101:-2.61 102:-18.32 103:-22.75 104:13.3 105:-10.82 106:-18.77 107:-13.53 108:-3.13 109:15.79 110:2.69 111:8.43 112:-14.81 113:-2.31 114:10.05 115:-12.06 116:-16.68 117:16.37 118:8.88 119:-3.39 120:-14.39 121:-15.81 122:25.8 123:6.43 124:13.06 125:-6.89 126:-3.72 127:14.92 128:-4.3 129:-23.34 130:18.89 131:-36.73 132:18.72 133:-5.49 134:-27.51 135:21.93 136:-15.61 137:5.13 138:2.02 139:0.43 140:12.78 141:-2.22 142:2.73 143:12.49 144:-0.17 145:5.56 146:3.66 147:-5.65 148:5.2 149:-11.36 150:-4.97 151:-25.75 152:-3.68 153:7.71 154:12.76 155:0.56 156:13 157:-0.17 158:7.11 159:-0.32 160:-5.67 161:-2.81 162:-5.62 163:-9.14 164:-15.19 165:1.12 166:9.42 167:10.61 168:1.01 169:12.5 170:0.86 171:4.2 172:-6.49 173:-7.09 174:3.39 175:-4.06 176:-8.75 177:-16.19 178:8.24 179:12.06 180:6.4 181:3.34 182:20.37 183:-7.21 184:8.19 185:-8.9 186:7.35 187:0.8 188:5.06 189:4.05 190:-1.3 191:6.52 192:1.27 193:0.45 194:-3.02 
-2.410061628044247e-08 0:19.15 1:6.46 2:-13.21 3:-9 4:0.24 5:7.99 6:9.4 7:-16.99 8:-11.4 9:4.4 10:3.57 11:-8.16 12:-7.98 13:21.55 14:1.33 15:-27.25 16:-10.09 17:3.39 18:-4.15 19:-4.05 20:-8.15 21:10.24 22:9.99 23:-6.4 24:-19.39 25:-1.5 26:17.87 27:5.87 28:3.9 29:-9.33 30:12.41 31:11.98 32:-8.62 33:-15.12 34:-7.8 35:-4.94 36:0.77 37:-0.63 38:1.66 39:22.84 40:-0.54 41:-17.82 42:-15.99 43:-14.34 44:-11.07 45:8.95 46:-34.89 47:4.61 48:-15.47 49:18.06 50:-12.68 51:2.63 52:22.83 53:-30.06 54:23.34 55:-12.29 56:4.4 57:-7.54 58:-18.83 59:-16.01 60:4.08 61:-13.58 62:10.22 63:-7.25 64:7.3 65:19.39 66:-18.5 67:20.92 68:13.84 69:10.13 70:-14.84 71:-12.84 72:-20.16 73:-11.24 74:-21.89 75:-7.89 76:-7.69 77:3.75 78:22.72 79:-39.74 80:23.45 81:-11.1 82:15.12 83:-2.86 84:3.19 85:-18.01 86:-2.63 87:-7.46 88:-2.7 89:-2.03 90:1.75 91:19.74 92:7.28 93:-6.34 94:-16.65 95:4.99 96:-2.62 97:17.8 98:-17.56 99:-19.32 100:-0.65 101:1.4 102:-10.67 103:-17.14 104:22.16 105:3.19 106:-30.81 107:-11.93 108:5.16 109:-8.22 110:0.08 111:-12.84 112:9.12 113:11.24 114:-7.26 115:-11.35 116:-7.89 117:19.49 118:-10.36 119:-23.04 120:-13.24 121:8.4 122:4.38 123:19.47 124:-17.45 125:-7.84 126:5.36 127:0.75 128:-17.45 129:-9.79 130:22.03 131:-0.72 132:-24.69 133:-25.48 134:-2.45 135:-4.27 136:14.06 137:-19.33 138:-1.19 139:4.62 140:5.07 141:-19.38 142:-19.82 143:22.42 144:-27.02 145:19.14 146:-21.4 147:-3.64 148:10.25 149:1.3 150:-22.85 151:6.9 152:-3.19 153:9.67 154:-14.93 155:-1.94 156:19.35 157:4.98 158:17.13 159:-12.99 160:-27.85 161:-19.82 162:23.3 163:-31.64 164:-16.92 165:-20.1 166:12.27 167:0.78 168:6.57 169:20.73 170:5.77 171:-4.72 172:-18.33 173:-27.55 174:-8.46 175:22.67 176:-24.74 177:-12.16 178:-11.05 179:20.81 180:-4.68 181:4.49 182:16.46 183:-12.47 184:0.27 185:-14.84 186:0.02 187:4.84 188:-5.26 189:-16.2 190:5.33 191:11.11 192:18.51 193:-2.77 194:3.37 195:23.13 196:-1.06 197:-16.52 198:-15.26 199:-7.47 200:-6.31 201:3.51 202:-24.93 203:5.08 204:-6.25 205:10.89 206:-10.68 207:4.67 
-7.826514547559782e-09 0:15.88 1:-14.71 2:2.92 3:-8.5 4:18.2 5:-7.97 6:-5.42 7:-3.05 8:-12.61 9:-12.63 10:1.99 11:8.81 12:-5.54 13:21.19 14:0.1 15:-20.67 16:-17.39 17:4.24 18:-40.94 19:-1.99 20:-8.97 21:7.97 22:9.56 23:-6.8 24:8.33 25:-20.46 26:22.8 27:-20 28:18.21 29:-17.49 30:14.9 31:-44.88 32:3.26 33:-7.51 34:-8.29 35:-6.59 36:-0.9 37:-6.58 38:-1.63 39:22.19 40:4.12 41:-3.48 42:-16.33 43:10.9 44:-48.63 45:-14.34 46:-12.28 47:-9.96 48:-9.57 49:-13.54 50:24.45 51:-1.47 52:24.03 53:-36.67 54:18.52 55:-6.39 56:4.85 57:-31.96 58:-5.08 59:-11.03 60:7.85 61:-9.62 62:0.31 63:10.65 64:8.19 65:21.42 66:-14.24 67:16.65 68:-5.36 69:15.72 70:-36.75 71:-10.35 72:-36.1 73:-1.32 74:-3.27 75:4.58 76:-1.6 77:-12.18 78:23.35 79:-35.58 80:16.94 81:-5.78 82:2.66 83:-35.82 84:31.26 85:-8.37 86:-8.73 87:6.23 88:-10.7 89:-10.76 90:-0.32 91:18.47 92:5.14 93:11.33 94:-15.49 95:-4.21 96:-29.23 97:-6.96 98:-19.81 99:-7.55 100:-4.01 101:6.54 102:4.93 103:-2.67 104:21.16 105:5.36 106:-12.38 107:-21.24 108:9.74 109:-41.11 110:-16.34 111:-11.24 112:-1.81 113:22.32 114:-3.6 115:8.76 116:-27.35 117:20.26 118:-12.74 119:-4.31 120:-15.74 121:21.53 122:-33.53 123:1.14 124:-4.74 125:-0.78 126:-1.16 127:1.76 128:-1.55 129:-2.96 130:22.81 131:0.27 132:-11.12 133:-38.16 134:8.27 135:-30.21 136:0.5 137:16.5 138:-8.34 139:3.35 140:-11.92 141:9.58 142:-38.8 143:23.12 144:-35.56 145:10.93 146:-12.2 147:1.17 148:-31.47 149:17.87 150:-4.8 151:-14.79 152:3.04 153:4.04 154:-14.87 155:-17.41 156:19.96 157:-4.17 158:18.71 159:-19.16 160:14.86 161:-40.09 162:8.16 163:-22.05 164:-9.49 165:-7.49 166:8.62 167:10.26 168:1.75 169:18.67 170:1.54 171:8.61 172:-13.57 173:1.67 174:-19.37 175:-19.85 176:-32.13 177:-16.68 178:3.59 179:0.15 180:19.45 181:-1.58 182:18.81 183:-5.71 184:0.42 185:-1.14 186:12.01 187:-31.15 188:-9.54 189:-14.12 190:-5.75 191:9.67 192:-3.05 193:8.37 194:0.99 195:25.09 196:-9.13 197:1.94 198:-28.83 199:4.35 200:-37.95 201:-4.23 202:-11.09 203:0.75 204:-3.76 205:0.45 206:1.53 207:-11.95 
