svm_type epsilon_svr
kernel_type polynomial
degree 3
gamma 0.0833333
coef0 0
nr_class 2
total_sv 2038
rho -0.373914
probA 0.646172
SV
-0.002653619032838526 0:25.75 1:-17.53 2:13.14 3:-1.32 4:-14.62 5:-11.41 6:-31.46 7:-17.99 8:2.73 9:4.7 10:8.66 11:-7.67 12:-8.25 
1.267882451020202e-07 0:25.92 1:-19.46 2:7.56 3:-6.03 4:-12.7 5:1.22 6:-19.13 7:-19.88 8:-18.73 9:10.39 10:4.94 11:-1.15 12:-18.08 
-3.426611278193744e-05 0:25.5 1:-15.18 2:9.89 3:-6.35 4:-7.21 5:-32.61 6:-21.88 7:-8.12 8:-20.09 9:3.15 10:3.39 11:-12.53 12:-10.51 
-3.157803980819526e-06 0:24.22 1:-5.97 2:6.64 3:-4.8 4:-2.47 5:-30.13 6:0.15 7:-21.84 8:4.19 9:-13.28 10:1.85 11:-0.46 12:4.46 
0.0004237255490008616 0:23 1:-3.3 2:17.18 3:-9.35 4:-27.28 5:-18.54 6:-8.75 7:-4.15 8:-3.12 9:-4.19 10:-4.36 11:4.99 12:5.79 
0.0003648595899394249 0:24.2 1:-9.5 2:15.7 3:-19.86 4:-29.08 5:-6.56 6:-16.53 7:-1.92 8:8.94 9:-18.1 10:6.85 11:-6.08 12:1.92 
1.18378557172435e-05 0:23.76 1:-8.73 2:8.97 3:-23.87 4:-23.22 5:-4.45 6:-24.62 7:-1.81 8:-10.8 9:12.25 10:-0.03 11:-7.15 12:4.2 
6.337603338473021e-05 0:24.78 1:-10.01 2:10.91 3:-22.04 4:-5.88 5:-20.88 6:-18.76 7:-3.37 8:-19.09 9:0.29 10:-5.6 11:5.89 12:-14.34 
-1.572180308764728e-05 0:26.1 1:-23.49 2:17.79 3:1.01 4:10.48 5:-29.27 6:-22.15 7:-29.21 8:0.9 9:-6.17 10:-2.14 11:-0.94 12:-3.57 
-3.346623005876969e-06 0:22.9 1:-11.69 2:13.07 3:-12.38 4:8.55 5:-21.16 6:-2.85 7:-0.51 8:-9.68 9:10.24 10:-1.05 11:-8.08 12:9.43 
5.181101623136759e-07 0:24.36 1:-16.98 2:-25.04 3:-22.74 4:-22.38 5:-35.1 6:3.18 7:-15.19 8:-13.94 9:-4.01 10:-4.48 11:-2.54 12:-18.62 
-6.277108469456733e-07 0:23.96 1:-4.43 2:4.12 3:-17.62 4:-4.9 5:-13.68 6:-27.14 7:9.53 8:-13.77 9:-2.56 10:15.67 11:-5.77 12:-7.61 
1.563876229175482e-05 0:25.82 1:-11.82 2:-6.79 3:-24.53 4:-23 5:-12.82 6:-36.43 7:-8.63 8:-9.3 9:-3.51 10:-11.19 11:-2.98 12:-20.52 
-1.68790027975639e-05 0:23.98 1:-12.66 2:-25.98 3:-36.75 4:-16.82 5:-30.94 6:0.06 7:-2.72 8:-12.78 9:-0.61 10:-3.5 11:-2.57 12:-17.6 
-9.324217731066196e-05 0:22.92 1:-16.66 2:6.95 3:5.02 4:-20.03 5:-8.31 6:5.06 7:0.33 8:-7.85 9:20.27 10:-5.47 11:-2.72 12:-4.17 
7.695871531431101e-07 0:26.78 1:-20.4 2:15.31 3:-1.21 4:13.17 5:-36.4 6:-15.68 7:-18.18 8:-10.11 9:3.45 10:-7.11 11:1.27 12:-17.25 
-3.954927371929937e-05 0:24.64 1:-7.61 2:2.38 3:-15.24 4:-5.48 5:-41.85 6:18.32 7:-11.89 8:-1.78 9:-9.42 10:4.57 11:4.25 12:0.31 
0.01264458132394391 0:26.1 1:-17.66 2:10.66 3:-0.52 4:-14.22 5:-13.52 6:-33.81 7:-10.35 8:-18.16 9:18.91 10:3.4 11:0.59 12:-6.21 
-0.0002095495779094998 0:24.69 1:-13.56 2:-0.55 3:-4.68 4:-18.99 5:-24.6 6:-6.92 7:-7.76 8:7.94 9:-6.39 10:-0.18 11:-4.68 12:2.81 
-4.876793746503441e-07 0:25.39 1:-11.93 2:11.49 3:-34.77 4:-1.74 5:-7.03 6:-11.35 7:-7.56 8:-4.67 9:11.71 10:-12.98 11:-4.14 12:-8.28 
-9.57438289918839e-08 0:25.5 1:-12.69 2:17.67 3:-32.22 4:-13.56 5:-20.36 6:-4.41 7:-11.06 8:-7.78 9:11.48 10:-15.8 11:6.37 12:-0.39 
-3.66936541497067e-07 0:23.77 1:-3.68 2:2.88 3:-6.78 4:-9.04 5:-23.4 6:-17.49 7:-3.32 8:-7.25 9:-6.15 10:-7.02 11:-6.29 12:-5.4 
2.256443803226988e-06 0:25.02 1:-13.7 2:7.49 3:-3.7 4:-25.46 5:-12.2 6:-18.38 7:-16.35 8:-1.09 9:8.25 10:-3.35 11:-7.14 12:11.21 
-1.120660752220626e-06 0:21.68 1:-12.99 2:18.18 3:-10.71 4:-1.14 5:2.4 6:-11.01 7:18.43 8:-0.65 9:13.25 10:2.49 11:-7.55 12:9.9 
5.154018514047323e-07 0:24.55 1:-7.61 2:9.05 3:-3.12 4:-2.6 5:-16.8 6:-22.07 7:-22.48 8:-10.78 9:-16.1 10:-2.85 11:5.12 12:2.13 
-4.9810315123128e-07 0:22.47 1:7.92 2:-5.86 3:-1.49 4:-26.58 5:-21.35 6:-5.47 7:3.26 8:-2.9 9:-27.97 10:-5.85 11:3.04 12:11.47 
0.01006167286886717 0:24.45 1:-4.66 2:6.76 3:-14.02 4:-29.38 5:0.05 6:-11.5 7:-23.42 8:-11.7 9:24.42 10:-0.54 11:4.8 12:-6.63 
-0.0005594898506584988 0:24.74 1:-19.74 2:-29.54 3:-15.59 4:-19.67 5:-39.7 6:-13.93 7:-7.43 8:-1.63 9:-3.19 10:-4.92 11:-8.63 12:-13.59 
0.005599559169334234 0:24.8 1:-13.72 2:9.03 3:-14.57 4:-41.25 5:-6.7 6:3.6 7:-21.57 8:-11.32 9:-2.27 10:-6.95 11:11.59 12:-2.49 
0.005382827846599192 0:24.39 1:-10.49 2:9.7 3:-29.36 4:-37.52 5:-3.45 6:-1.62 7:-6.97 8:-21.39 9:11.83 10:-6.52 11:10.27 12:-0.45 
0.0002655350096595205 0:24.02 1:-10.06 2:4.28 3:-9.67 4:-22.63 5:-11.04 6:-17.27 7:-15.13 8:-11.12 9:7.32 10:-4.55 11:5.98 12:-4.07 
-0.0001612846231317958 0:24.54 1:-5.24 2:8.04 3:-3.52 4:-21.38 5:-9.72 6:-12.78 7:-22.26 8:11.71 9:-9.7 10:11.16 11:13.23 12:-6.39 
-0.0005926615909654487 0:25.94 1:-18.64 2:7.37 3:-0.01 4:-6.26 5:-31.98 6:-19.04 7:5.21 8:-20.89 9:7.14 10:7.27 11:-12.92 12:-15.88 
-0.0002052497282057325 0:22.99 1:-12.4 2:11.43 3:-1.47 4:10.44 5:-25.92 6:7.06 7:-16.32 8:4.21 9:-0.18 10:6.79 11:-3.1 12:8.84 
-1.167840939762664e-06 0:22.84 1:0.35 2:-4.32 3:-1.49 4:-12.55 5:-19.18 6:-7.87 7:-14.99 8:3.64 9:-6.83 10:-11.44 11:19.11 12:-4.8 
5.621890776914838e-06 0:23.8 1:-8.04 2:13.38 3:-20.95 4:-28.52 5:5.79 6:-18.02 7:-1.77 8:-9.16 9:1.27 10:3.63 11:7.72 12:-1.7 
-2.2244087112296e-05 0:24.34 1:-10.51 2:0.12 3:-10.48 4:5.28 5:-32.57 6:-23.01 7:4.38 8:-7.71 9:7.08 10:-10.75 11:-16.42 12:-3.6 
-3.060463755417323e-06 0:20.26 1:-5.37 2:2.6 3:9.77 4:-5.46 5:-0.19 6:-9.71 7:11.28 8:-11.33 9:9.52 10:1.13 11:7.07 12:-0.75 
0.0005227787619834689 0:24.54 1:-18.71 2:-20.66 3:-12.72 4:-10.63 5:-26.35 6:-13.98 7:-14.99 8:-17.64 9:-6.88 10:-5.5 11:-5.37 12:-10.38 
-5.504854518477454e-08 0:23.43 1:-15.19 2:17.92 3:-5.83 4:-1.92 5:9.11 6:-19.87 7:23.76 8:-25.26 9:16.3 10:-3.96 11:-2.26 12:17.68 
-5.890119985456156e-06 0:25.84 1:-23.44 2:3.27 3:-21.33 4:-2.34 5:-12.47 6:-15.66 7:-25.73 8:10.7 9:-10.81 10:-1.11 11:3.25 12:-19.52 
0.004203186192160621 0:24.84 1:-13 2:1.92 3:-6.95 4:-22.32 5:8.65 6:-25.11 7:-7.64 8:-8.69 9:15.28 10:3.92 11:-1.88 12:-8.19 
-4.459579866014339e-06 0:24.79 1:-6.88 2:6.3 3:-12.63 4:1.7 5:-10.99 6:-0.78 7:-16.58 8:-5.22 9:-6.28 10:-3.42 11:-14.77 12:2.19 
5.294540795696553e-07 0:21.89 1:-15.72 2:12.88 3:-1.84 4:3.29 5:6.12 6:-4.09 7:17.8 8:-15.59 9:24.98 10:-7.93 11:-1.74 12:14.92 
-0.0005128698207330247 0:25.12 1:-13.89 2:7.58 3:-2.35 4:-23.75 5:-6.13 6:-18.82 7:-21.96 8:-10.75 9:-4.27 10:10.04 11:9.09 12:-23.84 
0.000800079252220081 0:25.22 1:-15.86 2:-8.96 3:-10.18 4:-20.5 5:3.43 6:-20.16 7:-2.51 8:-9.01 9:10.54 10:-4.69 11:-1.85 12:-0.41 
-5.931940568296623e-09 0:22.49 1:1.77 2:8.98 3:3.08 4:-9.81 5:-38.56 6:-2.15 7:5.65 8:-8.77 9:-19.24 10:-10.37 11:-4.45 12:10.79 
0.005615632396764257 0:24.03 1:-12.63 2:-5.6 3:-14.29 4:-14.26 5:-25.13 6:-17.03 7:2.85 8:-27.48 9:16.38 10:-6.34 11:-7.1 12:-8.54 
-4.353964900995818e-08 0:25.1 1:-14.38 2:-7.46 3:-18.81 4:12.53 5:-17.96 6:-5.5 7:-21.62 8:21.21 9:9.27 10:-14.48 11:6.23 12:-17.14 
0.0008366178875863616 0:24.09 1:-4.71 2:-11.72 3:-11.18 4:-0.88 5:-10.02 6:-3.23 7:-24.95 8:7.29 9:4.99 10:8.45 11:-15.05 12:-7.13 
-7.253214890966532e-05 0:23.19 1:1.75 2:-8.44 3:-2.07 4:-24.08 5:-21.83 6:-13.05 7:-9.73 8:9.57 9:-20.16 10:9.92 11:7.95 12:0.02 
0.001628208564124254 0:24.68 1:-9.89 2:3.96 3:-16.27 4:-6.93 5:-14.98 6:-35.1 7:-16.25 8:-9.84 9:26.1 10:3.19 11:-10.52 12:2.35 
9.159488005106687e-06 0:24.71 1:-10.69 2:6.28 3:-15.28 4:3.59 5:-28.81 6:-17.85 7:-15.47 8:-20.04 9:12.88 10:-1.1 11:-0.94 12:-4.63 
5.406943025625262e-08 0:22.17 1:4.08 2:-5.99 3:2.15 4:-15.7 5:-23.27 6:-18.85 7:-21.82 8:10.59 9:-20.63 10:9.66 11:-2.4 12:2.4 
0.001961966487010977 0:24.65 1:-5.91 2:-4.54 3:-17.26 4:-19.44 5:1.53 6:-15.12 7:-24.28 8:2.66 9:-7.96 10:3.18 11:4.05 12:2.65 
8.212885722027339e-07 0:24.38 1:-12.59 2:3.1 3:-3.77 4:-25.12 5:-12.82 6:-19.17 7:-16.67 8:1.97 9:9.05 10:6.56 11:-8.16 12:1.38 
9.078107802271933e-07 0:24.22 1:-8.36 2:-0.68 3:-0.4 4:-18.82 5:-3.89 6:-30.9 7:-11.67 8:-14.12 9:7.17 10:6.51 11:9.91 12:-11.79 
1.310538285023424e-07 0:24.58 1:-10.85 2:11.28 3:-18.79 4:-12.56 5:-9.8 6:-15.43 7:-21.8 8:20.09 9:-8.51 10:1.13 11:3.59 12:-2.23 
0.00117648254797113 0:23.53 1:-8.02 2:2.59 3:-1.35 4:-15.06 5:-31.09 6:0.48 7:-14.9 8:-11.16 9:-25.91 10:-0.78 11:24.7 12:-3.44 
-0.0009587143993442097 0:22.34 1:-0.31 2:-9.04 3:6.6 4:1.65 5:-12.53 6:-13.53 7:-25.78 8:-4.15 9:-18.58 10:4.4 11:2.08 12:9.15 
-1.138363742115619e-06 0:24.39 1:-7.52 2:-3.8 3:-1.99 4:6.06 5:-38.92 6:-18.98 7:-2.21 8:-4.18 9:-8.09 10:26.15 11:-4.04 12:-15.11 
0.0008287894090719878 0:24.9 1:-10.97 2:6.12 3:-22.72 4:-10.77 5:-12.91 6:-29.68 7:-8.91 8:-21.57 9:28.92 10:4.57 11:-16.53 12:3.33 
-0.001285745640210406 0:24.66 1:-8.41 2:4.22 3:3.61 4:-0.57 5:-32.36 6:-10.21 7:1.67 8:-15.41 9:0.81 10:-6.64 11:-7.2 12:3.7 
-0.001868739598275593 0:20.52 1:-5.02 2:1.11 3:3.69 4:-0.6 5:-6.79 6:-10.54 7:6.49 8:-8.21 9:-5.08 10:-0.35 11:6.09 12:-3.48 
0.002129356158353678 0:23.9 1:-4.14 2:11.91 3:-29.35 4:-19.86 5:-14.54 6:-19.46 7:-3.33 8:-1.56 9:-1.35 10:-0.66 11:-7.38 12:13.42 
3.883906407669169e-07 0:24.21 1:-1.72 2:-6.68 3:-12.54 4:4.15 5:-31.8 6:-34.44 7:-4.76 8:-10.05 9:3.7 10:21.42 11:-5.82 12:-13.24 
8.00536595141162e-05 0:23.28 1:-3.08 2:9.41 3:4.15 4:-7.93 5:-12.28 6:9.97 7:9.04 8:4.76 9:-28.25 10:-6.34 11:-0.67 12:4.35 
-5.897503582589889e-06 0:26.49 1:-20.17 2:10.88 3:-4.3 4:11.01 5:-50.28 6:-8.25 7:-28.15 8:1.45 9:4.71 10:4.17 11:3.24 12:-18.67 
0.0001330228972783539 0:24.59 1:-11.9 2:5.9 3:-7.55 4:-2.71 5:-18.92 6:-7.21 7:-14.73 8:-15.71 9:23.21 10:-7.47 11:-8.01 12:7.05 
-0.0002036439677427039 0:22.19 1:-15.79 2:17.19 3:-4.19 4:4.06 5:-3.38 6:-11.76 7:18.24 8:-12.36 9:12.1 10:-1.56 11:-3.71 12:5.44 
0.001465239277114375 0:23.93 1:-7.58 2:16.35 3:-31.52 4:-41.74 5:11.72 6:-0.57 7:-5.94 8:-18.53 9:11.62 10:-6.51 11:15.02 12:-6.93 
0.0002427744077450681 0:23.63 1:-4.04 2:7.61 3:-16.92 4:-9.61 5:2.4 6:-21.43 7:-7.51 8:-31.93 9:-7.93 10:-0.13 11:16.49 12:-15.44 
-5.341474153065643e-05 0:26.27 1:-15.21 2:25.03 3:-13.09 4:5.63 5:-13.99 6:-12.58 7:-12.41 8:-0.42 9:-6.13 10:0.03 11:-6.87 12:4.81 
0.003797704646076242 0:24.49 1:-11.4 2:4.49 3:-21.27 4:-20.57 5:9.46 6:-2.17 7:-17.08 8:-12.39 9:21.11 10:-2.51 11:6.02 12:-5.85 
3.450409664508308e-05 0:26.07 1:-25.05 2:-6.88 3:0.03 4:-13.97 5:-48.36 6:-10.31 7:-10.12 8:5.32 9:2.93 10:-9.98 11:-18.17 12:-4.88 
-0.0001979929208006934 0:25.94 1:-21.1 2:-7.94 3:-32.19 4:4.01 5:-48 6:-7.68 7:-1.53 8:-15.46 9:10.2 10:-10.57 11:-18.74 12:-8.72 
0.002772181562431194 0:23.42 1:-0.55 2:5.53 3:-8.31 4:-20.12 5:-7.31 6:-15.25 7:-22.88 8:4.47 9:-8.42 10:-3.68 11:2.81 12:13.12 
-1.994254489570042e-06 0:25.76 1:-17.57 2:18.66 3:-9.97 4:-35.12 5:-2.61 6:-12.57 7:-9.84 8:-11.77 9:17.12 10:7.55 11:7.85 12:-14.03 
-0.0002504941794929952 0:23.97 1:-5.7 2:-9.1 3:0.41 4:-3.54 5:-15.64 6:-11.32 7:-22.7 8:2.77 9:-3.43 10:-8.88 11:-8.41 12:-0.92 
0.001180785724019671 0:25.3 1:-12.78 2:-2.58 3:0.24 4:0.74 5:-12.87 6:-28.44 7:-8.12 8:-29.08 9:3.94 10:3.08 11:-5.74 12:1.24 
1.603678311025655e-05 0:25.57 1:-12.22 2:7.83 3:-17.8 4:-2.43 5:-51.16 6:15.26 7:-13.67 8:-13.24 9:0.81 10:9.66 11:0.98 12:2.11 
-0.0001108398180810292 0:25.23 1:-18.06 2:0.75 3:-24.42 4:-12.96 5:-34.89 6:-27.51 7:4.02 8:-13.84 9:6.63 10:-2.12 11:-8.72 12:-7.13 
2.644998023458395e-05 0:26.05 1:-23.51 2:11.22 3:2.37 4:-2.73 5:-13.43 6:-37.79 7:-9.96 8:-17.05 9:1.26 10:-0.82 11:3.42 12:-14.23 
2.444841810855304e-07 0:25.39 1:-17.91 2:3.51 3:-4.07 4:-10.93 5:-9.11 6:-28.3 7:-18.91 8:-18.8 9:8.41 10:-3.59 11:12.39 12:-21.99 
1.447754811549467e-07 0:26.19 1:-14.15 2:10.01 3:-24.18 4:15.37 5:-2.13 6:-16.01 7:-10.2 8:-4.57 9:-7.28 10:3.48 11:-3.71 12:2.05 
1.052357181688811e-05 0:24.49 1:-11.81 2:6.31 3:-0.12 4:-16.49 5:-18.58 6:-21.45 7:-25.6 8:7.66 9:21.72 10:-14.75 11:-6.58 12:6.06 
0.001684394364560103 0:24.66 1:-15.2 2:5.1 3:-20.93 4:-31.08 5:-7.64 6:-14.35 7:-20.08 8:-12.43 9:4.92 10:1.26 11:7.97 12:-19.13 
8.127721817628892e-06 0:24.76 1:-14.34 2:13.93 3:-14.14 4:-26.69 5:-12.65 6:-16.88 7:-13.21 8:-4.62 9:5.54 10:-0.43 11:15.8 12:-16.29 
0.0006027236913948694 0:23.87 1:-3.21 2:3.43 3:-28.9 4:-29.53 5:-3.85 6:-3.42 7:-25.39 8:-14.97 9:7.2 10:-5.58 11:12.22 12:-9.14 
0.0009310233329144578 0:25.11 1:-7.65 2:-11.28 3:-6.53 4:8.12 5:-25.11 6:-8 7:-32.54 8:-16.11 9:18 10:-5.19 11:7.83 12:-7.38 
9.819388098398433e-08 0:25.3 1:-9.88 2:10.17 3:-17.13 4:8.83 5:-9.19 6:-16.26 7:-9.23 8:8.3 9:-7.5 10:-12.37 11:-10.44 12:4.33 
-6.870100645955844e-07 0:25.19 1:-13.42 2:7.12 3:11.96 4:-14.06 5:-26.6 6:-24.81 7:-15.48 8:-9.24 9:13.29 10:-15.96 11:0.05 12:-7.95 
7.880868937253415e-08 0:25.27 1:-14.28 2:6.06 3:-20.02 4:-6.43 5:-20.62 6:-24.06 7:-3.76 8:-25.1 9:9.68 10:-3.51 11:-8.03 12:-7.59 
-9.570692405197325e-08 0:26.12 1:-17.65 2:18.97 3:-8.44 4:10.08 5:-21.98 6:-28.16 7:-11.99 8:-17.03 9:14.65 10:-10.38 11:3.26 12:-13.51 
0.0009200913177775616 0:24.64 1:-11.83 2:-2.38 3:-7.8 4:-6.67 5:-24.46 6:-15.88 7:11.3 8:-18.94 9:18.97 10:-5.53 11:-15.44 12:-18.42 
0.000405610527618593 0:24.58 1:-6.21 2:7.98 3:-30.64 4:-12.73 5:-10.89 6:6.48 7:-22.54 8:6.18 9:-4.7 10:12.67 11:-16.34 12:-9.91 
2.03325995239216e-06 0:26.6 1:-20.15 2:28.64 3:-25.82 4:-0.4 5:-5.5 6:-19.55 7:-14.96 8:-12.36 9:3.48 10:-6.72 11:4.06 12:1.16 
6.322864905078821e-06 0:25.79 1:-15.28 2:-3.67 3:-35.15 4:-32.89 5:-12.34 6:-12.09 7:-10.67 8:-5.1 9:-8.73 10:-6.76 11:3.78 12:-17.72 
0.004824793601145553 0:25.77 1:-17.64 2:-3.48 3:-0.22 4:-10.58 5:-11.11 6:-17.5 7:-18.67 8:-11.66 9:0.13 10:-15.24 11:9.21 12:-0.76 
-0.0004603771199108748 0:20.1 1:-2.95 2:0.99 3:-3.52 4:-4.24 5:-1.94 6:3.38 7:4.51 8:0.06 9:-4.37 10:-6.45 11:-3.44 12:-1.7 
0.001333942051135287 0:26.11 1:-22.32 2:11 3:11.85 4:-10.06 5:-13.78 6:-23.05 7:-16.37 8:-8.66 9:1.45 10:11.78 11:3.91 12:0.41 
-9.711465600698203e-06 0:22.12 1:-13.31 2:15.55 3:-2.12 4:13.16 5:-12.93 6:3.38 7:9.84 8:-19.09 9:12.92 10:-7.67 11:-0.01 12:-1.75 
-2.723279774941065e-05 0:25.23 1:-14.34 2:6.83 3:-2.53 4:-4.61 5:-29.16 6:-25.43 7:-11.46 8:-11.18 9:10.44 10:-15.62 11:-16 12:-10.13 
2.940764156084721e-05 0:25.44 1:-14.97 2:-5.27 3:1.62 4:10.27 5:-25.95 6:-23.52 7:-32.2 8:-11.25 9:0.07 10:-4.24 11:2.08 12:7.96 
1.456670568839066e-06 0:25.18 1:-19.15 2:-13.39 3:-30.95 4:1.61 5:-33.3 6:-16.04 7:-6.04 8:-19.76 9:-0.67 10:-6.96 11:-6.72 12:-6.67 
-5.25430306187415e-05 0:25.5 1:-7.46 2:11.2 3:-42.36 4:-4.87 5:-33.02 6:-2.35 7:-8.54 8:-11.69 9:4.17 10:0.38 11:2.81 12:4.29 
-1.645662221415811e-07 0:25.55 1:-19.82 2:2.57 3:8.21 4:0.34 5:-21.34 6:-29.07 7:-30.92 8:1.17 9:-2.51 10:-0.13 11:-12.47 12:-19.93 
-0.000177986281833463 0:24.57 1:-13.36 2:3.48 3:-3.14 4:0.07 5:-18.08 6:-33.03 7:-9.64 8:2.35 9:0.17 10:2.55 11:-10.77 12:-10.23 
3.025918747057875e-06 0:25.67 1:-22.64 2:-1.63 3:-27.45 4:3.85 5:-41.81 6:-22.5 7:7.27 8:-11.9 9:13.18 10:-8.88 11:-17.74 12:-1.69 
-1.338106651049349e-06 0:26.23 1:-22.31 2:4.45 3:-19.48 4:-22.45 5:-33.24 6:-14.41 7:-18.25 8:-2.62 9:12.52 10:-11.69 11:-10.87 12:-16.29 
1.085235693605243e-06 0:24.09 1:-8.62 2:2.21 3:4.43 4:-7.54 5:-11.27 6:-26.55 7:-19.92 8:-7.47 9:4.56 10:0.54 11:-2.69 12:1.83 
4.85679978938549e-05 0:26.24 1:-18.58 2:14.79 3:-2.07 4:10.85 5:-32.43 6:-8.72 7:-32.5 8:-14.1 9:1.74 10:-1.47 11:4.36 12:-0.67 
0.008142345590929537 0:23.42 1:-3.92 2:2.15 3:-31.7 4:-29.04 5:-9.33 6:-1.34 7:-26.87 8:-16.5 9:15.91 10:-6.92 11:4.39 12:0.79 
1.156327403485455e-07 0:24.93 1:-15.37 2:-14.19 3:-21.11 4:-11.88 5:-38.82 6:-3.15 7:-12.22 8:-9.72 9:1.05 10:-4.84 11:-10.53 12:-11.3 
0.0003429625116594936 0:24.95 1:-11.35 2:6.79 3:-6.53 4:1.58 5:-21.1 6:-6.79 7:-17.74 8:-22.73 9:12.32 10:2.86 11:-1.92 12:4.65 
-2.314389989533887e-05 0:24.84 1:-10.18 2:4.37 3:-8.48 4:-0.98 5:-26.55 6:-7.18 7:5.15 8:-6.39 9:4.28 10:2.85 11:-23.07 12:-2.41 
-1.506458463252208e-05 0:26.12 1:-23.57 2:0.98 3:-5.52 4:9.53 5:-25.97 6:-16.99 7:-22.59 8:-1.32 9:11.48 10:6.71 11:-6.36 12:-22.71 
1.091680502478906e-06 0:20.63 1:-3.11 2:-22.42 3:-1.21 4:-21.83 5:-25.48 6:-10.89 7:-7.27 8:-11.44 9:-8 10:-10.64 11:-4.65 12:-2.83 
9.147574427014363e-05 0:25.08 1:-14.96 2:15.31 3:-12.19 4:-12.63 5:3.93 6:-22.89 7:-10.49 8:-3.98 9:-0.62 10:14.68 11:6.81 12:1.35 
-2.572147844180079e-06 0:26.3 1:-15.05 2:18.18 3:-7.8 4:0.6 5:-17 6:-12.03 7:-14.06 8:-11.19 9:0.41 10:-2.19 11:6.06 12:-15.42 
0.003061204139057045 0:21.97 1:-5.32 2:10.29 3:-11.41 4:11.95 5:-15.6 6:-4.03 7:-8.85 8:16.45 9:-12.84 10:15.19 11:5.91 12:-0.75 
-0.0002315759320613711 0:24.76 1:-14.5 2:-20.28 3:-9.19 4:-16.25 5:-29.56 6:-25.72 7:-1.26 8:0.79 9:-4.17 10:-8.47 11:-11.45 12:-15.3 
3.369494383392414e-06 0:24.55 1:-12.62 2:11.93 3:-4.81 4:-28.32 5:-11.69 6:-26.27 7:4.94 8:-13 9:10.46 10:-14.31 11:1.66 12:-4.72 
1.756349055369866e-05 0:23.76 1:-3.21 2:-2.22 3:-14.58 4:-30.29 5:-17.34 6:-19.63 7:-16.44 8:-2.35 9:-1.44 10:3 11:-11.61 12:0.29 
-1.593259483277514e-07 0:25.22 1:-13.98 2:-0.09 3:-26.45 4:-7.79 5:-21.99 6:-9.78 7:-13.6 8:-6.49 9:7.22 10:-0.02 11:-11.6 12:-17.93 
7.517013861004655e-05 0:23.67 1:0.06 2:10.25 3:-13.32 4:-36.28 5:0.67 6:-2.94 7:-10.46 8:-13.21 9:-1.76 10:6.72 11:-3.94 12:4.47 
0.000144399968954198 0:25.6 1:-14.33 2:-5.52 3:16.73 4:14.09 5:-52.82 6:-36.97 7:-14.31 8:1.19 9:4.24 10:7.73 11:-14.8 12:-1.71 
7.198576121718453e-08 0:23.43 1:-18.17 2:21.07 3:-4.26 4:5.54 5:-23.65 6:-0.15 7:5.65 8:-13.54 9:16.45 10:8.04 11:-1.41 12:2.59 
0.0007218668777666154 0:24.2 1:-9.27 2:7.09 3:-17.21 4:-14.38 5:-25.35 6:-9.6 7:-7.33 8:-22.78 9:5.03 10:-5.46 11:7.51 12:-5.94 
-6.737319738721782e-07 0:23.62 1:-19.55 2:20.97 3:0.69 4:-1.22 5:-12.61 6:-12.56 7:3.86 8:-10.74 9:9.22 10:-3.26 11:0.93 12:6.49 
-8.806613456720752e-06 0:25.07 1:-9.45 2:2.78 3:-5.92 4:8.74 5:-26.51 6:-37.87 7:5.16 8:-13.14 9:-4.47 10:23.82 11:-11.28 12:-5.84 
-0.0001234453689695507 0:23.27 1:2.63 2:0.85 3:-35.22 4:-33.61 5:-6.57 6:-2.11 7:-8.36 8:-16.96 9:4.54 10:3.94 11:10.83 12:-12.19 
4.455959852181668e-06 0:24.89 1:-15.11 2:11.65 3:18.92 4:-5.11 5:-48.35 6:-9.29 7:-28.92 8:11.93 9:-1.43 10:-0.48 11:12.08 12:-15.59 
1.057041238009849e-05 0:25.32 1:-12.31 2:15.02 3:-36.5 4:4.63 5:-3.81 6:-24.61 7:-20.1 8:-1.96 9:10.08 10:-10.07 11:7.99 12:-7.18 
0.001874326069467338 0:23.69 1:-24.59 2:22.4 3:3.98 4:-11.94 5:5.76 6:-10.23 7:-1.36 8:-6.36 9:17.76 10:-12.11 11:16.56 12:-4.99 
1.309406917765375e-07 0:23.39 1:5.2 2:6.35 3:-15.97 4:-19.5 5:-18.59 6:-30.65 7:-5.65 8:-27.07 9:-18.04 10:-2.15 11:5.41 12:-14.78 
0.000155199044010226 0:24.39 1:-8.95 2:4.66 3:-28.22 4:-4.65 5:-19.6 6:-21.73 7:-3.44 8:-20.08 9:29.29 10:-0.47 11:-15.76 12:4.09 
1.047999667568638e-06 0:24.89 1:-13.7 2:9.54 3:-10.87 4:-10.23 5:7.11 6:-13.54 7:-10.63 8:-7.1 9:-13 10:-2.09 11:3 12:-8.79 
-4.404969651389239e-05 0:25.31 1:-3.62 2:-17.25 3:11.53 4:0.49 5:-48.53 6:-1.03 7:-29.04 8:2.07 9:12.4 10:5.92 11:-5.78 12:-13.59 
0.0001249396934701561 0:24.58 1:-16.99 2:-12.13 3:-15 4:-27.66 5:-30.65 6:-9.88 7:-10.7 8:-9.84 9:-6.02 10:1.61 11:-5.43 12:-7.62 
0.0003911702615757478 0:23.89 1:3.76 2:7.39 3:-15.67 4:-25.02 5:-17.68 6:-8.34 7:-5.41 8:-6.61 9:13 10:-1.44 11:-2.48 12:4.51 
2.979300248338193e-06 0:23.88 1:-8.89 2:5.85 3:-1.83 4:2.02 5:5.73 6:17.14 7:-7.69 8:-2.18 9:6.45 10:1.83 11:-22.39 12:0.18 
0.0008161878240400612 0:23.87 1:-7.16 2:-24.93 3:4.07 4:-30.21 5:-35.75 6:-7.59 7:-0.79 8:-17.23 9:-17.34 10:25.16 11:-6.36 12:-5.17 
-0.0002506524795117072 0:22.52 1:5.13 2:0.22 3:-7.41 4:-14.37 5:-33.12 6:-5.86 7:-14.11 8:13.33 9:-17.8 10:-6.15 11:9.97 12:11.74 
0.001028888931176502 0:24.05 1:-9.72 2:-9.69 3:-13.08 4:-21.29 5:-26.82 6:-3.34 7:-8.72 8:-12.14 9:-9.3 10:-7.68 11:-10.15 12:-9.93 
-0.002134998569503183 0:24.51 1:-9.83 2:2.31 3:-30.76 4:-40.75 5:0.9 6:11.25 7:-19.3 8:-0.36 9:6.6 10:-8.26 11:12.46 12:-9.74 
0.00376067408813641 0:24.59 1:-13.68 2:8.98 3:-11.38 4:-24.81 5:-20.09 6:-12.09 7:-28.23 8:4.46 9:21.93 10:-7.35 11:-5.21 12:10.44 
3.297218048952705e-06 0:22.09 1:-11.33 2:15.79 3:-14.95 4:-11.87 5:3.03 6:-12.1 7:24.75 8:-10.79 9:23.65 10:-0.55 11:5.34 12:4.06 
-0.001078023321499483 0:23.94 1:-14.17 2:-25.53 3:-13.6 4:-27.22 5:-42.01 6:-4.47 7:-6.12 8:-6.34 9:-21.12 10:7.52 11:6.29 12:-16.69 
-4.690775744092427e-05 0:24.49 1:-11.05 2:14.95 3:-17.47 4:-17.55 5:-11.75 6:-22.9 7:-14.18 8:-9.09 9:-1.35 10:27.87 11:-11.14 12:-2.04 
-3.368918769504693e-06 0:24.43 1:-11.77 2:15.14 3:-14.26 4:-27.69 5:-13.47 6:-4.11 7:-19.8 8:13.26 9:-11.11 10:-1.33 11:5.55 12:0.87 
-1.418833809714133e-06 0:23.83 1:-5.32 2:1.95 3:-25.17 4:-40 5:-5.15 6:12.87 7:-22.98 8:-12.55 9:2.86 10:-11.06 11:5.96 12:-11.98 
0.003062509444370289 0:26.57 1:-23.12 2:22.7 3:-20.46 4:-3.21 5:-15.54 6:-21.68 7:-18.49 8:-11.72 9:-5.68 10:0.06 11:12.3 12:-9.85 
2.177307779379502e-05 0:24.15 1:-4.54 2:-13.62 3:-0.45 4:-5.67 5:-20.96 6:-35.89 7:-22.42 8:-4.61 9:3.47 10:22.13 11:-4.76 12:-3.58 
0.001649500926403623 0:20.31 1:-1.16 2:9 3:13.28 4:7.28 5:-36.78 6:14.02 7:-6.69 8:8.1 9:-13.55 10:11.06 11:8.42 12:4.48 
0.0005541421978062871 0:22.33 1:-6.71 2:5.21 3:-13.58 4:17.68 5:-24.87 6:4.45 7:-4.14 8:-1 9:3.91 10:21.22 11:-1.01 12:-6.7 
-0.0004137699564741676 0:26.74 1:-20.78 2:23.38 3:-3.03 4:9.89 5:-22.56 6:-29.66 7:-22.67 8:18.94 9:-5.03 10:-10.92 11:5.95 12:2.83 
-0.0003179893376714908 0:24.46 1:-11.31 2:5.98 3:-16.18 4:-15.45 5:-9.01 6:-23.41 7:-5.87 8:6.56 9:-21.26 10:2.9 11:-1.89 12:3.92 
-4.055303594984056e-07 0:24.89 1:-8.02 2:6.81 3:-10.57 4:-0.97 5:-26.27 6:-10.6 7:12.12 8:-21.82 9:11.04 10:-13.72 11:-4.93 12:-6.25 
0.0001126402110743793 0:24.55 1:-14.25 2:8.62 3:-11.43 4:-26.84 5:-10.28 6:-4.03 7:-25.49 8:-20.04 9:23.92 10:3.81 11:-17.92 12:-13.13 
4.224046089701187e-05 0:26.52 1:-16.25 2:13.07 3:-8.3 4:12.78 5:-41.06 6:-6.07 7:-12.36 8:-11.61 9:-5.52 10:13.83 11:-3.67 12:-7.72 
0.000235704123363945 0:25.43 1:-22.85 2:-17.06 3:-5.04 4:-18.52 5:-36.55 6:-15.25 7:-5.99 8:-9.83 9:1.89 10:-5.1 11:-12.28 12:-5.67 
0.001004668381574684 0:24.57 1:-10.12 2:8.63 3:-26.07 4:-22.22 5:-3.52 6:-21.83 7:-5.09 8:-7.49 9:13.81 10:-2.3 11:-10.48 12:6.69 
-0.0001136791928312298 0:22.97 1:5.34 2:-0.12 3:-0.93 4:-11.42 5:-28.39 6:-0.49 7:-40.33 8:2.31 9:-4.61 10:-2.01 11:7.86 12:-11.38 
0.003774030848923188 0:25.9 1:-19.14 2:7.91 3:-17.04 4:-37.54 5:-5.9 6:-17.68 7:-2.51 8:-9.51 9:-3.54 10:-5.42 11:10.44 12:-11.92 
0.0008245923994230713 0:25.03 1:-15.09 2:12.92 3:-5.84 4:-1.92 5:-24.3 6:-13.39 7:-4.71 8:-27.8 9:-1.73 10:-8.17 11:5.87 12:-2.67 
1.229797370351146e-07 0:24.53 1:-5.34 2:16.5 3:-20.9 4:-26.7 5:-16.29 6:-6.12 7:-6.67 8:6.74 9:-1.23 10:-4.32 11:2.61 12:3.95 
-0.0001373847299781546 0:24.9 1:-13.31 2:18.04 3:-10.1 4:-37.11 5:-4.53 6:7.91 7:-15.04 8:15.28 9:-10.41 10:6.92 11:4.53 12:-1.62 
8.881718379652389e-05 0:24.07 1:-18.92 2:15.08 3:-13.9 4:-10.6 5:-23.17 6:-6.12 7:-3.32 8:-24.15 9:1.35 10:-6.82 11:-8.13 12:-7.34 
-0.0004546044552367253 0:25.42 1:-20.85 2:-11.44 3:-22.63 4:-12.09 5:-32.94 6:-17.4 7:-6.95 8:-3.3 9:-7.81 10:8.1 11:-20.02 12:-14.91 
-6.944874304652872e-08 0:23.42 1:-12.17 2:24.34 3:-20.75 4:4.94 5:-5.19 6:-15.14 7:12.83 8:-15.32 9:17.61 10:0.06 11:1.99 12:-9.1 
0.001138236049810082 0:24.54 1:-5.29 2:-3.22 3:-12.34 4:-0.3 5:-11.07 6:-3.26 7:-29.94 8:-0.41 9:-10.94 10:-9.73 11:-14.65 12:-1.22 
1.343239017511643e-05 0:25.5 1:-12.57 2:3.01 3:-12.32 4:-17.55 5:-29.66 6:0.95 7:-33.36 8:3.62 9:-3.17 10:-7.11 11:22.47 12:-18.18 
9.421205113423773e-07 0:25.53 1:-22.11 2:22.56 3:13.91 4:-19.55 5:-26.09 6:-31.93 7:-9.34 8:2.73 9:-9.01 10:-1.17 11:3.31 12:-0.45 
0.006504133931705284 0:25.79 1:-17.93 2:15.42 3:-2.43 4:-30.71 5:1.23 6:-11.66 7:-17.77 8:-23.1 9:22.08 10:-7.72 11:10.17 12:-9.94 
1.830014278312222e-06 0:23.91 1:-5.37 2:2.66 3:-0.48 4:-28.54 5:-7.33 6:-23.42 7:-32.27 8:-7.88 9:18.94 10:-8.27 11:3.94 12:-12.44 
0.000129639958730466 0:23.57 1:-6.48 2:-2.87 3:-7.6 4:-16.88 5:-15.65 6:-22.27 7:-10.51 8:-4.92 9:-15.48 10:-8.79 11:25.76 12:-12.22 
-1.304991911483567e-05 0:22.88 1:-0.05 2:-8.37 3:4.77 4:-16.21 5:-24.1 6:-12.23 7:-11.38 8:6.32 9:-21.64 10:3.32 11:12.89 12:-0.33 
-0.0007687946574391824 0:23.08 1:4.29 2:-1.3 3:-4.7 4:-24.28 5:-7.61 6:-21.76 7:-23.92 8:-1.58 9:2.7 10:-10.3 11:16.88 12:-11.43 
1.057723525874594e-05 0:23.9 1:-5.91 2:-8.81 3:-20.23 4:-4.44 5:-10.14 6:-8.24 7:-17.36 8:9.77 9:2.35 10:3.78 11:-15.72 12:-3.12 
-0.0001089093272462103 0:22.88 1:2.86 2:-6.5 3:-0.06 4:-10.09 5:-24.88 6:-1.4 7:-17.22 8:6.61 9:-2.91 10:-8.54 11:1.08 12:4.16 
7.268993339464208e-05 0:22.65 1:-21.06 2:12.87 3:9.9 4:1.45 5:-13.48 6:-10.73 7:22.67 8:-23.3 9:2.8 10:19.26 11:2.47 12:-4.85 
0.008302204411894793 0:24.65 1:-12.63 2:-2.08 3:-20.47 4:-23.82 5:-4.04 6:-8.74 7:-11.49 8:-13.93 9:19.5 10:-10.05 11:11.44 12:-12.92 
2.623479778654499e-05 0:25.35 1:-13.86 2:3.8 3:-13.68 4:3.9 5:-26.31 6:-14.52 7:-18.49 8:-20.3 9:10.49 10:-7.24 11:-5.12 12:0.28 
-3.17774578263332e-05 0:21.31 1:-8.4 2:12.93 3:-2.58 4:-4.22 5:5.82 6:-17 7:21.06 8:-14.3 9:7.81 10:6.26 11:-6.53 12:1.03 
0.0009594547754679868 0:24.7 1:-8.55 2:6.85 3:-13.6 4:-32.72 5:-4.38 6:-9.85 7:-34.01 8:-15.03 9:-4.49 10:-0.9 11:7.07 12:-19.93 
0.001162680253438199 0:24.47 1:-8.24 2:-19.44 3:-8.6 4:-3.06 5:-37.58 6:-16.65 7:-26.81 8:-11.62 9:26.77 10:0.44 11:-4.79 12:0.39 
-0.0002626589691502267 0:25.32 1:-14.83 2:-6.43 3:13.79 4:11.11 5:-39.23 6:-28.29 7:-12.06 8:-11.36 9:1.64 10:17.81 11:-18.69 12:0.96 
-0.0005117940217493953 0:24.08 1:1.94 2:-19.48 3:-5.89 4:10.77 5:-50.1 6:-3.29 7:-31.91 8:-0.89 9:14.06 10:-7.21 11:5.28 12:-9.26 
7.333665780848737e-08 0:23.45 1:-4.95 2:0.08 3:-20.67 4:-8.93 5:-26.65 6:-16.99 7:-15.56 8:-5.59 9:-14.93 10:-4.88 11:20.15 12:-10.26 
0.0003002381235277146 0:23.29 1:-2.24 2:-1.35 3:-6.91 4:8.86 5:-50.6 6:-11.73 7:-14.15 8:-8.04 9:-15.17 10:-6.05 11:25.93 12:-20.5 
-9.95911898847233e-06 0:25.99 1:-25.72 2:15.57 3:-8.56 4:6.32 5:-8.37 6:-15.65 7:-20.45 8:-11.21 9:-8.5 10:1.45 11:5.25 12:-17.44 
4.095052441884953e-09 0:25.57 1:-21.02 2:-1.25 3:-19.69 4:-25.91 5:-30.73 6:-8.78 7:-10.12 8:-15.7 9:1 10:4.96 11:-5.33 12:-14.44 
-1.570989697394567e-06 0:24.86 1:-7.52 2:-6.16 3:3.35 4:5.79 5:-9.73 6:-50.83 7:-11.85 8:-8.65 9:-3.54 10:18.18 11:-9.83 12:-4.58 
-5.153815616249894e-05 0:25.52 1:-12.82 2:-9.97 3:8.67 4:9.81 5:-41.71 6:-19.12 7:-23.3 8:5.49 9:-1.81 10:18.89 11:-8.68 12:-17.9 
0.002596580394368135 0:24.79 1:-9.52 2:-16.25 3:-11.81 4:-10.4 5:-11.59 6:-20.59 7:-18.44 8:-1.11 9:4.68 10:-4.74 11:9.52 12:-8.54 
3.593738202023247e-05 0:22.41 1:1.43 2:-5.22 3:7.96 4:-10.08 5:-25.61 6:-24.54 7:-27.33 8:1.54 9:-11.21 10:16.31 11:-0.44 12:-1.43 
-9.398319167856346e-07 0:21.8 1:-11.44 2:19.16 3:-7.53 4:0.09 5:0.36 6:-17.75 7:19.11 8:-7.4 9:9.44 10:2.08 11:0.59 12:-5.68 
0.001689223673568301 0:24.57 1:-2.4 2:-10.67 3:-3.51 4:-1.23 5:-20.23 6:-0.11 7:-29.61 8:-18.33 9:17.52 10:-5.16 11:3.59 12:-5.77 
2.224615450926211e-05 0:23.65 1:2.42 2:-16.93 3:-8.49 4:8.04 5:-25.05 6:-6.89 7:-11.56 8:-4.84 9:-22.61 10:-2 11:19.05 12:-9.38 
8.453799710654781e-08 0:26.44 1:-24.75 2:13.55 3:-11.44 4:-1.95 5:-13.36 6:-20.1 7:-29.85 8:-4.82 9:9.31 10:-3.7 11:-1.4 12:-9.82 
5.340921687079674e-05 0:25.11 1:-13.27 2:14.99 3:-23.27 4:-50.48 5:2.46 6:11.83 7:-24.59 8:-8.52 9:15.74 10:-9.13 11:4.5 12:-10.78 
2.210476624544498e-06 0:24.75 1:-12.8 2:5.71 3:-9.37 4:-22.07 5:-18.47 6:-23.32 7:-28.21 8:5.87 9:7.78 10:0.27 11:-15.95 12:0.78 
4.449117327080851e-06 0:23.15 1:-1.31 2:-2.08 3:5.68 4:-12.9 5:-26.89 6:3.33 7:-14.51 8:-1.11 9:-32.27 10:-8.58 11:2.84 12:7.47 
5.297616839554913e-05 0:25.34 1:-12.71 2:-5.08 3:-4.93 4:17.52 5:-27.28 6:-25.82 7:-32.77 8:-12.08 9:11.67 10:-3.74 11:-2.23 12:-1.69 
0.0002578988928438116 0:24.92 1:-11.3 2:14.82 3:-11.89 4:-24.86 5:-15.62 6:-11.63 7:-24.52 8:-14.19 9:14.36 10:-9.1 11:5.25 12:-9.07 
1.011045377217234e-05 0:23.85 1:-2.81 2:-2.76 3:-22.95 4:-12.08 5:-23.45 6:-6.42 7:-21.24 8:-10.75 9:-4.4 10:-6.51 11:13.74 12:-6.33 
-1.592570123935523e-05 0:24.88 1:-11.44 2:12.24 3:-9.02 4:11.06 5:-27.81 6:-21.46 7:5.49 8:-3.49 9:6.25 10:-3.23 11:-19.33 12:2 
-0.001845007975304037 0:25.6 1:-18.96 2:1.54 3:-16 4:8.55 5:-15.2 6:-7.53 7:-21.82 8:-11.78 9:-1.71 10:4.68 11:7.93 12:-15.71 
-0.0003825660750220539 0:25.91 1:-26.37 2:-6.01 3:-23.21 4:0.18 5:-45.34 6:-31.68 7:8.53 8:-5.52 9:1.2 10:-0.47 11:-15.28 12:-0.54 
-4.531103681711033e-07 0:25.82 1:-16.72 2:11.94 3:-33.53 4:2.28 5:-22.86 6:-14.54 7:-8.58 8:7.74 9:-6.67 10:-4.5 11:2.52 12:-4.26 
1.777988209360319e-05 0:23.8 1:-4.81 2:10.44 3:-12.19 4:-0.05 5:-17.64 6:-11.8 7:0.45 8:-18.09 9:-7.99 10:-6.84 11:21.89 12:-8.74 
-1.34513247530585e-06 0:25.14 1:-10.64 2:4.42 3:-15.3 4:-14.38 5:-26.53 6:-9.03 7:-20.36 8:-3.95 9:7.24 10:-3.07 11:-15.38 12:-4.07 
1.471435434539618e-06 0:25.35 1:-22.14 2:0.25 3:-25.81 4:-7.69 5:-32.55 6:-23.28 7:-5.9 8:-0.74 9:14.46 10:-16.81 11:-11.21 12:-7.58 
0.000644661496865868 0:24.19 1:-4.39 2:-7.64 3:-27.26 4:11.55 5:-21.84 6:-3.04 7:-24.07 8:5.79 9:-1.84 10:1.71 11:2.25 12:-21.42 
0.001299204641728322 0:23.81 1:-2.8 2:2.2 3:-17.51 4:-31.99 5:-12.28 6:-2.74 7:-20.82 8:-21.3 9:4.58 10:-1.64 11:12.08 12:-12.51 
0.0008604306457717715 0:25.37 1:-17.83 2:19.82 3:-10.68 4:-26.91 5:-14.94 6:4.85 7:-11.15 8:-8.83 9:-0.34 10:3.31 11:3.28 12:3.3 
3.492215155608864e-05 0:24.87 1:-2.16 2:-4.39 3:8.83 4:-20.24 5:-34.28 6:-0.6 7:-24.93 8:-11.63 9:24.68 10:-11.42 11:-4.76 12:-25.15 
0.0001373718257143963 0:24.43 1:-18.6 2:-22.02 3:-17.66 4:-34.78 5:-33.62 6:4.01 7:-7.49 8:-1.7 9:2.01 10:-19.92 11:-1.98 12:-10.47 
-0.0001014428384865374 0:25.42 1:-14.73 2:6.27 3:-20.21 4:-39.04 5:10.16 6:4.92 7:-12 8:-12.41 9:1.41 10:7.74 11:13.84 12:-17.75 
0.000817201018240226 0:21.75 1:-9.33 2:13.42 3:-9.5 4:-10.9 5:7.86 6:-10.99 7:15.14 8:-16.47 9:18.54 10:-1.38 11:7.15 12:7.85 
5.159136700934581e-07 0:26.26 1:-25.83 2:9.91 3:-5.8 4:-2.39 5:-4.55 6:-14.93 7:-19.58 8:5.61 9:-4.21 10:0.99 11:-0.15 12:-3.8 
0.0002480677046035805 0:20.11 1:4 2:22.5 3:-25.4 4:-2.18 5:4.04 6:-1.46 7:8.58 8:-4.67 9:-0.2 10:18.95 11:-1.4 12:6.11 
0.0004923090149492064 0:25.15 1:-21.35 2:-15.61 3:-18.17 4:-33.29 5:-24.68 6:-1.14 7:-14.42 8:-1.84 9:3.85 10:-17.75 11:-0.72 12:-6.65 
2.490833140987341e-06 0:24.98 1:-12.62 2:-5.02 3:-1.43 4:11.17 5:-36.03 6:-14.13 7:-22.69 8:-7.76 9:18.59 10:7.26 11:-3.32 12:-2.39 
-7.517635986435502e-05 0:25.02 1:-20.08 2:-13.8 3:-7.07 4:-8.08 5:-43.83 6:-27.97 7:-1.31 8:2.71 9:5.88 10:-4.55 11:-15.21 12:-11.84 
-0.000295153215066556 0:23.17 1:-24.33 2:-4.45 3:-18.98 4:-6.95 5:-3.3 6:2.58 7:14.78 8:-15.04 9:3.5 10:-7.06 11:-4.82 12:-7.69 
0.0001174010146250449 0:23.31 1:8.79 2:-17.25 3:-4.13 4:10.4 5:-58.79 6:-0.01 7:-36.13 8:8.49 9:0.49 10:13.97 11:-6.89 12:-17.47 
-4.061659430609394e-07 0:24.24 1:-8.34 2:6.91 3:-9.66 4:-21.84 5:-15.46 6:-13.93 7:-15.13 8:5.26 9:-8 10:1.77 11:1.69 12:3.98 
1.812122725242099e-07 0:23.34 1:-6.19 2:1.85 3:-7.39 4:-8.32 5:-27.51 6:-15.7 7:-20.91 8:-20.95 9:-13.05 10:15.43 11:7.36 12:-12.37 
6.666805915116837e-05 0:25.08 1:-13.02 2:-17.51 3:-6.16 4:-25.08 5:-33.45 6:-8.57 7:-3.21 8:-11.99 9:-17.39 10:2.25 11:-11.82 12:-6.43 
6.839349979448924e-08 0:24.77 1:-17.86 2:19.43 3:0.19 4:-22.78 5:-21.78 6:-22.49 7:-20.48 8:1.86 9:2.65 10:4.62 11:-6.85 12:11.29 
0.001063538649347259 0:24.13 1:-11.82 2:18.81 3:-17.53 4:-21.33 5:-12.38 6:-22.28 7:-0.09 8:-7.33 9:5.26 10:2.72 11:-3.42 12:8.97 
-0.005490603964424852 0:22.6 1:2.8 2:-7.14 3:-4.54 4:1.45 5:-13.46 6:-7.86 7:-27.37 8:-1.49 9:-8.66 10:17.39 11:-0.85 12:-6.83 
-0.000138877853044821 0:26.07 1:-15.48 2:19.22 3:-30.46 4:-9.06 5:-8.96 6:-5.38 7:-27.76 8:2.95 9:23.39 10:-22.79 11:-0.51 12:-10.09 
7.966636017605213e-07 0:25.54 1:-16.05 2:17.17 3:-12.89 4:-9.3 5:10.9 6:-18.81 7:-14.27 8:-8.66 9:-10.74 10:8.55 11:-4.81 12:4.03 
-5.354639208104141e-07 0:24.4 1:-19.06 2:-24.21 3:-15.1 4:-15.85 5:-40.87 6:-8.02 7:-17.39 8:3.29 9:8.51 10:-19.02 11:-6.59 12:-15.26 
6.518029313118756e-07 0:24.7 1:-13.84 2:-0.21 3:-39.61 4:-34.41 5:-10.81 6:-5.33 7:-14.44 8:-8.49 9:0.72 10:0.88 11:-2.84 12:-16.6 
1.147410240169208e-07 0:25.37 1:-17.35 2:10.63 3:-4.73 4:-6.21 5:-38.71 6:-19.67 7:2.49 8:-17.67 9:-3.77 10:-12.35 11:-4.15 12:-6.37 
8.082885882400465e-05 0:22.37 1:-0.19 2:-9.24 3:-1.37 4:-3.94 5:-7.37 6:-16.91 7:-27.49 8:17.82 9:-5.04 10:5.59 11:-11.96 12:-6.72 
-0.0001862629560146728 0:25.58 1:-12.42 2:-7.45 3:3.47 4:12.76 5:-33.99 6:0.93 7:-19.56 8:-34.05 9:5.88 10:-6.05 11:-4.43 12:-2.92 
-0.0005697251616726035 0:24.5 1:-15.67 2:-20.55 3:-32.08 4:-28.8 5:-47.74 6:1.18 7:-5.04 8:-4.57 9:-3.35 10:-12.95 11:-1.76 12:-7.09 
-9.345123106057914e-06 0:25 1:-15.76 2:17.23 3:-4.07 4:-22.56 5:-5.65 6:-24.42 7:-21.54 8:3.1 9:16.14 10:-7.73 11:3.49 12:-10.5 
-2.765084927581488e-06 0:23.35 1:-1.13 2:-7.26 3:-2.29 4:3.04 5:-21.5 6:-16.27 7:-22.17 8:-12.03 9:-8.86 10:5.03 11:6.01 12:5.58 
0.004221472960447253 0:25.42 1:-17.54 2:3.62 3:-18.78 4:-13.61 5:-31.63 6:-13.14 7:-8.97 8:-26.82 9:11.37 10:-8.18 11:0.82 12:-12.52 
3.311223662401493e-06 0:24.81 1:-19.01 2:-18.08 3:-6.46 4:-19.05 5:-35.3 6:-11.64 7:-9.04 8:-5.06 9:3.41 10:5.51 11:-14.68 12:-9.94 
0.001684911593036128 0:26.68 1:-33.8 2:15.35 3:4.41 4:9.74 5:-25.6 6:-34.63 7:-30.81 8:11.64 9:0.63 10:-2.29 11:-3.99 12:-16.71 
4.057620447348188e-06 0:24.62 1:-3.43 2:8.88 3:-16.74 4:-7.31 5:-15.84 6:6.01 7:-30.56 8:-1.74 9:-10 10:3.27 11:-11.6 12:-9.21 
-2.407964602886571e-07 0:24.39 1:-9.69 2:4.52 3:-12.27 4:-0.41 5:7.24 6:12.6 7:-14.96 8:-5.89 9:-0.02 10:5.05 11:-17.24 12:-10.3 
-4.2113890466087e-05 0:24.26 1:-8.21 2:10.51 3:-11.13 4:-21.42 5:-22.79 6:-6.03 7:-7.88 8:1.85 9:5.52 10:-7.83 11:-2.95 12:4.06 
1.525150377844583e-05 0:24.58 1:-14.66 2:12.65 3:4.69 4:-12.67 5:-26.33 6:-26.99 7:-27.52 8:0.41 9:8.75 10:21.44 11:-7.45 12:0.32 
-4.8336106136911e-06 0:25.48 1:-19.06 2:-9.94 3:-18.76 4:-22.02 5:-5.27 6:-30.27 7:-3.66 8:-5.23 9:-7.75 10:3.32 11:-11.09 12:-10.11 
2.157785685717161e-05 0:25.43 1:-13.37 2:12.83 3:-22.19 4:-31.21 5:-3.97 6:-17.08 7:-10.91 8:-7.12 9:0.88 10:-3.61 11:12.46 12:-19.66 
0.001598239258124801 0:21.17 1:-9.33 2:7.44 3:2.59 4:-4.99 5:13.1 6:-13.98 7:23.01 8:-12.24 9:15.83 10:5.24 11:-6.75 12:16.07 
-1.471680247038089e-07 0:26.39 1:-18.87 2:8.79 3:-11.13 4:-11.49 5:-7.73 6:-29.44 7:-11.46 8:-8.66 9:5.36 10:13.78 11:1.53 12:-15.21 
0.0004546975393839433 0:23.24 1:-1.3 2:1.4 3:-0.25 4:0.93 5:-33.28 6:-11.55 7:-7.51 8:18.31 9:-25.34 10:-18.2 11:0.35 12:10 
1.931192193906656e-06 0:23.21 1:-5.74 2:-5.53 3:-10.74 4:-17.15 5:-32.47 6:-13.6 7:-6.25 8:-17.69 9:-17.16 10:2.85 11:13.28 12:-10.06 
1.184432334208767e-05 0:23.63 1:-5.67 2:-17.17 3:-11.77 4:-13.39 5:-39.96 6:-23.31 7:-10.44 8:-27.83 9:-5.49 10:30.77 11:-13.49 12:-9.81 
0.0002762309421603848 0:25.09 1:-16.58 2:8.37 3:13.77 4:12.43 5:-40.29 6:-42.22 7:5.17 8:-2.02 9:-10.88 10:13.99 11:-15.33 12:1.36 
-0.001637901267791991 0:25.13 1:-12.47 2:17.14 3:-3.85 4:-27.42 5:-18.17 6:10 7:-20.21 8:4.97 9:13.77 10:-7.78 11:1.12 12:7.08 
7.780832528006102e-06 0:24.78 1:-12.02 2:2.31 3:-5.19 4:-28.3 5:-12.85 6:-16.89 7:-13.18 8:-7.41 9:16.57 10:-5.58 11:-4.38 12:2 
-1.369572452483694e-05 0:22.55 1:1.89 2:-1.86 3:0.44 4:-8.09 5:-16.69 6:-5.19 7:-23.13 8:-12.33 9:-12.86 10:7.68 11:6.26 12:1.46 
1.336030154693419e-06 0:24.07 1:-4.55 2:5.46 3:-41.45 4:-8.74 5:-2.04 6:-33.84 7:3.44 8:-14.26 9:14.24 10:12.52 11:-5.52 12:-6.39 
0.0003844798215173582 0:25.5 1:-13.73 2:1.45 3:17.44 4:-12.98 5:-30.7 6:-37.16 7:-3.93 8:-17.21 9:19.14 10:-16.96 11:-18.12 12:-7.44 
2.909417836166059e-05 0:24.7 1:-18.07 2:1.38 3:9.47 4:-4.24 5:-19.51 6:-48.56 7:-15.2 8:-10.93 9:-3.4 10:-3.01 11:-1.08 12:-10.1 
7.836943265116694e-05 0:23.72 1:0.66 2:6.07 3:16.55 4:-21.24 5:-38.25 6:-5.92 7:-24.08 8:19.68 9:-14.82 10:-6.57 11:20.5 12:-4.08 
4.775447714862395e-05 0:25.41 1:-16.9 2:-3.58 3:12.69 4:14.76 5:-47.93 6:-33.22 7:-15.62 8:-2.09 9:6.71 10:-4.96 11:3 12:8.87 
-1.170575468440898e-05 0:24.53 1:-14.75 2:-8.13 3:-6.49 4:-28.5 5:-32.92 6:-12.38 7:6.71 8:-10.69 9:-2.01 10:-3.47 11:-12.1 12:-7.47 
-0.001654597722119394 0:24.05 1:-11.23 2:7.61 3:0.89 4:-20.03 5:-20.68 6:-16.94 7:-12.6 8:-3.57 9:9.95 10:-3.99 11:-14.04 12:-0.16 
-0.001205917427550356 0:26.18 1:-17.6 2:22.51 3:-5.47 4:-1.84 5:-23.73 6:-20.9 7:-29.69 8:14.36 9:5.93 10:1.41 11:2.01 12:-8.73 
-1.732383669958387e-08 0:24.23 1:-7.62 2:-4.01 3:-21.61 4:-0.96 5:-2.42 6:-28.05 7:-27.02 8:14 9:-12.58 10:10.8 11:5 12:2.39 
0.0010713202528243 0:23.34 1:-2.48 2:12.77 3:-20.89 4:-26.41 5:3.3 6:-20.33 7:3.32 8:-23.16 9:-15.93 10:5.12 11:14.5 12:-6.5 
0.006798839294462062 0:25.16 1:-17.02 2:7.98 3:5.71 4:-1.57 5:-15.06 6:-23.51 7:-31.96 8:-13.39 9:11.22 10:-0.59 11:-4.45 12:12.02 
-1.650723552967728e-06 0:24.44 1:-15.79 2:-6.69 3:1.53 4:-10.97 5:-12.23 6:-14.09 7:-13.86 8:-10.54 9:7.48 10:-9.15 11:4.34 12:-9.52 
-1.364245580521604e-06 0:26.01 1:-16.64 2:17.84 3:-9.57 4:-0.38 5:-16.9 6:-23.24 7:-24.63 8:11.26 9:2.08 10:1.8 11:-2.42 12:-3.13 
-7.64536078356215e-05 0:24.89 1:-20.23 2:-8 3:-34.12 4:-16.43 5:-38.44 6:-13.04 7:0.1 8:-1.8 9:-0.36 10:-5.82 11:-9.07 12:3.09 
-8.818938371588982e-05 0:25.17 1:-3.4 2:-16.79 3:1.44 4:7.42 5:-36.77 6:-2.14 7:-32.19 8:-10.66 9:17.12 10:-3.29 11:13.73 12:-11.84 
-1.820088800747077e-07 0:25.08 1:-10.96 2:14.88 3:-17.45 4:-11.52 5:-28.74 6:-8.8 7:2.28 8:-21.37 9:-2.47 10:-5.4 11:-8.3 12:-0.2 
4.437936147079363e-07 0:23.75 1:-4.86 2:1.46 3:-10.73 4:-31.45 5:-9.26 6:-7.57 7:-15.78 8:-18.53 9:7.19 10:-3.22 11:4.57 12:-11.82 
-7.696332237047548e-07 0:24.32 1:-9.55 2:-5.49 3:-11.61 4:9.32 5:-29.82 6:10.56 7:-22 8:2.11 9:13.47 10:2.51 11:-9.22 12:-12.03 
4.8153639265043e-07 0:25.83 1:-17.37 2:12.84 3:-7.02 4:-26.24 5:-13.55 6:-17.97 7:-14.05 8:-9.89 9:16.23 10:-12.87 11:1.05 12:-19.71 
-0.0001721449684109879 0:24.44 1:-8.76 2:-9.38 3:0.97 4:5.47 5:-28.41 6:-36.29 7:-22.98 8:-3.53 9:3.18 10:12.35 11:-14.06 12:-11.68 
3.587015053273776e-07 0:26.04 1:-15.82 2:9.14 3:-1.3 4:9.55 5:-31.76 6:3.39 7:-25.09 8:-17 9:5.91 10:6.16 11:-0.55 12:-1.44 
-2.689286577053529e-06 0:24.31 1:-4.34 2:7.59 3:-14.85 4:-19.36 5:-14.83 6:-14.25 7:-15.34 8:-0.29 9:1.35 10:-1.28 11:-3.48 12:-5.29 
-5.322981940261547e-06 0:24.57 1:-18.57 2:-23.77 3:-22.74 4:-16.27 5:-38.56 6:5.44 7:-16.12 8:-12.11 9:4.96 10:-10.73 11:-6.42 12:-12.6 
0.007697338419063444 0:25.49 1:-16.68 2:-8.32 3:2.31 4:-6.76 5:-18.57 6:-24.17 7:-16.28 8:-14.65 9:13.75 10:-7.96 11:1.97 12:-2.59 
3.339572152744122e-06 0:23.21 1:-15.68 2:23.29 3:-11.86 4:-8.17 5:9.18 6:-28.54 7:5.14 8:8.98 9:2.25 10:-5.08 11:4.13 12:-11.59 
1.117119986502207e-06 0:23.75 1:-2.42 2:-4.93 3:-21.13 4:-12.45 5:-18.81 6:4.04 7:-21.19 8:-18.99 9:-0.82 10:8.58 11:-0.94 12:-4.69 
7.486084962013415e-05 0:25.96 1:-14.83 2:5.81 3:-12.28 4:-2.69 5:-26.69 6:-15.61 7:-4.05 8:-26.82 9:7.13 10:-11.75 11:4.88 12:-17.83 
0.0001175791571483937 0:25.57 1:-14.2 2:15.17 3:-24.9 4:-3.72 5:0.34 6:-28.11 7:-16.65 8:0.65 9:5.69 10:-8.59 11:10.33 12:-3.04 
2.792966466682718e-07 0:25.02 1:-10.66 2:11.69 3:-0.6 4:-24.34 5:-22.92 6:-16.07 7:-7.96 8:-13.33 9:-1.47 10:0.11 11:8.22 12:-3.01 
0.0001729913832166639 0:24.12 1:-7.78 2:1.87 3:-18.31 4:-26.47 5:-9.6 6:0.31 7:-16.42 8:-20.34 9:18.12 10:-7.6 11:7.26 12:-20.62 
8.22972626137538e-06 0:24.15 1:-18.7 2:-4.27 3:9.58 4:-11.68 5:-31 6:-6.02 7:2.43 8:-28.39 9:0.92 10:-3.32 11:-11.24 12:-7.78 
6.561737376721339e-06 0:25.17 1:-8.23 2:3.61 3:-14.58 4:-0.62 5:-22.42 6:-19.32 7:3.86 8:-24.84 9:1.56 10:-13.23 11:-3.84 12:-14.26 
-3.222664750292896e-07 0:25 1:-22.24 2:-20.98 3:-9.19 4:-17.97 5:-40.12 6:-14.08 7:-16.88 8:3.75 9:-5.46 10:-4.58 11:-7.08 12:-12.82 
-6.783693194361273e-06 0:22.73 1:-9.83 2:23.19 3:-12.79 4:-8.05 5:0.6 6:-29.44 7:9.31 8:-14.69 9:13.78 10:-5.03 11:6.09 12:-11.69 
-2.662042198959729e-06 0:25.23 1:-12.95 2:5.86 3:-12.74 4:-7.61 5:-20.32 6:-11.14 7:-7.98 8:-0.44 9:12.48 10:-4.56 11:-7.27 12:-5.96 
-5.150600359970322e-06 0:24.39 1:-6.72 2:3.29 3:-0.82 4:-19.64 5:-17.63 6:-9.57 7:-13.38 8:-4.47 9:4.63 10:-11.3 11:-6.13 12:3.97 
6.349068974433186e-05 0:22.3 1:-21.14 2:12.41 3:11.85 4:-1.96 5:-9.23 6:1.08 7:10.2 8:-13 9:13.17 10:7.7 11:3.42 12:6.24 
3.112040706128336e-05 0:24.65 1:-7.74 2:13.96 3:-39.47 4:-18.46 5:-5.36 6:-19.35 7:-9.74 8:-7.43 9:15.19 10:0.28 11:-0.58 12:-1.07 
0.001800028533375329 0:24.04 1:-7.82 2:11.84 3:-22.62 4:-23.7 5:-5.24 6:-24.37 7:-3.62 8:-5.32 9:7.27 10:-0.37 11:-5.71 12:6.51 
5.14091379902845e-05 0:23.97 1:-12.92 2:-23.61 3:-27.55 4:-16.71 5:-13.93 6:-13.99 7:-9.39 8:-8.03 9:-6.71 10:0.52 11:-10.82 12:-11.46 
0.001235029093920241 0:24.7 1:-10.5 2:16.54 3:-0.94 4:3.68 5:-13.68 6:-29.04 7:-1 8:-14.65 9:-13.07 10:-11.43 11:-13.6 12:-14.84 
2.465009695477141e-05 0:24.57 1:-8.21 2:5.77 3:-17.27 4:-19.6 5:-13.91 6:-8.93 7:9.25 8:-29.63 9:-10.99 10:0.31 11:-0.01 12:-7.74 
0.0007516672865683844 0:24.8 1:-5.51 2:-18.32 3:2.7 4:-4.89 5:-43.82 6:-20.65 7:-25.56 8:4.06 9:1.33 10:25.41 11:-11.15 12:-9.59 
2.390745015402306e-05 0:20.02 1:-4.79 2:6.86 3:2.1 4:-2.94 5:3.07 6:-9.5 7:9.56 8:-9.72 9:13.12 10:1.51 11:7.63 12:4.65 
0.001940776180896162 0:21.6 1:-2.09 2:4.05 3:-4.24 4:9.72 5:-12.78 6:-1.33 7:-27.2 8:5.45 9:7.06 10:1.96 11:-13.85 12:-2.97 
-1.363628531110788e-06 0:22.24 1:-11.32 2:5.93 3:-7.85 4:2 5:-23 6:-15.37 7:-17.73 8:10.99 9:-11.64 10:6.38 11:2.22 12:1.71 
0.001332715278962169 0:24.44 1:-9.87 2:6.42 3:5.88 4:-10.26 5:-36.79 6:-16.69 7:-33.9 8:17.16 9:-4.89 10:5.7 11:19.06 12:-9.19 
9.078724753905094e-06 0:23.96 1:-12.15 2:-4.44 3:13.26 4:7.72 5:-37.46 6:-20.12 7:-19.27 8:-14.24 9:-10.34 10:-6.66 11:30.13 12:-16.5 
1.761834837986441e-07 0:24.05 1:-5.97 2:-2.54 3:-23.97 4:-3.62 5:-7.76 6:0.41 7:-16.62 8:2.17 9:0.86 10:10.04 11:-10.47 12:-6.75 
0.000461193852986495 0:22.56 1:-9.84 2:16 3:-18.51 4:5.96 5:-13.33 6:5.73 7:4.73 8:5.02 9:1.89 10:9.4 11:0.55 12:-1.97 
6.449689297960829e-07 0:26.41 1:-21.9 2:15.05 3:2.19 4:-21.8 5:-10.79 6:-10.76 7:-7 8:-6.66 9:13.37 10:3.75 11:-11.81 12:14.75 
-0.0002027153609568211 0:25.6 1:-19.96 2:15.62 3:1.08 4:-1.39 5:-11.7 6:-25.03 7:-29.16 8:4.77 9:-2.1 10:5.98 11:-15.38 12:7 
-0.0001103472805343411 0:24.62 1:-9.29 2:10.51 3:-11.52 4:-8.88 5:-27.75 6:-12.7 7:-15.71 8:-4.45 9:-6.79 10:23.1 11:4.76 12:-12.56 
0.001988644796693665 0:22.7 1:-20.44 2:11.87 3:11.93 4:-2.69 5:-15.32 6:-1.94 7:4.64 8:-19.37 9:17.38 10:1 11:6.75 12:11.36 
-1.076222156430585e-05 0:21.76 1:-12.52 2:14.28 3:-2.08 4:-11.68 5:3.19 6:-9.64 7:10.92 8:-3.73 9:12.08 10:-5.29 11:3.05 12:1.49 
-0.0002716747380194855 0:25.61 1:-19.27 2:2.48 3:-2.5 4:-7.52 5:-2.37 6:-11.69 7:-11.38 8:3.36 9:-13.01 10:4.97 11:11.48 12:-4.42 
0.0001349236096358618 0:24.5 1:-9.92 2:8.39 3:-26.35 4:-24.91 5:-4.21 6:-17.91 7:-13.92 8:-1.75 9:13.92 10:-10.35 11:10.55 12:-22.04 
0.0007317430922440183 0:24.21 1:1.05 2:-10.39 3:-39.01 4:-9.82 5:-8.34 6:-31.02 7:-8.63 8:-8.15 9:-6.98 10:9.8 11:-4.24 12:-15.9 
-3.789531007649964e-05 0:24.94 1:-12.46 2:8.03 3:-35.89 4:-22.12 5:-0.98 6:-22.64 7:-5.38 8:1.57 9:5.9 10:3.02 11:2 12:-15.74 
2.188345679150595e-07 0:23.13 1:3.76 2:-1.06 3:12.88 4:-11.26 5:-38.68 6:-11.24 7:-23.41 8:11.53 9:-27.98 10:-10.17 11:30.7 12:-3.4 
8.345550985478531e-05 0:23.85 1:-2.23 2:-12 3:-15.42 4:9.83 5:-36.66 6:-3.98 7:-44.92 8:-5.41 9:10.65 10:-2.27 11:11.01 12:-17.28 
-1.784143804244318e-06 0:25.06 1:-20.49 2:-10.04 3:-13.9 4:-8.71 5:-42.15 6:-9.77 7:-7.94 8:-0.54 9:10.6 10:-8.73 11:-24.84 12:-9.51 
-0.0003037946241372571 0:24.78 1:-21.42 2:-7.27 3:-34.02 4:-22.16 5:-13.13 6:-11.86 7:-2.02 8:-10.27 9:-5.89 10:-5.25 11:-4.37 12:-25.38 
-0.002899643898949177 0:24.16 1:-14.31 2:14.34 3:-12.33 4:5.42 5:-17.68 6:-7.59 7:-17.57 8:15.24 9:-16.27 10:9.99 11:6.61 12:2.75 
-4.76294448791739e-05 0:24.97 1:-14.18 2:3.41 3:5.34 4:-10.01 5:-48.63 6:4.58 7:-1.4 8:-6.97 9:10.28 10:-18.84 11:-0.71 12:-8.86 
-0.00101208519565615 0:24.04 1:-8.23 2:15 3:3.48 4:-15.11 5:-13.23 6:-27.76 7:-6.3 8:2.49 9:-8.37 10:-1.86 11:3.03 12:-5.49 
-0.0001829669754570178 0:24.19 1:-10.25 2:14.11 3:-18.42 4:-22.69 5:-6.34 6:-13.99 7:-19.06 8:11.19 9:-5.54 10:10.7 11:-2.05 12:-12.15 
1.995213233175587e-07 0:23.9 1:-4.56 2:9.32 3:-20.05 4:-40.82 5:-1.2 6:-10.01 7:-11.73 8:-2.94 9:5.68 10:-2.75 11:8.05 12:-2.31 
0.002582712326749892 0:26.48 1:-25.51 2:8.16 3:-2.36 4:-13.59 5:-14.77 6:-22.94 7:-21.1 8:-4.68 9:12.55 10:0.43 11:2.5 12:-15.52 
0.0004553915518469578 0:24.3 1:-1.86 2:-2.03 3:-3.05 4:-29.35 5:-21.51 6:-5.97 7:-25.04 8:-17.95 9:17.8 10:-7.03 11:-4.89 12:-6.07 
6.138775840728042e-06 0:25.46 1:-16.41 2:-7.51 3:-14.2 4:13.42 5:-8.75 6:-13.25 7:-17.72 8:12.19 9:-8.38 10:-7.94 11:18.24 12:-6.95 
9.465927764558295e-06 0:20.16 1:-3.12 2:2.61 3:8.32 4:-2.2 5:-6.72 6:-11.93 7:8.92 8:-15.89 9:7.9 10:6.44 11:7.64 12:5.97 
-0.0003023730157206945 0:23.32 1:7.97 2:-18.37 3:-5.11 4:0.41 5:-29.61 6:4.11 7:-30.93 8:-21.16 9:3.35 10:5.79 11:5.11 12:-19.51 
1.377553374991712e-06 0:25.48 1:-23.64 2:12.12 3:-5.02 4:10.74 5:-9.98 6:-2.81 7:0.7 8:1.92 9:-7.23 10:-0.99 11:-1.16 12:-0.58 
2.828040672566838e-05 0:21.63 1:-5.78 2:13.79 3:-13.06 4:2.89 5:-18.37 6:2.14 7:2.63 8:6.65 9:4.54 10:-3.99 11:2.12 12:-2.3 
-1.055279082448909e-05 0:23.89 1:-5.61 2:6.95 3:-11.86 4:-26.39 5:-21.13 6:-1.88 7:1.37 8:-17.89 9:-15.93 10:33.89 11:-13.43 12:-0.85 
8.523630983774545e-05 0:23.67 1:-22.27 2:19.92 3:5.68 4:-6.16 5:-2.64 6:-15.6 7:8.38 8:-17.04 9:7.44 10:10.12 11:-4.64 12:7.59 
2.479342780042097e-07 0:24.54 1:-19.3 2:-28.01 3:-25.45 4:-11.54 5:-38.51 6:-8.09 7:-6.18 8:-21.28 9:2.58 10:-10.22 11:-1.5 12:-5.85 
0.00058158550577297 0:24.01 1:-12.7 2:8.95 3:-7.21 4:-17.93 5:-15.52 6:-20.81 7:-13.26 8:13.63 9:16.98 10:-8.5 11:-4.18 12:5.24 
-0.0008973729826497815 0:23.16 1:0.53 2:-0.97 3:1.81 4:-10.63 5:-25.75 6:5.73 7:-12.99 8:-5.31 9:-34.65 10:-6.44 11:2.94 12:14.7 
1.090743722506224e-06 0:24.6 1:-9.62 2:5.48 3:-32.28 4:-13.4 5:-26.01 6:-3.99 7:-13.91 8:-15.7 9:4.89 10:-1.79 11:2.23 12:-4.56 
0.0001271660958872615 0:23.29 1:-6.4 2:14.04 3:-21.03 4:1.38 5:-27.21 6:6.24 7:-16.01 8:-1.02 9:-0.7 10:10.63 11:8 12:-5.18 
0.0003079155526563903 0:25.01 1:-12.39 2:1.64 3:-21.64 4:-10.78 5:-33.92 6:-16.41 7:-0.86 8:-32.04 9:8.66 10:-4.61 11:-3.08 12:-9.59 
0.0002218885564987338 0:23.68 1:-1.17 2:-6.33 3:22.56 4:-23.61 5:-54.15 6:-9.74 7:-7.13 8:-9.74 9:-10.21 10:-20.45 11:0.19 12:-5.82 
-4.514417288272319e-06 0:22.04 1:-15.14 2:12.64 3:-1.66 4:11.64 5:-11.41 6:2.47 7:16.22 8:-15.34 9:10.04 10:0.65 11:-1.21 12:-2.59 
-9.623951879521657e-08 0:24.64 1:-17.95 2:-29.76 3:-25.58 4:-9.87 5:-34.76 6:-12.24 7:-14.37 8:-6.04 9:-5.03 10:-9.6 11:-2.59 12:-12.78 
-0.0001611589113704215 0:25.61 1:-15.88 2:6.37 3:-36.24 4:-27.93 5:-9.28 6:-24.82 7:-4.46 8:-13.42 9:5.2 10:2.73 11:-4.08 12:-14.27 
6.006484295174292e-07 0:22.85 1:1.68 2:-10.59 3:-0.1 4:-16.88 5:-24.14 6:-18.72 7:-21.75 8:15.75 9:-5.56 10:-8.81 11:2.74 12:6.26 
0.0003685744214368631 0:23.57 1:-12.43 2:4.55 3:-4.02 4:-22.47 5:-18.73 6:-10.78 7:-7.85 8:-19.71 9:-3.68 10:-0.08 11:2.52 12:-5.95 
-0.001015851255258064 0:25.69 1:-16.26 2:14.49 3:-7.7 4:-29.18 5:-2.12 6:-4.06 7:-31.78 8:-1.26 9:24.11 10:-7.89 11:-7.57 12:-16.1 
0.002346579659538439 0:24.26 1:-7.3 2:-2.55 3:-14.62 4:1.32 5:11.41 6:4.83 7:-11.38 8:5.57 9:-0.15 10:3.76 11:-21.11 12:13.17 
-0.003385058964797017 0:19.93 1:-4.72 2:0.57 3:3.2 4:-0.27 5:3.36 6:0.93 7:0.54 8:-1.84 9:-4.41 10:-6.63 11:-3.96 12:-4.38 
1.601313688075179e-07 0:24.31 1:-13.86 2:7.07 3:-1.85 4:-10.69 5:-25.76 6:-34.47 7:-20.77 8:8.45 9:13.58 10:0.59 11:-15.7 12:5.54 
-0.0005943362389143931 0:26.73 1:-14.18 2:14.65 3:-14.67 4:10.23 5:-17.56 6:-4.1 7:-25.56 8:-15.99 9:-0.7 10:10.04 11:-0.73 12:0.05 
7.593536743608688e-05 0:24.67 1:-17.77 2:-19.59 3:-10.21 4:-16 5:-30.55 6:-3.07 7:-4.67 8:-9.81 9:-0.41 10:-2.37 11:-23.7 12:-7.92 
-0.0002935969886252163 0:26.12 1:-20.2 2:-1.65 3:-11.88 4:14.46 5:-17.79 6:-23.71 7:-26 8:-2.74 9:-0.12 10:9.13 11:13.23 12:-12.04 
-1.767064615707834e-06 0:26.36 1:-18.58 2:12.16 3:-17.99 4:-5.31 5:-22.67 6:-17.01 7:-20.2 8:-8.86 9:-1.66 10:4.45 11:3.43 12:-19.72 
-0.0001727194396631956 0:25.33 1:-19.73 2:-0.7 3:-35.71 4:-23.39 5:-13.37 6:-18.7 7:-3.47 8:-8.73 9:5.61 10:-5.43 11:-15.17 12:-18.35 
2.377481016518505e-07 0:23.18 1:3.26 2:3.53 3:-4.76 4:-22.2 5:-10.96 6:-16.59 7:-10.65 8:-31.6 9:-11.47 10:-2.75 11:15.82 12:-7.4 
-0.00057318207793676 0:25.32 1:-15.96 2:1.51 3:-9.19 4:6.77 5:-17.98 6:-9.63 7:-32.08 8:3.83 9:2.12 10:-5.35 11:10.98 12:-12.67 
3.196541468522381e-06 0:19.93 1:-3.69 2:7.23 3:2.64 4:2.4 5:-5.05 6:-5.57 7:1.34 8:-11.89 9:8.37 10:-1.34 11:8.78 12:3.35 
-2.574178267867273e-07 0:24.56 1:-7.58 2:-14.19 3:-2.81 4:-24.15 5:-21.3 6:-4.13 7:-15.61 8:-4.66 9:8.32 10:-13.42 11:7.58 12:-11.53 
0.001196067728393165 0:25.74 1:-14.38 2:18.12 3:-16.44 4:-8.82 5:-29.67 6:1.5 7:-13.96 8:-7.49 9:-12.19 10:-1.22 11:2.14 12:-3.73 
-0.002990661547419114 0:24.26 1:-5.75 2:-3.03 3:12.87 4:-1.48 5:-33.88 6:-17.87 7:-11.17 8:4.87 9:-9.47 10:-19.05 11:9.35 12:-8.95 
0.001557331924555944 0:25.45 1:-17.42 2:10.62 3:3.29 4:-21.05 5:-14.25 6:-32.97 7:-22.31 8:-4.61 9:8.95 10:-7.75 11:15.65 12:-14.55 
6.178644728146334e-06 0:22.81 1:-18.9 2:16.98 3:1.61 4:-5.63 5:3.15 6:-11.74 7:12.36 8:-12.2 9:26.27 10:-1.78 11:-7.67 12:7.38 
-5.499210007562626e-06 0:24.46 1:-8.66 2:13.89 3:-12.07 4:-21.25 5:-7.84 6:-20.09 7:-0.56 8:1.28 9:-1.73 10:9.61 11:4.75 12:-1.8 
-8.406923308165484e-07 0:22.88 1:-16.37 2:16.96 3:-4.69 4:6.21 5:-10.56 6:-16.42 7:22.34 8:-20.65 9:23.28 10:-4.23 11:13.4 12:-2.91 
1.067955784852559e-07 0:24.63 1:-11.25 2:4.23 3:-9.29 4:-29.48 5:0.61 6:-19.23 7:-19.85 8:-15.41 9:-7.23 10:9.5 11:11.69 12:-24.72 
0.0004079503254655134 0:23.89 1:-9.97 2:8.79 3:-17.65 4:-47.38 5:-10.19 6:21.46 7:-22.69 8:-19.43 9:3.08 10:2.06 11:5.91 12:-12.75 
-0.0003586773371307743 0:24.78 1:-20.06 2:-10.38 3:-9.52 4:-24.05 5:-14.72 6:-28.64 7:19.73 8:-15.24 9:-3.04 10:-5.21 11:-13.32 12:-7.51 
0.001415398533475818 0:24.84 1:-11.24 2:3.25 3:-27.44 4:-31.28 5:-10.38 6:-8.85 7:-7.57 8:-8.1 9:12.33 10:-1.49 11:7.26 12:-1.57 
-9.998335093552784e-05 0:24.08 1:-5.13 2:4.63 3:-13.36 4:-18.33 5:-2.28 6:-22.6 7:-21.26 8:8.45 9:2.66 10:1.95 11:-4.55 12:-11.7 
-9.566298094206627e-07 0:25.45 1:-12.44 2:4.75 3:-20.3 4:0.11 5:-19.05 6:-6.45 7:-6.74 8:-2.69 9:7.52 10:-15.78 11:12.19 12:-8.54 
-0.000790791533625076 0:25.85 1:-19.34 2:8.12 3:-8.79 4:-12.69 5:-5.13 6:-24.13 7:-19.5 8:-14.8 9:13.27 10:1.94 11:-0.01 12:-29.45 
-1.186383101410827e-05 0:23.99 1:-2.65 2:6.74 3:-13.75 4:-44.33 5:3.11 6:4.08 7:-25.79 8:-5.93 9:29.21 10:-0.98 11:13.59 12:-14.63 
0.001081247884660397 0:24.85 1:-10.77 2:6.98 3:-0.7 4:7.96 5:-23.91 6:-8.73 7:-30.37 8:-9.12 9:2.19 10:-1.95 11:11.13 12:2.84 
-0.0001127733985376758 0:26.04 1:-18.34 2:17.87 3:-8.44 4:-25.75 5:-10.33 6:-34.7 7:-7.55 8:-4.92 9:2.16 10:3.39 11:9.58 12:-21.39 
-0.004481837766318332 0:25.28 1:-10.04 2:19.44 3:-15.41 4:0.95 5:-16.13 6:-10.13 7:-3.85 8:-1.03 9:0.48 10:-0.89 11:-16.2 12:8.27 
0.0002160290768218886 0:24.47 1:-5.61 2:9.88 3:-20.22 4:-19.16 5:-9.89 6:-15.32 7:-9.93 8:9.92 9:10.18 10:-9.33 11:-0.68 12:6.35 
0.01133831783646233 0:24.65 1:-12.03 2:7.28 3:-18.16 4:-31.2 5:-3 6:-3.2 7:-7.68 8:-16.15 9:0.71 10:2.52 11:17.56 12:-6.32 
2.041761741923451e-06 0:25.86 1:-20.24 2:16.08 3:1.23 4:-20.36 5:-8.05 6:-37.43 7:-4.35 8:-8.21 9:-10.46 10:5.1 11:5.56 12:-10.38 
6.530353638653288e-05 0:26.03 1:-17.47 2:11.39 3:-26.04 4:-8.75 5:-18.6 6:-19.04 7:-9.19 8:-14.29 9:-10.5 10:9.8 11:2.09 12:-9.14 
0.0002534705625663909 0:25.31 1:-13.6 2:-4.79 3:11.54 4:14.09 5:-38.9 6:-13.28 7:-22.77 8:-31.33 9:2.58 10:-14.26 11:-12.97 12:3.02 
-2.803446762961662e-07 0:24.33 1:-21.06 2:-25.46 3:-17.36 4:-18.78 5:-16.33 6:-17.83 7:-13.15 8:4.04 9:-6.45 10:-9.43 11:-5.36 12:-20.95 
0.004021276202427946 0:25.04 1:-14.95 2:4.89 3:-15.87 4:-30.31 5:-3.31 6:1.29 7:-17.07 8:-16.95 9:6.31 10:-4.63 11:20.2 12:-14.01 
0.01290147382239527 0:23.6 1:-4.51 2:12.22 3:-16.1 4:-28.15 5:-7.68 6:-25.35 7:-15.1 8:-26.82 9:5.87 10:-1.89 11:2.89 12:-4.49 
-2.809766940867077e-06 0:24.6 1:-10.3 2:8.84 3:-14.29 4:-21.63 5:-14.06 6:-14 7:6.15 8:-5.61 9:-7.08 10:5.71 11:-9.37 12:5.04 
1.907651132588748e-05 0:26.53 1:-25.73 2:25.72 3:-11.29 4:11.07 5:-21.73 6:-18.97 7:-16.5 8:-14.92 9:-5.32 10:2.08 11:-1.26 12:-6.07 
9.860615397005157e-06 0:22.67 1:5.54 2:-6.24 3:-18.06 4:-2.78 5:-25.69 6:-29.39 7:-3.68 8:-12.4 9:4.31 10:-3.26 11:6.81 12:-0.17 
-1.666844954335165e-06 0:24.35 1:-13.98 2:9.21 3:-7.3 4:-20.13 5:-20.82 6:-25.14 7:-23.95 8:8.16 9:10.27 10:-4.43 11:-20.67 12:-0.78 
-3.461957282493841e-06 0:22.48 1:-15.28 2:22.38 3:-5.9 4:1.36 5:0.35 6:-18.32 7:19.7 8:-19.14 9:18.35 10:1.71 11:-1.05 12:5.8 
-0.001098969799624589 0:24.35 1:-7.09 2:2.32 3:-12.75 4:-16.64 5:-21.86 6:-1.12 7:-6.62 8:-10.06 9:16.94 10:-13.81 11:-23.32 12:18.17 
-2.505430084490811e-05 0:22.48 1:-12.63 2:11.33 3:-6.01 4:-9.79 5:-0.04 6:-13.23 7:4.85 8:-1 9:5.23 10:3.45 11:-8.34 12:-5.95 
2.873798896114044e-05 0:26.13 1:-18.58 2:-1.25 3:-20.93 4:-27.8 5:-18.95 6:-35.41 7:-21.44 8:-5.94 9:0.33 10:-10.14 11:-8.27 12:-18.06 
-9.903833340475456e-07 0:24.57 1:-10.76 2:1.13 3:-19.39 4:-22.63 5:-4.66 6:-16.12 7:-9.82 8:5.9 9:-6.38 10:8.99 11:-4.15 12:-6.15 
-0.0004434766846529787 0:24.16 1:-6.97 2:6.3 3:-20.02 4:12.09 5:-20.06 6:-1.52 7:-16.43 8:-10.19 9:-7.36 10:14.62 11:-4.77 12:-4.62 
5.122396166653905e-07 0:23.42 1:-18.8 2:20.36 3:-0.97 4:4.05 5:-17.94 6:-11.25 7:10.01 8:-24.97 9:24.47 10:-7.87 11:11.11 12:2.92 
-0.0005482178662074352 0:26.27 1:-17.41 2:6.68 3:-2.08 4:9.65 5:-19.48 6:-7.26 7:-27.02 8:3.43 9:4.33 10:-12.54 11:6.29 12:-1.83 
-5.271045930898983e-06 0:25.73 1:-19.19 2:14.42 3:-13.71 4:-5.11 5:-28.3 6:-14.3 7:-10.51 8:-4.99 9:3.32 10:-0.91 11:-3.75 12:-16.85 
-7.560446522549058e-05 0:24 1:-10.13 2:-7.22 3:11.24 4:2.84 5:-36.82 6:-32.83 7:5.05 8:-13.63 9:-22.3 10:-15.83 11:10.92 12:-7.32 
2.081487372009216e-06 0:22.26 1:-19.42 2:15.95 3:1.24 4:-3.81 5:8.68 6:-9.07 7:12.97 8:2.11 9:2.09 10:15.2 11:-8.36 12:11.01 
-7.769515758400566e-07 0:22.41 1:-13.52 2:20.36 3:-10.04 4:7.71 5:-6.7 6:-15.63 7:12.55 8:-11.1 9:14.23 10:-3.27 11:4.45 12:-2.04 
9.053557021527774e-06 0:26.12 1:-31.99 2:21.17 3:9.23 4:3.32 5:-32.32 6:-15.49 7:-25.61 8:0.59 9:8.64 10:0.32 11:7.41 12:-6.77 
-8.926787000149969e-08 0:26.39 1:-28.13 2:21.24 3:-6.17 4:-5.2 5:-17.75 6:-37.2 7:-28.58 8:4.6 9:-0.84 10:1.22 11:4.86 12:-9.07 
-1.486757254363382e-07 0:25.35 1:-13.64 2:11.95 3:-13.05 4:-18.76 5:-17.42 6:-7.07 7:-17.94 8:-3.72 9:21.38 10:-16.24 11:-8 12:14.84 
2.645883159246843e-05 0:25.34 1:-15.75 2:5.24 3:-14.09 4:-14.15 5:13.25 6:-16.54 7:-9.74 8:-7.45 9:3.15 10:-0.69 11:5.51 12:-10.32 
6.36119884067248e-07 0:24.17 1:-10.39 2:14.44 3:-19.13 4:-17.77 5:0.66 6:-26.38 7:-11.58 8:2.94 9:-3.13 10:7.49 11:-7.48 12:1.31 
-0.005705825002740421 0:23.65 1:6 2:3.58 3:-19.23 4:-18.96 5:-21.75 6:-7.84 7:-15.82 8:-16.11 9:2.29 10:0.81 11:8.69 12:-4.91 
0.001539869737945529 0:24.32 1:-5.51 2:4.87 3:-20.43 4:-19.94 5:-18.53 6:-13.32 7:-26.34 8:-14.89 9:12.63 10:-6.75 11:4.49 12:-6.79 
0.003626925450767508 0:25.21 1:-16.12 2:10.49 3:-23.61 4:-43.56 5:0.41 6:-4.35 7:-11.92 8:-6.22 9:0.36 10:-4.86 11:14.65 12:-14.62 
-7.076361752688272e-07 0:24.33 1:-4.5 2:-1.08 3:-15.86 4:-7.09 5:-8.6 6:-4.12 7:-16.7 8:2.64 9:4.25 10:-5.63 11:-14.98 12:3.06 
0.000477207127110933 0:25.47 1:-9.69 2:12.32 3:-12.08 4:23.4 5:-9.97 6:-14.6 7:-13.36 8:-7.05 9:-18.16 10:-10.57 11:7.24 12:4.43 
0.0001846348372665397 0:25.94 1:-19.67 2:1.08 3:-11.39 4:-15.85 5:-5.88 6:-21.66 7:-12.22 8:-6.91 9:11.63 10:-2.76 11:12.8 12:-25.51 
-5.682409719244573e-06 0:20.07 1:-4.2 2:6.07 3:12.08 4:6.74 5:-6.72 6:-1.75 7:-7.58 8:-1.36 9:-7.03 10:9.61 11:2.34 12:-1.94 
-0.0008294179644461354 0:24.14 1:-5.68 2:0.16 3:-19.07 4:-12.29 5:-10.13 6:-21.55 7:0.79 8:5.19 9:-12.13 10:-2.3 11:-9.97 12:6.78 
1.576706208275105e-06 0:24.26 1:-13.32 2:10.06 3:5.46 4:-22.33 5:-23.26 6:-11.44 7:-11.39 8:4.77 9:19.81 10:-11.23 11:5.96 12:-2.53 
5.379026012561325e-05 0:24.81 1:-15.7 2:-9.44 3:1.98 4:0.24 5:-13.46 6:-23.69 7:-9.66 8:11.9 9:-0.99 10:-11.3 11:-7.58 12:-26.6 
-1.253894904508028e-07 0:24.55 1:-12.98 2:11.09 3:-6.33 4:-13.14 5:-23.85 6:-24.82 7:-12.66 8:0.87 9:-3.1 10:16.57 11:-8.14 12:-2.23 
-0.0003268281113770021 0:24.92 1:-11.55 2:12.02 3:-24.15 4:-2.68 5:-12.44 6:-31.24 7:-20.64 8:25.64 9:-9.67 10:6.36 11:14.82 12:-8.48 
0.0001951835276785116 0:25.23 1:-24.06 2:4.41 3:4.03 4:22.13 5:-19.44 6:-27.04 7:-31.49 8:11.74 9:3.05 10:-13.63 11:8.2 12:-6.42 
5.8845512131223e-05 0:24.55 1:-9.99 2:3.77 3:-23.88 4:11.49 5:-25.17 6:-32.47 7:1.17 8:-21 9:6.81 10:-4.04 11:-1.29 12:-10.8 
-0.0008912650761848328 0:22.06 1:-17.22 2:8.59 3:9.8 4:7.43 5:-23.48 6:11.93 7:9.25 8:-19.22 9:11.85 10:4.02 11:-1.4 12:-3.74 
0.003390044686998655 0:24.73 1:-10.51 2:3.53 3:-14.27 4:-28.1 5:-11.07 6:-10.49 7:3.56 8:-24.33 9:9.58 10:3.86 11:2.01 12:-2.95 
0.001191626209582197 0:24.72 1:-20.81 2:-22.72 3:-11.93 4:-25.12 5:-40.5 6:-17.27 7:-3.77 8:-3.09 9:5.6 10:-11.47 11:-0.07 12:-18.2 
0.0002801428901306115 0:23.73 1:-5.39 2:-1.78 3:-11.87 4:6.53 5:-22.79 6:-18.01 7:-12.49 8:-12.5 9:-12.25 10:-22.33 11:33.72 12:-12.73 
1.822362314128742e-05 0:21.35 1:-9.02 2:9.92 3:-4.96 4:-3.25 5:-7.38 6:-11.44 7:9.21 8:-9.43 9:10.9 10:4.61 11:11.66 12:6.5 
6.228558695491681e-07 0:23.59 1:2.05 2:7.02 3:-7.4 4:-30.52 5:-17.27 6:-5.3 7:-2.98 8:-8.22 9:9.8 10:-7.04 11:3.31 12:-4.01 
2.204727083893024e-07 0:23.86 1:-15.58 2:21.6 3:-8.28 4:-0.5 5:-8.49 6:-29.4 7:18.03 8:-21.7 9:32.21 10:-14.06 11:10.62 12:-0.84 
-1.041246435473525e-05 0:24.34 1:-10.11 2:9.43 3:-15.16 4:-25.18 5:-13.35 6:-8.42 7:-19.01 8:-17.25 9:17.35 10:-5.62 11:-11.87 12:-16.57 
5.227629613132633e-05 0:26.17 1:-22.83 2:8.09 3:8.45 4:-10.52 5:-16.87 6:-9.71 7:-24.05 8:-6.65 9:5.6 10:9.68 11:-4.14 12:3.18 
0.0002960885056806616 0:24.31 1:-4.65 2:1.69 3:-34.99 4:-8.03 5:-5.98 6:-31.73 7:-1.16 8:-5.3 9:10.84 10:0.3 11:-0.88 12:-2.62 
9.4268640293981e-08 0:23.67 1:-6.22 2:10.96 3:1.56 4:-21.65 5:-26.52 6:-10.51 7:-21.14 8:-0.1 9:20 10:-9.16 11:-7.02 12:8.95 
3.296978689664522e-06 0:26.23 1:-13.65 2:0.56 3:-32.15 4:-30.61 5:-18.59 6:-28.4 7:-5.96 8:-8.93 9:-2.56 10:-11.23 11:-2.06 12:-19.65 
-1.27277454516174e-06 0:23.3 1:-1.93 2:-0.52 3:-13.11 4:-15.51 5:-26.56 6:-22.54 7:-3.06 8:-2.37 9:5.81 10:-2.4 11:-17.47 12:-5.36 
4.506151011963222e-06 0:23.72 1:-5.61 2:17.01 3:-21.14 4:-32.95 5:-13.69 6:-9.48 7:-9.17 8:-1.58 9:-6.07 10:9.71 11:-1.84 12:4.08 
0.001998137592195253 0:24.83 1:-14.08 2:6.24 3:-17.08 4:-4.47 5:7.89 6:-18.02 7:-14.85 8:-8.43 9:-12.4 10:5.77 11:-1.57 12:-3.65 
5.099324435828134e-06 0:24.8 1:-19.39 2:-11 3:-21.41 4:-0.54 5:-39.2 6:-10.88 7:12.11 8:-17.29 9:4.79 10:-21.73 11:-21.8 12:-5.2 
2.324998835077943e-05 0:25.01 1:-9.98 2:7.1 3:-22.92 4:-7.58 5:-24.83 6:-21.27 7:3.37 8:-20.32 9:0.36 10:-9.54 11:10.17 12:-9.45 
2.180949032358624e-06 0:24.48 1:-2.82 2:-12.7 3:2.23 4:-9.28 5:-15.28 6:-22.85 7:-30.8 8:-2.36 9:15.68 10:-7.97 11:3.46 12:-7.13 
0.004882034582701446 0:24.49 1:-1.39 2:-12.96 3:-7.74 4:-5.81 5:-15.21 6:-15.92 7:-22.13 8:-20.65 9:6.77 10:14.54 11:-3.45 12:-4.04 
0.0002598186596152101 0:25.07 1:-13.53 2:14.25 3:-28 4:-30.41 5:-11.45 6:-18.13 7:-6.99 8:-18.29 9:8.81 10:0.17 11:13.01 12:-12.59 
1.181587369607497e-05 0:23.97 1:-9.66 2:0.99 3:-11.75 4:14.58 5:-35.24 6:-2.77 7:-14.76 8:0.72 9:10.1 10:6.14 11:5.02 12:-5.57 
1.078809291669308e-05 0:26.19 1:-21.44 2:18.77 3:-1.02 4:-8.04 5:-27.08 6:-44.44 7:1.52 8:-6.25 9:2.12 10:-11.47 11:3.43 12:-12.77 
0.0351954413904377 0:25.49 1:-14.96 2:9.62 3:-8.27 4:-21.12 5:-10.87 6:-16.48 7:-9.16 8:-15.57 9:15.31 10:-8 11:-1.61 12:5.08 
4.670435680374789e-07 0:25.35 1:-13.95 2:15.88 3:-23.9 4:-9.97 5:-24.71 6:-13.46 7:-5.81 8:-17.68 9:-0.45 10:0.2 11:-0.29 12:-5.62 
0.001141607333543664 0:24.14 1:-11.8 2:16.23 3:-5.14 4:-23.13 5:-23.64 6:-16.08 7:4.31 8:-12.82 9:-6.52 10:0.7 11:5.33 12:9.15 
-0.0001882868728259595 0:24.63 1:-7.52 2:-2.26 3:-0.76 4:-17.79 5:-29.86 6:-3.32 7:-23.41 8:-1.38 9:10.12 10:3.91 11:-16.42 12:-25.63 
4.733083956985264e-06 0:22.82 1:-7.56 2:9.02 3:-17.63 4:8.94 5:-22.49 6:-9.46 7:2.41 8:-2.76 9:4.26 10:15.5 11:0.51 12:-2.1 
-0.001977601465597625 0:25.72 1:-14.1 2:4.51 3:0.73 4:16.75 5:-28.82 6:-11.32 7:-16.58 8:-20.92 9:4.64 10:4.12 11:-1.52 12:-13.34 
0.002194940758525867 0:23.21 1:10.61 2:4.83 3:-22.56 4:-21.99 5:-11.03 6:-27.35 7:-7.97 8:-30.05 9:-6.47 10:-10.42 11:2.77 12:-3.65 
2.717955891968428e-06 0:25.73 1:-12.99 2:4.19 3:-25.8 4:9.63 5:-40.22 6:-6.97 7:-21.9 8:-2.44 9:-5.67 10:6.26 11:9.27 12:-9.81 
-4.140694748239102e-06 0:24.86 1:-21.19 2:-11.25 3:-18.4 4:7.42 5:-49.54 6:-23.75 7:-4.69 8:-9.39 9:11.99 10:-10.38 11:-5.68 12:-5.89 
2.995496369371064e-05 0:24.32 1:1.09 2:-7.03 3:-16.9 4:7.73 5:-19.92 6:-1.86 7:-22.11 8:0.88 9:-17.36 10:-1.91 11:8.87 12:-8.27 
7.234917247862448e-06 0:25.15 1:-16.34 2:20.59 3:-11.5 4:-22.11 5:-1.27 6:-4.3 7:-19.01 8:4.33 9:-9.07 10:8.41 11:11.48 12:-3.86 
2.856608618598844e-05 0:24.7 1:-4.94 2:-6.82 3:-0.96 4:-22.99 5:-29.83 6:-12.81 7:-10.81 8:-12.86 9:22.93 10:-2.11 11:-15.4 12:-19.76 
-8.369405002059624e-05 0:24.14 1:-2.57 2:-15.22 3:8.41 4:12.98 5:-26.82 6:-17.83 7:-33.69 8:17.26 9:-11.74 10:-18.44 11:34.15 12:-13.16 
-0.0009188599034950435 0:23.05 1:6.09 2:-5.12 3:-7.32 4:-4.56 5:-28.52 6:6.32 7:-32.03 8:-6.97 9:-14.84 10:5.3 11:20.84 12:-9.76 
8.662036802877299e-05 0:24.81 1:-13.03 2:12.6 3:-3.95 4:-24.72 5:-8.15 6:-18.84 7:-12.99 8:1.98 9:4.22 10:11.08 11:-10.13 12:13.87 
2.746651819788967e-06 0:25.21 1:-16.6 2:3.52 3:-16.21 4:-11.65 5:-39.05 6:-2.99 7:0.84 8:-32.39 9:0.21 10:-14.99 11:-1.54 12:-12.61 
-1.195414907870284e-05 0:24.06 1:-15.4 2:-27.41 3:-12.2 4:-8.2 5:-56.29 6:-13.55 7:-19.24 8:10.39 9:2.52 10:-12.03 11:-10.56 12:-10.1 
-0.0007434070511328576 0:24.96 1:-15.07 2:-13.44 3:-25.34 4:-8.79 5:-36.09 6:-4.65 7:-2.92 8:-14.71 9:12.66 10:-13.38 11:-22.87 12:-10.15 
-2.873681742374996e-06 0:24.85 1:-8.1 2:-9.87 3:9.14 4:3.13 5:-40.12 6:-15.71 7:-27.33 8:2.68 9:-11.97 10:6.41 11:-0.12 12:-7.68 
-1.598645212468755e-06 0:25.25 1:-18.34 2:12.27 3:-22.54 4:3.97 5:-10.76 6:-43.06 7:2.1 8:-13.23 9:6.95 10:-0.36 11:-7.11 12:-16.69 
-2.884328062184454e-06 0:24.63 1:-9.5 2:7.69 3:-21.38 4:-24.13 5:-4.56 6:-18.14 7:0.91 8:8.28 9:-7.38 10:7.42 11:-11.55 12:6.25 
0.0004957153765642162 0:23.98 1:-4.57 2:19.43 3:-27.19 4:8.99 5:-22.12 6:-22.62 7:0.18 8:-14.52 9:-8.1 10:-18.68 11:15.44 12:-5.31 
4.983384849321643e-07 0:25.96 1:-15.15 2:4.19 3:-13.91 4:9.35 5:-42.68 6:-1.28 7:-21.38 8:-6.35 9:3.32 10:-2.36 11:-9.46 12:-12.85 
1.764697224512768e-05 0:23.74 1:-7.3 2:-3.31 3:27.27 4:-1.99 5:-19.7 6:-28.55 7:-10.98 8:-18.4 9:-30.34 10:0.97 11:17.27 12:7.37 
0.0002394705245858419 0:24.79 1:-17.08 2:-23.1 3:-9.65 4:-21.44 5:-33.87 6:-7.66 7:-8.46 8:-11.12 9:-8.66 10:4.95 11:-10.3 12:-3.88 
1.303589291256095e-05 0:25.65 1:-17.77 2:6.86 3:-0.75 4:-14.41 5:-9.71 6:-10.32 7:-28.37 8:-4 9:3.31 10:4.65 11:1.04 12:7.12 
5.913286507839533e-08 0:24.76 1:-10.52 2:17.67 3:-15.47 4:2.02 5:-35.39 6:-20.64 7:-17.93 8:13.18 9:1.95 10:1.64 11:7.67 12:-3.46 
0.004431800745398836 0:24.73 1:-12.55 2:2.65 3:-17.27 4:-27.93 5:3.5 6:-4.6 7:-18.55 8:-15.99 9:6.83 10:-0.73 11:12.15 12:-12.05 
0.002881903459776304 0:26.08 1:-20.79 2:19.63 3:1.1 4:-12.36 5:-30.91 6:1.5 7:-8.51 8:-19.76 9:24.26 10:-8.71 11:4.46 12:7.22 
-6.206732336853013e-06 0:24.12 1:-5.48 2:6.15 3:-8.07 4:-15.33 5:-3.23 6:-26.73 7:-11.02 8:-3.12 9:-1.2 10:19.06 11:3.06 12:-6.96 
4.822175927114185e-05 0:21.35 1:-11.33 2:8.32 3:-4.04 4:5.77 5:-4.24 6:5.3 7:-11.73 8:8.69 9:-13.44 10:2.28 11:-9.28 12:-1.46 
-5.371388053907503e-07 0:25.19 1:-15.65 2:2.52 3:-1.72 4:7.31 5:-28.55 6:-29.83 7:-21.73 8:-6.79 9:7.7 10:-8.84 11:-6.09 12:-14.27 
-2.077576496068196e-06 0:21.79 1:-11.57 2:19.72 3:-5.8 4:2.71 5:-4.28 6:-14.01 7:4.94 8:-7.25 9:-0.12 10:7.26 11:-1.89 12:1.77 
4.982680380669341e-06 0:24.55 1:-9.43 2:-8.01 3:-11.62 4:17.1 5:-15.06 6:-12.83 7:-23.26 8:-10.03 9:4.32 10:-0.36 11:16.83 12:-12.61 
8.617733975702271e-06 0:24.06 1:9.11 2:0.14 3:-15.7 4:-15 5:-11.3 6:-32.59 7:-6.4 8:-25.61 9:2.08 10:-1.42 11:12.55 12:-5.77 
0.000225721258582471 0:24.62 1:-9.1 2:7.46 3:8.76 4:-15.56 5:-19.41 6:-21.95 7:-23.44 8:-7.29 9:-16.66 10:3.27 11:-11.4 12:8.91 
1.887905859903645e-06 0:24.4 1:-17.85 2:17.27 3:-11.99 4:1.45 5:-14.13 6:-24.96 7:-21.14 8:21.88 9:3.09 10:-8.49 11:5.45 12:3.02 
0.0007167978008958647 0:23.48 1:15.53 2:-12.88 3:4.23 4:3.2 5:-37.76 6:-15.58 7:-19.7 8:-6.24 9:13.42 10:3.77 11:2.59 12:-14.97 
-6.384650958139342e-07 0:24.69 1:-16.59 2:3.95 3:3.53 4:-6.34 5:-39.82 6:-28.75 7:-8.01 8:-21.27 9:11.18 10:-12.99 11:-14.72 12:-7.59 
0.0001017252034616116 0:24.44 1:-21.01 2:-27.77 3:-17.81 4:-26.49 5:-34.4 6:-7 7:-12.46 8:-5.91 9:5.68 10:-17.29 11:1.57 12:-28.49 
5.65498423105484e-08 0:24.78 1:-20.48 2:-23.3 3:-21.15 4:-3.72 5:-42.37 6:-19.98 7:-12.97 8:-2.52 9:4.99 10:-22.59 11:-9.7 12:-11.01 
5.816931603675732e-07 0:20.27 1:-4.35 2:11.35 3:-6.03 4:2.73 5:-3.17 6:-13 7:11.02 8:-15 9:15.76 10:-0.68 11:12.05 12:2.91 
-2.394219825320799e-06 0:24.46 1:-9.65 2:3.51 3:-0.21 4:-12.98 5:-30.64 6:11.85 7:-34.92 8:3.03 9:-7.64 10:-2.68 11:14.45 12:-3.22 
4.500566960546984e-07 0:23.64 1:-7.89 2:10.78 3:-13.86 4:15.65 5:-8.3 6:3.5 7:4.18 8:-2.23 9:-4.96 10:-1.5 11:-11.98 12:-3.2 
2.999197463448493e-05 0:24.68 1:-11.19 2:7.47 3:-26.92 4:-36.97 5:4.13 6:-6.09 7:-25.72 8:-3.04 9:20.26 10:-7.63 11:1.3 12:-14.16 
0.0001468593564819152 0:24.92 1:-20.03 2:-11.5 3:-30.05 4:1.46 5:-34.58 6:-21.27 7:-8.18 8:-26.6 9:-0.34 10:-3.61 11:-5.51 12:-13.77 
0.00048916170168051 0:25.04 1:-12.1 2:23.55 3:-9.18 4:-9.53 5:-13.93 6:-3.27 7:-17.83 8:-24.49 9:8 10:-12.37 11:-4.2 12:-16.4 
4.794742440038534e-08 0:25.39 1:-22.07 2:-12.89 3:-33.22 4:-0.82 5:-35.2 6:-24.24 7:-0.02 8:-16.65 9:8.94 10:4.83 11:-15.35 12:-7.59 
-4.036368169436273e-05 0:24.55 1:-11.55 2:-7.56 3:-3.4 4:-20.25 5:-42.07 6:-30.98 7:8.12 8:-15.51 9:-9.62 10:18.66 11:-20.96 12:-3.3 
2.809946035695175e-07 0:25.45 1:-10.02 2:5.9 3:-17.11 4:8.61 5:-28.82 6:-14.29 7:-2.57 8:4.32 9:-2.97 10:-0.52 11:-16.5 12:-1.36 
-7.277225589543199e-05 0:25.08 1:-14.17 2:8.83 3:-13.16 4:-14.23 5:-21.7 6:-13.9 7:-9.53 8:-4.9 9:17.95 10:-15.28 11:-11.52 12:3.29 
6.477577757993611e-07 0:24.06 1:-4.25 2:-4.21 3:-9.46 4:-5.51 5:-44.2 6:6.34 7:-23.5 8:-2.25 9:1.56 10:8.17 11:6.27 12:-3.69 
-7.562129729551489e-05 0:24.46 1:-5.98 2:7.14 3:-16.63 4:-9.85 5:-31.72 6:1.93 7:-8.65 8:-8.34 9:-4.41 10:17.56 11:3.5 12:-12.65 
-9.541662187541479e-08 0:25.1 1:-13.63 2:13.97 3:-18.35 4:0.77 5:-11.18 6:-19.1 7:-24.02 8:-6.81 9:23.06 10:-15.72 11:-1.06 12:-10.4 
6.698436087973041e-06 0:25.4 1:-12.52 2:-2.87 3:-5.64 4:19.62 5:-25.16 6:-26.65 7:-25.86 8:-16.04 9:5.7 10:0.81 11:0.77 12:3.14 
1.420087791560307e-06 0:25.43 1:-12.82 2:18.26 3:-17.97 4:-5.44 5:-30.79 6:-5.91 7:-14.47 8:-20.88 9:5.21 10:-4.62 11:-5.24 12:-8.41 
-3.186831770176492e-06 0:22.25 1:-12.83 2:16.48 3:-8.83 4:-4.24 5:7.93 6:-19.04 7:18.43 8:-6.86 9:10.15 10:3.29 11:-2 12:-3.12 
-4.742135665439847e-07 0:24.43 1:-10.08 2:6.37 3:-9.88 4:-22.74 5:-18.99 6:-10.21 7:2.2 8:-1.39 9:-13.84 10:7.43 11:-11.35 12:6.07 
0.001677526695923446 0:23.68 1:-7.4 2:16.2 3:-14.51 4:-29.97 5:-12.22 6:-4.27 7:-13.46 8:0.97 9:-0.19 10:0.87 11:16.55 12:2.06 
0.001212603105563205 0:24.75 1:-22.98 2:7.65 3:15.89 4:5.39 5:-40.09 6:-23.94 7:-9.05 8:8.93 9:-0.39 10:-15.41 11:-4.05 12:-9.44 
0.0001116333735809951 0:25.72 1:-14.2 2:3.36 3:-16.35 4:-17.46 5:-18.29 6:-15.32 7:1.26 8:-28.78 9:17.64 10:-10.82 11:-4.31 12:-9.73 
1.258229357833e-05 0:22.85 1:-15.3 2:15.7 3:3.3 4:6.99 5:-28.46 6:0.62 7:10.98 8:-32.78 9:27.43 10:-0.76 11:-1.02 12:-1.18 
0.001071394368090557 0:25.13 1:-14.4 2:11.47 3:-6.93 4:-22.53 5:-4.74 6:-28.6 7:-23.47 8:4.39 9:3.88 10:1.48 11:-7.53 12:2.79 
-4.771652255415782e-05 0:26.71 1:-24.84 2:5.82 3:3.2 4:16.96 5:-36.96 6:-18.97 7:-30.23 8:-14.64 9:14.22 10:6.11 11:0.57 12:-17.6 
0.003062304280283715 0:24.81 1:-21.4 2:-14.44 3:-21.53 4:-7.07 5:-24.06 6:-12.09 7:-7.73 8:-11.72 9:4.79 10:-6.22 11:-15.51 12:-6.1 
0.0001406185909553716 0:25.03 1:-11.16 2:12.35 3:-9.54 4:-17.56 5:-14.23 6:-8.76 7:-34.57 8:-21.75 9:15.71 10:-10.62 11:7.14 12:-21.88 
-0.0001371652453483888 0:22.31 1:-11.62 2:6.41 3:4.62 4:8.55 5:-21.86 6:-2.52 7:-15.18 8:7.08 9:-16.54 10:14.67 11:-4.12 12:3.16 
-0.0004495396565668281 0:24.45 1:-14.06 2:11.25 3:-3.63 4:-18.17 5:-24.09 6:-25.76 7:-22.27 8:7.21 9:12.07 10:-4.31 11:-21.67 12:2.9 
0.0005296798768989747 0:23.9 1:-1.6 2:7.08 3:-28.06 5:-16.54 6:-12.59 7:-28.54 8:-4.95 9:6.72 10:-24.12 11:11.69 12:7.22 
0.000363399463414856 0:24.02 1:-10.34 2:16.63 3:-14.22 4:-22.57 5:-2.61 6:-22.83 7:-5.45 8:1.52 9:1.29 10:6.62 11:6.76 12:2.6 
-0.0003867810837739256 0:24.65 1:-10.31 2:14.75 3:-14.64 4:-25.36 5:-12.86 6:-12.57 7:-25.7 8:-19.44 9:13.22 10:-5.54 11:-8.59 12:-20.45 
6.960277878982518e-05 0:26.25 1:-10.2 2:22.25 3:-20.13 4:0.68 5:-7.95 6:-8.43 7:-15.12 8:9.06 9:-14.76 10:-1.53 11:-17.7 12:8.14 
-2.158791164927173e-05 0:23.2 1:-11.67 2:13.37 3:-13.51 4:5.05 5:-17.78 6:-1.52 7:-12.31 8:-0.1 9:-5.12 10:22.82 11:-9.92 12:8.39 
-0.002060104499185273 0:24.17 1:-5.9 2:6.44 3:-32.71 4:-32.18 5:-5.71 6:-10.22 7:-2.79 8:-18.06 9:-1.59 10:9.24 11:10.29 12:-18.36 
-1.112775083270923e-05 0:25.95 1:-18.34 2:12.4 3:-7.43 4:-17.55 5:-3.52 6:-18.07 7:-21.77 8:-14.56 9:16.84 10:-1.41 11:-5.96 12:-18.59 
0.009328265446840751 0:24.71 1:-13.3 2:4.63 3:-7.48 4:-13.74 5:-14.22 6:-15.38 7:-13.89 8:-24.74 9:15.67 10:2.87 11:10.5 12:-13.12 
-5.824522414519281e-05 0:21.72 1:-12.28 2:15.04 3:-7.04 4:-3.78 5:12.77 6:-14.92 7:22.15 8:-4.19 9:11.94 10:2.25 11:-3.03 12:1.17 
-1.932785612146842e-07 0:24.09 1:-3.23 2:10.47 3:-15.8 4:-22.46 5:-14.26 6:-23.45 7:4.91 8:1.56 9:-5.51 10:10.08 11:-6.71 12:-2.28 
2.694970414160827e-06 0:24.69 1:-12.6 2:1.87 3:13.9 4:5.8 5:-15.81 6:-31.01 7:-14.15 8:-23.98 9:0.06 10:-1.01 11:-4.6 12:6.24 
-5.036633904523196e-07 0:24.68 1:-9.98 2:3.1 3:-11.52 4:-47.23 5:2.33 6:4.73 7:-19.43 8:-9.17 9:18.35 10:-3.24 11:8.07 12:-11.59 
0.004269657342016486 0:22.98 1:-1.05 2:6.82 3:-11.33 4:-6.5 5:-12.36 6:-27.5 7:-14.05 8:-8.52 9:-10.35 10:-11.33 11:18.94 12:5.64 
6.814702215829485e-06 0:25.01 1:-14.57 2:14.18 3:6.5 4:-17.72 5:-27.57 6:-26.58 7:-9.98 8:0.34 9:5.14 10:0.92 11:-7.09 12:17.8 
-8.885034294569999e-06 0:22.1 1:-12.39 2:14.82 3:-4.77 4:7.52 5:-10.95 6:3.34 7:4.76 8:-12.7 9:11.78 10:-3.88 11:0.72 12:0.41 
1.822406514556197e-07 0:24.14 1:-21.25 2:20.88 3:-2.23 4:-2.89 5:-13.79 6:-8.97 7:15.32 8:-23.83 9:20.23 10:0.01 11:-3.3 12:8.5 
-0.0003464308145334214 0:22.3 1:-11.85 2:18.06 3:-4.88 4:-6.51 5:-8.75 6:-0.98 7:-10.76 8:8.05 9:3.33 10:4.91 11:5.05 12:-14.28 
-0.000656598693931592 0:24.38 1:-8.3 2:9.58 3:-15.91 4:-12.2 5:-30.64 6:-14.31 7:-3.43 8:-8.29 9:11.7 10:-7.44 11:-13.04 12:1.95 
-1.954900590700764e-06 0:23.4 1:-2.85 2:4.68 3:-14.82 4:5.36 5:-32.55 6:-33.34 7:-10.66 8:4.38 9:-14.67 10:-3.7 11:8.88 12:-1.23 
0.005917119515336486 0:24.7 1:-11.06 2:6.52 3:-19.51 4:-8.82 5:-13.94 6:-29 7:-10.58 8:-9.74 9:24.84 10:-1.28 11:-13 12:10.6 
-1.227171628345729e-07 0:25.97 1:-21.04 2:-6.29 3:-7.87 4:-3.68 5:-36.12 6:-8.2 7:-13.88 8:-1.63 9:5.31 10:4.19 11:-11.62 12:-16.71 
-0.0002674615239522034 0:24.87 1:-21.51 2:-28.26 3:-28.1 4:-7.94 5:-38.06 6:-3.19 7:-9.84 8:-10.83 9:-1.19 10:-12.67 11:-12.16 12:-11.73 
2.767677032399571e-07 0:24.27 1:-5.11 2:4.68 3:-17.53 4:-4.44 5:-3.33 6:-0.23 7:-18.45 8:-8.49 9:7.84 10:4.97 11:-11.8 12:4.97 
0.0001121472353139842 0:25.74 1:-11.71 2:12.84 3:-27.47 4:8.04 5:-41.11 6:5.32 7:-4.46 8:-19.46 9:-1.1 10:-1.43 11:7.82 12:-7.54 
5.859719073181639e-06 0:25.45 1:-16.09 2:8.66 3:-13.26 4:-21.58 5:-19.53 6:-35.52 7:-17.51 8:-14.71 9:8.85 10:-10.07 11:-3.9 12:-7.23 
-1.73210235520402e-06 0:24.11 1:-8.97 2:9.66 3:-21.01 4:-23.34 5:-5.86 6:-14.66 7:-14.83 8:-6.78 9:9.32 10:-0.73 11:-1.59 12:-14.32 
0.0002578404864165864 0:26.31 1:-24.15 2:11.11 3:6.74 4:0.08 5:-9.78 6:-41.94 7:-6.57 8:-12.33 9:-2.68 10:-1.3 11:2.99 12:-19.73 
8.313430430104541e-06 0:21.11 1:-8.27 2:17.36 3:-8.63 4:5.76 5:-14.14 6:-3.37 7:5.22 8:1.51 9:13 10:10.17 11:0.51 12:-0.06 
-0.0001692164924031145 0:24.72 1:-7.66 2:-12.5 3:-5.03 4:-1.43 5:-30.65 6:19.42 7:-31.54 8:-25.44 9:15.49 10:-4.5 11:-8.25 12:-15.64 
8.6220595759032e-08 0:26.43 1:-18.86 2:12.81 3:-25.6 4:-0.48 5:-13.89 6:-27.62 7:-17.4 8:-2.95 9:0.79 10:-1.44 11:9.6 12:-0.68 
-1.275261541459591e-06 0:23.2 1:-3.17 2:-3.05 3:1.54 4:2.42 5:-32.2 6:-30.34 7:-14.73 8:-16.11 9:-10.76 10:10.94 11:13.52 12:-11.37 
0.001447705427842726 0:24.33 1:-10.18 2:13.86 3:-22.11 4:-12.91 5:2.97 6:-25.55 7:-15.03 8:-10.99 9:3.17 10:11.83 11:2.22 12:0.64 
-1.752570612887589e-07 0:25.62 1:-13.86 2:2.91 3:-2.08 4:11.02 5:-39.64 6:-24.76 7:-1.84 8:-4.05 9:1.26 10:17.98 11:-15.55 12:-7.84 
5.696915322878573e-08 0:24.17 1:-15.83 2:-31.22 3:-40.63 4:-13.4 5:-24.33 6:-8.41 7:-11.37 8:-7.39 9:3.97 10:-12 11:-4.79 12:-17 
0.003699387160222465 0:24.97 1:-11.25 2:12.2 3:-12.44 4:-31.37 5:-7.3 6:-15.64 7:-33.37 8:-9.47 9:23.36 10:-5.36 11:-2.06 12:-4.34 
8.674585850522491e-08 0:24.47 1:-5.2 2:-2.39 3:-27.78 4:-4.21 5:-19.3 6:8.7 7:-21.49 8:-8.72 9:4.2 10:-1.24 11:13.15 12:-10.48 
0.0006183148385017355 0:24.88 1:-11.71 2:-5.52 3:-13.21 4:2.14 5:-7.69 6:-1.37 7:-24.53 8:-7.02 9:1.74 10:-1.02 11:-15.44 12:-1.77 
-2.178937400371383e-05 0:23.72 1:-15.62 2:-20.21 3:-16.17 4:-9.91 5:-27.53 6:-1.06 7:-6.02 8:-3.97 9:-3.44 10:-5.19 11:-12.32 12:-15.87 
8.606507044789548e-08 0:25.92 1:-12.62 2:11.18 3:-15.82 4:6.39 5:-27.78 6:-11.29 7:0.92 8:-16.89 9:10.82 10:-10.97 11:-10.03 12:-15.39 
-4.210305849884899e-05 0:22.15 1:5.94 2:8.84 3:-33.48 4:-12.14 5:-8.31 6:7.22 7:8.74 8:5.27 9:-18.98 10:17.89 11:-8.9 12:13.04 
0.0001618676254130149 0:23.81 1:-4.45 2:14.53 3:-28.72 4:-37.68 5:7.27 6:-14.42 7:-11.12 8:10.91 9:-10.35 10:9.54 11:-5.01 12:-3.99 
0.0008582852406992753 0:23.81 1:-5.53 2:-12.61 3:17.94 4:-6.03 5:-31.94 6:-21.07 7:-28.31 8:3.85 9:-28.21 10:-1.61 11:18.85 12:-24.25 
6.339011216924713e-05 0:23.13 1:2.08 2:2.03 3:-9.92 4:-15.64 5:-6.98 6:-27.43 7:-10.33 8:-34.92 9:-0.74 10:0.06 11:6.52 12:-11.75 
-7.751396149268708e-05 0:24.77 1:-9.54 2:4.79 3:-7.28 4:-34.19 5:-1.31 6:-20.25 7:-19.89 8:-4.79 9:6.4 10:3.31 11:3.41 12:-22.13 
4.369202763726875e-05 0:24.94 1:-9.7 2:-5.71 3:2.12 4:-2.31 5:-14.09 6:-41.04 7:-20.36 8:-4.92 9:4.57 10:-0.45 11:-4.34 12:0.26 
0.000204138860310826 0:26 1:-23.16 2:2.68 3:17.42 4:9.42 5:-39.7 6:-23.74 7:-10.26 8:-4.35 9:-3.13 10:2.79 11:-18.78 12:-11.23 
5.528107918013525e-05 0:24.93 1:-8.06 2:-13.45 3:8.56 4:0.38 5:-38.25 6:10.95 7:-29.95 8:-35.99 9:-9.44 10:-12.64 11:-2.38 12:-0.73 
-1.834106399399331e-05 0:24.32 1:-14.35 2:4.03 3:-9.53 4:-15.76 5:-12.65 6:0.08 7:8.58 8:5.11 9:1.68 10:-6.17 11:-5.41 12:-5.61 
7.285009978464643e-05 0:23.32 1:1.31 2:-5.6 3:-2.93 4:-7.6 5:-43.46 6:0.87 7:-30.16 8:-1.99 9:12.28 10:-22.37 11:10.7 12:-25.88 
6.754445810942798e-07 0:26.05 1:-23.17 2:12.96 3:-5.26 4:-12.14 5:-2.07 6:-33.36 7:-8.68 8:-17.53 9:-3.36 10:11.82 11:2.55 12:-17.14 
0.02882884160422656 0:24.47 1:-13.1 2:5.18 3:-7.29 4:-12.43 5:-0.85 6:-9.2 7:-25.63 8:-8.29 9:-2.7 10:-0.88 11:-2.9 12:2.94 
0.0002250770138609402 0:24.64 1:-13.75 2:16.56 3:5.6 4:-18.64 5:-28.87 6:-28.94 7:-8.26 8:0.65 9:15.31 10:-2.18 11:-9.59 12:13.48 
-3.566314416772841e-07 0:25.14 1:-19.57 2:14.28 3:-9.28 4:4.68 5:-25.85 6:2.02 7:-15.79 8:6.75 9:1.15 10:4.53 11:-0.03 12:-7.02 
0.009265211499932948 0:25.44 1:-15.43 2:1.89 3:-14.13 4:-20.38 5:-12.59 6:-20.59 7:-5.3 8:-24.21 9:12.78 10:-10.73 11:-8.57 12:-5.8 
-0.0001006594342292847 0:23.23 1:0.88 2:7.7 3:1.51 4:-8.64 5:-15.94 6:-33.37 7:-0.52 8:-14.78 9:-22.21 10:0.97 11:15.03 12:-3.71 
-7.581061992121988e-06 0:24.39 1:-14.19 2:8.39 3:12.49 4:-5.8 5:-15.43 6:-36.35 7:-22.84 8:-13.49 9:6.48 10:12.16 11:9.55 12:-18.06 
-1.954364916020778e-06 0:25.33 1:-12.89 2:14.66 3:-18.3 4:-10.14 5:-3.13 6:-25.72 7:-7.67 8:-8.3 9:-2.32 10:17.29 11:-6.12 12:-1.27 
-7.353963859776794e-05 0:26.26 1:-19.41 2:28.17 3:-24.88 4:4.02 5:-11.43 6:-20.2 7:-16.47 8:-10.29 9:7.67 10:-7.27 11:-6.14 12:-2.68 
-9.190814827372805e-05 0:26.43 1:-25.41 2:13.64 3:4.06 4:3.23 5:-10.92 6:-34.31 7:-27.76 8:0.08 9:-11.94 10:8.61 11:-5.47 12:-17.95 
0.0005516053657332826 0:24.13 1:-3.45 2:1.09 3:-5.67 4:-35.16 5:-27.71 6:4.07 7:-9.98 8:-19.39 9:18 10:-6.75 11:4.72 12:-22.66 
1.866820352994454e-07 0:23.66 1:-0.26 2:5.2 3:-17.04 4:-23.02 5:-13.14 6:-17.62 7:-10.78 8:-2.24 9:2.59 10:2.89 11:-2.82 12:5.51 
0.0001178918265196077 0:24.57 1:-6.24 2:13.63 3:-10.01 4:-8.47 5:-33.91 6:-6.16 7:-5.81 8:-8.94 9:15.47 10:-3.06 11:10.81 12:3.22 
9.111137471340625e-07 0:21.14 1:-14.73 2:15.17 3:-7.59 4:8.63 5:-0.04 6:0.67 7:5.17 8:7.73 9:3.77 10:8.42 11:5.53 12:2.16 
1.515650207672855e-07 0:26.58 1:-27.78 2:15.28 3:2.5 4:7.59 5:-17.96 6:-25.32 7:-13.71 8:-3.91 9:-3.21 10:4.81 11:0.65 12:0.18 
9.391218274781908e-06 0:24.3 1:-13.75 2:7.71 3:-17.4 4:-2.77 5:-17.11 6:-36.84 7:-8.67 8:-16.11 9:-8.41 10:-20.9 11:28.55 12:-14 
-0.0004514585826866372 0:24.42 1:-18.08 2:-33.12 3:-23.15 4:-12.7 5:-36.33 6:0.76 7:-10.41 8:-8.84 9:-2.63 10:-15.42 11:-6.2 12:-10.32 
-0.0006708395965510135 0:25.66 1:-19.75 2:4.05 3:-25.6 4:-27.59 5:-22.17 6:-11.06 7:-12.34 8:-10.98 9:2.53 10:4.31 11:-6.76 12:-20.25 
3.283607986078459e-05 0:22.2 1:-16.52 2:13.98 3:1.41 4:5.93 5:-22.73 6:5.96 7:10.88 8:-9.91 9:12.79 10:14.46 11:-9.25 12:8.34 
3.052815749205174e-07 0:23.57 1:-3.83 2:3.23 3:-9.96 4:-21.63 5:-14.33 6:-11.31 7:-17.95 8:20.95 9:-6.29 10:10.15 11:-8.83 12:1.4 
1.36359672229396e-05 0:26.1 1:-17 2:8.93 3:-17.22 4:-9.25 5:-24.5 6:-16.26 7:-19.61 8:-20.57 9:5.58 10:1.52 11:-2.88 12:-14.05 
0.0002060295027147658 0:25.49 1:-15.7 2:11.02 3:0.78 4:-24.84 5:-9.85 6:-20.6 7:-13.25 8:-9.66 9:12.71 10:-1.7 11:1.02 12:2.42 
0.02099765791071444 0:25.23 1:-12.61 2:-0.22 3:-11.08 4:-24.4 5:-19.6 6:-33.76 7:-4.07 8:-16.67 9:2.57 10:-9.07 11:-0.75 12:0.32 
3.82526846989152e-06 0:24.65 1:-8.72 2:-2.91 3:-10.96 4:-8.72 5:-32.65 6:9.62 7:-34.84 8:-1.55 9:9.7 10:-0.13 11:10.72 12:-1.97 
0.000126470980260598 0:24.8 1:-11.76 2:7.83 3:-20.63 4:-22.97 5:-6.06 6:-24.93 7:-8.46 8:-4.44 9:-1.64 10:-1.06 11:-4.17 12:5.67 
4.485641032562208e-06 0:23.76 1:-6.16 2:19.08 3:-18.27 4:-36.39 5:-14.94 6:1.4 7:-11.9 8:2.75 9:2.53 10:-3.37 11:11.12 12:-6.38 
-0.0001126160010846949 0:24.59 1:-12.14 2:5.18 3:-8.1 4:-13.5 5:-1.43 6:-16.04 7:-14.61 8:4.33 9:-9.26 10:-2.82 11:3.63 12:4.76 
0.001815811808909008 0:24.39 1:-3.47 2:-16.01 3:-3.14 4:-14.46 5:-15.3 6:-32.2 7:-29.46 8:2.89 9:2.91 10:6.07 11:4.42 12:-10.05 
2.304117417546627e-05 0:23.09 1:2.38 2:12.37 3:-20.63 4:-9.11 5:-19.7 6:-11.73 7:-11.21 8:-12.8 9:-3.31 10:-29.23 11:29.89 12:2.48 
-5.878374431008436e-06 0:26.61 1:-23.56 2:8.29 3:-28.33 4:-19.2 5:-26.83 6:-1.52 7:-12.19 8:-6.84 9:1.91 10:1.97 11:-13.11 12:-16.14 
-0.0003328927197487179 0:24.46 1:-9.61 2:12.65 3:3.61 4:-28.87 5:-37 6:2.68 7:-20.34 8:12.17 9:-16.72 10:6.81 11:9.69 12:-3.53 
0.001068271933962585 0:25.26 1:-17.6 2:9.45 3:-15.25 4:-35.65 5:-1.29 6:8.8 7:-12.57 8:-9.01 9:2.91 10:-5.91 11:24.27 12:-18.38 
0.002107217931402899 0:24.15 1:-7.65 2:12.48 3:6.11 4:-16.32 5:-9.38 6:-12.7 7:-16.69 8:-11.17 9:-13.05 10:-13.2 11:-16.68 12:-2.48 
1.627807724897685e-05 0:24.26 1:-5.78 2:-11.1 3:-5.58 4:-3.33 5:-14.77 6:-31.65 7:-25.95 8:-2.07 9:6.36 10:6.52 11:4.09 12:-9.73 
1.938857823346878e-07 0:24.54 1:-11.2 2:3.57 3:-1.31 4:-16.16 5:-17.75 6:-32.84 7:-22.12 8:5.16 9:15.77 10:-6.53 11:-14.14 12:0.36 
9.831468032070127e-06 0:25.99 1:-12.17 2:10.16 3:-27.86 4:7.05 5:-29.68 6:-20.68 7:-11.27 8:10.33 9:3.93 10:-4.4 11:-11.77 12:-2.66 
-2.887434392169263e-06 0:21.86 1:-12.98 2:11.94 3:-6.97 4:2.83 5:2.29 6:-13.19 7:15.8 8:-6.89 9:3.83 10:3.12 11:-3.65 12:6.34 
-1.335929320195513e-06 0:25.46 1:-19.72 2:1.14 3:17.13 4:6.33 5:-39.61 6:-16.75 7:-15.54 8:-3.87 9:7.92 10:-9.52 11:-4.02 12:-16.77 
-4.4048587929622e-07 0:24.15 1:-16.02 2:1.88 3:19.04 4:-4.47 5:-27.76 6:-21.06 7:-12.84 8:-9.25 9:-0.55 10:-7.95 11:-10.48 12:-4.43 
-0.0001886881735162218 0:24.7 1:-9.47 2:11.3 3:-20.54 4:-25.15 5:-0.93 6:-28.35 7:-6.69 8:-9.54 9:5.25 10:-1.21 11:5.71 12:-28.68 
9.656061195914624e-05 0:23.69 1:-9.02 2:7.18 3:-18.84 4:-11.5 5:-15.95 6:6.21 7:-21.63 8:-1.22 9:-6.46 10:1.53 11:-14.26 12:-6.91 
0.005516898977323473 0:25.03 1:-14.38 2:-2.72 3:-23.36 4:-40.31 5:-21.17 6:-31.99 7:-7.98 8:-23.21 9:-17.45 10:-10.66 11:2.18 12:-9.86 
0.00741419954939351 0:24.38 1:-4.85 2:11.08 3:-21.58 4:-19.34 5:-5.02 6:-13.57 7:-19.44 8:-17.23 9:20.34 10:-0.53 11:15.12 12:-9.6 
-0.0007565655807313976 0:21.52 1:-12.6 2:7.87 3:0.22 4:-6.95 5:7.87 6:-5.72 7:13.65 8:2.63 9:9.55 10:0.21 11:-2.63 12:2.53 
0.002028473061341638 0:20.12 1:-3.82 2:3.19 3:8.85 4:-2.37 5:-9.79 6:-4.79 7:2.55 8:-12.5 9:11.25 10:4.56 11:8.33 12:6.46 
2.755569143880026e-06 0:24.21 1:-12.82 2:10.67 3:-3.36 4:9.76 5:-44.89 6:5.39 7:-24.67 8:1.16 9:8.12 10:1.12 11:2.79 12:1.9 
0.0116653750566974 0:24.56 1:-8.12 2:-3.59 3:-1.49 4:-14.54 5:-20 6:-26.27 7:-22.93 8:-10.21 9:13.42 10:-12.01 11:12.41 12:-5.74 
-3.993801462394832e-05 0:24.99 1:-13.92 2:11.58 3:4.58 4:-18.58 5:-14.03 6:-25.07 7:-22.78 8:-9.24 9:-8.27 10:1.4 11:0.19 12:-18.81 
0.0001856061341726716 0:26.39 1:-21.29 2:28.01 3:-9.98 4:-5.08 5:-7.52 6:-31.1 7:-25.8 8:21.47 9:-5.77 10:5.18 11:5.25 12:-0.61 
2.151900585215019e-06 0:24.78 1:-5.21 2:-0.88 3:7.95 4:-22.82 5:-23.61 6:2.87 7:-34.13 8:-4.68 9:15.55 10:-4.47 11:-2.83 12:1.96 
-1.027929992376674e-06 0:23.88 1:-7.58 2:2.51 3:-13.41 4:-22.38 5:-16.39 6:-10.46 7:-0.95 8:2.44 9:2.24 10:-18.62 11:-5.46 12:4.81 
-3.251752271775615e-06 0:22.66 1:-11.93 2:12.96 3:-8 4:9.32 5:-19.16 6:-14.22 7:-3.35 8:2.55 9:8.67 10:-2.89 11:-7.19 12:16.88 
-3.042427793251652e-05 0:26.92 1:-12.66 2:8.53 3:-22.77 4:17.96 5:-25.25 6:2.5 7:-32.21 8:1.92 9:-20.16 10:6.7 11:5.53 12:-11.34 
-8.761084940060776e-08 0:24.7 1:-3.39 2:4.08 3:-14.68 4:0.17 5:-44.68 6:0.99 7:-23.18 8:-0.08 9:-13.89 10:-6.35 11:13.23 12:-5.83 
0.0002457905713232957 0:24.26 1:-8.54 2:13.77 3:-25.78 4:-25.54 5:12.29 6:-20.99 7:-5.12 8:3.69 9:-3.63 10:11.37 11:-6.84 12:2.26 
0.0004438608042542191 0:26.42 1:-24.94 2:23.23 3:-0.9 4:-8.06 5:-9.65 6:-7.79 7:-9.15 8:-18.22 9:-0.45 10:11.96 11:-2.56 12:-1.86 
0.0001326020013739964 0:24.06 1:1.87 2:-3.15 3:-5.15 4:0.72 5:-21.81 6:-20.34 7:5.46 8:-7.26 9:6.34 10:-0.39 11:-9.18 12:-6.06 
-0.001716761175711882 0:22.07 1:-10.4 2:3.95 3:1.32 4:5.38 5:-20.39 6:4.95 7:-13.87 8:0.86 9:-7.48 10:11.11 11:-5.17 12:8.27 
-0.0003193882592269547 0:25.15 1:-13.46 2:1.17 3:4.91 4:-25.01 5:-21.63 6:-25.44 7:-2.63 8:-3.7 9:0.43 10:-16.66 11:-6.09 12:-6.79 
9.996525208835919e-06 0:26.18 1:-14.73 2:-2.99 3:-31.99 4:-27.12 5:-14.67 6:-30.65 7:-13.41 8:-13.15 9:-5.4 10:-1.32 11:-5.97 12:-22.42 
0.001055089237332761 0:23.24 1:5.23 2:-6.26 3:-29.31 4:-23.02 5:-16 6:-15.54 7:-0.41 8:-3.55 9:-5.67 10:-2.63 11:-9.79 12:-11.84 
-0.0002095660791021528 0:25.72 1:-16.27 2:5.08 3:4.01 4:-1.35 5:-20.07 6:-3.23 7:-6.82 8:-34.34 9:8.91 10:17.56 11:8.32 12:-3.04 
8.684688719488276e-07 0:22.25 1:-8.81 2:21.09 3:-14.55 4:8.99 5:-8.87 6:-10.7 7:8.66 8:-15.71 9:22.26 10:-7.71 11:9.28 12:-12.25 
3.980636415133088e-06 0:25.1 1:-12.6 2:4.42 3:-13.77 4:4.4 5:-28.37 6:5.36 7:-19.71 8:-0.81 9:-5.66 10:19.52 11:-11.48 12:-9.13 
-1.075458807957749e-05 0:26.04 1:-19.96 2:10.77 3:-8.77 4:21.29 5:-27.62 6:-23.47 7:-25.34 8:-9.91 9:9.5 10:2.59 11:-2.3 12:-11.12 
1.433152599309453e-05 0:23.83 1:-2.05 2:9.19 3:-15.77 4:-23.59 5:-19.96 6:-16.08 7:5.83 8:0.64 9:-6.99 10:2.38 11:-5.76 12:9.93 
1.841403532695633e-07 0:24.08 1:-5.55 2:10.25 3:-23.04 4:-17.48 5:-1.8 6:-18.94 7:-7.06 8:2.97 9:-6.43 10:-3.6 11:-14.34 12:7.07 
8.510867220455618e-05 0:23.28 1:-7.04 2:-38.19 3:-5.48 4:-28.15 5:-46.37 6:-15.33 7:-4.46 8:-2.03 9:-21.88 10:6.1 11:5.33 12:-2.98 
-0.0004067957384332066 0:23.56 1:-11.97 2:-23.87 3:-1.92 4:-24.52 5:-25.54 6:-13.74 7:-6.66 8:-13.09 9:-26.81 10:13.96 11:-3.66 12:-7.15 
6.15105578003318e-07 0:25.39 1:-12.86 2:2.74 3:-31.16 4:-5.93 5:-18.24 6:-20.25 7:-19.57 8:-6.71 9:-3.82 10:1.81 11:8.47 12:-11.07 
5.570532849035887e-07 0:23.68 1:2.54 2:0.62 3:-28.75 4:-13.97 5:-6.88 6:-31.62 7:-10.22 8:-12.29 9:6.43 10:13.28 11:-7.48 12:-5.58 
-0.0007740529378559473 0:23.01 1:0.67 2:2.88 3:-13.34 4:0.02 5:-27.66 6:-30.09 7:-12.2 8:-11.28 9:-4.07 10:3.95 11:8.28 12:-13.45 
7.639045523398281e-06 0:24.61 1:-13.32 2:6.01 3:-7.05 4:-27.03 5:-12.64 6:-16.16 7:-10.4 8:-6.07 9:6.61 10:10.38 11:-6.06 12:-0.25 
-3.329877423816171e-07 0:25.05 1:-10.49 2:-3.91 3:1.62 4:12.27 5:-28.91 6:-23.25 7:-33.44 8:1.97 9:-2.82 10:-0.13 11:9.69 12:-6.17 
0.0001710320921227403 0:23.96 1:-7.22 2:4.08 3:-3.49 4:-14.42 5:-24.82 6:-32.34 7:-5.15 8:-8.35 9:8.23 10:5.63 11:11.76 12:-9.48 
-0.0003109933400038576 0:24.61 1:-14.57 2:-11.8 3:-27.11 4:-14.54 5:-28.38 6:-19.58 7:-11.2 8:0.47 9:-8.58 10:6.15 11:-6.45 12:-8.46 
2.066501581495779e-07 0:21.83 1:-9.68 2:14.23 3:-0.86 4:17.05 5:-16.44 6:9.49 7:-10.88 8:6.34 9:-11.46 10:19.68 11:-3.21 12:-1.62 
0.001156591929093642 0:24.65 1:-8.24 2:-3.24 3:-18.72 4:-5.98 5:-14.62 6:-9.6 7:-18.75 8:-15 9:0.7 10:11.07 11:2.05 12:3.6 
4.223022786898126e-07 0:24.76 1:-10.46 2:20.87 3:-24.97 4:-20.95 5:-11.77 6:-20.9 7:-5.36 8:3.23 9:2.38 10:0.67 11:-2.34 12:-2.01 
0.01195671504019521 0:24.49 1:-15.05 2:8.65 3:-3.09 4:-11.66 5:-5.35 6:-22.19 7:-26.97 8:-14.15 9:-2.58 10:5.59 11:1.15 12:7.5 
0.009285925112441222 0:24.04 1:-2.33 2:-1.84 3:-15.12 4:-9.22 5:-9.99 6:-14.95 7:-26.82 8:-8.94 9:4.89 10:3.77 11:12.34 12:-8 
5.472706132665506e-08 0:26.38 1:-20.23 2:22.72 3:-17.74 4:1.17 5:-9.25 6:-25.29 7:-20.78 8:-0.47 9:16.77 10:-20.15 11:-1.34 12:4.29 
-1.830106302131805e-07 0:24.51 1:-14.81 2:9.06 3:1.22 4:-1.84 5:-32.78 6:-28.51 7:-0.94 8:-17.16 9:3.97 10:-8.51 11:-10.59 12:-7.77 
9.337412720042138e-05 0:24.29 1:-5.96 2:2.49 3:-31.38 4:-6.97 5:-10.38 6:-31.1 7:-3.13 8:-1.76 9:8.52 10:-6.79 11:1.87 12:2.39 
9.169963294503354e-08 0:25.36 1:-15.63 2:-3.19 3:1.49 4:17.45 5:-34.83 6:-28.18 7:-9 8:-20.37 9:8.41 10:4.9 11:-0.54 12:13.74 
0.0002153753186360421 0:24.41 1:-14.26 2:5.48 3:17.7 4:-6.7 5:-27.37 6:-31.76 7:-18.29 8:-6 9:3.46 10:-10.47 11:3.13 12:6.19 
-1.481721417715218e-05 0:24.66 1:-12.3 2:1.89 3:-7.56 4:-20.57 5:-7.13 6:-16.99 7:-9.18 8:1.56 9:8.44 10:5.47 11:-10.39 12:-11.56 
-1.341544475322965e-07 0:25.05 1:-15.09 2:-1.58 3:1.39 4:3.49 5:-30.23 6:-23.74 7:-10.21 8:6.9 9:3.03 10:-12.14 11:9.92 12:-16.51 
7.224245580270626e-07 0:25.59 1:-9.46 2:14.14 3:-5.27 4:-6.81 5:-25.77 6:6.9 7:-23.06 8:-0.46 9:-9.8 10:-5.27 11:-5.16 12:-3.45 
-0.0004632384502731625 0:26.31 1:-17.91 2:23.37 3:-19.96 4:-0.39 5:-11 6:-20.42 7:-11.37 8:-11.64 9:10.04 10:-6.96 11:-10.49 12:-14.82 
-5.274223199463624e-05 0:25.84 1:-12.94 2:15.95 3:-12.92 4:-9.67 5:-14.58 6:5.01 7:-24.6 8:-9.68 9:8.63 10:2.21 11:-9.12 12:-12.07 
-3.109150297383953e-07 0:23.02 1:2.9 2:-6.29 3:-0.21 4:-29.96 5:-17.34 6:-15.57 7:-12.83 8:3.3 9:-21.92 10:8.17 11:12.88 12:-4.01 
1.363973261390284e-07 0:24.01 1:-3.84 2:12.17 3:-15.62 4:-27.05 5:-5.86 6:-17.25 7:-19.36 8:2.41 9:-2.63 10:5.49 11:-10.72 12:0.86 
-0.0002152892684349597 0:22.82 1:-1.67 2:-6.78 3:0.37 4:-11.69 5:-21.8 6:-5.06 7:-22.52 8:13.11 9:-13.97 10:5.57 11:3.89 12:-0.89 
4.249088925769487e-06 0:24.9 1:-14.28 2:-8.14 3:10.37 4:-20.17 5:-26.96 6:-4.63 7:-2.52 8:-25.26 9:2.4 10:8.07 11:-14.39 12:-12.14 
7.059591516828617e-06 0:25.18 1:-14.29 2:10.57 3:-19.64 4:-3.75 5:-18.54 6:-15.1 7:-15.22 8:19.96 9:3.86 10:-3.56 11:-6.23 12:-12.38 
-0.0001446502915847522 0:25.55 1:-14.47 2:12.82 3:-6.82 4:5.81 5:-14.3 6:-2.61 7:-25.05 8:1.3 9:-3.73 10:-3.12 11:-3.42 12:-8.27 
-3.668146597320957e-05 0:25.02 1:-12.37 2:5.58 3:-14.07 4:-13.65 5:-14.56 6:-23.27 7:-13.73 8:1.74 9:-9.48 10:19.42 11:-3.67 12:-8.11 
1.393922197170975e-05 0:24.05 1:-5.06 2:-10.4 3:-22.2 4:13.36 5:-18.83 6:-8.2 7:-28.61 8:4.3 9:-9.62 10:6.14 11:19.05 12:-0.28 
-4.205097633163425e-07 0:24.9 1:-11.9 2:9.2 3:-4.33 4:-10.38 5:-2.92 6:-19.14 7:-13.09 8:-2.51 9:-7.49 10:-8.64 11:-13.94 12:9.82 
-1.720431662727236e-07 0:24.62 1:-11.17 2:9.19 3:-22.24 4:-34.34 5:7.41 6:2.05 7:-22.62 8:-1.43 9:18.03 10:-1.27 11:4.7 12:-12.06 
-4.984201871448819e-06 0:24.99 1:-15.89 2:-5.67 3:-27.12 4:-28.08 5:-19.25 6:-20.1 7:-6.86 8:-6.37 9:-1.27 10:8.49 11:-11.44 12:-11.21 
1.551373399662827e-05 0:24.93 1:-16.32 2:9.31 3:-11.28 4:-6.85 5:-31.07 6:-5.82 7:10.84 8:-27.32 9:-12.1 10:-17.27 11:-1.23 12:-0.57 
-2.733644333723103e-06 0:22.67 1:-13.25 2:8.77 3:-2.78 4:8.05 5:-13.01 6:6.3 7:-18.12 8:3.5 9:-12.99 10:4.28 11:9.18 12:-4.83 
-0.0005977737424439294 0:26.93 1:-16.89 2:-2.28 3:-31.24 4:-20.53 5:-5.99 6:-31.37 7:-0.82 8:-4.21 9:-4.46 10:1.16 11:-4.21 12:-19.22 
8.27145067318693e-07 0:24.03 1:-5.08 2:-4.29 3:-31.75 4:6.3 5:-13.89 6:-8.97 7:-14.19 8:6.37 9:-12.5 10:2.47 11:7.99 12:-2.32 
6.486419169355406e-05 0:25.1 1:-13.68 2:-4.75 3:15.76 4:7.08 5:-19.7 6:-55.49 7:-14.29 8:-0.01 9:-4.85 10:13.04 11:-12.9 12:-4.76 
-5.032211954291134e-05 0:21.93 1:-12.97 2:10.5 3:-7.22 4:-10.39 5:13.55 6:-6.53 7:21.34 8:-10.56 9:11.07 10:2.45 11:-2.2 12:5.79 
-6.226455014646162e-05 0:21.83 1:-14.17 2:17.97 3:-6.33 4:7.31 5:-10.86 6:3.3 7:-4.3 8:4.05 9:3.6 10:5.69 11:0.06 12:8.42 
-3.698152821965242e-05 0:25.02 1:-13.95 2:8.18 3:15.72 4:-9.68 5:-38.14 6:-3.5 7:-31.36 8:3.81 9:-0.91 10:3.02 11:6.88 12:-14.46 
0.001385870424592391 0:24.72 1:-9.9 2:-3.16 3:-18.46 4:-23.19 5:-0.23 6:-15.86 7:-13.28 8:-11.26 9:4.36 10:10.81 11:14.13 12:-12.92 
-1.053094285008657e-05 0:23.07 1:5.5 2:-17.3 3:1.97 4:-2.95 5:-23.93 6:-16.51 7:-37.27 8:9.87 9:-2.59 10:7.12 11:6.66 12:-17.44 
-0.0003039529600746928 0:24.26 1:-16 2:-12.98 3:-23.34 4:-28 5:-20.55 6:-7.88 7:-0.48 8:-3.47 9:-3.77 10:-0.08 11:-8.21 12:-12.04 
-6.78536105627301e-07 0:23.17 1:-18.35 2:11.53 3:7.58 4:-7.12 5:-24.66 6:10.04 7:-6.11 8:-9.42 9:16.99 10:5.51 11:-5.14 12:-7.6 
4.454875838147546e-06 0:23.95 1:-12.45 2:10.64 3:4.59 4:16.75 5:-32.35 6:-45.06 7:-22.26 8:-5.89 9:6.93 10:-12.45 11:-0.04 12:-7.1 
0.004144870884089027 0:23.29 1:-2.98 2:-11.13 3:-0.32 4:1.55 5:-4.7 6:-8.31 7:-34.35 8:3.55 9:-9.22 10:3.76 11:2.15 12:1.46 
-1.047702704999065e-06 0:24.87 1:-13.29 2:10.08 4:-20.39 5:-12.91 6:-12.68 7:-28.43 8:-18.04 9:3.84 10:4.88 11:-8.64 12:-17.62 
8.288526592821876e-06 0:23.91 1:-9.38 2:3.19 3:-22.96 4:-29.7 5:-4.25 6:5.36 7:-13.46 8:-25.06 9:5.37 10:6.6 11:13.69 12:-10.48 
6.420917565703978e-05 0:22.77 1:-16.24 2:16.25 3:-3.56 4:-2.71 5:-2.51 6:-18.02 7:14.94 8:-17.46 9:19.66 10:6.06 11:3.24 12:7.61 
0.0007131873707910463 0:22.71 1:-13.4 3:2.26 4:11.52 5:-37.99 6:-26.69 7:-9.9 8:-25.84 9:-0.79 10:1.88 11:9.53 12:-7.94 
-6.250250553817209e-08 0:25.23 1:-17.93 2:-2.85 3:-4.7 4:2.3 5:-17.86 6:-26.71 7:-19.99 8:16.13 9:-9.95 10:2.68 11:-0.98 12:-21.33 
-0.0001107666374585899 0:25.37 1:-20.19 2:-9.26 3:-42.62 4:-4.68 5:-32.68 6:-23.22 7:2.65 8:-8.15 9:3.21 10:-5.07 11:-14.86 12:-3.86 
0.0001713874960938284 0:25.1 1:-9.97 2:-3.49 3:8.99 4:-3.18 5:-36.93 6:-25.08 7:-8.41 8:-31.36 9:18.38 10:-7.22 11:-12.07 12:-9.97 
5.018279230991631e-07 0:22.67 1:3.7 2:-9.59 3:-2.67 4:-17.48 5:-20.72 6:-16.95 7:-29.55 8:10.91 9:-15.4 10:7.01 11:-7.4 12:3.55 
0.001596935942893858 0:19.86 1:-1.24 2:5.81 3:2.84 4:-3.12 5:-0.92 6:-14.06 7:9.13 8:-6.3 9:8.86 10:4.59 11:9.19 12:4.47 
-0.0002787206740588587 0:25.07 1:-14 2:7.89 3:8.7 4:-14.13 5:-20.87 6:-16.03 7:-26.22 8:12.14 9:9.15 10:-6.84 11:-12.78 12:1.24 
-1.326437006278086e-05 0:24.18 1:-10.69 2:8.74 3:-3.19 4:-23.22 5:-18.71 6:-0.74 7:-15.62 8:-4.12 9:10.63 10:-14.39 11:0.82 12:-3.83 
-4.812798186092445e-06 0:24.43 1:-6.36 2:12.28 3:-19.62 4:-14.74 5:-11.98 6:8.93 7:-17.26 8:-1.83 9:-0.64 10:5 11:-11.62 12:-3.53 
0.0003794731108258855 0:25.29 1:-21.36 2:-22.91 3:-31.8 4:-25.79 5:-32.52 6:-6.89 7:-2.8 8:-11.33 9:-0.85 10:-15.35 11:-9.49 12:-2.41 
0.0005843663048665497 0:24.55 1:-13.07 2:20.03 3:-27.35 4:-36.42 5:-5.78 6:15.85 7:-8.68 8:-13.68 9:-0.12 10:-6.6 11:15.82 12:-3.58 
-0.0001459741496886278 0:24.25 1:-9.41 2:2.73 3:-13.41 4:-12.03 5:-14.63 6:-7.98 7:-12.41 8:5.74 9:2.24 10:-21.38 11:-12.69 12:7.54 
0.000734104454723058 0:25.16 1:-15.57 2:12.11 3:-25.88 4:-10.97 5:-27.01 6:-10.74 7:1.03 8:-26.14 9:-6.76 10:-2.56 11:0.16 12:-1.46 
1.969191668588812e-07 0:25.66 1:-19 2:1.97 3:6.14 4:18.98 5:-28.91 6:-45.46 7:-17.87 8:-11.55 9:4.29 10:1.69 11:-3.33 12:11.39 
1.260720266303205e-05 0:26.07 1:-12.66 2:16.57 3:-24.67 4:14.08 5:-30.21 6:-8.72 7:-12.25 8:5.11 9:-0.72 10:18.21 11:-11.94 12:-9.44 
-7.122301825111334e-06 0:26 1:-21.78 2:1.44 3:-10.64 4:0.32 5:-27.7 6:-18.05 7:-23.32 8:11.41 9:6.07 10:-1.14 11:-12.57 12:-29.48 
4.607299545989221e-07 0:24.76 1:-14.86 2:5.27 3:-6.43 4:10.54 5:-40.13 6:5.48 7:-23.14 8:-1.12 9:-4.59 10:4.53 11:-1.11 12:-9.37 
4.459052037855949e-07 0:25.22 1:-18.52 2:8.84 3:1.16 4:-12.53 5:-23.82 6:-19.35 7:-23.03 8:-12.34 9:4.59 10:-2.58 11:4.28 12:-9.49 
-9.699236676593533e-05 0:23.52 1:-1.89 2:8.34 3:-6.63 4:-0.69 5:-18.19 6:-31.41 7:-21.46 8:14.33 9:-16.6 10:-3.82 11:17.59 12:-7.13 
3.264188065405483e-05 0:24.47 1:-4.89 2:10.42 3:-22.02 4:-19 5:-15.65 6:-6.33 7:-16.89 8:-11.86 9:7.5 10:-4.67 11:15.8 12:-9.52 
-3.394473843867222e-07 0:24.61 1:-11.66 2:3.17 3:-17.16 4:-24.27 5:-4.39 6:-12.21 7:-12.69 8:-11.23 9:-2.73 10:9.55 11:12.48 12:-18.57 
4.36088673601562e-05 0:24.86 1:-4.55 2:7.25 3:-24.34 4:-3.45 5:-33.15 6:-7.9 7:-9.82 8:-18.27 9:3.6 10:-12.17 11:0.78 12:-13.1 
-0.0001356115237984416 0:23.95 1:-19.1 2:-27.49 3:-19.87 4:-18.64 5:-37.62 6:-13.63 7:-3.26 8:-10.36 9:-2.74 10:-7.07 11:-18.8 12:-15.86 
-3.149193812608323e-07 0:24.2 1:-7.77 2:13.27 3:-10.67 4:-16.83 5:-27.44 6:-6.24 7:0.91 8:-10.49 9:16.08 10:-3.56 11:-3.75 12:-2.1 
0.004042729341774931 0:24.82 1:-7.1 2:-5.01 3:-12.06 4:-11.66 5:-18.83 6:-3.77 7:-18.61 8:-9.98 9:5.3 10:6.77 11:2.52 12:6.07 
0.01013213533354545 0:23.2 1:1.39 2:-2.18 3:-12.62 4:-21.93 5:-22.07 6:-6.82 7:-17.4 8:-30.49 9:11.48 10:-1.91 11:4.4 12:6.43 
8.247180862771039e-08 0:26.39 1:-22.4 2:16.6 3:-18.17 4:-3.4 5:-21.25 6:-27.22 7:-17.9 8:-6.21 9:-3.62 10:1.27 11:-0.43 12:-5 
0.00215959288200286 0:23.79 1:-1.88 2:11.42 3:-17.11 4:-14.44 5:-15.34 6:-0.04 7:-8.17 8:-25.22 9:7.66 10:-5.2 11:-2.1 12:-23.61 
7.517352405367089e-05 0:24.79 1:-8.53 2:9.15 3:-23.09 4:-1.53 5:-9.52 6:-24.38 7:7.59 8:-27.83 9:15.3 10:-5.4 11:-6.77 12:-3.4 
-3.580416610175008e-05 0:23.6 1:-9.89 2:-9.42 3:-22.48 4:-15.14 5:-36.11 6:-18.58 7:0.62 8:-13.89 9:-12.92 10:22.15 11:-12.18 12:3.87 
-6.664077008857545e-06 0:25.26 1:-17.9 2:-17.32 3:-9.18 4:-8.91 5:-49.37 6:-13.26 7:-3.37 8:-9.02 9:-1.82 10:-8.25 11:-13.13 12:-16.65 
-0.00103700962102077 0:24.48 1:-14.12 2:15.76 3:-21.45 4:8.98 5:-23.58 6:-4.53 7:-5.81 8:-13.26 9:11.56 10:-4.07 11:-6.27 12:13.69 
-7.197225648413594e-07 0:22.65 1:-2.17 2:-0.93 3:4.45 4:-10.82 5:-17.34 6:-18.92 7:-20.23 8:11.31 9:-14.71 10:2.51 11:3.74 12:4.28 
0.0001693826344051858 0:25.02 1:-17.46 2:0.41 3:-18.64 4:-26.5 5:-6.65 6:-0.5 7:-11.54 8:-16.72 9:-1.56 10:-4.1 11:16.64 12:-6.81 
1.62469491186954e-06 0:24.89 1:-9.95 2:8.06 3:-8.02 4:-18.44 5:-13.4 6:-8.28 7:-20.08 8:-10.34 9:13.23 10:4.55 11:12.5 12:-9.29 
8.101561723423681e-05 0:24.89 1:-12.88 2:9.66 3:-11.75 4:-21.14 5:-6.54 6:-15.31 7:-26.61 8:-11.01 9:3.97 10:3.35 11:8.92 12:-10.61 
-0.0002920347077449237 0:23.8 1:-12.4 2:2.75 3:-1.23 4:4.53 5:-36.37 6:3.15 7:-16.63 8:8.48 9:4.13 10:3.78 11:-12.37 12:17.2 
-0.0002944637747121666 0:25.82 1:-28.86 2:12.01 3:-4.59 4:11.08 5:-17.93 6:-26.58 7:-28.8 8:-15.72 9:2.12 10:14.95 11:-1.11 12:-7.68 
0.003271266397748834 0:22.79 1:-0.92 2:1.6 3:-25.48 4:-36.8 5:-0.54 6:-8.77 7:-7.68 8:-28.6 9:14.51 10:-0.04 11:14.62 12:-8.28 
3.593447440807156e-06 0:25.19 1:-15.07 2:6.29 3:-27.56 4:-34.12 5:-9.51 6:-19.21 7:-16.63 8:-16.3 9:11.3 10:2.9 11:7.35 12:-24.4 
0.003650845292821145 0:24.58 1:-5.36 2:5.14 3:0.67 4:-11.56 5:-10.81 6:-30.95 7:-20.21 8:-11.44 9:-4.96 10:1.28 11:13.84 12:-1.7 
1.848266185469194e-07 0:26.26 1:-18.33 2:1.63 3:-23.5 4:-26.71 5:-16.29 6:-29.97 7:-15.13 8:-6.47 9:2.76 10:-11.58 11:-9.35 12:-21.65 
-4.202633616574007e-06 0:25.6 1:-19.13 2:8.08 3:-1.68 4:-9.15 5:-46.05 6:10.42 7:-12.75 8:-5.88 9:-2.48 10:7.64 11:20.97 12:-15.3 
1.399580828577885e-05 0:26.25 1:-20.13 2:13.04 3:-12.15 4:18.64 5:-38.77 6:-11.46 7:-21.81 8:-10.43 9:-11.43 10:6.01 11:-0.75 12:-0.54 
0.004245553422210429 0:24.62 1:-15.86 2:13.59 3:7.13 4:-19.81 5:-29.01 6:-19.39 7:-16.65 8:-2.38 9:9.27 10:8.81 11:-4.34 12:12.05 
0.003911655715960231 0:25.67 1:-17.72 2:1.58 3:-27.73 4:-24.13 5:-11.28 6:-19.09 7:-16.89 8:-15.52 9:19.08 10:3.06 11:-7.63 12:-17.31 
7.223462818620006e-08 0:24.61 1:-11.35 2:8.4 3:-12.31 4:-16.75 5:-30.25 6:-21.22 7:-10.35 8:5.1 9:10.99 10:-9.65 11:-11.14 12:10.17 
0.0009543119278213079 0:25.3 1:-18.52 2:-30.76 3:-21.51 4:-15.73 5:-40.71 6:-4.7 7:-9.56 8:-14.3 9:-5.09 10:-16.38 11:-1.38 12:-5.19 
-2.844952580282924e-07 0:24.18 1:-6.73 2:5.97 3:-13.84 4:-12.11 5:-29.84 6:-11.86 7:-0.55 8:-20.13 9:-5.74 10:5.77 11:-2.91 12:-13.88 
-0.0002517912650372404 0:22.51 1:3.81 2:-6.65 3:0.97 4:-12.87 5:-22.9 6:-25.39 7:-1.08 8:6.09 9:-23.44 10:9.28 11:3.61 12:0.74 
2.405808245411757e-06 0:22 1:-13.22 2:10.53 3:1.81 4:-3.53 5:-11.63 6:7.96 7:9.8 8:-22.33 9:29.71 10:-10.04 11:-5.97 12:5.63 
-6.257728696536456e-06 0:24.89 1:-9.06 2:2.67 3:7.49 4:-13.18 5:-27.98 6:-21.26 7:-9.58 8:-10 9:14.77 10:-3.91 11:-11.32 12:-22.89 
2.963584439249736e-07 0:26.43 1:-22.3 2:4.04 3:4.81 4:-7.6 5:-33.39 6:-7.81 7:-30.84 8:-11.66 9:3.79 10:-1.34 11:0.5 12:-17.55 
2.324638983800031e-07 0:23.54 1:-6.94 2:-10.68 3:-8.64 4:-5.79 5:-13.78 6:-12.17 7:-27.16 8:-5.5 9:7.39 10:-0.8 11:-18.17 12:-13.01 
1.432242652818045e-06 0:24.91 1:-13.11 2:-15.37 3:-21.26 4:-19.15 5:-30.89 6:-11.25 7:-5.82 8:-11.65 9:7.2 10:-5.4 11:-13.21 12:-6 
0.0006927927531140402 0:22.33 1:-8.51 2:20.96 3:-7.31 4:13.36 5:-25.3 6:8.58 7:-9.83 8:0.04 9:-1.05 10:6.13 11:2.85 12:1.57 
0.0001283503033778104 0:23.86 1:-7.97 2:13.89 3:-30.25 4:-39.09 5:-4.15 6:5.36 7:-27.31 8:-6.61 9:20.3 10:-3.69 11:8.6 12:-16.09 
0.0003038194218992471 0:23.52 1:5.33 2:-6.02 3:-15.15 4:-21.95 5:-29.14 6:-18.75 7:5.14 8:-5.53 9:-10.73 10:-1.65 11:-12.75 12:-6.28 
3.520099137488443e-06 0:25.09 1:-9.12 2:1.95 3:-28.81 4:4.37 5:-37.93 6:-4.21 7:-11.07 8:0.76 9:-3.74 10:0.47 11:1.55 12:-11.93 
1.52398564195502e-06 0:22.06 1:0.55 2:17.38 3:-11.21 4:-20.16 5:-25.32 6:-6.36 7:8.64 8:-5.13 9:-19.81 10:10.12 11:20.42 12:-2.45 
-4.700449231025172e-05 0:22.53 1:-19.97 2:10.85 3:12.25 4:-7.96 5:2.04 6:-1.24 7:0.7 8:-7.33 9:27.41 10:-15.9 11:10.36 12:8.47 
-2.522384895928491e-06 0:21.73 1:-13.71 2:14.81 3:4.1 4:-1.8 5:0.75 6:-13.27 7:12.46 8:-6.39 9:8.24 10:2.46 11:10.2 12:-7.03 
-3.699762410687502e-06 0:23.92 1:-7.1 2:19.15 3:-14.74 4:-16.37 5:4.25 6:-21.97 7:-4.83 8:-21.62 9:-3.09 10:4.28 11:-13 12:-12.21 
-4.390141525472348e-05 0:24.93 1:-9.79 2:-1.77 3:7.34 4:-6.91 5:-32.53 6:-11.86 7:-25.75 8:9.97 9:11.58 10:-0.8 11:-4.28 12:-10.65 
2.772425812732851e-06 0:25.19 1:-10.66 2:11.88 3:-28.44 4:-4.74 5:-26.72 6:-19.44 7:-3.13 8:-20.29 9:8.12 10:-6.67 11:2.61 12:-2.85 
1.849839360402867e-05 0:24.43 1:-17.67 2:-18.19 3:-18.43 4:-11.71 5:-19.74 6:-22.37 7:-16.69 8:-8.53 9:-3.45 10:-3.9 11:-4.37 12:-14.39 
1.354601141992833e-05 0:25.34 1:-15.44 2:15.35 3:-13.89 4:-32.93 5:-12.06 6:-0.07 7:-7.07 8:-4.37 9:-0.59 10:3.5 11:12.56 12:2.13 
-5.937829649939637e-05 0:24.33 1:-21.77 2:-35.29 3:-29.08 4:-9.62 5:-31.46 6:-10.73 7:-10.41 8:-4.07 9:7.69 10:-20.49 11:-9.39 12:-10.16 
3.245651987263056e-06 0:25.06 1:-12.24 2:3.73 3:-1.39 4:-31.59 5:3.91 6:-13.75 7:-36.11 8:-2.15 9:22.14 10:-0.76 11:-7.52 12:-18.17 
4.685319841861304e-05 0:24.78 1:-19.39 2:14 3:-2.18 4:-4.51 5:-28.98 6:-27.66 7:-9.29 8:-17.74 9:-4.99 10:-10.26 11:-11.78 12:-10.34 
0.0004132307536531333 0:24.63 1:-9.86 2:-4.83 3:2.23 4:-12.75 5:-5.51 6:-47.37 7:-12.27 8:-9.97 9:3.24 10:10.57 11:11.54 12:-12.17 
-0.001228957063232361 0:24.66 1:-9.69 2:-1.82 3:-0.87 4:13.39 5:-23.01 6:-9.61 7:-28.46 8:-11.35 9:12.63 10:-4.27 11:2.21 12:-15.07 
-0.0006795161133476416 0:24.29 1:-5.81 2:-1.28 3:-8.15 4:-34.88 5:4.74 6:-4.74 7:-26.21 8:-4.81 9:19.15 10:3.4 11:9.32 12:-25.99 
4.198336394289413e-07 0:24.34 1:-10.75 2:1.71 3:8.26 4:-9.26 5:-36.47 6:-15.4 7:-11.68 8:-20.48 9:-3.72 10:13.82 11:-5.75 12:0.89 
-5.420844023154892e-05 0:23.35 1:5.18 2:8.79 3:-7.91 4:-18.64 5:-27.68 6:-36.62 7:8.72 8:-27.55 9:-9.42 10:-4.66 11:15.88 12:-10.03 
1.253913915828655e-06 0:25.29 1:-20.3 2:-0.28 3:-27.66 4:-43.4 5:-29.39 6:1.94 7:-13.62 8:-1.93 9:15.08 10:-14.31 11:-3.1 12:-15 
3.200707628246432e-07 0:25.26 1:-14.67 2:9.69 3:-5.23 4:-10.01 5:-12.33 6:-6.49 7:1.05 8:-24.15 9:-4.42 10:-0.5 11:-0.32 12:16.53 
-6.07582105674608e-07 0:26.05 1:-19.98 2:20.85 3:14.18 4:-3.04 5:-34.27 6:-7.41 7:-25.15 8:-0.76 9:-3.02 10:0.37 11:6.88 12:-0.96 
-6.736851349404879e-06 0:24.55 1:-8.23 2:5.46 3:-8.89 4:-17.08 5:-12.78 6:-29.22 7:-19.39 8:0.71 9:-2.67 10:-7.49 11:4.46 12:-12.15 
-3.431209856855436e-07 0:26.34 1:-14.89 2:10.89 3:-5.21 4:3.47 5:-16.9 6:3.06 7:-21.46 8:-4.5 9:-2.75 10:2.69 11:-14.29 12:-1.46 
9.860383642239011e-05 0:24.22 1:-1.76 2:0.54 3:-22.87 4:-20.6 5:-2.89 6:-1.55 7:-12.92 8:-20.07 9:-4.74 10:1.34 11:-0.01 12:-1.36 
