svm_type c_svc
kernel_type polynomial
degree 3
gamma 0.0833333
coef0 0
nr_class 2
total_sv 118
rho -3.04899
label 1 -1
probA -1.49973
probB -0.387926
nr_sv 67 51
SV
1.65485517987877e-06 0:26.1 1:-17.66 2:10.66 3:-0.52 4:-14.22 5:-13.52 6:-33.81 7:-10.35 8:-18.16 9:18.91 10:3.4 11:0.59 12:-6.21 
3.68507603565681e-06 0:24.45 1:-4.66 2:6.76 3:-14.02 4:-29.38 5:0.05 6:-11.5 7:-23.42 8:-11.7 9:24.42 10:-0.54 11:4.8 12:-6.63 
7.57806052666994e-07 0:24.8 1:-13.72 2:9.03 3:-14.57 4:-41.25 5:-6.7 6:3.6 7:-21.57 8:-11.32 9:-2.27 10:-6.95 11:11.59 12:-2.49 
2.09101802707794e-06 0:25.22 1:-15.86 2:-8.96 3:-10.18 4:-20.5 5:3.43 6:-20.16 7:-2.51 8:-9.01 9:10.54 10:-4.69 11:-1.85 12:-0.41 
1.3102855058717e-06 0:24.68 1:-9.89 2:3.96 3:-16.27 4:-6.93 5:-14.98 6:-35.1 7:-16.25 8:-9.84 9:26.1 10:3.19 11:-10.52 12:2.35 
8.444192422581352e-07 0:24.65 1:-5.91 2:-4.54 3:-17.26 4:-19.44 5:1.53 6:-15.12 7:-24.28 8:2.66 9:-7.96 10:3.18 11:4.05 12:2.65 
6.72902680715078e-10 0:23.53 1:-8.02 2:2.59 3:-1.35 4:-15.06 5:-31.09 6:0.48 7:-14.9 8:-11.16 9:-25.91 10:-0.78 11:24.7 12:-3.44 
2.251896327419849e-06 0:24.9 1:-10.97 2:6.12 3:-22.72 4:-10.77 5:-12.91 6:-29.68 7:-8.91 8:-21.57 9:28.92 10:4.57 11:-16.53 12:3.33 
6.172251881259814e-07 0:23.63 1:-4.04 2:7.61 3:-16.92 4:-9.61 5:2.4 6:-21.43 7:-7.51 8:-31.93 9:-7.93 10:-0.13 11:16.49 12:-15.44 
9.98052092334191e-07 0:24.49 1:-11.4 2:4.49 3:-21.27 4:-20.57 5:9.46 6:-2.17 7:-17.08 8:-12.39 9:21.11 10:-2.51 11:6.02 12:-5.85 
5.941748457593241e-07 0:23.42 1:-3.92 2:2.15 3:-31.7 4:-29.04 5:-9.33 6:-1.34 7:-26.87 8:-16.5 9:15.91 10:-6.92 11:4.39 12:0.79 
3.98490271272326e-07 0:24.59 1:-13.68 2:8.98 3:-11.38 4:-24.81 5:-20.09 6:-12.09 7:-28.23 8:4.46 9:21.93 10:-7.35 11:-5.21 12:10.44 
4.565747200155941e-07 0:26.57 1:-23.12 2:22.7 3:-20.46 4:-3.21 5:-15.54 6:-21.68 7:-18.49 8:-11.72 9:-5.68 10:0.06 11:12.3 12:-9.85 
2.674995639706828e-07 0:24.53 1:-9.39 2:-6.89 3:-17.81 4:-3.33 5:-12.12 6:2.72 7:-24.25 8:-9.16 9:1.26 10:-4.8 11:-8.96 12:-4.49 
7.67137927461451e-07 0:25.79 1:-17.93 2:15.42 3:-2.43 4:-30.71 5:1.23 6:-11.66 7:-17.77 8:-23.1 9:22.08 10:-7.72 11:10.17 12:-9.94 
3.419803798497554e-07 0:24.65 1:-12.63 2:-2.08 3:-20.47 4:-23.82 5:-4.04 6:-8.74 7:-11.49 8:-13.93 9:19.5 10:-10.05 11:11.44 12:-12.92 
9.624846669372453e-07 0:24.47 1:-8.24 2:-19.44 3:-8.6 4:-3.06 5:-37.58 6:-16.65 7:-26.81 8:-11.62 9:26.77 10:0.44 11:-4.79 12:0.39 
3.872767208121526e-08 0:24.19 1:-4.39 2:-7.64 3:-27.26 4:11.55 5:-21.84 6:-3.04 7:-24.07 8:5.79 9:-1.84 10:1.71 11:2.25 12:-21.42 
2.457214619960955e-07 0:25.42 1:-17.54 2:3.62 3:-18.78 4:-13.61 5:-31.63 6:-13.14 7:-8.97 8:-26.82 9:11.37 10:-8.18 11:0.82 12:-12.52 
1.370892816457098e-08 0:25.09 1:-16.58 2:8.37 3:13.77 4:12.43 5:-40.29 6:-42.22 7:5.17 8:-2.02 9:-10.88 10:13.99 11:-15.33 12:1.36 
1.0975450641885e-07 0:24.07 1:-4.55 2:5.46 3:-41.45 4:-8.74 5:-2.04 6:-33.84 7:3.44 8:-14.26 9:14.24 10:12.52 11:-5.52 12:-6.39 
3.116067333024151e-08 0:23.72 1:0.66 2:6.07 3:16.55 4:-21.24 5:-38.25 6:-5.92 7:-24.08 8:19.68 9:-14.82 10:-6.57 11:20.5 12:-4.08 
4.722307668991245e-07 0:23.34 1:-2.48 2:12.77 3:-20.89 4:-26.41 5:3.3 6:-20.33 7:3.32 8:-23.16 9:-15.93 10:5.12 11:14.5 12:-6.5 
7.008979973499221e-07 0:25.49 1:-16.68 2:-8.32 3:2.31 4:-6.76 5:-18.57 6:-24.17 7:-16.28 8:-14.65 9:13.75 10:-7.96 11:1.97 12:-2.59 
7.634725607869547e-07 0:25.96 1:-14.83 2:5.81 3:-12.28 4:-2.69 5:-26.69 6:-15.61 7:-4.05 8:-26.82 9:7.13 10:-11.75 11:4.88 12:-17.83 
6.614205053152718e-08 0:23.85 1:-2.23 2:-12 3:-15.42 4:9.83 5:-36.66 6:-3.98 7:-44.92 8:-5.41 9:10.65 10:-2.27 11:11.01 12:-17.28 
2.938483964476516e-06 0:23.6 1:-4.51 2:12.22 3:-16.1 4:-28.15 5:-7.68 6:-25.35 7:-15.1 8:-26.82 9:5.87 10:-1.89 11:2.89 12:-4.49 
4.461898812643302e-07 0:26.12 1:-31.99 2:21.17 3:9.23 4:3.32 5:-32.32 6:-15.49 7:-25.61 8:0.59 9:8.64 10:0.32 11:7.41 12:-6.77 
3.059688784880093e-07 0:24.73 1:-10.51 2:3.53 3:-14.27 4:-28.1 5:-11.07 6:-10.49 7:3.56 8:-24.33 9:9.58 10:3.86 11:2.01 12:-2.95 
8.098308138924342e-08 0:23.86 1:-15.58 2:21.6 3:-8.28 4:-0.5 5:-8.49 6:-29.4 7:18.03 8:-21.7 9:32.21 10:-14.06 11:10.62 12:-0.84 
5.321383952001544e-07 0:24.31 1:-4.65 2:1.69 3:-34.99 4:-8.03 5:-5.98 6:-31.73 7:-1.16 8:-5.3 9:10.84 10:0.3 11:-0.88 12:-2.62 
2.904718185743834e-07 0:24.48 1:-2.82 2:-12.7 3:2.23 4:-9.28 5:-15.28 6:-22.85 7:-30.8 8:-2.36 9:15.68 10:-7.97 11:3.46 12:-7.13 
1.421116602007029e-06 0:24.49 1:-1.39 2:-12.96 3:-7.74 4:-5.81 5:-15.21 6:-15.92 7:-22.13 8:-20.65 9:6.77 10:14.54 11:-3.45 12:-4.04 
3.133727936379275e-08 0:26.19 1:-21.44 2:18.77 3:-1.02 4:-8.04 5:-27.08 6:-44.44 7:1.52 8:-6.25 9:2.12 10:-11.47 11:3.43 12:-12.77 
9.00511529541851e-07 0:25.49 1:-14.96 2:9.62 3:-8.27 4:-21.12 5:-10.87 6:-16.48 7:-9.16 8:-15.57 9:15.31 10:-8 11:-1.61 12:5.08 
9.979173194861127e-07 0:24.14 1:-11.8 2:16.23 3:-5.14 4:-23.13 5:-23.64 6:-16.08 7:4.31 8:-12.82 9:-6.52 10:0.7 11:5.33 12:9.15 
1.642614381199586e-06 0:23.21 1:10.61 2:4.83 3:-22.56 4:-21.99 5:-11.03 6:-27.35 7:-7.97 8:-30.05 9:-6.47 10:-10.42 11:2.77 12:-3.65 
4.144831935167116e-08 0:24.7 1:-4.94 2:-6.82 3:-0.96 4:-22.99 5:-29.83 6:-12.81 7:-10.81 8:-12.86 9:22.93 10:-2.11 11:-15.4 12:-19.76 
3.734443362626994e-07 0:23.98 1:-4.57 2:19.43 3:-27.19 4:8.99 5:-22.12 6:-22.62 7:0.18 8:-14.52 9:-8.1 10:-18.68 11:15.44 12:-5.31 
4.086519641193459e-07 0:26.08 1:-20.79 2:19.63 3:1.1 4:-12.36 5:-30.91 6:1.5 7:-8.51 8:-19.76 9:24.26 10:-8.71 11:4.46 12:7.22 
3.104640831224151e-08 0:24.44 1:-21.01 2:-27.77 3:-17.81 4:-26.49 5:-34.4 6:-7 7:-12.46 8:-5.91 9:5.68 10:-17.29 11:1.57 12:-28.49 
1.469843135675917e-06 0:25.72 1:-14.2 2:3.36 3:-16.35 4:-17.46 5:-18.29 6:-15.32 7:1.26 8:-28.78 9:17.64 10:-10.82 11:-4.31 12:-9.73 
7.7976228436157e-08 0:25.03 1:-11.16 2:12.35 3:-9.54 4:-17.56 5:-14.23 6:-8.76 7:-34.57 8:-21.75 9:15.71 10:-10.62 11:7.14 12:-21.88 
5.553482531993169e-07 0:23.9 1:-1.6 2:7.08 3:-28.06 5:-16.54 6:-12.59 7:-28.54 8:-4.95 9:6.72 10:-24.12 11:11.69 12:7.22 
1.713772771026525e-06 0:24.71 1:-13.3 2:4.63 3:-7.48 4:-13.74 5:-14.22 6:-15.38 7:-13.89 8:-24.74 9:15.67 10:2.87 11:10.5 12:-13.12 
1.135068298267018e-08 0:24.17 1:-15.83 2:-31.22 3:-40.63 4:-13.4 5:-24.33 6:-8.41 7:-11.37 8:-7.39 9:3.97 10:-12 11:-4.79 12:-17 
1.153791975642272e-07 0:24.54 1:-15.6 2:13.93 3:6.61 4:-20.12 5:-30.01 6:-9.39 7:-13.07 8:-1.85 9:11.54 10:3.92 11:-1.92 12:12.74 
1.661933060571311e-07 0:23.81 1:-5.53 2:-12.61 3:17.94 4:-6.03 5:-31.94 6:-21.07 7:-28.31 8:3.85 9:-28.21 10:-1.61 11:18.85 12:-24.25 
1.488960757724797e-06 0:25.44 1:-15.43 2:1.89 3:-14.13 4:-20.38 5:-12.59 6:-20.59 7:-5.3 8:-24.21 9:12.78 10:-10.73 11:-8.57 12:-5.8 
1.025877858261184e-06 0:24.3 1:-13.75 2:7.71 3:-17.4 4:-2.77 5:-17.11 6:-36.84 7:-8.67 8:-16.11 9:-8.41 10:-20.9 11:28.55 12:-14 
5.941981471181988e-07 0:24.39 1:-3.47 2:-16.01 3:-3.14 4:-14.46 5:-15.3 6:-32.2 7:-29.46 8:2.89 9:2.91 10:6.07 11:4.42 12:-10.05 
4.055793915452334e-07 0:24.15 1:-7.65 2:12.48 3:6.11 4:-16.32 5:-9.38 6:-12.7 7:-16.69 8:-11.17 9:-13.05 10:-13.2 11:-16.68 12:-2.48 
2.051135710342775e-06 0:25.03 1:-14.38 2:-2.72 3:-23.36 4:-40.31 5:-21.17 6:-31.99 7:-7.98 8:-23.21 9:-17.45 10:-10.66 11:2.18 12:-9.86 
3.851108123415866e-06 0:24.38 1:-4.85 2:11.08 3:-21.58 4:-19.34 5:-5.02 6:-13.57 7:-19.44 8:-17.23 9:20.34 10:-0.53 11:15.12 12:-9.6 
1.694347011749855e-07 0:25.17 1:-10.09 2:-4.25 3:15.85 4:-20.85 5:-30.37 6:-6.59 7:-28.26 8:-11.7 9:-0.36 10:-10.38 11:-4.17 12:-18.63 
4.842166030070099e-06 0:24.56 1:-8.12 2:-3.59 3:-1.49 4:-14.54 5:-20 6:-26.27 7:-22.93 8:-10.21 9:13.42 10:-12.01 11:12.41 12:-5.74 
3.980349186256723e-08 0:24.26 1:-8.54 2:13.77 3:-25.78 4:-25.54 5:12.29 6:-20.99 7:-5.12 8:3.69 9:-3.63 10:11.37 11:-6.84 12:2.26 
1.636100122611379e-07 0:23.96 1:-7.22 2:4.08 3:-3.49 4:-14.42 5:-24.82 6:-32.34 7:-5.15 8:-8.35 9:8.23 10:5.63 11:11.76 12:-9.48 
4.857118987857794e-06 0:24.49 1:-15.05 2:8.65 3:-3.09 4:-11.66 5:-5.35 6:-22.19 7:-26.97 8:-14.15 9:-2.58 10:5.59 11:1.15 12:7.5 
5.654546746579845e-08 0:24.05 1:-5.06 2:-10.4 3:-22.2 4:13.36 5:-18.83 6:-8.2 7:-28.61 8:4.3 9:-9.62 10:6.14 11:19.05 12:-0.28 
1.326660142639851e-06 0:23.2 1:1.39 2:-2.18 3:-12.62 4:-21.93 5:-22.07 6:-6.82 7:-17.4 8:-30.49 9:11.48 10:-1.91 11:4.4 12:6.43 
3.663647045049155e-07 0:25.02 1:-17.46 2:0.41 3:-18.64 4:-26.5 5:-6.65 6:-0.5 7:-11.54 8:-16.72 9:-1.56 10:-4.1 11:16.64 12:-6.81 
2.669276243073593e-07 0:22.79 1:-0.92 2:1.6 3:-25.48 4:-36.8 5:-0.54 6:-8.77 7:-7.68 8:-28.6 9:14.51 10:-0.04 11:14.62 12:-8.28 
2.033326097949255e-07 0:24.62 1:-15.86 2:13.59 3:7.13 4:-19.81 5:-29.01 6:-19.39 7:-16.65 8:-2.38 9:9.27 10:8.81 11:-4.34 12:12.05 
1.617884980208635e-08 0:23.54 1:-6.94 2:-10.68 3:-8.64 4:-5.79 5:-13.78 6:-12.17 7:-27.16 8:-5.5 9:7.39 10:-0.8 11:-18.17 12:-13.01 
4.584765597148132e-07 0:23.72 1:-3.92 2:15.37 3:-18.8 4:-19.88 5:0.18 6:-18.46 7:-6.55 8:-22.47 9:-0.71 10:-7.32 11:-3.02 12:-5.89 
1.954125191309938e-07 0:24.52 1:-9.37 2:-6.66 3:24.04 4:-15.18 5:-28.68 6:-17.04 7:-10.03 8:-24.67 9:-15.82 10:1.77 11:18.38 12:-1.59 
-2.871645674471917e-07 0:24 1:-8.14 2:-5.23 3:-15.65 4:-3.45 5:-19.55 6:-26.81 7:-20.47 8:-18.32 9:11.66 10:-26.26 11:42.11 12:-5.98 
-1.673653822925128e-07 0:23.09 1:2.74 2:-16.39 3:-1.26 4:-18.81 5:-50.33 6:-21.52 7:-48.56 8:-22.78 9:-13.93 10:-7.96 11:-7.05 12:-22.06 
-5.735553706206406e-08 0:22.96 1:3 2:7.36 3:-48.51 4:1.9 5:-11.53 6:18.16 7:-28.38 8:12.51 9:-2.04 10:8.34 11:-11.98 12:-27.04 
-5.098816199956986e-07 0:24.79 1:-11.81 2:-2.85 3:2.54 4:-12.28 5:0.91 6:-9.28 7:-28.38 8:-17.37 9:7.32 10:-9.4 11:-10.05 12:0.09 
-7.514325648498749e-07 0:24.3 1:-9.93 2:5.84 3:-20.69 4:-27.46 5:-6.67 6:-4 7:-24.6 8:-10.95 9:23.85 10:3.1 11:0.2 12:3.69 
-2.123234961399903e-07 0:24.7 1:-13.55 2:10.29 3:9.28 4:-4.03 5:-22.72 6:-19.21 7:-23.99 8:9.76 9:16.17 10:16.18 11:2.15 12:13 
-3.104070781621849e-06 0:24.3 1:-5.05 2:7.8 3:-17.88 4:-26.35 5:-7.62 6:-8.57 7:-13.82 8:-29.72 9:32.01 10:-6.04 11:4.52 12:-16.48 
-4.831078473224436e-06 0:23.56 1:-0.91 2:5.17 3:-13.18 4:-20.08 5:1.48 6:-28.56 7:-24.93 8:-12.33 9:11.12 10:-2.94 11:4.49 12:-1.38 
-4.500872841401158e-07 0:26.02 1:-22.01 2:11.31 3:4.56 4:-17.97 5:-4.01 6:-25.06 7:-19.2 8:-22.88 9:-17.48 10:4.6 11:3.2 12:-1.48 
-2.717981266233887e-06 0:25.05 1:-15.49 2:10.15 3:-16.6 4:-34.04 5:-5.53 6:-8.51 7:-13.83 8:-20.8 9:-1.58 10:-11.01 11:11.85 12:-12.22 
-3.370943393743433e-07 0:25.07 1:-11.91 2:0.77 3:-2.89 4:-44.39 5:-19.66 6:-22.52 7:-29.62 8:-17.98 9:-5.98 10:-1.82 11:5.03 12:-8.14 
-1.066823246996832e-07 0:26.64 1:-31.6 2:-1.46 3:-16.27 4:-21.65 5:-28.8 6:-48.88 7:5.68 8:-31.76 9:-4.66 10:-20.9 11:-12.07 12:-4.03 
-9.490346518535097e-06 0:24.12 1:-6.69 2:-6.87 3:-14.12 4:-12.84 5:-10.16 6:-20.74 7:-6.95 8:-18.12 9:19.11 10:4.64 11:-7.75 12:-2.61 
-1.844729367852211e-07 0:25.72 1:-25.56 2:2.51 3:7.12 4:-6.35 5:-18.76 6:-33.94 7:-29.93 8:-1.16 9:21.22 10:2.05 11:2.12 12:-21.77 
-1.93257641631424e-07 0:25.28 1:-17.98 2:7.26 3:6.74 4:-11.17 5:-31.27 6:-30.82 7:-39.69 8:-11.93 9:1.57 10:-18.75 11:9.37 12:-5.64 
-6.507431449808905e-08 0:23.51 1:-11.04 2:-32.39 3:3.5 4:-48.71 5:-26.17 6:-30.15 7:-4.21 8:-27.47 9:-23.73 10:-11.4 11:12.85 12:-4.52 
-7.215682756140262e-07 0:24.92 1:-17.15 2:5.81 3:-20.77 4:-18.75 5:-8.68 6:-22.34 7:-22.2 8:12.59 9:29.78 10:-2.93 11:-2.69 12:-5.66 
-3.900068397168055e-07 0:25.03 1:-9.48 2:-12.55 3:7.84 4:-9.2 5:-31.73 6:-25.36 7:-30.98 8:-1.45 9:14.46 10:7.36 11:7.74 12:-0.9 
-6.322947653642195e-08 0:24.37 1:-9.4 2:13.53 3:-18.81 4:-50.52 5:-10.51 6:-11.65 7:-17.98 8:-6.26 9:26.69 10:-6.23 11:18.47 12:-1.4 
-5.379257007733136e-07 0:26.46 1:-28.37 2:22.57 3:-10.81 4:-0.92 5:-12.35 6:-24.78 7:-19.35 8:-16.17 9:21.2 10:5.72 11:7.7 12:0.31 
-1.237953013746306e-06 0:26.03 1:-18.77 2:9.59 3:-4.31 4:-16.8 5:-28.5 6:-26.68 7:-3.39 8:-24.61 9:20.73 10:-11.42 11:4.05 12:1.04 
-5.681724426479006e-07 0:25.13 1:-6.58 2:5.81 3:-23.74 4:-14.78 5:-25.23 6:-15.13 7:-18.87 8:-24.92 9:28.6 10:-12.45 11:6.28 12:-5.87 
-1.906033781357696e-06 0:25.68 1:-18.72 2:2.96 3:-7.12 4:-15.31 5:-10.87 6:-12.34 7:-30.42 8:-15.53 9:17.18 10:-0.89 11:-10.78 12:2.36 
-1.287496589616446e-07 0:23.87 1:-1.94 2:-7.65 3:23.85 4:-34.04 5:-42.56 6:-15.71 7:-16.15 8:-15.72 9:15.01 10:-15.74 11:6.55 12:3.07 
-1.960160922153049e-06 0:23.64 1:9.78 2:12.93 3:-29.1 4:-19.54 5:-11.41 6:-22.87 7:2.79 8:-17.97 9:5.15 10:-2.72 11:-5.29 12:9.41 
-2.28088200229791e-07 0:24.85 1:-20.7 2:-22.49 3:-3.71 4:-29.19 5:-37.68 6:-28.62 7:-20.32 8:-13.09 9:0.55 10:-25.16 11:-1.39 12:-6.83 
-4.103216073836236e-07 0:25.04 1:-12.4 2:-8.06 3:3.49 4:-11 5:-11.21 6:-17.68 7:-29.24 8:-11.92 9:15.3 10:-16.44 11:-5.56 12:9.22 
-1.321007651057825e-07 0:26.05 1:-26.66 2:8.54 3:4.36 4:-11.93 5:-3.18 6:-52.51 7:-16.66 8:-22.56 9:19.87 10:-2.96 11:7.13 12:-15.43 
-1.210834061916913e-07 0:25.27 1:-12.24 2:-1.83 3:-10.04 4:-11.22 5:2.36 6:-15.6 7:-29.15 8:-8.03 9:0.54 10:-4.88 11:-9.67 12:6.03 
-7.4210725191822e-08 0:25.52 1:-14.97 2:13.21 3:-3.11 4:-5.77 5:-26.8 6:-30.92 7:-8.38 8:-25.97 9:-16.45 10:-5.02 11:6.33 12:-7.38 
-1.239601087976895e-06 0:26.02 1:-17.02 2:17.93 3:-7.6 4:-20.96 5:-4.48 6:-25.18 7:-13.32 8:-31.7 9:-2.57 10:12.14 11:-1.71 12:6.63 
-1.474716559854594e-06 0:24.29 1:-7.54 2:4.28 3:-23.72 4:-15.41 5:15.79 6:-4.9 7:-15.05 8:-0.8 9:9.14 10:12.33 11:9.4 12:3.04 
-3.586446449048235e-06 0:25.03 1:-8.29 2:9.28 3:-21.29 4:-13.56 5:-17.54 6:-32.96 7:-7.16 8:-26.16 9:-8.86 10:-10.28 11:13.41 12:-16.35 
-2.365435590667647e-07 0:25.09 1:-19.44 2:2.81 3:12.53 4:-4.02 5:-33.98 6:-53.91 7:-5.47 8:-10.43 9:9.56 10:10.77 11:-6.76 12:1.43 
-2.517354381826187e-07 0:26.29 1:-19.67 2:27.54 3:-12.57 4:-20.58 5:5.36 6:-27.07 7:0.22 8:-6.36 9:38.89 10:2.07 11:7.78 12:-5.66 
-6.529271052953147e-07 0:23.56 1:-7.87 2:4.96 3:5.15 4:-33.67 5:-31.16 6:-13.07 7:-6.49 8:-7.72 9:-0.05 10:6.19 11:10.71 12:8.16 
-1.48776196379145e-06 0:24.13 1:-10.9 2:-2.48 3:-16.75 4:-37.84 5:-11.02 6:-20.32 7:-0.52 8:-27.67 9:-11.36 10:-14.31 11:0.14 12:-6.25 
-8.193534237006591e-07 0:23.02 1:-0.64 2:14.27 3:0.25 4:-22.9 5:-6.27 6:10.33 7:-18.62 8:-6.75 9:8.66 10:5.94 11:24.57 12:9.76 
-2.482414734603427e-07 0:24.07 1:-8.7 2:12.62 3:-33.25 4:-45.21 5:5.09 6:-18.72 7:-12.35 8:-20.87 9:-15.56 10:-2.4 11:15.12 12:-13.38 
-6.632829036901348e-07 0:25.57 1:-21.78 2:9.86 3:-11.12 4:5.12 5:-28.56 6:-21.26 7:-26.32 8:-17.28 9:15.3 10:6.32 11:6.91 12:6.33 
-6.673415524015253e-07 0:24.19 1:-6.64 2:-15.02 3:16.05 4:-16.22 5:-23.03 6:-27.04 7:-30.92 8:0.69 9:-1.03 10:2.34 11:26.42 12:-17.02 
-2.179091164859502e-07 0:25.93 1:-15.3 2:11.55 3:-20.89 4:-41.44 5:5.89 6:-23.59 7:-16.51 8:-12.87 9:24.46 10:-1.78 11:19.75 12:-10.81 
-1.650964296014787e-07 0:26.04 1:-19.6 2:7.41 3:-14.6 4:-46.8 5:5.86 6:1.74 7:-16.79 8:-14.63 9:30.88 10:-1.06 11:31.66 12:-10.62 
-4.8231144618317e-06 0:23.88 1:-5.88 2:8.22 3:-7.59 4:-13.22 5:-9.12 6:-16.15 7:-20.34 8:-14.55 9:17.01 10:1.29 11:12.67 12:4.49 
-2.642036295503091e-06 0:25.09 1:-14.42 2:8.14 3:-12.26 4:-24.51 5:-12.38 6:-20.37 7:-18.88 8:-20.98 9:-9.67 10:-5.9 11:-3.73 12:1.52 
-9.220052005545273e-07 0:25.17 1:-12.6 2:5.84 3:-17.89 4:-30.58 5:-12.01 6:-34.28 7:-9.69 8:-7.61 9:14.24 10:-8.68 11:1.1 12:6.29 
-5.246821464993936e-07 0:26.32 1:-8.26 2:23.23 3:-31.72 4:5.76 5:-25.32 6:-9 7:-13.8 8:-15.73 9:3.39 10:-18.37 11:4.89 12:-15.94 
-3.164205340767863e-06 0:24.41 1:-1.73 2:-13.31 3:-18.61 4:-8.46 5:-14.6 6:-14.77 7:-27.9 8:-9.59 9:5.73 10:-5.79 11:11.06 12:-3.22 
-1.305080273310597e-06 0:26.25 1:-25.65 2:6.95 3:3.15 4:-6.25 5:-31.91 6:-27.87 7:-14.07 8:-7.13 9:21.68 10:-10.47 11:5.31 12:-14.02 
-1.572112193462943e-08 0:25.09 1:-12.5 2:5.32 3:-19.05 4:-7.02 5:-17.76 6:-31.2 7:3.59 8:-35.49 9:-13.35 10:-3.17 11:7.49 12:-13.08 
-3.194692026711278e-07 0:24.49 1:-8.21 2:2.83 3:-18.81 4:-25.15 5:-28.18 6:-10.82 7:-16.02 8:-14.85 9:18.04 10:17.28 11:11.77 12:-6.19 
