svm_type c_svc
kernel_type linear
nr_class 2
total_sv 339
rho -7.0968
label 1 -1
probA -1.52495
probB 0.0533548
nr_sv 170 169
SV
1 0:25.92 1:-19.46 2:7.56 3:-6.03 4:-12.7 5:1.22 6:-19.13 7:-19.88 8:-18.73 9:10.39 10:4.94 11:-1.15 12:-18.08 
1 0:23.76 1:-8.73 2:8.97 3:-23.87 4:-23.22 5:-4.45 6:-24.62 7:-1.81 8:-10.8 9:12.25 10:-0.03 11:-7.15 12:4.2 
1 0:26.1 1:-17.66 2:10.66 3:-0.52 4:-14.22 5:-13.52 6:-33.81 7:-10.35 8:-18.16 9:18.91 10:3.4 11:0.59 12:-6.21 
1 0:25.02 1:-13.7 2:7.49 3:-3.7 4:-25.46 5:-12.2 6:-18.38 7:-16.35 8:-1.09 9:8.25 10:-3.35 11:-7.14 12:11.21 
1 0:24.45 1:-4.66 2:6.76 3:-14.02 4:-29.38 5:0.05 6:-11.5 7:-23.42 8:-11.7 9:24.42 10:-0.54 11:4.8 12:-6.63 
1 0:24.8 1:-13.72 2:9.03 3:-14.57 4:-41.25 5:-6.7 6:3.6 7:-21.57 8:-11.32 9:-2.27 10:-6.95 11:11.59 12:-2.49 
1 0:24.39 1:-10.49 2:9.7 3:-29.36 4:-37.52 5:-3.45 6:-1.62 7:-6.97 8:-21.39 9:11.83 10:-6.52 11:10.27 12:-0.45 
1 0:24.02 1:-10.06 2:4.28 3:-9.67 4:-22.63 5:-11.04 6:-17.27 7:-15.13 8:-11.12 9:7.32 10:-4.55 11:5.98 12:-4.07 
1 0:25.22 1:-16.67 2:10.75 3:7.88 4:-19.58 5:-19.82 6:-13.99 7:-10.36 8:-8.16 9:8.31 10:-1.24 11:1.33 12:4.64 
1 0:23.8 1:-8.04 2:13.38 3:-20.95 4:-28.52 5:5.79 6:-18.02 7:-1.77 8:-9.16 9:1.27 10:3.63 11:7.72 12:-1.7 
1 0:23.43 1:-15.19 2:17.92 3:-5.83 4:-1.92 5:9.11 6:-19.87 7:23.76 8:-25.26 9:16.3 10:-3.96 11:-2.26 12:17.68 
1 0:24.84 1:-13 2:1.92 3:-6.95 4:-22.32 5:8.65 6:-25.11 7:-7.64 8:-8.69 9:15.28 10:3.92 11:-1.88 12:-8.19 
1 0:24.57 1:-11.06 2:2.2 3:-12.52 4:-26.56 5:-21.44 6:-33.83 7:-7.91 8:-12.78 9:-2.01 10:2.65 11:2.16 12:-15.01 
1 0:25.22 1:-15.86 2:-8.96 3:-10.18 4:-20.5 5:3.43 6:-20.16 7:-2.51 8:-9.01 9:10.54 10:-4.69 11:-1.85 12:-0.41 
1 0:24.03 1:-12.63 2:-5.6 3:-14.29 4:-14.26 5:-25.13 6:-17.03 7:2.85 8:-27.48 9:16.38 10:-6.34 11:-7.1 12:-8.54 
1 0:24.68 1:-9.89 2:3.96 3:-16.27 4:-6.93 5:-14.98 6:-35.1 7:-16.25 8:-9.84 9:26.1 10:3.19 11:-10.52 12:2.35 
1 0:24.22 1:-8.36 2:-0.68 3:-0.4 4:-18.82 5:-3.89 6:-30.9 7:-11.67 8:-14.12 9:7.17 10:6.51 11:9.91 12:-11.79 
1 0:24.43 1:-7.5 2:7.82 3:0.28 4:-8.41 5:-12.87 6:-26.55 7:-10.98 8:-14.19 9:-2.68 10:11.39 11:-6.87 12:15.31 
1 0:24.9 1:-10.97 2:6.12 3:-22.72 4:-10.77 5:-12.91 6:-29.68 7:-8.91 8:-21.57 9:28.92 10:4.57 11:-16.53 12:3.33 
1 0:23.93 1:-7.58 2:16.35 3:-31.52 4:-41.74 5:11.72 6:-0.57 7:-5.94 8:-18.53 9:11.62 10:-6.51 11:15.02 12:-6.93 
1 0:23.63 1:-4.04 2:7.61 3:-16.92 4:-9.61 5:2.4 6:-21.43 7:-7.51 8:-31.93 9:-7.93 10:-0.13 11:16.49 12:-15.44 
1 0:24.49 1:-11.4 2:4.49 3:-21.27 4:-20.57 5:9.46 6:-2.17 7:-17.08 8:-12.39 9:21.11 10:-2.51 11:6.02 12:-5.85 
1 0:25.76 1:-17.57 2:18.66 3:-9.97 4:-35.12 5:-2.61 6:-12.57 7:-9.84 8:-11.77 9:17.12 10:7.55 11:7.85 12:-14.03 
1 0:25.3 1:-12.78 2:-2.58 3:0.24 4:0.74 5:-12.87 6:-28.44 7:-8.12 8:-29.08 9:3.94 10:3.08 11:-5.74 12:1.24 
1 0:26.05 1:-23.51 2:11.22 3:2.37 4:-2.73 5:-13.43 6:-37.79 7:-9.96 8:-17.05 9:1.26 10:-0.82 11:3.42 12:-14.23 
1 0:25.39 1:-17.91 2:3.51 3:-4.07 4:-10.93 5:-9.11 6:-28.3 7:-18.91 8:-18.8 9:8.41 10:-3.59 11:12.39 12:-21.99 
1 0:24.66 1:-15.2 2:5.1 3:-20.93 4:-31.08 5:-7.64 6:-14.35 7:-20.08 8:-12.43 9:4.92 10:1.26 11:7.97 12:-19.13 
1 0:23.87 1:-3.21 2:3.43 3:-28.9 4:-29.53 5:-3.85 6:-3.42 7:-25.39 8:-14.97 9:7.2 10:-5.58 11:12.22 12:-9.14 
1 0:25.15 1:-13.87 2:2.58 3:-12.12 4:-26.07 5:1.07 6:-3.28 7:-17.07 8:-17.21 9:9.82 10:-3.77 11:19.51 12:-14.86 
1 0:25.11 1:-7.65 2:-11.28 3:-6.53 4:8.12 5:-25.11 6:-8 7:-32.54 8:-16.11 9:18 10:-5.19 11:7.83 12:-7.38 
1 0:24.75 1:-14.99 2:16.43 3:-4.83 4:-24.13 5:-17.23 6:-18.41 7:-18.69 8:-4.74 9:12.11 10:-2.23 11:-0.92 12:0.35 
1 0:25.77 1:-17.64 2:-3.48 3:-0.22 4:-10.58 5:-11.11 6:-17.5 7:-18.67 8:-11.66 9:0.13 10:-15.24 11:9.21 12:-0.76 
1 0:26.11 1:-22.32 2:11 3:11.85 4:-10.06 5:-13.78 6:-23.05 7:-16.37 8:-8.66 9:1.45 10:11.78 11:3.91 12:0.41 
1 0:25.44 1:-14.97 2:-5.27 3:1.62 4:10.27 5:-25.95 6:-23.52 7:-32.2 8:-11.25 9:0.07 10:-4.24 11:2.08 12:7.96 
1 0:23.42 1:-3.92 2:2.15 3:-31.7 4:-29.04 5:-9.33 6:-1.34 7:-26.87 8:-16.5 9:15.91 10:-6.92 11:4.39 12:0.79 
1 0:24.95 1:-11.35 2:6.79 3:-6.53 4:1.58 5:-21.1 6:-6.79 7:-17.74 8:-22.73 9:12.32 10:2.86 11:-1.92 12:4.65 
1 0:24.55 1:-12.62 2:11.93 3:-4.81 4:-28.32 5:-11.69 6:-26.27 7:4.94 8:-13 9:10.46 10:-14.31 11:1.66 12:-4.72 
1 0:24.2 1:-9.27 2:7.09 3:-17.21 4:-14.38 5:-25.35 6:-9.6 7:-7.33 8:-22.78 9:5.03 10:-5.46 11:7.51 12:-5.94 
0.2567398998596772 0:23.69 1:-24.59 2:22.4 3:3.98 4:-11.94 5:5.76 6:-10.23 7:-1.36 8:-6.36 9:17.76 10:-12.11 11:16.56 12:-4.99 
1 0:24.39 1:-8.95 2:4.66 3:-28.22 4:-4.65 5:-19.6 6:-21.73 7:-3.44 8:-20.08 9:29.29 10:-0.47 11:-15.76 12:4.09 
1 0:25.11 1:-13.34 2:9.12 3:-9.96 4:-17.18 5:-20.62 6:-26.83 7:-12.47 8:-5.33 9:14.34 10:-0.05 11:-7.37 12:5.08 
1 0:24.59 1:-13.68 2:8.98 3:-11.38 4:-24.81 5:-20.09 6:-12.09 7:-28.23 8:4.46 9:21.93 10:-7.35 11:-5.21 12:10.44 
1 0:24.57 1:-10.12 2:8.63 3:-26.07 4:-22.22 5:-3.52 6:-21.83 7:-5.09 8:-7.49 9:13.81 10:-2.3 11:-10.48 12:6.69 
1 0:25.9 1:-19.14 2:7.91 3:-17.04 4:-37.54 5:-5.9 6:-17.68 7:-2.51 8:-9.51 9:-3.54 10:-5.42 11:10.44 12:-11.92 
1 0:22.33 1:-15.45 2:15.77 3:5.08 4:-5.37 5:-3.28 6:-8.12 7:7.67 8:-21.83 9:25.48 10:-6.68 11:6.26 12:2.42 
1 0:25.79 1:-17.93 2:15.42 3:-2.43 4:-30.71 5:1.23 6:-11.66 7:-17.77 8:-23.1 9:22.08 10:-7.72 11:10.17 12:-9.94 
1 0:23.91 1:-5.37 2:2.66 3:-0.48 4:-28.54 5:-7.33 6:-23.42 7:-32.27 8:-7.88 9:18.94 10:-8.27 11:3.94 12:-12.44 
1 0:24.99 1:-14.49 2:12.87 3:-5.37 4:-15.98 5:-25.73 6:-14.08 7:-19.95 8:-11.8 9:27.08 10:-2.23 11:-11.75 12:10.03 
1 0:25.79 1:-18.44 2:12.55 3:-2.18 4:-7.47 5:-10.28 6:-23.22 7:-24.77 8:-8.38 9:7.47 10:7.57 11:-0.79 12:0.97 
1 0:24.72 1:-11.06 2:-1.86 3:-17.17 4:-17.66 5:-5.37 6:-26.45 7:-7.31 8:-9.93 9:-5.2 10:1.86 11:0.46 12:-1.77 
1 0:24.65 1:-12.63 2:-2.08 3:-20.47 4:-23.82 5:-4.04 6:-8.74 7:-11.49 8:-13.93 9:19.5 10:-10.05 11:11.44 12:-12.92 
1 0:24.7 1:-8.55 2:6.85 3:-13.6 4:-32.72 5:-4.38 6:-9.85 7:-34.01 8:-15.03 9:-4.49 10:-0.9 11:7.07 12:-19.93 
1 0:24.47 1:-8.24 2:-19.44 3:-8.6 4:-3.06 5:-37.58 6:-16.65 7:-26.81 8:-11.62 9:26.77 10:0.44 11:-4.79 12:0.39 
1 0:25.37 1:-17.29 2:8 3:-5.17 4:-6.84 5:-4.81 6:-15.4 7:-22.93 8:-14.07 9:4.88 10:1.25 11:16.57 12:-11.31 
1 0:25.11 1:-13.27 2:14.99 3:-23.27 4:-50.48 5:2.46 6:11.83 7:-24.59 8:-8.52 9:15.74 10:-9.13 11:4.5 12:-10.78 
1 0:24.92 1:-11.3 2:14.82 3:-11.89 4:-24.86 5:-15.62 6:-11.63 7:-24.52 8:-14.19 9:14.36 10:-9.1 11:5.25 12:-9.07 
1 0:23.81 1:-2.8 2:2.2 3:-17.51 4:-31.99 5:-12.28 6:-2.74 7:-20.82 8:-21.3 9:4.58 10:-1.64 11:12.08 12:-12.51 
1 0:25.15 1:-21.35 2:-15.61 3:-18.17 4:-33.29 5:-24.68 6:-1.14 7:-14.42 8:-1.84 9:3.85 10:-17.75 11:-0.72 12:-6.65 
1 0:24.77 1:-17.86 2:19.43 3:0.19 4:-22.78 5:-21.78 6:-22.49 7:-20.48 8:1.86 9:2.65 10:4.62 11:-6.85 12:11.29 
1 0:24.98 1:-12.18 2:1.34 3:4.69 4:-17.29 5:-8.85 6:-37.12 7:-17.43 8:-8.66 9:8.35 10:-4.1 11:4.36 12:-10.85 
1 0:24.34 1:-11.16 2:15.11 3:-8.53 4:-19.47 5:-13.91 6:-16.84 7:-15.7 8:-7.3 9:13.17 10:-9.03 11:-8.45 12:9.68 
1 0:25.42 1:-17.54 2:3.62 3:-18.78 4:-13.61 5:-31.63 6:-13.14 7:-8.97 8:-26.82 9:11.37 10:-8.18 11:0.82 12:-12.52 
1 0:24.78 1:-12.02 2:2.31 3:-5.19 4:-28.3 5:-12.85 6:-16.89 7:-13.18 8:-7.41 9:16.57 10:-5.58 11:-4.38 12:2 
1 0:24.7 1:-18.07 2:1.38 3:9.47 4:-4.24 5:-19.51 6:-48.56 7:-15.2 8:-10.93 9:-3.4 10:-3.01 11:-1.08 12:-10.1 
1 0:25.43 1:-18.4 2:4.88 3:-4.61 4:-10.32 5:-11.5 6:-8.77 7:-23.53 8:1.8 9:3.69 10:0.77 11:4.32 12:9.95 
1 0:23.34 1:-2.48 2:12.77 3:-20.89 4:-26.41 5:3.3 6:-20.33 7:3.32 8:-23.16 9:-15.93 10:5.12 11:14.5 12:-6.5 
1 0:25.16 1:-17.02 2:7.98 3:5.71 4:-1.57 5:-15.06 6:-23.51 7:-31.96 8:-13.39 9:11.22 10:-0.59 11:-4.45 12:12.02 
1 0:24.46 1:-12.21 2:-2.8 3:-5.6 4:-8.84 5:-5.23 6:-21.69 7:-19.31 8:-20.31 9:4.08 10:9.17 11:13.03 12:-20.1 
1 0:23.75 1:-4.86 2:1.46 3:-10.73 4:-31.45 5:-9.26 6:-7.57 7:-15.78 8:-18.53 9:7.19 10:-3.22 11:4.57 12:-11.82 
1 0:25.49 1:-16.68 2:-8.32 3:2.31 4:-6.76 5:-18.57 6:-24.17 7:-16.28 8:-14.65 9:13.75 10:-7.96 11:1.97 12:-2.59 
1 0:25.02 1:-10.66 2:11.69 3:-0.6 4:-24.34 5:-22.92 6:-16.07 7:-7.96 8:-13.33 9:-1.47 10:0.11 11:8.22 12:-3.01 
1 0:25.04 1:-17.07 2:13.86 3:9.55 4:-7.07 5:-16.39 6:-18.83 7:-27.47 8:-6.32 9:6.15 10:12.25 11:-3.27 12:6.76 
1 0:26.41 1:-21.9 2:15.05 3:2.19 4:-21.8 5:-10.79 6:-10.76 7:-7 8:-6.66 9:13.37 10:3.75 11:-11.81 12:14.75 
1 0:22.7 1:-20.44 2:11.87 3:11.93 4:-2.69 5:-15.32 6:-1.94 7:4.64 8:-19.37 9:17.38 10:1 11:6.75 12:11.36 
1 0:23.9 1:-4.56 2:9.32 3:-20.05 4:-40.82 5:-1.2 6:-10.01 7:-11.73 8:-2.94 9:5.68 10:-2.75 11:8.05 12:-2.31 
1 0:23.99 1:-8.29 2:-1.2 3:-27.83 4:-37.03 5:-1.9 6:1.33 7:-7.46 8:-16.19 9:-4.7 10:-0.67 11:15.47 12:-9.15 
1 0:24.3 1:-1.86 2:-2.03 3:-3.05 4:-29.35 5:-21.51 6:-5.97 7:-25.04 8:-17.95 9:17.8 10:-7.03 11:-4.89 12:-6.07 
1 0:24.54 1:-19.3 2:-28.01 3:-25.45 4:-11.54 5:-38.51 6:-8.09 7:-6.18 8:-21.28 9:2.58 10:-10.22 11:-1.5 12:-5.85 
1 0:25.01 1:-12.39 2:1.64 3:-21.64 4:-10.78 5:-33.92 6:-16.41 7:-0.86 8:-32.04 9:8.66 10:-4.61 11:-3.08 12:-9.59 
1 0:23.18 1:3.26 2:3.53 3:-4.76 4:-22.2 5:-10.96 6:-16.59 7:-10.65 8:-31.6 9:-11.47 10:-2.75 11:15.82 12:-7.4 
1 0:25.45 1:-17.42 2:10.62 3:3.29 4:-21.05 5:-14.25 6:-32.97 7:-22.31 8:-4.61 9:8.95 10:-7.75 11:15.65 12:-14.55 
0.5820443871924693 0:23.89 1:-9.97 2:8.79 3:-17.65 4:-47.38 5:-10.19 6:21.46 7:-22.69 8:-19.43 9:3.08 10:2.06 11:5.91 12:-12.75 
1 0:24.84 1:-11.24 2:3.25 3:-27.44 4:-31.28 5:-10.38 6:-8.85 7:-7.57 8:-8.1 9:12.33 10:-1.49 11:7.26 12:-1.57 
1 0:23.99 1:-2.65 2:6.74 3:-13.75 4:-44.33 5:3.11 6:4.08 7:-25.79 8:-5.93 9:29.21 10:-0.98 11:13.59 12:-14.63 
1 0:24.65 1:-12.03 2:7.28 3:-18.16 4:-31.2 5:-3 6:-3.2 7:-7.68 8:-16.15 9:0.71 10:2.52 11:17.56 12:-6.32 
1 0:25.04 1:-14.95 2:4.89 3:-15.87 4:-30.31 5:-3.31 6:1.29 7:-17.07 8:-16.95 9:6.31 10:-4.63 11:20.2 12:-14.01 
1 0:23.6 1:-4.51 2:12.22 3:-16.1 4:-28.15 5:-7.68 6:-25.35 7:-15.1 8:-26.82 9:5.87 10:-1.89 11:2.89 12:-4.49 
1 0:25.17 1:-13.11 2:9.2 3:-6.38 4:-17.5 5:-25.13 6:-4.26 7:-9.89 8:-9.15 9:6.85 10:-2.42 11:-4.25 12:16.21 
4.668505041420866e-06 0:26.13 1:-18.58 2:-1.25 3:-20.93 4:-27.8 5:-18.95 6:-35.41 7:-21.44 8:-5.94 9:0.33 10:-10.14 11:-8.27 12:-18.06 
1 0:23.42 1:-18.8 2:20.36 3:-0.97 4:4.05 5:-17.94 6:-11.25 7:10.01 8:-24.97 9:24.47 10:-7.87 11:11.11 12:2.92 
1 0:25.35 1:-13.64 2:11.95 3:-13.05 4:-18.76 5:-17.42 6:-7.07 7:-17.94 8:-3.72 9:21.38 10:-16.24 11:-8 12:14.84 
1 0:24.32 1:-5.51 2:4.87 3:-20.43 4:-19.94 5:-18.53 6:-13.32 7:-26.34 8:-14.89 9:12.63 10:-6.75 11:4.49 12:-6.79 
1 0:25.21 1:-16.12 2:10.49 3:-23.61 4:-43.56 5:0.41 6:-4.35 7:-11.92 8:-6.22 9:0.36 10:-4.86 11:14.65 12:-14.62 
1 0:25.27 1:-16.89 2:-9.25 3:-11.37 4:-12.99 5:-3.87 6:-15.26 7:-6.8 8:-17.17 9:14.08 10:-23.56 11:11.86 12:-15.99 
1 0:24.73 1:-10.51 2:3.53 3:-14.27 4:-28.1 5:-11.07 6:-10.49 7:3.56 8:-24.33 9:9.58 10:3.86 11:2.01 12:-2.95 
1 0:23.86 1:-15.58 2:21.6 3:-8.28 4:-0.5 5:-8.49 6:-29.4 7:18.03 8:-21.7 9:32.21 10:-14.06 11:10.62 12:-0.84 
1 0:24.49 1:-1.39 2:-12.96 3:-7.74 4:-5.81 5:-15.21 6:-15.92 7:-22.13 8:-20.65 9:6.77 10:14.54 11:-3.45 12:-4.04 
1 0:24.25 1:-13.37 2:6.25 3:2.71 4:-24.65 5:-21.08 6:-10.15 7:-18.46 8:-3.56 9:8.84 10:2.85 11:-6.5 12:8.51 
1 0:25.07 1:-13.53 2:14.25 3:-28 4:-30.41 5:-11.45 6:-18.13 7:-6.99 8:-18.29 9:8.81 10:0.17 11:13.01 12:-12.59 
1 0:25.49 1:-14.96 2:9.62 3:-8.27 4:-21.12 5:-10.87 6:-16.48 7:-9.16 8:-15.57 9:15.31 10:-8 11:-1.61 12:5.08 
1 0:23.21 1:10.61 2:4.83 3:-22.56 4:-21.99 5:-11.03 6:-27.35 7:-7.97 8:-30.05 9:-6.47 10:-10.42 11:2.77 12:-3.65 
1 0:23.74 1:-7.3 2:-3.31 3:27.27 4:-1.99 5:-19.7 6:-28.55 7:-10.98 8:-18.4 9:-30.34 10:0.97 11:17.27 12:7.37 
1 0:25.65 1:-17.77 2:6.86 3:-0.75 4:-14.41 5:-9.71 6:-10.32 7:-28.37 8:-4 9:3.31 10:4.65 11:1.04 12:7.12 
1 0:24.73 1:-12.55 2:2.65 3:-17.27 4:-27.93 5:3.5 6:-4.6 7:-18.55 8:-15.99 9:6.83 10:-0.73 11:12.15 12:-12.05 
1 0:26.08 1:-20.79 2:19.63 3:1.1 4:-12.36 5:-30.91 6:1.5 7:-8.51 8:-19.76 9:24.26 10:-8.71 11:4.46 12:7.22 
1 0:24.06 1:9.11 2:0.14 3:-15.7 4:-15 5:-11.3 6:-32.59 7:-6.4 8:-25.61 9:2.08 10:-1.42 11:12.55 12:-5.77 
1 0:24.68 1:-11.19 2:7.47 3:-26.92 4:-36.97 5:4.13 6:-6.09 7:-25.72 8:-3.04 9:20.26 10:-7.63 11:1.3 12:-14.16 
1 0:25.4 1:-12.52 2:-2.87 3:-5.64 4:19.62 5:-25.16 6:-26.65 7:-25.86 8:-16.04 9:5.7 10:0.81 11:0.77 12:3.14 
1 0:25.72 1:-14.2 2:3.36 3:-16.35 4:-17.46 5:-18.29 6:-15.32 7:1.26 8:-28.78 9:17.64 10:-10.82 11:-4.31 12:-9.73 
1 0:22.49 1:-19.26 2:10.76 3:11.04 4:-3.43 5:-12.23 6:-1.63 7:4.26 8:-18.1 9:19.7 10:-0.91 11:7.63 12:5.23 
1 0:25.03 1:-11.16 2:12.35 3:-9.54 4:-17.56 5:-14.23 6:-8.76 7:-34.57 8:-21.75 9:15.71 10:-10.62 11:7.14 12:-21.88 
1 0:24.71 1:-13.3 2:4.63 3:-7.48 4:-13.74 5:-14.22 6:-15.38 7:-13.89 8:-24.74 9:15.67 10:2.87 11:10.5 12:-13.12 
1 0:24.69 1:-12.6 2:1.87 3:13.9 4:5.8 5:-15.81 6:-31.01 7:-14.15 8:-23.98 9:0.06 10:-1.01 11:-4.6 12:6.24 
1 0:24.68 1:-9.98 2:3.1 3:-11.52 4:-47.23 5:2.33 6:4.73 7:-19.43 8:-9.17 9:18.35 10:-3.24 11:8.07 12:-11.59 
1 0:22.98 1:-1.05 2:6.82 3:-11.33 4:-6.5 5:-12.36 6:-27.5 7:-14.05 8:-8.52 9:-10.35 10:-11.33 11:18.94 12:5.64 
1 0:25.01 1:-14.57 2:14.18 3:6.5 4:-17.72 5:-27.57 6:-26.58 7:-9.98 8:0.34 9:5.14 10:0.92 11:-7.09 12:17.8 
1 0:24.7 1:-11.06 2:6.52 3:-19.51 4:-8.82 5:-13.94 6:-29 7:-10.58 8:-9.74 9:24.84 10:-1.28 11:-13 12:10.6 
1 0:25.45 1:-16.09 2:8.66 3:-13.26 4:-21.58 5:-19.53 6:-35.52 7:-17.51 8:-14.71 9:8.85 10:-10.07 11:-3.9 12:-7.23 
1 0:26.43 1:-18.86 2:12.81 3:-25.6 4:-0.48 5:-13.89 6:-27.62 7:-17.4 8:-2.95 9:0.79 10:-1.44 11:9.6 12:-0.68 
1 0:24.33 1:-10.18 2:13.86 3:-22.11 4:-12.91 5:2.97 6:-25.55 7:-15.03 8:-10.99 9:3.17 10:11.83 11:2.22 12:0.64 
1 0:24.97 1:-11.25 2:12.2 3:-12.44 4:-31.37 5:-7.3 6:-15.64 7:-33.37 8:-9.47 9:23.36 10:-5.36 11:-2.06 12:-4.34 
1 0:23.91 1:-1.77 2:4 3:-13.97 4:-22.63 5:-15.33 6:-10.43 7:-30.54 8:-19.55 9:4.82 10:8.73 11:5.2 12:-11.32 
1 0:23.13 1:2.08 2:2.03 3:-9.92 4:-15.64 5:-6.98 6:-27.43 7:-10.33 8:-34.92 9:-0.74 10:0.06 11:6.52 12:-11.75 
1 0:24.94 1:-9.7 2:-5.71 3:2.12 4:-2.31 5:-14.09 6:-41.04 7:-20.36 8:-4.92 9:4.57 10:-0.45 11:-4.34 12:0.26 
1 0:26.05 1:-23.17 2:12.96 3:-5.26 4:-12.14 5:-2.07 6:-33.36 7:-8.68 8:-17.53 9:-3.36 10:11.82 11:2.55 12:-17.14 
1 0:25.44 1:-15.43 2:1.89 3:-14.13 4:-20.38 5:-12.59 6:-20.59 7:-5.3 8:-24.21 9:12.78 10:-10.73 11:-8.57 12:-5.8 
1 0:24.39 1:-14.19 2:8.39 3:12.49 4:-5.8 5:-15.43 6:-36.35 7:-22.84 8:-13.49 9:6.48 10:12.16 11:9.55 12:-18.06 
1 0:24.3 1:-13.75 2:7.71 3:-17.4 4:-2.77 5:-17.11 6:-36.84 7:-8.67 8:-16.11 9:-8.41 10:-20.9 11:28.55 12:-14 
1 0:25.24 1:-11.75 2:11.7 3:-8.28 4:-17.95 5:-28.87 6:-8.01 7:-11.38 8:-16.08 9:23.11 10:-9.22 11:-13.07 12:18.33 
1 0:25.49 1:-15.7 2:11.02 3:0.78 4:-24.84 5:-9.85 6:-20.6 7:-13.25 8:-9.66 9:12.71 10:-1.7 11:1.02 12:2.42 
1 0:25.23 1:-12.61 2:-0.22 3:-11.08 4:-24.4 5:-19.6 6:-33.76 7:-4.07 8:-16.67 9:2.57 10:-9.07 11:-0.75 12:0.32 
1 0:23.09 1:2.38 2:12.37 3:-20.63 4:-9.11 5:-19.7 6:-11.73 7:-11.21 8:-12.8 9:-3.31 10:-29.23 11:29.89 12:2.48 
0.4952283694483853 0:25.26 1:-17.6 2:9.45 3:-15.25 4:-35.65 5:-1.29 6:8.8 7:-12.57 8:-9.01 9:2.91 10:-5.91 11:24.27 12:-18.38 
0.2026211798569491 0:24.35 1:-13.27 2:15.23 3:-2.98 4:-16.93 5:-22.26 6:-21.66 7:-17.74 8:0.7 9:19.84 10:-8.93 11:-5.3 12:8.7 
1 0:24.72 1:-14.4 2:-3.16 3:10.25 4:-10.65 5:-32.55 6:-21.4 7:-16.83 8:-14.08 9:4.47 10:-4.62 11:-4.96 12:-0.98 
1 0:25.03 1:-14.38 2:-2.72 3:-23.36 4:-40.31 5:-21.17 6:-31.99 7:-7.98 8:-23.21 9:-17.45 10:-10.66 11:2.18 12:-9.86 
1 0:24.38 1:-4.85 2:11.08 3:-21.58 4:-19.34 5:-5.02 6:-13.57 7:-19.44 8:-17.23 9:20.34 10:-0.53 11:15.12 12:-9.6 
1 0:24.56 1:-8.12 2:-3.59 3:-1.49 4:-14.54 5:-20 6:-26.27 7:-22.93 8:-10.21 9:13.42 10:-12.01 11:12.41 12:-5.74 
1 0:25.72 1:-16.27 2:5.08 3:4.01 4:-1.35 5:-20.07 6:-3.23 7:-6.82 8:-34.34 9:8.91 10:17.56 11:8.32 12:-3.04 
1 0:24.65 1:-8.24 2:-3.24 3:-18.72 4:-5.98 5:-14.62 6:-9.6 7:-18.75 8:-15 9:0.7 10:11.07 11:2.05 12:3.6 
1 0:24.49 1:-15.05 2:8.65 3:-3.09 4:-11.66 5:-5.35 6:-22.19 7:-26.97 8:-14.15 9:-2.58 10:5.59 11:1.15 12:7.5 
1 0:25.36 1:-15.63 2:-3.19 3:1.49 4:17.45 5:-34.83 6:-28.18 7:-9 8:-20.37 9:8.41 10:4.9 11:-0.54 12:13.74 
1 0:24.41 1:-14.26 2:5.48 3:17.7 4:-6.7 5:-27.37 6:-31.76 7:-18.29 8:-6 9:3.46 10:-10.47 11:3.13 12:6.19 
1 0:24.72 1:-9.9 2:-3.16 3:-18.46 4:-23.19 5:-0.23 6:-15.86 7:-13.28 8:-11.26 9:4.36 10:10.81 11:14.13 12:-12.92 
1 0:23.91 1:-9.38 2:3.19 3:-22.96 4:-29.7 5:-4.25 6:5.36 7:-13.46 8:-25.06 9:5.37 10:6.6 11:13.69 12:-10.48 
0.2021910846083612 0:25.1 1:-9.97 2:-3.49 3:8.99 4:-3.18 5:-36.93 6:-25.08 7:-8.41 8:-31.36 9:18.38 10:-7.22 11:-12.07 12:-9.97 
1 0:25.29 1:-21.36 2:-22.91 3:-31.8 4:-25.79 5:-32.52 6:-6.89 7:-2.8 8:-11.33 9:-0.85 10:-15.35 11:-9.49 12:-2.41 
1 0:25.66 1:-19 2:1.97 3:6.14 4:18.98 5:-28.91 6:-45.46 7:-17.87 8:-11.55 9:4.29 10:1.69 11:-3.33 12:11.39 
0.6754346401234536 0:24.51 1:-18.44 2:-2.27 3:-30.87 4:-38.09 5:-22.27 6:-2.76 7:-4 8:-6 9:3.74 10:-19.47 11:-1.16 12:-3.06 
1 0:25.22 1:-18.52 2:8.84 3:1.16 4:-12.53 5:-23.82 6:-19.35 7:-23.03 8:-12.34 9:4.59 10:-2.58 11:4.28 12:-9.49 
1 0:23.2 1:1.39 2:-2.18 3:-12.62 4:-21.93 5:-22.07 6:-6.82 7:-17.4 8:-30.49 9:11.48 10:-1.91 11:4.4 12:6.43 
1 0:23.8 1:-1.95 2:-0.76 3:-32.75 4:-32.24 5:-4.61 6:-1.1 7:-8.14 8:-15.74 9:4.61 10:1.52 11:4.02 12:1.19 
1 0:25.02 1:-17.46 2:0.41 3:-18.64 4:-26.5 5:-6.65 6:-0.5 7:-11.54 8:-16.72 9:-1.56 10:-4.1 11:16.64 12:-6.81 
1 0:24.89 1:-9.95 2:8.06 3:-8.02 4:-18.44 5:-13.4 6:-8.28 7:-20.08 8:-10.34 9:13.23 10:4.55 11:12.5 12:-9.29 
1 0:24.89 1:-12.88 2:9.66 3:-11.75 4:-21.14 5:-6.54 6:-15.31 7:-26.61 8:-11.01 9:3.97 10:3.35 11:8.92 12:-10.61 
1 0:25.82 1:-28.86 2:12.01 3:-4.59 4:11.08 5:-17.93 6:-26.58 7:-28.8 8:-15.72 9:2.12 10:14.95 11:-1.11 12:-7.68 
1 0:22.79 1:-0.92 2:1.6 3:-25.48 4:-36.8 5:-0.54 6:-8.77 7:-7.68 8:-28.6 9:14.51 10:-0.04 11:14.62 12:-8.28 
1 0:25.19 1:-15.07 2:6.29 3:-27.56 4:-34.12 5:-9.51 6:-19.21 7:-16.63 8:-16.3 9:11.3 10:2.9 11:7.35 12:-24.4 
1 0:24.58 1:-5.36 2:5.14 3:0.67 4:-11.56 5:-10.81 6:-30.95 7:-20.21 8:-11.44 9:-4.96 10:1.28 11:13.84 12:-1.7 
1 0:24.62 1:-15.86 2:13.59 3:7.13 4:-19.81 5:-29.01 6:-19.39 7:-16.65 8:-2.38 9:9.27 10:8.81 11:-4.34 12:12.05 
1 0:25.67 1:-17.72 2:1.58 3:-27.73 4:-24.13 5:-11.28 6:-19.09 7:-16.89 8:-15.52 9:19.08 10:3.06 11:-7.63 12:-17.31 
1 0:25.3 1:-18.52 2:-30.76 3:-21.51 4:-15.73 5:-40.71 6:-4.7 7:-9.56 8:-14.3 9:-5.09 10:-16.38 11:-1.38 12:-5.19 
1 0:22.53 1:-19.97 2:10.85 3:12.25 4:-7.96 5:2.04 6:-1.24 7:0.7 8:-7.33 9:27.41 10:-15.9 11:10.36 12:8.47 
1 0:25.34 1:-15.44 2:15.35 3:-13.89 4:-32.93 5:-12.06 6:-0.07 7:-7.07 8:-4.37 9:-0.59 10:3.5 11:12.56 12:2.13 
1 0:24.63 1:-9.86 2:-4.83 3:2.23 4:-12.75 5:-5.51 6:-47.37 7:-12.27 8:-9.97 9:3.24 10:10.57 11:11.54 12:-12.17 
1 0:25.26 1:-14.67 2:9.69 3:-5.23 4:-10.01 5:-12.33 6:-6.49 7:1.05 8:-24.15 9:-4.42 10:-0.5 11:-0.32 12:16.53 
1 0:26.2 1:-19.82 2:15.26 3:-5.22 4:-17.89 5:-20.65 6:-41.17 7:-3.71 8:-10.01 9:3.47 10:-8.17 11:1.76 12:-10.66 
1 0:24.91 1:-17.72 2:-0.06 3:-4.24 4:-15.38 5:-21.46 6:-7.46 7:3.26 8:-28.97 9:8.3 10:-11.44 11:0.25 12:-8.91 
1 0:24.54 1:-10.27 2:11.33 3:-21.83 4:-11.71 5:1.25 6:-21.64 7:-20.65 8:-11.77 9:-2.92 10:13.49 11:-1.35 12:3.34 
1 0:24.52 1:-9.37 2:-6.66 3:24.04 4:-15.18 5:-28.68 6:-17.04 7:-10.03 8:-24.67 9:-15.82 10:1.77 11:18.38 12:-1.59 
-1 0:24.92 1:-9.73 2:20.26 3:-4.46 4:-1.64 5:12.76 6:-22.05 7:12.77 8:-7.32 9:49.23 10:9.17 11:16.08 12:13.95 
-1 0:23.7 1:-7.05 2:11.05 3:-9.17 4:-18.49 5:-6.83 6:5.04 7:10.07 8:2.19 9:42.43 10:9.71 11:16.8 12:9.5 
-1 0:25.96 1:-23.47 2:3.63 3:4.73 4:-27.76 5:-18.96 6:-36.38 7:-39.52 8:-17.72 9:-19.41 10:-35.48 11:-2.54 12:-18.87 
-1 0:23.39 1:-4.18 2:6.23 3:-15.04 4:-11.71 5:-1.39 6:-0.96 7:-6.79 8:9.86 9:24.99 10:32.57 11:20.06 12:7.33 
-1 0:25.34 1:-15.81 2:-0.75 3:-3.54 4:-12.17 5:-10.12 6:-41.77 7:-13.34 8:-5.53 9:28.47 10:1.99 11:-6.03 12:-1.56 
-1 0:23.09 1:2.74 2:-16.39 3:-1.26 4:-18.81 5:-50.33 6:-21.52 7:-48.56 8:-22.78 9:-13.93 10:-7.96 11:-7.05 12:-22.06 
-1 0:25.07 1:-17.18 2:6.52 3:-15.03 4:-19.89 5:-21.21 6:-39.01 7:-15.61 8:-31.77 9:-17.85 10:-26.3 11:-18.2 12:-7.76 
-1 0:23.25 1:-4.55 2:10.07 3:-14.29 4:-12.31 5:2.74 6:5.46 7:3.97 8:7.26 9:28.54 10:21.88 11:17.92 12:14.12 
-1 0:25.54 1:-14.51 2:-0.46 3:-13.25 4:-1.55 5:-14.89 6:-18.44 7:-8.98 8:-10.93 9:26.82 10:12.53 11:8.47 12:1.98 
-1 0:25.45 1:-18.12 2:-6.35 3:-34.71 4:-8.42 5:-14.17 6:-21.41 7:7.33 8:0.01 9:41.16 10:4.73 11:6 12:8.16 
-1 0:24.67 1:-10.13 2:-7.69 3:-3.06 4:-10.72 5:-30.57 6:-30.36 7:-11.21 8:-9.95 9:14.16 10:25.91 11:5.72 12:-11.1 
-1 0:22.96 1:3 2:7.36 3:-48.51 4:1.9 5:-11.53 6:18.16 7:-28.38 8:12.51 9:-2.04 10:8.34 11:-11.98 12:-27.04 
-1 0:24.76 1:-11.86 2:-7.45 3:-9.52 4:-30.08 5:6.71 6:-12.44 7:-34.41 8:-28.97 9:-18.11 10:-16.63 11:-7.89 12:-21.1 
-1 0:24.92 1:-11.76 2:-1.58 3:-27.03 4:-9.71 5:-28.03 6:-12.88 7:-19.12 8:-11.05 9:22.37 10:1.38 11:8.2 12:-6.1 
-1 0:24.78 1:-15.8 2:12.09 3:5.05 4:-3.05 5:-7.3 6:-0.52 7:-2.93 8:1.2 9:14.77 10:30.84 11:9.88 12:12.97 
-1 0:25.34 1:-14.72 2:20.43 3:-13.19 4:-12.74 5:-10.27 6:-33.85 7:-15.27 8:-29.34 9:-19.52 10:-21.5 11:1.89 12:-8.62 
-1 0:24.79 1:-11.81 2:-2.85 3:2.54 4:-12.28 5:0.91 6:-9.28 7:-28.38 8:-17.37 9:7.32 10:-9.4 11:-10.05 12:0.09 
-1 0:24.7 1:-13.9 2:6.46 3:-17.77 4:-28.06 5:-2.03 6:-24.93 7:-31.28 8:10.74 9:14.35 10:1.44 11:6.27 12:5.24 
-0.1365908379155068 0:24.68 1:-6.02 2:-0.99 3:-3.32 4:-23.75 5:-12.85 6:-41.68 7:-4.61 8:-36.63 9:-5.3 10:-22.3 11:-8.87 12:-9.89 
-1 0:24.3 1:-9.93 2:5.84 3:-20.69 4:-27.46 5:-6.67 6:-4 7:-24.6 8:-10.95 9:23.85 10:3.1 11:0.2 12:3.69 
-1 0:25.64 1:-22.28 2:7.68 3:-4.99 4:-3.52 5:-40.38 6:-19.75 7:-33.89 8:-5.29 9:31.55 10:5.77 11:11.21 12:-11.88 
-1 0:26.17 1:-21.63 2:5.68 3:-1.81 4:-17.58 5:-31.37 6:-18.6 7:-33.7 8:-32.78 9:-13.76 10:-17.45 11:0.69 12:-16.04 
-1 0:24.7 1:-13.55 2:10.29 3:9.28 4:-4.03 5:-22.72 6:-19.21 7:-23.99 8:9.76 9:16.17 10:16.18 11:2.15 12:13 
-1 0:25.37 1:-16.23 2:22.27 3:-6.22 4:-19.09 5:-7.09 6:-2.93 7:3.21 8:2.14 9:40.16 10:17.4 11:6.36 12:5.93 
-0.9586608761179662 0:24.45 1:-4.2 2:19.42 3:-29.23 4:-15.13 5:-14.11 6:-15.26 7:-4.71 8:-9.25 9:30.43 10:10.23 11:8.19 12:18.17 
-1 0:25.18 1:-17.04 2:-1.16 3:-19.23 4:-14.5 5:-12.53 6:-17.39 7:-15.63 8:-11.81 9:46.39 10:3.16 11:-4.14 12:-11.26 
-1 0:24.3 1:-5.05 2:7.8 3:-17.88 4:-26.35 5:-7.62 6:-8.57 7:-13.82 8:-29.72 9:32.01 10:-6.04 11:4.52 12:-16.48 
-1 0:24.03 1:-5.44 2:0.27 3:-12.94 4:-25.63 5:-6.4 6:0.07 7:-11.79 8:-2.86 9:35.78 10:36.12 11:16.75 12:4.73 
-1 0:22.06 1:-5.44 2:2.82 3:4.33 4:-7.7 5:-21.32 6:-11.01 7:1.74 8:-8.26 9:13.48 10:14.77 11:17.52 12:7.03 
-1 0:23.56 1:-0.91 2:5.17 3:-13.18 4:-20.08 5:1.48 6:-28.56 7:-24.93 8:-12.33 9:11.12 10:-2.94 11:4.49 12:-1.38 
-1 0:25.65 1:-18.34 2:11.38 3:-24.13 4:-20.8 5:-21.18 6:-46.74 7:-25.23 8:-27.46 9:-10.57 10:-33.56 11:-17.15 12:-10.49 
-1 0:25.61 1:-20.11 2:14.09 3:-22.25 4:-17.03 5:-19.67 6:-36.92 7:-24.28 8:-31.31 9:-10.73 10:-8.25 11:-11.78 12:-19.57 
-1 0:22.91 1:0.63 2:7.36 3:-11.41 4:-11.75 5:-15.94 6:11.75 7:6.5 8:-20.92 9:10.21 10:10.33 11:33.6 12:19.54 
-1 0:23.94 1:-7.65 2:5.63 3:-22.87 4:-13.92 5:-10.74 6:5.04 7:-8.11 8:-3.35 9:30.24 10:21.6 11:7.17 12:5.75 
-1 0:25.05 1:-15.49 2:10.15 3:-16.6 4:-34.04 5:-5.53 6:-8.51 7:-13.83 8:-20.8 9:-1.58 10:-11.01 11:11.85 12:-12.22 
-1 0:23.81 1:-9.12 2:6.47 3:-5.43 4:-38.46 5:-12.39 6:-4.7 7:-11.84 8:-23.77 9:-9.7 10:-13.75 11:0.21 12:0.72 
-1 0:24.12 1:-6.69 2:-6.87 3:-14.12 4:-12.84 5:-10.16 6:-20.74 7:-6.95 8:-18.12 9:19.11 10:4.64 11:-7.75 12:-2.61 
-1 0:25.17 1:-13.24 2:14.3 3:-21.13 4:-25.76 5:-0.78 6:-16.96 7:-13.72 8:-23.55 9:-14.21 10:-2.75 11:4.25 12:-12.24 
-1 0:24.2 1:-8.65 2:1.4 3:-4.22 4:0.84 5:-14.47 6:0.67 7:-15 8:5.13 9:38.07 10:17.47 11:15.23 12:7.87 
-1 0:24.13 1:-8.84 2:7.83 3:-1.85 4:-0.66 5:-26.19 6:-1.63 7:5.36 8:-11.95 9:31.5 10:9.55 11:20.3 12:17 
-1 0:24.72 1:-14.88 2:5.54 3:-10.99 4:-21.24 5:-8.55 6:-37.45 7:-17.69 8:-20.21 9:-24.19 10:-10.74 11:11.24 12:-13.22 
-1 0:24.13 1:-13.26 2:9.42 3:-9.05 4:-29.89 5:0.95 6:-16.72 7:-26.65 8:-32.13 9:-7.4 10:-16.58 11:-7.5 12:-15.98 
-1 0:23.29 1:0.22 2:-16.7 3:-1.41 4:-19.41 5:-35.42 6:-4.93 7:-47.2 8:-53.6 9:-4.65 10:-20.39 11:-20.15 12:-20.68 
-1 0:24.96 1:-15.35 2:-9.55 3:-18.75 4:-17.02 5:-3.82 6:-20.29 7:-23.3 8:-0.54 9:14.99 10:-5.1 11:4.81 12:-5.27 
-1 0:25.35 1:-18.29 2:5.74 3:1.27 4:-14.89 5:-24.15 6:-20.18 7:-17.48 8:-24.77 9:-9.52 10:-14.91 11:0.67 12:-0.62 
-1 0:25.86 1:-21.53 2:19.68 3:3.92 4:-23.19 5:-17.85 6:-21.54 7:-17.09 8:-25.39 9:-11.71 10:-8.8 11:8.6 12:-9.12 
-1 0:25.72 1:-25.56 2:2.51 3:7.12 4:-6.35 5:-18.76 6:-33.94 7:-29.93 8:-1.16 9:21.22 10:2.05 11:2.12 12:-21.77 
-1 0:24.78 1:-11.43 2:13.47 3:-16.66 4:-9.85 5:-9.74 6:10.71 7:-11.02 8:1.71 9:26.13 10:9.36 11:21.16 12:3.14 
-1 0:26.22 1:-22.65 2:9.65 3:-9.71 4:-10.5 5:-19.78 6:-9.27 7:-21.81 8:-0.93 9:29.54 10:6.62 11:8.04 12:3.33 
-1 0:24.92 1:-17.15 2:5.81 3:-20.77 4:-18.75 5:-8.68 6:-22.34 7:-22.2 8:12.59 9:29.78 10:-2.93 11:-2.69 12:-5.66 
-1 0:25.03 1:-9.48 2:-12.55 3:7.84 4:-9.2 5:-31.73 6:-25.36 7:-30.98 8:-1.45 9:14.46 10:7.36 11:7.74 12:-0.9 
-1 0:25.15 1:-14.04 2:-1.52 3:-4.47 4:-14.92 5:11.6 6:0.09 7:-20.97 8:-15.25 9:23.12 10:-5.37 11:-19.31 12:2.91 
-1 0:24.45 1:-7.95 2:6.7 3:-20.51 4:-13.75 5:11.47 6:-31.3 7:5.96 8:-3.79 9:33.78 10:19.62 11:9.36 12:5.85 
-1 0:25.42 1:-9.56 2:18.95 3:-18.99 4:-24.74 5:13.07 6:-18.93 7:0.37 8:-5.2 9:41.65 10:-5.56 11:10.4 12:-1.86 
-1 0:25.02 1:-17.9 2:-0.84 3:-8.32 4:-19.85 5:-24.52 6:-23.11 7:-24.15 8:-42.91 9:9.46 10:-22.94 11:-13.91 12:-31.3 
-1 0:24.12 1:-7.92 2:-12.95 3:-8.5 4:-6.58 5:3.77 6:-7.23 7:-17.04 8:3.36 9:35.44 10:9.1 11:-6.39 12:6.12 
-1 0:23.9 1:-9.46 2:-13.07 3:-13.47 4:1.08 5:-11.97 6:-10.76 7:-30.61 8:-11.93 9:10.66 10:-0.23 11:15.46 12:-0.81 
-1 0:26.5 1:-22.43 2:19.62 3:-7.65 4:-23.62 5:-13.31 6:-5.34 7:-23.72 8:-29.53 9:-13.39 10:-17.31 11:-1.24 12:-11.88 
-1 0:24.61 1:-7.48 2:-9.4 3:-11.86 4:-13.48 5:-3.76 6:-15.12 7:-37.73 8:-11.5 9:11.55 10:-14.19 11:-9.31 12:5.88 
-1 0:24.15 1:-11.56 2:7.32 3:-2.67 4:-36.08 5:-19.85 6:-26.23 7:-29.08 8:-24.54 9:-23.74 10:-27.19 11:-2.05 12:-9.87 
-1 0:24.16 1:-7.56 2:-13.63 3:-19.68 4:-16.97 5:-0.67 6:-18.53 7:-20.51 8:6.44 9:29.54 10:5.97 11:-4.6 12:5.36 
-1 0:25.68 1:-18.72 2:2.96 3:-7.12 4:-15.31 5:-10.87 6:-12.34 7:-30.42 8:-15.53 9:17.18 10:-0.89 11:-10.78 12:2.36 
-1 0:25.74 1:-17.5 2:14.05 3:3.74 4:-13.49 5:-7 6:-17.41 7:2.88 8:-5.17 9:27.55 10:9.05 11:10.78 12:4.62 
-1 0:24.48 1:-11.21 2:3.76 3:1.43 4:-32.25 5:-23.5 6:-16.03 7:-46.14 8:-23.54 9:-5.15 10:-6.91 11:5.6 12:-21.18 
-1 0:24.49 1:-13.74 2:7.13 3:-0.11 4:10.09 5:0.54 6:-7.61 7:-6.39 8:1.68 9:16.45 10:15.49 11:25.44 12:7.65 
-1 0:23.78 1:-8.56 2:6.48 3:-19.74 4:0.15 5:-4.25 6:-5.24 7:-17.63 8:-5.07 9:26.37 10:14.79 11:16.05 12:7.24 
-1 0:24.72 1:-12.17 2:-8.09 3:-10.29 4:-8.4 5:-9.04 6:-15.54 7:-8.73 8:-3.59 9:23.1 10:16.11 11:7.82 12:6.84 
-1 0:23.52 1:-8.66 2:0.81 3:1.44 4:-29.1 5:-24.69 6:-31.76 7:-16.99 8:-9.76 9:-33.26 10:-40.5 11:3.72 12:4.98 
-1 0:24.84 1:-16.24 2:4.14 3:3.49 4:-41.04 5:-26.45 6:-24.12 7:-37.06 8:-10.91 9:-25.37 10:-29.6 11:14.27 12:-18.22 
-1 0:24 1:-10.84 2:6.75 3:4.07 4:-40.17 5:-7.2 6:-15.78 7:-5.08 8:-35.19 9:-39.73 10:-39.66 11:-0.96 12:-8.31 
-1 0:24.94 1:-11.62 2:5.74 3:-1.19 4:3.51 5:-17.99 6:-27.35 7:-10.78 8:-3.11 9:37.82 10:7.88 11:13.35 12:7.96 
-1 0:23.64 1:9.78 2:12.93 3:-29.1 4:-19.54 5:-11.41 6:-22.87 7:2.79 8:-17.97 9:5.15 10:-2.72 11:-5.29 12:9.41 
-1 0:25.49 1:-12.53 2:14.98 3:-18.99 4:-15.87 5:-12.42 6:-36.2 7:-0.88 8:-43.39 9:-12.9 10:-22.13 11:-11.23 12:-2.65 
-1 0:24.14 1:-10.39 2:7.61 3:-8.56 4:-21.39 5:-2.68 6:-38.09 7:-14.51 8:-18.03 9:-18.04 10:-20.65 11:-4.58 12:-3.36 
-1 0:24.29 1:-10.4 2:8.75 3:-26.22 4:-19.38 5:-3.04 6:-27.71 7:-0.77 8:-30.11 9:-28.81 10:0.61 11:8.7 12:-13.74 
-1 0:25.81 1:-21.49 2:-1.55 3:-10.4 4:-21.03 5:-36.83 6:-24.23 7:-31.09 8:-25.74 9:2.61 10:-26.16 11:-9.87 12:-22.35 
-1 0:24.43 1:-7.83 2:-1.86 3:6.4 4:-18.73 5:-24.6 6:-0.94 7:-26.92 8:14.87 9:37.6 10:21.46 11:7.57 12:18.26 
-1 0:24.88 1:-13.37 2:15.03 3:-17.13 4:-24.04 5:-11.64 6:-9.51 7:-2.85 8:-28.22 9:-11.25 10:-17.23 11:9.04 12:-14.21 
-1 0:25.32 1:-9.69 2:6.6 3:-22.91 4:6.84 5:-22.11 6:-15.63 7:-3.23 8:-1.81 9:17.7 10:11.2 11:16.14 12:9.83 
-1 0:24.33 1:-9.85 2:9.46 3:-11.5 4:-0.62 5:-8.11 6:9.67 7:-5.27 8:-0.24 9:25.15 10:32.14 11:19.17 12:7.89 
-1 0:25.27 1:-12.24 2:-1.83 3:-10.04 4:-11.22 5:2.36 6:-15.6 7:-29.15 8:-8.03 9:0.54 10:-4.88 11:-9.67 12:6.03 
-1 0:25.52 1:-14.97 2:13.21 3:-3.11 4:-5.77 5:-26.8 6:-30.92 7:-8.38 8:-25.97 9:-16.45 10:-5.02 11:6.33 12:-7.38 
-1 0:25.51 1:-16.1 2:6.97 3:4.05 4:-25.5 5:-20.74 6:-35.7 7:-9.61 8:-30.83 9:-0.72 10:-40.38 11:-7.88 12:-16.49 
-1 0:25.12 1:-19.26 2:9.82 3:-3.52 4:-20.08 5:-23.92 6:-16.32 7:-38.31 8:-23.12 9:-7.78 10:-13.01 11:0.71 12:-10.44 
-1 0:24.38 1:-11.26 2:11 3:-17.96 4:-45.19 5:3.44 6:-30.56 7:-9.19 8:-30.57 9:-12.35 10:-14.95 11:-9.95 12:-13.94 
-1 0:24.09 1:1.43 2:-10.08 3:-35.85 4:-14.95 5:6.09 6:-34.61 7:-7.78 8:-5.93 9:22.62 10:12.79 11:8.05 12:-3.99 
-1 0:22.36 1:-5.48 2:9.49 3:-10.13 4:-38.49 5:1.99 6:-25.31 7:-13.07 8:-33.13 9:-7.65 10:-28.86 11:-5.16 12:-12.23 
-1 0:25.1 1:-20.07 2:3.53 3:-10.33 4:-25.66 5:-17.06 6:-22.56 7:-28.4 8:-36.32 9:-15.55 10:-2.72 11:-10.32 12:-17.71 
-0.5253849634137988 0:23.57 1:-7.93 2:-10.43 3:0.8 4:-33.73 5:1.66 6:-40.57 7:-37.05 8:-11.63 9:-13.4 10:-15.62 11:-7.44 12:-10.17 
-1 0:25.17 1:-16.34 2:5.65 3:-10.06 4:-9.08 5:-11.3 6:-6.09 7:-12.09 8:2.84 9:34.49 10:14.23 11:16.93 12:3.74 
-1 0:24.29 1:-7.54 2:4.28 3:-23.72 4:-15.41 5:15.79 6:-4.9 7:-15.05 8:-0.8 9:9.14 10:12.33 11:9.4 12:3.04 
-1 0:25.99 1:-17.88 2:11.23 3:2.23 4:-25.48 5:12.86 6:-9.53 7:16.47 8:5.01 9:27.07 10:20.96 11:4.85 12:1.06 
-1 0:25.19 1:-8.16 2:21.1 3:-10.77 4:-13.72 5:14.09 6:-37.44 7:10.07 8:-0.11 9:35.91 10:9.72 11:7.96 12:7.18 
-1 0:25.03 1:-8.29 2:9.28 3:-21.29 4:-13.56 5:-17.54 6:-32.96 7:-7.16 8:-26.16 9:-8.86 10:-10.28 11:13.41 12:-16.35 
-1 0:25.37 1:-18.25 2:7.97 3:4.62 4:-19.14 5:-8.14 6:-15.9 7:-28.77 8:-25.06 9:-15.99 10:4.67 11:-0.5 12:-7.4 
-1 0:26.1 1:-24 2:-8.58 3:4.79 4:-27.32 5:-3.27 6:-46.15 7:-22.75 8:-22.61 9:-9.6 10:-34.69 11:-3.46 12:-31.6 
-1 0:24.93 1:-12.83 2:11.61 3:-21.59 4:-24.5 5:-2.04 6:-10.2 7:13.79 8:1.72 9:23.01 10:12.14 11:11.32 12:5.54 
-1 0:24.13 1:-6.63 2:8 3:-6.2 4:8.04 5:-15.68 6:-2.02 7:13.07 8:-13.83 9:33.73 10:26.39 11:16.43 12:13.46 
-1 0:25.07 1:-15.1 2:-12.55 3:6.25 4:-25.3 5:-33.95 6:-29.23 7:-39.02 8:-21.88 9:-12.9 10:-3.31 11:-8.68 12:-22.03 
-1 0:24.43 1:-11.11 2:-8.99 3:-24.02 4:-17.72 5:-9.94 6:-26.96 7:-31.62 8:-24.44 9:-9.19 10:-22.65 11:4.45 12:-26.81 
-1 0:23.9 1:-1.83 2:-0.28 3:15.67 4:-39.08 5:-31.91 6:-17.74 7:-32.89 8:7.47 9:6.41 10:-5.34 11:19.02 12:2.52 
-1 0:25.52 1:-23.27 2:15.32 3:13.61 4:-15.21 5:-22.32 6:-31.38 7:-24.97 8:-20.81 9:-16.84 10:-14.34 11:3.07 12:-6.84 
-1 0:24.28 1:-11.44 2:11.52 3:-18.3 4:-31.63 5:-24.65 6:-5.58 7:-13.52 8:-21.71 9:-2.98 10:-22.7 11:11.68 12:-11.01 
-1 0:24.81 1:-12.2 2:-4.73 3:-11.42 4:-17.47 5:-15.21 6:-17.16 7:-2.88 8:-14.61 9:24.9 10:2.9 11:-0.5 12:-1.11 
-1 0:26.13 1:-27.45 2:-6.02 3:-9.26 4:-30.72 5:-30.38 6:-25.22 7:-14.7 8:-25.46 9:1.27 10:-24.08 11:-23.82 12:-10.73 
-1 0:24.4 1:-12.78 2:7.2 3:-25.75 4:-42.98 5:2.55 6:-17.99 7:-32.04 8:-28.42 9:-12.32 10:-11.68 11:-16.51 12:-14.45 
-1 0:25.51 1:-19.03 2:11.23 3:4.64 4:-6.64 5:-22.58 6:-9.65 7:-25.19 8:6.95 9:41.64 10:7.76 11:14.54 12:5.87 
-1 0:25.09 1:-19.44 2:2.81 3:12.53 4:-4.02 5:-33.98 6:-53.91 7:-5.47 8:-10.43 9:9.56 10:10.77 11:-6.76 12:1.43 
-1 0:22.77 1:-10.57 2:5.58 3:9.15 4:-21.26 5:-30.77 6:4.63 7:-12.35 8:-1.55 9:14.99 10:11.6 11:14.87 12:7.87 
-1 0:26.29 1:-19.67 2:27.54 3:-12.57 4:-20.58 5:5.36 6:-27.07 7:0.22 8:-6.36 9:38.89 10:2.07 11:7.78 12:-5.66 
-1 0:23.56 1:-7.87 2:4.96 3:5.15 4:-33.67 5:-31.16 6:-13.07 7:-6.49 8:-7.72 9:-0.05 10:6.19 11:10.71 12:8.16 
-0.7675702037527211 0:25.2 1:-15.55 2:-1.12 3:1.51 4:-45 5:-22.16 6:-23.62 7:-35.18 8:-31.63 10:-16.5 11:-14.33 12:-28.2 
-1 0:25.9 1:-17.29 2:9.94 3:-16.27 4:-24.04 5:-12.28 6:-32.56 7:-10.7 8:-45.76 9:-11.36 10:-27.2 11:-23.35 12:-11.41 
-1 0:23.74 1:-16.01 2:9.46 3:-13.36 4:-16.68 5:-1.59 6:-25 7:-9.07 8:-39.59 9:-16.83 10:-30.6 11:-11.52 12:-11.21 
-1 0:25.34 1:-17.53 2:9.42 3:-1.72 4:-19.42 5:-12.46 6:-17.82 7:-3.68 8:-34.86 9:-21.63 10:-7.24 11:11.69 12:-11.29 
-1 0:25.91 1:-19.24 2:25.5 3:0.93 4:-17.52 5:-7.98 6:-31.57 7:-10.32 8:-36.48 9:-7.81 10:-21.46 11:-12.68 12:-2.05 
-1 0:23.32 1:-3.12 2:7.21 3:-20.76 4:-34.26 5:-9.68 6:-4.61 7:7.4 8:-27.36 9:-20.48 10:-26.5 11:10.67 12:-2 
-1 0:24.13 1:-10.9 2:-2.48 3:-16.75 4:-37.84 5:-11.02 6:-20.32 7:-0.52 8:-27.67 9:-11.36 10:-14.31 11:0.14 12:-6.25 
-1 0:23.02 1:-0.64 2:14.27 3:0.25 4:-22.9 5:-6.27 6:10.33 7:-18.62 8:-6.75 9:8.66 10:5.94 11:24.57 12:9.76 
-0.2968661420812064 0:25.5 1:-17.79 2:7.69 3:12.01 4:-6.66 5:-3.43 6:-16.7 7:14.53 8:-17.82 9:31.38 10:16.78 11:8.34 12:9.82 
-1 0:24.97 1:-20.27 2:13.45 3:-0.91 4:-17.06 5:-18.32 6:-22.56 7:-29.45 8:-26.35 9:-13.29 10:-6.23 11:2.14 12:-7.3 
-0.6250799195949436 0:22.92 1:0.33 2:-14.76 3:-1.16 4:1.33 5:-39.52 6:-26.71 7:-15.69 8:-23.78 9:37.67 10:2.72 11:4.3 12:-4.19 
-1 0:25.74 1:-19.31 2:7.32 3:-18.69 4:-13.44 5:-13.74 6:-20.91 7:-40.49 8:-29.66 9:-27.42 10:-16.01 11:9.33 12:-16.79 
-1 0:24.91 1:-14.26 2:17.3 3:-23.51 4:-28.29 5:7.36 6:-12.97 7:-17.94 8:-22.09 9:-13.93 10:-3.13 11:-1.38 12:-9.12 
-1 0:24.41 1:-9.65 2:8.5 3:-3.32 4:-3.79 5:-4.39 6:-7.6 7:-8.72 8:1.49 9:31.75 10:27.36 11:1.6 12:20.3 
-1 0:25.1 1:-12.43 2:1.21 3:-4.38 4:-25.42 5:2.65 6:-23.28 7:-27.21 8:-31.31 9:-12.93 10:-28.97 11:-6.45 12:-12.75 
-1 0:24.62 1:-14.08 2:10.11 3:-11.84 4:-46 5:-17.26 6:-0.96 7:-8.68 8:-20.48 9:-8.83 10:-22.53 11:14.61 12:-15.77 
-1 0:25.5 1:-11.28 2:17.82 3:-13.56 4:-7.86 5:22.35 6:-40.23 7:15.54 8:1.46 9:29.96 10:10.35 11:9.15 12:5.11 
-1 0:24.48 1:-16.28 2:7.1 3:-8.69 4:-26.94 5:-1.53 6:-19.15 7:-13.75 8:-26.34 9:-24.54 10:-17.17 11:2.87 12:-2.83 
-1 0:24.19 1:-6.64 2:-15.02 3:16.05 4:-16.22 5:-23.03 6:-27.04 7:-30.92 8:0.69 9:-1.03 10:2.34 11:26.42 12:-17.02 
-1 0:24.91 1:-14.75 2:5.6 3:-7.12 4:-23.87 5:-5.27 6:-34.95 7:-16.77 8:-27.62 9:-12.41 10:-11.51 11:-5.49 12:-14.15 
-1 0:24.7 1:-15.57 2:14.82 3:-19.03 4:-29.07 5:-19.89 6:-23.97 7:-7.35 8:-26.72 9:-9.8 10:-29.09 11:1.72 12:-5.96 
-1 0:24.58 1:-16.9 2:-23.89 3:-8.87 4:-19.03 5:-15.04 6:-7.94 7:4.04 8:0.58 9:35.64 10:10.26 11:4.7 12:5.71 
-1 0:25.35 1:-14.58 2:18.46 3:-4.33 4:2.3 5:-3.1 6:-45.03 7:0.53 8:5.07 9:33.87 10:11.22 11:11.37 12:11.55 
-1 0:25.48 1:-15.57 2:8.61 3:-0.69 4:-34.54 5:-11.41 6:-12.38 7:-23.84 8:-24.76 9:-15.13 10:-11.15 11:4.37 12:-14.85 
-1 0:23.42 1:-8.56 2:4.63 3:12.97 4:-17.26 5:-24.12 6:4.38 7:-3.42 8:-4.38 9:9.49 10:33 11:23.02 12:18.5 
-1 0:25.34 1:-20.5 2:-11.61 3:-16.99 4:-18.33 5:-17.07 6:-19.49 7:-6.03 8:-0.47 9:25.06 10:17.83 11:-3.16 12:-0.23 
-1 0:25.6 1:-21.31 2:13.82 3:-4.81 4:-19.09 5:-9.69 6:-17.25 7:-16.84 8:-29.76 9:-4.92 10:-18.76 11:-3.1 12:-6.33 
-1 0:25.74 1:-18.4 2:0.9 3:-0.24 4:-15.11 5:-30.31 6:-7.88 7:-26.19 8:-6.21 9:24.66 10:4.52 11:1.99 12:4.3 
-1 0:24.42 1:-7.06 2:9.58 3:-27.31 4:-1.42 5:-8.72 6:-8.39 7:9.14 8:-8.57 9:39.47 10:16.03 11:15.55 12:5.6 
-1 0:25.09 1:-14.42 2:8.14 3:-12.26 4:-24.51 5:-12.38 6:-20.37 7:-18.88 8:-20.98 9:-9.67 10:-5.9 11:-3.73 12:1.52 
-1 0:23.51 1:-4.71 2:6.8 3:-35.2 4:-32.61 5:-4.97 6:-8.67 7:-0.88 8:-43.98 9:-17.86 10:-25.68 11:5.53 12:-7.01 
-1 0:24.76 1:-9.52 2:25.25 3:-11.62 4:-8.68 5:-15.36 6:-17.46 7:12.17 8:-4.85 9:42.49 10:20.28 11:0.79 12:7.5 
-1 0:23.85 1:-2.9 2:5.5 3:-36.11 4:-45.58 5:0.37 6:-20.86 7:0.13 8:-31.08 9:-30.49 10:-7.54 11:-9.23 12:4.1 
-1 0:23.37 1:-5.05 2:9.33 3:14.43 4:-12.53 5:-22.11 6:-0.76 7:7.33 8:-24.28 9:29.29 10:24.48 11:12.3 12:12.69 
-1 0:23.98 1:-4.01 2:-3.63 3:-20.04 4:-39.71 5:-22.97 6:0.46 7:-13.97 8:0.54 9:31.41 10:12.72 11:10.83 12:1.89 
-1 0:22.79 1:-1.3 2:6.88 3:-0.96 4:-10.54 5:-24.71 6:0.42 7:15.34 8:-8.95 9:10.7 10:22.25 11:23.45 12:15.63 
-1 0:23.25 1:-0.12 2:6.5 3:-26.63 4:-5.43 5:-15.86 6:-2.68 7:19.87 8:8.82 9:18.74 10:14.49 11:22.87 12:6.95 
-1 0:25.86 1:-24.01 2:-1.36 3:-10.62 4:-9.3 5:-15.04 6:-27.13 7:-29.1 8:6.15 9:32.02 10:2.27 11:0.07 12:-20.01 
-1 0:24.42 1:-12.68 2:-1.89 3:-13.64 4:-17.51 5:14.09 6:-2.81 7:-24.67 8:-17.44 9:20.67 10:1.82 11:-13.06 12:-5.45 
-0.1877698448677203 0:25.64 1:-18.04 2:-1.85 3:-6.98 4:-26.39 5:4.37 6:-26.56 7:-26.45 8:-34.82 9:-2.74 10:-27.35 11:-22.95 12:-13.5 
-1 0:25.44 1:-19.43 2:10.82 3:-2.33 4:-15.57 5:-13.79 6:-18.94 7:-22.06 8:-23.72 9:-16.68 10:-5.8 11:6.1 12:-13.96 
-1 0:23.99 1:-11.35 2:11.33 3:-11.34 4:-31.05 5:-4.03 6:-3.57 7:-6.15 8:-28.05 9:-13.78 10:-0.27 11:10.85 12:-5.01 
-1 0:23.24 1:-5.41 2:6.28 3:2.41 4:-24.15 5:-33.39 6:6.35 7:17 8:-19.59 9:3.7 10:10.11 11:28.32 12:17.12 
-1 0:25.12 1:-10.66 2:2.77 3:-20.71 4:-10.33 5:-8.52 6:-5.37 7:-10.98 8:-8.16 9:22.87 10:10.26 11:16.14 12:7.48 
-1 0:25.13 1:-14.57 2:9.4 3:-10.43 4:-37.13 5:2.45 6:-7.4 7:-31.62 8:-35.44 9:-2.57 10:-14.55 11:-14.64 12:-14.34 
-1 0:26.32 1:-8.26 2:23.23 3:-31.72 4:5.76 5:-25.32 6:-9 7:-13.8 8:-15.73 9:3.39 10:-18.37 11:4.89 12:-15.94 
-1 0:25.14 1:-11.79 2:7.94 3:-26.06 4:-20.14 5:1.85 6:-25.91 7:-19.66 8:-29.94 9:-9.69 10:-17.81 11:3.97 12:-14.74 
-1 0:24.41 1:-1.73 2:-13.31 3:-18.61 4:-8.46 5:-14.6 6:-14.77 7:-27.9 8:-9.59 9:5.73 10:-5.79 11:11.06 12:-3.22 
-0.9163414418504203 0:25.09 1:-12.68 2:6.36 3:-11.79 4:-26.43 5:-25.81 6:-16.35 7:-26.87 8:-31.55 9:-15.64 10:-16.25 11:4.92 12:-11.66 
-1 0:25 1:-12.23 2:21.64 3:-5.66 4:-5 5:-28.78 6:-0.81 7:-11.22 8:-12.2 9:23.68 10:8.87 11:15.68 12:12.22 
-1 0:25.56 1:-20.24 2:-10.8 3:-16.98 4:-6.84 5:-23.09 6:-11.68 7:13.81 8:-11.41 9:40.22 10:-11.23 11:-0.91 12:8.81 
-1 0:24.56 1:-13.48 2:9.26 3:14.61 4:-34.59 5:-19.88 6:7.9 7:14.74 8:-6.18 9:41.99 10:14.63 11:3.88 12:13.63 
-1 0:26.25 1:-25.65 2:6.95 3:3.15 4:-6.25 5:-31.91 6:-27.87 7:-14.07 8:-7.13 9:21.68 10:-10.47 11:5.31 12:-14.02 
-1 0:25.09 1:-12.5 2:5.32 3:-19.05 4:-7.02 5:-17.76 6:-31.2 7:3.59 8:-35.49 9:-13.35 10:-3.17 11:7.49 12:-13.08 
-1 0:25.04 1:-14.16 2:8.67 3:-22.05 4:-11.95 5:-5.57 6:-3.5 7:-0.11 8:0.84 9:31.84 10:13.82 11:9.36 12:7.03 
-1 0:24.77 1:-17.49 2:-6.35 3:0.51 4:-25.56 5:-19.91 6:-36.67 7:-19.56 8:-25.94 9:-6.92 10:-39.38 11:3.52 12:-27.65 
-1 0:24.49 1:-8.21 2:2.83 3:-18.81 4:-25.15 5:-28.18 6:-10.82 7:-16.02 8:-14.85 9:18.04 10:17.28 11:11.77 12:-6.19 
-1 0:24.06 1:-7.28 2:-3.17 3:-14.86 4:-28.83 5:-13.52 6:-13.96 7:-2.86 8:-13.6 9:31.41 10:9.07 11:0.57 12:-1.14 
