svm_type nu_svc
kernel_type linear
nr_class 2
total_sv 153
rho -1.51495
label 1 -1
probA -2.68909
probB 0.463567
nr_sv 77 76
SV
2.589632787521558e-05 0:24.07 1:-4.55 2:5.46 3:-41.45 4:-8.74 5:-2.04 6:-33.84 7:3.44 8:-14.26 9:14.24 10:12.52 11:-5.52 12:-6.39 
2.589632787521558e-05 0:24.54 1:-9.16 2:4.11 3:-20.58 4:-5.09 5:-14.65 6:-36.62 7:2.04 8:-24.49 9:-2.49 10:9.35 11:-8.71 12:-5.49 
2.589632787521558e-05 0:25.64 1:-23.21 2:4.55 3:-16.59 4:-14.77 5:-15.17 6:-1.97 7:-14.24 8:-4.43 9:-0.59 10:-1.35 11:9.43 12:-7.07 
2.589632787521558e-05 0:24.26 1:-8.54 2:13.77 3:-25.78 4:-25.54 5:12.29 6:-20.99 7:-5.12 8:3.69 9:-3.63 10:11.37 11:-6.84 12:2.26 
2.589632787521558e-05 0:23.8 1:-8.04 2:13.38 3:-20.95 4:-28.52 5:5.79 6:-18.02 7:-1.77 8:-9.16 9:1.27 10:3.63 11:7.72 12:-1.7 
2.589632787521558e-05 0:25.08 1:-14.96 2:15.31 3:-12.19 4:-12.63 5:3.93 6:-22.89 7:-10.49 8:-3.98 9:-0.62 10:14.68 11:6.81 12:1.35 
2.589632787521558e-05 0:25.42 1:-14.73 2:6.27 3:-20.21 4:-39.04 5:10.16 6:4.92 7:-12 8:-12.41 9:1.41 10:7.74 11:13.84 12:-17.75 
2.589632787521558e-05 0:24.02 1:-10.34 2:16.63 3:-14.22 4:-22.57 5:-2.61 6:-22.83 7:-5.45 8:1.52 9:1.29 10:6.62 11:6.76 12:2.6 
2.589632787521558e-05 0:23.97 1:-12.92 2:-23.61 3:-27.55 4:-16.71 5:-13.93 6:-13.99 7:-9.39 8:-8.03 9:-6.71 10:0.52 11:-10.82 12:-11.46 
2.589632787521558e-05 0:23.92 1:-7.1 2:19.15 3:-14.74 4:-16.37 5:4.25 6:-21.97 7:-4.83 8:-21.62 9:-3.09 10:4.28 11:-13 12:-12.21 
2.589632787521558e-05 0:25.06 1:-9.07 2:14.01 3:-33.3 4:-8.82 5:-8.13 6:-15.28 7:-10.65 8:0.73 9:5.96 10:-17.65 11:9.27 12:-5.37 
2.589632787521558e-05 0:25.33 1:-12.89 2:14.66 3:-18.3 4:-10.14 5:-3.13 6:-25.72 7:-7.67 8:-8.3 9:-2.32 10:17.29 11:-6.12 12:-1.27 
2.589632787521558e-05 0:24.68 1:-9.98 2:3.1 3:-11.52 4:-47.23 5:2.33 6:4.73 7:-19.43 8:-9.17 9:18.35 10:-3.24 11:8.07 12:-11.59 
2.589632787521558e-05 0:25.14 1:-14.39 2:-0.11 3:-17.41 4:-8.42 5:-17.32 6:-23.64 7:-4.49 8:-14.92 9:4.55 10:-9.45 11:-0.07 12:-14.34 
2.589632787521558e-05 0:24.17 1:-9.84 2:10.59 3:-26.35 4:-27.21 5:-0.72 6:-19.21 7:-1.9 8:-0.83 9:-0.86 10:14.82 11:-1.53 12:0.22 
2.589632787521558e-05 0:24.13 1:-11.82 2:18.81 3:-17.53 4:-21.33 5:-12.38 6:-22.28 7:-0.09 8:-7.33 9:5.26 10:2.72 11:-3.42 12:8.97 
2.589632787521558e-05 0:25.11 1:-13.27 2:14.99 3:-23.27 4:-50.48 5:2.46 6:11.83 7:-24.59 8:-8.52 9:15.74 10:-9.13 11:4.5 12:-10.78 
2.589632787521558e-05 0:21.76 1:-11.45 2:16.24 3:-7.65 4:-14.69 5:7.39 6:-13.14 7:13.92 8:-0.39 9:13.23 10:-4.87 11:7.57 12:-7.48 
2.589632787521558e-05 0:24.76 1:-10.46 2:20.87 3:-24.97 4:-20.95 5:-11.77 6:-20.9 7:-5.36 8:3.23 9:2.38 10:0.67 11:-2.34 12:-2.01 
2.589632787521558e-05 0:24.57 1:-10.12 2:8.63 3:-26.07 4:-22.22 5:-3.52 6:-21.83 7:-5.09 8:-7.49 9:13.81 10:-2.3 11:-10.48 12:6.69 
2.955251047340836e-06 0:24.49 1:-11.05 2:14.95 3:-17.47 4:-17.55 5:-11.75 6:-22.9 7:-14.18 8:-9.09 9:-1.35 10:27.87 11:-11.14 12:-2.04 
2.589632787521558e-05 0:21.93 1:-14.44 2:10.08 3:-6.95 4:-4.06 5:5.11 6:-5 7:6.67 8:-4.22 9:19.48 10:-8.07 11:7.87 12:-0.64 
2.589632787521558e-05 0:23.89 1:-9.97 2:8.79 3:-17.65 4:-47.38 5:-10.19 6:21.46 7:-22.69 8:-19.43 9:3.08 10:2.06 11:5.91 12:-12.75 
2.589632787521558e-05 0:24.42 1:-6.03 2:-0.92 3:-2.81 4:-32.6 5:-17.5 6:3.83 7:-11.9 8:-17.38 9:12.98 10:-5.72 11:-6.46 12:-10.75 
2.589632787521558e-05 0:24.51 1:-9.83 2:2.31 3:-30.76 4:-40.75 5:0.9 6:11.25 7:-19.3 8:-0.36 9:6.6 10:-8.26 11:12.46 12:-9.74 
2.589632787521558e-05 0:25.27 1:-14.28 2:6.06 3:-20.02 4:-6.43 5:-20.62 6:-24.06 7:-3.76 8:-25.1 9:9.68 10:-3.51 11:-8.03 12:-7.59 
2.589632787521558e-05 0:23.83 1:-5.32 2:1.95 3:-25.17 4:-40 5:-5.15 6:12.87 7:-22.98 8:-12.55 9:2.86 10:-11.06 11:5.96 12:-11.98 
2.589632787521558e-05 0:25.1 1:-13.31 2:10.28 3:-8.63 4:-5.64 5:-12.04 6:-27.38 7:-9.36 8:-15.96 9:3.06 10:-4.45 11:0.12 12:-6.63 
2.589632787521558e-05 0:24.79 1:-8.53 2:9.15 3:-23.09 4:-1.53 5:-9.52 6:-24.38 7:7.59 8:-27.83 9:15.3 10:-5.4 11:-6.77 12:-3.4 
2.589632787521558e-05 0:25.83 1:-15.76 2:22.22 3:-24.8 4:-8.33 5:-8.67 6:-22.95 7:-0.37 8:-8.09 9:-5.74 10:4.72 11:-4.96 12:-11.14 
2.461575598467918e-05 0:24.64 1:-7.75 2:8.93 3:-19.06 4:1.1 5:-13.82 6:-25.58 7:4.75 8:-17.79 9:1.79 10:0.29 11:-13.33 12:-5.52 
2.589632787521558e-05 0:25.21 1:-13.63 2:12.11 3:-20.93 4:-3.64 5:-18.47 6:-24.82 7:3.04 8:-17.06 9:5.2 10:3.96 11:-8.28 12:-5.11 
2.589632787521558e-05 0:24.65 1:-11.12 2:5.59 3:-23.21 4:-6.48 5:-13.2 6:-32.99 7:4.77 8:-17.62 9:-0.87 10:-11.17 11:1.52 12:-1.28 
2.589632787521558e-05 0:24.65 1:-5.91 2:-4.54 3:-17.26 4:-19.44 5:1.53 6:-15.12 7:-24.28 8:2.66 9:-7.96 10:3.18 11:4.05 12:2.65 
2.589632787521558e-05 0:25.9 1:-19.14 2:7.91 3:-17.04 4:-37.54 5:-5.9 6:-17.68 7:-2.51 8:-9.51 9:-3.54 10:-5.42 11:10.44 12:-11.92 
2.589632787521558e-05 0:23.61 1:-8.58 2:-14.63 3:-9.68 4:-11.74 5:-19.41 6:-14.85 7:-7.96 8:-12.92 9:9.59 10:-13.19 11:1.26 12:-7.54 
2.589632787521558e-05 0:24.82 1:-7.1 2:-5.01 3:-12.06 4:-11.66 5:-18.83 6:-3.77 7:-18.61 8:-9.98 9:5.3 10:6.77 11:2.52 12:6.07 
2.589632787521558e-05 0:24.17 1:-10.39 2:14.44 3:-19.13 4:-17.77 5:0.66 6:-26.38 7:-11.58 8:2.94 9:-3.13 10:7.49 11:-7.48 12:1.31 
2.589632787521558e-05 0:23.54 1:-5.38 2:7.1 3:-17.49 4:-20.75 5:-7.02 6:-28.31 7:4.25 8:-6.8 9:-11.79 10:10.32 11:-4.74 12:8.88 
2.589632787521558e-05 0:24.7 1:-13.84 2:-0.21 3:-39.61 4:-34.41 5:-10.81 6:-5.33 7:-14.44 8:-8.49 9:0.72 10:0.88 11:-2.84 12:-16.6 
2.589632787521558e-05 0:24.55 1:-12.62 2:11.93 3:-4.81 4:-28.32 5:-11.69 6:-26.27 7:4.94 8:-13 9:10.46 10:-14.31 11:1.66 12:-4.72 
2.589632787521558e-05 0:24.24 1:-15.22 2:-22.65 3:-34.33 4:-24.14 5:-32.55 6:-6.13 7:-4.26 8:-13.82 9:-3.1 10:-10.71 11:3.6 12:-23.51 
2.589632787521558e-05 0:24.22 1:-8.36 2:-0.68 3:-0.4 4:-18.82 5:-3.89 6:-30.9 7:-11.67 8:-14.12 9:7.17 10:6.51 11:9.91 12:-11.79 
2.589632787521558e-05 0:25.25 1:-18.34 2:12.27 3:-22.54 4:3.97 5:-10.76 6:-43.06 7:2.1 8:-13.23 9:6.95 10:-0.36 11:-7.11 12:-16.69 
2.589632787521558e-05 0:25.39 1:-11.93 2:11.49 3:-34.77 4:-1.74 5:-7.03 6:-11.35 7:-7.56 8:-4.67 9:11.71 10:-12.98 11:-4.14 12:-8.28 
2.589632787521558e-05 0:21.75 1:-9.33 2:13.42 3:-9.5 4:-10.9 5:7.86 6:-10.99 7:15.14 8:-16.47 9:18.54 10:-1.38 11:7.15 12:7.85 
2.589632787521558e-05 0:24.8 1:-13.72 2:9.03 3:-14.57 4:-41.25 5:-6.7 6:3.6 7:-21.57 8:-11.32 9:-2.27 10:-6.95 11:11.59 12:-2.49 
1.127348478080335e-05 0:21.47 1:-8.42 2:15.08 3:-10.78 4:-4.8 5:0.78 6:-10.92 7:16.82 8:-11.47 9:16.84 10:-2.68 11:4.41 12:-0.55 
2.589632787521558e-05 0:23.99 1:-8.29 2:-1.2 3:-27.83 4:-37.03 5:-1.9 6:1.33 7:-7.46 8:-16.19 9:-4.7 10:-0.67 11:15.47 12:-9.15 
2.589632787521558e-05 0:24.65 1:-8.24 2:-3.24 3:-18.72 4:-5.98 5:-14.62 6:-9.6 7:-18.75 8:-15 9:0.7 10:11.07 11:2.05 12:3.6 
2.589632787521558e-05 0:25.22 1:-15.86 2:-8.96 3:-10.18 4:-20.5 5:3.43 6:-20.16 7:-2.51 8:-9.01 9:10.54 10:-4.69 11:-1.85 12:-0.41 
2.589632787521558e-05 0:23.77 1:-15.68 2:-20.16 3:-20.78 4:-24.55 5:-15.67 6:-8.22 7:-4.15 8:-9.89 9:-3.69 10:1.73 11:-11.21 12:-11.29 
2.589632787521558e-05 0:24.4 1:-5.27 2:-4.6 3:-5.25 4:-19.57 5:-11.22 6:-13.98 7:-15.95 8:-7.42 9:-9.29 10:14.86 11:5.95 12:-5.3 
2.589632787521558e-05 0:24.26 1:-16 2:-12.98 3:-23.34 4:-28 5:-20.55 6:-7.88 7:-0.48 8:-3.47 9:-3.77 10:-0.08 11:-8.21 12:-12.04 
2.589632787521558e-05 0:25.34 1:-15.44 2:15.35 3:-13.89 4:-32.93 5:-12.06 6:-0.07 7:-7.07 8:-4.37 9:-0.59 10:3.5 11:12.56 12:2.13 
2.589632787521558e-05 0:23.67 1:0.06 2:10.25 3:-13.32 4:-36.28 5:0.67 6:-2.94 7:-10.46 8:-13.21 9:-1.76 10:6.72 11:-3.94 12:4.47 
2.589632787521558e-05 0:23.55 1:-6.06 2:8.15 3:-23.26 4:-24.76 5:-10.55 6:-14.88 7:-13.77 8:-5.2 9:3.54 10:5.17 11:-11.1 12:3.37 
2.589632787521558e-05 0:24.6 1:-11.16 2:5.85 3:-18.44 4:1.23 5:-20.12 6:-7.09 7:-16.29 8:-10.49 9:-2.74 10:-3.38 11:10.49 12:-11.51 
2.589632787521558e-05 0:23.76 1:-8.73 2:8.97 3:-23.87 4:-23.22 5:-4.45 6:-24.62 7:-1.81 8:-10.8 9:12.25 10:-0.03 11:-7.15 12:4.2 
2.589632787521558e-05 0:25.04 1:-14.95 2:4.89 3:-15.87 4:-30.31 5:-3.31 6:1.29 7:-17.07 8:-16.95 9:6.31 10:-4.63 11:20.2 12:-14.01 
2.589632787521558e-05 0:24.55 1:-13.07 2:20.03 3:-27.35 4:-36.42 5:-5.78 6:15.85 7:-8.68 8:-13.68 9:-0.12 10:-6.6 11:15.82 12:-3.58 
2.589632787521558e-05 0:23.47 1:-9.48 2:10.84 3:-22.18 4:-24.29 5:-9.35 6:-19.08 7:-14.32 8:-3.19 9:5.41 10:9.52 11:-11.08 12:0.31 
2.589632787521558e-05 0:24.33 1:-10.18 2:13.86 3:-22.11 4:-12.91 5:2.97 6:-25.55 7:-15.03 8:-10.99 9:3.17 10:11.83 11:2.22 12:0.64 
2.589632787521558e-05 0:25.79 1:-15.28 2:-3.67 3:-35.15 4:-32.89 5:-12.34 6:-12.09 7:-10.67 8:-5.1 9:-8.73 10:-6.76 11:3.78 12:-17.72 
2.589632787521558e-05 0:24.17 1:-15.83 2:-31.22 3:-40.63 4:-13.4 5:-24.33 6:-8.41 7:-11.37 8:-7.39 9:3.97 10:-12 11:-4.79 12:-17 
2.589632787521558e-05 0:25.02 1:-17.46 2:0.41 3:-18.64 4:-26.5 5:-6.65 6:-0.5 7:-11.54 8:-16.72 9:-1.56 10:-4.1 11:16.64 12:-6.81 
2.589632787521558e-05 0:25.54 1:-16.05 2:17.17 3:-12.89 4:-9.3 5:10.9 6:-18.81 7:-14.27 8:-8.66 9:-10.74 10:8.55 11:-4.81 12:4.03 
2.589632787521558e-05 0:23.06 1:-15.5 2:22.26 3:-15.03 4:-5.7 5:6.01 6:-17.3 7:23.29 8:-15.17 9:25.34 10:-8.53 11:10.83 12:2.79 
2.589632787521558e-05 0:24.54 1:-10.27 2:11.33 3:-21.83 4:-11.71 5:1.25 6:-21.64 7:-20.65 8:-11.77 9:-2.92 10:13.49 11:-1.35 12:3.34 
2.589632787521558e-05 0:24.22 1:-1.76 2:0.54 3:-22.87 4:-20.6 5:-2.89 6:-1.55 7:-12.92 8:-20.07 9:-4.74 10:1.34 11:-0.01 12:-1.36 
2.589632787521558e-05 0:23.4 1:-4.62 2:15.85 3:-23.07 4:-26.19 5:-11.99 6:-9.36 7:-7.79 8:-11.08 9:14.72 10:0.21 11:-4.97 12:4.14 
2.589632787521558e-05 0:23.26 1:-5.43 2:15.86 3:-22.93 4:-24.34 5:-14.01 6:-13.31 7:-6.73 8:-7.26 9:0.98 10:-2.61 11:2.21 12:-6.8 
2.589632787521558e-05 0:23.87 1:-5.69 2:10.18 3:-24.03 4:-22.17 5:-1.41 6:-19.32 7:-1.06 8:-6.22 9:-1.11 10:-5.93 11:-6.49 12:4.93 
2.589632787521558e-05 0:25.59 1:-18.62 2:-2.04 3:-19.22 4:-24.4 5:-0.15 6:-13.69 7:-19.71 8:7.51 9:-11.11 10:3.76 11:3.64 12:-6.13 
2.589632787521558e-05 0:25.21 1:-16.12 2:10.49 3:-23.61 4:-43.56 5:0.41 6:-4.35 7:-11.92 8:-6.22 9:0.36 10:-4.86 11:14.65 12:-14.62 
2.589632787521558e-05 0:23.9 1:-4.14 2:11.91 3:-29.35 4:-19.86 5:-14.54 6:-19.46 7:-3.33 8:-1.56 9:-1.35 10:-0.66 11:-7.38 12:13.42 
2.589632787521558e-05 0:24.04 1:-7.82 2:11.84 3:-22.62 4:-23.7 5:-5.24 6:-24.37 7:-3.62 8:-5.32 9:7.27 10:-0.37 11:-5.71 12:6.51 
-2.589632787521558e-05 0:24.7 1:-13.9 2:6.46 3:-17.77 4:-28.06 5:-2.03 6:-24.93 7:-31.28 8:10.74 9:14.35 10:1.44 11:6.27 12:5.24 
-2.589632787521558e-05 0:23.92 1:-6.71 2:9.39 3:-39.57 4:-39.38 5:8.72 6:-19.13 7:-4.65 8:-33.38 9:-11.37 10:-13.53 11:14.82 12:-9.33 
-2.589632787521558e-05 0:25.17 1:-13.24 2:14.3 3:-21.13 4:-25.76 5:-0.78 6:-16.96 7:-13.72 8:-23.55 9:-14.21 10:-2.75 11:4.25 12:-12.24 
-2.589632787521558e-05 0:24.49 1:-12.21 2:7.73 3:-15.31 4:-30.31 5:7.41 6:-14.14 7:-12.57 8:-27.26 9:-10.17 10:-12.49 11:16.31 12:-10.27 
-2.589632787521558e-05 0:26.19 1:-21.87 2:9.45 3:-22.75 4:-15.05 5:4.9 6:-41.74 7:-21.36 8:-39.88 9:-18.21 10:-23.66 11:-6.13 12:-3.96 
-2.589632787521558e-05 0:23.39 1:-4.18 2:6.23 3:-15.04 4:-11.71 5:-1.39 6:-0.96 7:-6.79 8:9.86 9:24.99 10:32.57 11:20.06 12:7.33 
-2.589632787521558e-05 0:25.83 1:-26.16 2:1.12 3:-15.89 4:-27.61 5:-5.1 6:-7.93 7:-17.95 8:-12.81 9:27.69 10:2.59 11:16.3 12:4.42 
-2.589632787521558e-05 0:23.94 1:-7.65 2:5.63 3:-22.87 4:-13.92 5:-10.74 6:5.04 7:-8.11 8:-3.35 9:30.24 10:21.6 11:7.17 12:5.75 
-2.589632787521558e-05 0:24.96 1:-15.35 2:-9.55 3:-18.75 4:-17.02 5:-3.82 6:-20.29 7:-23.3 8:-0.54 9:14.99 10:-5.1 11:4.81 12:-5.27 
-2.589632787521558e-05 0:25.01 1:-14.88 2:14.56 3:-24.8 4:-25.75 5:-17.5 6:-13.14 7:-26.16 8:-20.97 9:-2.65 10:-8.18 11:13.33 12:-9.12 
-2.589632787521558e-05 0:24.74 1:-13.52 2:11.23 3:-15.97 4:-36.04 5:3.11 6:-35.97 7:-14.53 8:-10.33 9:24.29 10:5.19 11:12.54 12:11.23 
-2.589632787521558e-05 0:24.16 1:-10.33 2:7.69 3:-10.24 4:-35.52 5:-13.73 6:-23.76 7:-23.56 8:-37.99 9:-15.39 10:-1.74 11:-1.54 12:-9.72 
-2.589632787521558e-05 0:25.13 1:-19.53 2:-20.26 3:-22.58 4:-39.46 5:1.74 6:-27.91 7:-11 8:-31.64 9:-7.63 10:-16.3 11:-5.43 12:-10.93 
-2.589632787521558e-05 0:24.46 1:-7.71 2:19.32 3:-29.68 4:-38.55 5:10.17 6:-24.67 7:-2.92 8:-40.06 9:-7.4 10:-3.3 11:-0.63 12:-2.1 
-2.589632787521558e-05 0:25.79 1:-14.89 2:15.02 3:-29.66 4:-34.18 5:12.97 6:-48.71 7:2.77 8:-33.99 9:-8.5 10:-3.22 11:2.02 12:-6.02 
-2.589632787521558e-05 0:26.69 1:-25.79 2:18.56 3:-4.03 4:-47.43 5:7.54 6:-25.36 7:-11.48 8:-24 9:-11.08 10:-20.48 11:4.97 12:-2.12 
-2.589632787521558e-05 0:25.37 1:-16.23 2:22.27 3:-6.22 4:-19.09 5:-7.09 6:-2.93 7:3.21 8:2.14 9:40.16 10:17.4 11:6.36 12:5.93 
-2.589632787521558e-05 0:25.89 1:-17.12 2:23.6 3:-27.95 4:-33.44 5:3.57 6:-36.82 7:-11.29 8:-34.68 9:-16.24 10:-19.36 11:-4.31 12:-1.69 
-2.589632787521558e-05 0:24.07 1:-8.7 2:12.62 3:-33.25 4:-45.21 5:5.09 6:-18.72 7:-12.35 8:-20.87 9:-15.56 10:-2.4 11:15.12 12:-13.38 
-2.589632787521558e-05 0:24.36 1:-12.25 2:5.82 3:-26.41 4:-40.81 5:6.43 6:-30.41 7:-10.21 8:-7.21 9:22.72 10:14 11:7.76 12:7.17 
-2.589632787521558e-05 0:24.4 1:-12.78 2:7.2 3:-25.75 4:-42.98 5:2.55 6:-17.99 7:-32.04 8:-28.42 9:-12.32 10:-11.68 11:-16.51 12:-14.45 
-2.589632787521558e-05 0:23.25 1:-4.55 2:10.07 3:-14.29 4:-12.31 5:2.74 6:5.46 7:3.97 8:7.26 9:28.54 10:21.88 11:17.92 12:14.12 
-2.589632787521558e-05 0:24.84 1:-16.24 2:4.14 3:3.49 4:-41.04 5:-26.45 6:-24.12 7:-37.06 8:-10.91 9:-25.37 10:-29.6 11:14.27 12:-18.22 
-2.589632787521558e-05 0:24.03 1:-5.44 2:0.27 3:-12.94 4:-25.63 5:-6.4 6:0.07 7:-11.79 8:-2.86 9:35.78 10:36.12 11:16.75 12:4.73 
-2.589632787521558e-05 0:24.3 1:-11.13 2:-24 3:-29.4 4:-19.73 5:-13.2 6:2.16 7:1.81 8:-8.43 9:35.66 10:8.2 11:18.25 12:1.92 
-2.589632787521558e-05 0:24.87 1:-12.35 2:8.03 3:-14.7 4:-35.46 5:2.81 6:-32.91 7:-11.2 8:-40.13 9:-23.7 10:-6.16 11:3.57 12:-19.77 
-2.589632787521558e-05 0:25.59 1:-16.98 2:6.22 3:-16.96 4:-29.43 5:-2.63 6:-20.35 7:-23.25 8:-32.42 9:-7.95 10:-9.01 11:8.13 12:-10.6 
-2.589632787521558e-05 0:24.79 1:-14.72 2:-7.97 3:-22.28 4:-27.43 5:2.54 6:-23.66 7:-31.36 8:-35.07 9:-10.22 10:-23.65 11:-11.89 12:-7.46 
-2.589632787521558e-05 0:24.22 1:-5.88 2:10.21 3:-32.03 4:-29.91 5:4.7 6:-12.83 7:-21.58 8:-35.61 9:-11.48 10:-16.19 11:10.62 12:-12.85 
-2.589632787521558e-05 0:26.37 1:-20.09 2:12.45 3:-14.16 4:-31.59 5:13.57 6:-17.72 7:-5.76 8:-39.93 9:1.41 10:-11.59 11:-11.49 12:-1.44 
-1.625715151483377e-05 0:23.79 1:-2 2:-4.01 3:-26.21 4:-47.28 5:-3.99 6:-34.76 7:-8.27 8:-33.52 9:-13.66 10:-25.01 11:-7.19 12:-16.8 
-2.589632787521558e-05 0:25.91 1:-23.87 2:12.42 3:-30.58 4:-26.01 5:-14.61 6:-39.63 7:-24.28 8:-28.33 9:-20.23 10:-32.08 11:-2.65 12:-9.26 
-2.589632787521558e-05 0:25.04 1:-14.16 2:8.67 3:-22.05 4:-11.95 5:-5.57 6:-3.5 7:-0.11 8:0.84 9:31.84 10:13.82 11:9.36 12:7.03 
-2.589632787521558e-05 0:24.92 1:-11.76 2:-1.58 3:-27.03 4:-9.71 5:-28.03 6:-12.88 7:-19.12 8:-11.05 9:22.37 10:1.38 11:8.2 12:-6.1 
-2.589632787521558e-05 0:25.05 1:-15.49 2:10.15 3:-16.6 4:-34.04 5:-5.53 6:-8.51 7:-13.83 8:-20.8 9:-1.58 10:-11.01 11:11.85 12:-12.22 
-2.589632787521558e-05 0:25.81 1:-24.78 2:27.68 3:-4.59 4:-33.16 5:20.44 6:-39.7 7:-1.21 8:-33.61 9:6.07 10:-9.52 11:-2.35 12:-1.38 
-2.589632787521558e-05 0:23.97 1:-9.19 2:-5.35 3:-2.82 4:-44.12 5:-11.71 6:-8.06 7:-21.8 8:-26.65 9:33.64 10:-7.37 11:-0.43 12:-2.5 
-2.589632787521558e-05 0:25.17 1:-14.19 2:1.4 3:-16.44 4:-33.45 5:-10.57 6:-30.93 7:-6.71 8:-42.93 9:-6.36 10:-24.35 11:-8.48 12:-16.27 
-2.589632787521558e-05 0:24.1 1:-12.68 2:-5.49 3:-2.91 4:-38.48 5:-22.61 6:-27.12 7:-27.47 8:-35.48 9:-14.89 10:-9.57 11:-9.87 12:-8.63 
-2.589632787521558e-05 0:24.56 1:-12.97 2:11.67 3:-9.89 4:-43.6 5:4.31 6:-17.06 7:-2.22 8:-26.72 9:-12.96 10:-8.34 11:17.68 12:-1.49 
-2.589632787521558e-05 0:24.92 1:-11.86 2:10.64 3:-23.17 4:-26.37 5:-11.16 6:-25.06 7:-12.22 8:-28.92 9:-7.59 10:-20.44 11:-4.01 12:-2.09 
-2.589632787521558e-05 0:24.16 1:-8.26 2:-7.12 3:-21.85 4:-16.25 5:-9.99 6:-11.67 7:-32.75 8:-15.72 9:22.16 10:6.26 11:6.38 12:7.42 
-2.589632787521558e-05 0:24.22 1:-13.5 2:-6.4 3:-30.26 4:-25.19 5:-2.95 6:-34.76 7:-22.68 8:-28.14 9:-19.47 10:-23.35 11:10.02 12:-8.09 
-2.589632787521558e-05 0:25.85 1:-11.35 2:6.03 3:-23.81 4:-15.48 5:-3.46 6:-30.77 7:-1.85 8:-35.85 9:40.04 10:-7.04 11:-3.28 12:1.45 
-2.589632787521558e-05 0:24.57 1:-12.87 2:-2.96 3:-20.91 4:-32.98 5:1.81 6:-24.29 7:-27.6 8:-33.27 9:-9.79 10:-18.74 11:-10.63 12:-15.26 
-2.589632787521558e-05 0:24.32 1:-7.87 2:-13.06 3:-11.57 4:-13.23 5:-12.9 6:-17.42 7:-29.53 8:-16.38 9:28.53 10:-10.59 11:12.13 12:-7.09 
-2.589632787521558e-05 0:24.38 1:-11.26 2:11 3:-17.96 4:-45.19 5:3.44 6:-30.56 7:-9.19 8:-30.57 9:-12.35 10:-14.95 11:-9.95 12:-13.94 
-2.589632787521558e-05 0:26.33 1:-24.97 2:16.34 3:1.54 4:-41.87 5:-7.73 6:-17.73 7:-10.56 8:-29.69 9:5.47 10:-22.57 11:7.28 12:-13.12 
-2.589632787521558e-05 0:26.26 1:-20.85 2:7.28 3:-15.43 4:-44.57 5:2.78 6:-22.74 7:-5.78 8:-15 9:23.69 10:-0.76 11:18.15 12:-0.82 
-2.25873402979896e-05 0:26.33 1:-20.94 2:14.12 3:-14.63 4:-40.51 5:-0.91 6:-34.41 7:-1.21 8:-38.61 9:2.63 10:-9.29 11:3.41 12:-14.67 
-2.589632787521558e-05 0:25.54 1:-12.5 2:13.14 3:-34.61 4:-25.31 5:-2.2 6:-20.79 7:3.9 8:-41.89 9:6.96 10:-24.87 11:1.05 12:5.49 
-2.589632787521558e-05 0:25.92 1:-17.05 2:18.33 3:-31.2 4:-34.04 5:12.74 6:-35.8 7:-11.88 8:-26.66 9:-7.44 10:-20.82 11:10.35 12:-1.74 
-2.589632787521558e-05 0:25.22 1:-15.88 2:9.91 3:-6.69 4:-38.01 5:-4.2 6:-33 7:-1.68 8:-17.05 9:36.94 10:-10.71 11:10.53 12:2.14 
-2.589632787521558e-05 0:24.16 1:-7.56 2:-13.63 3:-19.68 4:-16.97 5:-0.67 6:-18.53 7:-20.51 8:6.44 9:29.54 10:5.97 11:-4.6 12:5.36 
-2.589632787521558e-05 0:25.14 1:-20.89 2:-17.42 3:-27.97 4:-43.63 5:-15.75 6:-17.24 7:-6.38 8:-34.79 9:-3.21 10:-24.49 11:14.01 12:-18.82 
-2.589632787521558e-05 0:25.52 1:-26.01 2:4.8 3:-11.88 4:-39.11 5:-9.63 6:-18.02 7:-28.49 8:-28.76 9:-8.27 10:-23.89 11:9.04 12:-17.67 
-2.589632787521558e-05 0:24.29 1:-7.54 2:4.28 3:-23.72 4:-15.41 5:15.79 6:-4.9 7:-15.05 8:-0.8 9:9.14 10:12.33 11:9.4 12:3.04 
-2.589632787521558e-05 0:24.63 1:-10.97 2:-7.8 3:-18.23 4:-18.86 5:-8.75 6:-20.3 7:-27.87 8:-20.94 9:21.35 10:8.18 11:10.33 12:8.76 
-2.589632787521558e-05 0:26.04 1:-30.71 2:4.09 3:-17.57 4:-30.73 5:-2.5 6:-36.29 7:-36.9 8:-20.54 9:-20.26 10:-27.05 11:0.34 12:-22.99 
-2.589632787521558e-05 0:24.61 1:-14.88 2:11.75 3:-14.18 4:-34.95 5:-4.63 6:-7.41 7:-23.54 8:-23.94 9:-12.48 10:-9.47 11:14.55 12:-11.99 
-2.589632787521558e-05 0:24.5 1:-12.62 2:7.69 3:-9.32 4:-53.7 5:-11.51 6:-26.34 7:-7.84 8:-53.31 9:-25.08 10:8.78 11:-13.08 12:-4.14 
-2.589632787521558e-05 0:24.44 1:-16.18 2:-12.6 3:-17.38 4:-33.22 5:-5.37 6:-8.57 7:0.22 8:-5.03 9:28.99 10:8.06 11:6.53 12:2.3 
-2.589632787521558e-05 0:24.4 1:-10.77 2:4.62 3:-23.7 4:-33.65 5:2.28 6:-33.82 7:-6.99 8:-18.33 9:37.87 10:-1.52 11:1.67 12:11.35 
-2.589632787521558e-05 0:26.39 1:-21.47 2:7.49 3:-21.24 4:-28.32 5:13.27 6:-22.15 7:-27.77 8:-21.85 9:-18.21 10:-12.74 11:3.13 12:-9.65 
-2.589632787521558e-05 0:25.9 1:-17.47 2:1.65 3:-14.36 4:-42.68 5:3.47 6:-5.84 7:-24.22 8:-22.72 9:30.78 10:-3.29 11:26.77 12:-6.84 
-2.589632787521558e-05 0:25.45 1:-18.12 2:-6.35 3:-34.71 4:-8.42 5:-14.17 6:-21.41 7:7.33 8:0.01 9:41.16 10:4.73 11:6 12:8.16 
-2.589632787521558e-05 0:26.03 1:-19.95 2:21.41 3:-7.24 4:-20.11 5:12.11 6:-21.53 7:6.62 8:-18.87 9:33.18 10:11.86 11:18.46 12:11.32 
-2.589632787521558e-05 0:24.77 1:-17.49 2:-6.35 3:0.51 4:-25.56 5:-19.91 6:-36.67 7:-19.56 8:-25.94 9:-6.92 10:-39.38 11:3.52 12:-27.65 
-2.589632787521558e-05 0:24.29 1:-10.4 2:8.75 3:-26.22 4:-19.38 5:-3.04 6:-27.71 7:-0.77 8:-30.11 9:-28.81 10:0.61 11:8.7 12:-13.74 
-2.589632787521558e-05 0:24.95 1:-18.99 2:-22.35 3:-29.55 4:-29.23 5:-2.48 6:-17.73 7:-9.05 8:-27.47 9:4.1 10:-25.54 11:5.02 12:-12.27 
-2.589632787521558e-05 0:26.11 1:-20.76 2:28.02 3:-18.82 4:-29.75 5:11.17 6:-22.69 7:19.04 8:-15.68 9:53.85 10:-1.06 11:28.82 12:15.32 
-2.589632787521558e-05 0:24.23 1:-4.29 2:-4.52 3:-24.02 4:-35.95 5:2.13 6:-11.77 7:-21.63 8:-26.47 9:20.55 10:1.12 11:9.1 12:3.5 
-2.589632787521558e-05 0:24.31 1:-11.82 2:16.29 3:-29.11 4:-48.04 5:7.32 6:-6.09 7:-22.26 8:-37.3 9:-18.06 10:-16.29 11:-0.15 12:-10.89 
-2.589632787521558e-05 0:24.38 1:-13.76 2:4.28 3:-12.5 4:-30.32 5:1.21 6:-22.83 7:-22.12 8:-32.66 9:-18.73 10:-7.03 11:-4.51 12:-2.67 
-2.589632787521558e-05 0:26.78 1:-22.55 2:26.56 3:-17.07 4:-46.5 5:13.64 6:-35.35 7:0.89 8:-27.53 9:-1.9 10:-8.78 11:3.39 12:5.37 
-2.589632787521558e-05 0:23.64 1:9.78 2:12.93 3:-29.1 4:-19.54 5:-11.41 6:-22.87 7:2.79 8:-17.97 9:5.15 10:-2.72 11:-5.29 12:9.41 
