svm_type nu_svc
kernel_type linear
nr_class 2
total_sv 155
rho -1.32688
label 1 -1
probA -3.74898
probB 0.994972
nr_sv 77 78
SV
2.636871241603372e-05 0:24.31 1:-4.65 2:1.69 3:-34.99 4:-8.03 5:-5.98 6:-31.73 7:-1.16 8:-5.3 9:10.84 10:0.3 11:-0.88 12:-2.62 
2.636871241603372e-05 0:25.48 1:-19.06 2:-9.94 3:-18.76 4:-22.02 5:-5.27 6:-30.27 7:-3.66 8:-5.23 9:-7.75 10:3.32 11:-11.09 12:-10.11 
2.636871241603372e-05 0:23.76 1:-6.87 2:-3.16 3:-22.31 4:-26.16 5:-3.23 6:-18.93 7:3.38 8:-8.23 9:-2.74 10:2.57 11:2.2 12:-8.98 
2.636871241603372e-05 0:24.65 1:-9.32 2:4.67 3:-20 4:-23.43 5:8.46 6:-21.23 7:-8.65 8:6.66 9:-3 10:9.93 11:-13.79 12:-0.56 
2.636871241603372e-05 0:24.55 1:-9.99 2:3.77 3:-23.88 4:11.49 5:-25.17 6:-32.47 7:1.17 8:-21 9:6.81 10:-4.04 11:-1.29 12:-10.8 
2.636871241603372e-05 0:26.43 1:-18.86 2:12.81 3:-25.6 4:-0.48 5:-13.89 6:-27.62 7:-17.4 8:-2.95 9:0.79 10:-1.44 11:9.6 12:-0.68 
2.636871241603372e-05 0:24.43 1:-17.67 2:-18.19 3:-18.43 4:-11.71 5:-19.74 6:-22.37 7:-16.69 8:-8.53 9:-3.45 10:-3.9 11:-4.37 12:-14.39 
2.636871241603372e-05 0:25.57 1:-14.2 2:15.17 3:-24.9 4:-3.72 5:0.34 6:-28.11 7:-16.65 8:0.65 9:5.69 10:-8.59 11:10.33 12:-3.04 
2.636871241603372e-05 0:24.98 1:-14.08 2:7.51 3:-10.41 4:-11.68 5:5.12 6:-15.33 7:-16.43 8:-0.35 9:-5.2 10:6.52 11:3.77 12:-5.17 
2.636871241603372e-05 0:24.59 1:-13.25 2:12.15 3:-13.17 4:-15.78 5:-4.89 6:-22.55 7:2.09 8:-0.7 9:0.18 10:-1.54 11:5.34 12:0.03 
2.636871241603372e-05 0:25.31 1:-16.52 2:8.33 3:-7.57 4:-13.04 5:-0.35 6:-28.2 7:-10.85 8:6.6 9:4.56 10:10.36 11:-7.89 12:-8.25 
2.636871241603372e-05 0:24.72 1:-9.9 2:-3.16 3:-18.46 4:-23.19 5:-0.23 6:-15.86 7:-13.28 8:-11.26 9:4.36 10:10.81 11:14.13 12:-12.92 
2.636871241603372e-05 0:24.17 1:-4.22 2:5.98 3:-15.5 4:-8.35 5:-16.94 6:-19.05 7:-8.06 8:-18.82 9:10.42 10:-19.36 11:-6.34 12:-13.41 
2.636871241603372e-05 0:24.36 1:-16.98 2:-25.04 3:-22.74 4:-22.38 5:-35.1 6:3.18 7:-15.19 8:-13.94 9:-4.01 10:-4.48 11:-2.54 12:-18.62 
2.636871241603372e-05 0:25.36 1:-13.04 2:4.18 3:-17.52 4:-8.69 5:-29.94 6:-6.89 7:-5.88 8:-19.23 9:8.53 10:-7.77 11:-8.09 12:-1.11 
2.636871241603372e-05 0:22.79 1:-12.71 2:17.94 3:-7.99 4:-2.38 5:-6.52 6:-23.97 7:13.73 8:-11.2 9:1.35 10:8.23 11:2.78 12:4.57 
2.636871241603372e-05 0:23.21 1:-15.68 2:23.29 3:-11.86 4:-8.17 5:9.18 6:-28.54 7:5.14 8:8.98 9:2.25 10:-5.08 11:4.13 12:-11.59 
2.636871241603372e-05 0:25.03 1:-12.24 2:0.44 3:-13.86 4:-32.32 5:-3.73 6:-25.85 7:-12.65 8:-8.86 9:3.18 10:5.11 11:1.91 12:-22.78 
2.636871241603372e-05 0:24.05 1:-7.49 2:5.83 3:-19.92 4:-14.39 5:-10.8 6:-18.76 7:-6 8:-6.64 9:-0.21 10:-4.34 11:-5.83 12:4.51 
2.636871241603372e-05 0:24.91 1:-13.11 2:-15.37 3:-21.26 4:-19.15 5:-30.89 6:-11.25 7:-5.82 8:-11.65 9:7.2 10:-5.4 11:-13.21 12:-6 
2.636871241603372e-05 0:24.68 1:-11.19 2:7.47 3:-26.92 4:-36.97 5:4.13 6:-6.09 7:-25.72 8:-3.04 9:20.26 10:-7.63 11:1.3 12:-14.16 
2.636871241603372e-05 0:24.74 1:-11.1 2:7.74 3:-17.59 4:-21.3 5:-3.72 6:-27.3 7:-4.05 8:9.15 9:12.63 10:-6.16 11:-9.03 12:-1.28 
2.636871241603372e-05 0:23.97 1:-8.51 2:-2.36 3:-12.99 4:-15.82 5:-13.43 6:-20.55 7:-8.78 8:8.2 9:-1.3 10:-2.44 11:-5.66 12:6.57 
2.636871241603372e-05 0:24.7 1:-4.94 2:-6.82 3:-0.96 4:-22.99 5:-29.83 6:-12.81 7:-10.81 8:-12.86 9:22.93 10:-2.11 11:-15.4 12:-19.76 
2.636871241603372e-05 0:24.17 1:-5.9 2:6.44 3:-32.71 4:-32.18 5:-5.71 6:-10.22 7:-2.79 8:-18.06 9:-1.59 10:9.24 11:10.29 12:-18.36 
2.636871241603372e-05 0:24.94 1:-12.46 2:8.03 3:-35.89 4:-22.12 5:-0.98 6:-22.64 7:-5.38 8:1.57 9:5.9 10:3.02 11:2 12:-15.74 
1.254899848891627e-05 0:20.62 1:-11.88 2:10.5 3:-0.72 4:0.96 5:8.7 6:-6.08 7:9.67 8:-2.42 9:10.64 10:-2.02 11:5.03 12:2.62 
2.636871241603372e-05 0:25.51 1:-11.07 2:9.4 3:-23.09 4:-7.97 5:-20.84 6:-15 7:-1.85 8:-24.05 9:15.56 10:-8.68 11:-1.62 12:-7.36 
2.636871241603372e-05 0:25.42 1:-17.54 2:3.62 3:-18.78 4:-13.61 5:-31.63 6:-13.14 7:-8.97 8:-26.82 9:11.37 10:-8.18 11:0.82 12:-12.52 
2.636871241603372e-05 0:24.03 1:-12.67 2:-4.57 3:1.25 4:-5.75 5:-30.37 6:-16 7:-5.8 8:-14.29 9:4.66 10:-10.61 11:-2.7 12:-12.29 
2.636871241603372e-05 0:24.29 1:-8.39 2:5.79 3:-42.96 4:-20.67 5:-0.18 6:-24.12 7:-11.94 8:-1.11 9:0.42 10:3.98 11:1.95 12:-14.49 
2.636871241603372e-05 0:24.47 1:-8.24 2:-19.44 3:-8.6 4:-3.06 5:-37.58 6:-16.65 7:-26.81 8:-11.62 9:26.77 10:0.44 11:-4.79 12:0.39 
2.636871241603372e-05 0:24.22 1:-13.76 2:5.65 3:-15.63 4:-11.34 5:-31.37 6:-17.16 7:-11.79 8:-14.87 9:0.65 10:-2.76 11:-12.31 12:-6.24 
2.636871241603372e-05 0:24.11 1:-6.65 2:7.3 3:-16.11 4:-4.19 5:-25.1 6:-27.03 7:0.84 8:-20.26 9:4.39 10:-8.16 11:-10.41 12:-12.84 
2.636871241603372e-05 0:23.92 1:-9.31 2:-7.39 3:-13.12 4:-7.84 5:-36.31 6:-14.98 7:-19.87 8:-15.35 9:5.41 10:-2.14 11:-7.36 12:-10.07 
2.636871241603372e-05 0:25.36 1:-14.63 2:8.52 3:-19.23 4:-3.2 5:-25.22 6:-15.37 7:-4.63 8:-16.62 9:16.19 10:-13.25 11:3.17 12:-12.19 
2.636871241603372e-05 0:25.61 1:-15.88 2:6.37 3:-36.24 4:-27.93 5:-9.28 6:-24.82 7:-4.46 8:-13.42 9:5.2 10:2.73 11:-4.08 12:-14.27 
2.636871241603372e-05 0:24.55 1:-9.43 2:-8.01 3:-11.62 4:17.1 5:-15.06 6:-12.83 7:-23.26 8:-10.03 9:4.32 10:-0.36 11:16.83 12:-12.61 
2.636871241603372e-05 0:24.39 1:-3.47 2:-16.01 3:-3.14 4:-14.46 5:-15.3 6:-32.2 7:-29.46 8:2.89 9:2.91 10:6.07 11:4.42 12:-10.05 
2.636871241603372e-05 0:25.97 1:-18.86 2:15.14 3:-15.41 4:-2.31 5:-25.19 6:-18.46 7:-2.31 8:-23.6 9:12.76 10:-6.67 11:-4.62 12:-7.2 
2.636871241603372e-05 0:24.72 1:-11.06 2:-1.86 3:-17.17 4:-17.66 5:-5.37 6:-26.45 7:-7.31 8:-9.93 9:-5.2 10:1.86 11:0.46 12:-1.77 
2.636871241603372e-05 0:22.05 1:-12.69 2:15.11 3:-6.8 4:-4.67 5:8.81 6:-15.98 7:10.44 8:-9.93 9:19.85 10:-1.61 11:4.53 12:8.17 
2.636871241603372e-05 0:24.29 1:-11.62 2:2.76 3:-9.44 4:-20.35 5:-2.75 6:-26.63 7:-21.13 8:14.41 9:-1.67 10:2.19 11:0.5 12:-6.76 
2.238107352628048e-05 0:26.05 1:-20.06 2:4.87 3:-5.22 4:-1.12 5:-24.79 6:-9.49 7:-20.09 8:-0.12 9:0.24 10:-0.5 11:22.8 12:-15.65 
2.636871241603372e-05 0:22.41 1:-13.52 2:20.36 3:-10.04 4:7.71 5:-6.7 6:-15.63 7:12.55 8:-11.1 9:14.23 10:-3.27 11:4.45 12:-2.04 
2.636871241603372e-05 0:24.99 1:-15.89 2:-5.67 3:-27.12 4:-28.08 5:-19.25 6:-20.1 7:-6.86 8:-6.37 9:-1.27 10:8.49 11:-11.44 12:-11.21 
2.636871241603372e-05 0:24.26 1:-5.78 2:-11.1 3:-5.58 4:-3.33 5:-14.77 6:-31.65 7:-25.95 8:-2.07 9:6.36 10:6.52 11:4.09 12:-9.73 
2.636871241603372e-05 0:24.63 1:-9.86 2:-4.83 3:2.23 4:-12.75 5:-5.51 6:-47.37 7:-12.27 8:-9.97 9:3.24 10:10.57 11:11.54 12:-12.17 
2.636871241603372e-05 0:25.96 1:-14.83 2:5.81 3:-12.28 4:-2.69 5:-26.69 6:-15.61 7:-4.05 8:-26.82 9:7.13 10:-11.75 11:4.88 12:-17.83 
2.636871241603372e-05 0:25.32 1:-12.31 2:15.02 3:-36.5 4:4.63 5:-3.81 6:-24.61 7:-20.1 8:-1.96 9:10.08 10:-10.07 11:7.99 12:-7.18 
2.636871241603372e-05 0:24.15 1:-4.54 2:-13.62 3:-0.45 4:-5.67 5:-20.96 6:-35.89 7:-22.42 8:-4.61 9:3.47 10:22.13 11:-4.76 12:-3.58 
2.636871241603372e-05 0:24.79 1:-9.52 2:-16.25 3:-11.81 4:-10.4 5:-11.59 6:-20.59 7:-18.44 8:-1.11 9:4.68 10:-4.74 11:9.52 12:-8.54 
2.636871241603372e-05 0:24.5 1:-9.92 2:8.39 3:-26.35 4:-24.91 5:-4.21 6:-17.91 7:-13.92 8:-1.75 9:13.92 10:-10.35 11:10.55 12:-22.04 
2.636871241603372e-05 0:25.7 1:-15.37 2:10.99 3:-14.17 4:-32.73 5:-10.28 6:-16.16 7:-9.44 8:-0.21 9:-3.31 10:5.77 11:14.94 12:-17.24 
2.636871241603372e-05 0:24.32 1:-10.8 2:3.7 3:-16.61 4:-24.02 5:-10.64 6:-29.72 7:-14.99 8:6.75 9:-8.3 10:9.64 11:-11.88 12:-1.72 
2.636871241603372e-05 0:23.63 1:-0.84 2:9.34 3:-6.37 4:-22.19 5:-13.84 6:-18.05 7:-16.81 8:-8.34 9:-3.13 10:9.37 11:-6.93 12:0.16 
2.636871241603372e-05 0:25.23 1:-18.06 2:0.75 3:-24.42 4:-12.96 5:-34.89 6:-27.51 7:4.02 8:-13.84 9:6.63 10:-2.12 11:-8.72 12:-7.13 
2.636871241603372e-05 0:24.41 1:-8.42 2:-0.74 3:-22.65 4:-18.23 5:-7.94 6:-30.36 7:-7.74 8:-2.19 9:-0.5 10:-0.85 11:-9.46 12:-8.61 
2.636871241603372e-05 0:25.68 1:-15.65 2:11.56 3:-14.9 4:2.38 5:-11.76 6:-23.73 7:-17.38 8:-1.52 9:-11.37 10:5.25 11:10.49 12:-0.89 
2.636871241603372e-05 0:25.94 1:-19.67 2:1.08 3:-11.39 4:-15.85 5:-5.88 6:-21.66 7:-12.22 8:-6.91 9:11.63 10:-2.76 11:12.8 12:-25.51 
2.636871241603372e-05 0:26.93 1:-16.89 2:-2.28 3:-31.24 4:-20.53 5:-5.99 6:-31.37 7:-0.82 8:-4.21 9:-4.46 10:1.16 11:-4.21 12:-19.22 
2.636871241603372e-05 0:24.83 1:-14.08 2:6.24 3:-17.08 4:-4.47 5:7.89 6:-18.02 7:-14.85 8:-8.43 9:-12.4 10:5.77 11:-1.57 12:-3.65 
2.636871241603372e-05 0:24.89 1:-13.7 2:9.54 3:-10.87 4:-10.23 5:7.11 6:-13.54 7:-10.63 8:-7.1 9:-13 10:-2.09 11:3 12:-8.79 
2.636871241603372e-05 0:25.26 1:-17.6 2:9.45 3:-15.25 4:-35.65 5:-1.29 6:8.8 7:-12.57 8:-9.01 9:2.91 10:-5.91 11:24.27 12:-18.38 
4.62299660885385e-06 0:24.64 1:-17.95 2:-29.76 3:-25.58 4:-9.87 5:-34.76 6:-12.24 7:-14.37 8:-6.04 9:-5.03 10:-9.6 11:-2.59 12:-12.78 
2.636871241603372e-05 0:23.3 1:-13.27 2:21.51 3:-16.01 4:0.56 5:-2.99 6:-31.06 7:16.57 8:-15.86 9:23.13 10:-2.74 11:9.02 12:1.13 
2.636871241603372e-05 0:23.36 1:-4.75 2:7.34 3:-15.38 4:-19.34 5:-8.8 6:-13.11 7:-12.48 8:0.91 9:10.75 10:-7.53 11:3.31 12:3.76 
2.636871241603372e-05 0:24.49 1:-1.39 2:-12.96 3:-7.74 4:-5.81 5:-15.21 6:-15.92 7:-22.13 8:-20.65 9:6.77 10:14.54 11:-3.45 12:-4.04 
2.636871241603372e-05 0:24.78 1:-13.44 2:5.05 3:-13.33 4:-9.17 5:1.77 6:-18.84 7:-11.46 8:-8.29 9:-5.14 10:11.81 11:-4.04 12:-5.49 
2.636871241603372e-05 0:24.04 1:-6.55 2:5.38 3:-19.87 4:-20.48 5:-11.99 6:-11.54 7:-9.99 8:-1.95 9:1.44 10:-6.92 11:3.3 12:-8.99 
2.636871241603372e-05 0:25.39 1:-12.86 2:2.74 3:-31.16 4:-5.93 5:-18.24 6:-20.25 7:-19.57 8:-6.71 9:-3.82 10:1.81 11:8.47 12:-11.07 
2.636871241603372e-05 0:26.07 1:-18.64 2:0.3 3:-21.14 4:-19.75 5:2.96 6:-26.63 7:-7.63 8:-6.05 9:-6.63 10:2.97 11:9.66 12:-16.24 
2.636871241603372e-05 0:26.05 1:-16.92 2:15.54 3:-24.3 4:-29.12 5:-7.69 6:-32.29 7:3.1 8:-9.02 9:-9.37 10:2.58 11:7.84 12:-25.21 
2.636871241603372e-05 0:24.84 1:-14.63 2:-6.1 3:-15.01 4:-3.52 5:-20.5 6:-15.93 7:-30.96 8:6.36 9:0.02 10:-2.06 11:20.08 12:-18.54 
2.636871241603372e-05 0:24.24 1:-6.92 2:2.94 3:-20.87 4:-21.59 5:-9.22 6:-16.92 7:-11.99 8:3.14 9:1.11 10:-8.25 11:-2.73 12:-6.28 
2.636871241603372e-05 0:24.8 1:-11.76 2:7.83 3:-20.63 4:-22.97 5:-6.06 6:-24.93 7:-8.46 8:-4.44 9:-1.64 10:-1.06 11:-4.17 12:5.67 
2.636871241603372e-05 0:24.94 1:-12.7 2:8.96 3:-22.06 4:-20.19 5:-10.85 6:-18.84 7:-8.84 8:8.38 9:-9.93 10:-2.88 11:-6.44 12:12.28 
-2.636871241603372e-05 0:25.48 1:-18.88 2:12.42 3:-21.13 4:-29.61 5:-3.1 6:-51.68 7:-32.29 8:-3.99 9:-17.57 10:-18.69 11:15.51 12:-15.48 
-2.636871241603372e-05 0:24.86 1:-7.06 2:-1.44 3:-35.08 4:-19.9 5:2.3 6:-42.12 7:-8.44 8:-9.63 9:34.64 10:-0.68 11:9.68 12:3.17 
-2.636871241603372e-05 0:24.49 1:-13.74 2:7.13 3:-0.11 4:10.09 5:0.54 6:-7.61 7:-6.39 8:1.68 9:16.45 10:15.49 11:25.44 12:7.65 
-2.636871241603372e-05 0:25.77 1:-20.57 2:7.51 3:-9.94 4:-15.52 5:-22.74 6:-30.65 7:-21.2 8:-28.85 9:-9.92 10:-10.87 11:1.43 12:-11.28 
-2.636871241603372e-05 0:24.14 1:-10.39 2:7.61 3:-8.56 4:-21.39 5:-2.68 6:-38.09 7:-14.51 8:-18.03 9:-18.04 10:-20.65 11:-4.58 12:-3.36 
-2.636871241603372e-05 0:25.28 1:-17.8 2:4.51 3:-5.62 4:-16.59 5:-17.84 6:-25.03 7:-13.38 8:-31.55 9:-3.8 10:-19.59 11:-0.45 12:-8.33 
-2.636871241603372e-05 0:24.87 1:-16 2:1.8 3:-15.52 4:-14.48 5:-21.62 6:-27.79 7:-18.89 8:-41.24 9:-8.74 10:-3.41 11:-1.05 12:-14.64 
-2.636871241603372e-05 0:25.19 1:-19.57 2:-10.26 3:-15.06 4:-30.74 5:8.07 6:-35.36 7:-6.42 8:-6.27 9:21.76 10:8.83 11:1.41 12:1.4 
-1.647429330675814e-05 0:25.67 1:-23.61 2:-7.75 3:-11.8 4:-16.48 5:1.22 6:-38.6 7:-26.61 8:-22.67 9:-16.53 10:-35.55 11:20.33 12:-12.31 
-2.636871241603372e-05 0:24.7 1:-11.56 2:0.24 3:-20.24 4:-37.08 5:16.76 6:-32.62 7:-17.36 8:-2.16 9:21.98 10:9.99 11:-6.41 12:8.38 
-2.636871241603372e-05 0:24.2 1:-8.65 2:1.4 3:-4.22 4:0.84 5:-14.47 6:0.67 7:-15 8:5.13 9:38.07 10:17.47 11:15.23 12:7.87 
-2.636871241603372e-05 0:25.62 1:-12.57 2:16.76 3:-20.01 4:-25.94 5:-2.4 6:-46.31 7:-5.43 8:-37.16 9:-14.58 10:-25.92 11:-8.45 12:-1.47 
-2.636871241603372e-05 0:24.79 1:-18.08 2:-1.23 3:-10.18 4:-17.53 5:-27.73 6:-32.01 7:-26.67 8:-36.78 9:-3.05 10:-21.96 11:4.53 12:-16.02 
-2.636871241603372e-05 0:26.03 1:-19.9 2:24.23 3:-2.67 4:-18.42 5:-17.61 6:-43.43 7:-1.79 8:-43.58 9:-7.43 10:-22.47 11:-7.07 12:-10.21 
-2.636871241603372e-05 0:24.83 1:-6.67 2:4.12 3:-14.71 4:-18.71 5:-7.98 6:-24.86 7:-13.63 8:-25.24 9:39.36 10:-17.37 11:4.02 12:-4.61 
-2.636871241603372e-05 0:25.12 1:-21.6 2:-20.13 3:-14.12 4:-43.39 5:-16.48 6:-13.59 7:-17.01 8:-39.69 9:-5.94 10:-21.42 11:6.87 12:-19.42 
-2.636871241603372e-05 0:26.22 1:-21.15 2:10.56 3:-20.98 4:-11.71 5:2.09 6:-55.14 7:1.1 8:-30.56 9:-12.62 10:-17.89 11:-5.45 12:-1.28 
-2.636871241603372e-05 0:24.64 1:-8.39 2:1.49 3:-23.16 4:-10.26 5:-5.13 6:-24.99 7:-12.77 8:-10.07 9:26.38 10:7.67 11:8.48 12:5.21 
-2.636871241603372e-05 0:24.92 1:-13.47 2:-15.98 3:-15.03 4:-26.15 5:-15.72 6:-14.61 7:-6.04 8:-16.46 9:39.26 10:3.55 11:-3.06 12:10.97 
-2.636871241603372e-05 0:24.15 1:-9.04 2:-7.38 3:-19.77 4:-16.06 5:8.35 6:-37.87 7:-32.62 8:7.67 9:11.19 10:9.77 11:11 12:7.62 
-2.636871241603372e-05 0:24.04 1:-12.95 2:-3.58 3:3.88 4:-39.27 5:-10.1 6:-26 7:-20.06 8:-28.72 9:-13 10:-13.25 11:-2.32 12:-8.32 
-2.636871241603372e-05 0:25.2 1:-19.11 2:4.17 3:-4.38 4:-26.7 5:-13.64 6:-30.86 7:-17.28 8:-22.85 9:-6.31 10:-21.15 11:-5.01 12:-0.77 
-2.636871241603372e-05 0:25.07 1:-13.46 2:3.15 3:-13.81 4:-33.63 5:-9.05 6:-25.81 7:-4.66 8:-15.99 9:13.87 10:3.38 11:-1.64 12:11.34 
-2.636871241603372e-05 0:25.14 1:-11.79 2:7.94 3:-26.06 4:-20.14 5:1.85 6:-25.91 7:-19.66 8:-29.94 9:-9.69 10:-17.81 11:3.97 12:-14.74 
-2.636871241603372e-05 0:24.13 1:-13.26 2:9.42 3:-9.05 4:-29.89 5:0.95 6:-16.72 7:-26.65 8:-32.13 9:-7.4 10:-16.58 11:-7.5 12:-15.98 
-2.636871241603372e-05 0:24.46 1:-10.81 2:-4.04 3:-9.29 4:-23.94 5:-0.54 6:-20.15 7:-28.86 8:-29.99 9:-9.72 10:-21.81 11:-9.63 12:-5.42 
-2.636871241603372e-05 0:25.54 1:-14.51 2:-0.46 3:-13.25 4:-1.55 5:-14.89 6:-18.44 7:-8.98 8:-10.93 9:26.82 10:12.53 11:8.47 12:1.98 
-2.636871241603372e-05 0:25.48 1:-15.15 2:2.59 3:-15.88 4:-28.54 5:-6.47 6:-34.06 7:-23.72 8:-7.04 9:16.02 10:16.74 11:1.99 12:-3.5 
-2.636871241603372e-05 0:24.72 1:-12.17 2:-8.09 3:-10.29 4:-8.4 5:-9.04 6:-15.54 7:-8.73 8:-3.59 9:23.1 10:16.11 11:7.82 12:6.84 
-2.636871241603372e-05 0:25.39 1:-19.99 2:1.29 3:-11.88 4:-20.25 5:-26.16 6:-34.09 7:-10.91 8:-41.78 9:-12.9 10:-19.7 11:5.21 12:-11.67 
-2.636871241603372e-05 0:24.95 1:-14.97 2:12.16 3:-27.04 4:-21.34 5:-10.63 6:-47.42 7:-31.05 8:-32.22 9:-15.15 10:-19.4 11:-3.07 12:-0.62 
-2.636871241603372e-05 0:25.17 1:-16.34 2:5.65 3:-10.06 4:-9.08 5:-11.3 6:-6.09 7:-12.09 8:2.84 9:34.49 10:14.23 11:16.93 12:3.74 
-2.636871241603372e-05 0:25.88 1:-23.77 2:-6.24 3:-13.34 4:-5.14 5:7.54 6:-34.96 7:-24.94 8:-0.53 9:5.63 10:3.62 11:15.89 12:-6.18 
-2.636871241603372e-05 0:24.74 1:-19.22 2:4.14 3:-22.31 4:-19.45 5:-30.29 6:-31.44 7:-33.59 8:-36.36 9:-16.29 10:-19.92 11:8.23 12:-16.62 
-2.636871241603372e-05 0:26.76 1:-28.62 2:26.12 3:-7 4:-20.81 5:4.81 6:-35.71 7:-3.09 8:-13.4 9:-3.44 10:-5.25 11:14.89 12:-6.09 
-2.45869827821184e-06 0:27 1:-24.45 2:13.34 3:-13.85 4:-28.9 5:3.74 6:-35.79 7:1.71 8:-34.46 9:4.13 10:-20.03 11:7.25 12:-1.91 
-2.636871241603372e-05 0:24.76 1:-11.86 2:-7.45 3:-9.52 4:-30.08 5:6.71 6:-12.44 7:-34.41 8:-28.97 9:-18.11 10:-16.63 11:-7.89 12:-21.1 
-2.636871241603372e-05 0:24.77 1:-11.92 2:-15.81 3:6.23 4:-30.53 5:-34.68 6:-41.75 7:-38.52 8:-28.59 9:-11.58 10:1 11:-13.54 12:-13.72 
-2.636871241603372e-05 0:25.07 1:-17.18 2:6.52 3:-15.03 4:-19.89 5:-21.21 6:-39.01 7:-15.61 8:-31.77 9:-17.85 10:-26.3 11:-18.2 12:-7.76 
-2.636871241603372e-05 0:24.48 1:-16.28 2:7.1 3:-8.69 4:-26.94 5:-1.53 6:-19.15 7:-13.75 8:-26.34 9:-24.54 10:-17.17 11:2.87 12:-2.83 
-2.636871241603372e-05 0:24.12 1:-6.69 2:-6.87 3:-14.12 4:-12.84 5:-10.16 6:-20.74 7:-6.95 8:-18.12 9:19.11 10:4.64 11:-7.75 12:-2.61 
-2.636871241603372e-05 0:25.03 1:-17.15 2:7.87 3:-10.85 4:-24.03 5:-2.29 6:-25.49 7:2.63 8:-33.66 9:-15.1 10:-25.18 11:20.96 12:-14.23 
-2.636871241603372e-05 0:25.11 1:-17.25 2:2.05 3:-16.39 4:-22.02 5:-0.92 6:-22.92 7:-42.49 8:-32.31 9:-6.26 10:-21.69 11:15.45 12:-13.61 
-2.636871241603372e-05 0:24.85 1:-14.19 2:4.69 3:-11.04 4:-20.88 5:-16.89 6:-17.84 7:-10.7 8:-16.78 9:36.13 10:5.19 11:-0.98 12:8.19 
-2.636871241603372e-05 0:24.91 1:-14.75 2:5.6 3:-7.12 4:-23.87 5:-5.27 6:-34.95 7:-16.77 8:-27.62 9:-12.41 10:-11.51 11:-5.49 12:-14.15 
-2.636871241603372e-05 0:24.32 1:-11.68 2:-10.9 3:-19.12 4:-17.79 5:-8.9 6:-34.38 7:-39.72 8:-31.37 9:-20.36 10:-21.75 11:19.78 12:-7.27 
-2.636871241603372e-05 0:24.12 1:-7.92 2:-12.95 3:-8.5 4:-6.58 5:3.77 6:-7.23 7:-17.04 8:3.36 9:35.44 10:9.1 11:-6.39 12:6.12 
-2.636871241603372e-05 0:26.32 1:-20.07 2:12.85 3:-17.31 4:-21.94 5:10.38 6:-47.17 7:-12.7 8:-27.19 9:-6.67 10:-16.85 11:9.6 12:-0.99 
-2.636871241603372e-05 0:26.02 1:-21.01 2:12.99 3:-15.18 4:-14.01 5:-15.96 6:-24.68 7:-8.8 8:-31.42 9:38.88 10:-4.31 11:0.92 12:0.19 
-2.636871241603372e-05 0:24.01 1:-4.2 2:-16.89 3:-2.59 4:-23.38 5:-7.01 6:-36.48 7:-35.4 8:-0.88 9:30.38 10:5.54 11:13.16 12:-1.88 
-2.636871241603372e-05 0:24.75 1:-11.96 2:10.02 3:-19.84 4:2.54 5:-5.68 6:-4.66 7:3.37 8:-9.36 9:41.49 10:7.26 11:8.12 12:27.93 
-2.636871241603372e-05 0:25.23 1:-20.6 2:-26.28 3:-10.87 4:-41.07 5:-19.19 6:-35.68 7:-5.06 8:-24.36 9:0.39 10:-18.26 11:8.65 12:-22.52 
-2.636871241603372e-05 0:23.96 1:-11.84 2:-11.83 3:-8.64 4:-30.76 5:-2.02 6:-29.01 7:-34.89 8:-26.96 9:-5.82 10:-16.8 11:-14.73 12:-15.1 
-2.636871241603372e-05 0:25.74 1:-17.5 2:14.05 3:3.74 4:-13.49 5:-7 6:-17.41 7:2.88 8:-5.17 9:27.55 10:9.05 11:10.78 12:4.62 
-2.007057118263758e-05 0:25.58 1:-21.94 2:-1.61 3:-22.24 4:-49.92 5:-7.15 6:-36.82 7:-15.07 8:-34.87 9:-9.78 10:-12.8 11:-10.59 12:-16.16 
-2.636871241603372e-05 0:26.34 1:-23.54 2:15.2 3:0.04 4:-30.55 5:0.44 6:-13.6 7:-7.39 8:-35.74 9:-8.11 10:-11.65 11:6.72 12:-2.64 
-2.636871241603372e-05 0:24.09 1:1.43 2:-10.08 3:-35.85 4:-14.95 5:6.09 6:-34.61 7:-7.78 8:-5.93 9:22.62 10:12.79 11:8.05 12:-3.99 
-2.636871241603372e-05 0:26.51 1:-17.46 2:3.25 3:-12.87 4:-15.39 5:-18.97 6:-22.41 7:-10.64 8:-37.52 9:31.75 10:-15.38 11:8.3 12:-13.38 
-2.636871241603372e-05 0:24.42 1:-17.46 2:4.01 3:1.87 4:-20.49 5:-10.98 6:-15.13 7:-21.84 8:-26 9:-16.98 10:-15.69 11:16.26 12:-6.51 
-2.636871241603372e-05 0:26.09 1:-26.05 2:-2.74 3:-3.36 4:-27.95 5:-10.98 6:-50.15 7:-33 8:-16.47 9:-20.53 10:-23.38 11:-1.56 12:-26.04 
-2.636871241603372e-05 0:24.04 1:-8.02 2:-3.82 3:-9.62 4:-22.03 5:-22.18 6:-58.09 7:-17.05 8:-44.83 9:-10.92 10:-5.55 11:-5.54 12:-19.9 
-2.636871241603372e-05 0:25.1 1:-11.86 2:6.19 3:-25.42 4:-30.92 5:6.79 6:-22.93 7:-16.03 8:-2.61 9:41.91 10:-4.87 11:23.2 12:-12.11 
-2.636871241603372e-05 0:24.52 1:-13.62 2:-11.08 3:-20.77 4:-20.43 5:-11.87 6:-22.68 7:-12.52 8:-1.72 9:21.97 10:12.9 11:6.51 12:5.61 
-2.636871241603372e-05 0:24.82 1:-9.77 2:-3.76 3:-20.04 4:-27.44 5:3.37 6:-36.93 7:-10.86 8:-7.25 9:25.75 10:-1.23 11:-0.92 12:-2.48 
-2.636871241603372e-05 0:26.38 1:-21.41 2:-0.6 3:-12.81 4:-26.85 5:2.54 6:-30.02 7:-18.49 8:-11.12 9:35.61 10:-1.4 11:19.81 12:-19.8 
-2.636871241603372e-05 0:25.5 1:-11.28 2:17.82 3:-13.56 4:-7.86 5:22.35 6:-40.23 7:15.54 8:1.46 9:29.96 10:10.35 11:9.15 12:5.11 
-2.636871241603372e-05 0:26.51 1:-26.95 2:-7.33 3:-26.29 4:-21.47 5:-18.59 6:-40.08 7:-2.23 8:-40.88 9:3.79 10:-14.14 11:-10.87 12:-11.65 
-2.636871241603372e-05 0:24.72 1:-14.88 2:5.54 3:-10.99 4:-21.24 5:-8.55 6:-37.45 7:-17.69 8:-20.21 9:-24.19 10:-10.74 11:11.24 12:-13.22 
-5.495058564430357e-07 0:26.27 1:-26.99 2:20.92 3:-12.38 4:-26.28 5:5.7 6:-47.86 7:4.9 8:-38.6 9:-8.29 10:-10.33 11:12.13 12:-15.05 
-2.636871241603372e-05 0:26.15 1:-16.98 2:5.18 3:-13.66 4:-22.09 5:13.89 6:-26.09 7:-17.15 8:-16.77 9:11.12 10:-2.05 11:11.79 12:0.07 
-2.636871241603372e-05 0:25.42 1:-22.34 2:-23.41 3:-17.01 4:-29.59 5:-16.9 6:-25.26 7:-16 8:-29.32 9:-8.27 10:-24.59 11:5.49 12:-10.53 
-2.636871241603372e-05 0:26.04 1:-19.6 2:7.41 3:-14.6 4:-46.8 5:5.86 6:1.74 7:-16.79 8:-14.63 9:30.88 10:-1.06 11:31.66 12:-10.62 
-2.636871241603372e-05 0:23.81 1:-7.64 2:2.09 3:-16.13 4:-31.71 5:-2.91 6:-21.58 7:-17.64 8:-8.68 9:37.21 10:-7.01 11:6.11 12:11.93 
-2.636871241603372e-05 0:25.09 1:-12.5 2:5.32 3:-19.05 4:-7.02 5:-17.76 6:-31.2 7:3.59 8:-35.49 9:-13.35 10:-3.17 11:7.49 12:-13.08 
-2.636871241603372e-05 0:26.65 1:-23.46 2:27.56 3:-16.62 4:-33.24 5:7.32 6:-48.54 7:2.51 8:-20.67 9:0.12 10:-12.58 11:6.03 12:3.06 
-2.636871241603372e-05 0:24.79 1:-18.12 2:4.87 3:1.85 4:-18.9 5:-14.8 6:-33.89 7:-21.33 8:-28.64 9:-18.16 10:-4.61 11:-1.75 12:-6.53 
-2.636871241603372e-05 0:24.78 1:-11.43 2:13.47 3:-16.66 4:-9.85 5:-9.74 6:10.71 7:-11.02 8:1.71 9:26.13 10:9.36 11:21.16 12:3.14 
-2.636871241603372e-05 0:25.35 1:-14.4 2:3.62 3:-19.5 4:-34.64 5:3.91 6:-34.91 7:-14.13 8:-12.06 9:22.57 10:0.12 11:2.51 12:14.9 
