svm_type nu_svc
kernel_type linear
nr_class 2
total_sv 156
rho -1.62135
label 1 -1
probA -3.54981
probB 0.361678
nr_sv 77 79
SV
3.327437628718913e-05 0:24.65 1:-7.74 2:13.96 3:-39.47 4:-18.46 5:-5.36 6:-19.35 7:-9.74 8:-7.43 9:15.19 10:0.28 11:-0.58 12:-1.07 
3.327437628718913e-05 0:23.81 1:-4.45 2:14.53 3:-28.72 4:-37.68 5:7.27 6:-14.42 7:-11.12 8:10.91 9:-10.35 10:9.54 11:-5.01 12:-3.99 
3.327437628718913e-05 0:24.71 1:-10.69 2:6.28 3:-15.28 4:3.59 5:-28.81 6:-17.85 7:-15.47 8:-20.04 9:12.88 10:-1.1 11:-0.94 12:-4.63 
3.327437628718913e-05 0:23.9 1:-4.56 2:9.32 3:-20.05 4:-40.82 5:-1.2 6:-10.01 7:-11.73 8:-2.94 9:5.68 10:-2.75 11:8.05 12:-2.31 
3.327437628718913e-05 0:24.89 1:-14.31 2:12.9 3:-25.22 4:-13.69 5:-28.05 6:-14.12 7:-17.67 8:-7.07 9:10.88 10:-4.61 11:-5.31 12:0.11 
3.327437628718913e-05 0:23.68 1:-7.4 2:16.2 3:-14.51 4:-29.97 5:-12.22 6:-4.27 7:-13.46 8:0.97 9:-0.19 10:0.87 11:16.55 12:2.06 
3.327437628718913e-05 0:24.65 1:-12.03 2:7.28 3:-18.16 4:-31.2 5:-3 6:-3.2 7:-7.68 8:-16.15 9:0.71 10:2.52 11:17.56 12:-6.32 
3.327437628718913e-05 0:25.15 1:-21.35 2:-15.61 3:-18.17 4:-33.29 5:-24.68 6:-1.14 7:-14.42 8:-1.84 9:3.85 10:-17.75 11:-0.72 12:-6.65 
3.327437628718913e-05 0:24.07 1:-10.64 2:11.21 3:-18.54 4:-39.48 5:-1.46 6:-7.61 7:-18.58 8:11.31 9:-6.95 10:7.18 11:3.99 12:-2.3 
3.327437628718913e-05 0:24.97 1:-12.55 2:14.9 3:-30.02 4:-15.05 5:-22.13 6:-3.57 7:-1.4 8:-14.52 9:8.31 10:-11.14 11:10.92 12:0.15 
3.327437628718913e-05 0:23.72 1:-3.92 2:15.37 3:-18.8 4:-19.88 5:0.18 6:-18.46 7:-6.55 8:-22.47 9:-0.71 10:-7.32 11:-3.02 12:-5.89 
3.327437628718913e-05 0:21.76 1:-12.52 2:14.28 3:-2.08 4:-11.68 5:3.19 6:-9.64 7:10.92 8:-3.73 9:12.08 10:-5.29 11:3.05 12:1.49 
3.327437628718913e-05 0:25.19 1:-10.66 2:11.88 3:-28.44 4:-4.74 5:-26.72 6:-19.44 7:-3.13 8:-20.29 9:8.12 10:-6.67 11:2.61 12:-2.85 
3.327437628718913e-05 0:23.99 1:-2.65 2:6.74 3:-13.75 4:-44.33 5:3.11 6:4.08 7:-25.79 8:-5.93 9:29.21 10:-0.98 11:13.59 12:-14.63 
3.327437628718913e-05 0:23 1:-3.3 2:17.18 3:-9.35 4:-27.28 5:-18.54 6:-8.75 7:-4.15 8:-3.12 9:-4.19 10:-4.36 11:4.99 12:5.79 
3.327437628718913e-05 0:23.86 1:-7.97 2:13.89 3:-30.25 4:-39.09 5:-4.15 6:5.36 7:-27.31 8:-6.61 9:20.3 10:-3.69 11:8.6 12:-16.09 
3.327437628718913e-05 0:24.14 1:-7.48 2:19.31 3:-17.3 4:-24.26 5:-9.82 6:-6.29 7:-8.88 8:5.69 9:8.65 10:-3.59 11:-5.32 12:0.43 
3.327437628718913e-05 0:24.43 1:-18.6 2:-22.02 3:-17.66 4:-34.78 5:-33.62 6:4.01 7:-7.49 8:-1.7 9:2.01 10:-19.92 11:-1.98 12:-10.47 
3.327437628718913e-05 0:24.24 1:-9.89 2:12.67 3:-9.66 4:-27.62 5:-10.04 6:-10.13 7:-13.81 8:-2.79 9:-6.2 10:8.43 11:-4.2 12:4.1 
3.327437628718913e-05 0:24.47 1:-5.61 2:9.88 3:-20.22 4:-19.16 5:-9.89 6:-15.32 7:-9.93 8:9.92 9:10.18 10:-9.33 11:-0.68 12:6.35 
3.327437628718913e-05 0:21.93 1:-12.97 2:10.5 3:-7.22 4:-10.39 5:13.55 6:-6.53 7:21.34 8:-10.56 9:11.07 10:2.45 11:-2.2 12:5.79 
3.327437628718913e-05 0:25.37 1:-17.83 2:19.82 3:-10.68 4:-26.91 5:-14.94 6:4.85 7:-11.15 8:-8.83 9:-0.34 10:3.31 11:3.28 12:3.3 
3.327437628718913e-05 0:22.79 1:-0.92 2:1.6 3:-25.48 4:-36.8 5:-0.54 6:-8.77 7:-7.68 8:-28.6 9:14.51 10:-0.04 11:14.62 12:-8.28 
3.327437628718913e-05 0:21.14 1:-8.86 2:8.89 3:0.61 4:-15.24 5:6.48 6:-9.8 7:13.23 8:1.19 9:14.26 10:-0.54 11:-1.57 12:3.54 
3.327437628718913e-05 0:21.17 1:-9.33 2:7.44 3:2.59 4:-4.99 5:13.1 6:-13.98 7:23.01 8:-12.24 9:15.83 10:5.24 11:-6.75 12:16.07 
3.327437628718913e-05 0:24.13 1:-3.45 2:1.09 3:-5.67 4:-35.16 5:-27.71 6:4.07 7:-9.98 8:-19.39 9:18 10:-6.75 11:4.72 12:-22.66 
3.327437628718913e-05 0:23.42 1:-3.92 2:2.15 3:-31.7 4:-29.04 5:-9.33 6:-1.34 7:-26.87 8:-16.5 9:15.91 10:-6.92 11:4.39 12:0.79 
3.327437628718913e-05 0:23.8 1:-1.95 2:-0.76 3:-32.75 4:-32.24 5:-4.61 6:-1.1 7:-8.14 8:-15.74 9:4.61 10:1.52 11:4.02 12:1.19 
3.327437628718913e-05 0:25.01 1:-12.39 2:1.64 3:-21.64 4:-10.78 5:-33.92 6:-16.41 7:-0.86 8:-32.04 9:8.66 10:-4.61 11:-3.08 12:-9.59 
3.327437628718913e-05 0:22.53 1:-14.38 2:19.55 3:-11.32 4:-2.75 5:10.04 6:-18.9 7:29.04 8:-10.51 9:21.08 10:1.82 11:0.64 12:8.29 
3.327437628718913e-05 0:24.3 1:-6.27 2:9.93 3:-25.98 4:-12.21 5:-19.8 6:-12.63 7:-8.76 8:-25.79 9:4.94 10:-1.45 11:-8.67 12:-4.19 
3.327437628718913e-05 0:24.2 1:-9.27 2:7.09 3:-17.21 4:-14.38 5:-25.35 6:-9.6 7:-7.33 8:-22.78 9:5.03 10:-5.46 11:7.51 12:-5.94 
3.327437628718913e-05 0:25.35 1:-13.95 2:15.88 3:-23.9 4:-9.97 5:-24.71 6:-13.46 7:-5.81 8:-17.68 9:-0.45 10:0.2 11:-0.29 12:-5.62 
3.327437628718913e-05 0:23.57 1:-12.43 2:4.55 3:-4.02 4:-22.47 5:-18.73 6:-10.78 7:-7.85 8:-19.71 9:-3.68 10:-0.08 11:2.52 12:-5.95 
3.327437628718913e-05 0:24.84 1:-11.24 2:3.25 3:-27.44 4:-31.28 5:-10.38 6:-8.85 7:-7.57 8:-8.1 9:12.33 10:-1.49 11:7.26 12:-1.57 
1.308046898433254e-05 0:22.41 1:-11.55 2:15.19 3:-17 4:-15.51 5:-0.94 6:-4.43 7:19.52 8:-6.66 9:15.4 10:6.45 11:-5.98 12:-0.75 
3.327437628718913e-05 0:25.01 1:-9.98 2:7.1 3:-22.92 4:-7.58 5:-24.83 6:-21.27 7:3.37 8:-20.32 9:0.36 10:-9.54 11:10.17 12:-9.45 
3.327437628718913e-05 0:24.78 1:-10.01 2:10.91 3:-22.04 4:-5.88 5:-20.88 6:-18.76 7:-3.37 8:-19.09 9:0.29 10:-5.6 11:5.89 12:-14.34 
3.327437628718913e-05 0:23.55 1:-8.54 2:7.74 3:-18.68 4:-13.46 5:-7.33 6:-13.24 7:0.8 8:0.74 9:-1.18 10:-6.24 11:5.43 12:6.52 
3.327437628718913e-05 0:24.39 1:-10.49 2:9.7 3:-29.36 4:-37.52 5:-3.45 6:-1.62 7:-6.97 8:-21.39 9:11.83 10:-6.52 11:10.27 12:-0.45 
3.327437628718913e-05 0:25.29 1:-20.3 2:-0.28 3:-27.66 4:-43.4 5:-29.39 6:1.94 7:-13.62 8:-1.93 9:15.08 10:-14.31 11:-3.1 12:-15 
3.327437628718913e-05 0:20.92 1:-8.43 2:11.42 3:-6.61 4:-10.68 5:1.98 6:1.49 7:13.55 8:-7.75 9:19.65 10:-5.46 11:0.98 12:12.74 
3.327437628718913e-05 0:24.5 1:-15.67 2:-20.55 3:-32.08 4:-28.8 5:-47.74 6:1.18 7:-5.04 8:-4.57 9:-3.35 10:-12.95 11:-1.76 12:-7.09 
3.327437628718913e-05 0:23.81 1:-2.8 2:2.2 3:-17.51 4:-31.99 5:-12.28 6:-2.74 7:-20.82 8:-21.3 9:4.58 10:-1.64 11:12.08 12:-12.51 
3.327437628718913e-05 0:24.85 1:-13.07 2:13.85 3:-3.31 4:-25.36 5:-20.13 6:-17.19 7:-14.33 8:-7.03 9:13.96 10:4.78 11:12.51 12:-18.12 
3.327437628718913e-05 0:25.5 1:-12.69 2:17.67 3:-32.22 4:-13.56 5:-20.36 6:-4.41 7:-11.06 8:-7.78 9:11.48 10:-15.8 11:6.37 12:-0.39 
3.327437628718913e-05 0:24.65 1:-12.63 2:-2.08 3:-20.47 4:-23.82 5:-4.04 6:-8.74 7:-11.49 8:-13.93 9:19.5 10:-10.05 11:11.44 12:-12.92 
3.327437628718913e-05 0:24.04 1:-2.33 2:-1.84 3:-15.12 4:-9.22 5:-9.99 6:-14.95 7:-26.82 8:-8.94 9:4.89 10:3.77 11:12.34 12:-8 
3.327437628718913e-05 0:23.27 1:2.63 2:0.85 3:-35.22 4:-33.61 5:-6.57 6:-2.11 7:-8.36 8:-16.96 9:4.54 10:3.94 11:10.83 12:-12.19 
3.327437628718913e-05 0:23.95 1:-0.6 2:-6.44 3:-6.87 4:-23.17 5:-14.72 6:-11.68 7:-22.02 8:2.22 9:-1.42 10:8.67 11:4.68 12:-9.62 
3.327437628718913e-05 0:25.16 1:-15.57 2:12.11 3:-25.88 4:-10.97 5:-27.01 6:-10.74 7:1.03 8:-26.14 9:-6.76 10:-2.56 11:0.16 12:-1.46 
3.327437628718913e-05 0:23.54 1:-8.27 2:8.26 3:-19.98 4:-24.05 5:-4.26 6:-19.05 7:-20.57 8:7.56 9:1.19 10:1.7 11:-5.66 12:-4.14 
3.327437628718913e-05 0:21.24 1:-8.17 2:11.42 3:-3.42 4:-12.42 5:6.11 6:-9.7 7:16.63 8:-1.8 9:20.64 10:-7.51 11:4.88 12:-0.74 
3.327437628718913e-05 0:24.51 1:-18.44 2:-2.27 3:-30.87 4:-38.09 5:-22.27 6:-2.76 7:-4 8:-6 9:3.74 10:-19.47 11:-1.16 12:-3.06 
3.327437628718913e-05 0:24.76 1:-14.34 2:13.93 3:-14.14 4:-26.69 5:-12.65 6:-16.88 7:-13.21 8:-4.62 9:5.54 10:-0.43 11:15.8 12:-16.29 
3.327437628718913e-05 0:23.83 1:-4.53 2:12.37 3:-11.75 4:-36.61 5:-6.27 6:-1.75 7:-13.7 8:-6.42 9:-6.41 10:9.39 11:1.02 12:-2.49 
3.327437628718913e-05 0:25.06 1:-20.44 2:-7.1 3:-10.23 4:-40.61 5:-41.61 6:2.76 7:0.42 8:-4.29 9:8.35 10:-17.76 11:-8.29 12:-4.82 
3.327437628718913e-05 0:23.72 1:-5.61 2:17.01 3:-21.14 4:-32.95 5:-13.69 6:-9.48 7:-9.17 8:-1.58 9:-6.07 10:9.71 11:-1.84 12:4.08 
3.556719159262022e-06 0:24.89 1:-20.23 2:-8 3:-34.12 4:-16.43 5:-38.44 6:-13.04 7:0.1 8:-1.8 9:-0.36 10:-5.82 11:-9.07 12:3.09 
3.327437628718913e-05 0:24.12 1:-7.78 2:1.87 3:-18.31 4:-26.47 5:-9.6 6:0.31 7:-16.42 8:-20.34 9:18.12 10:-7.6 11:7.26 12:-20.62 
3.327437628718913e-05 0:21.9 1:-13.22 2:12.59 3:0.43 4:-8.59 5:2.48 6:-13.22 7:18.76 8:-13.59 9:15.45 10:3.47 11:3.07 12:8.2 
3.327437628718913e-05 0:21.37 1:-13.29 2:13.68 3:-4.05 4:-4.89 5:4.21 6:-9.34 7:14.93 8:-6.38 9:14.22 10:-0.72 11:8 12:1.14 
3.327437628718913e-05 0:23.93 1:-7.58 2:16.35 3:-31.52 4:-41.74 5:11.72 6:-0.57 7:-5.94 8:-18.53 9:11.62 10:-6.51 11:15.02 12:-6.93 
3.327437628718913e-05 0:26.23 1:-13.65 2:0.56 3:-32.15 4:-30.61 5:-18.59 6:-28.4 7:-5.96 8:-8.93 9:-2.56 10:-11.23 11:-2.06 12:-19.65 
3.327437628718913e-05 0:22.09 1:-11.33 2:15.79 3:-14.95 4:-11.87 5:3.03 6:-12.1 7:24.75 8:-10.79 9:23.65 10:-0.55 11:5.34 12:4.06 
3.327437628718913e-05 0:25.29 1:-21.36 2:-22.91 3:-31.8 4:-25.79 5:-32.52 6:-6.89 7:-2.8 8:-11.33 9:-0.85 10:-15.35 11:-9.49 12:-2.41 
3.327437628718913e-05 0:24.62 1:-10.6 2:14.07 3:-12.44 4:-16.36 5:-0.61 6:-1.86 7:-29.38 8:-4.25 9:-5.59 10:-3.74 11:2.8 12:5.41 
3.327437628718913e-05 0:24.44 1:-7.62 2:9.77 3:-12.46 4:-17.88 5:-6.81 6:-5.83 7:-22.61 8:-3.14 9:-9.78 10:2.91 11:11.2 12:1.82 
3.327437628718913e-05 0:23.91 1:-9.38 2:3.19 3:-22.96 4:-29.7 5:-4.25 6:5.36 7:-13.46 8:-25.06 9:5.37 10:6.6 11:13.69 12:-10.48 
3.327437628718913e-05 0:23.76 1:-6.16 2:19.08 3:-18.27 4:-36.39 5:-14.94 6:1.4 7:-11.9 8:2.75 9:2.53 10:-3.37 11:11.12 12:-6.38 
3.327437628718913e-05 0:23.75 1:-2.42 2:-4.93 3:-21.13 4:-12.45 5:-18.81 6:4.04 7:-21.19 8:-18.99 9:-0.82 10:8.58 11:-0.94 12:-4.69 
3.327437628718913e-05 0:24.53 1:-5.34 2:16.5 3:-20.9 4:-26.7 5:-16.29 6:-6.12 7:-6.67 8:6.74 9:-1.23 10:-4.32 11:2.61 12:3.95 
3.327437628718913e-05 0:24.6 1:-9.62 2:5.48 3:-32.28 4:-13.4 5:-26.01 6:-3.99 7:-13.91 8:-15.7 9:4.89 10:-1.79 11:2.23 12:-4.56 
3.327437628718913e-05 0:23.6 1:-2.26 2:8.67 3:-16.81 4:-32.2 5:-7.47 6:-7.42 7:-8.76 8:1.77 9:-3.82 10:-12.21 11:1.13 12:4.32 
3.327437628718913e-05 0:23.61 1:-3.52 2:7.48 3:-24.86 4:-30.45 5:-8.55 6:-9.71 7:1.05 8:-0.65 9:-1.58 10:-10.87 11:-5.32 12:1.36 
3.327437628718913e-05 0:23.99 1:-4.21 2:13.56 3:-17.74 4:-35.21 5:-7.23 6:-11.14 7:-1.96 8:2.4 9:-3.43 10:2.5 11:-1.65 12:-0.29 
3.327437628718913e-05 0:25.07 1:-13.53 2:14.25 3:-28 4:-30.41 5:-11.45 6:-18.13 7:-6.99 8:-18.29 9:8.81 10:0.17 11:13.01 12:-12.59 
-3.327437628718913e-05 0:24.82 1:-11.03 2:8.71 3:-39.01 4:-29.76 5:1.74 6:-29.09 7:-15.49 8:-13.41 9:37.26 10:-1.16 11:9.15 12:4.43 
-3.327437628718913e-05 0:25.55 1:-21.08 2:17.05 3:-19.91 4:-40.34 5:-11.3 6:-33.37 7:-28.63 8:-15.54 9:-1.64 10:-15.84 11:0.78 12:-7.46 
-3.327437628718913e-05 0:24.48 1:-9.32 2:12.38 3:-38.01 4:-46.29 5:-3.08 6:-16.34 7:-0.15 8:-29.32 9:-8.41 10:-23.77 11:14.27 12:-0.68 
-3.327437628718913e-05 0:24.88 1:-13.37 2:15.03 3:-17.13 4:-24.04 5:-11.64 6:-9.51 7:-2.85 8:-28.22 9:-11.25 10:-17.23 11:9.04 12:-14.21 
-3.327437628718913e-05 0:24.19 1:-12.73 2:14.85 3:-24.98 4:-19.78 5:-17.77 6:-20.97 7:-9.04 8:-33.45 9:-13.71 10:-17.09 11:14.63 12:3.59 
-3.327437628718913e-05 0:24.96 1:-13.28 2:2.35 3:-15.86 4:-10.3 5:-22.12 6:-26.91 7:-22.79 8:-28.78 9:36.55 10:-4.8 11:4.58 12:1.73 
-3.327437628718913e-05 0:25.02 1:-15 2:9.27 3:-13.93 4:-40.19 5:-16.91 6:-24.25 7:7.22 8:-33.02 9:-15.73 10:-22.03 11:-3.01 12:2.73 
-3.327437628718913e-05 0:23.42 1:-7.36 2:5.58 3:-17.16 4:-30.94 5:-8.87 6:-14.21 7:-3.22 8:-33.02 9:-7.7 10:-19.7 11:7.36 12:-4.23 
-3.327437628718913e-05 0:25.36 1:-13.95 2:8.53 3:-14.8 4:-14.51 5:1.84 6:-41.05 7:-12.42 8:-36.08 9:-5.43 10:-31.03 11:-5.87 12:0.14 
-3.327437628718913e-05 0:26.63 1:-23.03 2:4.19 3:-8.95 4:-44.2 5:-4.11 6:-20.35 7:0.67 8:-24.9 9:-7.19 10:-28.64 11:-3.33 12:-9.03 
-3.327437628718913e-05 0:23.85 1:-2.9 2:5.5 3:-36.11 4:-45.58 5:0.37 6:-20.86 7:0.13 8:-31.08 9:-30.49 10:-7.54 11:-9.23 12:4.1 
-3.327437628718913e-05 0:24.28 1:-11.44 2:11.52 3:-18.3 4:-31.63 5:-24.65 6:-5.58 7:-13.52 8:-21.71 9:-2.98 10:-22.7 11:11.68 12:-11.01 
-3.327437628718913e-05 0:23.81 1:-9.12 2:6.47 3:-5.43 4:-38.46 5:-12.39 6:-4.7 7:-11.84 8:-23.77 9:-9.7 10:-13.75 11:0.21 12:0.72 
-1.446167461098975e-06 0:25.8 1:-20.96 2:5.33 3:-19.75 4:-27.04 5:-11.76 6:-26.84 7:-19.65 8:-31.71 9:-2.99 10:-37.86 11:12.44 12:-11.23 
-3.327437628718913e-05 0:24.56 1:-13.48 2:9.26 3:14.61 4:-34.59 5:-19.88 6:7.9 7:14.74 8:-6.18 9:41.99 10:14.63 11:3.88 12:13.63 
-3.327437628718913e-05 0:24.61 1:-13.25 2:11.83 3:-26.57 4:-47.26 5:-10.92 6:-15.43 7:7.85 8:-30.87 9:-0.97 10:-26.16 11:9.6 12:-7.83 
-3.327437628718913e-05 0:24.94 1:-13.77 2:13.95 3:-28.89 4:-36.55 5:7.2 6:-38.17 7:9.89 8:-32.93 9:-16.05 10:-12.14 11:6.04 12:-9.35 
-3.327437628718913e-05 0:25.37 1:-15.87 2:11.35 3:-28.2 4:-25.35 5:-15.09 6:-10.62 7:-9.01 8:-20.6 9:31.33 10:-12.63 11:15.74 12:8.07 
-3.327437628718913e-05 0:25.62 1:-12.96 2:10.02 3:-26.88 4:-16.45 5:-15.72 6:-27.37 7:-9.31 8:-25.4 9:32.15 10:-6.45 11:9.2 12:5.44 
-3.327437628718913e-05 0:24.43 1:-12.26 2:6.81 3:4.12 4:-44.23 5:-29.22 6:-8.22 7:-27.83 8:0.68 9:4.69 10:5.74 11:14.64 12:1.16 
-3.327437628718913e-05 0:23.98 1:-4.01 2:-3.63 3:-20.04 4:-39.71 5:-22.97 6:0.46 7:-13.97 8:0.54 9:31.41 10:12.72 11:10.83 12:1.89 
-3.327437628718913e-05 0:24.32 1:-15.62 2:7.56 3:-11.78 4:-46.47 5:-16.68 6:-19.96 7:-1.66 8:-31.68 9:-13.4 10:-20.79 11:-4.31 12:4.31 
-3.327437628718913e-05 0:24.3 1:-9.93 2:5.84 3:-20.69 4:-27.46 5:-6.67 6:-4 7:-24.6 8:-10.95 9:23.85 10:3.1 11:0.2 12:3.69 
-3.327437628718913e-05 0:22.36 1:-5.48 2:9.49 3:-10.13 4:-38.49 5:1.99 6:-25.31 7:-13.07 8:-33.13 9:-7.65 10:-28.86 11:-5.16 12:-12.23 
-3.327437628718913e-05 0:24.13 1:-10.9 2:-2.48 3:-16.75 4:-37.84 5:-11.02 6:-20.32 7:-0.52 8:-27.67 9:-11.36 10:-14.31 11:0.14 12:-6.25 
-3.327437628718913e-05 0:24.11 1:-6.6 2:5.52 3:-11.99 4:-36.92 5:-12.8 6:-25.12 7:-28.26 8:-9.35 9:17.33 10:12.44 11:2.88 12:6.91 
-3.327437628718913e-05 0:25.12 1:-10.66 2:2.77 3:-20.71 4:-10.33 5:-8.52 6:-5.37 7:-10.98 8:-8.16 9:22.87 10:10.26 11:16.14 12:7.48 
-3.327437628718913e-05 0:23.51 1:-4.71 2:6.8 3:-35.2 4:-32.61 5:-4.97 6:-8.67 7:-0.88 8:-43.98 9:-17.86 10:-25.68 11:5.53 12:-7.01 
-3.327437628718913e-05 0:25.99 1:-17.88 2:11.23 3:2.23 4:-25.48 5:12.86 6:-9.53 7:16.47 8:5.01 9:27.07 10:20.96 11:4.85 12:1.06 
-3.327437628718913e-05 0:24.7 1:-18.99 2:6.96 3:-14.9 4:-33.11 5:-43.05 6:-9.74 7:-25.11 8:-48.13 9:-10.54 10:-15.59 11:-1.6 12:-3.58 
-3.327437628718913e-05 0:25.76 1:-22.48 2:13.75 3:-11.43 4:-41.1 5:-10.91 6:-5.93 7:-17.98 8:-21.32 9:21.4 10:1.24 11:4.63 12:6.72 
-3.327437628718913e-05 0:24.93 1:-12.83 2:11.61 3:-21.59 4:-24.5 5:-2.04 6:-10.2 7:13.79 8:1.72 9:23.01 10:12.14 11:11.32 12:5.54 
-3.327437628718913e-05 0:24.52 1:-14.5 2:5.97 3:-8.47 4:-37.31 5:-16.09 6:-8.05 7:-9.76 8:-28.3 9:-12.24 10:-23.07 11:2.33 12:0.98 
-3.327437628718913e-05 0:25.54 1:-12.34 2:7.96 3:1.66 4:-32.67 5:15.4 6:-16.79 7:13.52 8:-0.35 9:43.92 10:5.09 11:6.92 12:16.48 
-3.327437628718913e-05 0:23.32 1:-3.12 2:7.21 3:-20.76 4:-34.26 5:-9.68 6:-4.61 7:7.4 8:-27.36 9:-20.48 10:-26.5 11:10.67 12:-2 
-3.327437628718913e-05 0:24.18 1:-11.42 2:12.93 3:-9.32 4:-35.63 5:-7.11 6:-27.4 7:5.97 8:-26.07 9:-9.71 10:-19.1 11:9.04 12:4.27 
-3.327437628718913e-05 0:23.48 1:-11.36 2:17.69 3:-18.32 4:-36.3 5:-10.81 6:-30 7:-3.07 8:-40.85 9:-5.86 10:-16.37 11:-10.77 12:-4.94 
-3.327437628718913e-05 0:26.35 1:-18.58 2:27.51 3:-12.98 4:-23.48 5:15.59 6:-25.31 7:31.83 8:-10.95 9:47 10:8.39 11:14.66 12:19.84 
-3.327437628718913e-05 0:24.06 1:-7.28 2:-3.17 3:-14.86 4:-28.83 5:-13.52 6:-13.96 7:-2.86 8:-13.6 9:31.41 10:9.07 11:0.57 12:-1.14 
-3.327437628718913e-05 0:23.74 1:-5.91 2:-7.66 3:-8.4 4:-20.8 5:-36.47 6:-6.46 7:-28.24 8:-7.67 9:25.07 10:9.17 11:16.38 12:5.23 
-3.327437628718913e-05 0:23.97 1:-5.53 2:-0.87 3:-28.86 4:-35.53 5:-0.37 6:-6.07 7:-26.18 8:-19.99 9:43.83 10:-3.58 11:14.45 12:13.01 
-3.327437628718913e-05 0:25.08 1:-15.6 2:13.56 3:-21.99 4:-24.04 5:-17.62 6:-23.03 7:-14.8 8:-28.24 9:23.55 10:1.55 11:8.03 12:2.7 
-3.327437628718913e-05 0:24.41 1:-7.83 2:6.62 3:-24.87 4:-25.05 5:-11.04 6:-20.96 7:-16.33 8:-31.67 9:29.34 10:-2.93 11:-3.42 12:4.28 
-3.327437628718913e-05 0:24.21 1:-13.09 2:-2.56 3:-26.95 4:-34.04 5:-9.94 6:-14.85 7:-32.14 8:-40.44 9:-5.5 10:-25 11:12.6 12:-16 
-3.327437628718913e-05 0:23.76 1:-15.06 2:0.66 3:-13.19 4:-35.48 5:-31.58 6:-7 7:-23.12 8:-35.85 9:-20.24 10:-21.05 11:3.14 12:-5.77 
-3.327437628718913e-05 0:25.1 1:-13.15 2:0.34 3:-26.55 4:-43.05 5:-2.77 6:-15.39 7:-12.99 8:-11.84 9:39.36 10:-0.58 11:14.75 12:4.75 
-4.237812158463282e-06 0:24.97 1:-16.97 2:-3.35 3:-9.44 4:-36.97 5:-23.69 6:-11.29 7:-44.84 8:-31.45 9:1.42 10:-17.73 11:10.87 12:-1.09 
-3.327437628718913e-05 0:25.49 1:-19.33 2:13.57 3:-25.7 4:-20.66 5:-30.99 6:-15.23 7:-15.78 8:-50.14 9:-14.49 10:-24.94 11:3.5 12:-13.37 
-3.327437628718913e-05 0:24.7 1:-15.57 2:14.82 3:-19.03 4:-29.07 5:-19.89 6:-23.97 7:-7.35 8:-26.72 9:-9.8 10:-29.09 11:1.72 12:-5.96 
-3.327437628718913e-05 0:25.92 1:-14.54 2:12.52 3:-19.58 4:-32.19 5:5.77 6:-10.84 7:12.35 8:-12.73 9:42.59 10:11.35 11:4.76 12:7.91 
-3.327437628718913e-05 0:24.62 1:-11.03 2:-3.76 3:-12.89 4:-38.99 5:-0.36 6:-26.45 7:-30.37 8:-31.59 9:-4.3 10:-20.04 11:-12.2 12:-5.34 
-3.327437628718913e-05 0:24.88 1:-12.08 2:9.81 3:-19.54 4:-43.31 5:3.38 6:-29.47 7:-4.23 8:-2.01 9:7.63 10:7.59 11:-2.96 12:11.56 
-3.327437628718913e-05 0:25.88 1:-27.09 2:7.86 3:-2.85 4:-36.49 5:-40.36 6:-9.94 7:-27.16 8:-34.62 9:-15.8 10:-12.46 11:18.41 12:-20.18 
-4.709186447219872e-06 0:25.24 1:-18.55 2:13.47 3:-15.79 4:-52.65 5:2.9 6:-35.22 7:-28.84 8:-19.49 9:-14.46 10:-12.6 11:1.32 12:-15.52 
-3.327437628718913e-05 0:24.27 1:-12.77 2:-17.41 3:-21.91 4:-30.54 5:-26.83 6:3.44 7:3.02 8:2.24 9:34.52 10:-0.01 11:18.42 12:11.79 
-3.327437628718913e-05 0:23.7 1:-7.05 2:11.05 3:-9.17 4:-18.49 5:-6.83 6:5.04 7:10.07 8:2.19 9:42.43 10:9.71 11:16.8 12:9.5 
-3.327437628718913e-05 0:25.32 1:-16.56 2:9.46 3:-3.51 4:-36.17 5:-13.97 6:-22.13 7:-18.74 8:-15.3 9:38.7 10:5.63 11:16.12 12:-11.33 
-3.327437628718913e-05 0:25.6 1:-16.12 2:13.27 3:-32.22 4:-25.3 5:-14.37 6:-10.87 7:-17.48 8:-14.44 9:33.83 10:-15.74 11:11.02 12:5.58 
-3.327437628718913e-05 0:24.62 1:-14.08 2:10.11 3:-11.84 4:-46 5:-17.26 6:-0.96 7:-8.68 8:-20.48 9:-8.83 10:-22.53 11:14.61 12:-15.77 
-3.327437628718913e-05 0:24.49 1:-8.21 2:2.83 3:-18.81 4:-25.15 5:-28.18 6:-10.82 7:-16.02 8:-14.85 9:18.04 10:17.28 11:11.77 12:-6.19 
-6.244022076812432e-06 0:25.78 1:-27.69 2:15.01 3:-12.61 4:-32.22 5:-21.74 6:-35.86 7:-24.76 8:-35.43 9:-6.53 10:-23.52 11:-5.84 12:-22.14 
-3.327437628718913e-05 0:24.47 1:-9.4 2:6.3 3:-16.85 4:-40.73 5:-9.66 6:-24.86 7:-24.54 8:-2.26 9:18.58 10:13.14 11:-7.81 12:6.11 
-3.327437628718913e-05 0:25.67 1:-25.53 2:-3.9 3:-27.24 4:-38.21 5:-21.92 6:-26.25 7:-1.59 8:-26.93 9:-2.83 10:-23.01 11:-4.26 12:0.81 
-3.327437628718913e-05 0:25.68 1:-11.67 2:15.59 3:-7.76 4:-33.01 5:15.58 6:-16.18 7:12.04 8:-1.97 9:49.73 10:-5.8 11:13.97 12:13.76 
-3.327437628718913e-05 0:24.27 1:-7.42 2:8.02 3:-11.94 4:-50.22 5:0.56 6:-14.7 7:-22.66 8:-16.11 9:14.59 10:8.91 11:6.8 12:7.37 
-3.327437628718913e-05 0:25.4 1:-19.64 2:17.7 3:-16.21 4:-29.34 5:-28.54 6:-12.05 7:-28.51 8:-37.97 9:-18.86 10:-27.79 11:1.77 12:-8.75 
-3.327437628718913e-05 0:24.5 1:-15.51 2:9.89 3:-18.91 4:-35.57 5:-0.78 6:-13.77 7:-24.62 8:-29.05 9:-22.35 10:-18.67 11:3.09 12:-9.58 
-3.327437628718913e-05 0:26.04 1:-15.47 2:16.89 3:-17.32 4:-30.7 5:9.04 6:-14.36 7:20.33 8:-15.9 9:54.65 10:3.86 11:17.79 12:16.86 
-3.327437628718913e-05 0:24.13 1:-9.43 2:-0.26 3:-18.39 4:-36.53 5:-2.89 6:-7.54 7:-22.73 8:-23.4 9:41.43 10:-8.26 11:17.14 12:-13.84 
-3.327437628718913e-05 0:24.96 1:-11.17 2:3.36 3:-15.56 4:-32.55 5:-1.72 6:-20.37 7:-30.25 8:-13.49 9:12.71 10:0.06 11:15.66 12:8.29 
-3.327437628718913e-05 0:23.99 1:-11.35 2:11.33 3:-11.34 4:-31.05 5:-4.03 6:-3.57 7:-6.15 8:-28.05 9:-13.78 10:-0.27 11:10.85 12:-5.01 
-3.327437628718913e-05 0:23.25 1:-0.12 2:6.5 3:-26.63 4:-5.43 5:-15.86 6:-2.68 7:19.87 8:8.82 9:18.74 10:14.49 11:22.87 12:6.95 
-3.327437628718913e-05 0:24.37 1:-9.4 2:13.53 3:-18.81 4:-50.52 5:-10.51 6:-11.65 7:-17.98 8:-6.26 9:26.69 10:-6.23 11:18.47 12:-1.4 
-3.327437628718913e-05 0:23.71 1:-5.16 2:-10.31 3:-21.16 4:-25.66 5:-8.39 6:-3.84 7:-25.36 8:-19.03 9:21.02 10:10.27 11:8.7 12:3.06 
-3.327437628718913e-05 0:24.43 1:-11.96 2:0.4 3:-22.95 4:-40.09 5:2.61 6:-1.19 7:-18 8:-33.79 9:34.25 10:7.75 11:18.4 12:-1.42 
-3.327437628718913e-05 0:26.06 1:-18.96 2:12.69 3:-6.55 4:-45.56 5:-2.65 6:-25.52 7:6.86 8:-28.05 9:-6.44 10:-1.84 11:-4.32 12:2.88 
-3.327437628718913e-05 0:24.01 1:-4.75 2:2.34 3:-18.1 4:-43.99 5:-3.94 6:-16.78 7:-16.53 8:-9.81 9:23.32 10:-14.63 11:5.14 12:13.44 
-3.327437628718913e-05 0:24.57 1:-11.36 2:16.33 3:-30.31 4:-45.32 5:-14.88 6:-5.68 7:-4.19 8:-37.63 9:-18.54 10:-25.1 11:11.68 12:-8.91 
-3.327437628718913e-05 0:23.76 1:-7.44 2:6.59 3:-20.31 4:-46.16 5:-5.77 6:-12.46 7:-15.8 8:7.51 9:11.79 10:-4.82 11:8.56 12:14.71 
