svm_type nu_svc
kernel_type linear
nr_class 2
total_sv 153
rho -1.5838
label 1 -1
probA -3.45227
probB 0.979734
nr_sv 76 77
SV
2.412881292931319e-05 0:24.9 1:-10.97 2:6.12 3:-22.72 4:-10.77 5:-12.91 6:-29.68 7:-8.91 8:-21.57 9:28.92 10:4.57 11:-16.53 12:3.33 
2.412881292931319e-05 0:25.19 1:-15.65 2:2.52 3:-1.72 4:7.31 5:-28.55 6:-29.83 7:-21.73 8:-6.79 9:7.7 10:-8.84 11:-6.09 12:-14.27 
2.412881292931319e-05 0:26.82 1:-24.51 2:17.02 3:-14.18 4:-4.35 5:-16.86 6:-20.11 7:-25.72 8:-2.62 9:0.97 10:-5.99 11:11.2 12:-15.01 
2.412881292931319e-05 0:26.41 1:-21.9 2:15.05 3:2.19 4:-21.8 5:-10.79 6:-10.76 7:-7 8:-6.66 9:13.37 10:3.75 11:-11.81 12:14.75 
2.412881292931319e-05 0:24.92 1:-21.72 2:-17.74 3:-8.92 4:-7.28 5:-32.13 6:-24.75 7:-11.22 8:-8.21 9:2.1 10:-4.33 11:-11.81 12:-9.2 
2.412881292931319e-05 0:26.11 1:-22.32 2:11 3:11.85 4:-10.06 5:-13.78 6:-23.05 7:-16.37 8:-8.66 9:1.45 10:11.78 11:3.91 12:0.41 
2.412881292931319e-05 0:25.95 1:-18.34 2:12.4 3:-7.43 4:-17.55 5:-3.52 6:-18.07 7:-21.77 8:-14.56 9:16.84 10:-1.41 11:-5.96 12:-18.59 
2.412881292931319e-05 0:25.22 1:-16.67 2:10.75 3:7.88 4:-19.58 5:-19.82 6:-13.99 7:-10.36 8:-8.16 9:8.31 10:-1.24 11:1.33 12:4.64 
2.412881292931319e-05 0:24.61 1:-13.32 2:6.01 3:-7.05 4:-27.03 5:-12.64 6:-16.16 7:-10.4 8:-6.07 9:6.61 10:10.38 11:-6.06 12:-0.25 
2.412881292931319e-05 0:24.7 1:-10.5 2:16.54 3:-0.94 4:3.68 5:-13.68 6:-29.04 7:-1 8:-14.65 9:-13.07 10:-11.43 11:-13.6 12:-14.84 
2.412881292931319e-05 0:26 1:-17.04 2:18.7 3:-18.34 4:-2.45 5:-15.33 6:-16.01 7:-18.06 8:-6.98 9:19.63 10:-17.75 11:2.81 12:-6.25 
2.412881292931319e-05 0:25.5 1:-15.18 2:9.89 3:-6.35 4:-7.21 5:-32.61 6:-21.88 7:-8.12 8:-20.09 9:3.15 10:3.39 11:-12.53 12:-10.51 
2.412881292931319e-05 0:25.06 1:-12.24 2:3.73 3:-1.39 4:-31.59 5:3.91 6:-13.75 7:-36.11 8:-2.15 9:22.14 10:-0.76 11:-7.52 12:-18.17 
2.412881292931319e-05 0:23.67 1:-22.27 2:19.92 3:5.68 4:-6.16 5:-2.64 6:-15.6 7:8.38 8:-17.04 9:7.44 10:10.12 11:-4.64 12:7.59 
2.412881292931319e-05 0:25 1:-22.24 2:-20.98 3:-9.19 4:-17.97 5:-40.12 6:-14.08 7:-16.88 8:3.75 9:-5.46 10:-4.58 11:-7.08 12:-12.82 
2.412881292931319e-05 0:25.69 1:-16.26 2:14.49 3:-7.7 4:-29.18 5:-2.12 6:-4.06 7:-31.78 8:-1.26 9:24.11 10:-7.89 11:-7.57 12:-16.1 
2.412881292931319e-05 0:24.99 1:-14.49 2:12.87 3:-5.37 4:-15.98 5:-25.73 6:-14.08 7:-19.95 8:-11.8 9:27.08 10:-2.23 11:-11.75 12:10.03 
2.412881292931319e-05 0:24.62 1:-15.86 2:13.59 3:7.13 4:-19.81 5:-29.01 6:-19.39 7:-16.65 8:-2.38 9:9.27 10:8.81 11:-4.34 12:12.05 
2.412881292931319e-05 0:25.12 1:-15.21 2:8.77 3:2.53 4:-10.35 5:-17.1 6:-19.02 7:-23.11 8:-4.1 9:1.52 10:6.21 11:-3.56 12:3.85 
2.412881292931319e-05 0:23.69 1:-24.59 2:22.4 3:3.98 4:-11.94 5:5.76 6:-10.23 7:-1.36 8:-6.36 9:17.76 10:-12.11 11:16.56 12:-4.99 
2.412881292931319e-05 0:24.59 1:-13.68 2:8.98 3:-11.38 4:-24.81 5:-20.09 6:-12.09 7:-28.23 8:4.46 9:21.93 10:-7.35 11:-5.21 12:10.44 
2.412881292931319e-05 0:24.76 1:-14.5 2:-20.28 3:-9.19 4:-16.25 5:-29.56 6:-25.72 7:-1.26 8:0.79 9:-4.17 10:-8.47 11:-11.45 12:-15.3 
2.412881292931319e-05 0:25.02 1:-16.32 2:5.9 3:-2.43 4:-13.77 5:-18.08 6:-25.1 7:-22.26 8:8.99 9:1.09 10:-0.39 11:-5.22 12:9.11 
2.412881292931319e-05 0:25.61 1:-16.51 2:15.29 3:-17.04 4:-9.14 5:-16.2 6:-31.78 7:-15.82 8:-0.68 9:3.7 10:-10.36 11:1.34 12:-8.45 
2.412881292931319e-05 0:24.5 1:-11.74 2:6.51 3:-0.3 4:-27.66 5:-12.98 6:-0.09 7:-36.07 8:-21.12 9:24.19 10:-2.43 11:0.75 12:-29.1 
2.412881292931319e-05 0:26.3 1:-26.48 2:8.78 3:4.79 4:9.62 5:-17.68 6:-16.16 7:-19.04 8:-10.82 9:0.72 10:2.87 11:-1.59 12:-15.4 
2.412881292931319e-05 0:22.53 1:-19.97 2:10.85 3:12.25 4:-7.96 5:2.04 6:-1.24 7:0.7 8:-7.33 9:27.41 10:-15.9 11:10.36 12:8.47 
2.412881292931319e-05 0:24.55 1:-14.25 2:8.62 3:-11.43 4:-26.84 5:-10.28 6:-4.03 7:-25.49 8:-20.04 9:23.92 10:3.81 11:-17.92 12:-13.13 
2.412881292931319e-05 0:24.89 1:-9.06 2:2.67 3:7.49 4:-13.18 5:-27.98 6:-21.26 7:-9.58 8:-10 9:14.77 10:-3.91 11:-11.32 12:-22.89 
1.892981076679795e-05 0:26.71 1:-24.84 2:5.82 3:3.2 4:16.96 5:-36.96 6:-18.97 7:-30.23 8:-14.64 9:14.22 10:6.11 11:0.57 12:-17.6 
2.412881292931319e-05 0:24.86 1:-14.52 2:3.91 3:-7.09 4:-7.5 5:-24.09 6:-29.54 7:-3.32 8:-24.11 9:10.03 10:-5.86 11:-20.39 12:-6.23 
2.412881292931319e-05 0:24.34 1:-10.11 2:9.43 3:-15.16 4:-25.18 5:-13.35 6:-8.42 7:-19.01 8:-17.25 9:17.35 10:-5.62 11:-11.87 12:-16.57 
2.412881292931319e-05 0:25.89 1:-21.72 2:13.68 3:6.09 4:-5.82 5:-24.93 6:-33.16 7:-12.97 8:-14.23 9:-0.12 10:-4.05 11:-10.19 12:-5.41 
2.412881292931319e-05 0:25.81 1:-21.2 2:14.19 3:-7.12 4:-0.58 5:-30.35 6:-16.74 7:-7.13 8:-15.44 9:4.38 10:0.36 11:-6.11 12:-14.28 
2.412881292931319e-05 0:24.64 1:-16.68 2:-3.56 3:16.19 4:-16.83 5:-24.18 6:-19.02 7:-6.42 8:-10.98 9:-8.37 10:6.01 11:-5.65 12:-10.99 
2.412881292931319e-05 0:25.67 1:-17.72 2:1.58 3:-27.73 4:-24.13 5:-11.28 6:-19.09 7:-16.89 8:-15.52 9:19.08 10:3.06 11:-7.63 12:-17.31 
2.412881292931319e-05 0:25.41 1:-15.02 2:-2.14 3:-8.62 4:-2.23 5:-27.81 6:-27.5 7:1.34 8:-15.97 9:13.41 10:-10.39 11:-4.12 12:-4 
2.412881292931319e-05 0:24.72 1:-14.4 2:-3.16 3:10.25 4:-10.65 5:-32.55 6:-21.4 7:-16.83 8:-14.08 9:4.47 10:-4.62 11:-4.96 12:-0.98 
2.412881292931319e-05 0:25.94 1:-18.64 2:7.37 3:-0.01 4:-6.26 5:-31.98 6:-19.04 7:5.21 8:-20.89 9:7.14 10:7.27 11:-12.92 12:-15.88 
2.412881292931319e-05 0:24.94 1:-9.7 2:-5.71 3:2.12 4:-2.31 5:-14.09 6:-41.04 7:-20.36 8:-4.92 9:4.57 10:-0.45 11:-4.34 12:0.26 
2.412881292931319e-05 0:25.19 1:-13.42 2:7.12 3:11.96 4:-14.06 5:-26.6 6:-24.81 7:-15.48 8:-9.24 9:13.29 10:-15.96 11:0.05 12:-7.95 
2.412881292931319e-05 0:25.75 1:-17.53 2:13.14 3:-1.32 4:-14.62 5:-11.41 6:-31.46 7:-17.99 8:2.73 9:4.7 10:8.66 11:-7.67 12:-8.25 
2.412881292931319e-05 0:24.77 1:-17.86 2:19.43 3:0.19 4:-22.78 5:-21.78 6:-22.49 7:-20.48 8:1.86 9:2.65 10:4.62 11:-6.85 12:11.29 
2.412881292931319e-05 0:24.87 1:-13.29 2:10.08 4:-20.39 5:-12.91 6:-12.68 7:-28.43 8:-18.04 9:3.84 10:4.88 11:-8.64 12:-17.62 
2.412881292931319e-05 0:24.72 1:-20.81 2:-22.72 3:-11.93 4:-25.12 5:-40.5 6:-17.27 7:-3.77 8:-3.09 9:5.6 10:-11.47 11:-0.07 12:-18.2 
2.412881292931319e-05 0:25.66 1:-19.75 2:4.05 3:-25.6 4:-27.59 5:-22.17 6:-11.06 7:-12.34 8:-10.98 9:2.53 10:4.31 11:-6.76 12:-20.25 
2.412881292931319e-05 0:25.34 1:-12.71 2:-5.08 3:-4.93 4:17.52 5:-27.28 6:-25.82 7:-32.77 8:-12.08 9:11.67 10:-3.74 11:-2.23 12:-1.69 
2.412881292931319e-05 0:22.33 1:-15.45 2:15.77 3:5.08 4:-5.37 5:-3.28 6:-8.12 7:7.67 8:-21.83 9:25.48 10:-6.68 11:6.26 12:2.42 
2.412881292931319e-05 0:25.08 1:-16.87 2:13.67 3:11.67 4:-6.4 5:-15.52 6:-40.97 7:-16.7 8:-7.35 9:6.53 10:7.95 11:1.67 12:-10.73 
2.412881292931319e-05 0:23.99 1:-17.79 2:6.37 3:-1.12 4:3.04 5:-33.29 6:-19.86 7:0.14 8:-19.8 9:1.58 10:2.06 11:-7.65 12:-10.9 
2.412881292931319e-05 0:24.65 1:-10.31 2:14.75 3:-14.64 4:-25.36 5:-12.86 6:-12.57 7:-25.7 8:-19.44 9:13.22 10:-5.54 11:-8.59 12:-20.45 
2.412881292931319e-05 0:26.31 1:-17.91 2:23.37 3:-19.96 4:-0.39 5:-11 6:-20.42 7:-11.37 8:-11.64 9:10.04 10:-6.96 11:-10.49 12:-14.82 
2.412881292931319e-05 0:26.15 1:-23.57 2:16 3:7.34 4:-17.08 5:-22.54 6:-16.11 7:-14.96 8:-7.32 9:13.17 10:-6.56 11:2.43 12:-10.55 
2.412881292931319e-05 0:25.49 1:-16.68 2:-8.32 3:2.31 4:-6.76 5:-18.57 6:-24.17 7:-16.28 8:-14.65 9:13.75 10:-7.96 11:1.97 12:-2.59 
1.726340862717184e-05 0:25.08 1:-13.31 2:9.75 3:-6.67 4:-18.67 5:-21.54 6:-21.01 7:-27.73 8:8.48 9:5.56 10:-3.33 11:-14.87 12:4.5 
2.412881292931319e-05 0:24.75 1:-12.8 2:5.71 3:-9.37 4:-22.07 5:-18.47 6:-23.32 7:-28.21 8:5.87 9:7.78 10:0.27 11:-15.95 12:0.78 
2.412881292931319e-05 0:25.13 1:-14.4 2:11.47 3:-6.93 4:-22.53 5:-4.74 6:-28.6 7:-23.47 8:4.39 9:3.88 10:1.48 11:-7.53 12:2.79 
2.412881292931319e-05 0:25.85 1:-19.34 2:8.12 3:-8.79 4:-12.69 5:-5.13 6:-24.13 7:-19.5 8:-14.8 9:13.27 10:1.94 11:-0.01 12:-29.45 
2.412881292931319e-05 0:24.84 1:-13 2:1.92 3:-6.95 4:-22.32 5:8.65 6:-25.11 7:-7.64 8:-8.69 9:15.28 10:3.92 11:-1.88 12:-8.19 
2.412881292931319e-05 0:26.26 1:-18.33 2:1.63 3:-23.5 4:-26.71 5:-16.29 6:-29.97 7:-15.13 8:-6.47 9:2.76 10:-11.58 11:-9.35 12:-21.65 
2.412881292931319e-05 0:22.49 1:-19.26 2:10.76 3:11.04 4:-3.43 5:-12.23 6:-1.63 7:4.26 8:-18.1 9:19.7 10:-0.91 11:7.63 12:5.23 
2.412881292931319e-05 0:22.88 1:-16.37 2:16.96 3:-4.69 4:6.21 5:-10.56 6:-16.42 7:22.34 8:-20.65 9:23.28 10:-4.23 11:13.4 12:-2.91 
2.412881292931319e-05 0:25.24 1:-15.81 2:15.32 3:3.94 4:-4.12 5:-11.36 6:-19.98 7:-21.21 8:-12.68 9:-1.48 10:2.18 11:-0.33 12:1.85 
2.412881292931319e-05 0:24.74 1:-19.74 2:-29.54 3:-15.59 4:-19.67 5:-39.7 6:-13.93 7:-7.43 8:-1.63 9:-3.19 10:-4.92 11:-8.63 12:-13.59 
2.412881292931319e-05 0:24.44 1:-8.2 2:-0.58 3:-6.52 4:4.51 5:-4.7 6:-26.63 7:-22.77 8:-9.21 9:-1.71 10:4.85 11:-10.26 12:-12.64 
2.412881292931319e-05 0:24.49 1:-15.05 2:8.65 3:-3.09 4:-11.66 5:-5.35 6:-22.19 7:-26.97 8:-14.15 9:-2.58 10:5.59 11:1.15 12:7.5 
2.412881292931319e-05 0:25.92 1:-19.46 2:7.56 3:-6.03 4:-12.7 5:1.22 6:-19.13 7:-19.88 8:-18.73 9:10.39 10:4.94 11:-1.15 12:-18.08 
2.412881292931319e-05 0:24.61 1:-10.33 2:16.03 3:0.17 4:-19.58 5:-22.52 6:-15.16 7:-15.92 8:3.01 9:8.17 10:-8 11:-1.63 12:3.95 
2.412881292931319e-05 0:25.79 1:-18.44 2:12.55 3:-2.18 4:-7.47 5:-10.28 6:-23.22 7:-24.77 8:-8.38 9:7.47 10:7.57 11:-0.79 12:0.97 
2.412881292931319e-05 0:25.83 1:-17.37 2:12.84 3:-7.02 4:-26.24 5:-13.55 6:-17.97 7:-14.05 8:-9.89 9:16.23 10:-12.87 11:1.05 12:-19.71 
2.412881292931319e-05 0:24.75 1:-14.99 2:16.43 3:-4.83 4:-24.13 5:-17.23 6:-18.41 7:-18.69 8:-4.74 9:12.11 10:-2.23 11:-0.92 12:0.35 
2.412881292931319e-05 0:24.34 1:-11.16 2:15.11 3:-8.53 4:-19.47 5:-13.91 6:-16.84 7:-15.7 8:-7.3 9:13.17 10:-9.03 11:-8.45 12:9.68 
2.412881292931319e-05 0:26.36 1:-18.58 2:12.16 3:-17.99 4:-5.31 5:-22.67 6:-17.01 7:-20.2 8:-8.86 9:-1.66 10:4.45 11:3.43 12:-19.72 
2.412881292931319e-05 0:26.48 1:-25.51 2:8.16 3:-2.36 4:-13.59 5:-14.77 6:-22.94 7:-21.1 8:-4.68 9:12.55 10:0.43 11:2.5 12:-15.52 
2.412881292931319e-05 0:25.47 1:-16.33 2:14.11 3:-9.06 4:-22.19 5:-25.26 6:-22.82 7:-13.34 8:1.09 9:2.77 10:-3.7 11:-11.16 12:8.61 
2.412881292931319e-05 0:25.11 1:-13.34 2:9.12 3:-9.96 4:-17.18 5:-20.62 6:-26.83 7:-12.47 8:-5.33 9:14.34 10:-0.05 11:-7.37 12:5.08 
-2.412881292931319e-05 0:25.19 1:-20.79 2:16.17 3:-7.04 4:-20.5 5:-18.83 6:-30.42 7:-39.72 8:5.76 9:28.95 10:0.86 11:3.31 12:-2.18 
-6.641159934702869e-06 0:26.03 1:-15.25 2:15.14 3:-21.59 4:-27.72 5:3.94 6:-29.73 7:-21 8:-35.78 9:-13.1 10:-21.6 11:8.87 12:-8.68 
-2.412881292931319e-05 0:25.83 1:-21.36 2:11.82 3:1.24 4:-8.33 5:-12.12 6:-28.84 7:-27.02 8:-29.47 9:-20.53 10:-16.04 11:9.95 12:-2.35 
-2.412881292931319e-05 0:25.44 1:-19.43 2:10.82 3:-2.33 4:-15.57 5:-13.79 6:-18.94 7:-22.06 8:-23.72 9:-16.68 10:-5.8 11:6.1 12:-13.96 
-2.412881292931319e-05 0:25.61 1:-20.11 2:14.09 3:-22.25 4:-17.03 5:-19.67 6:-36.92 7:-24.28 8:-31.31 9:-10.73 10:-8.25 11:-11.78 12:-19.57 
-2.412881292931319e-05 0:25.6 1:-21.31 2:13.82 3:-4.81 4:-19.09 5:-9.69 6:-17.25 7:-16.84 8:-29.76 9:-4.92 10:-18.76 11:-3.1 12:-6.33 
-2.412881292931319e-05 0:27.11 1:-23.31 2:17.94 3:-2.27 4:-4.2 5:3.78 6:-40.29 7:-14.54 8:-33.54 9:-5.93 10:-21.62 11:7.51 12:-0.29 
-2.412881292931319e-05 0:25.94 1:-24.55 2:-14.44 3:-4.9 4:-32.04 5:-35.68 6:-31.74 7:-8.51 8:-35.18 9:-8.79 10:-26.85 11:-8.12 12:-18.9 
-2.412881292931319e-05 0:25.12 1:-19.26 2:9.82 3:-3.52 4:-20.08 5:-23.92 6:-16.32 7:-38.31 8:-23.12 9:-7.78 10:-13.01 11:0.71 12:-10.44 
-2.412881292931319e-05 0:24.59 1:-18.18 2:-2.24 3:-8.64 4:-7.8 5:-10.82 6:-20.23 7:-39.78 8:-7.71 9:24.57 10:-6.19 11:13.94 12:-9.69 
-2.412881292931319e-05 0:26.56 1:-21.24 2:10 3:-7.31 4:-29.08 5:4.81 6:-25.98 7:-31.79 8:-24.4 9:38.1 10:-1.96 11:-3.42 12:-15.47 
-2.412881292931319e-05 0:25.75 1:-28.6 2:-14.82 3:-4.11 4:-29.85 5:-18.28 6:-41.64 7:-14.35 8:-33.43 9:-2.3 10:-21.55 11:-6.87 12:-10.82 
-2.412881292931319e-05 0:26.28 1:-23.26 2:5.38 3:5.82 4:-24.48 5:-12.81 6:-39.03 7:-28.71 8:-8.51 9:32 10:6.51 11:-3 12:3.96 
-2.412881292931319e-05 0:26.08 1:-17.47 2:19.73 3:-24.49 4:-26.63 5:-3.39 6:-30.88 7:-4.54 8:-42.91 9:-6.53 10:-16.87 11:-4.04 12:-2.2 
-2.412881292931319e-05 0:24.97 1:-20.27 2:13.45 3:-0.91 4:-17.06 5:-18.32 6:-22.56 7:-29.45 8:-26.35 9:-13.29 10:-6.23 11:2.14 12:-7.3 
-2.412881292931319e-05 0:26.5 1:-22.08 2:24.64 3:-10.94 4:-23.36 5:-4.38 6:-38.42 7:-21.67 8:-35.01 9:-18.21 10:-26.84 11:-9.16 12:-6.62 
-2.412881292931319e-05 0:25.04 1:-22 2:11.79 3:22.69 4:-33.08 5:-39.27 6:-32.03 7:-43.06 8:-20.3 9:-10.52 10:-23.85 11:11.56 12:-20.42 
-2.412881292931319e-05 0:27.05 1:-26.16 2:17.45 3:-16.45 4:-17.53 5:9.54 6:-52.71 7:-11.6 8:-29.95 9:-8.69 10:-3.42 11:2.99 12:-11.64 
-2.412881292931319e-05 0:25.72 1:-27.04 2:-16.36 3:-1.55 4:-40.21 5:-25.8 6:-32.27 7:-24.2 8:-25.74 9:-14 10:-26.68 11:-3.93 12:-15.65 
-2.412881292931319e-05 0:23.78 1:-8.56 2:6.48 3:-19.74 4:0.15 5:-4.25 6:-5.24 7:-17.63 8:-5.07 9:26.37 10:14.79 11:16.05 12:7.24 
-2.412881292931319e-05 0:24.86 1:-18.34 2:3.54 3:-0.3 4:-33.66 5:-18.55 6:-22.17 7:-39.89 8:-21.44 9:-9.74 10:-13.81 11:-7.06 12:-7.44 
-2.412881292931319e-05 0:25.97 1:-20.53 2:9.23 3:-0.7 4:-24.16 5:-10.8 6:-18.38 7:-21.9 8:-26.91 9:0.94 10:-11.08 11:-0.3 12:4.01 
-2.412881292931319e-05 0:25.39 1:-15.15 2:5.82 3:-10.91 4:-23.22 5:4.53 6:-23.42 7:-27.23 8:-35.26 9:-2.5 10:-21.41 11:-9.71 12:0.87 
-2.412881292931319e-05 0:25.82 1:-20.57 2:-16.51 3:-3.7 4:-39.22 5:-16.43 6:-42.02 7:-7.17 8:-26.96 9:-10.03 10:-30.54 11:-5.2 12:-21.03 
-2.412881292931319e-05 0:26.74 1:-21.86 2:8.07 3:-14.98 4:-18.45 5:-14.48 6:-27.21 7:-28.12 8:-34.7 9:-14.68 10:-14.8 11:4.23 12:-10.93 
-2.412881292931319e-05 0:26.07 1:-26.79 2:19.19 3:10.47 4:-24.73 5:-9.59 6:-35.66 7:0.18 8:-47.47 9:1.41 10:-8.03 11:-3.7 12:-1.29 
-2.412881292931319e-05 0:25.45 1:-18.73 2:1.75 3:-2.88 4:-27.63 5:-10.31 6:-35.73 7:-28.45 8:-2.15 9:26.86 10:-1.78 11:-1.89 12:16.21 
-2.412881292931319e-05 0:26.22 1:-20.8 2:8.59 3:-10.47 4:-18.27 5:-17.83 6:-32.45 7:-11.8 8:-32.21 9:-5.43 10:-21.91 11:6.05 12:-2.98 
-2.412881292931319e-05 0:25.7 1:-23.06 2:10.72 3:-9.83 4:-17.09 5:-14.41 6:-36.04 7:-18.44 8:-32.8 9:-21.61 10:-11.41 11:3.7 12:-14.26 
-2.412881292931319e-05 0:25.5 1:-17.79 2:7.69 3:12.01 4:-6.66 5:-3.43 6:-16.7 7:14.53 8:-17.82 9:31.38 10:16.78 11:8.34 12:9.82 
-2.412881292931319e-05 0:24.89 1:-15.54 2:10.04 3:-7.16 4:-29.33 5:-17.83 6:-32.91 7:-24.99 8:-13.83 9:29.15 10:14.55 11:-5.65 12:8 
-2.412881292931319e-05 0:25.64 1:-22.28 2:7.68 3:-4.99 4:-3.52 5:-40.38 6:-19.75 7:-33.89 8:-5.29 9:31.55 10:5.77 11:11.21 12:-11.88 
-1.757342480656507e-05 0:25.69 1:-17.97 2:3.51 3:-8.6 4:-30.89 5:12.9 6:-22.98 7:-28.43 8:-38.13 9:-15.25 10:-22.18 11:-8.97 12:-17.65 
-2.412881292931319e-05 0:26.34 1:-27.33 2:18.32 3:12.88 4:-23.98 5:-7.31 6:-22.05 7:-7.22 8:-50.74 9:14.4 10:-14.17 11:-6.24 12:4.29 
-2.412881292931319e-05 0:25.24 1:-16.91 2:4.81 3:-9.43 4:-35.76 5:-3.18 6:-9.78 7:-28.1 8:-28.13 9:53.34 10:5.71 11:-10.56 12:-3.74 
-2.412881292931319e-05 0:26.22 1:-22.65 2:9.65 3:-9.71 4:-10.5 5:-19.78 6:-9.27 7:-21.81 8:-0.93 9:29.54 10:6.62 11:8.04 12:3.33 
-2.412881292931319e-05 0:26.38 1:-23.51 2:16.28 3:5.15 4:-24.83 5:0.08 6:-30.76 7:-18.18 8:-22.39 9:-10.78 10:-8.03 11:9.56 12:1.37 
-1.197863465270185e-05 0:26.56 1:-32.59 2:35.28 3:-1.76 4:-30.91 5:4.6 6:-40.07 7:0.41 8:-45.82 9:7.25 10:-2.4 11:-7.49 12:0.71 
-2.412881292931319e-05 0:25.82 1:-19.94 2:11.54 3:-12.63 4:-26.58 5:-13.52 6:-28.48 7:-10.97 8:-32.54 9:-18.39 10:-34.08 11:7.05 12:-15.03 
-2.412881292931319e-05 0:25.41 1:-19.46 2:-8.9 3:12.1 4:-17.73 5:-32.88 6:-42.9 7:-35.54 8:-25.43 9:-11.87 10:-2.94 11:-6.81 12:-21.49 
-2.412881292931319e-05 0:24.82 1:-13.45 2:5.66 3:-13.31 4:-34.49 5:-3.87 6:-11.61 7:-21.95 8:-22.39 9:45.59 10:-1.72 11:-3.98 12:-7.09 
-2.412881292931319e-05 0:26.02 1:-26.62 2:1.62 3:1.1 4:1.96 5:-29.55 6:-27.09 7:-37.01 8:-21.54 9:37.64 10:6.13 11:5.6 12:-11.59 
-2.412881292931319e-05 0:25.33 1:-18.54 2:2.29 3:-9.13 4:-20.6 5:-25.76 6:-45.72 7:-5.47 8:-35.34 9:-3.15 10:-28.39 11:-12.79 12:-6.65 
-2.412881292931319e-05 0:25.05 1:-19.13 2:2 3:-2.26 4:-8.85 5:-23.9 6:-10.76 7:-32.89 8:-26.37 9:24.74 10:4.24 11:0.97 12:3.14 
-2.412881292931319e-05 0:26.37 1:-23.32 2:11.37 3:-5.6 4:-11.65 5:-18.94 6:-22.44 7:-11.52 8:-21.5 9:29.15 10:1.85 11:0.71 12:-5.99 
-2.412881292931319e-05 0:25.48 1:-20.6 2:-4.66 3:1.24 4:-16.15 5:-26.72 6:-36.61 7:-31.2 8:-38.25 9:9.48 10:-13.9 11:-2.91 12:-3.51 
-2.412881292931319e-05 0:26.37 1:-22.22 2:16.79 3:1.48 4:-11.66 5:-17.24 6:-17.87 7:5.51 8:-33.01 9:45.49 10:13.75 11:12.59 12:1.51 
-2.412881292931319e-05 0:26.88 1:-33.77 2:18.23 3:15.27 4:-23.63 5:-23.75 6:-35.93 7:4.99 8:-47.24 9:3.74 10:-11.58 11:4.97 12:-12.17 
-2.412881292931319e-05 0:25.62 1:-19.05 2:10.76 3:-0.74 4:-32.68 5:-5.22 6:-36.18 7:-14.85 8:-27.22 9:-15.32 10:-21.72 11:-2.37 12:-3.83 
-2.412881292931319e-05 0:25.21 1:-15.45 2:11.82 3:-21.91 4:-3.54 5:-15.72 6:-10.42 7:-9.63 8:-21.05 9:44.74 10:-3.84 11:-1.2 12:25.65 
-2.412881292931319e-05 0:26.04 1:-26.68 2:-16.56 3:-4.9 4:-44.25 5:-23.75 6:-30.03 7:-7.18 8:-26.47 9:0.77 10:-27.29 11:4.54 12:-19.21 
-2.412881292931319e-05 0:26.11 1:-20.4 2:2.75 3:-20.91 4:-32.78 5:-9.17 6:-12.77 7:-11.2 8:-7.55 9:32.35 10:11.95 11:7.32 12:-7.49 
-2.412881292931319e-05 0:26.5 1:-22.43 2:19.62 3:-7.65 4:-23.62 5:-13.31 6:-5.34 7:-23.72 8:-29.53 9:-13.39 10:-17.31 11:-1.24 12:-11.88 
-2.412881292931319e-05 0:26.09 1:-20.64 2:19.13 3:11.01 4:-22.36 5:-2.1 6:-16.36 7:-0.22 8:-28.45 9:56.45 10:4.34 11:12.14 12:9.15 
-2.412881292931319e-05 0:24.14 1:-9.65 2:-11.32 3:2.53 4:-3.91 5:-15.59 6:-44.45 7:-27 8:-12.66 9:25.31 10:11.73 11:-6.86 12:-3.66 
-2.412881292931319e-05 0:25.6 1:-20.79 2:4.84 3:1.2 4:-14.76 5:-29.34 6:-48.17 7:-14.25 8:-36.07 9:-10.11 10:-5.92 11:-17.54 12:-10.82 
-2.412881292931319e-05 0:26.05 1:-23.59 2:13.55 3:-0.76 4:-27.01 5:2.13 6:-26.6 7:-32.69 8:-19.92 9:-18.17 10:-11.61 11:-1.11 12:-3.88 
-2.412881292931319e-05 0:26.18 1:-26.34 2:13.47 3:7.4 4:-29.64 5:-16.96 6:-23.38 7:-24.66 8:-20.15 9:36.94 10:-5.82 11:6.17 12:-5.32 
-2.412881292931319e-05 0:26.07 1:-27.81 2:6.87 3:-0.36 4:-12.92 5:-27.65 6:-31.67 7:-36.43 8:-40.18 9:-7.32 10:-22.85 11:-1.51 12:-14.42 
-2.412881292931319e-05 0:24.68 1:-14.34 2:2.07 3:-7.02 4:-33.87 5:-9.38 6:-32.7 7:-35.76 8:-2.6 9:33.71 10:-0.36 11:-6.29 12:6.78 
-2.412881292931319e-05 0:25.94 1:-24.96 2:-14.86 3:-1.01 4:-42.81 5:-21.61 6:-31.22 7:-14.71 8:-34.55 9:-3.16 10:-15.5 11:-10.59 12:-14.84 
-2.412881292931319e-05 0:25.88 1:-27.25 2:-9.68 3:-2.93 4:-30.37 5:-31.88 6:-44.62 7:-9.07 8:-23.02 9:-3.32 10:-21.79 11:-13.8 12:-11.68 
-2.412881292931319e-05 0:26.64 1:-31.6 2:-1.46 3:-16.27 4:-21.65 5:-28.8 6:-48.88 7:5.68 8:-31.76 9:-4.66 10:-20.9 11:-12.07 12:-4.03 
-2.412881292931319e-05 0:26.6 1:-27.46 2:16.74 3:0.42 4:-13.15 5:-28.93 6:-36.73 7:-30.83 8:-39.01 9:-6.9 10:-30.55 11:0.27 12:-23.15 
-2.412881292931319e-05 0:25.72 1:-25.56 2:2.51 3:7.12 4:-6.35 5:-18.76 6:-33.94 7:-29.93 8:-1.16 9:21.22 10:2.05 11:2.12 12:-21.77 
-2.412881292931319e-05 0:25.95 1:-21.74 2:12.85 3:-9.7 4:-27.62 5:-7.6 6:-36.62 7:-25.61 8:-19.7 9:-28.53 10:-19.36 11:8.87 12:-7.16 
-2.412881292931319e-05 0:26.12 1:-30.56 2:3.8 3:20.92 4:-18.29 5:-29.6 6:-46.29 7:-19.03 8:-34.75 9:-10.28 10:-20.57 11:-18.3 12:-15.79 
-2.412881292931319e-05 0:25.56 1:-25.12 2:-23.41 3:-7.94 4:-39.1 5:-22.2 6:-26.91 7:-9.88 8:-24.09 9:-7.04 10:-19.71 11:-4.62 12:-12.1 
-2.412881292931319e-05 0:26.17 1:-24.99 2:12.7 3:18.4 4:-17.72 5:-11.91 6:-18.76 7:-2.5 8:-21.22 9:49.97 10:4.8 11:16.51 12:13.26 
-2.412881292931319e-05 0:25.01 1:-17.54 2:3.18 3:-2.76 4:-24.75 5:0.95 6:-31.26 7:-33.7 8:-23.05 9:19.47 10:3.46 11:3.94 12:17.26 
-2.412881292931319e-05 0:26.5 1:-30.3 2:26.56 3:2.18 4:-43.54 5:-2.23 6:-36 7:-10.13 8:-26.56 9:14.66 10:-23.15 11:0.27 12:3.98 
-2.412881292931319e-05 0:26.02 1:-22.01 2:11.31 3:4.56 4:-17.97 5:-4.01 6:-25.06 7:-19.2 8:-22.88 9:-17.48 10:4.6 11:3.2 12:-1.48 
-2.412881292931319e-05 0:25.32 1:-9.69 2:6.6 3:-22.91 4:6.84 5:-22.11 6:-15.63 7:-3.23 8:-1.81 9:17.7 10:11.2 11:16.14 12:9.83 
-2.412881292931319e-05 0:25.48 1:-18.58 2:9.58 3:-6.86 4:-34.73 5:-17.73 6:-32.55 7:-20.61 8:-8.34 9:24.86 10:-3.88 11:-7.06 12:13.97 
-2.412881292931319e-05 0:26.18 1:-21.28 2:9.04 3:-18.7 4:-16.74 5:-13.19 6:-27.44 7:-26.58 8:-16.47 9:21.92 10:5.99 11:12.63 12:-13.58 
-2.412881292931319e-05 0:24.93 1:-14.99 2:4.1 3:-17.66 4:-26.54 5:-16.82 6:-26.4 7:-20.16 8:-8.02 9:21.54 10:-3.07 11:-4.12 12:18.15 
-2.412881292931319e-05 0:22.96 1:3 2:7.36 3:-48.51 4:1.9 5:-11.53 6:18.16 7:-28.38 8:12.51 9:-2.04 10:8.34 11:-11.98 12:-27.04 
