svm_type nu_svc
kernel_type linear
nr_class 2
total_sv 154
rho -1.53666
label 1 -1
probA -4.07291
probB 1.03622
nr_sv 77 77
SV
2.140373908841585e-05 0:23.68 1:2.54 2:0.62 3:-28.75 4:-13.97 5:-6.88 6:-31.62 7:-10.22 8:-12.29 9:6.43 10:13.28 11:-7.48 12:-5.58 
2.140373908841585e-05 0:24.22 1:-1.64 2:13.62 3:-33.67 4:-6.61 5:-12.35 6:-15.25 7:-7.97 8:-10.01 9:-0.98 10:1.47 11:5 12:-3.33 
2.140373908841585e-05 0:23.77 1:-3.68 2:2.88 3:-6.78 4:-9.04 5:-23.4 6:-17.49 7:-3.32 8:-7.25 9:-6.15 10:-7.02 11:-6.29 12:-5.4 
2.140373908841585e-05 0:23.8 1:-3.12 2:-1.15 3:-19.07 4:-33.24 5:-2.62 6:-21.2 7:-6.01 8:-3.99 9:-1.1 10:9.71 11:3.83 12:-8 
2.140373908841585e-05 0:24.52 1:-10.39 2:12.21 3:-18.67 4:-9.92 5:-19.73 6:-14.92 7:-18.15 8:-7.22 9:-2.39 10:-15.51 11:7.43 12:7.26 
2.140373908841585e-05 0:24.46 1:-8.66 2:13.89 3:-12.07 4:-21.25 5:-7.84 6:-20.09 7:-0.56 8:1.28 9:-1.73 10:9.61 11:4.75 12:-1.8 
2.140373908841585e-05 0:24.89 1:-9.95 2:8.06 3:-8.02 4:-18.44 5:-13.4 6:-8.28 7:-20.08 8:-10.34 9:13.23 10:4.55 11:12.5 12:-9.29 
2.140373908841585e-05 0:24.3 1:-1.86 2:-2.03 3:-3.05 4:-29.35 5:-21.51 6:-5.97 7:-25.04 8:-17.95 9:17.8 10:-7.03 11:-4.89 12:-6.07 
2.140373908841585e-05 0:24.5 1:-4.82 2:14.72 3:-22.97 4:-3.53 5:-10.48 6:-9.09 7:-21.24 8:-6.28 9:10.15 10:-27.95 11:10.85 12:4.01 
2.140373908841585e-05 0:23.65 1:-6.9 2:14.21 3:-14.39 4:-27.18 5:-0.66 6:-2.47 7:-11.17 8:4.15 9:0.97 10:5.17 11:-0.03 12:-0.97 
2.140373908841585e-05 0:23.79 1:-1.88 2:11.42 3:-17.11 4:-14.44 5:-15.34 6:-0.04 7:-8.17 8:-25.22 9:7.66 10:-5.2 11:-2.1 12:-23.61 
2.140373908841585e-05 0:23.51 1:-2.06 2:13.82 3:-2.67 4:-25.05 5:-19.41 6:-15.76 7:-3.35 8:-11.27 9:0.19 10:-0.59 11:-0.2 12:2.89 
2.140373908841585e-05 0:23.82 1:-0.31 2:0.3 3:-19.55 4:-30.45 5:4.02 6:-11.24 7:-17.18 8:4.36 9:-8 10:12.18 11:2.33 12:-3.29 
2.140373908841585e-05 0:24.86 1:-4.55 2:7.25 3:-24.34 4:-3.45 5:-33.15 6:-7.9 7:-9.82 8:-18.27 9:3.6 10:-12.17 11:0.78 12:-13.1 
2.140373908841585e-05 0:24.05 1:-9.72 2:-9.69 3:-13.08 4:-21.29 5:-26.82 6:-3.34 7:-8.72 8:-12.14 9:-9.3 10:-7.68 11:-10.15 12:-9.93 
2.140373908841585e-05 0:21.54 1:-6.7 2:16.08 3:-12.47 4:-7.42 5:0.85 6:-12.03 7:10.24 8:-5.41 9:15.34 10:-5.98 11:5.32 12:-9.99 
2.140373908841585e-05 0:24.22 1:-2.96 2:2.69 3:-13.48 4:-21.68 5:-17.77 6:-12.24 7:-21.48 8:4.28 9:4.38 10:-2.5 11:-6.4 12:5.59 
2.140373908841585e-05 0:24.31 1:-4.34 2:7.59 3:-14.85 4:-19.36 5:-14.83 6:-14.25 7:-15.34 8:-0.29 9:1.35 10:-1.28 11:-3.48 12:-5.29 
2.140373908841585e-05 0:23.42 1:-0.55 2:5.53 3:-8.31 4:-20.12 5:-7.31 6:-15.25 7:-22.88 8:4.47 9:-8.42 10:-3.68 11:2.81 12:13.12 
2.140373908841585e-05 0:24.45 1:-4.66 2:6.76 3:-14.02 4:-29.38 5:0.05 6:-11.5 7:-23.42 8:-11.7 9:24.42 10:-0.54 11:4.8 12:-6.63 
2.140373908841585e-05 0:24.24 1:-8.34 2:6.91 3:-9.66 4:-21.84 5:-15.46 6:-13.93 7:-15.13 8:5.26 9:-8 10:1.77 11:1.69 12:3.98 
1.397855256290271e-05 0:21.31 1:-8.4 2:12.93 3:-2.58 4:-4.22 5:5.82 6:-17 7:21.06 8:-14.3 9:7.81 10:6.26 11:-6.53 12:1.03 
2.140373908841585e-05 0:21.37 1:-10.04 2:11.32 3:1.27 4:0.79 5:3.36 6:-18.03 7:12.56 8:-6.77 9:17.99 10:-4.8 11:-0.61 12:-1.85 
2.140373908841585e-05 0:23.91 1:-1.77 2:4 3:-13.97 4:-22.63 5:-15.33 6:-10.43 7:-30.54 8:-19.55 9:4.82 10:8.73 11:5.2 12:-11.32 
2.140373908841585e-05 0:24.87 1:-2.16 2:-4.39 3:8.83 4:-20.24 5:-34.28 6:-0.6 7:-24.93 8:-11.63 9:24.68 10:-11.42 11:-4.76 12:-25.15 
2.140373908841585e-05 0:23.65 1:6 2:3.58 3:-19.23 4:-18.96 5:-21.75 6:-7.84 7:-15.82 8:-16.11 9:2.29 10:0.81 11:8.69 12:-4.91 
2.140373908841585e-05 0:24.85 1:-10.77 2:6.98 3:-0.7 4:7.96 5:-23.91 6:-8.73 7:-30.37 8:-9.12 9:2.19 10:-1.95 11:11.13 12:2.84 
2.140373908841585e-05 0:23.2 1:1.39 2:-2.18 3:-12.62 4:-21.93 5:-22.07 6:-6.82 7:-17.4 8:-30.49 9:11.48 10:-1.91 11:4.4 12:6.43 
2.140373908841585e-05 0:23.5 1:-7.93 2:-0.84 3:-0.24 4:-3.78 5:-24.89 6:-12.08 7:-5.54 8:-17.3 9:0.26 10:-3.09 11:-2.17 12:-5.23 
2.140373908841585e-05 0:24.18 1:-6.73 2:5.97 3:-13.84 4:-12.11 5:-29.84 6:-11.86 7:-0.55 8:-20.13 9:-5.74 10:5.77 11:-2.91 12:-13.88 
2.140373908841585e-05 0:23.99 1:0.59 2:-2.44 3:-17.46 4:-15.19 5:-23.49 6:-19.12 7:-5.83 8:-17.31 9:-5.2 10:-8.44 11:-8.37 12:-5.88 
2.140373908841585e-05 0:24.13 1:-7.15 2:-2.02 3:-11.35 4:-16.16 5:-36.32 6:0.98 7:-5.18 8:-20.4 9:-1.56 10:-7.23 11:-1.05 12:-8.51 
2.140373908841585e-05 0:23.98 1:-3.22 2:-0.37 3:-13.4 4:-10.83 5:-22.25 6:-10.23 7:-0.17 8:-14.83 9:3.55 10:-6.6 11:-2.39 12:-3.82 
2.140373908841585e-05 0:24.57 1:-11.06 2:2.2 3:-12.52 4:-26.56 5:-21.44 6:-33.83 7:-7.91 8:-12.78 9:-2.01 10:2.65 11:2.16 12:-15.01 
2.140373908841585e-05 0:23.64 1:-3.59 2:-1.9 3:-16.38 4:-15.93 5:-15.74 6:-10.99 7:-18.32 8:-10.73 9:0.17 10:-15.9 11:10.23 12:-13.78 
2.140373908841585e-05 0:24.08 1:-5.13 2:4.63 3:-13.36 4:-18.33 5:-2.28 6:-22.6 7:-21.26 8:8.45 9:2.66 10:1.95 11:-4.55 12:-11.7 
2.140373908841585e-05 0:24.48 1:-2.82 2:-12.7 3:2.23 4:-9.28 5:-15.28 6:-22.85 7:-30.8 8:-2.36 9:15.68 10:-7.97 11:3.46 12:-7.13 
2.140373908841585e-05 0:25.17 1:-8.23 2:3.61 3:-14.58 4:-0.62 5:-22.42 6:-19.32 7:3.86 8:-24.84 9:1.56 10:-13.23 11:-3.84 12:-14.26 
2.140373908841585e-05 0:25.11 1:-14.02 2:0.53 3:-23.07 4:-28.22 5:-16.3 6:-14.8 7:-9.98 8:1.12 9:-7.83 10:5.49 11:-12.49 12:-7.54 
2.140373908841585e-05 0:23.75 1:-4.86 2:1.46 3:-10.73 4:-31.45 5:-9.26 6:-7.57 7:-15.78 8:-18.53 9:7.19 10:-3.22 11:4.57 12:-11.82 
2.140373908841585e-05 0:23.9 1:-1.6 2:7.08 3:-28.06 5:-16.54 6:-12.59 7:-28.54 8:-4.95 9:6.72 10:-24.12 11:11.69 12:7.22 
2.140373908841585e-05 0:21.7 1:-8.47 2:17.22 3:-4.47 4:-1.13 5:3.55 6:-20.78 7:12.22 8:-18.27 9:19.35 10:-3.7 11:2.98 12:2.03 
2.140373908841585e-05 0:24.58 1:-5.36 2:5.14 3:0.67 4:-11.56 5:-10.81 6:-30.95 7:-20.21 8:-11.44 9:-4.96 10:1.28 11:13.84 12:-1.7 
2.140373908841585e-05 0:24.56 1:-8.12 2:-3.59 3:-1.49 4:-14.54 5:-20 6:-26.27 7:-22.93 8:-10.21 9:13.42 10:-12.01 11:12.41 12:-5.74 
2.140373908841585e-05 0:25.11 1:-7.65 2:-11.28 3:-6.53 4:8.12 5:-25.11 6:-8 7:-32.54 8:-16.11 9:18 10:-5.19 11:7.83 12:-7.38 
2.140373908841585e-05 0:24.56 1:-7.58 2:-14.19 3:-2.81 4:-24.15 5:-21.3 6:-4.13 7:-15.61 8:-4.66 9:8.32 10:-13.42 11:7.58 12:-11.53 
6.502970851405077e-06 0:22.25 1:-8.81 2:21.09 3:-14.55 4:8.99 5:-8.87 6:-10.7 7:8.66 8:-15.71 9:22.26 10:-7.71 11:9.28 12:-12.25 
2.140373908841585e-05 0:24.47 1:-4.89 2:10.42 3:-22.02 4:-19 5:-15.65 6:-6.33 7:-16.89 8:-11.86 9:7.5 10:-4.67 11:15.8 12:-9.52 
2.140373908841585e-05 0:24.57 1:-8.21 2:5.77 3:-17.27 4:-19.6 5:-13.91 6:-8.93 7:9.25 8:-29.63 9:-10.99 10:0.31 11:-0.01 12:-7.74 
2.140373908841585e-05 0:25.02 1:-10.66 2:11.69 3:-0.6 4:-24.34 5:-22.92 6:-16.07 7:-7.96 8:-13.33 9:-1.47 10:0.11 11:8.22 12:-3.01 
2.140373908841585e-05 0:25.08 1:-13.02 2:-17.51 3:-6.16 4:-25.08 5:-33.45 6:-8.57 7:-3.21 8:-11.99 9:-17.39 10:2.25 11:-11.82 12:-6.43 
2.140373908841585e-05 0:24.01 1:-3.84 2:12.17 3:-15.62 4:-27.05 5:-5.86 6:-17.25 7:-19.36 8:2.41 9:-2.63 10:5.49 11:-10.72 12:0.86 
2.140373908841585e-05 0:23.76 1:-3.21 2:-2.22 3:-14.58 4:-30.29 5:-17.34 6:-19.63 7:-16.44 8:-2.35 9:-1.44 10:3 11:-11.61 12:0.29 
2.140373908841585e-05 0:23.94 1:-4.21 2:-2.28 3:-11.16 4:-25.53 5:-16.26 6:-23.47 7:-17.37 8:-0.07 9:9.71 10:0.34 11:-10.82 12:-4.22 
2.140373908841585e-05 0:24.53 1:-14.75 2:-8.13 3:-6.49 4:-28.5 5:-32.92 6:-12.38 7:6.71 8:-10.69 9:-2.01 10:-3.47 11:-12.1 12:-7.47 
2.140373908841585e-05 0:25.38 1:-17.41 2:1.31 3:-27.32 4:-8.74 5:-30.85 6:-26.59 7:3.7 8:-19.12 9:-0.56 10:5.53 11:-15.08 12:-7.51 
2.140373908841585e-05 0:24.78 1:-5.21 2:-0.88 3:7.95 4:-22.82 5:-23.61 6:2.87 7:-34.13 8:-4.68 9:15.55 10:-4.47 11:-2.83 12:1.96 
2.140373908841585e-05 0:21.26 1:-8.84 2:14.38 3:-2.53 4:2.94 5:-4.97 6:-15.17 7:4.76 8:-12.98 9:9.52 10:1.07 11:6.29 12:1.67 
2.140373908841585e-05 0:24.71 1:-13.3 2:4.63 3:-7.48 4:-13.74 5:-14.22 6:-15.38 7:-13.89 8:-24.74 9:15.67 10:2.87 11:10.5 12:-13.12 
2.140373908841585e-05 0:24.55 1:-7.61 2:9.05 3:-3.12 4:-2.6 5:-16.8 6:-22.07 7:-22.48 8:-10.78 9:-16.1 10:-2.85 11:5.12 12:2.13 
2.140373908841585e-05 0:24.45 1:-7.48 2:10.04 3:-8.82 4:-17.78 5:3.06 6:-9.09 7:-21.5 8:-1.84 9:-11.6 10:5.04 11:8.44 12:-2.46 
2.140373908841585e-05 0:23.97 1:-6.48 2:4.96 3:-11.18 4:-12.61 5:-3.33 6:-9.61 7:-18.64 8:-11.62 9:-10.6 10:8.41 11:3.77 12:1.02 
2.140373908841585e-05 0:24.38 1:-4.85 2:11.08 3:-21.58 4:-19.34 5:-5.02 6:-13.57 7:-19.44 8:-17.23 9:20.34 10:-0.53 11:15.12 12:-9.6 
2.140373908841585e-05 0:25.82 1:-11.82 2:-6.79 3:-24.53 4:-23 5:-12.82 6:-36.43 7:-8.63 8:-9.3 9:-3.51 10:-11.19 11:-2.98 12:-20.52 
2.140373908841585e-05 0:25.3 1:-18.52 2:-30.76 3:-21.51 4:-15.73 5:-40.71 6:-4.7 7:-9.56 8:-14.3 9:-5.09 10:-16.38 11:-1.38 12:-5.19 
2.140373908841585e-05 0:24.12 1:-5.48 2:6.15 3:-8.07 4:-15.33 5:-3.23 6:-26.73 7:-11.02 8:-3.12 9:-1.2 10:19.06 11:3.06 12:-6.96 
2.140373908841585e-05 0:22.73 1:-9.83 2:23.19 3:-12.79 4:-8.05 5:0.6 6:-29.44 7:9.31 8:-14.69 9:13.78 10:-5.03 11:6.09 12:-11.69 
2.140373908841585e-05 0:24.46 1:-12.21 2:-2.8 3:-5.6 4:-8.84 5:-5.23 6:-21.69 7:-19.31 8:-20.31 9:4.08 10:9.17 11:13.03 12:-20.1 
2.140373908841585e-05 0:24.57 1:-2.4 2:-10.67 3:-3.51 4:-1.23 5:-20.23 6:-0.11 7:-29.61 8:-18.33 9:17.52 10:-5.16 11:3.59 12:-5.77 
2.140373908841585e-05 0:23.59 1:2.05 2:7.02 3:-7.4 4:-30.52 5:-17.27 6:-5.3 7:-2.98 8:-8.22 9:9.8 10:-7.04 11:3.31 12:-4.01 
2.140373908841585e-05 0:23.89 1:3.76 2:7.39 3:-15.67 4:-25.02 5:-17.68 6:-8.34 7:-5.41 8:-6.61 9:13 10:-1.44 11:-2.48 12:4.51 
2.140373908841585e-05 0:23.85 1:-2.81 2:-2.76 3:-22.95 4:-12.08 5:-23.45 6:-6.42 7:-21.24 8:-10.75 9:-4.4 10:-6.51 11:13.74 12:-6.33 
2.140373908841585e-05 0:23.96 1:-7.22 2:4.08 3:-3.49 4:-14.42 5:-24.82 6:-32.34 7:-5.15 8:-8.35 9:8.23 10:5.63 11:11.76 12:-9.48 
2.140373908841585e-05 0:25.5 1:-12.57 2:3.01 3:-12.32 4:-17.55 5:-29.66 6:0.95 7:-33.36 8:3.62 9:-3.17 10:-7.11 11:22.47 12:-18.18 
1.162408521831599e-05 0:23.54 1:1.98 2:-3.35 3:-11.67 4:-20.56 5:-17.89 6:-15.11 7:-10.34 8:3.55 9:-8.35 10:-4.93 11:-3.28 12:1.96 
2.140373908841585e-05 0:23.82 1:4.82 2:-4.14 3:-8.79 4:-21.91 5:-10.12 6:-13.51 7:-12.5 8:-1.74 9:2.54 10:-2.64 11:-3.41 12:-5.89 
2.140373908841585e-05 0:23.66 1:-0.26 2:5.2 3:-17.04 4:-23.02 5:-13.14 6:-17.62 7:-10.78 8:-2.24 9:2.59 10:2.89 11:-2.82 12:5.51 
-2.140373908841585e-05 0:23.46 1:-7.62 2:9.59 3:-5.62 4:-37.27 5:-13.89 6:-36.5 7:-42.65 8:-8.91 9:-8.27 10:-30.23 11:12.42 12:-5.51 
-2.140373908841585e-05 0:24.6 1:-3.34 2:10.36 3:-37.29 4:-19 5:-5.56 6:-26.97 7:-15.69 8:-17.62 9:19.65 10:-0.82 11:10.69 12:4.87 
-2.140373908841585e-05 0:25.99 1:-16.32 2:13.02 3:-13.95 4:-23.52 5:-9.99 6:-26.84 7:-24.87 8:-22.68 9:-11.62 10:-14.55 11:5.88 12:-4.79 
-2.140373908841585e-05 0:25.09 1:-12.68 2:6.36 3:-11.79 4:-26.43 5:-25.81 6:-16.35 7:-26.87 8:-31.55 9:-15.64 10:-16.25 11:4.92 12:-11.66 
-1.564147751403815e-05 0:26.07 1:-22.08 2:9.21 3:0.49 4:-21.88 5:-6.74 6:-21.59 7:-36.76 8:-37.08 9:-28.32 10:-23.34 11:11.7 12:-9.79 
-2.140373908841585e-05 0:24.8 1:-12.4 2:9.9 3:-16.1 4:-22.99 5:-10.21 6:-20.54 7:-25.92 8:-14.53 9:21.76 10:-17.63 11:8.69 12:11.95 
-2.140373908841585e-05 0:24.76 1:-12.73 2:3.67 3:-9.98 4:-28.87 5:-23.13 6:-20.13 7:-23.26 8:-27.67 9:7.3 10:-9.86 11:2.8 12:-3.74 
-2.140373908841585e-05 0:24.48 1:-11.21 2:3.76 3:1.43 4:-32.25 5:-23.5 6:-16.03 7:-46.14 8:-23.54 9:-5.15 10:-6.91 11:5.6 12:-21.18 
-2.140373908841585e-05 0:25.2 1:-13.21 2:7.66 3:1.97 4:-22.13 5:-18.06 6:-21.35 7:-31.12 8:-30.06 9:-9.29 10:-5.18 11:-0.23 12:-2.25 
-2.140373908841585e-05 0:25.17 1:-12.19 2:8.51 3:-15.49 4:-39.22 5:-2.8 6:-34.49 7:-12.61 8:-8.02 9:18.04 10:4.46 11:9.72 12:-0.31 
-2.140373908841585e-05 0:25.43 1:-20.25 2:-19.1 3:-6.54 4:-43.68 5:-13.45 6:-27.26 7:-14.45 8:-32.21 9:-15.47 10:-17.42 11:-0.31 12:-10.81 
-2.140373908841585e-05 0:24.45 1:-4.2 2:19.42 3:-29.23 4:-15.13 5:-14.11 6:-15.26 7:-4.71 8:-9.25 9:30.43 10:10.23 11:8.19 12:18.17 
-2.140373908841585e-05 0:24.3 1:-5.05 2:7.8 3:-17.88 4:-26.35 5:-7.62 6:-8.57 7:-13.82 8:-29.72 9:32.01 10:-6.04 11:4.52 12:-16.48 
-2.140373908841585e-05 0:24.76 1:-9.52 2:25.25 3:-11.62 4:-8.68 5:-15.36 6:-17.46 7:12.17 8:-4.85 9:42.49 10:20.28 11:0.79 12:7.5 
-2.140373908841585e-05 0:25.34 1:-14.72 2:20.43 3:-13.19 4:-12.74 5:-10.27 6:-33.85 7:-15.27 8:-29.34 9:-19.52 10:-21.5 11:1.89 12:-8.62 
-2.140373908841585e-05 0:23.9 1:-1.83 2:-0.28 3:15.67 4:-39.08 5:-31.91 6:-17.74 7:-32.89 8:7.47 9:6.41 10:-5.34 11:19.02 12:2.52 
-2.140373908841585e-05 0:25.35 1:-11.63 2:10.53 3:-21.52 4:-40.36 5:-4.9 6:-37.73 7:-11.3 8:-21.3 9:-12.35 10:-11.69 11:9.37 12:-7.25 
-2.140373908841585e-05 0:25.07 1:-11.91 2:0.77 3:-2.89 4:-44.39 5:-19.66 6:-22.52 7:-29.62 8:-17.98 9:-5.98 10:-1.82 11:5.03 12:-8.14 
-2.140373908841585e-05 0:25.13 1:-6.58 2:5.81 3:-23.74 4:-14.78 5:-25.23 6:-15.13 7:-18.87 8:-24.92 9:28.6 10:-12.45 11:6.28 12:-5.87 
-2.140373908841585e-05 0:25.42 1:-9.56 2:18.95 3:-18.99 4:-24.74 5:13.07 6:-18.93 7:0.37 8:-5.2 9:41.65 10:-5.56 11:10.4 12:-1.86 
-2.140373908841585e-05 0:24.37 1:-5.12 2:6.18 3:-30.24 4:-24.86 5:-6.24 6:-20.06 7:-22.32 8:-41.79 9:-9.84 10:-21.57 11:7.98 12:-9.7 
-2.140373908841585e-05 0:23.54 1:-2.78 2:1.02 3:-7.2 4:-34.78 5:-0.44 6:-24.71 7:-29.45 8:-5.81 9:15.47 10:-4.41 11:5.09 12:17.95 
-8.51129925464361e-06 0:24.04 1:-1.61 2:-3.46 3:-12.12 4:-47.02 5:-18.25 6:-40.09 7:-5.95 8:-38 9:-22.37 10:-26.05 11:-9.69 12:-12.61 
-2.140373908841585e-05 0:24.61 1:-7.48 2:-9.4 3:-11.86 4:-13.48 5:-3.76 6:-15.12 7:-37.73 8:-11.5 9:11.55 10:-14.19 11:-9.31 12:5.88 
-2.140373908841585e-05 0:25.22 1:-15.45 2:-1.61 3:0.06 4:-37.24 5:-22.7 6:-23.13 7:-40.96 8:-27.74 9:-15.12 10:-20.99 11:2.47 12:-16.73 
-2.140373908841585e-05 0:26.79 1:-20.03 2:27.24 3:-11.52 4:-22.99 5:3.81 6:-40.41 7:5.9 8:-41.87 9:0.96 10:-12.27 11:3.16 12:-14.2 
-2.140373908841585e-05 0:26.01 1:-11.71 2:12.42 3:-2.71 4:-22.5 5:13.2 6:-27.92 7:20.81 8:-18.21 9:32.75 10:17.42 11:2.25 12:8.87 
-2.140373908841585e-05 0:25.08 1:-16.63 2:5.78 3:-7.41 4:-29.75 5:-20.1 6:-31.79 7:-22.9 8:-37.04 9:-11.3 10:-19.52 11:2.06 12:-13.5 
-2.140373908841585e-05 0:24.92 1:-9.73 2:20.26 3:-4.46 4:-1.64 5:12.76 6:-22.05 7:12.77 8:-7.32 9:49.23 10:9.17 11:16.08 12:13.95 
-2.140373908841585e-05 0:25.51 1:-13.97 2:7.06 3:-17.47 4:-29.24 5:-19.37 6:-37.61 7:-11.17 8:-32.44 9:-2.11 10:-11.3 11:2.84 12:-11.12 
-2.140373908841585e-05 0:25.23 1:-13.09 2:5.65 3:-7.85 4:-24.4 5:-7.35 6:-25.27 7:-21.7 8:-31.34 9:-11.78 10:-7.44 11:15.64 12:-16.43 
-2.140373908841585e-05 0:24.79 1:-10.57 2:4.59 3:0.97 4:-28.83 5:-8.77 6:-13.87 7:-22.55 8:-29.57 9:-10.37 10:-12.74 11:8.83 12:1.38 
-2.140373908841585e-05 0:24.16 1:-8.8 2:4.5 3:-10.86 4:-28.26 5:-34.55 6:-21.18 7:-33.41 8:-33.94 9:-25.12 10:-35.97 11:9.55 12:-13.74 
-2.140373908841585e-05 0:26.03 1:-21.95 2:14.37 3:-5.9 4:-31.65 5:-21.78 6:-11.82 7:-22.99 8:-33.71 9:-10.17 10:-17.89 11:7.96 12:-10.29 
-2.140373908841585e-05 0:25.27 1:-12.24 2:-1.83 3:-10.04 4:-11.22 5:2.36 6:-15.6 7:-29.15 8:-8.03 9:0.54 10:-4.88 11:-9.67 12:6.03 
-7.952831863942021e-06 0:26.7 1:-21.39 2:34.14 3:-16.23 4:-27.14 5:10.36 6:-46.17 7:10.46 8:-39.2 9:6.32 10:-6.24 11:6.09 12:-6.27 
-2.140373908841585e-05 0:24.5 1:-11.06 2:7.28 3:-15.75 4:-25.31 5:-15.95 6:-20.52 7:-5.78 8:-43.44 9:-18.97 10:-18.09 11:7.48 12:-5.72 
-2.140373908841585e-05 0:25.01 1:-9.79 2:-14.55 3:15.17 4:-25.87 5:-41.37 6:-23.16 7:-42.66 8:-32.36 9:-2.33 10:-18.07 11:-6.58 12:-16.09 
-2.140373908841585e-05 0:25.49 1:-12.53 2:14.98 3:-18.99 4:-15.87 5:-12.42 6:-36.2 7:-0.88 8:-43.39 9:-12.9 10:-22.13 11:-11.23 12:-2.65 
-2.140373908841585e-05 0:24.84 1:-9.74 2:5.65 3:-8.21 4:-27.87 5:-15.7 6:-30.81 7:-2.73 8:-43.17 9:-13.31 10:-29.54 11:6.76 12:-9.19 
-2.140373908841585e-05 0:24.68 1:-6.02 2:-0.99 3:-3.32 4:-23.75 5:-12.85 6:-41.68 7:-4.61 8:-36.63 9:-5.3 10:-22.3 11:-8.87 12:-9.89 
-2.140373908841585e-05 0:24.11 1:-12.53 2:6.11 3:-0.59 4:-33.27 5:-19 6:-25.62 7:-31 8:-31.68 9:-22.63 10:-24.9 11:-1.02 12:-3.19 
-2.140373908841585e-05 0:24.41 1:-1.73 2:-13.31 3:-18.61 4:-8.46 5:-14.6 6:-14.77 7:-27.9 8:-9.59 9:5.73 10:-5.79 11:11.06 12:-3.22 
-2.140373908841585e-05 0:25.1 1:-11.07 2:16.96 3:-2.23 4:-14.84 5:-10.71 6:-20.02 7:6.04 8:-16.39 9:40.54 10:5.39 11:8.89 12:6.61 
-2.140373908841585e-05 0:25.24 1:-17.36 2:7.09 3:-14.68 4:-20.56 5:-15.76 6:-27.34 7:-33.03 8:-37.05 9:-11.57 10:-27.45 11:13.01 12:-10.46 
-2.140373908841585e-05 0:24.51 1:-5.6 2:-3.71 3:-13.46 4:-23.31 5:-15.6 6:-19.05 7:-6.36 8:-23.78 9:27.07 10:-8.39 11:1.58 12:4.37 
-2.140373908841585e-05 0:25.24 1:-11.69 2:-16.09 3:3.92 4:-19.32 5:-25.74 6:-22.02 7:-41.83 8:-40.96 9:5.65 10:-25.27 11:11.89 12:-16.03 
-2.140373908841585e-05 0:24.15 1:-11.56 2:7.32 3:-2.67 4:-36.08 5:-19.85 6:-26.23 7:-29.08 8:-24.54 9:-23.74 10:-27.19 11:-2.05 12:-9.87 
-2.140373908841585e-05 0:24.53 1:-5.7 2:6.59 3:-17.85 4:-6.23 5:-10.7 6:-7.52 7:-7.11 8:-13.01 9:42.6 10:-0.04 11:5.44 12:26.23 
-2.140373908841585e-05 0:24.53 1:-8.31 2:-1.35 3:-16.99 4:-30.88 5:1.43 6:-36.15 7:-32.43 8:-1.77 9:25.35 10:-1.99 11:1.3 12:-8.06 
-2.140373908841585e-05 0:26.02 1:-19.12 2:13.43 3:-22.37 4:-28.65 5:2.6 6:-38.23 7:-35.54 8:-21.29 9:-2.99 10:-19.33 11:6.58 12:-10.71 
-2.140373908841585e-05 0:25.1 1:-12.43 2:1.21 3:-4.38 4:-25.42 5:2.65 6:-23.28 7:-27.21 8:-31.31 9:-12.93 10:-28.97 11:-6.45 12:-12.75 
-2.140373908841585e-05 0:25.48 1:-15.07 2:-1.72 3:-20.05 4:-34.79 5:-5.84 6:-17.95 7:-10.59 8:-2.6 9:23.24 10:7.94 11:2.06 12:6.05 
-2.140373908841585e-05 0:24.83 1:-10.19 2:-26.67 3:-8.98 4:-22.71 5:-22.32 6:-14.27 7:0.61 8:-4.05 9:21.44 10:10.48 11:7.16 12:10.72 
-2.140373908841585e-05 0:24.13 1:-6.43 2:0.35 3:-10.11 4:-42.61 5:0.12 6:-13.9 7:-21.69 8:-20.84 9:34.34 10:-0.1 11:11.82 12:-3.65 
-2.140373908841585e-05 0:25.48 1:-15.57 2:8.61 3:-0.69 4:-34.54 5:-11.41 6:-12.38 7:-23.84 8:-24.76 9:-15.13 10:-11.15 11:4.37 12:-14.85 
-2.140373908841585e-05 0:24.58 1:-6.22 2:5.96 3:-17.35 4:-35.82 5:-8.86 6:-38.21 7:-3.89 8:-9.54 9:16.48 10:7.6 11:-1.27 12:2.95 
-2.140373908841585e-05 0:25.15 1:-18.18 2:1.92 3:0.62 4:-43.18 5:-23.11 6:-9.23 7:-46.22 8:-27.65 9:-17.61 10:-25.01 11:12.84 12:-8.77 
-2.140373908841585e-05 0:24.25 1:-11.61 2:-3.18 3:2.1 4:-19.96 5:-27.85 6:-34.14 7:-23.73 8:-41.57 9:-3.11 10:-22.27 11:-4.68 12:-18.75 
-2.140373908841585e-05 0:25.19 1:-8.16 2:21.1 3:-10.77 4:-13.72 5:14.09 6:-37.44 7:10.07 8:-0.11 9:35.91 10:9.72 11:7.96 12:7.18 
-2.140373908841585e-05 0:26.64 1:-21.15 2:21.03 3:-3.68 4:-39.88 5:-2 6:-24.82 7:-24.96 8:-25.28 9:-5.36 10:-15.77 11:5.51 12:-21.02 
-2.140373908841585e-05 0:23.3 1:7.61 2:-10.63 3:5.84 4:-22.47 5:-30.6 6:-38.37 7:-34.67 8:-39.6 9:-1.56 10:-22.02 11:-0.82 12:-20.69 
-2.140373908841585e-05 0:25.96 1:-23.47 2:3.63 3:4.73 4:-27.76 5:-18.96 6:-36.38 7:-39.52 8:-17.72 9:-19.41 10:-35.48 11:-2.54 12:-18.87 
-2.140373908841585e-05 0:22.9 1:-10.52 2:15.11 3:-3.17 4:-7.08 5:-0.51 6:-29.61 7:4.49 8:-21.97 9:30.83 10:5.43 11:14.34 12:9.78 
-2.140373908841585e-05 0:25.41 1:-8.16 2:-5.27 3:9.74 4:-35.43 5:-19.5 6:-5.7 7:-42.04 8:-14.21 9:39.64 10:-6.28 11:0.27 12:10.41 
-2.140373908841585e-05 0:24.78 1:-9.78 2:4.28 3:-12.27 4:-33.16 5:-9.92 6:-36.22 7:-30.65 8:-19.16 9:-24.75 10:-17.87 11:6.7 12:-13.63 
-2.140373908841585e-05 0:24.54 1:-8.09 2:2.41 3:-10.8 4:-31.55 5:1.73 6:-41.16 7:-22.63 8:-12.28 9:21.06 10:15.23 11:7.76 12:-4.59 
-2.140373908841585e-05 0:24.83 1:-10.03 2:-1.01 3:-12.14 4:-27.84 5:1.82 6:-23.34 7:-29.26 8:-23.65 9:9.67 10:7.31 11:8.14 12:9.87 
-2.140373908841585e-05 0:25.47 1:-11.41 2:4.1 3:-13.55 4:-31.46 5:6.54 6:-25.18 7:-32.02 8:-14.36 9:6.85 10:-1.27 11:13.89 12:1.58 
-2.140373908841585e-05 0:24.31 1:-8.46 2:6.42 3:-22.84 4:-31.37 5:-1.21 6:-23.02 7:-26.68 8:-23.28 9:45.83 10:2.51 11:23.16 12:-1.23 
-2.140373908841585e-05 0:25.87 1:-22.97 2:-24.76 3:-12.76 4:-35.94 5:-22.45 6:-21.3 7:-12.51 8:-41.47 9:-9.91 10:-33.71 11:6.27 12:-6.03 
-2.140373908841585e-05 0:25.03 1:-8.29 2:9.28 3:-21.29 4:-13.56 5:-17.54 6:-32.96 7:-7.16 8:-26.16 9:-8.86 10:-10.28 11:13.41 12:-16.35 
-2.140373908841585e-05 0:25.37 1:-18.25 2:7.97 3:4.62 4:-19.14 5:-8.14 6:-15.9 7:-28.77 8:-25.06 9:-15.99 10:4.67 11:-0.5 12:-7.4 
-2.140373908841585e-05 0:26.9 1:-19.38 2:29.35 3:-22.83 4:-14.62 5:5.61 6:-47.91 7:14.81 8:-41.38 9:3.34 10:-21.32 11:5.5 12:-13.3 
-2.140373908841585e-05 0:23.8 1:-8.67 2:2.22 3:-3.11 4:-27.9 5:-18.03 6:-42.05 7:-14.28 8:-16.08 9:29.77 10:8.23 11:19.42 12:-2.17 
-2.140373908841585e-05 0:24.67 1:-12.64 2:14.3 3:-22.1 4:-31.42 5:-20.59 6:-19.84 7:-27.17 8:-41.9 9:-8.87 10:-16.97 11:13.78 12:-20.9 
-2.140373908841585e-05 0:24.85 1:-10.34 2:8.54 3:-14.59 4:-51.22 5:-9.82 6:-37.67 7:-2.8 8:-29.52 9:-13.08 10:-19.38 11:-2.01 12:4.46 
