svm_type nu_svc
kernel_type linear
nr_class 2
total_sv 144
rho -1.61933
label 1 -1
probA -3.04283
probB 0.814569
nr_sv 72 72
SV
2.792568556960046e-05 0:24.39 1:-8.95 2:4.66 3:-28.22 4:-4.65 5:-19.6 6:-21.73 7:-3.44 8:-20.08 9:29.29 10:-0.47 11:-15.76 12:4.09 
2.792568556960046e-05 0:26.12 1:-17.65 2:18.97 3:-8.44 4:10.08 5:-21.98 6:-28.16 7:-11.99 8:-17.03 9:14.65 10:-10.38 11:3.26 12:-13.51 
6.590789989925304e-06 0:24.8 1:-19.39 2:-11 3:-21.41 4:-0.54 5:-39.2 6:-10.88 7:12.11 8:-17.29 9:4.79 10:-21.73 11:-21.8 12:-5.2 
2.792568556960046e-05 0:26.57 1:-23.12 2:22.7 3:-20.46 4:-3.21 5:-15.54 6:-21.68 7:-18.49 8:-11.72 9:-5.68 10:0.06 11:12.3 12:-9.85 
2.792568556960046e-05 0:25.03 1:-11.97 2:10.9 3:-6.29 4:-19.94 5:-19.78 6:3.86 7:-21.01 8:-1.73 9:15.26 10:-4.42 11:4.71 12:1.62 
2.792568556960046e-05 0:25.72 1:-16.27 2:5.08 3:4.01 4:-1.35 5:-20.07 6:-3.23 7:-6.82 8:-34.34 9:8.91 10:17.56 11:8.32 12:-3.04 
2.792568556960046e-05 0:24.73 1:-10.51 2:3.53 3:-14.27 4:-28.1 5:-11.07 6:-10.49 7:3.56 8:-24.33 9:9.58 10:3.86 11:2.01 12:-2.95 
2.792568556960046e-05 0:26.08 1:-20.79 2:19.63 3:1.1 4:-12.36 5:-30.91 6:1.5 7:-8.51 8:-19.76 9:24.26 10:-8.71 11:4.46 12:7.22 
2.792568556960046e-05 0:24.81 1:-21.4 2:-14.44 3:-21.53 4:-7.07 5:-24.06 6:-12.09 7:-7.73 8:-11.72 9:4.79 10:-6.22 11:-15.51 12:-6.1 
2.792568556960046e-05 0:26.39 1:-18.87 2:8.79 3:-11.13 4:-11.49 5:-7.73 6:-29.44 7:-11.46 8:-8.66 9:5.36 10:13.78 11:1.53 12:-15.21 
2.792568556960046e-05 0:24.77 1:-9.54 2:4.79 3:-7.28 4:-34.19 5:-1.31 6:-20.25 7:-19.89 8:-4.79 9:6.4 10:3.31 11:3.41 12:-22.13 
2.792568556960046e-05 0:25.43 1:-12.82 2:18.26 3:-17.97 4:-5.44 5:-30.79 6:-5.91 7:-14.47 8:-20.88 9:5.21 10:-4.62 11:-5.24 12:-8.41 
2.792568556960046e-05 0:25.04 1:-12.1 2:23.55 3:-9.18 4:-9.53 5:-13.93 6:-3.27 7:-17.83 8:-24.49 9:8 10:-12.37 11:-4.2 12:-16.4 
2.792568556960046e-05 0:24.14 1:-21.25 2:20.88 3:-2.23 4:-2.89 5:-13.79 6:-8.97 7:15.32 8:-23.83 9:20.23 10:0.01 11:-3.3 12:8.5 
2.792568556960046e-05 0:26.6 1:-20.15 2:28.64 3:-25.82 4:-0.4 5:-5.5 6:-19.55 7:-14.96 8:-12.36 9:3.48 10:-6.72 11:4.06 12:1.16 
2.792568556960046e-05 0:25.65 1:-17.86 2:8.01 3:3.15 4:-3.34 5:-24.89 6:-7.63 7:-6.77 8:-17.28 9:12.05 10:7.26 11:-5.33 12:-1.7 
2.792568556960046e-05 0:25.76 1:-17.57 2:18.66 3:-9.97 4:-35.12 5:-2.61 6:-12.57 7:-9.84 8:-11.77 9:17.12 10:7.55 11:7.85 12:-14.03 
2.792568556960046e-05 0:25.01 1:-14.09 2:5.92 3:-6.76 4:-20.07 5:-19.23 6:1.3 7:-11.12 8:-9.53 9:15.89 10:-4.32 11:-8.18 12:10.69 
2.792568556960046e-05 0:25.2 1:-11.08 2:16.44 3:-11.95 4:-11.39 5:-27.12 6:-18.2 7:-1.51 8:-3.8 9:17.04 10:-7.29 11:2.82 12:-0.87 
2.792568556960046e-05 0:25.35 1:-13.64 2:11.95 3:-13.05 4:-18.76 5:-17.42 6:-7.07 7:-17.94 8:-3.72 9:21.38 10:-16.24 11:-8 12:14.84 
2.792568556960046e-05 0:24.96 1:-15.07 2:-13.44 3:-25.34 4:-8.79 5:-36.09 6:-4.65 7:-2.92 8:-14.71 9:12.66 10:-13.38 11:-22.87 12:-10.15 
2.792568556960046e-05 0:23.43 1:-15.19 2:17.92 3:-5.83 4:-1.92 5:9.11 6:-19.87 7:23.76 8:-25.26 9:16.3 10:-3.96 11:-2.26 12:17.68 
2.792568556960046e-05 0:26.42 1:-24.94 2:23.23 3:-0.9 4:-8.06 5:-9.65 6:-7.79 7:-9.15 8:-18.22 9:-0.45 10:11.96 11:-2.56 12:-1.86 
2.792568556960046e-05 0:25.1 1:-9.97 2:-3.49 3:8.99 4:-3.18 5:-36.93 6:-25.08 7:-8.41 8:-31.36 9:18.38 10:-7.22 11:-12.07 12:-9.97 
2.792568556960046e-05 0:22.81 1:-18.9 2:16.98 3:1.61 4:-5.63 5:3.15 6:-11.74 7:12.36 8:-12.2 9:26.27 10:-1.78 11:-7.67 12:7.38 
2.792568556960046e-05 0:24.63 1:-11.25 2:4.23 3:-9.29 4:-29.48 5:0.61 6:-19.23 7:-19.85 8:-15.41 9:-7.23 10:9.5 11:11.69 12:-24.72 
2.792568556960046e-05 0:23.73 1:-7.61 2:3.71 3:-20.52 4:-24.79 5:-1.38 6:-21.34 7:-20.49 8:-2.67 9:1.27 10:6.39 11:4.66 12:-11.8 
2.792568556960046e-05 0:24.11 1:-8.97 2:9.66 3:-21.01 4:-23.34 5:-5.86 6:-14.66 7:-14.83 8:-6.78 9:9.32 10:-0.73 11:-1.59 12:-14.32 
2.792568556960046e-05 0:25.82 1:-28.86 2:12.01 3:-4.59 4:11.08 5:-17.93 6:-26.58 7:-28.8 8:-15.72 9:2.12 10:14.95 11:-1.11 12:-7.68 
2.792568556960046e-05 0:24.78 1:-12.61 2:8.03 3:-0.42 4:1.16 5:-36.49 6:-6.03 7:-11.36 8:-22.84 9:9.28 10:-10.69 11:-0.26 12:-4.39 
2.792568556960046e-05 0:24.59 1:-9.48 2:7.24 3:-5.31 4:-3.29 5:-31.06 6:-7.05 7:-13.28 8:-13.61 9:3.13 10:-4.52 11:3.69 12:-10.37 
2.792568556960046e-05 0:24.52 1:-8.62 2:9.94 3:-3.02 4:-7.94 5:-18.05 6:-16.04 7:-11.64 8:-24.61 9:15.98 10:-4.09 11:-7.48 12:-7.26 
2.792568556960046e-05 0:23.16 1:-14.48 2:4.15 3:10.87 4:-4.44 5:-29.7 6:-11.12 7:-14.43 8:-18.37 9:9.89 10:-2.76 11:-4.94 12:-5.23 
2.792568556960046e-05 0:24.66 1:-15.2 2:5.1 3:-20.93 4:-31.08 5:-7.64 6:-14.35 7:-20.08 8:-12.43 9:4.92 10:1.26 11:7.97 12:-19.13 
2.792568556960046e-05 0:25.36 1:-15.63 2:-3.19 3:1.49 4:17.45 5:-34.83 6:-28.18 7:-9 8:-20.37 9:8.41 10:4.9 11:-0.54 12:13.74 
2.792568556960046e-05 0:25.99 1:-25.72 2:15.57 3:-8.56 4:6.32 5:-8.37 6:-15.65 7:-20.45 8:-11.21 9:-8.5 10:1.45 11:5.25 12:-17.44 
2.792568556960046e-05 0:25.58 1:-12.42 2:-7.45 3:3.47 4:12.76 5:-33.99 6:0.93 7:-19.56 8:-34.05 9:5.88 10:-6.05 11:-4.43 12:-2.92 
2.792568556960046e-05 0:26.18 1:-17.88 2:16.53 3:-8.18 4:1.44 5:-32.42 6:-15.81 7:-6.85 8:-24.55 9:9.83 10:-6.09 11:-5.74 12:-14.93 
2.792568556960046e-05 0:25.35 1:-13.86 2:3.8 3:-13.68 4:3.9 5:-26.31 6:-14.52 7:-18.49 8:-20.3 9:10.49 10:-7.24 11:-5.12 12:0.28 
2.792568556960046e-05 0:25.93 1:-15.68 2:15.88 3:-21.44 4:4.11 5:-22.28 6:-17.38 7:1.32 8:-15.73 9:1.95 10:-8.14 11:3.85 12:-7.2 
2.792568556960046e-05 0:25.17 1:-13.11 2:9.2 3:-6.38 4:-17.5 5:-25.13 6:-4.26 7:-9.89 8:-9.15 9:6.85 10:-2.42 11:-4.25 12:16.21 
2.792568556960046e-05 0:25.12 1:-13.89 2:7.58 3:-2.35 4:-23.75 5:-6.13 6:-18.82 7:-21.96 8:-10.75 9:-4.27 10:10.04 11:9.09 12:-23.84 
2.792568556960046e-05 0:23.95 1:-19.1 2:-27.49 3:-19.87 4:-18.64 5:-37.62 6:-13.63 7:-3.26 8:-10.36 9:-2.74 10:-7.07 11:-18.8 12:-15.86 
2.792568556960046e-05 0:22.68 1:-15.05 2:19.59 3:-8.91 4:0.09 5:0.93 6:-12.49 7:13.7 8:-19.99 9:22.84 10:-2.3 11:-1.14 12:3.83 
2.792568556960046e-05 0:26.1 1:-17.66 2:10.66 3:-0.52 4:-14.22 5:-13.52 6:-33.81 7:-10.35 8:-18.16 9:18.91 10:3.4 11:0.59 12:-6.21 
2.792568556960046e-05 0:25.49 1:-14.96 2:9.62 3:-8.27 4:-21.12 5:-10.87 6:-16.48 7:-9.16 8:-15.57 9:15.31 10:-8 11:-1.61 12:5.08 
2.792568556960046e-05 0:24.86 1:-7.52 2:-6.16 3:3.35 4:5.79 5:-9.73 6:-50.83 7:-11.85 8:-8.65 9:-3.54 10:18.18 11:-9.83 12:-4.58 
2.792568556960046e-05 0:26.26 1:-19.41 2:28.17 3:-24.88 4:4.02 5:-11.43 6:-20.2 7:-16.47 8:-10.29 9:7.67 10:-7.27 11:-6.14 12:-2.68 
2.792568556960046e-05 0:25.4 1:-12.52 2:-2.87 3:-5.64 4:19.62 5:-25.16 6:-26.65 7:-25.86 8:-16.04 9:5.7 10:0.81 11:0.77 12:3.14 
2.792568556960046e-05 0:26.3 1:-15.05 2:18.18 3:-7.8 4:0.6 5:-17 6:-12.03 7:-14.06 8:-11.19 9:0.41 10:-2.19 11:6.06 12:-15.42 
2.792568556960046e-05 0:24.7 1:-9.47 2:11.3 3:-20.54 4:-25.15 5:-0.93 6:-28.35 7:-6.69 8:-9.54 9:5.25 10:-1.21 11:5.71 12:-28.68 
2.792568556960046e-05 0:25.03 1:-15.09 2:12.92 3:-5.84 4:-1.92 5:-24.3 6:-13.39 7:-4.71 8:-27.8 9:-1.73 10:-8.17 11:5.87 12:-2.67 
2.792568556960046e-05 0:24.98 1:-12.24 2:-9.64 3:-2.73 4:-6.15 5:-17.54 6:-9.5 7:-24.61 8:-3.63 9:8.82 10:-4.9 11:-0.75 12:-5.14 
2.792568556960046e-05 0:26.43 1:-25.41 2:13.64 3:4.06 4:3.23 5:-10.92 6:-34.31 7:-27.76 8:0.08 9:-11.94 10:8.61 11:-5.47 12:-17.95 
2.792568556960046e-05 0:25.14 1:-10.64 2:4.42 3:-15.3 4:-14.38 5:-26.53 6:-9.03 7:-20.36 8:-3.95 9:7.24 10:-3.07 11:-15.38 12:-4.07 
2.792568556960046e-05 0:25.08 1:-14.17 2:8.83 3:-13.16 4:-14.23 5:-21.7 6:-13.9 7:-9.53 8:-4.9 9:17.95 10:-15.28 11:-11.52 12:3.29 
2.792568556960046e-05 0:25.87 1:-20.25 2:17.83 3:-3.81 4:-31.43 5:-4.71 6:-34 7:-10.85 8:4.92 9:-3.7 10:3.61 11:9.19 12:-17.51 
2.792568556960046e-05 0:24.43 1:-7.5 2:7.82 3:0.28 4:-8.41 5:-12.87 6:-26.55 7:-10.98 8:-14.19 9:-2.68 10:11.39 11:-6.87 12:15.31 
2.792568556960046e-05 0:24.5 1:-8.85 2:0.45 3:-16.08 4:-22.54 5:-17.85 6:0.25 7:-22.36 8:-7.67 9:10.26 10:-8.82 11:-17.84 12:1.59 
2.792568556960046e-05 0:26.05 1:-23.17 2:12.96 3:-5.26 4:-12.14 5:-2.07 6:-33.36 7:-8.68 8:-17.53 9:-3.36 10:11.82 11:2.55 12:-17.14 
2.792568556960046e-05 0:22.77 1:-16.24 2:16.25 3:-3.56 4:-2.71 5:-2.51 6:-18.02 7:14.94 8:-17.46 9:19.66 10:6.06 11:3.24 12:7.61 
2.792568556960046e-05 0:25.34 1:-15.75 2:5.24 3:-14.09 4:-14.15 5:13.25 6:-16.54 7:-9.74 8:-7.45 9:3.15 10:-0.69 11:5.51 12:-10.32 
2.792568556960046e-05 0:26.53 1:-25.73 2:25.72 3:-11.29 4:11.07 5:-21.73 6:-18.97 7:-16.5 8:-14.92 9:-5.32 10:2.08 11:-1.26 12:-6.07 
2.792568556960046e-05 0:26.24 1:-19.88 2:2.13 3:-24.5 4:-26.2 5:-13.76 6:-29.94 7:-16.69 8:0.27 9:-6.94 10:-3.43 11:-10.66 12:-20.13 
2.792568556960046e-05 0:24.87 1:-21.51 2:-28.26 3:-28.1 4:-7.94 5:-38.06 6:-3.19 7:-9.84 8:-10.83 9:-1.19 10:-12.67 11:-12.16 12:-11.73 
2.792568556960046e-05 0:24.95 1:-11.35 2:6.79 3:-6.53 4:1.58 5:-21.1 6:-6.79 7:-17.74 8:-22.73 9:12.32 10:2.86 11:-1.92 12:4.65 
2.792568556960046e-05 0:23.76 1:-17.7 2:25.95 3:-13.53 4:-1.85 5:-0.55 6:-27.2 7:26.79 8:-20.14 9:24.62 10:0.41 11:1.09 12:1.3 
2.792568556960046e-05 0:26.46 1:-20.82 2:8.85 3:-2.72 4:-11.84 5:-1.39 6:-19.01 7:-16.65 8:-8.94 9:-0.91 10:1.5 11:14.05 12:-18.61 
2.792568556960046e-05 0:25.3 1:-12.78 2:-2.58 3:0.24 4:0.74 5:-12.87 6:-28.44 7:-8.12 8:-29.08 9:3.94 10:3.08 11:-5.74 12:1.24 
2.792568556960046e-05 0:25.26 1:-14.67 2:9.69 3:-5.23 4:-10.01 5:-12.33 6:-6.49 7:1.05 8:-24.15 9:-4.42 10:-0.5 11:-0.32 12:16.53 
7.372052794874924e-06 0:24.2 1:-7.77 2:13.27 3:-10.67 4:-16.83 5:-27.44 6:-6.24 7:0.91 8:-10.49 9:16.08 10:-3.56 11:-3.75 12:-2.1 
2.792568556960046e-05 0:24.59 1:-11.9 2:5.9 3:-7.55 4:-2.71 5:-18.92 6:-7.21 7:-14.73 8:-15.71 9:23.21 10:-7.47 11:-8.01 12:7.05 
-2.792568556960046e-05 0:26.33 1:-29.14 2:27.46 3:-8.23 4:-33.63 5:-1.13 6:-52.66 7:-39.61 8:-8.58 9:-13.31 10:-17.09 11:7.46 12:-5.73 
-2.792568556960046e-05 0:26.2 1:-20.48 2:16.75 3:-13.83 4:-6.74 5:-11.63 6:-40.62 7:-21.94 8:-35.18 9:-16.64 10:-13.42 11:1.43 12:-5.5 
-2.792568556960046e-05 0:25.89 1:-23.25 2:13.62 3:-1.45 4:-10.51 5:-6.16 6:-19.8 7:-19.98 8:-32.97 9:-20.52 10:-12.68 11:15.2 12:-7.63 
-2.792568556960046e-05 0:25.56 1:-20.24 2:-10.8 3:-16.98 4:-6.84 5:-23.09 6:-11.68 7:13.81 8:-11.41 9:40.22 10:-11.23 11:-0.91 12:8.81 
-2.792568556960046e-05 0:25.58 1:-20.18 2:14.13 3:-4.02 4:-20.66 5:-17.09 6:-18.33 7:-17.46 8:-42.76 9:-3.08 10:-22.57 11:-1.8 12:-10.91 
-2.792568556960046e-05 0:24.78 1:-15.8 2:12.09 3:5.05 4:-3.05 5:-7.3 6:-0.52 7:-2.93 8:1.2 9:14.77 10:30.84 11:9.88 12:12.97 
-2.792568556960046e-05 0:26.25 1:-16.02 2:18.65 3:-19.82 4:-19.75 5:-4.21 6:-31.92 7:-12.48 8:-47.61 9:-12.1 10:-22.86 11:1.07 12:-9.8 
-2.792568556960046e-05 0:25.9 1:-17.15 2:10.06 3:-14.98 4:-20.05 5:-0.94 6:-39.92 7:-21.11 8:-26.25 9:-18.88 10:-38.8 11:-9.9 12:-2.1 
-2.792568556960046e-05 0:26.17 1:-21.63 2:5.68 3:-1.81 4:-17.58 5:-31.37 6:-18.6 7:-33.7 8:-32.78 9:-13.76 10:-17.45 11:0.69 12:-16.04 
-2.792568556960046e-05 0:24.41 1:-9.65 2:8.5 3:-3.32 4:-3.79 5:-4.39 6:-7.6 7:-8.72 8:1.49 9:31.75 10:27.36 11:1.6 12:20.3 
-2.792568556960046e-05 0:26.2 1:-20.5 2:-0.4 3:-0.48 4:-17.67 5:-16.63 6:-16.58 7:-17.92 8:-44.92 9:28.3 10:12.89 11:13.54 12:-1.08 
-2.792568556960046e-05 0:25.46 1:-21.4 2:-13.85 3:-15.71 4:-12.41 5:-8.46 6:-12.7 7:-4.59 8:-8.42 9:37.65 10:0.77 11:0.9 12:10.23 
-2.792568556960046e-05 0:27 1:-28.85 2:29.4 3:5.94 4:-25.35 5:-29.29 6:-27.98 7:-2.47 8:-49.12 9:8.3 10:-14.29 11:-5.17 12:-5.42 
-2.792568556960046e-05 0:24.57 1:-8 2:17.97 3:-12.71 4:-4.98 5:-9.39 6:-9.35 7:-1.2 8:-14.84 9:36.63 10:20.81 11:13.28 12:15.67 
-2.792568556960046e-05 0:26.96 1:-20.58 2:16.56 3:-11.09 4:-18.01 5:3.21 6:-53.89 7:4.99 8:-43.05 9:-10.68 10:-11.26 11:1.17 12:-11.12 
-5.40889771106747e-07 0:25.88 1:-18.66 2:19.73 3:-11.71 4:-29.73 5:-1.86 6:-32.64 7:-21.47 8:-33.4 9:-13.58 10:-24.33 11:8.44 12:-12.11 
-2.792568556960046e-05 0:24.62 1:-21.47 2:-16.68 3:-10.56 4:-33.73 5:-13.21 6:-20.36 7:-12.92 8:-33.39 9:-10.67 10:-25.9 11:-7.44 12:-18.72 
-2.792568556960046e-05 0:25.49 1:-23.06 2:13.98 3:11.07 4:-21.39 5:-30.28 6:-19.55 7:-31.7 8:-9.87 9:20.1 10:-1.87 11:9.64 12:3.62 
-2.792568556960046e-05 0:25.24 1:-17.17 2:6.23 3:5.39 4:-37.81 5:-19.59 6:-18.54 7:-37.24 8:-25.66 9:-3.84 10:-7.74 11:0.2 12:-12.5 
-2.792568556960046e-05 0:25.91 1:-21.83 2:8.8 3:4.56 4:-23.42 5:-18.42 6:-23.5 7:-22.94 8:-33.02 9:-4.69 10:-8.68 11:-3.61 12:3.8 
-2.792568556960046e-05 0:25.13 1:-14.57 2:9.4 3:-10.43 4:-37.13 5:2.45 6:-7.4 7:-31.62 8:-35.44 9:-2.57 10:-14.55 11:-14.64 12:-14.34 
-2.792568556960046e-05 0:26.29 1:-19.67 2:27.54 3:-12.57 4:-20.58 5:5.36 6:-27.07 7:0.22 8:-6.36 9:38.89 10:2.07 11:7.78 12:-5.66 
-2.792568556960046e-05 0:25.28 1:-16.95 2:-2.38 3:-7.4 4:-23.26 5:-19.2 6:-18.25 7:-27.6 8:-40.35 9:-8.31 10:-17.65 11:8.35 12:-10.97 
-2.792568556960046e-05 0:26.91 1:-26.91 2:21.95 3:-6.01 4:-21.23 5:3.12 6:-45.98 7:3.92 8:-41.05 9:2.52 10:-6.81 11:-7.37 12:-11.87 
-2.792568556960046e-05 0:24.82 1:-12.63 2:6.37 3:-17.09 4:-17.26 5:-10.83 6:-29.42 7:-26.47 8:-49.47 9:-20.04 10:-13.79 11:-5.14 12:-17.53 
-2.792568556960046e-05 0:25.77 1:-19.8 2:4.86 3:-10.39 4:-20.26 5:-15.67 6:-29.02 7:-27.59 8:-34.58 9:-16.17 10:-13.77 11:4.63 12:-18.3 
-2.792568556960046e-05 0:26.33 1:-29.72 2:17.32 3:-4.94 4:-23.81 5:-5.08 6:-22.71 7:-17.66 8:-25.14 9:18.32 10:8.73 11:3.59 12:1.81 
-2.792568556960046e-05 0:26.05 1:-23.56 2:12.19 3:-6.12 4:-17.49 5:-31.74 6:-31.75 7:-23.57 8:-46.62 9:-16.31 10:-10.54 11:-3.04 12:-14.92 
-2.792568556960046e-05 0:26.54 1:-24.04 2:17.5 3:-34.52 4:-18.71 5:-8.83 6:-43.58 7:-26.54 8:-33.33 9:-5.1 10:-19.23 11:-10.2 12:-5.21 
-2.792568556960046e-05 0:24.67 1:-16.38 2:10.52 3:-8.84 4:-36.4 5:-20.05 6:-36.38 7:-27.43 8:-36.59 9:-17.17 10:-0.37 11:5.97 12:-21.32 
-2.792568556960046e-05 0:26.22 1:-20.11 2:9.68 3:-8.76 4:-22.33 5:-23.24 6:-29.81 7:-16.05 8:-41.04 9:-5.58 10:-17.39 11:-3.64 12:-8.23 
-2.792568556960046e-05 0:26.31 1:-23.74 2:10.87 3:0.94 4:-29.36 5:-17.23 6:-15.48 7:-30.9 8:-34.26 9:-8.12 10:-10.49 11:1.71 12:-17.67 
-2.792568556960046e-05 0:24.42 1:-12.68 2:-1.89 3:-13.64 4:-17.51 5:14.09 6:-2.81 7:-24.67 8:-17.44 9:20.67 10:1.82 11:-13.06 12:-5.45 
-2.792568556960046e-05 0:24.56 1:-10.54 2:7.47 3:-21.03 4:-32.23 5:3.15 6:-26.02 7:-22.05 8:-13.95 9:32.41 10:-1.79 11:7.24 12:-7.41 
-2.792568556960046e-05 0:26.07 1:-28.99 2:9.34 3:-5.42 4:0.66 5:-7.03 6:-32.03 7:-26.64 8:-15.1 9:32.33 10:17.04 11:8.03 12:1.76 
-2.792568556960046e-05 0:25.27 1:-15.66 2:10.14 3:4.32 4:-18.52 5:-12.31 6:-16.78 7:-16.94 8:-31.09 9:-9.09 10:-5.56 11:8.2 12:-2.76 
-2.792568556960046e-05 0:25.26 1:-22.35 2:-5.13 3:16.45 4:-16.34 5:-30.47 6:-50.68 7:-20.93 8:-41.92 9:-8.45 10:-2.12 11:-16.35 12:0.83 
-2.792568556960046e-05 0:25.9 1:-17.29 2:9.94 3:-16.27 4:-24.04 5:-12.28 6:-32.56 7:-10.7 8:-45.76 9:-11.36 10:-27.2 11:-23.35 12:-11.41 
-2.792568556960046e-05 0:25.34 1:-17.53 2:9.42 3:-1.72 4:-19.42 5:-12.46 6:-17.82 7:-3.68 8:-34.86 9:-21.63 10:-7.24 11:11.69 12:-11.29 
-2.792568556960046e-05 0:25.13 1:-15.33 2:4.21 3:-1.27 4:-12.7 5:-30.14 6:-14.52 7:-17.29 8:-30.21 9:32.61 10:-12.75 11:6.19 12:1.1 
-2.792568556960046e-05 0:23.96 1:-16.83 2:1.65 3:12.06 4:-16.67 5:-19.65 6:-14.69 7:-17.81 8:-21.73 9:39.5 10:0.69 11:4.35 12:3.24 
-2.641804160951861e-05 0:26.23 1:-20.48 2:12.66 3:-13.94 4:-18.94 5:-18.73 6:-32.21 7:-11.55 8:-47.93 9:-1.74 10:-31.43 11:-10.16 12:-17.77 
-2.792568556960046e-05 0:25.67 1:-18.08 2:-7.39 3:-0.86 4:0.13 5:-27.51 6:-38.88 7:-18.28 8:-27.82 9:32.15 10:3.52 11:4.89 12:18.21 
-2.792568556960046e-05 0:25.74 1:-19.31 2:7.32 3:-18.69 4:-13.44 5:-13.74 6:-20.91 7:-40.49 8:-29.66 9:-27.42 10:-16.01 11:9.33 12:-16.79 
-2.792568556960046e-05 0:25.64 1:-18.04 2:-1.85 3:-6.98 4:-26.39 5:4.37 6:-26.56 7:-26.45 8:-34.82 9:-2.74 10:-27.35 11:-22.95 12:-13.5 
-2.792568556960046e-05 0:25.39 1:-19 2:-2.92 3:-6.15 4:-28.01 5:-0.86 6:-27.61 7:-28.33 8:-31.4 9:-3.59 10:-26.62 11:-15.32 12:-13.54 
-2.792568556960046e-05 0:25.74 1:-15.7 2:1.1 3:-12.89 4:-7.38 5:-16.36 6:-21.04 7:-22.24 8:-24.76 9:37.68 10:-9.66 11:3.16 12:6.86 
-2.792568556960046e-05 0:26.32 1:-8.26 2:23.23 3:-31.72 4:5.76 5:-25.32 6:-9 7:-13.8 8:-15.73 9:3.39 10:-18.37 11:4.89 12:-15.94 
-2.792568556960046e-05 0:25.17 1:-13.82 2:-10.32 3:2.23 4:0.21 5:-26.67 6:-9.75 7:-26.4 8:-43.85 9:30.03 10:-11.39 11:0.59 12:3.14 
-2.792568556960046e-05 0:26.99 1:-26 2:17.51 3:-15.99 4:-20.19 5:8.26 6:-34.43 7:-18.85 8:-31.34 9:-2.02 10:-15.7 11:9.88 12:-1.08 
-2.792568556960046e-05 0:25.38 1:-17.04 2:-0.07 3:-15.82 4:-21.9 5:-16.93 6:-20.97 7:-20.91 8:-11.98 9:36.12 10:-8.7 11:-4.11 12:-0.52 
-2.792568556960046e-05 0:25.45 1:-17.09 2:3.57 3:-6.03 4:-32.32 5:-20.57 6:-16.69 7:-18.03 8:-24.52 9:30.54 10:-6.41 11:-4.23 12:25.43 
-2.792568556960046e-05 0:26.61 1:-24.75 2:6.71 3:-25.06 4:-26.69 5:-14.76 6:-7.52 7:-14.44 8:-9.41 9:28.2 10:6.88 11:1.33 12:-3.65 
-2.792568556960046e-05 0:25.28 1:-12.21 2:9.45 3:-15.21 4:-2.55 5:-14.1 6:-7.64 7:-3.05 8:-20.56 9:45.25 10:0.46 11:-0.21 12:20.51 
-2.792568556960046e-05 0:26.91 1:-25.52 2:17.52 3:5.46 4:-34.34 5:-15.08 6:-18.18 7:-5.92 8:-46.3 9:-15.16 10:-10.43 11:1.53 12:-9.3 
-2.792568556960046e-05 0:24.58 1:-16.9 2:-23.89 3:-8.87 4:-19.03 5:-15.04 6:-7.94 7:4.04 8:0.58 9:35.64 10:10.26 11:4.7 12:5.71 
-2.792568556960046e-05 0:25.42 1:-15.03 2:-6.89 3:-7.69 4:5.41 5:-18.28 6:-34.97 7:-32.69 8:-21.32 9:29.38 10:-3.88 11:6.04 12:5.52 
-2.283599011450024e-05 0:24.63 1:-22.69 2:12.04 3:7.56 4:-28.21 5:-18.96 6:-28.58 7:-35.04 8:-41.75 9:-32.55 10:-10.25 11:-5.78 12:-16.36 
-2.001929242887555e-05 0:25.54 1:-16.15 2:5.25 3:-3.18 4:-16.57 5:-17.24 6:-61.77 7:-7.09 8:-48.18 9:-18.41 10:-1.42 11:-11.1 12:-11.38 
-2.792568556960046e-05 0:24.74 1:-10.82 2:2.06 3:-1.09 4:-23.63 5:-8.32 6:-39.36 7:-20.36 8:-28.19 9:18.37 10:3.81 11:-6.13 12:20.75 
-2.792568556960046e-05 0:26.72 1:-20.17 2:16.75 3:-9.14 4:-18.36 5:-8.23 6:-11.03 7:4 8:-25.79 9:50.85 10:-2.61 11:6.29 12:6.05 
-2.792568556960046e-05 0:26.55 1:-21.14 2:27.44 3:-10.74 4:-28.98 5:2.81 6:-48.53 7:12.1 8:-39.51 9:-3.78 10:-16.06 11:1.67 12:-14.22 
-2.792568556960046e-05 0:24.9 1:-14.02 2:-0.4 3:-13.19 4:-27.24 5:-18.5 6:-20.01 7:-29.93 8:-14.94 9:29.04 10:-5.39 11:-10.51 12:4.66 
-2.792568556960046e-05 0:26.41 1:-26.31 2:-3.58 3:-25.48 4:-18.24 5:-32.67 6:-25.23 7:-5.13 8:-40.71 9:2.71 10:-28.86 11:-15.77 12:-11.09 
-2.792568556960046e-05 0:26.13 1:-27.45 2:-6.02 3:-9.26 4:-30.72 5:-30.38 6:-25.22 7:-14.7 8:-25.46 9:1.27 10:-24.08 11:-23.82 12:-10.73 
-2.792568556960046e-05 0:26.7 1:-22.73 2:5.09 3:0.17 4:-14.97 5:3.49 6:-19.16 7:-24.95 8:-29.05 9:-15.88 10:-8.39 11:4.63 12:-6.29 
-2.792568556960046e-05 0:26.46 1:-28.37 2:22.57 3:-10.81 4:-0.92 5:-12.35 6:-24.78 7:-19.35 8:-16.17 9:21.2 10:5.72 11:7.7 12:0.31 
-2.792568556960046e-05 0:26.25 1:-25.65 2:6.95 3:3.15 4:-6.25 5:-31.91 6:-27.87 7:-14.07 8:-7.13 9:21.68 10:-10.47 11:5.31 12:-14.02 
-2.792568556960046e-05 0:25.57 1:-25.47 2:-21.61 3:-18.84 4:-25.91 5:-19.18 6:-14.86 7:-9.83 8:-32.69 9:-4.18 10:-25.94 11:-3.58 12:-9.21 
-2.792568556960046e-05 0:24.13 1:-6.63 2:8 3:-6.2 4:8.04 5:-15.68 6:-2.02 7:13.07 8:-13.83 9:33.73 10:26.39 11:16.43 12:13.46 
-2.792568556960046e-05 0:26.72 1:-20.03 2:26.33 3:-17.28 4:-17.59 5:0.08 6:-33.29 7:16.48 8:-3.78 9:49.1 10:9.22 11:21.42 12:3.75 
-2.792568556960046e-05 0:25.44 1:-15.65 2:0.9 3:-8.25 4:-13.82 5:-17.87 6:-18.27 7:-27.79 8:-34.63 9:35.37 10:-2.68 11:-1.11 12:8.41 
