svm_type nu_svc
kernel_type linear
nr_class 2
total_sv 155
rho -1.64813
label 1 -1
probA -3.88877
probB 0.771174
nr_sv 77 78
SV
2.625930390291839e-05 0:24.68 1:-9.89 2:3.96 3:-16.27 4:-6.93 5:-14.98 6:-35.1 7:-16.25 8:-9.84 9:26.1 10:3.19 11:-10.52 12:2.35 
2.625930390291839e-05 0:26.39 1:-28.13 2:21.24 3:-6.17 4:-5.2 5:-17.75 6:-37.2 7:-28.58 8:4.6 9:-0.84 10:1.22 11:4.86 12:-9.07 
2.625930390291839e-05 0:25.49 1:-15.7 2:11.02 3:0.78 4:-24.84 5:-9.85 6:-20.6 7:-13.25 8:-9.66 9:12.71 10:-1.7 11:1.02 12:2.42 
2.625930390291839e-05 0:23.95 1:-12.45 2:10.64 3:4.59 4:16.75 5:-32.35 6:-45.06 7:-22.26 8:-5.89 9:6.93 10:-12.45 11:-0.04 12:-7.1 
2.625930390291839e-05 0:24.81 1:-13.03 2:12.6 3:-3.95 4:-24.72 5:-8.15 6:-18.84 7:-12.99 8:1.98 9:4.22 10:11.08 11:-10.13 12:13.87 
2.625930390291839e-05 0:25.86 1:-20.24 2:16.08 3:1.23 4:-20.36 5:-8.05 6:-37.43 7:-4.35 8:-8.21 9:-10.46 10:5.1 11:5.56 12:-10.38 
2.625930390291839e-05 0:24.26 1:-13.32 2:10.06 3:5.46 4:-22.33 5:-23.26 6:-11.44 7:-11.39 8:4.77 9:19.81 10:-11.23 11:5.96 12:-2.53 
2.625930390291839e-05 0:24.15 1:-7.65 2:12.48 3:6.11 4:-16.32 5:-9.38 6:-12.7 7:-16.69 8:-11.17 9:-13.05 10:-13.2 11:-16.68 12:-2.48 
2.625930390291839e-05 0:26.38 1:-20.23 2:22.72 3:-17.74 4:1.17 5:-9.25 6:-25.29 7:-20.78 8:-0.47 9:16.77 10:-20.15 11:-1.34 12:4.29 
2.625930390291839e-05 0:23.99 1:-11.47 2:12.59 3:6.07 4:-19.75 5:-10.89 6:-25.12 7:-22.86 8:2.42 9:20.07 10:-7.91 11:-4.76 12:-5.6 
2.625930390291839e-05 0:23.62 1:-19.55 2:20.97 3:0.69 4:-1.22 5:-12.61 6:-12.56 7:3.86 8:-10.74 9:9.22 10:-3.26 11:0.93 12:6.49 
2.625930390291839e-05 0:25.23 1:-14.34 2:6.83 3:-2.53 4:-4.61 5:-29.16 6:-25.43 7:-11.46 8:-11.18 9:10.44 10:-15.62 11:-16 12:-10.13 
2.625930390291839e-05 0:24.4 1:-19.06 2:-24.21 3:-15.1 4:-15.85 5:-40.87 6:-8.02 7:-17.39 8:3.29 9:8.51 10:-19.02 11:-6.59 12:-15.26 
2.625930390291839e-05 0:24.54 1:-15.6 2:13.93 3:6.61 4:-20.12 5:-30.01 6:-9.39 7:-13.07 8:-1.85 9:11.54 10:3.92 11:-1.92 12:12.74 
2.625930390291839e-05 0:24.35 1:-13.27 2:15.23 3:-2.98 4:-16.93 5:-22.26 6:-21.66 7:-17.74 8:0.7 9:19.84 10:-8.93 11:-5.3 12:8.7 
2.625930390291839e-05 0:25 1:-15.76 2:17.23 3:-4.07 4:-22.56 5:-5.65 6:-24.42 7:-21.54 8:3.1 9:16.14 10:-7.73 11:3.49 12:-10.5 
2.625930390291839e-05 0:24.38 1:-12.59 2:3.1 3:-3.77 4:-25.12 5:-12.82 6:-19.17 7:-16.67 8:1.97 9:9.05 10:6.56 11:-8.16 12:1.38 
2.625930390291839e-05 0:23.29 1:-17.79 2:24.22 3:-6.7 4:-9.31 5:0.43 6:-14.68 7:2.92 8:2.28 9:13.32 10:-11.52 11:1.34 12:-6.56 
2.625930390291839e-05 0:24.49 1:-11.81 2:6.31 3:-0.12 4:-16.49 5:-18.58 6:-21.45 7:-25.6 8:7.66 9:21.72 10:-14.75 11:-6.58 12:6.06 
2.625930390291839e-05 0:26.61 1:-18.81 2:1.39 3:-30.25 4:0.98 5:-18.17 6:-29.72 7:-5.69 8:-0.33 9:-18.88 10:-16.79 11:4.29 12:1.63 
2.625930390291839e-05 0:24.58 1:-14.66 2:12.65 3:4.69 4:-12.67 5:-26.33 6:-26.99 7:-27.52 8:0.41 9:8.75 10:21.44 11:-7.45 12:0.32 
2.625930390291839e-05 0:25.5 1:-13.73 2:1.45 3:17.44 4:-12.98 5:-30.7 6:-37.16 7:-3.93 8:-17.21 9:19.14 10:-16.96 11:-18.12 12:-7.44 
2.625930390291839e-05 0:24.99 1:-13.92 2:11.58 3:4.58 4:-18.58 5:-14.03 6:-25.07 7:-22.78 8:-9.24 9:-8.27 10:1.4 11:0.19 12:-18.81 
1.409174706585538e-05 0:26.37 1:-31.43 2:14.15 3:8.61 4:22.99 5:-33.73 6:-34.33 7:-31.89 8:-3.05 9:10.49 10:7.35 11:-1.04 12:-8.81 
2.625930390291839e-05 0:22.48 1:-15.28 2:22.38 3:-5.9 4:1.36 5:0.35 6:-18.32 7:19.7 8:-19.14 9:18.35 10:1.71 11:-1.05 12:5.8 
2.625930390291839e-05 0:24.55 1:-8.23 2:5.46 3:-8.89 4:-17.08 5:-12.78 6:-29.22 7:-19.39 8:0.71 9:-2.67 10:-7.49 11:4.46 12:-12.15 
2.625930390291839e-05 0:25.64 1:-11.64 2:16.02 3:-9.5 4:-20.88 5:-12.47 6:-22.12 7:-12.91 8:2.18 9:-0.43 10:-14.16 11:1.65 12:-7.67 
2.625930390291839e-05 0:24.69 1:-16.59 2:3.95 3:3.53 4:-6.34 5:-39.82 6:-28.75 7:-8.01 8:-21.27 9:11.18 10:-12.99 11:-14.72 12:-7.59 
2.625930390291839e-05 0:24.15 1:-16.02 2:1.88 3:19.04 4:-4.47 5:-27.76 6:-21.06 7:-12.84 8:-9.25 9:-0.55 10:-7.95 11:-10.48 12:-4.43 
2.625930390291839e-05 0:24.39 1:-9.62 2:-0.94 3:-2.27 4:-0.05 5:-22.55 6:-16.67 7:-3.32 8:-18.45 9:-1.86 10:-13.26 11:-6.55 12:-2.93 
2.625930390291839e-05 0:24.78 1:-19.39 2:14 3:-2.18 4:-4.51 5:-28.98 6:-27.66 7:-9.29 8:-17.74 9:-4.99 10:-10.26 11:-11.78 12:-10.34 
2.625930390291839e-05 0:24.69 1:-11.28 2:4.77 3:-8.56 4:-2.94 5:-19.76 6:-36.01 7:-5.96 8:-20.81 9:10.92 10:-11.73 11:-17.23 12:-5.43 
2.625930390291839e-05 0:26.2 1:-19.82 2:15.26 3:-5.22 4:-17.89 5:-20.65 6:-41.17 7:-3.71 8:-10.01 9:3.47 10:-8.17 11:1.76 12:-10.66 
2.625930390291839e-05 0:25.18 1:-17.34 2:13.48 3:8.7 4:-2.67 5:-29.1 6:-29.63 7:-16.32 8:-12.98 9:2.62 10:-10.21 11:-2.32 12:-7.19 
2.625930390291839e-05 0:24.62 1:-13.08 2:5.44 3:13.75 4:-7.87 5:-22.46 6:-33.26 7:-13.98 8:-10.92 9:5.78 10:-8.14 11:-10.67 12:-1.99 
2.625930390291839e-05 0:24.21 1:-12.87 2:3.11 3:-10.3 4:-1.07 5:-20.39 6:-38.91 7:-5.04 8:-8.61 9:-7.3 10:-4.69 11:-4.8 12:2.99 
2.625930390291839e-05 0:25.31 1:-13.6 2:-4.79 3:11.54 4:14.09 5:-38.9 6:-13.28 7:-22.77 8:-31.33 9:2.58 10:-14.26 11:-12.97 12:3.02 
2.625930390291839e-05 0:24.52 1:-15.23 2:10.63 3:1.92 4:-13.29 5:-17.49 6:-28.54 7:-24.4 8:7.15 9:13.57 10:0.15 11:-10.73 12:-0.05 
2.625930390291839e-05 0:25.01 1:-14.57 2:14.18 3:6.5 4:-17.72 5:-27.57 6:-26.58 7:-9.98 8:0.34 9:5.14 10:0.92 11:-7.09 12:17.8 
2.625930390291839e-05 0:26.23 1:-22.31 2:4.45 3:-19.48 4:-22.45 5:-33.24 6:-14.41 7:-18.25 8:-2.62 9:12.52 10:-11.69 11:-10.87 12:-16.29 
2.625930390291839e-05 0:26.12 1:-31.99 2:21.17 3:9.23 4:3.32 5:-32.32 6:-15.49 7:-25.61 8:0.59 9:8.64 10:0.32 11:7.41 12:-6.77 
2.625930390291839e-05 0:24.7 1:-18.07 2:1.38 3:9.47 4:-4.24 5:-19.51 6:-48.56 7:-15.2 8:-10.93 9:-3.4 10:-3.01 11:-1.08 12:-10.1 
2.625930390291839e-05 0:24.02 1:-10.06 2:4.28 3:-9.67 4:-22.63 5:-11.04 6:-17.27 7:-15.13 8:-11.12 9:7.32 10:-4.55 11:5.98 12:-4.07 
2.625930390291839e-05 0:24.39 1:-14.19 2:8.39 3:12.49 4:-5.8 5:-15.43 6:-36.35 7:-22.84 8:-13.49 9:6.48 10:12.16 11:9.55 12:-18.06 
2.625930390291839e-05 0:24.51 1:-14.81 2:9.06 3:1.22 4:-1.84 5:-32.78 6:-28.51 7:-0.94 8:-17.16 9:3.97 10:-8.51 11:-10.59 12:-7.77 
2.625930390291839e-05 0:24.04 1:-8.23 2:15 3:3.48 4:-15.11 5:-13.23 6:-27.76 7:-6.3 8:2.49 9:-8.37 10:-1.86 11:3.03 12:-5.49 
2.625930390291839e-05 0:24.44 1:-15.79 2:-6.69 3:1.53 4:-10.97 5:-12.23 6:-14.09 7:-13.86 8:-10.54 9:7.48 10:-9.15 11:4.34 12:-9.52 
2.625930390291839e-05 0:26.21 1:-22.12 2:27.25 3:-18.25 4:3.19 5:-11.51 6:-38.75 7:-15.82 8:-3.17 9:8.37 10:-4.76 11:-6.73 12:-9.44 
2.625930390291839e-05 0:22.72 1:-15.3 2:19.66 3:-4.18 4:1 5:-2.7 6:-16.61 7:14.12 8:-18.26 9:23.36 10:-6.63 11:0.1 12:5.4 
2.625930390291839e-05 0:25.66 1:-19 2:1.97 3:6.14 4:18.98 5:-28.91 6:-45.46 7:-17.87 8:-11.55 9:4.29 10:1.69 11:-3.33 12:11.39 
2.625930390291839e-05 0:25.1 1:-13.68 2:-4.75 3:15.76 4:7.08 5:-19.7 6:-55.49 7:-14.29 8:-0.01 9:-4.85 10:13.04 11:-12.9 12:-4.76 
1.129989987148702e-05 0:24.45 1:-14.06 2:11.25 3:-3.63 4:-18.17 5:-24.09 6:-25.76 7:-22.27 8:7.21 9:12.07 10:-4.31 11:-21.67 12:2.9 
2.625930390291839e-05 0:25.35 1:-22.14 2:0.25 3:-25.81 4:-7.69 5:-32.55 6:-23.28 7:-5.9 8:-0.74 9:14.46 10:-16.81 11:-11.21 12:-7.58 
2.625930390291839e-05 0:24.41 1:-14.26 2:5.48 3:17.7 4:-6.7 5:-27.37 6:-31.76 7:-18.29 8:-6 9:3.46 10:-10.47 11:3.13 12:6.19 
2.625930390291839e-05 0:24.54 1:-11.2 2:3.57 3:-1.31 4:-16.16 5:-17.75 6:-32.84 7:-22.12 8:5.16 9:15.77 10:-6.53 11:-14.14 12:0.36 
2.625930390291839e-05 0:25.53 1:-22.11 2:22.56 3:13.91 4:-19.55 5:-26.09 6:-31.93 7:-9.34 8:2.73 9:-9.01 10:-1.17 11:3.31 12:-0.45 
2.625930390291839e-05 0:24.35 1:-13.98 2:9.21 3:-7.3 4:-20.13 5:-20.82 6:-25.14 7:-23.95 8:8.16 9:10.27 10:-4.43 11:-20.67 12:-0.78 
2.625930390291839e-05 0:26.31 1:-24.15 2:11.11 3:6.74 4:0.08 5:-9.78 6:-41.94 7:-6.57 8:-12.33 9:-2.68 10:-1.3 11:2.99 12:-19.73 
1.399730891703518e-05 0:21.98 1:-13.46 2:12.1 3:-0.16 4:4.48 5:-13.98 6:-9.32 7:9.21 8:-17.63 9:19.36 10:-3.81 11:1.85 12:5.53 
2.625930390291839e-05 0:26.22 1:-21.27 2:11.35 3:-2.38 4:-7.59 5:-2.21 6:-20.04 7:-7.65 8:4.92 9:4.96 10:-8.71 11:7.74 12:-4.59 
2.625930390291839e-05 0:24.78 1:-20.48 2:-23.3 3:-21.15 4:-3.72 5:-42.37 6:-19.98 7:-12.97 8:-2.52 9:4.99 10:-22.59 11:-9.7 12:-11.01 
2.625930390291839e-05 0:22.67 1:-17.89 2:19.92 3:-2.52 4:4.68 5:-10.23 6:-10.74 7:9.32 8:-15.58 9:12.29 10:-1.53 11:7.89 12:-1.14 
2.625930390291839e-05 0:26.23 1:-19.07 2:0.64 3:-12.6 4:-22.25 5:-18.28 6:-38.83 7:-0.62 8:-13.6 9:-4.03 10:-3.74 11:-5 12:-13.63 
2.625930390291839e-05 0:26.05 1:-23.51 2:11.22 3:2.37 4:-2.73 5:-13.43 6:-37.79 7:-9.96 8:-17.05 9:1.26 10:-0.82 11:3.42 12:-14.23 
2.625930390291839e-05 0:25.16 1:-17.02 2:7.98 3:5.71 4:-1.57 5:-15.06 6:-23.51 7:-31.96 8:-13.39 9:11.22 10:-0.59 11:-4.45 12:12.02 
2.625930390291839e-05 0:23.86 1:-15.58 2:21.6 3:-8.28 4:-0.5 5:-8.49 6:-29.4 7:18.03 8:-21.7 9:32.21 10:-14.06 11:10.62 12:-0.84 
2.625930390291839e-05 0:25.09 1:-15.71 2:11.25 3:7.74 4:-0.72 5:-14.05 6:-19.92 7:-21.63 8:-13.4 9:0.53 10:-3.04 11:-9.63 12:6.04 
2.625930390291839e-05 0:25.04 1:-17.07 2:13.86 3:9.55 4:-7.07 5:-16.39 6:-18.83 7:-27.47 8:-6.32 9:6.15 10:12.25 11:-3.27 12:6.76 
2.625930390291839e-05 0:23.67 1:-6.22 2:10.96 3:1.56 4:-21.65 5:-26.52 6:-10.51 7:-21.14 8:-0.1 9:20 10:-9.16 11:-7.02 12:8.95 
2.625930390291839e-05 0:24.11 1:-11.68 2:14.74 3:-0.54 4:-19.44 5:-24.69 6:-13.11 7:-23.04 8:-5.38 9:21.01 10:-13.75 11:-0.35 12:-2.66 
2.625930390291839e-05 0:24.69 1:-12.6 2:1.87 3:13.9 4:5.8 5:-15.81 6:-31.01 7:-14.15 8:-23.98 9:0.06 10:-1.01 11:-4.6 12:6.24 
2.625930390291839e-05 0:24.29 1:-10.22 2:6.21 3:-6.8 4:-10.41 5:-17.5 6:-18.22 7:-12.26 8:0.54 9:17.14 10:-15.42 11:-14.89 12:11.48 
2.625930390291839e-05 0:26.39 1:-22.4 2:16.6 3:-18.17 4:-3.4 5:-21.25 6:-27.22 7:-17.9 8:-6.21 9:-3.62 10:1.27 11:-0.43 12:-5 
2.625930390291839e-05 0:24.05 1:-9 2:8.97 3:-3.9 4:-18.31 5:-19.43 6:-20.09 7:-12.06 8:-1.29 9:16.51 10:-15.95 11:-5.8 12:1.4 
2.625930390291839e-05 0:25.45 1:-20.37 2:4.99 3:10.43 4:-6.3 5:-27.13 6:-23.02 7:-26.67 8:3.34 9:1.94 10:-1.88 11:4.26 12:-13.61 
2.625930390291839e-05 0:24.64 1:-13.75 2:16.56 3:5.6 4:-18.64 5:-28.87 6:-28.94 7:-8.26 8:0.65 9:15.31 10:-2.18 11:-9.59 12:13.48 
2.625930390291839e-05 0:26.19 1:-21.44 2:18.77 3:-1.02 4:-8.04 5:-27.08 6:-44.44 7:1.52 8:-6.25 9:2.12 10:-11.47 11:3.43 12:-12.77 
-2.625930390291839e-05 0:26.61 1:-28.65 2:23.04 3:-0.94 4:-19.45 5:-16.02 6:-52.06 7:-36.09 8:-12.07 9:-15.24 10:-33.72 11:6.73 12:-1.4 
-2.625930390291839e-05 0:26.37 1:-30.28 2:19.38 3:-4.79 4:-16.23 5:-6.38 6:-45.75 7:-33.58 8:-3.18 9:22.59 10:2.76 11:10.53 12:-2.02 
-2.625930390291839e-05 0:25.52 1:-23.27 2:15.32 3:13.61 4:-15.21 5:-22.32 6:-31.38 7:-24.97 8:-20.81 9:-16.84 10:-14.34 11:3.07 12:-6.84 
-2.625930390291839e-05 0:24.7 1:-13.55 2:10.29 3:9.28 4:-4.03 5:-22.72 6:-19.21 7:-23.99 8:9.76 9:16.17 10:16.18 11:2.15 12:13 
-2.625930390291839e-05 0:25.35 1:-23.31 2:12.77 3:12.82 4:-16.13 5:-16.47 6:-39.76 7:-28.69 8:-27.32 9:-24.97 10:-19.94 11:14.23 12:-3.35 
-2.625930390291839e-05 0:23.74 1:-16.01 2:9.46 3:-13.36 4:-16.68 5:-1.59 6:-25 7:-9.07 8:-39.59 9:-16.83 10:-30.6 11:-11.52 12:-11.21 
-2.625930390291839e-05 0:26.47 1:-29.54 2:0.05 3:-22.7 4:-21.45 5:-28.4 6:-42.57 7:2.26 8:-40.21 9:8.1 10:-27.37 11:-12.2 12:-3.61 
-2.625930390291839e-05 0:25.46 1:-22.22 2:13.11 3:9.29 4:-19.62 5:-26.48 6:-29.53 7:-26.68 8:-30.89 9:0.3 10:-21.56 11:-0.4 12:-4.43 
-2.625930390291839e-05 0:24.3 1:-14.31 2:7.63 3:3.88 4:5.86 5:-20.02 6:-47.63 7:-22.89 8:-11.13 9:32.82 10:-12.43 11:6.31 12:2.39 
-2.625930390291839e-05 0:25.02 1:-26.2 2:0.22 3:4.02 4:10.79 5:-13.18 6:-35.76 7:-37.49 8:-1.22 9:24.72 10:-14.01 11:12.17 12:-0.81 
-2.625930390291839e-05 0:25.16 1:-18.21 2:11.99 3:9.93 4:-20.16 5:-27.97 6:-23.32 7:-38.87 8:-18.51 9:0.05 10:-11.17 11:7.34 12:-12.63 
-2.625930390291839e-05 0:25.28 1:-17.98 2:7.26 3:6.74 4:-11.17 5:-31.27 6:-30.82 7:-39.69 8:-11.93 9:1.57 10:-18.75 11:9.37 12:-5.64 
-2.625930390291839e-05 0:25.89 1:-22.83 2:14.81 3:1.01 4:-32.69 5:0.34 6:-44.63 7:-10.75 8:-12.46 9:15.69 10:7.76 11:11.21 12:-5.92 
-2.625930390291839e-05 0:25.15 1:-21.72 2:-20.44 3:-0.62 4:-10.06 5:-15.31 6:-24.39 7:-6.06 8:1.23 9:44.12 10:2.23 11:5.54 12:6.24 
-2.625930390291839e-05 0:25.89 1:-23.14 2:5.05 3:6.56 4:-24.65 5:-16.04 6:-33.71 7:-22.72 8:-10.4 9:32.28 10:6.7 11:-6.71 12:7.68 
-2.625930390291839e-05 0:26.78 1:-24.35 2:21.9 3:6.65 4:-16.9 5:-12.41 6:-26.17 7:0.17 8:-10.61 9:33.35 10:-2.67 11:8.48 12:19.98 
-2.625930390291839e-05 0:26.23 1:-24.77 2:16.91 3:-19.67 4:-12.55 5:-5.73 6:-35.38 7:-27.9 8:-8.72 9:39.26 10:-21.22 11:3.04 12:8.99 
-2.625930390291839e-05 0:25.91 1:-19.24 2:25.5 3:0.93 4:-17.52 5:-7.98 6:-31.57 7:-10.32 8:-36.48 9:-7.81 10:-21.46 11:-12.68 12:-2.05 
-2.625930390291839e-05 0:24.95 1:-18.22 2:18.03 3:-13.48 4:-28.62 5:-29.12 6:-48.18 7:-31.73 8:-22.26 9:-13.36 10:-27.02 11:6.41 12:-11.56 
-2.625930390291839e-05 0:25.9 1:-25.44 2:11.92 3:29.66 4:-31.45 5:-30.47 6:-39.64 7:-47.74 8:-11.61 9:-22.16 10:-19 11:8.4 12:-16.43 
-2.625930390291839e-05 0:25.35 1:-14.58 2:18.46 3:-4.33 4:2.3 5:-3.1 6:-45.03 7:0.53 8:5.07 9:33.87 10:11.22 11:11.37 12:11.55 
-2.625930390291839e-05 0:24.88 1:-24.07 2:-19.18 3:-7.67 4:-36.92 5:-25.06 6:-23.75 7:-21.14 8:-22.29 9:2.71 10:-36.52 11:0.13 12:-15.22 
-2.625930390291839e-05 0:24.85 1:-18.45 2:6.37 3:8.71 4:-31.39 5:-23.86 6:-34.57 7:-33.3 8:-26.77 9:-2.93 10:-12.72 11:-4.63 12:-10.32 
-2.625930390291839e-05 0:25.69 1:-20.13 2:9.69 3:11.43 4:-27.24 5:-18.84 6:-27.09 7:-31.99 8:-12.5 9:-9.58 10:-14.85 11:6.95 12:2.4 
-2.625930390291839e-05 0:24.84 1:-14.35 2:9.9 3:0.42 4:-30.98 5:-7.06 6:-20.59 7:-38.82 8:-31.57 9:-5.32 10:-24.6 11:-8.71 12:-15.45 
-2.625930390291839e-05 0:24.76 1:-12.87 2:17.51 3:-16.41 4:-18.5 5:-15.66 6:-31.96 7:-22.51 8:-38.1 9:-11.65 10:-26.94 11:1.33 12:-11.74 
-2.625930390291839e-05 0:22.17 1:-9.68 2:3.05 3:-2.42 4:-22.25 5:-8.16 6:-30.19 7:-43.55 8:-36.01 9:-10.46 10:-28.22 11:-15.58 12:-14.24 
-2.625930390291839e-05 0:24.17 1:-9.66 2:2.34 3:-10.06 4:-40.49 5:-16.56 6:-43.89 7:-10.62 8:-31.31 9:-2.79 10:-24.21 11:-15.87 12:-11.2 
-2.625930390291839e-05 0:26.52 1:-27.2 2:23.05 3:-1.01 4:-26.04 5:-4.34 6:-38.91 7:13.68 8:-41.17 9:5.52 10:-22.54 11:-1.25 12:6.94 
-2.625930390291839e-05 0:26.04 1:-21.06 2:11.21 3:-4.06 4:-13.74 5:-19.29 6:-35.37 7:-19.6 8:-35.75 9:-10.16 10:-12.72 11:3.64 12:-5.58 
-2.625930390291839e-05 0:26.68 1:-29.23 2:25.91 3:-2.62 4:-18.31 5:-9.06 6:-43.52 7:-0.18 8:-26.98 9:4.73 10:-15.18 11:2.48 12:-3.18 
-2.625930390291839e-05 0:24.94 1:-11.62 2:5.74 3:-1.19 4:3.51 5:-17.99 6:-27.35 7:-10.78 8:-3.11 9:37.82 10:7.88 11:13.35 12:7.96 
-2.625930390291839e-05 0:25.52 1:-27.72 2:23.32 3:4.42 4:-15.84 5:-21.38 6:-23.96 7:-0.94 8:-53.13 9:5.51 10:-21.86 11:2.42 12:-3.25 
-2.625930390291839e-05 0:25.57 1:-21.78 2:9.86 3:-11.12 4:5.12 5:-28.56 6:-21.26 7:-26.32 8:-17.28 9:15.3 10:6.32 11:6.91 12:6.33 
-2.625930390291839e-05 0:24.92 1:-17.36 2:8.03 3:2.57 4:-30.18 5:-17.13 6:-35.16 7:-36 8:-10.33 9:33.35 10:17.5 11:-1.63 12:5.09 
-2.625930390291839e-05 0:26.03 1:-33.92 2:-4.41 3:-12.09 4:-12.39 5:1.34 6:-20.31 7:1.06 8:-29.79 9:-16.01 10:-19.58 11:3.02 12:10.52 
-2.625930390291839e-05 0:25.83 1:-19.07 2:8.67 3:-4.62 4:-18.49 5:-25.91 6:-37.18 7:-18.51 8:-30.04 9:-2.7 10:-19.86 11:11.92 12:-5.51 
-2.625930390291839e-05 0:25.77 1:-18.37 2:2.71 3:7.82 4:-17.6 5:13.87 6:-31.36 7:-26.52 8:-31.08 9:1.82 10:-20.56 11:-10.19 12:-3.67 
-2.625930390291839e-05 0:25.51 1:-19.03 2:11.23 3:4.64 4:-6.64 5:-22.58 6:-9.65 7:-25.19 8:6.95 9:41.64 10:7.76 11:14.54 12:5.87 
-2.625930390291839e-05 0:25.93 1:-20.33 2:29.27 3:1.78 4:-17.95 5:-3.87 6:-31.91 7:18.04 8:-18.27 9:47.84 10:9.97 11:8.2 12:10.75 
-2.625930390291839e-05 0:25.22 1:-21.27 2:-3.45 3:19.12 4:-13.28 5:-44.84 6:-60.14 7:-25.83 8:-32.36 9:-8.81 10:-15.19 11:-16.34 12:-4.32 
-2.625930390291839e-05 0:26.12 1:-19.56 2:11.69 3:-8.23 4:-18.91 5:-19.69 6:-46.6 7:-4.61 8:-38.27 9:-3.72 10:-28.73 11:-17.91 12:-5.19 
-2.625930390291839e-05 0:25.7 1:-17.49 2:15.32 3:3.47 4:-20.89 5:-18.02 6:-29.31 7:-10.55 8:-28.42 9:-9.57 10:-21.29 11:16.3 12:-12.26 
-2.625930390291839e-05 0:25.29 1:-17.89 2:11.33 3:13.22 4:-19.6 5:-18.53 6:-23.43 7:-34.24 8:-19.91 9:-13.94 10:-3.48 11:7.29 12:-5.41 
-2.625930390291839e-05 0:25.51 1:-16.1 2:6.97 3:4.05 4:-25.5 5:-20.74 6:-35.7 7:-9.61 8:-30.83 9:-0.72 10:-40.38 11:-7.88 12:-16.49 
-4.080624229743e-06 0:24.86 1:-22.75 2:10.93 3:1.21 4:-14.86 5:-22.51 6:-36.29 7:-34.2 8:-38.02 9:-14.34 10:-23.83 11:-0.61 12:-9.8 
-2.625930390291839e-05 0:25.11 1:-20.07 2:1.44 3:-6.22 4:-7.31 5:-14.5 6:-37.65 7:-35.27 8:-27.66 9:-19.6 10:-27.14 11:8.11 12:-12.21 
-2.625930390291839e-05 0:24.65 1:-11.99 2:-3.56 3:-4.06 4:-13.67 5:-16.23 6:-25.47 7:-12.69 8:-24.79 9:22.39 10:-13.02 11:-0.44 12:3.82 
-1.154960877119211e-06 0:23.97 1:-16.29 2:4.87 3:6.64 4:-16.39 5:-4.54 6:-36.29 7:-31.6 8:-36.79 9:-3.95 10:-32.46 11:-14.86 12:-9.98 
-2.625930390291839e-05 0:25.97 1:-21.33 2:14.03 3:-3.78 4:-27.43 5:-12.11 6:-47.4 7:-9.84 8:-16.15 9:27.65 10:-6.38 11:8.67 12:-4.44 
-2.625930390291839e-05 0:24.68 1:-18.52 2:14.96 3:8.3 4:-25.54 5:-12.76 6:-41.09 7:-26.7 8:-25.24 9:-15.81 10:-18.82 11:1.37 12:-7.96 
-2.625930390291839e-05 0:24.85 1:-19.53 2:2.13 3:10.15 4:-20.6 5:-9.45 6:-38.26 7:-28.82 8:-19.5 9:-0.26 10:-32.37 11:-10.62 12:-0.19 
-2.625930390291839e-05 0:25.36 1:-15.62 2:2.09 3:12.55 4:-20.44 5:-15.71 6:-41.05 7:-23.01 8:-21.5 9:27.51 10:-13.27 11:-7.62 12:2.99 
-2.625930390291839e-05 0:26.31 1:-21.18 2:14.77 3:-4.84 4:-22.87 5:-16.81 6:-49.58 7:-8.35 8:-31.65 9:4.54 10:-32.02 11:-7.59 12:12.17 
-2.625930390291839e-05 0:24.85 1:-20.7 2:-22.49 3:-3.71 4:-29.19 5:-37.68 6:-28.62 7:-20.32 8:-13.09 9:0.55 10:-25.16 11:-1.39 12:-6.83 
-2.625930390291839e-05 0:25.86 1:-21.53 2:19.68 3:3.92 4:-23.19 5:-17.85 6:-21.54 7:-17.09 8:-25.39 9:-11.71 10:-8.8 11:8.6 12:-9.12 
-2.625930390291839e-05 0:25.87 1:-23.3 2:14.69 3:11.18 4:-21.7 5:-22.45 6:-22.84 7:-33.62 8:-18.58 9:-9.37 10:-20.44 11:11.28 12:-9.68 
-2.625930390291839e-05 0:25.09 1:-19.44 2:2.81 3:12.53 4:-4.02 5:-33.98 6:-53.91 7:-5.47 8:-10.43 9:9.56 10:10.77 11:-6.76 12:1.43 
-2.625930390291839e-05 0:24.55 1:-16.62 2:0.26 3:17.46 4:-19.93 5:-20.63 6:-42.06 7:-27.48 8:-12.63 9:23.03 10:-11.27 11:8.27 12:12.41 
-2.625930390291839e-05 0:25.79 1:-24.95 2:19.85 3:13.84 4:-33.16 5:-17.56 6:-41.08 7:-19.26 8:-2.95 9:12.58 10:0.08 11:10.17 12:4.74 
-7.894066844596985e-06 0:26.69 1:-28.89 2:3.96 3:-20.97 4:-31.47 5:-20.48 6:-40.52 7:-13.11 8:-29.02 9:5.78 10:-37.39 11:-9.5 12:-11.68 
-2.625930390291839e-05 0:26.13 1:-21 2:20.69 3:12.87 4:-22.23 5:4.79 6:-22.36 7:-0.13 8:-8.33 9:40.88 10:5.21 11:6.35 12:20.23 
-2.625930390291839e-05 0:25.41 1:-21.38 2:-11.03 3:-14.4 4:0.33 5:-34.63 6:-24.78 7:-1.98 8:-4.36 9:45.98 10:-2.08 11:11.02 12:7.37 
-2.625930390291839e-05 0:26.25 1:-31.86 2:-4.25 3:4.79 4:-37.27 5:-36.56 6:-27.03 7:-16.59 8:-22.68 9:-7.13 10:-27.87 11:-19.07 12:-9.61 
-2.625930390291839e-05 0:26.05 1:-26.66 2:8.54 3:4.36 4:-11.93 5:-3.18 6:-52.51 7:-16.66 8:-22.56 9:19.87 10:-2.96 11:7.13 12:-15.43 
-2.625930390291839e-05 0:26.17 1:-17.8 2:12.94 3:3.03 4:-9.23 5:-11.96 6:-24.68 7:5.56 8:-20.53 9:46.8 10:-2.67 11:11.42 12:16.36 
-2.625930390291839e-05 0:25.25 1:-18.37 2:7.12 3:-3.42 4:-24.47 5:-9.77 6:-44.69 7:-27.17 8:-21.06 9:-19.57 10:-11.51 11:12.63 12:-13.55 
-2.625930390291839e-05 0:26.65 1:-23.47 2:22.88 3:2.26 4:-6.99 5:-9.56 6:-27.13 7:3.48 8:-17.93 9:39.08 10:1.63 11:19.8 12:6.22 
-2.625930390291839e-05 0:26.56 1:-25.7 2:4.8 3:-5.64 4:-21.49 5:1.01 6:-31.9 7:-17.9 8:-2.34 9:25.59 10:-8.4 11:14.39 12:1.91 
-2.625930390291839e-05 0:25.82 1:-25.1 2:-17.04 3:-13.41 4:-24.16 5:-26.95 6:-34.07 7:-15.46 8:-26.56 9:0.44 10:-37.78 11:-1.16 12:-8.78 
-2.625930390291839e-05 0:25.75 1:-20.27 2:2.82 3:3.73 4:-16.73 5:-10.19 6:-34.19 7:-40.63 8:-27.23 9:35.51 10:-8.13 11:-1.67 12:15.1 
-2.625930390291839e-05 0:25.78 1:-26.27 2:9.23 3:1.95 4:-14.63 5:-5.46 6:-47.21 7:-18.22 8:-24.21 9:21.66 10:-1.53 11:8.51 12:-12.72 
-2.625930390291839e-05 0:25.52 1:-14.97 2:13.21 3:-3.11 4:-5.77 5:-26.8 6:-30.92 7:-8.38 8:-25.97 9:-16.45 10:-5.02 11:6.33 12:-7.38 
-2.625930390291839e-05 0:24.1 1:-9.17 2:5.37 3:1.74 4:-35.2 5:-24.33 6:-21.13 7:-32.05 8:-11.91 9:44.57 10:-10.36 11:-1.3 12:15.95 
-2.625930390291839e-05 0:25.34 1:-23.99 2:1.71 3:7.59 4:-18.42 5:-20.89 6:-33.73 7:-33.43 8:-2.28 9:27.1 10:-0.66 11:10.39 12:-7.35 
-2.625930390291839e-05 0:25 1:-12.23 2:21.64 3:-5.66 4:-5 5:-28.78 6:-0.81 7:-11.22 8:-12.2 9:23.68 10:8.87 11:15.68 12:12.22 
-2.625930390291839e-05 0:25.32 1:-22.01 2:7.68 3:15.44 4:-19.91 5:-19.67 6:-41.21 7:-31.48 8:-28.27 9:-25.86 10:-6.66 11:-0.5 12:-6.13 
-2.625930390291839e-05 0:26.08 1:-22.68 2:18 3:-0.84 4:-17.04 5:-18.55 6:-50.13 7:-3.93 8:-11.79 9:29.28 10:-8.4 11:11 12:-5.92 
