svm_type nu_svc
kernel_type linear
nr_class 2
total_sv 152
rho -1.67049
label 1 -1
probA -3.50783
probB 0.970227
nr_sv 76 76
SV
2.45781340551864e-05 0:24.7 1:-11.06 2:6.52 3:-19.51 4:-8.82 5:-13.94 6:-29 7:-10.58 8:-9.74 9:24.84 10:-1.28 11:-13 12:10.6 
2.45781340551864e-05 0:24.78 1:-12.02 2:2.31 3:-5.19 4:-28.3 5:-12.85 6:-16.89 7:-13.18 8:-7.41 9:16.57 10:-5.58 11:-4.38 12:2 
2.45781340551864e-05 0:26.44 1:-24.75 2:13.55 3:-11.44 4:-1.95 5:-13.36 6:-20.1 7:-29.85 8:-4.82 9:9.31 10:-3.7 11:-1.4 12:-9.82 
2.45781340551864e-05 0:24.43 1:-13.34 2:5.87 3:2.78 4:-8.92 5:-10.82 6:-13.69 7:-20.94 8:-3.89 9:0.92 10:8.23 11:4.16 12:2.17 
2.45781340551864e-05 0:24.58 1:-16.99 2:-12.13 3:-15 4:-27.66 5:-30.65 6:-9.88 7:-10.7 8:-9.84 9:-6.02 10:1.61 11:-5.43 12:-7.62 
2.45781340551864e-05 0:24.15 1:-12.09 2:0.92 3:-9.3 4:6.71 5:-26.81 6:-12.78 7:-11.98 8:-22.35 9:6.81 10:-10.02 11:-5.3 12:-11.48 
2.45781340551864e-05 0:24.54 1:-18.71 2:-20.66 3:-12.72 4:-10.63 5:-26.35 6:-13.98 7:-14.99 8:-17.64 9:-6.88 10:-5.5 11:-5.37 12:-10.38 
2.45781340551864e-05 0:24.89 1:-12.88 2:9.66 3:-11.75 4:-21.14 5:-6.54 6:-15.31 7:-26.61 8:-11.01 9:3.97 10:3.35 11:8.92 12:-10.61 
2.45781340551864e-05 0:25.08 1:-16.37 2:10.1 3:8.59 4:-14.5 5:-20.35 6:-13.28 7:-9.93 8:-6.79 9:8.33 10:-0.22 11:5.83 12:2.58 
2.45781340551864e-05 0:23.91 1:-5.37 2:2.66 3:-0.48 4:-28.54 5:-7.33 6:-23.42 7:-32.27 8:-7.88 9:18.94 10:-8.27 11:3.94 12:-12.44 
2.45781340551864e-05 0:24.25 1:-13.37 2:6.25 3:2.71 4:-24.65 5:-21.08 6:-10.15 7:-18.46 8:-3.56 9:8.84 10:2.85 11:-6.5 12:8.51 
2.45781340551864e-05 0:24.5 1:-8.72 2:16.1 3:-11.73 4:-15.58 5:-4.02 6:-13.43 7:-12.09 8:-17.07 9:-3.44 10:-6.83 11:-12.37 12:-7.84 
2.45781340551864e-05 0:25.08 1:-10.96 2:14.88 3:-17.45 4:-11.52 5:-28.74 6:-8.8 7:2.28 8:-21.37 9:-2.47 10:-5.4 11:-8.3 12:-0.2 
2.45781340551864e-05 0:22.49 1:-18.45 2:18.13 3:6.05 4:-6.84 5:-5.06 6:-8.98 7:3.67 8:-9.81 9:10.62 10:-3.77 11:5.28 12:-4.37 
2.151429156675267e-05 0:24.14 1:-11.77 2:9.65 3:0.5 4:-19.64 5:-25.75 6:-15.79 7:-10.69 8:6.28 9:7.18 10:-9.01 11:-6.62 12:11.34 
2.45781340551864e-05 0:24.47 1:-9.78 2:7.47 3:-10.23 4:-19.32 5:-11.49 6:-15.14 7:-13.68 8:-4.53 9:22.71 10:-15.89 11:-14.05 12:9.92 
2.45781340551864e-05 0:24.97 1:-11.25 2:12.2 3:-12.44 4:-31.37 5:-7.3 6:-15.64 7:-33.37 8:-9.47 9:23.36 10:-5.36 11:-2.06 12:-4.34 
2.45781340551864e-05 0:24.09 1:-8.62 2:2.21 3:4.43 4:-7.54 5:-11.27 6:-26.55 7:-19.92 8:-7.47 9:4.56 10:0.54 11:-2.69 12:1.83 
2.45781340551864e-05 0:21.81 1:-16.43 2:11.56 3:6.74 4:-1.3 5:-1.71 6:-11.27 7:13.55 8:-23.8 9:5.9 10:7.14 11:-8.39 12:9.25 
2.45781340551864e-05 0:24.76 1:-11.93 2:-4.07 3:-6.7 4:-7.78 5:-14.74 6:-12.4 7:-7.87 8:-8.91 9:11.13 10:-11.47 11:3.29 12:-0.88 
2.45781340551864e-05 0:25.06 1:-11.86 2:6.24 3:-5.57 4:-12.62 5:-23.5 6:-16.69 7:-19.65 8:-5.89 9:5.08 10:5.97 11:-7.95 12:1.43 
2.45781340551864e-05 0:25.55 1:-17.71 2:6.66 3:-3.25 4:-13.24 5:-23.26 6:-18.81 7:-24.88 8:7.6 9:1.8 10:-11.79 11:-7.66 12:8.41 
2.45781340551864e-05 0:25.03 1:-11.16 2:12.35 3:-9.54 4:-17.56 5:-14.23 6:-8.76 7:-34.57 8:-21.75 9:15.71 10:-10.62 11:7.14 12:-21.88 
2.45781340551864e-05 0:24.89 1:-10.15 2:11.12 3:-22.11 4:-24.1 5:-10.64 6:-17.06 7:-23.84 8:-4.8 9:5.3 10:-7.08 11:0.67 12:-15.07 
2.45781340551864e-05 0:26.21 1:-24.68 2:6.14 3:8.96 4:18.61 5:-31.64 6:-13.01 7:-39.86 8:-7.9 9:10.11 10:-4.54 11:-0.17 12:-2.68 
2.45781340551864e-05 0:25.17 1:-10.09 2:-4.25 3:15.85 4:-20.85 5:-30.37 6:-6.59 7:-28.26 8:-11.7 9:-0.36 10:-10.38 11:-4.17 12:-18.63 
2.45781340551864e-05 0:24.15 1:-18.7 2:-4.27 3:9.58 4:-11.68 5:-31 6:-6.02 7:2.43 8:-28.39 9:0.92 10:-3.32 11:-11.24 12:-7.78 
2.45781340551864e-05 0:24.32 1:-5.51 2:4.87 3:-20.43 4:-19.94 5:-18.53 6:-13.32 7:-26.34 8:-14.89 9:12.63 10:-6.75 11:4.49 12:-6.79 
2.45781340551864e-05 0:25.21 1:-16.6 2:3.52 3:-16.21 4:-11.65 5:-39.05 6:-2.99 7:0.84 8:-32.39 9:0.21 10:-14.99 11:-1.54 12:-12.61 
2.45781340551864e-05 0:23.96 1:-8.89 2:0.98 3:-15.97 4:-11.81 5:-25.13 6:-9.61 7:0.17 8:-29.98 9:11.27 10:-7.43 11:-14.79 12:-11.96 
2.45781340551864e-05 0:24.07 1:-18.92 2:15.08 3:-13.9 4:-10.6 5:-23.17 6:-6.12 7:-3.32 8:-24.15 9:1.35 10:-6.82 11:-8.13 12:-7.34 
2.45781340551864e-05 0:24.36 1:-12.64 2:-2.46 3:-12.96 4:-7.52 5:-31.55 6:-25.69 7:-4.43 8:-14.74 9:4.2 10:-15.44 11:-11.82 12:1.34 
2.45781340551864e-05 0:25 1:-9.9 2:-9.53 3:3.53 4:8.39 5:-42.29 6:-17.14 7:-19.04 8:-15.26 9:-3.45 10:-7.51 11:8.6 12:2.3 
2.45781340551864e-05 0:25.45 1:-16.09 2:8.66 3:-13.26 4:-21.58 5:-19.53 6:-35.52 7:-17.51 8:-14.71 9:8.85 10:-10.07 11:-3.9 12:-7.23 
2.45781340551864e-05 0:24.57 1:-13.75 2:2.95 3:-10.99 4:-10.1 5:-25.24 6:-16.03 7:-7.42 8:-11.14 9:-3.91 10:-10.41 11:-4.84 12:4.9 
2.45781340551864e-05 0:24.93 1:-8.06 2:-13.45 3:8.56 4:0.38 5:-38.25 6:10.95 7:-29.95 8:-35.99 9:-9.44 10:-12.64 11:-2.38 12:-0.73 
2.45781340551864e-05 0:25.57 1:-21.02 2:-1.25 3:-19.69 4:-25.91 5:-30.73 6:-8.78 7:-10.12 8:-15.7 9:1 10:4.96 11:-5.33 12:-14.44 
2.45781340551864e-05 0:25.37 1:-17.35 2:10.63 3:-4.73 4:-6.21 5:-38.71 6:-19.67 7:2.49 8:-17.67 9:-3.77 10:-12.35 11:-4.15 12:-6.37 
2.45781340551864e-05 0:25.15 1:-13.46 2:1.17 3:4.91 4:-25.01 5:-21.63 6:-25.44 7:-2.63 8:-3.7 9:0.43 10:-16.66 11:-6.09 12:-6.79 
2.45781340551864e-05 0:24.78 1:-13.39 2:7.44 3:0.05 4:-24.75 5:-21.43 6:-13.9 7:-18.45 8:3.36 9:0.94 10:-9.79 11:-8.77 12:9.17 
2.45781340551864e-05 0:25.44 1:-14.97 2:-5.27 3:1.62 4:10.27 5:-25.95 6:-23.52 7:-32.2 8:-11.25 9:0.07 10:-4.24 11:2.08 12:7.96 
2.45781340551864e-05 0:25.22 1:-18.52 2:8.84 3:1.16 4:-12.53 5:-23.82 6:-19.35 7:-23.03 8:-12.34 9:4.59 10:-2.58 11:4.28 12:-9.49 
2.45781340551864e-05 0:26.17 1:-22.83 2:8.09 3:8.45 4:-10.52 5:-16.87 6:-9.71 7:-24.05 8:-6.65 9:5.6 10:9.68 11:-4.14 12:3.18 
2.45781340551864e-05 0:25.77 1:-17.64 2:-3.48 3:-0.22 4:-10.58 5:-11.11 6:-17.5 7:-18.67 8:-11.66 9:0.13 10:-15.24 11:9.21 12:-0.76 
2.45781340551864e-05 0:25.73 1:-18.26 2:7.09 3:12.1 4:-8.26 5:-4.52 6:-37.55 7:-28.91 8:-3.96 9:-1.57 10:8.04 11:1.12 12:-12.85 
2.45781340551864e-05 0:25.1 1:-13.63 2:13.97 3:-18.35 4:0.77 5:-11.18 6:-19.1 7:-24.02 8:-6.81 9:23.06 10:-15.72 11:-1.06 12:-10.4 
2.45781340551864e-05 0:24.97 1:-8.73 2:-9.86 3:12.31 4:-1.09 5:-19 6:-29.46 7:-28.17 8:-4.07 9:-3.71 10:-0.85 11:2.31 12:0.1 
2.45781340551864e-05 0:24.34 1:-10.75 2:1.71 3:8.26 4:-9.26 5:-36.47 6:-15.4 7:-11.68 8:-20.48 9:-3.72 10:13.82 11:-5.75 12:0.89 
2.45781340551864e-05 0:24.92 1:-11.3 2:14.82 3:-11.89 4:-24.86 5:-15.62 6:-11.63 7:-24.52 8:-14.19 9:14.36 10:-9.1 11:5.25 12:-9.07 
2.45781340551864e-05 0:24.93 1:-16.32 2:9.31 3:-11.28 4:-6.85 5:-31.07 6:-5.82 7:10.84 8:-27.32 9:-12.1 10:-17.27 11:-1.23 12:-0.57 
2.45781340551864e-05 0:25.45 1:-17.42 2:10.62 3:3.29 4:-21.05 5:-14.25 6:-32.97 7:-22.31 8:-4.61 9:8.95 10:-7.75 11:15.65 12:-14.55 
2.45781340551864e-05 0:22.17 1:-14.8 2:16.14 3:2.6 4:2.46 5:-9.54 6:-13.43 7:13.95 8:-17.55 9:16.06 10:-1.59 11:6.2 12:1.99 
2.45781340551864e-05 0:24.54 1:-11.94 2:2.57 3:-0.97 4:-16.2 5:-19.83 6:-17.18 7:-13.88 8:-7.84 9:12.39 10:-4.22 11:-17.65 12:3.33 
2.45781340551864e-05 0:25.43 1:-22.85 2:-17.06 3:-5.04 4:-18.52 5:-36.55 6:-15.25 7:-5.99 8:-9.83 9:1.89 10:-5.1 11:-12.28 12:-5.67 
2.45781340551864e-05 0:24.62 1:-9.1 2:7.46 3:8.76 4:-15.56 5:-19.41 6:-21.95 7:-23.44 8:-7.29 9:-16.66 10:3.27 11:-11.4 12:8.91 
2.45781340551864e-05 0:24.53 1:-10.46 2:7.87 3:-1.16 4:-16.44 5:-22.39 6:-31.44 7:-15.69 8:-1.85 9:9.49 10:-5.7 11:-7.04 12:1.93 
2.45781340551864e-05 0:26.24 1:-18.58 2:14.79 3:-2.07 4:10.85 5:-32.43 6:-8.72 7:-32.5 8:-14.1 9:1.74 10:-1.47 11:4.36 12:-0.67 
2.45781340551864e-05 0:22.7 1:-20.44 2:11.87 3:11.93 4:-2.69 5:-15.32 6:-1.94 7:4.64 8:-19.37 9:17.38 10:1 11:6.75 12:11.36 
2.45781340551864e-05 0:25.39 1:-17.91 2:3.51 3:-4.07 4:-10.93 5:-9.11 6:-28.3 7:-18.91 8:-18.8 9:8.41 10:-3.59 11:12.39 12:-21.99 
1.535290951602693e-05 0:25.18 1:-19.15 2:-13.39 3:-30.95 4:1.61 5:-33.3 6:-16.04 7:-6.04 8:-19.76 9:-0.67 10:-6.96 11:-6.72 12:-6.67 
2.45781340551864e-05 0:25.79 1:-17.93 2:15.42 3:-2.43 4:-30.71 5:1.23 6:-11.66 7:-17.77 8:-23.1 9:22.08 10:-7.72 11:10.17 12:-9.94 
2.45781340551864e-05 0:24.9 1:-11.9 2:9.2 3:-4.33 4:-10.38 5:-2.92 6:-19.14 7:-13.09 8:-2.51 9:-7.49 10:-8.64 11:-13.94 12:9.82 
2.45781340551864e-05 0:26.13 1:-18.58 2:-1.25 3:-20.93 4:-27.8 5:-18.95 6:-35.41 7:-21.44 8:-5.94 9:0.33 10:-10.14 11:-8.27 12:-18.06 
2.45781340551864e-05 0:23.42 1:-18.8 2:20.36 3:-0.97 4:4.05 5:-17.94 6:-11.25 7:10.01 8:-24.97 9:24.47 10:-7.87 11:11.11 12:2.92 
2.45781340551864e-05 0:24.54 1:-19.3 2:-28.01 3:-25.45 4:-11.54 5:-38.51 6:-8.09 7:-6.18 8:-21.28 9:2.58 10:-10.22 11:-1.5 12:-5.85 
2.45781340551864e-05 0:24.47 1:-13.1 2:5.18 3:-7.29 4:-12.43 5:-0.85 6:-9.2 7:-25.63 8:-8.29 9:-2.7 10:-0.88 11:-2.9 12:2.94 
2.45781340551864e-05 0:25.65 1:-17.77 2:6.86 3:-0.75 4:-14.41 5:-9.71 6:-10.32 7:-28.37 8:-4 9:3.31 10:4.65 11:1.04 12:7.12 
2.45781340551864e-05 0:26.1 1:-17 2:8.93 3:-17.22 4:-9.25 5:-24.5 6:-16.26 7:-19.61 8:-20.57 9:5.58 10:1.52 11:-2.88 12:-14.05 
2.45781340551864e-05 0:24.05 1:-11.23 2:7.61 3:0.89 4:-20.03 5:-20.68 6:-16.94 7:-12.6 8:-3.57 9:9.95 10:-3.99 11:-14.04 12:-0.16 
2.45781340551864e-05 0:25.37 1:-17.29 2:8 3:-5.17 4:-6.84 5:-4.81 6:-15.4 7:-22.93 8:-14.07 9:4.88 10:1.25 11:16.57 12:-11.31 
2.45781340551864e-05 0:24.3 1:-9.01 2:1.53 3:-1.09 4:6.66 5:-20.36 6:-16.28 7:-17.71 8:-22 9:-14.04 10:-6.12 11:7.59 12:-4.95 
2.45781340551864e-05 0:24.18 1:-10.69 2:8.74 3:-3.19 4:-23.22 5:-18.71 6:-0.74 7:-15.62 8:-4.12 9:10.63 10:-14.39 11:0.82 12:-3.83 
2.45781340551864e-05 0:26.3 1:-19.19 2:13.05 3:-8.81 4:-21.3 5:-10.21 6:-32.37 7:-7.62 8:-2.15 9:-12.4 10:2.24 11:6.95 12:-5.74 
2.45781340551864e-05 0:26.43 1:-22.3 2:4.04 3:4.81 4:-7.6 5:-33.39 6:-7.81 7:-30.84 8:-11.66 9:3.79 10:-1.34 11:0.5 12:-17.55 
2.45781340551864e-05 0:25.02 1:-13.7 2:7.49 3:-3.7 4:-25.46 5:-12.2 6:-18.38 7:-16.35 8:-1.09 9:8.25 10:-3.35 11:-7.14 12:11.21 
2.45781340551864e-05 0:24.39 1:-6.72 2:3.29 3:-0.82 4:-19.64 5:-17.63 6:-9.57 7:-13.38 8:-4.47 9:4.63 10:-11.3 11:-6.13 12:3.97 
-2.107066601787994e-05 0:24.59 1:-17.02 2:0.43 3:-1.04 4:-9.19 5:-4.92 6:-40.29 7:-28.67 8:-44.6 9:-19.26 10:-29.73 11:0.37 12:-9.92 
-2.45781340551864e-05 0:26.3 1:-24.3 2:17.9 3:-7.54 4:-29.33 5:-10.54 6:-44.67 7:-36.47 8:-19.85 9:-7.02 10:-19.58 11:0.4 12:-8.58 
-2.45781340551864e-05 0:24.28 1:-7.67 2:8.1 3:-18.17 4:-10.19 5:-5.42 6:-11.45 7:-12.74 8:-11.76 9:36.24 10:4.27 11:14.46 12:14.61 
-2.45781340551864e-05 0:25.35 1:-18.29 2:5.74 3:1.27 4:-14.89 5:-24.15 6:-20.18 7:-17.48 8:-24.77 9:-9.52 10:-14.91 11:0.67 12:-0.62 
-2.45781340551864e-05 0:24.75 1:-11.85 2:1.89 3:-8.06 4:-50.31 5:-3.9 6:-33.59 7:-30.02 8:-13.53 9:-11.79 10:-9.29 11:-2.09 12:-2.03 
-2.45781340551864e-05 0:24.92 1:-16.82 2:-12.56 3:-10.06 4:-34.51 5:-16.78 6:-9.33 7:-8.04 8:-9.03 9:29.94 10:8.68 11:4.14 12:5.88 
-2.45781340551864e-05 0:24.82 1:-16.26 2:5.71 3:9.11 4:-15.81 5:-35.5 6:-12.09 7:-36.44 8:-28.94 9:-4.99 10:-11.32 11:3.49 12:-7.34 
-2.45781340551864e-05 0:24.22 1:-17.57 2:11.63 3:2.35 4:-13.8 5:-26.62 6:-28.99 7:-31.46 8:-33.81 9:-10.88 10:-17.52 11:5.78 12:1.87 
-2.45781340551864e-05 0:26.78 1:-24.61 2:7.16 3:-0.43 4:-18.96 5:-10.62 6:-30.59 7:-37.67 8:-29.6 9:-5.26 10:-37.69 11:6.9 12:-5.27 
-2.45781340551864e-05 0:25.4 1:-18.58 2:10.21 3:2.91 4:-18.12 5:-32.34 6:-25.88 7:-24.34 8:-29.72 9:-0.72 10:-19.91 11:-1.77 12:3.05 
-2.45781340551864e-05 0:26.14 1:-26.75 2:7.73 3:7.94 4:-34.36 5:-15.22 6:-37.49 7:-24.73 8:-36.26 9:-0.01 10:-7.13 11:-7.99 12:-3.61 
-2.45781340551864e-05 0:25.32 1:-14.35 2:17.67 3:-16.29 4:-29.11 5:-15.6 6:-28.39 7:-8.82 8:-49.62 9:-7.01 10:-17.24 11:-5.61 12:0.03 
-2.45781340551864e-05 0:25.45 1:-19.92 2:10.85 3:1.92 4:-18.83 5:-40.6 6:-21.55 7:-37.5 8:-32.56 9:0.23 10:-24.77 11:4.57 12:-9.43 
-2.45781340551864e-05 0:25.76 1:-24.68 2:-15.77 3:-7.02 4:-32.15 5:-11.27 6:-28.74 7:-18.81 8:-42.24 9:-12.56 10:-22.12 11:-1.16 12:-12.15 
-2.45781340551864e-05 0:25.9 1:-21.7 2:12.96 3:-4.2 4:-23.62 5:-5.5 6:-25.63 7:-36.54 8:-32.17 9:-12.19 10:-27.82 11:-1.63 12:-13.51 
-2.45781340551864e-05 0:24.25 1:-7.3 2:0.72 3:1.65 4:-37.47 5:0.18 6:-31.01 7:-39.12 8:-15.42 9:44.33 10:-6.23 11:9.3 12:-3.72 
-2.45781340551864e-05 0:24.86 1:-23.11 2:-17.94 3:-14.46 4:-37.15 5:-21.41 6:-9.78 7:-18.86 8:-37.87 9:-1.05 10:-27.85 11:-2.08 12:-13.57 
-2.45781340551864e-05 0:26.58 1:-23.15 2:21.59 3:11.55 4:-21.69 5:-2.56 6:-16.59 7:-0.68 8:-8.2 9:37.79 10:1.58 11:15.57 12:-0.21 
-1.613831681549098e-05 0:25.94 1:-21.05 2:8.06 3:21.19 4:-38.48 5:-27.54 6:-28.61 7:-41.24 8:-28.29 9:-7.56 10:-22.29 11:8.78 12:-19.41 
-2.45781340551864e-05 0:26.56 1:-23.39 2:17.5 3:-7.93 4:-13.97 5:-9.69 6:-55.22 7:-9.4 8:-34.68 9:-8.82 10:-16.08 11:3.43 12:5.5 
-2.45781340551864e-05 0:24.43 1:-7.83 2:-1.86 3:6.4 4:-18.73 5:-24.6 6:-0.94 7:-26.92 8:14.87 9:37.6 10:21.46 11:7.57 12:18.26 
-2.45781340551864e-05 0:24.05 1:-8.97 2:8.32 3:-13.01 4:-11.54 5:-8.51 6:-21.46 7:-13.78 8:3.11 9:30.34 10:7.28 11:14.85 12:15.94 
-2.45781340551864e-05 0:25.45 1:-16.02 2:13.49 3:-2.27 4:-35.66 5:-15.79 6:-15.97 7:-33.21 8:-34.39 9:-19.71 10:-29.99 11:-4.27 12:-11 
-2.45781340551864e-05 0:25.28 1:-20.72 2:1.03 3:1.72 4:-28.96 5:-29.93 6:-26.91 7:-24.23 8:-29.14 9:-2.96 10:-22.15 11:-11.28 12:10.72 
-2.45781340551864e-05 0:25.53 1:-13.5 2:1.18 3:-11.21 4:-33.31 5:-8.04 6:-25.72 7:-22.33 8:-13.88 9:48.2 10:-16.48 11:-9.28 12:17.84 
-2.45781340551864e-05 0:21.3 1:-11.34 2:-1.17 3:-2.25 4:-27.85 5:1.39 6:-28.86 7:-23.09 8:-38.11 9:-11.77 10:-27.11 11:0.1 12:-4.18 
-2.45781340551864e-05 0:25.61 1:-21.48 2:-9.99 3:-15.14 4:-34.87 5:-24.51 6:-22.11 7:-18.12 8:-37.84 9:-7.61 10:-24.37 11:-9.39 12:-14.45 
-2.45781340551864e-05 0:25.29 1:-14.45 2:11.36 3:-13.8 4:-13 5:-17.45 6:-22.18 7:-20.09 8:-38.6 9:-11.74 10:-17.07 11:9.93 12:-3 
-2.45781340551864e-05 0:26.37 1:-21.78 2:13.75 3:-31.16 4:-23.9 5:-12.26 6:-42.28 7:-32.94 8:-35.94 9:-10.83 10:-24.52 11:-5.63 12:-10.38 
-2.45781340551864e-05 0:24.77 1:-23.55 2:10 3:14.09 4:-8.63 5:-4.39 6:-11.24 7:6.52 8:-15.13 9:42.7 10:3.36 11:12.51 12:10.08 
-2.45781340551864e-05 0:25.63 1:-20.2 2:5.06 3:-4.72 4:-18.72 5:-22.39 6:-34.5 7:-19.57 8:-37.36 9:-3.99 10:-19.31 11:8.84 12:-0.17 
-2.45781340551864e-05 0:25.18 1:-17.64 2:0.03 3:-8.5 4:-23.5 5:-22.97 6:-24.78 7:-18.98 8:-41.57 9:-11.93 10:-16.34 11:1.48 12:-5.45 
-2.45781340551864e-05 0:24.94 1:-19.15 2:9.76 3:20.27 4:-12.31 5:-26.98 6:1.37 7:1.44 8:-25.23 9:43.7 10:7.58 11:3.15 12:10.26 
-2.45781340551864e-05 0:25.96 1:-20.87 2:4.92 3:-6.99 4:-19.08 5:-23.23 6:-40.61 7:-24.47 8:-35.45 9:-8.46 10:-24.41 11:7.76 12:-4.98 
-2.45781340551864e-05 0:25.92 1:-26.34 2:1.84 3:0.61 4:-4.52 5:-13.3 6:-24.7 7:-34.1 8:-20.06 9:23.6 10:6.6 11:-5.89 12:1.46 
-2.45781340551864e-05 0:24.79 1:-11.81 2:-2.85 3:2.54 4:-12.28 5:0.91 6:-9.28 7:-28.38 8:-17.37 9:7.32 10:-9.4 11:-10.05 12:0.09 
-2.45781340551864e-05 0:26.26 1:-26.41 2:1.81 3:6.71 4:3.9 5:-22.79 6:-24.4 7:-44.34 8:-12.7 9:32.67 10:-7.32 11:5.99 12:1.33 
-2.45781340551864e-05 0:25.74 1:-18.4 2:0.9 3:-0.24 4:-15.11 5:-30.31 6:-7.88 7:-26.19 8:-6.21 9:24.66 10:4.52 11:1.99 12:4.3 
-2.45781340551864e-05 0:25.22 1:-21.89 2:4.85 3:-10.85 4:-18.19 5:-32.56 6:-23.89 7:-30.3 8:-38.46 9:-6.74 10:-25.6 11:-9.14 12:-17.46 
-2.45781340551864e-05 0:24.88 1:-15.66 2:8.68 3:8.83 4:-5.91 5:-11.06 6:-8.66 7:-4.18 8:-2.03 9:33.72 10:9.33 11:21.82 12:25.22 
-2.45781340551864e-05 0:24.13 1:-8.84 2:7.83 3:-1.85 4:-0.66 5:-26.19 6:-1.63 7:5.36 8:-11.95 9:31.5 10:9.55 11:20.3 12:17 
-2.45781340551864e-05 0:25.03 1:-9.48 2:-12.55 3:7.84 4:-9.2 5:-31.73 6:-25.36 7:-30.98 8:-1.45 9:14.46 10:7.36 11:7.74 12:-0.9 
-2.45781340551864e-05 0:24.61 1:-13.47 2:-4.39 3:-1.11 4:-18.08 5:-18.56 6:-34.63 7:-33.81 8:-26.29 9:-24.34 10:-41.26 11:3.71 12:-1.45 
-2.45781340551864e-05 0:25.04 1:-12.4 2:-8.06 3:3.49 4:-11 5:-11.21 6:-17.68 7:-29.24 8:-11.92 9:15.3 10:-16.44 11:-5.56 12:9.22 
-2.45781340551864e-05 0:25.68 1:-18.72 2:2.96 3:-7.12 4:-15.31 5:-10.87 6:-12.34 7:-30.42 8:-15.53 9:17.18 10:-0.89 11:-10.78 12:2.36 
-2.45781340551864e-05 0:26.13 1:-23.99 2:13.9 3:-2.9 4:-10 5:-16.86 6:-30.32 7:-19.48 8:-40.17 9:-9.54 10:-17.28 11:4.27 12:-5.89 
-2.45781340551864e-05 0:25.48 1:-11.39 2:-11.76 3:4.18 4:-3.69 5:-33.35 6:-23.24 7:-23.13 8:-19.28 9:24.85 10:-6 11:18.63 12:9.35 
-2.45781340551864e-05 0:23.9 1:-9.46 2:-13.07 3:-13.47 4:1.08 5:-11.97 6:-10.76 7:-30.61 8:-11.93 9:10.66 10:-0.23 11:15.46 12:-0.81 
-2.45781340551864e-05 0:26.19 1:-29.21 2:14.52 3:17.58 4:-22.2 5:-28.43 6:-17.73 7:-2.18 8:-52.6 9:3.29 10:-18.83 11:-2.61 12:-10.86 
-2.45781340551864e-05 0:26.64 1:-28.35 2:19.3 3:-2.84 4:-20.68 5:-18.01 6:-36.99 7:-2.46 8:-54.3 9:12.58 10:-14.44 11:-7.32 12:-10.59 
-2.45781340551864e-05 0:24.4 1:-12.07 2:-7.36 3:3.81 4:-29.96 5:-7.82 6:-34.31 7:-34.23 8:-30.96 9:-16.84 10:-34.93 11:-8.51 12:-7.99 
-2.45781340551864e-05 0:26.03 1:-18.77 2:9.59 3:-4.31 4:-16.8 5:-28.5 6:-26.68 7:-3.39 8:-24.61 9:20.73 10:-11.42 11:4.05 12:1.04 
-2.45781340551864e-05 0:24.89 1:-15.01 2:9.18 3:-5.92 4:-22.56 5:-17.43 6:-21.9 7:-12.2 8:-49.69 9:0.08 10:-24.65 11:1.78 12:10.53 
-2.45781340551864e-05 0:25.93 1:-19.61 2:14.18 3:-9.67 4:-5.8 5:0.42 6:-15.83 7:-13.88 8:7.99 9:39.15 10:1.81 11:19.61 12:22.31 
-2.45781340551864e-05 0:24.91 1:-22.91 2:-22.08 3:-1.62 4:-35.19 5:-22.02 6:-26.87 7:-9.89 8:-25.17 9:2.02 10:-25.25 11:3.66 12:-4.58 
-2.45781340551864e-05 0:26.29 1:-21.7 2:16.86 3:1.81 4:-29.31 5:-26.33 6:-11.35 7:-14.38 8:-41.42 9:-18.74 10:-12.8 11:2.88 12:-0.04 
-2.45781340551864e-05 0:26.06 1:-21.1 2:3.06 3:9.61 4:-21.02 5:1.81 6:-47.5 7:-37.18 8:-12.01 9:21.52 10:10.36 11:3.31 12:-6.51 
-2.45781340551864e-05 0:24.53 1:-16.19 2:6.24 3:11.68 4:-21.57 5:-25.97 6:-16.51 7:-35.44 8:-24.13 9:-10.95 10:-12.49 11:1.74 12:-4.41 
-2.45781340551864e-05 0:26.53 1:-28.46 2:12.17 3:9.59 4:-37.48 5:-20.97 6:-17.1 7:-17.62 8:-41.84 9:7.29 10:-14.47 11:-4.88 12:-14.71 
-2.45781340551864e-05 0:25.65 1:-22.14 2:-19.75 3:-3.05 4:-44.96 5:-17.29 6:-27.3 7:-12.14 8:-40.7 9:-13.79 10:-16.9 11:-4.61 12:-8.34 
-2.45781340551864e-05 0:24.83 1:-13.04 2:4.33 3:-1.66 4:-29.57 5:-16.4 6:-42.29 7:-24.97 8:-11.42 9:34.73 10:-7.62 11:-1.11 12:7.23 
-2.45781340551864e-05 0:24.81 1:-11.1 2:3.36 3:9.09 4:-28.85 5:-12.31 6:-32.39 7:-30.94 8:-15.88 9:3.54 10:-0.16 11:-6.66 12:11.77 
-2.45781340551864e-05 0:26.14 1:-23.34 2:-6.82 3:-22.48 4:-17.94 5:-15.57 6:-29.7 7:-7.34 8:-42.54 9:-5.62 10:-22.32 11:-1.7 12:-6.79 
-2.45781340551864e-05 0:25.76 1:-23.07 2:-15.66 3:0.09 4:-22.9 5:-22.18 6:-13.76 7:-4.72 8:-9.02 9:35.63 10:2.64 11:1.29 12:8.39 
-2.45781340551864e-05 0:26.14 1:-25.94 2:14.17 3:20.35 4:-16.26 5:-15.94 6:-15.23 7:-1.14 8:-25.82 9:46.25 10:5.52 11:15.22 12:23.13 
-2.423635230459508e-05 0:25.74 1:-21.71 2:11.83 3:-4.86 4:-42.81 5:5.6 6:-19.97 7:-25.56 8:-30.36 9:47.32 10:-4.89 11:17.56 12:-3.82 
-2.45781340551864e-05 0:25.52 1:-21.34 2:2.77 3:6.46 4:-13.23 5:-14.69 6:-24.02 7:-28.69 8:-18.35 9:-16.98 10:-11.94 11:6.02 12:-0.09 
-2.45781340551864e-05 0:25.5 1:-23.71 2:-21.42 3:-16.99 4:-30.88 5:-19.8 6:-20.99 7:-4.61 8:-43.87 9:1.62 10:-24.93 11:7.86 12:-5.38 
-2.45781340551864e-05 0:25.97 1:-23.43 2:-3.19 3:14.45 4:-6.5 5:-33.28 6:-28.82 7:-22.65 8:-11.87 9:31.76 10:-11.07 11:6.14 12:-14.62 
-2.45781340551864e-05 0:27.06 1:-26.17 2:27.47 3:1.05 4:-27.55 5:-13.96 6:-26.12 7:-16.24 8:-29.79 9:-2.93 10:-16.45 11:0.03 12:2.68 
-2.45781340551864e-05 0:25.64 1:-14.78 2:10.53 3:-15.74 4:-7.51 5:-24.34 6:-38.27 7:-9.33 8:-36.11 9:-7.78 10:-17.57 11:6.23 12:-6.69 
-2.45781340551864e-05 0:25.63 1:-20.75 2:3.16 3:-6.64 4:-19.01 5:1.01 6:-25.1 7:-30.46 8:-22.58 9:27.38 10:0.19 11:18.89 12:-4.97 
-2.45781340551864e-05 0:25.21 1:-19.14 2:3.31 3:5.48 4:-25.84 5:-15.75 6:-25.8 7:-26.76 8:-37.68 9:-19.64 10:-12.81 11:-4.84 12:1.37 
-2.45781340551864e-05 0:24.94 1:-17.32 2:17.61 3:-11.93 4:-37.46 5:-10.37 6:-18.49 7:-28.92 8:-39.83 9:-16.03 10:-17.55 11:-1.81 12:-3.99 
-2.45781340551864e-05 0:25.6 1:-16.87 2:7.99 3:-16.66 4:-44.09 5:-13.6 6:-35.53 7:-13.29 8:-21.37 9:-12.8 10:-24.84 11:-7.94 12:5.85 
-2.45781340551864e-05 0:25.39 1:-18.13 2:3.48 3:-12.53 4:-39.27 5:-9.26 6:-27.51 7:-25.78 8:-23.15 9:-7.78 10:-39.96 11:-15.11 12:5.47 
