svm_type nu_svc
kernel_type linear
nr_class 2
total_sv 155
rho -1.5267
label 1 -1
probA -3.9203
probB 0.593915
nr_sv 77 78
SV
3.000656575235042e-05 0:22.67 1:5.54 2:-6.24 3:-18.06 4:-2.78 5:-25.69 6:-29.39 7:-3.68 8:-12.4 9:4.31 10:-3.26 11:6.81 12:-0.17 
3.000656575235042e-05 0:24.3 1:-13.75 2:7.71 3:-17.4 4:-2.77 5:-17.11 6:-36.84 7:-8.67 8:-16.11 9:-8.41 10:-20.9 11:28.55 12:-14 
3.000656575235042e-05 0:23.2 1:-3.17 2:-3.05 3:1.54 4:2.42 5:-32.2 6:-30.34 7:-14.73 8:-16.11 9:-10.76 10:10.94 11:13.52 12:-11.37 
3.000656575235042e-05 0:23.63 1:-5.67 2:-17.17 3:-11.77 4:-13.39 5:-39.96 6:-23.31 7:-10.44 8:-27.83 9:-5.49 10:30.77 11:-13.49 12:-9.81 
3.000656575235042e-05 0:23.02 1:2.9 2:-6.29 3:-0.21 4:-29.96 5:-17.34 6:-15.57 7:-12.83 8:3.3 9:-21.92 10:8.17 11:12.88 12:-4.01 
3.000656575235042e-05 0:23.13 1:2.08 2:2.03 3:-9.92 4:-15.64 5:-6.98 6:-27.43 7:-10.33 8:-34.92 9:-0.74 10:0.06 11:6.52 12:-11.75 
3.000656575235042e-05 0:22.84 1:0.35 2:-4.32 3:-1.49 4:-12.55 5:-19.18 6:-7.87 7:-14.99 8:3.64 9:-6.83 10:-11.44 11:19.11 12:-4.8 
3.000656575235042e-05 0:23.56 1:-11.97 2:-23.87 3:-1.92 4:-24.52 5:-25.54 6:-13.74 7:-6.66 8:-13.09 9:-26.81 10:13.96 11:-3.66 12:-7.15 
3.000656575235042e-05 0:23.09 1:2.38 2:12.37 3:-20.63 4:-9.11 5:-19.7 6:-11.73 7:-11.21 8:-12.8 9:-3.31 10:-29.23 11:29.89 12:2.48 
3.000656575235042e-05 0:23.08 1:4.29 2:-1.3 3:-4.7 4:-24.28 5:-7.61 6:-21.76 7:-23.92 8:-1.58 9:2.7 10:-10.3 11:16.88 12:-11.43 
3.000656575235042e-05 0:23.13 1:3.76 2:-1.06 3:12.88 4:-11.26 5:-38.68 6:-11.24 7:-23.41 8:11.53 9:-27.98 10:-10.17 11:30.7 12:-3.4 
3.000656575235042e-05 0:23.94 1:-14.17 2:-25.53 3:-13.6 4:-27.22 5:-42.01 6:-4.47 7:-6.12 8:-6.34 9:-21.12 10:7.52 11:6.29 12:-16.69 
3.000656575235042e-05 0:20.2 1:-6.21 2:10.84 3:0.04 4:-6.07 5:3.96 6:-11.22 7:4.75 8:-4.57 9:6.65 10:5.19 11:6.08 12:2.75 
3.000656575235042e-05 0:21.27 1:-6.27 2:8.31 3:7.53 4:-4.84 5:-13.49 6:-18.45 7:8.3 8:-20.06 9:-0.02 10:12.6 11:5.48 12:7.07 
3.000656575235042e-05 0:22.85 1:1.68 2:-10.59 3:-0.1 4:-16.88 5:-24.14 6:-18.72 7:-21.75 8:15.75 9:-5.56 10:-8.81 11:2.74 12:6.26 
3.000656575235042e-05 0:22.98 1:-1.05 2:6.82 3:-11.33 4:-6.5 5:-12.36 6:-27.5 7:-14.05 8:-8.52 9:-10.35 10:-11.33 11:18.94 12:5.64 
2.209997656251923e-05 0:21.92 1:4.37 2:6.2 3:-3.53 4:-18.21 5:-26.3 6:-10.87 7:-9.04 8:2.38 9:-14.77 10:7.6 11:3.97 12:9.81 
3.000656575235042e-05 0:22.98 1:3.5 2:-7.41 3:-6.66 4:-18.09 5:-37.31 6:-21.9 7:-0.19 8:-11.84 9:-9.96 10:7.6 11:-5.28 12:-5.76 
3.000656575235042e-05 0:23.6 1:-4.51 2:12.22 3:-16.1 4:-28.15 5:-7.68 6:-25.35 7:-15.1 8:-26.82 9:5.87 10:-1.89 11:2.89 12:-4.49 
3.000656575235042e-05 0:20.49 1:-6.24 2:3.96 3:6.13 4:-5.13 5:-2.02 6:-7.58 7:10.73 8:-14.3 9:1.79 10:5.81 11:2.62 12:4.39 
3.000656575235042e-05 0:22.41 1:1.43 2:-5.22 3:7.96 4:-10.08 5:-25.61 6:-24.54 7:-27.33 8:1.54 9:-11.21 10:16.31 11:-0.44 12:-1.43 
3.000656575235042e-05 0:20.26 1:-5.37 2:2.6 3:9.77 4:-5.46 5:-0.19 6:-9.71 7:11.28 8:-11.33 9:9.52 10:1.13 11:7.07 12:-0.75 
3.000656575235042e-05 0:23.32 1:1.31 2:-5.6 3:-2.93 4:-7.6 5:-43.46 6:0.87 7:-30.16 8:-1.99 9:12.28 10:-22.37 11:10.7 12:-25.88 
3.000656575235042e-05 0:23.8 1:-4.81 2:10.44 3:-12.19 4:-0.05 5:-17.64 6:-11.8 7:0.45 8:-18.09 9:-7.99 10:-6.84 11:21.89 12:-8.74 
3.000656575235042e-05 0:23.96 1:-12.15 2:-4.44 3:13.26 4:7.72 5:-37.46 6:-20.12 7:-19.27 8:-14.24 9:-10.34 10:-6.66 11:30.13 12:-16.5 
3.000656575235042e-05 0:23.39 1:5.2 2:6.35 3:-15.97 4:-19.5 5:-18.59 6:-30.65 7:-5.65 8:-27.07 9:-18.04 10:-2.15 11:5.41 12:-14.78 
3.000656575235042e-05 0:23.52 1:4.86 2:1.5 3:-22.78 4:-18.34 5:-14.41 6:-20.2 7:-2.1 8:-18.21 9:-3.41 10:-4.15 11:9.64 12:-7.94 
3.000656575235042e-05 0:19.82 1:-4.32 2:6.92 3:1.36 4:-0.7 5:2.52 6:-9.08 7:8.8 8:-7.18 9:12.4 10:-0.04 11:9.81 12:2.71 
3.000656575235042e-05 0:23.21 1:-5.74 2:-5.53 3:-10.74 4:-17.15 5:-32.47 6:-13.6 7:-6.25 8:-17.69 9:-17.16 10:2.85 11:13.28 12:-10.06 
3.000656575235042e-05 0:22.71 1:-13.4 3:2.26 4:11.52 5:-37.99 6:-26.69 7:-9.9 8:-25.84 9:-0.79 10:1.88 11:9.53 12:-7.94 
3.000656575235042e-05 0:23.53 1:-8.02 2:2.59 3:-1.35 4:-15.06 5:-31.09 6:0.48 7:-14.9 8:-11.16 9:-25.91 10:-0.78 11:24.7 12:-3.44 
3.000656575235042e-05 0:23.21 1:10.61 2:4.83 3:-22.56 4:-21.99 5:-11.03 6:-27.35 7:-7.97 8:-30.05 9:-6.47 10:-10.42 11:2.77 12:-3.65 
3.000656575235042e-05 0:25.23 1:-12.61 2:-0.22 3:-11.08 4:-24.4 5:-19.6 6:-33.76 7:-4.07 8:-16.67 9:2.57 10:-9.07 11:-0.75 12:0.32 
3.000656575235042e-05 0:23.34 1:-6.19 2:1.85 3:-7.39 4:-8.32 5:-27.51 6:-15.7 7:-20.91 8:-20.95 9:-13.05 10:15.43 11:7.36 12:-12.37 
3.000656575235042e-05 0:23.31 1:-3.34 2:-5.94 3:-4.03 4:-12.62 5:-27.34 6:-22.09 7:-18.03 8:-9.96 9:-7.06 10:-2.38 11:13.46 12:-7.13 
3.000656575235042e-05 0:23.24 1:-4.53 2:3.43 3:-15.53 4:-8.93 5:-25.93 6:-20.52 7:-7.44 8:-9.34 9:-9.16 10:-0.19 11:15.17 12:-3.03 
3.000656575235042e-05 0:23.73 1:-5.39 2:-1.78 3:-11.87 4:6.53 5:-22.79 6:-18.01 7:-12.49 8:-12.5 9:-12.25 10:-22.33 11:33.72 12:-12.73 
3.000656575235042e-05 0:20.12 1:-3.82 2:3.19 3:8.85 4:-2.37 5:-9.79 6:-4.79 7:2.55 8:-12.5 9:11.25 10:4.56 11:8.33 12:6.46 
3.000656575235042e-05 0:23.28 1:-7.04 2:-38.19 3:-5.48 4:-28.15 5:-46.37 6:-15.33 7:-4.46 8:-2.03 9:-21.88 10:6.1 11:5.33 12:-2.98 
3.000656575235042e-05 0:23.68 1:-1.17 2:-6.33 3:22.56 4:-23.61 5:-54.15 6:-9.74 7:-7.13 8:-9.74 9:-10.21 10:-20.45 11:0.19 12:-5.82 
3.000656575235042e-05 0:21.1 1:-7.18 2:13.21 3:-1.39 4:0.42 5:-11.09 6:-16.45 7:9.51 8:-17.01 9:9.64 10:2.08 11:11.06 12:2.15 
3.000656575235042e-05 0:20.63 1:-3.11 2:-22.42 3:-1.21 4:-21.83 5:-25.48 6:-10.89 7:-7.27 8:-11.44 9:-8 10:-10.64 11:-4.65 12:-2.83 
3.000656575235042e-05 0:19.93 1:-3.69 2:7.23 3:2.64 4:2.4 5:-5.05 6:-5.57 7:1.34 8:-11.89 9:8.37 10:-1.34 11:8.78 12:3.35 
3.000656575235042e-05 0:20.02 1:-4.79 2:6.86 3:2.1 4:-2.94 5:3.07 6:-9.5 7:9.56 8:-9.72 9:13.12 10:1.51 11:7.63 12:4.65 
3.000656575235042e-05 0:23.62 1:-7.39 2:-0.85 3:14.49 4:-9.63 5:-23.94 6:-16.28 7:-20.83 8:8.58 9:-22.93 10:-0.17 11:20.74 12:-3.36 
3.000656575235042e-05 0:23.18 1:3.26 2:3.53 3:-4.76 4:-22.2 5:-10.96 6:-16.59 7:-10.65 8:-31.6 9:-11.47 10:-2.75 11:15.82 12:-7.4 
3.000656575235042e-05 0:23.74 1:-7.3 2:-3.31 3:27.27 4:-1.99 5:-19.7 6:-28.55 7:-10.98 8:-18.4 9:-30.34 10:0.97 11:17.27 12:7.37 
3.000656575235042e-05 0:24.06 1:9.11 2:0.14 3:-15.7 4:-15 5:-11.3 6:-32.59 7:-6.4 8:-25.61 9:2.08 10:-1.42 11:12.55 12:-5.77 
3.000656575235042e-05 0:24.52 1:-9.37 2:-6.66 3:24.04 4:-15.18 5:-28.68 6:-17.04 7:-10.03 8:-24.67 9:-15.82 10:1.77 11:18.38 12:-1.59 
3.000656575235042e-05 0:22.69 1:-2.19 2:0.39 3:-7.35 4:-15.4 5:-33.39 6:-8.03 7:-11.01 8:-21.59 9:-19.21 10:1.68 11:10.14 12:-4.85 
3.000656575235042e-05 0:23.87 1:-7.16 2:-24.93 3:4.07 4:-30.21 5:-35.75 6:-7.59 7:-0.79 8:-17.23 9:-17.34 10:25.16 11:-6.36 12:-5.17 
3.000656575235042e-05 0:20.61 1:-4.81 2:5.91 3:4.7 4:-5.29 5:-10.99 6:-4.71 7:0.01 8:-9.38 9:10.42 10:0.84 11:9.92 12:2.57 
3.000656575235042e-05 0:24.55 1:-11.55 2:-7.56 3:-3.4 4:-20.25 5:-42.07 6:-30.98 7:8.12 8:-15.51 9:-9.62 10:18.66 11:-20.96 12:-3.3 
3.000656575235042e-05 0:23.23 1:0.88 2:7.7 3:1.51 4:-8.64 5:-15.94 6:-33.37 7:-0.52 8:-14.78 9:-22.21 10:0.97 11:15.03 12:-3.71 
2.670031608937237e-05 0:19.86 1:-1.24 2:5.81 3:2.84 4:-3.12 5:-0.92 6:-14.06 7:9.13 8:-6.3 9:8.86 10:4.59 11:9.19 12:4.47 
3.000656575235042e-05 0:22.72 1:8.07 2:-2.13 3:-0.16 4:-20.91 5:-23.91 6:-16.64 7:-17.6 8:4.1 9:-16.7 10:4.03 11:6.63 12:1.34 
1.250777322374769e-05 0:22.67 1:3.7 2:-9.59 3:-2.67 4:-17.48 5:-20.72 6:-16.95 7:-29.55 8:10.91 9:-15.4 10:7.01 11:-7.4 12:3.55 
3.000656575235042e-05 0:22.97 1:5.34 2:-0.12 3:-0.93 4:-11.42 5:-28.39 6:-0.49 7:-40.33 8:2.31 9:-4.61 10:-2.01 11:7.86 12:-11.38 
3.000656575235042e-05 0:20.16 1:-3.12 2:2.61 3:8.32 4:-2.2 5:-6.72 6:-11.93 7:8.92 8:-15.89 9:7.9 10:6.44 11:7.64 12:5.97 
3.000656575235042e-05 0:23.47 1:-4.17 2:8.68 3:-8.32 4:-1.63 5:-21.43 6:-23.42 7:-4.46 8:-9.03 9:-26.74 10:-9.36 11:21.51 12:2.27 
3.000656575235042e-05 0:24.26 1:-3.57 2:2.63 3:-11.85 4:-6.68 5:-3.49 6:-25.47 7:-10.82 8:-38.19 9:-4.16 10:0.94 11:8.01 12:-22.27 
3.000656575235042e-05 0:25.03 1:-14.38 2:-2.72 3:-23.36 4:-40.31 5:-21.17 6:-31.99 7:-7.98 8:-23.21 9:-17.45 10:-10.66 11:2.18 12:-9.86 
1.37083485052368e-05 0:24 1:-10.13 2:-7.22 3:11.24 4:2.84 5:-36.82 6:-32.83 7:5.05 8:-13.63 9:-22.3 10:-15.83 11:10.92 12:-7.32 
3.000656575235042e-05 0:20.27 1:-4.35 2:11.35 3:-6.03 4:2.73 5:-3.17 6:-13 7:11.02 8:-15 9:15.76 10:-0.68 11:12.05 12:2.91 
3.000656575235042e-05 0:22.55 1:1.89 2:-1.86 3:0.44 4:-8.09 5:-16.69 6:-5.19 7:-23.13 8:-12.33 9:-12.86 10:7.68 11:6.26 12:1.46 
3.000656575235042e-05 0:23.63 1:-4.04 2:7.61 3:-16.92 4:-9.61 5:2.4 6:-21.43 7:-7.51 8:-31.93 9:-7.93 10:-0.13 11:16.49 12:-15.44 
3.000656575235042e-05 0:23.35 1:-1.13 2:-7.26 3:-2.29 4:3.04 5:-21.5 6:-16.27 7:-22.17 8:-12.03 9:-8.86 10:5.03 11:6.01 12:5.58 
3.000656575235042e-05 0:23.32 1:7.97 2:-18.37 3:-5.11 4:0.41 5:-29.61 6:4.11 7:-30.93 8:-21.16 9:3.35 10:5.79 11:5.11 12:-19.51 
3.000656575235042e-05 0:23.34 1:-2.48 2:12.77 3:-20.89 4:-26.41 5:3.3 6:-20.33 7:3.32 8:-23.16 9:-15.93 10:5.12 11:14.5 12:-6.5 
3.000656575235042e-05 0:23.87 1:-13.78 2:-32.11 3:-15.06 4:-18.6 5:-38.27 6:-12.12 7:-8.99 8:-5.53 9:-13.04 10:-3.31 11:6.94 12:-6.81 
3.000656575235042e-05 0:22.58 1:2.2 2:-2.59 3:-1.4 4:-18.74 5:-20.42 6:-5.48 7:-10.85 8:-9.73 9:-5.62 10:1.75 11:6.22 12:-3.72 
3.000656575235042e-05 0:22.67 1:2.19 2:-3.5 3:-1.42 4:-8.39 5:-24.18 6:-8.92 7:-27.6 8:6.59 9:5.96 10:1 11:2.7 12:4.34 
3.000656575235042e-05 0:20.36 1:-6.58 2:9.76 3:-0.64 4:-4.04 5:4.54 6:-16.65 7:13.16 8:-10.01 9:10.54 10:3.65 11:8.7 12:4.17 
3.000656575235042e-05 0:22.47 1:7.92 2:-5.86 3:-1.49 4:-26.58 5:-21.35 6:-5.47 7:3.26 8:-2.9 9:-27.97 10:-5.85 11:3.04 12:11.47 
3.000656575235042e-05 0:23.45 1:-4.95 2:0.08 3:-20.67 4:-8.93 5:-26.65 6:-16.99 7:-15.56 8:-5.59 9:-14.93 10:-4.88 11:20.15 12:-10.26 
3.000656575235042e-05 0:23.57 1:-6.48 2:-2.87 3:-7.6 4:-16.88 5:-15.65 6:-22.27 7:-10.51 8:-4.92 9:-15.48 10:-8.79 11:25.76 12:-12.22 
3.000656575235042e-05 0:23.35 1:5.18 2:8.79 3:-7.91 4:-18.64 5:-27.68 6:-36.62 7:8.72 8:-27.55 9:-9.42 10:-4.66 11:15.88 12:-10.03 
-3.000656575235042e-05 0:23.39 1:-16.17 2:13.39 3:17.81 4:-21.32 5:-22.91 6:-25.57 7:-18.19 8:-30.51 9:-22.55 10:-11.69 11:29.79 12:2.34 
-3.000656575235042e-05 0:23.92 1:-9.64 2:8.32 3:-5.87 4:-27.21 5:-13.03 6:-49.94 7:-35.53 8:-13.05 9:-25.03 10:-25.51 11:20.93 12:-11.78 
-1.377220599092895e-05 0:23.57 1:-9.65 2:17.75 3:-9.84 4:-43.71 5:-27.39 6:-27.48 7:5.07 8:-50.68 9:-28.11 10:-20.22 11:3.62 12:0.05 
-3.000656575235042e-05 0:24.58 1:-16.36 2:9.62 3:8.27 4:-35.52 5:-28.56 6:-16.67 7:-2.09 8:-37.42 9:-16.18 10:-13.68 11:11.13 12:5.86 
-3.000656575235042e-05 0:24.25 1:-14.34 2:2.27 3:16.38 4:-26.67 5:-13.47 6:-26.53 7:-22.23 8:-37.1 9:-36.05 10:-23.12 11:9.54 12:-0.82 
-3.000656575235042e-05 0:23.93 1:-10.61 2:16.39 3:-12.71 4:-40.72 5:-8.29 6:-32.88 7:-12.94 8:-26.01 9:-54.13 10:-28.26 11:14.54 12:10.49 
-4.25662562331827e-06 0:24.13 1:-10.68 2:-14.25 3:-7.52 4:-37.21 5:-24.92 6:-45.19 7:-14.94 8:-56.43 9:-12.14 10:7.62 11:-9.6 12:-18.2 
-3.000656575235042e-05 0:24.24 1:-14.25 2:8.25 3:9.64 4:-34.26 5:-43.33 6:-20.19 7:-0.03 8:-36.82 9:-13.91 10:-25.71 11:19.38 12:-3.4 
-3.000656575235042e-05 0:23.85 1:-9.05 2:-7.52 3:2.55 4:-42.67 5:-11.17 6:-29.89 7:-30.78 8:-19.15 9:-21.13 10:-16.07 11:9.38 12:-8.24 
-3.000656575235042e-05 0:24.31 1:-10.74 2:-14.72 3:9.43 4:-14.73 5:-18.51 6:-39.63 7:-44.46 8:-10.55 9:-20.42 10:-37.22 11:35.83 12:-11.22 
-3.000656575235042e-05 0:22.94 1:-9.45 2:3.59 3:13.15 4:-40.41 5:-25.97 6:-13.23 7:-23.59 8:-23.67 9:-22.15 10:-5.83 11:14.06 12:-6.51 
-3.000656575235042e-05 0:23.72 1:-12.75 2:3.56 3:13.13 4:-31.3 5:-39.74 6:-19.65 7:-21 8:-30.14 9:-26.73 10:-13.11 11:16.18 12:-3.89 
-3.000656575235042e-05 0:24.59 1:-18.03 2:-20.35 3:2.73 4:-47.82 5:-8.58 6:-30.54 7:-8.96 8:-39.14 9:-30.61 10:-5.9 11:3.36 12:-12.73 
-3.000656575235042e-05 0:23.05 1:-5.03 2:-7.38 3:-3.04 4:-27.75 5:-3.93 6:-27.37 7:-35.8 8:-29.71 9:-15.46 10:-2.39 11:1.88 12:-7.59 
-3.000656575235042e-05 0:23.56 1:-6.27 2:5.7 3:-11.05 4:-25.01 5:-18.29 6:-52.2 7:-24.7 8:-40.89 9:-16.66 10:-20.67 11:6.7 12:-19.36 
-3.000656575235042e-05 0:23.56 1:-0.91 2:5.17 3:-13.18 4:-20.08 5:1.48 6:-28.56 7:-24.93 8:-12.33 9:11.12 10:-2.94 11:4.49 12:-1.38 
-3.000656575235042e-05 0:23.37 1:-5.05 2:9.33 3:14.43 4:-12.53 5:-22.11 6:-0.76 7:7.33 8:-24.28 9:29.29 10:24.48 11:12.3 12:12.69 
-3.000656575235042e-05 0:23.09 1:-7.21 2:13.85 3:-0.14 4:-27.85 5:-22.03 6:-36.04 7:-11.4 8:-39.14 9:-38.97 10:-26.3 11:11.84 12:3.42 
-3.000656575235042e-05 0:23.34 1:-7.07 2:5.94 3:5.79 4:-17.73 5:-12.12 6:-24.44 7:21.09 8:-16.1 9:11.47 10:21.92 11:32.95 12:1.33 
-3.000656575235042e-05 0:23.51 1:-0.84 2:-12.61 3:-3.9 4:-40.2 5:-15.34 6:-25.37 7:-17.28 8:3.66 9:1.04 10:11.85 11:14.48 12:7.32 
-3.000656575235042e-05 0:24.21 1:-12.41 2:-23.49 3:-7.51 4:-31.99 5:-23.48 6:-1.41 7:1.66 8:-0.56 9:19.09 10:21.61 11:24.74 12:2.74 
-3.000656575235042e-05 0:23.5 1:-3.86 2:-2.47 3:17.71 4:-28.01 5:-30.8 6:4.91 7:-8.69 8:-9.62 9:7.9 10:23.63 11:31.91 12:13.67 
-3.000656575235042e-05 0:23.02 1:-0.64 2:14.27 3:0.25 4:-22.9 5:-6.27 6:10.33 7:-18.62 8:-6.75 9:8.66 10:5.94 11:24.57 12:9.76 
-3.000656575235042e-05 0:23.49 1:-2.89 2:-5.76 3:-3.62 4:-43.49 5:-26.76 6:-42.39 7:-5.61 8:-40.02 9:-19.67 10:-12.26 11:-0.96 12:-11.88 
-3.000656575235042e-05 0:22.91 1:0.63 2:7.36 3:-11.41 4:-11.75 5:-15.94 6:11.75 7:6.5 8:-20.92 9:10.21 10:10.33 11:33.6 12:19.54 
-3.000656575235042e-05 0:23.27 1:-5.21 2:3 3:-13.08 4:-22.28 5:-5.14 6:-37.04 7:-24.3 8:-16.29 9:9.65 10:-14.25 11:23.46 12:6.52 
-3.000656575235042e-05 0:22.71 1:0.96 2:0.91 3:-3.41 4:-32.64 5:-18.6 6:-21.03 7:-16.58 8:-4.52 9:7.56 10:9.36 11:11 12:15.09 
-5.991557650029235e-06 0:23.27 1:-6.07 2:-1.64 3:4.74 4:-39.1 5:-15.99 6:-16.12 7:-21.3 8:-37.81 9:-41.85 10:-30.81 11:5.9 12:6.93 
-3.000656575235042e-05 0:22.06 1:-5.44 2:2.82 3:4.33 4:-7.7 5:-21.32 6:-11.01 7:1.74 8:-8.26 9:13.48 10:14.77 11:17.52 12:7.03 
-3.000656575235042e-05 0:23.5 1:-8.18 2:1.96 3:0.75 4:-13.95 5:-23.55 6:-8.9 7:-4.05 8:-6.09 9:17.83 10:14.94 11:35.3 12:4.94 
-3.000656575235042e-05 0:22.77 1:-10.57 2:5.58 3:9.15 4:-21.26 5:-30.77 6:4.63 7:-12.35 8:-1.55 9:14.99 10:11.6 11:14.87 12:7.87 
-3.000656575235042e-05 0:23.64 1:-9.18 2:4.78 3:-14.83 4:-20.91 5:-20.5 6:-51.86 7:-26.46 8:-31.96 9:-25.25 10:-23.25 11:12.83 12:-8.87 
-3.000656575235042e-05 0:25.57 1:-12.52 2:19.12 3:-1.37 4:-22.75 5:2.48 6:-38.55 7:-2.43 8:-41.7 9:-0.47 10:-14.46 11:-0.53 12:8.17 
-3.000656575235042e-05 0:24.26 1:-9.43 2:5.38 3:13.98 4:-20.94 5:1.38 6:-16.71 7:8.47 8:-24.37 9:38.51 10:13.3 11:18.67 12:10.63 
-3.000656575235042e-05 0:23.01 1:-8.42 2:0.37 3:-5.38 4:-16.17 5:-43.33 6:-33.4 7:-29.72 8:-38.92 9:-28.28 10:-32.44 11:23.5 12:-27.08 
-3.000656575235042e-05 0:22.71 1:-1.58 2:5.65 3:10.26 4:-19.73 5:-18.95 6:2.77 7:-0.37 8:-8.16 9:26.47 10:20.75 11:30.47 12:20.62 
-3.000656575235042e-05 0:23.52 1:-8.66 2:0.81 3:1.44 4:-29.1 5:-24.69 6:-31.76 7:-16.99 8:-9.76 9:-33.26 10:-40.5 11:3.72 12:4.98 
-3.000656575235042e-05 0:23.77 1:-5.48 2:20.41 3:-3.31 4:-16.13 5:2.11 6:-27.61 7:10.36 8:-15.23 9:37.73 10:12.59 11:19.81 12:11.66 
-3.000656575235042e-05 0:24 1:-10.84 2:6.75 3:4.07 4:-40.17 5:-7.2 6:-15.78 7:-5.08 8:-35.19 9:-39.73 10:-39.66 11:-0.96 12:-8.31 
-3.000656575235042e-05 0:23.24 1:-5.41 2:6.28 3:2.41 4:-24.15 5:-33.39 6:6.35 7:17 8:-19.59 9:3.7 10:10.11 11:28.32 12:17.12 
-3.000656575235042e-05 0:23.09 1:2.74 2:-16.39 3:-1.26 4:-18.81 5:-50.33 6:-21.52 7:-48.56 8:-22.78 9:-13.93 10:-7.96 11:-7.05 12:-22.06 
-3.000656575235042e-05 0:23.28 1:-3.53 2:-11.78 3:-9.52 4:-12.33 5:-19 6:-32.45 7:-15.01 8:-17.09 9:25.19 10:4.86 11:8.33 12:2.03 
-3.000656575235042e-05 0:23.88 1:-5.88 2:8.22 3:-7.59 4:-13.22 5:-9.12 6:-16.15 7:-20.34 8:-14.55 9:17.01 10:1.29 11:12.67 12:4.49 
-3.000656575235042e-05 0:23.23 1:9.67 2:1.9 3:-22.31 4:-25.75 5:-5.29 6:-30.77 7:-12.45 8:-31.93 9:20.01 10:-6.12 11:14.02 12:8.09 
-3.000656575235042e-05 0:23.81 1:-4.9 2:-17.38 3:-6.97 4:-21.49 5:-14.2 6:-30.91 7:-20.67 8:-35.18 9:-33.6 10:-23.56 11:22.04 12:-14.85 
-3.000656575235042e-05 0:23.82 1:-5.43 2:-17.96 3:-4.46 4:-16.68 5:-42.48 6:-24.3 7:-42.76 8:-30.28 9:-0.31 10:-29.22 11:2.79 12:-11.04 
-3.000656575235042e-05 0:24 1:-8.14 2:-5.23 3:-15.65 4:-3.45 5:-19.55 6:-26.81 7:-20.47 8:-18.32 9:11.66 10:-26.26 11:42.11 12:-5.98 
-3.000656575235042e-05 0:23.4 1:-6.31 2:1.68 3:-14.85 4:-21.6 5:-17.12 6:-26.94 7:-15.23 8:-15.62 9:17.39 10:1.12 11:21.82 12:7.51 
-3.000656575235042e-05 0:23.52 1:-4.86 2:-6.3 3:-2.51 4:-24.09 5:-16.88 6:-26.74 7:-24.81 8:-16.85 9:19.86 10:1.09 11:21.44 12:2.83 
-3.000656575235042e-05 0:23.56 1:-7.87 2:4.96 3:5.15 4:-33.67 5:-31.16 6:-13.07 7:-6.49 8:-7.72 9:-0.05 10:6.19 11:10.71 12:8.16 
-3.000656575235042e-05 0:23.66 1:-7.29 2:8.06 3:14.82 4:-18.48 5:-20.52 6:-11.45 7:-0.19 8:-28.7 9:43.73 10:10.78 11:16.82 12:14.68 
-3.000656575235042e-05 0:23.57 1:-7.93 2:-10.43 3:0.8 4:-33.73 5:1.66 6:-40.57 7:-37.05 8:-11.63 9:-13.4 10:-15.62 11:-7.44 12:-10.17 
-3.000656575235042e-05 0:23.12 1:-3.95 2:-8.12 3:2.78 4:-40.93 5:-11.44 6:-48.15 7:-10.7 8:-25.49 9:-29.46 10:-11.16 11:10.04 12:-3.29 
-3.000656575235042e-05 0:23.04 1:-6.88 2:11.66 3:-0.12 4:-17.24 5:-23.33 6:1.85 7:9.55 8:-15.49 9:33.91 10:9.58 11:25 12:25.25 
-3.000656575235042e-05 0:23.29 1:0.22 2:-16.7 3:-1.41 4:-19.41 5:-35.42 6:-4.93 7:-47.2 8:-53.6 9:-4.65 10:-20.39 11:-20.15 12:-20.68 
-3.000656575235042e-05 0:23.51 1:-11.04 2:-32.39 3:3.5 4:-48.71 5:-26.17 6:-30.15 7:-4.21 8:-27.47 9:-23.73 10:-11.4 11:12.85 12:-4.52 
-3.000656575235042e-05 0:24.6 1:-10.11 2:16.63 3:-3.49 4:-15.55 5:-11.8 6:-25.65 7:7.7 8:-31.09 9:30.55 10:11.83 11:19.07 12:8.25 
-3.000656575235042e-05 0:23.87 1:-1.94 2:-7.65 3:23.85 4:-34.04 5:-42.56 6:-15.71 7:-16.15 8:-15.72 9:15.01 10:-15.74 11:6.55 12:3.07 
-3.000656575235042e-05 0:23.45 1:-7.32 2:-3.85 3:7.38 4:-39.33 5:-18.47 6:-20.08 7:-28.66 8:-35.12 9:-40.75 10:-32.61 11:-0.95 12:-2.39 
-3.000656575235042e-05 0:24.72 1:-12.72 2:21.01 3:-27.71 4:-16.85 5:-15.65 6:-44.43 7:-14.92 8:-43.76 9:-21.17 10:-41.31 11:13.74 12:-7.49 
-2.098945936424918e-05 0:23.61 1:-8.88 2:-10.49 3:-12.93 4:-16.55 5:-30.09 6:-22.45 7:-59.38 8:-35.59 9:-2.64 10:-25.77 11:8.53 12:-20.18 
-3.000656575235042e-05 0:23.52 1:-5.45 2:11.92 3:0.84 4:-7.63 5:-9.6 6:-9.17 7:-4.09 8:-33.93 9:40.46 10:5.84 11:16.2 12:15.87 
-3.000656575235042e-05 0:23.39 1:3.24 2:-20.19 3:0.06 4:-15.26 5:-15.17 6:-28.9 7:-42.72 8:1.93 9:21.21 10:4.46 11:11.75 12:-12.59 
-3.000656575235042e-05 0:22.92 1:0.33 2:-14.76 3:-1.16 4:1.33 5:-39.52 6:-26.71 7:-15.69 8:-23.78 9:37.67 10:2.72 11:4.3 12:-4.19 
-3.000656575235042e-05 0:24.19 1:-6.64 2:-15.02 3:16.05 4:-16.22 5:-23.03 6:-27.04 7:-30.92 8:0.69 9:-1.03 10:2.34 11:26.42 12:-17.02 
-3.000656575235042e-05 0:24.86 1:-18.93 2:0.53 3:18.96 4:-32.59 5:-13.91 6:-24.41 7:-23.4 8:-29.83 9:-38.73 10:-4.04 11:14.5 12:-1.08 
-3.000656575235042e-05 0:24.68 1:-15.46 2:-7.17 3:-16.98 4:-40.08 5:-19.02 6:-39.17 7:-1.92 8:-42.16 9:-17.87 10:0.15 11:-9.24 12:-2 
-3.000656575235042e-05 0:24.1 1:-9.05 2:8.56 3:10.05 4:-17.95 5:-3.79 6:-20.75 7:11.11 8:-29.22 9:19.71 10:22.48 11:25.23 12:11.44 
-3.000656575235042e-05 0:24.32 1:-12.12 2:-29.27 3:-7.76 4:-22.64 5:-17.98 6:-6.36 7:-1.24 8:-0.02 9:25.48 10:9.2 11:24.07 12:11.53 
-3.000656575235042e-05 0:23.07 1:3.73 2:-21.25 3:-8.07 4:-13.65 5:-20.24 6:-5.89 7:-38.75 8:-26.18 9:25.29 10:6.83 11:12.43 12:-15.1 
-3.000656575235042e-05 0:23.75 1:-4.83 2:-12.79 3:-3.89 4:-14.77 5:-15.01 6:-28.79 7:-29.36 8:-19.62 9:13.04 10:5.59 11:9.06 12:14.39 
-3.000656575235042e-05 0:23.28 1:-1.31 2:-9.97 3:-2.5 4:-23.61 5:-18.72 6:-20.3 7:-37.44 8:-1.95 9:28.37 10:-0.54 11:8.75 12:8.85 
-3.000656575235042e-05 0:23.42 1:-8.56 2:4.63 3:12.97 4:-17.26 5:-24.12 6:4.38 7:-3.42 8:-4.38 9:9.49 10:33 11:23.02 12:18.5 
-3.000656575235042e-05 0:22.79 1:-1.3 2:6.88 3:-0.96 4:-10.54 5:-24.71 6:0.42 7:15.34 8:-8.95 9:10.7 10:22.25 11:23.45 12:15.63 
-3.000656575235042e-05 0:23.19 1:-0.3 2:-8.31 3:-2.38 4:-33.7 5:-14.5 6:-17.63 7:-19.65 8:-19.28 9:16.83 10:0.95 11:11.66 12:2.93 
-3.000656575235042e-05 0:23.61 1:-4.68 2:-10.73 3:-8.1 4:-36.05 5:-10.84 6:-31.81 7:-30.65 8:-22.02 9:-22.26 10:-32.81 11:2.17 12:-3.23 
-3.000656575235042e-05 0:22.82 1:-2.63 2:-1.16 3:-5.38 4:-42.81 5:-23.57 6:-26.7 7:-23.8 8:-17.16 9:-24.75 10:-26.65 11:13.31 12:9.5 
-3.000656575235042e-05 0:23.62 1:-11.16 2:6.97 3:-2.73 4:-34.65 5:-33.71 6:-5.82 7:-3.67 8:-49.03 9:-28.64 10:-32.74 11:24.76 12:-13.24 
